# VAD: 1
# Viterbi loop action: No record

BIGRAM: method Katz, cutoff 1
coef[7]: 0.000000 0.987179 0.911681 0.990000 0.990000 0.920940 0.990000

TRIGRAM: method Katz, cutoff 1
coef[7]: 0.000000 0.860093 0.937550 0.926382 0.981741 0.965072 0.990000

\data\
ngram 1=44
ngram 2=1717
ngram 3=52108

\1-grams:
-1.4448 &	-4.4494
-99.9900 </s>
-99.9900 <s>
-1.8383 @	-3.7594
-1.6269 A	-1.4222
-1.6807 D&	-3.8314
-2.0974 D&i	-0.3480
-2.5650 E	-2.3058
-1.4730 I	-1.0689
-1.5271 N	-1.0222
-1.3459 S	-1.2379
-1.6392 U	-4.3506
-1.8051 Y	-3.0046
-1.5519 a	-1.5640
-1.9750 aU	-2.4118
-1.7647 ai	-3.9064
-1.5851 b	-0.6004
-1.6183 d	-0.6092
-1.2644 dc	-1.8206
-1.7439 e	-1.0249
-2.0933 f	-3.0063
-1.4386 g	-4.5587
-1.6775 h	-0.6685
-1.5373 i	-4.3613
-1.8065 j	-0.4741
-1.6349 kh	-0.8741
-1.5030 l	-0.6883
-1.6264 m	-0.7157
-1.4334 n	-0.9528
-1.6377 o	-1.0014
-1.9946 oe	-2.6256
-3.3169 pf	-1.1157
-1.7492 ph	-0.7219
-1.3172 r	-1.2856
-1.7345 s	-1.2588
-2.3729 tS	-1.3389
-1.2635 tc	-2.0114
-1.5504 th	-0.9062
-1.8752 ts	-3.6855
-1.3683 u	-1.4071
-1.5599 v	-0.5904
-1.5699 x	-1.1578
-2.1626 y	-1.0207
-1.6724 z	-3.0171

\2-grams:
-2.3730 & @	-0.2145
-1.6581 & A	+0.0919
-2.0990 & D&	-0.3743
-2.3627 & D&i	-0.1690
-3.1460 & E	-0.4926
-1.8616 & I	-0.3026
-1.2812 & N	-1.5551
-1.2402 & S	-1.0492
-1.8722 & U	+0.6336
-2.2005 & Y	-0.3547
-1.9211 & a	-0.3892
-2.0157 & aU	-0.1847
-1.9741 & ai	-0.2228
-1.8672 & b	-0.5879
-2.2295 & d	-0.4474
-0.9932 & dc	-0.4269
-2.1699 & e	-0.2165
-2.0180 & f	-0.2131
-1.8697 & g	-0.2365
-1.7251 & h	-0.6522
-1.8664 & i	-0.2641
-2.1554 & j	-0.4264
-1.8584 & kh	+0.0165
-1.2876 & l	-1.0748
-1.4427 & m	-1.0473
-1.1679 & n	-1.3493
-1.9868 & o	-0.1018
-2.4928 & oe	-0.2304
-3.8985 & pf	-0.1731
-2.0733 & ph	-0.0761
-0.9591 & r	-1.5845
-1.4625 & s	-0.1734
-2.5287 & tS	-0.2228
-0.9369 & tc	-0.7162
-1.9211 & th	-0.2900
-2.3757 & ts	-0.3026
-1.6447 & u	-0.3239
-1.4483 & v	-0.9674
-1.4690 & x	-0.9062
-2.6247 & y	-0.1815
-1.5298 & z	+0.1591
-1.5901 @ &	-0.1121
-1.3405 @ A	-0.0529
-2.0535 @ D&	-0.1911
-2.3672 @ D&i	-0.5279
-2.5184 @ E	-0.3098
-1.7027 @ I	-0.4383
-1.1607 @ N	-0.5101
-1.6176 @ S	-0.2218
-1.9164 @ U	-0.2051
-1.9325 @ Y	-0.3334
-1.6187 @ a	-0.1887
-2.0038 @ aU	-0.1779
-1.7699 @ ai	-0.1786
-2.2359 @ b	-0.3210
-2.4073 @ d	-0.2125
-1.1049 @ dc	-0.2104
-1.7603 @ e	-0.4376
-2.3736 @ f	-0.2575
-1.9517 @ g	-0.2920
-1.6986 @ h	-0.1141
-1.6256 @ i	-0.0281
-1.9278 @ j	-0.3287
-1.8632 @ kh	-0.1297
-1.2811 @ l	-0.8139
-1.3854 @ m	-0.4633
-1.3552 @ n	-0.4998
-1.8379 @ o	-0.1983
-2.1241 @ oe	-0.3610
-3.6020 @ pf
-2.1868 @ ph	-0.2950
-0.8255 @ r	-0.7221
-1.7881 @ s	-0.4004
-2.9956 @ tS	-0.2512
-1.1256 @ tc	-0.1810
-1.9822 @ th	+0.0302
-2.6434 @ ts	-0.2345
-1.4010 @ u	-0.3116
-1.6644 @ v	-0.3620
-1.5175 @ x	-0.3252
-2.5007 @ y	-0.3773
-1.7269 @ z	-0.3015
-1.9021 A &	-0.1954
-2.4300 A @	-0.3844
-2.0499 A D&	-0.1247
-2.2422 A D&i	-0.3010
-2.8670 A E	-0.2218
-1.9792 A I	-0.2332
-1.2566 A N	-0.5003
-1.3395 A S	-0.6122
-1.9717 A U	-0.1903
-2.1122 A Y	-0.2413
-1.7588 A a	-0.2574
-2.1346 A aU	-0.2380
-1.8382 A ai	-0.3043
-1.5672 A b	-0.5063
-2.0290 A d	-0.3357
-1.0480 A dc	-0.5838
-2.0456 A e	-0.2096
-1.8405 A f	+0.5327
-1.7043 A g	-0.0027
-1.3740 A h	-0.7168
-1.7726 A i	-0.0573
-1.9325 A j	-0.2273
-1.6446 A kh	-0.6510
-1.4238 A l	-0.4618
-1.3337 A m	-0.8596
-1.1824 A n	-0.7425
-1.8301 A o	-0.3030
-2.3466 A oe	-0.2665
-2.9961 A pf	-0.1451
-1.6868 A ph	-0.3904
-1.2235 A r	-0.9233
-1.5162 A s	-0.2503
-2.3940 A tS	-0.3262
-1.1668 A tc	+0.1805
-1.6629 A th	-0.9162
-1.8952 A ts	+0.5085
-1.4847 A u	-0.2368
-1.3492 A v	-0.7325
-1.4544 A x	-0.0938
-2.5190 A y	-0.3317
-1.4983 A z	+0.5809
-2.0070 D& &	-0.2302
-2.5247 D& @	-0.2693
-1.8348 D& A	-0.0238
-2.0854 D& D&i	-0.4573
-3.1020 D& E	-0.1533
-2.1725 D& I	-0.3735
-1.1911 D& N	-1.1558
-1.2780 D& S	-0.4262
-1.8993 D& U	-0.2268
-2.2111 D& Y	-0.2909
-1.8296 D& a	-0.1274
-1.8859 D& aU	-0.3043
-1.8309 D& ai	-0.2142
-1.4227 D& b	-0.5667
-2.4541 D& d	-0.2840
-1.0309 D& dc	-0.4316
-2.3402 D& e	-0.2368
-1.7031 D& f	-0.4373
-1.8701 D& g	-0.1870
-1.5901 D& h	-0.1686
-2.2080 D& i	-0.1944
-2.6497 D& j	-0.1278
-1.7118 D& kh	-0.1961
-1.3226 D& l	-1.1399
-1.2373 D& m	-0.5727
-1.2221 D& n	-0.5709
-1.8219 D& o	+0.0521
-2.5648 D& oe	-0.3617
-3.5165 D& pf	-0.2439
-1.7508 D& ph	-0.5308
-1.0948 D& r	-1.4281
-1.5871 D& s	-0.4862
-2.5791 D& tS	-0.3333
-1.0258 D& tc	-0.6032
-2.1989 D& th	-0.1817
-2.2111 D& ts	-0.3139
-1.4851 D& u	-0.2325
-1.5234 D& v	-0.4575
-1.2344 D& x	-1.1300
-2.6760 D& y	-0.2739
-1.9024 D& z	-0.1812
-1.6473 D&i &	-0.3493
-1.6059 D&i @	-0.2819
-1.8842 D&i A	-0.2354
-2.3886 D&i D&	-0.3820
-2.3635 D&i E	-0.3434
-1.2529 D&i I	-0.1585
-1.2759 D&i N	-0.7641
-1.1249 D&i S	-0.1690
-2.3964 D&i U	-0.2364
-1.4246 D&i Y	-0.3347
-2.0162 D&i a	-0.1890
-2.6183 D&i aU	-0.1382
-2.1144 D&i ai	-0.3169
-2.3842 D&i b	-0.3471
-2.5255 D&i d	-0.4140
-1.1371 D&i dc	-0.0873
-1.7852 D&i e	-0.5400
-2.3842 D&i f	-0.2341
-2.0893 D&i g	-0.3215
-1.8006 D&i h	-0.2195
-1.4313 D&i i	-0.4279
-1.5676 D&i j	-0.2710
-1.7913 D&i kh	-0.4859
-0.9960 D&i l	-0.8807
-1.9362 D&i m	-0.3002
-1.2675 D&i n	-0.4357
-2.1080 D&i o	-0.3779
-1.8542 D&i oe	-0.2862
-2.3495 D&i ph	-0.2623
-1.1645 D&i r	-0.6596
-1.4980 D&i s	-0.4774
-2.9863 D&i tS	-0.2493
-1.0391 D&i tc	-0.5609
-2.2002 D&i th	-0.3395
-2.5426 D&i ts	-0.3561
-1.9152 D&i u	-0.2683
-2.1412 D&i v	-0.2377
-1.4648 D&i x	-0.5337
-1.9152 D&i y	-0.1655
-1.7703 D&i z	-0.4255
-1.4643 E &	-0.2629
-2.0415 E @	-0.3933
-1.2715 E A	-0.2709
-2.0750 E D&	-0.3420
-2.5698 E D&i	-0.0982
-1.6948 E I	-0.2638
-1.2688 E N	-0.4159
-1.2911 E S	-0.3470
-1.9958 E U	-0.1930
-1.8708 E Y	-0.2916
-1.6341 E a	-0.2696
-2.1719 E aU	-0.1856
-1.8394 E ai	-0.3769
-1.9414 E b	-0.4176
-2.0750 E d	-0.1896
-1.4084 E dc	-0.2184
-1.5978 E e	-0.3990
-2.0415 E f	-0.3490
-1.9815 E g	-0.2877
-1.6278 E h	-0.2079
-1.5091 E i	-0.3696
-1.8197 E j	-0.1899
-1.6805 E kh	-0.3231
-1.2502 E l	-0.4001
-1.5187 E m	-0.4608
-1.4643 E n	-0.3025
-1.9166 E o	-0.2965
-1.8197 E oe	-0.3376
-2.8752 E pf	-0.2341
-2.3268 E ph	-0.0478
-0.8285 E r	+0.0750
-1.5808 E s	-0.1938
-2.5698 E tS	-0.4056
-1.2399 E tc	-0.0917
-1.9288 E th	-0.2800
-2.4315 E ts	-0.0614
-1.4906 E u	-0.2872
-1.9414 E v	-0.0958
-1.4906 E x	-0.3488
-2.3590 E y	-0.0827
-1.7095 E z	-0.2723
-1.4152 I &	-0.2525
-1.7862 I @	-0.4167
-1.6587 I A	-0.4456
-1.8600 I D&	-0.4364
-2.3359 I D&i	-0.3605
-2.5279 I E	-0.3334
-1.4503 I N	-0.7460
-1.4163 I S	-1.0414
-1.5517 I U	-0.3352
-1.9127 I Y	-0.2220
-1.7684 I a	-0.1988
-2.1101 I aU	+0.1146
-2.1939 I ai	-0.1929
-1.9921 I b	-0.0087
-2.1193 I d	-0.1402
-1.0903 I dc	-0.3550
-1.7046 I e	-0.2785
-2.2596 I f	-0.2122
-1.5764 I g	+0.0140
-1.6881 I h	-0.3809
-1.6320 I i	-0.4888
-1.7594 I j	-0.3146
-1.6485 I kh	-0.7408
-1.4285 I l	-1.0078
-1.5662 I m	-0.4650
-1.3688 I n	-0.7096
-1.7242 I o	+0.0901
-2.1384 I oe	-0.3394
-3.5649 I pf	-0.0694
-1.9575 I ph	-0.5918
-1.1689 I r	-1.8739
-1.7010 I s	-0.2664
-2.5918 I tS	-0.5469
-1.0318 I tc	-0.4681
-1.7803 I th	-0.2891
-2.1483 I ts	-0.1587
-1.2566 I u	-0.6271
-1.4151 I v	-0.5641
-1.4632 I x	-0.1737
-2.3860 I y	-0.3370
-1.4520 I z	+0.1012
-1.4059 N &	+0.3973
-1.8235 N @	-0.2065
-1.8250 N A	+0.1141
-1.8395 N D&	-0.2537
-2.2062 N D&i	-0.2043
-2.5659 N E	-0.3402
-1.2929 N I	-0.7054
-1.3694 N S	-1.0219
-1.5157 N U	-0.4322
-1.7611 N Y	+0.1468
-1.8207 N a	-0.4005
-2.2779 N aU	-0.2510
-1.8172 N ai	-0.3434
-1.4783 N b	-0.4527
-1.7256 N d	-0.2487
-1.3552 N dc	-0.6876
-1.7386 N e	-0.1997
-2.0893 N f	-0.2523
-1.2381 N g	+0.7447
-1.4868 N h	-0.6362
-1.3666 N i	-0.1421
-1.5364 N j	-0.6053
-1.5264 N kh	-0.4952
-1.5148 N l	-0.9775
-1.5309 N m	-0.6780
-1.4224 N n	-0.7507
-1.6927 N o	-0.4925
-1.9858 N oe	-0.1978
-3.3348 N pf	-0.2065
-1.8110 N ph	-0.5323
-1.6493 N r	-0.6070
-1.8548 N s	-0.3931
-2.4245 N tS	-0.1310
-1.4217 N tc	-0.0841
-1.6822 N th	-0.4314
-2.0057 N ts	-0.3311
-1.2222 N u	-0.4296
-1.4346 N v	-0.5339
-1.4494 N x	-0.2862
-2.1805 N y	-0.2542
-1.6842 N z	+0.4389
-1.2521 S &	+0.0966
-1.9357 S @	+0.1070
-1.8331 S A	-0.1675
-1.6357 S D&	+0.3308
-2.3954 S D&i	-0.2633
-2.5321 S E	-0.3582
-1.2139 S I	-1.3061
-1.9525 S N	-0.3682
-1.2333 S U	-0.0884
-1.4034 S Y	-0.2378
-1.7466 S a	-0.3624
-2.1123 S aU	-0.0661
-2.1505 S ai	-0.0986
-1.8520 S b	-0.3489
-1.4571 S d	-0.7288
-1.4284 S dc	-0.4986
-1.7751 S e	-0.5176
-1.9637 S f	-0.2084
-1.3602 S g	-0.4378
-1.8011 S h	-0.2905
-1.3928 S i	+0.7423
-1.6464 S j	-0.9184
-1.6591 S kh	-0.9582
-1.6551 S l	-0.6708
-1.7890 S m	-0.2832
-1.6165 S n	-0.7829
-1.3664 S o	-0.8224
-1.7350 S oe	+0.9277
-3.3910 S pf	-0.1776
-1.7009 S ph	-0.6870
-1.4505 S r	-0.9097
-2.0922 S s	-0.1975
-2.4880 S tS	-0.1584
-1.4611 S tc	-0.4781
-1.3972 S th	-1.1345
-1.7637 S ts	-0.5532
-1.2102 S u	-0.9934
-1.4804 S v	-0.8639
-1.8464 S x	-0.4031
-2.0322 S y	-0.4244
-1.6460 S z	-0.5888
-1.6737 U &	-0.1099
-2.1065 U @	-0.2263
-1.8461 U A	-0.0873
-1.6769 U D&	-0.3106
-1.9805 U D&i	-0.3234
-2.8306 U E	-0.3092
-1.7524 U I	-0.3226
-1.4445 U N	-0.5734
-1.0493 U S	-1.2847
-1.7714 U Y	-0.1614
-1.7257 U a	-0.2650
-2.0786 U aU	-0.0758
-1.8737 U ai	-0.2415
-1.6257 U b	-0.9869
-2.2495 U d	-0.1236
-1.0114 U dc	-0.4314
-2.0563 U e	-0.1239
-1.8213 U f	-0.1385
-1.6937 U g	-0.4281
-1.6794 U h	-0.0602
-1.6828 U i	-0.2325
-2.1786 U j	-0.3267
-1.7593 U kh	-0.2252
-1.5208 U l	-0.5820
-1.6272 U m	-0.1733
-1.5530 U n	-0.6829
-1.6316 U o	-0.4852
-2.0314 U oe	-0.2459
-4.1033 U pf
-1.8317 U ph	-0.4317
-1.4771 U r	-0.3306
-1.5033 U s	-0.2979
-2.4592 U tS	-0.3274
-0.9179 U tc	-0.6840
-1.8572 U th	+0.2545
-2.1658 U ts	-0.2537
-1.3979 U u	-0.5848
-1.4729 U v	-0.5327
-1.3578 U x	-0.3522
-2.0956 U y	-0.2594
-1.6506 U z	+0.8753
-1.4709 Y &	-0.3935
-1.8263 Y @	-0.2443
-1.7999 Y A	-0.4393
-1.7616 Y D&	-0.2239
-2.1915 Y D&i	-0.2750
-2.6308 Y E	-0.2186
-1.4454 Y I	-0.4341
-1.4315 Y N	-0.3971
-1.2691 Y S	-0.7231
-1.4029 Y U	-0.4292
-1.9776 Y a	-0.2785
-2.2884 Y aU	-0.4224
-2.4547 Y ai	-0.1213
-1.8807 Y b	-0.3895
-2.2285 Y d	-0.2807
-1.2268 Y dc	-0.4245
-1.7529 Y e	-0.4059
-2.1537 Y f	-0.0938
-1.7457 Y g	-0.1076
-1.5589 Y h	-0.3969
-1.5636 Y i	-0.3622
-1.7014 Y j	-0.5122
-1.8904 Y kh	-0.1896
-1.3309 Y l	-0.8053
-1.4665 Y m	-0.2639
-1.4200 Y n	-0.3002
-1.4412 Y o	-0.0080
-1.9923 Y oe	-0.3034
-3.7959 Y pf
-2.1156 Y ph	-0.2926
-1.3164 Y r	-0.3791
-1.5664 Y s	-0.5127
-2.8904 Y tS	-0.2187
-1.2556 Y tc	-0.0932
-1.7735 Y th	-0.2097
-2.4475 Y ts	-0.2482
-1.2027 Y u	-0.0491
-1.2959 Y v	-0.4090
-1.5598 Y x	+0.1197
-1.9275 Y y	-0.1406
-1.4342 Y z	+0.7557
-1.9975 a &	-0.2134
-2.6689 a @	-0.2065
-2.0326 a A	-0.4557
-2.4005 a D&	-0.3554
-2.4765 a D&i	-0.4960
-3.1480 a E	-0.1583
-2.1850 a I	-0.3295
-1.2938 a N	-0.9413
-1.1093 a S	-2.0108
-2.3277 a U	-0.1304
-2.3755 a Y	-0.1922
-2.1358 a aU	-0.2232
-2.0207 a ai	-0.4336
-1.9029 a b	-0.1968
-2.3590 a d	-0.2558
-0.9042 a dc	-0.5816
-2.2406 a e	-0.4565
-1.8680 a f	-0.4600
-1.9457 a g	-0.3621
-1.7101 a h	-0.5191
-2.0812 a i	-0.2103
-2.4861 a j	-0.1772
-1.7593 a kh	+0.2021
-1.1003 a l	+0.1861
-1.4624 a m	-0.8044
-0.9645 a n	-1.1493
-2.2480 a o	-0.3384
-2.5367 a oe	-0.3574
-3.5318 a pf
-2.0596 a ph	-0.1011
-1.1444 a r	-0.7094
-1.3259 a s	-0.2142
-2.3962 a tS	-0.1573
-0.9426 a tc	-0.3188
-2.0090 a th	+0.1876
-2.1850 a ts	-0.0797
-1.8416 a u	-0.4449
-1.7123 a v	-0.4499
-1.4051 a x	-0.4335
-2.9179 a y	-0.1876
-1.6874 a z	+0.5211
-1.9168 aU &	-0.1598
-2.6479 aU @	-0.1897
-1.8507 aU A	-0.0939
-1.6158 aU D&	-0.2150
-1.4843 aU D&i	-0.2495
-3.1598 aU E	-0.1565
-2.2567 aU I	-0.3715
-1.1787 aU N	-0.3182
-1.3486 aU S	-0.0869
-1.4126 aU U	-0.7181
-2.2705 aU Y	-0.2275
-1.7449 aU a	-0.1593
-1.8274 aU ai	-0.2502
-1.3511 aU b	-0.8132
-2.4002 aU d	-0.3361
-1.2629 aU dc	-0.3929
-2.3386 aU e	-0.4528
-1.8005 aU f	-0.2533
-1.8376 aU g	-0.1982
-1.6564 aU h	-0.3620
-2.1879 aU i	-0.1081
-2.5716 aU j	-0.2270
-1.7305 aU kh	-0.3131
-1.5238 aU l	-0.0925
-1.3040 aU m	-0.4500
-1.5605 aU n	-0.3829
-1.3890 aU o	-0.3393
-2.5578 aU oe	-0.1771
-3.3205 aU pf	-0.1247
-1.6111 aU ph	-0.1174
-1.1335 aU r	-0.7793
-1.6791 aU s	-0.2510
-2.5858 aU tS	-0.2410
-1.3631 aU tc	-0.4530
-1.9695 aU th	-0.4175
-2.0417 aU ts	-0.3632
-1.0303 aU u	-0.8391
-1.5127 aU v	-0.6225
-1.2279 aU x	-0.7444
-2.7407 aU y	-0.2441
-1.9391 aU z	-0.2581
-1.6923 ai &	-0.4416
-1.5682 ai @	-0.4250
-1.8912 ai A	-0.2092
-2.4407 ai D&	-0.2238
-2.7291 ai D&i	-0.4919
-2.3337 ai E	-0.4542
-1.3347 ai I	-0.1646
-1.1333 ai N	-0.4954
-1.4040 ai S	-0.6072
-2.0402 ai U	-0.4493
-1.7392 ai Y	-0.1805
-1.9922 ai a	-0.4063
-2.5250 ai aU	-0.2388
-2.1179 ai b	-0.1366
-2.2479 ai d	-0.3441
-1.0608 ai dc	-0.3703
-1.7791 ai e	-0.3987
-2.5572 ai f	-0.3404
-1.9003 ai g	-0.5150
-1.8168 ai h	-0.2086
-1.3372 ai i	-0.5505
-1.6347 ai j	-0.4420
-1.9003 ai kh	-0.5362
-0.9670 ai l	-1.3622
-1.6190 ai m	-0.5983
-0.9604 ai n	-1.1458
-2.1271 ai o	-0.2710
-2.1977 ai oe	-0.4436
-3.6755 ai pf	-0.2384
-2.3756 ai ph	-0.3570
-1.2591 ai r	-0.3497
-1.6327 ai s	-0.1801
-2.8261 ai tS	-0.3532
-1.1403 ai tc	-0.4449
-2.0179 ai th	-0.3980
-2.5742 ai ts	-0.2741
-1.8276 ai u	-0.2028
-1.8735 ai v	-0.3901
-1.4746 ai x	-0.3608
-2.5920 ai y	-0.2080
-1.9172 ai z	-0.3548
-1.0876 b &	-0.1596
-1.6560 b @	+0.1628
-1.5345 b A	-0.4362
-1.1964 b D&	-0.3694
-1.5638 b D&i	-0.1661
-2.3853 b E	-0.1913
-1.5084 b I	-0.4997
-1.9356 b N	+0.4475
-1.7101 b S	+0.0123
-1.5044 b U	+1.2925
-1.8255 b Y	-0.2945
-1.1394 b a	-0.4138
-1.6514 b aU	-0.1463
-1.2648 b ai	-0.5743
-1.9728 b d	-0.2316
-1.7419 b dc	-0.0526
-1.3967 b e	-0.1984
-2.5607 b f	-0.2969
-1.6939 b g	-0.2613
-1.8708 b h	-0.3749
-1.3847 b i	-0.5499
-2.0619 b j	-0.3890
-1.7987 b kh	-0.1956
-1.6287 b l	-0.3527
-1.9138 b m	-0.3211
-1.7086 b n	-0.2393
-1.4396 b o	-0.0300
-1.5503 b oe	-0.1599
-3.3737 b pf	-0.2709
-2.0781 b ph	-0.3599
-1.1959 b r	-1.2484
-2.1518 b s	-0.2638
-2.8296 b tS	-0.3526
-1.7826 b tc	-0.0427
-2.0011 b th	-0.2716
-2.5836 b ts	-0.3890
-1.2296 b u	-0.4986
-1.9995 b v	-0.3390
-1.8443 b x	-0.0747
-1.7221 b y	-0.2979
-2.3356 b z	-0.4222
-1.1106 d &	+0.2399
-1.5508 d @	-0.3462
-1.1300 d A	-0.7621
-1.3772 d D&	-0.3046
-1.9462 d D&i	-0.0825
-2.3377 d E	-0.2609
-1.2842 d I	-0.5209
-1.8399 d N	+0.0182
-1.7995 d S	-0.1129
-1.5821 d U	+0.4187
-1.8856 d Y	+0.1174
-1.1292 d a	+0.0412
-1.5417 d aU	-0.1982
-1.4964 d ai	+0.0187
-2.7037 d b	-0.2299
-1.6452 d dc	-0.0450
-1.3956 d e	-0.3513
-2.5623 d f	-0.3008
-2.3666 d g	-0.2154
-1.8719 d h	-0.4301
-1.5452 d i	-0.4729
-1.9105 d j	-0.5403
-2.3057 d kh	-0.3688
-1.6034 d l	-0.5920
-1.9172 d m	-0.1376
-1.8342 d n	-0.3921
-1.4822 d o	-0.4499
-1.7357 d oe	+0.0487
-3.4654 d pf	-0.0710
-2.6873 d ph	-0.1657
-0.8617 d r	-1.6749
-1.8422 d s	-0.1360
-3.1186 d tS	-0.1790
-1.5259 d tc	-0.3325
-2.6954 d th	-0.2480
-2.9426 d ts	-0.2132
-1.3850 d u	-0.1318
-2.0270 d v	-0.5091
-1.8744 d x	-0.4611
-2.0954 d y	-0.4735
-2.2183 d z	-0.2590
-1.9716 dc &	-0.5650
-2.3072 dc @	-0.1484
-2.6317 dc A	-0.1638
-2.1305 dc D&	-0.1082
-2.9400 dc D&i	-0.3427
-3.0536 dc E	-0.4747
-1.4824 dc I	-0.6319
-2.3602 dc N	-0.5445
-1.8436 dc S	-0.2742
-1.8950 dc U	-0.0642
-1.8853 dc Y	+0.4018
-2.0878 dc a	-0.4339
-2.7053 dc aU	-0.3277
-2.6596 dc ai	-0.3206
-0.8252 dc b	-2.5174
-0.7234 dc d	-2.2610
-2.1482 dc e	-0.2651
-2.5231 dc f	-0.6043
-0.7989 dc g
-2.1597 dc h	-0.0876
-1.6932 dc i	+1.2042
-1.6349 dc j	-0.5055
-1.4301 dc kh	-0.8764
-1.9599 dc l	-0.9531
-2.0914 dc m	-0.6021
-1.7075 dc n	-0.7003
-1.9180 dc o	+0.0570
-2.6663 dc oe	-0.2553
-3.5182 dc pf	-0.1146
-1.5250 dc ph	-0.8322
-2.1693 dc r	+0.1144
-2.7441 dc s	-0.2070
-2.6496 dc tS	-0.3626
-2.2282 dc tc	-0.3889
-1.0252 dc th	-1.8577
-2.0146 dc ts	-0.3793
-1.4154 dc u	-0.8071
-1.6136 dc v	-0.5804
-2.1251 dc x	-0.4804
-2.5017 dc y	-0.0917
-2.0131 dc z	-0.4886
-1.8027 e &	-0.2046
-2.0936 e @	-0.3298
-1.4915 e A	-0.3327
-2.2940 e D&	-0.2111
-2.4321 e D&i	-0.1577
-2.6452 e E	-0.3610
-1.7875 e I	-0.6399
-1.1999 e N	-0.7883
-1.3104 e S	-0.0717
-2.0152 e U	-0.3240
-2.1702 e Y	-0.2273
-1.7651 e a	-0.2623
-2.2371 e aU	-0.1282
-1.8026 e ai	-0.2092
-2.0739 e b	-0.4479
-2.3117 e d	-0.4681
-1.0002 e dc	-0.0696
-2.2185 e f	-0.2145
-1.9323 e g	-0.4584
-1.6697 e h	-0.2971
-1.6802 e i	-0.2422
-1.9844 e j	-0.3242
-1.8392 e kh	+0.0588
-1.1814 e l	-0.7614
-1.5481 e m	-0.1888
-1.1402 e n	-0.6516
-2.0316 e o	-0.2675
-2.4552 e oe	-0.2801
-3.3909 e pf	-0.0840
-2.2221 e ph	-0.2641
-1.0853 e r	-1.0789
-1.4452 e s	-0.0628
-2.4745 e tS	-0.3798
-0.8875 e tc	+0.1712
-1.9973 e th	-0.3216
-2.2940 e ts	-0.2362
-1.7677 e u	-0.1886
-1.7389 e v	-0.1200
-1.4434 e x	-0.2646
-2.7499 e y	-0.2053
-1.6101 e z	+1.0527
-1.4196 f &	-0.2149
-2.1594 f @	-0.4561
-1.5609 f A	-0.1874
-1.1694 f D&	-0.1840
-1.8443 f D&i	-0.1621
-2.6659 f E	-0.0977
-1.5906 f I	-0.1286
-1.7657 f N	-0.1248
-1.5117 f S	-0.1870
-1.4275 f U	-0.3062
-1.6728 f Y	-0.3153
-1.3558 f a	-0.2125
-1.7803 f aU	-0.2129
-1.7924 f ai	-0.4901
-1.7986 f b	-0.2475
-1.7194 f d	-0.4666
-1.7246 f dc	-0.1935
-1.8048 f e	-0.1926
-1.4868 f g	-0.1864
-1.5182 f h	-0.1282
-1.6183 f i	-0.4267
-2.0416 f j	-0.2822
-1.5591 f kh	-0.5022
-1.7744 f l	-0.2801
-1.7272 f m	-0.2098
-1.5811 f n	-0.4973
-1.2800 f o	-0.4512
-2.0052 f oe	-0.5292
-3.1039 f pf
-1.7379 f ph	-0.2257
-1.3470 f r	+0.0590
-1.8619 f s	-0.3079
-2.2915 f tS	-0.2845
-1.6266 f tc	-0.2598
-1.5502 f th	+0.1586
-1.7863 f ts	-0.3340
-1.0576 f u	+0.1253
-1.5416 f v	-0.5143
-1.7379 f x	-0.1085
-2.1186 f y	-0.2995
-1.6245 f z	-0.4021
-1.0430 g &	-0.3895
-1.4811 g @	+0.0607
-1.6162 g A	-0.4914
-1.5140 g D&	+0.4373
-2.0795 g D&i	-0.0727
-2.2433 g E	-0.0983
-1.2863 g I	-0.7278
-1.4668 g N	+0.2030
-1.6081 g S	-0.3154
-1.3000 g U	+0.4364
-1.6715 g Y	-0.2686
-1.4495 g a	-0.0602
-1.8473 g aU	-0.0413
-1.8021 g ai	-0.6126
-2.0997 g b	-0.4331
-2.1979 g d	-0.2573
-1.4748 g dc	-0.3570
-1.5202 g e	-0.1729
-2.5700 g f	-0.2436
-1.7191 g h	-0.4765
-1.3197 g i	+0.8586
-1.7100 g j	-0.5703
-2.1010 g kh	-0.2488
-1.4645 g l	-0.9340
-1.7360 g m	-0.2222
-1.4141 g n	-0.9550
-1.3546 g o	-0.5614
-1.7487 g oe	+1.1785
-4.0016 g pf
-2.3613 g ph	-0.3501
-1.2114 g r	-0.7516
-2.0743 g s	-0.2126
-2.7360 g tS	-0.2919
-1.5440 g tc	-0.3202
-2.3514 g th	-0.5661
-2.6451 g ts	-0.1521
-1.1499 g u	-0.6583
-1.7838 g v	-0.4805
-1.7752 g x	-0.1172
-1.9490 g y	-0.1485
-2.3027 g z	-0.2635
-1.4285 h &	+0.6049
-1.8084 h @	+0.0083
-1.0486 h A	-0.8646
-1.4617 h D&	-0.4030
-1.8472 h D&i	-0.4183
-2.3519 h E	-0.2973
-1.6597 h I	-0.5717
-1.4013 h N	-0.7916
-1.7402 h S	-0.5840
-1.6976 h U	+0.0029
-1.9437 h Y	-0.1186
-1.2495 h a	+0.2251
-1.6911 h aU	-0.1944
-1.4917 h ai	-0.4084
-1.9339 h b	-0.0801
-2.0140 h d	-0.0826
-1.9712 h dc	-0.3024
-1.6312 h e	-0.3712
-2.0320 h f	-0.2700
-1.7413 h g	-0.2523
-1.5395 h i	-0.1085
-1.7279 h j	-0.2520
-1.8151 h kh	-0.0941
-1.5779 h l	-0.5647
-1.2310 h m	-1.3907
-1.5049 h n	-1.0701
-1.3928 h o	-0.3869
-1.8804 h oe	-0.1998
-2.8289 h pf	-0.3104
-2.0550 h ph	-0.4652
-1.2230 h r	-0.4091
-1.6130 h s	-0.3880
-2.7269 h tS	-0.2138
-1.9968 h tc	+0.0903
-1.9290 h th	-0.2745
-2.0726 h ts	-0.3973
-1.2196 h u	-0.3294
-1.6411 h v	-0.3918
-1.5260 h x	-0.4347
-2.1299 h y	-0.2160
-1.7682 h z	-0.1886
-1.8847 i &	-0.3391
-1.9266 i @	-0.4200
-2.2993 i A	-0.2466
-2.5464 i D&	-0.2410
-3.1027 i D&i	-0.1213
-2.6811 i E	-0.3455
-1.2629 i I	-0.8985
-1.2738 i N	-0.8095
-0.9339 i S	-1.0459
-1.9041 i U	-0.4389
-1.8805 i Y	-0.2167
-2.2430 i a	-0.4485
-2.6682 i aU	-0.3103
-2.5922 i ai	-0.2663
-2.0941 i b	-0.2916
-2.1784 i d	-0.1066
-0.9965 i dc	-0.5490
-2.2062 i e	-0.4082
-2.0520 i f	-0.1988
-1.7440 i g	-0.1155
-1.6379 i h	-0.4148
-1.5976 i j	-0.6379
-1.8484 i kh	-0.3246
-1.4233 i l	-0.8539
-1.6669 i m	-0.1479
-1.3004 i n	-0.8788
-2.2502 i o	-0.2196
-2.6746 i oe	-0.2474
-3.9030 i pf	-0.2062
-2.1186 i ph	-0.4971
-1.8360 i r	-0.1287
-1.4407 i s	-0.2848
-2.1524 i tS	-0.1217
-0.9065 i tc	-0.0731
-1.7027 i th	-0.2557
-1.8932 i ts	-0.3646
-1.7922 i u	-0.5215
-1.6409 i v	-0.6561
-1.1543 i x	-0.7890
-2.6494 i y	-0.2674
-1.3736 i z	+0.6268
-1.1391 j &	-0.3991
-1.7414 j @	-0.2663
-0.8458 j A	-0.4619
-1.5816 j D&	-0.0459
-2.0267 j D&i	-0.4079
-2.5637 j E	-0.2693
-1.9619 j I	-0.4054
-1.8423 j N	-0.2870
-1.7156 j S	-0.1582
-1.8678 j U	-0.3404
-2.1822 j Y	-0.4691
-1.1195 j a	-0.0549
-1.4740 j aU	-0.2913
-1.5230 j ai	-0.1697
-2.2630 j b	-0.3081
-2.3072 j d	-0.2561
-2.0468 j dc	-0.3732
-1.3399 j e	-0.2477
-2.4756 j f	-0.1934
-1.9934 j g	-0.4421
-1.5282 j h	-0.2042
-1.7486 j i	-0.3169
-1.7387 j kh	+0.1850
-1.7129 j l	-0.5160
-1.8300 j m	-0.3730
-1.8476 j n	-0.1806
-1.5860 j o	-0.2515
-1.9573 j oe	-0.2709
-3.1523 j pf	-0.3888
-2.2021 j ph	-0.2158
-0.8230 j r	-0.9966
-2.1311 j s	-0.2917
-2.9527 j tS	-0.3768
-1.9810 j tc	-0.2089
-2.0583 j th	-0.3940
-2.4391 j ts	-0.4754
-1.1842 j u	-0.2791
-1.9527 j v	-0.2321
-1.8950 j x	-0.0463
-2.3989 j y	-0.0419
-2.1380 j z	-0.2197
-1.4143 kh &	-0.2240
-1.8657 kh @	-0.3988
-1.4805 kh A	-0.0950
-1.4734 kh D&	-0.2212
-2.1763 kh D&i	-0.2925
-2.5043 kh E	-0.0865
-1.4908 kh I	-0.4843
-1.4892 kh N	-0.5731
-1.3389 kh S	-0.8550
-1.5648 kh U	-0.1048
-1.7615 kh Y	-0.1999
-1.2619 kh a	-0.3641
-1.7111 kh aU	-0.2710
-1.5326 kh ai	-0.4282
-1.8793 kh b	-0.1192
-1.8491 kh d	-0.1068
-1.3253 kh dc	+0.1156
-1.6016 kh e	-0.0993
-2.1130 kh f	-0.0597
-1.5673 kh g	+0.0489
-1.6706 kh h	-0.0363
-1.5635 kh i	-0.0398
-1.9436 kh j	-0.2608
-1.5280 kh l	-0.7760
-1.6619 kh m	-0.5536
-1.4052 kh n	-0.3280
-1.6433 kh o	+0.0766
-1.9173 kh oe	-0.0343
-3.2569 kh pf	-0.2622
-1.7337 kh ph	-0.4404
-1.2220 kh r	-0.4741
-1.8806 kh s	-0.1716
-2.3061 kh tS	-0.2829
-1.3457 kh tc	-0.2795
-1.7300 kh th	-0.2209
-2.0246 kh ts	-0.4387
-1.3051 kh u	-0.6422
-1.6064 kh v	-0.3496
-1.6156 kh x	-0.3797
-2.1777 kh y	-0.1428
-1.8503 kh z	-0.3706
-1.1845 l &	-0.3914
-1.3252 l @	+0.7098
-1.6130 l A	-0.0842
-1.6820 l D&	-0.3776
-2.2654 l D&i	-0.2237
-2.0769 l E	-0.2886
-1.1704 l I	-1.1211
-1.6401 l N	-0.4331
-1.5171 l S	-0.4024
-1.6955 l U	-0.0582
-1.5669 l Y	-0.5991
-1.3615 l a	-0.3760
-1.9076 l aU	-0.1822
-1.7134 l ai	-0.2232
-1.9201 l b	-0.0529
-1.8675 l d	-0.2787
-1.4465 l dc	-0.3770
-1.3222 l e	-0.3713
-2.3201 l f	-0.3093
-1.6233 l g	-0.3529
-1.6496 l h	-0.5882
-1.2021 l i	-0.2345
-1.6417 l j	-0.0516
-1.8018 l kh	+0.0532
-1.7946 l m	-0.0193
-1.5637 l n	-0.4504
-1.6485 l o	-0.7057
-1.6663 l oe	+0.1138
-3.5807 l pf	-0.3257
-2.0271 l ph	-0.2007
-1.6570 l r	-0.1677
-1.8257 l s	-0.4523
-2.5056 l tS	-0.2716
-1.3594 l tc	-0.4830
-1.7868 l th	-0.0951
-2.2066 l ts	-0.5120
-1.4896 l u	-0.0219
-1.7031 l v	-0.3523
-1.7200 l x	-0.2445
-1.8257 l y	-0.4417
-1.5591 l z	-0.6715
-1.3254 m &	+0.9335
-1.8846 m @	-0.5010
-1.4942 m A	+0.3403
-1.2225 m D&	-0.6372
-1.6983 m D&i	-0.3329
-2.6524 m E	-0.2510
-1.5244 m I	-0.2250
-1.6799 m N	-0.2798
-1.6163 m S	-0.4029
-1.5816 m U	+0.0964
-1.9785 m Y	-0.3358
-1.2178 m a	-0.1233
-1.6696 m aU	-0.1628
-1.3167 m ai	+0.9342
-1.7841 m b	-0.3644
-1.8674 m d	+0.0180
-1.6955 m dc	-0.3684
-1.7339 m e	-0.3513
-2.1760 m f	-0.2938
-1.6163 m g	-0.2548
-1.4150 m h	-0.9713
-1.3953 m i	-0.3545
-1.7160 m j	-0.0099
-1.7276 m kh	+0.1764
-1.8576 m l	-0.3318
-1.5739 m n	-0.2254
-1.5353 m o	-0.5514
-2.0711 m oe	-0.2362
-3.0136 m pf	-0.1826
-1.9597 m ph	-0.3155
-1.5073 m r	-0.3552
-1.7039 m s	-0.3542
-2.6872 m tS	-0.2298
-1.5848 m tc	-0.3227
-1.8398 m th	-0.1926
-2.1040 m ts	-0.5260
-1.0333 m u	-0.5970
-1.6556 m v	-0.6623
-1.5953 m x	-0.1538
-2.0750 m y	-0.2383
-1.6392 m z	+0.8543
-1.2757 n &	-0.0628
-1.6121 n @	-0.3728
-1.4542 n A	-0.4489
-1.5547 n D&	-0.4741
-2.3570 n D&i	-0.1729
-2.3994 n E	-0.2928
-1.1779 n I	+0.5176
-1.8381 n N	-0.0526
-1.4462 n S	-0.5407
-1.6881 n U	+1.2208
-1.8264 n Y	-0.1580
-1.2389 n a	-0.2798
-1.7963 n aU	-0.2451
-1.5286 n ai	-0.3801
-1.6102 n b	-0.8755
-1.7272 n d	-0.5859
-1.3201 n dc	-0.2775
-1.4836 n e	-0.2903
-2.2992 n f	-0.1203
-1.4794 n g	+1.0228
-1.6019 n h	-0.7898
-1.3018 n i	-0.5968
-1.5182 n j	-0.5308
-1.6455 n kh	-0.1361
-1.7460 n l	-0.3360
-1.6695 n m	-0.5956
-1.8602 n o	-0.2163
-2.1700 n oe	-0.3085
-3.2823 n pf	-0.3117
-1.8877 n ph	-0.3183
-1.6370 n r	-0.4206
-1.9494 n s	-0.1216
-2.6361 n tS	-0.2110
-1.4070 n tc	-0.4027
-1.6716 n th	-0.5252
-2.0705 n ts	-0.3526
-1.3852 n u	-0.9628
-1.5442 n v	-0.6198
-1.5261 n x	-0.5703
-2.2907 n y	-0.0997
-1.7448 n z	+0.5330
-1.9020 o &	-0.0832
-2.2417 o @	-0.2213
-1.7621 o A	-0.1156
-1.7343 o D&	-0.3985
-1.8528 o D&i	-0.3644
-2.9422 o E	-0.2231
-1.8227 o I	+0.0955
-1.3716 o N	-1.0062
-1.1361 o S	-0.5207
-1.7718 o U	-0.2533
-1.9088 o Y	-0.3554
-1.8379 o a	-0.1895
-1.9903 o aU	-0.2551
-1.9117 o ai	-0.3514
-1.5257 o b	-0.5692
-2.1522 o d	-0.2555
-1.0408 o dc	-0.2866
-2.2184 o e	-0.3152
-1.7091 o f	+0.3800
-1.6751 o g	-0.3041
-1.5200 o h	-0.6769
-1.8181 o i	-0.4115
-2.1215 o j	-0.3754
-1.6654 o kh	-0.4573
-1.4713 o l	-0.9751
-1.5780 o m	-0.1868
-1.5767 o n	-0.4618
-2.2510 o oe	-0.2947
-3.4460 o pf	-0.0770
-1.7127 o ph	+0.3262
-1.3568 o r	-0.7227
-1.4139 o s	-0.2529
-2.3588 o tS	-0.2273
-1.0121 o tc	+0.2808
-1.7749 o th	-0.4018
-1.9393 o ts	-0.2038
-1.4552 o u	+0.0240
-1.3652 o v	-0.7049
-1.3384 o x	-0.8769
-2.3103 o y	-0.3312
-1.5375 o z	-0.6239
-1.6368 oe &	-0.4359
-1.8702 oe @	-0.2667
-1.3150 oe A	-0.4209
-2.0434 oe D&	-0.3335
-2.2510 oe D&i	-0.1462
-2.4993 oe E	-0.3426
-1.5437 oe I	-0.3983
-1.2983 oe N	-0.5697
-1.1306 oe S	-0.4126
-1.9066 oe U	-0.3815
-1.7274 oe Y	-0.3642
-1.6234 oe a	-0.6667
-2.0843 oe aU	-0.1985
-1.8941 oe ai	-0.4920
-2.1683 oe b	-0.3015
-2.2799 oe d	-0.3891
-1.3806 oe dc	-0.2570
-1.8760 oe e	-0.2790
-2.2799 oe f	-0.3841
-1.8206 oe g	-0.2417
-1.5591 oe h	-0.0825
-1.6301 oe i	-0.4928
-1.7809 oe j	-0.2078
-1.9606 oe kh	-0.1901
-1.1424 oe l	-0.6049
-1.6668 oe m	-0.4778
-1.2652 oe n	-0.5181
-1.7715 oe o	-0.0579
-3.6064 oe pf	-0.3523
-2.2875 oe ph	-0.2568
-0.9635 oe r	-0.3227
-1.4602 oe s	-0.5452
-2.5962 oe tS	-0.1794
-1.2298 oe tc	+0.0474
-1.9430 oe th	-0.2753
-2.2109 oe ts	-0.3160
-1.6578 oe u	-0.2002
-1.6893 oe v	-0.2638
-1.5706 oe x	-0.2040
-2.0611 oe y	-0.3100
-1.4981 oe z	+0.5169
-1.3988 pf &	-0.2079
-1.3230 pf A	-0.1931
-2.1233 pf D&
-2.0264 pf E	-0.9429
-1.5749 pf I	-0.1601
-1.3230 pf N	-0.1545
-1.5169 pf S	-0.1875
-1.5449 pf U	-0.1007
-1.4657 pf Y	-0.1960
-1.5449 pf a	-0.1657
-1.8803 pf aU	-0.2626
-2.4256 pf ai
-2.1233 pf b	-0.2115
-1.7667 pf d	-0.1322
-1.4657 pf dc	-0.2358
-2.2840 pf e
-2.4256 pf f
-1.7210 pf g	-0.0597
-1.0775 pf h	-0.3334
-1.6070 pf i	-0.1941
-2.1233 pf j
-1.8179 pf kh	-0.2156
-1.5449 pf l	-0.1848
-1.3060 pf m	-0.3633
-1.2586 pf n	-0.2976
-1.8803 pf o
-2.1233 pf oe
-1.8803 pf ph	-0.1106
-1.2738 pf r	-0.2590
-1.7667 pf s	-0.0644
-2.0264 pf tS	-0.1699
-1.4200 pf tc	-0.1686
-1.7667 pf th	-0.0674
-1.8803 pf ts	-0.2550
-1.3593 pf u	-0.1179
-1.5449 pf v	-0.0938
-1.6418 pf x	-0.3636
-1.8803 pf y	-0.2805
-1.3988 pf z	-0.2214
-1.4170 ph &	-0.0179
-2.0389 ph @	-0.4217
-1.6275 ph A	-0.1743
-1.3393 ph D&	-0.3804
-1.8331 ph D&i	-0.1845
-2.4480 ph E	-0.3637
-1.3467 ph I	-0.3385
-1.6553 ph N	-0.3413
-1.5113 ph S	-0.5915
-1.4344 ph U	+0.2866
-1.7324 ph Y	-0.1495
-1.3917 ph a	-0.0556
-1.7932 ph aU	-0.1673
-1.6655 ph ai	-0.3668
-1.7253 ph b	-0.2397
-1.9158 ph d	-0.1741
-1.4284 ph dc	-0.1345
-1.7904 ph e	-0.3585
-2.2318 ph f	-0.4149
-1.5359 ph g	+0.0279
-1.7276 ph h	-0.1548
-1.4846 ph i	-0.0120
-1.8788 ph j	-0.2299
-1.6878 ph kh	-0.2311
-1.6813 ph l	-0.2740
-1.7836 ph m	-0.0987
-1.5820 ph n	-0.4293
-1.3803 ph o	-0.4001
-2.0287 ph oe	-0.3339
-3.2096 ph pf	-0.1033
-1.1877 ph r	-0.7319
-1.9665 ph s	-0.0869
-2.3492 ph tS	-0.1773
-1.3955 ph tc	-0.0762
-1.7434 ph th	+0.0923
-1.9770 ph ts	-0.2846
-1.1080 ph u	-0.8128
-1.5686 ph v	-0.5430
-1.4943 ph x	-0.5714
-2.0169 ph y	-0.2476
-1.8339 ph z	-0.4039
-1.6393 r &	-0.0470
-1.9770 r @	-0.0294
-1.7826 r A	-0.5267
-1.7277 r D&	-0.2637
-2.0298 r D&i	-0.2481
-2.7165 r E	-0.1954
-1.6774 r I	-0.1740
-1.5872 r N	-0.8049
-1.4180 r S	-0.9889
-1.7949 r U	+1.4763
-1.9383 r Y	-0.3521
-1.5682 r a	-0.2442
-1.9619 r aU	-0.1672
-1.5375 r ai	+0.8868
-1.4830 r b	-0.8513
-1.9072 r d	-0.2207
-0.9343 r dc	-0.6543
-1.7593 r e	-0.4231
-2.0843 r f	+0.0643
-1.5834 r g	+0.9320
-1.7287 r h	-1.0392
-1.6153 r i	-0.2354
-2.0695 r j	-0.1546
-1.5859 r kh	-1.5511
-1.5145 r l	-1.0635
-1.6112 r m	-1.1398
-1.5025 r n	-0.7005
-1.6685 r o	-0.6119
-1.9876 r oe	-0.2984
-3.6068 r pf	-0.0491
-1.6405 r ph	-0.5369
-1.6841 r s	-0.2926
-2.3686 r tS	-0.3070
-1.0048 r tc	-0.4189
-1.6983 r th	-0.6694
-1.8492 r ts	+0.8665
-1.4010 r u	-0.4946
-1.3098 r v	-1.4524
-1.5999 r x	-0.2320
-2.1433 r y	-0.3159
-1.5731 r z	+0.0024
-1.6519 s &	-0.5114
-2.3751 s @	-0.1959
-2.0773 s A	-0.1668
-2.1346 s D&	-0.2566
-2.7829 s D&i	-0.2495
-2.7637 s E	-0.3074
-1.5006 s I	+0.2911
-2.0089 s N	+0.1068
-1.1938 s S	-0.9001
-1.7902 s U	+0.3830
-1.7681 s Y	-0.2553
-1.8986 s a	-0.1075
-2.5181 s aU	-0.3853
-2.3443 s ai	-0.4137
-1.5385 s b	-0.2835
-1.4952 s d	-0.2591
-1.3659 s dc	-0.0013
-2.1667 s e	-0.1646
-1.8051 s f	-0.1225
-1.2419 s g	+1.2574
-1.5089 s h	-0.0984
-1.6097 s i	-0.4378
-1.8134 s j	-0.4968
-1.4085 s kh	-0.3594
-1.7606 s l	+0.1041
-1.6843 s m	-0.3894
-1.5430 s n	-0.5844
-1.8785 s o	-0.2314
-2.2781 s oe	-0.1526
-2.8263 s pf	-0.3052
-1.3189 s ph	-0.5013
-1.6053 s r	-0.0284
-1.8935 s tS	+0.0004
-1.3981 s tc	-0.4389
-1.2006 s th	-0.4765
-1.2089 s ts	+0.1548
-1.4979 s u	-0.2334
-1.3530 s v	-0.6636
-1.5392 s x	-0.1684
-2.3949 s y	-0.3110
-1.2616 s z	+0.1991
-1.5220 tS &	-0.2040
-1.9574 tS @	-0.2955
-1.8797 tS A	-0.3271
-2.0852 tS D&	-0.1119
-2.4889 tS D&i	-0.2330
-2.3863 tS E	-0.3181
-1.3366 tS I	-0.3931
-1.7255 tS N	-0.3637
-1.1136 tS S	-0.5086
-1.6236 tS U	-0.3270
-1.5283 tS Y	-0.2815
-1.7958 tS a	-0.2215
-2.3640 tS aU	-0.1747
-2.2337 tS ai	-0.3062
-1.7407 tS b	-0.3739
-1.4295 tS d	-0.3774
-1.5283 tS dc	-0.1986
-1.8199 tS e	-0.2314
-1.8657 tS f	-0.2677
-1.3795 tS g	-0.3192
-1.6081 tS h	-0.2992
-1.4664 tS i	-0.3082
-1.5511 tS j	-0.1913
-1.6236 tS kh	-0.0487
-1.7619 tS l	-0.2307
-1.7729 tS m	-0.2279
-1.6276 tS n	-0.2866
-1.6873 tS o	-0.2607
-1.8588 tS oe	-0.4187
-1.5646 tS ph	-0.3559
-1.4948 tS r	-0.2241
-1.9016 tS s	-0.2242
-1.4775 tS tc	-0.0604
-1.1982 tS th	-0.4805
-1.5681 tS ts	-0.3523
-1.4270 tS u	-0.1467
-1.4073 tS v	-0.1085
-1.5787 tS x	-0.2194
-2.1737 tS y	-0.1699
-1.3470 tS z	-0.4792
-2.1192 tc &	-0.1246
-2.5766 tc @	-0.2422
-2.6085 tc A	-0.2804
-2.2323 tc D&	-0.4109
-2.9907 tc D&i	-0.1234
-3.4364 tc E	-0.1621
-1.8746 tc I	-0.5263
-2.7744 tc N	-0.2754
-1.0251 tc S	-1.6965
-2.3730 tc U	-0.2939
-2.2887 tc Y	-0.1121
-2.0380 tc a	-0.1662
-2.7100 tc aU	-0.2498
-2.7291 tc ai	-0.3008
-1.3054 tc b	-2.3504
-1.2044 tc d	-2.1441
-1.7327 tc dc	-0.3648
-2.2959 tc e	-0.0574
-1.9369 tc f	-0.4982
-0.8896 tc g	+1.5642
-2.2098 tc h	-0.3192
-1.9870 tc i	+0.1187
-2.1107 tc j	+0.1167
-1.0628 tc kh	+0.5019
-2.5389 tc l	-0.5182
-2.3611 tc m	-0.2083
-2.1845 tc n	-0.1782
-2.2612 tc o	-0.3889
-2.8606 tc oe	-0.2344
-2.7922 tc pf	-0.3862
-1.0741 tc ph	-1.7824
-1.9849 tc r	-0.7900
-2.2354 tc s	-0.2235
-1.6713 tc tS	-0.5633
-0.8219 tc th	-2.0490
-1.0812 tc ts	-0.1325
-1.7218 tc u	-0.2066
-1.8752 tc v	-0.6371
-1.7342 tc x	-0.2514
-3.0110 tc y	-0.3018
-1.5012 tc z	+0.2990
-1.1831 th &	+0.0550
-1.8051 th @	-0.0505
-1.4737 th A	-0.1970
-1.5718 th D&	-0.1464
-2.2492 th D&i	-0.2811
-2.5052 th E	-0.2823
-1.3037 th I	-0.6637
-1.8511 th N	-0.2150
-1.6137 th S	-0.2043
-1.3865 th U	-0.4115
-1.6727 th Y	+0.0838
-1.3677 th a	-0.5730
-1.7520 th aU	-0.4584
-1.7294 th ai	-0.3758
-1.8921 th b	-0.2927
-1.9423 th d	-0.1090
-1.3289 th dc	-0.5678
-1.5566 th e	-0.0828
-2.3173 th f	-0.4157
-1.5977 th g	-0.0245
-1.7030 th h	-0.1721
-1.4902 th i	-0.2356
-1.6910 th j	-0.5212
-1.7371 th kh	-0.6049
-1.5628 th l	-0.8574
-1.6753 th m	-0.3104
-1.3910 th n	-0.4942
-1.4525 th o	-0.4060
-1.8045 th oe	+0.2755
-3.5333 th pf	-0.1668
-1.9435 th ph	+0.0606
-1.2294 th r	-1.0135
-1.9784 th s	-0.1062
-2.5333 th tS	-0.3252
-1.4387 th tc	-0.1318
-2.0237 th ts	-0.0089
-1.2569 th u	-0.7193
-1.4924 th v	-0.7131
-1.7834 th x	+0.1388
-2.0643 th y	-0.2510
-1.8561 th z	-0.5581
-1.2982 ts &	-0.6144
-1.9809 ts @	-0.2918
-1.7665 ts A	-0.0917
-1.5574 ts D&	-0.3661
-2.3176 ts D&i	-0.2587
-2.4303 ts E	-0.2349
-1.2369 ts I	-0.5810
-1.8794 ts N	-0.2822
-1.4944 ts S	-0.3183
-1.2338 ts U	-0.3169
-1.4824 ts Y	-0.3763
-1.5795 ts a	-0.1862
-2.0728 ts aU	-0.3893
-2.1374 ts ai	-0.2369
-1.8909 ts b	-0.1268
-1.5585 ts d	-0.3634
-1.6603 ts dc	-0.2792
-1.7736 ts e	-0.3742
-2.0292 ts f	-0.2793
-1.5203 ts g	-0.6620
-1.5193 ts h	-0.1311
-1.3518 ts i	-0.3419
-1.7250 ts j	-0.1729
-1.7330 ts kh	-0.4622
-1.6377 ts l	-0.2228
-1.5728 ts m	-0.3380
-1.5489 ts n	-0.1681
-1.3060 ts o	-0.6121
-1.7917 ts oe	-0.3432
-3.5650 ts pf
-1.7665 ts ph	-0.1230
-1.5105 ts r	-0.1931
-1.6603 ts s	+0.0340
-2.4815 ts tS	-0.1781
-1.5047 ts tc	-0.2717
-1.6364 ts th	-0.2791
-1.2819 ts u	+0.1478
-1.3648 ts v	-0.2934
-1.7528 ts x	-0.1220
-1.8531 ts y	-0.1601
-1.6989 ts z	-0.6083
-1.7362 u &	-0.3244
-2.2611 u @	-0.4689
-2.1094 u A	-0.2753
-1.9803 u D&	-0.1830
-2.0811 u D&i	-0.4907
-2.9416 u E	-0.1604
-1.6874 u I	-0.1886
-1.1392 u N	-1.7856
-1.0542 u S	+0.5368
-1.6112 u U	+1.0848
-1.7068 u Y	+0.4170
-1.9957 u a	-0.5044
-2.3213 u aU	-0.3015
-1.9357 u ai	+0.3212
-1.5597 u b	-0.7915
-2.2823 u d	-0.1089
-1.1484 u dc	-0.6999
-2.1769 u e	-0.1289
-1.9199 u f	+0.5452
-1.6906 u g	-0.2339
-1.5826 u h	-0.8727
-1.6197 u i	-0.5081
-2.0622 u j	+0.2476
-1.7443 u kh	-0.2231
-1.2743 u l	-1.1388
-1.3478 u m	-0.9253
-1.1917 u n	+0.3914
-1.7464 u o	-0.3075
-2.1564 u oe	-0.4784
-3.6283 u pf	-0.1546
-1.9621 u ph	-0.6141
-1.3380 u r	-1.4973
-1.5241 u s	-0.1684
-2.6362 u tS	-0.2740
-1.1111 u tc	-0.0604
-1.9254 u th	-0.2693
-2.3372 u ts	-0.1536
-1.4585 u v	-0.8499
-1.3794 u x	-0.5989
-2.1407 u y	-0.2529
-1.6811 u z	-0.2162
-1.2019 v &	+0.6665
-1.4983 v @	-0.2285
-1.3444 v A	-0.6136
-1.2404 v D&	+0.0418
-1.6129 v D&i	-0.3236
-2.2865 v E	-0.4408
-1.2355 v I	-0.9309
-1.9006 v N	-0.4754
-1.8087 v S	+0.1308
-1.6500 v U	+0.2070
-1.7843 v Y	+0.0329
-1.1266 v a	-0.2489
-1.6443 v aU	-0.3559
-1.1440 v ai	-0.9724
-2.1814 v b	-0.5123
-2.0371 v d	-0.3675
-2.2252 v dc	-0.0980
-1.3648 v e	-0.2067
-2.5916 v f	-0.2552
-1.8814 v g	-0.5395
-1.6592 v h	-0.5827
-1.2069 v i	-0.1435
-1.7688 v j	-0.5158
-1.9040 v kh	-0.4765
-1.8960 v l	-0.3013
-1.9517 v m	-0.0862
-1.8527 v n	-0.3577
-1.3176 v o	-0.4770
-1.5336 v oe	-0.1715
-3.1770 v pf	-0.1883
-2.3413 v ph	-0.2149
-1.4204 v r	-0.6562
-2.2905 v s	-0.2225
-2.7968 v tS	-0.2500
-2.3917 v tc	-0.0025
-2.3542 v th	-0.3404
-2.6147 v ts	-0.3640
-1.1678 v u	-0.4861
-1.9390 v x	+0.3218
-1.7306 v y	-0.2800
-2.4569 v z	-0.4460
-1.5165 x &	+0.1164
-1.9884 x @	-0.3417
-1.9592 x A	-0.2745
-1.9825 x D&	+0.1102
-2.5448 x D&i	-0.1736
-2.6871 x E	-0.2232
-1.3403 x I	-0.6364
-1.5537 x N	-0.6152
-1.2245 x S	-1.0111
-1.6413 x U	-0.3920
-1.6394 x Y	-0.1955
-1.7814 x a	-0.0987
-2.2152 x aU	+0.0418
-2.1438 x ai	-0.1410
-1.6193 x b	-0.2354
-1.7309 x d	-0.2511
-1.1694 x dc	+0.2204
-1.9215 x e	-0.1405
-2.0303 x f	+0.0355
-1.3201 x g	-0.3877
-1.6236 x h	-0.2942
-1.5066 x i	+0.6615
-1.6680 x j	-0.3845
-1.3940 x kh	-0.9340
-1.6381 x l	-0.5329
-1.6012 x m	-0.6660
-1.3729 x n	-1.3144
-1.8459 x o	-0.3896
-2.2351 x oe	-0.4231
-3.2639 x pf	-0.1719
-1.5143 x ph	-0.2320
-1.5300 x r	-1.0376
-1.7512 x s	-0.4668
-1.9997 x tS	-0.2242
-1.2519 x tc	-0.0276
-1.5285 x th	-0.2908
-1.6199 x ts	-0.1369
-1.3028 x u	-0.4743
-1.4188 x v	-0.7501
-2.4112 x y	-0.3545
-1.5895 x z	-0.1475
-2.0176 y &	-0.3246
-2.5730 y @	-0.2198
-2.0667 y A	-0.2716
-2.2169 y D&	-0.5928
-2.7350 y D&i	-0.0352
-2.9254 y E	-0.1729
-1.6347 y I	-0.2109
-1.5510 y N	-0.2813
-1.0049 y S	-0.7087
-2.0240 y U	-0.2589
-1.8885 y Y	-0.3904
-2.2625 y a	-0.1172
-2.8339 y aU	-0.3216
-2.4951 y ai	-0.1588
-1.9408 y b	-0.1311
-2.2221 y d	-0.1861
-0.9449 y dc	-0.6606
-2.3190 y e	-0.0628
-2.1194 y f	-0.2847
-1.7715 y g	-0.2719
-1.7109 y h	-0.0628
-1.8222 y i	-0.1333
-2.0180 y j	-0.2803
-1.7819 y kh	-0.3215
-1.3688 y l	-0.3607
-1.6906 y m	-0.0279
-1.4423 y n	-0.2285
-2.0302 y o	-0.2633
-2.2842 y oe	-0.3609
-1.9668 y ph	-0.2386
-1.5721 y r	-0.3667
-1.2510 y s	+0.2348
-2.4951 y tS	-0.2168
-0.7307 y tc	-0.4644
-1.7080 y th	-0.2723
-2.1941 y ts	-0.2506
-1.7749 y u	+0.0127
-1.4391 y v	-0.5092
-1.4250 y x	-0.5435
-1.2809 y z	-0.1855
-1.0773 z &	+0.6124
-1.6388 z @	+0.0529
-1.5005 z A	-0.1248
-1.4147 z D&	+0.1646
-2.0475 z D&i	-0.0803
-2.2584 z E	-0.3256
-1.2470 z I	-0.6535
-2.0153 z N	-0.0320
-1.9764 z S	-0.0421
-1.3171 z U	+1.0554
-1.5064 z Y	-0.2367
-1.4186 z a	-0.0335
-1.8591 z aU	-0.1535
-1.8618 z ai	-0.2528
-1.8631 z b	-0.3697
-1.6889 z d	-0.3935
-2.0937 z dc	-0.1347
-1.4870 z e	-0.3902
-2.4847 z f	-0.2552
-1.6479 z g	+0.2932
-1.4917 z h	-0.4128
-1.2235 z i	+0.2487
-1.5574 z j	-0.5335
-2.0517 z kh	-0.4036
-1.6512 z l	-0.4967
-1.6316 z m	-0.3806
-1.5739 z n	-0.4422
-1.1405 z o	-0.6499
-1.4987 z oe	-0.3067
-3.6232 z pf
-2.1614 z ph	-0.3678
-1.5648 z r	-0.8513
-2.1455 z s	-0.1059
-3.1895 z tS	-0.2378
-2.1151 z tc	-0.2654
-1.9659 z th	-0.4257
-2.2417 z ts	-0.3175
-1.2188 z u	-0.3293
-1.5860 z v	-0.3473
-2.0868 z x	-0.0455
-1.6925 z y	-0.0959

\3-grams:
-1.4574 & @ &
-1.7710 & @ A
-1.3794 & @ I
-1.1062 & @ N
-1.1409 & @ S
-1.6513 & @ U
-1.9845 & @ ai
-0.8979 & @ dc
-1.9845 & @ g
-1.9845 & @ h
-1.7710 & @ i
-1.9845 & @ j
-1.9845 & @ kh
-1.6513 & @ l
-1.1787 & @ m
-1.1062 & @ n
-1.9845 & @ oe
-1.1062 & @ r
-1.7710 & @ s
-0.9897 & @ tc
-1.9845 & @ th
-1.5291 & @ u
-1.6513 & @ v
-1.9845 & @ x
-1.7710 & @ z
-1.7046 & A &
-2.1723 & A @
-2.3662 & A D&
-2.1723 & A D&i
-2.6994 & A E
-1.9808 & A I
-1.3015 & A N
-1.2722 & A S
-1.7309 & A U
-2.0943 & A Y
-1.8558 & A a
-2.3662 & A aU
-1.7589 & A ai
-1.5733 & A b
-2.2440 & A d
-1.0107 & A dc
-1.7589 & A e
-1.8211 & A f
-1.6340 & A g
-1.4726 & A h
-1.6797 & A i
-1.8936 & A j
-1.5926 & A kh
-1.3552 & A l
-1.4035 & A m
-1.2107 & A n
-1.9808 & A o
-2.0319 & A oe
-1.5036 & A ph
-1.2629 & A r
-1.5036 & A s
-2.3662 & A tS
-1.2538 & A tc
-1.8211 & A th
-1.9350 & A ts
-1.4299 & A u
-1.3222 & A v
-1.6340 & A x
-2.6994 & A y
-1.6128 & A z
-1.8032 & D& &
-2.0450 & D& D&i
-2.0450 & D& I
-1.2154 & D& N
-1.2900 & D& S
-1.4150 & D& U
-2.2586 & D& a
-2.2586 & D& aU
-2.0450 & D& ai
-1.4150 & D& b
-0.8814 & D& dc
-2.2586 & D& e
-1.9253 & D& f
-2.0450 & D& g
-1.5399 & D& h
-2.0450 & D& kh
-1.3181 & D& l
-1.3480 & D& m
-1.1517 & D& n
-1.9253 & D& o
-2.2586 & D& oe
-1.5399 & D& ph
-1.5399 & D& r
-1.4528 & D& s
-0.9260 & D& tc
-2.2586 & D& ts
-1.5911 & D& u
-1.3181 & D& v
-1.2389 & D& x
-1.9253 & D& z
-1.5395 & D&i &
-1.6616 & D&i @
-1.3274 & D&i A
-1.9949 & D&i E
-1.3274 & D&i I
-1.3274 & D&i N
-1.1165 & D&i S
-1.5395 & D&i Y
-1.7813 & D&i a
-1.6616 & D&i ai
-1.0843 & D&i dc
-1.7813 & D&i e
-1.9949 & D&i h
-1.3274 & D&i i
-1.3897 & D&i j
-1.3274 & D&i l
-1.2762 & D&i n
-1.7813 & D&i o
-1.3897 & D&i r
-1.4677 & D&i s
-1.0000 & D&i tc
-1.9949 & D&i u
-1.2762 & D&i x
-1.5395 & D&i z
-0.9980 & E A
-1.2116 & E N
-1.2116 & E U
-1.2116 & E aU
-1.2116 & E dc
-0.9980 & E h
-1.2116 & E n
-0.7562 & E r
-0.8783 & E tc
-1.4306 & I &
-1.9689 & I @
-1.7316 & I A
-1.9689 & I D&
-2.2825 & I D&i
-1.4306 & I N
-1.7316 & I S
-1.3892 & I U
-2.2825 & I Y
-1.7316 & I a
-2.0406 & I aU
-2.4960 & I ai
-1.7316 & I b
-2.0406 & I d
-1.0240 & I dc
-1.5555 & I e
-1.5555 & I g
-1.5275 & I h
-1.8285 & I i
-2.1627 & I j
-1.5011 & I kh
-1.5275 & I l
-1.7316 & I m
-1.2402 & I n
-2.1627 & I o
-2.1627 & I oe
-2.1627 & I ph
-1.1875 & I r
-1.7773 & I s
-1.1188 & I tc
-1.6902 & I th
-1.0688 & I u
-1.5275 & I v
-1.2131 & I x
-2.4960 & I y
-1.5275 & I z
-1.3388 & N &
-1.9502 & N @
-1.8206 & N A
-1.9502 & N D&
-2.0815 & N D&i
-2.4712 & N E
-1.4795 & N I
-1.3675 & N S
-1.5796 & N U
-1.8206 & N Y
-1.7805 & N a
-2.3120 & N aU
-1.7322 & N ai
-1.3388 & N b
-1.8206 & N d
-1.2826 & N dc
-1.6492 & N e
-2.1359 & N f
-1.1566 & N g
-1.5960 & N h
-1.4035 & N i
-1.7209 & N j
-1.4991 & N kh
-1.4199 & N l
-1.5561 & N m
-1.5126 & N n
-1.6992 & N o
-1.9318 & N oe
-2.6210 & N pf
-1.8068 & N ph
-1.6399 & N r
-1.8348 & N s
-2.4089 & N tS
-1.3675 & N tc
-1.6588 & N th
-1.9502 & N ts
-1.1388 & N u
-1.4795 & N v
-1.5796 & N x
-2.0332 & N y
-1.8496 & N z
-1.2666 & S &
-1.8478 & S @
-1.9058 & S A
-1.5676 & S D&
-2.5902 & S D&i
-2.5902 & S E
-1.3530 & S I
-2.0307 & S N
-1.2258 & S U
-1.5334 & S Y
-1.5606 & S a
-1.7967 & S aU
-2.1769 & S ai
-1.7509 & S b
-1.3486 & S d
-1.3573 & S dc
-1.7509 & S e
-1.9058 & S f
-1.3798 & S g
-1.8758 & S h
-1.4391 & S i
-1.7402 & S j
-1.7967 & S kh
-1.6997 & S l
-1.8616 & S m
-1.6287 & S n
-1.3195 & S o
-1.7732 & S oe
-1.6454 & S ph
-1.4339 & S r
-2.0977 & S s
-2.9038 & S tS
-1.6287 & S tc
-1.3155 & S th
-1.7195 & S ts
-1.1946 & S u
-1.4085 & S v
-1.8344 & S x
-1.9912 & S y
-1.6454 & S z
-1.6070 & U &
-2.4854 & U @
-1.8179 & U A
-1.6418 & U D&
-2.0300 & U D&i
-1.7210 & U I
-1.5169 & U N
-1.0875 & U S
-2.0300 & U Y
-1.8179 & U a
-2.2719 & U aU
-1.5169 & U ai
-1.6418 & U b
-2.1521 & U d
-0.9576 & U dc
-1.8803 & U e
-2.1521 & U f
-1.6418 & U g
-1.7210 & U h
-1.5169 & U i
-2.2719 & U j
-1.6796 & U kh
-1.3988 & U l
-1.5749 & U m
-1.3230 & U n
-1.7210 & U o
-1.8803 & U oe
-1.6796 & U ph
-1.5749 & U r
-1.6796 & U s
-2.2719 & U tS
-0.9286 & U tc
-1.9583 & U th
-2.4854 & U ts
-1.5749 & U u
-1.6070 & U v
-1.3988 & U x
-2.4854 & U y
-1.6796 & U z
-1.5520 & Y &
-1.8238 & Y @
-2.1571 & Y A
-1.7017 & Y D&
-2.1571 & Y E
-1.3513 & Y I
-1.6300 & Y N
-1.3135 & Y S
-1.3927 & Y U
-1.5520 & Y a
-2.1571 & Y b
-1.0503 & Y dc
-1.9436 & Y e
-1.7017 & Y g
-2.1571 & Y h
-1.5520 & Y i
-1.4896 & Y j
-1.7017 & Y kh
-1.4385 & Y l
-1.2788 & Y m
-1.5520 & Y n
-1.3927 & Y o
-1.7017 & Y ph
-1.1622 & Y r
-1.9436 & Y s
-1.2166 & Y tc
-1.8238 & Y th
-1.3927 & Y u
-1.3927 & Y v
-1.2466 & Y x
-1.5520 & Y z
-1.5260 & a &
-1.6721 & a A
-2.2230 & a D&
-2.1032 & a I
-1.1669 & a N
-1.1039 & a S
-2.2230 & a Y
-1.9811 & a ai
-1.9094 & a b
-0.8396 & a dc
-2.2230 & a e
-1.9811 & a f
-1.7690 & a g
-2.2230 & a h
-2.2230 & a i
-1.8314 & a kh
-1.1950 & a l
-1.5260 & a m
-0.9645 & a n
-2.2230 & a ph
-1.1406 & a r
-1.4168 & a s
-0.9162 & a tc
-1.8314 & a th
-2.4365 & a ts
-2.1032 & a u
-1.9094 & a v
-1.3499 & a x
-1.8314 & a z
-1.8865 & aU &
-2.3419 & aU A
-1.6232 & aU D&
-1.3734 & aU D&i
-2.1284 & aU I
-1.1973 & aU N
-1.2987 & aU S
-1.2553 & aU U
-2.1284 & aU a
-1.6232 & aU ai
-1.2158 & aU b
-2.3419 & aU d
-1.3222 & aU dc
-2.3419 & aU e
-2.0086 & aU f
-2.0086 & aU g
-1.8865 & aU h
-2.0086 & aU i
-1.8148 & aU kh
-1.6744 & aU l
-1.2553 & aU m
-1.4983 & aU n
-1.4983 & aU o
-1.6232 & aU ph
-1.3222 & aU r
-1.4983 & aU s
-1.2158 & aU tc
-2.3419 & aU th
-1.0093 & aU u
-1.4635 & aU v
-1.2158 & aU x
-1.8865 & aU z
-1.5777 & ai &
-1.8564 & ai @
-1.7160 & ai A
-2.0502 & ai D&
-2.3835 & ai D&i
-1.4430 & ai I
-1.1139 & ai N
-1.1719 & ai S
-2.3835 & ai U
-1.5777 & ai Y
-2.1700 & ai a
-2.3835 & ai aU
-2.0502 & ai d
-1.1567 & ai dc
-1.5777 & ai e
-1.9281 & ai g
-1.7160 & ai h
-1.3886 & ai i
-1.6191 & ai j
-2.0502 & ai kh
-1.0063 & ai l
-1.5051 & ai m
-0.9379 & ai n
-2.1700 & ai o
-1.9281 & ai ph
-1.2212 & ai r
-1.4730 & ai s
-1.2767 & ai tc
-2.1700 & ai th
-1.7784 & ai u
-1.6649 & ai v
-1.9281 & ai x
-2.0502 & ai y
-2.3835 & ai z
-1.1461 & b &
-1.7717 & b @
-1.3835 & b A
-1.1577 & b D&
-1.5798 & b D&i
-1.4706 & b I
-2.1571 & b N
-1.2635 & b S
-1.4955 & b U
-1.9632 & b Y
-1.3835 & b a
-1.7259 & b aU
-1.1944 & b ai
-1.8228 & b d
-1.6120 & b dc
-1.5798 & b e
-2.4903 & b f
-1.4249 & b g
-1.3835 & b i
-2.1571 & b j
-1.8228 & b kh
-1.7717 & b l
-1.8852 & b m
-1.3642 & b n
-1.6467 & b o
-1.7717 & b oe
-1.8852 & b ph
-1.1577 & b r
-1.8852 & b s
-1.7259 & b tc
-1.8852 & b th
-1.3457 & b u
-2.1571 & b v
-1.7259 & b x
-1.8852 & b y
-1.9632 & b z
-1.0414 & d &
-1.9145 & d @
-1.2175 & d A
-1.3636 & d D&
-2.1280 & d E
-1.2497 & d I
-1.6726 & d N
-1.3222 & d S
-1.7948 & d Y
-0.9657 & d a
-1.6726 & d aU
-1.5229 & d dc
-1.7948 & d e
-1.5229 & d h
-1.5229 & d i
-1.9145 & d j
-1.7948 & d kh
-1.9145 & d l
-1.4605 & d m
-1.4094 & d o
-2.1280 & d oe
-0.9486 & d r
-1.9145 & d s
-1.3636 & d tc
-1.5229 & d u
-1.9145 & d v
-1.4605 & d x
-1.8218 & dc &
-2.2778 & dc @
-2.6457 & dc A
-2.1229 & dc D&
-2.8373 & dc D&i
-1.6969 & dc I
-2.0437 & dc N
-1.9279 & dc S
-1.8441 & dc U
-2.1229 & dc Y
-2.0815 & dc a
-3.0311 & dc aU
-2.8373 & dc ai
-0.7290 & dc b
-0.6931 & dc d
-2.0437 & dc e
-2.4239 & dc f
-0.9134 & dc g
-2.3959 & dc h
-1.8007 & dc i
-1.8518 & dc j
-1.4570 & dc kh
-1.8291 & dc l
-1.9979 & dc m
-1.6862 & dc n
-2.0559 & dc o
-2.6000 & dc oe
-1.5031 & dc ph
-2.2198 & dc r
-2.8373 & dc s
-2.7593 & dc tS
-1.9979 & dc tc
-0.9830 & dc th
-2.0559 & dc ts
-1.4794 & dc u
-1.5626 & dc v
-2.1686 & dc x
-2.4539 & dc y
-1.9979 & dc z
-1.5202 & e &
-1.4690 & e A
-1.7323 & e I
-1.2191 & e N
-1.3093 & e S
-1.7323 & e U
-2.1877 & e Y
-1.6605 & e a
-2.1877 & e aU
-1.8544 & e ai
-1.5825 & e b
-0.9181 & e dc
-2.1877 & e f
-1.7323 & e h
-1.5825 & e i
-1.8544 & e j
-1.8544 & e kh
-1.3093 & e l
-1.2771 & e m
-1.5825 & e n
-1.2191 & e o
-1.2191 & e r
-1.7323 & e s
-0.9319 & e tc
-1.9741 & e th
-2.1877 & e u
-1.5202 & e v
-1.6605 & e x
-1.5825 & e z
-1.5752 & f &
-1.6721 & f A
-1.0838 & f D&
-2.3396 & f D&i
-1.8842 & f I
-1.8842 & f N
-1.4960 & f S
-1.2328 & f U
-1.5338 & f Y
-1.4291 & f a
-2.1261 & f aU
-1.6209 & f ai
-1.6209 & f b
-1.4960 & f d
-1.6209 & f dc
-2.3396 & f e
-1.4291 & f g
-1.5752 & f h
-1.8125 & f i
-1.8842 & f j
-1.6721 & f kh
-2.1261 & f l
-1.8842 & f m
-1.4291 & f n
-1.3711 & f o
-1.8842 & f ph
-1.2135 & f r
-2.1261 & f s
-2.3396 & f tS
-1.4612 & f tc
-1.3711 & f th
-1.6721 & f ts
-1.0567 & f u
-1.5752 & f v
-2.1261 & f x
-2.0063 & f y
-1.6209 & f z
-1.0702 & g &
-1.4930 & g @
-1.6095 & g A
-1.6095 & g D&
-2.1546 & g D&i
-2.4879 & g E
-1.4224 & g I
-1.2321 & g N
-1.5474 & g S
-1.3432 & g U
-1.6095 & g Y
-1.6821 & g a
-1.7692 & g aU
-1.9607 & g ai
-1.8204 & g b
-2.2743 & g d
-1.2611 & g dc
-1.7235 & g e
-2.4879 & g f
-1.7692 & g h
-1.4224 & g i
-1.7235 & g j
-2.2743 & g kh
-1.5193 & g l
-1.5474 & g m
-1.2611 & g n
-1.4682 & g o
-1.8204 & g oe
-2.2743 & g ph
-1.3255 & g r
-1.8827 & g s
-2.4879 & g tS
-1.5474 & g tc
-2.0325 & g th
-1.1672 & g u
-1.8204 & g v
-1.3810 & g x
-2.2743 & g y
-1.4209 & h &
-1.7219 & h @
-1.1960 & h A
-1.2883 & h D&
-2.1771 & h D&i
-2.2992 & h E
-1.6128 & h I
-1.3495 & h N
-1.6128 & h S
-1.7541 & h U
-2.1053 & h Y
-1.2053 & h a
-1.5256 & h aU
-1.5670 & h ai
-1.6920 & h b
-1.9650 & h d
-2.1053 & h dc
-1.6639 & h e
-1.6920 & h f
-1.7541 & h g
-1.6376 & h i
-1.9138 & h j
-1.8267 & h kh
-1.5670 & h l
-1.3366 & h m
-1.5893 & h n
-1.3240 & h o
-1.7889 & h oe
-2.4189 & h ph
-1.1691 & h r
-1.7889 & h s
-1.8681 & h tc
-1.8681 & h th
-2.1771 & h ts
-1.1438 & h u
-1.6920 & h v
-1.6376 & h x
-2.1053 & h y
-1.6920 & h z
-1.6475 & i &
-2.2776 & i @
-2.4912 & i A
-2.4912 & i D&
-1.2643 & i I
-1.2643 & i N
-0.9709 & i S
-2.0358 & i U
-1.8860 & i Y
-2.2776 & i a
-2.1579 & i ai
-1.8860 & i b
-2.0358 & i d
-0.9785 & i dc
-2.0358 & i e
-1.8860 & i f
-1.7267 & i g
-1.5506 & i h
-1.4480 & i j
-1.7267 & i kh
-1.3118 & i l
-1.5506 & i m
-1.3288 & i n
-2.2776 & i ph
-1.9640 & i r
-1.5506 & i s
-2.2776 & i tS
-0.9343 & i tc
-1.8860 & i th
-1.7267 & i ts
-2.0358 & i u
-1.6128 & i v
-1.1357 & i x
-2.4912 & i y
-1.5806 & i z
-1.0575 & j &
-1.6750 & j @
-0.7943 & j A
-1.7468 & j D&
-1.9886 & j I
-1.7468 & j N
-1.5347 & j S
-1.9886 & j U
-1.0760 & j a
-1.5970 & j aU
-1.5970 & j ai
-1.9886 & j d
-1.3238 & j e
-1.8689 & j g
-1.7468 & j h
-1.2916 & j i
-1.7468 & j kh
-1.8689 & j l
-1.5347 & j m
-2.2022 & j n
-1.5347 & j o
-2.2022 & j ph
-0.8357 & j r
-1.9886 & j s
-1.7468 & j tc
-2.2022 & j th
-1.3586 & j u
-1.8689 & j x
-1.4338 & kh &
-2.0438 & kh @
-1.4126 & kh A
-1.4560 & kh D&
-2.2857 & kh D&i
-2.2857 & kh E
-1.5044 & kh I
-1.6209 & kh N
-1.6934 & kh S
-1.7348 & kh U
-1.8317 & kh Y
-1.2724 & kh a
-1.8941 & kh aU
-1.4560 & kh ai
-1.7806 & kh b
-2.2857 & kh d
-1.2876 & kh dc
-1.7348 & kh e
-1.9721 & kh f
-1.3924 & kh g
-1.6209 & kh h
-1.4126 & kh i
-2.1659 & kh j
-1.7348 & kh l
-1.6934 & kh m
-1.3731 & kh n
-1.7348 & kh o
-1.7348 & kh oe
-1.5587 & kh ph
-1.2296 & kh r
-1.8317 & kh s
-2.1659 & kh tS
-1.3369 & kh tc
-1.4795 & kh th
-1.8941 & kh ts
-1.1907 & kh u
-1.5044 & kh v
-1.6556 & kh x
-2.4992 & kh y
-2.2857 & kh z
-1.1042 & l &
-1.3711 & l @
-1.5896 & l A
-1.8004 & l D&
-2.2642 & l D&i
-2.0503 & l E
-1.3465 & l I
-1.6721 & l N
-1.4543 & l S
-1.9631 & l U
-1.6524 & l Y
-1.3611 & l a
-1.9254 & l aU
-1.6428 & l ai
-1.8432 & l b
-1.8906 & l d
-1.2927 & l dc
-1.3813 & l e
-2.4648 & l f
-1.6823 & l g
-1.8742 & l h
-1.2374 & l i
-1.7258 & l j
-1.8142 & l kh
-1.7615 & l m
-1.5062 & l n
-1.7741 & l o
-1.7374 & l oe
-1.8432 & l ph
-1.4482 & l r
-1.6721 & l s
-2.4648 & l tS
-1.1916 & l tc
-1.7493 & l th
-2.4025 & l ts
-1.4927 & l u
-1.5980 & l v
-1.8742 & l x
-1.9631 & l y
-1.4667 & l z
-1.1914 & m &
-1.6591 & m @
-1.3723 & m A
-1.2420 & m D&
-1.9744 & m D&i
-2.9149 & m E
-1.5272 & m I
-1.7525 & m N
-1.7355 & m S
-1.5822 & m U
-1.9463 & m Y
-1.1091 & m a
-1.6319 & m aU
-1.2420 & m ai
-1.7525 & m b
-1.8952 & m d
-1.5707 & m dc
-1.6190 & m e
-2.3097 & m f
-1.6319 & m g
-1.5070 & m h
-1.3581 & m i
-1.7525 & m j
-1.7033 & m kh
-1.8717 & m l
-1.5170 & m n
-1.5377 & m o
-1.9200 & m oe
-2.0043 & m ph
-1.4344 & m r
-1.8080 & m s
-2.9149 & m tS
-1.9200 & m tc
-1.9744 & m th
-2.3097 & m ts
-1.1251 & m u
-1.8494 & m v
-1.6064 & m x
-1.8952 & m y
-1.8080 & m z
-1.1872 & n &
-1.6471 & n @
-1.3608 & n A
-1.5221 & n D&
-2.3113 & n D&i
-2.3113 & n E
-1.2729 & n I
-1.8689 & n N
-1.4958 & n S
-1.6471 & n U
-1.9628 & n Y
-1.1465 & n a
-1.7625 & n aU
-1.4958 & n ai
-1.5501 & n b
-1.6848 & n d
-1.2609 & n dc
-1.5619 & n e
-2.2791 & n f
-1.4758 & n g
-1.6770 & n h
-1.3683 & n i
-1.7625 & n j
-1.6328 & n kh
-1.7720 & n l
-1.6123 & n m
-1.8454 & n o
-2.1699 & n oe
-3.1896 & n pf
-1.8454 & n ph
-1.5927 & n r
-2.0635 & n s
-2.6625 & n tS
-1.4124 & n tc
-1.7009 & n th
-1.9938 & n ts
-1.4758 & n u
-1.5501 & n v
-1.4857 & n x
-2.3460 & n y
-1.6848 & n z
-1.9154 & o &
-1.6521 & o @
-1.7656 & o A
-2.0375 & o D&
-2.0375 & o D&i
-1.6521 & o I
-1.6521 & o N
-1.2084 & o S
-1.7033 & o U
-2.1573 & o Y
-1.7656 & o a
-2.3708 & o aU
-1.5272 & o ai
-1.3276 & o b
-2.1573 & o d
-1.0623 & o dc
-1.6064 & o f
-1.8437 & o g
-1.5650 & o h
-1.8437 & o i
-1.9154 & o j
-1.6064 & o kh
-1.2842 & o l
-1.5272 & o m
-1.5272 & o n
-2.3708 & o oe
-1.4603 & o ph
-1.4303 & o r
-1.3511 & o s
-2.1573 & o tS
-1.1440 & o tc
-1.7656 & o th
-2.1573 & o ts
-1.3276 & o u
-1.6064 & o v
-1.4603 & o x
-1.4603 & o z
-1.1973 & oe &
-1.5315 & oe @
-1.4094 & oe A
-1.8648 & oe I
-1.1973 & oe N
-1.0212 & oe S
-1.1461 & oe a
-1.8648 & oe ai
-1.5315 & oe dc
-1.6513 & oe e
-1.8648 & oe f
-1.3377 & oe i
-1.8648 & oe j
-1.8648 & oe l
-1.8648 & oe m
-1.0590 & oe n
-1.8648 & oe o
-1.1973 & oe r
-1.3377 & oe s
-1.2596 & oe tc
-1.6513 & oe th
-1.8648 & oe u
-1.8648 & oe v
-1.4094 & oe x
-0.4634 & pf x
-1.3157 & ph &
-1.9510 & ph @
-1.7571 & ph A
-1.5656 & ph D&
-1.9510 & ph D&i
-1.2646 & ph I
-1.5198 & ph N
-1.5656 & ph S
-1.7571 & ph U
-1.6791 & ph Y
-1.2411 & ph a
-1.8289 & ph aU
-1.7571 & ph ai
-1.5198 & ph b
-1.8289 & ph d
-1.2411 & ph dc
-2.2843 & ph e
-2.2843 & ph f
-1.5656 & ph g
-1.8289 & ph h
-1.9510 & ph i
-2.0707 & ph j
-1.5656 & ph kh
-1.5198 & ph l
-1.7571 & ph m
-1.5656 & ph n
-1.3437 & ph o
-2.0707 & ph oe
-1.2411 & ph r
-2.2843 & ph s
-1.9510 & ph tS
-1.3157 & ph tc
-1.8289 & ph th
-1.2411 & ph u
-1.4406 & ph v
-1.4406 & ph x
-1.9510 & ph y
-1.6791 & ph z
-1.6656 & r &
-2.2027 & r @
-1.8706 & r A
-1.9098 & r D&
-2.1869 & r D&i
-2.6798 & r E
-1.7256 & r I
-1.5407 & r N
-1.4757 & r S
-1.9098 & r U
-2.0006 & r Y
-1.6609 & r a
-2.0006 & r aU
-1.6518 & r ai
-1.3646 & r b
-2.1570 & r d
-0.8797 & r dc
-1.8080 & r e
-2.0778 & r f
-1.6384 & r g
-1.8016 & r h
-1.5585 & r i
-2.1717 & r j
-1.5269 & r kh
-1.5303 & r l
-1.6255 & r m
-1.4974 & r n
-1.7767 & r o
-2.1717 & r oe
-3.3985 & r pf
-1.5585 & r ph
-1.6212 & r s
-2.4036 & r tS
-0.9257 & r tc
-1.6847 & r th
-1.8937 & r ts
-1.4036 & r u
-1.2539 & r v
-1.5585 & r x
-2.3119 & r y
-1.5659 & r z
-1.6535 & s &
-2.5618 & s @
-1.8754 & s A
-2.1307 & s D&
-2.4397 & s D&i
-2.6815 & s E
-1.5509 & s I
-2.0893 & s N
-1.2981 & s S
-1.9002 & s U
-1.7327 & s Y
-1.9265 & s a
-2.3679 & s aU
-2.3679 & s ai
-1.6393 & s b
-1.5179 & s d
-1.2386 & s dc
-2.1764 & s e
-1.6835 & s f
-1.2981 & s g
-1.5625 & s h
-1.6393 & s i
-1.8519 & s j
-1.3383 & s kh
-1.7327 & s l
-1.7157 & s m
-1.6121 & s n
-1.9002 & s o
-2.0893 & s oe
-1.2222 & s ph
-1.7157 & s r
-1.8519 & s tS
-1.3983 & s tc
-1.1484 & s th
-1.2168 & s ts
-1.5074 & s u
-1.3672 & s v
-1.6255 & s x
-2.8951 & s y
-1.2012 & s z
-1.8289 & tS &
-1.8289 & tS I
-1.6153 & tS N
-1.1102 & tS S
-1.3735 & tS U
-1.6153 & tS Y
-1.8289 & tS ai
-1.8289 & tS b
-1.2237 & tS d
-1.6153 & tS dc
-1.8289 & tS f
-1.6153 & tS g
-1.3735 & tS h
-1.6153 & tS i
-1.8289 & tS j
-1.3735 & tS kh
-1.1614 & tS n
-1.8289 & tS o
-1.6153 & tS ph
-1.3017 & tS r
-1.6153 & tS tc
-1.1102 & tS th
-1.3017 & tS ts
-1.6153 & tS u
-1.3017 & tS v
-1.6153 & tS x
-1.4956 & tS z
-2.0128 & tc &
-2.7020 & tc @
-2.8936 & tc A
-2.2249 & tc D&
-2.1122 & tc I
-2.8936 & tc N
-1.0414 & tc S
-2.4010 & tc U
-2.4010 & tc Y
-2.0228 & tc a
-2.6563 & tc aU
-2.9653 & tc ai
-1.3300 & tc b
-1.2045 & tc d
-1.7425 & tc dc
-2.1378 & tc e
-1.9661 & tc f
-0.9004 & tc g
-2.3341 & tc h
-1.9750 & tc i
-2.2946 & tc j
-1.0608 & tc kh
-2.3341 & tc l
-2.5771 & tc m
-2.2583 & tc n
-2.2091 & tc o
-2.8156 & tc oe
-2.4258 & tc pf
-1.0299 & tc ph
-1.8569 & tc r
-2.2946 & tc s
-1.7320 & tc tS
-0.8100 & tc th
-1.0499 & tc ts
-1.7372 & tc u
-1.9081 & tc v
-1.7871 & tc x
-2.9653 & tc y
-1.4632 & tc z
-1.2407 & th &
-1.9811 & th @
-1.5260 & th A
-1.7690 & th D&
-1.4168 & th I
-1.6307 & th N
-1.4680 & th S
-1.5582 & th U
-2.2230 & th Y
-1.4680 & th a
-2.2230 & th aU
-1.9094 & th ai
-1.5929 & th b
-2.1032 & th d
-1.0923 & th dc
-1.7179 & th e
-2.4365 & th f
-1.5260 & th g
-1.5929 & th h
-1.4960 & th i
-1.9811 & th j
-1.5929 & th kh
-1.5582 & th l
-1.7690 & th m
-1.2097 & th n
-1.3711 & th o
-2.2230 & th oe
-1.5260 & th ph
-1.4168 & th r
-2.1032 & th s
-2.4365 & th tS
-1.2571 & th tc
-1.7179 & th ts
-1.3104 & th u
-1.5260 & th v
-1.7179 & th x
-1.5929 & th z
-1.4548 & ts &
-1.9819 & ts @
-1.6486 & ts A
-1.3768 & ts D&
-1.1035 & ts I
-1.3144 & ts N
-1.7684 & ts S
-1.3144 & ts U
-1.5265 & ts Y
-1.5265 & ts a
-1.3768 & ts d
-1.7684 & ts dc
-1.6486 & ts e
-1.5265 & ts g
-1.6486 & ts h
-1.2632 & ts i
-1.5265 & ts kh
-1.6486 & ts l
-1.6486 & ts m
-1.2175 & ts n
-1.2175 & ts o
-1.6486 & ts ph
-1.4548 & ts r
-1.9819 & ts tS
-1.4548 & ts tc
-1.9819 & ts th
-1.5265 & ts u
-1.6486 & ts v
-1.7684 & ts y
-1.9819 & ts z
-1.8023 & u &
-1.9942 & u @
-2.3796 & u A
-1.9484 & u D&
-1.9484 & u D&i
-1.7180 & u I
-1.1560 & u N
-1.0972 & u S
-1.3921 & u U
-1.5867 & u Y
-1.7443 & u a
-2.2574 & u aU
-1.8692 & u ai
-1.4299 & u b
-2.1857 & u d
-1.1159 & u dc
-2.3796 & u e
-1.7723 & u f
-1.5013 & u g
-1.6931 & u h
-1.6474 & u i
-2.1077 & u j
-1.8692 & u kh
-1.2672 & u l
-1.3686 & u m
-1.1631 & u n
-1.9070 & u o
-2.2574 & u oe
-1.9942 & u ph
-1.3802 & u r
-1.6697 & u s
-1.1422 & u tc
-1.9070 & u th
-1.9942 & u ts
-1.5682 & u v
-1.4571 & u x
-2.1857 & u y
-1.8023 & u z
-1.0880 & v &
-1.5538 & v @
-1.4206 & v A
-1.2155 & v D&
-1.6977 & v D&i
-2.3822 & v E
-1.3890 & v I
-1.9144 & v N
-1.6977 & v S
-1.6977 & v U
-1.9144 & v Y
-1.1537 & v a
-1.6008 & v aU
-1.1363 & v ai
-1.9988 & v b
-1.8439 & v d
-2.1035 & v dc
-1.4206 & v e
-2.6958 & v f
-1.9408 & v g
-1.7299 & v h
-1.3387 & v i
-1.9408 & v j
-2.0657 & v kh
-1.8227 & v l
-1.8025 & v m
-1.7832 & v n
-1.2757 & v o
-1.4728 & v oe
-2.3042 & v ph
-1.3740 & v r
-2.0657 & v s
-2.4539 & v tS
-2.3822 & v tc
-2.3822 & v th
-2.6958 & v ts
-1.1196 & v u
-1.8227 & v x
-1.6397 & v y
-2.1449 & v z
-1.5801 & x &
-2.0450 & x @
-2.0450 & x A
-1.8937 & x D&
-1.5331 & x I
-1.7262 & x N
-1.1797 & x S
-1.6928 & x U
-1.6190 & x Y
-1.6471 & x a
-2.1699 & x aU
-2.2834 & x ai
-1.5679 & x b
-1.6057 & x d
-1.1156 & x dc
-1.7092 & x e
-2.0450 & x f
-1.4252 & x g
-1.5221 & x h
-1.5331 & x i
-1.7440 & x j
-1.5114 & x kh
-1.7625 & x l
-1.6057 & x m
-1.3318 & x n
-1.9481 & x o
-2.2834 & x oe
-1.4521 & x ph
-1.4429 & x r
-1.7625 & x s
-2.0102 & x tS
-1.1999 & x tc
-1.4907 & x th
-1.4429 & x ts
-1.4907 & x u
-1.4166 & x v
-2.2834 & x y
-1.4521 & x z
-1.5194 & y I
-0.9685 & y S
-1.7329 & y a
-1.3996 & y b
-0.7924 & y dc
-1.7329 & y f
-1.7329 & y g
-1.5194 & y i
-1.7329 & y kh
-1.5194 & y l
-1.5194 & y m
-1.7329 & y n
-1.7329 & y s
-0.6897 & y tc
-1.5194 & y u
-1.5194 & y v
-1.3996 & y x
-1.7329 & y z
-1.0995 & z &
-1.7411 & z @
-1.5720 & z A
-1.3391 & z D&
-2.1091 & z D&i
-2.3006 & z E
-1.3230 & z I
-2.1602 & z N
-1.7209 & z S
-1.4401 & z U
-1.5720 & z Y
-1.4199 & z a
-1.8872 & z aU
-1.9842 & z ai
-1.6162 & z b
-1.6162 & z d
-1.8592 & z dc
-1.5582 & z e
-2.3006 & z f
-1.6484 & z g
-1.5070 & z h
-1.2438 & z i
-1.7623 & z j
-1.7209 & z kh
-1.7623 & z l
-1.5582 & z m
-1.4101 & z n
-1.2709 & z o
-1.5319 & z oe
-2.0633 & z ph
-1.5582 & z r
-1.8592 & z s
-1.9842 & z tc
-1.6320 & z th
-2.3724 & z ts
-1.2852 & z u
-1.4613 & z v
-1.9172 & z x
-1.6484 & z y
-2.3740 @ & @
-2.3740 @ & A
-2.3740 @ & D&i
-2.3740 @ & E
-2.1605 @ & I
-1.5682 @ & N
-1.0185 @ & S
-2.0407 @ & U
-2.1605 @ & Y
-2.3740 @ & a
-1.9186 @ & aU
-2.1605 @ & ai
-1.6096 @ & b
-2.3740 @ & d
-1.0298 @ & dc
-2.3740 @ & e
-2.1605 @ & g
-1.5682 @ & h
-1.6096 @ & i
-2.3740 @ & j
-1.7065 @ & kh
-1.3791 @ & l
-1.3543 @ & m
-1.1782 @ & n
-2.1605 @ & o
-2.1605 @ & oe
-1.9186 @ & ph
-1.2672 @ & r
-1.4957 @ & s
-2.3740 @ & tS
-0.8387 @ & tc
-1.4335 @ & th
-2.1605 @ & ts
-1.7065 @ & u
-1.4635 @ & v
-1.3543 @ & x
-1.4635 @ & z
-1.8591 @ A &
-2.0184 @ A @
-2.0184 @ A D&
-2.2903 @ A D&i
-2.0964 @ A I
-1.2359 @ A N
-1.4612 @ A S
-2.2903 @ A U
-2.1682 @ A Y
-1.6550 @ A a
-2.2903 @ A aU
-1.8591 @ A ai
-1.4789 @ A b
-2.4100 @ A d
-1.0530 @ A dc
-2.0964 @ A e
-1.7800 @ A f
-1.7130 @ A g
-1.4120 @ A h
-1.5369 @ A i
-2.4100 @ A j
-1.6550 @ A kh
-1.2464 @ A l
-1.1870 @ A m
-1.3540 @ A n
-1.9560 @ A o
-2.6236 @ A oe
-1.6039 @ A ph
-1.2157 @ A r
-1.4789 @ A s
-1.1779 @ A tc
-1.7800 @ A th
-2.2903 @ A ts
-1.4120 @ A u
-1.4442 @ A v
-1.3820 @ A x
-2.4100 @ A y
-1.4974 @ A z
-1.6970 @ D& &
-1.9106 @ D& @
-1.9106 @ D& D&i
-1.9106 @ D& I
-1.0669 @ D& N
-1.1461 @ D& S
-1.9106 @ D& Y
-1.9106 @ D& ai
-1.5773 @ D& b
-1.0000 @ D& dc
-1.5773 @ D& e
-1.5773 @ D& f
-1.5773 @ D& h
-1.6970 @ D& kh
-1.5773 @ D& l
-1.5773 @ D& m
-1.6970 @ D& n
-1.6970 @ D& ph
-1.0669 @ D& r
-1.6970 @ D& s
-0.9700 @ D& tc
-1.9106 @ D& th
-1.4552 @ D& u
-1.6970 @ D& v
-1.1047 @ D& x
-1.9106 @ D& z
-1.3834 @ D&i &
-1.2637 @ D&i N
-1.0698 @ D&i S
-1.3834 @ D&i Y
-1.3834 @ D&i a
-0.6864 @ D&i dc
-1.5969 @ D&i j
-0.7911 @ D&i l
-1.5969 @ D&i n
-1.3834 @ D&i r
-0.7911 @ D&i tc
-1.4457 @ E A
-1.2321 @ E N
-0.9903 @ E S
-1.4457 @ E e
-1.1124 @ E i
-1.4457 @ E j
-1.4457 @ E l
-0.7270 @ E r
-1.4457 @ E tc
-0.9903 @ E x
-1.4457 @ E y
-1.4457 @ E z
-1.4177 @ I &
-1.6562 @ I @
-1.4969 @ I A
-2.2614 @ I D&
-1.9281 @ I N
-1.3830 @ I S
-1.7342 @ I U
-1.9281 @ I a
-2.0478 @ I ai
-2.0478 @ I d
-1.0198 @ I dc
-1.5938 @ I e
-1.3830 @ I g
-1.9281 @ I h
-1.6562 @ I i
-1.7342 @ I j
-1.5938 @ I kh
-1.5427 @ I l
-1.8060 @ I m
-1.2665 @ I n
-1.6562 @ I o
-2.0478 @ I oe
-2.0478 @ I ph
-0.9784 @ I r
-1.5938 @ I s
-1.0656 @ I tc
-1.8060 @ I th
-2.2614 @ I ts
-1.2182 @ I u
-1.2928 @ I v
-1.4969 @ I x
-1.6562 @ I z
-1.5619 @ N &
-1.6588 @ N @
-1.8629 @ N A
-1.6773 @ N D&
-2.4702 @ N D&i
-2.0390 @ N E
-1.1096 @ N I
-1.3956 @ N S
-1.6411 @ N U
-1.7380 @ N Y
-1.8929 @ N a
-2.2763 @ N aU
-2.0390 @ N ai
-1.5919 @ N b
-1.9251 @ N d
-1.4949 @ N dc
-1.7603 @ N e
-2.2763 @ N f
-1.2831 @ N g
-1.5477 @ N h
-1.3314 @ N i
-1.3763 @ N j
-1.5339 @ N kh
-1.4827 @ N l
-1.5205 @ N m
-1.3066 @ N n
-1.6966 @ N o
-2.1359 @ N oe
-1.8086 @ N ph
-1.6411 @ N r
-1.8349 @ N s
-2.5899 @ N tS
-1.3400 @ N tc
-1.7380 @ N th
-2.2763 @ N ts
-1.3147 @ N u
-1.5619 @ N v
-1.2908 @ N x
-2.1359 @ N y
-1.5766 @ N z
-1.2203 @ S &
-1.6278 @ S @
-2.3465 @ S A
-1.8911 @ S D&
-1.3779 @ S I
-1.8194 @ S N
-1.3779 @ S U
-1.8194 @ S Y
-2.1329 @ S a
-2.3465 @ S ai
-1.6790 @ S b
-1.4060 @ S d
-1.1671 @ S dc
-2.0132 @ S e
-1.8194 @ S f
-1.5407 @ S g
-1.7413 @ S h
-1.4060 @ S i
-1.5821 @ S j
-1.5029 @ S kh
-1.8911 @ S l
-1.6790 @ S m
-1.4359 @ S n
-1.4359 @ S o
-1.8194 @ S oe
-1.7413 @ S ph
-1.6278 @ S r
-1.5821 @ S s
-2.3465 @ S tS
-1.3516 @ S tc
-1.4060 @ S th
-2.0132 @ S ts
-1.1507 @ S u
-1.3779 @ S v
-1.5029 @ S x
-2.3465 @ S y
-1.5407 @ S z
-1.7145 @ U &
-1.5923 @ U @
-1.7145 @ U A
-1.7145 @ U D&
-1.8342 @ U N
-1.1694 @ U S
-1.7145 @ U ai
-1.3802 @ U b
-1.0792 @ U dc
-1.5206 @ U e
-1.2833 @ U h
-2.0477 @ U i
-1.7145 @ U j
-1.7145 @ U kh
-1.3802 @ U l
-1.8342 @ U m
-1.3291 @ U n
-1.5206 @ U o
-1.8342 @ U oe
-2.0477 @ U ph
-1.5206 @ U r
-2.0477 @ U s
-0.9823 @ U tc
-1.7145 @ U th
-1.7145 @ U ts
-1.3802 @ U u
-1.2833 @ U v
-1.5206 @ U x
-2.0477 @ U y
-1.8342 @ U z
-1.6983 @ Y &
-1.5045 @ Y @
-2.0316 @ Y D&
-2.0316 @ Y D&i
-1.5045 @ Y I
-1.4264 @ Y N
-1.1880 @ Y S
-1.6983 @ Y U
-1.8181 @ Y a
-2.0316 @ Y ai
-1.1532 @ Y dc
-1.3641 @ Y e
-1.6983 @ Y g
-1.6983 @ Y h
-1.8181 @ Y i
-1.6983 @ Y j
-1.3641 @ Y l
-1.6983 @ Y m
-1.4264 @ Y n
-1.8181 @ Y o
-1.3129 @ Y r
-1.8181 @ Y s
-1.1880 @ Y tc
-1.5045 @ Y th
-1.2672 @ Y u
-1.1880 @ Y v
-1.1532 @ Y x
-1.8181 @ Y y
-1.3641 @ Y z
-2.1318 @ a &
-2.3453 @ a @
-2.1318 @ a A
-2.0121 @ a I
-1.3022 @ a N
-1.2799 @ a S
-2.3453 @ a U
-1.8900 @ a ai
-2.3453 @ a b
-2.1318 @ a d
-0.6778 @ a dc
-1.8900 @ a e
-2.3453 @ a f
-2.1318 @ a g
-1.8900 @ a h
-2.0121 @ a i
-2.1318 @ a j
-1.8900 @ a kh
-0.9681 @ a l
-1.8182 @ a m
-0.9475 @ a n
-1.6267 @ a ph
-1.3505 @ a r
-1.2007 @ a s
-2.1318 @ a tS
-1.0369 @ a tc
-2.3453 @ a th
-1.7402 @ a u
-2.3453 @ a v
-1.5809 @ a x
-1.7402 @ a z
-1.9603 @ aU &
-1.4332 @ aU D&
-1.5049 @ aU D&i
-1.2417 @ aU N
-1.7468 @ aU S
-1.3552 @ aU U
-1.5049 @ aU a
-1.6270 @ aU ai
-1.4332 @ aU b
-1.7468 @ aU d
-1.0498 @ aU dc
-1.6270 @ aU f
-1.9603 @ aU g
-1.7468 @ aU h
-1.5049 @ aU l
-1.3552 @ aU m
-1.3552 @ aU n
-1.6270 @ aU o
-1.7468 @ aU ph
-1.1545 @ aU r
-1.3552 @ aU s
-1.2928 @ aU tc
-1.2928 @ aU u
-1.7468 @ aU v
-1.0498 @ aU x
-1.6670 @ ai &
-1.5267 @ ai @
-1.6670 @ ai A
-1.9806 @ ai D&
-1.3884 @ ai I
-1.2537 @ ai N
-1.6670 @ ai S
-1.8609 @ ai Y
-2.1942 @ ai b
-0.9112 @ ai dc
-1.7388 @ ai e
-1.7388 @ ai g
-2.1942 @ ai h
-1.3884 @ ai i
-1.6670 @ ai j
-1.6670 @ ai kh
-0.9826 @ ai l
-1.8609 @ ai m
-0.8734 @ ai n
-2.1942 @ ai o
-2.1942 @ ai oe
-1.2537 @ ai r
-1.8609 @ ai s
-1.2256 @ ai tc
-1.7388 @ ai th
-1.7388 @ ai u
-1.9806 @ ai v
-1.4298 @ ai x
-1.9806 @ ai y
-1.9806 @ ai z
-1.2011 @ b &
-1.5147 @ b @
-1.2011 @ b D&
-0.9638 @ b I
-1.7282 @ b N
-1.5147 @ b U
-1.5147 @ b Y
-1.3949 @ b a
-1.5147 @ b ai
-1.7282 @ b d
-1.7282 @ b dc
-1.1231 @ b e
-1.2728 @ b h
-1.3949 @ b i
-1.7282 @ b j
-1.2728 @ b m
-1.0607 @ b n
-1.5147 @ b r
-1.7282 @ b u
-1.7282 @ b x
-1.2235 @ d &
-1.1014 @ d A
-1.5568 @ d D&
-1.5568 @ d I
-1.5568 @ d N
-1.5568 @ d S
-0.9517 @ d a
-1.5568 @ d aU
-1.3433 @ d ai
-1.2235 @ d l
-1.5568 @ d m
-0.7510 @ d r
-1.5568 @ d s
-1.3433 @ d tc
-1.9487 @ dc &
-2.2541 @ dc @
-2.8592 @ dc A
-1.9809 @ dc D&
-2.8592 @ dc D&i
-1.4416 @ dc I
-2.2541 @ dc N
-1.7146 @ dc S
-1.9187 @ dc U
-2.0948 @ dc Y
-2.0948 @ dc a
-2.4039 @ dc ai
-0.8324 @ dc b
-0.7852 @ dc d
-1.8395 @ dc e
-2.2541 @ dc f
-0.8300 @ dc g
-2.0948 @ dc h
-1.6035 @ dc i
-1.7524 @ dc j
-1.3624 @ dc kh
-1.8644 @ dc l
-2.1406 @ dc m
-1.6969 @ dc n
-1.9487 @ dc o
-2.6457 @ dc oe
-2.8592 @ dc pf
-1.5763 @ dc ph
-2.2541 @ dc r
-2.1917 @ dc s
-2.8592 @ dc tS
-2.2541 @ dc tc
-1.0049 @ dc th
-1.7331 @ dc ts
-1.4321 @ dc u
-1.5897 @ dc v
-2.0948 @ dc x
-2.2541 @ dc y
-2.1917 @ dc z
-2.2038 @ e @
-1.7484 @ e A
-1.9902 @ e I
-1.3602 @ e N
-1.3979 @ e S
-1.8705 @ e U
-1.9902 @ e Y
-1.9902 @ e aU
-1.9902 @ e ai
-0.7959 @ e dc
-2.2038 @ e f
-2.2038 @ e g
-1.8705 @ e i
-1.9902 @ e j
-1.6766 @ e kh
-1.0969 @ e l
-1.7484 @ e m
-1.0591 @ e n
-1.0776 @ e r
-1.6766 @ e s
-2.2038 @ e tS
-0.7491 @ e tc
-1.9902 @ e th
-1.8705 @ e ts
-2.2038 @ e u
-1.3979 @ e x
-1.4851 @ e z
-1.5905 @ f &
-1.3770 @ f D&
-1.3770 @ f I
-1.5905 @ f N
-1.5905 @ f S
-1.2572 @ f U
-1.2572 @ f a
-1.5905 @ f dc
-1.0634 @ f g
-1.5905 @ f i
-1.5905 @ f n
-1.2572 @ f s
-1.5905 @ f th
-0.9230 @ f u
-1.2572 @ f v
-1.5905 @ f x
-1.3770 @ f z
-1.2480 @ g &
-1.3449 @ g @
-1.4853 @ g A
-1.7989 @ g D&
-2.0124 @ g D&i
-1.2480 @ g I
-1.2480 @ g N
-1.5570 @ g S
-1.4072 @ g U
-1.7989 @ g a
-1.4072 @ g aU
-1.7989 @ g ai
-2.0124 @ g b
-1.1688 @ g dc
-1.6791 @ g e
-1.6791 @ g h
-1.2480 @ g i
-1.6791 @ g kh
-1.3449 @ g l
-1.4072 @ g m
-1.2480 @ g n
-1.7989 @ g o
-1.6791 @ g oe
-1.6791 @ g r
-2.0124 @ g s
-1.2937 @ g tc
-1.1688 @ g u
-2.0124 @ g x
-2.0124 @ g y
-1.5011 @ h &
-1.6603 @ h @
-0.8990 @ h A
-2.0519 @ h D&
-1.8101 @ h D&i
-2.2655 @ h E
-1.4597 @ h I
-1.5980 @ h N
-2.0519 @ h S
-1.7383 @ h U
-1.9322 @ h Y
-1.2458 @ h a
-2.2655 @ h aU
-1.2706 @ h ai
-1.9322 @ h d
-1.8101 @ h dc
-1.4219 @ h e
-1.8101 @ h g
-1.6603 @ h i
-1.5011 @ h j
-1.9322 @ h kh
-1.7383 @ h l
-1.3250 @ h m
-1.4219 @ h n
-1.5011 @ h o
-1.9322 @ h oe
-2.2655 @ h pf
-1.8101 @ h ph
-1.2000 @ h r
-1.9322 @ h s
-2.2655 @ h tc
-1.7383 @ h th
-2.2655 @ h ts
-1.2458 @ h u
-1.5980 @ h v
-1.5011 @ h x
-2.0519 @ h y
-1.8101 @ h z
-2.1249 @ i &
-1.8113 @ i @
-2.3385 @ i A
-2.3385 @ i D&
-2.3385 @ i E
-1.1116 @ i I
-1.3979 @ i N
-0.7679 @ i S
-2.1249 @ i U
-2.3385 @ i Y
-2.3385 @ i a
-2.0052 @ i aU
-2.3385 @ i b
-0.9830 @ i dc
-1.8113 @ i e
-1.8831 @ i g
-2.1249 @ i h
-1.5326 @ i j
-1.6709 @ i kh
-1.5326 @ i l
-1.8113 @ i m
-1.3699 @ i n
-2.3385 @ i o
-1.8831 @ i ph
-2.0052 @ i r
-1.3699 @ i s
-2.1249 @ i tS
-1.0177 @ i tc
-2.0052 @ i th
-2.0052 @ i ts
-2.0052 @ i u
-1.8113 @ i v
-1.0426 @ i x
-1.4601 @ i z
-1.5091 @ j &
-1.7030 @ j @
-0.7667 @ j A
-1.8227 @ j S
-1.7030 @ j U
-1.0958 @ j a
-1.1257 @ j aU
-1.8227 @ j ai
-1.3688 @ j e
-1.8227 @ j f
-2.0363 @ j h
-2.0363 @ j i
-1.5809 @ j kh
-1.3688 @ j l
-1.8227 @ j m
-1.8227 @ j n
-1.5809 @ j o
-1.8227 @ j oe
-0.7155 @ j r
-1.2304 @ j u
-1.8227 @ j v
-1.8227 @ j z
-1.4334 @ kh &
-1.4957 @ kh @
-1.2951 @ kh A
-1.7676 @ kh D&
-1.5737 @ kh I
-1.4957 @ kh N
-1.1903 @ kh S
-1.8873 @ kh U
-1.7676 @ kh Y
-1.4334 @ kh a
-1.6455 @ kh aU
-1.5737 @ kh ai
-1.4957 @ kh b
-1.4957 @ kh dc
-2.1009 @ kh e
-2.1009 @ kh f
-1.2951 @ kh g
-2.1009 @ kh h
-1.7676 @ kh i
-2.1009 @ kh j
-1.2225 @ kh l
-1.6455 @ kh m
-1.2951 @ kh n
-1.6455 @ kh o
-1.8873 @ kh oe
-1.5737 @ kh ph
-1.4334 @ kh r
-1.6455 @ kh s
-2.1009 @ kh tS
-1.2225 @ kh tc
-1.7676 @ kh th
-1.8873 @ kh ts
-1.3822 @ kh u
-2.1009 @ kh v
-1.6455 @ kh x
-1.2373 @ l &
-1.2558 @ l @
-1.9643 @ l A
-1.8772 @ l D&
-2.3497 @ l D&i
-2.2276 @ l E
-1.2196 @ l I
-1.4272 @ l N
-1.4134 @ l S
-1.6398 @ l U
-1.7144 @ l Y
-1.4714 @ l a
-1.9643 @ l aU
-1.9186 @ l ai
-2.0155 @ l b
-1.7724 @ l d
-1.3871 @ l dc
-1.2373 @ l e
-2.0155 @ l f
-1.7144 @ l g
-1.5206 @ l h
-1.3275 @ l i
-1.8046 @ l j
-1.7724 @ l kh
-1.7144 @ l m
-1.5206 @ l n
-1.7425 @ l o
-1.7425 @ l oe
-2.1558 @ l ph
-1.7144 @ l r
-1.7724 @ l s
-2.4694 @ l tS
-1.1704 @ l tc
-1.6175 @ l th
-2.0778 @ l ts
-1.5383 @ l u
-1.7724 @ l v
-1.5383 @ l x
-1.7144 @ l y
-1.5963 @ l z
-1.4525 @ m &
-1.8142 @ m @
-1.4920 @ m A
-1.2957 @ m D&
-1.6681 @ m D&i
-2.2454 @ m E
-1.6382 @ m I
-1.5132 @ m N
-1.9735 @ m S
-1.5590 @ m U
-2.2454 @ m Y
-1.3229 @ m a
-1.7003 @ m aU
-1.3371 @ m ai
-1.7351 @ m b
-1.8600 @ m d
-1.4920 @ m dc
-1.4718 @ m e
-2.5787 @ m f
-1.4718 @ m g
-1.4920 @ m h
-1.2957 @ m i
-1.7351 @ m j
-1.8142 @ m kh
-1.9735 @ m l
-1.6681 @ m n
-1.8600 @ m o
-2.0515 @ m ph
-1.4718 @ m r
-1.4525 @ m s
-1.4163 @ m tc
-1.6382 @ m th
-2.2454 @ m ts
-1.0661 @ m u
-1.5590 @ m v
-1.5838 @ m x
-2.1233 @ m y
-1.4718 @ m z
-1.1724 @ n &
-1.5892 @ n @
-1.4827 @ n A
-1.3674 @ n D&
-2.2756 @ n D&i
-1.2882 @ n I
-1.9414 @ n N
-1.4643 @ n S
-1.6983 @ n U
-2.0037 @ n Y
-1.0663 @ n a
-1.8902 @ n aU
-1.6983 @ n ai
-1.6983 @ n b
-1.6983 @ n d
-1.2110 @ n dc
-1.5223 @ n e
-2.1535 @ n f
-1.5434 @ n g
-1.6140 @ n h
-1.4131 @ n i
-1.6140 @ n j
-1.6404 @ n kh
-1.5434 @ n l
-1.7305 @ n m
-1.8902 @ n o
-1.7653 @ n ph
-1.5021 @ n r
-2.2756 @ n s
-2.6089 @ n tS
-1.3531 @ n tc
-1.7653 @ n th
-2.6089 @ n ts
-1.3973 @ n u
-1.4465 @ n v
-1.8445 @ n x
-2.1535 @ n y
-1.6983 @ n z
-1.7929 @ o @
-2.1262 @ o A
-1.7929 @ o D&
-2.1262 @ o D&i
-1.9126 @ o I
-1.3203 @ o N
-1.3203 @ o S
-1.7929 @ o U
-2.1262 @ o Y
-1.6708 @ o a
-2.1262 @ o ai
-1.5210 @ o b
-1.2478 @ o dc
-1.7929 @ o e
-1.4075 @ o g
-1.3203 @ o h
-1.7929 @ o i
-1.6708 @ o j
-1.6708 @ o kh
-1.6708 @ o l
-1.4586 @ o m
-1.2478 @ o n
-2.1262 @ o oe
-1.7929 @ o ph
-1.4075 @ o r
-1.3617 @ o s
-2.1262 @ o tS
-1.1313 @ o tc
-1.7929 @ o th
-1.6708 @ o ts
-1.4586 @ o u
-1.4586 @ o v
-1.3617 @ o x
-1.2478 @ o z
-1.8400 @ oe &
-1.3128 @ oe A
-1.8400 @ oe D&
-1.8400 @ oe E
-1.3128 @ oe N
-1.1725 @ oe S
-1.5067 @ oe U
-1.6264 @ oe Y
-1.1213 @ oe dc
-1.6264 @ oe i
-1.6264 @ oe kh
-1.5067 @ oe l
-1.5067 @ oe m
-0.9616 @ oe n
-0.8714 @ oe r
-1.5067 @ oe s
-1.3128 @ oe tc
-1.3846 @ oe x
-1.1725 @ oe z
-1.3219 @ ph &
-1.5637 @ ph A
-1.2501 @ ph D&
-1.0586 @ ph I
-1.4440 @ ph N
-1.1097 @ ph U
-1.7773 @ ph Y
-1.7773 @ ph a
-1.5637 @ ph ai
-1.7773 @ ph b
-1.1097 @ ph dc
-1.4440 @ ph e
-1.7773 @ ph h
-1.5637 @ ph j
-1.7773 @ ph l
-1.3219 @ ph n
-1.5637 @ ph o
-1.1721 @ ph r
-1.3219 @ ph tc
-1.5637 @ ph ts
-1.4440 @ ph u
-1.8060 @ r &
-2.0732 @ r @
-1.8427 @ r A
-1.9428 @ r D&
-1.9428 @ r D&i
-2.6832 @ r E
-1.7614 @ r I
-1.6033 @ r N
-1.4200 @ r S
-1.8690 @ r U
-1.9270 @ r Y
-1.6418 @ r a
-2.0732 @ r aU
-1.7614 @ r ai
-1.4877 @ r b
-1.9428 @ r d
-0.8704 @ r dc
-1.8179 @ r e
-1.8690 @ r f
-1.7021 @ r g
-1.7831 @ r h
-1.8690 @ r i
-1.9592 @ r j
-1.6338 @ r kh
-1.4152 @ r l
-1.5169 @ r m
-1.3874 @ r n
-1.8060 @ r o
-2.1981 @ r oe
-1.5613 @ r ph
-1.6108 @ r s
-2.5335 @ r tS
-0.8731 @ r tc
-1.7307 @ r th
-2.0520 @ r ts
-1.4877 @ r u
-1.3023 @ r v
-1.5749 @ r x
-2.5335 @ r y
-1.5169 @ r z
-1.7207 @ s &
-2.1760 @ s @
-1.7207 @ s A
-1.5085 @ s I
-1.1812 @ s S
-1.6489 @ s U
-1.9625 @ s Y
-1.5709 @ s b
-1.4116 @ s d
-1.3702 @ s dc
-1.0894 @ s g
-1.7207 @ s h
-1.8428 @ s i
-1.6489 @ s j
-1.3702 @ s kh
-1.7207 @ s l
-1.8428 @ s m
-1.8428 @ s n
-2.1760 @ s o
-1.3324 @ s ph
-1.3702 @ s r
-1.6489 @ s tS
-1.2075 @ s tc
-1.3324 @ s th
-1.2977 @ s ts
-1.5085 @ s u
-1.4116 @ s v
-1.4116 @ s x
-1.1329 @ s z
-0.9685 @ tS A
-0.9685 @ tS N
-0.7550 @ tS i
-0.9685 @ tS v
-1.8980 @ tc &
-2.1710 @ tc @
-2.8385 @ tc A
-2.6250 @ tc D&
-1.8436 @ tc I
-2.8385 @ tc N
-1.1820 @ tc S
-2.6250 @ tc U
-2.3831 @ tc Y
-1.7519 @ tc a
-2.6250 @ tc aU
-1.2545 @ tc b
-1.2108 @ tc d
-1.6427 @ tc dc
-2.2334 @ tc e
-1.8700 @ tc f
-0.8980 @ tc g
-2.5052 @ tc h
-2.2334 @ tc i
-2.1198 @ tc j
-1.0571 @ tc kh
-2.1198 @ tc l
-2.3114 @ tc m
-2.2334 @ tc n
-2.3831 @ tc o
-1.0698 @ tc ph
-1.7731 @ tc r
-2.1198 @ tc s
-1.7317 @ tc tS
-0.8286 @ tc th
-1.0698 @ tc ts
-1.5827 @ tc u
-1.8436 @ tc v
-1.9280 @ tc x
-2.8385 @ tc y
-1.4406 @ tc z
-1.5265 @ th &
-1.9819 @ th @
-1.4548 @ th A
-1.9819 @ th D&
-1.7684 @ th I
-1.9819 @ th N
-1.6486 @ th S
-1.4548 @ th U
-1.3768 @ th a
-1.9819 @ th aU
-1.9819 @ th ai
-1.7684 @ th b
-1.1035 @ th dc
-1.9819 @ th e
-1.3144 @ th g
-1.7684 @ th h
-1.7684 @ th i
-1.7684 @ th j
-1.4548 @ th kh
-1.6486 @ th l
-1.6486 @ th m
-1.1383 @ th n
-1.3768 @ th o
-1.9819 @ th oe
-1.2175 @ th ph
-1.4548 @ th r
-1.9819 @ th s
-1.9819 @ th tS
-1.6486 @ th tc
-1.5265 @ th ts
-1.3144 @ th u
-1.4548 @ th v
-1.5265 @ th x
-1.9819 @ th z
-1.3207 @ ts &
-1.3207 @ ts A
-0.9875 @ ts Y
-0.9875 @ ts dc
-1.3207 @ ts l
-1.1072 @ ts s
-1.1072 @ ts th
-1.3207 @ ts v
-1.6226 @ u &
-2.1077 @ u @
-1.8444 @ u A
-1.6847 @ u D&
-2.0359 @ u D&i
-2.0359 @ u I
-0.9536 @ u N
-1.3215 @ u S
-1.4764 @ u U
-1.9579 @ u Y
-2.0359 @ u a
-2.3495 @ u aU
-1.8956 @ u ai
-1.4562 @ u b
-1.2076 @ u dc
-2.5631 @ u e
-2.3495 @ u f
-1.7573 @ u g
-1.5199 @ u h
-1.6525 @ u i
-1.9579 @ u j
-1.7573 @ u kh
-1.3673 @ u l
-1.3363 @ u m
-1.1859 @ u n
-1.4007 @ u o
-2.5631 @ u oe
-1.8444 @ u ph
-1.3215 @ u r
-1.5682 @ u s
-1.1266 @ u tc
-1.7987 @ u th
-2.1077 @ u ts
-1.4562 @ u v
-1.3837 @ u x
-1.9579 @ u y
-2.2298 @ u z
-1.0729 @ v &
-1.4939 @ v @
-1.2131 @ v A
-1.5811 @ v D&
-1.9664 @ v D&i
-1.1736 @ v I
-1.8443 @ v N
-1.7726 @ v S
-1.7726 @ v U
-2.0862 @ v Y
-1.1551 @ v a
-1.8443 @ v aU
-1.0729 @ v ai
-2.2997 @ v b
-1.8443 @ v d
-1.3312 @ v e
-2.2997 @ v f
-1.8443 @ v g
-1.3312 @ v h
-1.1203 @ v i
-1.8443 @ v j
-2.0862 @ v kh
-1.6946 @ v l
-2.2997 @ v m
-2.0862 @ v n
-1.7726 @ v o
-1.6322 @ v oe
-1.2800 @ v r
-1.9664 @ v s
-2.2997 @ v tS
-2.0862 @ v th
-1.1736 @ v u
-1.9664 @ v x
-1.6946 @ v y
-1.6821 @ x &
-1.6408 @ x @
-1.5682 @ x A
-1.9912 @ x D&
-1.8414 @ x D&i
-1.6030 @ x I
-1.5682 @ x N
-1.1139 @ x S
-1.6030 @ x U
-1.9194 @ x Y
-1.7279 @ x a
-2.4466 @ x aU
-2.4466 @ x ai
-1.6030 @ x b
-2.1133 @ x d
-1.1507 @ x dc
-2.2330 @ x e
-1.9194 @ x f
-1.4517 @ x g
-1.6821 @ x h
-1.7791 @ x i
-1.7279 @ x j
-1.2508 @ x kh
-1.9194 @ x l
-1.9194 @ x m
-1.3019 @ x n
-1.7279 @ x o
-1.4780 @ x ph
-1.5360 @ x r
-1.6030 @ x s
-1.9912 @ x tS
-1.0194 @ x tc
-1.6030 @ x th
-1.5360 @ x ts
-1.2842 @ x u
-1.4517 @ x v
-1.9912 @ x z
-1.2499 @ y S
-0.7959 @ y dc
-1.4634 @ y g
-1.0080 @ y n
-1.1301 @ y r
-0.5850 @ y tc
-1.4634 @ y u
-1.1301 @ y x
-1.4634 @ y z
-1.3266 @ z &
-1.7818 @ z @
-1.7818 @ z A
-1.9039 @ z D&
-2.2372 @ z D&i
-2.2372 @ z E
-1.1940 @ z I
-1.5697 @ z N
-1.5185 @ z S
-1.3936 @ z U
-1.4314 @ z Y
-1.3936 @ z a
-1.7818 @ z aU
-1.7818 @ z ai
-1.6320 @ z d
-1.7818 @ z dc
-1.5185 @ z e
-1.4728 @ z g
-1.6320 @ z h
-1.1717 @ z i
-1.4314 @ z j
-1.4728 @ z kh
-1.7100 @ z l
-1.7818 @ z m
-1.7100 @ z n
-1.1940 @ z o
-1.5185 @ z oe
-1.9039 @ z ph
-1.4728 @ z r
-2.2372 @ z s
-1.9039 @ z th
-2.0236 @ z ts
-1.1303 @ z u
-1.4728 @ z v
-2.0654 A & A
-1.9457 A & D&
-2.2790 A & D&i
-1.8236 A & I
-1.2593 A & N
-1.2358 A & S
-1.5603 A & U
-1.9457 A & a
-2.2790 A & aU
-1.9457 A & b
-1.8236 A & d
-0.8811 A & dc
-2.2790 A & e
-1.6738 A & g
-1.6738 A & h
-1.7518 A & i
-1.7518 A & j
-1.9457 A & kh
-1.4006 A & l
-1.3684 A & m
-1.0232 A & n
-1.8236 A & o
-1.7518 A & ph
-1.2593 A & r
-1.4354 A & s
-1.2135 A & tc
-1.6115 A & th
-1.5603 A & u
-1.4354 A & v
-1.4354 A & x
-1.4732 A & z
-1.4523 A @ A
-1.7856 A @ D&i
-1.7856 A @ I
-1.1181 A @ N
-1.4523 A @ S
-1.3302 A @ Y
-1.5721 A @ a
-1.1181 A @ dc
-1.3302 A @ h
-1.4523 A @ i
-1.7856 A @ kh
-1.4523 A @ l
-1.5721 A @ m
-1.4523 A @ n
-1.5721 A @ o
-0.8451 A @ r
-1.0669 A @ tc
-1.4523 A @ u
-1.5721 A @ v
-1.1181 A @ x
-1.3655 A D& A
-2.1299 A D& I
-1.3655 A D& N
-1.3241 A D& S
-1.6028 A D& U
-2.1299 A D& Y
-2.1299 A D& a
-2.1299 A D& aU
-2.1299 A D& ai
-1.5248 A D& b
-2.1299 A D& d
-1.1102 A D& dc
-1.6745 A D& f
-2.1299 A D& g
-1.6745 A D& h
-1.7966 A D& kh
-1.4112 A D& l
-1.1614 A D& m
-1.1894 A D& n
-1.7966 A D& o
-1.6745 A D& ph
-1.0867 A D& r
-1.4112 A D& s
-0.9675 A D& tc
-1.6028 A D& u
-1.4112 A D& v
-1.1350 A D& x
-2.1299 A D& z
-1.6043 A D&i &
-1.3325 A D&i @
-1.9376 A D&i E
-1.1318 A D&i I
-1.0940 A D&i N
-1.6043 A D&i S
-1.6043 A D&i Y
-1.9376 A D&i a
-1.0592 A D&i dc
-1.9376 A D&i e
-1.9376 A D&i f
-1.9376 A D&i h
-1.2701 A D&i i
-1.4822 A D&i j
-1.9376 A D&i kh
-1.0940 A D&i l
-1.4105 A D&i m
-1.4105 A D&i n
-1.2701 A D&i r
-1.7241 A D&i s
-0.9179 A D&i tc
-1.9376 A D&i ts
-1.9376 A D&i u
-1.3325 A D&i x
-1.3442 A E A
-1.3442 A E D&
-1.1307 A E ai
-1.3442 A E j
-1.3442 A E o
-0.8171 A E r
-0.8171 A E tc
-1.3442 A E u
-1.5954 A I &
-1.7452 A I @
-1.5954 A I A
-2.2006 A I D&
-2.2006 A I D&i
-1.3570 A I N
-1.3948 A I S
-1.7452 A I U
-1.9870 A I a
-1.8673 A I aU
-2.2006 A I d
-1.0212 A I dc
-1.6735 A I e
-1.5954 A I g
-1.5331 A I h
-1.5954 A I i
-1.5331 A I j
-1.6735 A I kh
-1.6735 A I l
-1.5954 A I m
-1.2320 A I n
-1.6735 A I o
-1.9870 A I oe
-2.2006 A I ph
-1.3570 A I r
-1.6735 A I s
-1.0212 A I tc
-2.2006 A I th
-1.2900 A I u
-1.2900 A I v
-1.4819 A I x
-1.2057 A I z
-1.4555 A N &
-2.1130 A N @
-1.6229 A N A
-1.8120 A N D&
-2.0083 A N D&i
-2.7053 A N E
-1.4469 A N I
-1.2852 A N S
-1.4384 A N U
-1.7565 A N Y
-1.6631 A N a
-2.0405 A N aU
-1.6493 A N ai
-1.5312 A N b
-1.9783 A N d
-1.3349 A N dc
-1.7565 A N e
-2.0752 A N f
-1.3482 A N g
-1.4469 A N h
-1.5110 A N i
-1.7395 A N j
-1.5012 A N kh
-1.6229 A N l
-1.5634 A N m
-1.3910 A N n
-1.6631 A N o
-1.8534 A N oe
-1.6920 A N ph
-1.7395 A N r
-1.7395 A N s
-2.2002 A N tS
-1.3219 A N tc
-1.7742 A N th
-1.8992 A N ts
-1.1501 A N u
-1.3415 A N v
-1.5524 A N x
-2.5856 A N y
-1.6493 A N z
-1.1684 A S &
-2.1684 A S @
-1.6244 A S A
-1.4587 A S D&
-2.8359 A S E
-1.5033 A S I
-2.0301 A S N
-1.2934 A S U
-1.7098 A S Y
-1.6736 A S a
-2.2308 A S aU
-2.1173 A S ai
-1.7098 A S b
-1.4380 A S d
-1.4587 A S dc
-1.6913 A S e
-1.9254 A S f
-1.5274 A S g
-1.7928 A S h
-1.2862 A S i
-1.6244 A S j
-1.6565 A S kh
-1.6402 A S l
-1.6402 A S m
-1.5530 A S n
-1.3156 A S o
-1.6913 A S oe
-2.8359 A S pf
-1.5802 A S ph
-1.4281 A S r
-1.9576 A S s
-2.8359 A S tS
-1.5944 A S tc
-1.3813 A S th
-1.6913 A S ts
-1.2390 A S u
-1.4695 A S v
-1.7705 A S x
-2.0715 A S y
-1.5664 A S z
-1.7484 A U &
-1.7484 A U A
-1.9902 A U D&
-1.6766 A U D&i
-1.6766 A U I
-1.4851 A U N
-1.0776 A U S
-1.5362 A U Y
-1.7484 A U a
-2.2038 A U aU
-1.9902 A U ai
-1.5362 A U b
-0.9480 A U dc
-1.6766 A U f
-1.6766 A U g
-1.5362 A U h
-1.4393 A U i
-2.2038 A U j
-1.6766 A U kh
-1.9902 A U l
-1.6766 A U m
-1.3602 A U n
-1.7484 A U o
-1.6766 A U ph
-1.7484 A U r
-1.3602 A U s
-0.9480 A U tc
-2.2038 A U th
-1.3602 A U u
-1.9902 A U v
-1.4393 A U x
-1.9902 A U y
-1.4851 A U z
-1.4581 A Y &
-1.8497 A Y @
-1.5361 A Y A
-1.6079 A Y D&
-1.2575 A Y I
-1.3446 A Y N
-1.3958 A Y S
-1.7300 A Y U
-2.0633 A Y d
-1.4581 A Y dc
-2.0633 A Y e
-1.6079 A Y g
-1.1849 A Y h
-1.4581 A Y i
-1.5361 A Y j
-2.0633 A Y kh
-1.1849 A Y l
-1.7300 A Y m
-1.1849 A Y n
-1.7300 A Y o
-1.4581 A Y ph
-1.2197 A Y r
-1.4581 A Y s
-1.2197 A Y tc
-1.4581 A Y u
-1.7300 A Y v
-2.0633 A Y x
-1.2989 A Y z
-1.9613 A a &
-1.7492 A a A
-2.0834 A a D&
-1.3098 A a N
-1.2209 A a S
-2.4167 A a U
-2.2031 A a Y
-1.7492 A a aU
-1.8115 A a ai
-1.8115 A a b
-2.2031 A a d
-0.8814 A a dc
-2.2031 A a e
-1.7492 A a f
-1.9613 A a g
-1.6522 A a h
-1.9613 A a i
-1.6522 A a kh
-1.1751 A a l
-1.4218 A a m
-0.8741 A a n
-2.0834 A a o
-2.4167 A a ph
-1.3300 A a r
-1.5731 A a s
-2.4167 A a tS
-0.9447 A a tc
-2.4167 A a ts
-1.6522 A a u
-1.6109 A a v
-1.3970 A a x
-1.7492 A a z
-1.8273 A aU &
-1.8273 A aU A
-1.5855 A aU D&
-1.5855 A aU D&i
-2.0409 A aU E
-2.0409 A aU I
-0.9754 A aU N
-1.7076 A aU S
-1.5138 A aU U
-2.0409 A aU Y
-1.8273 A aU a
-1.5855 A aU ai
-1.3222 A aU b
-2.0409 A aU d
-1.1625 A aU dc
-1.8273 A aU g
-1.8273 A aU h
-1.5138 A aU l
-1.7076 A aU m
-1.4357 A aU n
-1.3734 A aU o
-1.1625 A aU r
-1.4357 A aU s
-1.5855 A aU tc
-2.0409 A aU ts
-0.9147 A aU u
-1.4357 A aU v
-1.3222 A aU x
-2.0409 A aU z
-1.5729 A ai &
-1.5729 A ai @
-2.1238 A ai A
-2.0040 A ai E
-1.3424 A ai I
-1.2941 A ai N
-1.6186 A ai S
-2.1238 A ai U
-2.0040 A ai Y
-1.8102 A ai a
-1.8819 A ai b
-2.3373 A ai d
-1.1579 A ai dc
-1.8102 A ai e
-2.1238 A ai f
-1.8819 A ai g
-1.7321 A ai h
-1.0544 A ai i
-1.4267 A ai j
-1.0166 A ai l
-1.4589 A ai m
-0.9818 A ai n
-2.1238 A ai o
-2.1238 A ai oe
-1.2941 A ai r
-1.6186 A ai s
-1.0677 A ai tc
-1.6698 A ai u
-2.1238 A ai v
-1.4589 A ai x
-1.8819 A ai z
-1.0730 A b &
-1.8896 A b @
-1.5886 A b A
-1.3124 A b D&
-1.4821 A b D&i
-2.2750 A b E
-1.6678 A b I
-1.5216 A b N
-1.8439 A b S
-1.5428 A b U
-2.2750 A b Y
-1.1279 A b a
-1.9408 A b aU
-1.2206 A b ai
-2.0811 A b d
-1.5886 A b dc
-2.0031 A b e
-2.1529 A b f
-1.7299 A b g
-1.5886 A b h
-1.5216 A b i
-1.8896 A b j
-1.5014 A b kh
-1.5886 A b l
-1.6134 A b m
-1.4459 A b n
-1.5651 A b o
-1.5428 A b oe
-1.8025 A b ph
-1.2528 A b r
-2.0031 A b s
-2.1529 A b tc
-1.8025 A b th
-1.1279 A b u
-1.8439 A b v
-1.8025 A b x
-1.7647 A b y
-2.6083 A b z
-1.1779 A d &
-1.4278 A d @
-1.1516 A d A
-1.2359 A d D&
-2.1464 A d E
-1.2359 A d I
-1.3820 A d N
-1.4789 A d S
-1.6911 A d U
-1.0018 A d a
-1.6911 A d aU
-1.8132 A d ai
-1.4278 A d dc
-1.5413 A d e
-1.6911 A d g
-1.4278 A d h
-1.9329 A d i
-2.1464 A d j
-1.6911 A d m
-1.6193 A d n
-1.8132 A d o
-1.9329 A d oe
-2.1464 A d ph
-0.9349 A d r
-1.9329 A d s
-1.4278 A d tc
-1.6911 A d u
-2.1464 A d v
-2.1464 A d x
-1.8132 A d z
-1.9159 A dc &
-2.4600 A dc @
-2.6721 A dc A
-1.9651 A dc D&
-2.9139 A dc D&i
-3.1275 A dc E
-1.9481 A dc I
-1.8579 A dc N
-2.0206 A dc S
-1.6641 A dc U
-2.2839 A dc Y
-1.9651 A dc a
-2.9139 A dc aU
-2.9139 A dc ai
-0.7450 A dc b
-0.8552 A dc d
-2.0843 A dc e
-2.2839 A dc f
-0.9481 A dc g
-1.8316 A dc h
-1.8190 A dc i
-2.0013 A dc j
-1.3808 A dc kh
-1.8316 A dc l
-1.5849 A dc m
-1.4710 A dc n
-1.8445 A dc o
-2.4600 A dc oe
-1.4997 A dc ph
-1.8579 A dc r
-2.6721 A dc s
-1.8316 A dc tc
-1.1377 A dc th
-1.9828 A dc ts
-1.2696 A dc u
-1.2592 A dc v
-2.1589 A dc x
-2.3630 A dc y
-2.0620 A dc z
-1.5248 A e &
-1.5248 A e A
-1.9164 A e D&
-1.7966 A e I
-1.2863 A e N
-1.7966 A e S
-2.1299 A e U
-1.6028 A e a
-1.9164 A e ai
-1.4624 A e b
-2.1299 A e d
-1.0433 A e dc
-2.1299 A e g
-1.5248 A e h
-1.9164 A e i
-1.4624 A e kh
-1.5248 A e l
-1.1614 A e m
-1.1350 A e n
-2.1299 A e oe
-0.9341 A e r
-1.9164 A e s
-0.9853 A e tc
-2.1299 A e ts
-1.7966 A e u
-1.6028 A e v
-1.2515 A e x
-1.6745 A e z
-1.6675 A f &
-2.0017 A f @
-1.3664 A f A
-1.3945 A f D&
-2.3350 A f D&i
-1.6163 A f I
-1.6675 A f N
-1.5705 A f S
-1.6163 A f U
-2.1214 A f Y
-1.3945 A f a
-2.1214 A f aU
-1.8796 A f ai
-1.5705 A f b
-1.8796 A f d
-1.5705 A f dc
-1.5705 A f e
-1.3945 A f g
-1.3664 A f h
-1.5292 A f i
-2.1214 A f j
-1.6163 A f kh
-2.0017 A f l
-1.6163 A f m
-1.4914 A f n
-1.5292 A f o
-2.3350 A f oe
-1.8078 A f ph
-1.5705 A f r
-2.0017 A f s
-1.8796 A f tS
-1.7298 A f tc
-1.4244 A f th
-1.6163 A f ts
-0.9578 A f u
-1.3945 A f v
-1.5705 A f x
-2.1214 A f y
-1.4566 A f z
-1.2596 A g &
-1.4280 A g @
-1.6275 A g A
-1.7067 A g D&
-2.0158 A g D&i
-2.1379 A g E
-1.4763 A g I
-1.4057 A g N
-1.7525 A g S
-1.1752 A g U
-1.6653 A g Y
-1.3845 A g a
-2.1379 A g aU
-2.0158 A g ai
-1.8660 A g b
-2.1379 A g d
-1.4057 A g dc
-1.6275 A g e
-2.4711 A g f
-1.4057 A g h
-1.6653 A g i
-1.7067 A g j
-2.2576 A g kh
-1.4057 A g l
-1.4763 A g m
-1.1157 A g n
-1.3450 A g o
-1.6653 A g oe
-2.1379 A g ph
-1.2596 A g r
-2.4711 A g s
-1.4514 A g tc
-1.8036 A g th
-1.1882 A g u
-2.4711 A g v
-1.6653 A g x
-2.2576 A g y
-1.4138 A h &
-1.8909 A h @
-0.9099 A h A
-1.6221 A h D&
-1.9578 A h D&i
-1.9578 A h I
-1.4460 A h N
-1.8066 A h S
-1.9231 A h U
-2.1339 A h Y
-1.1127 A h a
-1.7360 A h aU
-1.4460 A h ai
-1.9231 A h b
-1.9956 A h d
-2.2743 A h dc
-1.7148 A h e
-1.9231 A h f
-1.5746 A h g
-1.5899 A h i
-1.6753 A h j
-1.7818 A h kh
-1.5457 A h l
-1.1919 A h m
-1.4460 A h n
-1.4807 A h o
-1.9578 A h oe
-2.4682 A h ph
-1.3210 A h r
-1.5185 A h s
-1.9578 A h tc
-1.8909 A h th
-2.1963 A h ts
-1.2045 A h u
-1.7818 A h v
-1.4572 A h x
-2.1339 A h y
-1.6753 A h z
-1.7354 A i &
-2.0696 A i @
-2.4029 A i A
-2.4029 A i E
-1.1761 A i I
-1.4080 A i N
-1.0152 A i S
-1.5971 A i U
-2.4029 A i Y
-2.4029 A i a
-2.0696 A i b
-2.4029 A i d
-0.9664 A i dc
-2.4029 A i e
-2.0696 A i f
-1.7978 A i g
-1.3597 A i h
-1.6385 A i j
-2.1894 A i kh
-1.5971 A i l
-1.7354 A i m
-1.3597 A i n
-1.7354 A i ph
-1.7354 A i r
-1.3163 A i s
-1.6385 A i tS
-0.9950 A i tc
-1.6842 A i th
-1.8758 A i ts
-1.6842 A i u
-1.5245 A i v
-1.2235 A i x
-1.2961 A i z
-1.1563 A j &
-1.6378 A j @
-0.8158 A j A
-1.6378 A j D&
-2.0295 A j D&i
-2.2430 A j E
-2.2430 A j I
-1.9097 A j N
-2.0295 A j S
-1.9097 A j U
-1.7876 A j Y
-1.1998 A j a
-2.0295 A j aU
-1.5755 A j ai
-1.7876 A j b
-1.7876 A j dc
-1.3324 A j e
-1.3025 A j h
-1.6378 A j i
-1.9097 A j kh
-1.7876 A j l
-1.5755 A j m
-1.5755 A j o
-1.9097 A j oe
-2.0295 A j ph
-0.8765 A j r
-1.7876 A j tc
-1.7876 A j th
-2.2430 A j ts
-1.1775 A j u
-2.0295 A j v
-2.0295 A j x
-1.7159 A j z
-1.4442 A kh &
-1.9257 A kh @
-1.3862 A kh A
-1.4654 A kh D&
-1.5623 A kh I
-1.4877 A kh N
-1.4442 A kh S
-1.5111 A kh U
-1.7664 A kh Y
-1.1536 A kh a
-1.7664 A kh aU
-1.4240 A kh ai
-1.7664 A kh b
-2.1976 A kh d
-1.5111 A kh dc
-1.9257 A kh e
-2.3173 A kh f
-1.5111 A kh g
-1.4047 A kh h
-1.5360 A kh i
-2.1976 A kh j
-1.5111 A kh l
-1.3685 A kh m
-1.2893 A kh n
-1.6872 A kh o
-2.3173 A kh oe
-1.7664 A kh ph
-1.2479 A kh r
-1.9257 A kh s
-1.3514 A kh tc
-1.7250 A kh th
-2.0754 A kh ts
-1.3040 A kh u
-1.6203 A kh v
-1.5360 A kh x
-1.8122 A kh z
-1.2970 A l &
-1.4821 A l @
-1.5248 A l A
-2.1465 A l D&
-2.7516 A l D&i
-2.2963 A l E
-1.3438 A l I
-1.6448 A l N
-1.5401 A l S
-1.8111 A l U
-1.7831 A l Y
-1.3151 A l a
-2.7516 A l aU
-1.5722 A l ai
-1.8411 A l b
-2.1465 A l d
-1.1743 A l dc
-1.5401 A l e
-2.2963 A l f
-1.6070 A l g
-1.4074 A l h
-1.2882 A l i
-1.5248 A l j
-1.8733 A l kh
-1.7085 A l m
-1.3852 A l n
-1.7831 A l o
-1.7568 A l oe
-1.6448 A l ph
-1.8733 A l r
-1.6650 A l s
-2.4184 A l tS
-1.2164 A l tc
-1.7568 A l th
-1.9872 A l ts
-1.3962 A l u
-1.5401 A l v
-1.6448 A l x
-2.1465 A l y
-1.3962 A l z
-1.2850 A m &
-1.7349 A m @
-1.4146 A m A
-1.3961 A m D&
-1.6972 A m D&i
-1.6624 A m I
-1.5092 A m N
-1.6302 A m S
-1.7156 A m U
-2.1231 A m Y
-1.1909 A m a
-1.7986 A m aU
-1.1583 A m ai
-1.9013 A m b
-1.9312 A m d
-1.6460 A m dc
-1.7349 A m e
-2.3864 A m f
-1.7763 A m g
-1.2323 A m h
-1.3784 A m i
-1.8732 A m j
-1.6794 A m kh
-1.9634 A m l
-1.6302 A m n
-1.7763 A m o
-1.9982 A m oe
-1.8732 A m ph
-1.4541 A m r
-1.6002 A m s
-2.6283 A m tS
-1.6302 A m tc
-1.7156 A m th
-2.1743 A m ts
-1.0439 A m u
-1.6302 A m v
-1.5333 A m x
-2.1743 A m y
-1.6972 A m z
-1.3774 A n &
-1.9734 A n @
-1.4091 A n A
-1.6159 A n D&
-2.1495 A n D&i
-2.9931 A n E
-1.4225 A n I
-1.8862 A n N
-1.4578 A n S
-1.7663 A n U
-1.9499 A n Y
-1.2509 A n a
-2.0526 A n aU
-1.6266 A n ai
-1.4805 A n b
-1.6846 A n d
-1.1718 A n dc
-1.4363 A n e
-2.4659 A n f
-1.4091 A n g
-1.4026 A n h
-1.4805 A n i
-1.5754 A n j
-1.6605 A n kh
-1.5127 A n l
-1.4293 A n m
-1.8484 A n o
-2.4659 A n oe
-2.9931 A n pf
-1.8484 A n ph
-1.7235 A n r
-1.7663 A n s
-2.9931 A n tS
-1.3774 A n tc
-1.6489 A n th
-1.7815 A n ts
-1.3653 A n u
-1.4363 A n v
-1.6489 A n x
-2.1495 A n y
-1.6266 A n z
-2.1318 A o &
-1.8900 A o @
-2.3453 A o A
-1.5017 A o D&
-1.6778 A o D&i
-1.6778 A o I
-1.3022 A o N
-1.2385 A o S
-1.5395 A o U
-2.0121 A o Y
-1.8900 A o a
-2.0121 A o aU
-2.0121 A o ai
-1.6267 A o b
-2.1318 A o d
-1.1038 A o dc
-2.0121 A o e
-1.7402 A o f
-1.4670 A o h
-1.7402 A o i
-2.1318 A o j
-1.8182 A o kh
-1.5809 A o l
-1.3505 A o m
-1.3768 A o n
-2.1318 A o ph
-1.5017 A o r
-1.3768 A o s
-2.3453 A o tS
-0.9899 A o tc
-1.8900 A o th
-2.0121 A o ts
-1.2385 A o u
-1.3022 A o v
-1.3768 A o x
-2.0121 A o y
-1.8900 A o z
-1.6153 A oe &
-1.8289 A oe @
-1.8289 A oe A
-1.2237 A oe I
-1.0645 A oe N
-1.3017 A oe S
-1.8289 A oe U
-1.4956 A oe Y
-1.6153 A oe ai
-1.2237 A oe dc
-1.6153 A oe e
-1.8289 A oe h
-0.9505 A oe l
-1.2237 A oe m
-0.9183 A oe n
-1.2237 A oe r
-1.3735 A oe s
-1.6153 A oe tc
-1.6153 A oe z
-0.9659 A pf A
-0.9659 A pf h
-0.9659 A pf l
-1.1794 A pf tc
-1.1794 A pf u
-1.7700 A ph &
-2.1554 A ph @
-1.6451 A ph A
-1.3625 A ph D&
-1.7243 A ph D&i
-2.4887 A ph E
-1.6451 A ph I
-1.9616 A ph N
-1.4232 A ph S
-1.3263 A ph U
-1.9616 A ph Y
-1.2929 A ph a
-1.7243 A ph aU
-1.7243 A ph ai
-1.6451 A ph b
-1.9616 A ph d
-1.3093 A ph dc
-1.8835 A ph e
-2.4887 A ph f
-1.3819 A ph g
-1.6451 A ph h
-1.5482 A ph i
-1.7700 A ph j
-1.7700 A ph kh
-1.5482 A ph l
-1.4455 A ph m
-1.5482 A ph n
-1.3819 A ph o
-1.2929 A ph r
-1.8212 A ph s
-1.4455 A ph tc
-1.8212 A ph th
-1.7700 A ph ts
-1.2619 A ph u
-1.3093 A ph v
-1.4455 A ph x
-2.1554 A ph y
-1.6451 A ph z
-1.6824 A r &
-1.8073 A r @
-1.6435 A r A
-1.6962 A r D&
-2.0414 A r D&i
-2.6187 A r E
-1.6962 A r I
-1.6824 A r N
-1.6077 A r S
-1.7104 A r U
-1.8865 A r Y
-1.4800 A r a
-2.1083 A r aU
-1.3882 A r ai
-1.3680 A r b
-2.0736 A r d
-0.9180 A r dc
-1.7562 A r e
-2.1461 A r f
-1.6824 A r g
-1.7104 A r h
-1.5965 A r i
-1.9834 A r j
-1.6824 A r kh
-1.4393 A r l
-1.5154 A r m
-1.5154 A r n
-1.7896 A r o
-1.8653 A r oe
-1.4800 A r ph
-1.8451 A r s
-2.4248 A r tS
-1.1919 A r tc
-1.6962 A r th
-1.9322 A r ts
-1.4167 A r u
-1.2581 A r v
-1.4973 A r x
-2.1875 A r y
-1.5343 A r z
-1.5524 A s &
-2.0541 A s @
-2.4458 A s A
-1.9918 A s D&
-1.4799 A s I
-1.9918 A s N
-1.2321 A s S
-1.6644 A s U
-1.8157 A s Y
-2.0541 A s a
-2.3260 A s aU
-2.3260 A s ai
-1.5331 A s b
-1.4969 A s d
-1.3151 A s dc
-2.4458 A s e
-2.0541 A s f
-1.2417 A s g
-1.2928 A s h
-1.5331 A s i
-1.9406 A s j
-1.5524 A s kh
-1.9406 A s l
-1.6644 A s m
-1.4177 A s n
-1.7487 A s o
-2.4458 A s oe
-2.6593 A s pf
-1.3897 A s ph
-1.7487 A s r
-1.9406 A s tS
-1.4969 A s tc
-1.1467 A s th
-1.1959 A s ts
-1.4969 A s u
-1.3267 A s v
-1.6644 A s x
-2.3260 A s y
-1.2716 A s z
-1.4482 A tS &
-1.7815 A tS A
-1.5679 A tS I
-1.7815 A tS N
-0.9756 A tS S
-1.7815 A tS a
-1.7815 A tS b
-1.7815 A tS f
-1.3261 A tS g
-1.1763 A tS h
-1.7815 A tS j
-1.4482 A tS l
-1.7815 A tS oe
-1.3261 A tS ph
-1.4482 A tS r
-1.7815 A tS s
-1.4482 A tS tc
-1.1763 A tS th
-1.7815 A tS ts
-1.1763 A tS u
-1.3261 A tS v
-1.1763 A tS x
-1.5679 A tS z
-2.2443 A tc &
-2.5533 A tc @
-2.5533 A tc A
-2.0682 A tc D&
-2.6754 A tc D&i
-1.9221 A tc I
-2.4035 A tc N
-1.1951 A tc S
-2.2029 A tc U
-2.4816 A tc Y
-1.7971 A tc a
-2.5533 A tc aU
-2.6754 A tc ai
-1.3305 A tc b
-1.2852 A tc d
-1.7002 A tc dc
-2.6754 A tc e
-1.7672 A tc f
-0.9200 A tc g
-2.0682 A tc h
-2.2029 A tc i
-2.1303 A tc j
-0.9963 A tc kh
-3.0087 A tc l
-2.1303 A tc m
-1.9432 A tc n
-2.2443 A tc o
-2.7952 A tc oe
-2.6754 A tc pf
-1.0087 A tc ph
-2.0682 A tc r
-2.0981 A tc s
-1.7002 A tc tS
-0.8463 A tc th
-1.0682 A tc ts
-1.5815 A tc u
-1.7002 A tc v
-1.7529 A tc x
-2.7952 A tc y
-1.5453 A tc z
-1.2041 A th &
-1.8451 A th @
-1.5441 A th A
-2.1793 A th D&
-2.2991 A th E
-1.4694 A th I
-1.5721 A th N
-1.6342 A th S
-1.3865 A th U
-1.7068 A th a
-1.9855 A th aU
-2.1793 A th ai
-1.5441 A th b
-1.9855 A th d
-1.3168 A th dc
-1.6690 A th e
-2.5126 A th f
-1.3680 A th g
-1.4472 A th h
-1.5177 A th i
-1.8451 A th j
-1.6342 A th kh
-1.5441 A th l
-1.6021 A th m
-1.1047 A th n
-1.8451 A th o
-1.9855 A th oe
-1.6021 A th ph
-1.3502 A th r
-2.0572 A th s
-1.4694 A th tc
-2.0572 A th ts
-1.2297 A th u
-1.2711 A th v
-1.5721 A th x
-1.3865 A th z
-1.6128 A ts &
-2.0668 A ts @
-1.3697 A ts A
-1.5616 A ts D&
-2.0668 A ts D&i
-1.4367 A ts I
-1.4367 A ts N
-1.7532 A ts S
-1.4367 A ts U
-1.6751 A ts Y
-1.5159 A ts a
-2.0668 A ts aU
-1.9470 A ts ai
-1.8249 A ts b
-1.9470 A ts d
-1.6128 A ts dc
-1.8249 A ts e
-1.9470 A ts f
-1.3697 A ts g
-1.2606 A ts h
-1.9470 A ts i
-1.6751 A ts j
-1.5159 A ts kh
-1.9470 A ts l
-1.4745 A ts m
-1.4367 A ts n
-1.6128 A ts o
-1.8249 A ts oe
-2.2803 A ts pf
-1.8249 A ts ph
-1.7532 A ts r
-1.4367 A ts s
-2.0668 A ts tS
-1.4019 A ts tc
-1.3398 A ts th
-1.3118 A ts u
-1.3697 A ts v
-1.5159 A ts x
-1.9470 A ts y
-1.7532 A ts z
-1.9721 A u &
-2.3575 A u @
-1.8124 A u A
-1.8124 A u D&
-1.8849 A u D&i
-1.5646 A u I
-1.1134 A u N
-1.1555 A u S
-1.5839 A u U
-1.7222 A u Y
-2.1636 A u a
-2.3575 A u aU
-2.0856 A u ai
-1.7222 A u b
-2.3575 A u d
-1.0751 A u dc
-1.9721 A u e
-1.9721 A u f
-1.6959 A u g
-1.4792 A u h
-1.6253 A u i
-1.6959 A u j
-1.6711 A u kh
-1.2451 A u l
-1.3700 A u m
-1.1134 A u n
-2.1636 A u o
-2.1636 A u oe
-1.9263 A u ph
-1.5284 A u r
-1.4492 A u s
-1.1270 A u tc
-1.7503 A u th
-1.5114 A u v
-1.4078 A u x
-2.3575 A u y
-1.8124 A u z
-1.3458 A v &
-1.5705 A v @
-1.1926 A v A
-1.2625 A v D&
-1.6147 A v D&i
-2.4930 A v E
-1.4284 A v I
-1.7608 A v N
-1.8066 A v S
-1.7194 A v U
-1.8314 A v Y
-1.2230 A v a
-1.7831 A v aU
-1.0796 A v ai
-2.0618 A v b
-2.0204 A v d
-2.1076 A v dc
-1.3897 A v e
-2.8263 A v f
-1.6469 A v g
-1.4708 A v h
-1.2167 A v i
-1.8577 A v j
-1.8066 A v kh
-1.8066 A v l
-1.8314 A v m
-1.7194 A v n
-1.4184 A v o
-1.5847 A v oe
-1.8314 A v ph
-1.4708 A v r
-2.2991 A v s
-2.4930 A v tS
-2.2991 A v tc
-2.4930 A v th
-2.2211 A v ts
-1.1223 A v u
-1.8066 A v x
-1.7194 A v y
-2.1587 A v z
-1.5764 A x &
-2.7211 A x @
-2.1159 A x A
-2.1939 A x D&
-2.5075 A x D&i
-2.2657 A x E
-1.5417 A x I
-1.4943 A x N
-1.3232 A x S
-1.6142 A x U
-1.8427 A x Y
-1.7525 A x a
-2.0536 A x aU
-2.7211 A x ai
-1.5949 A x b
-1.7525 A x d
-1.0646 A x dc
-2.3878 A x e
-1.8427 A x f
-1.4515 A x g
-1.4653 A x h
-1.5417 A x i
-1.5949 A x j
-1.2846 A x kh
-1.5949 A x l
-1.7262 A x m
-1.4795 A x n
-1.6779 A x o
-2.1159 A x oe
-1.3439 A x ph
-1.4795 A x r
-1.7262 A x s
-1.8775 A x tS
-1.3334 A x tc
-1.6344 A x th
-1.7525 A x ts
-1.2406 A x u
-1.2243 A x v
-2.7211 A x y
-1.5949 A x z
-1.6565 A y A
-1.6565 A y I
-1.1294 A y S
-0.9890 A y dc
-1.2011 A y h
-1.6565 A y l
-1.3232 A y m
-0.9890 A y n
-1.6565 A y r
-1.1294 A y s
-1.6565 A y tS
-0.8507 A y tc
-1.3232 A y th
-1.4430 A y v
-1.4430 A y x
-1.2011 A y z
-1.2226 A z &
-1.6575 A z @
-1.3330 A z A
-1.4978 A z D&
-2.2218 A z D&i
-2.3439 A z E
-1.5905 A z I
-1.9128 A z N
-2.2218 A z S
-1.3446 A z U
-1.4814 A z Y
-1.4356 A z a
-1.7988 A z aU
-2.0097 A z ai
-1.7367 A z b
-1.7367 A z d
-2.0720 A z dc
-1.3107 A z e
-2.3439 A z f
-1.5148 A z g
-1.1493 A z h
-1.1967 A z i
-1.4656 A z j
-2.0097 A z kh
-1.5905 A z l
-1.4978 A z m
-1.5148 A z n
-1.2138 A z o
-1.6117 A z oe
-2.6772 A z ph
-2.1500 A z r
-2.6772 A z s
-1.7988 A z tc
-1.8714 A z th
-1.9585 A z ts
-1.2693 A z u
-1.5510 A z v
-2.1500 A z x
-1.7086 A z y
-1.5875 D& & @
-1.9011 D& & A
-1.9011 D& & D&
-1.6593 D& & I
-1.0715 D& & N
-1.4472 D& & S
-1.5095 D& & U
-2.1147 D& & Y
-1.5095 D& & b
-1.9011 D& & d
-0.9885 D& & dc
-1.5875 D& & g
-1.5875 D& & h
-1.9011 D& & i
-2.1147 D& & j
-2.1147 D& & kh
-1.3960 D& & l
-1.6593 D& & m
-1.0492 D& & n
-1.7814 D& & o
-1.0715 D& & r
-1.6593 D& & s
-0.9700 D& & tc
-2.1147 D& & th
-1.9011 D& & ts
-1.5095 D& & u
-1.9011 D& & v
-1.6593 D& & x
-1.9011 D& & y
-1.6593 D& & z
-1.2637 D& @ &
-1.0698 D& @ A
-1.5969 D& @ D&i
-1.3834 D& @ N
-1.5969 D& @ S
-1.3834 D& @ ai
-0.9918 D& @ dc
-1.5969 D& @ kh
-1.3834 D& @ l
-1.3834 D& @ ph
-0.6564 D& @ r
-1.3834 D& @ tc
-1.5969 D& @ u
-1.5969 D& @ z
-1.9536 D& A &
-1.8315 D& A D&
-2.2869 D& A E
-2.2869 D& A I
-1.1245 D& A N
-1.2437 D& A S
-1.9536 D& A U
-1.9536 D& A Y
-1.8315 D& A a
-1.6194 D& A aU
-1.8315 D& A ai
-1.6817 D& A b
-1.1075 D& A dc
-1.8315 D& A e
-1.7597 D& A f
-1.7597 D& A g
-1.3464 D& A h
-2.0733 D& A i
-1.7597 D& A j
-2.0733 D& A kh
-1.4085 D& A l
-1.4811 D& A m
-1.1800 D& A n
-1.9536 D& A o
-1.7597 D& A ph
-1.1422 D& A r
-1.5224 D& A s
-2.0733 D& A tS
-1.3464 D& A tc
-1.3763 D& A th
-1.8315 D& A ts
-1.4811 D& A u
-1.4811 D& A v
-1.5682 D& A x
-2.2869 D& A y
-1.5682 D& A z
-2.0363 D& D&i &
-1.3688 D& D&i @
-2.0363 D& D&i A
-1.2304 D& D&i I
-1.3688 D& D&i N
-1.1579 D& D&i S
-1.8227 D& D&i Y
-1.8227 D& D&i ai
-1.2718 D& D&i dc
-1.3688 D& D&i e
-1.8227 D& D&i h
-1.3688 D& D&i i
-1.7030 D& D&i j
-1.5091 D& D&i kh
-0.8916 D& D&i l
-2.0363 D& D&i m
-1.1927 D& D&i n
-1.7030 D& D&i oe
-1.0677 D& D&i r
-0.9708 D& D&i tc
-1.8227 D& D&i th
-2.0363 D& D&i u
-2.0363 D& D&i v
-1.5091 D& D&i x
-1.8227 D& D&i y
-1.0197 D& E i
-0.5643 D& E r
-1.0197 D& E tc
-1.6158 D& I &
-1.9491 D& I @
-1.6158 D& I D&
-1.4220 D& I D&i
-1.3440 D& I N
-1.9491 D& I S
-1.9491 D& I Y
-1.9491 D& I a
-1.0707 D& I dc
-1.6158 D& I g
-1.7356 D& I h
-1.9491 D& I j
-1.6158 D& I kh
-1.2304 D& I l
-1.7356 D& I m
-1.2816 D& I n
-1.9491 D& I o
-1.3440 D& I ph
-1.0707 D& I r
-1.6158 D& I s
-0.9806 D& I tc
-1.4937 D& I th
-1.1847 D& I u
-1.7356 D& I x
-1.9491 D& I y
-1.2816 D& I z
-1.5534 D& N &
-2.0870 D& N @
-1.9900 D& N A
-1.5979 D& N D&
-1.9900 D& N D&i
-1.5534 D& N I
-1.2911 D& N S
-1.4258 D& N U
-2.0200 D& N Y
-2.0522 D& N a
-2.1661 D& N aU
-1.9620 D& N ai
-1.3149 D& N b
-1.6748 D& N d
-1.2523 D& N dc
-1.9900 D& N e
-2.1661 D& N f
-1.1618 D& N g
-1.6890 D& N h
-1.6098 D& N i
-1.9357 D& N j
-1.3880 D& N kh
-1.4258 D& N l
-1.4258 D& N m
-1.5534 D& N n
-1.4940 D& N o
-2.2119 D& N oe
-1.5979 D& N ph
-1.7190 D& N r
-1.8237 D& N s
-1.3028 D& N tc
-1.6748 D& N th
-1.9900 D& N ts
-1.0870 D& N u
-1.4027 D& N v
-1.6098 D& N x
-2.0522 D& N y
-1.7190 D& N z
-1.2218 D& S &
-2.0000 D& S @
-2.0792 D& S A
-1.6642 D& S D&
-2.2384 D& S D&i
-1.3979 D& S I
-1.9331 D& S N
-1.2341 D& S U
-1.4164 D& S Y
-1.6320 D& S a
-2.3165 D& S aU
-2.6301 D& S ai
-1.7782 D& S b
-1.4457 D& S d
-1.4164 D& S dc
-1.8751 D& S e
-1.9031 D& S f
-1.3979 D& S g
-1.8751 D& S h
-1.5110 D& S i
-1.8239 D& S j
-1.6168 D& S kh
-1.7570 D& S l
-1.7175 D& S m
-1.5607 D& S n
-1.2099 D& S o
-1.8239 D& S oe
-1.6168 D& S ph
-1.4260 D& S r
-2.0000 D& S s
-2.3165 D& S tS
-1.4771 D& S tc
-1.4164 D& S th
-1.5878 D& S ts
-1.1707 D& S u
-1.4457 D& S v
-1.8004 D& S x
-1.8751 D& S y
-1.5878 D& S z
-1.2818 D& U &
-1.8890 D& U A
-1.6952 D& U D&
-1.7669 D& U D&i
-1.7669 D& U I
-1.6952 D& U N
-1.0429 D& U S
-1.7669 D& U Y
-1.7669 D& U a
-1.7669 D& U aU
-1.7669 D& U ai
-1.7669 D& U b
-1.0962 D& U dc
-1.6952 D& U e
-1.8890 D& U f
-1.5548 D& U g
-2.2223 D& U h
-1.3787 D& U i
-2.2223 D& U kh
-1.4579 D& U l
-1.7669 D& U m
-1.3787 D& U n
-1.5036 D& U o
-2.2223 D& U oe
-2.2223 D& U ph
-1.4579 D& U r
-1.5036 D& U s
-1.6952 D& U tS
-0.9138 D& U tc
-1.6952 D& U u
-1.3787 D& U v
-1.4579 D& U x
-1.7669 D& U z
-1.4552 D& Y &
-1.9106 D& Y @
-1.9106 D& Y A
-1.6970 D& Y D&
-1.1047 D& Y I
-1.5773 D& Y N
-1.9106 D& Y S
-1.5773 D& Y U
-1.1047 D& Y dc
-1.9106 D& Y e
-1.1919 D& Y i
-1.4552 D& Y j
-1.1919 D& Y l
-1.4552 D& Y m
-1.3834 D& Y n
-1.3834 D& Y o
-1.2430 D& Y r
-1.1047 D& Y tc
-1.5773 D& Y th
-1.4552 D& Y u
-1.5773 D& Y v
-1.2430 D& Y x
-1.6970 D& Y y
-1.6970 D& Y z
-1.7649 D& a &
-2.2921 D& a A
-1.9588 D& a D&
-2.2921 D& a D&i
-1.7649 D& a I
-1.3515 D& a N
-1.2489 D& a S
-2.2921 D& a aU
-1.8367 D& a b
-0.9044 D& a dc
-1.5276 D& a f
-1.9588 D& a g
-1.9588 D& a h
-2.0785 D& a i
-2.2921 D& a j
-2.0785 D& a kh
-0.8842 D& a l
-1.2972 D& a m
-1.0225 D& a n
-1.9588 D& a ph
-1.1297 D& a r
-1.2972 D& a s
-2.2921 D& a tS
-1.0505 D& a tc
-2.2921 D& a th
-1.8367 D& a ts
-2.2921 D& a u
-1.7649 D& a v
-1.4484 D& a x
-1.9588 D& a z
-1.9024 D& aU &
-2.2357 D& aU A
-1.7803 D& aU D&
-1.5682 D& aU D&i
-1.3921 D& aU N
-1.4299 D& aU S
-1.1703 D& aU U
-2.2357 D& aU Y
-1.7086 D& aU a
-2.2357 D& aU ai
-1.3921 D& aU b
-1.2672 D& aU dc
-1.5682 D& aU f
-1.7803 D& aU g
-1.7803 D& aU h
-2.2357 D& aU i
-1.5170 D& aU kh
-1.4299 D& aU l
-1.4299 D& aU m
-1.5682 D& aU n
-1.1491 D& aU o
-1.5170 D& aU ph
-1.0911 D& aU r
-1.5682 D& aU s
-1.3252 D& aU tc
-2.0222 D& aU ts
-1.0399 D& aU u
-1.7086 D& aU v
-1.1703 D& aU x
-1.6856 D& ai &
-1.8354 D& ai @
-2.2908 D& ai D&
-2.0772 D& ai E
-1.2476 D& ai I
-1.1284 D& ai N
-1.3222 D& ai S
-2.2908 D& ai U
-1.6232 D& ai Y
-2.2908 D& ai a
-2.2908 D& ai aU
-1.9575 D& ai b
-1.0492 D& ai dc
-1.9575 D& ai e
-1.6856 D& ai g
-2.0772 D& ai h
-1.7636 D& ai i
-1.5721 D& ai j
-2.0772 D& ai kh
-0.9823 D& ai l
-1.5721 D& ai m
-0.8731 D& ai n
-2.0772 D& ai o
-2.2908 D& ai oe
-1.1839 D& ai r
-1.4849 D& ai s
-1.2041 D& ai tc
-2.2908 D& ai th
-1.9575 D& ai u
-1.6232 D& ai v
-1.4472 D& ai x
-2.2908 D& ai z
-1.1786 D& b &
-2.0938 D& b @
-1.5195 D& b A
-1.0832 D& b D&
-1.2533 D& b D&i
-2.4854 D& b E
-1.8553 D& b I
-1.8931 D& b N
-1.7884 D& b S
-1.5543 D& b U
-2.1718 D& b Y
-1.1863 D& b a
-1.5921 D& b aU
-1.2102 D& b ai
-2.0314 D& b d
-2.0314 D& b dc
-1.7584 D& b e
-1.4160 D& b g
-2.0938 D& b h
-1.5195 D& b i
-2.4854 D& b j
-1.5543 D& b kh
-1.6792 D& b l
-1.7304 D& b m
-1.6123 D& b n
-1.4873 D& b o
-1.7584 D& b oe
-1.6792 D& b ph
-1.1636 D& b r
-1.9803 D& b s
-2.6989 D& b tS
-1.9345 D& b tc
-2.0938 D& b th
-2.4854 D& b ts
-1.0772 D& b u
-1.9345 D& b v
-1.7884 D& b x
-1.9345 D& b y
-1.8206 D& b z
-1.0624 D& d &
-1.1404 D& d A
-1.1404 D& d D&
-1.6675 D& d D&i
-1.2121 D& d U
-1.6675 D& d a
-1.0624 D& d dc
-1.6675 D& d h
-1.6675 D& d i
-1.4540 D& d j
-1.3342 D& d l
-1.3342 D& d n
-1.4540 D& d oe
-1.0000 D& d r
-1.4540 D& d s
-1.6675 D& d tc
-1.6675 D& d z
-1.9646 D& dc &
-2.7575 D& dc @
-2.8772 D& dc A
-1.8078 D& dc D&
-2.7575 D& dc D&i
-1.7823 D& dc I
-2.7575 D& dc N
-1.8950 D& dc S
-1.8639 D& dc U
-1.9461 D& dc Y
-2.0959 D& dc a
-3.0908 D& dc aU
-2.8772 D& dc ai
-0.6478 D& dc b
-0.8998 D& dc d
-2.2472 D& dc e
-2.5636 D& dc f
-0.8280 D& dc g
-2.3721 D& dc h
-1.8792 D& dc i
-1.9646 D& dc j
-1.3220 D& dc kh
-2.0041 D& dc l
-2.2124 D& dc m
-2.0041 D& dc n
-1.6731 D& dc o
-1.2694 D& dc ph
-2.0253 D& dc r
-3.0908 D& dc s
-2.3263 D& dc tc
-1.1277 D& dc th
-2.3721 D& dc ts
-1.1195 D& dc u
-1.5781 D& dc v
-2.2472 D& dc x
-2.1802 D& dc y
-2.1502 D& dc z
-1.4482 D& e A
-1.3261 D& e N
-1.1139 D& e S
-1.7815 D& e ai
-0.9756 D& e dc
-1.5679 D& e h
-1.7815 D& e i
-1.0628 D& e l
-1.3261 D& e n
-1.5679 D& e ph
-0.9756 D& e r
-1.7815 D& e s
-1.5679 D& e tS
-0.9756 D& e tc
-1.5679 D& e th
-1.4482 D& e u
-1.4482 D& e x
-1.4482 D& e z
-1.5080 D& f &
-2.4186 D& f @
-2.2051 D& f A
-1.2228 D& f D&
-1.6128 D& f D&i
-1.5750 D& f I
