# VAD: 1
# Viterbi loop action: No record

BIGRAM: method Katz, cutoff 1
coef[7]: 0.000000 0.950433 0.963710 0.900538 0.965962 0.888889 0.990000

TRIGRAM: method Katz, cutoff 1
coef[7]: 0.000000 0.783197 0.763323 0.765448 0.697372 0.809523 0.701976

\data\
ngram 1=48
ngram 2=1971
ngram 3=28084

\1-grams:
-2.1307 &	-0.8466
-99.9900 </s>
-99.9900 <s>
-1.7320 A	-1.5353
-1.8902 D	-2.4811
-1.3748 E	-2.5966
-3.4911 F	-0.2786
-1.6780 G	-1.9079
-1.9497 H	-1.2349
-2.4739 J	-0.4740
-1.9055 P	-1.2024
-1.9268 S	-1.4024
-1.8374 T	-1.4078
-2.0380 Y	-1.0929
-2.0862 Z	-0.5677
-1.3503 _S_	-1.0507
-1.6680 _q_	-2.6865
-1.2889 a	-2.5776
-2.2435 a_md	-0.7181
-1.8785 a_q	-1.1748
-1.4488 b	-3.5082
-1.6462 d	-2.9645
-2.2697 dh	-0.7410
-2.1970 f	-0.8989
-1.6555 g	-2.3363
-1.7256 h	-2.4778
-1.1830 i	-1.6514
-1.6114 j	-1.9616
-1.5002 k	-0.7760
-1.6048 l	-1.9981
-1.4695 m	-2.3121
-1.4662 n	-2.7190
-2.8387 o	-0.1813
-1.6736 p	-1.8380
-1.6590 q	-1.8944
-1.6598 q_a	-1.6682
-1.5291 r	-2.1640
-1.8854 rf	-1.4419
-1.9978 s	-1.1034
-1.9036 t	-1.5445
-1.5177 t_l	-2.1104
-1.2939 u	-2.6618
-2.0971 v	-0.8029
-1.3131 w	-3.5839
-1.7785 x	-2.0986
-1.2957 y	-3.4247
-1.7154 ya_q	-2.5952
-2.0418 z	-2.0033

\2-grams:
-1.3528 & A	-0.1108
-2.2755 & D
-1.0788 & E	+0.0689
-1.9402 & G	-0.0299
-2.1620 & H
-2.6552 & J
-2.4323 & P	-0.0875
-2.1620 & S	-0.0471
-1.9122 & T	-0.0452
-1.5481 & Y	-0.1138
-1.9122 & Z	-0.0382
-1.5722 & _S_	-0.1971
-1.2242 & _q_	+0.1464
-0.8732 & a	-0.0717
-2.0371 & a_md	-0.0817
-1.9701 & a_q	-0.0720
-1.7941 & b	-0.0633
-2.0371 & d	-0.2282
-2.6552 & dh
-2.8373 & f
-1.6249 & g	-0.1158
-1.7013 & h	-0.1105
-1.1869 & i	+0.0519
-1.9701 & j	-0.1437
-1.8610 & k	-0.2424
-1.6249 & l	-0.1005
-1.6849 & m	-0.0910
-1.8152 & n	-0.1665
-1.9122 & p	-0.1315
-1.7739 & q	-0.0724
-2.1620 & q_a	-0.1347
-1.2186 & r	-0.0973
-2.3893 & rf
-2.3893 & s
-2.5597 & t	-0.1548
-2.2132 & t_l
-1.4728 & u	-0.0898
-2.6552 & v
-1.0749 & w	+0.1306
-1.6849 & x	-0.1551
-1.7739 & y	-0.0945
-1.3239 & ya_q	-0.0841
-2.4358 A &	-0.1466
-2.0236 A D	-0.1540
-1.6457 A E	-0.0475
-2.7879 A F	-0.2682
-1.9022 A G	-0.0564
-2.0098 A H	-0.1210
-2.6742 A J	-0.1836
-1.6824 A P	-0.1125
-2.2362 A S	-0.1101
-1.5193 A T	+0.1754
-1.6229 A Y	-0.0077
-1.6341 A Z	+0.0261
-1.4215 A _S_	+0.0589
-1.4938 A _q_	+0.0191
-1.9964 A a	-0.0624
-2.8310 A a_md
-2.5607 A a_q
-1.2139 A b	+0.1650
-1.3596 A d	+0.1301
-2.1000 A dh	-0.0093
-1.8815 A f	-0.0724
-1.5804 A g	-0.1075
-1.6399 A h	+0.0403
-1.7296 A i	+0.0026
-1.6824 A j	+0.0770
-1.5754 A k	+0.0437
-1.2694 A l	+0.0736
-1.0820 A m	+0.1598
-1.1365 A n	+0.1974
-1.7668 A p	-0.1683
-1.4250 A q	+0.0655
-2.0378 A q_a	-0.0779
-1.2032 A r	-0.0214
-2.1532 A rf	-0.1920
-1.6954 A s	-0.1422
-1.7020 A t	-0.0602
-2.3688 A t_l	-0.0791
-1.7746 A u	-0.0251
-2.1170 A v	-0.0751
-1.4896 A w	-0.0162
-1.6516 A x	+0.0709
-1.8917 A y	-0.0813
-1.8074 A ya_q	-0.1235
-1.8715 A z	-0.0568
-2.3154 D &	-0.2193
-1.8253 D A	-0.1657
-1.2849 D E	+0.3060
-1.7036 D G	+0.0479
-1.6244 D H	-0.0648
-2.1263 D J	-0.1169
-2.1263 D P	-0.0549
-1.6408 D S	-0.0553
-2.0144 D T	-0.0455
-2.2776 D Y	-0.0512
-2.1807 D Z	-0.1938
-1.4647 D _S_	+0.0289
-1.5715 D _q_	-0.0570
-1.5243 D a	+0.0545
-1.9589 D a_md	-0.1324
-1.8516 D a_q	-0.0953
-1.6009 D b	-0.0995
-1.8383 D d	-0.0785
-2.4025 D dh	-0.2535
-2.1807 D f	-0.1019
-1.5439 D g	-0.0684
-1.5055 D h	-0.0292
-1.2776 D i	+0.0847
-1.5574 D j	-0.0332
-1.6164 D k	-0.0286
-1.5715 D l	-0.0516
-1.4935 D m	-0.0391
-1.5439 D n	-0.0329
-3.0778 D o
-1.4647 D p	+0.1055
-1.6325 D q	-0.0681
-1.5179 D q_a	+0.0827
-1.5307 D r	-0.0006
-1.9418 D rf	-0.1492
-2.0346 D s	-0.0380
-1.9254 D t	-0.0723
-1.5644 D t_l	+0.0746
-1.1924 D u	+0.1773
-2.1527 D v	+0.0022
-1.3076 D w	+0.0012
-1.5243 D x	-0.0371
-1.3315 D y	+0.1606
-1.6847 D ya_q	-0.0877
-1.9418 D z	-0.0843
-2.6417 E &	-0.1125
-1.9377 E A	-0.0862
-1.9745 E D	-0.0621
-3.3156 E F
-1.9377 E G	+0.1511
-1.8268 E H	+0.2087
-2.4408 E J	+0.0012
-2.0396 E P	-0.0531
-2.0798 E S	-0.1068
-1.9971 E T	-0.0328
-1.5377 E Y	+0.3402
-2.1479 E Z	+0.0856
-1.3040 E _S_	+0.1785
-1.2357 E _q_	+0.0812
-1.1637 E a	+0.2278
-2.4572 E a_md	-0.1492
-2.1732 E a_q	-0.0056
-1.3936 E b	+0.6760
-1.4539 E d	+0.0763
-2.4742 E dh	-0.1173
-2.3281 E f	-0.1503
-1.6443 E g	+0.2144
-1.6169 E h	+0.1208
-1.4098 E i	+0.0808
-1.7616 E j	+0.0143
-1.4830 E k	+0.0248
-1.3051 E l	+0.2246
-1.4038 E m	+0.3828
-1.0819 E n	+0.4899
-3.3156 E o	-0.1731
-1.6366 E p	+0.1995
-1.6961 E q	+0.1584
-1.9277 E q_a	-0.1485
-1.2189 E r	+0.6115
-2.2924 E rf	-0.0962
-2.2189 E s	-0.0472
-2.0461 E t	-0.0337
-2.2189 E t_l	-0.0499
-1.6547 E u	+0.1061
-2.3281 E v	-0.0971
-1.4938 E w	+0.9575
-1.8191 E x	+0.0257
-1.4555 E y	+0.4989
-1.3657 E ya_q	+0.1240
-2.0461 E z	-0.1203
-1.4769 F D
-1.4769 F G
-1.2948 F _S_
-1.1993 F a_q	-0.1917
-1.4769 F b
-1.4769 F d
-1.1993 F i
-1.4769 F n
-1.4769 F q
-1.2948 F rf
-1.2948 F t_l
-1.1993 F u	-0.2072
-1.2948 F v	-0.2770
-1.2948 F w
-1.2948 F y
-1.4769 F z
-1.9158 G &	-0.0448
-1.6825 G A	-0.0180
-1.8530 G D	-0.1173
-1.3872 G E	+0.2303
-2.0919 G H	-0.1000
-2.7283 G J	-0.0765
-2.2266 G P	-0.1477
-1.9562 G S	-0.1081
-2.3138 G T	-0.1669
-2.1540 G Y	-0.0853
-2.8851 G Z
-1.4935 G _S_	+0.0000
-1.6005 G _q_	-0.1081
-1.3042 G a	+0.1015
-2.6659 G a_md	-0.1896
-1.9158 G a_q	-0.0251
-1.6100 G b	-0.0004
-1.7909 G d	-0.1034
-2.5276 G dh	-0.0863
-2.7283 G f
-1.7909 G g	-0.1019
-2.0250 G h	-0.1088
-1.1816 G i	+0.2770
-1.7239 G j	+0.0163
-1.5823 G k	+0.1453
-1.7057 G l	+0.0686
-1.6552 G m	-0.0159
-1.6396 G n	-0.1308
-2.8420 G o
-1.3138 G p	+0.3992
-1.8208 G q	-0.0559
-1.5008 G q_a	-0.1205
-1.6196 G r	-0.0248
-1.9356 G rf	-0.0581
-2.6148 G s	-0.0701
-2.1540 G t	+0.0038
-1.2903 G t_l	+0.0817
-1.1022 G u	+0.5044
-2.4551 G v	-0.1008
-0.9881 G w	+0.8041
-1.9158 G x	-0.0913
-1.0505 G y	-0.0722
-1.6769 G ya_q	+0.0182
-2.4898 G z	-0.1133
-2.5703 H &
-1.8994 H A	-0.1421
-1.7291 H D	-0.1775
-1.3942 H E	+0.1158
-1.8823 H G	-0.0816
-2.2181 H J	-0.0641
-1.9963 H P	-0.0982
-1.6346 H S	-0.0969
-2.0421 H T	-0.4449
-2.1212 H Y	-0.1263
-2.7408 H Z	-0.1984
-1.3335 H _S_	+0.0455
-1.3997 H _q_	+0.0754
-1.3942 H a	-0.0037
-2.6134 H a_md	-0.1301
-2.0669 H a_q	-0.1368
-1.4108 H b	-0.0012
-1.5339 H d	+0.0486
-2.3431 H dh	-0.3094
-2.0932 H f	-0.0667
-1.6741 H g	-0.1136
-1.6845 H h	-0.1022
-1.2520 H i	+0.1063
-1.5730 H j	+0.0252
-1.4844 H k	-0.0895
-1.4400 H l	-0.1495
-1.4281 H m	-0.0245
-1.2291 H n	-0.0681
-3.0184 H o
-1.6441 H p	-0.0771
-1.5414 H q	-0.0962
-1.6539 H q_a	-0.0060
-1.6161 H r	-0.1619
-1.8349 H rf	-0.0985
-2.0932 H s	-0.2174
-1.8060 H t	-0.0755
-2.0932 H t_l	-0.1390
-1.2761 H u	+0.0316
-1.8349 H v	-0.0837
-1.4778 H w	+0.0332
-1.5649 H x	-0.0016
-1.3835 H y	+0.0359
-1.5984 H ya_q	-0.0422
-2.2181 H z	-0.0737
-2.0891 J A	-0.1392
-1.8188 J D
-1.5426 J E	-0.1100
-1.9323 J G
-2.0461 J H
-2.0891 J P	-0.1477
-1.6939 J S
-2.2165 J T	-0.1596
-2.4941 J Z
-1.2416 J _S_	-0.1354
-1.6939 J _q_	-0.0486
-1.4943 J a	-0.0923
-2.4941 J a_md
-1.9323 J a_q	-0.0579
-1.4943 J b	-0.0212
-1.5970 J d	-0.0871
-2.0891 J dh
-1.8700 J g	-0.0773
-1.6591 J h	-0.0476
-0.8646 J i	+0.1029
-1.4720 J j	-0.1346
-1.6591 J k	-0.0355
-1.7317 J l	-0.1761
-1.4943 J m	-0.1089
-1.3751 J n	-0.1354
-1.5178 J p	-0.0809
-1.7317 J q	-0.1402
-1.4508 J q_a	-0.0949
-1.4720 J r	-0.0722
-1.7317 J rf	-0.0815
-2.3120 J s
-2.2165 J t
-1.3107 J t_l	+0.0583
-1.3107 J u	-0.0875
-2.0461 J v
-1.7731 J w	-0.0888
-2.2165 J x
-1.1296 J y	-0.1298
-1.8188 J ya_q	-0.2082
-2.4941 J z
-2.8804 P &
-2.6144 P A
-1.8643 P D	-0.1810
-2.3414 P E	-0.0519
-1.4902 P G	-0.2018
-2.2275 P H
-2.2275 P J	-0.1254
-1.7394 P S	-0.1090
-1.1567 P T	-0.1307
-2.2275 P Z	-0.1721
-0.7961 P _S_	+0.0096
-2.8804 P _q_
-2.2623 P a	-0.2882
-2.6144 P a_md	-0.0997
-1.8100 P a_q	-0.0882
-1.3970 P b	-0.1420
-1.8501 P d	-0.0068
-2.3000 P dh	-0.0812
-1.8363 P f	-0.1962
-2.1653 P g	-0.0269
-2.2275 P h	-0.0836
-1.6339 P i	-0.0364
-1.7287 P j	-0.1755
-1.0192 P k	+0.1792
-2.2275 P l	-0.0072
-1.8790 P m	-0.1359
-1.9265 P n	-0.0852
-2.2275 P p	-0.1209
-1.2586 P q	-0.3030
-1.4549 P q_a	+0.1332
-2.1953 P r	-0.1502
-1.6787 P rf	-0.1926
-1.6172 P s	-0.1289
-1.1240 P t	+0.0445
-1.5706 P t_l	-0.1446
-1.3202 P u	-0.0606
-1.5932 P v	-0.1604
-1.6090 P w	-0.1255
-1.6011 P x	-0.0774
-1.6980 P y	-0.1343
-2.4383 P ya_q	-0.0762
-2.6144 P z	-0.1997
-1.9777 S &	-0.1953
-1.7638 S A	-0.0851
-1.6300 S D	-0.0998
-1.3158 S E	-0.1049
-1.5720 S G	+0.0194
-1.8730 S H	-0.0613
-2.0897 S J	-0.1247
-2.5931 S P	-0.1136
-1.9979 S T	-0.0647
-2.4794 S Y	-0.1005
-2.6362 S Z
-1.5567 S _S_	+0.0130
-1.8016 S _q_	-0.1462
-1.4568 S a	-0.0819
-2.1740 S a_md	-0.1263
-1.7404 S a_q	-0.0052
-1.3907 S b	+0.0223
-1.7761 S d	-0.0495
-2.4171 S dh	-0.0549
-2.4171 S f	-0.0777
-1.4628 S g	-0.0066
-1.5720 S h	-0.0485
-1.2446 S i	+0.2693
-1.4568 S j	+0.0278
-1.7291 S k	-0.0412
-1.7519 S l	-0.1720
-1.4117 S m	-0.0115
-1.6041 S n	-0.0540
-3.0412 S o
-1.8730 S p	-0.1191
-1.4941 S q	-0.0560
-1.4281 S q_a	+0.0323
-1.6767 S r	-0.0988
-1.8288 S rf	-0.1550
-2.1160 S s	-0.0250
-1.8430 S t	-0.1367
-1.5208 S t_l	-0.0413
-1.1000 S u	+0.1182
-1.8730 S v	-0.1066
-1.1679 S w	+0.2276
-1.6300 S x	-0.1276
-1.4876 S y	-0.0382
-1.8150 S ya_q	-0.1012
-2.0897 S z	-0.1313
-1.6103 T &	-0.0747
-1.3489 T A	+0.1062
-1.9472 T D	-0.1271
-1.1354 T E	+0.0548
-2.1791 T G	-0.1161
-2.1086 T H	-0.0936
-2.7257 T J	-0.0994
-2.3682 T P	-0.0577
-2.3304 T S	-0.1543
-2.2335 T Y	-0.1228
-2.4096 T Z	-0.0359
-1.5404 T _S_	-0.2114
-1.9044 T _q_	-0.0951
-0.8264 T a	+0.2294
-1.9624 T a_md	-0.1343
-1.9182 T a_q	-0.1147
-1.7020 T b	-0.1984
-2.2635 T d	-0.0610
-2.5689 T dh	-0.1942
-2.2957 T f	-0.2260
-1.3377 T g	+0.0449
-2.0874 T h	-0.2174
-1.2666 T i	+0.0760
-2.2055 T j	-0.0910
-1.8911 T k	-0.0207
-2.1086 T l	-0.1056
-1.7968 T m	-0.0267
-2.1791 T n	-0.0737
-2.2957 T p	-0.0767
-1.7968 T q	-0.0785
-1.4458 T q_a	+0.0527
-1.5011 T r	-0.0949
-1.8655 T rf	-0.1137
-2.1543 T s	-0.1104
-2.2055 T t	-0.1421
-1.6936 T t_l	-0.1305
-0.9154 T u	+0.2577
-2.3304 T v	-0.1237
-0.9703 T w	+0.4647
-1.8655 T x	-0.0828
-2.0479 T y	-0.0747
-1.8655 T ya_q	-0.1040
-2.8530 T z
-2.1298 Y &	-0.0923
-2.2547 Y A	-0.0663
-1.8666 Y D	-0.1585
-1.6775 Y E	-0.0817
-1.3169 Y G	-0.1133
-1.9785 Y H	-0.2080
-2.2547 Y J
-1.8110 Y P	-0.0257
-1.6408 Y S	-0.1415
-1.5100 Y T	-0.0642
-1.5462 Y Z	-0.0231
-1.4456 Y _S_	-0.1144
-1.9079 Y _q_	-0.1839
-2.3682 Y a	-0.0874
-2.3682 Y a_md	-0.0783
-1.8666 Y a_q	-0.1188
-1.3961 Y b	+0.0041
-1.9079 Y d	-0.1254
-1.9302 Y dh	-0.0833
-2.0049 Y f	-0.0678
-1.4531 Y g	-0.0896
-1.6649 Y h	-0.1074
-1.5857 Y i	+0.0253
-1.5188 Y j	+0.0035
-1.4028 Y k	-0.0756
-1.4766 Y l	+0.0237
-1.1598 Y m	-0.0002
-1.5100 Y n	-0.0388
-2.9300 Y o
-1.7776 Y p	-0.1887
-1.3397 Y q	-0.2778
-1.6649 Y q_a	-0.1297
-1.5558 Y r	-0.0587
-1.8288 Y rf	-0.1204
-1.8666 Y s	-0.0816
-1.6905 Y t	-0.0782
-1.7776 Y t_l	-0.1798
-1.6292 Y u	-0.1844
-1.8868 Y v	-0.1078
-1.1559 Y w	+0.1209
-1.6292 Y x	-0.0403
-1.6179 Y y	-0.1381
-1.9079 Y ya_q	-0.2021
-1.8473 Y z	-0.1648
-1.7806 Z &	-0.0700
-1.5173 Z A	-0.1607
-1.8820 Z D	-0.1472
-1.3283 Z E	-0.0550
-1.9055 Z G	-0.1490
-2.2577 Z H	-0.0907
-2.8818 Z J
-2.4768 Z P	-0.1195
-1.8385 Z S	-0.1348
-2.0468 Z T	-0.0794
-2.6042 Z Y
-1.9566 Z _S_	-0.0684
-2.3200 Z _q_
-1.0369 Z a	+0.0254
-1.8183 Z a_md	-0.0853
-1.5926 Z a_q	-0.0388
-1.8820 Z b	-0.0268
-2.1608 Z d	-0.2201
-2.8818 Z dh	-0.6495
-2.8818 Z f
-1.4049 Z g	-0.1399
-1.6293 Z h	-0.0953
-1.1039 Z i	+0.0849
-1.8385 Z j	-0.1574
-1.9303 Z k	-0.1762
-1.7990 Z l	-0.2022
-1.9566 Z m	-0.0853
-2.3200 Z n	-0.0874
-2.2577 Z p	-0.0834
-1.7628 Z q	-0.0317
-1.5480 Z q_a	-0.0455
-1.3899 Z r	-0.0728
-1.9303 Z rf	-0.1000
-2.6042 Z s
-2.4338 Z t
-1.2163 Z t_l	-0.1326
-0.8469 Z u	+0.1343
-2.4338 Z v	-0.0878
-0.9513 Z w	-0.0326
-1.7628 Z x	-0.0711
-1.8820 Z y	-0.0543
-2.0468 Z ya_q	-0.0933
-2.4768 Z z
-2.3746 _S_ &	-0.2372
-1.9171 _S_ A	-0.1402
-2.0076 _S_ D	+0.0139
-1.5772 _S_ E	+0.1616
-2.0133 _S_ G	+0.0014
-2.0318 _S_ H	-0.0050
-2.2632 _S_ J	-0.2806
-1.9282 _S_ P	+0.2177
-1.8175 _S_ S	+0.1334
-1.7631 _S_ T	-0.3221
-2.7205 _S_ Y	-0.1036
-2.5542 _S_ Z	-0.0705
-2.0578 _S_ _q_	-0.0939
-1.3415 _S_ a	+0.4066
-2.2632 _S_ a_md	-0.0736
-1.6952 _S_ a_q	+0.0525
-1.5744 _S_ b	+0.2168
-2.1408 _S_ d	-0.1492
-2.5744 _S_ dh	-0.1171
-2.1977 _S_ f	-0.1567
-1.5765 _S_ g	+0.2200
-1.8754 _S_ h	-0.1271
-0.9343 _S_ i	+0.0471
-1.8067 _S_ j	+0.1280
-1.4850 _S_ k	-0.1143
-1.7695 _S_ l	+0.1215
-1.4195 _S_ m	+0.0937
-1.6295 _S_ n	+0.3041
-2.6662 _S_ o	-0.0904
-1.6898 _S_ p	+0.1445
-1.7007 _S_ q	-0.0579
-1.4701 _S_ q_a	+0.1640
-1.4952 _S_ r	+0.1150
-1.5311 _S_ rf	+0.0763
-2.2339 _S_ s	-0.2035
-1.9235 _S_ t	-0.1794
-1.4767 _S_ t_l	+0.2404
-0.8796 _S_ u	-0.0013
-1.8966 _S_ v	-0.0077
-1.2542 _S_ w	+1.1510
-1.7007 _S_ x	+0.1361
-1.3501 _S_ y	+0.2945
-2.1332 _S_ ya_q	+0.0726
-2.5349 _S_ z	-0.2428
-2.2780 _q_ &	-0.0490
-2.3749 _q_ A	-0.0571
-1.7728 _q_ D	-0.0871
-1.6445 _q_ E	+0.0561
-1.5967 _q_ G	+0.0271
-1.8977 _q_ H	-0.0427
-2.5790 _q_ J	-0.1313
-1.7157 _q_ P	+0.0964
-1.7277 _q_ S	-0.0539
-1.4267 _q_ T	+0.0923
-2.0876 _q_ Y	-0.1772
-1.8231 _q_ Z	-0.0432
-1.4821 _q_ _S_	-0.0654
-2.0108 _q_ a	-0.0831
-2.5790 _q_ a_md
-2.0349 _q_ a_q	-0.1014
-1.0312 _q_ b	+0.1069
-1.3915 _q_ d	-0.0183
-2.0876 _q_ dh	-0.0250
-1.9879 _q_ f	-0.0561
-1.6496 _q_ g	-0.0184
-1.7866 _q_ h	-0.0847
-1.6059 _q_ i	+0.0828
-1.6247 _q_ j	-0.0855
-1.3485 _q_ k	+0.1301
-1.5259 _q_ l	+0.0263
-1.1952 _q_ m	+0.2464
-1.4000 _q_ n	+0.1010
-2.8951 _q_ o
-1.7594 _q_ p	-0.0030
-1.2979 _q_ q	+0.1070
-1.5578 _q_ q_a	+0.0766
-1.6547 _q_ r	+0.0145
-1.8800 _q_ rf	-0.1185
-1.7217 _q_ s	-0.1995
-1.5922 _q_ t	+0.0710
-1.8231 _q_ t_l	+0.0459
-1.5456 _q_ u	+0.0234
-1.8156 _q_ v	-0.0307
-1.3695 _q_ w	+0.4164
-1.5704 _q_ x	-0.1108
-1.8800 _q_ y	-0.0874
-1.8800 _q_ ya_q	-0.1101
-2.0876 _q_ z	-0.0877
-3.4015 a &
-2.3049 a A	-0.0552
-1.9369 a D	-0.0768
-1.5584 a E	+0.1919
-2.8789 a F	-0.1466
-1.6359 a G	+0.0697
-1.9089 a H	+0.1917
-2.4529 a J	-0.2384
-1.5448 a P	+0.0274
-2.0716 a S	-0.0998
-1.4709 a T	+0.3095
-1.6571 a Y	+0.2213
-1.7004 a Z	-0.0577
-1.0773 a _S_	+0.2521
-1.4178 a _q_	+0.5726
-3.2311 a a_md
-2.7540 a a_q	-0.2296
-1.1629 a b	+0.3017
-1.2953 a d	+0.6586
-2.3783 a dh	-0.1907
-1.8543 a f	-0.0320
-1.7406 a g	+0.2624
-1.8974 a h	+0.1947
-1.8408 a i	-0.0351
-1.7251 a j	+0.1893
-1.2688 a k	+0.5560
-1.3817 a l	+0.6345
-1.2438 a m	+0.1364
-1.2723 a n	+0.2889
-3.2742 a o
-1.9128 a p	+0.2178
-1.4810 a q	+0.6436
-2.1947 a q_a	+0.0257
-1.3560 a r	+0.3766
-2.3453 a rf	-0.1614
-1.6021 a s	+0.1176
-1.6359 a t	+0.3554
-2.6359 a t_l	-0.1238
-2.2505 a u	-0.2227
-1.7540 a v	+0.1447
-1.6771 a w	+0.4269
-1.7302 a x	+0.1317
-1.6359 a y	+0.1953
-1.7200 a ya_q	+0.2920
-1.8475 a z	+0.3776
-2.0492 a_md &
-1.6417 a_md A	-0.1374
-1.7993 a_md D	-0.1528
-1.1342 a_md E	+0.1123
-2.7245 a_md F
-1.9621 a_md G	-0.0310
-1.8895 a_md H	-0.1467
-2.1627 a_md P	-0.0343
-1.8573 a_md S	-0.0210
-2.3195 a_md T	-0.1573
-1.5721 a_md Y	-0.1200
-1.9621 a_md Z
-1.8573 a_md _S_	-0.1121
-1.6232 a_md _q_	-0.1208
-1.3133 a_md a	-0.1106
-1.8895 a_md a_q	-0.0976
-1.7730 a_md b	-0.1059
-2.5424 a_md d
-2.3195 a_md f
-1.4237 a_md g	-0.1191
-0.9243 a_md h	-0.0231
-1.4124 a_md i	-0.0382
-1.1710 a_md j	-0.0742
-2.1627 a_md k
-2.1627 a_md l	-0.1973
-1.4849 a_md m	-0.2061
-1.4124 a_md n	-0.1061
-1.4472 a_md p	-0.0696
-1.9621 a_md q	-0.0820
-2.0035 a_md q_a	-0.0329
-1.4237 a_md r	-0.0580
-2.7245 a_md rf
-1.6610 a_md s	-0.1204
-2.5424 a_md t
-2.1004 a_md t_l	-0.1408
-1.6417 a_md u	-0.2478
-2.7245 a_md v
-1.1522 a_md w	-0.0794
-1.8895 a_md x	-0.0659
-1.6232 a_md y	-0.0617
-1.7730 a_md ya_q	-0.0455
-1.4237 a_md z	-0.1357
-1.9213 a_q A	-0.1286
-1.8244 a_q D	-0.1856
-1.5424 a_q E	-0.0789
-1.8244 a_q G	-0.1066
-1.9535 a_q H	-0.1482
-2.3685 a_q J	-0.0689
-2.0261 a_q P	-0.1518
-1.8244 a_q S	-0.1264
-2.9074 a_q T
-1.9371 a_q Y	-0.1176
-3.0895 a_q Z
-1.2681 a_q _S_	+0.1359
-1.7557 a_q _q_	-0.2280
-1.6609 a_q a	-0.0378
-2.1644 a_q a_md	-0.1118
-1.5903 a_q b	-0.0345
-1.4600 a_q d	+0.0536
-2.0067 a_q dh	-0.0784
-2.8119 a_q f
-1.6783 a_q g	+0.0105
-1.5360 a_q h	-0.0480
-0.9469 a_q i	+0.1697
-1.5172 a_q j	+0.0440
-1.2786 a_q k	+0.0503
-1.4877 a_q l	-0.0798
-1.9213 a_q m	-0.1128
-1.2716 a_q n	+0.0875
-2.6415 a_q o
-1.2414 a_q p	+0.1574
-2.1924 a_q q	-0.0977
-1.9213 a_q q_a	+0.0301
-1.2681 a_q r	+0.3586
-2.0674 a_q rf	-0.0584
-2.2893 a_q s	-0.0953
-2.1924 a_q t	-0.1057
-1.8122 a_q t_l	+0.0551
-1.6872 a_q u	-0.0614
-2.3271 a_q v	-0.0325
-1.6695 a_q w	-0.0956
-2.1380 a_q x	-0.1286
-1.0067 a_q y	+0.2195
-1.5623 a_q ya_q	+0.0256
-1.9535 a_q z	-0.0214
-1.7853 b &	-0.1615
-1.4780 b A	+0.3782
-1.9231 b D	-0.0378
-1.1459 b E	+0.6168
-1.6842 b G	+0.0289
-2.0128 b H	-0.0338
-2.7568 b J	-0.1199
-2.4557 b P	-0.0906
-2.2300 b S	-0.0643
-1.9231 b T	-0.0509
-2.6842 b Y	-0.1332
-2.5940 b Z	-0.1835
-1.5652 b _S_	+0.2056
-2.1169 b _q_	-0.1933
-0.9650 b a	+0.5717
-2.4002 b a_md	-0.1785
-1.6876 b a_q	+0.2077
-2.0347 b d	-0.2684
-2.4557 b dh	-0.0516
-2.4971 b f	-0.0238
-1.6489 b g	-0.0120
-2.1961 b h	-0.0993
-0.8796 b i	+0.4250
-1.7607 b j	-0.1024
-1.6250 b k	-0.0568
-1.7853 b l	+0.0424
-1.6459 b m	+0.0460
-1.7938 b n	-0.2567
-2.9574 b o	-0.0673
-1.9721 b p	-0.0477
-1.8250 b q	-0.0477
-1.5217 b q_a	+0.1283
-1.7154 b r	-0.0317
-1.7528 b rf	-0.0764
-2.4759 b s	-0.1707
-2.0273 b t	-0.1116
-1.3418 b t_l	+0.0697
-1.1160 b u	+0.1754
-2.3668 b v	-0.0430
-1.2253 b w	+0.4733
-2.0128 b x	-0.0697
-1.3684 b y	+0.1559
-1.7263 b ya_q	+0.0366
-2.3358 b z	-0.1146
-2.2583 d &	-0.0953
-1.7747 d A	-0.0561
-2.0097 d D	-0.0925
-1.4247 d E	+0.0996
-1.4247 d G	+0.2861
-2.3455 d H	-0.1499
-2.6008 d J
-2.1094 d P	-0.1533
-2.0956 d S	-0.1540
-1.8684 d T	-0.1447
-3.3218 d Y
-2.4546 d Z	-0.1445
-1.6417 d _S_	-0.2071
-1.8226 d _q_	-0.2701
-1.1490 d a	+0.5724
-2.2583 d a_md	-0.0547
-1.5144 d a_q	-0.0378
-1.4835 d b	-0.0221
-2.1094 d dh	+0.0681
-2.5216 d f	-0.0750
-1.9195 d g	-0.1054
-2.0567 d h	-0.1073
-0.8668 d i	+0.3998
-1.6465 d j	-0.0201
-1.5554 d k	-0.0202
-1.8299 d l	-0.2663
-1.6323 d m	-0.0084
-1.7143 d n	-0.0911
-2.5216 d o	-0.0657
-1.6323 d p	-0.0732
-1.8084 d q	-0.0838
-1.3729 d q_a	-0.0730
-1.8449 d r	-0.0971
-1.6514 d rf	+0.0144
-2.3220 d s	-0.0899
-1.8765 d t	-0.1825
-1.1295 d t_l	-0.0636
-1.1444 d u	+0.3956
-2.2028 d v	-0.0253
-1.6095 d w	+0.0336
-2.0956 d x	-0.1371
-1.2187 d y	+0.0967
-1.9287 d ya_q	-0.1497
-2.4868 d z	-0.0350
-1.9359 dh &	-0.1056
-1.3241 dh A	-0.0968
-1.9773 dh D	-0.1776
-1.2138 dh E	+0.0466
-1.8311 dh G	-0.0600
-2.1365 dh H
-2.5162 dh P
-2.0742 dh S
-2.0742 dh Y	-0.3484
-2.6983 dh Z	-0.5973
-2.0230 dh _S_	-0.0661
-1.9359 dh _q_	-0.1177
-0.8600 dh a	+0.1123
-1.8311 dh a_md	-0.0471
-1.4859 dh a_q	-0.1639
-2.2933 dh b
-2.6983 dh d
-2.6983 dh f
-1.7731 dh g	-0.1095
-1.7220 dh h	-0.1179
-0.8874 dh i	+0.1154
-1.9773 dh j	-0.1243
-2.4207 dh k
-2.0230 dh l	-0.0760
-2.0742 dh m	-0.3148
-1.9773 dh n	-0.1874
-2.2503 dh o	-0.1123
-1.6348 dh p	-0.1376
-2.2503 dh q
-1.3145 dh q_a	-0.0813
-1.4332 dh r	-0.1407
-1.8633 dh rf	-0.0425
-2.2933 dh t
-1.0582 dh t_l	-0.0276
-1.1022 dh u	-0.1490
-2.5162 dh v
-1.5149 dh w	-0.1658
-2.1365 dh x
-1.4721 dh y	-0.1590
-2.0742 dh ya_q	-0.0737
-2.1365 dh z
-2.0500 f &	-0.0505
-1.8195 f A	-0.1028
-1.6521 f D	-0.1062
-1.4165 f E	-0.1055
-1.9708 f G	-0.0136
-1.7947 f H	-0.0764
-2.2093 f J	-0.0882
-2.1469 f P	-0.1893
-1.7490 f S	-0.1152
-1.8459 f T	-0.0976
-2.5889 f Z	-0.3073
-1.4267 f _S_	-0.0837
-2.7710 f _q_
-1.3340 f a	-0.0434
-1.9708 f a_md	-0.0574
-1.9708 f a_q	-0.0819
-1.6186 f b	+0.0142
-2.0500 f d	-0.0469
-2.3661 f dh
-1.6028 f g	-0.0879
-1.7278 f h	-0.2158
-0.9969 f i	+0.0391
-1.5185 f j	-0.1063
-1.4165 f k	-0.2272
-1.8459 f l	-0.0144
-1.4702 f m	-0.0362
-1.5876 f n	-0.0824
-2.0500 f p	-0.0534
-1.6028 f q	-0.0281
-1.5586 f q_a	+0.0186
-1.7712 f r	-0.1622
-1.6521 f rf	-0.1772
-1.9708 f s	-0.0960
-1.7712 f t	-0.0076
-1.5586 f t_l	-0.0400
-0.9855 f u	-0.1153
-1.7712 f v	-0.0002
-1.1524 f w	-0.0533
-1.6883 f x	-0.1434
-1.6521 f y	-0.1101
-2.0500 f ya_q	-0.1353
-2.0500 f z	-0.1250
-2.1936 g &	-0.0303
-1.5423 g A	+0.2331
-1.9481 g D	-0.1014
-1.3150 g E	+0.2665
-3.0349 g F
-1.6830 g G	-0.0627
-1.9787 g H	-0.1359
-2.3874 g J	-0.2275
-2.2905 g P	-0.0873
-1.9288 g S	-0.1157
-2.0730 g T	-0.0293
-2.0474 g Y	-0.0612
-2.1765 g Z	+0.0145
-1.4068 g _S_	+0.0795
-1.8925 g _q_	-0.0420
-1.1444 g a	+0.2468
-1.9383 g a_md	-0.0620
-1.7590 g a_q	-0.0551
-1.7590 g b	-0.0203
-2.0233 g d	-0.0435
-2.4776 g dh	-0.0239
-2.3128 g f	-0.0871
-1.4272 g h	+0.1311
-0.8615 g i	+0.3706
-1.5541 g j	-0.0061
-1.6830 g k	-0.0718
-1.6047 g l	+0.1955
-1.5745 g m	+0.1013
-1.5346 g n	+0.0276
-2.6884 g o	-0.1359
-1.6138 g p	+0.1035
-1.9683 g q	-0.0817
-1.8062 g q_a	-0.0959
-1.4709 g r	+0.0242
-1.9013 g rf	-0.1396
-2.1291 g s	-0.0796
-2.1444 g t	-0.0912
-1.7164 g t_l	+0.0181
-1.3560 g u	+0.2151
-2.4776 g v
-1.3460 g w	+0.2067
-1.8356 g x	-0.1160
-1.2840 g y	+0.2096
-1.4981 g ya_q	+0.0602
-1.9194 g z	-0.0964
-2.1597 h &	-0.0616
-1.7152 h A	-0.0025
-1.6889 h D	-0.0166
-1.2426 h E	+0.2997
-3.0603 h F
-1.6763 h G	-0.0207
-1.8402 h H	-0.0503
-2.3753 h J	-0.1613
-2.0300 h P	-0.0137
-1.7505 h S	-0.0316
-1.8982 h T	+0.0961
-2.0900 h Y	-0.0828
-2.0590 h Z	-0.1271
-1.5171 h _S_	-0.0105
-1.7810 h _q_	-0.0970
-1.4840 h a	+0.1380
-1.9773 h a_md	-0.0735
-1.7361 h a_q	-0.1387
-1.5437 h b	+0.1218
-1.6522 h d	-0.0762
-2.2661 h dh	-0.0769
-2.2204 h f	-0.0982
-1.4961 h g	+0.0224
-1.3255 h i	+0.0485
-1.3367 h j	+0.1970
-1.7290 h k	+0.0689
-1.7890 h l	-0.2355
-1.3511 h m	+0.1006
-1.4422 h n	-0.0039
-3.2424 h o
-1.6463 h p	+0.0275
-1.6889 h q	-0.1443
-1.7290 h q_a	-0.0610
-1.5437 h r	+0.0057
-1.9086 h rf	-0.1242
-1.7890 h s	-0.0634
-2.0443 h t	-0.0881
-1.6522 h t_l	-0.0103
-1.2449 h u	+0.3253
-2.0300 h v	-0.1375
-1.1770 h w	+0.3954
-1.5391 h x	+0.1086
-1.4176 h y	+0.3523
-1.7971 h ya_q	-0.1420
-1.6889 h z	+0.0663
-2.9721 i &	-0.1441
-2.6650 i A	-0.2472
-2.2063 i D	-0.0588
-2.2277 i E	+0.0414
-3.1608 i F
-1.4662 i G	+0.1509
-2.0147 i H	+0.0354
-2.4012 i J	-0.1044
-1.6168 i P	+0.1147
-2.2444 i S	-0.0236
-2.1195 i T	-0.2377
-2.7417 i Y	-0.1790
-2.1718 i Z	-0.1359
-1.1185 i _S_	+0.0983
-2.1831 i _q_	-0.0150
-2.1831 i a	-0.0068
-2.9500 i a_md	-0.2043
-2.1831 i a_q	+0.0606
-1.3581 i b	+0.1810
-1.3438 i d	+1.8426
-1.9026 i dh	+0.0435
-2.2006 i f	-0.0490
-2.0265 i g	+0.0806
-1.8571 i h	+0.1745
-1.3364 i j	+0.3497
-1.1814 i k	+0.0166
-1.3773 i l	+0.3592
-1.5547 i m	+0.4898
-1.2571 i n	+0.2990
-2.9848 i o
-1.5101 i p	+0.5817
-1.8571 i q	-0.0276
-2.4205 i q_a	-0.1174
-1.7991 i r	+0.3300
-1.9147 i rf	-0.1328
-1.8680 i s	+0.2431
-1.7717 i t	-0.0139
-1.6801 i t_l	+0.2568
-1.8111 i u	+0.1014
-1.9500 i v	+0.0084
-1.9921 i w	+0.1958
-2.0386 i x	+0.1240
-0.6709 i y	+0.2062
-1.7176 i ya_q	-0.0201
-1.8015 i z	+0.3178
-2.2932 j &	-0.1584
-2.0915 j A	-0.0969
-1.8574 j D	-0.0584
-1.5749 j E	+0.2432
-1.6488 j G	+0.1075
-2.1732 j H	-0.1588
-2.4051 j J	-0.0878
-2.4051 j P	-0.0548
-1.7548 j S	+0.0311
-2.1442 j T	-0.0699
-2.9517 j Y	-0.1518
-2.1732 j Z	+0.0637
-1.5284 j _S_	+0.3078
-1.9921 j _q_	-0.0706
-1.6488 j a	+0.1368
-1.8095 j a_md	-0.1481
-1.7165 j a_q	+0.0158
-1.5825 j b	+0.0018
-1.8952 j d	+0.0352
-2.1304 j dh	+0.0070
-2.3346 j f	-0.1192
-1.4864 j g	-0.0163
-1.5053 j h	-0.0295
-1.1237 j i	+0.2292
-1.7664 j k	-0.0566
-1.6671 j l	-0.0179
-1.4742 j m	-0.0358
-1.4742 j n	+0.0942
-2.7325 j o	-0.1202
-1.3302 j p	+0.1665
-1.8574 j q	+0.0394
-1.4683 j q_a	+0.0321
-1.5492 j r	+0.1801
-1.7218 j rf	-0.0134
-2.1041 j s	-0.1071
-2.0793 j t	+0.0194
-1.1853 j t_l	-0.0042
-1.1884 j u	+0.4234
-2.2739 j v	+0.0167
-1.4895 j w	+0.5061
-1.7113 j x	+0.0219
-0.9709 j y	+0.5797
-1.8574 j ya_q	-0.0061
-1.8031 j z	+0.0142
-2.3539 k &	-0.1583
-2.0070 k A	-0.0980
-1.9410 k D	-0.1969
-1.4970 k E	-0.0122
-1.7449 k G	+0.1926
-1.9588 k H	-0.1132
-2.2996 k J	-0.0322
-1.8547 k P	-0.0077
-1.9759 k S	-0.0299
-2.0566 k T	-0.0776
-2.4915 k Y	-0.1364
-2.4246 k Z	-0.2378
-1.2153 k _S_	+0.3351
-1.8225 k _q_	+0.0482
-1.3471 k a	+0.0930
-2.4044 k a_md	-0.1621
-1.8383 k a_q	-0.0120
-1.5038 k b	+0.1418
-1.7298 k d	-0.1185
-2.4680 k dh	-0.0063
-2.2996 k f	-0.1278
-1.7512 k g	-0.0530
-1.9339 k h	-0.1348
-0.9379 k i	+0.6552
-1.6604 k j	+0.2035
-1.6133 k l	-0.0888
-1.5319 k m	+0.2120
-1.4393 k n	+0.6135
-2.6007 k o	-0.0916
-1.5400 k p	+0.0507
-1.6976 k q	-0.0493
-1.5736 k q_a	+0.1667
-1.6499 k r	+0.0165
-1.6861 k rf	+0.0826
-2.2996 k s	-0.0008
-2.1235 k t	-0.0254
-1.5319 k t_l	-0.0646
-1.1256 k u	+1.0866
-1.9339 k v	-0.1089
-1.2217 k w	+0.5481
-1.8895 k x	-0.0652
-1.1580 k y	+0.9051
-1.8717 k ya_q	-0.0729
-2.5427 k z	-0.1601
-2.3411 l &	-0.0719
-1.6784 l A	-0.1310
-1.7909 l D	+0.0872
-1.1709 l E	+0.3777
-1.5968 l G	+0.1242
-1.9346 l H	-0.0323
-2.2997 l J	-0.1171
-2.1950 l P	-0.0894
-1.8863 l S	-0.0180
-2.1370 l T	-0.0980
-3.1811 l Y
-2.3869 l Z	-0.0400
-1.5630 l _S_	-0.1649
-1.9609 l _q_	-0.1012
-1.2425 l a	+0.1506
-2.6008 l a_md	-0.0633
-1.6293 l a_q	-0.0429
-1.6251 l b	-0.0247
-1.7729 l d	-0.0898
-2.4380 l dh	-0.0156
-2.3869 l f	-0.0404
-1.7557 l g	-0.0765
-1.9609 l h	-0.1575
-0.9756 l i	+0.4204
-1.6599 l j	+0.0035
-1.6644 l k	+0.0296
-1.6169 l m	-0.0078
-1.6690 l n	+0.1556
-2.4960 l o	-0.1370
-1.5853 l p	+0.0823
-1.8713 l q	-0.0167
-1.4435 l q_a	+0.1474
-1.9346 l r	-0.0773
-1.7729 l rf	+0.0017
-2.1650 l s	-0.0639
-2.0624 l t	-0.0460
-0.9977 l t_l	+0.2443
-1.1768 l u	+0.4495
-2.2442 l v	-0.1751
-1.5282 l w	+0.1290
-1.9520 l x	-0.1113
-1.1966 l y	+0.2567
-1.7614 l ya_q	+0.0661
-2.1650 l z	-0.1145
-1.4875 m &	+0.1519
-1.2696 m A	+0.4569
-1.8330 m D	+0.0382
-0.9747 m E	+1.0004
-1.7647 m G	-0.0790
-1.8744 m H	-0.0557
-2.7361 m J	-0.0518
-2.0066 m P	+0.0458
-1.8799 m S	+0.0148
-2.2212 m T	-0.2805
-2.5222 m Y	-0.1111
-2.2861 m Z	+0.0028
-1.6602 m _S_	-0.0073
-2.0141 m _q_	-0.0634
-0.9837 m a	+0.4173
-2.0066 m a_md	-0.0832
-1.7775 m a_q	-0.0332
-1.6841 m b	+0.1160
-1.9713 m d	+0.0021
-2.7775 m dh	-0.1205
-2.3973 m f	-0.1653
-1.6472 m g	+0.1951
-1.6504 m h	+0.1761
-1.1977 m i	+0.5605
-1.7020 m j	+0.2630
-1.8281 m k	-0.1696
-1.8799 m l	+0.0050
-1.6911 m n	+0.0277
-2.7775 m o	-0.0531
-1.9024 m p	+0.0098
-1.8967 m q	-0.1074
-1.5985 m q_a	+0.1483
-1.7952 m r	+0.0038
-2.0532 m rf	-0.0910
-2.4765 m s	-0.1051
-2.3004 m t	-0.0203
-1.3211 m t_l	+0.1421
-1.1321 m u	+0.1945
-2.4158 m v	-0.0357
-1.1700 m w	+1.0225
-1.8044 m x	+0.0971
-1.5900 m y	+0.3865
-1.6222 m ya_q	+0.1177
-2.3796 m z	-0.1277
-2.6047 n &	-0.1071
-1.4820 n A	+0.3840
-1.8170 n D	+0.0366
-1.2649 n E	+0.3064
-1.5767 n G	+0.0234
-1.6980 n H	+0.0340
-2.5504 n J	-0.0470
-1.9547 n P	+0.0284
-1.9746 n S	-0.1771
-2.1374 n T	-0.0858
-3.2243 n Y
-2.6047 n Z	-0.0450
-1.4998 n _S_	+0.0329
-1.9000 n _q_	-0.0941
-1.2951 n a	+0.1916
-2.3495 n a_md	-0.0630
-1.6874 n a_q	+0.2027
-1.5990 n b	-0.0267
-1.7808 n d	-0.1255
-2.4586 n dh	-0.0559
-2.1374 n f	-0.0542
-1.8463 n g	+0.0278
-1.6945 n h	-0.0500
-1.0048 n i	+0.2078
-1.4975 n j	+0.2077
-1.4691 n k	+0.2620
-1.9058 n l	-0.0721
-1.6537 n m	+0.0290
-2.5504 n o	-0.2350
-1.6135 n p	+0.1368
-1.7089 n q	+0.0332
-1.4586 n q_a	+0.0800
-2.1181 n r	-0.1290
-1.7940 n rf	+0.0208
-2.0484 n s	-0.1345
-1.8670 n t	-0.0534
-0.9760 n t_l	+0.1664
-1.3125 n u	+0.4474
-2.2126 n v	-0.1660
-1.6505 n w	+0.0763
-1.7394 n x	-0.0547
-1.2368 n y	+0.1343
-1.9296 n ya_q	-0.0281
-2.0565 n z	-0.0607
-2.1293 o A
-2.1293 o D
-1.6812 o E
-1.8517 o G
-1.3291 o P
-1.8517 o S
-1.6812 o T	-0.0613
-1.7243 o Y
-1.3291 o _S_	-0.0536
-1.5051 o _q_	-0.0834
-2.1293 o a
-2.1293 o a_q
-1.1778 o b	-0.1096
-1.1295 o d	-0.1219
-1.9472 o dh
-1.9472 o g
-1.5675 o h	-0.1561
-1.3668 o i	+0.0029
-1.7243 o j
-1.9472 o k
-1.5051 o l	-0.0643
-1.5051 o m
-1.0280 o n	-0.0999
-2.1293 o p
-1.8517 o q
-1.7243 o q_a	-0.1525
-1.2321 o r	-0.2471
-1.6812 o s	-0.1098
-1.4082 o t	-0.2469
-1.9472 o t_l
-1.5051 o u	-0.0714
-1.6812 o w
-2.1293 o x
-1.3668 o y	-0.0566
-2.1293 o ya_q
-1.8517 o z
-2.4272 p &	-0.0517
-2.3692 p A	-0.1399
-1.8025 p D	-0.1113
-1.6868 p E	+0.0997
-1.5911 p G	+0.0373
-2.0820 p H	-0.0921
-2.2116 p J	-0.1144
-1.9936 p P	+0.0232
-1.7100 p S	-0.0535
-1.6338 p T	+0.0408
-1.8491 p Y	-0.0854
-1.8099 p Z	+0.0712
-1.3085 p _S_	+0.1994
-1.8175 p _q_	-0.0264
-1.8744 p a	-0.0522
-2.3972 p a_md	-0.0943
-2.0293 p a_q	-0.1135
-1.2173 p b	+0.2492
-1.5605 p d	+0.0178
-2.0293 p dh	-0.0914
-2.0293 p f	-0.0518
-1.4430 p g	-0.0679
-1.7538 p h	-0.1267
-1.5821 p i	+0.1238
-1.4764 p j	+0.0644
-1.3944 p k	+0.0487
-1.6095 p l	+0.0803
-1.1789 p m	+0.2759
-1.6095 p n	-0.0116
-2.8894 p o	-0.1205
-1.3353 p q	+0.2379
-1.6239 p q_a	-0.0043
-1.5521 p r	+0.0329
-1.9106 p rf	-0.0810
-1.6095 p s	+0.0217
-1.5911 p t	+0.1856
-1.7345 p t_l	-0.0520
-1.4090 p u	+0.0927
-1.9106 p v	+0.0553
-1.1719 p w	+0.5918
-1.5605 p x	+0.1746
-1.8175 p y	-0.0708
-2.0419 p ya_q	-0.1249
-1.8175 p z	+0.0199
-1.8719 q &	-0.0271
-1.5967 q A	-0.0346
-1.8321 q D	-0.0164
-1.1952 q E	+0.1601
-1.7750 q G	+0.0352
-2.0082 q H	-0.1478
-2.5879 q J	-0.0405
-2.3327 q P	-0.0712
-2.0316 q S	-0.2142
-1.7491 q T	-0.0122
-2.4118 q Y	-0.0564
-2.3327 q Z	+0.0040
-1.5161 q _S_	+0.0839
-1.7818 q _q_	+0.0079
-0.9902 q a	+0.2597
-2.0082 q a_md	-0.0418
-1.6848 q a_q	-0.0488
-1.6148 q b	+0.1167
-2.0316 q d	-0.0723
-2.6337 q dh	-0.0185
-2.2455 q f	-0.0761
-1.5051 q g	+0.0514
-1.9647 q h	-0.1706
-1.1226 q i	+0.3887
-1.8890 q j	-0.0960
-1.6741 q k	-0.1079
-1.8977 q l	-0.0346
-1.6385 q m	-0.0078
-1.7246 q n	+0.0385
-2.0082 q p	-0.1108
-1.4061 q q_a	-0.1228
-1.5586 q r	-0.0437
-1.7071 q rf	+0.0631
-2.4118 q s	-0.0877
-2.2077 q t	-0.1106
-1.5545 q t_l	-0.0952
-1.0439 q u	+0.4159
-2.1730 q v	-0.0599
-1.0139 q w	+0.9284
-1.8245 q x	-0.0433
-1.7246 q y	-0.0314
-1.6534 q ya_q	+0.0111
-2.9040 q z
-2.0958 q_a &	-0.1110
-1.6140 q_a A	-0.1187
-2.0686 q_a D	-0.1390
-1.0443 q_a E	+0.3903
-1.9961 q_a G	-0.0494
-1.5871 q_a H	+0.0152
-2.5871 q_a J	-0.1949
-2.7464 q_a P	-0.0343
-2.0686 q_a S	-0.1232
-2.1400 q_a T	-0.0257
-1.2712 q_a Y	+0.1808
-2.8602 q_a Z
-1.7483 q_a _S_	-0.0463
-1.0647 q_a _q_	+0.1409
-0.8156 q_a a	-0.1337
-2.1892 q_a a_md	-0.1027
-2.3830 q_a a_q	-0.1395
-1.4379 q_a b	+0.0106
-1.9059 q_a d	-0.0218
-2.9032 q_a dh
-2.8602 q_a f
-1.8313 q_a g	-0.0746
-1.8018 q_a h	-0.0523
-1.3367 q_a i	+0.2034
-2.4111 q_a j	-0.1326
-1.6187 q_a k	-0.0319
-1.8548 q_a l	+0.0063
-1.6527 q_a m	-0.1116
-1.5959 q_a n	+0.1091
-3.3082 q_a o
-2.0557 q_a p	-0.1833
-1.8882 q_a q	-0.0716
-1.3567 q_a r	+0.1180
-2.4732 q_a rf	-0.1139
-2.6329 q_a s
-2.2861 q_a t	-0.1009
-2.4111 q_a t_l	-0.0430
-1.5265 q_a u	+0.2006
-2.5458 q_a v	-0.0501
-1.2408 q_a w	+0.7228
-1.7676 q_a x	+0.0379
-1.6733 q_a y	+0.0666
-1.2106 q_a ya_q	+0.1037
-2.9032 q_a z	-0.1194
-2.0844 r &	-0.1885
-1.5389 r A	+0.1506
-1.9254 r D	-0.1314
-1.2195 r E	+0.0122
-1.6387 r G	-0.0262
-1.8428 r H	-0.0048
-2.5717 r J	-0.0787
-1.9397 r P	+0.1260
-1.8918 r S	-0.0140
-1.9185 r T	-0.1305
-2.2554 r Y	-0.0443
-1.8790 r Z	-0.0899
-1.2979 r _S_	+0.1744
-1.8202 r _q_	-0.0213
-1.2738 r a	+0.1605
-2.3376 r a_md	-0.1142
-1.6966 r a_q	+0.0043
-1.5875 r b	-0.0963
-1.7833 r d	+0.0758
-2.3029 r dh	-0.1528
-2.0646 r f	-0.0666
-1.6764 r g	+0.0823
-1.6175 r h	+0.2488
-0.9919 r i	+0.3899
-1.5360 r j	+0.5957
-1.6039 r k	+0.1426
-1.8605 r l	-0.0526
-1.6725 r m	-0.0554
-1.6006 r n	-0.0652
-2.8771 r o	-0.0673
-1.5686 r p	-0.0204
-1.6648 r q	-0.0167
-1.6844 r q_a	-0.1116
-2.0189 r rf	-0.0618
-1.8486 r s	-0.0733
-1.9775 r t	-0.0304
-1.5275 r t_l	+0.0856
-1.3029 r u	+0.4506
-2.4626 r v	-0.1431
-1.4300 r w	+0.1547
-1.7311 r x	-0.0360
-1.2615 r y	+0.3816
-1.6648 r ya_q	+0.2693
-1.8313 r z	-0.0258
-2.0393 rf &	-0.1121
-1.8844 rf A	-0.0737
-1.8430 rf D	-0.2153
-1.2681 rf E	+0.1026
-1.7705 rf G	-0.0806
-1.8702 rf H	-0.2139
-2.3615 rf J	-0.0492
-1.9466 rf P	-0.0138
-1.9636 rf S	-0.0450
-1.9636 rf T	-0.0019
-2.2154 rf Y	-0.1468
-2.4073 rf Z	-0.1819
-1.4584 rf _S_	+0.0444
-1.7083 rf _q_	-0.1003
-1.3838 rf a	-0.0024
-1.8991 rf a_md	-0.0102
-2.0393 rf a_q	-0.0373
-1.3362 rf b	-0.0254
-1.5227 rf d	+0.0639
-2.0828 rf dh	-0.1074
-2.3615 rf f	-0.0817
-1.6057 rf g	-0.0862
-1.6803 rf h	-0.0752
-1.2716 rf i	+0.0429
-1.5622 rf j	-0.0120
-1.4025 rf k	+0.0446
-1.5290 rf l	-0.0319
-1.4425 rf m	-0.0913
-1.4807 rf n	-0.1354
-2.9005 rf o	-0.2908
-1.6988 rf p	-0.1081
-1.7705 rf q	-0.0096
-1.6373 rf q_a	+0.0452
-1.4171 rf r	+0.0317
-2.2476 rf s	-0.1431
-1.8702 rf t	-0.1305
-1.3487 rf t_l	+0.0155
-1.2716 rf u	+0.0921
-2.0605 rf v	-0.1470
-1.3322 rf w	+0.1055
-1.7818 rf x	-0.0861
-1.2934 rf y	+0.2273
-1.8052 rf ya_q	-0.1137
-2.3201 rf z	-0.1089
-2.6926 s &
-2.2492 s A	-0.1174
-1.6259 s D	-0.1237
-1.6471 s E	-0.1631
-1.8342 s G	-0.0828
-2.3461 s H	-0.0799
-2.5222 s J
-1.8690 s P	-0.0412
-1.6810 s S	-0.0934
-1.6259 s T	-0.0875
-2.7881 s Y
-2.7881 s Z
-1.4933 s _S_	-0.0624
-2.2078 s _q_
-1.3979 s a	+0.0152
-1.9270 s a_md	-0.0379
-1.5502 s a_q	-0.2000
-1.4639 s b	-0.2340
-1.9482 s d	-0.1694
-2.4085 s dh
-1.9939 s f	-0.0803
-1.5249 s g	-0.0573
-1.7307 s h	-0.1414
-0.9547 s i	+0.0180
-1.4858 s j	-0.1065
-1.7578 s k	-0.0402
-1.8513 s l	-0.0138
-1.3147 s m	-0.0294
-1.5680 s n	-0.0199
-2.9702 s o
-1.7868 s p	-0.0984
-1.7307 s q	-0.0373
-1.6157 s q_a	-0.1386
-1.5168 s r	-0.1380
-1.5680 s rf	-0.1606
-1.9068 s t	-0.1408
-1.5249 s t_l	+0.0054
-0.9068 s u	+0.2433
-1.9482 s v	-0.1182
-1.4430 s w	-0.0742
-1.7051 s x	-0.1055
-1.7051 s y	-0.0935
-2.1353 s ya_q	-0.0730
-2.1700 s z	-0.1113
-2.4403 t &
-1.6713 t A	-0.0748
-1.7993 t D	-0.1086
-1.2903 t E	+0.0095
-2.0424 t G	-0.0549
-2.0424 t H	-0.1206
-3.0645 t J
-2.0010 t P	-0.1319
-2.2295 t S	-0.1287
-2.1973 t T	-0.2096
-3.0645 t Y
-2.7868 t Z
-1.3140 t _S_	-0.0974
-1.6807 t _q_	-0.1835
-0.9687 t a	+0.2942
-2.3020 t a_md
-1.7523 t a_q	-0.0674
-1.6902 t b	-0.0390
-1.9455 t d	-0.1187
-2.1973 t dh	-0.0695
-2.5027 t f	-0.1586
-1.7752 t g	-0.0704
-1.8520 t h	-0.1541
-0.8825 t i	+0.1644
-1.8383 t j	-0.0769
-1.7413 t k	-0.1017
-1.6622 t l	-0.1441
-1.6110 t m	-0.0051
-1.6110 t n	-0.0489
-2.5027 t o
-1.6902 t p	-0.1927
-1.9817 t q	-0.0855
-1.3796 t q_a	+0.0845
-1.4140 t r	-0.0751
-1.7871 t rf	-0.0769
-2.2295 t s	-0.0458
-1.4861 t t_l	-0.0672
-1.0716 t u	+0.1776
-2.3020 t v	-0.1848
-1.4458 t w	+0.0166
-1.7752 t x	-0.1080
-1.5239 t y	-0.0147
-1.8810 t ya_q	-0.1369
-2.5027 t z
-2.0760 t_l &	-0.1211
-1.1229 t_l A	+0.3836
-2.2379 t_l D	-0.1690
-0.9306 t_l E	+0.2895
-2.0480 t_l G	-0.2967
-1.9811 t_l H	-0.0763
-3.1727 t_l J
-2.2821 t_l P	+0.0038
-2.0858 t_l S	-0.0741
-2.2668 t_l T	+0.0458
-1.5306 t_l Y	+0.2039
-2.7750 t_l Z
-1.9163 t_l _S_	-0.1112
-1.1646 t_l _q_	+0.2311
-0.8490 t_l a	+0.6277
-1.7702 t_l a_md	+0.0328
-1.9511 t_l a_q	+0.1062
-1.9163 t_l b	+0.0475
-2.1495 t_l d	-0.0879
-2.8885 t_l dh
-2.7292 t_l f	-0.1049
-1.8428 t_l g	+0.0493
-1.5989 t_l h	+0.0775
-1.1070 t_l i	+0.7656
-2.1495 t_l j	-0.1689
-2.1978 t_l k	-0.1786
-1.9231 t_l l	-0.1022
-1.7897 t_l m	-0.1979
-1.6254 t_l n	+0.2622
-2.7750 t_l o	-0.1471
-1.7039 t_l p	+0.0270
-2.4988 t_l q	-0.0353
-1.7292 t_l q_a	-0.0429
-1.4304 t_l r	+0.0503
-2.3490 t_l rf	-0.1032
-2.8885 t_l s
-2.5532 t_l t	-0.1196
-1.3849 t_l u	+0.3744
-1.2478 t_l w	+0.3862
-1.9734 t_l x	-0.0579
-1.4692 t_l y	+0.2159
-1.4621 t_l ya_q	-0.0184
-2.8885 t_l z	-0.0946
-1.7026 u &	-0.0479
-2.0957 u A	-0.0180
-1.7857 u D	+0.1314
-1.7075 u E	+0.2942
-1.5783 u G	+0.2285
-2.1270 u H	-0.0737
-2.7769 u J	-0.1088
-1.6477 u P	-0.0034
-1.9618 u S	-0.0228
-1.5381 u T	+0.0930
-2.0288 u Y	+0.0483
-1.6288 u Z	-0.0160
-1.1706 u _S_	+0.5497
-1.8195 u _q_	+0.0192
-1.7382 u a	+0.1029
-2.3967 u a_md	-0.0532
-2.2455 u a_q	+0.0402
-1.2837 u b	+0.3014
-1.7435 u d	-0.0149
-2.5551 u dh	-0.0112
-1.9574 u f	+0.1178
-1.5153 u g	+0.0219
-1.5586 u h	+0.6566
-1.6186 u i	+0.1738
-1.7571 u j	+0.2787
-1.5090 u k	+0.5865
-1.6067 u l	+0.3377
-1.2150 u m	+0.1926
-1.4745 u n	+0.5335
-3.0499 u o
-1.7655 u p	+0.0501
-1.4077 u q	+0.3144
-2.0665 u q_a	+0.3094
-1.4319 u r	+0.1754
-2.0288 u rf	+0.0868
-1.8458 u s	-0.1006
-2.0665 u t	+0.0881
-1.8227 u t_l	-0.0056
-2.2809 u v	-0.0943
-0.8554 u w	+0.4252
-1.6906 u x	+0.0129
-1.6455 u y	+0.2657
-1.9618 u ya_q	-0.1000
-1.9156 u z	-0.0070
-2.6888 v &	-0.5634
-1.5701 v A	+0.0107
-1.8276 v D	-0.0802
-1.7185 v E	-0.1156
-1.8276 v G	-0.1134
-2.4228 v H	-0.2789
-2.8709 v J
-2.0707 v P	-0.0894
-2.1498 v S	-0.1117
-2.0707 v T	-0.2186
-2.6888 v Y
-1.7185 v _S_	-0.0488
-1.8276 v _q_	-0.0915
-1.0195 v a	+0.1515
-1.7696 v a_md	-0.1345
-1.5266 v a_q	-0.0603
-1.8276 v b	-0.0958
-2.1956 v d	-0.0641
-2.5933 v dh
-2.4228 v f	-0.0853
-1.6313 v g	-0.0944
-1.9457 v h	-0.1532
-0.7089 v i	-0.0703
-1.9737 v j	-0.2314
-1.7519 v k	-0.1455
-1.5588 v l	-0.0533
-1.4256 v m	-0.0549
-1.6313 v n	-0.0072
-1.8488 v p	-0.1313
-2.1956 v q	-0.1500
-1.5478 v q_a	-0.0439
-1.4423 v r	-0.1375
-1.6874 v rf	-0.1140
-2.1956 v s	-0.1080
-2.4659 v t	-0.1247
-1.5266 v t_l	-0.0600
-1.1205 v u	+0.0607
-1.4016 v w	-0.0903
-2.4228 v x
-1.2204 v y	-0.0507
-1.9737 v ya_q
-2.6888 v z	-0.2822
-2.1078 w &	+0.0999
-1.7138 w A	+0.1574
-1.7878 w D	+0.1958
-1.4315 w E	+0.3303
-3.4728 w F
-1.5308 w G	-0.0356
-1.9383 w H	-0.0064
-2.5537 w J	-0.0683
-1.7847 w P	-0.0934
-1.8199 w S	-0.0281
-1.6350 w T	+0.1027
-2.1346 w Y	-0.0653
-1.6859 w Z	+0.1189
-1.1464 w _S_	+0.4809
-1.8770 w _q_	+0.1900
-1.2826 w a	+0.1465
-2.5537 w a_md	-0.0997
-2.2096 w a_q	+0.0368
-1.3530 w b	+0.4319
-1.6055 w d	+0.0384
-2.4024 w dh	-0.0119
-2.0363 w f	+0.0051
-1.4852 w g	+0.1014
-1.6714 w h	+0.2120
-1.2674 w i	+0.1083
-1.4852 w j	+0.2801
-1.4383 w k	-0.0533
-1.4700 w l	+0.3322
-1.4383 w m	+0.4860
-1.5173 w n	+0.2403
-2.8547 w o	-0.0470
-1.8770 w p	+0.0760
-1.4088 w q	+0.7561
-1.9253 w q_a	+0.2068
-1.4011 w r	+0.2462
-1.9427 w rf	+0.0618
-1.9211 w s	+0.0923
-2.0096 w t	+0.2086
-1.8657 w t_l	-0.0260
-1.5058 w u	+0.1490
-2.1557 w v	-0.0739
-1.6076 w x	+0.1784
-1.5025 w y	+0.5491
-1.5722 w ya_q	+0.3349
-1.8694 w z	+0.1243
-2.2132 x &	-0.1404
-1.9244 x A	-0.0972
-1.7442 x D	-0.1534
-1.3286 x E	+0.1258
-1.9003 x G	-0.1315
-1.7609 x H	-0.0745
-2.4271 x J	-0.0715
-2.1675 x P	-0.0774
-1.5820 x S	+0.0113
-2.0535 x T	-0.0628
-2.2644 x Y	-0.0658
-2.2644 x Z	-0.1106
-1.3929 x _S_	+0.0748
-1.8250 x _q_	-0.1201
-1.2924 x a	+0.0256
-2.1261 x a_md	-0.1115
-1.8153 x a_q	-0.1431
-1.5494 x b	-0.0523
-1.8664 x d	-0.1195
-2.2924 x dh	-0.0820
-2.0883 x f	-0.2220
-1.5391 x g	+0.0867
-1.6832 x h	-0.1112
-1.1567 x i	+0.1927
-1.4515 x j	+0.1039
-1.6052 x k	+0.0532
-1.8350 x l	-0.0498
-1.3966 x m	-0.0712
-1.4116 x n	+0.0366
-2.9119 x o
-1.8153 x p	-0.1276
-1.4729 x q	-0.1300
-1.5143 x q_a	-0.0556
-1.6490 x r	-0.0008
-1.7873 x rf	-0.1385
-1.9244 x s	-0.0008
-2.0883 x t	-0.2240
-1.7203 x t_l	-0.0509
-1.0919 x u	+0.5049
-2.0706 x v	-0.0213
-1.1202 x w	+0.2652
-1.6692 x y	-0.0799
-1.8250 x ya_q	-0.1499
-1.8887 x z	-0.0388
-2.5533 y &	-0.0024
-1.8146 y A	+0.0430
-1.9736 y D	+0.0632
-1.3219 y E	+0.6925
-3.2674 y F
-1.6503 y G	+0.2249
-1.9099 y H	-0.0482
-2.4599 y J	-0.1214
-1.6912 y P	+0.0916
-1.9470 y S	-0.0299
-2.1317 y T	+0.0549
-2.1519 y Y	-0.0914
-2.4072 y Z	-0.1971
-1.2270 y _S_	+0.2477
-1.4502 y _q_	+0.4852
-1.5183 y a	-0.0455
-2.4599 y a_md	-0.1484
-1.9470 y a_q	+0.0126
-1.3773 y b	+0.4129
-1.3902 y d	+0.2502
-1.8868 y dh	-0.1313
-2.2792 y f	-0.0967
-1.7418 y g	+0.1691
-1.6374 y h	+0.2566
-1.3658 y i	+0.1146
-1.4670 y j	+0.2525
-1.3831 y k	+0.3404
-1.4627 y l	+0.1035
-1.4919 y m	+0.4193
-1.3301 y n	+0.3846
-2.6089 y o	-0.0847
-1.5135 y p	+0.3256
-1.7418 y q	+0.1189
-1.5711 y q_a	+0.2461
-1.4656 y r	+0.3865
-1.9557 y rf	+0.1176
-1.8509 y s	+0.1665
-1.7364 y t	-0.0244
-1.4829 y t_l	+0.1872
-1.4516 y u	+0.0608
-2.0762 y v	+0.0368
-1.4097 y w	+0.1818
-1.7472 y x	+0.3223
-1.7058 y ya_q	+0.0171
-1.9219 y z	+0.1508
-2.2529 ya_q &	-0.0249
-2.1699 ya_q A	-0.1271
-2.0001 ya_q D	-0.1427
-1.5360 ya_q E	+0.0802
-1.4278 ya_q G	+0.1223
-1.9518 ya_q H	-0.2064
-2.3012 ya_q J	-0.0910
-1.9518 ya_q P	-0.0866
-1.9634 ya_q S	-0.1127
-1.9518 ya_q T	+0.0452
-1.9295 ya_q Y	-0.1702
-2.3012 ya_q Z	-0.1550
-1.3037 ya_q _S_	+0.0956
-1.5230 ya_q _q_	+0.0951
-1.4634 ya_q a	+0.0414
-2.6285 ya_q a_md	-0.0775
-1.9188 ya_q a_q	-0.0500
-1.3555 ya_q b	-0.0637
-1.3329 ya_q d	+0.2528
-2.0402 ya_q dh	+0.0041
-2.6909 ya_q f	-0.1586
-1.8240 ya_q g	-0.0643
-1.9518 ya_q h	-0.1109
-1.3526 ya_q i	+0.0781
-1.3702 ya_q j	-0.0020
-1.2812 ya_q k	+0.0699
-1.4747 ya_q l	-0.0027
-1.5971 ya_q m	+0.0052
-1.3275 ya_q n	+0.1020
-3.2527 ya_q o
-1.5971 ya_q p	+0.0743
-1.6865 ya_q q	-0.0834
-2.0001 ya_q q_a	-0.1054
-1.5971 ya_q r	-0.0956
-1.8326 ya_q rf	-0.1011
-2.2763 ya_q s	-0.0858
-1.8981 ya_q t	-0.0974
-1.7323 ya_q t_l	-0.2259
-1.5063 ya_q u	+0.0878
-2.2529 ya_q v	-0.0385
-1.3824 ya_q w	+0.2572
-2.1166 ya_q x	-0.1549
-0.9339 ya_q y	+0.8567
-2.0844 ya_q z	-0.0565
-2.3021 z &	-0.2439
-2.2052 z A	-0.1464
-1.8073 z D	-0.0854
-2.0291 z E	-0.1495
-1.7001 z G	-0.1067
-2.3645 z H	-0.0935
-1.9748 z P	-0.0821
-1.7428 z S	-0.1343
-2.0591 z T	-0.0029
-2.0291 z Z	-0.0703
-1.4570 z _S_	-0.0351
-2.7441 z _q_
-1.6867 z a	-0.1486
-1.9265 z a_md	-0.1922
-1.5618 z a_q	-0.0207
-1.5240 z b	-0.0008
-1.5820 z d	+0.0108
-2.0291 z dh	-0.1462
-2.2052 z f
-1.4199 z g	-0.0749
-1.8250 z h	-0.1712
-1.0846 z i	-0.0880
-1.4344 z j	-0.0318
-1.7001 z k	-0.0131
-1.6370 z l	-0.0574
-1.3360 z m	+0.0130
-1.3857 z n	-0.0315
-2.5213 z o
-1.7138 z p	-0.1083
-1.9042 z q	-0.1966
-1.5240 z q_a	-0.0150
-1.5924 z r	-0.0993
-1.7428 z rf	-0.1286
-2.0913 z s	+0.0017
-1.9042 z t	-0.1117
-1.0717 z t_l	+0.0853
-1.0177 z u	+0.4856
-1.9042 z v	-0.1082
-1.5150 z w	-0.1009
-1.8250 z x	-0.1084
-1.3301 z y	+0.0272
-2.1260 z ya_q	-0.1371

\3-grams:
-1.4036 & A P
-1.5685 & A Z
-1.4036 & A b
-1.2775 & A f
-1.5685 & A h
-1.5685 & A k
-1.2775 & A l
-1.0770 & A m
-1.2775 & A n
-1.0770 & A q
-1.4036 & A r
-1.5685 & A u
-1.5685 & A x
-1.5685 & A y
-1.4036 & A z
-1.8425 & E D
-1.8425 & E S
-1.6776 & E Y
-0.9960 & E _S_
-1.3510 & E _q_
-1.0374 & E a
-1.4950 & E b
-1.4950 & E d
-1.8425 & E g
-1.3510 & E i
-1.5515 & E j
-1.4950 & E l
-1.5515 & E m
-1.5515 & E n
-1.5515 & E p
-1.6776 & E q
-1.8425 & E q_a
-1.0374 & E r
-1.6776 & E w
-1.8425 & E y
-1.6776 & E ya_q
-0.9812 & G a
-0.9812 & G w
-0.5041 & P _S_
-0.7593 & S u
-0.8443 & T a
-1.0092 & T g
-0.8443 & T u
-1.2084 & Y G
-1.3733 & Y _S_
-1.3733 & Y g
-1.2084 & Y j
-1.2084 & Y m
-1.2084 & Y q
-1.3733 & Y t
-1.2084 & Y x
-1.3733 & Y z
-1.0092 & Z a
-1.0092 & Z r
-1.0092 & Z t_l
-1.0092 & Z u
-1.3492 & _S_ h
-0.5441 & _S_ i
-1.3492 & _S_ j
-1.3492 & _S_ p
-1.1842 & _S_ u
-1.3492 & _S_ w
-1.0581 & _S_ y
-1.6972 & _q_ D
-1.5323 & _q_ H
-1.6972 & _q_ T
-1.6972 & _q_ Z
-1.6972 & _q_ _S_
-1.5323 & _q_ a
-1.3497 & _q_ b
-1.3497 & _q_ d
-1.6972 & _q_ i
-1.5323 & _q_ j
-1.5323 & _q_ k
-1.4061 & _q_ l
-1.3497 & _q_ m
-1.6972 & _q_ n
-1.6972 & _q_ q
-1.6972 & _q_ q_a
-1.5323 & _q_ r
-1.5323 & _q_ s
-1.6972 & _q_ t
-1.6972 & _q_ t_l
-1.6972 & _q_ v
-1.6972 & _q_ w
-1.5323 & _q_ x
-1.6972 & _q_ ya_q
-1.7571 & a G
-1.7571 & a P
-1.5516 & a T
-1.7571 & a Y
-1.5516 & a Z
-0.7517 & a _S_
-2.0481 & a a_q
-1.3399 & a b
-1.5516 & a d
-1.2016 & a g
-1.8832 & a i
-1.5567 & a k
-1.1291 & a l
-1.2016 & a m
-1.5516 & a n
-1.5567 & a q
-1.7006 & a r
-2.0481 & a rf
-1.5567 & a s
-1.5567 & a t
-2.0481 & a v
-1.7571 & a w
-1.7571 & a x
-1.8832 & a z
-0.8843 & a_md w
-0.8843 & a_md z
-0.9512 & a_q j
-0.9512 & a_q n
-1.1273 & b a
-1.1273 & b a_q
-1.1273 & b m
-0.9624 & b u
-0.8843 & d i
-0.5932 & d j
-0.8843 & d m
-1.1315 & g E
-1.1315 & g G
-1.2965 & g _S_
-1.2965 & g b
-1.1315 & g i
-1.2965 & g n
-1.2965 & g r
-1.1315 & g y
-1.2965 & g ya_q
-1.0551 & h b
-0.9290 & h i
-1.2201 & h j
-1.2201 & h w
-1.2201 & h z
-1.5696 & i G
-1.4434 & i P
-1.7345 & i T
-1.2380 & i _S_
-1.5696 & i b
-1.4434 & i d
-1.7345 & i g
-1.2430 & i j
-1.4434 & i k
-1.2430 & i l
-1.3870 & i m
-1.5696 & i n
-1.5696 & i q
-1.7345 & i q_a
-1.7345 & i rf
-1.7345 & i t
-1.5696 & i t_l
-1.7345 & i u
-1.7345 & i v
-0.7533 & i y
-1.7345 & i ya_q
-0.9512 & j p
-0.7863 & j t_l
-0.7863 & j y
-1.0604 & k G
-0.8954 & k d
-0.7693 & k i
-0.7693 & k y
-1.2965 & l g
-1.2965 & l i
-1.2965 & l k
-1.2965 & l p
-1.1315 & l q
-0.8050 & l t_l
-1.2365 & m &
-0.9454 & m E
-1.0715 & m a
-0.9454 & m u
-1.2365 & m y
-1.2365 & m ya_q
-1.1061 & n _S_
-1.1061 & n a
-0.9412 & n i
-0.6146 & n t_l
-1.0092 & p a
-1.0092 & p s
-0.8443 & p w
-0.8564 & q b
-1.1475 & q i
-0.9826 & q u
-0.7593 & q_a Y
-0.7593 & q_a w
-1.2112 & r A
-1.3552 & r E
-1.4117 & r _S_
-1.2112 & r a
-1.4117 & r a_q
-1.7027 & r g
-1.7027 & r h
-0.7515 & r i
-1.3552 & r j
-1.7027 & r q
-1.7027 & r q_a
-1.7027 & r u
-1.2062 & r w
-1.7027 & r y
-1.5378 & r ya_q
-0.4072 & t i
-1.1575 & u &
-1.4486 & u Z
-0.9571 & u _S_
-1.4486 & u b
-1.4486 & u g
-1.2836 & u k
-1.1010 & u m
-0.9571 & u q
-1.4486 & u w
-1.4990 & w A
-1.4990 & w E
-1.4990 & w G
-1.6816 & w T
-1.6816 & w Z
-1.4990 & w _S_
-1.5554 & w _q_
-0.9274 & w a
-1.5554 & w b
-1.8465 & w d
-1.5554 & w g
-1.5554 & w i
-1.8465 & w j
-1.8465 & w k
-1.6816 & w l
-1.3500 & w m
-1.8465 & w n
-1.4990 & w q
-1.3550 & w r
-1.8465 & w rf
-1.5554 & w u
-1.5554 & w x
-1.8465 & w y
-1.3500 & w ya_q
-1.2365 & x a
-1.2365 & x g
-0.9454 & x i
-1.2365 & x k
-1.2365 & x m
-1.2365 & x n
-1.2365 & x r
-1.0715 & x w
-1.1475 & y S
-0.9826 & y j
-1.1475 & y x
-1.5975 & ya_q E
-1.5975 & ya_q G
-1.3064 & ya_q _S_
-1.5975 & ya_q _q_
-1.4326 & ya_q a
-1.3064 & ya_q i
-1.5975 & ya_q k
-1.5975 & ya_q l
-1.5975 & ya_q m
-1.2500 & ya_q n
-1.3064 & ya_q p
-1.2500 & ya_q r
-1.4326 & ya_q w
-0.7510 & ya_q y
-0.7194 A & a
-0.8843 A & k
-0.8843 A & w
-1.2965 A D A
-1.2965 A D i
-1.2965 A D j
-1.1315 A D q
-1.2965 A D q_a
-1.2965 A D t_l
-0.9489 A D w
-1.2965 A D y
-1.5094 A E Y
-0.9661 A E _q_
-1.1778 A E a
-1.1829 A E b
-1.6743 A E d
-1.5094 A E g
-1.6743 A E h
-1.1829 A E i
-1.6743 A E k
-1.5094 A E m
-1.3268 A E n
-1.6743 A E p
-1.5094 A E q_a
-1.3833 A E r
-1.6743 A E s
-1.3833 A E u
-1.6743 A E y
-1.6743 A E ya_q
-0.5833 A F u
-0.5833 A F y
-1.4179 A G &
-1.4179 A G E
-1.4179 A G _S_
-1.4179 A G a
-1.4179 A G b
-1.4179 A G g
-1.4179 A G i
-1.4179 A G k
-1.4179 A G l
-1.2530 A G q_a
-1.1268 A G t_l
-1.0703 A G w
-1.2530 A G y
-1.3102 A H A
-1.1453 A H _S_
-1.3102 A H _q_
-1.1453 A H a
-1.1453 A H i
-1.3102 A H l
-1.3102 A H m
-1.3102 A H q
-1.3102 A H u
-0.6502 A J S
-0.6502 A J i
-1.4727 A P D
-0.9294 A P G
-1.4727 A P S
-0.9294 A P T
-0.7533 A P _S_
-1.6376 A P a_q
-1.6376 A P f
-1.6376 A P i
-1.3465 A P k
-1.4727 A P q
-1.6376 A P rf
-1.4727 A P t
-1.6376 A P t_l
-1.6376 A P u
-1.4727 A P w
-0.9189 A S i
-1.0839 A S m
-0.9189 A S y
-1.6358 A T A
-1.3093 A T E
-1.4532 A T _S_
-1.0414 A T a
-1.6358 A T a_md
-1.6358 A T b
-1.5097 A T g
-0.9542 A T i
-1.8007 A T j
-1.6358 A T k
-1.5097 A T m
-1.5097 A T q_a
-1.6358 A T r
-1.5097 A T s
-1.5097 A T t_l
-1.3093 A T u
-1.8007 A T v
-1.3042 A T w
-1.6358 A T x
-1.8007 A T ya_q
-1.6972 A Y D
-1.5323 A Y G
-1.5323 A Y P
-1.5323 A Y S
-1.4061 A Y T
-1.4061 A Y _S_
-1.6972 A Y b
-1.5323 A Y dh
-1.6972 A Y g
-1.5323 A Y j
-1.4061 A Y k
-1.5323 A Y l
-1.4061 A Y n
-1.5323 A Y p
-1.2057 A Y q
-1.6972 A Y q_a
-1.6972 A Y rf
-1.5323 A Y s
-1.5323 A Y t
-1.6972 A Y u
-1.6972 A Y w
-1.6972 A Y x
-1.5210 A Z &
-1.6859 A Z D
-1.3948 A Z E
-0.9777 A Z a
-1.6859 A Z a_q
-1.5210 A Z b
-1.5210 A Z g
-1.6859 A Z h
-1.1944 A Z i
-1.6859 A Z l
-1.1944 A Z r
-1.1944 A Z t_l
-0.8394 A Z u
-1.3384 A Z w
-1.6859 A Z x
-1.8985 A _S_ A
-1.8985 A _S_ G
-1.7336 A _S_ H
-1.5510 A _S_ P
-1.7336 A _S_ S
-1.8985 A _S_ T
-1.8985 A _S_ _q_
-1.7336 A _S_ a
-1.8985 A _S_ a_q
-1.5510 A _S_ b
-1.4070 A _S_ g
-0.9173 A _S_ i
-1.5510 A _S_ j
-1.5510 A _S_ k
-1.6074 A _S_ m
-1.6074 A _S_ n
-1.6074 A _S_ q
-1.7336 A _S_ r
-1.8985 A _S_ s
-1.5510 A _S_ t_l
-0.9173 A _S_ u
-1.5510 A _S_ v
-1.4070 A _S_ w
-1.7336 A _S_ y
-1.8263 A _q_ D
-1.8263 A _q_ G
-1.8263 A _q_ J
-1.6614 A _q_ P
-1.6614 A _q_ S
-1.5352 A _q_ T
-1.8263 A _q_ Z
-1.0669 A _q_ _S_
-1.6614 A _q_ a
-1.8263 A _q_ a_q
-0.9798 A _q_ b
-1.6614 A _q_ i
-1.6614 A _q_ j
-1.4788 A _q_ k
-1.4788 A _q_ m
-1.8263 A _q_ n
-1.8263 A _q_ q
-1.8263 A _q_ q_a
-1.4788 A _q_ s
-1.5352 A _q_ t
-1.6614 A _q_ t_l
-1.5352 A _q_ u
-1.6614 A _q_ v
-1.5352 A _q_ w
-1.6614 A _q_ x
-1.5352 A _q_ y
-1.1587 A a _S_
-1.3236 A a _q_
-1.3236 A a b
-1.3236 A a d
-1.3236 A a k
-1.1587 A a l
-1.1587 A a m
-1.3236 A a q
-1.3236 A a s
-1.3236 A a v
-1.3468 A b A
-1.6096 A b D
-1.0458 A b E
-1.6146 A b G
-2.1061 A b S
-2.1061 A b T
-1.8151 A b _S_
-2.1061 A b _q_
-1.0458 A b a
-1.3979 A b a_q
-2.1061 A b d
-1.7586 A b g
-0.8239 A b i
-1.6146 A b j
-1.8151 A b k
-1.8151 A b l
-1.6146 A b m
-2.1061 A b n
-2.1061 A b q
-1.8151 A b q_a
-1.8151 A b r
-1.9412 A b rf
-1.3468 A b t_l
-1.3010 A b u
-1.1871 A b w
-2.1061 A b x
-1.6096 A b y
-1.8151 A b ya_q
-2.1061 A b z
-1.9604 A d D
-1.6129 A d E
-1.4690 A d G
-1.9604 A d J
-1.6129 A d T
-1.4690 A d _S_
-1.6694 A d _q_
-1.4690 A d a
-1.4639 A d a_q
-1.4690 A d b
-1.9604 A d h
-0.9512 A d i
-1.6129 A d j
-1.9604 A d k
-1.6129 A d l
-1.6694 A d n
-1.4690 A d p
-1.7955 A d q
-1.6694 A d q_a
-1.7955 A d r
-1.9604 A d rf
-1.1139 A d t_l
-1.1553 A d u
-1.9604 A d w
-1.1139 A d y
-0.9290 A dh a
-0.9290 A dh i
-1.2201 A dh q_a
-1.2201 A dh r
-1.0551 A dh u
-1.4386 A f a
-1.4386 A f g
-1.1475 A f i
-1.2736 A f k
-1.1475 A f q
-1.4386 A f r
-1.4386 A f s
-1.0910 A f u
-1.4386 A f v
-1.4386 A f x
-1.5747 A g A
-1.2481 A g E
-1.5747 A g G
-1.5747 A g S
-1.7396 A g T
-1.4485 A g _S_
-0.8553 A g a
-0.9803 A g i
-1.7396 A g j
-1.5747 A g k
-1.4485 A g l
-1.3921 A g n
-1.7396 A g q_a
-1.5747 A g u
-1.3921 A g w
-1.2481 A g y
-1.4485 A g ya_q
-1.5152 A h &
-1.5152 A h E
-1.6802 A h T
-1.6802 A h Y
-1.6802 A h _S_
-1.5152 A h _q_
-1.5152 A h b
-1.3891 A h d
-1.5152 A h g
-1.6802 A h i
-1.6802 A h j
-1.5152 A h k
-1.6802 A h l
-1.5152 A h m
-1.5152 A h n
-1.5152 A h q
-1.3891 A h rf
-1.6802 A h u
-1.3891 A h w
-1.5152 A h x
-1.5152 A h y
-1.5152 A h z
-1.5904 A i G
-1.5904 A i P
-1.5904 A i Z
-1.0939 A i _S_
-1.0989 A i b
-1.2994 A i d
-1.2429 A i j
-1.5904 A i k
-1.2994 A i l
-1.2994 A i n
-1.4255 A i p
-1.4255 A i v
-0.8311 A i y
-1.4727 A j G
-1.6376 A j S
-1.6376 A j Z
-1.6376 A j _S_
-1.4727 A j a_q
-1.6376 A j b
-1.6376 A j d
-1.6376 A j g
-1.6376 A j i
-1.3465 A j l
-1.6376 A j m
-1.6376 A j n
-1.2901 A j p
-1.3465 A j q_a
-1.6376 A j r
-1.6376 A j rf
-1.1411 A j t_l
-1.2901 A j u
-1.2901 A j y
-1.3971 A k E
-1.7446 A k G
-1.3971 A k _S_
-1.2481 A k a
-1.5797 A k b
-1.7446 A k d
-1.5797 A k h
-0.9395 A k i
-1.7446 A k j
-1.5797 A k m
-1.5797 A k n
-1.7446 A k q_a
-1.4535 A k r
-1.5797 A k rf
-1.7446 A k t
-1.2531 A k t_l
-1.2481 A k u
-1.2531 A k w
-1.5797 A k y
-1.8857 A l A
-1.2913 A l E
-2.0506 A l G
-1.8857 A l H
-1.7595 A l T
-1.7031 A l _S_
-1.8857 A l _q_
-1.2455 A l a
-2.0506 A l a_q
-1.5591 A l b
-1.8857 A l d
-1.5591 A l g
-1.7595 A l h
-0.9902 A l i
-1.7031 A l m
-1.7595 A l n
-1.7595 A l p
-1.7031 A l q
-1.7595 A l q_a
-2.0506 A l rf
-2.0506 A l t
-0.8653 A l t_l
-1.0994 A l u
-2.0506 A l v
-1.1663 A l w
-2.0506 A l x
-1.5541 A l y
-1.8857 A l ya_q
-2.0506 A l z
-2.0731 A m &
-1.2569 A m A
-1.5299 A m D
-1.0180 A m E
-1.5299 A m G
-2.2381 A m P
-2.2381 A m S
-2.2381 A m Z
-2.0731 A m _S_
-2.0731 A m _q_
-0.9145 A m a
-2.2381 A m a_md
-1.3538 A m b
-2.2381 A m f
-1.7415 A m g
-1.8905 A m h
-1.0712 A m i
-1.8905 A m j
-2.0731 A m k
-1.9470 A m l
-2.2381 A m n
-1.7466 A m p
-1.5299 A m q
-1.4787 A m q_a
-1.9470 A m r
-2.0731 A m rf
-2.2381 A m t
-1.5299 A m t_l
-1.0905 A m u
-2.0731 A m v
-1.2288 A m w
-2.0731 A m x
-1.9470 A m y
-1.7415 A m ya_q
-2.0731 A m z
-1.6920 A n A
-2.1835 A n D
-1.3370 A n E
-1.4753 A n G
-1.8360 A n H
-1.8924 A n P
-1.8924 A n T
-2.0186 A n Z
-2.0186 A n _S_
-1.8924 A n _q_
-1.2023 A n a
-1.6870 A n a_q
-1.4753 A n b
-1.4242 A n d
-2.0186 A n f
-1.8924 A n g
-1.1231 A n i
-1.3370 A n j
-1.4753 A n k
-2.1835 A n l
-1.4753 A n m
-2.1835 A n o
-1.8924 A n p
-1.8360 A n q
-1.6870 A n q_a
-2.1835 A n r
-1.6920 A n rf
-1.8924 A n s
-2.0186 A n t
-0.9634 A n t_l
-1.4242 A n u
-2.1835 A n v
-2.0186 A n w
-1.1479 A n y
-2.1835 A n ya_q
-2.1835 A n z
-1.3884 A p E
-1.3884 A p Z
-1.3884 A p _S_
-1.2622 A p i
-1.2622 A p m
-0.7939 A p q
-1.3884 A p s
-1.5533 A p u
-1.5533 A p v
-1.5533 A p w
-1.3884 A p x
-1.3884 A p y
-1.8950 A q &
-1.4035 A q A
-1.1868 A q E
-1.8950 A q G
-1.7301 A q T
-1.6039 A q _S_
-1.8950 A q _q_
-0.9760 A q a
-1.8950 A q a_md
-1.1868 A q b
-1.8950 A q g
-1.1357 A q i
-1.4035 A q k
-1.8950 A q l
-1.8950 A q m
-1.1868 A q q_a
-1.6039 A q r
-1.7301 A q rf
-1.7301 A q t_l
-1.1357 A q u
-1.7301 A q v
-1.5475 A q w
-1.7301 A q x
-1.7301 A q y
-1.7301 A q ya_q
-1.2822 A q_a A
-1.2822 A q_a Y
-0.9347 A q_a _q_
-0.7907 A q_a a
-1.1173 A q_a b
-1.2822 A q_a ya_q
-1.8258 A r &
-1.3575 A r A
-1.0330 A r E
-1.9519 A r G
-2.1169 A r H
-2.1169 A r P
-1.9519 A r Y
-1.9519 A r Z
-1.8258 A r _S_
-1.8258 A r _q_
-1.1076 A r a
-2.1169 A r a_q
-1.7693 A r b
-2.1169 A r d
-1.8258 A r h
-1.0107 A r i
-1.8258 A r j
-1.8258 A r k
-1.8258 A r m
-1.6254 A r n
-1.3118 A r p
-1.6203 A r q_a
-2.1169 A r s
-2.1169 A r t
-1.7693 A r t_l
-1.1656 A r u
-1.2326 A r w
-2.1169 A r x
-1.1978 A r y
-1.4087 A r ya_q
-0.8758 A rf b
-1.0019 A rf i
-1.1668 A rf k
-1.0019 A rf m
-1.0019 A rf w
-1.3336 A s E
-1.6246 A s a
-1.6246 A s a_md
-1.6246 A s a_q
-1.6246 A s b
-1.6246 A s g
-1.2771 A s h
-0.8195 A s i
-1.6246 A s k
-0.9165 A s m
-1.6246 A s n
-1.4597 A s q_a
-1.6246 A s rf
-1.6246 A s t
-1.3336 A s u
-1.6246 A s x
-1.6246 A s z
-1.4531 A t E
-1.6180 A t _q_
-1.1215 A t a
-0.8129 A t i
-1.2705 A t j
-1.6180 A t l
-1.1265 A t q_a
-1.3269 A t t_l
-1.3269 A t u
-1.6180 A t w
-1.4531 A t x
-1.3269 A t y
-0.7863 A t_l E
-0.6602 A t_l a
-1.5455 A u _S_
-1.3805 A u _q_
-1.1979 A u b
-1.3805 A u d
-1.5455 A u f
-1.1979 A u g
-1.5455 A u i
-1.2544 A u k
-1.3805 A u m
-1.5455 A u n
-1.5455 A u q
-1.5455 A u r
-1.5455 A u s
-1.5455 A u t
-1.1979 A u w
-1.5455 A u y
-1.0381 A v g
-1.2030 A v h
-1.2030 A v i
-1.0381 A v r
-1.0381 A v rf
-1.6655 A w E
-1.4829 A w G
-1.8304 A w S
-0.8492 A w _S_
-1.8304 A w _q_
-1.8304 A w a
-1.4829 A w b
-1.3389 A w g
-1.3389 A w i
-1.6655 A w j
-1.4829 A w k
-1.3389 A w m
-1.6655 A w n
-1.3389 A w q
-1.8304 A w q_a
-1.5393 A w r
-1.8304 A w rf
-1.6655 A w s
-1.6655 A w t
-1.8304 A w x
-1.6655 A w y
-1.4829 A w ya_q
-1.1769 A x E
-1.5035 A x H
-1.6684 A x S
-1.6684 A x _S_
-1.3773 A x a
-1.6684 A x b
-1.6684 A x d
-1.5035 A x g
-1.3209 A x i
-1.1769 A x j
-1.5035 A x k
-1.3773 A x m
-1.6684 A x n
-1.6684 A x q
-1.3209 A x t_l
-1.5035 A x u
-1.3773 A x w
-1.6684 A x ya_q
-1.4283 A y E
-1.2634 A y G
-1.2634 A y _S_
-1.2634 A y i
-1.4283 A y k
-1.2634 A y p
-1.4283 A y q_a
-1.4283 A y t
-1.1373 A y u
-1.5127 A ya_q A
-1.5127 A ya_q G
-1.5127 A ya_q _S_
-1.2216 A ya_q a
-1.2216 A ya_q b
-1.3477 A ya_q k
-1.5127 A ya_q l
-1.3477 A ya_q p
-0.6662 A ya_q y
-1.2836 A z D
-1.4486 A z G
-1.4486 A z _S_
-1.4486 A z a_q
-1.4486 A z g
-1.1575 A z i
-1.2836 A z j
-1.4486 A z l
-1.4486 A z q
-1.1575 A z t_l
-1.1010 A z u
-0.8465 D & E
-0.8465 D & _q_
-0.6816 D & y
-1.3366 D A P
-1.1716 D A Y
-1.3366 D A _q_
-1.3366 D A dh
-1.3366 D A j
-1.3366 D A l
-1.3366 D A n
-1.1716 D A r
-1.0455 D A t
-1.3366 D A x
-1.7121 D E A
-1.8770 D E D
-1.8770 D E Y
-1.3805 D E _S_
-1.3805 D E _q_
-1.5859 D E a
-1.5859 D E a_q
-1.7121 D E b
-1.7121 D E d
-1.8770 D E g
-1.5294 D E h
-1.3805 D E i
-1.8770 D E j
-1.8770 D E k
-1.8770 D E l
-1.5294 D E m
-0.9579 D E n
-1.8770 D E p
-1.5294 D E q
-1.7121 D E q_a
-1.1176 D E r
-1.3855 D E u
-1.5859 D E w
-1.8770 D E x
-1.5859 D E y
-1.5294 D E ya_q
-1.4583 D G A
-1.2934 D G a
-1.2934 D G i
-1.2934 D G k
-1.4583 D G m
-1.2934 D G p
-1.2934 D G t_l
-1.1108 D G u
-1.2934 D G w
-1.2934 D G y
-1.5375 D H E
-1.1900 D H _q_
-1.3726 D H b
-1.2464 D H d
-1.5375 D H g
-1.3726 D H i
-1.3726 D H l
-1.3726 D H m
-1.5375 D H n
-1.3726 D H q
-1.5375 D H q_a
-1.5375 D H r
-1.3726 D H u
-1.1900 D H w
-1.5375 D H y
-1.5375 D H ya_q
-1.0355 D J d
-0.8706 D J i
-0.8706 D J t_l
-1.0355 D J y
-0.7445 D P T
-1.2300 D S D
-1.5211 D S E
-1.5211 D S G
-1.5211 D S H
-1.5211 D S a
-1.5211 D S b
-1.3562 D S g
-1.5211 D S h
-1.1736 D S i
-1.5211 D S k
-1.5211 D S m
-1.5211 D S r
-1.5211 D S t_l
-1.2300 D S u
-1.5211 D S w
-1.3562 D S x
-1.3562 D S ya_q
-0.9826 D T a
-1.1475 D T b
-0.8564 D T q_a
-1.1475 D T u
-0.9826 D T w
-0.8843 D Y q_a
-0.6901 D Z a
-0.9812 D Z a_q
-0.8163 D Z r
-1.6972 D _S_ E
-1.4061 D _S_ S
-1.4061 D _S_ a
-1.5323 D _S_ a_q
-1.6972 D _S_ b
-1.5323 D _S_ g
-0.9890 D _S_ i
-1.5323 D _S_ l
-1.5323 D _S_ m
-1.6972 D _S_ n
-1.5323 D _S_ p
-1.6972 D _S_ q_a
-1.6972 D _S_ r
-1.6972 D _S_ t_l
-0.8129 D _S_ u
-1.5323 D _S_ w
-1.6972 D _S_ x
-1.3497 D _S_ y
-1.6972 D _S_ ya_q
-1.4255 D _q_ G
-1.5904 D _q_ P
-1.5904 D _q_ T
-1.2994 D _q_ Z
-1.4255 D _q_ _S_
-1.0939 D _q_ b
-1.4255 D _q_ g
-1.2994 D _q_ k
-1.5904 D _q_ l
-1.4255 D _q_ n
-1.4255 D _q_ q
-1.5904 D _q_ r
-1.5904 D _q_ s
-1.5904 D _q_ t
-1.4255 D _q_ w
-1.5904 D _q_ z
-1.6376 D a D
-1.6376 D a P
-1.6376 D a T
-1.6376 D a Z
-1.4727 D a _S_
-1.6376 D a _q_
-1.4727 D a b
-1.4727 D a d
-1.4727 D a f
-1.3465 D a j
-1.2901 D a k
-1.2901 D a l
-1.2901 D a m
-1.6376 D a q
-1.6376 D a r
-1.6376 D a s
-1.3465 D a v
-1.6376 D a x
-1.3465 D a y
-1.6376 D a ya_q
-1.6376 D a z
-1.2030 D a_md D
-1.0381 D a_md E
-1.2030 D a_md g
-0.9120 D a_md n
-1.2030 D a_md r
-1.2030 D a_md w
-1.3102 D a_q a
-1.3102 D a_q d
-1.3102 D a_q h
-0.8137 D a_q i
-1.1453 D a_q p
-1.3102 D a_q r
-1.1453 D a_q u
-1.3102 D a_q y
-1.5610 D b &
-1.3960 D b A
-1.0695 D b E
-1.5610 D b _S_
-0.8528 D b a
-1.5610 D b d
-0.8528 D b i
-1.5610 D b k
-1.5610 D b l
-1.5610 D b m
-1.2134 D b u
-1.5610 D b w
-1.2699 D b y
-1.3236 D d E
-1.3236 D d G
-1.3236 D d _S_
-1.3236 D d a
-1.0325 D d i
-1.3236 D d j
-1.3236 D d k
-1.1587 D d m
-1.1587 D d t_l
-1.3236 D d w
-0.7593 D dh u
-0.7593 D dh w
-0.7593 D dh y
-0.9812 D f D
-0.6901 D f u
-1.6180 D g D
-1.4531 D g E
-1.6180 D g G
-1.6180 D g H
-1.6180 D g T
-1.6180 D g Y
-1.6180 D g _q_
-1.2705 D g a
-1.4531 D g a_md
-1.4531 D g h
-1.1265 D g i
-1.4531 D g j
-1.6180 D g k
-1.6180 D g l
-1.3269 D g n
-1.6180 D g p
-1.6180 D g q_a
-1.3269 D g r
-1.6180 D g rf
-1.3269 D g y
-1.6564 D h D
-1.4914 D h E
-1.6564 D h _q_
-1.1598 D h a
-1.6564 D h a_q
-1.4914 D h b
-1.6564 D h d
-1.4914 D h i
-0.9482 D h j
-1.4914 D h k
-1.4914 D h l
-1.6564 D h m
-1.6564 D h n
-1.4914 D h p
-1.4914 D h r
-1.6564 D h u
-1.6564 D h v
-1.4914 D h w
-1.4914 D h y
-1.6564 D h z
-1.5932 D i G
-1.0792 D i _S_
-1.7194 D i _q_
-1.3928 D i b
-1.5932 D i d
-1.8843 D i h
-1.1761 D i j
-0.9331 D i k
-1.3928 D i l
-1.8843 D i m
-1.5367 D i n
-1.7194 D i p
-1.8843 D i q
-1.8843 D i r
-1.7194 D i rf
-1.5367 D i t_l
-1.5932 D i u
-1.8843 D i w
-0.8751 D i y
-1.5932 D i z
-1.3134 D j S
-1.6044 D j a_md
-1.4395 D j a_q
-1.4395 D j b
-1.4395 D j g
-1.2569 D j h
-1.4395 D j k
-1.4395 D j l
-1.4395 D j m
-1.4395 D j p
-1.6044 D j q_a
-1.2569 D j t_l
-1.4395 D j u
-1.4395 D j x
-1.3134 D j y
-1.3805 D k D
-1.5455 D k E
-1.3805 D k G
-1.5455 D k H
-1.3805 D k _S_
-1.3805 D k a
-1.5455 D k b
-1.3805 D k d
-1.2544 D k i
-1.5455 D k m
-1.3805 D k q_a
-1.5455 D k r
-1.0540 D k u
-1.3805 D k v
-1.3805 D k w
-1.3805 D k y
-1.2429 D l E
-1.5904 D l H
-1.5904 D l _S_
-1.5904 D l b
-1.4255 D l i
-1.5904 D l j
-1.5904 D l m
-1.4255 D l n
-1.5904 D l q_a
-1.4255 D l r
-1.5904 D l rf
-0.7853 D l t_l
-1.0939 D l u
-1.5904 D l w
-1.2994 D l y
-1.5035 D m &
-1.1719 D m A
-1.6684 D m D
-0.9602 D m E
-1.6684 D m G
-1.5035 D m S
-0.8633 D m a
-1.6684 D m h
-1.6684 D m i
-1.6684 D m j
-1.6684 D m l
-1.6684 D m n
-1.6684 D m o
-1.6684 D m q
-1.5035 D m q_a
-1.3209 D m u
-1.3773 D m w
-1.6684 D m ya_q
-1.6180 D n A
-1.6180 D n D
-1.1265 D n E
-1.4531 D n G
-1.2705 D n a_q
-1.4531 D n d
-1.3269 D n i
-1.4531 D n k
-1.4531 D n q_a
-1.6180 D n t
-1.1265 D n t_l
-1.4531 D n u
-1.3269 D n w
-1.6180 D n y
-1.2705 D n ya_q
-1.6972 D p D
-1.6972 D p G
-1.5323 D p H
-1.5323 D p S
-1.6972 D p T
-1.5323 D p _S_
-1.6972 D p _q_
-1.6972 D p a
-1.5323 D p b
-1.6972 D p d
-1.6972 D p h
-1.6972 D p i
-1.4061 D p j
-1.3497 D p l
-1.6972 D p m
-1.5323 D p n
-1.4061 D p q
-1.5323 D p r
-1.6972 D p rf
-1.6972 D p s
-1.5323 D p t
-1.6972 D p t_l
-1.5323 D p u
-1.5323 D p w
-1.4061 D p x
-1.6972 D p z
-1.5294 D q A
-1.3644 D q E
-1.5294 D q _q_
-1.2383 D q a
-1.3644 D q a_q
-1.2383 D q b
-1.5294 D q g
-1.0329 D q i
-1.5294 D q m
-1.5294 D q u
-0.8212 D q w
-1.2383 D q ya_q
-1.4790 D q_a A
-1.6439 D q_a D
-1.2964 D q_a E
-1.6439 D q_a Y
-1.1525 D q_a _q_
-0.8388 D q_a a
-1.4790 D q_a h
-1.6439 D q_a i
-1.4790 D q_a k
-1.6439 D q_a l
-1.6439 D q_a n
-1.3529 D q_a u
-1.1474 D q_a w
-1.6439 D q_a y
-1.4790 D q_a ya_q
-1.6312 D r A
-1.6312 D r D
-1.4662 D r E
-1.4662 D r H
-1.4662 D r Z
-1.4662 D r _S_
-1.4662 D r a
-1.6312 D r a_q
-1.6312 D r b
-1.4662 D r d
-1.4662 D r h
-1.2836 D r i
-1.3401 D r n
-1.6312 D r q_a
-1.3401 D r s
-1.4662 D r u
-1.2836 D r y
-1.2201 D rf D
-1.2201 D rf d
-1.2201 D rf h
-1.2201 D rf q
-1.2201 D rf r
-1.2201 D rf t_l
-1.2201 D rf u
-1.2201 D rf y
-1.1273 D s r
-1.1273 D s u
-0.9624 D s w
-1.2365 D t A
-1.2365 D t j
-1.2365 D t m
-1.2365 D t t_l
-1.1010 D t_l A
-1.2500 D t_l E
-1.5975 D t_l Y
-1.4326 D t_l _q_
-0.7924 D t_l a
-1.5975 D t_l a_md
-1.5975 D t_l b
-1.2500 D t_l i
-1.3064 D t_l u
-1.3064 D t_l w
-1.5975 D t_l y
-1.4326 D t_l ya_q
-1.5975 D t_l z
-1.9695 D u &
-1.8045 D u A
-1.9695 D u D
-1.6784 D u E
-1.6784 D u G
-1.9695 D u H
-1.6219 D u P
-1.6784 D u T
-1.6784 D u Z
-1.1230 D u _S_
-1.6219 D u _q_
-1.4780 D u b
-1.9695 D u g
-1.6784 D u h
-1.6219 D u i
-1.6784 D u j
-1.4780 D u k
-1.6784 D u l
-1.1230 D u m
-1.8045 D u n
-1.9695 D u p
-1.4729 D u q
-1.4780 D u r
-1.8045 D u s
-1.9695 D u t_l
-0.8856 D u w
-1.6219 D u y
-1.9695 D u ya_q
-0.7181 D v i
-1.8543 D w &
-1.6894 D w A
-1.8543 D w D
-1.6894 D w E
-1.8543 D w T
-1.8543 D w Z
-1.5068 D w _S_
-1.8543 D w _q_
-1.5068 D w a
-1.8543 D w a_q
-1.3628 D w b
-1.5632 D w d
-1.6894 D w h
-1.5068 D w i
-1.3578 D w k
-1.3628 D w l
-1.5632 D w m
-1.5068 D w n
-1.8543 D w p
-1.8543 D w q
-1.8543 D w q_a
-1.1461 D w r
-1.3578 D w t
-1.0950 D w y
-1.5632 D w ya_q
-1.3465 D x E
-1.6376 D x G
-1.4727 D x H
-1.2901 D x _S_
-1.4727 D x _q_
-1.4727 D x a
-1.6376 D x a_q
-1.6376 D x d
-1.4727 D x g
-1.6376 D x i
-1.2901 D x j
-0.9294 D x m
-1.2901 D x u
-1.4727 D x w
-1.6376 D x y
-1.6655 D y A
-1.5393 D y E
-1.5393 D y P
-1.5393 D y _S_
-1.4829 D y _q_
-1.6655 D y a
-1.6655 D y a_q
-1.4829 D y b
-1.4829 D y d
-1.5393 D y h
-1.3339 D y i
-1.3339 D y j
-1.6655 D y k
-1.3389 D y m
-1.3339 D y n
-1.8304 D y p
-1.8304 D y q_a
-1.6655 D y r
-1.6655 D y t_l
-1.8304 D y u
-1.8304 D y v
-1.4829 D y w
-1.8304 D y x
-1.4772 D ya_q P
-1.1861 D ya_q _q_
-1.4772 D ya_q g
-1.4772 D ya_q k
-1.3123 D ya_q m
-1.1297 D ya_q r
-1.4772 D ya_q t
-1.4772 D ya_q u
-1.3123 D ya_q w
-1.1297 D ya_q y
-1.2201 D z a_q
-1.0551 D z b
-1.2201 D z n
-1.2201 D z t_l
-1.0551 D z u
-1.0551 D z y
-1.0355 E & E
-0.6880 E & i
-1.0355 E & r
-1.5747 E A Z
-1.3921 E A _S_
-1.2431 E A b
-1.3921 E A d
-1.5747 E A f
-1.7396 E A g
-1.5747 E A i
-1.3921 E A j
-1.3921 E A l
-0.9803 E A m
-1.2481 E A n
-1.7396 E A q
-1.5747 E A q_a
-1.0314 E A r
-1.4485 E A t
-1.7396 E A w
-1.7396 E A y
-1.7396 E A z
-0.9945 E D E
-1.3552 E D H
-1.7027 E D _S_
-1.5378 E D _q_
-1.5378 E D a_md
-1.5378 E D a_q
-1.4117 E D i
-1.4117 E D j
-1.7027 E D l
-1.4117 E D m
-1.2112 E D n
-1.7027 E D p
-1.7027 E D q
-1.7027 E D q_a
-1.7027 E D r
-1.4117 E D t_l
-1.5378 E D u
-1.5378 E D x
-1.4117 E D y
-1.7027 E D ya_q
-1.7396 E G &
-1.7396 E G A
-1.3921 E G E
-1.7396 E G _S_
-1.4485 E G a
-1.7396 E G a_q
-1.4485 E G b
-1.7396 E G d
-1.7396 E G h
-1.2431 E G i
-1.7396 E G j
-1.5747 E G k
-1.7396 E G l
-1.2481 E G p
-1.7396 E G q
-1.5747 E G q_a
-1.2481 E G t_l
-1.7396 E G u
-1.2431 E G w
-1.7396 E G x
-1.0314 E G y
-1.5029 E H E
-1.8504 E H J
-1.8504 E H P
-1.8504 E H S
-1.3539 E H _S_
-1.5029 E H _q_
-1.5593 E H a
-1.8504 E H a_q
-1.5029 E H b
-1.3539 E H d
-1.8504 E H f
-1.8504 E H g
-1.6855 E H h
-1.0453 E H i
-1.8504 E H j
-1.5029 E H k
-1.5593 E H l
-1.5029 E H m
-1.3589 E H n
-1.8504 E H q
-1.5029 E H q_a
-1.5593 E H r
-1.5029 E H u
-1.5593 E H w
-1.8504 E H x
-1.8504 E H y
-1.6855 E H ya_q
-1.2365 E J _S_
-1.0715 E J i
-1.2365 E J n
-1.2365 E J r
-1.2365 E J u
-1.2901 E P T
-0.7533 E P _S_
-1.4727 E P b
-1.4727 E P i
-1.2901 E P k
-1.4727 E P n
-1.6376 E P p
-1.2901 E P q_a
-1.6376 E P rf
-1.3465 E P s
-1.2901 E P t
-1.3465 E P t_l
-1.4727 E P v
-1.6376 E P x
-1.6376 E P y
-1.3064 E S E
-1.4326 E S _S_
-1.5975 E S a
-1.5975 E S d
-1.3064 E S i
-1.3064 E S k
-1.5975 E S l
-1.4326 E S n
-1.4326 E S q
-1.4326 E S q_a
-0.8893 E S u
-1.1010 E S w
-1.5975 E S y
-1.6802 E T A
-1.3891 E T E
-1.3891 E T _S_
-0.8751 E T a
-1.6802 E T a_q
-1.3891 E T g
-0.9208 E T i
-1.5152 E T k
-1.6802 E T n
-1.5152 E T q
-1.5152 E T q_a
-1.6802 E T r
-1.5152 E T t_l
-0.8337 E T u
-1.3891 E T w
-1.6802 E T ya_q
-2.1396 E Y A
-1.9746 E Y E
-1.2553 E Y G
-2.1396 E Y H
-1.4314 E Y P
-1.7920 E Y S
-1.3802 E Y T
-1.9746 E Y Z
-1.4314 E Y _S_
-2.1396 E Y a_md
-1.9746 E Y a_q
-1.6481 E Y b
-1.7920 E Y d
-2.1396 E Y dh
-1.8485 E Y f
-1.1584 E Y g
-1.8485 E Y h
-1.3345 E Y i
-1.7920 E Y j
-1.6481 E Y k
-1.6430 E Y l
-1.2931 E Y m
-1.6481 E Y n
-1.8485 E Y p
-1.1883 E Y q
-1.7920 E Y r
-1.9746 E Y rf
-2.1396 E Y s
-1.7920 E Y t
-2.1396 E Y t_l
-1.9746 E Y u
-1.9746 E Y v
-1.1040 E Y w
-1.7920 E Y x
-1.8485 E Y y
-2.1396 E Y ya_q
-1.8485 E Y z
-1.5294 E Z D
-1.5294 E Z G
-1.2383 E Z a
-1.5294 E Z b
-1.3644 E Z g
-1.1818 E Z i
-1.3644 E Z m
-1.5294 E Z q_a
-1.5294 E Z r
-1.2383 E Z t_l
-1.2383 E Z u
-1.0329 E Z w
-2.2084 E _S_ &
-2.0258 E _S_ A
-2.0822 E _S_ D
-1.6140 E _S_ E
-2.0822 E _S_ G
-1.8818 E _S_ H
-1.8818 E _S_ J
-2.0258 E _S_ P
-2.2084 E _S_ S
-1.8768 E _S_ T
-2.3733 E _S_ Z
-2.2084 E _S_ _q_
-1.3641 E _S_ a
-1.4221 E _S_ a_q
-1.5682 E _S_ b
-1.8768 E _S_ g
-2.2084 E _S_ h
-0.8780 E _S_ i
-1.6140 E _S_ j
-1.5682 E _S_ k
-1.6140 E _S_ l
-1.3641 E _S_ m
-1.5268 E _S_ n
-1.5268 E _S_ p
-1.6140 E _S_ q
-1.5268 E _S_ q_a
-1.6651 E _S_ r
-1.3921 E _S_ rf
-2.0258 E _S_ t
-1.4890 E _S_ t_l
-1.0241 E _S_ u
-2.0258 E _S_ v
-1.3129 E _S_ w
-2.0822 E _S_ x
-1.2894 E _S_ y
-1.9501 E _q_ D
-1.4904 E _q_ E
-1.9501 E _q_ G
-1.6365 E _q_ H
-1.5951 E _q_ P
-1.6822 E _q_ S
-1.5951 E _q_ T
-2.0941 E _q_ Y
-1.4060 E _q_ _S_
-2.1505 E _q_ a_q
-1.0132 E _q_ b
-1.2563 E _q_ d
-2.0941 E _q_ dh
-2.0941 E _q_ f
-1.7334 E _q_ g
-2.1505 E _q_ h
-1.5573 E _q_ i
-1.5225 E _q_ j
-1.1594 E _q_ k
-1.4604 E _q_ l
-1.2215 E _q_ m
-1.2748 E _q_ n
-1.9451 E _q_ p
-1.2563 E _q_ q
-1.5225 E _q_ q_a
-1.6822 E _q_ r
-2.4416 E _q_ rf
-2.1505 E _q_ s
-1.7334 E _q_ t
-2.4416 E _q_ t_l
-1.5225 E _q_ u
-2.1505 E _q_ v
-1.5225 E _q_ w
-1.5225 E _q_ x
-2.0941 E _q_ y
-1.9501 E _q_ ya_q
-1.9501 E _q_ z
-1.8053 E a D
-2.5135 E a E
-2.0170 E a G
-2.3486 E a H
-2.2224 E a J
-1.5945 E a P
-2.5135 E a S
-1.7542 E a T
-1.7542 E a Y
-1.8053 E a Z
-0.9681 E a _S_
-1.6670 E a _q_
-2.5135 E a a_q
-1.0182 E a b
-1.1644 E a d
-2.5135 E a dh
-1.6670 E a f
-1.8053 E a g
-2.3486 E a h
-2.1660 E a i
-1.4531 E a j
-1.3105 E a k
-1.2171 E a l
-1.2771 E a m
-1.2613 E a n
-2.0220 E a p
-1.4297 E a q
-1.5323 E a r
-2.5135 E a rf
-1.5623 E a s
-1.6292 E a t
-2.5135 E a u
-1.4074 E a v
-1.7542 E a w
-1.6292 E a x
-1.6292 E a y
-2.1660 E a ya_q
-2.0220 E a z
-1.2201 E a_md E
-1.2201 E a_md _q_
-1.2201 E a_md a
-1.0551 E a_md g
-1.0551 E a_md j
-1.2201 E a_md u
-0.9290 E a_md w
-1.2130 E a_q E
-1.1565 E a_q _S_
-1.5041 E a_q a
-1.3391 E a_q b
-1.2130 E a_q i
-1.2130 E a_q j
-1.2130 E a_q k
-1.5041 E a_q n
-1.3391 E a_q p
-1.3391 E a_q r
-1.2130 E a_q y
-1.3391 E a_q ya_q
-1.9361 E b &
-1.5755 E b A
-2.2837 E b D
-1.1775 E b E
-1.7871 E b G
-2.1187 E b H
-2.2837 E b P
-2.1187 E b T
-1.4372 E b _S_
-2.1187 E b _q_
-1.0162 E b a
-1.9926 E b a_md
-1.7871 E b a_q
-2.1187 E b d
-2.2837 E b f
-1.9361 E b g
-2.1187 E b h
-0.8451 E b i
-1.7871 E b j
-1.9926 E b k
-2.2837 E b l
-1.7922 E b m
-1.9926 E b n
-2.2837 E b p
-1.9926 E b q
-1.4786 E b q_a
-1.5243 E b r
-2.2837 E b rf
-2.2837 E b t
-1.2233 E b t_l
-1.1168 E b u
-2.2837 E b v
-1.2481 E b w
-1.9361 E b x
-1.3324 E b y
-2.2837 E b ya_q
-2.1187 E b z
-2.0585 E d A
-1.4641 E d E
-1.5152 E d G
-2.2234 E d P
-1.9323 E d S
-2.0585 E d T
-1.9323 E d _S_
-1.8759 E d _q_
-1.3391 E d a
-2.2234 E d a_md
-1.3769 E d a_q
-1.4641 E d b
-2.0585 E d dh
-2.0585 E d g
-0.6859 E d i
-1.9323 E d j
-1.2722 E d k
-1.9323 E d l
-1.9323 E d m
-1.7319 E d n
-1.9323 E d p
-2.0585 E d q
-1.4641 E d q_a
-2.0585 E d r
-1.4183 E d rf
-2.2234 E d t
-1.1879 E d t_l
-1.1173 E d u
-2.2234 E d v
-1.7319 E d w
-1.1630 E d y
-2.2234 E d ya_q
-1.2030 E dh _q_
-1.0381 E dh a
-0.7065 E dh i
-1.2030 E dh k
-1.2030 E dh u
-1.2030 E dh y
-1.3492 E f E
-1.3492 E f T
-1.3492 E f h
-1.1842 E f j
-1.3492 E f r
-1.3492 E f rf
-1.0581 E f u
-1.0581 E f w
-1.1842 E f x
-1.5415 E g A
-1.1487 E g E
-1.8681 E g G
-1.7419 E g S
-1.8681 E g Z
-1.5365 E g _S_
-1.6855 E g _q_
-1.0818 E g a
-2.0330 E g a_md
-2.0330 E g a_q
-1.7419 E g b
-1.6855 E g d
-1.5415 E g h
-0.9491 E g i
-1.7419 E g j
-1.8681 E g l
-1.8681 E g m
-1.7419 E g n
-2.0330 E g o
-1.8681 E g p
-1.8681 E g q
-1.5415 E g r
-1.5365 E g rf
-1.5365 E g t_l
-1.7419 E g u
-1.6855 E g w
-1.8681 E g x
-1.5415 E g y
-1.2736 E g ya_q
-2.0330 E g z
-1.7693 E h D
-1.5639 E h E
-1.8954 E h G
-2.0604 E h P
-1.3522 E h S
-1.8954 E h T
-2.0604 E h _S_
-1.7693 E h _q_
-2.0604 E h a
-1.3522 E h b
-1.5689 E h d
-2.0604 E h f
-1.5689 E h g
-1.0792 E h i
-1.3010 E h j
-1.2139 E h k
-1.8954 E h l
-1.2553 E h m
-1.7693 E h n
-2.0604 E h p
-2.0604 E h q
-1.7693 E h q_a
-1.5639 E h r
-1.8954 E h s
-2.0604 E h t
-1.7128 E h t_l
-1.2553 E h u
-1.3010 E h w
-1.5689 E h x
-1.5689 E h y
-1.7693 E h ya_q
-1.7128 E h z
-2.1026 E i D
-1.3832 E i G
-1.9200 E i H
-2.1026 E i J
-1.5082 E i P
-2.2675 E i T
-2.2675 E i Y
-0.9061 E i _S_
-2.2675 E i _q_
-1.3485 E i b
-1.2319 E i d
-1.9764 E i h
-1.0822 E i j
-1.0474 E i k
-1.2863 E i l
-1.5082 E i m
-1.2583 E i n
-1.7760 E i p
-1.9200 E i q
-1.7760 E i r
-1.9200 E i rf
-2.2675 E i s
-1.9200 E i t
-1.9200 E i t_l
-1.9764 E i u
-1.7710 E i v
-2.1026 E i w
-2.1026 E i x
-0.9853 E i y
-2.1026 E i ya_q
-2.1026 E i z
-1.9157 E j D
-1.6246 E j E
-1.6246 E j G
-1.6246 E j S
-1.7508 E j T
-1.4192 E j _S_
-1.9157 E j a
-1.7508 E j a_md
-1.6246 E j a_q
-1.7508 E j b
-1.9157 E j d
-1.9157 E j dh
-1.5682 E j h
-1.0692 E j i
-1.4242 E j m
-1.9157 E j n
-1.6246 E j p
-1.7508 E j q
-1.4242 E j q_a
-1.9157 E j r
-1.7508 E j rf
-1.1106 E j t_l
-1.7508 E j w
-1.7508 E j x
-0.8553 E j y
-1.9157 E j ya_q
-1.9157 E j z
-1.6977 E k E
-1.9032 E k G
-1.9032 E k H
-2.1943 E k P
-1.8467 E k S
-1.9032 E k T
-2.1943 E k Z
-1.2430 E k _S_
-1.8467 E k _q_
-1.6977 E k a
-2.1943 E k a_md
-1.2430 E k b
-1.7028 E k d
-1.9032 E k g
-2.0293 E k h
-0.8707 E k i
-1.3892 E k j
-1.7028 E k l
-1.3892 E k n
-1.3892 E k p
-1.8467 E k q
-1.9032 E k q_a
-2.1943 E k r
-1.4861 E k rf
-2.0293 E k t
-1.8467 E k t_l
-1.3100 E k u
-1.9032 E k v
-1.3100 E k w
-0.9742 E k y
-1.8467 E k ya_q
-1.6639 E l A
-1.8806 E l D
-0.9760 E l E
-1.4878 E l G
-2.2072 E l H
-2.2072 E l J
-1.8756 E l S
-2.3721 E l T
-2.3721 E l Z
-1.6128 E l _S_
-2.2072 E l _q_
-1.2448 E l a
-1.4209 E l a_q
-1.8756 E l b
-1.6128 E l d
-2.3721 E l dh
-2.3721 E l f
-2.2072 E l g
-2.2072 E l h
-0.9872 E l i
-1.5670 E l j
-1.8806 E l k
-1.6128 E l m
-1.5670 E l n
-1.8756 E l p
-2.0246 E l q
-1.4531 E l q_a
-2.2072 E l rf
-2.3721 E l t
-1.0230 E l t_l
-1.3118 E l u
-2.3721 E l v
-1.6128 E l w
-2.0811 E l x
-1.1199 E l y
-1.6128 E l ya_q
-2.3721 E l z
-1.9259 E m &
-1.2642 E m A
-1.9259 E m D
-0.9001 E m E
-2.1085 E m G
-1.7769 E m H
-2.2734 E m P
-1.4683 E m S
-2.1085 E m T
-2.2734 E m Y
-1.7769 E m _S_
-1.9259 E m _q_
-1.0370 E m a
-2.2734 E m a_q
-1.4270 E m b
-1.5653 E m d
-2.2734 E m f
-1.9259 E m g
-1.5653 E m h
-1.2642 E m i
-1.2642 E m j
-1.9259 E m k
-1.5653 E m l
-1.5653 E m n
-1.7820 E m p
-2.2734 E m q
-1.7820 E m q_a
-2.2734 E m r
-1.7820 E m rf
-1.5653 E m t_l
-1.2642 E m u
-1.5653 E m w
-1.9824 E m x
-1.9824 E m y
-1.5141 E m ya_q
-1.5350 E n A
-1.7903 E n D
-1.1882 E n E
-1.5350 E n G
-1.8872 E n H
-2.0989 E n P
-2.0989 E n S
-2.0989 E n T
-1.4893 E n _S_
-1.8872 E n _q_
-1.2851 E n a
-2.4305 E n a_md
-1.6442 E n a_q
-1.4286 E n b
-1.7903 E n d
-2.3043 E n dh
-2.2479 E n f
-2.1039 E n g
-1.6763 E n h
-0.9774 E n i
-1.4286 E n j
-1.5115 E n k
-2.1039 E n l
-1.7111 E n m
-1.6763 E n p
-1.5115 E n q
-1.5115 E n q_a
-2.2479 E n r
-1.7111 E n rf
-2.4305 E n s
-1.8872 E n t
-1.0121 E n t_l
-1.3589 E n u
-2.5954 E n v
-2.0989 E n w
-2.0989 E n x
-1.1775 E n y
-1.7903 E n ya_q
-2.3043 E n z
-0.4072 E o n
-1.7496 E p D
-1.8757 E p E
-1.5491 E p G
-1.8757 E p J
-1.6931 E p S
-1.5441 E p T
-1.6931 E p Z
-1.1941 E p _S_
-1.5441 E p b
-1.6931 E p d
-2.0406 E p f
-1.6931 E p g
-2.0406 E p h
-1.7496 E p i
-1.5441 E p j
-1.6931 E p k
-1.5491 E p l
-1.2355 E p m
-2.0406 E p n
-1.1563 E p q
-1.6931 E p q_a
-1.8757 E p rf
-1.5441 E p s
-1.7496 E p t
-1.2813 E p u
-2.0406 E p v
-1.2813 E p w
-1.5491 E p x
-1.8757 E p y
-2.0406 E p ya_q
-2.0406 E p z
-1.6901 E q A
-1.8163 E q D
-1.2730 E q E
-1.8163 E q G
-1.8163 E q H
-1.9812 E q J
-1.4847 E q _S_
-1.8163 E q _q_
-0.9720 E q a
-1.8163 E q a_md
-1.9812 E q a_q
-1.6901 E q b
-1.8163 E q g
-1.8163 E q h
-1.0621 E q i
-1.8163 E q j
-1.8163 E q k
-1.6901 E q m
-1.4847 E q n
-1.9812 E q p
-1.4897 E q q_a
-1.4847 E q r
-1.6337 E q rf
-1.9812 E q t
-1.6901 E q t_l
-1.2730 E q u
-1.1347 E q w
-1.6901 E q y
-1.5847 E q_a A
-0.9031 E q_a E
-1.4020 E q_a Y
-0.9445 E q_a _q_
-0.8305 E q_a a
-1.7496 E q_a b
-1.7496 E q_a d
-1.7496 E q_a g
-1.5847 E q_a i
-1.5847 E q_a k
-1.7496 E q_a l
-1.2581 E q_a n
-1.7496 E q_a r
-1.7496 E q_a s
-0.9445 E q_a w
-1.4020 E q_a ya_q
-2.1108 E r &
-1.6532 E r A
-2.1108 E r D
-1.0197 E r E
-1.6118 E r G
-1.9668 E r H
-2.4583 E r P
-2.1108 E r S
-2.1108 E r T
-2.1108 E r Y
-1.6532 E r Z
-1.3310 E r _S_
-1.6532 E r _q_
-1.3745 E r a
-1.6990 E r a_q
-1.5071 E r b
-1.9668 E r d
-1.9618 E r dh
-2.2934 E r f
-1.5393 E r g
-1.7501 E r h
-1.0000 E r i
-1.9668 E r j
-1.9668 E r k
-1.6118 E r l
-1.6990 E r m
-1.6118 E r n
-1.4771 E r p
-1.7501 E r q
-1.7501 E r q_a
-1.9618 E r rf
-2.4583 E r s
-2.1108 E r t
-1.5393 E r t_l
-1.4491 E r u
-1.4228 E r w
-1.7501 E r x
-1.2730 E r y
-1.5071 E r ya_q
-1.9668 E r z
-1.3849 E rf A
-1.3849 E rf E
-1.3849 E rf T
-1.3849 E rf _S_
-1.2200 E rf b
-1.3849 E rf g
-1.3849 E rf i
-1.3849 E rf j
-1.3849 E rf k
-1.3849 E rf q_a
-1.2200 E rf r
-1.4583 E s b
-1.4583 E s g
-1.4583 E s h
-0.9668 E s i
-1.4583 E s q
-1.4583 E s r
-1.4583 E s t
-0.9618 E s u
-1.4583 E s y
-1.3401 E t E
-0.9230 E t _S_
-1.2836 E t a
-1.6312 E t a_q
-1.6312 E t b
-1.4662 E t g
-0.8718 E t i
-1.6312 E t m
-1.4662 E t p
-1.6312 E t q
-1.4662 E t q_a
-1.6312 E t r
-1.3401 E t u
-1.6312 E t x
-1.3401 E t y
-1.2934 E t_l A
-0.7501 E t_l E
-1.2934 E t_l _q_
-0.9668 E t_l a
-1.4583 E t_l h
-1.1108 E t_l i
-1.4583 E t_l j
-1.4583 E t_l k
-1.2934 E t_l r
-1.4583 E t_l w
-1.7315 E u D
-1.6750 E u E
-1.6750 E u G
-1.8577 E u P
-1.8577 E u S
-1.7315 E u T
-1.0414 E u _S_
-2.0226 E u a
-0.9622 E u b
-1.6750 E u d
-1.8577 E u g
-1.6750 E u h
-1.5311 E u i
-1.7315 E u j
-1.3144 E u k
-1.7315 E u l
-1.2175 E u m
-1.5311 E u n
-1.7315 E u p
-1.7315 E u q
-1.7315 E u r
-1.8577 E u s
-2.0226 E u t
-1.8577 E u t_l
-2.0226 E u v
-1.0134 E u w
-1.8577 E u x
-1.6750 E u y
-2.0226 E u ya_q
-1.3492 E v E
-1.1842 E v a_q
-1.1842 E v g
-1.0016 E v i
-1.3492 E v m
-1.3492 E v p
-1.1842 E v rf
-1.3492 E v t
-2.1835 E w &
-2.0186 E w A
-1.8924 E w D
-1.4753 E w E
-1.6920 E w G
-2.1835 E w H
-2.0186 E w P
-1.8924 E w S
-1.6920 E w T
-2.1835 E w Y
-1.8924 E w Z
-1.1743 E w _S_
-2.1835 E w _q_
-1.4242 E w a
-2.1835 E w a_q
-1.2992 E w b
-1.8924 E w d
-2.1835 E w f
-1.3784 E w g
-1.8360 E w h
-1.2323 E w i
-1.4242 E w j
-1.4753 E w k
-1.4753 E w l
-1.4753 E w m
-1.6920 E w n
-1.6870 E w p
-1.2992 E w q
-2.0186 E w q_a
-1.4242 E w r
-1.6920 E w rf
-2.0186 E w s
-2.1835 E w t
-1.8360 E w t_l
-1.8924 E w u
-2.0186 E w v
-1.4753 E w x
-1.4753 E w y
-1.6870 E w ya_q
-2.1835 E w z
-1.8582 E x D
-1.5106 E x E
-1.8582 E x T
-1.3667 E x _S_
-1.8582 E x _q_
-1.1500 E x a
-1.5671 E x b
-1.6932 E x d
-1.6932 E x g
-1.6932 E x h
-1.1500 E x i
-1.3667 E x j
-1.6932 E x k
-1.6932 E x l
-1.0117 E x m
-1.5671 E x n
-1.6932 E x p
-1.5671 E x q
-1.1500 E x q_a
-1.8582 E x r
-1.6932 E x rf
-1.8582 E x t_l
-1.3617 E x u
-1.8582 E x w
-2.0568 E y A
-1.8742 E y D
-1.3375 E y E
-1.4624 E y G
-1.9307 E y H
-1.4624 E y P
-1.7303 E y S
-1.0944 E y _S_
-1.4624 E y _q_
-1.8742 E y a
-2.0568 E y a_q
-1.3027 E y b
-1.2705 E y d
-1.7303 E y dh
-2.0568 E y g
-2.0568 E y h
-1.7252 E y i
-1.4166 E y j
-1.5136 E y k
-2.0568 E y l
-1.4624 E y m
-1.5136 E y n
-2.0568 E y p
-2.0568 E y q
-1.7252 E y q_a
-1.7303 E y r
-1.9307 E y rf
-2.0568 E y s
-1.7303 E y t
-1.7303 E y t_l
-1.4166 E y u
-1.8742 E y v
-1.2705 E y w
-1.3752 E y x
-1.8742 E y ya_q
-2.2217 E y z
-2.3116 E ya_q D
-1.5523 E ya_q E
-1.6034 E ya_q G
-2.3116 E ya_q H
-2.0205 E ya_q J
-2.3116 E ya_q P
-2.0205 E ya_q S
-2.1467 E ya_q T
-2.0205 E ya_q Y
-1.1843 E ya_q _S_
-1.8201 E ya_q _q_
-2.1467 E ya_q a
-2.0205 E ya_q a_q
-1.5523 E ya_q b
-1.3926 E ya_q d
-2.3116 E ya_q dh
-1.9641 E ya_q g
-2.3116 E ya_q h
-1.3926 E ya_q i
-1.4651 E ya_q j
-1.1263 E ya_q k
-1.3304 E ya_q l
-1.9641 E ya_q m
-1.3024 E ya_q n
-1.4651 E ya_q p
-1.5523 E ya_q q
-1.8201 E ya_q r
-2.0205 E ya_q s
-1.8201 E ya_q t
-2.1467 E ya_q t_l
-1.8151 E ya_q u
-1.5523 E ya_q w
-2.3116 E ya_q x
-0.6677 E ya_q y
-1.9641 E ya_q z
-1.6312 E z P
-1.3401 E z _S_
-1.6312 E z a
-1.6312 E z a_q
-1.3401 E z b
-1.4662 E z d
-1.6312 E z g
-1.2836 E z i
-1.6312 E z k
-1.6312 E z m
-1.4662 E z q
-1.6312 E z q_a
-1.4662 E z t
-0.7469 E z t_l
-1.6312 E z u
-1.2836 E z w
-1.2836 E z y
-1.6312 E z ya_q
-0.4072 F a_q r
-0.4072 F u E
-0.2822 F v a
-1.1108 G & E
-1.4583 G & G
-1.1672 G & S
-1.2934 G & _q_
-0.9668 G & a
-1.4583 G & q
-1.4583 G & r
-0.9618 G & w
-1.4583 G & ya_q
-1.6916 G A P
-1.6916 G A _S_
-1.5267 G A _q_
-1.6916 G A b
-1.3441 G A d
-1.5267 G A g
-1.5267 G A h
-1.6916 G A i
-1.6916 G A l
-0.8865 G A m
-1.1951 G A n
-1.4005 G A p
-1.6916 G A q_a
-1.1951 G A r
-1.5267 G A s
-1.5267 G A t
-1.6916 G A w
-1.6916 G A y
-1.6916 G A z
-1.5211 G D &
-1.2300 G D E
-1.5211 G D G
-1.5211 G D _S_
-1.2300 G D _q_
-1.3562 G D a_q
-1.5211 G D g
-1.2300 G D k
-1.2300 G D n
-1.5211 G D p
-1.5211 G D u
-1.1736 G D w
-1.8220 G E A
-1.6394 G E G
-1.8220 G E H
-1.9869 G E T
-1.4955 G E Y
-1.8220 G E _S_
-1.2788 G E _q_
-1.2788 G E a
-1.4955 G E b
-1.4955 G E d
-1.9869 G E f
-1.6959 G E g
-1.4955 G E h
-1.9869 G E i
-1.2276 G E k
-1.2276 G E l
-1.6394 G E m
-1.2788 G E n
-1.8220 G E p
-1.4904 G E q
-1.1405 G E r
-1.8220 G E u
-1.6394 G E w
-1.6959 G E x
-1.4955 G E y
-1.4955 G E ya_q
-1.2822 G H A
-1.2822 G H _q_
-1.1173 G H g
-0.9911 G H i
-1.2822 G H w
-0.6502 G J y
-0.8564 G P T
-0.8564 G P _S_
-1.1475 G P q
-1.1475 G P t
-1.1475 G P u
-0.9826 G P w
-1.0703 G S E
-1.4179 G S G
-1.2530 G S a
-1.4179 G S i
-1.4179 G S m
-1.1268 G S q_a
-1.2530 G S t_l
-1.1268 G S u
-1.1268 G S w
-1.4179 G S y
-0.8954 G T &
-1.0604 G T m
-1.0604 G T q_a
-1.0604 G T r
-1.0604 G T u
-0.9290 G Y G
-1.2201 G Y T
-1.2201 G Y g
-1.2201 G Y m
-1.0551 G Y w
-1.8806 G _S_ &
-1.8806 G _S_ E
-1.7157 G _S_ G
-1.8806 G _S_ T
-1.5331 G _S_ a
-1.7157 G _S_ a_md
-1.7157 G _S_ a_q
-1.3892 G _S_ b
-1.7157 G _S_ g
-0.8995 G _S_ i
-1.5331 G _S_ k
-1.8806 G _S_ l
-1.3892 G _S_ m
-1.5896 G _S_ n
-1.5896 G _S_ p
-1.8806 G _S_ q
-1.1725 G _S_ q_a
-1.7157 G _S_ r
-1.7157 G _S_ s
-1.5896 G _S_ t_l
-0.8714 G _S_ u
-1.5896 G _S_ w
-1.5331 G _S_ y
-1.8806 G _S_ ya_q
-1.7736 G _q_ E
-1.7736 G _q_ G
-1.6087 G _q_ P
-1.2771 G _q_ T
-1.4825 G _q_ Z
-1.6087 G _q_ _S_
-1.0654 G _q_ b
-1.7736 G _q_ d
-1.7736 G _q_ k
-1.7736 G _q_ l
-0.8545 G _q_ m
-1.4825 G _q_ p
-1.6087 G _q_ q
-1.7736 G _q_ r
-1.4825 G _q_ s
-1.4825 G _q_ t
-1.7736 G _q_ t_l
-1.0142 G _q_ w
-1.7736 G _q_ x
-1.7736 G _q_ ya_q
-1.3617 G a E
-1.7224 G a G
-1.5784 G a P
-1.2648 G a T
-2.0699 G a Y
-1.7224 G a Z
-1.1187 G a _S_
-1.5784 G a _q_
-1.3617 G a b
-1.2648 G a d
-2.0699 G a f
-1.5784 G a g
-2.0699 G a h
-2.0699 G a i
-1.5784 G a j
-1.7224 G a k
-1.3106 G a l
-1.3106 G a m
-1.5734 G a n
-1.7788 G a p
-1.2648 G a q
-2.0699 G a q_a
-1.0887 G a r
-1.5784 G a s
-1.9050 G a t
-1.9050 G a v
-1.5734 G a w
-1.7224 G a ya_q
-0.7082 G a_md a
-0.7082 G a_md q_a
-1.4583 G a_q E
-1.4583 G a_q S
-1.2934 G a_q _S_
-1.4583 G a_q a_md
-1.4583 G a_q b
-1.2934 G a_q d
-1.4583 G a_q dh
-0.9618 G a_q i
-1.4583 G a_q l
-1.4583 G a_q p
-1.2934 G a_q r
-1.2934 G a_q y
-1.5992 G b A
-1.2727 G b E
-1.7641 G b G
-1.4731 G b _S_
-1.0048 G b a
-0.9176 G b i
-1.5992 G b k
-1.2727 G b l
-1.7641 G b m
-1.5992 G b n
-1.4731 G b q
-1.4731 G b q_a
-1.7641 G b rf
-1.4731 G b t_l
-1.0048 G b u
-1.4166 G b w
-1.4731 G b y
-1.5833 G d D
-1.2357 G d E
-1.0918 G d G
-1.4183 G d _q_
-0.8239 G d a
-1.5833 G d a_q
-1.2357 G d i
-1.2922 G d n
-1.5833 G d q_a
-1.0867 G d t_l
-1.5833 G d u
-1.4183 G d w
-0.8465 G dh q_a
-0.8465 G dh u
-1.5833 G g A
-1.4183 G g E
-1.5833 G g a_q
-1.2922 G g h
-0.7368 G g i
-1.2922 G g k
-1.5833 G g m
-1.4183 G g n
-1.5833 G g p
-1.5833 G g q_a
-1.4183 G g r
-1.2357 G g u
-1.5833 G g w
-1.4183 G g y
-1.3492 G h E
-1.3492 G h G
-1.3492 G h a
-1.3492 G h i
-1.3492 G h m
-1.3492 G h n
-1.3492 G h r
-1.3492 G h t
-1.0581 G h u
-1.0581 G h w
-2.1925 G i D
-2.0276 G i E
-1.2413 G i G
-2.1925 G i H
-1.6960 G i P
-2.0276 G i S
-2.0276 G i T
-1.0652 G i _S_
-1.9014 G i _q_
-1.2413 G i b
-1.7010 G i d
-2.0276 G i dh
-2.1925 G i f
-2.1925 G i g
-1.8450 G i h
-1.2413 G i j
-1.2734 G i k
-1.2734 G i l
-1.3874 G i m
-1.4843 G i n
-1.4331 G i p
-2.0276 G i q
-1.6960 G i r
-2.1925 G i rf
-2.0276 G i s
-1.8450 G i t
-1.3874 G i t_l
-2.1925 G i u
-1.9014 G i v
-2.0276 G i w
-2.1925 G i x
-0.8559 G i y
-1.7010 G i ya_q
-1.6502 G j G
-1.4853 G j S
-1.6502 G j _S_
-1.4853 G j g
-1.3591 G j i
-1.6502 G j k
-1.6502 G j m
-1.6502 G j n
-1.1537 G j p
-1.6502 G j q_a
-1.3591 G j r
-1.6502 G j rf
-1.4853 G j t_l
-1.3591 G j u
-1.4853 G j w
-0.8037 G j y
-1.7919 G k A
-1.6269 G k E
-1.7919 G k G
-1.7919 G k H
-1.7919 G k S
-1.7919 G k T
-1.2954 G k _S_
-1.7919 G k _q_
-1.5008 G k a
-1.6269 G k b
-1.5008 G k d
-1.7919 G k g
-1.6269 G k h
-0.9454 G k i
-1.5008 G k j
-1.6269 G k l
-1.7919 G k n
-1.7919 G k p
-1.7919 G k q
-1.4443 G k r
-1.7919 G k rf
-1.7919 G k t_l
-1.3004 G k u
-1.0325 G k w
-1.7919 G k x
-1.7919 G k y
-1.3773 G l A
-1.3209 G l E
-1.5035 G l G
-1.6684 G l S
-1.6684 G l T
-1.5035 G l _S_
-1.3209 G l a
-1.6684 G l a_q
-0.9602 G l i
-1.6684 G l k
-1.5035 G l m
-1.6684 G l n
-1.5035 G l q_a
-1.6684 G l r
-1.6684 G l rf
-1.1719 G l t_l
-1.3773 G l u
-1.6684 G l w
-1.3773 G l y
-1.5540 G m &
-1.4278 G m A
-0.7999 G m E
-1.7189 G m G
-1.4278 G m H
-1.0107 G m a
-1.7189 G m a_q
-1.7189 G m b
-1.3714 G m i
-1.7189 G m l
-1.7189 G m p
-1.4278 G m q_a
-1.7189 G m r
-1.4278 G m t_l
-1.4278 G m u
-1.2224 G m w
-1.7189 G m x
-1.5540 G m y
-1.3870 G n E
-1.7345 G n G
-1.7345 G n H
-1.5696 G n _q_
-1.2430 G n a
-1.3870 G n a_q
-1.4434 G n g
-1.7345 G n h
-0.8880 G n i
-1.4434 G n k
-1.7345 G n l
-1.7345 G n p
-1.2430 G n q_a
-0.9752 G n t_l
-1.7345 G n x
-1.2430 G n y
-1.7345 G n ya_q
-1.8954 G p &
-2.0604 G p D
-1.8954 G p E
-1.3010 G p G
-2.0604 G p J
-1.8954 G p P
-1.5689 G p S
-1.8954 G p T
-1.5689 G p Y
-1.8954 G p Z
-1.2553 G p _S_
-2.0604 G p _q_
-1.7693 G p a
-1.7128 G p b
-1.7128 G p d
-1.7693 G p dh
-1.3522 G p g
-1.8954 G p h
-1.7693 G p i
-1.7128 G p j
-1.7128 G p k
-1.7128 G p l
-1.0792 G p m
-1.7693 G p n
-1.7128 G p q
-1.7693 G p q_a
-1.7128 G p r
-2.0604 G p rf
-1.8954 G p s
-1.8954 G p t
-1.8954 G p t_l
-1.5639 G p u
-0.9765 G p w
-1.7693 G p x
-2.0604 G p z
-1.5533 G q D
-1.2622 G q G
-1.2622 G q a
-1.2622 G q g
-1.2622 G q i
-1.3884 G q k
-1.5533 G q m
-1.5533 G q n
-1.5533 G q p
-1.5533 G q r
-1.5533 G q t_l
-0.8451 G q u
-1.5533 G q w
-1.5533 G q y
-1.8733 G q_a &
-1.5822 G q_a A
-1.8733 G q_a D
-1.1651 G q_a E
-1.7084 G q_a H
-1.3768 G q_a Y
-1.5258 G q_a _q_
-0.6532 G q_a a
-1.0682 G q_a b
-1.8733 G q_a d
-1.8733 G q_a h
-1.7084 G q_a i
-1.7084 G q_a m
-1.1139 G q_a r
-0.9890 G q_a w
-1.3818 G q_a ya_q
-1.7545 G r A
-1.7545 G r E
-1.2630 G r G
-1.4634 G r P
-1.7545 G r _S_
-1.7545 G r _q_
-1.2580 G r a
-1.7545 G r d
-1.4070 G r h
-0.8702 G r i
-1.4634 G r k
-1.5896 G r p
-1.4634 G r q_a
-1.5896 G r t
-1.7545 G r t_l
-1.5896 G r u
-1.2580 G r w
-1.4634 G r x
-1.7545 G r y
-1.4386 G rf E
-1.4386 G rf _S_
-1.4386 G rf _q_
-1.4386 G rf b
-1.2736 G rf d
-1.4386 G rf dh
-1.4386 G rf i
-1.4386 G rf j
-1.4386 G rf m
-1.4386 G rf p
-1.4386 G rf q_a
-1.2736 G rf t_l
-1.4386 G rf u
-1.2736 G rf w
-0.5944 G s u
-1.0551 G t a
-1.2201 G t i
-1.2201 G t m
-1.2201 G t q_a
-1.2201 G t t_l
-1.0551 G t u
-1.7928 G t_l &
-1.0746 G t_l A
-1.9189 G t_l D
-1.0746 G t_l E
-2.0839 G t_l H
-2.0839 G t_l S
-1.9189 G t_l Y
-2.0839 G t_l _S_
-0.9565 G t_l _q_
-0.8164 G t_l a
-1.7363 G t_l a_md
-2.0839 G t_l b
-1.9189 G t_l d
-2.0839 G t_l dh
-2.0839 G t_l g
-1.5924 G t_l h
-1.2374 G t_l i
-1.9189 G t_l k
-2.0839 G t_l l
-1.9189 G t_l n
-1.7928 G t_l q_a
-1.3757 G t_l r
-1.1996 G t_l u
-1.5873 G t_l w
-2.0839 G t_l x
-1.9189 G t_l y
-1.2788 G t_l ya_q
-1.7754 G u &
-1.9809 G u A
-2.1070 G u D
-1.7754 G u E
-1.5126 G u G
-2.1070 G u P
-1.9809 G u S
-1.5126 G u T
-1.9809 G u Y
-1.4669 G u Z
-1.0867 G u _S_
-1.7754 G u _q_
-1.9244 G u a
-2.1070 G u a_md
-1.3529 G u b
-2.1070 G u d
-1.9809 G u f
-1.4669 G u g
-1.4669 G u h
-1.9809 G u i
-1.7754 G u j
-1.4255 G u k
-1.5638 G u l
-1.2908 G u m
-1.7805 G u n
-2.2720 G u p
-1.4255 G u q
-2.1070 G u q_a
-1.4669 G u r
-1.9244 G u s
-2.1070 G u t
-1.9244 G u t_l
-0.8041 G u w
-1.7754 G u x
-2.1070 G u y
-2.2720 G u ya_q
-2.2720 G u z
-0.9190 G v a_q
-0.7541 G v i
-0.9190 G v w
-2.0949 G w &
-2.0385 G w A
-1.8895 G w D
-1.4048 G w E
-1.5809 G w G
-2.2211 G w H
-2.3860 G w J
-1.8945 G w P
-1.8945 G w S
-1.5017 G w T
-2.3860 G w Y
-2.0949 G w Z
-1.1038 G w _S_
-1.8895 G w _q_
-1.3022 G w a
-1.4048 G w b
-1.4348 G w d
-2.3860 G w dh
-2.3860 G w f
-1.6267 G w g
-1.8895 G w h
-1.3768 G w i
-1.8945 G w j
-1.2799 G w k
-1.3022 G w l
-1.5395 G w m
-1.5809 G w n
-2.2211 G w p
-1.3022 G w q
-2.0385 G w q_a
-1.3022 G w r
-2.0385 G w rf
-2.0949 G w s
-2.2211 G w t
-1.8945 G w t_l
-1.4048 G w u
-2.3860 G w v
-1.5809 G w x
-1.5809 G w y
-1.5809 G w ya_q
-2.0385 G w z
-1.2934 G x G
-1.4583 G x H
-1.4583 G x a_q
-1.2934 G x g
-1.2934 G x i
-1.4583 G x q
-1.2934 G x q_a
-1.1672 G x u
-0.9618 G x w
-2.1587 G y &
-1.5643 G y A
-2.1587 G y D
-1.3724 G y E
-1.4771 G y G
-1.9761 G y P
-2.0325 G y Y
-1.1206 G y _S_
-1.3724 G y _q_
-1.5643 G y a
-2.0325 G y a_q
-1.3424 G y b
-1.4393 G y d
-1.9761 G y dh
-1.9761 G y g
-1.5643 G y h
-1.3424 G y i
-1.4771 G y j
-1.4393 G y k
-1.6154 G y l
-1.5643 G y m
-1.2632 G y n
-2.3236 G y o
-1.4046 G y p
-1.9761 G y q
-1.8271 G y q_a
-1.4771 G y r
-2.0325 G y rf
-1.8321 G y s
-1.5185 G y t
-1.5185 G y t_l
-1.4393 G y u
-2.0325 G y v
-1.4393 G y w
-1.5643 G y ya_q
-2.3236 G y z
-1.5323 G ya_q G
-1.6972 G ya_q Y
-1.6972 G ya_q _S_
-1.2057 G ya_q _q_
-1.6972 G ya_q a
-1.2007 G ya_q b
-1.4061 G ya_q i
-1.5323 G ya_q k
-1.5323 G ya_q l
-1.6972 G ya_q m
-1.6972 G ya_q n
-1.6972 G ya_q p
-1.4061 G ya_q q
-1.6972 G ya_q q_a
-1.5323 G ya_q r
-1.6972 G ya_q t
-1.6972 G ya_q u
-0.9890 G ya_q w
-1.6972 G ya_q x
-1.2007 G ya_q y
-0.7194 G z l
-0.8843 G z u
-1.0381 H A b
-1.2030 H A k
-0.7116 H A n
-1.0381 H A r
-1.3733 H D G
-1.3733 H D H
-1.3733 H D S
-1.3733 H D b
-1.2084 H D i
-1.2084 H D l
-1.2084 H D m
-1.3733 H D n
-1.3733 H D p
-1.3733 H D rf
-1.3733 H D u
-1.3733 H D w
-1.3733 H D ya_q
-1.3607 H E D
-1.7082 H E H
-1.7082 H E Y
-1.3607 H E _S_
-1.3607 H E _q_
-1.4171 H E a
-1.7082 H E a_md
-1.4171 H E b
-1.7082 H E d
-1.7082 H E g
-1.7082 H E h
-1.4171 H E i
-1.7082 H E j
-1.5433 H E k
-1.4171 H E m
-1.2167 H E n
-1.7082 H E p
-1.7082 H E r
-1.5433 H E t
-1.5433 H E u
-1.4171 H E w
-1.5433 H E y
-0.9290 H G k
-1.0551 H G p
-1.2201 H G u
-0.9290 H G w
-0.5932 H J i
-0.8151 H P _S_
-1.1061 H P g
-0.9412 H P m
-1.4679 H S J
-1.4679 H S T
-1.4679 H S a
-1.1768 H S g
-1.4679 H S h
-1.4679 H S q
-1.3029 H S r
-1.4679 H S t_l
-1.3029 H S u
-0.9764 H S w
-1.0604 H T &
-1.0604 H T E
-0.2553 H T a
-0.9812 H Y S
-0.9812 H Y g
-0.9812 H Y x
-0.4072 H Z g
-1.4778 H _S_ A
-1.4778 H _S_ E
-1.7689 H _S_ H
-1.7689 H _S_ P
-1.7689 H _S_ _q_
-1.4778 H _S_ a
-1.2774 H _S_ b
-1.4778 H _S_ i
-1.7689 H _S_ j
-1.4214 H _S_ k
-1.7689 H _S_ l
-1.2724 H _S_ m
-1.6040 H _S_ n
-1.7689 H _S_ q
-1.4778 H _S_ q_a
-1.6040 H _S_ r
-1.4778 H _S_ rf
-0.9638 H _S_ u
-1.4778 H _S_ w
-1.4778 H _S_ x
-1.2774 H _S_ y
-1.4117 H _q_ D
-1.5378 H _q_ E
-1.5378 H _q_ G
-1.7027 H _q_ H
-1.5378 H _q_ P
-1.7027 H _q_ S
-1.7027 H _q_ T
-1.4117 H _q_ _S_
-1.3552 H _q_ b
-1.2112 H _q_ d
-1.7027 H _q_ g
-1.7027 H _q_ h
-1.4117 H _q_ i
-1.5378 H _q_ k
-1.7027 H _q_ l
-1.7027 H _q_ m
-1.4117 H _q_ n
-1.4117 H _q_ q
-1.7027 H _q_ q_a
-1.4117 H _q_ u
-1.4117 H _q_ w
-1.7027 H _q_ y
-1.7082 H a G
-1.5433 H a H
-1.5433 H a T
-1.5433 H a Y
-1.4171 H a _S_
-1.7082 H a _q_
-1.2167 H a d
-1.7082 H a g
-1.7082 H a h
-1.5433 H a i
-1.4171 H a j
-1.0000 H a k
-1.3607 H a l
-1.5433 H a m
-1.5433 H a n
-1.5433 H a p
-1.7082 H a q
-1.7082 H a r
-1.7082 H a t
-1.7082 H a x
-1.4171 H a y
-1.5433 H a z
-0.5041 H a_md E
-1.0355 H a_q P
-1.0355 H a_q k
-1.0355 H a_q l
-0.8706 H a_q y
-1.6916 H b A
-1.4005 H b E
-1.6916 H b G
-1.5267 H b H
-1.6916 H b S
-1.4005 H b a
-1.6916 H b a_q
-1.6916 H b d
-1.6916 H b g
-0.7104 H b i
-1.5267 H b m
-1.6916 H b n
-1.5267 H b q_a
-1.4005 H b rf
-0.9834 H b u
-1.5267 H b w
-1.6916 H b y
-1.5685 H d G
-1.5685 H d _q_
-1.5685 H d a
-1.4036 H d a_q
-1.2775 H d b
-0.8092 H d i
-1.4036 H d m
-1.5685 H d n
-1.5685 H d p
-1.4036 H d q_a
-1.4036 H d rf
-1.2775 H d t_l
-1.5685 H d u
-1.5685 H d w
-1.4036 H d y
-0.7593 H dh p
-0.5944 H dh t_l
-0.7593 H dh u
-1.0092 H f T
-0.8443 H f i
-1.4283 H g D
-1.2634 H g a
-1.4283 H g a_md
-0.9369 H g i
-1.4283 H g j
-1.4283 H g p
-1.4283 H g r
-1.4283 H g rf
-1.2634 H g w
-1.0808 H g y
-1.4283 H g z
-1.1268 H h A
-1.4179 H h _S_
-1.4179 H h a
-1.2530 H h b
-1.4179 H h g
-1.4179 H h n
-1.2530 H h p
-1.4179 H h r
-1.4179 H h t_l
-1.4179 H h w
-1.4179 H h y
-1.8504 H i E
-1.5029 H i G
-1.5029 H i P
-1.3539 H i _S_
-1.3589 H i b
-1.3589 H i d
-1.3589 H i g
-1.8504 H i h
-1.5029 H i j
-1.0453 H i k
-1.3539 H i l
-1.5593 H i m
-1.1422 H i n
-1.6855 H i p
-1.8504 H i rf
-1.8504 H i t
-1.8504 H i w
-1.8504 H i x
-0.9314 H i y
-1.6855 H i ya_q
-1.5294 H j A
-1.5294 H j _S_
-1.3644 H j a_md
-1.5294 H j dh
-1.5294 H j g
-1.2383 H j i
-1.5294 H j k
-1.5294 H j n
-1.5294 H j p
-1.5294 H j q_a
-1.1818 H j r
-1.5294 H j t
-1.5294 H j t_l
-1.3644 H j u
-1.5294 H j y
-1.5294 H j z
-1.4531 H k &
-1.4531 H k D
-1.4531 H k E
-1.4531 H k G
-1.6180 H k a
-0.9098 H k b
-1.4531 H k i
-1.3269 H k n
-1.6180 H k p
-1.6180 H k q
-1.3269 H k q_a
-1.6180 H k t_l
-1.4531 H k u
-1.6180 H k v
-1.2705 H k y
-1.6180 H k ya_q
-1.6180 H k z
-1.4975 H l D
-0.8159 H l E
-1.6624 H l S
-0.9542 H l a
-1.6624 H l b
-1.4975 H l g
-1.1710 H l i
-1.4975 H l j
-1.6624 H l m
-1.4975 H l q_a
-1.6624 H l rf
-1.6624 H l t_l
-0.9542 H l u
-1.6624 H l w
-1.6624 H l x
-1.3833 H m A
-1.1829 H m E
-1.6743 H m H
-1.6743 H m S
-1.6743 H m _S_
-1.6743 H m a
-1.1829 H m g
-1.5094 H m h
-0.9661 H m i
-1.5094 H m j
-1.6743 H m n
-1.3833 H m t_l
-0.9661 H m u
-1.1829 H m w
-1.5094 H m y
-1.6743 H m ya_q
-1.5822 H n A
-1.8733 H n D
-1.3768 H n E
-1.1139 H n H
-1.5258 H n S
-1.8733 H n T
-1.7084 H n _S_
-1.8733 H n _q_
-1.5822 H n a
-1.8733 H n b
-1.8733 H n d
-1.7084 H n g
-1.0682 H n i
-1.8733 H n j
-1.0682 H n k
-1.7084 H n p
-1.7084 H n q
-1.7084 H n t
-1.0268 H n t_l
-1.7084 H n u
-1.5822 H n w
-1.3768 H n x
-1.1651 H n y
-1.4583 H p J
-1.4583 H p _S_
-1.4583 H p b
-1.4583 H p d
-1.4583 H p g
-1.4583 H p k
-1.4583 H p l
-1.2934 H p q
-1.4583 H p q_a
-1.1108 H p t
-1.4583 H p t_l
-1.1108 H p w
-1.2699 H q E
-1.5610 H q G
-1.5610 H q S
-1.5610 H q _S_
-0.7559 H q a
-1.2134 H q b
-1.3960 H q g
-1.5610 H q m
-1.2699 H q n
-1.3960 H q u
-1.2134 H q w
-1.5610 H q ya_q
-1.2836 H q_a A
-1.1010 H q_a E
-1.4486 H q_a H
-1.4486 H q_a _q_
-1.1575 H q_a a
-1.4486 H q_a a_md
-1.1575 H q_a b
-1.2836 H q_a i
-1.2836 H q_a k
-1.4486 H q_a p
-1.2836 H q_a ya_q
-1.3214 H r A
-1.1953 H r E
-1.4863 H r H
-1.3214 H r _S_
-0.9949 H r a
-1.4863 H r d
-1.1953 H r i
-1.3214 H r j
-1.4863 H r n
-1.3214 H r p
-1.3214 H r q
-1.4863 H r s
-1.4863 H r u
-1.4863 H r x
-1.1026 H rf E
-1.2675 H rf _S_
-1.2675 H rf d
-1.2675 H rf i
-1.2675 H rf n
-1.2675 H rf t_l
-1.1026 H rf u
-1.2675 H rf w
-1.0092 H s b
-0.8443 H s i
-0.8443 H s r
-0.7181 H s u
-1.2965 H t D
-1.1315 H t a_md
-1.1315 H t i
-1.2965 H t j
-1.1315 H t n
-1.2965 H t r
-1.2965 H t u
-1.0092 H t_l E
-0.5127 H t_l a
-1.0092 H t_l w
-1.8263 H u &
-1.5352 H u E
-1.6614 H u G
-1.8263 H u H
-1.8263 H u P
-1.8263 H u Z
-1.4788 H u _S_
-1.8263 H u _q_
-1.3348 H u b
-1.4788 H u g
-1.4788 H u h
-1.8263 H u i
-1.6614 H u j
-1.8263 H u k
-1.6614 H u l
-0.9798 H u m
-1.5352 H u q
-1.6614 H u r
-0.9072 H u w
-1.5352 H u x
-1.6614 H u y
-1.3348 H u z
-1.1026 H v a
-0.4624 H v i
-1.2675 H v u
-1.6246 H w E
-1.6246 H w G
-1.6246 H w H
-1.6246 H w _S_
-1.6246 H w a
-1.1332 H w b
-1.6246 H w d
-1.6246 H w g
-1.6246 H w i
-1.4597 H w j
-1.6246 H w k
-1.2771 H w l
-1.6246 H w q
-1.1332 H w r
-1.6246 H w t
-1.6246 H w u
-1.6246 H w y
-1.4597 H w ya_q
-1.3336 H w z
-1.5375 H x D
-1.3726 H x E
-1.3726 H x P
-1.3726 H x S
-1.5375 H x a
-1.5375 H x b
-1.2464 H x i
-1.5375 H x k
-1.1900 H x m
-1.3726 H x n
-1.3726 H x q
-1.5375 H x u
-1.2464 H x w
-1.5375 H x y
-1.5540 H y D
-1.5540 H y E
-1.3714 H y G
-1.7189 H y H
-1.7189 H y S
-1.4278 H y _S_
-1.7189 H y _q_
-1.2224 H y b
-1.4278 H y d
-1.7189 H y f
-1.4278 H y g
-1.4278 H y h
-1.5540 H y i
-1.4278 H y j
-1.4278 H y k
-1.5540 H y l
-1.5540 H y n
-1.7189 H y r
-1.7189 H y rf
-1.7189 H y t
-1.4278 H y t_l
-1.7189 H y u
-1.7189 H y w
-1.7189 H y x
-1.7189 H y ya_q
-1.5041 H ya_q G
-1.3391 H ya_q _S_
-1.3391 H ya_q b
-1.0126 H ya_q d
-1.5041 H ya_q g
-1.2130 H ya_q i
-1.3391 H ya_q j
-1.1565 H ya_q n
-1.5041 H ya_q u
-1.5041 H ya_q w
-1.1565 H ya_q y
-0.7194 H z n
-0.5041 J A l
-1.0355 J E a
-1.0355 J E b
-1.0355 J E l
-0.8706 J E n
-0.5041 J P q_a
-0.4072 J T u
-1.1716 J _S_ g
-0.6284 J _S_ i
-1.1716 J _S_ m
-1.3366 J _S_ rf
-1.3366 J _S_ t_l
-1.3366 J _S_ u
-1.1716 J _S_ y
-0.8843 J _q_ q_a
-1.0839 J a _S_
-1.0839 J a b
-1.0839 J a n
-1.0839 J a r
-1.0839 J a t
-0.6502 J a_q i
-0.9189 J b u
-0.8163 J d i
-0.9812 J d m
-0.9812 J d y
-0.7082 J g _S_
-0.9190 J h k
-1.5487 J i E
-1.7136 J i G
-1.7136 J i P
-1.4225 J i _S_
-1.5487 J i b
-1.4225 J i d
-1.5487 J i j
-1.5487 J i k
-1.3661 J i l
-1.4225 J i m
-1.5487 J i n
-1.2171 J i p
-1.7136 J i r
-1.7136 J i rf
-1.7136 J i s
-1.7136 J i t_l
-1.7136 J i u
-0.6297 J i y
-1.5487 J i ya_q
-1.1061 J j a
-1.1061 J j b
-1.1061 J j g
-1.1061 J j i
-1.1061 J j q
-1.1061 J j y
-0.9190 J k _S_
-0.9190 J k i
-0.8465 J l E
-0.5554 J l y
-1.0839 J m P
-0.7928 J m a
-1.0839 J m n
-1.0381 J n _S_
-1.2030 J n b
-0.8555 J n q_a
-1.0381 J n t_l
-1.2030 J n u
-1.0604 J p g
-1.0604 J p q
-1.0604 J p x
-0.8465 J q a
-0.8465 J q g
-0.8465 J q i
-0.6308 J q_a a
-0.9624 J q_a u
-0.9412 J r a
-0.9412 J r i
-1.1061 J r p
-0.6816 J rf t_l
-1.2675 J t_l E
-1.2675 J t_l _q_
-0.9764 J t_l a
-0.9764 J t_l i
-1.2675 J t_l r
-1.2675 J t_l w
-1.1026 J u i
-1.2675 J u r
-0.7710 J u w
-1.2675 J u z
-0.6402 J w i
-1.4486 J y E
-1.4486 J y G
-1.2836 J y _S_
-1.4486 J y a
-1.1575 J y b
-1.4486 J y dh
-1.4486 J y k
-1.4486 J y p
-1.4486 J y q_a
-1.2836 J y r
-1.4486 J y t
-1.1010 J y w
-1.4486 J y ya_q
-0.5944 J ya_q a
-0.7593 J ya_q j
-1.2822 P D E
-1.2822 P D S
-1.1173 P D _S_
-1.2822 P D g
-1.2822 P D i
-1.2822 P D m
-1.2822 P D n
-1.2822 P D x
-1.1173 P D y
-1.2822 P D ya_q
-0.8051 P E l
-1.4914 P G &
-1.4914 P G A
-1.6564 P G D
-1.4914 P G _S_
-1.4914 P G _q_
-0.9482 P G a
-1.3088 P G d
-1.6564 P G g
-1.3653 P G i
-1.4914 P G q
-1.6564 P G q_a
-0.7721 P G u
-1.3088 P G w
-1.3088 P G y
-1.3653 P G ya_q
-0.9190 P J i
-0.9190 P J t_l
-0.9190 P J u
-0.9190 P J y
-1.2422 P S A
-1.2422 P S E
-1.0596 P S a
-1.4072 P S a_q
-1.2422 P S b
-1.2422 P S q
-1.4072 P S t_l
-1.2422 P S u
-1.2422 P S w
-1.6987 P T &
-1.2304 P T A
-1.9898 P T D
-1.0086 P T E
-1.9898 P T Y
-1.8249 P T _S_
-1.9898 P T _q_
-0.6795 P T a
-1.9898 P T a_md
-1.8249 P T a_q
-1.4933 P T g
-1.6423 P T i
-1.9898 P T l
-1.4983 P T q_a
-1.6987 P T r
-1.6423 P T t_l
-1.0707 P T u
-0.7868 P T w
-1.8249 P T ya_q
-0.9190 P Z A
-0.7541 P Z a
-0.9190 P Z i
-0.9190 P Z w
-1.8539 P _S_ D
-1.4661 P _S_ E
-2.0029 P _S_ G
-2.1855 P _S_ H
-2.3504 P _S_ P
-2.3504 P _S_ S
-2.1855 P _S_ T
-2.3504 P _S_ _q_
-1.0829 P _S_ a
-1.5911 P _S_ a_q
-2.0029 P _S_ b
-2.3504 P _S_ d
-2.1855 P _S_ dh
-2.3504 P _S_ f
-1.4661 P _S_ g
-2.0593 P _S_ h
-0.8129 P _S_ i
-2.3504 P _S_ j
-1.5453 P _S_ k
-2.1855 P _S_ l
-1.5039 P _S_ m
-2.0593 P _S_ n
-1.5911 P _S_ p
-2.1855 P _S_ q
-1.5039 P _S_ q_a
-1.4661 P _S_ r
-1.5453 P _S_ rf
-1.3692 P _S_ t_l
-0.8129 P _S_ u
-2.0029 P _S_ v
-1.3692 P _S_ w
-1.5911 P _S_ x
-1.3992 P _S_ y
-2.3504 P _S_ ya_q
-0.8843 P a E
-0.8843 P a T
-0.7194 P a _S_
-0.8843 P a r
-0.5833 P a_md w
-1.3366 P a_q D
-1.3366 P a_q H
-1.3366 P a_q a
-1.3366 P a_q d
-0.9890 P a_q i
-1.3366 P a_q j
-1.3366 P a_q k
-1.3366 P a_q l
-1.3366 P a_q r
-1.1716 P a_q y
-1.3366 P a_q ya_q
-1.4585 P b A
-0.8305 P b E
-1.5847 P b P
-0.8305 P b a
-1.4585 P b g
-0.9031 P b i
-1.7496 P b j
-1.7496 P b n
-1.7496 P b q
-1.5847 P b r
-1.4585 P b rf
-1.4020 P b t_l
-1.4585 P b u
-1.5847 P b w
-1.7496 P b y
-1.4585 P b ya_q
-1.2965 P d G
-0.9489 P d a
-1.1315 P d i
-0.9489 P d t_l
-1.2965 P d u
-0.8465 P dh a
-0.6816 P dh u
-1.3102 P f A
-1.3102 P f _S_
-0.9627 P f i
-1.0192 P f m
-0.8188 P f u
-1.0192 P f w
-1.3102 P f ya_q
-0.9812 P g i
-0.9812 P g k
-0.9190 P h E
-0.9190 P h p
-1.2216 P i P
-1.2216 P i _S_
-1.3477 P i b
-1.5127 P i j
-1.3477 P i k
-1.5127 P i l
-1.0212 P i p
-1.5127 P i u
-0.7076 P i y
-1.4179 P j E
-1.1268 P j i
-1.4179 P j m
-1.4179 P j n
-1.4179 P j q_a
-1.4179 P j r
-1.1268 P j t_l
-1.0703 P j u
-0.6585 P j y
-1.7798 P k D
-1.9624 P k E
-1.9624 P k G
-1.8362 P k H
-2.1273 P k J
-2.1273 P k P
-1.8362 P k S
-1.9624 P k Z
-1.2808 P k _S_
-1.8362 P k _q_
-1.6358 P k a
-1.8362 P k a_q
-2.1273 P k b
-1.9624 P k d
-1.6358 P k g
-0.7907 P k i
-1.8362 P k j
-1.8362 P k l
-1.7798 P k m
-2.1273 P k n
-1.7798 P k p
-1.6358 P k q_a
-1.8362 P k r
-1.9624 P k rf
-1.7798 P k t_l
-1.1461 P k u
-1.9624 P k v
-1.0435 P k w
-1.7798 P k x
-0.9605 P k y
-1.6358 P k ya_q
-0.9190 P l i
-1.2675 P m A
-0.9200 P m a
-1.1026 P m i
-1.2675 P m q
-0.9200 P m w
-1.1026 P m ya_q
-1.0551 P n A
-1.2201 P n E
-1.2201 P n j
-0.8725 P n t_l
-1.2201 P n u
-0.9190 P p n
-0.7541 P p q
-1.8879 P q &
-1.3964 P q A
-1.8879 P q D
-1.1797 P q E
-1.8879 P q H
-1.8879 P q J
-1.8879 P q T
-0.8275 P q a
-1.8879 P q a_md
-1.5404 P q g
-1.8879 P q h
-0.9367 P q i
-1.8879 P q n
-1.1797 P q q_a
-1.7230 P q r
-1.7230 P q t_l
-0.9367 P q u
-1.0036 P q w
-1.5404 P q ya_q
-0.9834 P q_a E
-1.6916 P q_a G
-1.5267 P q_a H
-1.5267 P q_a Y
-1.5267 P q_a _q_
-0.9834 P q_a a
-1.6916 P q_a a_q
-1.5267 P q_a b
-1.4005 P q_a i
-1.4005 P q_a k
-1.5267 P q_a l
-1.6916 P q_a m
-1.6916 P q_a p
-1.4005 P q_a r
-1.6916 P q_a u
-1.2001 P q_a w
-1.6916 P q_a x
-1.5267 P q_a y
-1.3441 P q_a ya_q
-0.9512 P r E
-0.9512 P r h
-0.7863 P r u
-0.9764 P rf E
-1.4679 P rf a
-1.3029 P rf i
-1.3029 P rf k
-1.4679 P rf m
-1.3029 P rf q
-0.9713 P rf r
-1.4679 P rf t
-1.3029 P rf t_l
-1.1203 P rf u
-1.3029 P rf w
-1.5294 P s D
-1.3644 P s G
-1.5294 P s _S_
-1.3644 P s a_q
-0.8212 P s i
-1.2383 P s j
-1.5294 P s l
-1.5294 P s m
-1.5294 P s n
-1.2383 P s r
-1.5294 P s rf
-1.0379 P s u
-1.3644 P s w
-2.0226 P t A
-2.0226 P t D
-1.2175 P t E
-1.8577 P t P
-2.0226 P t S
-2.0226 P t _S_
-1.8577 P t _q_
-0.8953 P t a
-2.0226 P t b
-1.7315 P t dh
-2.0226 P t g
-0.8373 P t i
-2.0226 P t k
-1.7315 P t l
-2.0226 P t m
-1.7315 P t n
-1.8577 P t p
-1.8577 P t q_a
-1.1383 P t r
-1.7315 P t rf
-1.2175 P t t_l
-1.0134 P t u
-1.5261 P t w
-1.8577 P t x
-1.5261 P t y
-1.7315 P t ya_q
-1.2849 P t_l E
-1.5760 P t_l Y
-0.6247 P t_l a
-1.5760 P t_l a_q
-0.8166 P t_l i
-1.5760 P t_l q_a
-1.2849 P t_l r
-1.2849 P t_l u
-1.4110 P t_l w
-1.8263 P u &
-1.5352 P u D
-1.6614 P u E
-1.5352 P u G
-1.5352 P u S
-1.8263 P u T
-1.8263 P u a
-1.8263 P u a_q
-1.1181 P u b
-1.6614 P u g
-1.3298 P u i
-1.8263 P u j
-1.4788 P u k
-1.4788 P u m
-1.8263 P u n
-1.8263 P u q
-1.3348 P u r
