# VAD: 1
# Viterbi loop action: No record

BIGRAM: method Katz, cutoff 1
coef[7]: 0.000000 0.880435 0.962319 0.965839 0.990000 0.952174 0.977226

TRIGRAM: method Katz, cutoff 1
coef[7]: 0.000000 0.825869 0.703644 0.652207 0.850145 0.612169 0.897864

\data\
ngram 1=41
ngram 2=1477
ngram 3=22879

\1-grams:
-1.4138 &	-1.2800
-1.8819 &r	-0.4945
-99.9900 </s>
-99.9900 <s>
-1.5657 >	-0.8541
-1.5650 @	-0.8427
-1.4348 A	-0.9858
-1.9148 C	-0.7137
-1.5572 E	-3.4834
-2.1851 I	-1.9265
-1.4373 N	-1.1458
-1.5490 cC	-0.9077
-2.1496 cCh	-1.4583
-1.7290 e	-2.3975
-2.2233 f	-1.0464
-1.4834 i	-1.0119
-1.6285 ixr	-0.7101
-1.4054 j	-0.5069
-2.0009 jw	-1.9350
-1.5162 k	-2.6622
-1.8252 kh	-0.1126
-1.5174 l	-0.2694
-1.4274 m	-0.2302
-1.3945 n	-0.8567
-1.5174 o	-0.6287
-1.5006 p	-2.3331
-2.0479 ph	-1.7429
-1.7568 r&	-2.5805
-2.1641 s	-1.7660
-1.4509 sr	-0.6384
-1.7240 t	-1.9820
-1.0108 tc	-1.7939
-1.9055 th	-0.0497
-2.0029 thsr	+0.0938
-1.9562 ts	-1.2466
-2.3386 tsh	-0.9158
-1.6447 tsr	-2.3803
-1.3734 u	-1.1451
-1.2693 w	-0.6497
-1.4723 x	-0.4478
-1.7582 y	-0.7884

\2-grams:
-2.3818 & &r	+0.0288
-2.3943 & >	+0.0546
-2.5177 & @	-0.0926
-2.2639 & A	+0.0182
-1.6711 & C	+0.3463
-2.5311 & E	+0.0588
-2.3146 & I	-0.1589
-1.3696 & N	+0.0772
-1.8616 & cC	+0.1182
-2.3643 & cCh	-0.0446
-2.2807 & e	-0.0013
-2.0195 & f	+0.0937
-1.6473 & i	+0.2022
-2.1120 & ixr	-0.1933
-1.5647 & j	-0.0823
-2.0835 & jw	+0.0894
-1.9483 & k	+0.2527
-2.2107 & kh	-0.1157
-1.2648 & l	+0.4288
-1.0471 & m	-0.3001
-0.9963 & n	-0.0130
-1.9238 & o	+0.1564
-2.0904 & p	+0.1352
-2.2493 & ph	-0.1142
-1.7590 & r&	+0.1941
-1.9143 & s	+0.0606
-1.2315 & sr	+0.3539
-2.5818 & t	-0.1293
-0.5337 & tc	+0.0855
-2.1047 & th	+0.0097
-2.3914 & thsr	-0.0600
-2.3777 & ts	-0.1528
-2.5818 & tsh	-0.1715
-1.9743 & tsr	+0.1655
-1.6760 & u	+0.2509
-1.4695 & w	+0.3217
-1.3338 & x	+0.3541
-2.0633 & y	-0.0683
-1.8573 &r &	-0.1561
-2.0698 &r >	+0.0635
-1.7578 &r @	-0.0121
-1.6483 &r A	+0.0556
-1.7371 &r C	-0.0777
-2.0269 &r E	-0.0345
-2.4606 &r I	-0.0203
-1.2813 &r N	+0.2845
-1.6019 &r cC	+0.0396
-1.9676 &r cCh	-0.0805
-2.0531 &r e	+0.0721
-2.5117 &r f	-0.0938
-1.5515 &r i	-0.0662
-1.7246 &r ixr	-0.3735
-1.3466 &r j	-0.0154
-2.0346 &r jw	-0.1990
-1.6367 &r k	-0.0585
-1.7246 &r kh	-0.0523
-1.2781 &r l	+0.2141
-1.5283 &r m	+0.0254
-1.1430 &r n	+0.2117
-1.6666 &r o	-0.1084
-1.7616 &r p	-0.0820
-2.0346 &r ph	-0.0200
-1.5575 &r r&	+0.1273
-2.1138 &r s	-0.0965
-1.1031 &r sr	+0.2338
-2.0169 &r t	-0.0270
-0.7743 &r tc	+0.2331
-1.9234 &r th	-0.1466
-1.9998 &r thsr	-0.0186
-2.1844 &r ts	-0.2002
-2.3009 &r tsh	-0.1413
-1.7616 &r tsr	-0.0779
-1.7336 &r u	-0.1368
-1.3695 &r w	+0.1546
-1.4062 &r x	-0.1884
-1.8707 &r y	-0.1187
-1.8942 > &	+0.0494
-1.8726 > &r	+0.0327
-2.0300 > @	+0.1809
-1.8780 > A	+0.0109
-1.7228 > C	-0.0134
-2.2496 > E	-0.0226
-2.3692 > I	-0.0637
-1.2354 > N	+0.1327
-1.7816 > cC	-0.0881
-2.2685 > cCh	-0.1433
-1.8676 > e	+0.0641
-2.1627 > f	-0.1179
-1.8067 > i	-0.0145
-2.0067 > ixr	-0.1237
-1.6702 > j	-0.0482
-2.0497 > jw	-0.1551
-1.8119 > k	+0.0629
-1.9675 > kh	+0.0040
-1.2700 > l	-0.0153
-1.2495 > m	+0.2560
-1.3061 > n	+0.3942
-1.7266 > o	+0.1022
-1.8171 > p	+0.2575
-2.0777 > ph	-0.0872
-1.5491 > r&	+0.2689
-1.9114 > s	+0.0132
-1.1139 > sr	+0.1512
-2.7309 > t	-0.1877
-0.6598 > tc	+0.2438
-2.1627 > th	-0.1598
-2.2538 > thsr	-0.2006
-2.5268 > ts	-0.0098
-2.5549 > tsh	-0.1206
-1.7266 > tsr	+0.1867
-1.5005 > u	+0.0339
-1.2124 > w	+0.3919
-1.2217 > x	+0.0789
-2.1995 > y	-0.2175
-1.8576 @ &	+0.0483
-1.8088 @ &r	+0.0314
-2.2554 @ >	+0.0346
-1.8275 @ A	+0.0350
-2.0048 @ C	-0.0689
-1.6081 @ E	-0.1627
-2.5275 @ I	-0.1372
-1.1012 @ N	+0.3042
-1.9835 @ cC	-0.2142
-2.3337 @ cCh	-0.0540
-1.9121 @ e	-0.2852
-2.4529 @ f	-0.1843
-1.4263 @ i	+0.4037
-1.9323 @ ixr	+0.0494
-0.9161 @ j	+0.0008
-1.8286 @ jw	+0.0002
-2.1519 @ k	+0.0188
-2.0074 @ kh	-0.0847
-1.1318 @ l	+0.0752
-1.4911 @ m	-0.1240
-0.7794 @ n	+0.1845
-1.9682 @ o	+0.1822
-2.2693 @ p	-0.1522
-2.1635 @ ph	-0.1062
-1.7494 @ r&	+0.1904
-2.4095 @ s	-0.0770
-1.4552 @ sr	+0.2770
-2.5275 @ t	-0.0343
-1.1221 @ tc	+0.3058
-2.0327 @ th	-0.0657
-2.3337 @ thsr	-0.2118
-2.5855 @ ts	-0.1842
-2.8286 @ tsh
-2.2693 @ tsr	-0.1430
-1.6453 @ u	+0.0670
-1.0746 @ w	+0.1162
-1.5949 @ x	+0.2677
-1.9835 @ y	-0.0772
-1.8453 A &	-0.2587
-1.8785 A &r	+0.0313
-1.7597 A >	+0.1809
-1.8662 A @	+0.0438
-2.0139 A C	-0.0485
-2.3667 A E	-0.0114
-2.4469 A I	+0.0258
-0.9159 A N	+0.6398
-1.9533 A cC	+0.0648
-2.5001 A cCh	-0.1734
-2.1543 A e	-0.0764
-2.1629 A f	+0.0985
-1.9376 A i	-0.1732
-2.1897 A ixr	+0.0275
-1.8126 A j	+0.2432
-2.4305 A jw	+0.0295
-1.8448 A k	+0.0933
-1.8751 A kh	+0.1038
-1.1743 A l	-0.1520
-1.1981 A m	+0.0836
-1.1925 A n	+0.1619
-1.8532 A o	-0.0143
-2.1629 A p	+0.0871
-2.1991 A ph	-0.0957
-1.8618 A r&	+0.2175
-2.1215 A s	-0.1031
-1.5155 A sr	+0.3163
-2.3433 A t	-0.0982
-0.9507 A tc	+0.2652
-2.0984 A th	-0.0217
-2.2598 A thsr	-0.2138
-2.3433 A ts	-0.1665
-2.5396 A tsh	-0.1187
-2.0045 A tsr	+0.1196
-1.5097 A u	+0.1497
-0.7163 A w	-0.4791
-1.2284 A x	+0.4322
-2.5608 A y	-0.0839
-2.0058 C &	-0.0877
-2.4954 C &r	-0.0205
-2.4938 C >	-0.0753
-2.1821 C @	-0.2032
-2.5000 C A	-0.1198
-1.6284 C E	+0.0034
-1.9505 C I	-0.0548
-1.7484 C N	-0.0832
-1.1750 C cC	-0.2226
-1.7484 C cCh	-0.0888
-1.8767 C e	-0.1843
-2.2679 C f	-0.0962
-1.0414 C i	+0.0870
-1.2991 C ixr	+0.0499
-1.1438 C j	-0.1442
-1.4576 C jw	-0.2098
-1.4734 C k	+0.0883
-1.9047 C kh	-0.0800
-1.9669 C l	-0.0823
-1.5367 C m	-0.2593
-1.3818 C n	+0.0832
-2.1266 C o	-0.0400
-1.6184 C p	+0.1140
-1.9194 C ph	-0.1648
-1.9839 C r&	-0.1023
-1.9505 C s	-0.0976
-1.4680 C sr	+0.0208
-1.6916 C t	+0.1105
-1.3174 C tc	-0.0275
-1.7384 C th	-0.1313
-1.5010 C thsr	+0.0920
-1.6658 C ts	+0.0056
-1.9505 C tsh	-0.1391
-1.2580 C tsr	+0.0065
-1.5245 C u	+0.0319
-1.6110 C w	+0.1061
-1.7097 C x	+0.0105
-1.2145 C y	-0.0058
-1.7901 E &	-0.1775
-1.9266 E &r	+0.0935
-2.4385 E >	-0.2282
-1.9333 E @	-0.0195
-1.8364 E A	-0.1253
-1.7757 E C	+0.2044
-2.6981 E I	-0.1163
-1.1808 E N	+0.2931
-2.1060 E cC	+0.0336
-2.4607 E cCh	-0.1671
-2.1713 E e	-0.0579
-2.1060 E f	-0.0657
-1.7757 E i	+0.0577
-1.8822 E ixr	-0.0153
-1.4562 E j	-0.2207
-2.3778 E jw	-0.0284
-2.0767 E k	-0.0747
-2.0960 E kh	-0.1202
-1.1246 E l	-0.0549
-1.2276 E m	+0.1434
-0.8262 E n	+0.3924
-1.6826 E o	-0.0218
-2.1954 E p	-0.0199
-2.3416 E ph	-0.1375
-1.6222 E r&	-0.1377
-2.1954 E s	-0.0743
-1.4256 E sr	+0.1940
-2.5354 E t	-0.1448
-0.6728 E tc	+0.8117
-2.1374 E th	-0.1604
-2.3593 E thsr	-0.1596
-2.4173 E ts	-0.0506
-3.0449 E tsh	-0.1640
-2.1162 E tsr	-0.0287
-1.6903 E u	+0.1692
-1.3450 E w	+0.3210
-1.2986 E x	+0.2730
-2.1060 E y	-0.0539
-1.6966 I &	+0.0365
-2.0702 I &r	-0.0376
-2.1116 I >	-0.0489
-2.1116 I @	+0.0005
-1.8811 I A	-0.0807
-1.5095 I C	+0.0066
-1.9977 I E	+0.0268
-1.2987 I N	+0.1139
-1.7894 I cC	-0.1196
-2.0324 I cCh	-0.3828
-1.6802 I e	-0.0087
-1.9655 I f	-0.1027
-1.5205 I i	+0.0373
-1.8811 I ixr	-0.0102
-1.8106 I j	-0.1410
-2.0324 I jw	+0.0194
-1.7314 I k	+0.0185
-2.0324 I kh	-0.0542
-1.3712 I l	+0.0686
-1.2543 I m	-0.0045
-1.3263 I n	-0.0736
-1.6966 I o	-0.1364
-1.7314 I p	-0.1131
-1.8328 I ph	-0.1282
-1.4488 I r&	-0.1296
-1.7314 I s	-0.1213
-1.1622 I sr	+0.0170
-2.4170 I t
-0.7034 I tc	+0.2322
-1.8811 I th	-0.0772
-2.2085 I thsr	-0.0824
-2.2085 I ts	-0.0886
-2.4170 I tsh	-0.1596
-1.9075 I tsr	-0.0372
-1.4988 I u	-0.2319
-1.4304 I w	-0.0665
-1.3873 I x	+0.0020
-1.6345 I y	-0.0807
-2.0514 N &	-0.0236
-2.3079 N &r	-0.1720
-1.9768 N >	+0.0687
-2.5213 N @	-0.0162
-2.2786 N A	+0.0158
-1.6313 N C	+0.6337
-2.3409 N E	-0.1761
-2.1873 N I	-0.1245
-1.4494 N cC	+0.2771
-1.8465 N cCh	+0.2229
-2.1966 N e	-0.1335
-1.7660 N f	-0.0559
-1.3970 N i	+0.6143
-1.8220 N ixr	+0.0505
-1.7625 N j	+0.3532
-2.0670 N jw	-0.0380
-1.4580 N k	+0.3407
-1.5946 N kh	+0.9746
-1.4091 N l	+0.2596
-1.0907 N m	-0.2143
-1.4264 N n	+0.6157
-1.8063 N o	+0.3763
-1.5091 N p	+0.4005
-1.7290 N ph	+0.4148
-1.7355 N r&	+0.1850
-1.7695 N s	+0.2336
-1.2330 N sr	-0.0325
-2.1190 N t	+0.1488
-0.7142 N tc	+0.5281
-1.7660 N th	+0.1061
-1.9901 N thsr	+0.0822
-1.9403 N ts	+0.0229
-2.0532 N tsh	-0.0159
-1.6289 N tsr	+0.3046
-1.5269 N u	+0.3916
-1.5072 N w	+0.3062
-1.2842 N x	+0.2180
-1.8423 N y	-0.0344
-1.7026 cC &	-0.1336
-2.3841 cC &r	-0.2435
-2.3156 cC >	-0.1709
-2.2079 cC @	-0.2463
-2.2374 cC A	+0.0938
-2.3105 cC C	-0.1039
-1.0097 cC E	+0.4558
-2.1566 cC I	-0.1148
-2.0487 cC N	-0.0786
-2.7476 cC cCh	-0.0642
-1.7476 cC e	+0.1505
-2.7934 cC f	-0.1121
-0.8988 cC i	+0.2202
-1.1402 cC ixr	+0.5737
-0.7078 cC j	-0.4109
-1.3462 cC jw	-0.1091
-1.7934 cC k	+0.1210
-2.1794 cC kh	-0.0903
-1.8843 cC l	+0.1082
-1.7223 cC m	-0.0852
-1.6907 cC n	+0.2283
-1.4997 cC o	+0.1663
-2.0487 cC p	-0.1006
-2.3163 cC ph	-0.1507
-1.8392 cC r&	-0.0176
-2.7934 cC s	-0.1368
-1.9553 cC sr	+0.0762
-1.9347 cC t	+0.2016
-1.5517 cC tc	+0.0475
-1.9281 cC th	-0.1226
-1.9918 cC thsr	-0.1150
-2.2425 cC ts	-0.0286
-2.5716 cC tsh	-0.1542
-1.9623 cC tsr	-0.1915
-1.5381 cC u	+0.1502
-1.7886 cC w	+0.0654
-2.2291 cC x	-0.1565
-1.0161 cC y	+0.4875
-1.8918 cCh &	-0.0149
-2.5601 cCh &r
-2.1928 cCh >	-0.1836
-2.4525 cCh @	-0.0952
-2.3120 cCh A	-0.1139
-1.7853 cCh C	-0.0792
-1.4938 cCh E	-0.1553
-2.1471 cCh I	-0.0574
-1.3912 cCh N	-0.0041
-1.6999 cCh cC	-0.0550
-1.7668 cCh e	+0.0018
-2.1471 cCh f	-0.1390
-1.0940 cCh i	-0.1558
-1.2897 cCh ixr	-0.0144
-1.2440 cCh j	-0.0627
-1.4311 cCh jw	-0.1499
-1.6030 cCh k	-0.0050
-2.1057 cCh kh	-0.1937
-1.6699 cCh l	+0.0042
-1.3275 cCh m	+0.1023
-1.2494 cCh n	+0.0737
-1.7668 cCh o	-0.1185
-1.8046 cCh p	-0.0871
-1.8683 cCh ph	-0.0197
-1.5789 cCh r&	-0.1074
-1.9710 cCh s	-0.1207
-1.2606 cCh sr	-0.0317
-1.9429 cCh t	-0.0977
-1.2958 cCh tc	+0.1957
-1.9710 cCh th	-0.1154
-1.6847 cCh thsr	-0.1143
-1.9429 cCh ts	-0.0640
-2.0679 cCh tsh	-0.0838
-1.5673 cCh tsr	-0.0585
-1.4658 cCh u	+0.0931
-1.4938 cCh w	+0.0070
-1.6285 cCh x	-0.0107
-1.1136 cCh y	+0.1193
-1.8516 e &	-0.1744
-2.0235 e &r	-0.0939
-2.2666 e >	-0.0186
-2.0235 e @	+0.0694
-2.0763 e A	+0.0542
-1.9656 e C	-0.0740
-1.0029 e E	+0.2223
-2.4884 e I	+0.0118
-1.3052 e N	+0.2083
-2.1052 e cC	-0.0189
-2.6134 e cCh	-0.1019
-2.8730 e f
-0.9612 e i	+0.0220
-1.5945 e ixr	+0.0186
-0.6613 e j	+0.0975
-1.5676 e jw	-0.1024
-2.1526 e k	-0.0368
-2.4215 e kh	-0.0616
-1.5764 e l	+0.0517
-2.2059 e m	-0.0486
-1.1363 e n	+0.2539
-1.5676 e o	+0.1490
-2.3123 e p	-0.0931
-2.1363 e ph	-0.0903
-1.4405 e r&	+0.0880
-2.6645 e s	-0.1879
-1.6134 e sr	+0.0738
-2.6645 e t	-0.0863
-1.4570 e tc	+0.0065
-2.0361 e th	-0.0898
-2.0625 e thsr	-0.0980
-3.1072 e ts
-3.1072 e tsh
-2.2889 e tsr	-0.1808
-1.7547 e u	-0.1417
-1.5069 e w	-0.1706
-1.9242 e x	-0.1458
-1.2392 e y	+0.1089
-0.9870 f &	+0.1944
-1.5419 f &r	-0.1033
-1.2041 f >	-0.0435
-1.0648 f @	-0.0315
-0.8775 f A	+0.0332
-2.6129 f C
-2.8276 f E
-2.0320 f I	-0.0483
-1.3573 f N	-0.0409
-1.9272 f cC	-0.1351
-2.0734 f cCh	-0.0532
-1.5682 f e	-0.1811
-1.8181 f i	-0.0417
-1.6420 f ixr	-0.0885
-1.9942 f j	-0.2062
-1.6110 f k	-0.1477
-1.7511 f kh	-0.0597
-1.9272 f l	-0.1135
-1.8429 f m	-0.1048
-1.7309 f n	-0.2052
-1.4013 f o	-0.0550
-1.7946 f p	-0.0852
-2.0734 f ph	-0.1584
-2.0734 f r&
-2.4864 f s
-1.9272 f sr	-0.0534
-1.8181 f t	-0.0678
-1.6754 f tc	-0.1785
-1.8692 f th	-0.0730
-1.8973 f thsr	-0.1088
-2.2383 f ts	-0.0909
-2.1703 f tsh	-0.1622
-1.9272 f tsr	-0.0875
-1.1595 f u	-0.0982
-1.1096 f w	+0.0842
-1.6931 f x	-0.1491
-2.3787 f y
-1.9391 i &	+0.2185
-2.1397 i &r	+0.0190
-2.2486 i >	+0.0078
-2.2265 i @	-0.0310
-2.0863 i A	+0.1395
-1.5355 i C	+0.3925
-1.3661 i E	+0.2855
-2.4330 i I	-0.0336
-1.3884 i N	+0.3540
-1.5628 i cC	+0.1284
-2.1320 i cCh	-0.1646
-2.2112 i e	-0.0775
-2.1231 i f	-0.0682
-1.7602 i ixr	-0.1929
-1.4973 i j	+0.0278
-1.8401 i jw	+0.1375
-1.6146 i k	+0.1749
-1.8004 i kh	-0.0407
-1.3569 i l	+0.1202
-1.1879 i m	+0.0552
-1.1788 i n	+0.0424
-1.4910 i o	-0.0362
-1.8688 i p	-0.0392
-2.0972 i ph	-0.0041
-1.6993 i r&	-0.0020
-2.0972 i s	-0.0537
-1.2830 i sr	+0.1116
-2.2222 i t	+0.0670
-0.6625 i tc	+0.0025
-1.7094 i th	+0.2164
-1.8639 i thsr	-0.0436
-2.2450 i ts	-0.3126
-2.2692 i tsh	-0.1757
-1.8994 i tsr	-0.0076
-1.6894 i u	-0.1439
-1.7233 i w	+0.1186
-1.3999 i x	+0.1236
-1.6829 i y	+0.0446
-1.7323 ixr &	+0.0201
-1.9689 ixr &r	-0.0582
-2.1270 ixr >	-0.2123
-2.0928 ixr @	+0.0257
-1.9261 ixr A	+0.0586
-1.5168 ixr C	+0.3903
-1.9692 ixr E	+0.1109
-2.5543 ixr I	-0.0188
-1.2898 ixr N	+0.3416
-1.8357 ixr cC	-0.0409
-2.3258 ixr cCh	-0.0826
-2.0054 ixr e	+0.0957
-2.0661 ixr f	-0.0665
-1.6554 ixr i	+0.0620
-1.6470 ixr j	+0.1412
-2.0771 ixr jw	-0.0690
-1.7874 ixr k	+0.3155
-1.9606 ixr kh	-0.1480
-1.3522 ixr l	+0.1307
-1.2844 ixr m	+0.2407
-1.2384 ixr n	+0.3733
-1.5678 ixr o	+0.0420
-1.9961 ixr p	+0.0578
-2.0771 ixr ph	-0.0727
-1.6037 ixr r&	-0.0726
-1.8231 ixr s	-0.1169
-1.0771 ixr sr	+0.4558
-2.2703 ixr t	-0.0891
-0.6392 ixr tc	+0.6085
-1.9961 ixr th	-0.0643
-2.1367 ixr thsr	-0.0436
-2.2880 ixr ts	-0.0629
-2.4921 ixr tsh	-0.1498
-1.7817 ixr tsr	+0.1146
-1.4779 ixr u	+0.2864
-1.4507 ixr w	+0.4945
-1.3522 ixr x	+0.1478
-1.9278 ixr y	-0.0521
-1.4189 j &	+0.1279
-1.6224 j &r	+0.1007
-2.0490 j >	-0.0311
-1.2482 j @	+0.0930
-1.0166 j A	-0.0465
-1.7582 j C	-0.0069
-1.0339 j E	+0.4331
-2.5488 j I	-0.1485
-1.6241 j N	+0.4556
-1.7329 j cC	-0.1641
-2.3472 j cCh	-0.1103
-2.0339 j e	-0.0802
-2.3472 j f	+0.0514
-1.8268 j i	+0.1276
-1.7909 j ixr	+0.1391
-2.1509 j jw	+0.1223
-1.7269 j k	+0.0919
-1.9774 j kh	+0.1078
-1.4881 j l	+0.2334
-1.6507 j m	+0.2345
-1.4488 j n	+0.2756
-1.0797 j o	-0.1225
-1.9181 j p	+0.1585
-2.2285 j ph	-0.0548
-1.7674 j r&	+0.0786
-2.3115 j s	-0.1528
-1.4864 j sr	+0.1457
-2.2100 j t	+0.0805
-0.8294 j tc	-0.0208
-2.0587 j th	+0.1114
-2.2011 j thsr	-0.0585
-2.4763 j ts	-0.0855
-2.4441 j tsh	-0.1497
-1.9670 j tsr	+0.2096
-1.8231 j u	+0.0792
-1.5391 j w	+0.3020
-1.4170 j x	+0.3745
-2.0989 j y	+0.0713
-1.3046 jw &	+0.1181
-1.8187 jw &r	-0.0651
-2.2544 jw >	-0.0624
-1.4266 jw @	+0.0466
-1.6523 jw A	+0.0397
-2.2166 jw C	-0.1538
-0.5407 jw E	+0.2721
-2.2958 jw I	-0.0595
-1.8808 jw N	-0.0333
-1.8644 jw cC	-0.0021
-2.7088 jw cCh
-1.4964 jw e	-0.0233
-2.7088 jw f
-1.2624 jw i	-0.0277
-1.4697 jw ixr	-0.0701
-0.9013 jw j	-0.0633
-2.0170 jw k	-0.0872
-2.2166 jw kh	-0.3516
-1.9534 jw l	-0.0582
-2.1818 jw m	-0.0489
-1.8044 jw n	-0.0915
-1.2094 jw o	+0.2431
-2.1197 jw p	-0.0644
-2.1818 jw ph	-0.0326
-1.6725 jw r&	-0.1126
-1.7276 jw sr	-0.0869
-2.0917 jw t	-0.1579
-2.0405 jw tc	-0.0409
-2.0653 jw th	-0.1360
-2.1818 jw thsr	-0.1610
-2.2958 jw ts	-0.1869
-2.8353 jw tsh
-2.2544 jw tsr	-0.0785
-1.6830 jw u	-0.0988
-1.8978 jw w	-0.1325
-2.0170 jw x	-0.1288
-1.3820 jw y	+0.1711
-1.0587 k &	+0.2080
-1.6374 k &r	+0.1055
-1.0148 k >	+0.1037
-1.2891 k @	-0.0094
-1.1470 k A	+0.1644
-2.4002 k C	-0.1615
-1.3507 k E	+0.3411
-2.1470 k I	-0.1351
-1.5526 k N	+0.2114
-2.0903 k cC	-0.0005
-2.6343 k cCh	-0.1883
-1.6102 k e	-0.1534
-2.8262 k f	-0.5234
-1.5086 k i	+0.0447
-1.8666 k ixr	-0.0287
-1.4480 k j	+0.2648
-2.6665 k jw	-0.0840
-2.0023 k kh	+0.0084
-1.8828 k l	-0.2045
-1.7013 k m	-0.0873
-1.7312 k n	+0.0647
-1.2123 k o	-0.0249
-1.7676 k p	+0.1063
-2.2123 k ph	-0.2302
-2.1177 k r&	+0.0101
-3.0236 k s	-0.1134
-1.9544 k sr	-0.0586
-2.1677 k t	-0.0860
-1.4582 k tc	+0.0561
-2.0481 k th	-0.1506
-2.2891 k thsr	-0.0986
-2.6665 k ts	-0.1073
-3.3200 k tsh
-2.3825 k tsr	-0.0657
-0.9825 k u	+0.3930
-0.9723 k w	-0.2761
-1.6191 k x	-0.0164
-2.3333 k y	-0.1413
-1.3119 kh &	+0.1173
-1.7028 kh &r	-0.0341
-1.7084 kh >	-0.1207
-1.2353 kh @	+0.1934
-1.2648 kh A	+0.0744
-2.2510 kh C	-0.1872
-1.9943 kh E	+0.0078
-2.0243 kh I	-0.1281
-1.4145 kh N	+0.1093
-1.6861 kh cC	+0.0178
-1.9801 kh cCh	-0.0475
-1.4802 kh e	+0.0149
-2.3253 kh f	-0.1028
-1.6326 kh i	-0.0811
-1.4847 kh ixr	+0.0967
-1.6721 kh j	-0.0302
-2.1492 kh jw	-0.1089
-1.4145 kh k	+0.1511
-1.4892 kh l	-0.0637
-1.4300 kh m	+0.0919
-1.3923 kh n	+0.0336
-1.4847 kh o	-0.1636
-1.6933 kh p	+0.0641
-2.0090 kh ph	-0.1803
-1.6519 kh r&	+0.1047
-2.2410 kh s	-0.0819
-1.5683 kh sr	+0.0184
-1.7233 kh t	+0.1572
-1.3608 kh tc	+0.0011
-1.9274 kh th	-0.1150
-2.0912 kh thsr	-0.0924
-1.8182 kh ts	+0.0631
-2.0401 kh tsh	-0.1052
-1.6389 kh tsr	+0.0024
-1.2359 kh u	+0.4638
-1.1330 kh w	+0.1559
-1.4937 kh x	+0.0299
-1.9663 kh y	-0.1561
-1.1145 l &	+0.4704
-1.6888 l &r	+0.1467
-1.6421 l >	+0.1216
-1.1784 l @	+0.3755
-1.1542 l A	+0.1927
-2.3422 l C	-0.1417
-1.1927 l E	+0.2950
-2.1458 l I	-0.0217
-1.6687 l N	+0.2745
-2.0717 l cC	+0.0129
-2.4176 l cCh	-0.1102
-1.2838 l e	+0.1842
-2.8251 l f	-0.1679
-1.0583 l i	+0.4150
-1.6179 l ixr	+0.1423
-1.1203 l j	+0.0917
-1.7623 l jw	+0.0047
-1.7262 l k	-0.0301
-1.9664 l kh	+0.0127
-1.8872 l m	-0.0566
-2.0469 l n	-0.0045
-1.3306 l o	-0.0972
-1.7499 l p	+0.0018
-1.9342 l ph	-0.0393
-1.8251 l r&	+0.1573
-2.6332 l s	-0.1478
-1.9042 l sr	-0.0217
-1.5645 l t	-0.1517
-1.8985 l tc	-0.1509
-1.7793 l th	+0.0672
-2.0981 l thsr	+0.0125
-2.3643 l ts	-0.1205
-2.5240 l tsh	-0.0221
-2.1561 l tsr	+0.0016
-1.4592 l u	+0.3107
-1.4740 l w	+0.0064
-1.6426 l x	+0.0999
-1.4938 l y	+0.0373
-1.0248 m &	+0.5407
-1.7216 m &r	+0.0758
-1.1924 m >	+0.2555
-1.1080 m @	+0.1599
-0.9773 m A	+0.0881
-2.4814 m C	-0.0978
-1.6571 m E	+0.0988
-1.9608 m I	-0.1073
-1.4510 m N	+0.4886
-1.9828 m cC	-0.2199
-2.4891 m cCh	-0.1259
-1.1827 m e	+0.0959
-2.9662 m f	-0.2921
-1.4347 m i	+0.2768
-1.8048 m ixr	+0.0264
-1.4766 m j	-0.0907
-2.2782 m jw	-0.0108
-1.7079 m k	+0.1406
-1.9555 m kh	-0.0506
-1.8607 m l	+0.0744
-1.8870 m n	+0.0230
-1.4009 m o	+0.1377
-1.7263 m p	+0.1330
-2.0180 m ph	+0.0071
-1.8279 m r&	+0.2982
-2.7901 m s	-0.1111
-1.9828 m sr	+0.1127
-1.5389 m t	-0.1663
-1.8011 m tc	+0.0417
-1.9055 m th	+0.0688
-1.9885 m thsr	+0.1165
-2.1059 m ts	-0.0782
-2.9150 m tsh	-0.0730
-1.9828 m tsr	+0.1258
-1.2512 m u	+0.4971
-1.3082 m w	-0.0750
-1.6706 m x	-0.1080
-2.0984 m y	+0.0076
-1.5957 n &	+0.2977
-2.2199 n &r	-0.2087
-2.1111 n >	-0.0834
-1.8853 n @	+0.1207
-1.6181 n A	-0.0236
-1.8747 n C	+0.1642
-1.8936 n E	-0.0985
-2.0893 n I	-0.0379
-1.6234 n N	+0.0617
-1.3363 n cC	+0.0586
-2.0960 n cCh	+0.0823
-1.5697 n e	-0.2115
-2.1463 n f	-0.0325
-1.1008 n i	+0.3484
-1.7063 n ixr	-0.1118
-1.4011 n j	-0.2656
-1.7408 n jw	+0.0035
-1.4236 n k	+0.2279
-1.8230 n kh	+0.0376
-1.4164 n l	+0.0227
-1.0926 n m	-0.0196
-1.7592 n o	+0.1366
-1.4323 n p	+0.0999
-2.0214 n ph	-0.0033
-1.7203 n r&	+0.2368
-2.2687 n s	-0.0640
-1.5500 n sr	+0.0224
-1.6234 n t	+0.2020
-0.9398 n tc	+0.3612
-1.6542 n th	+0.0875
-1.8453 n thsr	+0.0061
-1.8340 n ts	+0.0351
-2.3224 n tsh	-0.1312
-1.6327 n tsr	+0.3626
-1.5042 n u	+0.3070
-1.6211 n w	+0.1338
-1.5925 n x	+0.1347
-1.5519 n y	+0.3656
-1.7664 o &	+0.1864
-2.1727 o &r	-0.0163
-1.0644 o >	+0.1125
-2.0761 o @	-0.1204
-1.6047 o A	+0.1267
-2.1266 o C	-0.1046
-2.1882 o E	-0.0131
-2.3643 o I	-0.1081
-0.9883 o N	+0.8423
-1.6363 o cC	-0.1014
-2.2879 o cCh	-0.0579
-1.8398 o e	+0.1127
-2.1261 o f	+0.0125
-1.8550 o i	-0.1176
-2.2478 o ixr	-0.3338
-1.7499 o j	+0.2798
-2.5489 o jw	-0.1281
-1.5834 o k	-0.0536
-2.0085 o kh	-0.1290
-1.4530 o l	-0.3353
-1.2303 o m	-0.0975
-1.7379 o n	+0.1924
-1.8299 o p	-0.0646
-2.2879 o ph	-0.0656
-1.7379 o r&	+0.0397
-2.2608 o s	-0.1713
-1.5051 o sr	+0.1287
-2.2742 o t	-0.0695
-1.2206 o tc	+0.1391
-2.0469 o th	-0.0149
-2.1995 o thsr	-0.1421
-2.3321 o ts	+0.0769
-2.7793 o tsh	-0.0875
-1.8299 o tsr	-0.0226
-1.0012 o u	+0.4229
-0.8530 o w	-0.0199
-1.1708 o x	-0.0571
-2.2608 o y	-0.0935
-1.0186 p &	+0.3744
-1.6258 p &r	-0.1449
-1.1467 p >	+0.3581
-1.1121 p @	-0.0857
-1.0817 p A	-0.1250
-2.3189 p C	-0.1203
-1.5733 p E	-0.1101
-2.0478 p I	-0.0763
-1.6142 p N	+0.0077
-2.1728 p cC	+0.0673
-2.6499 p cCh	-0.1917
-1.4104 p e	+0.0509
-2.8418 p f	-0.0773
-1.2909 p i	+0.2126
-1.6113 p ixr	+0.0908
-1.3711 p j	+0.0915
-2.0884 p jw	-0.1096
-2.0636 p k	+0.0936
-2.0401 p kh	-0.0222
-1.8769 p l	+0.0117
-1.8418 p m	+0.0866
-1.8717 p n	+0.0681
-1.4104 p o	+0.0478
-2.3189 p ph	-0.2994
-1.8984 p r&	+0.1920
-3.1014 p s
-1.8275 p sr	+0.1961
-2.1428 p t	-0.1320
-1.5630 p tc	+0.0575
-2.1148 p th	-0.0954
-2.3981 p thsr	-0.1532
-2.6199 p ts	-0.0610
-2.4158 p tsr	-0.0872
-0.8651 p u	+0.6666
-1.2495 p w	-0.0969
-1.8229 p x	+0.1827
-1.7586 p y	+0.0050
-1.5163 ph &	-0.0586
-1.7573 ph &r	-0.1544
-1.2849 ph >	+0.0609
-1.5411 ph @	+0.1169
-1.1518 ph A	+0.0193
-2.2487 ph C	-0.2230
-1.7172 ph E	-0.3851
-2.1695 ph I	-0.1555
-1.2113 ph N	-0.0396
-1.6805 ph cC	+0.0858
-1.8016 ph cCh	-0.1602
-1.7863 ph e	+0.0237
-2.4918 ph f	-0.1007
-1.3456 ph i	-0.0784
-1.7172 ph ixr	-0.0215
-1.4494 ph j	-0.0442
-1.7716 ph jw	-0.2036
-1.6466 ph k	-0.0241
-1.9063 ph kh	-0.0463
-1.5955 ph l	+0.0006
-1.5005 ph m	-0.1030
-1.6152 ph n	-0.0466
-1.5327 ph o	-0.1161
-1.7046 ph p	-0.0824
-1.7573 ph r&	-0.1197
-2.1026 ph s	-0.1125
-1.5163 ph sr	-0.1538
-2.2073 ph t	-0.0577
-1.5327 ph tc	-0.0001
-1.7716 ph th	-0.1348
-1.8016 ph thsr	-0.0733
-2.1348 ph ts	-0.1693
-2.1695 ph tsh	-0.0542
-1.7046 ph tsr	-0.1000
-1.2993 ph u	-0.0204
-1.0132 ph w	+0.1749
-1.3511 ph x	+0.1516
-1.7046 ph y	-0.0002
-1.0627 r& &	+0.0735
-1.5355 r& &r	-0.0396
-1.7010 r& >	+0.0320
-1.2680 r& @	-0.0753
-1.1069 r& A	-0.0877
-2.3094 r& C	-0.1270
-1.0730 r& E	-0.0050
-1.9716 r& I	-0.1722
-1.3412 r& N	-0.0011
-1.9835 r& cC	+0.1780
-2.2611 r& cCh	-0.0740
-1.5312 r& e	+0.0715
-2.7047 r& f	-0.0697
-1.5808 r& i	-0.1156
-1.4606 r& ixr	-0.0449
-1.4754 r& j	-0.0603
-2.2388 r& jw	-0.0994
-1.7405 r& k	+0.1651
-1.8964 r& kh	-0.0471
-1.5856 r& l	-0.0710
-1.7073 r& m	-0.0758
-1.6003 r& n	+0.0707
-1.0613 r& o	-0.2776
-1.9166 r& p	+0.1072
-2.0347 r& ph	-0.1290
-2.4984 r& s	-0.1365
-1.6886 r& sr	-0.0049
-2.0927 r& t	-0.0008
-1.8074 r& tc	+0.0104
-1.8156 r& th	-0.1400
-2.0774 r& thsr	-0.0476
-2.1974 r& ts	-0.0854
-2.4259 r& tsh	-0.0537
-1.8964 r& tsr	-0.1227
-1.3637 r& u	+0.1426
-1.3384 r& w	-0.0140
-1.4945 r& x	+0.1749
-1.8409 r& y	+0.0041
-1.0681 s &	+0.1033
-1.7902 s &r	-0.1041
-1.7709 s >	-0.2238
-1.4513 s @	-0.0082
-1.6412 s A	+0.0829
-1.9865 s C	-0.0417
-2.2975 s E	-0.0132
-1.6011 s I	-0.0981
-1.5763 s N	-0.0135
-1.5305 s cC	-0.1114
-1.6702 s cCh	-0.2550
-1.5885 s e	-0.0579
-1.9865 s f	-0.1210
-1.8104 s i	+0.0238
-1.4083 s ixr	-0.0801
-1.8104 s j	-0.1605
-2.0912 s jw	-0.0649
-1.2875 s k	+0.0731
-1.6141 s kh	-0.0695
-1.7902 s l	-0.1945
-1.6854 s m	-0.1013
-1.5093 s n	-0.0606
-1.6011 s o	+0.0461
-1.3692 s p	+0.0650
-2.0186 s ph	-0.0688
-2.0186 s r&	-0.1011
-1.7176 s sr	-0.1265
-1.3264 s t	-0.0466
-1.4002 s tc	-0.0611
-1.8104 s th	-0.1280
-1.7709 s thsr	-0.1160
-1.6854 s ts	-0.0055
-2.0534 s tsh	-0.0403
-1.5198 s tsr	+0.0428
-1.2295 s u	-0.0654
-1.1931 s w	-0.1154
-1.4991 s x	-0.1340
-2.1326 s y	+0.0059
-1.3179 sr &	-0.0868
-2.0990 sr &r	-0.0339
-2.1533 sr >	-0.1977
-1.9525 sr @	-0.0413
-1.8102 sr A	-0.0954
-2.1656 sr C	-0.0694
-1.8415 sr E	+0.0862
-1.8820 sr I	-0.0647
-1.7851 sr N	+0.1202
-1.4461 sr cC	+0.1184
-1.7966 sr cCh	-0.0113
-1.8635 sr e	+0.3321
-1.9650 sr f	-0.2473
-1.6179 sr i	+0.2306
-0.9169 sr ixr	+0.3100
-1.4766 sr j	-0.0231
-1.8915 sr jw	-0.0457
-1.4209 sr k	+0.0968
-1.7776 sr kh	+0.1241
-1.8681 sr l	+0.1071
-1.5256 sr m	-0.2882
-1.4242 sr n	+0.2099
-1.4064 sr o	-0.1634
-1.4193 sr p	-0.0950
-1.9707 sr ph	-0.0485
-1.8246 sr r&	-0.1763
-2.1215 sr s	-0.1155
-1.6363 sr t	+0.0359
-1.4478 sr tc	+0.1770
-1.9063 sr th	+0.1170
-1.6997 sr thsr	-0.0309
-1.8773 sr ts	-0.2277
-2.0824 sr tsh	-0.0228
-1.4291 sr tsr	-0.3498
-1.2649 sr u	+0.3729
-1.1945 sr w	-0.1689
-1.5383 sr x	+0.0843
-1.3940 sr y	-0.0448
-1.0386 t &	+0.0353
-1.4455 t &r	+0.0535
-1.6432 t >	+0.1105
-1.0716 t @	+0.1467
-0.8394 t A	+0.2544
-2.4935 t C	-0.1600
-1.2504 t E	+0.0477
-2.2302 t I	-0.1334
-1.3823 t N	+0.2520
-2.2716 t cC	+0.0117
-2.8158 t cCh
-1.8566 t e	-0.1369
-2.7375 t f
-1.5312 t i	-0.0468
-1.9099 t ixr	-0.1016
-1.3150 t j	+0.0303
-2.4587 t jw	-0.0448
-2.2109 t k	-0.0450
-2.2109 t kh	-0.2142
-1.6976 t l	-0.0207
-1.8018 t m	-0.1037
-1.5312 t n	+0.0254
-1.1799 t o	-0.3111
-2.1413 t p	-0.0596
-2.4265 t ph	-0.1237
-1.9816 t r&	-0.0935
-2.5726 t s	-0.1669
-2.0163 t sr	-0.0502
-1.4935 t tc	-0.1114
-2.2302 t th	-0.2011
-2.3685 t thsr	-0.0561
-2.8780 t ts	-0.1615
-3.3269 t tsh	-0.7416
-2.5726 t tsr	-0.0606
-1.3712 t u	+0.3603
-1.0661 t w	+0.1406
-1.4359 t x	-0.1494
-2.0955 t y	+0.0227
-2.1593 tc &	-0.0564
-2.4512 tc &r	+0.0764
-2.5450 tc >	-0.0401
-2.3408 tc @	+0.0030
-2.5828 tc A	+0.2460
-2.0454 tc C	+0.0442
-2.8387 tc E	-0.2183
-2.3937 tc I	+0.0766
-2.3882 tc N	-0.0218
-0.9283 tc cC	-0.3120
-1.8030 tc cCh	+0.5510
-2.0094 tc e	+0.0941
-2.2066 tc f	-0.4302
-1.9805 tc i	+0.1204
-1.9494 tc ixr	+0.2175
-1.9434 tc j	-0.1014
-2.3773 tc jw	-0.0653
-0.9494 tc k	+0.5743
-1.4533 tc kh	+0.1504
-2.0790 tc l	-0.1326
-1.8279 tc m	+0.4094
-1.9848 tc n	+0.2424
-2.4865 tc o	+0.1194
-0.7782 tc p	+0.2158
-1.8984 tc ph	+0.6107
-2.0554 tc r&	+0.2148
-2.1185 tc s	-0.1090
-1.6231 tc sr	-0.0251
-0.9960 tc t	+0.7940
-1.6336 tc th	+0.2416
-1.7212 tc thsr	+0.5525
-1.2802 tc ts	+1.2105
-1.8931 tc tsh	+0.2457
-1.0140 tc tsr	+0.5580
-1.8529 tc u	+0.1481
-1.5851 tc w	-0.1898
-1.7543 tc x	-0.0352
-2.2524 tc y	+0.1742
-1.4050 th &	+0.1297
-1.7002 th &r	-0.0739
-1.7934 th >	-0.0469
-1.3127 th @	-0.0346
-1.1268 th A	+0.2651
-2.1970 th C	-0.0661
-1.6058 th E	+0.0327
-2.1870 th I	-0.0279
-1.3229 th N	+0.1626
-1.5987 th cC	+0.0301
-2.3497 th cCh	-0.1180
-1.6587 th e	+0.1907
-2.3911 th f	-0.1458
-1.4466 th i	+0.1672
-1.5338 th ixr	-0.0616
-1.3577 th j	-0.0219
-1.7679 th jw	-0.1159
-1.5338 th k	+0.1610
-1.7891 th kh	-0.0838
-1.6352 th l	+0.0255
-1.4088 th m	+0.0152
-1.2772 th n	+0.0311
-1.4826 th o	+0.0599
-1.8000 th p	-0.0453
-1.9932 th ph	-0.2775
-1.7576 th r&	-0.0747
-2.0689 th s	-0.1834
-1.5046 th sr	-0.0245
-2.2150 th t	-0.1543
-1.2705 th tc	-0.1081
-1.9287 th thsr	-0.1072
-2.2772 th ts	-0.1475
-2.3497 th tsh	-0.1171
-1.8470 th tsr	-0.0235
-1.3083 th u	-0.0277
-1.2907 th w	+0.1467
-1.5219 th x	+0.1936
-1.6835 th y	-0.0196
-1.3321 thsr &	-0.0886
-1.6029 thsr &r	-0.1005
-1.8939 thsr >	-0.1330
-1.3488 thsr @	-0.1803
-1.0976 thsr A	-0.0316
-2.3038 thsr C	-0.1466
-1.6603 thsr E	-0.0743
-1.8788 thsr I	-0.0164
-1.2004 thsr N	+0.0005
-1.7887 thsr cC	+0.0153
-2.1477 thsr cCh
-2.0897 thsr e	-0.0239
-2.1799 thsr f	-0.0278
-1.7753 thsr i	-0.0782
-1.4677 thsr ixr	-0.0121
-1.7375 thsr j	-0.0486
-2.3396 thsr jw	+0.0331
-1.4425 thsr k	+0.1594
-1.7753 thsr kh	-0.1692
-1.6917 thsr l	-0.0705
-1.5085 thsr m	+0.0152
-1.3853 thsr n	+0.0524
-1.2219 thsr o	-0.1463
-1.8959 thsr p	-0.0493
-1.9514 thsr ph	-0.1182
-1.6810 thsr r&	-0.1664
-2.0151 thsr s	-0.1294
-1.6126 thsr sr	-0.0379
-2.0897 thsr t	-0.1047
-1.4017 thsr tc	-0.0749
-1.8959 thsr th	-0.1576
-2.2938 thsr ts	-0.0222
-2.2938 thsr tsh	-0.0628
-1.8624 thsr tsr	-0.0373
-1.1969 thsr u	+0.1506
-1.1035 thsr w	+0.1674
-1.3907 thsr x	-0.0819
-1.9136 thsr y	-0.2529
-0.7607 ts &	-0.0078
-1.5411 ts &r	+0.0010
-1.5411 ts >	-0.0789
-0.9156 ts @	-0.0285
-1.2299 ts A	+0.0338
-2.6458 ts C
-1.2366 ts E	+0.1820
-1.6970 ts I	-0.1564
-1.7722 ts N	-0.0762
-2.5054 ts cC
-2.5054 ts cCh
-1.4110 ts e	+0.0914
-2.7535 ts f	-0.1695
-1.9425 ts i	-0.0355
-1.3582 ts ixr	+0.0183
-1.6872 ts j	-0.0676
-2.5836 ts jw
-2.0182 ts k	-0.0303
-2.1100 ts kh	-0.0544
-1.8780 ts l	-0.0851
-1.9425 ts m	-0.1427
-1.7384 ts n	-0.0235
-1.1363 ts o	-0.2218
-1.9787 ts p	+0.0087
-2.2265 ts ph	-0.1013
-1.9255 ts r&	-0.0640
-2.1644 ts sr	-0.1935
-2.1943 ts t	-0.1123
-1.7964 ts tc	+0.0249
-2.0394 ts th	-0.1220
-2.3862 ts thsr	-0.0595
-2.3862 ts tsr	-0.0692
-1.1336 ts u	-0.0815
-1.2366 ts w	-0.1664
-1.7070 ts x	-0.0003
-2.2613 ts y	-0.0533
-1.2177 tsh &	-0.0477
-1.8789 tsh &r	-0.0876
-1.7276 tsh >	-0.1254
-1.4810 tsh @	+0.0422
-1.4810 tsh A	+0.1471
-2.2635 tsh C
-1.7820 tsh E	-0.1375
-1.6359 tsh I	-0.0212
-1.4667 tsh N	-0.0295
-1.6157 tsh cC	-0.0613
-1.9581 tsh cCh	-0.1295
-1.6793 tsh e	+0.0361
-1.9167 tsh f	-0.0558
-1.6793 tsh i	-0.0305
-1.3453 tsh ixr	-0.0515
-1.5964 tsh j	-0.1243
-2.3711 tsh jw
-1.4018 tsh k	-0.0430
-1.6359 tsh kh	-0.0994
-1.6571 tsh l	-0.0669
-1.5431 tsh m	-0.0358
-1.4529 tsh n	-0.1451
-1.2679 tsh o	+0.0808
-1.5267 tsh p	-0.0985
-1.8441 tsh ph	-0.1058
-1.8789 tsh r&	-0.1103
-1.7820 tsh s	-0.1863
-1.5964 tsh sr	-0.2503
-1.6359 tsh t	-0.1027
-1.5431 tsh tc	-0.0475
-2.0038 tsh th
-2.1230 tsh thsr	-0.0812
-2.1230 tsh ts
-1.7820 tsh tsr	-0.1395
-1.2022 tsh u	-0.0734
-1.0186 tsh w	-0.0036
-1.4810 tsh x	-0.0113
-1.9581 tsh y	+0.0305
-1.0318 tsr &	-0.0540
-1.8259 tsr &r	-0.0423
-1.9987 tsr >	-0.1512
-1.5692 tsr @	+0.1509
-1.2079 tsr A	-0.3234
-2.4759 tsr C	-0.3784
-1.3277 tsr E	+0.1003
-1.8526 tsr I	-0.1207
-1.7329 tsr N	+0.0368
-2.1334 tsr cC	-0.1293
-2.5728 tsr cCh	-0.0524
-1.4966 tsr e	+0.0259
-2.4478 tsr f	-0.0207
-1.4966 tsr i	-0.1628
-1.0085 tsr ixr	+0.5707
-1.3709 tsr j	-0.1196
-2.0392 tsr jw	-0.0124
-1.8131 tsr k	+0.1115
-2.0287 tsr kh	-0.1459
-1.8458 tsr l	+0.0957
-1.6476 tsr m	-0.1901
-1.4561 tsr n	+0.1053
-1.0543 tsr o	-0.0699
-1.9444 tsr p	+0.1340
-2.3095 tsr ph	-0.0774
-1.7711 tsr r&	-0.1519
-3.0650 tsr s	-0.2140
-1.9196 tsr sr	-0.0539
-2.0499 tsr t	+0.0069
-1.4588 tsr tc	+0.2066
-2.2717 tsr th	-0.1273
-2.1334 tsr thsr	-0.1249
-2.2717 tsr ts	+0.0294
-2.8951 tsr tsh
-1.1295 tsr u	+0.1042
-1.2387 tsr w	-0.2428
-1.6027 tsr x	-0.0147
-1.4906 tsr y	+0.1668
-2.0101 u &	-0.0811
-2.4214 u &r	-0.1295
-1.7922 u >	+0.0518
-2.3594 u @	+0.2059
-2.0994 u A	+0.1090
-1.6344 u C	+0.1731
-2.2157 u E	-0.0875
-2.3918 u I	-0.0413
-1.6094 u N	+0.3570
-1.6514 u cC	+0.1676
-2.1171 u cCh	-0.0242
-1.9990 u e	+0.1353
-2.0599 u f	+0.0846
-1.5448 u i	+0.1346
-1.8477 u ixr	-0.1352
-1.6288 u j	+0.3703
-1.8898 u jw	-0.1647
-1.5928 u k	+0.4018
-1.7472 u kh	+0.2401
-1.3918 u l	+0.1318
-1.2959 u m	-0.0402
-1.4623 u n	+0.1275
-1.7865 u o	+0.1520
-1.6561 u p	+0.2133
-1.8551 u ph	+0.1622
-1.5359 u r&	+0.1800
-1.8551 u s	+0.1133
-0.9680 u sr	+0.1029
-2.3105 u t	+0.0409
-0.6601 u tc	-0.1925
-1.8194 u th	+0.6011
-1.9021 u thsr	+0.1185
-2.2511 u ts	+0.0621
-2.2605 u tsh	-0.0164
-1.5653 u tsr	+0.3107
-1.4730 u w	+0.0525
-1.2624 u x	+0.0350
-1.7191 u y	+0.1312
-1.4872 w &	+0.1163
-1.7096 w &r	+0.2838
-0.9512 w >	+0.2907
-1.3050 w @	+0.1859
-1.3720 w A	+0.2843
-1.9302 w C	+0.1473
-1.9202 w E	-0.0539
-2.4711 w I	-0.1293
-1.5318 w N	+0.4750
-1.8875 w cC	+0.0137
-2.3553 w cCh	-0.0186
-1.5011 w e	+0.2509
-2.1823 w f	-0.0078
-1.7626 w i	+0.1003
-2.1701 w ixr	+0.0198
-1.6752 w j	+0.1099
-2.3372 w jw	+0.0915
-1.6312 w k	+0.5230
-1.7555 w kh	+0.3909
-1.4397 w l	+0.0388
-1.4557 w m	+0.1261
-1.6107 w n	+0.0624
-1.7011 w o	-0.0010
-1.8875 w p	+0.0809
-2.0231 w ph	-0.1840
-1.5802 w r&	+0.3311
-2.1031 w s	+0.0364
-1.3571 w sr	+0.1974
-2.2715 w t	+0.0154
-0.8455 w tc	+0.4424
-2.0543 w th	-0.0445
-2.1701 w thsr	-0.0683
-2.2492 w ts	+0.0994
-2.4253 w tsh	-0.0944
-1.9101 w tsr	-0.0397
-1.1599 w u	+0.2638
-1.2998 w x	+0.4777
-2.0829 w y	+0.0340
-1.4419 x &	+0.1147
-1.7729 x &r	+0.0600
-1.1555 x >	+0.1342
-1.5065 x @	-0.0015
-1.1511 x A	+0.1368
-2.3029 x C	-0.1097
-2.1909 x E	-0.1313
-1.8849 x I	+0.0928
-1.3165 x N	+0.0797
-1.5502 x cC	+0.2266
-2.1254 x cCh	-0.0313
-1.9552 x e	-0.1081
-2.1909 x f	+0.1257
-1.8849 x i	+0.0580
-1.8701 x ixr	+0.0020
-1.9671 x j	+0.0406
-2.4820 x jw	+0.0291
-1.3152 x k	+0.2224
-1.6313 x kh	+0.0658
-1.7452 x l	-0.0758
-1.5190 x m	-0.0547
-1.6783 x n	+0.3491
-1.4820 x o	-0.2534
-1.3516 x p	+0.2133
-2.0320 x ph	-0.2877
-1.9268 x r&	+0.0786
-2.2681 x s	-0.1770
-1.8032 x sr	+0.0557
-1.8421 x t	+0.0514
-1.5084 x tc	+0.1101
-2.0320 x th	-0.0036
-2.0391 x thsr	-0.0810
-1.8750 x ts	+0.0650
-2.3772 x tsh	-0.1968
-1.7172 x tsr	-0.0425
-1.0896 x u	+0.5670
-0.8261 x w	-0.2493
-2.3059 x y	-0.0164
-1.8948 y &	+0.0125
-2.5137 y &r	+0.0093
-2.2748 y >	-0.0215
-2.6397 y @	-0.1337
-2.4806 y A	-0.0377
-1.5800 y C	+0.0160
-1.7603 y E	+0.0546
-2.4593 y I	-0.2932
-1.4778 y N	+0.0138
-1.5256 y cC	-0.0890
-2.0761 y cCh	-0.2279
-2.1071 y e	+0.0696
-2.0333 y f	-0.0888
-1.5091 y i	-0.1098
-1.7323 y ixr	-0.0051
-1.4450 y j	+0.2629
-1.9050 y jw	+0.0699
-1.5989 y k	+0.1424
-1.9257 y kh	-0.0316
-1.4593 y l	-0.0593
-1.3183 y m	-0.0485
-1.3055 y n	+0.2473
-1.4450 y o	-0.0835
-1.7391 y p	+0.1193
-1.9702 y ph	-0.0571
-1.6300 y r&	+0.0302
-2.0471 y s	-0.1573
-1.0401 y sr	+0.2871
-2.1405 y t	-0.2257
-0.6542 y tc	+0.2483
-2.0471 y th	-0.0973
-1.9587 y thsr	-0.0937
-2.0761 y ts	+0.0623
-2.3343 y tsh	-0.0715
-1.7255 y tsr	-0.0081
-1.6408 y u	-0.0653
-1.5794 y w	+0.0513
-1.3080 y x	+0.0101

\3-grams:
-1.3384 & &r >
-1.3384 & &r A
-1.3384 & &r N
-1.3384 & &r l
-1.2318 & &r m
-1.3384 & &r n
-1.2318 & &r sr
-1.3384 & &r tc
-1.3384 & &r u
-1.1399 & &r x
-1.2872 & > C
-1.2872 & > N
-1.2872 & > l
-1.2872 & > m
-1.0887 & > sr
-1.1807 & > tc
-1.2872 & > tsr
-1.0887 & > u
-1.2872 & > x
-1.0557 & @ N
-1.1623 & @ j
-1.0557 & @ m
-0.5819 & @ n
-1.1623 & @ tc
-1.4053 & A &r
-0.8249 & A N
-1.4053 & A cC
-1.2988 & A k
-1.2988 & A s
-1.4053 & A sr
-1.2068 & A tc
-1.2988 & A w
-1.2068 & A x
-1.8166 & C @
-1.9085 & C E
-1.9085 & C N
-1.2788 & C cC
-2.0151 & C cCh
-2.0151 & C f
-1.0289 & C i
-1.2330 & C ixr
-1.3299 & C j
-1.6680 & C jw
-1.3299 & C k
-2.0151 & C kh
-1.4347 & C m
-1.3299 & C n
-1.6045 & C p
-1.9085 & C ph
-1.9085 & C r&
-1.9085 & C s
-1.6680 & C sr
-1.8166 & C t
-1.0869 & C tc
-1.8166 & C th
-2.0151 & C thsr
-2.0151 & C ts
-2.0151 & C tsh
-1.1916 & C tsr
-1.8166 & C u
-1.9085 & C w
-1.8166 & C x
-1.2788 & C y
-1.0373 & E N
-1.1438 & E l
-0.9453 & E n
-0.9453 & E tc
-1.0373 & E w
-1.3503 & I cC
-1.3503 & I l
-1.2437 & I m
-1.3503 & I sr
-0.4543 & I tc
-1.3503 & I y
-2.1887 & N &
-2.2953 & N &r
-2.1887 & N A
-1.6101 & N C
-2.2953 & N I
-1.4718 & N cC
-1.5132 & N f
-1.4340 & N i
-2.0968 & N ixr
-1.6101 & N j
-1.3993 & N k
-1.9482 & N kh
-1.3993 & N l
-1.0819 & N m
-1.5590 & N n
-1.4718 & N p
-2.2953 & N ph
-1.9482 & N r&
-1.9482 & N s
-1.0982 & N sr
-1.9482 & N t
-0.6267 & N tc
-1.6101 & N th
-1.9482 & N thsr
-2.0968 & N ts
-2.1887 & N tsh
-1.5590 & N tsr
-1.8848 & N u
-1.8848 & N w
-1.3993 & N x
-2.1887 & N y
-1.8032 & cC A
-1.1181 & cC E
-1.6047 & cC N
-1.6967 & cC e
-1.0212 & cC i
-1.1181 & cC ixr
-0.7907 & cC j
-1.6047 & cC jw
-1.6047 & cC k
-1.6967 & cC l
-1.6967 & cC n
-1.6967 & cC o
-1.8032 & cC r&
-1.6967 & cC tc
-1.8032 & cC thsr
-1.8032 & cC tsh
-1.6047 & cC u
-1.8032 & cC w
-1.8032 & cC x
-0.9798 & cC y
-1.3006 & cCh E
-1.3006 & cCh i
-1.3006 & cCh ixr
-1.3006 & cCh jw
-1.1021 & cCh m
-1.1940 & cCh sr
-1.3006 & cCh tc
-1.3006 & cCh x
-1.1940 & cCh y
-1.2776 & e &
-1.1856 & e N
-0.9736 & e i
-1.3841 & e ixr
-1.1856 & e j
-1.1856 & e jw
-1.2776 & e n
-1.3841 & e r&
-1.3841 & e thsr
-1.3841 & e u
-1.1856 & e y
-0.7494 & f &
-1.5388 & f &r
-1.2983 & f >
-1.2349 & f @
-1.2349 & f A
-1.5388 & f e
-1.6454 & f i
-1.5388 & f ixr
-1.6454 & f l
-1.4469 & f o
-1.5388 & f t
-1.6454 & f tc
-1.6454 & f thsr
-1.5388 & f tsr
-1.6454 & f u
-1.4469 & f w
-1.4372 & i C
-2.0176 & i E
-1.6071 & i N
-1.2355 & i cC
-1.9111 & i ixr
-1.8191 & i j
-1.8191 & i jw
-1.6705 & i k
-1.6071 & i kh
-1.2813 & i l
-1.6705 & i m
-1.0594 & i n
-1.4372 & i o
-1.9111 & i p
-1.9111 & i r&
-2.0176 & i s
-1.4372 & i sr
-2.0176 & i t
-0.6227 & i tc
-1.9111 & i th
-1.8191 & i thsr
-2.0176 & i ts
-2.0176 & i tsh
-2.0176 & i tsr
-1.8191 & i u
-1.6071 & i x
-1.6705 & i y
-1.5529 & ixr C
-1.4464 & ixr N
-1.4464 & ixr i
-1.4464 & ixr j
-1.1424 & ixr m
-1.4464 & ixr o
-1.5529 & ixr ph
-1.5529 & ixr r&
-1.4464 & ixr sr
-0.4698 & ixr tc
-1.5529 & ixr th
-1.5529 & ixr tsr
-2.1001 & j @
-2.1001 & j A
-1.3638 & j C
-1.9936 & j E
-1.6896 & j N
-1.6896 & j cC
-1.9016 & j e
-2.1001 & j f
-1.9016 & j i
-1.4150 & j ixr
-1.3638 & j k
-1.2041 & j l
-1.6896 & j m
-1.7530 & j n
-1.5198 & j o
-1.7530 & j p
-2.1001 & j ph
-1.9936 & j r&
-1.4150 & j sr
-0.4316 & j tc
-1.9936 & j u
-1.7530 & j w
-1.4150 & j x
-2.1001 & j y
-1.1709 & jw &
-1.5814 & jw &r
-1.5814 & jw A
-0.6854 & jw E
-1.4749 & jw e
-1.4749 & jw i
-1.0010 & jw j
-1.5814 & jw k
-1.5814 & jw o
-1.5814 & jw sr
-1.5814 & jw u
-1.5814 & jw x
-1.1709 & jw y
-1.1362 & k &
-1.5181 & k &r
-1.3695 & k >
-1.3695 & k @
-1.7166 & k A
-1.6100 & k E
-1.7166 & k e
-1.5181 & k i
-1.3060 & k j
-1.7166 & k kh
-1.7166 & k m
-1.3695 & k o
-1.7166 & k p
-1.3060 & k tc
-0.8553 & k u
-1.3060 & k w
-1.3060 & k x
-1.4542 & kh &r
-1.4542 & kh >
-1.1071 & kh @
-1.3476 & kh A
-1.4542 & kh C
-1.3476 & kh N
-1.3476 & kh m
-1.4542 & kh o
-1.3476 & kh t
-1.4542 & kh tc
-1.3476 & kh tsr
-1.0436 & kh u
-1.4542 & kh w
-0.9279 & l &
-1.6638 & l &r
-1.6638 & l >
-1.0740 & l @
-1.2958 & l A
-2.2936 & l C
-1.2563 & l E
-2.4001 & l I
-2.2016 & l N
-2.4001 & l cC
-2.4001 & l cCh
-1.2756 & l e
-0.9648 & l i
-1.5389 & l ixr
-1.1409 & l j
-2.0530 & l jw
-1.5767 & l k
-2.0530 & l kh
-2.0530 & l m
-2.4001 & l n
-1.4139 & l o
-1.7150 & l p
-2.2016 & l ph
-1.9896 & l r&
-2.2936 & l s
-2.4001 & l sr
-1.5767 & l t
-1.8197 & l tc
-1.8197 & l th
-2.2016 & l thsr
-2.4001 & l ts
-2.2936 & l tsh
-2.2936 & l tsr
-1.3628 & l u
-1.6638 & l w
-2.2936 & l x
-1.5767 & l y
-0.8912 & m &
-1.9326 & m &r
-1.1825 & m >
-1.0875 & m @
-1.0032 & m A
-1.7943 & m E
-2.2072 & m I
-1.3733 & m N
-2.4192 & m cC
-2.6177 & m cCh
-1.1636 & m e
-1.5347 & m i
-1.7565 & m ixr
-1.6896 & m j
-1.6316 & m k
-2.2072 & m kh
-1.8357 & m l
-1.8814 & m n
-1.4378 & m o
-1.6052 & m p
-2.4192 & m ph
-1.6316 & m r&
-2.2072 & m sr
-1.3586 & m t
-1.7217 & m tc
-2.0374 & m th
-2.5112 & m thsr
-2.0374 & m ts
-2.2072 & m tsr
-1.2229 & m u
-1.2022 & m w
-1.6896 & m x
-2.4192 & m y
-1.6077 & n &
-2.4700 & n &r
-2.5620 & n @
-1.5855 & n A
-1.8865 & n C
-1.8865 & n E
-2.3215 & n I
-1.7404 & n N
-1.3183 & n cC
-2.0882 & n cCh
-1.4551 & n e
-1.9834 & n f
-1.1083 & n i
-1.7404 & n ixr
-1.3302 & n j
-1.6824 & n jw
-1.4886 & n k
-1.7104 & n kh
-1.4551 & n l
-1.0414 & n m
-1.8451 & n o
-1.4551 & n p
-1.8865 & n ph
-1.6077 & n r&
-2.3215 & n s
-1.6824 & n sr
-1.7404 & n t
-0.8909 & n tc
-1.6560 & n th
-1.8073 & n thsr
-1.8865 & n ts
-2.3215 & n tsh
-1.6077 & n tsr
-1.5063 & n u
-1.5855 & n w
-1.8451 & n x
-1.5643 & n y
-1.6346 & o &
-1.7411 & o >
-1.5426 & o N
-1.0560 & o cC
-1.3306 & o k
-1.6346 & o kh
-1.5426 & o l
-1.3306 & o m
-1.3940 & o p
-1.3940 & o sr
-1.7411 & o t
-1.0048 & o tc
-1.7411 & o thsr
-1.7411 & o tsr
-1.0560 & o u
-1.3940 & o w
-1.3306 & o x
-0.8893 & p &
-1.5745 & p &r
-1.4679 & p >
-1.5745 & p @
-1.4679 & p A
-1.5745 & p e
-1.3759 & p i
-1.4679 & p ixr
-1.4679 & p j
-1.4679 & p kh
-1.5745 & p o
-1.5745 & p tc
-0.7924 & p u
-1.3759 & p w
-1.4679 & p x
-1.5745 & p y
-1.2170 & ph >
-1.4155 & ph A
-1.3090 & ph N
-1.4155 & ph cC
-1.4155 & ph e
-1.4155 & ph j
-1.4155 & ph o
-1.4155 & ph s
-1.4155 & ph tsr
-1.2170 & ph u
-0.8352 & ph w
-1.0447 & r& &
-1.7074 & r& >
-1.9059 & r& @
-1.5588 & r& A
-1.2208 & r& E
-1.9059 & r& I
-1.1239 & r& N
-1.7994 & r& e
-1.4954 & r& i
-1.5588 & r& ixr
-1.2208 & r& j
-1.5588 & r& k
-1.9059 & r& l
-1.7994 & r& m
-1.7994 & r& n
-1.1239 & r& o
-1.7994 & r& p
-1.9059 & r& sr
-1.7074 & r& tc
-1.9059 & r& tsh
-1.1239 & r& u
-1.4954 & r& w
-1.5588 & r& x
-1.7994 & r& y
-1.0142 & s &
-1.5520 & s >
-1.7505 & s A
-1.7505 & s I
-1.6440 & s N
-1.7505 & s e
-1.7505 & s ixr
-1.7505 & s j
-1.4035 & s k
-1.7505 & s kh
-1.3400 & s m
-1.3400 & s n
-1.6440 & s o
-1.3400 & s p
-1.6440 & s t
-1.3400 & s tc
-1.7505 & s thsr
-1.6440 & s ts
-1.1702 & s tsr
-1.5520 & s u
-1.3400 & s w
-1.6440 & s x
-1.2199 & sr &
-2.4333 & sr &r
-2.0863 & sr @
-1.8530 & sr A
-2.3268 & sr E
-1.7482 & sr I
-1.7482 & sr N
-1.4752 & sr cC
-1.8530 & sr cCh
-2.0228 & sr e
-2.0228 & sr f
-1.8530 & sr i
-0.9189 & sr ixr
-1.6099 & sr j
-2.2348 & sr jw
-1.4472 & sr k
-1.6513 & sr kh
-2.0863 & sr l
-1.5373 & sr m
-1.4752 & sr n
-1.5051 & sr o
-1.3502 & sr p
-2.0863 & sr ph
-1.8530 & sr r&
-2.0863 & sr s
-1.7482 & sr t
-1.3725 & sr tc
-2.0228 & sr th
-2.0863 & sr thsr
-1.7482 & sr ts
-2.3268 & sr tsh
-1.5051 & sr tsr
-1.2041 & sr u
-1.1461 & sr w
-1.4208 & sr x
-1.2711 & sr y
-1.0831 & t &r
-1.0831 & t @
-1.0831 & t A
-1.0831 & t E
-1.0831 & t N
-1.0831 & t tc
-1.0831 & t x
-2.0269 & tc &
-2.5508 & tc &r
-3.1311 & tc >
-2.7206 & tc @
-2.7206 & tc A
-2.0269 & tc C
-2.7841 & tc I
-2.3491 & tc N
-1.0187 & tc cC
-1.6959 & tc cCh
-2.0703 & tc e
-2.0703 & tc f
-2.1450 & tc i
-1.9511 & tc ixr
-2.1186 & tc j
-2.3948 & tc jw
-0.9762 & tc k
-1.5638 & tc kh
-2.1450 & tc l
-1.8176 & tc m
-2.5508 & tc n
-2.5508 & tc o
-0.6660 & tc p
-1.8867 & tc ph
-2.1186 & tc r&
-1.9689 & tc s
-1.6863 & tc sr
-0.9546 & tc t
-1.7928 & tc th
-1.6863 & tc thsr
-1.2772 & tc ts
-1.8867 & tc tsh
-1.0289 & tc tsr
-1.9019 & tc u
-1.4858 & tc w
-1.7156 & tc x
-3.0246 & tc y
-1.4537 & th &
-1.4537 & th @
-1.4537 & th A
-1.3617 & th N
-1.4537 & th e
-1.5602 & th i
-1.3617 & th j
-1.5602 & th jw
-1.4537 & th l
-1.4537 & th n
-1.5602 & th o
-1.5602 & th ph
-1.1497 & th tc
-1.5602 & th thsr
-1.4537 & th tsr
-1.5602 & th w
-1.2734 & thsr &
-1.2734 & thsr N
-1.2734 & thsr m
-1.2734 & thsr n
-1.2734 & thsr s
-1.2734 & thsr sr
-1.2734 & thsr u
-1.1669 & thsr w
-0.5509 & ts &
-1.2872 & ts e
-1.0887 & ts n
-1.0887 & ts o
-1.1807 & ts u
-1.0831 & tsh @
-1.0831 & tsh o
-0.9766 & tsh p
-1.0831 & tsh th
-1.0831 & tsh u
-1.0831 & tsh w
-1.0054 & tsr &
-1.5840 & tsr @
-1.4920 & tsr A
-1.6905 & tsr E
-1.6905 & tsr I
-1.2800 & tsr e
-1.2800 & tsr i
-1.0054 & tsr ixr
-1.3435 & tsr j
-1.5840 & tsr k
-1.6905 & tsr m
-1.5840 & tsr o
-1.6905 & tsr r&
-1.4920 & tsr tc
-1.1102 & tsr u
-1.6905 & tsr w
-1.4920 & tsr x
-1.5840 & tsr y
-1.9889 & u >
-1.3037 & u C
-1.7904 & u E
-1.8824 & u N
-1.6418 & u cC
-1.9889 & u e
-1.7904 & u i
-1.8824 & u j
-1.5784 & u kh
-1.6418 & u l
-1.0929 & u m
-1.8824 & u n
-1.8824 & u o
-1.8824 & u p
-1.7904 & u ph
-1.6418 & u r&
-1.9889 & u s
-1.0929 & u sr
-1.9889 & u t
-0.6883 & u tc
-1.3037 & u th
-1.9889 & u thsr
-1.9889 & u tsh
-1.7904 & u tsr
-1.7904 & u w
-1.5784 & u x
-1.8824 & u y
-1.5102 & w &
-1.9969 & w &r
-1.2672 & w >
-1.5102 & w @
-2.0888 & w A
-1.8483 & w C
-1.4133 & w N
-1.5102 & w cC
-2.0888 & w cCh
-1.6150 & w e
-2.1954 & w f
-1.7848 & w i
-1.8483 & w j
-2.1954 & w jw
-1.2372 & w k
-2.1954 & w kh
-1.3719 & w l
-1.4591 & w m
-1.8483 & w n
-1.8483 & w o
-1.3341 & w p
-1.9969 & w r&
-2.1954 & w s
-1.3341 & w sr
-2.1954 & w t
-0.7698 & w tc
-1.9969 & w th
-2.1954 & w thsr
-1.8483 & w ts
-2.0888 & w tsr
-1.2372 & w u
-1.4133 & w x
-1.7848 & w y
-1.3449 & x &
-1.7507 & x &r
-1.0866 & x >
-1.9840 & x @
-1.2480 & x A
-1.9205 & x E
-1.9840 & x I
-1.2702 & x N
-1.6459 & x cC
-1.9840 & x cCh
-2.2245 & x e
-2.3311 & x f
-2.2245 & x i
-2.2245 & x ixr
-2.3311 & x j
-2.3311 & x jw
-1.5948 & x k
-2.1326 & x kh
-2.1326 & x l
-1.6459 & x m
-1.9840 & x n
-1.3729 & x o
-1.3449 & x p
-2.2245 & x ph
-2.2245 & x r&
-2.2245 & x s
-1.6459 & x sr
-1.6459 & x t
-1.5948 & x tc
-1.9205 & x th
-2.3311 & x thsr
-2.3311 & x tsh
-1.5490 & x tsr
-1.0175 & x u
-0.7497 & x w
-2.2245 & x y
-1.1911 & y j
-1.4031 & y k
-1.6016 & y m
-1.4031 & y n
-1.4031 & y sr
-1.6016 & y t
-0.5185 & y tc
-1.6016 & y tsh
-1.6016 & y tsr
-1.6016 & y u
-1.6016 & y x
-1.2883 &r & C
-1.3948 &r & N
-1.3948 &r & cC
-1.2883 &r & l
-0.9843 &r & m
-0.8145 &r & n
-1.1963 &r & sr
-0.5714 &r & tc
-1.1438 &r > m
-1.1438 &r > n
-1.0373 &r > sr
-1.1438 &r > tc
-1.2557 &r @ N
-1.4542 &r @ ixr
-1.4542 &r @ j
-1.2557 &r @ l
-0.5582 &r @ n
-1.4542 &r @ u
-1.1071 &r @ w
-1.5529 &r A I
-1.2058 &r A N
-1.4464 &r A cC
-1.5529 &r A e
-1.2058 &r A l
-1.5529 &r A m
-1.4464 &r A n
-1.4464 &r A o
-1.5529 &r A sr
-0.9725 &r A tc
-1.5529 &r A thsr
-0.7709 &r A w
-1.3544 &r A x
-1.5529 &r A y
-1.4810 &r C N
-0.9007 &r C cC
-1.3745 &r C i
-1.3745 &r C ixr
-0.9007 &r C j
-1.2825 &r C n
-1.2825 &r C tc
-1.2825 &r C tsr
-1.3745 &r C u
-1.3745 &r C y
-1.0735 &r E &
-1.1800 &r E N
-1.1800 &r E sr
-0.8329 &r E tc
-1.1800 &r E x
-0.6298 &r I tc
-1.9156 &r N &
-1.9156 &r N >
-1.8091 &r N C
-1.5051 &r N cC
-1.8091 &r N cCh
-1.9156 &r N f
-1.1793 &r N i
-1.9156 &r N ixr
-1.9156 &r N j
-1.8091 &r N jw
-1.8091 &r N k
-1.9156 &r N kh
-1.2304 &r N l
-1.0544 &r N m
-1.1335 &r N n
-1.9156 &r N o
-1.8091 &r N p
-1.9156 &r N ph
-1.9156 &r N r&
-1.8091 &r N s
-1.3352 &r N sr
-0.7022 &r N tc
-1.8091 &r N th
-1.9156 &r N tsr
-1.7171 &r N u
-1.9156 &r N w
-1.7171 &r N x
-1.7171 &r N y
-1.3965 &r cC E
-1.4884 &r cC N
-1.5950 &r cC e
-0.8129 &r cC i
-1.0146 &r cC ixr
-0.8129 &r cC j
-1.4884 &r cC jw
-1.4884 &r cC l
-1.5950 &r cC m
-1.5950 &r cC sr
-1.4884 &r cC u
-1.2479 &r cC y
-1.2292 &r cCh f
-1.2292 &r cCh i
-1.0307 &r cCh j
-1.2292 &r cCh m
-1.2292 &r cCh n
-1.2292 &r cCh tc
-1.0307 &r cCh y
-1.1438 &r e E
-0.7967 &r e i
-1.0373 &r e j
-0.6851 &r f i
-1.6454 &r i E
-1.6454 &r i N
-1.5388 &r i cC
-1.6454 &r i j
-1.6454 &r i jw
-1.6454 &r i kh
-1.6454 &r i l
-0.9602 &r i m
-1.2349 &r i n
-1.4469 &r i sr
-0.5623 &r i tc
-1.6454 &r i thsr
-1.6454 &r i w
-1.5388 &r i x
-1.4469 &r i y
-1.4723 &r ixr C
-1.3657 &r ixr k
-0.7871 &r ixr l
-1.4723 &r ixr m
-1.4723 &r ixr r&
-0.3892 &r ixr tc
-1.4723 &r ixr th
-1.6517 &r j &
-1.6517 &r j A
-1.1139 &r j C
-1.7437 &r j E
-1.2699 &r j N
-1.0682 &r j cC
-1.8502 &r j cCh
-1.8502 &r j e
-1.6517 &r j i
-1.4397 &r j ixr
-1.4397 &r j k
-1.8502 &r j l
-1.7437 &r j m
-1.8502 &r j n
-1.4397 &r j o
-1.8502 &r j p
-1.7437 &r j r&
-1.1651 &r j sr
-0.7894 &r j tc
-1.8502 &r j tsr
-1.6517 &r j x
-1.8502 &r j y
-0.4771 &r jw E
-1.1623 &r jw ixr
-1.1623 &r jw m
-1.1623 &r jw o
-1.0557 &r jw r&
-1.4537 &r k &
-0.8239 &r k >
-1.5602 &r k @
-1.4537 &r k A
-1.3617 &r k N
-1.5602 &r k i
-1.3617 &r k o
-1.5602 &r k tc
-1.5602 &r k tsr
-0.7782 &r k u
-0.8751 &r k w
-1.4723 &r kh &r
-1.2738 &r kh @
-1.2738 &r kh A
-1.3657 &r kh e
-1.3657 &r kh ixr
-1.4723 &r kh l
-1.2738 &r kh n
-1.4723 &r kh p
-1.4723 &r kh t
-1.3657 &r kh tc
-1.4723 &r kh tsh
-1.3657 &r kh w
-1.0953 &r l &
-1.5083 &r l &r
-1.9188 &r l >
-1.2336 &r l @
-1.1367 &r l A
-1.5083 &r l E
-1.9188 &r l N
-1.8122 &r l cC
-1.2336 &r l e
-1.0953 &r l i
-1.5083 &r l ixr
-1.2336 &r l j
-1.5717 &r l jw
-1.8122 &r l k
-1.5083 &r l kh
-1.9188 &r l m
-1.9188 &r l n
-1.5083 &r l o
-1.7203 &r l p
-1.9188 &r l ph
-1.9188 &r l r&
-1.9188 &r l sr
-1.8122 &r l tc
-1.9188 &r l tsr
-1.5717 &r l u
-1.5083 &r l w
-1.8122 &r l x
-1.7203 &r l y
-1.0882 &r m &
-1.5620 &r m >
-1.4700 &r m @
-0.8451 &r m A
-1.6685 &r m I
-1.2580 &r m N
-1.5620 &r m e
-1.4700 &r m i
-1.6685 &r m jw
-1.6685 &r m k
-1.5620 &r m o
-1.6685 &r m p
-1.2580 &r m tc
-1.2580 &r m thsr
-1.6685 &r m u
-1.6685 &r m w
-1.5620 &r m y
-1.6434 &r n &
-1.8554 &r n &r
-2.0539 &r n @
-1.6434 &r n A
-2.0539 &r n C
-1.8554 &r n E
-2.0539 &r n I
-1.8554 &r n N
-1.7068 &r n cC
-2.0539 &r n cCh
-1.9474 &r n e
-0.9931 &r n i
-1.6434 &r n ixr
-1.2304 &r n j
-2.0539 &r n jw
-1.7068 &r n k
-1.8554 &r n kh
-2.0539 &r n l
-1.1257 &r n m
-1.3688 &r n p
-2.0539 &r n ph
-1.6434 &r n r&
-2.0539 &r n s
-1.2304 &r n sr
-1.9474 &r n t
-0.8739 &r n tc
-2.0539 &r n th
-1.9474 &r n thsr
-1.4735 &r n tsr
-1.4735 &r n u
-1.8554 &r n w
-1.8554 &r n y
-1.5302 &r o &
-1.5302 &r o A
-1.3317 &r o C
-1.1197 &r o N
-0.8451 &r o cC
-1.5302 &r o j
-1.1197 &r o k
-1.5302 &r o n
-1.3317 &r o tc
-1.4237 &r o thsr
-1.5302 &r o w
-1.3317 &r o x
-1.4353 &r p &
-1.0247 &r p >
-1.3287 &r p @
-1.3287 &r p E
-1.3287 &r p i
-1.4353 &r p jw
-1.2368 &r p m
-1.3287 &r p n
-1.4353 &r p sr
-1.4353 &r p tc
-0.8549 &r p u
-1.4353 &r p w
-1.1623 &r ph >
-1.1623 &r ph i
-1.2923 &r r& &
-1.4409 &r r& &r
-1.2289 &r r& @
-1.2289 &r r& A
-1.2289 &r r& E
-1.6394 &r r& N
-1.5329 &r r& e
-1.4409 &r r& ixr
-1.6394 &r r& j
-1.6394 &r r& l
-1.5329 &r r& m
-1.5329 &r r& n
-0.9542 &r r& o
-1.6394 &r r& p
-1.6394 &r r& ph
-1.6394 &r r& tsr
-1.5329 &r r& u
-1.6394 &r r& w
-1.6394 &r r& x
-1.6394 &r r& y
-0.9766 &r s &
-0.9766 &r s kh
-1.0831 &r s t
-1.0831 &r s w
-1.4087 &r sr &
-1.9873 &r sr &r
-2.0938 &r sr @
-2.0938 &r sr E
-2.0938 &r sr I
-1.8953 &r sr N
-1.7467 &r sr cC
-1.9873 &r sr cCh
-1.9873 &r sr f
-1.3575 &r sr i
-0.7320 &r sr ixr
-1.3118 &r sr j
-1.8953 &r sr jw
-1.8953 &r sr k
-2.0938 &r sr kh
-1.8953 &r sr l
-1.8953 &r sr m
-1.2326 &r sr n
-1.5134 &r sr o
-1.7467 &r sr p
-1.6833 &r sr r&
-1.9873 &r sr t
-1.6833 &r sr tc
-2.0938 &r sr th
-1.8953 &r sr thsr
-1.9873 &r sr ts
-1.3575 &r sr tsr
-1.4087 &r sr u
-1.0813 &r sr w
-1.9873 &r sr x
-1.4087 &r sr y
-1.1800 &r t &r
-1.1800 &r t @
-1.0735 &r t E
-1.1800 &r t j
-1.1800 &r t o
-1.1800 &r t w
-2.2240 &r tc &
-2.3160 &r tc &r
-2.4225 &r tc >
-2.4225 &r tc C
-2.4225 &r tc E
-2.3160 &r tc N
-0.7654 &r tc cC
-2.0755 &r tc cCh
-1.8422 &r tc e
-2.0755 &r tc i
-1.6405 &r tc ixr
-2.3160 &r tc j
-0.9081 &r tc k
-1.5613 &r tc kh
-1.7374 &r tc m
-1.7374 &r tc n
-2.3160 &r tc o
-1.0384 &r tc p
-2.4225 &r tc ph
-2.0755 &r tc r&
-2.2240 &r tc s
-1.4100 &r tc sr
-0.9873 &r tc t
-2.0120 &r tc th
-1.8422 &r tc thsr
-1.4364 &r tc ts
-2.3160 &r tc tsh
-0.9162 &r tc tsr
-2.2240 &r tc u
-1.5613 &r tc w
-1.7374 &r tc x
-2.2240 &r tc y
-1.1669 &r th &
-1.1669 &r th @
-1.0749 &r th A
-1.1669 &r th j
-1.2734 &r th o
-0.8629 &r th tc
-1.2734 &r th w
-1.1970 &r thsr A
-1.0905 &r thsr k
-1.0905 &r thsr u
-1.1970 &r thsr w
-1.0125 &r ts &
-0.9060 &r ts @
-1.0125 &r ts A
-1.0125 &r ts E
-0.6020 &r ts w
-0.8960 &r tsh cC
-0.8960 &r tsh kh
-0.8960 &r tsh w
-1.2368 &r tsr &
-1.0247 &r tsr A
-1.3287 &r tsr E
-1.4353 &r tsr i
-1.0247 &r tsr ixr
-1.4353 &r tsr k
-1.4353 &r tsr m
-1.4353 &r tsr n
-0.8549 &r tsr o
-1.2368 &r tsr u
-1.3568 &r u cC
-1.2648 &r u i
-1.4633 &r u l
-1.4633 &r u o
-0.7270 &r u sr
-0.7270 &r u tc
-1.4633 &r u tsr
-1.4633 &r u w
-1.4633 &r u y
-1.4169 &r w &
-1.4803 &r w >
-1.2470 &r w @
-1.4803 &r w A
-1.8274 &r w C
-1.4803 &r w N
-1.4169 &r w cC
-1.7208 &r w e
-1.8274 &r w ixr
-1.8274 &r w j
-1.2470 &r w k
-1.6289 &r w kh
-1.7208 &r w l
-1.6289 &r w m
-1.7208 &r w n
-1.8274 &r w o
-1.6289 &r w r&
-0.8412 &r w tc
-1.8274 &r w tsr
-1.4803 &r w u
-1.2470 &r w x
-1.6841 &r x &r
-1.1055 &r x >
-1.3801 &r x @
-1.5922 &r x N
-1.3801 &r x cC
-1.6841 &r x ixr
-1.0544 &r x k
-1.7907 &r x l
-1.4436 &r x m
-1.5922 &r x n
-1.6841 &r x o
-1.3801 &r x p
-1.7907 &r x t
-1.6841 &r x tc
-1.7907 &r x tsr
-0.7533 &r x u
-0.9294 &r x w
-1.1276 &r y E
-1.3261 &r y N
-1.3261 &r y cC
-1.3261 &r y ixr
-1.2196 &r y l
-1.3261 &r y m
-1.2196 &r y n
-1.2196 &r y sr
-1.2196 &r y w
-1.6742 > & >
-1.6742 > & C
-1.6742 > & I
-1.6742 > & N
-1.5676 > & j
-1.4756 > & m
-1.4756 > & n
-1.4756 > & sr
-0.4007 > & tc
-1.6742 > & th
-1.4756 > & w
-1.4756 > & x
-1.6571 > &r A
-1.4586 > &r N
-1.6571 > &r cC
-1.6571 > &r i
-1.5506 > &r j
-1.6571 > &r kh
-1.4586 > &r l
-1.4586 > &r m
-1.2466 > &r n
-1.5506 > &r p
-1.6571 > &r ph
-0.9720 > &r r&
-1.4586 > &r sr
-0.7959 > &r tc
-1.4586 > &r u
-1.6571 > &r w
-1.3915 > @ E
-1.1510 > @ N
-1.2996 > @ j
-1.1510 > @ l
-1.0875 > @ n
-1.2996 > @ r&
-1.0875 > @ sr
-1.4981 > @ tc
-1.3915 > @ w
-1.4981 > @ x
-1.6394 > A &
-1.6394 > A @
-0.9031 > A N
-1.6394 > A cC
-1.6394 > A ixr
-1.6394 > A kh
-1.2923 > A l
-1.2289 > A m
-1.2289 > A sr
-1.2289 > A tc
-1.6394 > A th
-1.6394 > A tsr
-1.5329 > A u
-0.8159 > A w
-1.2923 > A x
-1.8114 > C &
-1.8114 > C @
-0.9502 > C cC
-1.8114 > C cCh
-1.2311 > C i
-1.6129 > C ixr
-0.9502 > C j
-1.6129 > C jw
-1.6129 > C k
-1.8114 > C m
-1.7049 > C n
-1.4644 > C p
-1.6129 > C sr
-1.7049 > C t
-1.4009 > C tc
-1.7049 > C th
-1.4009 > C thsr
-1.0751 > C tsr
-1.6129 > C u
-1.2311 > C y
-1.1669 > E N
-1.1669 > E j
-1.2734 > E l
-1.0749 > E m
-1.2734 > E n
-0.5371 > E tc
-1.1438 > I C
-1.1438 > I i
-1.1438 > I n
-1.1438 > I sr
-0.9453 > I tc
-1.0373 > I w
-2.0791 > N &
-2.1711 > N >
-2.0791 > N A
-1.6972 > N C
-2.2776 > N I
-1.4542 > N cC
-1.6972 > N cCh
-2.1711 > N e
-1.8671 > N f
-1.4542 > N i
-1.5925 > N ixr
-1.5925 > N j
-1.5413 > N k
-1.5413 > N kh
-1.3816 > N l
-1.2403 > N m
-1.8671 > N n
-2.0791 > N o
-1.3494 > N p
-1.5925 > N r&
-2.0791 > N s
-1.1945 > N sr
-2.2776 > N t
-0.6091 > N tc
-1.6972 > N th
-2.1711 > N thsr
-2.1711 > N tsh
-1.8671 > N tsr
-1.5413 > N u
-1.9305 > N w
-1.3494 > N x
-1.9305 > N y
-1.3844 > cC E
-0.8702 > cC i
-1.0463 > cC ixr
-0.7733 > cC j
-1.3209 > cC jw
-1.7314 > cC k
-1.7314 > cC kh
-1.5329 > cC m
-1.6249 > cC n
-1.6249 > cC p
-1.7314 > cC t
-1.3209 > cC tc
-1.7314 > cC u
-1.6249 > cC w
-0.9080 > cC y
-1.2445 > cCh I
-1.2445 > cCh N
-1.2445 > cCh jw
-1.2445 > cCh n
-1.1379 > cCh r&
-1.2445 > cCh u
-1.2445 > cCh w
-1.0460 > cCh y
-1.6454 > e A
-1.5388 > e E
-1.5388 > e N
-0.9091 > e i
-0.5623 > e j
-1.6454 > e k
-1.4469 > e l
-1.2349 > e n
-1.6454 > e r&
-1.4469 > e sr
-1.6454 > e tc
-1.4469 > e w
-1.5388 > e y
-1.3503 > f >
-1.2437 > f e
-1.2437 > f ixr
-1.2437 > f kh
-1.2437 > f m
-1.3503 > f thsr
-1.0032 > f w
-1.7063 > i C
-1.5078 > i E
-1.3593 > i N
-1.3593 > i cC
-1.7063 > i jw
-1.2958 > i k
-0.9700 > i l
-1.7063 > i m
-1.3593 > i n
-1.2958 > i sr
-0.6938 > i tc
-1.7063 > i thsr
-1.5078 > i u
-1.5998 > i x
-1.5063 > ixr &
-1.3998 > ixr l
-1.5063 > ixr m
-1.0958 > ixr n
-1.5063 > ixr p
-1.3998 > ixr s
-1.0958 > ixr sr
-0.5781 > ixr tc
-1.5063 > ixr tsr
-1.3078 > ixr x
-1.8428 > j >
-1.7362 > j A
-1.7362 > j E
-1.4322 > j N
-1.6443 > j cC
-1.8428 > j e
-1.7362 > j k
-1.8428 > j kh
-1.2624 > j l
-1.4322 > j n
-1.4957 > j o
-1.4322 > j p
-1.6443 > j r&
-1.1576 > j sr
-0.5693 > j tc
-1.6443 > j u
-1.7362 > j w
-1.6443 > j x
-1.8428 > j y
-1.4633 > jw &
-0.6021 > jw E
-1.2648 > jw ixr
-0.7270 > jw j
-1.4633 > jw k
-1.4633 > jw n
-1.0528 > jw o
-1.4633 > jw u
-1.4633 > jw y
-1.0160 > k &
-0.8777 > k >
-1.5946 > k @
-1.5946 > k A
-1.3541 > k E
-1.5946 > k N
-1.7011 > k cC
-1.5026 > k j
-1.7011 > k kh
-1.5946 > k m
-1.3541 > k o
-1.7011 > k p
-1.5026 > k tc
-1.1208 > k u
-0.8777 > k w
-1.7011 > k x
-1.4390 > kh &
-1.5455 > kh @
-1.3470 > kh A
-1.5455 > kh cC
-1.3470 > kh e
-1.5455 > kh ixr
-1.4390 > kh k
-1.4390 > kh l
-1.5455 > kh m
-1.5455 > kh o
-1.3470 > kh r&
-1.3470 > kh tc
-1.5455 > kh th
-1.5455 > kh tsh
-1.5455 > kh tsr
-1.4390 > kh u
-1.1350 > kh w
-0.9424 > l &
-1.8324 > l &r
-2.2430 > l >
-1.1821 > l @
-1.1599 > l A
-1.1387 > l E
-2.1364 > l I
-1.8959 > l N
-2.2430 > l cC
-1.3470 > l e
-0.9294 > l i
-1.8324 > l ixr
-1.0459 > l j
-1.5067 > l jw
-1.8324 > l k
-2.2430 > l kh
-2.1364 > l m
-2.2430 > l n
-1.2568 > l o
-1.8324 > l p
-2.2430 > l ph
-1.5578 > l r&
-1.8324 > l sr
-1.6626 > l t
-2.2430 > l tc
-2.2430 > l ts
-1.5067 > l u
-1.6626 > l w
-2.1364 > l x
-1.5578 > l y
-0.9374 > m &
-2.0650 > m &r
-1.2027 > m >
-1.1592 > m @
-1.1012 > m A
-1.8530 > m E
-1.8530 > m I
-1.5784 > m N
-1.8530 > m cC
-1.3054 > m e
-2.1570 > m f
-1.2510 > m i
-1.6831 > m ixr
-1.9164 > m j
-1.9164 > m jw
-2.0650 > m k
-1.8530 > m kh
-2.0650 > m l
-1.3054 > m o
-2.1570 > m p
-2.0650 > m ph
-2.1570 > m r&
-1.8530 > m sr
-1.5272 > m t
-2.0650 > m tc
-2.0650 > m th
-2.0650 > m thsr
-2.2635 > m ts
-1.9164 > m tsr
-1.0043 > m u
-1.3353 > m w
-2.0650 > m x
-1.3109 > n &
-2.1004 > n >
-2.1004 > n @
-2.1004 > n A
-2.2069 > n C
-2.1004 > n E
-1.7964 > n N
-1.2208 > n cC
-2.1004 > n cCh
-1.7964 > n e
-1.0447 > n i
-2.0084 > n ixr
-1.4249 > n j
-1.6266 > n jw
-1.4706 > n k
-1.7964 > n kh
-1.3109 > n l
-1.2488 > n m
-2.0084 > n o
-1.5218 > n p
-2.2069 > n ph
-1.6266 > n r&
-1.8599 > n sr
-1.6266 > n t
-0.8686 > n tc
-1.7964 > n th
-1.8599 > n thsr
-1.7964 > n ts
-1.3835 > n tsr
-1.8599 > n u
-1.7964 > n w
-2.1004 > n x
-1.4249 > n y
-1.6798 > o &
-1.3759 > o >
-1.7864 > o A
-0.8904 > o N
-1.4393 > o cC
-1.7864 > o cCh
-1.4393 > o k
-1.7864 > o kh
-1.6798 > o l
-1.5879 > o m
-1.7864 > o n
-1.6798 > o p
-1.5879 > o sr
-1.4393 > o tc
-1.0501 > o tsr
-0.8582 > o u
-1.1012 > o w
-1.5879 > o x
-1.5893 > p &
-1.6959 > p &r
-1.1155 > p >
-1.2854 > p @
-1.5893 > p A
-1.5893 > p I
-1.2854 > p N
-1.6959 > p cC
-1.5893 > p e
-1.4974 > p i
-1.6959 > p ixr
-1.3488 > p j
-1.6959 > p jw
-1.6959 > p m
-1.6959 > p o
-1.4974 > p tc
-0.7999 > p u
-1.4974 > p w
-1.6959 > p y
-1.4353 > ph &
-1.4353 > ph A
-1.3287 > ph N
-1.3287 > ph ixr
-1.4353 > ph kh
-1.0882 > ph m
-1.4353 > ph p
-1.3287 > ph tc
-1.2368 > ph u
-1.4353 > ph y
-1.1818 > r& &
-1.5534 > r& &r
-1.8574 > r& >
-1.9639 > r& @
-1.2788 > r& A
-1.9639 > r& C
-1.0679 > r& E
-1.8574 > r& I
-1.2276 > r& N
-1.8574 > r& cC
-1.7654 > r& e
-1.8574 > r& i
-1.1818 > r& ixr
-1.5534 > r& j
-1.7654 > r& k
-1.9639 > r& kh
-1.9639 > r& l
-1.8574 > r& n
-1.0058 > r& o
-1.7654 > r& p
-1.3835 > r& sr
-1.6168 > r& tc
-1.9639 > r& th
-1.6168 > r& u
-1.2788 > r& w
-1.5534 > r& x
-1.8574 > r& y
-1.0212 > s &
-1.6016 > s @
-1.4031 > s I
-1.6016 > s N
-1.6016 > s cC
-1.4951 > s e
-0.9165 > s ixr
-1.6016 > s j
-1.4951 > s k
-1.6016 > s n
-1.6016 > s o
-1.6016 > s p
-1.6016 > s t
-1.6016 > s tc
-1.6016 > s ts
-1.4951 > s tsr
-1.1911 > s u
-1.6016 > s w
-1.6016 > s x
-1.3866 > sr &
-2.3991 > sr &r
-2.3991 > sr >
-2.2925 > sr A
-2.2006 > sr C
-1.8187 > sr E
-1.9885 > sr I
-2.2006 > sr N
-1.3617 > sr cC
-1.8187 > sr cCh
-2.2006 > sr e
-1.5378 > sr i
-0.8461 > sr ixr
-1.4409 > sr j
-2.2006 > sr jw
-1.6628 > sr k
-1.6170 > sr kh
-2.0520 > sr l
-1.6628 > sr m
-1.4409 > sr n
-1.3866 > sr o
-1.5378 > sr p
-2.2925 > sr ph
-1.9885 > sr r&
-1.9885 > sr s
-1.6170 > sr t
-1.4709 > sr tc
-2.2925 > sr th
-1.5378 > sr thsr
-2.2006 > sr ts
-2.3991 > sr tsh
-1.4129 > sr tsr
-1.1119 > sr u
-1.1698 > sr w
-1.6170 > sr x
-1.1698 > sr y
-0.7821 > t A
-0.7821 > t N
-0.7821 > t x
-2.6547 > tc &
-2.7467 > tc &r
-2.6547 > tc @
-2.8532 > tc A
-2.1681 > tc C
-2.7467 > tc I
-2.5061 > tc N
-0.8040 > tc cC
-1.6909 > tc cCh
-2.0711 > tc e
-2.7467 > tc f
-2.1169 > tc i
-1.8159 > tc ixr
-2.0711 > tc j
-2.7467 > tc jw
-0.9639 > tc k
-1.5660 > tc kh
-2.1169 > tc l
-1.7924 > tc m
-2.0298 > tc n
-2.6547 > tc o
-0.7924 > tc p
-1.8159 > tc ph
-1.8951 > tc r&
-2.0711 > tc s
-1.5148 > tc sr
-1.0583 > tc t
-1.7094 > tc th
-1.8159 > tc thsr
-1.3153 > tc ts
-2.0711 > tc tsh
-0.9189 > tc tsr
-1.8407 > tc u
-1.6732 > tc w
-2.0298 > tc x
-2.2728 > tc y
-1.2437 > th >
-1.3503 > th ixr
-1.3503 > th k
-1.3503 > th kh
-1.3503 > th l
-1.3503 > th o
-1.3503 > th sr
-1.3503 > th tc
-1.2437 > th u
-1.2437 > th w
-1.3503 > th x
-1.3503 > th y
-1.1526 > thsr &r
-1.2592 > thsr @
-1.1526 > thsr cC
-1.2592 > thsr k
-1.2592 > thsr l
-1.2592 > thsr o
-0.8487 > thsr u
-1.2592 > thsr w
-1.2592 > thsr x
-0.8796 > ts &
-0.8796 > ts u
-0.5476 > tsh o
-1.0043 > tsr &
-1.7864 > tsr &r
-1.7864 > tsr >
-1.6798 > tsr A
-1.3759 > tsr E
-1.5879 > tsr I
-1.7864 > tsr N
-1.6798 > tsr e
-1.5879 > tsr i
-1.4393 > tsr ixr
-1.5879 > tsr j
-1.7864 > tsr m
-1.5879 > tsr n
-1.3759 > tsr o
-1.6798 > tsr sr
-1.3759 > tsr tc
-0.9629 > tsr u
-0.9251 > tsr w
-1.6798 > tsr x
-1.6798 > tsr y
-1.8140 > u &
-2.0125 > u >
-2.0125 > u E
-2.0125 > u N
-1.4321 > u cC
-1.2762 > u i
-1.6020 > u ixr
-2.0125 > u j
-1.9060 > u k
-1.9060 > u kh
-1.8140 > u l
-1.6020 > u m
-1.6654 > u n
-1.9060 > u o
-1.9060 > u p
-1.6020 > u r&
-2.0125 > u s
-0.7253 > u sr
-0.6990 > u tc
-1.9060 > u thsr
-1.1513 > u tsr
-1.9060 > u w
-1.3274 > u x
-1.9060 > u y
-1.8901 > w &
-1.7202 > w &r
-1.0714 > w >
-1.5185 > w @
-1.8901 > w A
-2.1940 > w C
-2.3006 > w E
-1.8901 > w N
-2.1940 > w cC
-2.1021 > w cCh
-1.9535 > w e
-2.1940 > w f
-1.9535 > w i
-2.1940 > w ixr
-1.9535 > w j
-2.1940 > w jw
-1.5643 > w k
-1.9535 > w kh
-1.2881 > w l
-1.3724 > w m
-1.3424 > w n
-1.5643 > w o
-1.7202 > w p
-2.1940 > w ph
-1.8901 > w r&
-2.3006 > w s
-1.1761 > w sr
-0.7332 > w tc
-2.1021 > w th
-2.1021 > w thsr
-1.8901 > w ts
-1.5185 > w tsr
-1.1761 > w u
-1.3724 > w x
-1.4300 > x &
-1.8807 > x &r
-1.0178 > x >
-1.8807 > x @
-1.5092 > x A
-2.0928 > x I
-1.3631 > x N
-1.4300 > x cC
-2.2913 > x cCh
-2.2913 > x e
-2.1847 > x f
-1.9442 > x i
-2.0928 > x ixr
-2.2913 > x j
-1.1870 > x k
-1.5092 > x kh
-1.6061 > x l
-1.6061 > x m
-1.5550 > x n
-1.5550 > x o
-1.2082 > x p
-2.2913 > x r&
-1.7109 > x sr
-1.6061 > x t
-1.5550 > x tc
-2.2913 > x th
-2.0928 > x thsr
-1.8807 > x ts
-2.2913 > x tsh
-1.7109 > x tsr
-1.1113 > x u
-0.8102 > x w
-2.1847 > x y
-0.9030 > y cC
-1.3135 > y i
-1.2070 > y j
-1.3135 > y n
-1.3135 > y ph
-1.3135 > y s
-1.3135 > y sr
-0.6284 > y tc
-1.3135 > y x
-1.6049 @ & C
-0.8502 @ & N
-1.7115 @ & i
-1.3010 @ & j
-1.7115 @ & jw
-1.6049 @ & l
-0.9294 @ & m
-1.0263 @ & n
-1.3644 @ & sr
-0.6990 @ & tc
-1.7115 @ & u
-1.7115 @ & w
-1.6049 @ & x
-1.7216 @ &r @
-1.7216 @ &r A
-1.7216 @ &r E
-1.7216 @ &r N
-1.6150 @ &r cC
-1.5231 @ &r i
-1.6150 @ &r ixr
-1.3111 @ &r j
-1.7216 @ &r jw
-1.5231 @ &r kh
-1.6150 @ &r l
-1.7216 @ &r m
-1.1412 @ &r n
-1.6150 @ &r o
-1.0364 @ &r sr
-0.7091 @ &r tc
-1.7216 @ &r w
-1.5231 @ &r x
-1.7216 @ &r y
-1.1669 @ > N
-1.2734 @ > m
-1.1669 @ > n
-1.2734 @ > r&
-1.0749 @ > sr
-0.9263 @ > tc
-1.6905 @ A &
-0.9542 @ A N
-1.6905 @ A cC
-1.6905 @ A e
-1.5840 @ A l
-1.4920 @ A m
-1.2800 @ A n
-1.5840 @ A o
-1.5840 @ A sr
-1.6905 @ A t
-0.8293 @ A tc
-1.6905 @ A u
-0.7044 @ A w
-1.2800 @ A x
-1.5302 @ C E
-1.5302 @ C N
-1.4237 @ C i
-1.1197 @ C ixr
-1.1197 @ C j
-1.1832 @ C n
-1.5302 @ C o
-1.5302 @ C s
-1.5302 @ C sr
-1.5302 @ C tc
-1.1197 @ C thsr
-1.4237 @ C ts
-1.5302 @ C tsr
-1.5302 @ C u
-1.4237 @ C x
-1.5302 @ C y
-1.8091 @ E &
-1.8091 @ E @
-1.5051 @ E A
-1.3352 @ E N
-1.8091 @ E cC
-1.7171 @ E i
-1.9156 @ E j
-1.0196 @ E l
-1.0544 @ E m
-0.7356 @ E n
-1.7171 @ E o
-1.7171 @ E r&
-1.7171 @ E sr
-0.6864 @ E tc
-1.1335 @ E x
-0.9862 @ I l
-0.9862 @ I r&
-0.5757 @ I tc
-1.5890 @ N &
-2.4125 @ N &r
-2.3060 @ N >
-1.5512 @ N C
-2.4125 @ N I
-1.3517 @ N cC
-2.0020 @ N cCh
-1.8321 @ N e
-1.8321 @ N f
-1.2880 @ N i
-2.3060 @ N ixr
-2.0020 @ N j
-2.3060 @ N jw
-1.7273 @ N k
-1.7273 @ N kh
-1.2325 @ N l
-1.1533 @ N m
-1.2325 @ N n
-1.8321 @ N o
-2.0654 @ N p
-1.5890 @ N ph
-2.0020 @ N r&
-2.3060 @ N s
-1.3517 @ N sr
-0.6714 @ N tc
-2.2140 @ N th
-2.0020 @ N thsr
-1.5890 @ N ts
-2.2140 @ N tsh
-1.7273 @ N tsr
-1.5165 @ N u
-1.4000 @ N w
-1.4000 @ N x
-2.0654 @ N y
-1.4237 @ cC &
-1.1197 @ cC e
-0.7482 @ cC i
-1.3317 @ cC ixr
-0.6690 @ cC j
-1.5302 @ cC n
-1.3317 @ cC o
-1.5302 @ cC ph
-1.5302 @ cC tc
-1.1197 @ cC y
-0.9815 @ cCh N
-1.1800 @ cCh j
-1.0735 @ cCh n
-1.1800 @ cCh y
-0.9165 @ e E
-1.6016 @ e N
-0.7056 @ e i
-0.4973 @ e j
-1.6016 @ e l
-1.6016 @ e n
-1.1911 @ e tc
-1.6016 @ e th
-1.4951 @ e y
-0.9543 @ f &
-0.9543 @ f @
-1.0608 @ f A
-1.0608 @ f N
-1.0608 @ f n
-1.0608 @ f th
-1.0608 @ f w
-2.0874 @ i &
-1.9809 @ i &r
-1.8889 @ i @
-1.6769 @ i A
-1.7403 @ i C
-1.6769 @ i E
-1.3511 @ i N
-1.7403 @ i cC
-2.0874 @ i cCh
-1.9809 @ i e
-1.8889 @ i ixr
-1.2262 @ i j
-1.8889 @ i jw
-1.9809 @ i k
-1.9809 @ i l
-1.1914 @ i m
-1.1914 @ i n
-1.1914 @ i o
-1.9809 @ i p
-2.0874 @ i r&
-1.3511 @ i sr
-2.0874 @ i t
-0.6926 @ i tc
-1.7403 @ i th
-1.9809 @ i thsr
-2.0874 @ i ts
-2.0874 @ i tsh
-2.0874 @ i tsr
-1.9809 @ i u
-2.0874 @ i w
-1.4023 @ i x
-1.9809 @ i y
-1.4749 @ ixr &
-1.5814 @ ixr C
-1.3829 @ ixr N
-1.5814 @ ixr i
-1.4749 @ ixr j
-1.5814 @ ixr k
-1.4749 @ ixr l
-1.5814 @ ixr n
-1.4749 @ ixr r&
-1.1709 @ ixr sr
-0.7202 @ ixr tc
-1.2343 @ ixr w
-1.4749 @ ixr x
-1.5814 @ ixr y
-2.5976 @ j &
-2.5976 @ j &r
-2.5976 @ j >
-1.7364 @ j @
-1.9125 @ j A
-1.4176 @ j C
-1.5368 @ j E
-2.4911 @ j I
-1.6395 @ j N
-1.7742 @ j cC
-2.4911 @ j cCh
-2.5976 @ j e
-2.2506 @ j f
-1.5851 @ j i
-1.8156 @ j ixr
-2.3991 @ j jw
-1.9125 @ j k
-1.8156 @ j kh
-1.4538 @ j l
-1.3684 @ j m
-1.1343 @ j n
-1.5603 @ j o
-1.8613 @ j p
-2.2506 @ j ph
-1.6395 @ j r&
-1.9125 @ j s
-1.1821 @ j sr
-2.2506 @ j t
-0.5059 @ j tc
-2.2506 @ j th
-2.0173 @ j thsr
-2.3991 @ j ts
-2.4911 @ j tsh
-1.7016 @ j tsr
-1.8156 @ j w
-1.2715 @ j x
-1.9125 @ j y
-1.6851 @ jw &
-1.5786 @ jw @
-1.6851 @ jw A
-0.5607 @ jw E
-1.6851 @ jw N
-1.5786 @ jw cC
-1.4866 @ jw i
-0.7891 @ jw j
-1.5786 @ jw l
-1.6851 @ jw n
-1.6851 @ jw o
-1.5786 @ jw r&
-1.6851 @ jw tc
-1.6851 @ jw ts
-1.6851 @ jw tsr
-1.6851 @ jw w
-1.5786 @ jw y
-1.0148 @ k >
-1.3618 @ k @
-1.2553 @ k E
-1.3618 @ k i
-1.3618 @ k j
-1.1633 @ k o
-1.3618 @ k tc
-1.2553 @ k u
-1.0148 @ k w
-1.3078 @ kh &
-1.3998 @ kh @
-1.3998 @ kh A
-1.3998 @ kh N
-1.1593 @ kh e
-1.5063 @ kh i
-1.0958 @ kh l
-1.3998 @ kh n
-1.5063 @ kh r&
-1.0958 @ kh sr
-1.3998 @ kh tc
-1.5063 @ kh w
-1.3998 @ kh x
-0.9278 @ l &
-1.5207 @ l &r
-1.4859 @ l >
-0.9009 @ l @
-1.2382 @ l A
-2.3819 @ l C
-1.1228 @ l E
-2.2754 @ l I
-1.4859 @ l N
-2.3819 @ l cC
-1.0088 @ l e
-1.3694 @ l i
-1.9714 @ l ixr
-1.2019 @ l j
-2.3819 @ l jw
-2.1834 @ l k
-2.0349 @ l kh
-1.9714 @ l m
-2.1834 @ l n
-1.3694 @ l o
-1.8016 @ l p
-2.3819 @ l ph
-2.3819 @ l r&
-2.1834 @ l sr
-1.5585 @ l t
-2.3819 @ l tc
-2.0349 @ l th
-2.3819 @ l ts
-2.3819 @ l tsh
-1.4859 @ l u
-1.5999 @ l w
-1.8016 @ l x
-1.6968 @ l y
-0.9853 @ m &
-1.8241 @ m &r
-1.6121 @ m >
-1.0944 @ m @
-0.9853 @ m A
-1.2863 @ m N
-1.0645 @ m e
-1.1992 @ m i
-2.0226 @ m ixr
-1.6755 @ m j
-1.9161 @ m k
-1.8241 @ m n
-1.2863 @ m o
-2.0226 @ m ph
-1.9161 @ m t
-1.4422 @ m tc
-1.9161 @ m tsr
-1.2405 @ m u
-1.1614 @ m w
-1.6755 @ m x
-2.0226 @ m y
-1.5209 @ n &
-2.6278 @ n &r
-1.8384 @ n >
-1.8384 @ n @
-1.7762 @ n A
-1.6970 @ n C
-1.9523 @ n E
-2.3873 @ n I
-1.6099 @ n N
-1.3089 @ n cC
-2.3238 @ n cCh
-1.6301 @ n e
-2.3873 @ n f
-1.2447 @ n i
-1.7219 @ n ixr
-1.5721 @ n j
-1.8384 @ n jw
-1.4609 @ n k
-1.8384 @ n kh
-1.2447 @ n l
-1.1010 @ n m
-1.8062 @ n o
-1.6970 @ n p
-2.5359 @ n ph
-1.5544 @ n r&
-2.0492 @ n s
-1.6301 @ n sr
-1.7482 @ n t
-0.7970 @ n tc
-1.8062 @ n th
-2.0492 @ n thsr
-1.8062 @ n ts
-1.9981 @ n tsh
-1.6513 @ n tsr
-1.5209 @ n u
-1.6513 @ n w
-1.5051 @ n x
-1.4338 @ n y
-1.5455 @ o &
-1.4390 @ o &r
-1.3470 @ o >
-1.3470 @ o N
-1.4390 @ o cC
-1.5455 @ o j
-1.5455 @ o k
-1.5455 @ o l
-1.5455 @ o n
-1.4390 @ o p
-1.5455 @ o r&
-1.5455 @ o sr
-0.9651 @ o tc
-1.4390 @ o u
-1.1984 @ o w
-1.4390 @ o x
-1.2445 @ p @
-1.1379 @ p A
-1.1379 @ p i
-1.1379 @ p j
-1.2445 @ p o
-1.0460 @ p tc
-1.2445 @ p thsr
-1.2445 @ p y
-1.3503 @ ph &
-1.3503 @ ph @
-1.1518 @ ph A
-1.3503 @ ph N
-1.3503 @ ph cCh
-1.2437 @ ph i
-1.2437 @ ph j
-1.2437 @ ph m
-1.3503 @ ph sr
-1.3503 @ ph th
-1.1518 @ ph w
-1.3538 @ r& &
-1.3538 @ r& &r
-1.6578 @ r& >
-1.1840 @ r& @
-1.3538 @ r& A
-0.8683 @ r& E
-1.3538 @ r& N
-1.5658 @ r& e
-1.6578 @ r& i
-1.6578 @ r& ixr
-1.6578 @ r& j
-1.7643 @ r& k
-1.5658 @ r& l
-1.5658 @ r& n
-1.3538 @ r& o
-1.7643 @ r& th
-1.5658 @ r& tsr
-1.3538 @ r& u
-1.7643 @ r& w
-1.6578 @ r& x
-1.7643 @ r& y
-1.1043 @ s N
-1.1043 @ s cC
-1.1043 @ s x
-1.1973 @ sr &
-1.6480 @ sr >
-2.0585 @ sr @
-1.9520 @ sr A
-2.0585 @ sr I
-1.7114 @ sr N
-1.3222 @ sr cC
-1.9520 @ sr cCh
-1.9520 @ sr f
-1.8600 @ sr i
-0.9754 @ sr ixr
-1.7114 @ sr j
-1.7114 @ sr k
-2.0585 @ sr kh
-1.9520 @ sr l
-1.3222 @ sr m
-1.3222 @ sr n
-1.7114 @ sr o
-1.6480 @ sr p
-1.9520 @ sr t
-1.4782 @ sr tc
-1.8600 @ sr th
-1.7114 @ sr thsr
-1.9520 @ sr ts
-2.0585 @ sr tsh
-1.4782 @ sr tsr
-1.0723 @ sr u
-1.3734 @ sr w
-1.7114 @ sr x
-1.7114 @ sr y
-0.9862 @ t n
-2.0446 @ tc &
-2.1931 @ tc @
-2.2851 @ tc A
-1.8113 @ tc C
-2.3917 @ tc I
-2.1931 @ tc N
-0.8614 @ tc cC
-1.6096 @ tc cCh
-2.2851 @ tc e
-1.9811 @ tc f
-1.9811 @ tc i
-2.1931 @ tc ixr
-2.1931 @ tc j
-2.2851 @ tc jw
-0.9863 @ tc k
-1.9811 @ tc kh
-2.1931 @ tc l
-1.7065 @ tc m
-1.6554 @ tc n
-2.2851 @ tc o
-0.9761 @ tc p
-2.2851 @ tc r&
-2.3917 @ tc s
-1.6096 @ tc sr
-0.9375 @ tc t
-1.5682 @ tc th
-2.2851 @ tc thsr
-1.0655 @ tc ts
-1.8113 @ tc tsh
-1.0781 @ tc tsr
-1.9811 @ tc u
-1.6554 @ tc w
-1.7065 @ tc x
-1.0705 @ th @
-1.0705 @ th A
-1.3745 @ th E
-1.3745 @ th N
-1.4810 @ th e
-1.3745 @ th ixr
-1.4810 @ th jw
-1.4810 @ th k
-1.4810 @ th m
-1.3745 @ th n
-1.4810 @ th tc
-1.4810 @ th w
-1.3745 @ th y
-0.9815 @ thsr @
-1.1800 @ thsr I
-1.1800 @ thsr m
-1.1800 @ thsr n
-1.1800 @ thsr tc
-0.7695 @ thsr w
-0.8217 @ ts &
-0.9282 @ ts e
-0.8217 @ ts o
-0.8217 @ ts w
-1.2445 @ tsr &
-1.2445 @ tsr E
-1.2445 @ tsr N
-1.2445 @ tsr e
-1.2445 @ tsr ixr
-1.1379 @ tsr m
-0.8974 @ tsr n
-1.2445 @ tsr o
-1.2445 @ tsr thsr
-1.2881 @ u C
-1.6699 @ u cC
-1.6699 @ u i
-1.8684 @ u ixr
-1.1321 @ u j
-1.6699 @ u jw
-1.7619 @ u l
-1.2881 @ u m
-1.4579 @ u n
-1.7619 @ u o
-1.7619 @ u p
-1.8684 @ u r&
-1.7619 @ u s
-0.9402 @ u sr
-0.8076 @ u tc
-1.8684 @ u th
-1.7619 @ u thsr
-1.4579 @ u tsr
-1.7619 @ u w
-1.5213 @ u x
-1.4579 @ u y
-1.7540 @ w &
-2.4391 @ w &r
-1.4266 @ w >
-2.0286 @ w @
-1.7540 @ w A
-1.5431 @ w C
-2.2406 @ w E
-1.7028 @ w N
-2.0286 @ w cC
-2.2406 @ w cCh
-1.7540 @ w e
-2.0286 @ w f
-1.7540 @ w i
-2.3326 @ w ixr
-1.6157 @ w j
-2.4391 @ w jw
-1.8587 @ w k
-2.0920 @ w kh
-1.2257 @ w l
-1.3146 @ w m
-1.2953 @ w n
-1.7540 @ w o
-1.7540 @ w p
-1.6157 @ w ph
-2.0920 @ w r&
-2.0920 @ w s
-1.3146 @ w sr
-2.4391 @ w t
-0.5365 @ w tc
-2.0286 @ w th
-2.4391 @ w tsh
-2.0286 @ w tsr
-1.4529 @ w u
-1.2591 @ w x
-1.7028 @ w y
-1.7203 @ x &
-1.5083 @ x &r
-1.3384 @ x >
-1.1825 @ x @
-0.9906 @ x A
-1.9188 @ x C
-1.9188 @ x E
-1.9188 @ x I
-1.2336 @ x N
-1.5083 @ x cC
-1.8122 @ x e
-1.9188 @ x f
-1.9188 @ x ixr
-1.8122 @ x j
-1.5083 @ x k
-1.7203 @ x kh
-1.7203 @ x l
-1.8122 @ x m
-1.5083 @ x n
-1.7203 @ x o
-1.7203 @ x p
-1.9188 @ x r&
-1.8122 @ x sr
-1.8122 @ x t
-1.5083 @ x tc
-1.9188 @ x thsr
-1.9188 @ x ts
-1.3384 @ x u
-1.0228 @ x w
-1.5302 @ y cC
-1.4237 @ y i
-1.4237 @ y k
-1.4237 @ y l
-1.1197 @ y n
-1.4237 @ y o
-1.4237 @ y p
-1.1832 @ y sr
-0.7068 @ y tc
-1.5302 @ y ts
-1.4237 @ y u
-1.4237 @ y w
-1.8539 A & A
-1.4434 A & N
-1.7474 A & cC
-1.6554 A & i
-1.8539 A & ixr
-1.0719 A & l
-1.0305 A & m
-0.8958 A & n
-1.8539 A & o
-1.8539 A & r&
-1.1688 A & sr
-0.4808 A & tc
-1.5069 A & w
-1.6554 A & x
-1.7821 A &r &
-1.5836 A &r @
-1.7821 A &r A
-1.7821 A &r C
-1.3715 A &r N
-1.6755 A &r cC
-1.7821 A &r f
-1.6755 A &r i
-1.4350 A &r j
-1.6755 A &r kh
-1.7821 A &r l
-1.7821 A &r m
-1.0969 A &r n
-1.5836 A &r o
-1.7821 A &r r&
-1.0000 A &r sr
-0.8539 A &r tc
-1.5836 A &r tsr
-1.0969 A &r w
-1.3715 A &r x
-1.8993 A > &
-1.8993 A > C
-1.1173 A > N
-1.7928 A > cC
-1.8993 A > e
-1.7008 A > i
-1.7928 A > j
-1.8993 A > jw
-1.8993 A > k
-1.7928 A > kh
-1.7928 A > l
-1.8993 A > m
-1.5522 A > n
-1.8993 A > o
-1.7008 A > p
-1.8993 A > ph
-1.7008 A > r&
-1.0759 A > sr
-0.5262 A > tc
-1.8993 A > th
-1.8993 A > thsr
-1.8993 A > tsr
-1.7928 A > w
-1.5522 A > x
-1.7008 A > y
-1.6755 A @ >
-1.6755 A @ E
-1.5836 A @ N
-1.0969 A @ i
-1.0458 A @ j
-1.5836 A @ jw
-1.0969 A @ l
-1.7821 A @ m
-0.6383 A @ n
-1.7821 A @ r&
-1.5836 A @ sr
-1.5836 A @ tc
-1.6755 A @ u
-1.0969 A @ w
-1.6755 A @ x
-1.5836 A @ y
-1.6513 A C E
-0.9661 A C cC
-1.2408 A C cCh
-0.9661 A C i
-1.0709 A C ixr
-1.3042 A C j
-1.6513 A C jw
-1.5448 A C k
-1.4528 A C m
-1.5448 A C p
-1.6513 A C sr
-1.6513 A C t
-1.5448 A C tc
-1.6513 A C th
-1.4528 A C ts
-1.5448 A C tsr
-1.5448 A C y
-1.1807 A E &r
-1.2872 A E A
-1.1807 A E l
-1.1807 A E m
-0.9401 A E n
-0.8767 A E tc
-1.0887 A E w
-1.0905 A I l
-1.0905 A I m
-1.1970 A I sr
-0.9985 A I tc
-2.1477 A N &
-2.5295 A N &r
-1.9460 A N >
-2.6215 A N @
-2.3809 A N A
-1.6237 A N C
-2.3175 A N E
-2.6215 A N I
-1.4988 A N cC
-1.9917 A N cCh
-2.6215 A N e
-1.7998 A N f
-1.3125 A N i
-1.8668 A N ixr
-1.7699 A N j
-1.8668 A N jw
-1.3662 A N k
-1.6237 A N kh
-1.5146 A N l
-0.9682 A N m
-1.4408 A N n
-1.9460 A N o
-1.4546 A N p
-1.9460 A N ph
-1.6237 A N r&
-1.9917 A N s
-1.2384 A N sr
-2.3175 A N t
-0.6907 A N tc
-1.9917 A N th
-2.0429 A N thsr
-2.1477 A N ts
-2.3175 A N tsh
-1.8668 A N tsr
-1.5480 A N u
-1.5146 A N w
-1.2470 A N x
-1.7699 A N y
-1.6905 A cC &
-1.6905 A cC @
-1.3435 A cC E
-0.8293 A cC i
-1.4920 A cC ixr
-0.8293 A cC j
-1.5840 A cC l
-1.5840 A cC m
-1.4920 A cC n
-1.5840 A cC o
-1.6905 A cC t
-1.6905 A cC tc
-1.5840 A cC w
-0.9085 A cC y
-1.1438 A cCh N
-1.0373 A cCh i
-1.0373 A cCh j
-1.0373 A cCh m
-0.7333 A cCh y
-1.3831 A e E
-1.2911 A e N
-1.4896 A e cC
-0.6662 A e i
-0.6284 A e j
-1.4896 A e jw
-1.4896 A e n
-1.4896 A e r&
-1.4896 A e th
-1.4896 A e y
-1.4810 A f &
-1.4810 A f &r
-1.3745 A f >
-0.7959 A f @
-1.2825 A f A
-1.3745 A f N
-1.3745 A f ixr
-1.4810 A f n
-1.4810 A f o
-1.3745 A f tc
-1.0705 A f u
-1.4810 A f w
-1.5998 A i &
-1.2958 A i A
-1.7063 A i C
-1.7063 A i N
-1.7063 A i cC
-1.7063 A i ixr
-1.5078 A i j
-1.5998 A i kh
-1.5998 A i l
-1.0212 A i m
-0.9700 A i n
-1.5998 A i o
-1.7063 A i sr
-0.6021 A i tc
-1.5998 A i th
-1.7063 A i thsr
-1.7063 A i ts
-1.4542 A ixr A
-1.4542 A ixr C
-1.4542 A ixr N
-1.4542 A ixr j
-1.3476 A ixr l
-1.1071 A ixr m
-1.3476 A ixr n
-1.4542 A ixr o
-1.4542 A ixr r&
-1.3476 A ixr sr
-0.7690 A ixr tc
-1.2557 A ixr u
-1.3476 A ixr x
-1.7247 A j &
-1.8313 A j >
-1.8313 A j @
-1.4842 A j A
-1.8313 A j C
-1.4208 A j E
-1.8313 A j N
-1.4842 A j cC
-1.8313 A j cCh
-1.8313 A j i
-1.6328 A j k
-1.7247 A j kh
-1.4842 A j l
-1.2509 A j m
-1.7247 A j n
-1.7247 A j o
-1.7247 A j p
-1.4842 A j sr
-1.8313 A j t
-0.8188 A j tc
-1.7247 A j th
-1.8313 A j tsr
-1.7247 A j u
-1.0950 A j x
-1.2134 A jw &r
-1.1069 A jw E
-1.0149 A jw e
-1.1069 A jw i
-1.1069 A jw j
-1.2134 A jw kh
-1.2134 A jw o
-1.2134 A jw u
-1.0628 A k &
-1.3886 A k &r
-0.9031 A k >
-1.7991 A k @
-1.4520 A k A
-1.6926 A k N
-1.6926 A k e
-1.4520 A k i
-1.6926 A k kh
-1.6926 A k l
-1.6006 A k m
-1.7991 A k n
-1.4520 A k o
-1.7991 A k p
-1.3886 A k tc
-1.7991 A k ts
-1.0628 A k u
-1.0628 A k w
-1.3886 A k x
-0.9868 A kh &
-1.7688 A kh >
-1.5703 A kh @
-1.6623 A kh A
-1.6623 A kh E
-1.4217 A kh N
-1.3583 A kh cC
-1.5703 A kh e
-1.7688 A kh f
-1.6623 A kh i
-1.7688 A kh ixr
-1.3583 A kh l
-1.6623 A kh m
-1.6623 A kh n
-1.7688 A kh o
-1.7688 A kh p
-1.5703 A kh sr
-1.1885 A kh tc
-1.5703 A kh ts
-1.6623 A kh tsr
-1.6623 A kh u
-1.3583 A kh w
-1.4217 A kh x
-0.9886 A l &
-1.5414 A l &r
-1.4571 A l >
-1.1193 A l @
-0.8680 A l A
-1.6083 A l E
-2.1225 A l I
-1.7844 A l N
-2.4696 A l cCh
-1.2404 A l e
-1.3451 A l i
-2.2711 A l ixr
-1.2562 A l j
-2.3631 A l jw
-2.0591 A l k
-2.3631 A l kh
-1.5736 A l m
-1.6875 A l n
-1.2896 A l o
-1.7844 A l p
-1.7844 A l ph
-1.5736 A l r&
-1.7844 A l sr
-2.1225 A l t
-1.7844 A l tc
-2.1225 A l th
-2.2711 A l tsr
-1.3865 A l u
-1.3258 A l w
-1.4323 A l x
-1.7333 A l y
-0.9647 A m &
-1.7095 A m &r
-1.1322 A m >
-1.0302 A m @
-0.9078 A m A
-2.2473 A m E
-2.0352 A m I
-1.2835 A m N
-2.0352 A m cC
-2.2473 A m cCh
-1.1452 A m e
-1.5176 A m i
-1.7606 A m ixr
-1.5176 A m j
-2.2473 A m k
-1.8654 A m kh
-1.8654 A m l
-1.8654 A m n
-1.5845 A m o
-1.5845 A m p
-2.0987 A m ph
-1.7606 A m r&
-2.4458 A m s
-2.4458 A m sr
-1.8654 A m t
-1.5845 A m tc
-2.2473 A m th
-2.2473 A m thsr
-2.3392 A m ts
-2.2473 A m tsr
-1.4876 A m u
-1.2487 A m w
-1.7095 A m x
-2.0352 A m y
-1.3076 A n &
-2.3448 A n &r
-2.3448 A n >
-1.8710 A n @
-1.7151 A n A
-1.8710 A n C
-2.1043 A n E
-2.3448 A n I
-1.5901 A n N
-1.3906 A n cC
-1.8710 A n cCh
-1.5901 A n e
-1.1642 A n i
-1.8710 A n ixr
-1.6279 A n j
-2.0409 A n jw
-1.3683 A n k
-1.7151 A n kh
-1.2222 A n l
-1.0783 A n m
-2.2529 A n o
-1.2714 A n p
-2.3448 A n ph
-1.6279 A n r&
-1.5901 A n sr
-1.4932 A n t
-0.9450 A n tc
-1.4652 A n th
-2.3448 A n thsr
-2.0409 A n ts
-1.7151 A n tsr
-1.5554 A n u
-1.5232 A n w
-1.6279 A n x
-1.7662 A n y
-1.7907 A o &
-1.7907 A o &r
-1.0086 A o >
-1.5922 A o C
-1.6841 A o N
-1.3801 A o cC
-1.7907 A o j
-1.5922 A o l
-1.5922 A o m
-1.7907 A o p
-1.3801 A o sr
-1.2103 A o tc
-1.7907 A o tsr
-0.8947 A o u
-0.6864 A o w
-1.4436 A o x
-1.1339 A p &
-1.4810 A p >
-1.4810 A p @
-1.3745 A p A
-1.4810 A p e
-1.4810 A p i
-1.2825 A p n
-1.4810 A p o
-0.7959 A p u
-1.1339 A p w
-1.3745 A p y
-1.4448 A ph &r
-1.0343 A ph >
-1.2463 A ph @
-1.0343 A ph A
-1.3383 A ph N
-1.4448 A ph e
-1.4448 A ph l
-1.4448 A ph o
-1.4448 A ph sr
-1.3383 A ph tc
-1.2463 A ph u
-1.4448 A ph w
-0.9586 A r& &
-1.6755 A r& &r
-1.7821 A r& >
-1.4350 A r& @
-1.2017 A r& A
-1.3715 A r& E
-1.3715 A r& N
-1.7821 A r& e
-1.6755 A r& i
-1.5836 A r& ixr
-1.6755 A r& j
-1.7821 A r& k
-1.6755 A r& kh
-1.5836 A r& l
-1.5836 A r& m
-1.4350 A r& n
-1.2017 A r& o
-1.6755 A r& tsh
-1.7821 A r& tsr
-1.3715 A r& u
-1.7821 A r& w
-1.7821 A r& y
-1.4159 A s &
-1.5224 A s &r
-1.5224 A s A
-1.5224 A s cCh
-1.5224 A s i
-1.4159 A s ixr
-1.1119 A s l
-1.5224 A s m
-1.1119 A s n
-1.4159 A s o
-1.3239 A s p
-1.1753 A s t
-1.5224 A s tc
-1.5224 A s th
-1.5224 A s u
-1.5224 A s w
-1.3921 A sr &
-2.1284 A sr &r
-2.0219 A sr @
-1.9299 A sr C
-2.0219 A sr E
-1.7813 A sr N
-1.2324 A sr cC
-1.9299 A sr cCh
-2.0219 A sr e
-2.1284 A sr f
-1.7179 A sr i
-0.8992 A sr ixr
-1.7813 A sr j
-2.1284 A sr jw
-1.3464 A sr k
-1.9299 A sr kh
-1.5480 A sr l
-1.7813 A sr m
-1.3050 A sr n
-1.7813 A sr o
-1.3464 A sr p
-2.0219 A sr ph
-2.1284 A sr t
-1.5480 A sr tc
-1.9299 A sr th
-1.9299 A sr thsr
-1.7813 A sr ts
-2.0219 A sr tsh
-1.3921 A sr tsr
-1.3050 A sr u
-1.2324 A sr w
-2.0219 A sr x
-1.3464 A sr y
-0.8901 A t A
-1.3006 A t E
-1.3006 A t cC
-1.3006 A t l
-1.1021 A t o
-0.9535 A t w
-1.1940 A t x
-1.8698 A tc &
-2.4947 A tc &r
-2.4947 A tc >
-1.9112 A tc @
-2.2827 A tc A
-1.9112 A tc C
-2.5867 A tc E
-0.9716 A tc cC
-1.8698 A tc cCh
-1.7070 A tc e
-2.3461 A tc f
-2.3461 A tc i
-2.1128 A tc ixr
-2.1128 A tc j
-2.5867 A tc jw
-1.0786 A tc k
-1.4640 A tc kh
-1.8698 A tc l
-1.7972 A tc m
-1.9112 A tc n
-2.6932 A tc o
-0.7468 A tc p
-1.9569 A tc ph
-2.0081 A tc r&
-2.2827 A tc s
-1.7070 A tc sr
-0.9199 A tc t
-1.5494 A tc th
-1.6559 A tc thsr
-1.2484 A tc ts
-2.1128 A tc tsh
-1.0851 A tc tsr
-1.9569 A tc u
-1.6101 A tc w
-1.6559 A tc x
-2.6932 A tc y
-1.5455 A th &
-1.5455 A th >
-1.3470 A th @
-0.9651 A th A
-1.4390 A th E
-1.5455 A th N
-1.4390 A th i
-1.4390 A th ixr
-1.5455 A th j
-1.5455 A th jw
-1.5455 A th k
-1.5455 A th n
-1.5455 A th o
-1.5455 A th sr
-1.1984 A th tc
-1.5455 A th thsr
-1.3470 A th u
-1.1856 A thsr &
-1.3841 A thsr &r
-1.2776 A thsr N
-1.3841 A thsr i
-1.3841 A thsr k
-1.1856 A thsr n
-1.3841 A thsr r&
-0.9736 A thsr u
-0.8038 A thsr w
-1.3841 A thsr x
-0.6154 A ts &
-0.6154 A ts @
-1.1940 A ts A
-1.3006 A ts E
-1.3006 A ts o
-0.9977 A tsh N
-1.1043 A tsh r&
-1.1043 A tsh sr
-1.1043 A tsh u
-1.1043 A tsh w
-0.9031 A tsr &
-1.5329 A tsr @
-1.5329 A tsr A
-1.6394 A tsr E
-1.6394 A tsr I
-1.6394 A tsr e
-1.6394 A tsr i
-1.2923 A tsr ixr
-1.5329 A tsr j
-1.6394 A tsr k
-1.5329 A tsr m
-1.5329 A tsr n
-0.9031 A tsr o
-1.6394 A tsr sr
-1.6394 A tsr t
-1.6394 A tsr tc
-1.0590 A tsr u
-1.6394 A tsr w
-1.6394 A tsr x
-2.1342 A u &
-2.1342 A u &r
-1.7872 A u >
-1.7237 A u C
-2.1342 A u I
-1.9357 A u N
-1.7237 A u cC
-2.1342 A u cCh
-1.5539 A u i
-1.5539 A u j
-1.9357 A u jw
-1.7237 A u k
-1.7237 A u kh
-1.9357 A u l
-1.3108 A u m
-1.4491 A u n
-1.5539 A u o
-1.5539 A u p
-2.0277 A u ph
-1.7237 A u r&
-2.1342 A u s
-0.8898 A u sr
-0.7959 A u tc
-1.7237 A u th
-2.1342 A u ts
-1.3979 A u tsr
-1.3108 A u w
-1.1481 A u x
-1.5539 A u y
-1.8031 A w &
-1.9694 A w &r
-1.2704 A w >
-1.8031 A w @
-1.6404 A w A
-1.9151 A w C
-2.8210 A w E
-2.5170 A w I
-1.5892 A w N
-1.7653 A w cC
-2.7291 A w cCh
-1.7838 A w e
-2.1455 A w f
-1.6541 A w i
-2.1913 A w ixr
-1.7141 A w j
-2.5170 A w jw
-1.6404 A w k
-1.9151 A w kh
-1.3462 A w l
-1.1961 A w m
-1.4051 A w n
-1.7653 A w o
-1.8902 A w p
-2.5170 A w ph
-1.8031 A w r&
-1.9414 A w s
-1.2763 A w sr
-2.1455 A w t
-0.5965 A w tc
-2.0663 A w th
-2.3472 A w thsr
-2.1041 A w ts
-2.9276 A w tsh
-1.8902 A w tsr
-1.1499 A w u
-1.1499 A w x
-2.1041 A w y
-1.3112 A x &
-1.6335 A x &r
-1.3112 A x >
-1.4030 A x @
-1.0314 A x A
-2.3090 A x C
-2.4155 A x E
-2.3090 A x I
-1.4293 A x N
-1.5195 A x cC
-2.2170 A x cCh
-2.2170 A x e
-2.0050 A x f
-1.6792 A x i
-2.2170 A x ixr
-2.0050 A x j
-1.3324 A x k
-1.7304 A x kh
-2.0684 A x l
-1.4293 A x m
-1.4873 A x n
-1.4873 A x o
-1.4873 A x p
-2.0050 A x ph
-2.2170 A x r&
-2.3090 A x s
-1.5921 A x sr
-2.0050 A x t
-1.5195 A x tc
-2.0684 A x th
-2.3090 A x thsr
-1.6792 A x ts
-2.4155 A x tsh
-1.6792 A x tsr
-1.1421 A x u
-0.8700 A x w
-2.4155 A x y
-0.9766 A y i
-0.9766 A y m
-0.6726 A y tc
-1.2134 C & l
-1.2134 C & m
-1.2134 C & r&
-0.4314 C & tc
-0.6851 C &r tc
-0.6851 C > m
-0.9862 C @ E
-0.9862 C @ i
-0.9862 C @ j
-0.9862 C @ m
-0.9862 C @ n
-0.9862 C @ y
-0.4866 C A tc
-1.5455 C E &
-1.3470 C E N
-1.5455 C E cC
-1.5455 C E i
-1.3470 C E l
-1.4390 C E m
-0.9651 C E n
-1.5455 C E r&
-1.1984 C E sr
-0.5873 C E tc
-1.5455 C E u
-1.5455 C E w
-1.2134 C I &
-1.2134 C I C
-1.2134 C I i
-1.1069 C I m
-1.2134 C I r&
-1.2134 C I sr
-1.0149 C I tc
-1.2134 C I x
-1.4155 C N C
-1.2170 C N cC
-1.2170 C N i
-1.2170 C N l
-1.0050 C N m
-1.4155 C N s
-1.0050 C N tc
-1.4155 C N tsh
-1.4155 C N tsr
-1.4155 C N x
-1.4155 C N y
-1.9889 C cC C
-1.0307 C cC E
-1.9889 C cC N
-1.9889 C cC e
-0.7297 C cC i
-1.1276 C cC ixr
-0.7017 C cC j
-1.2068 C cC jw
-1.9889 C cC l
-1.9889 C cC m
-1.6418 C cC n
-1.8824 C cC o
-1.9889 C cC p
-1.9889 C cC sr
-1.4085 C cC tc
-1.9889 C cC u
-0.9058 C cC y
-1.0684 C cCh i
-1.3090 C cCh ixr
-1.4155 C cCh l
-1.3090 C cCh m
-1.0050 C cCh n
-1.4155 C cCh p
-1.4155 C cCh th
-1.4155 C cCh w
-1.4155 C cCh x
-1.3090 C cCh y
-0.9401 C e E
-1.2872 C e N
-0.8767 C e i
-0.6021 C e j
-1.2872 C e l
-1.2872 C e tc
-1.2872 C e w
-1.2872 C e y
-0.7895 C f &
-0.8960 C f j
-2.1225 C i &
-2.1225 C i &r
-2.1225 C i @
-2.0160 C i A
-1.3862 C i C
-1.2991 C i E
-1.2991 C i N
-1.7754 C i cC
-1.9240 C i cCh
-2.0160 C i ixr
-1.7754 C i j
-2.0160 C i jw
-2.0160 C i k
-2.0160 C i kh
-1.2991 C i l
-1.1644 C i m
-1.3862 C i n
-1.7120 C i o
-2.1225 C i ph
-1.3862 C i sr
-0.5551 C i tc
-1.7754 C i th
-2.1225 C i ts
-1.9240 C i tsr
-2.1225 C i u
-2.0160 C i w
-1.2265 C i x
-2.0160 C i y
-1.8648 C ixr &
-1.8648 C ixr &r
-1.7583 C ixr >
-1.2845 C ixr C
-1.7583 C ixr N
-1.8648 C ixr e
-1.6663 C ixr j
-1.8648 C ixr jw
-1.8648 C ixr kh
-1.4543 C ixr l
-1.6663 C ixr m
-1.0828 C ixr n
-1.7583 C ixr o
-1.8648 C ixr ph
-1.5178 C ixr r&
-0.9688 C ixr sr
-0.7404 C ixr tc
-1.8648 C ixr thsr
-1.6663 C ixr tsr
-1.4543 C ixr u
-1.6663 C ixr w
-1.2845 C ixr x
-1.7583 C ixr y
-1.1967 C j &
-1.3350 C j &r
-1.0919 C j @
-0.6940 C j A
-0.8231 C j E
-1.8216 C j N
-2.0201 C j cC
-1.9136 C j i
-1.8216 C j ixr
-1.9136 C j k
-2.0201 C j kh
-1.6730 C j l
-2.0201 C j m
-1.9136 C j n
-1.0076 C j o
-1.9136 C j p
-2.0201 C j ph
-2.0201 C j r&
-1.2838 C j tc
-2.0201 C j th
-2.0201 C j tsr
-1.6096 C j w
-2.0201 C j x
-1.7063 C jw &
-1.5078 C jw @
-0.4619 C jw E
-1.7063 C jw I
-0.9700 C jw i
-1.2958 C jw ixr
-1.0212 C jw j
-1.5078 C jw o
-1.7063 C jw r&
-1.7063 C jw w
-1.0212 C jw y
-1.3435 C k &
-0.8671 C k >
-1.1102 C k @
-1.6905 C k A
-1.0054 C k E
-1.2800 C k N
-1.5840 C k e
-1.5840 C k kh
-1.4920 C k m
-1.4920 C k o
-1.4920 C k p
-1.2800 C k tc
-1.3435 C k u
-1.5840 C k w
-1.0607 C kh &
-1.1526 C kh A
-1.2592 C kh ixr
-1.2592 C kh n
-1.2592 C kh ph
-1.2592 C kh u
-1.2592 C kh w
-1.0905 C l A
-1.1970 C l E
-1.1970 C l N
-1.0905 C l i
-1.0905 C l j
-1.1970 C l o
-1.1970 C l t
-0.8037 C m &
-1.0468 C m >
-0.9420 C m @
-0.7659 C m A
-1.4287 C m E
-1.4287 C m N
-1.5206 C m i
-1.5206 C m j
-1.6272 C m k
-1.6272 C m o
-1.6272 C m ph
-1.6272 C m t
-1.6755 C n &
-1.7821 C n >
-1.7821 C n @
-1.3715 C n A
-1.7821 C n C
-1.7821 C n N
-1.4350 C n cC
-1.3715 C n e
-1.0000 C n i
-1.5836 C n j
-1.6755 C n jw
-1.6755 C n k
-1.7821 C n l
-0.9586 C n m
-1.5836 C n p
-1.6755 C n sr
-1.7821 C n t
-1.0969 C n tc
-1.5836 C n th
-1.6755 C n thsr
-1.7821 C n ts
-1.7821 C n tsr
-1.6755 C n x
-1.7821 C n y
-0.9308 C o N
-1.0373 C o n
-0.9308 C o w
-1.5455 C p &
-1.1984 C p >
-1.3470 C p @
-0.9651 C p A
-1.5455 C p C
-1.5455 C p E
-1.4390 C p N
-1.4390 C p e
-1.4390 C p i
-1.1984 C p j
-1.3470 C p tc
-0.9651 C p u
-1.5455 C p w
-1.2445 C ph &
-0.8339 C ph A
-1.0460 C ph N
-1.2445 C ph m
-1.2445 C ph sr
-1.1379 C ph thsr
-1.1800 C r& &
-1.0735 C r& @
-0.9815 C r& A
-1.0735 C r& E
-1.1800 C r& N
-1.0735 C r& u
-1.1800 C r& w
-1.2134 C s @
-1.2134 C s A
-1.2134 C s p
-1.0149 C s th
-1.2134 C s u
-1.3488 C sr &
-1.6959 C sr >
-1.6959 C sr @
-1.6959 C sr A
-1.5893 C sr cCh
-1.5893 C sr i
-0.8724 C sr ixr
-1.5893 C sr j
-1.2854 C sr k
-1.5893 C sr l
-1.6959 C sr m
-1.5893 C sr n
-1.2854 C sr o
-1.5893 C sr p
-1.6959 C sr ph
-1.6959 C sr t
-1.6959 C sr tsh
-1.5893 C sr u
-1.4974 C sr w
-1.6959 C sr x
-1.4974 C sr y
-1.1252 C t &
-1.2738 C t @
-0.8919 C t A
-1.2738 C t E
-1.4723 C t N
-1.4723 C t j
-1.3657 C t o
-1.3657 C t tc
-1.0617 C t w
-0.7857 C tc cC
-1.7400 C tc cCh
-1.8465 C tc j
-0.9505 C tc k
-1.1614 C tc kh
-1.8465 C tc m
-1.0231 C tc p
-1.8465 C tc sr
-1.1614 C tc t
-1.6480 C tc th
-1.4360 C tc ts
-1.4994 C tc tsh
-0.8884 C tc tsr
-1.7400 C tc u
-1.8465 C tc w
-1.7400 C tc y
-1.0150 C th &
-1.2270 C th @
-1.4255 C th l
-1.3190 C th m
-1.3190 C th sr
-1.3190 C th tc
-1.0150 C th u
-1.2270 C th x
-1.3158 C thsr &
-1.3158 C thsr @
-1.0825 C thsr A
-1.5563 C thsr E
-1.5563 C thsr N
-1.5563 C thsr i
-1.6629 C thsr ixr
-1.6629 C thsr j
-1.6629 C thsr jw
-1.5563 C thsr l
-1.4644 C thsr m
-1.4644 C thsr n
-1.5563 C thsr o
-1.6629 C thsr p
-1.6629 C thsr ph
-1.6629 C thsr r&
-1.6629 C thsr th
-1.3158 C thsr u
-1.3158 C thsr w
-1.6629 C thsr x
-0.6368 C ts &
-1.1510 C ts @
-1.1510 C ts A
-1.2996 C ts E
-1.4981 C ts e
-1.4981 C ts i
-1.4981 C ts m
-1.3915 C ts o
-1.3915 C ts ph
-1.3915 C ts u
-1.3915 C ts w
-1.2134 C tsh &
-1.2134 C tsh C
-1.2134 C tsh N
-1.2134 C tsh k
-1.2134 C tsh m
-1.1069 C tsh s
-1.2134 C tsh u
-1.1069 C tsh w
-1.1696 C tsr &
-1.7074 C tsr @
-1.3255 C tsr A
-1.1696 C tsr E
-1.9059 C tsr N
-1.9059 C tsr e
-1.5588 C tsr i
-1.1239 C tsr ixr
-1.5588 C tsr j
-1.9059 C tsr k
-1.9059 C tsr kh
-1.7074 C tsr m
-1.3255 C tsr n
-1.0447 C tsr o
-1.2208 C tsr tc
-1.7994 C tsr th
-1.1239 C tsr u
-1.0825 C tsr w
-1.7994 C tsr x
-1.2208 C tsr y
-1.4409 C u C
-1.6394 C u N
-1.6394 C u cC
-1.5329 C u i
-1.6394 C u j
-1.6394 C u k
-1.6394 C u l
-1.4409 C u m
-1.2923 C u p
-1.5329 C u r&
-1.2923 C u sr
-0.6021 C u tc
-1.6394 C u w
-1.2289 C u x
-1.6394 C u y
-1.5529 C w &
-0.9725 C w >
-1.3544 C w @
-1.4464 C w A
-1.5529 C w N
-1.4464 C w e
-1.3544 C w i
-1.5529 C w k
-1.4464 C w l
-1.5529 C w n
-1.3544 C w o
-1.5529 C w s
-1.5529 C w sr
-1.4464 C w tc
-1.5529 C w thsr
-1.5529 C w ts
-1.5529 C w tsr
-1.5529 C w u
-1.5529 C w x
-1.4542 C x &
-1.4542 C x &r
-1.3476 C x @
-1.3476 C x A
-1.2557 C x N
-1.4542 C x cC
-1.3476 C x k
-1.3476 C x m
-1.4542 C x o
-1.4542 C x p
-1.4542 C x sr
-1.3476 C x u
-0.8738 C x w
-1.9494 C y &
-1.7509 C y C
-1.8428 C y E
-1.5389 C y N
-1.7509 C y cC
-1.3690 C y i
-1.8428 C y ixr
-1.5389 C y j
-1.9494 C y k
-1.7509 C y kh
-1.8428 C y l
-1.3690 C y m
-1.2131 C y n
-1.9494 C y p
-1.5389 C y r&
-0.9120 C y sr
-0.5545 C y tc
-1.7509 C y thsr
-1.8428 C y tsr
-1.8428 C y w
-1.6023 C y x
-1.7314 E & &r
-1.3209 E & N
-1.5329 E & i
-1.3209 E & j
-1.5329 E & l
-1.5329 E & m
-0.8702 E & n
-1.7314 E & p
-1.6249 E & r&
-1.7314 E & s
-1.0463 E & sr
-0.4870 E & tc
-1.7314 E & tsr
-1.7314 E & w
-1.4884 E &r &
-1.5950 E &r E
-1.4884 E &r N
-1.5950 E &r cCh
-1.4884 E &r i
-1.4884 E &r ixr
-1.4884 E &r j
-1.5950 E &r l
-1.5950 E &r m
-1.4884 E &r n
-1.4884 E &r r&
-1.1845 E &r sr
-1.4884 E &r t
-1.1845 E &r tc
-1.5950 E &r thsr
-1.3965 E &r tsr
-1.4884 E &r u
-1.3965 E &r x
-0.9766 E > m
-1.0831 E > r&
-0.3979 E > tc
-1.5882 E @ &
-1.4817 E @ E
-1.1777 E @ N
-1.5882 E @ f
-1.3897 E @ i
-1.0079 E @ j
-1.2412 E @ l
-1.3897 E @ m
-0.7648 E @ n
-1.5882 E @ ph
-1.3897 E @ sr
-1.3897 E @ tc
-1.5882 E @ th
-1.5786 E A @
-1.6851 E A E
-1.6851 E A I
-0.9031 E A N
-1.6851 E A j
-1.2746 E A l
-1.1048 E A n
-1.6851 E A sr
-0.8239 E A tc
-1.4866 E A u
-0.8617 E A w
-1.0000 E A x
-1.7458 E C E
-1.7458 E C I
-1.3988 E C cC
-1.7458 E C cCh
-1.5473 E C e
-1.0607 E C i
-1.3988 E C ixr
-1.3988 E C j
-1.5473 E C jw
-1.6393 E C k
-1.7458 E C kh
-1.7458 E C n
-1.7458 E C o
-1.7458 E C r&
-1.5473 E C sr
-1.7458 E C t
-1.3988 E C tc
-1.5473 E C th
-1.5473 E C thsr
-1.3988 E C tsr
-1.5473 E C w
-1.6393 E C y
-0.4129 E I tc
-1.9302 E N &
-2.3408 E N >
-2.3408 E N @
-2.2342 E N A
-1.6556 E N C
-2.3408 E N I
-1.3826 E N cC
-1.9302 E N cCh
-1.6556 E N f
-1.5173 E N i
-1.5173 E N ixr
-1.6045 E N j
-2.3408 E N jw
-1.4126 E N k
-1.5173 E N kh
-1.6556 E N l
-1.0963 E N m
-1.3826 E N n
-1.5173 E N o
-1.9937 E N p
-2.2342 E N ph
-1.7604 E N r&
-1.9302 E N s
-1.2577 E N sr
-2.3408 E N t
-0.7075 E N tc
-1.7604 E N th
-1.9302 E N thsr
-1.9302 E N ts
-2.3408 E N tsh
-1.5587 E N tsr
-1.6556 E N u
-1.4795 E N w
-1.2163 E N x
-1.9302 E N y
-1.3090 E cC &
-1.2170 E cC E
-1.2170 E cC i
-1.3090 E cC ixr
-0.5921 E cC j
-1.4155 E cC n
-1.0684 E cC y
-0.8623 E cCh j
-1.0608 E cCh o
-1.0608 E cCh r&
-0.9543 E cCh tc
-1.1518 E e E
-1.3503 E e N
-0.5268 E e j
-1.2437 E e l
-1.2437 E e n
-1.2437 E e y
-1.0050 E f &
-1.0050 E f @
-0.8352 E f A
-1.4155 E f e
-1.4155 E f k
-1.4155 E f tc
-1.4155 E f thsr
-1.3090 E f u
-1.3090 E f w
-1.4155 E f x
-1.3353 E i C
-1.7458 E i E
-1.3988 E i N
-1.7458 E i cC
-1.6393 E i j
-1.6393 E i jw
-1.3988 E i l
-1.7458 E i m
-1.6393 E i n
-1.6393 E i o
-1.7458 E i r&
-1.0607 E i sr
-0.6021 E i tc
-1.3353 E i w
-1.5473 E i x
-1.5473 E i y
-1.6394 E ixr C
-1.6394 E ixr N
-1.5329 E ixr j
-1.2923 E ixr m
-1.4409 E ixr n
-1.6394 E ixr o
-1.6394 E ixr p
-1.4409 E ixr r&
-1.6394 E ixr s
-1.2923 E ixr sr
-0.4956 E ixr tc
-1.6394 E ixr x
-1.4850 E j A
-1.3291 E j C
-1.7183 E j E
-1.9588 E j N
-1.6548 E j cC
-2.0654 E j cCh
-1.8669 E j i
-1.6548 E j ixr
-1.9588 E j jw
-1.4850 E j k
-1.2041 E j l
-1.3291 E j m
-1.6548 E j n
-1.2833 E j o
-1.9588 E j p
-1.7183 E j r&
-2.0654 E j s
-1.2833 E j sr
-1.9588 E j t
-0.6021 E j tc
-1.9588 E j tsr
-1.2833 E j w
-1.3291 E j x
-2.0654 E j y
-0.9453 E jw &
-0.7333 E jw E
-0.7333 E jw j
-1.1438 E jw o
-0.8644 E k &
-1.4448 E k &r
-1.2463 E k >
-1.4448 E k @
-1.2463 E k A
-1.4448 E k i
-1.3383 E k m
-1.3383 E k o
-1.2463 E k tc
-0.7597 E k u
-1.2463 E k w
-1.2270 E kh &
-1.0150 E kh @
-1.4255 E kh A
-1.4255 E kh e
-1.4255 E kh m
-1.4255 E kh n
-1.4255 E kh p
-1.4255 E kh r&
-1.4255 E kh th
-1.4255 E kh ts
-1.2270 E kh u
-1.4255 E kh y
-0.9521 E l &
-1.7118 E l &r
-1.8166 E l >
-1.0834 E l @
-1.0021 E l A
-1.1097 E l E
-2.1985 E l I
-1.6607 E l N
-1.8166 E l cC
-1.1999 E l e
-1.1097 E l i
-1.6607 E l ixr
-1.2532 E l j
-2.1985 E l jw
-1.6149 E l k
-2.2904 E l kh
-1.6607 E l m
-1.9864 E l n
-1.3596 E l o
-1.9864 E l p
-1.9864 E l ph
-1.9864 E l r&
-2.1985 E l sr
-1.7118 E l t
-2.0499 E l tc
-1.5735 E l th
-2.3970 E l tsr
-1.6607 E l u
-1.5357 E l w
-1.9864 E l x
-1.6149 E l y
-0.9208 E m &
-2.1874 E m &r
-1.1502 E m >
-0.9556 E m @
-0.8886 E m A
-2.2939 E m E
-1.9469 E m I
-1.3358 E m N
-1.0969 E m e
-1.7136 E m i
-1.9469 E m ixr
-1.4327 E m j
-2.2939 E m k
-2.1874 E m kh
-2.1874 E m l
-2.1874 E m n
-1.5119 E m o
-1.5576 E m p
-2.2939 E m ph
-2.0954 E m r&
-2.0954 E m sr
-1.5119 E m t
-1.7136 E m tc
-2.2939 E m th
-2.0954 E m thsr
-2.1874 E m ts
-2.1874 E m tsr
-1.4327 E m u
-1.2566 E m w
-2.1874 E m x
-2.1874 E m y
-1.5709 E n &
-2.1150 E n &r
-2.4968 E n >
-1.8341 E n @
-1.5153 E n A
-1.7672 E n C
-2.2848 E n E
-2.0102 E n I
-1.4661 E n N
-1.4081 E n cC
-1.8719 E n cCh
-1.7672 E n e
-2.2848 E n f
-1.3451 E n i
-1.7993 E n ixr
-1.5516 E n j
-2.2848 E n jw
-1.4509 E n k
-1.9133 E n kh
-1.3335 E n l
-0.9004 E n m
-1.8341 E n o
-1.5153 E n p
-2.3483 E n ph
-1.7993 E n r&
-2.3483 E n s
-1.4983 E n sr
-1.7092 E n t
-0.8719 E n tc
-1.7092 E n th
-2.0102 E n thsr
-1.7672 E n ts
-2.3483 E n tsh
-1.6123 E n tsr
-1.4983 E n u
-1.5516 E n w
-1.3818 E n x
-1.7993 E n y
-1.8390 E o &
-1.0155 E o >
-1.2586 E o A
-0.9108 E o N
-1.8390 E o cC
-1.8390 E o i
-1.7324 E o j
-1.8390 E o kh
-1.2586 E o l
-1.2586 E o m
-1.8390 E o p
-1.7324 E o ph
-1.6405 E o sr
-1.6405 E o tc
-1.8390 E o thsr
-1.8390 E o tsr
-1.0155 E o u
-0.8528 E o w
-1.4919 E o x
-1.1276 E p &
-1.1276 E p @
-1.3261 E p A
-1.2196 E p i
-1.2196 E p m
-1.3261 E p n
-1.1276 E p o
-1.3261 E p th
-1.2196 E p u
-1.3261 E p w
-1.0735 E ph A
-1.1800 E ph cC
-1.1800 E ph i
-1.1800 E ph k
-1.1800 E ph m
-1.0735 E ph u
-1.0735 E ph w
-0.8620 E r& &
-1.8993 E r& &r
-1.1630 E r& @
-1.0759 E r& A
-1.1173 E r& E
-1.2142 E r& N
-1.8993 E r& cC
-1.3190 E r& e
-1.5522 E r& i
-1.7928 E r& j
-1.7928 E r& k
-1.8993 E r& m
-1.7928 E r& n
-1.0033 E r& o
-1.8993 E r& sr
-1.8993 E r& tc
-1.7928 E r& thsr
-1.7008 E r& tsr
-1.2142 E r& u
-1.4888 E r& w
-1.8993 E r& x
-1.8993 E r& y
-1.3261 E s &
-1.2196 E s @
-1.3261 E s I
-1.3261 E s cC
-1.3261 E s k
-1.2196 E s kh
-1.3261 E s n
-1.3261 E s p
-1.3261 E s t
-1.2196 E s tc
-1.3261 E s w
-1.0351 E sr &
-2.0959 E sr @
-2.0959 E sr A
-2.0959 E sr E
-1.9894 E sr N
-1.7488 E sr cC
-2.0959 E sr cCh
-1.8974 E sr e
-1.7488 E sr f
-1.9894 E sr i
-0.9916 E sr ixr
-1.9894 E sr j
-1.7488 E sr k
-1.8974 E sr l
-1.3596 E sr m
-1.3596 E sr n
-1.5156 E sr o
-1.2347 E sr p
-1.9894 E sr r&
-2.0959 E sr s
-1.7488 E sr t
-1.3596 E sr tc
-1.9894 E sr th
-1.8974 E sr thsr
-1.8974 E sr ts
-1.3139 E sr tsr
-1.1677 E sr u
-1.4108 E sr w
-1.3596 E sr x
-1.5156 E sr y
-0.8796 E t A
-0.7877 E t N
-0.9862 E t tc
-0.9862 E t w
-2.0667 E tc &
-2.5017 E tc &r
-2.6503 E tc >
-2.7422 E tc @
-2.7422 E tc A
-2.4382 E tc C
-2.6503 E tc E
-2.2684 E tc I
-2.1125 E tc N
-1.0539 E tc cC
-1.8114 E tc cCh
-1.9528 E tc e
-1.9875 E tc f
-1.9875 E tc i
-1.7050 E tc ixr
-2.0253 E tc j
-2.6503 E tc jw
-0.9332 E tc k
-1.3677 E tc kh
-2.2684 E tc l
-1.7657 E tc m
-1.9875 E tc n
-2.6503 E tc o
-0.8414 E tc p
-1.7445 E tc ph
-2.1636 E tc r&
-2.0253 E tc s
-1.8362 E tc sr
-0.9803 E tc t
-1.6865 E tc th
-1.6043 E tc thsr
-1.1476 E tc ts
-1.8906 E tc tsh
-1.0373 E tc tsr
-1.8626 E tc u
-1.5753 E tc w
-1.6043 E tc x
-2.1125 E tc y
-0.9736 E th &
-1.2776 E th @
-1.2776 E th A
-1.3841 E th N
-1.3841 E th ixr
-1.3841 E th j
-1.2776 E th l
-1.2776 E th m
-1.2776 E th n
-1.3841 E th r&
-1.3841 E th sr
-1.3841 E th t
-1.3841 E th tc
-1.1623 E thsr &
-1.1623 E thsr &r
-1.1623 E thsr A
-1.1623 E thsr I
-1.1623 E thsr N
-1.1623 E thsr cCh
-1.1623 E thsr kh
-0.7572 E ts &
-1.1043 E ts &r
-1.1043 E ts @
-1.1043 E ts A
-1.1043 E ts ixr
-0.4810 E tsh kh
-1.2988 E tsr &
-1.4053 E tsr e
-1.0582 E tsr ixr
-1.2988 E tsr k
-1.4053 E tsr n
-0.9948 E tsr o
-1.2988 E tsr tc
-1.2988 E tsr u
-1.4053 E tsr x
-1.2988 E tsr y
-1.8313 E u A
-1.4208 E u C
-1.4842 E u N
-1.7247 E u cC
-1.4208 E u i
-1.8313 E u jw
-1.6328 E u k
-1.4842 E u l
-1.7247 E u m
-1.8313 E u n
-1.7247 E u p
-1.4208 E u ph
-1.8313 E u r&
-1.4208 E u sr
-0.6342 E u tc
-1.8313 E u th
-1.8313 E u tsh
-1.4842 E u tsr
-1.7247 E u w
-1.4842 E u x
-1.8294 E w &
-1.9780 E w &r
-1.0722 E w >
-1.3945 E w @
-1.5961 E w A
-2.0700 E w C
-2.0700 E w E
-2.0700 E w I
-1.9780 E w N
-2.1765 E w cC
-2.1765 E w cCh
-1.8294 E w e
-2.1765 E w i
-1.9780 E w ixr
-1.9780 E w j
-1.2483 E w k
-1.4914 E w kh
-1.4914 E w l
-1.3945 E w m
-1.8294 E w n
-2.1765 E w o
-1.9780 E w p
-2.0700 E w ph
-1.8294 E w r&
-1.7660 E w s
-1.3531 E w sr
-2.1765 E w t
-0.8034 E w tc
-2.1765 E w tsh
-1.4914 E w tsr
-1.1157 E w u
-1.1903 E w x
-1.5378 E x &
-2.0245 E x &r
-1.2105 E x >
-1.4409 E x @
-1.1399 E x A
-1.6426 E x I
-1.6426 E x N
-1.8124 E x cC
-2.2230 E x cCh
-1.8759 E x e
-2.0245 E x i
-2.2230 E x ixr
-1.8124 E x j
-2.1164 E x jw
-1.3995 E x k
-1.8759 E x kh
-1.6426 E x l
-1.4409 E x m
-1.4867 E x n
-1.8124 E x o
-1.2648 E x p
-2.0245 E x ph
-1.4867 E x r&
-2.2230 E x s
-1.8124 E x sr
-2.0245 E x t
-1.4867 E x tc
-2.2230 E x th
-2.1164 E x ts
-2.0245 E x tsr
-1.0430 E x u
-0.8281 E x w
-1.3090 E y cC
-1.4155 E y i
-1.4155 E y m
-1.2170 E y n
-1.4155 E y r&
-1.2170 E y sr
-0.6335 E y tc
-1.4155 E y u
-1.2170 E y x
-1.0905 I & n
-1.0905 I & sr
-0.6167 I & tc
-0.6249 I &r tc
-0.7821 I > tc
-0.7821 I > u
-0.7821 I @ n
-0.8140 I A N
-0.9060 I A r&
-1.0125 I A tc
-1.2776 I C cC
-1.3841 I C i
-1.3841 I C ixr
-1.3841 I C j
-1.2776 I C jw
-1.3841 I C k
-1.3841 I C l
-1.3841 I C m
-1.2776 I C n
-1.3841 I C tc
-1.3841 I C tsh
-1.2776 I C tsr
-1.3841 I C w
-1.3841 I C y
-0.7895 I E tc
-1.5950 I N C
-1.5950 I N cC
-1.5950 I N f
-1.3965 I N i
-1.5950 I N ixr
-1.5950 I N j
-1.5950 I N k
-1.5950 I N l
-1.5950 I N m
-1.5950 I N n
-1.4884 I N o
-1.5950 I N p
-1.3965 I N ph
-1.4884 I N s
-1.3965 I N sr
-1.4884 I N t
-0.8587 I N tc
-1.4884 I N u
-1.5950 I N w
-1.1845 I N x
-1.1043 I cC E
-0.9058 I cC ixr
-0.6938 I cC j
-0.9977 I cC m
-0.9977 I cC y
-0.8612 I cCh i
-0.8612 I cCh ixr
-0.8612 I cCh n
-0.8612 I cCh tsr
-0.8612 I cCh w
-1.1069 I e E
-1.0149 I e j
-1.0149 I e n
-0.8663 I e r&
-1.2134 I e w
-0.9282 I f I
-0.9282 I f ixr
-1.3731 I i E
-1.3731 I i N
-1.3731 I i j
-1.3731 I i jw
-1.0260 I i m
-1.2666 I i n
-1.2666 I i o
-1.1746 I i tc
-1.3731 I i tsr
-1.0125 I ixr tc
-1.0125 I ixr u
-1.0125 I ixr y
-0.9766 I j A
-1.0831 I j N
-1.0831 I j ixr
-1.0831 I j l
-1.0831 I j o
-0.8846 I j tc
-0.7547 I jw E
-0.8612 I jw j
-0.8612 I jw o
-1.0557 I k &
-1.1623 I k >
-1.0557 I k A
-1.1623 I k i
-1.1623 I k o
-1.0557 I k u
-1.1623 I k w
-0.8612 I kh tsr
-1.3239 I l &
-1.1119 I l @
-1.5224 I l A
-1.4159 I l E
-1.3239 I l e
-1.1119 I l i
-1.1753 I l j
-1.5224 I l jw
-1.4159 I l o
-1.5224 I l ph
-1.5224 I l t
-1.5224 I l x
-1.3239 I l y
-0.9542 I m &
-1.6394 I m &r
-1.6394 I m @
-1.2289 I m A
-1.2289 I m N
-1.2923 I m e
-1.5329 I m i
-1.6394 I m ixr
-1.5329 I m j
-1.6394 I m k
-1.5329 I m l
-1.6394 I m n
-1.2289 I m o
-1.6394 I m r&
-1.4409 I m sr
-1.6394 I m t
-1.6394 I m tsh
-1.5329 I m u
-1.5329 I m x
-1.5674 I n &
-1.4609 I n @
-1.4609 I n N
-1.1569 I n cC
-1.3689 I n i
-1.5674 I n ixr
-1.4609 I n j
-1.3689 I n l
-0.7853 I n m
-1.3689 I n p
-1.4609 I n r&
-1.4609 I n t
-1.5674 I n tc
-1.4609 I n x
-1.1970 I o >
-1.1970 I o cC
-0.9985 I o k
-0.9985 I o tc
-1.1970 I o tsr
-1.0905 I o x
-1.1623 I p @
-1.0557 I p N
-1.0557 I p i
-1.1623 I p kh
-1.1623 I p m
-1.0557 I p u
-0.9543 I ph &
-1.0608 I ph i
-1.0608 I ph sr
-1.0608 I ph u
-1.2463 I r& &
-1.4448 I r& &r
-1.0343 I r& E
-1.0343 I r& N
-1.4448 I r& ixr
-1.4448 I r& k
-1.0977 I r& o
-1.4448 I r& sr
-1.4448 I r& tc
-1.4448 I r& ts
-1.4448 I r& tsr
-1.4448 I r& x
-1.1623 I s &
-1.1623 I s ixr
-1.1623 I s n
-1.0557 I s p
-1.1623 I s ts
-1.1623 I s tsr
-1.6249 I sr &
-1.6249 I sr I
-1.5329 I sr i
-0.8033 I sr ixr
-1.7314 I sr j
-1.6249 I sr k
-1.7314 I sr l
-1.3209 I sr n
-1.3209 I sr o
-1.3844 I sr t
-1.3844 I sr tc
-1.7314 I sr thsr
-1.7314 I sr tsr
-1.5329 I sr u
-1.3209 I sr w
-1.3209 I sr x
-1.6249 I sr y
-2.0838 I tc &
-2.1903 I tc C
-2.1903 I tc I
-0.8642 I tc cC
-1.6099 I tc cCh
-2.1903 I tc e
-2.1903 I tc i
-2.1903 I tc ixr
-2.0838 I tc j
-0.9311 I tc k
-1.2943 I tc kh
-1.7798 I tc m
-2.1903 I tc n
-0.8285 I tc p
-2.1903 I tc ph
-2.1903 I tc r&
-2.1903 I tc s
-1.4540 I tc sr
-1.0465 I tc t
-1.8432 I tc th
-1.9918 I tc thsr
-1.4082 I tc ts
-1.8432 I tc tsh
-0.9311 I tc tsr
-1.9918 I tc u
-1.9918 I tc w
-2.0838 I tc x
-1.0125 I th kh
-0.9060 I th tc
-0.6851 I thsr x
-0.4866 I ts &
-0.4810 I tsh A
-0.9862 I tsr &
-0.9862 I tsr ixr
-0.8796 I tsr o
-1.3948 I u N
-1.3948 I u m
-1.3948 I u n
-0.9843 I u sr
-0.4667 I u tc
-1.2883 I u w
-0.9843 I u x
-1.4633 I w &
-1.4633 I w >
-1.2648 I w @
-1.3568 I w E
-1.4633 I w cCh
-1.4633 I w e
-1.4633 I w kh
-1.3568 I w n
-0.7782 I w tc
-1.4633 I w tsh
-1.2648 I w u
-1.3568 I w x
-1.5063 I x &
-1.5063 I x >
-1.3998 I x @
-1.0958 I x N
-1.5063 I x k
-1.5063 I x kh
-1.5063 I x m
-1.3078 I x o
-1.3998 I x p
-1.0958 I x tc
-1.5063 I x tsr
-1.3078 I x u
-0.9260 I x w
-1.2592 I y N
-1.1526 I y i
-1.2592 I y m
-1.1526 I y sr
-0.6788 I y tc
-1.2592 I y ts
-1.2592 I y x
-1.6454 N & C
-1.6454 N & N
-1.6454 N & i
-0.8633 N & m
-1.0650 N & n
-1.5388 N & sr
-0.4831 N & tc
-1.6454 N & u
-1.6454 N & w
-1.4469 N & x
-1.6454 N & y
-1.2437 N &r C
-1.2437 N &r cC
-1.3503 N &r l
-1.3503 N &r m
-1.3503 N &r n
-0.5682 N &r tc
-1.3503 N &r th
-1.3503 N &r x
-1.5732 N > &
-1.5732 N > A
-1.6797 N > E
-1.4812 N > N
-1.5732 N > cC
-1.5732 N > e
-1.6797 N > f
-1.4812 N > i
-1.6797 N > k
-1.6797 N > m
-1.5732 N > n
-1.6797 N > p
-1.6797 N > ph
-1.5732 N > r&
-1.2692 N > sr
-0.7837 N > tc
-1.6797 N > thsr
-1.5732 N > tsr
-1.5732 N > u
-1.2692 N > w
-1.2692 N > x
-0.9260 N @ j
-0.9260 N @ n
-1.0179 N @ tc
-1.1245 N @ u
-0.6021 N A N
-1.3841 N A kh
-1.2776 N A l
-1.3841 N A m
-1.3841 N A ph
-1.3841 N A tc
-1.0370 N A w
-1.8216 N C &
-1.9136 N C &r
-2.0201 N C A
-2.0201 N C E
-2.0201 N C I
-1.4397 N C N
-1.3350 N C cC
-1.6730 N C cCh
-2.0201 N C f
-1.0620 N C i
-1.9136 N C ixr
-1.4397 N C j
-1.6096 N C jw
-1.4397 N C k
-2.0201 N C kh
-1.9136 N C l
-1.9136 N C m
-1.2838 N C n
-2.0201 N C o
-1.6096 N C p
-1.8216 N C ph
-2.0201 N C r&
-1.9136 N C s
-1.4397 N C sr
-2.0201 N C t
-1.4397 N C tc
-1.6730 N C th
-1.8216 N C thsr
-2.0201 N C ts
-1.1589 N C tsr
-1.3350 N C u
-1.8216 N C w
-1.8216 N C x
-1.3350 N C y
-1.1940 N E N
-1.3006 N E f
-1.3006 N E i
-1.1940 N E j
-1.3006 N E m
-0.6154 N E tc
-1.3006 N E thsr
-1.1940 N E x
-1.0436 N I N
-1.4542 N I ixr
-1.4542 N I k
-1.0436 N I m
-1.4542 N I n
-1.2557 N I p
-1.3476 N I r&
-1.4542 N I sr
-0.7690 N I tc
-1.4542 N I th
-1.4542 N I w
-1.4542 N I x
-1.7815 N cC &
-1.0877 N cC E
-2.1920 N cC I
-1.8449 N cC N
-1.5068 N cC e
-2.1920 N cC f
-0.9048 N cC i
-1.2338 N cC ixr
-0.7765 N cC j
-1.6116 N cC jw
-1.8449 N cC k
-1.9935 N cC kh
-1.8449 N cC l
