~o
<STREAMINFO> 1 39
<VECSIZE> 39<NULLD><PLP_D_A_Z_0><DIAGC>
~h "I"
<BEGINHMM>
<NUMSTATES> 5
<STATE> 2
<NUMMIXES> 12
<MIXTURE> 1 1.156206e-001
<MEAN> 39
 1.186376e-001 6.024259e-002 1.325679e-001 -4.593162e-001 -4.360863e-001 1.248955e-001 -4.641315e-002 -3.685902e-002 1.863328e-001 1.023933e-001 -1.171329e-001 -1.115384e-001 5.285973e-001 7.370990e-002 -8.647241e-002 -2.311668e-002 3.770822e-002 -8.771685e-002 -1.214241e-002 5.784232e-002 2.774968e-002 -4.223046e-002 2.380905e-002 3.286551e-002 -6.739292e-002 2.508052e-002 -1.602799e-002 1.156114e-002 -1.281749e-002 5.624119e-002 5.436200e-002 -3.666188e-002 1.041476e-003 1.178434e-002 -3.136079e-002 -1.535714e-002 1.532857e-002 1.406323e-002 -4.645322e-002
<VARIANCE> 39
 2.251645e-002 3.818005e-002 4.144613e-002 5.554735e-002 5.138929e-002 5.709046e-002 7.303075e-002 5.940199e-002 6.136382e-002 5.461517e-002 5.946055e-002 5.416204e-002 5.311640e-002 5.094747e-003 4.945468e-003 5.492325e-003 8.440329e-003 7.639279e-003 9.111108e-003 9.090687e-003 8.186465e-003 9.010266e-003 8.519934e-003 8.940441e-003 5.871903e-003 3.718894e-003 1.329534e-003 7.185496e-004 1.116251e-003 1.385006e-003 1.305947e-003 1.641009e-003 1.749872e-003 1.561616e-003 1.353504e-003 1.216488e-003 1.238192e-003 1.085581e-003 9.306381e-004
<GCONST> -1.185903e+002
<MIXTURE> 2 1.013648e-001
<MEAN> 39
 -7.154410e-002 2.865238e-001 9.939782e-002 -9.731352e-002 -2.903942e-002 8.743882e-003 -1.072649e-001 -4.327768e-002 1.497944e-002 -2.562632e-002 -6.026579e-002 1.891489e-002 1.313222e-001 7.951475e-002 -6.710167e-003 4.292830e-003 -9.623253e-003 -4.244747e-002 -1.158104e-002 -1.790531e-002 -4.633546e-003 -9.617670e-003 2.425335e-003 -8.001019e-003 -1.787588e-002 -1.683843e-003 -8.149444e-003 -1.296221e-002 -7.224617e-003 1.012208e-002 9.840930e-003 -3.646876e-003 9.280479e-003 4.888273e-003 -2.207947e-003 2.270923e-003 4.447062e-003 1.170577e-003 -1.141733e-002
<VARIANCE> 39
 1.176099e-001 8.377259e-002 6.734829e-002 8.741825e-002 9.485351e-002 9.456217e-002 8.777910e-002 8.055032e-002 7.812821e-002 7.023270e-002 6.929500e-002 5.826862e-002 6.708318e-002 1.162575e-002 6.315636e-003 6.979582e-003 8.524041e-003 1.038237e-002 1.045337e-002 8.563877e-003 9.087596e-003 8.037640e-003 7.915653e-003 6.942814e-003 6.098867e-003 5.782132e-003 1.380493e-003 1.025903e-003 1.293510e-003 1.441660e-003 1.506849e-003 1.694073e-003 1.526185e-003 1.583226e-003 1.406988e-003 1.357296e-003 1.199637e-003 9.616959e-004 1.003554e-003
<GCONST> -1.101032e+002
<MIXTURE> 3 4.650714e-002
<MEAN> 39
 -1.054271e-001 1.886634e-002 -3.263223e-001 -8.622226e-001 -1.243433e-002 -3.481033e-001 -3.350614e-001 -1.051273e-001 3.790048e-002 5.888100e-002 3.252929e-001 4.565898e-001 5.863342e-001 4.068932e-002 -8.228485e-002 4.234803e-002 -3.950657e-002 -5.254827e-002 7.242817e-002 -1.352565e-002 -4.678609e-002 1.037529e-002 -6.389547e-002 -6.059280e-002 3.363331e-002 8.906412e-003 1.322033e-002 2.087866e-002 3.192477e-002 8.942752e-002 -1.977479e-002 1.580432e-002 2.979634e-002 -1.019056e-003 -5.880120e-003 -4.566779e-003 -3.637551e-002 -4.304696e-002 -5.389513e-002
<VARIANCE> 39
 2.371760e-002 4.504659e-002 4.599716e-002 4.263015e-002 4.981554e-002 7.441396e-002 5.748181e-002 5.546597e-002 6.496275e-002 8.477318e-002 9.180738e-002 5.194282e-002 3.397272e-002 2.995450e-003 5.607740e-003 8.702179e-003 8.567734e-003 8.024391e-003 8.929516e-003 8.432131e-003 8.558762e-003 8.285559e-003 9.870746e-003 9.934930e-003 8.051657e-003 3.311676e-003 1.099188e-003 1.017540e-003 1.102379e-003 1.779473e-003 1.864671e-003 1.944584e-003 1.454877e-003 1.587619e-003 1.613111e-003 1.826892e-003 1.508425e-003 1.275023e-003 8.648478e-004
<GCONST> -1.161080e+002
<MIXTURE> 4 1.351161e-001
<MEAN> 39
 2.597078e-002 2.262204e-001 9.093274e-002 -5.783771e-001 -3.217221e-001 6.831197e-002 -1.847511e-001 9.868119e-002 2.771367e-001 7.272678e-002 -1.411199e-001 5.290652e-002 5.639495e-001 1.346752e-002 -1.459338e-002 -4.514719e-004 9.139263e-003 -3.645638e-003 1.334356e-002 6.994213e-003 -1.942348e-003 -1.903113e-002 1.562113e-002 -1.625356e-002 -4.994344e-003 -8.517987e-003 3.758458e-003 5.861193e-003 9.239042e-003 4.504164e-002 1.788536e-002 -1.708693e-002 9.247729e-003 -2.224777e-002 -3.104184e-002 -2.619760e-003 5.113428e-003 -8.442687e-003 -4.245327e-002
<VARIANCE> 39
 1.975451e-002 4.352526e-002 3.241637e-002 4.109298e-002 4.446187e-002 4.697749e-002 5.761414e-002 5.137876e-002 4.182802e-002 4.325518e-002 4.481163e-002 4.737607e-002 5.330456e-002 1.093835e-003 3.190724e-003 1.903032e-003 2.754024e-003 3.290664e-003 4.082459e-003 4.306887e-003 4.022562e-003 4.074160e-003 4.084002e-003 4.213551e-003 3.792976e-003 1.665503e-003 4.400114e-004 4.720836e-004 4.715061e-004 7.607025e-004 7.670114e-004 9.022323e-004 7.753024e-004 8.858530e-004 8.839849e-004 8.101788e-004 8.011328e-004 6.888547e-004 5.789347e-004
<GCONST> -1.393653e+002
<MIXTURE> 5 1.248259e-001
<MEAN> 39
 6.156207e-002 4.154557e-001 -1.582054e-001 -5.313563e-001 9.704907e-002 -2.915579e-001 -7.940397e-002 7.280721e-002 7.536770e-002 -1.127319e-002 -7.723789e-002 1.042166e-003 4.031924e-001 -4.281977e-004 -1.898601e-002 1.483652e-002 -1.715696e-002 1.003568e-002 2.047369e-002 -6.085568e-003 8.005101e-003 -6.224906e-003 -2.354637e-003 2.542145e-003 8.175996e-005 3.064121e-003 3.949239e-003 -4.682903e-003 7.655480e-003 1.041755e-002 -6.878820e-003 6.999338e-003 -7.871968e-003 -2.594714e-003 2.456320e-004 -2.786563e-003 1.590353e-003 7.830871e-004 -8.633288e-003
<VARIANCE> 39
 2.274143e-002 5.938967e-002 6.448935e-002 6.552986e-002 8.363803e-002 8.260167e-002 6.855029e-002 6.912988e-002 6.735771e-002 5.291408e-002 5.304297e-002 4.510415e-002 5.071174e-002 4.225575e-004 1.305494e-003 1.528054e-003 1.396665e-003 1.648164e-003 2.225692e-003 2.143353e-003 2.139618e-003 2.065675e-003 1.941687e-003 2.064653e-003 1.778816e-003 5.526502e-004 9.493563e-005 1.583261e-004 2.214938e-004 2.925915e-004 3.114045e-004 3.367739e-004 3.408282e-004 4.000828e-004 3.694806e-004 3.579698e-004 3.429731e-004 2.747615e-004 1.068876e-004
<GCONST> -1.576984e+002
<MIXTURE> 6 9.899671e-002
<MEAN> 39
 2.914856e-002 4.039922e-001 9.143870e-002 -6.726813e-001 -7.717816e-002 -3.253128e-002 -4.594410e-001 2.354331e-001 1.726956e-001 -4.144597e-002 2.766971e-002 7.592446e-004 4.782681e-001 5.572909e-002 -4.648361e-002 5.675005e-002 -7.332976e-003 -6.925332e-002 6.562743e-002 -4.120999e-002 2.163382e-002 -3.332473e-003 2.476509e-003 5.563532e-003 -4.473959e-002 -2.943207e-002 -5.240486e-003 -1.790906e-002 2.288809e-003 8.556139e-002 7.246612e-003 -8.704558e-003 4.898671e-002 -3.985994e-002 -2.557578e-002 -9.989536e-004 -1.218473e-002 4.232143e-003 -5.915813e-002
<VARIANCE> 39
 2.466949e-002 4.346811e-002 5.257094e-002 4.992251e-002 8.632603e-002 6.853217e-002 4.666959e-002 6.488169e-002 6.584964e-002 5.619857e-002 4.800589e-002 3.623405e-002 6.183403e-002 3.516816e-003 6.660492e-003 6.000569e-003 7.346142e-003 8.729505e-003 8.128725e-003 8.173835e-003 7.520157e-003 7.833275e-003 6.844319e-003 7.123969e-003 5.442838e-003 5.262576e-003 1.501840e-003 1.097378e-003 1.106870e-003 1.500048e-003 2.119589e-003 1.671978e-003 1.275355e-003 1.447245e-003 1.597481e-003 1.323486e-003 1.158304e-003 9.423485e-004 1.034093e-003
<GCONST> -1.179967e+002
<MIXTURE> 7 1.043872e-001
<MEAN> 39
 1.009057e-001 5.088630e-001 -3.441832e-001 -4.561524e-001 1.004100e-001 -5.154927e-001 6.477514e-002 -4.088214e-002 1.180227e-002 2.711437e-002 -1.975042e-001 -3.247991e-002 3.576109e-001 1.324289e-002 -2.261009e-002 4.728300e-002 -2.369124e-002 1.821684e-002 2.788643e-002 -2.277949e-002 1.179203e-002 -7.741803e-003 -4.414340e-003 4.355017e-003 -1.272389e-002 -1.625881e-002 9.804147e-004 -2.762927e-002 4.584982e-002 3.916084e-002 -1.926695e-002 4.395660e-002 -2.863429e-002 1.902597e-003 -7.991469e-003 -1.141370e-002 1.905305e-002 1.141263e-003 -3.174922e-002
<VARIANCE> 39
 2.191604e-002 4.287978e-002 6.583919e-002 7.150394e-002 8.278840e-002 6.569611e-002 7.186773e-002 7.312892e-002 7.071638e-002 5.662297e-002 6.167275e-002 4.916549e-002 4.395499e-002 1.927465e-003 4.583383e-003 7.498827e-003 6.932674e-003 5.878979e-003 6.422156e-003 6.650140e-003 6.678894e-003 5.715628e-003 5.490478e-003 5.935267e-003 4.589447e-003 2.796426e-003 9.318384e-004 7.561952e-004 1.022002e-003 1.540664e-003 1.697768e-003 1.323741e-003 1.135291e-003 1.314248e-003 1.365436e-003 1.098954e-003 1.113939e-003 8.321594e-004 5.894069e-004
<GCONST> -1.227102e+002
<MIXTURE> 8 8.393854e-002
<MEAN> 39
 3.169381e-002 1.840684e-001 -6.958646e-002 -6.233789e-001 1.133250e-001 4.846463e-002 -2.696999e-001 3.165192e-002 1.334294e-001 -2.277695e-001 -3.760048e-002 1.802156e-001 5.009428e-001 1.407151e-002 -8.431429e-002 4.728702e-002 7.277718e-003 -5.507401e-002 9.899120e-002 4.700682e-003 -6.166911e-002 2.738748e-002 8.736908e-003 -3.499468e-002 1.953539e-002 1.390526e-002 1.623004e-002 -2.455812e-003 7.259605e-003 5.320362e-002 -3.036228e-002 -2.584204e-002 2.398099e-002 -1.687236e-002 -2.071996e-002 3.072157e-002 -8.143095e-003 -2.275296e-002 -3.124066e-002
<VARIANCE> 39
 2.483430e-002 4.802152e-002 3.652110e-002 6.001122e-002 5.653188e-002 5.529515e-002 5.437316e-002 6.087602e-002 5.588061e-002 4.558192e-002 4.898040e-002 4.175219e-002 5.186724e-002 1.305716e-003 3.127956e-003 3.634087e-003 4.025569e-003 6.238189e-003 5.243951e-003 5.454554e-003 5.928060e-003 5.912791e-003 5.703511e-003 5.358249e-003 5.588001e-003 1.431839e-003 3.474601e-004 5.992220e-004 5.605708e-004 8.291228e-004 7.831113e-004 9.292604e-004 9.787027e-004 9.313879e-004 1.055798e-003 7.943027e-004 1.026613e-003 8.043431e-004 3.545279e-004
<GCONST> -1.332020e+002
<MIXTURE> 9 4.439251e-002
<MEAN> 39
 -8.680753e-002 2.127654e-001 -4.818540e-001 -6.811336e-001 -1.173710e-002 -5.440460e-001 -1.196962e-001 -2.356898e-001 -9.770959e-002 5.095431e-002 1.267625e-001 3.701071e-001 5.141191e-001 8.790621e-003 -6.837854e-003 1.017627e-002 -2.077105e-002 1.336169e-002 1.050553e-002 1.312566e-002 -4.090416e-003 3.949863e-004 -2.727670e-002 -2.246656e-002 -1.555677e-002 -2.169010e-003 1.370326e-002 3.677685e-003 2.878686e-002 2.467268e-002 -1.673385e-002 1.667889e-002 -9.458272e-003 1.314140e-002 9.064671e-003 -6.798558e-003 -4.877553e-003 -2.008768e-002 -2.267438e-002
<VARIANCE> 39
 1.718730e-002 4.303139e-002 5.378617e-002 5.795033e-002 4.034042e-002 5.324532e-002 5.297651e-002 5.103313e-002 3.985060e-002 6.306172e-002 7.386768e-002 4.503062e-002 3.246966e-002 7.748537e-004 2.387691e-003 2.624366e-003 2.830598e-003 2.110349e-003 3.570270e-003 3.745177e-003 4.363218e-003 3.249408e-003 3.878043e-003 4.784964e-003 3.430066e-003 1.065303e-003 2.333361e-004 3.952348e-004 5.728658e-004 8.059861e-004 6.420396e-004 6.510878e-004 7.360260e-004 8.298330e-004 7.322439e-004 7.888188e-004 6.571889e-004 5.979602e-004 3.166712e-004
<GCONST> -1.424063e+002
<MIXTURE> 10 3.041572e-002
<MEAN> 39
 -2.160317e-001 1.277359e-001 -4.892549e-001 -6.950865e-001 -1.351642e-001 -5.895831e-001 -1.369808e-001 8.487231e-002 2.960229e-001 6.745864e-001 7.616822e-001 3.447054e-001 5.449465e-001 3.052356e-003 -2.867289e-002 1.271284e-002 -1.775395e-002 6.454750e-003 1.288603e-002 -2.618695e-002 -3.613087e-002 -1.540648e-002 -3.606006e-002 8.446846e-003 3.209814e-002 3.076634e-003 1.923066e-002 1.757126e-004 2.618149e-002 3.267226e-002 -1.213935e-002 2.438004e-002 -8.673312e-003 -1.051400e-002 -8.224993e-003 -4.324002e-002 -4.407370e-002 -9.239740e-003 -2.885302e-002
<VARIANCE> 39
 2.013665e-002 3.878755e-002 5.854217e-002 4.893039e-002 5.420408e-002 8.414713e-002 6.335582e-002 6.657798e-002 7.653354e-002 7.366445e-002 6.019503e-002 5.447319e-002 4.730495e-002 1.668951e-003 4.180831e-003 4.512097e-003 4.349890e-003 4.453517e-003 8.171842e-003 6.066060e-003 7.325920e-003 7.785139e-003 9.804356e-003 8.930123e-003 6.748391e-003 1.966133e-003 5.078450e-004 6.769006e-004 9.956176e-004 1.089948e-003 1.134866e-003 1.623119e-003 1.091071e-003 1.111422e-003 1.488929e-003 1.465365e-003 1.351532e-003 1.099388e-003 4.774773e-004
<GCONST> -1.240703e+002
<MIXTURE> 11 9.019031e-002
<MEAN> 39
 9.193371e-002 2.455959e-001 -5.547321e-002 -8.345706e-001 -1.077263e-002 -3.198636e-001 -2.750737e-002 2.521634e-001 1.820093e-001 -1.089617e-001 -1.491213e-001 -7.037296e-002 5.187590e-001 3.396487e-002 -3.815474e-002 3.547445e-002 -6.463788e-003 -2.717855e-002 4.574649e-002 -1.029392e-002 -1.040389e-002 3.265194e-002 -1.419421e-002 -2.015957e-002 2.654049e-003 -1.727398e-002 -1.383361e-002 9.532085e-003 1.648461e-002 9.550579e-002 -4.931497e-003 2.976523e-002 -8.534967e-003 -3.776131e-002 -2.520461e-002 2.293235e-003 1.131247e-002 9.749909e-003 -5.222625e-002
<VARIANCE> 39
 1.867544e-002 3.699512e-002 3.903855e-002 3.688891e-002 4.168188e-002 5.284866e-002 3.375472e-002 4.516716e-002 5.410002e-002 5.812775e-002 4.866566e-002 3.991983e-002 3.872580e-002 2.389232e-003 5.017376e-003 4.120509e-003 6.909635e-003 5.593670e-003 7.365541e-003 5.331284e-003 5.739688e-003 5.918620e-003 5.491378e-003 5.697328e-003 4.298170e-003 3.235054e-003 1.055173e-003 7.246995e-004 8.590113e-004 1.505645e-003 1.427299e-003 1.247566e-003 9.530110e-004 1.199386e-003 1.449704e-003 1.312790e-003 1.167902e-003 9.037529e-004 8.864440e-004
<GCONST> -1.275036e+002
<MIXTURE> 12 2.425319e-002
<MEAN> 39
 -1.733102e-001 5.998489e-002 -4.142930e-001 -5.921015e-001 -4.148333e-002 -1.304236e-001 2.735536e-001 6.058846e-001 7.574918e-001 6.449928e-001 1.874130e-001 -4.590652e-001 5.541506e-001 1.255810e-002 -4.780695e-002 2.697574e-003 -2.616946e-002 -1.785640e-002 1.890701e-002 -2.101136e-002 -2.805459e-002 2.522242e-002 2.717671e-002 5.913746e-002 1.872308e-002 1.404040e-002 7.814352e-003 1.257343e-003 1.954537e-002 3.208891e-002 -8.908887e-003 -5.645599e-003 -2.090416e-002 -3.868397e-002 -4.258934e-002 -3.609340e-002 -7.827715e-003 4.211879e-002 -2.829221e-002
<VARIANCE> 39
 4.242131e-002 7.904957e-002 7.156838e-002 8.117706e-002 9.370346e-002 1.203230e-001 1.300009e-001 1.463825e-001 1.559758e-001 2.962143e-001 3.652648e-001 1.881872e-001 8.316458e-002 3.974960e-003 7.303541e-003 7.108533e-003 9.938098e-003 1.085623e-002 1.369433e-002 1.247607e-002 1.707392e-002 1.976868e-002 2.349927e-002 2.060803e-002 2.257157e-002 5.526682e-003 8.540113e-004 1.258687e-003 1.090541e-003 2.059035e-003 2.016010e-003 2.213067e-003 1.669004e-003 2.651068e-003 3.044488e-003 4.289831e-003 4.039594e-003 2.531331e-003 1.055494e-003
<GCONST> -9.466199e+001
<STATE> 3
<NUMMIXES> 12
<MIXTURE> 1 1.002913e-001
<MEAN> 39
 1.427255e-001 3.457789e-001 1.062226e-001 -5.846148e-001 2.425936e-002 -2.962449e-002 -4.357563e-001 2.118269e-001 7.301957e-002 -9.562355e-002 -2.464502e-003 -5.603854e-002 2.942422e-001 2.227409e-002 -3.554089e-002 7.441512e-002 9.422733e-002 -4.596584e-002 6.454153e-002 -3.075598e-003 -4.475653e-002 -1.149212e-002 -1.552873e-002 -1.544279e-002 -4.527077e-004 -9.624645e-002 -2.006083e-002 -8.737929e-003 -8.592131e-003 6.064544e-002 -1.033229e-003 -1.086164e-002 4.772286e-002 -3.223818e-002 -7.028276e-003 7.759383e-003 -8.644101e-003 1.147836e-002 -3.069268e-002
<VARIANCE> 39
 2.854853e-002 5.112428e-002 5.480200e-002 6.234042e-002 6.633255e-002 7.441591e-002 7.298228e-002 7.733190e-002 7.935266e-002 7.926568e-002 5.974823e-002 4.857811e-002 5.219756e-002 4.316981e-003 5.758538e-003 7.110399e-003 9.112093e-003 9.101104e-003 9.110462e-003 8.669366e-003 7.834296e-003 8.624678e-003 6.974516e-003 6.080843e-003 5.591011e-003 7.553023e-003 8.568661e-004 1.133960e-003 9.741863e-004 1.247683e-003 1.276750e-003 1.495314e-003 1.341293e-003 1.384483e-003 1.631441e-003 1.577318e-003 1.276880e-003 1.033887e-003 5.681023e-004
<GCONST> -1.167302e+002
<MIXTURE> 2 9.583373e-002
<MEAN> 39
 1.557163e-001 4.975264e-001 -1.024027e-001 -5.100762e-001 -1.179685e-002 -4.546917e-001 -3.532242e-003 9.032010e-002 1.058049e-001 -5.526627e-004 -2.140239e-001 -1.275654e-001 2.431640e-001 -2.508847e-003 -1.590541e-002 8.388942e-002 9.810571e-002 -4.580449e-003 7.837024e-002 -4.159161e-002 -1.464936e-002 -3.938899e-002 -1.921207e-002 2.249523e-002 -5.755603e-003 -9.358061e-002 -2.587483e-002 -2.370974e-002 1.499841e-002 5.075643e-002 5.548025e-003 4.334607e-002 -6.481421e-003 -8.146818e-003 -1.675921e-002 -6.681460e-003 2.252670e-002 1.417080e-002 -2.413254e-002
<VARIANCE> 39
 2.073053e-002 4.758653e-002 5.448106e-002 6.872356e-002 6.570688e-002 6.254452e-002 6.012940e-002 6.591320e-002 6.572835e-002 6.374023e-002 5.502346e-002 4.515297e-002 5.119579e-002 4.343697e-003 5.370826e-003 8.106136e-003 8.930741e-003 6.663458e-003 7.777639e-003 6.751095e-003 7.504111e-003 6.067306e-003 5.932611e-003 5.721889e-003 4.264046e-003 6.509686e-003 8.337600e-004 8.894445e-004 8.707208e-004 1.503542e-003 1.464773e-003 1.112670e-003 1.119791e-003 1.271864e-003 1.363200e-003 1.233094e-003 1.100120e-003 8.112224e-004 6.433621e-004
<GCONST> -1.211703e+002
<MIXTURE> 3 8.241960e-002
<MEAN> 39
 2.018890e-001 -8.806551e-002 4.714136e-002 -2.219067e-001 -4.834251e-001 -9.977875e-003 1.296487e-001 6.933472e-002 -4.381954e-002 8.620048e-002 9.224024e-002 -2.794884e-001 5.174196e-001 6.925619e-002 -6.258347e-002 -5.740548e-002 1.006002e-001 1.223543e-002 -9.749781e-002 2.508209e-002 9.043790e-002 -7.816881e-002 -2.975475e-002 6.469318e-002 -2.024011e-002 -2.416068e-002 -1.549944e-002 2.662473e-002 -4.879608e-003 1.160297e-002 5.911156e-002 -2.091599e-002 -3.403690e-002 5.817674e-003 1.050647e-002 -1.528572e-002 -1.662285e-002 3.638870e-002 -3.217170e-002
<VARIANCE> 39
 2.332799e-002 3.409452e-002 4.713213e-002 4.657326e-002 5.732590e-002 7.076398e-002 6.616616e-002 6.900411e-002 6.589739e-002 5.853615e-002 5.352106e-002 4.268015e-002 5.430560e-002 3.736406e-003 3.337183e-003 6.082646e-003 7.686242e-003 5.364544e-003 7.046139e-003 9.215181e-003 7.167764e-003 7.220467e-003 6.271345e-003 5.446181e-003 4.620508e-003 4.012442e-003 9.362001e-004 6.039846e-004 1.037018e-003 9.068143e-004 1.301013e-003 1.516236e-003 1.352625e-003 1.386839e-003 1.241906e-003 1.231484e-003 1.091553e-003 9.170502e-004 5.993518e-004
<GCONST> -1.234225e+002
<MIXTURE> 4 1.541868e-001
<MEAN> 39
 3.951030e-002 3.393580e-001 6.224651e-003 -5.744042e-001 -9.762142e-002 -1.147839e-001 -1.731382e-001 1.141546e-001 1.881005e-001 -1.669313e-002 -6.947973e-002 4.107918e-002 4.507215e-001 1.343154e-002 -8.398124e-004 1.275007e-002 2.221548e-002 5.250466e-003 9.726242e-003 -4.923069e-003 -1.436208e-002 -1.500140e-002 -1.048612e-003 -8.040348e-003 -3.390013e-003 -3.524023e-002 2.944859e-003 1.630696e-003 6.566841e-003 2.379572e-002 2.992995e-005 -2.720519e-004 1.793205e-004 -1.207435e-002 -8.838231e-003 6.896770e-004 -1.718273e-003 -2.312707e-003 -2.056597e-002
<VARIANCE> 39
 2.194232e-002 5.805651e-002 5.715896e-002 5.325155e-002 6.793826e-002 8.285921e-002 6.596997e-002 6.268385e-002 5.551333e-002 4.972305e-002 4.722742e-002 4.531080e-002 5.435295e-002 9.465569e-004 2.087481e-003 1.940835e-003 2.290933e-003 2.651477e-003 3.404166e-003 2.830473e-003 3.395018e-003 3.215008e-003 2.770063e-003 2.708026e-003 2.511711e-003 1.844493e-003 2.214082e-004 2.963935e-004 3.391919e-004 5.041470e-004 4.877915e-004 5.131135e-004 5.076610e-004 5.789467e-004 5.301426e-004 5.048393e-004 4.840673e-004 3.986325e-004 2.615533e-004
<GCONST> -1.460563e+002
<MIXTURE> 5 5.284483e-002
<MEAN> 39
 1.327755e-003 3.603989e-001 -4.441920e-001 -5.315039e-001 4.866235e-003 -5.624894e-001 -8.503958e-002 -2.096688e-001 -2.639250e-002 6.272797e-002 2.037306e-002 2.851404e-001 3.962262e-001 5.559749e-002 -5.667844e-003 9.083870e-002 4.526604e-002 -2.174590e-002 3.725949e-002 -1.109222e-002 3.846633e-003 -1.987457e-002 -3.865885e-002 -4.094897e-002 -4.588558e-002 -9.032191e-002 6.821791e-003 -1.320065e-002 4.161687e-002 3.559288e-002 -1.535422e-002 3.427551e-002 -1.011931e-002 1.902474e-002 -3.878010e-003 -3.520653e-003 5.719861e-003 -2.255480e-002 -3.808197e-002
<VARIANCE> 39
 2.292618e-002 5.664142e-002 8.034822e-002 7.909866e-002 7.115010e-002 7.480346e-002 7.624640e-002 7.248335e-002 7.537357e-002 8.898221e-002 9.853134e-002 5.862300e-002 3.916394e-002 2.356626e-003 5.269272e-003 8.491036e-003 6.893106e-003 5.536023e-003 6.688763e-003 6.756190e-003 7.854149e-003 6.758518e-003 7.573251e-003 7.881138e-003 5.103173e-003 5.460561e-003 5.694061e-004 9.532159e-004 1.016331e-003 1.560094e-003 1.228154e-003 1.272604e-003 1.233901e-003 1.330475e-003 1.305637e-003 1.380838e-003 1.367928e-003 9.011287e-004 7.045603e-004
<GCONST> -1.187223e+002
<MIXTURE> 6 9.928069e-002
<MEAN> 39
 8.340557e-002 2.343432e-002 2.211712e-002 -5.447341e-001 -8.390820e-002 2.094178e-001 -1.964666e-001 -1.095229e-001 2.071774e-001 -1.137604e-001 -1.852474e-001 2.029229e-001 5.120710e-001 3.762745e-002 -7.836378e-002 2.969259e-002 8.777978e-002 -8.013649e-002 3.270881e-002 6.031549e-002 -8.456575e-002 -3.159025e-002 6.398910e-002 -3.822717e-002 -2.302413e-002 -2.358716e-002 6.714566e-003 1.836256e-002 -3.854940e-003 3.894234e-002 1.129839e-003 -5.166096e-002 1.919711e-002 1.283877e-002 -3.506801e-002 1.595376e-002 1.637973e-002 -2.976421e-002 -2.991796e-002
<VARIANCE> 39
 2.665227e-002 4.641477e-002 3.631398e-002 5.526992e-002 6.513540e-002 5.434461e-002 6.675823e-002 6.757849e-002 5.634142e-002 5.593036e-002 5.120585e-002 4.271200e-002 5.678940e-002 1.455613e-003 3.232989e-003 2.913492e-003 3.831192e-003 5.983007e-003 5.028432e-003 5.640506e-003 5.200461e-003 6.095605e-003 4.672924e-003 4.866631e-003 5.079583e-003 2.054445e-003 3.911299e-004 5.331176e-004 6.229064e-004 9.201415e-004 8.372040e-004 1.063205e-003 1.096218e-003 1.065010e-003 9.881440e-004 9.150350e-004 1.044458e-003 7.222339e-004 3.419417e-004
<GCONST> -1.321494e+002
<MIXTURE> 7 7.015719e-002
<MEAN> 39
 7.013029e-002 1.837693e-001 -1.875981e-001 -5.505284e-001 3.402075e-001 -1.772587e-001 -1.775050e-001 1.204564e-002 -7.416495e-002 -7.495499e-002 6.762053e-002 -1.649573e-002 4.576857e-001 5.242131e-003 -7.752433e-002 6.646301e-002 9.328050e-003 -1.396948e-002 9.722050e-002 -7.726654e-002 -1.461309e-002 2.834029e-002 -4.113645e-002 4.285197e-002 2.664342e-002 5.673878e-003 6.047245e-003 2.703302e-003 4.640724e-003 2.460011e-002 -2.978937e-002 1.545674e-003 4.158314e-003 -1.456787e-002 1.665684e-002 7.901733e-004 -1.591651e-002 9.430331e-003 -1.352001e-002
<VARIANCE> 39
 2.082354e-002 4.989471e-002 3.898948e-002 6.389880e-002 5.483895e-002 5.568348e-002 5.884473e-002 5.756631e-002 4.538628e-002 4.208743e-002 4.758750e-002 4.092830e-002 5.608224e-002 8.376639e-004 1.763246e-003 2.093570e-003 2.962526e-003 4.137634e-003 3.061743e-003 3.647577e-003 4.391303e-003 4.106340e-003 3.688297e-003 4.376996e-003 3.539809e-003 1.036106e-003 1.307579e-004 2.552243e-004 3.361720e-004 4.048356e-004 4.633058e-004 5.098953e-004 6.608404e-004 5.679355e-004 5.638830e-004 5.525765e-004 6.212405e-004 5.048167e-004 1.354033e-004
<GCONST> -1.467717e+002
<MIXTURE> 8 6.646316e-002
<MEAN> 39
 5.712890e-002 -1.845076e-002 -4.980671e-002 -8.276001e-001 -1.660200e-001 -8.348645e-002 -1.844320e-001 -6.242572e-002 1.814411e-001 -1.627867e-001 -8.405996e-002 3.207055e-001 5.596864e-001 6.770024e-002 -1.723783e-002 7.256024e-002 1.155998e-001 -8.169287e-002 4.495433e-002 3.317652e-002 -4.846365e-002 -2.252609e-003 -5.215455e-003 -8.085540e-002 -3.660617e-002 -1.023382e-001 -7.499220e-003 3.799790e-002 5.101436e-003 8.198760e-002 1.398479e-002 -1.598770e-002 1.051359e-002 4.020186e-003 -3.272591e-002 1.444405e-002 1.283226e-002 -3.597308e-002 -6.170383e-002
<VARIANCE> 39
 2.212162e-002 4.454912e-002 4.090176e-002 3.765584e-002 4.994166e-002 4.739406e-002 5.774413e-002 8.093236e-002 6.371330e-002 6.835169e-002 7.280370e-002 6.115072e-002 3.364684e-002 2.910474e-003 5.503383e-003 5.032608e-003 6.319923e-003 5.893108e-003 6.562827e-003 6.709416e-003 6.530470e-003 6.467060e-003 6.829103e-003 6.527247e-003 5.917547e-003 5.834024e-003 9.068795e-004 8.599256e-004 8.906134e-004 1.487006e-003 1.374910e-003 1.543619e-003 1.453730e-003 1.675573e-003 1.471676e-003 1.669138e-003 1.435182e-003 1.006381e-003 8.816890e-004
<GCONST> -1.212878e+002
<MIXTURE> 9 3.070795e-002
<MEAN> 39
 -1.153549e-001 -1.475269e-001 -3.161020e-001 -6.715747e-001 -2.920333e-001 -2.211108e-001 -2.614789e-001 -1.321837e-002 4.204599e-001 3.740965e-001 6.836743e-001 3.830304e-001 5.388471e-001 6.156275e-002 -2.698406e-002 6.113621e-002 8.044595e-002 -6.140083e-002 2.287914e-002 -3.072115e-002 -9.525163e-002 -4.714598e-002 -9.682786e-002 -8.972703e-002 4.563775e-002 -7.262427e-002 3.475815e-003 3.759785e-002 1.865177e-002 4.942419e-002 2.024297e-002 -6.352330e-003 2.093108e-002 9.520347e-003 -3.330329e-002 -1.119689e-002 -5.154981e-002 -3.474601e-002 -4.279884e-002
<VARIANCE> 39
 2.589847e-002 5.817033e-002 4.513570e-002 5.717754e-002 7.220447e-002 1.019908e-001 1.021767e-001 1.095842e-001 1.179689e-001 1.478292e-001 1.010237e-001 1.196736e-001 5.466959e-002 3.505176e-003 6.646801e-003 7.740155e-003 6.431826e-003 7.672511e-003 1.115654e-002 9.611826e-003 8.269013e-003 1.316447e-002 1.410055e-002 1.241377e-002 1.107461e-002 5.532904e-003 8.328516e-004 8.801675e-004 1.144001e-003 1.725504e-003 1.564752e-003 2.458774e-003 1.843468e-003 2.007343e-003 2.300697e-003 2.689075e-003 2.022130e-003 2.153039e-003 9.305244e-004
<GCONST> -1.071702e+002
<MIXTURE> 10 7.358176e-002
<MEAN> 39
 -6.071932e-002 2.798685e-001 7.172200e-002 1.566879e-003 -7.184411e-003 4.002930e-002 -1.071850e-001 -7.738113e-002 -9.073381e-003 -2.915382e-002 -7.269646e-002 2.573748e-002 6.043705e-002 5.297279e-002 -2.424240e-002 8.189035e-003 1.385415e-002 -1.084459e-002 -7.130761e-003 -7.689537e-003 -6.790553e-003 -1.848008e-002 5.586240e-003 -1.126471e-003 -1.304488e-002 -3.381590e-002 -1.129432e-002 -1.139907e-002 -3.719716e-003 -2.871525e-003 9.247454e-003 -7.754802e-003 9.506783e-003 8.189425e-003 2.261604e-003 3.451079e-003 5.221974e-003 1.514522e-003 -4.805311e-003
<VARIANCE> 39
 1.309001e-001 8.193291e-002 8.271167e-002 8.088350e-002 9.690289e-002 1.011315e-001 8.922352e-002 8.320213e-002 8.343286e-002 6.658435e-002 6.627514e-002 5.451027e-002 7.174107e-002 1.026717e-002 6.095560e-003 6.541824e-003 8.044316e-003 8.721728e-003 9.761010e-003 8.299227e-003 8.419515e-003 7.757572e-003 7.313328e-003 6.151978e-003 5.113899e-003 7.580203e-003 1.337454e-003 1.020766e-003 1.414975e-003 1.204517e-003 1.599513e-003 1.669309e-003 1.504804e-003 1.435903e-003 1.427097e-003 1.302269e-003 1.199461e-003 9.528844e-004 8.447935e-004
<GCONST> -1.109612e+002
<MIXTURE> 11 9.211255e-002
<MEAN> 39
 1.161614e-001 1.059840e-001 9.799868e-002 -4.265708e-001 -4.397948e-001 7.440235e-002 -4.303001e-002 1.123578e-002 9.944221e-002 3.042728e-001 -3.181443e-001 -3.523157e-002 4.916584e-001 3.287933e-002 -1.300873e-002 1.073102e-002 9.913920e-002 -2.119284e-003 -2.593422e-002 4.586012e-002 -2.801344e-002 -7.913180e-002 2.937531e-002 3.878709e-004 -4.285669e-002 -7.341920e-002 -1.822324e-002 1.870567e-002 4.416024e-003 4.236197e-002 4.597373e-002 -1.765763e-002 -3.190784e-003 -7.176212e-003 -1.308242e-002 -4.064270e-002 3.185572e-002 7.101372e-003 -4.798160e-002
<VARIANCE> 39
 2.199738e-002 4.133584e-002 3.350813e-002 4.473843e-002 3.942351e-002 5.032403e-002 6.081462e-002 4.752312e-002 5.215997e-002 4.349432e-002 3.862464e-002 4.813051e-002 5.416135e-002 2.806910e-003 4.078383e-003 3.099512e-003 6.751785e-003 5.454541e-003 5.584978e-003 6.410939e-003 5.754010e-003 6.334637e-003 5.580307e-003 5.434868e-003 4.792601e-003 5.707303e-003 1.046426e-003 7.783620e-004 7.456289e-004 1.022433e-003 1.130115e-003 1.435581e-003 1.207247e-003 1.118851e-003 1.157484e-003 1.027816e-003 9.391972e-004 9.885278e-004 8.094835e-004
<GCONST> -1.275251e+002
<MIXTURE> 12 8.214532e-002
<MEAN> 39
 1.269499e-001 1.481876e-001 2.521599e-001 -5.206230e-001 -4.639316e-001 1.940910e-001 -3.353859e-001 8.745572e-002 2.947901e-001 -6.815109e-002 6.475225e-002 -1.392811e-001 4.599693e-001 6.113060e-002 -2.984950e-002 4.074061e-002 1.326312e-001 -1.071842e-002 -6.869377e-003 2.052610e-002 -2.841936e-002 -6.676850e-002 -1.322647e-002 2.637189e-003 -3.014934e-002 -1.354072e-001 -1.872778e-002 1.811121e-002 -1.677517e-002 5.314084e-002 6.184139e-002 -3.890171e-002 3.200047e-002 -1.895078e-002 -3.863619e-002 5.829986e-003 -1.913967e-002 2.287263e-002 -5.746448e-002
<VARIANCE> 39
 2.282584e-002 4.563339e-002 3.608567e-002 5.300788e-002 6.040646e-002 6.709336e-002 8.485672e-002 7.606660e-002 5.404672e-002 5.004959e-002 4.729076e-002 3.586122e-002 6.120371e-002 3.638780e-003 5.299232e-003 4.305779e-003 7.025983e-003 7.912875e-003 6.563867e-003 7.983243e-003 7.042833e-003 6.371638e-003 6.802215e-003 5.633776e-003 4.887267e-003 7.417436e-003 1.062157e-003 1.170439e-003 1.015773e-003 1.418642e-003 1.478068e-003 1.602858e-003 2.118715e-003 1.697180e-003 1.352481e-003 1.298019e-003 1.182638e-003 9.328579e-004 1.006388e-003
<GCONST> -1.198583e+002
<STATE> 4
<NUMMIXES> 12
<MIXTURE> 1 9.414414e-002
<MEAN> 39
 2.509779e-001 3.833261e-001 2.519298e-001 -1.273389e-001 -5.479776e-002 -7.740510e-002 -2.720281e-001 -6.199429e-002 -9.851872e-002 -1.068953e-001 -1.196025e-001 -8.964843e-002 -1.774282e-001 -1.455241e-002 -3.950287e-002 5.070360e-002 1.427067e-001 2.844724e-002 3.550484e-002 4.348026e-002 -3.285166e-002 -4.782404e-002 -1.071286e-002 6.038028e-003 -5.748281e-004 -1.835837e-001 -3.867391e-002 -2.539802e-002 -3.352403e-002 -1.125972e-002 1.323971e-002 3.154979e-003 2.924109e-002 1.488548e-002 2.167407e-002 1.263563e-002 1.151128e-002 1.491341e-002 1.923825e-002
<VARIANCE> 39
 2.790687e-002 3.928993e-002 4.517931e-002 6.638658e-002 7.708859e-002 9.331883e-002 8.054453e-002 8.222483e-002 6.240978e-002 6.463198e-002 6.545004e-002 4.688860e-002 4.313077e-002 3.899490e-003 7.123252e-003 7.353372e-003 8.477534e-003 9.492265e-003 1.125706e-002 1.033907e-002 9.440062e-003 8.071003e-003 7.395633e-003 6.898021e-003 5.201952e-003 6.976239e-003 5.822230e-004 7.588338e-004 8.892872e-004 1.187342e-003 1.383065e-003 1.426598e-003 1.439528e-003 1.503570e-003 1.157138e-003 1.251001e-003 1.198462e-003 8.954464e-004 8.498247e-004
<GCONST> -1.176562e+002
<MIXTURE> 2 1.018731e-001
<MEAN> 39
 2.664873e-001 4.495118e-002 1.375158e-001 -1.324516e-001 -4.039721e-001 -5.200187e-002 -7.542176e-003 6.297394e-002 -1.593229e-001 1.849364e-001 -4.298809e-002 -2.629791e-001 2.484082e-001 2.834924e-002 2.128834e-002 2.435113e-002 1.192536e-001 6.486880e-002 -6.839572e-002 1.443477e-002 -6.127980e-003 -7.769380e-002 -3.542967e-002 1.957425e-002 1.070725e-004 -1.426395e-001 -3.280825e-002 2.045956e-002 -4.226667e-003 -1.033143e-002 4.319437e-002 1.210425e-003 -1.091693e-002 -7.095650e-003 2.604487e-002 -2.459775e-002 -5.461713e-003 3.683987e-002 -1.658764e-002
<VARIANCE> 39
 2.520980e-002 4.322771e-002 3.801493e-002 4.889803e-002 6.527595e-002 7.236373e-002 8.323769e-002 6.668353e-002 6.387158e-002 8.210688e-002 7.104465e-002 4.110674e-002 6.581172e-002 5.042295e-003 4.928041e-003 4.331919e-003 1.043470e-002 7.883927e-003 9.057085e-003 8.720309e-003 8.428020e-003 6.945862e-003 7.403126e-003 6.872573e-003 5.557988e-003 1.055625e-002 6.817036e-004 8.892937e-004 7.896494e-004 1.158204e-003 1.163889e-003 1.469563e-003 1.418935e-003 1.327009e-003 1.224261e-003 1.443587e-003 1.310868e-003 8.578748e-004 8.623684e-004
<GCONST> -1.187430e+002
<MIXTURE> 3 1.003685e-001
<MEAN> 39
 1.106813e-001 3.773703e-001 1.623810e-001 -4.968433e-001 -1.596562e-001 -3.321757e-002 -3.034059e-001 1.151826e-001 2.113574e-001 -2.594183e-002 -1.135196e-001 1.086003e-002 2.639247e-001 4.385757e-003 7.907541e-003 2.849454e-002 1.104319e-001 1.436045e-002 2.178548e-002 1.191180e-002 -5.327471e-002 -4.300571e-002 -9.539847e-003 -1.760597e-002 -1.634585e-003 -1.046662e-001 -1.754602e-002 -8.595713e-003 -8.924096e-003 2.923775e-002 1.349932e-002 -3.419129e-003 2.116817e-002 -1.227234e-002 -1.638672e-002 4.433291e-004 5.804359e-003 3.158830e-003 -1.125861e-002
<VARIANCE> 39
 2.226438e-002 4.068744e-002 3.755781e-002 4.899178e-002 5.959062e-002 7.121370e-002 5.516225e-002 5.431177e-002 4.867605e-002 5.908689e-002 4.693614e-002 4.458927e-002 6.368223e-002 4.242275e-003 4.902839e-003 4.108098e-003 7.940947e-003 7.565638e-003 7.169900e-003 6.555874e-003 6.755116e-003 6.412934e-003 5.664078e-003 4.915005e-003 4.122048e-003 6.272536e-003 6.841705e-004 6.554295e-004 5.469047e-004 9.178684e-004 8.292391e-004 9.937398e-004 9.057075e-004 8.589994e-004 8.427562e-004 9.291153e-004 7.745707e-004 6.649384e-004 6.468312e-004
<GCONST> -1.278144e+002
<MIXTURE> 4 5.959617e-002
<MEAN> 39
 2.988139e-001 -1.577106e-001 -8.423217e-002 -4.063992e-002 -3.619332e-001 -2.340609e-001 8.257823e-002 2.983420e-001 -1.129957e-001 -8.611839e-002 2.121394e-001 -1.809856e-001 4.545628e-001 6.218218e-002 -2.688191e-002 -7.287467e-002 8.848301e-002 8.636536e-002 -1.062032e-001 -5.308725e-002 9.181203e-002 -1.716008e-002 -5.243822e-002 1.021900e-002 3.014115e-002 -4.963266e-002 -1.889127e-002 3.014276e-002 8.298321e-003 -2.205827e-002 3.635713e-002 1.606521e-002 -3.411987e-002 -2.721677e-002 2.997162e-002 1.025234e-002 -3.712590e-002 1.835505e-002 -1.528013e-002
<VARIANCE> 39
 2.365695e-002 3.336891e-002 5.479925e-002 3.972519e-002 6.431160e-002 6.831849e-002 9.355794e-002 7.447433e-002 7.536588e-002 6.540249e-002 5.339135e-002 4.772045e-002 6.121325e-002 2.214424e-003 2.423959e-003 6.083515e-003 5.590666e-003 5.407921e-003 5.386414e-003 8.490870e-003 6.720220e-003 6.937643e-003 5.787128e-003 5.284776e-003 4.343593e-003 3.971318e-003 6.154497e-004 4.807565e-004 8.010566e-004 8.261039e-004 1.024570e-003 1.234482e-003 1.346972e-003 1.352179e-003 1.233299e-003 1.245437e-003 8.973958e-004 8.849184e-004 4.483313e-004
<GCONST> -1.262426e+002
<MIXTURE> 5 7.891608e-002
<MEAN> 39
 5.122374e-002 2.193444e-002 -3.345715e-003 -4.995137e-001 6.388009e-002 1.795443e-001 -2.280300e-001 -7.463460e-002 1.260226e-001 -1.195029e-001 -3.982806e-002 1.578610e-001 5.036744e-001 1.036744e-002 -4.872417e-002 2.422445e-002 5.012605e-002 -3.259194e-002 4.132662e-002 2.723364e-003 -5.443003e-002 3.090604e-003 1.371230e-002 -1.543732e-002 1.222267e-002 -8.261955e-003 4.147126e-003 1.005156e-002 -2.590039e-003 1.175077e-002 -6.189405e-003 -1.987431e-002 1.157040e-002 -1.118462e-004 -5.531312e-003 1.112457e-002 -4.769868e-003 -1.094326e-002 -1.130143e-002
<VARIANCE> 39
 2.286250e-002 6.082326e-002 3.752735e-002 5.496011e-002 9.071773e-002 4.985527e-002 6.399705e-002 6.054815e-002 4.515045e-002 4.170673e-002 5.822074e-002 4.834173e-002 6.540415e-002 6.313314e-004 1.753634e-003 1.515275e-003 2.111756e-003 3.189694e-003 2.632591e-003 3.389335e-003 2.914116e-003 3.983409e-003 2.911631e-003 2.703110e-003 3.210882e-003 9.169789e-004 1.086572e-004 2.162358e-004 2.242721e-004 3.116655e-004 3.670921e-004 3.693025e-004 4.595329e-004 4.556934e-004 4.585192e-004 3.909416e-004 5.360597e-004 4.041509e-004 1.191886e-004
<GCONST> -1.516539e+002
<MIXTURE> 6 1.531922e-001
<MEAN> 39
 1.266168e-001 3.415182e-001 -1.675636e-002 -3.741411e-001 -1.828067e-002 -2.074869e-001 -1.315093e-001 1.121324e-003 4.478542e-002 -2.161810e-003 -7.911306e-002 -5.286696e-003 2.295727e-001 1.135662e-002 -1.961791e-003 2.370593e-002 2.980974e-002 -8.400214e-004 2.219660e-003 -9.920277e-003 -1.406133e-002 -1.022403e-002 -2.826488e-003 -1.392001e-003 -3.368888e-003 -4.150546e-002 -4.108544e-003 -1.326128e-003 4.701646e-003 6.329271e-003 -3.364639e-003 4.779115e-003 -1.313026e-003 -6.474944e-004 1.860344e-003 -1.456691e-003 -7.235534e-006 1.279932e-003 -3.246270e-003
<VARIANCE> 39
 3.614157e-002 7.773482e-002 8.512627e-002 8.790153e-002 8.726367e-002 9.949722e-002 8.353863e-002 8.562374e-002 7.625120e-002 6.791990e-002 6.336591e-002 5.385772e-002 7.993080e-002 1.392952e-003 2.537781e-003 3.316996e-003 3.966014e-003 3.843608e-003 4.579615e-003 4.307794e-003 4.696877e-003 4.270421e-003 3.908134e-003 3.611126e-003 3.080454e-003 1.957006e-003 2.541769e-004 3.743709e-004 5.586297e-004 6.390330e-004 6.618446e-004 6.849832e-004 7.164317e-004 7.878880e-004 7.136006e-004 6.942944e-004 6.539990e-004 5.009711e-004 3.022920e-004
<GCONST> -1.340006e+002
<MIXTURE> 7 5.954411e-002
<MEAN> 39
 -5.199871e-002 4.110768e-002 1.268819e-001 -1.785199e-001 -9.030364e-002 7.957444e-002 -1.116800e-002 6.924936e-002 7.694156e-002 3.527740e-002 1.500179e-002 -2.020195e-002 -1.093212e-001 -1.206470e-003 -3.969982e-002 2.398359e-002 7.163041e-002 -3.741581e-003 1.711106e-002 2.083499e-002 -3.850135e-003 -1.471872e-002 3.480067e-003 1.027475e-002 -6.849388e-003 -7.759794e-002 2.286260e-003 1.105789e-002 -1.756580e-002 -5.285325e-004 1.523272e-002 -1.648651e-002 -2.811308e-003 -5.770554e-003 5.281195e-004 4.853813e-004 -4.245722e-003 3.659362e-003 9.974349e-003
<VARIANCE> 39
 9.735201e-002 1.268542e-001 1.701603e-001 1.875907e-001 2.028562e-001 1.763660e-001 2.096715e-001 1.875522e-001 1.630446e-001 1.381490e-001 1.232248e-001 8.750499e-002 2.475866e-001 9.588407e-003 1.072396e-002 1.327453e-002 1.605719e-002 1.491431e-002 1.708706e-002 1.663003e-002 1.424450e-002 1.379789e-002 1.200774e-002 1.050106e-002 8.651082e-003 1.550565e-002 1.256826e-003 2.019031e-003 3.220115e-003 2.895428e-003 3.635546e-003 3.221363e-003 3.607778e-003 3.286044e-003 2.998889e-003 2.688670e-003 2.373492e-003 1.789653e-003 2.401708e-003
<GCONST> -8.617776e+001
<MIXTURE> 8 7.275373e-002
<MEAN> 39
 2.310426e-001 1.076268e-001 1.457502e-001 -4.726712e-001 -3.090031e-001 1.124348e-002 -8.775650e-002 -1.507229e-001 2.467146e-001 -2.965558e-002 -3.251579e-001 1.223225e-001 2.854853e-001 1.737778e-002 3.369015e-002 6.009176e-002 1.789827e-001 -1.403400e-002 1.375366e-002 3.209377e-002 -4.907572e-002 -7.316384e-002 7.777081e-003 -1.917009e-002 -5.629222e-002 -1.637804e-001 -3.578776e-002 1.460019e-002 -1.494897e-002 2.909196e-002 4.025663e-002 -9.949444e-003 2.085981e-003 2.563016e-002 -2.986977e-002 -2.894844e-003 3.948648e-002 -1.207906e-002 -2.417911e-002
<VARIANCE> 39
 2.122780e-002 3.978561e-002 4.006098e-002 5.296569e-002 5.461996e-002 5.560723e-002 6.308440e-002 5.890743e-002 5.943986e-002 8.768295e-002 5.013375e-002 4.288189e-002 5.590243e-002 5.199022e-003 4.899727e-003 4.743665e-003 7.617398e-003 8.010198e-003 7.107599e-003 7.740857e-003 7.994370e-003 7.191652e-003 7.236691e-003 5.964460e-003 5.267704e-003 8.593227e-003 6.409350e-004 8.507488e-004 8.093715e-004 1.256841e-003 1.192863e-003 1.282126e-003 1.316430e-003 1.153440e-003 1.276551e-003 1.639202e-003 1.065914e-003 8.579322e-004 8.658709e-004
<GCONST> -1.215312e+002
<MIXTURE> 9 9.742983e-002
<MEAN> 39
 1.518256e-001 -1.112200e-001 2.464625e-002 -3.274598e-001 -2.891400e-001 1.613186e-001 8.525382e-003 -2.232862e-001 2.685406e-002 1.159813e-001 -2.186054e-001 5.455086e-002 4.728722e-001 5.012790e-002 -4.479368e-002 1.093840e-002 1.155500e-001 -4.342235e-002 -6.696059e-002 7.585852e-002 -1.195457e-002 -9.323180e-002 4.895645e-002 2.754237e-002 -6.872304e-002 -5.655605e-002 -1.606314e-003 3.002514e-002 -2.290380e-003 4.615325e-003 2.689457e-002 -4.256555e-002 -1.173728e-002 3.415671e-002 -7.820345e-003 -1.940781e-002 2.348923e-002 -4.179108e-003 -2.224828e-002
<VARIANCE> 39
 2.758861e-002 4.712139e-002 4.314360e-002 5.943401e-002 6.174446e-002 7.824226e-002 8.057772e-002 7.057302e-002 7.155582e-002 6.124371e-002 5.567028e-002 6.264949e-002 6.159110e-002 1.859635e-003 3.816959e-003 3.616777e-003 5.261740e-003 5.948137e-003 5.989787e-003 6.286509e-003 6.121651e-003 5.516530e-003 5.731862e-003 6.297281e-003 4.518087e-003 2.708975e-003 3.191076e-004 5.154808e-004 6.693318e-004 9.031252e-004 8.741749e-004 1.208795e-003 1.166609e-003 1.087922e-003 1.070039e-003 9.320694e-004 8.817303e-004 8.885382e-004 4.560780e-004
<GCONST> -1.280329e+002
<MIXTURE> 10 4.552558e-002
<MEAN> 39
 2.388917e-003 4.556333e-001 1.548877e-001 -1.937620e-001 -8.643563e-002 -6.410158e-002 -2.142027e-001 2.775558e-003 5.680462e-002 -1.050446e-001 -1.665047e-001 -3.568157e-002 1.949447e-001 -1.155140e-001 -4.085815e-002 5.081055e-002 1.878635e-001 4.312761e-002 1.044144e-001 1.125912e-002 -3.813411e-002 -4.804538e-002 -1.694986e-002 3.724527e-002 3.101302e-002 -5.691483e-002 -2.487075e-002 -2.698802e-002 -1.964670e-002 6.573975e-003 1.409873e-002 2.939743e-003 2.202794e-002 6.969508e-003 1.157790e-003 1.162019e-002 1.655871e-002 8.407541e-003 -1.890076e-003
<VARIANCE> 39
 2.595301e-002 4.797557e-002 5.220213e-002 6.157169e-002 6.987207e-002 1.026954e-001 6.908221e-002 6.607046e-002 6.132009e-002 7.925368e-002 5.619962e-002 4.890772e-002 4.560811e-002 3.037115e-003 6.767893e-003 7.637006e-003 7.276760e-003 8.689952e-003 9.209503e-003 1.014202e-002 8.179642e-003 7.418924e-003 7.213679e-003 7.297553e-003 4.433066e-003 2.372336e-003 6.367191e-004 6.211165e-004 7.350064e-004 1.066679e-003 1.211018e-003 1.541815e-003 1.304886e-003 1.296035e-003 1.164488e-003 1.452762e-003 1.127822e-003 8.425613e-004 3.463724e-004
<GCONST> -1.214354e+002
<MIXTURE> 11 6.792469e-002
<MEAN> 39
 -9.988336e-002 1.680360e-001 2.066817e-001 8.368838e-002 1.908564e-001 1.620641e-001 -9.037574e-002 -1.291563e-001 -3.353883e-002 -6.007515e-002 -7.515713e-002 1.759861e-002 -2.062005e-001 -1.390550e-002 -5.349028e-002 -3.149256e-003 5.150588e-002 8.504127e-003 1.375027e-002 2.728668e-002 -4.847382e-003 -6.180574e-003 1.344189e-002 2.171755e-002 2.044266e-003 -6.894957e-002 2.700128e-003 -8.321350e-004 -1.586848e-002 -2.516611e-002 -1.618127e-002 -1.518180e-002 3.978949e-003 1.518198e-002 1.232233e-002 6.954938e-003 2.911920e-003 8.369839e-005 1.823276e-002
<VARIANCE> 39
 7.181351e-002 5.693996e-002 5.883231e-002 7.851807e-002 8.055869e-002 7.513507e-002 8.202409e-002 9.535614e-002 6.978038e-002 5.935391e-002 6.722252e-002 4.518095e-002 9.511518e-002 6.292316e-003 5.377464e-003 5.702775e-003 8.189640e-003 7.517450e-003 8.490638e-003 8.140855e-003 8.458087e-003 7.334762e-003 6.553365e-003 6.372404e-003 4.696476e-003 7.982312e-003 5.960333e-004 6.917391e-004 8.329739e-004 1.016313e-003 1.225782e-003 1.088032e-003 1.271421e-003 1.379367e-003 1.225694e-003 1.131669e-003 1.118421e-003 7.727719e-004 1.021723e-003
<GCONST> -1.172934e+002
<MIXTURE> 12 6.874307e-002
<MEAN> 39
 1.262216e-001 1.086670e-001 -1.694560e-001 -4.670717e-001 -1.373690e-001 -2.577689e-001 -2.914672e-001 -1.844119e-001 1.181243e-001 -2.900319e-002 1.592261e-001 2.696923e-001 2.753177e-001 4.018367e-002 4.721941e-003 9.358057e-002 9.647477e-002 -3.114874e-002 3.823892e-002 -8.332175e-003 -1.551729e-002 -3.827393e-002 -3.724033e-002 -6.411579e-002 -3.298390e-002 -1.117217e-001 -1.909451e-002 1.012772e-002 5.067566e-003 2.147884e-002 1.139588e-002 4.060397e-003 2.159360e-002 1.999146e-002 -8.561621e-003 1.671240e-002 -5.184601e-003 -2.152352e-002 -1.269909e-002
<VARIANCE> 39
 3.560514e-002 9.244211e-002 6.982480e-002 6.955720e-002 1.013380e-001 1.272117e-001 9.703623e-002 8.729925e-002 1.041169e-001 1.238242e-001 1.204655e-001 6.817418e-002 7.118351e-002 4.777713e-003 7.560107e-003 8.120870e-003 1.013131e-002 8.509421e-003 1.208781e-002 9.644948e-003 9.900004e-003 1.107382e-002 1.096994e-002 1.029758e-002 7.838853e-003 8.275168e-003 7.078297e-004 1.116738e-003 1.047976e-003 1.405043e-003 1.590163e-003 2.042182e-003 1.647787e-003 1.621400e-003 1.681990e-003 1.726410e-003 1.806894e-003 1.231772e-003 7.205770e-004
<GCONST> -1.075422e+002
<TRANSP> 5
 0.000000e+000 1.000000e+000 0.000000e+000 0.000000e+000 0.000000e+000
 0.000000e+000 2.498983e-001 7.501017e-001 0.000000e+000 0.000000e+000
 0.000000e+000 0.000000e+000 2.067566e-001 7.932433e-001 0.000000e+000
 0.000000e+000 0.000000e+000 0.000000e+000 3.134623e-001 6.865377e-001
 0.000000e+000 0.000000e+000 0.000000e+000 0.000000e+000 0.000000e+000
<ENDHMM>
~h "S"
<BEGINHMM>
<NUMSTATES> 5
<STATE> 2
<NUMMIXES> 12
<MIXTURE> 1 7.919710e-002
<MEAN> 39
 -3.846537e-002 1.063561e-001 2.202491e-001 1.513055e-001 3.872526e-002 -1.379266e-002 8.930347e-002 -2.710838e-001 -1.180352e-001 -1.761348e-002 -3.509544e-002 -1.295300e-001 3.779975e-001 -2.206417e-001 1.367493e-001 8.680566e-002 4.630619e-002 5.104176e-002 3.571327e-002 2.418379e-002 -2.333273e-002 2.442794e-002 -1.766912e-002 5.210869e-003 2.943127e-002 -4.656243e-002 -3.314567e-002 -2.430040e-002 -3.045172e-002 -1.487594e-002 -1.521645e-002 2.134303e-003 1.430984e-002 3.083673e-002 5.306018e-003 2.938430e-003 1.690509e-002 2.128670e-002 1.244253e-002
<VARIANCE> 39
 2.703520e-002 4.307991e-002 5.320077e-002 5.655389e-002 5.762664e-002 7.746571e-002 8.671895e-002 8.369654e-002 5.618716e-002 5.716920e-002 5.896645e-002 4.037559e-002 4.094793e-002 3.189953e-003 7.787950e-003 5.920242e-003 6.550110e-003 7.189422e-003 9.265998e-003 9.651136e-003 1.009422e-002 9.296739e-003 7.943853e-003 6.855110e-003 5.325309e-003 2.567566e-003 5.169993e-004 6.005671e-004 7.239125e-004 8.620746e-004 8.733993e-004 1.105037e-003 1.208800e-003 1.268441e-003 1.222569e-003 1.290755e-003 1.061189e-003 7.107414e-004 2.693734e-004
<GCONST> -1.236957e+002
<MIXTURE> 2 9.600521e-002
<MEAN> 39
 -4.933224e-001 4.552163e-001 2.361607e-001 1.753320e-001 8.916263e-002 -1.072319e-001 2.978317e-001 -4.323005e-001 1.783541e-002 -2.747709e-002 -1.400785e-001 6.376085e-002 3.482644e-001 -2.064839e-001 6.473695e-002 1.403893e-002 5.770578e-002 6.309295e-002 9.449753e-003 8.319733e-002 -2.328883e-002 8.336310e-004 1.015484e-002 4.394171e-003 5.533228e-002 -3.277322e-002 2.686919e-002 -5.141966e-002 -2.765278e-002 -2.995963e-002 -2.380716e-002 9.722493e-003 -1.630505e-002 4.456568e-002 -1.270532e-003 9.665871e-003 2.062662e-002 -5.225342e-003 8.600674e-003
<VARIANCE> 39
 2.880998e-002 4.166965e-002 5.164163e-002 6.086327e-002 7.211288e-002 6.543518e-002 8.852824e-002 7.091618e-002 7.839582e-002 7.151101e-002 5.628914e-002 3.965180e-002 3.979947e-002 4.543819e-003 8.435550e-003 5.042700e-003 7.463203e-003 6.208470e-003 8.072402e-003 8.255840e-003 9.733272e-003 8.829284e-003 6.939991e-003 6.167847e-003 5.356515e-003 2.131500e-003 7.444539e-004 8.304387e-004 8.300859e-004 1.007723e-003 1.122798e-003 1.114217e-003 1.545787e-003 1.329174e-003 1.554153e-003 1.416061e-003 1.080768e-003 9.020423e-004 3.818748e-004
<GCONST> -1.213214e+002
<MIXTURE> 3 9.902136e-002
<MEAN> 39
 -5.539158e-001 4.410916e-001 1.193274e-001 3.019716e-001 -1.150017e-001 3.944705e-001 -1.300746e-001 -9.961668e-002 1.373879e-001 -2.181568e-001 2.668208e-002 1.978372e-002 3.342218e-001 -1.264878e-001 1.931022e-002 -7.352413e-003 7.364298e-002 2.928314e-002 5.426980e-002 7.506676e-002 -1.218750e-002 4.273241e-002 -9.033361e-003 3.398717e-002 7.059109e-003 -6.661848e-003 3.482148e-002 -2.763904e-002 -1.342994e-002 -4.396566e-002 -1.960156e-003 -4.205759e-002 1.455264e-002 2.754959e-003 -2.350265e-003 2.154033e-002 -9.998810e-003 7.024457e-003 2.257357e-003
<VARIANCE> 39
 3.034362e-002 5.501455e-002 5.677427e-002 7.263034e-002 6.526113e-002 5.404416e-002 9.236528e-002 9.920022e-002 7.346170e-002 6.088372e-002 5.819003e-002 3.985514e-002 4.246818e-002 5.261270e-003 4.979928e-003 4.378266e-003 6.438650e-003 6.599332e-003 7.457575e-003 8.457670e-003 9.188101e-003 7.225165e-003 6.624608e-003 6.702276e-003 4.698899e-003 1.779707e-003 5.007176e-004 9.165808e-004 8.093780e-004 9.732076e-004 1.120852e-003 1.095497e-003 1.486845e-003 1.636171e-003 1.392453e-003 1.279393e-003 1.245252e-003 8.433488e-004 3.037947e-004
<GCONST> -1.225257e+002
<MIXTURE> 4 1.657065e-001
<MEAN> 39
 -7.572152e-001 2.430836e-001 1.944653e-001 1.640670e-001 1.426388e-002 1.055340e-001 3.242466e-001 -2.619205e-001 1.019938e-001 -1.753315e-002 -2.000740e-002 1.258792e-001 3.131492e-001 -1.111187e-001 -2.723466e-002 -3.925060e-002 -8.240542e-003 9.951769e-003 3.860455e-004 5.683530e-002 2.354090e-002 2.108422e-002 3.533147e-002 2.263097e-002 3.063980e-002 -1.417211e-002 5.661258e-002 -1.210641e-002 -7.782878e-003 -1.855379e-002 -1.635825e-002 -1.447239e-002 -2.342320e-002 1.474451e-002 -5.407106e-003 2.797522e-003 -8.911390e-004 -1.566084e-002 2.532647e-003
<VARIANCE> 39
 2.427698e-002 5.836807e-002 5.950526e-002 5.855453e-002 7.284614e-002 7.252927e-002 8.555958e-002 7.979224e-002 7.742592e-002 6.534889e-002 5.615088e-002 3.675925e-002 4.090383e-002 3.687394e-003 3.258153e-003 3.557191e-003 4.196887e-003 5.270266e-003 5.883538e-003 6.497775e-003 6.663406e-003 7.102455e-003 5.470461e-003 5.357192e-003 3.695643e-003 9.084087e-004 4.613255e-004 7.817615e-004 7.241677e-004 8.682101e-004 9.952417e-004 9.840686e-004 1.227790e-003 1.292790e-003 1.299037e-003 1.136159e-003 1.022602e-003 6.578465e-004 2.213307e-004
<GCONST> -1.286561e+002
<MIXTURE> 5 7.409891e-002
<MEAN> 39
 -3.516849e-001 -3.743068e-002 4.333597e-001 3.665479e-001 -1.411042e-001 -2.079621e-001 2.028625e-001 8.346025e-002 -1.238778e-001 -2.281280e-001 8.438913e-002 1.109800e-001 3.743959e-001 -2.334219e-001 4.732863e-003 8.010918e-002 3.554175e-002 -1.061970e-002 7.360485e-002 9.147535e-002 -2.821351e-002 -5.428985e-002 1.077993e-002 5.875555e-002 3.894792e-002 6.689341e-003 2.660911e-002 -2.407379e-003 -5.769258e-002 -3.957698e-002 1.481816e-002 1.456549e-004 -1.834256e-002 -3.425670e-003 2.874375e-002 2.873433e-002 -7.140693e-003 -1.618775e-002 -4.736782e-003
<VARIANCE> 39
 5.975658e-002 5.381006e-002 5.100437e-002 5.939173e-002 7.396412e-002 6.577051e-002 8.187838e-002 7.302614e-002 8.620788e-002 5.850541e-002 5.551245e-002 4.071825e-002 4.622126e-002 5.534235e-003 6.231855e-003 7.740790e-003 7.194845e-003 7.721966e-003 8.159233e-003 7.976400e-003 8.584196e-003 8.354318e-003 8.749391e-003 5.987039e-003 4.956906e-003 1.661776e-003 1.283159e-003 7.688759e-004 1.154092e-003 9.681043e-004 1.203095e-003 1.216520e-003 1.517852e-003 1.622959e-003 1.629224e-003 1.449487e-003 1.275751e-003 9.261355e-004 3.490786e-004
<GCONST> -1.188914e+002
<MIXTURE> 6 1.136639e-001
<MEAN> 39
 -5.261270e-001 2.264292e-001 5.053444e-001 1.537249e-001 1.461289e-002 1.696716e-001 1.131998e-001 -1.142514e-001 -1.623818e-001 -4.017156e-002 4.033940e-002 -7.458797e-002 3.924332e-001 -1.909896e-001 2.262339e-002 1.682902e-002 2.304422e-002 2.689241e-002 4.957158e-002 4.303682e-002 2.655102e-002 1.174725e-002 1.491595e-002 3.633308e-002 2.459597e-002 -1.451262e-002 3.589545e-002 -3.296060e-002 -4.994214e-002 -2.070173e-002 -1.784641e-002 -2.359100e-002 2.965758e-003 8.322705e-003 1.763919e-002 6.558432e-003 3.853867e-004 1.127168e-002 1.488605e-003
<VARIANCE> 39
 3.422904e-002 4.705920e-002 4.439831e-002 5.895460e-002 7.992732e-002 6.495451e-002 7.720608e-002 6.753283e-002 6.705155e-002 5.920152e-002 6.281018e-002 3.623541e-002 3.830134e-002 5.267126e-003 5.694184e-003 4.557295e-003 5.914599e-003 5.975125e-003 6.364138e-003 6.847713e-003 7.455075e-003 6.870984e-003 6.406853e-003 5.618439e-003 4.523475e-003 1.379892e-003 7.172574e-004 7.756930e-004 7.374500e-004 8.724494e-004 1.020690e-003 9.794453e-004 1.279472e-003 1.273272e-003 1.441294e-003 1.180176e-003 1.131451e-003 6.705698e-004 2.463704e-004
<GCONST> -1.257721e+002
<MIXTURE> 7 1.224769e-001
<MEAN> 39
 -3.430018e-001 -3.085214e-002 2.977608e-001 1.518362e-001 -1.580475e-002 1.648282e-001 2.184209e-001 -9.875346e-002 -9.684782e-003 3.343255e-002 3.847707e-002 -4.410689e-002 -2.384418e-002 -1.174801e-001 3.871910e-002 2.154697e-002 -2.053488e-002 -2.506063e-002 -1.447843e-002 2.863812e-002 -1.591993e-002 6.165953e-003 2.532644e-003 1.436436e-002 1.838673e-002 1.311128e-001 -6.783310e-003 1.168031e-002 -1.258063e-002 4.572528e-003 1.200417e-002 -5.035108e-003 -5.635221e-003 5.683293e-003 3.009789e-004 -4.221414e-003 -1.970662e-003 6.374922e-003 -1.462541e-002
<VARIANCE> 39
 9.338734e-002 8.761295e-002 6.659096e-002 6.454766e-002 7.778149e-002 9.009941e-002 1.015353e-001 8.634990e-002 7.954162e-002 5.662125e-002 6.181389e-002 4.177034e-002 1.322215e-001 6.007708e-003 6.523905e-003 6.423444e-003 5.682905e-003 7.530883e-003 7.355379e-003 8.459672e-003 7.855277e-003 7.092064e-003 6.274273e-003 5.747730e-003 4.236818e-003 9.655536e-003 1.359820e-003 8.618882e-004 1.046210e-003 9.728559e-004 1.230466e-003 1.249186e-003 1.606426e-003 1.421006e-003 1.330907e-003 1.150469e-003 1.072218e-003 8.060909e-004 1.565204e-003
<GCONST> -1.143702e+002
<MIXTURE> 8 3.338559e-002
<MEAN> 39
 -5.796124e-002 -5.478300e-002 -1.334840e-001 -3.283280e-001 -3.960688e-001 -1.533062e-001 -2.659586e-001 -2.350194e-001 1.281637e-001 9.081187e-002 1.051235e-001 3.561706e-001 4.903724e-001 -1.423882e-001 1.788055e-001 1.220524e-001 1.195475e-001 -1.676828e-003 8.027287e-002 -2.403877e-003 6.922045e-003 -1.198072e-002 -5.918049e-002 -5.844496e-002 -6.372771e-002 -3.014420e-002 -4.159398e-002 8.892957e-003 1.051013e-002 4.000249e-002 3.665567e-002 2.539594e-002 3.589886e-002 1.273011e-002 -6.004472e-003 -1.220682e-003 -9.608839e-004 -2.309917e-002 1.765663e-003
<VARIANCE> 39
 3.019914e-002 6.995178e-002 5.246721e-002 7.991742e-002 6.892095e-002 6.410112e-002 8.171357e-002 9.926753e-002 9.971326e-002 1.133718e-001 1.162310e-001 4.828738e-002 3.863966e-002 4.356758e-003 8.488510e-003 8.329913e-003 1.043554e-002 9.384857e-003 8.923121e-003 9.076950e-003 8.904140e-003 1.072740e-002 1.002035e-002 9.155618e-003 7.271056e-003 1.983066e-003 4.774574e-004 8.091943e-004 9.597670e-004 9.499846e-004 1.029806e-003 1.177857e-003 1.275582e-003 1.405266e-003 1.531282e-003 1.506162e-003 1.655298e-003 9.704921e-004 2.159548e-004
<GCONST> -1.167478e+002
<MIXTURE> 9 5.023362e-002
<MEAN> 39
 -9.331347e-003 2.521546e-001 2.460383e-001 -1.850098e-001 -3.067591e-001 -1.364974e-002 1.060511e-001 -1.921252e-001 2.064636e-001 5.530836e-002 -1.698676e-001 -1.483435e-001 4.306318e-001 -1.758248e-001 5.335760e-002 5.684004e-002 1.597480e-001 5.416948e-002 1.909393e-002 9.408228e-002 -9.074245e-002 -3.939981e-002 -2.022399e-002 7.188728e-003 2.836786e-002 -3.276444e-002 -4.445984e-002 -1.316005e-002 -1.061221e-002 1.137505e-003 1.749972e-002 3.571552e-003 -1.257582e-003 1.459442e-002 -1.532050e-002 -2.651278e-003 2.299564e-002 2.314594e-002 4.140237e-003
<VARIANCE> 39
 2.944225e-002 4.316180e-002 4.851089e-002 5.789484e-002 6.332213e-002 7.097319e-002 7.739592e-002 5.929480e-002 5.836553e-002 5.272690e-002 5.544402e-002 4.042729e-002 4.068188e-002 4.048039e-003 6.696165e-003 4.530468e-003 5.423482e-003 8.605886e-003 9.008085e-003 1.212961e-002 9.914012e-003 8.798331e-003 7.851831e-003 6.941234e-003 5.852651e-003 1.643190e-003 5.111601e-004 6.279518e-004 5.786475e-004 9.076010e-004 9.703235e-004 1.066438e-003 1.275429e-003 1.162386e-003 1.114269e-003 1.055841e-003 1.021414e-003 6.765301e-004 2.120148e-004
<GCONST> -1.253757e+002
<MIXTURE> 10 6.991240e-002
<MEAN> 39
 2.246673e-001 -2.734653e-001 3.652611e-002 -4.043994e-002 -6.584590e-002 -3.948648e-002 4.937746e-002 -2.471253e-001 -1.224131e-001 3.191356e-002 -2.992160e-002 -4.548401e-002 5.269438e-001 -1.280303e-001 1.893088e-001 1.074883e-001 5.016430e-002 3.894451e-002 1.312601e-002 -1.789536e-002 -4.573747e-002 2.712901e-002 -3.416317e-002 -3.308132e-002 -8.869159e-003 -7.137609e-002 -6.999914e-002 2.433833e-002 4.845083e-004 1.648201e-002 6.717653e-003 1.419793e-002 1.182450e-002 1.949478e-002 2.349133e-003 -3.563909e-003 1.535235e-002 1.192575e-002 2.305502e-003
<VARIANCE> 39
 1.735413e-002 4.197586e-002 4.496690e-002 6.110622e-002 5.296409e-002 7.737231e-002 9.672440e-002 8.710749e-002 5.414250e-002 4.735854e-002 5.042813e-002 4.449078e-002 3.786896e-002 4.212828e-003 5.720715e-003 5.524694e-003 6.320182e-003 6.916770e-003 7.186196e-003 7.672071e-003 8.919915e-003 7.727090e-003 8.350190e-003 5.692760e-003 4.389425e-003 1.741000e-003 2.992434e-004 7.170780e-004 7.062244e-004 9.648660e-004 8.019655e-004 1.000310e-003 1.181580e-003 1.177270e-003 9.949903e-004 1.128443e-003 8.439484e-004 7.979957e-004 2.480484e-004
<GCONST> -1.273388e+002
<MIXTURE> 11 6.003226e-002
<MEAN> 39
 -1.994677e-001 3.880378e-001 1.800646e-001 2.958772e-002 -2.458304e-001 1.441649e-001 -3.102371e-001 -2.014828e-001 4.076228e-002 -2.295557e-001 -1.804170e-001 6.807302e-002 3.927281e-001 -2.058038e-001 1.036584e-001 5.992368e-002 1.603468e-001 2.210667e-002 1.064542e-001 3.097074e-002 -5.961129e-003 1.387601e-002 -2.320156e-002 4.382696e-002 -7.618732e-003 -2.397213e-002 -1.445186e-002 -3.507075e-002 -2.352306e-002 -1.516113e-002 2.106806e-002 -8.792968e-003 4.639801e-002 1.467225e-002 8.051142e-003 2.925960e-002 2.029343e-002 1.476839e-003 7.829024e-003
<VARIANCE> 39
 2.475578e-002 4.602797e-002 6.347769e-002 9.184744e-002 9.451105e-002 5.866392e-002 6.682922e-002 8.176539e-002 6.876905e-002 5.041057e-002 4.913314e-002 3.894756e-002 3.494647e-002 3.220599e-003 9.881582e-003 6.716225e-003 8.424225e-003 6.513126e-003 7.670857e-003 8.717678e-003 1.207648e-002 8.066132e-003 7.318869e-003 6.488792e-003 6.086742e-003 2.063828e-003 4.563296e-004 6.836067e-004 8.089101e-004 1.091193e-003 1.312108e-003 1.227097e-003 1.152634e-003 1.518247e-003 1.284299e-003 1.064049e-003 9.763116e-004 7.864577e-004 2.294713e-004
<GCONST> -1.226631e+002
<MIXTURE> 12 3.620506e-002
<MEAN> 39
 -5.192797e-001 3.023916e-001 2.434660e-001 -2.077003e-002 -3.069308e-001 -3.115031e-003 -9.595454e-002 -1.633848e-001 7.076441e-002 7.463884e-002 9.586089e-002 1.439892e-001 4.619519e-001 -1.859809e-001 1.153430e-001 1.174308e-001 1.400952e-001 1.037489e-001 1.371370e-001 6.927251e-002 -5.763205e-003 -3.027225e-002 -5.491286e-002 -5.986970e-002 -5.602572e-002 -1.662111e-002 2.661891e-002 -4.110371e-002 -4.197638e-002 -5.744866e-003 1.806759e-002 -4.094093e-003 1.925256e-002 1.333012e-002 8.542534e-003 6.152781e-003 8.584086e-003 4.308832e-003 -1.359142e-004
<VARIANCE> 39
 3.298317e-002 5.223092e-002 7.153886e-002 7.778805e-002 8.177818e-002 7.933549e-002 9.729775e-002 9.314612e-002 9.716450e-002 9.942289e-002 7.638407e-002 5.618135e-002 3.853917e-002 4.173042e-003 7.820202e-003 5.452974e-003 6.636575e-003 5.700393e-003 7.172213e-003 8.215780e-003 9.953937e-003 1.129051e-002 1.317315e-002 1.163655e-002 7.112061e-003 1.619192e-003 6.486646e-004 7.782144e-004 1.115368e-003 1.189980e-003 1.281852e-003 1.454541e-003 1.453745e-003 1.415555e-003 1.568846e-003 1.551225e-003 1.558385e-003 1.329577e-003 2.384800e-004
<GCONST> -1.163504e+002
<STATE> 3
<NUMMIXES> 12
<MIXTURE> 1 1.135600e-001
<MEAN> 39
 -8.247528e-001 2.837500e-001 1.247252e-001 8.111132e-002 9.616517e-002 -1.096165e-001 3.956000e-001 -2.659949e-001 3.037495e-002 1.578905e-001 -8.709904e-002 1.924353e-001 3.176931e-001 -2.700816e-003 -9.209848e-003 4.322710e-003 7.751473e-005 -7.050197e-003 -2.311006e-003 7.712824e-003 1.608668e-003 -7.812630e-003 9.402975e-003 4.364979e-003 -5.250272e-003 -5.126010e-003 2.628477e-002 -4.034965e-003 8.269058e-003 5.849523e-003 -1.071931e-002 1.250046e-002 -9.554219e-003 1.121553e-003 1.211967e-003 -1.467736e-002 7.164576e-003 -1.475099e-002 -1.253989e-003
<VARIANCE> 39
 2.214651e-002 4.405699e-002 3.996125e-002 4.674260e-002 5.525096e-002 6.351678e-002 6.584657e-002 6.861462e-002 7.221662e-002 4.737432e-002 5.579473e-002 2.945727e-002 4.392323e-002 1.312700e-003 1.617481e-003 2.207428e-003 2.559418e-003 3.528705e-003 3.961564e-003 4.307793e-003 5.163370e-003 5.257585e-003 4.683684e-003 4.129873e-003 2.934182e-003 4.509088e-004 3.901141e-004 3.156911e-004 3.857166e-004 4.844571e-004 6.467547e-004 7.281170e-004 9.262296e-004 8.934202e-004 9.030111e-004 8.037466e-004 8.349610e-004 5.013670e-004 1.041647e-004
<GCONST> -1.424468e+002
<MIXTURE> 2 9.928782e-002
<MEAN> 39
 -7.930998e-001 -1.543168e-001 3.852985e-001 2.332410e-001 -1.715813e-001 1.565867e-003 3.365927e-001 2.246186e-002 -1.510669e-001 -7.577411e-002 2.662250e-001 1.354441e-001 3.494912e-001 -2.763664e-003 -1.457651e-002 -1.514679e-002 -4.400955e-003 -9.434929e-003 -3.124464e-003 1.210795e-002 7.376312e-003 1.506388e-003 2.540395e-003 7.257606e-003 2.780010e-003 -1.799818e-002 5.442627e-002 1.160034e-002 -1.512352e-002 -1.049480e-002 5.381731e-003 -8.454924e-003 -1.899851e-002 -2.120440e-003 1.629817e-002 2.760301e-003 -2.365084e-002 -1.391787e-002 -3.694648e-003
<VARIANCE> 39
 3.120363e-002 5.416177e-002 4.397373e-002 6.243006e-002 5.564991e-002 7.769403e-002 7.208632e-002 8.059762e-002 5.591270e-002 5.522340e-002 5.011609e-002 4.056046e-002 4.741008e-002 8.419849e-003 2.803214e-003 2.780779e-003 3.785025e-003 4.080489e-003 4.895357e-003 5.263173e-003 6.481887e-003 5.609821e-003 5.927976e-003 4.661974e-003 3.516178e-003 1.098245e-003 6.937128e-004 4.546173e-004 5.665315e-004 7.408941e-004 8.388988e-004 8.959355e-004 1.035495e-003 1.084674e-003 8.706697e-004 9.244980e-004 7.979602e-004 5.711243e-004 2.856082e-004
<GCONST> -1.318381e+002
<MIXTURE> 3 6.496932e-002
<MEAN> 39
 -7.783274e-001 1.733483e-001 2.746922e-001 -7.119703e-002 1.906620e-001 -1.350922e-001 3.024272e-001 5.887352e-002 -2.892839e-001 2.648563e-001 1.257843e-001 -5.993091e-002 3.459779e-001 7.547844e-004 -6.296552e-003 -1.057226e-002 6.892747e-003 -9.430215e-003 -7.525313e-003 1.935740e-002 -5.373637e-003 -1.573566e-003 6.168702e-003 -1.076071e-003 4.272090e-003 -1.253768e-002 4.849679e-002 -8.545798e-003 -9.739798e-003 1.297169e-002 -1.714312e-002 3.123893e-003 -7.954272e-003 -1.977335e-002 2.386701e-002 -2.813288e-002 -1.449333e-002 1.206700e-002 -8.929178e-003
<VARIANCE> 39
 3.616094e-002 4.884979e-002 4.932855e-002 4.799986e-002 5.831311e-002 6.643153e-002 8.147868e-002 6.558771e-002 5.542679e-002 5.392122e-002 6.731113e-002 3.438641e-002 5.423876e-002 7.181020e-003 4.235699e-003 4.138284e-003 4.396711e-003 5.183985e-003 4.999425e-003 6.829557e-003 9.255173e-003 6.330294e-003 6.389792e-003 7.127726e-003 4.214118e-003 1.649732e-003 8.100225e-004 6.434009e-004 6.624028e-004 8.112422e-004 8.983352e-004 9.555343e-004 1.273868e-003 1.116603e-003 1.047420e-003 1.040277e-003 1.065757e-003 6.104822e-004 4.616043e-004
<GCONST> -1.267597e+002
<MIXTURE> 4 6.631252e-002
<MEAN> 39
 -7.914627e-001 3.095892e-001 1.507213e-001 8.893313e-002 1.588323e-001 -1.808624e-001 4.887478e-001 -2.794664e-001 -1.915470e-002 1.250868e-001 -8.777516e-002 2.017315e-001 2.321466e-001 6.510894e-003 2.141743e-002 -4.833816e-002 2.918482e-002 -5.731387e-003 9.157293e-003 1.736053e-003 -1.935911e-002 2.910036e-002 -1.332233e-002 -1.447786e-003 4.795537e-003 -3.992150e-002 6.308571e-002 -2.244025e-002 -3.767702e-003 2.896438e-003 -1.643562e-002 2.576512e-002 -3.760818e-002 2.280875e-002 5.157704e-003 -1.887300e-002 1.278522e-002 -2.718282e-002 -2.105010e-002
<VARIANCE> 39
 3.104990e-002 5.254546e-002 4.882665e-002 6.214633e-002 7.039586e-002 7.230674e-002 7.138157e-002 8.135604e-002 8.390333e-002 6.416865e-002 6.340549e-002 3.979686e-002 5.215346e-002 8.173872e-003 6.584060e-003 7.437741e-003 5.954280e-003 6.415929e-003 6.865110e-003 7.388566e-003 9.294493e-003 8.903315e-003 7.473565e-003 6.180563e-003 4.698792e-003 4.704250e-003 8.009172e-004 9.863039e-004 9.610715e-004 1.192507e-003 1.246877e-003 1.185980e-003 1.468882e-003 1.601782e-003 1.556779e-003 1.266783e-003 1.201155e-003 7.616157e-004 1.096331e-003
<GCONST> -1.179943e+002
<MIXTURE> 5 7.128813e-002
<MEAN> 39
 -7.058578e-001 4.281117e-001 2.435285e-001 3.519059e-001 3.007673e-004 3.859546e-001 1.570825e-001 -1.780411e-001 1.578352e-001 -1.067838e-001 -7.680316e-002 -9.870501e-003 2.855218e-001 4.462702e-002 -1.983976e-002 5.259943e-003 1.307523e-003 -2.143210e-002 2.101747e-002 -1.616492e-002 8.988180e-003 -9.641708e-003 2.334958e-004 2.278325e-003 -1.390716e-002 -2.155177e-002 4.901404e-002 -2.634544e-002 -2.174333e-002 -4.238106e-002 -2.181662e-002 -3.964785e-002 -1.517061e-002 8.558436e-003 -7.129458e-003 9.753553e-003 9.073669e-003 1.118808e-002 3.298410e-003
<VARIANCE> 39
 3.052302e-002 5.651689e-002 5.863074e-002 5.425524e-002 7.332423e-002 6.851445e-002 8.205543e-002 8.388570e-002 7.866406e-002 6.148912e-002 5.704130e-002 3.743685e-002 3.388273e-002 4.141007e-003 3.087392e-003 3.536500e-003 4.410887e-003 4.816157e-003 5.412292e-003 6.792383e-003 6.376760e-003 5.997081e-003 5.261886e-003 5.091324e-003 3.629945e-003 1.295352e-003 6.038507e-004 7.025129e-004 7.202629e-004 8.527350e-004 9.289867e-004 1.076058e-003 1.109916e-003 1.250874e-003 1.284580e-003 1.097526e-003 1.074859e-003 6.646591e-004 3.898283e-004
<GCONST> -1.281752e+002
<MIXTURE> 6 1.248613e-001
<MEAN> 39
 -7.753482e-001 5.170254e-002 3.830611e-001 9.914950e-002 -7.581722e-002 7.526150e-002 1.403124e-001 -2.751154e-002 -9.305993e-002 -3.135983e-002 1.483322e-001 1.053935e-001 4.266209e-001 -5.721182e-003 -6.108696e-003 4.103777e-003 6.360849e-003 1.326630e-003 -1.809210e-003 4.109859e-003 1.337466e-003 -6.473975e-003 -1.670579e-003 4.744194e-003 2.615606e-003 -6.900412e-003 1.147936e-002 -3.444165e-003 -3.948716e-003 1.411161e-003 -7.169519e-004 1.359252e-003 5.965617e-003 -7.753964e-004 6.325261e-003 4.995285e-003 -4.674134e-003 -6.945465e-003 -4.474591e-003
<VARIANCE> 39
 3.954014e-002 7.925141e-002 4.697600e-002 7.004630e-002 6.547727e-002 7.414081e-002 8.126227e-002 7.166085e-002 6.400603e-002 5.022360e-002 5.582533e-002 3.277970e-002 5.093422e-002 9.033715e-004 1.337529e-003 1.699401e-003 2.306514e-003 2.687824e-003 3.046175e-003 3.965126e-003 4.208631e-003 4.193413e-003 4.104445e-003 3.628913e-003 2.453354e-003 3.726037e-004 2.028689e-004 2.332444e-004 3.154626e-004 4.501022e-004 5.452241e-004 5.867882e-004 7.343428e-004 8.084103e-004 8.302710e-004 7.274368e-004 7.002677e-004 3.636995e-004 7.052148e-005
<GCONST> -1.455717e+002
<MIXTURE> 7 7.497848e-002
<MEAN> 39
 -5.700032e-001 2.706293e-001 2.560482e-001 1.227207e-001 -1.881376e-001 2.433867e-002 2.475782e-001 -3.247877e-001 4.607554e-002 1.024217e-001 3.445756e-002 3.930310e-002 4.270916e-001 2.183682e-002 -1.107094e-002 3.849593e-003 2.402152e-002 -9.911318e-003 -2.057421e-003 4.170862e-003 3.867800e-003 -1.711242e-002 -8.780873e-003 1.198370e-002 -1.067996e-002 -1.336208e-002 2.398981e-002 -1.367219e-002 -5.997306e-003 3.536273e-003 1.637706e-002 4.053313e-003 -7.570352e-003 2.310563e-002 -5.554759e-003 -1.662409e-002 -3.492409e-003 -3.813985e-003 -2.215007e-002
<VARIANCE> 39
 4.396324e-002 5.223408e-002 5.272578e-002 4.905071e-002 5.095950e-002 6.701417e-002 8.516906e-002 6.825879e-002 6.515812e-002 4.819286e-002 5.274921e-002 3.032128e-002 4.379436e-002 5.004265e-003 3.917112e-003 3.551854e-003 3.652911e-003 4.888987e-003 5.317579e-003 6.399334e-003 5.618561e-003 6.139146e-003 5.470625e-003 5.086880e-003 3.715372e-003 2.146499e-003 5.311440e-004 4.874963e-004 5.864831e-004 7.129300e-004 7.828278e-004 8.692731e-004 1.128109e-003 9.399971e-004 1.000744e-003 8.558324e-004 8.772806e-004 5.094777e-004 4.705008e-004
<GCONST> -1.307831e+002
<MIXTURE> 8 8.268484e-002
<MEAN> 39
 -6.960319e-001 4.999025e-001 1.837628e-001 2.273225e-001 -2.047311e-003 1.878729e-001 1.043425e-001 -2.891057e-001 2.283216e-001 -2.276510e-001 -8.840442e-002 1.843106e-001 3.955833e-001 -3.189796e-003 7.252081e-004 1.946389e-003 4.683102e-003 1.851656e-004 1.953563e-003 5.001143e-003 -7.072769e-003 -1.811690e-003 6.546014e-003 -9.010610e-003 7.900188e-004 -6.397955e-003 1.335525e-002 -1.300331e-002 -3.861139e-003 -6.822065e-003 -8.662244e-003 3.985105e-003 -4.647268e-003 1.216071e-002 -5.522606e-003 1.757458e-002 8.177581e-003 -1.465110e-002 -6.109379e-003
<VARIANCE> 39
 3.203467e-002 4.079762e-002 4.386444e-002 5.626610e-002 5.950718e-002 6.364010e-002 7.808101e-002 6.661398e-002 6.508520e-002 4.526588e-002 5.447021e-002 3.710024e-002 4.460162e-002 1.371872e-003 1.600485e-003 2.248212e-003 2.658099e-003 3.338932e-003 4.582941e-003 5.285557e-003 4.630844e-003 4.800957e-003 5.217593e-003 4.457509e-003 3.042207e-003 6.006565e-004 3.099632e-004 2.937735e-004 3.553869e-004 4.989507e-004 6.555037e-004 7.597965e-004 9.282429e-004 8.641998e-004 9.830416e-004 7.506861e-004 8.041874e-004 5.325294e-004 1.117691e-004
<GCONST> -1.411138e+002
<MIXTURE> 9 7.945798e-002
<MEAN> 39
 -7.049751e-001 4.128535e-001 -7.363050e-002 3.806048e-001 -9.748220e-002 3.257017e-001 3.060885e-002 -2.037361e-002 2.187798e-001 -1.325380e-001 5.609294e-002 7.364001e-003 1.994243e-001 -7.813304e-003 -1.098511e-003 2.497690e-003 -2.604094e-004 -1.321353e-003 1.698951e-003 5.091216e-003 -5.026384e-003 1.157947e-002 -1.194128e-003 -4.023009e-003 4.709611e-003 -4.330777e-003 1.652854e-002 -3.828364e-003 1.246555e-002 -8.127650e-003 -2.170482e-003 -4.484722e-003 -7.342570e-003 -7.154070e-003 -1.096167e-002 4.284816e-004 -8.179816e-003 4.088601e-003 1.245886e-003
<VARIANCE> 39
 2.652841e-002 7.514068e-002 4.343111e-002 4.523293e-002 5.937347e-002 6.718397e-002 9.375484e-002 8.267800e-002 6.704710e-002 4.972683e-002 5.174688e-002 2.956222e-002 3.513033e-002 1.052962e-003 1.460934e-003 1.939013e-003 2.484443e-003 3.030165e-003 3.797524e-003 4.715262e-003 4.662614e-003 4.806347e-003 4.251526e-003 3.676664e-003 2.506845e-003 4.801952e-004 2.804750e-004 2.916248e-004 3.530622e-004 5.484795e-004 6.260892e-004 7.969608e-004 9.289080e-004 8.702336e-004 9.976750e-004 7.424733e-004 7.735815e-004 4.549488e-004 9.317869e-005
<GCONST> -1.430238e+002
<MIXTURE> 10 9.453160e-002
<MEAN> 39
 -8.184597e-001 5.907388e-002 3.592268e-001 1.570736e-001 -7.405272e-002 2.215078e-001 2.772858e-001 1.140342e-002 9.238557e-003 1.684036e-001 1.027933e-001 -1.319086e-001 3.633890e-001 -1.037594e-002 -6.437619e-003 -5.167163e-003 2.486106e-003 -2.716340e-003 -7.100975e-004 1.240833e-002 3.661255e-003 5.431038e-004 6.644947e-003 5.357692e-003 -7.277087e-004 -8.741437e-003 2.509440e-002 2.724017e-003 -1.444603e-003 -1.069216e-003 -5.247703e-003 -1.217112e-002 -1.293053e-002 -1.295034e-002 -9.748591e-003 -2.127579e-002 -4.124054e-003 1.993795e-002 -3.028889e-003
<VARIANCE> 39
 2.856295e-002 7.588968e-002 5.110446e-002 5.548398e-002 6.922542e-002 6.365303e-002 7.676324e-002 6.788636e-002 5.800755e-002 4.300186e-002 5.978555e-002 2.425477e-002 4.214063e-002 1.761527e-003 1.819876e-003 2.113906e-003 2.579738e-003 3.235264e-003 3.605861e-003 4.422282e-003 4.897231e-003 4.905857e-003 4.441690e-003 4.161264e-003 2.707088e-003 5.226537e-004 4.352309e-004 3.167973e-004 3.970686e-004 5.127616e-004 6.104503e-004 6.959673e-004 8.705285e-004 8.796131e-004 8.020094e-004 6.773912e-004 7.681959e-004 3.503934e-004 1.034817e-004
<GCONST> -1.419416e+002
<MIXTURE> 11 7.687370e-002
<MEAN> 39
 -8.381010e-001 3.910918e-002 5.282220e-002 5.863278e-002 -8.743055e-002 1.635315e-001 3.269312e-001 -2.929480e-002 2.823975e-001 2.799351e-002 7.465969e-002 8.629929e-002 2.465106e-001 7.189324e-003 -4.444176e-003 -1.185927e-002 -1.431496e-004 -1.017070e-002 9.285521e-004 1.265634e-003 2.149266e-003 7.637762e-003 8.468699e-003 2.980821e-004 -3.540488e-003 -1.910114e-002 4.941988e-002 1.409654e-002 2.194606e-002 1.277751e-002 6.134103e-003 -1.035135e-002 -2.241627e-002 -1.460942e-002 -3.455549e-002 -1.240867e-002 -8.140907e-003 -6.636533e-003 -3.761489e-003
<VARIANCE> 39
 3.316377e-002 9.187635e-002 5.914006e-002 7.288925e-002 8.648659e-002 8.760526e-002 1.074728e-001 9.366815e-002 6.590847e-002 6.254531e-002 6.493811e-002 4.206876e-002 5.282333e-002 5.042277e-003 3.345349e-003 4.193400e-003 4.291971e-003 5.317444e-003 5.634102e-003 6.660506e-003 6.700130e-003 6.746284e-003 5.841128e-003 5.455623e-003 3.674432e-003 1.602780e-003 6.818448e-004 5.620639e-004 5.756575e-004 8.357260e-004 1.015424e-003 1.094933e-003 1.357021e-003 1.233220e-003 8.888007e-004 1.051117e-003 1.007569e-003 6.541349e-004 4.123932e-004
<GCONST> -1.253639e+002
<MIXTURE> 12 5.106332e-002
<MEAN> 39
 -7.421505e-001 1.316632e-001 4.242443e-001 -9.153400e-003 7.852593e-003 2.073729e-001 -3.291889e-003 2.369674e-002 -2.371349e-002 -2.061910e-001 2.071500e-001 1.394090e-001 3.297918e-001 -2.004678e-002 1.410677e-002 -3.253993e-002 8.003295e-003 3.350386e-003 -1.866611e-003 1.229731e-002 4.371040e-003 9.594724e-003 8.565356e-003 -8.688451e-004 2.920863e-003 -2.529984e-002 5.549596e-002 -1.168470e-002 -3.008715e-002 1.015216e-002 -4.076145e-004 -1.860294e-002 1.306232e-002 -3.556629e-003 1.306718e-003 2.302217e-002 -2.046459e-002 -1.748171e-002 -2.382156e-002
<VARIANCE> 39
 5.341916e-002 7.246452e-002 6.068864e-002 7.607871e-002 8.126400e-002 9.366255e-002 7.815802e-002 8.417385e-002 8.222247e-002 5.451444e-002 7.491363e-002 5.099545e-002 6.206305e-002 9.970270e-003 6.264131e-003 6.135917e-003 5.889451e-003 6.381068e-003 6.847774e-003 7.506552e-003 7.287584e-003 7.357623e-003 7.042103e-003 6.385821e-003 4.782515e-003 4.755312e-003 1.089656e-003 9.614216e-004 1.153992e-003 1.114363e-003 1.321393e-003 1.485648e-003 1.290289e-003 1.472130e-003 1.426093e-003 1.141028e-003 1.281312e-003 7.853082e-004 1.044873e-003
<GCONST> -1.159353e+002
<STATE> 4
<NUMMIXES> 12
<MIXTURE> 1 6.215003e-002
<MEAN> 39
 1.918743e-001 -1.696167e-001 1.045203e-001 -3.240243e-001 -2.916583e-001 -8.664983e-002 2.660531e-001 -1.038250e-001 5.161314e-002 2.063573e-002 8.685173e-004 -1.588093e-001 5.637811e-001 1.225912e-001 -8.531415e-002 -6.428995e-002 -9.998097e-002 -4.298438e-002 2.870710e-003 -1.601374e-002 6.890566e-002 2.707513e-002 -1.009030e-002 9.308771e-003 -2.939967e-002 9.947036e-002 -7.157733e-002 2.109496e-002 1.715233e-003 3.486941e-002 2.094768e-002 1.882744e-002 -3.199985e-003 1.037493e-003 -8.723853e-003 3.111143e-003 6.950962e-003 1.860652e-002 -1.881570e-002
<VARIANCE> 39
 1.831564e-002 4.573204e-002 4.934443e-002 6.353488e-002 5.068463e-002 6.282461e-002 5.945788e-002 5.150543e-002 7.023562e-002 3.832730e-002 4.142113e-002 2.938721e-002 5.364294e-002 7.615607e-003 6.172553e-003 4.315114e-003 6.869515e-003 7.233209e-003 8.653538e-003 1.036018e-002 9.053111e-003 1.068179e-002 6.258314e-003 6.003173e-003 4.432214e-003 3.428785e-003 4.971790e-004 8.153506e-004 6.633986e-004 8.000602e-004 8.017170e-004 9.083391e-004 1.026308e-003 1.020244e-003 1.097733e-003 8.536137e-004 8.008249e-004 5.625098e-004 4.449957e-004
<GCONST> -1.267132e+002
<MIXTURE> 2 7.540822e-002
<MEAN> 39
 -4.916417e-001 3.519879e-001 2.100022e-001 2.327567e-001 -1.589495e-001 4.210519e-001 -1.093448e-001 -1.281362e-001 1.685109e-001 -1.114753e-001 -3.595816e-002 3.857891e-002 2.213629e-001 2.017785e-001 -9.898208e-002 -6.606469e-002 -1.708958e-001 -6.511518e-002 -1.131393e-001 -3.586867e-002 1.674929e-002 -2.656959e-002 2.707149e-002 1.045109e-003 2.638555e-002 3.037895e-002 2.401645e-002 -2.977002e-002 -3.336005e-002 -4.644502e-002 4.636298e-003 -4.870708e-002 2.598216e-002 4.718025e-003 -4.976312e-003 8.450249e-003 6.555353e-004 9.603344e-003 2.979094e-002
<VARIANCE> 39
 4.465941e-002 5.138335e-002 5.463710e-002 6.859665e-002 7.549271e-002 6.967632e-002 9.068117e-002 8.694200e-002 7.261678e-002 6.579152e-002 5.658768e-002 4.553751e-002 3.752896e-002 3.598208e-003 7.422602e-003 6.299541e-003 8.568607e-003 6.972480e-003 8.298650e-003 7.942577e-003 8.503054e-003 7.016070e-003 6.385672e-003 7.683953e-003 5.320711e-003 3.061867e-003 8.356665e-004 7.815087e-004 9.647577e-004 1.245621e-003 1.172497e-003 1.424782e-003 1.359037e-003 1.439391e-003 1.316208e-003 1.325127e-003 1.292235e-003 9.958593e-004 2.933493e-004
<GCONST> -1.195660e+002
<MIXTURE> 3 9.398174e-002
<MEAN> 39
 -5.330740e-001 -4.670998e-002 3.618692e-001 3.041475e-001 -7.402047e-002 -9.090187e-002 3.863164e-001 -9.344821e-003 -1.336411e-001 -2.345372e-002 1.245979e-001 4.642526e-002 2.497636e-001 1.248706e-001 -4.256038e-002 -2.552847e-002 4.566604e-002 5.705757e-002 2.519026e-003 -1.987536e-002 3.538585e-002 1.065775e-002 -3.186987e-002 -1.453779e-002 -2.031422e-002 -1.529145e-001 1.505370e-002 1.630636e-002 -2.340226e-002 -2.063067e-002 1.878709e-002 2.087855e-002 -2.279661e-002 -2.926414e-003 1.874020e-002 2.981630e-003 -1.233638e-002 -3.339392e-003 -4.004204e-002
<VARIANCE> 39
 7.357995e-002 7.432787e-002 5.116498e-002 7.556384e-002 7.949516e-002 1.010117e-001 9.752446e-002 9.866011e-002 7.736457e-002 7.266982e-002 6.707908e-002 5.086511e-002 7.069042e-002 4.181962e-003 6.404235e-003 5.076540e-003 6.049991e-003 6.245002e-003 6.805579e-003 8.010739e-003 8.023215e-003 8.074874e-003 6.551520e-003 5.711291e-003 3.528872e-003 7.969855e-003 1.425613e-003 1.063568e-003 1.051577e-003 1.268609e-003 1.283693e-003 1.489704e-003 1.786976e-003 1.736671e-003 1.488989e-003 1.394971e-003 1.221297e-003 8.765244e-004 1.374808e-003
<GCONST> -1.143925e+002
<MIXTURE> 4 5.134262e-002
<MEAN> 39
 7.002483e-002 7.040631e-003 -1.256859e-001 -5.079908e-001 -3.123641e-001 -1.145615e-002 -1.480102e-001 -1.012137e-001 1.749045e-001 -3.120583e-002 -5.931702e-002 2.134071e-001 5.095944e-001 1.369655e-001 -1.265058e-001 -9.397677e-002 -2.037849e-001 -6.874287e-004 -1.093638e-001 1.618157e-002 2.337483e-002 -1.890879e-002 2.689532e-002 2.778380e-004 3.314804e-002 9.361550e-002 -5.699876e-002 1.898148e-002 1.536024e-002 5.322072e-002 3.069565e-002 2.075097e-002 2.141629e-002 6.170766e-004 -5.459592e-003 -2.548772e-004 2.484777e-003 -1.287245e-002 -9.745462e-003
<VARIANCE> 39
 2.150736e-002 6.717955e-002 4.219642e-002 6.948908e-002 5.976581e-002 5.344437e-002 5.999845e-002 7.421926e-002 4.570947e-002 5.245339e-002 6.489445e-002 4.370852e-002 4.047276e-002 6.187877e-003 8.973884e-003 6.461101e-003 9.004449e-003 7.882621e-003 1.098252e-002 1.018237e-002 1.139096e-002 8.110545e-003 8.206289e-003 8.938000e-003 7.273173e-003 2.281026e-003 4.028437e-004 8.311617e-004 6.333010e-004 9.804801e-004 9.180019e-004 9.997451e-004 1.068190e-003 1.164845e-003 9.747223e-004 1.038803e-003 1.040390e-003 7.251771e-004 3.960595e-004
<GCONST> -1.227037e+002
<MIXTURE> 5 9.219152e-002
<MEAN> 39
 -5.837274e-001 1.557741e-001 2.385937e-001 1.242459e-001 -6.071407e-002 6.130936e-002 4.305284e-001 -4.378821e-001 5.625586e-002 8.855270e-002 -5.087034e-002 4.326105e-002 1.976355e-001 2.134222e-001 -2.457399e-002 -4.396112e-003 -7.000023e-002 -7.370625e-002 -1.459395e-002 -7.787974e-002 2.631018e-002 1.154345e-002 -3.899686e-002 -7.628296e-003 -4.431523e-002 1.345621e-002 3.695618e-002 -1.149825e-002 -1.725030e-002 -3.904618e-002 -8.340580e-003 -1.607666e-002 -2.867079e-002 4.955780e-002 1.117763e-003 -5.138261e-003 7.741099e-003 -6.781465e-003 3.120012e-002
<VARIANCE> 39
 5.406618e-002 5.170128e-002 5.041619e-002 5.239696e-002 6.632281e-002 7.808577e-002 8.187680e-002 6.209933e-002 8.866689e-002 6.561622e-002 6.115220e-002 4.688624e-002 4.819571e-002 5.145022e-003 6.707190e-003 4.807625e-003 7.182493e-003 5.861962e-003 8.065444e-003 8.487274e-003 8.770390e-003 8.921578e-003 6.244692e-003 6.121121e-003 4.333834e-003 3.763258e-003 1.057230e-003 8.380744e-004 8.398254e-004 9.005720e-004 1.073108e-003 1.320994e-003 1.458869e-003 1.083416e-003 1.606313e-003 1.309545e-003 1.142896e-003 8.420341e-004 4.239906e-004
<GCONST> -1.201926e+002
<MIXTURE> 6 1.020971e-001
<MEAN> 39
 -5.143222e-001 4.098365e-001 7.528208e-003 4.035853e-001 -1.546351e-001 3.848564e-001 -6.141562e-002 4.288405e-002 5.682869e-002 -6.603281e-002 8.009335e-003 -1.469366e-002 9.956384e-002 1.080988e-001 -5.238061e-002 1.234310e-002 -1.094272e-003 4.317895e-002 1.729819e-002 -3.032160e-002 5.518449e-002 -4.497808e-002 1.397794e-002 -1.433064e-002 -1.853814e-002 -1.231238e-001 1.355450e-002 -2.650973e-002 1.320526e-002 -3.177550e-002 2.549660e-002 -2.976848e-002 2.412991e-002 -1.376465e-002 6.772569e-004 4.711347e-003 1.900452e-004 4.507183e-003 -1.403494e-002
<VARIANCE> 39
 3.857765e-002 5.450962e-002 5.863846e-002 6.067929e-002 5.931627e-002 6.489383e-002 7.081636e-002 7.109098e-002 6.253899e-002 5.855481e-002 4.890747e-002 3.034043e-002 6.548890e-002 3.292750e-003 5.112742e-003 5.001727e-003 5.835630e-003 6.563391e-003 7.100234e-003 8.316518e-003 8.000954e-003 6.633576e-003 5.744301e-003 5.229328e-003 3.406477e-003 7.118833e-003 8.013705e-004 9.220939e-004 1.118796e-003 1.079393e-003 1.055878e-003 1.288243e-003 1.357821e-003 1.375033e-003 1.324751e-003 1.227381e-003 1.106822e-003 6.667656e-004 9.826589e-004
<GCONST> -1.217249e+002
<MIXTURE> 7 9.760533e-002
<MEAN> 39
 -4.840023e-001 -1.108691e-001 3.339766e-001 2.838499e-001 -1.743919e-001 -5.545107e-002 3.182577e-001 5.867853e-002 -1.757784e-001 -1.034840e-001 1.962273e-001 6.210206e-002 2.223890e-001 2.572467e-001 -1.241332e-002 -9.277452e-002 -5.824976e-002 -1.503637e-002 -8.991579e-002 -7.429165e-002 1.508663e-002 2.724154e-002 -2.914472e-002 -5.153350e-002 -1.796399e-002 3.688608e-003 3.905648e-002 1.168084e-003 -4.599253e-002 -3.945222e-002 1.248549e-002 -1.326509e-002 -2.491689e-002 2.690655e-003 3.256629e-002 1.105220e-002 -1.933582e-002 -8.020853e-003 3.050103e-002
<VARIANCE> 39
 6.239303e-002 5.035942e-002 5.197177e-002 5.875233e-002 6.752929e-002 9.372841e-002 8.000196e-002 7.588018e-002 7.507532e-002 7.866111e-002 6.062830e-002 5.503787e-002 4.817870e-002 4.818921e-003 6.570824e-003 7.901511e-003 6.595161e-003 6.953674e-003 7.875090e-003 8.335029e-003 8.303955e-003 7.798259e-003 6.779973e-003 6.130874e-003 5.094270e-003 2.934925e-003 1.143499e-003 6.832256e-004 9.784810e-004 8.784493e-004 1.133413e-003 1.469203e-003 1.495925e-003 1.422030e-003 1.379759e-003 1.555472e-003 1.152407e-003 1.101136e-003 3.477546e-004
<GCONST> -1.185661e+002
<MIXTURE> 8 5.660801e-002
<MEAN> 39
 4.060103e-001 -2.769628e-001 -2.638471e-001 -9.374731e-002 -1.077273e-001 -4.488173e-001 4.610858e-002 1.592857e-001 9.226542e-002 -1.604378e-001 4.359830e-003 4.000911e-002 4.593128e-001 1.758784e-001 -6.141483e-002 -1.986348e-001 -8.710518e-002 4.979156e-002 -7.135104e-002 -5.954826e-002 4.992211e-002 9.353679e-002 -5.065725e-003 -4.317587e-002 -3.208131e-002 7.296035e-002 -7.581127e-002 2.206415e-002 1.670825e-002 2.716855e-002 1.098147e-002 4.365541e-002 5.833791e-003 -7.446717e-003 -7.646217e-003 1.888202e-002 6.340979e-003 -7.548644e-003 -8.776627e-003
<VARIANCE> 39
 2.035642e-002 4.172215e-002 6.264702e-002 4.817907e-002 8.830543e-002 6.128253e-002 8.721524e-002 6.703987e-002 8.901548e-002 4.617345e-002 4.845615e-002 3.570199e-002 4.177872e-002 7.775061e-003 5.936210e-003 7.346391e-003 6.427685e-003 7.460048e-003 1.191767e-002 1.109120e-002 1.069602e-002 1.018461e-002 9.379982e-003 7.849291e-003 7.693347e-003 2.598678e-003 4.404384e-004 8.039515e-004 9.920851e-004 9.860153e-004 1.322182e-003 1.128485e-003 1.578962e-003 1.303215e-003 1.740286e-003 1.228395e-003 1.254186e-003 7.547854e-004 4.181328e-004
<GCONST> -1.197288e+002
<MIXTURE> 9 9.116277e-002
<MEAN> 39
 -3.803864e-001 6.978704e-002 9.318659e-002 9.510817e-002 2.021105e-001 1.455754e-001 6.292481e-002 9.450349e-002 8.076590e-003 -7.533160e-003 1.694165e-002 -1.401252e-002 9.896281e-003 1.201698e-001 -5.514767e-004 -4.680610e-004 -4.760484e-002 2.549624e-003 -6.603673e-002 -3.451306e-002 -1.339025e-002 -1.301773e-002 3.690822e-003 -1.814123e-002 -8.766075e-003 -3.114969e-002 1.726811e-002 1.580342e-002 -4.304461e-003 -9.657706e-003 -3.905293e-002 -2.223029e-002 -3.461681e-003 -2.240054e-002 3.869078e-003 -1.111041e-003 -2.049030e-003 5.410355e-003 2.779968e-002
<VARIANCE> 39
 5.218142e-002 7.200450e-002 6.088668e-002 8.438419e-002 6.998133e-002 8.055481e-002 8.207760e-002 8.581601e-002 7.807380e-002 6.545810e-002 5.599002e-002 4.612551e-002 9.491317e-002 8.688576e-003 7.478022e-003 6.961410e-003 8.159614e-003 1.125347e-002 9.816801e-003 1.012388e-002 9.496843e-003 7.568793e-003 6.812855e-003 6.231336e-003 4.588574e-003 5.521422e-003 8.603153e-004 1.230428e-003 1.350458e-003 1.659617e-003 1.595355e-003 1.569432e-003 1.773221e-003 1.737532e-003 1.583852e-003 1.502657e-003 1.272082e-003 1.012637e-003 1.186740e-003
<GCONST> -1.118164e+002
<MIXTURE> 10 9.554002e-002
<MEAN> 39
 -7.158213e-001 4.404401e-001 -4.634696e-002 3.072528e-001 2.553445e-002 4.979103e-002 3.120413e-001 -2.814668e-001 1.869724e-001 -1.027379e-001 3.894383e-002 8.346610e-002 1.014349e-001 8.400116e-002 -6.675042e-004 -5.169316e-002 5.487788e-002 -1.285828e-002 6.385094e-002 -6.660136e-002 4.364798e-002 -2.762285e-003 -2.107272e-002 1.268362e-003 -2.754069e-002 -1.081525e-001 4.080392e-002 -3.845593e-002 2.593667e-002 -1.811274e-002 8.436230e-003 7.676460e-003 -1.576731e-002 2.507283e-002 -2.087942e-002 1.149867e-002 -4.517007e-003 -8.909510e-003 -2.335238e-002
<VARIANCE> 39
 3.154873e-002 5.504468e-002 4.970054e-002 6.156493e-002 7.145544e-002 7.507753e-002 7.247690e-002 7.204154e-002 6.462931e-002 5.292483e-002 5.376112e-002 3.451294e-002 5.524109e-002 4.623201e-003 5.498543e-003 5.644518e-003 5.285931e-003 6.189468e-003 6.487036e-003 8.136844e-003 8.225733e-003 7.576468e-003 6.159369e-003 6.077999e-003 3.586146e-003 5.181427e-003 7.411963e-004 9.616484e-004 8.728665e-004 1.028207e-003 1.195126e-003 1.183243e-003 1.387705e-003 1.340516e-003 1.280963e-003 1.135841e-003 1.082105e-003 6.713954e-004 9.972325e-004
<GCONST> -1.217455e+002
<MIXTURE> 11 7.161856e-002
<MEAN> 39
 -2.943657e-001 1.524291e-001 1.249467e-001 3.555416e-001 1.668657e-001 1.605955e-001 1.703898e-001 -2.150771e-002 8.001829e-003 -6.262770e-002 -1.181822e-002 -1.687778e-002 -3.338809e-001 1.099333e-001 -5.371958e-002 -2.210093e-002 -3.065884e-002 5.158434e-002 2.572718e-002 -1.884713e-002 2.142731e-002 8.016688e-003 6.791619e-003 -2.906014e-003 -1.817803e-002 -1.742479e-001 -2.637644e-002 -4.399799e-003 8.075386e-004 -2.486494e-002 -1.240250e-002 -6.878524e-003 6.417750e-003 -4.663267e-003 2.986165e-003 8.736083e-003 7.326800e-003 7.504302e-003 2.889594e-002
<VARIANCE> 39
 4.123591e-002 8.304186e-002 6.286640e-002 6.188401e-002 5.807808e-002 9.008722e-002 8.300257e-002 8.338883e-002 7.369440e-002 5.810429e-002 5.305355e-002 3.527198e-002 4.736022e-002 3.700291e-003 9.325318e-003 7.210513e-003 6.071340e-003 6.064973e-003 7.397626e-003 8.610964e-003 7.620696e-003 6.944547e-003 5.961728e-003 5.512942e-003 3.338700e-003 6.389047e-003 5.751197e-004 1.076494e-003 9.281535e-004 8.966348e-004 9.320157e-004 1.214701e-003 1.350036e-003 1.349901e-003 1.328398e-003 1.094330e-003 9.506160e-004 5.925790e-004 6.969089e-004
<GCONST> -1.208624e+002
<MIXTURE> 12 1.102347e-001
<MEAN> 39
 1.154958e-002 1.310272e-001 1.741556e-001 -1.752638e-002 -2.424712e-001 -1.142230e-001 6.278724e-002 -1.485309e-001 -1.434722e-002 -6.010634e-002 -3.311935e-002 -1.367870e-002 2.374033e-001 2.344851e-001 -5.078831e-002 -9.704569e-002 -1.343149e-001 -3.966959e-002 -8.468396e-002 -6.614581e-002 5.274954e-002 3.219255e-002 -1.660179e-003 -2.328950e-002 -2.804427e-002 7.687362e-002 -3.747154e-002 -1.206017e-002 -1.902602e-002 -4.230557e-003 1.595983e-002 9.702283e-003 9.725121e-003 1.784077e-002 8.383239e-003 8.594328e-003 7.773980e-003 3.353689e-003 2.164244e-002
<VARIANCE> 39
 4.057237e-002 4.332085e-002 5.584471e-002 7.396472e-002 7.509412e-002 7.360669e-002 8.138222e-002 7.692871e-002 7.115905e-002 5.435362e-002 5.275006e-002 4.376696e-002 5.506128e-002 5.290814e-003 1.125529e-002 1.102797e-002 8.945340e-003 9.730116e-003 1.255717e-002 1.338509e-002 1.185088e-002 1.146969e-002 8.970958e-003 8.113066e-003 6.731952e-003 2.880956e-003 6.086764e-004 5.299919e-004 7.450681e-004 8.596780e-004 1.092834e-003 1.019508e-003 1.219165e-003 1.198591e-003 1.212223e-003 1.111521e-003 1.017622e-003 8.135641e-004 5.593762e-004
<GCONST> -1.178730e+002
<TRANSP> 5
 0.000000e+000 1.000000e+000 0.000000e+000 0.000000e+000 0.000000e+000
 0.000000e+000 6.991689e-001 3.008311e-001 0.000000e+000 0.000000e+000
 0.000000e+000 0.000000e+000 8.223155e-001 1.776846e-001 0.000000e+000
 0.000000e+000 0.000000e+000 0.000000e+000 7.130324e-001 2.869676e-001
 0.000000e+000 0.000000e+000 0.000000e+000 0.000000e+000 0.000000e+000
<ENDHMM>
~h "Z"
<BEGINHMM>
<NUMSTATES> 5
<STATE> 2
<NUMMIXES> 12
<MIXTURE> 1 1.049720e-001
<MEAN> 39
 1.996509e-001 -2.578910e-001 8.981653e-002 -2.101677e-001 -1.691310e-001 -2.662063e-001 3.066741e-001 4.802529e-002 -8.116327e-002 1.583569e-002 2.741745e-002 -7.208569e-002 5.672555e-001 -7.618415e-002 1.192059e-001 5.109218e-002 1.710872e-002 -3.626137e-003 -2.320654e-002 -4.729867e-003 -6.228962e-003 -2.671425e-003 2.092989e-002 -1.784752e-002 5.845987e-003 -4.065571e-002 -3.347468e-002 3.873535e-002 -1.836270e-002 2.364705e-002 6.427042e-003 1.623930e-002 -1.703947e-002 -5.793169e-003 -2.244830e-003 -8.994768e-003 2.499777e-003 7.059135e-003 -8.036830e-003
<VARIANCE> 39
 1.809239e-002 3.653408e-002 5.786263e-002 5.357016e-002 6.206496e-002 8.542436e-002 7.241455e-002 9.113278e-002 5.056617e-002 5.228775e-002 5.129673e-002 4.292389e-002 4.007603e-002 3.459727e-003 6.325500e-003 5.452024e-003 5.004858e-003 7.488800e-003 8.795564e-003 7.718656e-003 7.842622e-003 8.101591e-003 7.513479e-003 5.599703e-003 5.088588e-003 1.553143e-003 3.179467e-004 4.229712e-004 6.933085e-004 6.441692e-004 7.937529e-004 8.053830e-004 9.795511e-004 1.068854e-003 1.000507e-003 9.515428e-004 8.558051e-004 7.489673e-004 1.629100e-004
<GCONST> -1.294946e+002
<MIXTURE> 2 7.689001e-002
<MEAN> 39
 5.902500e-003 1.166643e-001 1.911611e-001 -3.124228e-001 -3.107116e-001 -1.738773e-001 2.742108e-001 -1.655186e-001 1.353756e-001 2.107817e-001 -1.208574e-001 -1.748496e-001 5.382486e-001 -4.690417e-002 4.986391e-002 -3.084103e-003 6.017318e-002 2.498162e-002 -4.414944e-002 5.258531e-002 -1.762289e-002 -3.486067e-002 8.644331e-003 9.450018e-003 -2.385952e-004 -2.452467e-002 -1.375305e-002 1.660197e-002 -6.796181e-003 6.052488e-003 6.149177e-003 1.006913e-002 -1.982392e-002 1.096271e-002 -4.566179e-003 -1.535816e-002 6.024826e-003 1.386464e-002 -5.890431e-003
<VARIANCE> 39
 1.691419e-002 3.323439e-002 4.043483e-002 4.530361e-002 3.763966e-002 4.454906e-002 5.254350e-002 4.070576e-002 4.794273e-002 3.709354e-002 4.974602e-002 2.991704e-002 3.299353e-002 1.784233e-003 2.678769e-003 2.421896e-003 3.186345e-003 4.166999e-003 5.772685e-003 6.595724e-003 5.339602e-003 5.121866e-003 4.261361e-003 4.172120e-003 3.593367e-003 1.058384e-003 2.806398e-004 3.364493e-004 3.660384e-004 4.097793e-004 4.666154e-004 5.182222e-004 6.388195e-004 7.297291e-004 7.511342e-004 6.513017e-004 6.639804e-004 5.233405e-004 1.551667e-004
<GCONST> -1.443808e+002
<MIXTURE> 3 4.614665e-002
<MEAN> 39
 1.269081e-001 5.019409e-002 1.070327e-001 -2.711429e-001 -2.365035e-001 -8.149336e-002 1.340977e-001 -1.686830e-001 1.028859e-002 5.085846e-003 -1.175879e-001 -2.170673e-002 2.846328e-001 -1.967281e-002 4.201119e-002 -1.673163e-002 -5.081604e-002 -4.797656e-002 -3.304297e-002 2.501923e-002 1.604041e-002 1.992901e-002 9.639841e-004 -1.013069e-002 -6.131642e-003 1.478089e-001 -3.506741e-002 1.414775e-002 5.965494e-003 3.872790e-002 2.371263e-002 1.408943e-002 -4.291241e-003 6.774444e-003 -3.939440e-003 7.554834e-004 6.539772e-003 1.409355e-003 -3.974228e-002
<VARIANCE> 39
 5.339976e-002 7.850610e-002 7.199133e-002 8.382047e-002 8.013397e-002 7.764309e-002 9.610131e-002 7.849173e-002 8.507573e-002 5.989575e-002 6.214748e-002 6.137696e-002 1.044766e-001 7.775980e-003 7.125983e-003 6.713105e-003 1.037291e-002 7.553373e-003 7.245244e-003 7.756114e-003 8.286752e-003 7.082860e-003 6.221585e-003 6.380802e-003 4.171453e-003 1.227284e-002 1.058177e-003 1.287810e-003 1.130107e-003 1.363577e-003 1.334991e-003 1.357033e-003 1.660567e-003 1.492498e-003 1.430672e-003 1.254752e-003 1.122338e-003 8.831620e-004 1.575398e-003
<GCONST> -1.123105e+002
<MIXTURE> 4 9.371325e-002
<MEAN> 39
 -2.324947e-001 2.813797e-001 2.722897e-001 -2.007561e-001 -8.697689e-002 -1.157323e-001 7.625937e-003 9.993852e-002 -1.563465e-001 -3.415670e-002 7.961421e-002 -6.948905e-002 4.456252e-001 -1.145669e-001 1.017893e-001 5.023872e-002 2.084897e-002 4.433637e-002 1.373344e-002 -2.834954e-002 -1.329232e-002 -2.021612e-002 -1.178221e-002 9.368003e-003 2.206723e-002 -3.183896e-002 2.323382e-002 -2.760758e-002 -2.014255e-002 1.294795e-002 -7.547169e-003 -9.021549e-003 2.063151e-002 -1.647575e-002 7.840230e-003 4.964205e-003 -9.557404e-003 4.583245e-003 7.515542e-004
<VARIANCE> 39
 2.776029e-002 3.585622e-002 5.134841e-002 6.078535e-002 7.412668e-002 7.778721e-002 6.504982e-002 7.468023e-002 5.370328e-002 6.158159e-002 6.130528e-002 3.951192e-002 4.200591e-002 3.080440e-003 4.154385e-003 4.377703e-003 4.350835e-003 4.313109e-003 4.579573e-003 5.486194e-003 6.084225e-003 5.537217e-003 5.486963e-003 5.451614e-003 3.477514e-003 1.274974e-003 5.313537e-004 5.491565e-004 7.013118e-004 6.982608e-004 8.560052e-004 8.576659e-004 8.403094e-004 1.092250e-003 1.063567e-003 1.056213e-003 8.805207e-004 7.145281e-004 3.168503e-004
<GCONST> -1.312444e+002
<MIXTURE> 5 7.893158e-002
<MEAN> 39
 -5.510388e-003 1.971387e-001 -8.254632e-002 -3.284688e-001 -3.715616e-001 6.853839e-002 -6.875005e-002 -2.097300e-001 2.341733e-001 -1.510677e-001 -2.435074e-001 1.298333e-001 5.232170e-001 -9.642914e-002 1.414676e-001 1.581238e-002 9.445801e-002 -3.703990e-002 -1.204539e-002 2.666900e-002 -4.111362e-002 -1.393932e-002 -6.396487e-003 -3.406391e-002 -9.154604e-003 -3.260609e-002 -2.260528e-002 1.073828e-002 1.172532e-002 1.422981e-002 2.631498e-002 -1.676098e-002 1.165390e-003 4.700073e-003 -2.288122e-002 9.777124e-003 1.330720e-002 -1.882751e-003 -7.399626e-003
<VARIANCE> 39
 2.153640e-002 5.987258e-002 5.071596e-002 5.220868e-002 5.934990e-002 4.400750e-002 6.514431e-002 6.616366e-002 5.908484e-002 5.285211e-002 4.544264e-002 4.086921e-002 3.064717e-002 2.829500e-003 6.590896e-003 5.287557e-003 5.936774e-003 6.226467e-003 6.519681e-003 7.450722e-003 8.724137e-003 7.074448e-003 5.998800e-003 5.530942e-003 5.425215e-003 1.383586e-003 3.544534e-004 5.195778e-004 5.348966e-004 7.447681e-004 8.227805e-004 8.149000e-004 9.292793e-004 1.094739e-003 9.832614e-004 8.859317e-004 8.312017e-004 6.129143e-004 1.794558e-004
<GCONST> -1.312500e+002
<MIXTURE> 6 9.450619e-002
<MEAN> 39
 4.762042e-002 4.740322e-002 6.193973e-002 2.530146e-002 -3.394598e-001 -1.885961e-001 2.213278e-001 9.492893e-002 -7.480878e-002 6.808607e-003 6.041377e-002 -1.611807e-001 4.726374e-001 -9.755313e-002 1.120697e-001 2.383032e-002 3.269082e-002 1.015399e-002 9.677442e-003 -6.500588e-003 -3.229864e-002 1.721342e-002 -1.999714e-002 1.397069e-002 1.304690e-002 -2.795088e-002 -8.584704e-003 2.845470e-004 -1.168666e-003 -6.611326e-003 1.955395e-002 1.053698e-003 -1.369955e-003 -1.044845e-002 2.069635e-003 -4.185098e-003 -4.579888e-003 1.548373e-002 -2.127017e-003
<VARIANCE> 39
 1.655326e-002 3.231173e-002 6.766311e-002 4.559539e-002 6.294646e-002 7.298888e-002 4.929057e-002 6.603220e-002 4.681919e-002 4.808793e-002 4.933337e-002 3.952144e-002 3.283616e-002 2.585305e-003 4.626116e-003 3.739980e-003 3.823495e-003 4.702641e-003 5.738995e-003 6.113317e-003 6.143050e-003 5.911814e-003 5.321549e-003 4.558306e-003 4.013226e-003 1.482867e-003 3.562184e-004 3.333808e-004 5.589388e-004 4.895508e-004 6.313527e-004 6.700353e-004 6.730612e-004 7.848414e-004 8.130943e-004 8.286023e-004 7.127886e-004 5.967165e-004 1.581173e-004
<GCONST> -1.373093e+002
<MIXTURE> 7 1.132467e-001
<MEAN> 39
 -3.276246e-001 5.646757e-001 6.760051e-002 -1.455544e-001 -2.614896e-001 -1.669839e-001 7.208174e-002 -2.834288e-001 1.053970e-001 -4.746011e-002 -2.970277e-001 1.178286e-001 4.261139e-001 -6.735694e-002 5.275949e-002 3.223493e-002 4.991173e-002 3.597585e-002 -1.566471e-002 4.382580e-003 -2.526364e-002 -3.476769e-002 1.161095e-002 -2.048024e-003 7.175161e-003 -1.964776e-002 1.560149e-002 -2.303736e-002 -4.370397e-003 -5.752292e-003 5.881016e-005 8.136788e-003 -6.015558e-003 8.713982e-003 8.106900e-004 -3.049893e-003 1.583473e-002 -3.572606e-003 2.515476e-003
<VARIANCE> 39
 2.121741e-002 4.832446e-002 5.738825e-002 6.259368e-002 6.093429e-002 4.933091e-002 7.591095e-002 5.436271e-002 6.311832e-002 6.239365e-002 5.151390e-002 4.830110e-002 3.223747e-002 1.478747e-003 2.147197e-003 2.467378e-003 3.340246e-003 3.431830e-003 3.145526e-003 3.919514e-003 4.358242e-003 4.822682e-003 4.321230e-003 4.096150e-003 2.979813e-003 5.299859e-004 2.282416e-004 3.437813e-004 3.991984e-004 5.117814e-004 6.189868e-004 5.893213e-004 7.229352e-004 7.961724e-004 8.563284e-004 7.754999e-004 7.132190e-004 5.304027e-004 9.971753e-005
<GCONST> -1.426969e+002
<MIXTURE> 8 8.667755e-002
<MEAN> 39
 -9.743927e-002 2.555589e-001 3.111825e-003 -9.402949e-002 -8.145763e-002 -4.616972e-001 4.571588e-001 -1.082216e-001 -2.933556e-002 1.156323e-001 -5.729967e-002 -2.801689e-002 4.747446e-001 -1.162798e-001 1.400394e-001 1.528877e-002 3.726963e-002 7.002682e-002 -5.290999e-002 2.843604e-002 -4.197362e-002 -2.234988e-002 1.016591e-002 -2.251914e-002 5.318002e-002 -5.136312e-002 1.805553e-003 -1.540480e-002 7.688269e-004 4.424793e-003 -1.067986e-002 4.069300e-002 -3.269272e-002 7.597937e-003 -3.553229e-003 -1.266608e-002 9.424086e-003 -2.894413e-003 -8.435049e-004
<VARIANCE> 39
 2.116322e-002 4.097084e-002 5.330325e-002 4.961427e-002 5.392225e-002 4.966359e-002 5.022595e-002 7.633685e-002 5.565072e-002 5.497232e-002 5.364497e-002 4.018680e-002 4.480220e-002 2.966909e-003 5.009674e-003 4.942127e-003 4.882731e-003 5.573663e-003 6.068591e-003 6.858713e-003 7.235966e-003 7.941565e-003 6.036994e-003 5.285177e-003 4.171323e-003 1.881242e-003 5.312463e-004 5.668951e-004 6.622279e-004 7.119073e-004 7.820225e-004 7.208938e-004 8.580181e-004 1.037084e-003 1.183597e-003 1.062209e-003 8.712545e-004 7.020388e-004 3.358910e-004
<GCONST> -1.305235e+002
<MIXTURE> 9 8.512485e-002
<MEAN> 39
 -1.851621e-001 8.075720e-002 3.724678e-001 1.092674e-001 -3.543282e-001 -2.289981e-001 1.084142e-001 8.169170e-002 -4.828701e-002 -1.987958e-001 6.044998e-002 1.095258e-001 4.397731e-001 -1.512742e-001 8.023672e-002 8.997443e-002 2.983011e-002 3.214551e-003 5.306330e-002 2.454845e-002 -5.244597e-002 -4.788627e-002 4.094009e-003 2.888248e-002 1.533933e-002 -1.446732e-002 2.862334e-002 -8.590369e-003 -4.275934e-002 -1.050628e-002 3.174559e-002 -6.466371e-003 -9.463437e-003 -3.236949e-003 1.038152e-002 1.632763e-002 -6.611987e-003 -1.537937e-002 -6.644547e-003
<VARIANCE> 39
 3.980881e-002 4.031210e-002 6.533854e-002 6.792227e-002 7.944154e-002 7.340012e-002 6.702594e-002 7.737003e-002 8.642500e-002 5.695745e-002 6.581194e-002 4.559835e-002 4.870934e-002 4.323467e-003 4.591282e-003 4.738865e-003 5.229520e-003 5.980226e-003 5.535713e-003 6.985728e-003 6.911769e-003 6.848474e-003 6.361732e-003 6.122268e-003 4.820288e-003 1.446086e-003 7.614089e-004 5.519991e-004 9.318733e-004 9.746579e-004 9.865584e-004 1.114401e-003 1.239132e-003 1.428081e-003 1.507574e-003 1.241537e-003 1.261745e-003 9.397175e-004 2.523458e-004
<GCONST> -1.241020e+002
<MIXTURE> 10 8.285162e-002
<MEAN> 39
 -2.279627e-001 5.642968e-001 -1.398188e-001 6.681602e-002 -4.347116e-001 2.892529e-002 -4.085942e-002 -2.145813e-001 1.446311e-001 -1.634415e-001 -1.816410e-001 1.387358e-002 3.829660e-001 -1.142004e-001 1.286992e-001 2.812087e-002 9.677384e-002 2.525282e-002 -1.052788e-002 1.238180e-002 -5.062674e-002 -8.295487e-003 -2.448861e-002 6.404593e-003 1.098261e-003 -4.349134e-002 9.829020e-003 -4.061494e-002 1.349321e-002 -1.987863e-002 2.848124e-002 -4.443360e-003 3.573140e-003 5.371728e-003 -1.263355e-002 1.438474e-002 7.886547e-003 8.790436e-003 2.609647e-003
<VARIANCE> 39
 2.195953e-002 4.539810e-002 4.311972e-002 6.268671e-002 5.918156e-002 5.999184e-002 9.829260e-002 7.237871e-002 6.205489e-002 5.864397e-002 5.660374e-002 5.034934e-002 3.081163e-002 3.562750e-003 6.335728e-003 4.584451e-003 6.170736e-003 6.219625e-003 5.612666e-003 7.061196e-003 7.514352e-003 6.459360e-003 5.235816e-003 5.459021e-003 4.379394e-003 1.776596e-003 4.438282e-004 6.492019e-004 6.150286e-004 7.886459e-004 9.019405e-004 1.042420e-003 1.158301e-003 1.183507e-003 1.065467e-003 9.266295e-004 9.410646e-004 6.949186e-004 2.737326e-004
<GCONST> -1.284852e+002
<MIXTURE> 11 1.012059e-001
<MEAN> 39
 -4.585031e-001 5.493385e-001 1.799107e-001 1.349423e-002 6.869248e-003 -2.714172e-001 2.141039e-001 -3.020725e-001 -8.131346e-002 2.386582e-002 -1.417803e-001 1.170230e-001 2.936783e-001 -1.040424e-001 7.819127e-002 2.097667e-002 6.225606e-002 4.476143e-002 1.268348e-002 1.435677e-002 -4.485077e-002 -1.037850e-002 -8.663518e-003 -2.066378e-003 2.529730e-002 -3.856216e-002 5.286112e-002 -5.400435e-002 -2.409971e-002 -1.002441e-002 -2.350198e-002 1.843744e-002 -1.048192e-002 2.334845e-002 1.373866e-002 -6.022937e-003 1.311654e-002 -1.525258e-002 5.905243e-003
<VARIANCE> 39
 2.952319e-002 4.486303e-002 5.389857e-002 7.106990e-002 7.936511e-002 6.885509e-002 8.768957e-002 8.129883e-002 7.656644e-002 7.405165e-002 6.735875e-002 4.322035e-002 3.946809e-002 6.037357e-003 5.900762e-003 6.155009e-003 6.332436e-003 7.656269e-003 5.882242e-003 6.843657e-003 7.856159e-003 7.678356e-003 6.366147e-003 5.756501e-003 4.231608e-003 3.326269e-003 8.879005e-004 8.605576e-004 1.026373e-003 1.139565e-003 1.175171e-003 1.230074e-003 1.463071e-003 1.484148e-003 1.544395e-003 1.350787e-003 1.125541e-003 8.744345e-004 5.948587e-004
<GCONST> -1.199692e+002
<MIXTURE> 12 3.568574e-002
<MEAN> 39
