# VAD: 1
# Viterbi loop action: No record

BIGRAM: method Katz, cutoff 1
coef[7]: 0.000000 0.965649 0.984284 0.959924 0.990000 0.910941 0.942748

TRIGRAM: method Katz, cutoff 1
coef[7]: 0.000000 0.965561 0.594467 0.745021 0.813399 0.500615 0.826808

\data\
ngram 1=48
ngram 2=2016
ngram 3=40479

\1-grams:
-2.3363 &	-1.0498
-99.9900 </s>
-99.9900 <s>
-1.6208 A	-2.5847
-2.3699 D	-1.1157
-1.8041 E	-2.4861
-3.7365 F	-0.3584
-1.8577 G	-1.9916
-2.2892 H	-1.4382
-2.4748 J	-1.0174
-1.9077 P	-2.1923
-2.3422 S	-1.3832
-1.7761 T	-0.8804
-2.1098 Y	-1.8747
-2.0842 Z	-2.1497
-1.2720 _S_	-4.5485
-1.9906 _q_	-2.9555
-1.4704 a	-2.7963
-2.3501 a_md	-1.2223
-1.9697 a_q	-2.2846
-1.6162 b	-0.9114
-1.5230 d	-2.7225
-2.1576 dh	-1.0999
-2.0293 f	-1.6945
-1.7044 g	-3.6581
-1.7899 h	-0.7627
-1.0244 i	-1.8771
-1.6368 j	-3.8189
-1.4017 k	-1.4030
-1.8205 l	-2.1302
-1.5227 m	-2.7231
-1.5151 n	-3.5307
-2.4623 o	-1.0474
-1.6238 p	-2.7905
-1.6450 q	-1.0371
-2.0941 q_a	-1.7405
-1.5063 r	-4.0544
-2.1663 rf	-2.5962
-1.4944 s	-3.9401
-1.5740 t	-1.2449
-1.7038 t_l	-3.0394
-1.2398 u	-4.6129
-1.8563 v	-0.8842
-1.1890 w	-1.4457
-1.7988 x	-0.8503
-1.0911 y	-4.8847
-2.0982 ya_q	-1.5307
-1.9356 z	-2.5777

\2-grams:
-1.0972 & A	+0.1725
-3.1437 & D
-1.3432 & E	+0.0595
-1.9382 & G	+0.1007
-2.6101 & H	-0.1164
-2.4296 & P	-0.1511
-2.7350 & S	-0.1973
-1.8275 & T	-0.2361
-1.3397 & Y	+0.1328
-1.9824 & Z	+0.1479
-1.5320 & _S_	-0.1817
-1.4168 & _q_	+0.1661
-1.1178 & a	-0.0648
-2.2255 & a_md	-0.1883
-2.3156 & a_q	-0.1182
-1.8733 & b	-0.1280
-1.5211 & d	+0.0550
-2.7350 & dh
-2.3882 & f	-0.0977
-1.7306 & g	-0.0734
-1.6814 & h	-0.1120
-1.3057 & i	-0.1447
-1.7961 & j	-0.0255
-1.8614 & k	-0.2347
-1.8275 & l	-0.3152
-1.7668 & m	-0.1985
-1.5845 & n	-0.2454
-2.0146 & p	-0.0910
-1.8981 & q	-0.0907
-2.1991 & q_a	-0.2812
-1.2993 & r	-0.0148
-2.8453 & rf	-0.2713
-1.3765 & s	-0.0998
-1.5723 & t	-0.1632
-2.1286 & t_l	-0.1691
-2.0494 & u	-0.0918
-2.7350 & v	-0.0232
-0.9657 & w	+0.3731
-1.9382 & x	-0.0723
-1.4951 & y	-0.0412
-1.1440 & ya_q	-0.2205
-1.9672 & z	-0.1058
-3.3256 A &
-2.5017 A D	-0.0588
-2.1957 A E	+0.1945
-3.3256 A F	-0.0621
-2.0921 A G	+0.0854
-1.9410 A H	+0.4854
-2.6266 A J	+0.0207
-1.8618 A P	+0.1078
-2.4919 A S	-0.1494
-1.5147 A T	+0.5011
-1.5676 A Y	+0.4764
-1.5949 A Z	+0.6238
-1.3472 A _S_	+0.7611
-1.4001 A _q_	-0.0044
-2.5219 A a	-0.1172
-2.8027 A a_md	-0.1302
-2.6538 A a_q	-0.1837
-1.5409 A b	+0.0720
-1.2609 A d	+0.4814
-2.1037 A dh	-0.0835
-1.9749 A f	-0.0083
-1.6137 A g	+0.4592
-1.4929 A h	+0.4186
-2.0021 A i	+0.2466
-1.9719 A j	+0.0123
-1.4549 A k	+0.1980
-1.4217 A l	+0.0267
-1.1190 A m	+0.5428
-1.0110 A n	+0.7556
-3.8593 A o
-1.7027 A p	+0.0980
-1.7058 A q	+0.1255
-2.5219 A q_a	-0.0102
-1.1202 A r	+0.6536
-2.6011 A rf	-0.2545
-1.2581 A s	+0.6118
-1.4111 A t	+0.6620
-2.7138 A t_l	-0.1311
-2.0882 A u	-0.0286
-2.2586 A v	-0.0780
-1.3038 A w	+0.0061
-1.8292 A x	+0.2786
-1.8067 A y	-0.0095
-1.7420 A ya_q	-0.2575
-1.6680 A z	+0.2781
-2.2821 D &	-0.0576
-2.0158 D A	-0.1525
-1.8278 D E	-0.0862
-1.8909 D G	+0.1026
-1.9811 D H	-0.2501
-2.5765 D J	+0.0014
-2.1408 D P	-0.0806
-2.3546 D S	-0.0769
-1.9981 D T	+0.0803
-2.3546 D Y	-0.2667
-2.5765 D Z
-1.2689 D _S_	+0.0653
-2.0343 D _q_	-0.1236
-1.7832 D a	-0.0971
-2.1408 D a_md	-0.1088
-1.8278 D a_q	-0.0535
-1.6971 D b	-0.0441
-1.8397 D d	-0.0508
-2.2499 D dh	-0.2710
-1.7333 D f	-0.1307
-1.5700 D g	+0.0134
-1.7626 D h	-0.0908
-1.1759 D i	+0.1599
-1.8162 D j	-0.1840
-1.4565 D k	+0.0681
-2.1408 D l	-0.0934
-1.5635 D m	-0.0376
-1.7239 D n	-0.1457
-2.9258 D o	-0.4315
-1.8278 D p	-0.1611
-1.4322 D q	-0.1533
-1.7428 D q_a	-0.0790
-1.7626 D r	-0.0551
-2.0536 D rf	-0.0795
-1.5635 D s	-0.0622
-1.7626 D t	-0.2146
-1.6402 D t_l	+0.2482
-0.9089 D u	+0.2645
-1.4717 D v	-0.0973
-0.8736 D w	-0.0893
-1.5831 D x	-0.1027
-1.3468 D y	+0.1384
-2.3546 D ya_q	-0.1498
-2.0343 D z	-0.1412
-3.0587 E &	-0.3789
-1.9532 E A	+0.0222
-2.4847 E D	-0.1821
-3.1423 E F
-2.1230 E G	+0.0224
-1.8126 E H	+0.2851
-2.3707 E J	-0.2088
-2.0867 E P	-0.0695
-2.4567 E S	-0.1436
-1.9750 E T	-0.2260
-1.3696 E Y	+0.4710
-2.0324 E Z	+0.0509
-1.2559 E _S_	+0.5717
-1.4055 E _q_	+0.5710
-1.5178 E a	+0.0375
-2.5639 E a_md	-0.1187
-2.3283 E a_q	+0.0397
-1.7213 E b	+0.0377
-1.3533 E d	+0.1955
-2.4303 E dh	+0.0483
-2.3490 E f	-0.1464
-1.8095 E g	+0.0378
-1.4994 E h	+0.3875
-1.6253 E i	+0.1910
-1.7470 E j	+0.0286
-1.3878 E k	+0.1970
-1.3587 E l	+0.0018
-1.5100 E m	+0.1863
-1.0298 E n	+1.1436
-3.6760 E o
-1.4994 E p	+0.3414
-1.8719 E q	-0.1830
-2.2458 E q_a	-0.1151
-1.1312 E r
-2.4055 E rf	-0.0646
-1.6993 E s	+0.1191
-1.5834 E t	+0.1207
-2.7577 E t_l	-0.0825
-1.9841 E u	+0.1039
-2.4055 E v	+0.0441
-1.1597 E w	+0.0567
-1.9532 E x	+0.0832
-1.3459 E y	-0.1629
-1.3105 E ya_q	-0.2911
-1.8157 E z	+0.2511
-1.7435 F E
-1.5591 F P	-0.4191
-1.4451 F _S_	-0.2653
-1.4451 F a_md
-1.7435 F a_q
-1.5591 F b
-1.4451 F d	-0.2426
-1.7435 F f	-1.4129
-1.4451 F g	-0.2729
-1.7435 F h
-0.8533 F i	+0.0860
-1.4451 F j
-1.2917 F k	-0.0790
-1.2917 F m
-1.5591 F p
-1.5591 F q	-0.3899
-1.5591 F s	-0.4395
-1.5591 F t_l
-1.2917 F u	-0.0302
-1.4451 F v	-0.2739
-1.7435 F w
-1.4451 F x
-1.2099 F y
-1.7435 F z
-2.2269 G &	-0.2180
-1.4899 G A	-0.0138
-2.5859 G D	-0.1026
-1.7350 G E	+0.1125
-2.7321 G H	-0.0947
-3.3239 G J
-2.3284 G P	+0.0510
-2.7040 G S	-0.1143
-2.3519 G T	-0.1356
-2.2849 G Y	-0.1718
-2.9082 G Z	-0.0149
-1.4768 G _S_	+0.2410
-1.9214 G _q_	-0.1144
-1.5334 G a	+0.3423
-2.7942 G a_md	-0.1153
-2.0693 G a_q	-0.0592
-1.7876 G b	+0.0394
-1.7292 G d	-0.0562
-1.9637 G dh	-0.1911
-2.7321 G f	-0.1255
-1.8513 G g	+0.0451
-2.1020 G h	-0.1850
-1.0563 G i	-0.1192
-1.6829 G j	+0.0858
-1.6777 G k	+0.1763
-1.9350 G l	-0.1150
-1.8911 G m	-0.0508
-1.6960 G n	+0.0911
-2.4458 G o	-0.2599
-1.2287 G p	-0.1255
-2.0757 G q	+0.0937
-1.8078 G q_a	-0.1477
-1.5155 G r	+0.3526
-2.1523 G rf	-0.1004
-2.0631 G s	-0.0825
-2.2006 G t	-0.2058
-1.4932 G t_l	-0.0615
-0.9844 G u	+0.5084
-2.3896 G v	-0.0984
-0.8418 G w	+0.1759
-2.1373 G x	-0.0489
-0.8151 G y	+0.4812
-2.4932 G ya_q	-0.0641
-2.2550 G z	-0.0082
-2.7390 H &
-1.9582 H A	-0.0963
-2.1545 H D	-0.0772
-1.7443 H E	-0.0561
-2.0295 H G	-0.2131
-1.8235 H J	-0.1274
-1.9582 H P	-0.0640
-2.1757 H S	-0.1082
-1.8235 H T	-0.0201
-2.3006 H Y	-0.0900
-2.5736 H Z	-0.0496
-1.2726 H _S_	-0.0978
-1.9715 H _q_	-0.0522
-1.7524 H a	-0.0782
-2.1545 H a_md	-0.0980
-1.7691 H a_q	-0.0414
-1.6378 H b	+0.1227
-1.7208 H d	-0.0357
-2.5224 H dh	-0.1873
-1.7285 H f	-0.0387
-1.5576 H g	-0.0172
-1.7954 H h	-0.1852
-1.1844 H i	+0.2759
-1.7607 H j	+0.0577
-1.3123 H k	-0.0335
-1.8969 H l	-0.2564
-1.4855 H m	-0.0838
-1.6638 H n	-0.0290
-3.0064 H o
-1.8139 H p	-0.0434
-1.4160 H q	-0.0017
-1.7133 H q_a	+0.1494
-1.5082 H r	+0.0499
-1.9996 H rf	-0.1520
-1.4811 H s	-0.0882
-1.4314 H t	+0.0831
-1.8046 H t_l	+0.0832
-0.9621 H u	+0.3549
-1.2645 H v	-0.0081
-1.2514 H w	+0.3327
-1.5473 H x	-0.0780
-1.6316 H y	+0.0174
-2.1545 H ya_q	-0.1501
-2.1979 H z	-0.1526
-3.0053 J &	-1.4132
-2.2120 J A	-0.1084
-2.4717 J D	-0.1282
-2.2498 J E	-0.1260
-1.8762 J G	-0.1294
-2.3881 J H	-0.0983
-2.1772 J P	-0.1938
-2.5965 J S	-0.1808
-2.3369 J T	-0.1981
-3.0053 J Z
-1.2156 J _S_	-0.0503
-2.3881 J _q_	-0.2254
-2.0607 J a	-0.1496
-2.3369 J a_md	-0.0867
-1.7998 J a_q	-0.1723
-1.8287 J b	-0.1296
-2.0359 J d	-0.1496
-2.3881 J dh	+0.0069
-2.0124 J f	-0.1434
-2.0124 J g	-0.0389
-2.2120 J h	-0.0557
-0.5555 J i	+0.0874
-1.5922 J j	-0.0015
-1.6284 J k	-0.2524
-1.8140 J l	+0.0536
-1.6284 J m	-0.1102
-1.6010 J n	-0.0375
-2.5535 J o	-0.1465
-1.5353 J p	-0.1140
-2.1151 J q	-0.2240
-2.2120 J q_a	-0.1320
-1.7471 J r	-0.1208
-1.9689 J rf	-0.1258
-2.0607 J s	-0.0482
-2.1151 J t	-0.0162
-1.6679 J t_l	+0.0355
-1.2741 J u	+0.1470
-1.9689 J v	+0.0314
-1.9294 J w	-0.1704
-2.1450 J x	-0.2134
-0.6837 J y	+0.3631
-2.2911 J ya_q	-0.0652
-2.3881 J z	-0.1851
-2.8582 P &	-0.1770
-2.9551 P A	-0.0955
-2.4780 P D	-0.1363
-2.4602 P E	-0.1586
-1.8897 P G	+0.0036
-2.3141 P H	-0.0770
-1.8714 P J	-0.2760
-2.4268 P S	-0.0284
-1.1889 P T	-0.0570
-3.3879 P Y
-2.5571 P Z	-0.0759
-0.9734 P _S_	+0.6986
-2.9039 P _q_	-0.1990
-2.3019 P a	-0.1636
-2.7790 P a_md	-0.1032
-2.0321 P a_q	-0.1567
-1.7059 P b	+0.1621
-1.6735 P d	+0.1781
-2.4268 P dh	-0.0031
-1.5659 P f	+0.2292
-1.8411 P g	-0.1046
-2.2784 P h	-0.2564
-1.3913 P i	+0.3925
-1.6102 P j	-0.2420
-0.8382 P k	+0.2116
-2.5571 P l	-0.1746
-2.1861 P m	+0.1222
-2.4268 P n	-0.0726
-2.8582 P o	-0.0226
-2.1258 P p	+0.0652
-1.0910 P q	+0.3263
-1.9717 P q_a	-0.0454
-2.0520 P r	+0.0039
-2.0257 P rf	-0.1232
-1.5099 P s	+0.1400
-0.9734 P t	+0.3373
-1.8207 P t_l	-0.0988
-1.2818 P u	-0.0203
-1.2412 P v	+0.1784
-1.7578 P w	-0.0043
-1.5550 P x	+0.0195
-1.6998 P y	+0.1851
-3.1205 P ya_q	-0.1657
-2.6029 P z	-0.0953
-1.9766 S &	-0.2218
-1.5099 S A	-0.0852
-2.1227 S D	-0.1034
-1.6176 S E	-0.0275
-2.1015 S G	-0.2433
-2.1450 S H	-0.1073
-2.3446 S J	-0.0541
-1.9052 S P	-0.1919
-1.8005 S T	+0.1689
-2.5206 S Y	-0.2432
-2.1933 S Z	-0.2000
-1.5487 S _S_	-0.0736
-2.1685 S _q_	-0.1676
-1.3268 S a	+0.2017
-1.8110 S a_md	-0.0446
-1.7077 S a_q	-0.1245
-1.4793 S b	-0.0736
-1.9052 S d	-0.0477
-2.7291 S dh
-2.0435 S f	-0.1747
-1.3410 S g	+0.0195
-1.8555 S h	-0.1375
-1.1589 S i	+0.1485
-1.8217 S j	+0.0626
-1.5977 S k	+0.0781
-2.1685 S l	-0.1502
-1.5047 S m	-0.0527
-1.9466 S n	-0.0838
-3.1379 S o
-2.0435 S p	-0.1366
-1.5604 S q	-0.0270
-1.7335 S q_a	-0.0759
-1.5429 S r	+0.0955
-1.9613 S rf	-0.1162
-1.7516 S s	-0.2216
-1.6679 S t	+0.0294
-1.5849 S t_l	+0.0408
-0.8249 S u	+0.1758
-1.5664 S v	-0.1061
-0.9892 S w	+0.4873
-1.8005 S x	-0.0217
-1.8217 S y	-0.1468
-2.6042 S ya_q	-0.2257
-2.4237 S z	-0.2529
-1.7402 T &	-0.1532
-1.4227 T A	+0.2487
-2.4278 T D	+0.0073
-1.5171 T E	+0.4161
-2.5680 T G	-0.1417
-2.3820 T H	-0.0968
-2.7346 T J	-0.1082
-2.3366 T P	+0.0285
-2.7594 T S	-0.1131
-2.2117 T Y	-0.1134
-2.3988 T Z	+0.1153
-1.4833 T _S_	+0.4480
-2.3464 T _q_	-0.1814
-1.0237 T a	+0.4731
-2.0656 T a_md	+0.1467
-1.9329 T a_q	-0.2059
-1.9645 T b	-0.1031
-2.6474 T d	-0.2463
-2.8759 T dh	-0.0867
-1.9107 T f	-0.0037
-1.1940 T g	+0.3394
-2.1448 T h	-0.0781
-1.0503 T i	+0.2497
-2.2045 T j	-0.2917
-1.9728 T k	-0.0464
-2.0978 T l	+0.0334
-1.8627 T m	+0.1123
-2.2909 T n	-0.0089
-2.6676 T o	-0.0255
-2.3771 T p	-0.0558
-2.0031 T q	+0.1458
-1.8563 T q_a	-0.2239
-1.3187 T r	+0.6491
-2.2264 T rf	-0.0579
-1.7594 T s	+0.0560
-2.2417 T t	+0.0385
-1.7088 T t_l	-0.1666
-0.7399 T u	+0.1134
-1.9605 T v	+0.0261
-0.8312 T w	-0.4933
-1.8793 T x	-0.2250
-1.9217 T y	+0.4486
-2.3666 T ya_q	-0.0588
-2.5585 T z	-0.1308
-2.5100 Y &	-0.1052
-2.3137 Y A	-0.1170
-2.0126 Y D	-0.1242
-2.0763 Y E	-0.1300
-3.3702 Y F
-1.6923 Y G	-0.0252
-2.1937 Y H	-0.0671
-2.3137 Y J	+0.1243
-1.8852 Y P	+0.0359
-1.8852 Y S	-0.1227
-1.4386 Y T	+0.0954
-1.6147 Y Z	-0.1294
-1.3551 Y _S_	+0.0211
-1.7640 Y _q_	+0.1228
-2.2411 Y a	-0.2879
-2.4520 Y a_md	-0.0917
-1.9401 Y a_q	-0.2327
-1.4256 Y b	+0.1073
-1.6147 Y d	-0.0830
-2.0763 Y dh	-0.0189
-1.7530 Y f	+0.0436
-1.4977 Y g	+0.2983
-1.6147 Y h	+0.0238
-1.4771 Y i	-0.1678
-1.6649 Y j	+0.0646
-1.2028 Y k	+0.0630
-1.6433 Y l	-0.0247
-1.1790 Y m	+0.1055
-1.6187 Y n	+0.1526
-2.8366 Y o	-0.0571
-1.8927 Y p	-0.2091
-1.2152 Y q	+0.3347
-1.7988 Y q_a	+0.0191
-1.7869 Y r	-0.1515
-2.1937 Y rf	-0.0879
-1.3551 Y s	+0.0309
-1.2616 Y t	+0.2517
-1.9318 Y t_l	+0.0514
-1.4231 Y u	+0.0667
-1.5627 Y v	+0.1603
-1.3318 Y w	+0.3659
-1.6030 Y x	-0.0955
-1.6971 Y y	-0.0401
-2.4256 Y ya_q	-0.2090
-1.8708 Y z	-0.2440
-1.5387 Z &	-0.1596
-1.2330 Z A	+0.0769
-2.4776 Z D	-0.0403
-1.6817 Z E	+0.0638
-2.1903 Z G	-0.1589
-2.5356 Z H	-0.0988
-2.7786 Z P
-2.5056 Z S	-0.1739
-2.1502 Z T	+0.0473
-2.1254 Z Y	-0.1324
-1.8244 Z _S_	-0.0749
-2.2193 Z _q_	-0.0835
-1.0087 Z a	+0.3891
-1.9915 Z a_md	-0.1669
-1.8125 Z a_q	+0.0931
-2.0796 Z b	-0.1555
-2.3807 Z d	-0.1478
-2.7275 Z dh	-0.0635
-2.6025 Z f	-0.1246
-1.3828 Z g	+0.1482
-1.8184 Z h	+0.0408
-0.9413 Z i	-0.1161
-2.3200 Z j	+0.0157
-2.1135 Z k	-0.0163
-2.5056 Z l	-0.0528
-2.0189 Z m	-0.1257
-2.7786 Z n	-0.0673
-2.8622 Z o	-0.0918
-2.2503 Z p	-0.0843
-2.0796 Z q	-0.0806
-2.0482 Z q_a	+0.0414
-1.7275 Z r	-0.0210
-2.3595 Z rf	-0.1053
-2.1254 Z s	-0.2338
-2.4776 Z t	-0.0657
-1.3742 Z t_l	+0.1461
-0.8250 Z u	+0.1211
-2.3200 Z v	-0.1052
-0.6985 Z w	+0.2835
-1.9035 Z x	-0.0729
-1.7132 Z y	+0.1201
-1.9827 Z ya_q	-0.0858
-2.5356 Z z	-0.2837
-2.4565 _S_ &	-0.3768
-1.8940 _S_ A	+0.0604
-2.3604 _S_ D	+0.1745
-2.0626 _S_ E	+0.0270
-4.0237 _S_ F
-2.0857 _S_ G	+0.2229
-2.4686 _S_ H	+0.0665
-2.0874 _S_ J	-0.1680
-2.0125 _S_ P	+0.2403
-2.2315 _S_ S	-0.0004
-1.8554 _S_ T	-0.4619
-2.8604 _S_ Y	-0.2357
-2.8218 _S_ Z	+0.0582
-2.4332 _S_ _q_	+0.1851
-1.6850 _S_ a	+0.2653
-2.2635 _S_ a_md	-0.0260
-1.8302 _S_ a_q	+0.2719
-1.6576 _S_ b	+0.2311
-1.9929 _S_ d	-0.1431
-2.1801 _S_ dh	+0.1198
-2.0330 _S_ f	+0.3607
-1.7350 _S_ g	-0.0047
-2.0026 _S_ h	-0.0401
-0.7983 _S_ i	+0.2138
-1.8865 _S_ j	+0.6157
-1.3681 _S_ k	+0.4356
-2.0068 _S_ l	+0.3407
-1.4239 _S_ m	+0.1882
-1.6052 _S_ n	+0.2574
-2.2635 _S_ o	+0.0674
-1.6563 _S_ p	+0.4988
-1.5344 _S_ q	+0.2338
-2.0197 _S_ q_a	+0.1750
-1.5387 _S_ r	+1.7311
-2.1738 _S_ rf	+0.1277
-1.6884 _S_ s	+0.7676
-1.4662 _S_ t	+0.0855
-1.7889 _S_ t_l	+0.4124
-0.7960 _S_ u	+0.0969
-1.3225 _S_ v	+0.3212
-1.3248 _S_ w	+0.0849
-1.7320 _S_ x	+0.2044
-1.2501 _S_ y	+1.2394
-2.5208 _S_ ya_q	+0.2223
-2.3296 _S_ z	-0.0256
-2.5712 _q_ &	-0.1303
-2.4329 _q_ A	-0.0989
-2.1126 _q_ D	-0.1315
-1.9492 _q_ E	-0.1157
-1.8777 _q_ G	-0.0777
-2.0194 _q_ H	-0.0597
-2.1032 _q_ J	-0.1589
-1.9624 _q_ P	+0.2532
-2.0119 _q_ S	-0.1836
-1.2516 _q_ T	+0.2715
-2.1419 _q_ Y	-0.2069
-1.7300 _q_ Z	-0.1267
-1.4193 _q_ _S_	-0.0101
-2.0510 _q_ a	-0.1383
-2.1955 _q_ a_md	-0.1328
-1.9691 _q_ a_q	+0.1131
-1.3174 _q_ b	+0.0239
-1.4809 _q_ d	+0.1415
-2.3282 _q_ dh	-0.0396
-1.5398 _q_ f	-0.0411
-1.6580 _q_ g	+0.0459
-1.8668 _q_ h	+0.0092
-1.4898 _q_ i	+0.0494
-1.8777 _q_ j	-0.1520
-1.0825 _q_ k	+0.1299
-2.1319 _q_ l	-0.0610
-1.3205 _q_ m	+0.2121
-1.9241 _q_ n	-0.0570
-3.4895 _q_ o
-1.8358 _q_ p	-0.0803
-1.1843 _q_ q	+0.2020
-1.4098 _q_ q_a	+0.1254
-1.7184 _q_ r	+0.1864
-2.0119 _q_ rf	-0.1417
-1.4193 _q_ s	+0.1489
-1.1944 _q_ t	+0.0312
-1.9760 _q_ t_l	-0.0603
-1.4469 _q_ u	+0.1774
-1.3809 _q_ v	+0.1538
-1.4136 _q_ w	+0.2466
-1.4853 _q_ x	-0.0192
-1.9691 _q_ y	+0.0657
-2.2568 _q_ ya_q	-0.0968
-2.2190 _q_ z	+0.0117
-3.5579 a &	-0.1170
-1.9967 a A	+0.1025
-2.3133 a D	-0.3188
-1.6849 a E	+0.7486
-3.1816 a F	-0.0664
-1.9011 a G	+0.1751
-2.1557 a H	+0.2046
-2.3560 a J	-0.1928
-1.7653 a P	+0.0691
-2.1750 a S	-0.1117
-1.4467 a T	+0.2325
-1.6414 a Y	+0.5632
-1.6207 a Z	+0.2637
-1.1120 a _S_	+0.4066
-1.5232 a _q_	+0.2412
-2.7641 a a_md	-0.1378
-2.9945 a a_q	-0.1035
-1.3575 a b	+0.1277
-1.2694 a d	+0.3559
-2.1783 a dh	-0.1385
-1.8723 a f	+0.0081
-1.9011 a g	+0.2685
-1.6404 a h	+0.3688
-2.0625 a i	+0.0529
-1.7392 a j	+0.3481
-1.2303 a k	+0.1435
-1.4867 a l	+0.5226
-1.2490 a m	+0.6350
-1.2678 a n	+0.2825
-3.5579 a o	-0.0980
-1.8562 a p	-0.0163
-1.6143 a q	+0.1002
-2.7392 a q_a	-0.1454
-1.3636 a r	+1.9911
-2.7045 a rf	-0.0752
-1.0383 a s	+1.6310
-1.3570 a t	-0.0325
-3.1195 a t_l	-0.1532
-2.4091 a u	-0.2371
-2.1166 a v	-0.0858
-1.6001 a w	+0.2479
-1.7959 a x	+0.1119
-1.4234 a y	-0.0341
-1.8362 a ya_q	+0.0788
-1.8407 a z	+0.0668
-2.6782 a_md &	-0.4044
-1.5897 a_md A	-0.0885
-2.5127 a_md D	-0.1051
-1.5833 a_md E	-0.0321
-2.9456 a_md F
-2.5127 a_md G
-2.2117 a_md H	-0.0657
-2.9456 a_md J
-1.8360 a_md P	+0.0407
-2.1854 a_md S	-0.0671
-1.7724 a_md T	+0.1679
-1.6377 a_md Y	+0.0106
-1.6234 a_md Z	-0.0347
-1.7168 a_md _S_	+0.0647
-1.5525 a_md _q_	+0.1185
-1.6754 a_md a	-0.0601
-2.4158 a_md a_q	-0.4848
-1.8973 a_md b	-0.1113
-1.8717 a_md d	-0.1131
-2.3366 a_md dh	-0.1218
-1.9686 a_md f	-0.1868
-1.4664 a_md g	+0.0473
-1.0447 a_md h	+0.0301
-1.5466 a_md i	+0.0366
-1.6096 a_md j	+0.0187
-1.9387 a_md k	-0.0263
-1.9686 a_md l	-0.0915
-1.2666 a_md m	+0.2087
-1.2887 a_md n	+0.1720
-3.1300 a_md o
-1.3864 a_md p	-0.1045
-1.9107 a_md q	-0.0379
-2.5127 a_md q_a	-0.0455
-1.2199 a_md r	+0.0722
-2.4158 a_md rf	-0.0692
-1.3905 a_md s	-0.0263
-1.9387 a_md t	-0.0519
-2.3019 a_md t_l	-0.1156
-1.7823 a_md u	-0.2354
-2.4616 a_md v	+0.0036
-0.9796 a_md w	+0.2016
-1.7346 a_md x	-0.0984
-1.2985 a_md y	-0.0028
-2.1371 a_md ya_q	-0.0910
-1.3154 a_md z	+0.1753
-1.9832 a_q A	+0.0292
-2.8419 a_q D	-0.0809
-1.8566 a_q E	+0.0507
-3.3259 a_q F
-2.0108 a_q G	-0.0943
-2.3982 a_q H	-0.1843
-2.6500 a_q J	-0.1026
-2.2521 a_q P	+0.1100
-2.9767 a_q S	-0.1090
-2.7170 a_q T	-0.1371
-1.9511 a_q Y	-0.1056
-3.1016 a_q Z
-1.0480 a_q _S_	+0.5684
-1.7627 a_q _q_	+0.1590
-1.9211 a_q a	+0.0132
-2.6201 a_q a_md	-0.0548
-1.9573 a_q b	+0.1677
-1.4344 a_q d	+0.2385
-1.7134 a_q dh	-0.1771
-2.4739 a_q f	-0.0479
-1.6992 a_q g	+0.0070
-1.5220 a_q h	+0.1201
-1.1095 a_q i	+0.0580
-1.3353 a_q j	+0.1094
-1.4739 a_q k	-0.1292
-1.4459 a_q l	-0.0292
-2.1834 a_q m	-0.2688
-1.1909 a_q n	+0.2447
-2.5174 a_q o	-0.0563
-1.2521 a_q p	+0.3796
-2.5920 a_q q	-0.0354
-2.7962 a_q q_a	-0.0291
-1.0290 a_q r	+0.4445
-2.3338 a_q rf	-0.0772
-1.5361 a_q s	+0.4245
-1.6594 a_q t	+0.1571
-2.3338 a_q t_l	-0.1886
-1.8719 a_q u	+0.1231
-2.3648 a_q v	+0.0876
-1.9511 a_q w	+0.0521
-2.3048 a_q x	-0.1522
-0.8581 a_q y	+0.4256
-1.8005 a_q ya_q	-0.1516
-1.5893 a_q z	+0.2813
-1.7584 b &	-0.1488
-1.3140 b A	-0.0682
-2.5240 b D	-0.1401
-1.5990 b E	+0.0616
-1.9497 b G	-0.0685
-2.7129 b H	-0.0815
-2.7518 b J	-0.1827
-2.5369 b P	-0.0245
-2.7880 b S	-0.0543
-2.2203 b T	+0.0227
-3.0358 b Y	-0.1011
-2.7880 b Z	-0.0041
-1.6432 b _S_	+0.1592
-2.5934 b _q_	-0.0850
-0.9815 b a	+0.4074
-2.2805 b a_md	-0.0696
-1.6964 b a_q	+0.0609
-2.0598 b d	-0.0216
-2.5586 b dh	-0.0337
-2.5934 b f	-0.0883
-1.6683 b g	+0.1584
-2.1083 b h	+0.0565
-0.6533 b i	+0.0039
-1.6683 b j	-0.1233
-1.7347 b k	+0.0153
-2.2805 b l	+0.0418
-1.9402 b m	-0.1813
-2.1541 b n	-0.0811
-2.2924 b o	-0.1938
-1.8337 b p	+0.0720
-1.9883 b q	-0.1115
-2.1044 b q_a	+0.0228
-1.7248 b r	-0.0785
-1.8664 b rf	-0.1691
-2.1541 b s	-0.0770
-1.9429 b t	+0.1175
-1.3630 b t_l	-0.1322
-0.9803 b u	+0.3124
-2.4595 b v	-0.1360
-1.0655 b w	+0.3419
-2.0853 b x	+0.0310
-1.3601 b y	+0.1803
-2.1005 b ya_q	+0.0605
-2.3236 b z	-0.1641
-2.3186 d &	-0.3473
-1.3934 d A	+0.4238
-2.5527 d D	-0.0116
-1.8681 d E	-0.1055
-1.9528 d G	-0.0689
-2.7114 d H	-0.2556
-2.6518 d J	-0.1557
-2.3855 d P	+0.0536
-2.8115 d S	-0.0775
-2.3978 d T	-0.1460
-2.7657 d Y	-0.2479
-3.2015 d Z	-0.1782
-1.6939 d _S_	+0.3005
-2.2094 d _q_	-0.4391
-1.2275 d a	-0.1048
-2.3291 d a_md	+0.0321
-1.5500 d a_q	-0.0873
-2.1357 d b	+0.0067
-2.3291 d dh	+0.0265
-2.5527 d f	-0.2817
-1.8004 d g	+0.2356
-2.2886 d h	-0.0824
-0.6044 d i	-0.1099
-1.7310 d j	-0.0878
-1.7446 d k	+0.0614
-2.2561 d l	+0.1574
-2.1936 d m	-0.1129
-2.1190 d n	-0.1338
-1.8004 d o	-0.0201
-1.3586 d p	+1.0651
-2.1822 d q	-0.0955
-1.8985 d q_a	+0.0061
-1.4878 d r	+0.3213
-2.0470 d rf	-0.0054
-2.2472 d s	-0.0143
-1.8774 d t	-0.0636
-1.4401 d t_l	-0.1258
-0.9320 d u	+0.1127
-2.2429 d v	+0.0461
-1.3609 d w	+0.7423
-2.1460 d x	-0.0489
-1.0186 d y	+1.9320
-2.4505 d ya_q	+0.1229
-2.4367 d z	-0.1114
-2.2281 dh &	-0.3873
-0.9789 dh A	+0.3495
-2.7888 dh D
-1.3138 dh E	-0.0087
-2.3530 dh G	-0.2079
-2.8707 dh H
-2.6541 dh P	-0.0561
-2.7052 dh S
-2.4622 dh T	-0.1379
-1.9271 dh Y	-0.1767
-3.1381 dh Z
-1.6840 dh _S_	+0.0625
-1.9851 dh _q_	-0.1162
-1.0413 dh a	+0.3058
-1.9851 dh a_md	-0.2248
-1.4845 dh a_q	+0.1242
-2.1312 dh b	-0.0990
-2.2104 dh d	+0.0130
-2.7888 dh f	-0.1282
-1.9955 dh g	-0.1198
-1.9551 dh h	-0.1949
-0.6288 dh i	+0.1245
-2.0898 dh j	+0.0420
-2.2281 dh k	-0.1015
-2.5291 dh l	+0.0131
-2.2104 dh m	+0.0065
-1.9649 dh n	+0.0153
-1.7333 dh o	+0.1322
-1.4910 dh p	-0.1247
-2.2466 dh q	-0.0611
-1.7632 dh q_a	-0.1624
-1.3961 dh r	+0.0304
-2.3530 dh rf	-0.2611
-1.7888 dh s	-0.3050
-2.1170 dh t	-0.0564
-1.5184 dh t_l	-0.0931
-1.1917 dh u	-0.0222
-2.4944 dh v	-0.1757
-1.7333 dh w	+0.1099
-2.3296 dh x	-0.1327
-1.2281 dh y	+0.3831
-1.7758 dh ya_q	-0.0770
-2.6083 dh z	-0.0885
-2.2742 f &	-0.0613
-1.9884 f A	-0.1107
-2.2180 f D	-0.2360
-1.9442 f E	+0.0547
-1.8792 f G	+0.0161
-2.1133 f H	-0.1616
-1.8021 f J	-0.1744
-2.1684 f P	-0.1006
-2.0931 f S	-0.1452
-1.6952 f T	+0.0823
-2.7823 f Y	-0.1829
-2.5904 f Z	-0.1717
-1.3729 f _S_	+0.1204
-2.0833 f _q_	-0.1959
-1.5663 f a	-0.0452
-2.1568 f a_md	+0.0081
-1.9040 f a_q	+0.0444
-1.5843 f b	+0.0614
-2.1133 f d	-0.3707
-2.4143 f dh	-0.1366
-1.5998 f g	-0.0159
-2.0290 f h	-0.1314
-0.8265 f i	+0.3163
-1.8389 f j	+0.0977
-1.3883 f k	-0.1119
-2.1345 f l	-0.0123
-1.4377 f m	-0.0343
-1.8281 f n	-0.0531
-3.0420 f o	-0.1867
-2.1238 f p	-0.1861
-1.3618 f q	+0.0909
-1.7112 f q_a	-0.0001
-1.6991 f r	+0.0377
-2.1238 f rf	-0.0712
-1.5087 f s	+0.1819
-1.4789 f t	-0.0203
-1.7681 f t_l	+0.0943
-0.9628 f u	+0.2794
-1.2128 f v	-0.0721
-1.2102 f w	+0.4517
-1.7031 f x	-0.0135
-1.6912 f y	-0.2285
-2.7366 f ya_q	-0.0774
-2.3563 f z	-0.0595
-2.5701 g &	-0.0305
-1.3180 g A	+0.1533
-2.7191 g D	-0.0700
-1.5174 g E	+0.0030
-3.3669 g F
-1.9823 g G	-0.1442
-2.2833 g H	-0.0748
-3.1072 g J	-0.1902
-2.2621 g P	-0.2029
-2.3802 g S	-0.1886
-2.0792 g T	+0.0982
-1.9001 g Y	+0.3984
-2.2164 g Z	+0.0455
-1.1498 g _S_	+0.5034
-2.0615 g _q_	-0.0915
-1.2158 g a	+0.0791
-2.2290 g a_md	-0.0895
-1.9442 g a_q	+0.1263
-1.8883 g b	-0.0601
-1.6723 g d	-0.2740
-2.4083 g dh	-0.1924
-2.4083 g f	-0.0359
-1.6036 g h	+0.6298
-0.7250 g i	+0.0557
-1.4806 g j	+0.1550
-1.7171 g k	+0.1029
-1.7455 g l	-0.1906
-1.8601 g m	+0.0880
-1.6097 g n	+0.0083
-2.3455 g o	-0.0747
-1.5946 g p	+0.3041
-2.3625 g q	-0.0578
-2.4382 g q_a	-0.0028
-1.4321 g r	+0.6034
-2.2226 g rf	-0.2331
-1.3447 g s	-0.0014
-1.7372 g t	-0.0202
-2.1639 g t_l	-0.0886
-1.5961 g u	+0.5011
-2.3291 g v	-0.0624
-1.3531 g w	+0.4348
-2.0201 g x	+0.1670
-1.1225 g y	+0.2566
-1.7737 g ya_q	-0.0975
-1.8388 g z	+0.2175
-2.2922 h &	-0.2313
-1.5920 h A	+0.1254
-2.2156 h D	-0.0503
-1.5877 h E	+0.0897
-1.8767 h G	-0.0115
-2.1504 h H	-0.0642
-2.5289 h J	+0.0953
-1.6816 h P	+0.2802
-2.0952 h S	-0.1438
-1.7184 h T	+0.0939
-2.0218 h Y	+0.1263
-2.1500 h Z	-0.1028
-1.2912 h _S_	+0.5896
-1.8932 h _q_	+0.1433
-1.6517 h a	+0.2039
-2.1068 h a_md	-0.0557
-1.8457 h a_q	+0.0176
-1.5121 h b	+0.2136
-1.5033 h d	+0.3556
-2.2600 h dh	+0.0119
-1.8457 h f	+0.0742
-1.6336 h g	+0.0952
-1.2493 h i	+0.0274
-1.6416 h j	+0.3083
-1.3707 h k	+0.4861
-2.0839 h l	+0.2610
-1.5106 h m	+0.4032
-1.4975 h n	+0.1734
-2.7208 h o	-0.1538
-1.6376 h p	+0.0453
-1.5627 h q	+0.2177
-2.0570 h q_a	-0.1043
-1.6950 h r	+0.2538
-1.9893 h rf	+0.0136
-1.3985 h s	+0.2558
-1.5528 h t	+0.1010
-1.7829 h t_l	+0.2767
-1.2349 h u	+0.5315
-1.8268 h v	+0.0889
-1.0048 h w	+0.2889
-1.6356 h x	+0.1810
-1.3355 h y	+0.5823
-2.1565 h ya_q	+0.0102
-1.7885 h z	+0.2632
-3.6427 i &	-0.0143
-2.7753 i A	+0.2189
-2.7340 i D	-0.0253
-2.8766 i E	-0.0054
-3.7028 i F	-0.2192
-1.7381 i G	+0.7732
-2.5035 i H	+0.1399
-2.5347 i J	+0.0120
-1.9014 i P	-0.1422
-2.7245 i S	+0.0145
-2.1549 i T	+0.1198
-3.0255 i Y	-0.1179
-2.5892 i Z	+0.1077
-1.0650 i _S_	+0.6851
-2.6446 i _q_	+0.0526
-2.5892 i a	+0.2027
-3.1617 i a_md	-0.2111
-2.4743 i a_q	-0.0148
-1.7299 i b	+0.6746
-1.2779 i d	+0.6232
-1.8309 i dh	+0.2369
-2.2702 i f	-0.0620
-2.3613 i g	-0.0626
-1.9633 i h	+0.2201
-1.2964 i j	+0.3837
-1.1725 i k	-0.2397
-1.6163 i l	+0.8046
-1.7868 i m	+0.3515
-1.3245 i n	+0.3621
-3.0603 i o	+0.0226
-1.4473 i p	-0.0148
-2.1172 i q	+0.3456
-3.1182 i q_a	+0.0078
-1.8121 i r	+0.3381
-2.1482 i rf	-0.1667
-1.4154 i s	+1.5585
-1.5456 i t	+0.3518
-1.9456 i t_l	+0.1280
-2.0893 i u	-0.0434
-2.2761 i v	+0.3833
-2.1816 i w	+0.1403
-2.0951 i x	+0.1373
-0.4744 i y	+0.5503
-2.2152 i ya_q	+0.2139
-1.6670 i z	+0.5835
-2.1997 j &	-0.5100
-1.9038 j A	+0.3123
-2.5381 j D	-0.0267
-1.9988 j E	-0.0110
-3.6589 j F	-0.3826
-1.7260 j G	+0.2060
-2.4302 j H	-0.1101
-2.6667 j J	+0.1096
-2.1560 j P	+0.1594
-2.5494 j S	-0.0405
-2.4389 j T	+0.0699
-3.1291 j Y	-0.0687
-2.7489 j Z	+0.0534
-1.4310 j _S_	+0.0824
-2.4302 j _q_	-0.2092
-1.7847 j a	+0.4828
-2.3368 j a_md	-0.0716
-1.7947 j a_q	+0.0829
-1.7489 j b	-0.0994
-1.7075 j d	+0.0327
-2.1080 j dh	-0.1311
-2.3888 j f	-0.0125
-2.0219 j g	+0.0846
-1.9064 j h	+0.2875
-0.9849 j i	+0.0801
-1.7158 j k	+0.0525
-2.1607 j l	+0.2667
-1.8596 j m	+0.2893
-1.6946 j n	+0.2933
-2.2315 j o	-0.0993
-1.1649 j p	+0.1666
-2.1038 j q	+0.1432
-1.9678 j q_a	-0.1969
-1.7347 j r	+0.1622
-2.0799 j rf	+0.0869
-1.8987 j s	+0.1809
-1.9531 j t	+0.1181
-1.4626 j t_l	+0.1590
-1.0565 j u	-0.1328
-1.9560 j v	+0.2065
-1.3389 j w	+0.3812
-1.9924 j x	+0.1123
-0.5688 j y	+0.7612
-2.3368 j ya_q	-0.1124
-2.1335 j z	-0.0376
-2.6470 k &	-0.1110
-1.9027 k A	+0.1164
-2.4424 k D	+0.0961
-1.9586 k E	+0.0022
-2.1305 k G	+0.1917
-2.2929 k H	+0.2210
-2.5513 k J	-0.0145
-2.1162 k P	+0.3026
-2.5580 k S	-0.0842
-2.2275 k T	-0.0742
-2.8079 k Y	-0.1286
-2.6007 k Z	-0.0371
-1.2367 k _S_	+0.8410
-2.3642 k _q_	+0.1398
-1.5453 k a	+0.4041
-2.3957 k a_md	+0.0536
-1.8714 k a_q	+0.0146
-1.8176 k b	+0.1566
-2.1089 k d	+0.1619
-2.3348 k dh	+0.3837
-2.0420 k f	+0.2961
-1.3551 k g	+0.0876
-1.9593 k h	-0.1621
-0.7290 k i	-0.0412
-1.7925 k j	+0.1267
-1.7217 k l	+0.1269
-1.6334 k m	+0.1406
-1.5867 k n	+0.3196
-2.4247 k o	-0.0362
-1.4520 k p	+0.2150
-2.0062 k q	+0.1907
-2.0482 k q_a	+0.0669
-1.4163 k r	+0.3654
-2.1162 k rf	+0.0732
-1.7589 k s	+0.1189
-1.8813 k t	+0.0402
-1.6391 k t_l	+0.1987
-1.1020 k u	+0.2291
-1.7337 k v	+0.2819
-1.1297 k w	+0.0288
-1.9233 k x	+0.0413
-0.9452 k y	-0.1485
-2.3910 k ya_q	-0.1106
-2.4247 k z	-0.1089
-2.4139 l &	+0.0122
-1.3295 l A	-0.1140
-2.4830 l D	-0.0225
-1.5616 l E	+0.0318
-1.8772 l G	-0.0421
-2.2733 l H	-0.0525
-2.7693 l J	-0.1389
-2.0762 l P	-0.2369
-2.4403 l S	-0.0999
-2.4139 l T	+0.0333
-2.9040 l Y	-0.0782
-2.6444 l Z	-0.0741
-1.5338 l _S_	+0.1356
-2.5837 l _q_	-0.1952
-1.3337 l a	+0.1056
-2.6901 l a_md	-0.1076
-1.5598 l a_q	+0.2970
-1.8281 l b	+0.0360
-1.6274 l d	+0.0294
-2.4683 l dh	+0.0408
-2.5475 l f	-0.1624
-2.2552 l g	-0.0823
-2.1193 l h	-0.1174
-0.7599 l i	+0.0614
-1.8024 l j	+0.1460
-1.6901 l k	+0.0195
-1.9160 l m	-0.1389
-1.8485 l n	+0.1141
-2.0160 l o	-0.0720
-1.3808 l p	+0.1715
-2.3020 l q	+0.1039
-1.8348 l q_a	-0.2160
-1.8923 l r	+0.1957
-2.1820 l rf	-0.1175
-1.8151 l s	+0.2793
-1.9723 l t	-0.0589
-1.0180 l t_l	+0.1385
-1.1219 l u	+0.6055
-2.3891 l v	-0.0486
-1.5093 l w	+0.2181
-2.1193 l x	-0.0646
-0.8787 l y	+0.4599
-2.1259 l ya_q	+0.1485
-2.1673 l z	-0.0286
-1.5197 m &	-0.0254
-1.0456 m A	+1.0420
-2.3567 m D	+0.0883
-1.3358 m E	+0.4774
-2.0204 m G	-0.2345
-2.2938 m H	-0.0580
-2.9879 m J	-0.0907
-2.0788 m P	-0.0082
-2.2938 m S	+0.0843
-2.1226 m T	-0.1789
-2.1033 m Y	+0.0891
-2.5356 m Z	-0.0993
-1.4383 m _S_	+0.6922
-2.0848 m _q_	+0.1433
-0.9633 m a	-0.0353
-2.1394 m a_md	+0.0730
-1.9736 m a_q	+0.3191
-1.9421 m b	-0.1899
-1.8648 m d	+0.0573
-2.6304 m dh	-0.0139
-2.4723 m f	-0.0833
-1.6881 m g	+0.1593
-1.6422 m h	+0.3490
-0.9651 m i	+0.6302
-1.8666 m j	+0.2407
-1.6622 m k	+0.2966
-2.3681 m l	+0.1210
-1.8349 m n	+0.2530
-2.6199 m o	-0.0269
-1.8086 m p	+0.1522
-1.9783 m q	+0.1269
-2.2564 m q_a	+0.0420
-1.8871 m r	+0.2782
-2.1978 m rf	+0.0969
-1.8383 m s	+0.4665
-2.0283 m t	-0.0396
-1.4282 m t_l	+0.0348
-1.0593 m u	+0.4309
-2.5028 m v	-0.1735
-0.9945 m w	+0.1865
-1.9230 m x	+0.2692
-1.4203 m y	+0.1151
-1.8968 m ya_q	-0.0669
-2.3137 m z	-0.0171
-3.1368 n &	-0.2405
-1.2110 n A	+0.1777
-2.3477 n D	-0.1009
-1.7067 n E	+0.4871
-3.6665 n F
-1.7456 n G	+0.0867
-2.2731 n H	+0.1410
-2.5695 n J	-0.2068
-1.7105 n P	-0.1197
-2.3816 n S	-0.0467
-2.1078 n T	-0.0576
-2.8528 n Y	-0.2611
-2.6487 n Z	+0.1079
-1.3359 n _S_	+0.5756
-2.3875 n _q_	+0.1232
-1.4319 n a	+0.5232
-2.1863 n a_md	+0.0551
-1.8146 n a_q	+0.1498
-1.8688 n b	+0.1379
-1.4712 n d	+0.0581
-2.3014 n dh	+0.0212
-2.1402 n f	-0.1005
-1.9476 n g	+0.0216
-1.6814 n h	+0.4989
-0.8267 n i	+0.1063
-1.5152 n j	+0.4343
-1.3359 n k	+0.2795
-2.2296 n l	+0.2715
-1.8616 n m	+0.0351
-2.0577 n o	+0.2876
-1.5501 n p	+0.2096
-1.8616 n q	-0.0892
-2.1752 n q_a	+0.2475
-2.1016 n r	-0.0646
-1.9025 n rf	+0.1669
-1.7232 n s	+0.3022
-1.4964 n t	+0.3234
-1.0330 n t_l	+0.3738
-1.3723 n u	+0.4975
-2.0661 n v	+0.0125
-1.6885 n w	+0.4011
-1.8724 n x	+0.5221
-1.0687 n y	+0.9875
-2.2508 n ya_q	+0.0278
-2.0440 n z	+0.2313
-2.4841 o A	-0.2925
-2.3036 o D
-2.0995 o E	-0.1091
-3.0178 o F
-2.0732 o G	-0.0435
-2.2622 o H	-0.0551
-3.0178 o J
-1.6804 o P	-0.0273
-2.7193 o S
-1.7126 o T	-0.1267
-1.5794 o Y	-0.1695
-2.4005 o Z	-0.0496
-1.3036 o _S_	+0.1331
-1.4228 o _q_	-0.0763
-2.2244 o a	-0.3136
-2.1897 o a_q	-0.1731
-1.5043 o b	+0.1222
-0.8236 o d	+0.2783
-2.0249 o dh	-0.0881
-2.1575 o f	-0.0709
-1.6702 o g	-0.0282
-1.4648 o h	-0.1473
-1.8723 o i	+0.0079
-1.8723 o j	+0.0616
-1.6804 o k	-0.0659
-1.6224 o l	+0.1220
-1.5961 o m	-0.0583
-0.9773 o n	+0.1590
-1.6315 o p	-0.2744
-2.3494 o q
-2.4005 o q_a	-0.0318
-1.1453 o r	+0.0686
-2.4841 o rf
-1.2467 o s	+0.0596
-1.1133 o t	+0.2864
-2.7193 o t_l
-1.9612 o u	-0.1543
-2.2244 o v	+0.0648
-1.9419 o w	-0.1766
-2.0995 o x	-0.0658
-1.8265 o y	-0.0852
-1.7473 o ya_q	-0.2239
-1.5633 o z	-0.0100
-3.0282 p &
-2.8411 p A	-0.1165
-2.3033 p D	+0.0216
-2.3226 p E	+0.0671
-3.4045 p F	-0.1459
-1.8521 p G	+0.0308
-2.3640 p H	+0.0274
-2.1251 p J	-0.2512
-1.8158 p P	+0.2473
-2.1598 p S	+0.0699
-1.4555 p T	+0.2454
-2.0086 p Y	-0.0704
-1.8454 p Z	-0.1014
-1.2818 p _S_	+1.2911
-2.0522 p _q_	-0.1983
-2.4431 p a	-0.1311
-2.5086 p a_md	-0.0964
-1.9574 p a_q	+0.0371
-1.3713 p b	+0.4867
-1.4784 p d	+0.1190
-2.1553 p dh	-0.0581
-1.6723 p f	+0.1654
-1.5681 p g	+0.0386
-1.7442 p h	+0.0799
-1.4765 p i	+0.1295
-1.7407 p j	+0.3097
-1.1845 p k	+0.3533
-2.0054 p l	+0.3602
-1.1234 p m	+0.1629
-1.5798 p n	+0.2672
-2.9960 p o	-0.0882
-1.2776 p q	+0.3126
-2.0315 p q_a	+0.1823
-1.6276 p r	+0.3642
-2.0929 p rf	+0.1574
-1.2854 p s	+0.9821
-1.1783 p t	+0.5935
-1.9603 p t_l	-0.0477
-1.5046 p u	+0.2312
-1.5390 p v	+0.1114
-1.0597 p w	+0.4063
-1.6329 p x	-0.1030
-1.8282 p y	+0.3424
-2.4793 p ya_q	-0.1753
-1.9490 p z	+0.2017
-2.2016 q &	+0.2054
-1.4584 q A	+0.0402
-2.3752 q D	+0.0442
-1.4711 q E	+0.0033
-2.3101 q G	+0.0862
-2.2772 q H	+0.0683
-2.9167 q J	-0.0260
-2.2635 q P	+0.0527
-2.5411 q S	-0.0234
-2.0874 q T	-0.0633
-2.3147 q Y	+0.0264
-2.5894 q Z	+0.0644
-1.3334 q _S_	+0.4239
-2.2458 q _q_	+0.0848
-0.9336 q a	+0.3899
-1.9277 q a_md	+0.4229
-1.7059 q a_q	-0.0043
-1.8091 q b	+0.0107
-2.1915 q d	-0.0238
-2.7987 q dh	-0.0347
-1.9938 q f	+0.1780
-1.3086 q g	-0.0688
-1.9686 q h	+0.0642
-0.9008 q i	+0.3843
-1.9970 q j	-0.1017
-1.7765 q k	-0.0747
-2.0527 q l	-0.1252
-1.8155 q m	+0.0340
-2.0381 q n	-0.0167
-2.7407 q o	-0.5302
-2.0171 q p	+0.2563
-1.8331 q q_a	-0.0379
-1.3537 q r	+0.3755
-2.0795 q rf	+0.1631
-1.7212 q s	+0.2616
-1.8853 q t	-0.0340
-1.6540 q t_l	-0.1229
-1.0289 q u	+0.2026
-1.9167 q v	-0.0478
-0.9122 q w	-0.1568
-1.8220 q x	+0.2991
-1.7093 q y	+0.1394
-2.2344 q ya_q	+0.2004
-2.5894 q z	-0.0547
-2.4165 q_a &	-0.0249
-1.3026 q_a A	+0.4655
-2.9772 q_a D
-1.3158 q_a E	+0.1052
-2.4165 q_a G	-0.1183
-1.9729 q_a H	+0.0201
-2.9342 q_a J	-0.0271
-2.3708 q_a P	-0.0848
-2.5579 q_a S	-0.0666
-2.0698 q_a T	+0.0976
-1.2437 q_a Y	+0.1329
-2.6304 q_a Z	-0.0148
-1.4871 q_a _S_	+0.1003
-1.3475 q_a _q_	+0.0333
-0.7853 q_a a	-0.1798
-2.2568 q_a a_md	-0.1041
-2.4414 q_a a_q	-0.1915
-1.9084 q_a b	-0.0049
-1.9816 q_a d	-0.1429
-2.9772 q_a dh	-0.0956
-2.3496 q_a f	-0.0564
-1.8656 q_a g	+0.1824
-1.7128 q_a h	+0.0194
-1.4263 q_a i	+0.1577
-2.2405 q_a j	-0.0833
-1.7968 q_a k	-0.1095
-2.0808 q_a l	+0.0701
-1.7273 q_a m	-0.0444
-1.6506 q_a n	-0.0295
-3.3860 q_a o
-1.7797 q_a p	+0.1085
-1.9394 q_a q	-0.0392
-1.1875 q_a r	+0.5863
-2.6304 q_a rf	-0.0598
-1.9010 q_a s	-0.0699
-1.8457 q_a t	-0.1391
-2.4677 q_a t_l	-0.1177
-1.6344 q_a u	-0.0356
-2.2405 q_a v	+0.0103
-0.8629 q_a w	+0.0949
-1.7910 q_a x	+0.1126
-1.8026 q_a y	-0.1171
-1.2262 q_a ya_q	-0.2237
-2.6304 q_a z	-0.1809
-2.4467 r &	-0.0009
-1.3405 r A	+0.4797
-2.3904 r D	-0.1136
-1.5091 r E	+0.3891
-3.5650 r F
-1.7782 r G	+0.0478
-2.1013 r H	+0.0077
-2.5272 r J	+0.0379
-1.9094 r P	+0.1511
-2.1733 r S	+0.1064
-1.6353 r T	-0.0897
-2.2553 r Y	+0.0632
-1.9395 r Z	-0.1678
-1.2104 r _S_	+0.3234
-2.0835 r _q_	-0.0507
-1.4084 r a	+0.1462
-2.3151 r a_md	+0.0397
-1.9948 r a_q	+0.3255
-1.5931 r b	+0.1020
-1.4434 r d	+0.1659
-2.3458 r dh	+0.1310
-2.0343 r f	-0.0009
-1.9272 r g	+0.1045
-1.7231 r h	+0.2059
-0.9603 r i	-0.0683
-1.6891 r j	+0.0213
-1.3517 r k	+0.0227
-2.0610 r l	+0.2740
-1.7009 r m	+0.0485
-1.7711 r n	+0.2685
-2.4145 r o	-0.0744
-1.6833 r p	+0.1556
-1.5866 r q	+0.2411
-2.0395 r q_a	-0.0469
-2.3511 r rf	-0.0832
-1.3297 r s	+0.3615
-1.4902 r t	+0.5123
-1.7155 r t_l	-0.0412
-1.3302 r u	+0.3637
-2.0501 r v	+0.2452
-1.2653 r w	+0.3095
-1.7009 r x	+0.2937
-1.1776 r y	+0.9888
-2.1293 r ya_q	+0.1074
-1.9036 r z	+0.1616
-2.3691 rf &	-0.0445
-1.7422 rf A	-0.1716
-2.3443 rf D	-0.0775
-1.7075 rf E	+0.1006
-3.3137 rf F
-1.8214 rf G	+0.1531
-2.2193 rf H	-0.0640
-2.3208 rf J	-0.0467
-1.9275 rf P	-0.0969
-2.3443 rf S	-0.0991
-1.8214 rf T	-0.0320
-2.3954 rf Y	-0.0522
-2.4534 rf Z	+0.0414
-1.2193 rf _S_	+0.2176
-2.0681 rf _q_	-0.1003
-1.5910 rf a	+0.2629
-2.2193 rf a_md	-0.4288
-2.2571 rf a_q	-0.0715
-1.6083 rf b	+0.0552
-1.4757 rf d	-0.0151
-2.3954 rf dh	+0.0095
-1.9275 rf f	-0.0641
-1.7545 rf g	-0.0330
-1.7187 rf h	-0.0049
-1.2964 rf i	+0.1066
-1.4692 rf j	-0.0750
-1.2691 rf k	+0.1547
-1.8920 rf l	+0.1938
-1.4382 rf m	+0.0919
-1.4206 rf n	+0.2343
-2.4856 rf o	-0.0923
-1.5621 rf p	-0.0804
-1.7245 rf q	-0.1325
-2.0810 rf q_a	-0.0549
-1.3927 rf r	+0.2165
-1.6405 rf s	-0.0320
-1.4177 rf t	+0.0829
-1.5621 rf t_l	-0.1079
-1.3666 rf u	+0.0572
-1.6805 rf v	-0.2341
-1.3007 rf w	-0.0148
-1.7545 rf x	-0.1948
-0.9522 rf y	+0.2781
-2.2193 rf ya_q	-0.1806
-2.0085 rf z	-0.1387
-2.3907 s &	-0.0675
-1.7543 s A	+0.2884
-2.3684 s D	-0.0346
-1.9882 s E	+0.3736
-3.9856 s F
-2.0235 s G	+0.2166
-2.4390 s H	-0.0544
-2.2847 s J	-0.1396
-1.9232 s P	+0.1844
-2.2802 s S	-0.1748
-1.6260 s T	+0.2589
-2.7033 s Y	-0.2068
-2.6380 s Z	+0.0443
-1.4633 s _S_	+0.3149
-2.4390 s _q_	-0.0872
-1.4467 s a	+0.2218
-2.1253 s a_md	+0.2194
-1.6986 s a_q	-0.0863
-1.5423 s b	+0.0345
-1.8182 s d	-0.1164
-2.0462 s dh	-0.0414
-1.9411 s f	+0.3019
-1.6619 s g	+0.2205
-1.9814 s h	-0.0359
-0.7260 s i	+0.0618
-1.9116 s j	+0.1166
-1.5073 s k	+0.3708
-1.9576 s l	+0.1097
-1.3115 s m	+0.3886
-1.6555 s n	+0.1323
-2.3850 s o	-0.0913
-1.8548 s p	+0.0081
-1.5431 s q	+0.3515
-1.7021 s q_a	+0.1613
-1.5375 s r	+0.1695
-2.0162 s rf	+0.1452
-1.4897 s t	+0.1322
-1.6716 s t_l	+0.2097
-0.9400 s u	+1.6706
-1.4221 s v	+0.1806
-1.6097 s w	+0.3844
-1.7349 s x	+0.2785
-1.6078 s y	+0.3522
-2.4861 s ya_q	+0.0223
-2.1746 s z	+0.0429
-2.5443 t &	-0.2348
-1.4584 t A	+0.0827
-2.5564 t D	-0.0307
-1.7949 t E	+0.0686
-2.4331 t G	+0.0685
-2.4182 t H	-0.0857
-2.7769 t J	-0.1250
-1.9851 t P	+0.1554
-2.6867 t S	-0.0464
-2.4066 t T	+0.0953
-2.3857 t Y	-0.1614
-2.8909 t Z	-0.0822
-1.3088 t _S_	+0.8595
-2.1388 t _q_	+0.0380
-1.1795 t a	+0.0592
-2.1312 t a_md	+0.2277
-1.6760 t a_q	+0.0537
-1.8359 t b	-0.0133
-2.0101 t d	+0.2651
-2.0847 t dh	+0.1507
-2.0016 t f	+0.0336
-1.6760 t g	+0.2214
-1.9539 t h	+0.2557
-0.6521 t i	-0.0026
-1.8010 t j	+0.0463
-1.7295 t k	+0.2600
-1.8676 t l	+0.2604
-1.7162 t m	+0.0618
-1.6708 t n	+0.4017
-1.8887 t o	-0.1041
-1.4895 t p	+0.5356
-2.2676 t q	-0.1934
-1.9342 t q_a	-0.1006
-1.2377 t r	+0.5199
-2.3168 t rf	-0.0068
-1.7557 t s	+0.3065
-1.9415 t t_l	-0.0639
-0.9640 t u	-0.0145
-2.0680 t v	-0.1126
-1.5217 t w	+0.0959
-2.0584 t x	-0.0392
-1.2713 t y	+0.1993
-2.4515 t ya_q	-0.0528
-2.1666 t z	-0.0061
-2.1870 t_l &	-0.1677
-0.9556 t_l A	+0.1200
-2.6307 t_l D	-0.1721
-1.1547 t_l E	+0.5031
-2.3217 t_l G	+0.0148
-2.2987 t_l H	-0.1488
-3.4778 t_l J
-2.2232 t_l P	-0.2948
-3.0621 t_l S	-0.0871
-2.4089 t_l T	-0.0735
-1.3891 t_l Y	+0.0534
-2.6819 t_l Z	-0.0713
-1.7973 t_l _S_	+0.1192
-1.3225 t_l _q_
-0.9950 t_l a	+0.1147
-2.0936 t_l a_md	-0.0496
-2.2232 t_l a_q	+0.0309
-2.1483 t_l b	-0.2364
-2.0207 t_l d	-0.0540
-2.5306 t_l dh	-0.0417
-2.7833 t_l f	-0.0835
-1.9448 t_l g	-0.1661
-1.5281 t_l h	+0.4856
-1.1311 t_l i	+0.4507
-2.3217 t_l j	-0.1269
-2.2912 t_l k	-0.1308
-2.0535 t_l l	-0.1039
-1.6712 t_l m	+0.0119
-1.4128 t_l n	+0.6278
-2.3461 t_l o	-0.0983
-1.4167 t_l p	+0.6140
-2.7197 t_l q	-0.0799
-2.0493 t_l q_a	-0.3068
-1.3411 t_l r	+0.4328
-2.4286 t_l rf	-0.0758
-2.0247 t_l s	+0.1379
-2.0287 t_l t	-0.2298
-1.5143 t_l u	+0.3095
-3.3675 t_l v	-0.2039
-0.9991 t_l w	+0.3818
-2.3900 t_l x	+0.0112
-1.1342 t_l y	+0.7536
-1.6729 t_l ya_q	-0.0856
-2.9160 t_l z	-0.0988
-2.0852 u &	+0.3549
-2.4542 u A	+0.2336
-2.1798 u D	-0.2036
-2.4023 u E	+0.7540
-4.0559 u F
-1.7040 u G	+0.5471
-2.2589 u H	+0.0104
-3.1837 u J	-0.0235
-1.6351 u P	+0.0467
-2.2251 u S	+0.0712
-1.4313 u T	+0.4473
-2.0759 u Y	-0.0304
-1.4919 u Z	+0.3973
-1.2054 u _S_	+1.5690
-2.0504 u _q_	-0.0480
-2.1334 u a	+0.2742
-2.6123 u a_md	-0.0932
-2.7779 u a_q	+0.1541
-1.3888 u b	-0.1650
-1.6557 u d	+0.5339
-2.5438 u dh	+0.0434
-1.9351 u f	+0.0834
-1.5772 u g	+0.7287
-1.6610 u h	+0.6047
-1.6860 u i	+0.1817
-1.8458 u j	+0.4824
-1.5530 u k	+0.2789
-1.8710 u l	+0.1851
-1.2348 u m	+0.5390
-1.7330 u n	+0.7356
-3.2708 u o	-0.2127
-1.8691 u p	+0.6062
-1.3389 u q	+0.5869
-2.8271 u q_a	-0.1423
-1.5530 u r	+0.6089
-2.2708 u rf	+0.1475
-1.3055 u s	+1.6315
-1.9463 u t	+0.2624
-1.9972 u t_l	+0.2178
-2.6511 u v	+0.0594
-0.6079 u w	-1.3179
-1.5802 u x	+0.2651
-1.6385 u y	+0.2960
-2.5218 u ya_q	+0.2060
-1.7787 u z	+0.0961
-2.9705 v &
-1.5509 v A	+0.2300
-2.4360 v D	-0.2432
-1.9845 v E	+0.1097
-1.9910 v G	-0.0062
-2.7890 v H	-0.0564
-3.0065 v J	-0.0962
-1.9651 v P	-0.1152
-3.0065 v S
-2.6791 v T	-0.0499
-2.6085 v Y	-0.1703
-2.9096 v Z	-0.0484
-1.6129 v _S_	+0.1202
-2.3910 v _q_	-0.1816
-1.2791 v a	+0.1901
-1.8761 v a_md	-0.2150
-1.8126 v a_q	+0.0572
-1.9700 v b	-0.1911
-2.1772 v d	+0.0023
-2.3781 v dh	-0.1830
-2.5478 v f	-0.2781
-1.8304 v g	+0.0280
-1.9853 v h	+0.1525
-0.4527 v i	+0.2428
-1.7249 v j	-0.0896
-1.8340 v k	-0.1497
-1.7335 v l	-0.2902
-1.5064 v m	-0.0488
-1.4880 v n	+0.0247
-2.1936 v o	-0.1713
-1.8126 v p	+0.1679
-2.7335 v q	-0.0736
-2.2563 v q_a	+0.1216
-1.3130 v r	+0.3126
-2.3298 v rf	-0.1075
-1.9905 v s	-0.1111
-2.1853 v t	-0.1736
-1.8642 v t_l	-0.3286
-1.2771 v u	+0.6152
-1.7364 v w	+0.3269
-2.4182 v x	-0.0443
-1.0038 v y	+0.4762
-2.5671 v ya_q	-0.0534
-2.1387 v z	-0.1340
-2.4917 w &	+0.1346
-1.9905 w A	+0.2173
-2.0276 w D	+0.2693
-2.1547 w E	+0.3675
-3.6174 w F	-0.2136
-1.5917 w G	+0.9097
-2.1652 w H	+0.4061
-2.7380 w J	+0.0269
-1.6531 w P	-0.0530
-1.9948 w S	+0.4984
-1.3679 w T	+0.4521
-2.1913 w Y	+0.2022
-1.6173 w Z	+0.2676
-1.0701 w _S_	+0.4799
-2.0690 w _q_	+0.0464
-1.7318 w a	+0.3227
-2.7987 w a_md	-0.1451
-2.3240 w a_q	+0.4705
-1.3240 w b	+0.3494
-1.3774 w d	+0.2508
-2.4307 w dh	+0.0734
-1.8023 w f	+0.7570
-1.6403 w g	+0.7378
-1.7207 w h	+0.2977
-1.2218 w i	-0.1184
-1.4478 w j	+1.0694
-1.2400 w k	+0.3145
-1.6536 w l	+0.3059
-1.4775 w m	+0.3798
-1.5644 w n	+0.6303
-3.4629 w o
-2.0570 w p	-0.0630
-1.1784 w q	+0.0963
-2.4125 w q_a	-0.1267
-1.5905 w r	+1.7036
-2.1859 w rf	+0.1148
-1.2864 w s	+1.5132
-1.5557 w t	+0.5127
-2.1985 w t_l	+0.1340
-1.6716 w u	+0.3983
-2.0531 w v	+0.0357
-1.4125 w x	+0.4152
-1.4934 w y	+1.9250
-2.0597 w ya_q	+0.3455
-1.8149 w z	+0.4393
-2.4508 x &	-0.1706
-1.6296 x A	+0.1587
-2.2947 x D	-0.0873
-1.6271 x E	+0.2238
-2.0076 x G	-0.1565
-2.2293 x H	-0.2301
-2.2682 x J	-0.0952
-2.2511 x P	+0.1368
-2.0033 x S	-0.2718
-1.6347 x T	-0.0911
-2.4356 x Y	-0.0962
-2.2268 x Z	+0.0712
-1.3207 x _S_	+0.4031
-2.1542 x _q_	+0.0226
-1.4513 x a	+0.2718
-2.0177 x a_md	-0.1157
-1.8400 x a_q	-0.0027
-1.5488 x b	+0.0866
-1.8843 x d	-0.2612
-2.5200 x dh	-0.0170
-1.8241 x f	+0.1437
-1.5138 x g	-0.1221
-1.8118 x h	+0.0061
-1.1365 x i	+0.3921
-1.9377 x j	-0.1095
-1.3347 x k	+0.0918
-2.0863 x l	+0.0560
-1.3716 x m	-0.0637
-1.6533 x n	+0.0577
-2.7367 x o	-0.0893
-2.1283 x p	+0.0985
-1.4318 x q	+0.2725
-1.8272 x q_a	+0.1896
-1.6287 x r	+0.0398
-2.0979 x rf	+0.0624
-1.4871 x s	+0.2773
-1.6208 x t	+0.0693
-1.9179 x t_l	+0.0278
-0.9894 x u	+0.5372
-1.3817 x v	+0.3547
-0.9230 x w	-0.3575
-1.8210 x y	+0.2394
-2.3044 x ya_q	-0.1264
-2.3439 x z	+0.0209
-3.0727 y &	-0.2321
-1.8133 y A	+0.1932
-2.4076 y D	+0.2892
-1.9344 y E	+0.4220
-3.9802 y F
-1.7201 y G	+0.0844
-2.2928 y H	+0.2053
-2.3383 y J	+0.0210
-1.6787 y P	+0.0361
-2.3567 y S	+0.4161
-1.9513 y T	+0.3848
-2.0673 y Y	+0.4887
-2.2768 y Z	-0.0878
-1.0947 y _S_	+0.7862
-1.9039 y _q_	+1.9849
-1.8115 y a	+0.1476
-2.7610 y a_md	-0.0375
-2.3188 y a_q	+0.1533
-1.5355 y b	+0.4430
-1.1752 y d	+0.3700
-1.7860 y dh	+0.1155
-1.9266 y f	+0.7928
-1.7833 y g	+0.4617
-1.6849 y h	+0.8118
-1.5849 y i	-0.2499
-1.4451 y j	+0.0964
-1.2148 y k	-0.3086
-1.7490 y l	+0.3733
-1.3662 y m	+1.9798
-1.2312 y n	+0.1125
-2.5381 y o	-0.0263
-1.5649 y p	+0.4516
-1.6989 y q	+0.0404
-2.2355 y q_a	+0.4137
-1.3686 y r	+0.6512
-2.1891 y rf	+0.1816
-1.3117 y s	+0.9522
-1.3259 y t	+0.1349
-1.8410 y t_l	+0.1435
-1.5262 y u	+1.0806
-1.9855 y v	+0.1011
-1.1517 y w	-0.6766
-1.7479 y x	+0.3164
-2.4418 y ya_q	+0.3319
-1.6446 y z	+0.9480
-2.9731 ya_q &	-0.1622
-2.5216 ya_q A	-0.2695
-2.7135 ya_q D	-0.1634
-2.1363 ya_q E	-0.0746
-1.5743 ya_q G	-0.0987
-2.3890 ya_q H	-0.0909
-2.2698 ya_q J	+0.1022
-1.9956 ya_q P	+0.0851
-2.5886 ya_q S	-0.0058
-2.1626 ya_q T	+0.1127
-2.2528 ya_q Y	-0.0859
-2.5216 ya_q Z	+0.0059
-1.1212 ya_q _S_	+0.2507
-1.9775 ya_q _q_	-0.0472
-1.8969 ya_q a	-0.0761
-2.4373 ya_q a_md	-0.1306
-2.2053 ya_q a_q	-0.0474
-1.6993 ya_q b	-0.0992
-1.2053 ya_q d	+0.0958
-1.8969 ya_q dh	-0.1251
-2.4373 ya_q f	-0.1373
-2.1114 ya_q g	-0.0286
-1.8684 ya_q h	-0.0480
-1.3645 ya_q i	+0.1885
-1.1274 ya_q j	+0.0982
-1.1312 ya_q k	-0.0023
-1.4609 ya_q l	+0.1082
-1.7435 ya_q m	-0.0065
-1.2875 ya_q n	+0.0583
-3.3819 ya_q o	-1.3923
-1.6677 ya_q p	+0.1149
-1.9775 ya_q q	-0.0722
-2.0343 ya_q q_a	-0.0453
-1.4322 ya_q r	+0.0480
-2.3890 ya_q rf	-0.1321
-1.7756 ya_q s	-0.0850
-1.6263 ya_q t	-0.1376
-1.9517 ya_q t_l	-0.2139
-1.7435 ya_q u	+0.0804
-2.1906 ya_q v	-0.0414
-1.5505 ya_q w	+0.1518
-2.0657 ya_q x	-0.0803
-0.7353 ya_q y	+0.4744
-1.7435 ya_q z	-0.1154
-2.6841 z &	-0.2755
-2.0821 z A	-0.0179
-2.3531 z D	-0.0422
-2.3389 z E	-0.1589
-3.3600 z F
-1.6399 z G	-0.1129
-2.8760 z H	-0.0755
-2.8760 z J	-0.1603
-1.9112 z P	-0.0132
-2.3831 z S	-0.0260
-2.1313 z T	-0.3951
-3.2460 z Y
-2.3831 z Z	+0.0783
-1.5358 z _S_	+0.1832
-2.9272 z _q_
-1.8618 z a	+0.0070
-2.0241 z a_md	+0.0345
-1.5774 z a_q	-0.1109
-1.3118 z b	-0.0647
-1.1761 z d	-0.0727
-2.0379 z dh	-0.0995
-2.3531 z f	-0.0246
-1.7475 z g	-0.0060
-1.9008 z h	+0.0762
-0.8179 z i	+0.1939
-1.7231 z j	+0.0177
-1.7404 z k	+0.1753
-2.0449 z l	+0.2248
-1.6659 z m	+0.1129
-1.5608 z n	+0.1749
-2.2282 z o	-0.0747
-1.5122 z p	+0.1826
-1.9382 z q	-0.0905
-2.0174 z q_a	-0.0343
-1.6399 z r	+0.1506
-2.0174 z rf	-0.1042
-1.7889 z s	-0.0092
-1.7928 z t	-0.0663
-1.3769 z t_l	-0.0628
-1.0207 z u	+0.5169
-1.7547 z v	+0.0719
-1.3546 z w	+0.4027
-1.9165 z x	-0.0697
-0.9914 z y	+0.3005
-2.4685 z ya_q	-0.2224

\3-grams:
-2.0466 & A E
-1.7232 & A T
-2.0812 & A Y
-1.8582 & A Z
-1.2533 & A _S_
-1.8548 & A _q_
-1.8548 & A b
-0.9707 & A d
-1.8548 & A dh
-2.0812 & A g
-1.8582 & A h
-1.8582 & A i
-2.0466 & A j
-1.8548 & A k
-1.3782 & A l
-1.2185 & A m
-0.9175 & A n
-2.0812 & A p
-2.0812 & A q
-1.1283 & A r
-1.3324 & A s
-1.1563 & A t
-1.2185 & A w
-2.0466 & A x
-1.7232 & A y
-1.7232 & A z
-1.6121 & E H
-1.8006 & E J
-1.8006 & E S
-1.8006 & E T
-1.6121 & E Y
-1.8351 & E _S_
-1.6087 & E _q_
-1.6121 & E a
-1.3239 & E d
-1.8351 & E i
-1.6121 & E j
-1.4771 & E k
-1.0864 & E l
-1.8351 & E m
-0.9724 & E n
-1.8351 & E p
-1.0072 & E r
-1.8006 & E s
-1.8006 & E t
-1.0072 & E w
-1.4771 & E y
-1.6121 & E ya_q
-1.2401 & G _S_
-1.2056 & G d
-1.0137 & G i
-1.2401 & G j
-1.2401 & G u
-1.2401 & G w
-1.2401 & G y
-0.5593 & H _S_
-0.7142 & P _S_
-0.7142 & P j
-0.4132 & S b
-1.3163 & T a
-1.3508 & T a_q
-1.3508 & T g
-0.5229 & T i
-1.3163 & T s
-0.6990 & T u
-1.8041 & Y E
-1.6157 & Y G
-1.8041 & Y J
-1.8041 & Y S
-1.6157 & Y T
-1.8387 & Y Z
-1.1357 & Y _S_
-1.3274 & Y _q_
-1.8041 & Y a
-1.8041 & Y a_q
-1.8387 & Y b
-1.8387 & Y d
-1.1868 & Y g
-1.4806 & Y i
-1.4806 & Y k
-1.6122 & Y l
-1.1357 & Y m
-1.6157 & Y n
-1.6122 & Y q
-1.8041 & Y r
-1.8387 & Y s
-1.4806 & Y t
-1.8041 & Y u
-1.8041 & Y v
-1.3274 & Y w
-1.6157 & Y x
-1.8387 & Y z
-1.1959 & Z A
-1.1959 & Z a
-0.9695 & Z i
-1.1613 & Z j
-0.9729 & Z u
-1.1959 & Z w
-1.6118 & _S_ Z
-1.6464 & _S_ a
-1.6118 & _S_ b
-1.6464 & _S_ d
-1.6118 & _S_ g
-0.7215 & _S_ i
-1.6464 & _S_ k
-1.4234 & _S_ p
-1.6118 & _S_ r
-1.6118 & _S_ s
-1.6464 & _S_ t_l
-0.8562 & _S_ u
-1.6464 & _S_ v
-1.6464 & _S_ w
-0.8562 & _S_ y
-1.6118 & _S_ z
-1.7270 & _q_ A
-1.7270 & _q_ E
-1.7270 & _q_ J
-1.5352 & _q_ T
-1.4036 & _q_ _S_
-1.7616 & _q_ b
-1.7270 & _q_ f
-1.7270 & _q_ h
-1.4036 & _q_ i
-1.7616 & _q_ j
-1.5386 & _q_ k
-1.7270 & _q_ m
-1.7270 & _q_ n
-1.2503 & _q_ q
-1.5352 & _q_ q_a
-1.1097 & _q_ r
-1.5352 & _q_ s
-1.5386 & _q_ t
-1.7270 & _q_ t_l
-1.7270 & _q_ u
-1.2503 & _q_ v
-1.5352 & _q_ w
-1.7616 & _q_ x
-1.7270 & _q_ y
-1.7270 & _q_ ya_q
-2.0259 & a G
-1.8375 & a P
-1.4087 & a T
-2.0259 & a Y
-1.8341 & a Z
-1.0107 & a _S_
-2.0605 & a _q_
-1.3118 & a b
-1.0107 & a d
-1.8375 & a f
-2.0605 & a g
-2.0259 & a h
-2.0605 & a j
-1.5493 & a k
-1.0565 & a l
-1.5493 & a m
-1.1357 & a n
-1.7025 & a q
-0.9895 & a r
-1.3575 & a s
-1.1978 & a t
-1.7025 & a x
-1.8341 & a y
-1.8375 & a z
-0.9183 & a_md A
-0.9183 & a_md Y
-0.9183 & a_md g
-0.9529 & a_md w
-0.8281 & a_q i
-0.8281 & a_q p
-0.8281 & a_q y
-1.3051 & b A
-0.9470 & b _S_
-0.6021 & b i
-1.3051 & b j
-1.2705 & b t
-1.2705 & b t_l
-1.3051 & b u
-1.2705 & b w
-1.6572 & d A
-1.6572 & d E
-1.6227 & d G
-1.6572 & d a
-0.4171 & d i
-1.4308 & d j
-1.2992 & d p
-1.6227 & d q_a
-1.6227 & d r
-1.6227 & d t_l
-1.2992 & d u
-1.6227 & d w
-1.4308 & d y
-0.7556 & f u
-0.7901 & f w
-1.4477 & g A
-1.4132 & g _S_
-1.0897 & g a
-1.4132 & g b
-1.4132 & g d
-0.6198 & g i
-1.4132 & g j
-1.4132 & g p
-1.4477 & g s
-1.4132 & g w
-1.2247 & g y
-1.4969 & h A
-1.4624 & h S
-1.4624 & h Z
-1.4624 & h _S_
-1.4624 & h f
-1.4624 & h j
-1.1389 & h k
-1.2740 & h m
-1.2740 & h q
-1.1389 & h u
-1.4624 & h w
-1.4624 & h x
-1.4969 & h z
-1.8726 & i G
-1.8380 & i P
-1.3613 & i _S_
-1.0825 & i d
-1.8380 & i h
-0.7621 & i j
-1.2208 & i k
-1.8726 & i m
-1.1696 & i n
-1.8726 & i p
-1.8380 & i r
-1.8380 & i t
-1.8380 & i t_l
-1.8380 & i w
-0.5218 & i y
-1.8726 & i z
-1.3477 & j &
-1.3477 & j _S_
-1.1558 & j p
-1.3477 & j r
-1.3822 & j t_l
-1.1592 & j u
-1.3477 & j w
-0.6335 & j y
-1.3170 & k _S_
-0.5682 & k i
-1.0940 & k w
-0.5682 & k y
-1.3163 & l A
-0.3979 & l i
-0.6990 & l u
-1.1244 & l y
-1.0535 & m &
-1.0535 & m A
-1.3769 & m E
-1.3769 & m G
-1.3769 & m _S_
-1.0535 & m a
-1.4115 & m g
-1.1885 & m u
-0.7597 & m w
-1.3769 & m ya_q
-0.8909 & n A
-0.9420 & n a_q
-1.5938 & n d
-1.5593 & n f
-0.8037 & n i
-1.5938 & n j
-1.5593 & n k
-1.5938 & n o
-1.5593 & n p
-1.3674 & n t_l
-1.3709 & n u
-0.8909 & n y
-1.1292 & p b
-1.1637 & p i
-1.1637 & p k
-1.1292 & p s
-1.1637 & p t
-1.1637 & p v
-1.2802 & q A
-0.9222 & q _S_
-1.0538 & q i
-1.2457 & q k
-1.2457 & q u
-1.2457 & q v
-1.2802 & q w
-1.0573 & q y
-0.9446 & q_a a
-0.9446 & q_a i
-0.9446 & q_a p
-0.6212 & q_a w
-0.9446 & q_a ya_q
-1.6561 & r A
-1.6561 & r E
-1.8445 & r Y
-1.6561 & r _S_
-1.8791 & r _q_
-1.6527 & r a
-1.8445 & r a_md
-1.6561 & r b
-1.8791 & r d
-1.8445 & r f
-1.8791 & r h
-0.6990 & r i
-1.6561 & r j
-1.5211 & r k
-1.8445 & r n
-1.8791 & r p
-1.8791 & r q
-1.8791 & r s
-1.8791 & r t_l
-1.1761 & r u
-1.8445 & r v
-1.1761 & r w
-1.6561 & r x
-0.9542 & r y
-0.3163 & rf j
-1.8018 & s T
-1.1500 & s _S_
-1.1500 & s a
-1.1500 & s b
-1.8018 & s d
-1.4438 & s g
-0.6381 & s i
-1.8018 & s k
-1.8018 & s l
-1.8018 & s m
-1.8018 & s n
-1.5789 & s q
-1.7673 & s q_a
-1.8018 & s r
-1.0531 & s u
-1.7673 & s v
-1.7673 & s w
-1.5789 & s y
-1.7673 & s z
-1.3831 & t A
-1.3831 & t _S_
-1.2481 & t a
-1.5715 & t a_q
-0.4771 & t i
-1.5715 & t j
-1.6061 & t n
-1.6061 & t o
-1.3797 & t r
-1.5715 & t u
-0.9031 & t y
-1.0498 & t_l A
-0.6918 & t_l a
-1.0152 & t_l h
-1.0498 & t_l u
-1.0152 & t_l w
-1.0944 & u G
-1.0944 & u Z
-1.0944 & u _S_
-1.1290 & u k
-1.0944 & u n
-0.9060 & u w
-0.4132 & v i
-2.1781 & w &
-2.2126 & w A
-2.1781 & w D
-2.1781 & w E
-1.4225 & w G
-2.2126 & w H
-1.5608 & w P
-1.5097 & w T
-2.1781 & w Y
-1.4225 & w Z
-1.1851 & w _S_
-2.2126 & w _q_
-1.9862 & w a
-2.2126 & w a_q
-1.1215 & w b
-1.4225 & w d
-1.8546 & w f
-1.9897 & w g
-1.9897 & w h
-1.2598 & w i
-1.7014 & w j
-1.2878 & w k
-2.2126 & w l
-1.2878 & w m
-1.9897 & w n
-2.1781 & w p
-1.1215 & w q
-2.2126 & w q_a
-1.7014 & w r
-1.2334 & w s
-1.5608 & w t
-2.2126 & w t_l
-1.4225 & w u
-1.9897 & w v
-1.5608 & w x
-1.5608 & w y
-1.9897 & w z
-1.2056 & x a
-1.2056 & x g
-1.0171 & x i
-1.2401 & x r
-1.2056 & x t
-1.2401 & x u
-1.6832 & y G
-0.9803 & y _S_
-0.9345 & y d
-1.6487 & y i
-1.6832 & y j
-1.0314 & y k
-1.6832 & y l
-1.4603 & y m
-1.4603 & y n
-1.6487 & y p
-1.6487 & y q
-1.6832 & y r
-1.3252 & y s
-1.3252 & y t
-1.1720 & y w
-1.6832 & y z
-1.8113 & ya_q G
-1.0303 & ya_q _S_
-1.0551 & ya_q d
-1.8079 & ya_q dh
-1.9997 & ya_q g
-1.2442 & ya_q i
-1.1095 & ya_q j
-1.1394 & ya_q k
-1.8113 & ya_q l
-1.8113 & ya_q m
-0.9845 & ya_q n
-1.8113 & ya_q p
-1.8079 & ya_q r
-1.9997 & ya_q rf
-1.5231 & ya_q s
-1.6763 & ya_q t
-2.0343 & ya_q w
-0.6835 & ya_q y
-1.8113 & ya_q z
-1.1766 & z G
-1.1766 & z d
-1.1766 & z g
-0.6999 & z i
-1.1766 & z t_l
-1.1766 & z y
-1.3576 A D P
-1.3922 A D _S_
-1.3576 A D a_q
-1.3576 A D i
-1.3922 A D k
-1.3576 A D s
-0.6892 A D u
-1.1692 A D w
-1.3922 A D y
-1.6981 A E Y
-1.6981 A E Z
-1.6981 A E _S_
-1.3401 A E _q_
-1.6636 A E a
-1.1869 A E d
-1.6636 A E dh
-1.4752 A E h
-1.4752 A E k
-1.4752 A E l
-1.4752 A E m
-1.0463 A E n
-1.4752 A E p
-1.6981 A E q
-1.3401 A E r
-1.6981 A E s
-1.4717 A E w
-1.6981 A E x
-1.6636 A E y
-1.6636 A E ya_q
-0.5938 A F i
-1.8018 A G A
-1.5754 A G _S_
-1.8018 A G a
-1.7673 A G a_q
-1.2906 A G b
-1.7673 A G g
-1.1500 A G i
-1.7673 A G j
-1.5789 A G k
-1.5789 A G l
-1.5754 A G n
-1.8018 A G p
-1.8018 A G r
-1.4438 A G t_l
-0.9391 A G u
-0.6914 A G w
-1.1500 A G y
-1.7673 A G z
-1.9183 A H D
-1.9183 A H E
-1.9183 A H G
-1.9529 A H J
-1.9529 A H P
-1.9183 A H S
-1.9529 A H T
-1.2499 A H _S_
-1.9183 A H _q_
-1.7299 A H a
-1.7299 A H b
-1.7299 A H d
-1.9529 A H f
-1.7299 A H g
-1.9183 A H h
-1.1249 A H i
-1.7299 A H j
-1.2499 A H k
-1.7299 A H m
-1.5948 A H n
-1.9529 A H p
-1.4416 A H q
-1.9529 A H q_a
-1.2041 A H r
-1.7299 A H rf
-1.5948 A H s
-1.7265 A H t
-1.5948 A H t_l
-1.2041 A H u
-1.5948 A H v
-1.9529 A H w
-1.7299 A H x
-1.9529 A H y
-1.9529 A H z
-1.2673 A J b
-0.5185 A J i
-1.2673 A J n
-1.0409 A J y
-1.6740 A P G
-1.1072 A P T
-1.9975 A P Z
-1.0792 A P _S_
-2.0321 A P a_q
-1.8056 A P b
-1.8091 A P d
-1.9975 A P dh
-1.8056 A P f
-1.8091 A P g
-1.1694 A P i
-0.9611 A P k
-1.2833 A P q
-1.6740 A P q_a
-1.9975 A P r
-1.2833 A P s
-1.0045 A P t
-1.6740 A P t_l
-1.2833 A P u
-1.1694 A P v
-2.0321 A P w
-1.6740 A P x
-2.0321 A P y
-1.3674 A S &
-1.3674 A S b
-1.3674 A S g
-1.0439 A S i
-1.4020 A S m
-1.3674 A S r
-1.4020 A S s
-0.7501 A S u
-1.3674 A S v
-1.1790 A S w
-1.4020 A S x
-2.1528 A T &
-1.5512 A T A
-2.3792 A T D
-2.1528 A T E
-2.3792 A T G
-2.3446 A T H
-2.3446 A T J
-2.3792 A T P
-2.3446 A T S
-1.6304 A T _S_
-1.1680 A T a
-2.3792 A T a_md
-2.1528 A T a_q
-1.8679 A T b
-2.3792 A T d
-2.3792 A T f
-1.2155 A T g
-2.3446 A T h
-0.9144 A T i
-2.3446 A T j
-2.1562 A T k
-1.7273 A T l
-1.6304 A T m
-2.3446 A T n
-2.3446 A T p
-2.1528 A T q
-2.3792 A T q_a
-1.2880 A T r
-1.6762 A T s
-2.3792 A T t
-2.1562 A T t_l
-0.6959 A T u
-2.1528 A T v
-0.8670 A T w
-1.7273 A T x
-2.1528 A T y
-2.3446 A T ya_q
-2.3446 A T z
-2.2917 A Y &
-2.1033 A Y D
-2.3262 A Y E
-1.8150 A Y G
-2.2917 A Y J
-1.9682 A Y P
-1.9682 A Y S
-1.2553 A Y T
-2.1033 A Y Z
-1.3470 A Y _S_
-2.0998 A Y _q_
-2.2917 A Y a
-1.6232 A Y a_q
-1.2351 A Y b
-1.4014 A Y d
-2.1033 A Y dh
-1.4983 A Y f
-2.0998 A Y g
-2.3262 A Y h
-1.3470 A Y i
-1.5361 A Y j
-1.3734 A Y k
-2.2917 A Y l
-1.5361 A Y m
-1.6744 A Y n
-2.3262 A Y p
-1.1973 A Y q
-1.8150 A Y q_a
-2.1033 A Y r
-2.2917 A Y rf
-1.1796 A Y s
-1.0861 A Y t
-1.9682 A Y t_l
-1.3734 A Y u
-1.4983 A Y v
-1.4314 A Y w
-1.9682 A Y x
-1.5775 A Y y
-2.1033 A Y z
-1.5502 A Z &
-1.3198 A Z A
-2.0726 A Z E
-2.2990 A Z G
-2.2644 A Z P
-2.2644 A Z S
-2.0726 A Z T
-2.2990 A Z Y
-2.0726 A Z _S_
-2.2990 A Z _q_
-1.1353 A Z a
-2.2990 A Z a_md
-2.0726 A Z a_q
-2.2990 A Z b
-2.2644 A Z d
-2.2644 A Z f
-1.2492 A Z g
-1.7877 A Z h
-1.0878 A Z i
-2.2644 A Z j
-2.0760 A Z k
-1.9410 A Z m
-2.2644 A Z p
-2.2990 A Z q
-2.2990 A Z q_a
-1.9410 A Z r
-2.2990 A Z s
-2.2990 A Z t
-1.4363 A Z t_l
-0.7578 A Z u
-0.6869 A Z w
-2.0760 A Z x
-2.0726 A Z y
-2.0726 A Z ya_q
-2.5121 A _S_ &
-1.7188 A _S_ A
-2.1887 A _S_ E
-2.3203 A _S_ G
-2.5121 A _S_ H
-1.7566 A _S_ J
-1.7188 A _S_ P
-2.5121 A _S_ S
-1.7980 A _S_ T
-2.5121 A _S_ Y
-2.5467 A _S_ _q_
-1.4555 A _S_ a
-1.8949 A _S_ a_md
-1.7566 A _S_ a_q
-1.6518 A _S_ b
-2.3203 A _S_ d
-2.3237 A _S_ dh
-2.0355 A _S_ f
-1.5938 A _S_ g
-1.8437 A _S_ h
-0.7686 A _S_ i
-2.1887 A _S_ j
-1.4555 A _S_ k
-1.8437 A _S_ l
-1.5192 A _S_ m
-1.6840 A _S_ n
-2.1887 A _S_ o
-1.8437 A _S_ p
-1.7980 A _S_ q
-2.0355 A _S_ q_a
-1.3830 A _S_ r
-2.1887 A _S_ rf
-1.7566 A _S_ s
-1.4362 A _S_ t
-1.6518 A _S_ t_l
-0.8486 A _S_ u
-1.4757 A _S_ v
-1.4177 A _S_ w
-2.3203 A _S_ x
-1.3508 A _S_ y
-2.1887 A _S_ ya_q
-2.3237 A _S_ z
-2.4593 A _q_ A
-1.8420 A _q_ D
-1.7451 A _q_ E
-1.7451 A _q_ G
-1.9826 A _q_ H
-2.4593 A _q_ J
-1.7037 A _q_ S
-1.3137 A _q_ T
-2.4938 A _q_ Z
-1.2680 A _q_ _S_
-2.1358 A _q_ a
-2.2674 A _q_ a_q
-1.5410 A _q_ b
-1.4229 A _q_ d
-2.4593 A _q_ dh
-1.3833 A _q_ f
-1.5989 A _q_ g
-2.2674 A _q_ h
-1.3649 A _q_ i
-1.8420 A _q_ j
-1.1016 A _q_ k
-1.7908 A _q_ m
-1.9826 A _q_ n
-1.5690 A _q_ p
-1.3649 A _q_ q
-1.6659 A _q_ q_a
-1.7908 A _q_ r
-2.1358 A _q_ rf
-1.2537 A _q_ s
-1.0823 A _q_ t
-2.2674 A _q_ t_l
-1.2266 A _q_ u
-1.2680 A _q_ v
-1.5690 A _q_ w
-1.3471 A _q_ x
-2.4938 A _q_ y
-2.4593 A _q_ ya_q
-2.4938 A _q_ z
-1.0140 A a _S_
-1.3720 A a b
-1.3374 A a j
-1.0140 A a k
-1.3374 A a m
-1.3720 A a n
-1.3720 A a r
-1.1490 A a s
-1.3374 A a v
-1.3374 A a x
-1.3374 A a y
-1.0566 A a_md E
-1.0566 A a_md g
-0.7331 A a_md h
-1.0566 A a_md w
-1.2056 A a_q _S_
-1.2056 A a_q b
-1.2056 A a_q d
-1.2056 A a_q h
-1.0171 A a_q i
-1.0171 A a_q j
-0.8821 A a_q n
-1.0171 A a_q y
-2.3530 A b &
-1.3490 A b A
-1.8417 A b E
-1.6500 A b G
-2.3184 A b P
-2.1300 A b T
-1.4903 A b _S_
-1.0244 A b a
-2.3530 A b a_md
-1.5628 A b a_q
-1.8417 A b d
-2.1300 A b f
-1.6042 A b g
-0.6500 A b i
-1.8417 A b j
-2.1266 A b k
-2.3184 A b l
-2.1300 A b m
-2.1266 A b p
-2.3184 A b q_a
-1.5628 A b r
-2.1266 A b rf
-1.9950 A b s
-2.1300 A b t
-1.2063 A b t_l
-1.0360 A b u
-0.9708 A b w
-2.1300 A b x
-1.5250 A b y
-2.1300 A b ya_q
-2.4100 A d &
-1.2714 A d A
-2.5984 A d D
-1.9811 A d E
-1.8842 A d G
-2.5984 A d H
-2.6330 A d J
-2.6330 A d T
-1.6538 A d _S_
-2.4100 A d _q_
-1.2610 A d a
-2.4100 A d a_md
-1.4529 A d a_q
-1.9811 A d b
-2.4100 A d dh
-2.6330 A d f
-1.7381 A d g
-2.2750 A d h
-0.6055 A d i
-1.6055 A d j
-1.7703 A d k
-1.9811 A d l
-2.6330 A d m
-2.4066 A d n
-1.6801 A d o
-1.4863 A d p
-2.4100 A d q
-1.8428 A d q_a
-1.4218 A d r
-2.4066 A d rf
-1.8050 A d s
-2.4066 A d t
-1.4371 A d t_l
-0.8930 A d u
-2.4100 A d v
-1.4693 A d w
-2.2750 A d x
-1.1940 A d y
-2.6330 A d ya_q
-0.9274 A dh A
-1.7901 A dh E
-1.7556 A dh Y
-1.0414 A dh a
-1.4321 A dh a_q
-1.7556 A dh g
-1.7556 A dh h
-0.5643 A dh i
-1.7556 A dh n
-1.5637 A dh p
-1.7901 A dh q_a
-1.4321 A dh r
-1.7901 A dh s
-1.4321 A dh u
-1.0872 A dh y
-1.7901 A dh ya_q
-1.8845 A f &
-1.4078 A f _S_
-1.8845 A f a
-1.8845 A f a_q
-1.5610 A f b
-1.6926 A f g
-0.7553 A f i
-1.6960 A f j
-1.8845 A f k
-1.2160 A f m
-1.8845 A f n
-1.8845 A f q
-1.5610 A f r
-1.6960 A f s
-1.5610 A f t
-1.5610 A f t_l
-0.8692 A f u
-1.2672 A f v
-1.2160 A f w
-1.6960 A f x
-1.6960 A f y
-1.4523 A g A
-1.6284 A g E
-2.2802 A g H
-2.0573 A g P
-2.2802 A g S
-1.9222 A g T
-1.7690 A g Y
-2.2802 A g Z
-1.2304 A g _S_
-2.2802 A g _q_
-1.3274 A g a
-2.2457 A g a_md
-2.2802 A g a_q
-1.7690 A g b
-1.7690 A g d
-2.2457 A g dh
-2.2802 A g f
-1.3274 A g h
-0.7533 A g i
-1.4901 A g j
-2.0573 A g k
-2.2457 A g l
-1.6284 A g m
-1.5315 A g n
-2.2802 A g o
-2.0538 A g p
-2.2457 A g q_a
-1.4175 A g r
-2.2457 A g rf
-1.4175 A g s
-2.2802 A g t
-2.0573 A g t_l
-1.4175 A g u
-1.3854 A g w
-2.0573 A g x
-1.1891 A g y
-1.4901 A g ya_q
-1.6284 A g z
-1.5383 A h A
-2.1746 A h D
-1.6522 A h E
-1.8897 A h G
-1.3735 A h P
-2.4010 A h S
-1.4762 A h T
-2.4010 A h Y
-2.4010 A h Z
-1.4218 A h _S_
-1.8897 A h _q_
-1.8897 A h a
-2.4010 A h a_md
-2.3664 A h a_q
-1.2720 A h b
-1.1471 A h d
-2.0430 A h dh
-2.4010 A h f
-1.7492 A h g
-1.4218 A h i
-1.8897 A h j
-1.2373 A h k
-2.1780 A h l
-1.5061 A h m
-1.4481 A h n
-1.8897 A h p
-1.5383 A h q
-2.0430 A h q_a
-1.7492 A h r
-2.0430 A h rf
-1.3098 A h s
-1.3735 A h t
-2.0430 A h t_l
-1.4218 A h u
-1.8897 A h v
-1.1208 A h w
-1.6980 A h x
-1.4762 A h y
-2.4010 A h ya_q
-1.7492 A h z
-1.8572 A i G
-1.8572 A i J
-1.8918 A i P
-1.1016 A i _S_
-1.5337 A i b
-0.9669 A i d
-1.8918 A i dh
-1.8572 A i h
-1.1888 A i j
-1.0291 A i k
-1.6654 A i l
-1.8918 A i m
-1.6654 A i n
-1.8918 A i p
-1.8918 A i r
-1.8918 A i s
-1.6654 A i t
-1.8918 A i t_l
-0.6379 A i y
-1.8874 A j E
-1.9219 A j G
-1.1732 A j _S_
-1.8874 A j a_q
-1.6955 A j b
-1.4107 A j d
-1.8874 A j dh
-1.8874 A j h
-0.9179 A j i
-1.9219 A j k
-1.9219 A j l
-1.1318 A j p
-1.6990 A j r
-1.9219 A j s
-1.8874 A j t
-1.8874 A j t_l
-0.9427 A j u
-1.4107 A j w
-0.7260 A j y
-1.8874 A j z
-2.2160 A k A
-2.4044 A k E
-2.2125 A k G
-2.2160 A k H
-2.4044 A k P
-2.4389 A k T
-1.2752 A k _S_
-2.4389 A k _q_
-1.4597 A k a
-2.2160 A k a_md
-2.2160 A k a_q
-1.6488 A k b
-2.4044 A k d
-2.4044 A k dh
-2.0809 A k f
-1.4114 A k g
-2.0809 A k h
-0.6183 A k i
-1.7871 A k j
-1.6488 A k l
-1.6110 A k m
-1.5141 A k n
-1.5441 A k p
-1.9277 A k q
-1.4349 A k r
-2.2125 A k rf
-1.5763 A k s
-1.7871 A k t
-1.6488 A k t_l
-1.3285 A k u
-1.6902 A k v
-1.2588 A k w
-2.0809 A k x
-0.9578 A k y
-2.4389 A k ya_q
-2.2160 A k z
-2.4722 A l &
-1.3432 A l A
-1.5474 A l E
-1.7235 A l G
-2.4722 A l H
-2.2492 A l P
-2.4376 A l S
-2.4376 A l T
-2.4722 A l Z
-1.5773 A l _S_
-2.4722 A l _q_
-1.3617 A l a
-2.4376 A l a_md
-1.5474 A l a_q
-1.7235 A l b
-1.5193 A l d
-2.4376 A l g
-2.2492 A l h
-0.7597 A l i
-1.6443 A l j
-1.7692 A l k
-1.6443 A l m
-1.8204 A l n
-2.2492 A l o
-1.3617 A l p
-1.7235 A l q_a
-1.9610 A l r
-2.1142 A l rf
-2.2492 A l s
-1.8204 A l t
-0.9453 A l t_l
-1.1553 A l u
-1.4012 A l w
-1.0075 A l y
-2.2492 A l ya_q
-2.4376 A l z
-1.5948 A m &
-0.9847 A m A
-2.7749 A m D
-1.2779 A m E
-2.0719 A m G
-2.5519 A m H
-1.9847 A m P
-2.5485 A m S
-1.7039 A m T
-1.8500 A m Y
-2.2636 A m Z
-1.3634 A m _S_
-2.1230 A m _q_
-0.9398 A m a
-2.2636 A m a_md
-1.9122 A m a_q
-1.7039 A m b
-1.5490 A m d
-2.4169 A m dh
-2.5519 A m f
-1.6459 A m g
-1.5637 A m h
-1.1810 A m i
-2.0719 A m j
-1.5790 A m k
-2.7749 A m l
-1.8220 A m n
-1.7474 A m p
-1.7039 A m q
-1.9847 A m q_a
-1.9122 A m r
-2.7403 A m rf
-1.6112 A m s
-1.7474 A m t
-1.6282 A m t_l
-1.1628 A m u
-2.5519 A m v
-1.0530 A m w
-2.0261 A m x
-2.0261 A m y
-1.6837 A m ya_q
-2.1230 A m z
-1.1657 A n A
-2.1342 A n D
-1.7540 A n E
-1.9581 A n G
-2.6599 A n H
-2.2311 A n J
-1.5901 A n P
-2.8829 A n S
-1.7918 A n T
-2.8484 A n Y
-2.5249 A n Z
-1.4714 A n _S_
-2.5249 A n _q_
-1.3707 A n a
-2.0928 A n a_md
-1.8120 A n a_q
-1.6718 A n b
-1.1997 A n d
-2.1799 A n dh
-2.6599 A n f
-1.9880 A n g
-1.6718 A n h
-0.8862 A n i
-1.5431 A n j
-1.3348 A n k
-2.3717 A n l
-1.8554 A n m
-2.1799 A n o
-1.6718 A n p
-1.8120 A n q
-2.2311 A n q_a
-1.9037 A n r
-1.8789 A n rf
-1.5779 A n s
-1.2311 A n t
-1.1089 A n t_l
-1.4810 A n u
-1.7724 A n v
-1.7540 A n w
-1.9037 A n x
-1.3213 A n y
-2.0550 A n ya_q
-2.0202 A n z
-2.1912 A p D
-2.1567 A p E
-1.9648 A p G
-1.9648 A p J
-2.1912 A p P
-1.2664 A p T
-2.1912 A p Z
-1.1872 A p _S_
-2.1567 A p a_md
-1.9648 A p a_q
-1.3633 A p b
-1.2664 A p d
-2.1567 A p dh
-1.8332 A p f
-2.1567 A p h
-1.3285 A p i
-1.6800 A p j
-0.9953 A p k
-1.5394 A p m
-2.1912 A p n
-1.2384 A p q
-1.9683 A p q_a
-1.8332 A p rf
-1.1637 A p s
-1.1414 A p t
-1.9648 A p t_l
-1.3633 A p u
-1.4882 A p v
-1.6800 A p w
-2.1912 A p x
-1.9683 A p y
-2.1912 A p ya_q
-2.1567 A p z
-1.3254 A q A
-2.1535 A q D
-1.5362 A q E
-2.1535 A q G
-2.1535 A q T
-2.1535 A q Y
-1.3602 A q _S_
-0.8711 A q a
-2.1535 A q a_md
-1.9617 A q a_q
-2.1881 A q b
-2.1535 A q d
-1.2352 A q g
-1.8301 A q h
-0.8953 A q i
-2.1535 A q j
-1.9651 A q k
-2.1535 A q l
-2.1881 A q m
-2.1881 A q n
-1.9651 A q p
-1.9651 A q q_a
-1.3979 A q r
-2.1881 A q rf
-2.1881 A q s
-2.1881 A q t
-1.6768 A q t_l
-0.9922 A q u
-0.8711 A q w
-1.8301 A q x
-2.1535 A q y
-1.3374 A q_a A
-1.3374 A q_a Y
-1.0140 A q_a a
-1.3374 A q_a b
-1.3720 A q_a h
-1.3374 A q_a i
-1.3720 A q_a k
-1.3374 A q_a l
-1.3720 A q_a r
-0.8607 A q_a w
-1.3720 A q_a ya_q
-2.7736 A r &
-1.4934 A r A
-2.5472 A r D
-1.5064 A r E
-1.7944 A r G
-2.5472 A r H
-1.8208 A r P
-2.4156 A r S
-1.6825 A r T
-2.2624 A r Y
-1.9835 A r Z
-1.2690 A r _S_
-1.7944 A r _q_
-1.4567 A r a
-2.4156 A r a_md
-1.9835 A r a_q
-1.4567 A r b
-1.3173 A r d
-2.0707 A r dh
-2.7736 A r f
-2.0707 A r g
-1.6099 A r h
-0.9421 A r i
-1.7461 A r j
-1.2690 A r k
-2.5507 A r l
-1.7239 A r m
-1.7239 A r n
-2.5507 A r o
-1.6447 A r p
-1.8488 A r q
-1.9835 A r q_a
-2.4156 A r rf
-1.3621 A r s
-1.4808 A r t
-1.7239 A r t_l
-1.3621 A r u
-2.1218 A r v
-1.1988 A r w
-1.7696 A r x
-1.1441 A r y
-1.9457 A r ya_q
-2.1218 A r z
-0.9348 A rf _S_
-1.2583 A rf h
-1.2583 A rf k
-1.2583 A rf n
-1.2583 A rf p
-1.0698 A rf r
-1.2583 A rf t
-1.2583 A rf v
-1.2583 A rf w
-1.2583 A rf z
-2.4128 A s &
-1.8079 A s A
-2.1246 A s E
-2.4094 A s G
-2.6012 A s H
-2.6358 A s J
-1.7731 A s P
-2.4094 A s S
-1.6829 A s T
-2.6012 A s Z
-1.3556 A s _S_
-2.4128 A s _q_
-1.5068 A s a
-1.8871 A s a_md
-1.7731 A s a_q
-1.5253 A s b
-1.7731 A s d
-1.9840 A s dh
-1.9840 A s f
-1.7409 A s g
-2.4094 A s h
-0.7632 A s i
-1.8457 A s j
-1.5446 A s k
-1.7409 A s l
-1.3957 A s m
-1.7110 A s n
-2.6358 A s o
-1.9840 A s p
-1.5068 A s q
-1.5446 A s q_a
-1.5648 A s r
-2.4094 A s rf
-1.3819 A s t
-1.9840 A s t_l
-0.9048 A s u
-1.3189 A s v
-1.7409 A s w
-1.7110 A s x
-1.5648 A s y
-2.6012 A s ya_q
-2.1246 A s z
-2.4482 A t &
-1.5579 A t A
-2.4482 A t D
-1.9715 A t E
-2.4828 A t H
-2.4482 A t P
-2.4482 A t T
-2.4482 A t Y
-1.3190 A t _S_
-2.4482 A t _q_
-1.2288 A t a
-2.2598 A t a_md
-1.5879 A t a_q
-1.6201 A t b
-2.4482 A t d
-1.9715 A t dh
-1.7798 A t f
-1.5299 A t g
-1.9715 A t h
-0.6548 A t i
-1.6548 A t j
-2.2563 A t k
-2.2563 A t l
-1.5036 A t m
-2.2563 A t n
-2.2563 A t o
-1.6926 A t p
-2.2598 A t q
-2.1247 A t q_a
-1.2569 A t r
-2.4482 A t rf
-1.5036 A t s
-2.1247 A t t_l
-0.9079 A t u
-2.1247 A t v
-1.5036 A t w
-2.2598 A t x
-1.3916 A t y
-2.4828 A t ya_q
-1.7798 A t z
-0.8221 A t_l a
-0.9571 A t_l i
-1.1456 A t_l p
-1.1456 A t_l r
-1.1801 A t_l w
-0.9571 A t_l y
-1.7711 A u G
-1.7711 A u H
-1.7711 A u P
-1.7711 A u T
-1.0569 A u _S_
-1.7711 A u _q_
-1.8057 A u b
-1.7711 A u d
-1.7711 A u f
-1.5827 A u g
-1.5792 A u i
-1.4476 A u j
-1.4476 A u k
-1.4476 A u m
-1.5827 A u n
-1.7711 A u q
-1.4476 A u r
-1.0155 A u s
-0.7782 A u w
-1.1027 A u y
-1.7711 A u z
-1.6007 A v A
-1.6007 A v E
-1.6352 A v _S_
-1.4123 A v a
-1.6007 A v a_md
-1.6007 A v a_q
-0.4393 A v i
-1.4123 A v j
-1.6007 A v m
-1.6007 A v n
-0.9834 A v r
-1.6007 A v s
-1.6007 A v t_l
-1.6352 A v y
-2.3671 A w A
-1.8871 A w D
-2.5901 A w E
-1.6653 A w G
-1.6653 A w P
-1.7274 A w S
-1.3362 A w T
-2.3637 A w Y
-1.4434 A w Z
-0.8370 A w _S_
-2.5901 A w _q_
-2.2321 A w a
-2.5555 A w a_q
-1.4796 A w b
-1.4100 A w d
-2.5555 A w dh
-1.3642 A w f
-1.8414 A w g
-2.0789 A w h
-1.3790 A w i
-1.5626 A w j
-1.0932 A w k
-1.7622 A w l
-1.6653 A w m
-1.8871 A w n
-1.3099 A w q
-2.3671 A w q_a
-1.8414 A w r
-2.3671 A w rf
-1.0632 A w s
-1.6653 A w t
-2.2321 A w t_l
-1.7274 A w u
-2.3637 A w v
-1.4100 A w x
-1.5191 A w y
-1.8871 A w ya_q
-1.8000 A w z
-2.0647 A x A
-1.8383 A x E
-2.0647 A x G
-1.8417 A x H
-2.0647 A x J
-1.8417 A x T
-2.0302 A x Z
-1.1698 A x _S_
-1.5535 A x a
-1.5535 A x b
-2.0647 A x d
-2.0302 A x dh
-1.7067 A x f
-1.5535 A x g
-2.0302 A x h
-1.0855 A x i
-2.0647 A x j
-1.3617 A x k
-2.0302 A x l
-1.8417 A x m
-1.8383 A x n
-2.0302 A x p
-1.4129 A x q
-2.0647 A x q_a
-2.0647 A x r
-1.5535 A x s
-1.3617 A x t
-2.0302 A x t_l
-0.8846 A x u
-1.7067 A x v
-1.0855 A x w
-1.7067 A x y
-2.0526 A y D
-2.0526 A y E
-1.8642 A y G
-2.0872 A y H
-1.8608 A y P
-2.0526 A y S
-1.0832 A y _S_
-1.5760 A y b
-0.9960 A y d
-2.0872 A y dh
-1.8642 A y f
-2.0872 A y h
-1.7292 A y i
-1.2593 A y j
-1.0597 A y k
-2.0872 A y l
-1.2593 A y m
-1.3842 A y n
-1.7292 A y p
-1.4354 A y q
-1.8642 A y q_a
-1.2593 A y r
-2.0526 A y rf
-1.2971 A y s
-1.3385 A y t
-2.0526 A y t_l
-2.0872 A y u
-2.0872 A y v
-1.5760 A y w
-2.0872 A y x
-2.0526 A y ya_q
-1.4354 A y z
-2.1519 A ya_q E
-2.1519 A ya_q G
-2.1173 A ya_q J
-1.9289 A ya_q P
-1.0809 A ya_q _S_
-2.1173 A ya_q a
-2.1519 A ya_q b
-1.2270 A ya_q d
-2.1173 A ya_q dh
-1.4031 A ya_q i
-1.1021 A ya_q j
-0.9881 A ya_q k
-1.3617 A ya_q l
-1.2270 A ya_q n
-1.5000 A ya_q p
-2.1173 A ya_q q_a
-1.4489 A ya_q r
-2.1173 A ya_q rf
-1.7938 A ya_q t
-2.1519 A ya_q u
-2.1519 A ya_q w
-0.5643 A ya_q y
-1.9255 A ya_q z
-2.1913 A z A
-2.2259 A z D
-1.7146 A z G
-2.1913 A z S
-1.3632 A z _S_
-2.0029 A z a
-1.8678 A z a_md
-1.9995 A z a_q
-1.2467 A z b
-0.9208 A z d
-2.2259 A z dh
-2.1913 A z f
-1.7146 A z g
-2.1913 A z h
-0.8643 A z i
-1.5229 A z j
-1.7146 A z k
-2.0029 A z l
-1.5229 A z m
-1.5740 A z n
-1.5740 A z p
-2.0029 A z q
-2.2259 A z q_a
-1.4771 A z r
-2.2259 A z rf
-1.7146 A z s
-1.9995 A z t
-1.5740 A z t_l
-1.0621 A z u
-2.2259 A z v
-1.4771 A z w
-2.2259 A z x
-1.1984 A z y
-0.8627 D & a
-0.8281 D & w
-0.9060 D A Y
-1.0944 D A _q_
-1.0944 D A m
-1.0944 D A s
-1.0944 D A x
-1.0940 D E Y
-1.3170 D E _S_
-1.2824 D E _q_
-1.2824 D E n
-1.2824 D E r
-1.2824 D E s
-0.9589 D E w
-1.0940 D E y
-1.2824 D E ya_q
-1.2193 D G _S_
-1.2193 D G i
-1.2539 D G k
-1.0309 D G p
-1.2193 D G r
-1.0309 D G u
-1.2539 D G w
-1.2539 D G y
-1.1292 D H J
-1.1292 D H b
-1.1292 D H m
-1.1637 D H q
-1.1292 D H s
-1.1292 D H u
-1.1292 D H v
-1.1637 D H w
-1.1292 D H x
-0.5593 D J i
-0.9695 D P b
-1.0040 D P k
-0.9695 D P r
-0.7556 D S x
-1.1467 D T _S_
-1.1121 D T a
-1.1467 D T i
-1.1467 D T u
-0.7887 D T w
-0.7901 D Y k
-0.7556 D Y p
-0.7556 D Y x
-1.8413 D _S_ A
-1.6529 D _S_ P
-1.8413 D _S_ _q_
-1.8413 D _S_ a
-1.8759 D _S_ b
-1.5178 D _S_ f
-1.8413 D _S_ g
-0.9230 D _S_ i
-1.8413 D _S_ j
-1.5178 D _S_ k
-1.8759 D _S_ m
-1.2240 D _S_ n
-1.8413 D _S_ o
-1.6529 D _S_ p
-1.6529 D _S_ q
-1.6529 D _S_ q_a
-1.6529 D _S_ r
-1.8759 D _S_ t
-1.8759 D _S_ t_l
-0.8049 D _S_ u
-1.8759 D _S_ v
-1.1729 D _S_ w
-1.6529 D _S_ x
-1.1271 D _S_ y
-1.0759 D _q_ b
-1.1105 D _q_ k
-1.0759 D _q_ q
-1.0759 D _q_ q_a
-1.0759 D _q_ t
-1.0759 D _q_ x
-1.3270 D a T
-1.3270 D a Y
-1.3270 D a _S_
-1.1386 D a _q_
-1.3270 D a b
-1.1386 D a k
-1.3615 D a l
-1.3615 D a m
-1.3270 D a r
-1.0035 D a s
-1.3270 D a w
-0.9695 D a_md r
-0.9695 D a_md s
-1.0040 D a_md w
-0.9695 D a_md y
-1.0940 D a_q _S_
-1.3170 D a_q d
-0.6651 D a_q i
-1.0940 D a_q j
-1.2824 D a_q l
-1.3170 D a_q r
-1.3170 D a_q y
-1.4132 D b &
-1.4477 D b A
-1.2247 D b a
-1.4477 D b a_q
-0.4949 D b i
-1.4132 D b rf
-1.4477 D b u
-1.2247 D b w
-1.4132 D b x
-1.4132 D b y
-1.3051 D d _S_
-1.0821 D d a
-0.5149 D d i
-1.2705 D d t_l
-1.0821 D d u
-1.3051 D d y
-0.8603 D dh a_md
-0.8949 D dh i
-0.8603 D dh p
-0.8603 D dh u
-0.8603 D dh y
-1.3769 D f G
-1.3769 D f _S_
-1.3769 D f _q_
-1.3769 D f b
-1.3769 D f d
-0.9003 D f i
-1.3769 D f j
-1.3769 D f k
-1.1885 D f t
-1.1885 D f u
-1.0535 D f v
-1.3769 D f w
-1.3484 D g A
-1.5403 D g H
-1.3484 D g _S_
-1.5748 D g a
-0.7847 D g i
-1.3518 D g j
-1.5403 D g m
-1.3518 D g n
-1.5748 D g p
-1.3518 D g s
-1.5403 D g t
-1.2168 D g y
-1.5748 D g ya_q
-1.3477 D h _S_
-1.3477 D h a
-1.3477 D h b
-1.3477 D h d
-1.1592 D h g
-1.3477 D h i
-1.3477 D h q
-1.3477 D h t_l
-1.3822 D h u
-1.1592 D h w
-1.1592 D h y
-1.9343 D i D
-1.9343 D i G
-1.9343 D i H
-1.9343 D i P
-1.1787 D i _S_
-1.9343 D i b
-1.2201 D i d
-1.9343 D i dh
-1.9343 D i g
-1.9689 D i h
-1.1409 D i j
-1.7459 D i k
-1.7459 D i l
-1.4576 D i m
-1.2659 D i n
-1.3170 D i p
-1.6108 D i r
-1.9689 D i s
-1.9343 D i t
-1.9343 D i x
-0.4719 D i y
-1.9689 D i ya_q
-1.9689 D i z
-1.2940 D j E
-1.3285 D j a
-1.2940 D j i
-1.2940 D j m
-1.1021 D j p
-1.2940 D j t
-0.9705 D j u
-0.5384 D j y
-1.3302 D k _S_
-1.6537 D k _q_
-1.6883 D k a
-1.6883 D k d
-1.6537 D k f
-1.6537 D k g
-1.6537 D k h
-0.8981 D k i
-1.6883 D k j
-1.6537 D k l
-1.1770 D k n
-1.4653 D k p
-1.6537 D k r
-1.6883 D k s
-1.3302 D k u
-1.1770 D k w
-0.8981 D k y
-0.9695 D l d
-0.7810 D l u
-0.9695 D l y
-1.0700 D m A
-1.5467 D m D
-1.5813 D m G
-1.5467 D m _S_
-1.5467 D m _q_
-1.0700 D m a
-1.5467 D m g
-0.9294 D m i
-1.5467 D m k
-1.5813 D m q_a
-1.3583 D m u
-0.9294 D m w
-1.5813 D m y
-1.3863 D n E
-1.0628 D n _S_
-1.3863 D n a_md
-0.7179 D n i
-1.3863 D n j
-1.3863 D n k
-1.1979 D n t_l
-1.1979 D n u
-1.0628 D n y
-0.1913 D o _q_
-1.2824 D p T
-1.2824 D p Z
-1.0940 D p _S_
-1.0940 D p d
-1.3170 D p i
-1.2824 D p j
-1.2824 D p m
-1.3170 D p q
-1.3170 D p u
-1.2824 D p w
-1.2824 D p y
-1.4861 D q A
-1.3545 D q E
-1.6780 D q H
-1.6780 D q P
-1.6780 D q T
-1.0607 D q _S_
-0.8846 D q a
-1.4896 D q b
-1.6780 D q h
-1.0095 D q i
-1.6780 D q j
-1.6780 D q m
-1.6780 D q n
-1.4896 D q r
-1.6780 D q t
-0.9638 D q u
-1.2013 D q w
-1.3674 D q_a &
-1.4020 D q_a E
-1.3674 D q_a _S_
-1.3674 D q_a _q_
-0.7501 D q_a a
-1.3674 D q_a b
-1.3674 D q_a i
-1.4020 D q_a n
-1.3674 D q_a u
-1.0439 D q_a w
-1.3822 D r A
-1.3477 D r Z
-1.3477 D r _S_
-1.3822 D r a
-1.3477 D r h
-1.1558 D r i
-1.3822 D r j
-1.1592 D r u
-1.1592 D r w
-1.1592 D r y
-1.0912 D rf j
-1.0566 D rf n
-1.0912 D rf t_l
-1.5813 D s _S_
-1.5467 D s a_q
-0.7533 D s i
-1.5467 D s k
-1.5467 D s l
-1.5813 D s m
-1.5467 D s n
-1.2232 D s q
-1.5467 D s q_a
-1.5467 D s r
-1.5467 D s rf
-1.2232 D s u
-1.2232 D s v
-1.5467 D s x
-1.5467 D s y
-1.5467 D s z
-1.0242 D t A
-1.3822 D t _S_
-1.3477 D t a
-0.5543 D t i
-1.0242 D t m
-1.3822 D t r
-0.8710 D t u
-1.2816 D t_l A
-1.1466 D t_l E
-1.4701 D t_l P
-1.5046 D t_l Y
-1.2782 D t_l a
-1.5046 D t_l h
-1.5046 D t_l i
-1.4701 D t_l m
-1.4701 D t_l n
-1.4701 D t_l p
-1.4701 D t_l q_a
-1.2816 D t_l r
-1.4701 D t_l u
-1.2782 D t_l w
-1.2816 D t_l y
-1.4701 D t_l ya_q
-2.2359 D u &
-2.2013 D u D
-2.0129 D u E
-2.0095 D u G
-2.0095 D u P
-2.2013 D u S
-1.5840 D u T
-2.2013 D u Y
-1.5840 D u Z
-1.2319 D u _S_
-1.4080 D u b
-2.2359 D u d
-2.0095 D u g
-1.8779 D u h
-1.7246 D u i
-2.2013 D u j
-1.5840 D u k
-2.0095 D u l
-1.3732 D u m
-2.0095 D u n
-1.8779 D u p
-1.3410 D u q
-1.5840 D u r
-2.2359 D u rf
-1.2830 D u s
-2.0129 D u t
-0.5094 D u w
-1.5329 D u x
-1.4457 D u y
-1.8779 D u z
-1.6385 D v H
-1.3150 D v a
-1.4501 D v a_md
-1.6730 D v d
-0.4619 D v i
-1.6730 D v j
-1.6385 D v l
-1.6385 D v m
-1.6730 D v n
-1.6730 D v r
-1.1618 D v u
-0.8829 D v y
-1.7599 D w A
-2.2712 D w D
-1.5682 D w G
-2.2366 D w H
-2.2366 D w S
-1.4433 D w T
-2.0482 D w Y
-2.0448 D w Z
-1.1800 D w _S_
-2.2712 D w _q_
-1.9132 D w a
-1.2920 D w b
-1.4085 D w d
-2.2712 D w f
-1.4433 D w g
-1.9132 D w h
-1.0039 D w i
-1.5224 D w j
-1.2920 D w k
-1.4811 D w l
-1.6194 D w m
-1.5682 D w n
-2.2712 D w p
-1.4433 D w q
-1.4433 D w r
-1.3183 D w s
-1.4811 D w t
-1.4811 D w u
-2.2712 D w v
-1.4433 D w x
-1.1800 D w y
-1.4811 D w ya_q
-2.0482 D w z
-1.5271 D x A
-1.5271 D x E
-1.5617 D x _S_
-1.5271 D x _q_
-1.5271 D x a
-1.5271 D x d
-0.9098 D x i
-1.5271 D x k
-1.5617 D x m
-1.3387 D x n
-1.3387 D x p
-1.5271 D x q_a
-1.5617 D x s
-1.0504 D x u
-1.5271 D x v
-1.2036 D x w
-1.5617 D x y
-1.5617 D x z
-1.7980 D y E
-1.7634 D y T
-1.0950 D y _S_
-1.5716 D y _q_
-1.4399 D y a
-1.7634 D y a_q
-1.7980 D y b
-1.0950 D y d
-1.7634 D y dh
-1.5750 D y h
-1.7980 D y i
-1.7980 D y j
-1.5716 D y k
-1.5716 D y n
-1.7980 D y p
-1.5750 D y q
-1.4399 D y r
-1.4399 D y s
-1.5750 D y t
-1.7980 D y t_l
-1.2867 D y w
-1.7634 D y x
-1.5750 D y z
-0.7556 D ya_q l
-0.5672 D ya_q y
-0.7525 D z i
-1.0759 D z m
-1.0759 D z u
-1.0759 D z v
-0.8875 D z y
-0.4289 E & i
-0.6173 E & t
-1.7228 E A D
-1.5344 E A H
-1.7228 E A P
-1.7574 E A T
-1.7574 E A Y
-1.7574 E A Z
-1.5344 E A _S_
-1.7228 E A b
-1.3993 E A d
-1.7574 E A f
-1.2461 E A h
-1.3993 E A l
-0.8947 E A m
-1.0086 E A n
-1.5344 E A q
-1.3993 E A r
-1.2461 E A s
-1.7228 E A t
-1.7228 E A w
-1.5344 E A x
-1.7574 E A z
-1.1913 E D _S_
-1.2259 E D h
-0.8678 E D i
-1.1913 E D u
-1.2259 E D v
-1.1913 E D x
-0.8678 E D y
-1.5530 E G _S_
-1.5876 E G a
-1.5530 E G b
-1.0763 E G i
-1.3646 E G k
-1.5876 E G m
-1.3612 E G p
-1.2296 E G r
-1.5530 E G t_l
-1.3646 E G u
-0.9358 E G w
-0.7975 E G y
-1.5530 E G ya_q
-1.8634 E H E
-1.8980 E H G
-1.5399 E H J
-1.0353 E H _S_
-1.8634 E H _q_
-1.6750 E H a
-1.8980 E H a_q
-1.6750 E H b
-1.8980 E H d
-1.6750 E H f
-1.8980 E H g
-1.8634 E H h
-1.8980 E H i
-1.2461 E H k
-1.8980 E H l
-1.6750 E H m
-1.8980 E H n
-1.6750 E H p
-1.6716 E H q
-1.8980 E H r
-1.8980 E H rf
-1.5399 E H s
-1.6750 E H t
-1.1078 E H u
-1.0700 E H v
-1.5399 E H w
-1.6716 E H x
-1.8980 E H y
-1.3398 E J _S_
-0.5497 E J i
-1.3398 E J m
-1.3053 E J p
-0.5497 E J y
-1.3053 E J z
-0.7959 E P _S_
-1.3974 E P d
-1.1126 E P i
-1.4008 E P j
-0.9208 E P k
-1.3974 E P q
-1.5893 E P r
-1.4008 E P s
-1.2658 E P t
-1.1126 E P u
-1.2193 E S E
-1.2193 E S P
-1.2193 E S a
-0.8959 E S b
-1.2193 E S d
-1.2539 E S i
-1.7355 E T _S_
-1.3775 E T a
-1.7010 E T a_q
-1.3775 E T g
-0.7563 E T i
-1.7010 E T k
-1.5125 E T m
-1.0837 E T r
-1.7010 E T rf
-1.7010 E T s
-0.6857 E T u
-0.8406 E T w
-1.7355 E T y
-2.3064 E Y A
-2.1145 E Y D
-1.6891 E Y G
-2.3409 E Y H
-2.3064 E Y J
-1.6379 E Y P
-2.3064 E Y S
-1.6891 E Y T
-1.6379 E Y Z
-1.4460 E Y _S_
-2.3064 E Y _q_
-2.1145 E Y a_q
-1.3617 E Y b
-1.8297 E Y d
-2.1179 E Y dh
-2.1145 E Y f
-1.5508 E Y g
-1.4161 E Y h
-1.4161 E Y i
-1.5922 E Y j
-1.0240 E Y k
-1.5922 E Y l
-1.2120 E Y m
-1.5922 E Y n
-2.3064 E Y o
-1.8297 E Y p
-1.2498 E Y q
-2.1179 E Y q_a
-2.1179 E Y r
-2.1145 E Y rf
-1.3617 E Y s
-1.2911 E Y t
-1.9829 E Y t_l
-1.4782 E Y u
-2.1145 E Y v
-1.2700 E Y w
-1.6379 E Y x
-1.6379 E Y y
-2.1145 E Y z
-1.1669 E Z A
-1.4518 E Z a
-1.4552 E Z g
-1.3201 E Z h
-1.1669 E Z i
-1.6436 E Z j
-1.6782 E Z q
-1.6436 E Z r
-1.4552 E Z t_l
-0.7833 E Z u
-0.6990 E Z w
-2.4201 E _S_ &
-2.4546 E _S_ A
-2.4201 E _S_ D
-1.9434 E _S_ E
-2.0966 E _S_ H
-1.8028 E _S_ J
-2.2316 E _S_ P
-2.4201 E _S_ S
-2.2282 E _S_ T
-2.4546 E _S_ _q_
-1.5919 E _S_ a
-2.0966 E _S_ a_md
-1.7516 E _S_ a_q
-1.5017 E _S_ b
-1.9434 E _S_ d
-2.2316 E _S_ dh
-2.0966 E _S_ f
-1.7516 E _S_ g
-1.9434 E _S_ h
-0.7868 E _S_ i
-1.6267 E _S_ j
-1.4506 E _S_ k
-2.0966 E _S_ l
-1.3836 E _S_ m
-1.3836 E _S_ n
-2.4546 E _S_ o
-1.9434 E _S_ p
-1.7059 E _S_ q
-1.9434 E _S_ q_a
-1.3079 E _S_ r
-2.4546 E _S_ rf
-1.6645 E _S_ s
-1.7059 E _S_ t
-1.7059 E _S_ t_l
-0.8670 E _S_ u
-1.4271 E _S_ v
-1.2745 E _S_ w
-2.2282 E _S_ x
-1.4754 E _S_ y
-2.2316 E _S_ z
-2.2705 E _q_ &
-2.3051 E _q_ D
-2.3051 E _q_ E
-2.0821 E _q_ G
-2.2705 E _q_ H
-2.0821 E _q_ J
-2.0821 E _q_ P
-2.2705 E _q_ S
-1.6021 E _q_ T
-2.0821 E _q_ Y
-2.0786 E _q_ Z
-1.2775 E _q_ _S_
-2.3051 E _q_ a_md
-2.0821 E _q_ a_q
-1.4102 E _q_ b
-1.5563 E _q_ d
-1.9470 E _q_ f
-1.9470 E _q_ g
-1.7938 E _q_ h
-1.3522 E _q_ i
-1.5149 E _q_ j
-1.0248 E _q_ k
-2.0821 E _q_ l
-2.0786 E _q_ m
-2.0821 E _q_ n
-1.5563 E _q_ p
-1.4102 E _q_ q
-2.0786 E _q_ q_a
-1.9470 E _q_ r
-2.3051 E _q_ rf
-1.3802 E _q_ s
-1.1091 E _q_ t
-2.2705 E _q_ t_l
-1.5563 E _q_ u
-1.0939 E _q_ v
-1.1761 E _q_ w
-1.3802 E _q_ x
-1.7938 E _q_ y
-2.3051 E _q_ ya_q
-2.1582 E a D
-2.1928 E a G
-1.9664 E a H
-1.9664 E a J
-2.1582 E a S
-1.4898 E a T
-2.1928 E a Y
-1.9698 E a Z
-1.0127 E a _S_
-1.5410 E a _q_
-1.4027 E a b
-0.9669 E a d
-2.1928 E a dh
-1.6815 E a f
-1.8348 E a h
-2.1582 E a i
-1.5410 E a j
-1.1218 E a k
-1.1430 E a l
-1.3649 E a m
-1.5410 E a n
-1.9698 E a p
-1.9698 E a q
-1.6815 E a r
-1.0638 E a s
-1.3301 E a t
-1.9698 E a v
-1.9698 E a w
-1.5410 E a x
-1.9664 E a y
-2.1928 E a z
-1.1121 E a_md _S_
-1.1121 E a_md m
-1.1121 E a_md n
-1.1467 E a_md r
-1.1121 E a_md s
-1.1467 E a_md w
-1.1121 E a_md y
-1.3822 E a_q _S_
-1.1592 E a_q d
-1.3477 E a_q i
-1.1558 E a_q j
-1.3477 E a_q k
-1.1592 E a_q n
-1.3477 E a_q p
-1.1592 E a_q r
-1.3477 E a_q s
-0.8710 E a_q y
-1.4780 E b A
-1.6313 E b E
-1.9893 E b G
-1.2863 E b _S_
-1.0944 E b a
-1.9893 E b a_q
-1.9547 E b f
-1.7663 E b g
-0.5245 E b i
-1.7629 E b j
-1.7663 E b p
-1.7663 E b r
-1.7663 E b rf
-1.9547 E b s
-1.7663 E b t
-1.7629 E b t_l
-1.0364 E b u
-1.1614 E b w
-1.7629 E b y
-1.7054 E d A
-2.1343 E d E
-2.1343 E d G
-2.3227 E d P
-1.4044 E d _S_
-2.3573 E d _q_
-1.4044 E d a
-2.1343 E d a_md
-1.3533 E d a_q
-2.3573 E d dh
-2.1309 E d g
-2.3227 E d h
-0.5151 E d i
-1.5293 E d j
-2.3227 E d k
-2.3227 E d l
-2.3573 E d n
-2.1309 E d o
-1.3075 E d p
-2.3573 E d q_a
-1.4044 E d r
-2.3573 E d rf
-2.3227 E d s
-2.3573 E d t
-1.4044 E d t_l
-1.1461 E d u
-2.3573 E d v
-1.7054 E d w
-2.3227 E d x
-0.8843 E d y
-2.3227 E d ya_q
-2.3573 E d z
-1.2457 E dh A
-1.2457 E dh T
-1.2457 E dh _q_
-1.2802 E dh a
-0.9222 E dh i
-1.0573 E dh p
-1.2802 E dh t_l
-1.2802 E dh u
-1.2802 E dh y
-1.3270 E f J
-1.3270 E f S
-1.1386 E f _S_
-0.6128 E f i
-1.3270 E f m
-1.3270 E f q
-1.3270 E f t
-1.3615 E f u
-1.3270 E f v
-1.3615 E f w
-1.1523 E g A
-1.1980 E g E
-1.8665 E g T
-1.6781 E g _S_
-1.1980 E g a
-1.2492 E g a_q
-1.8665 E g b
-1.9010 E g h
-0.8513 E g i
-1.6781 E g j
-1.5430 E g l
-1.8665 E g m
-1.9010 E g n
-1.8665 E g o
-1.1523 E g p
-1.5430 E g r
-1.8665 E g s
-1.8665 E g t
-1.8665 E g t_l
-1.6781 E g u
-1.6746 E g w
-1.0383 E g y
-1.9010 E g ya_q
-1.6999 E h A
-2.2111 E h D
-1.8531 E h E
-1.9882 E h H
-1.9847 E h P
-1.9847 E h T
-2.1766 E h Y
-2.2111 E h Z
-1.2071 E h _S_
-2.1766 E h _q_
-1.5082 E h a
-2.1766 E h a_md
-1.9882 E h a_q
-1.4210 E h b
-1.3485 E h d
-1.9847 E h f
-1.9882 E h g
-1.2863 E h i
-1.3485 E h j
-1.3485 E h k
-2.2111 E h l
-1.2863 E h m
-1.3163 E h n
-1.8531 E h p
-1.8531 E h q
-1.8531 E h q_a
-1.6999 E h r
-1.8531 E h rf
-1.3832 E h s
-1.5082 E h t
-1.9882 E h t_l
-1.3485 E h u
-1.8531 E h v
-1.3832 E h w
-1.5082 E h x
-1.3485 E h y
-2.1766 E h ya_q
-1.9882 E h z
-2.0506 E i A
-1.8622 E i G
-2.0852 E i J
-1.3365 E i P
-1.8622 E i T
-1.1060 E i _S_
-1.5740 E i b
-1.1060 E i d
-1.8622 E i dh
-2.0506 E i h
-1.2951 E i j
-1.0812 E i k
-2.0506 E i l
-1.8622 E i m
-1.2573 E i n
-1.5740 E i p
-2.0506 E i q
-2.0852 E i r
-2.0506 E i rf
-2.0852 E i s
-1.4334 E i t
-2.0506 E i u
-2.0852 E i v
-2.0506 E i w
-0.5883 E i y
-2.0506 E i ya_q
-1.7272 E i z
-1.9636 E j D
-1.9290 E j E
-1.9290 E j S
-1.2606 E j _S_
-1.9290 E j a
-1.9636 E j b
-1.7406 E j d
-1.9636 E j h
-1.0388 E j i
-1.7406 E j k
-1.9290 E j m
-1.7406 E j n
-1.9636 E j o
-1.1735 E j p
-1.6056 E j r
-1.9290 E j rf
-1.9290 E j s
-1.9290 E j t
-1.9290 E j t_l
-1.0388 E j u
-1.7406 E j v
-1.4523 E j w
-1.7406 E j x
-0.6021 E j y
-1.9290 E j ya_q
-2.0998 E k E
-1.9648 E k G
-2.0998 E k H
-2.0998 E k J
-1.0177 E k _S_
-1.6709 E k a
-2.2882 E k a_md
-2.0998 E k a_q
-1.8115 E k b
-2.0964 E k d
-2.0998 E k f
-1.8115 E k g
-2.0964 E k h
-0.5654 E k i
-2.0964 E k j
-2.3228 E k l
-1.6709 E k m
-1.3979 E k n
-1.3979 E k p
-2.3228 E k q
-2.2882 E k q_a
-1.4601 E k r
-2.3228 E k rf
-2.3228 E k s
-2.0998 E k t
-1.9648 E k t_l
-1.2953 E k u
-1.4949 E k v
-1.5740 E k w
-2.2882 E k x
-0.9508 E k y
-2.2882 E k ya_q
-1.6489 E l A
-1.6031 E l E
-2.1255 E l G
-2.3173 E l J
-2.3173 E l P
-2.3519 E l S
-2.3173 E l T
-1.5618 E l _S_
-2.3173 E l _q_
-1.5240 E l a
-1.3990 E l a_q
-1.6031 E l b
-1.8406 E l d
-2.3519 E l dh
-2.3173 E l h
-0.6636 E l i
-1.4892 E l j
-1.6031 E l k
-1.5240 E l m
-2.3519 E l n
-1.9939 E l o
-1.0980 E l p
-2.3519 E l q_a
-2.1289 E l r
-2.3173 E l rf
-2.1289 E l s
-2.3519 E l t
-1.3021 E l t_l
-1.2607 E l u
-2.1289 E l v
-1.6031 E l w
-0.7970 E l y
-2.3173 E l z
-1.9776 E m &
-1.0901 E m A
-2.1660 E m D
-1.2477 E m E
-2.1660 E m H
-1.8425 E m P
-2.2005 E m S
-2.2005 E m Z
-1.2757 E m _S_
-2.1660 E m _q_
-1.1508 E m a
-2.2005 E m a_q
-1.9776 E m b
-1.3378 E m d
-2.1660 E m dh
-1.9741 E m g
-1.4975 E m h
-0.8836 E m i
-1.6893 E m j
-1.5487 E m k
-2.2005 E m n
-1.8425 E m p
-1.6893 E m q
-2.1660 E m r
-1.9776 E m rf
-2.2005 E m s
-1.9776 E m t
-1.4975 E m t_l
-1.1730 E m u
-1.2477 E m w
-1.5487 E m x
-1.5487 E m y
-1.8425 E m ya_q
-2.6462 E n &
-1.4696 E n A
-2.4543 E n D
-1.7278 E n E
-1.6532 E n G
-2.1695 E n H
-2.6807 E n J
-1.7278 E n P
-2.3227 E n S
-1.8180 E n T
-2.6462 E n Z
-1.3638 E n _S_
-2.6807 E n _q_
-1.7015 E n a
-2.6462 E n a_md
-1.8180 E n a_q
-1.8528 E n b
-1.2985 E n d
-2.3227 E n dh
-2.4577 E n f
-1.8906 E n g
-1.5518 E n h
-0.7361 E n i
-1.2885 E n j
-1.4848 E n k
-2.0289 E n l
-1.7278 E n m
-2.4543 E n o
-1.5518 E n p
-1.7278 E n q
-2.4543 E n q_a
-2.6807 E n r
-1.8906 E n rf
-1.7015 E n s
-1.2885 E n t
-1.1326 E n t_l
-1.4696 E n u
-1.9320 E n v
-1.7858 E n w
-2.0289 E n x
-1.2160 E n y
-2.6807 E n ya_q
-2.1695 E n z
-2.2111 E p D
-1.5593 E p G
-2.1766 E p H
-1.5593 E p J
-1.9882 E p P
-2.1766 E p S
-1.9847 E p T
-1.9882 E p Z
-1.0310 E p _S_
-2.2111 E p _q_
-2.2111 E p a
-1.8531 E p a_q
-1.3163 E p b
-1.4624 E p d
-1.9882 E p f
-1.5593 E p g
-2.2111 E p h
-1.2583 E p i
-1.8531 E p j
-1.0822 E p k
-1.4210 E p m
-1.9882 E p n
-1.5593 E p q
-2.2111 E p q_a
-2.1766 E p r
-1.9882 E p rf
-1.2863 E p s
-1.1402 E p t
-1.6999 E p t_l
-1.9847 E p u
-1.1614 E p v
-1.4624 E p w
-1.5082 E p x
-2.1766 E p y
-1.9847 E p z
-1.4806 E q A
-1.8041 E q G
-1.4806 E q _S_
-0.9760 E q a
-1.4806 E q a_md
-1.8387 E q a_q
-1.8041 E q b
-1.1357 E q g
-0.9138 E q i
-1.8041 E q k
-1.8041 E q m
-1.8041 E q n
-1.8041 E q o
-1.8041 E q q_a
-1.6157 E q r
-0.8346 E q u
-1.8041 E q v
-0.9138 E q w
-1.8387 E q x
-1.8387 E q y
-1.4648 E q_a A
-1.4302 E q_a Y
-1.2418 E q_a _S_
-1.1067 E q_a a
-1.4302 E q_a k
-1.4648 E q_a n
-1.4302 E q_a q
-1.4648 E q_a r
-1.4648 E q_a t
-1.4302 E q_a v
-0.6746 E q_a w
-1.4302 E q_a x
-1.4302 E q_a y
-1.4302 E q_a ya_q
-2.5448 E r &
-1.4326 E r A
-2.3564 E r D
-1.4326 E r E
-2.0681 E r G
-2.0681 E r H
-2.3564 E r J
-2.3529 E r P
-2.2213 E r S
-1.9275 E r T
-2.5448 E r Y
-2.5793 E r Z
-1.1585 E r _S_
-1.7514 E r _q_
-1.4689 E r a
-2.3564 E r a_md
-1.7892 E r a_q
-1.5084 E r b
-1.3682 E r d
-2.5793 E r dh
-2.2213 E r f
-2.5793 E r g
-1.6001 E r h
-0.9614 E r i
-1.4504 E r j
-1.3992 E r k
-2.3529 E r l
-1.7514 E r m
-1.6265 E r n
-2.5448 E r o
-1.5084 E r p
-1.7892 E r q
-2.5448 E r q_a
-2.5793 E r rf
-1.4326 E r s
-1.4326 E r t
-1.7892 E r t_l
-1.3682 E r u
-2.5793 E r v
-1.4156 E r w
-1.7514 E r x
-1.0597 E r y
-2.2213 E r ya_q
-1.7892 E r z
-1.3051 E rf _S_
-1.2705 E rf _q_
-1.3051 E rf h
-1.2705 E rf i
-1.2705 E rf m
-1.3051 E rf p
-1.2705 E rf u
-1.0821 E rf y
-1.9766 E s D
-2.0112 E s G
-1.9766 E s J
-1.7882 E s P
-1.9766 E s S
-1.4999 E s T
-1.3082 E s _S_
-1.7882 E s a
-1.7848 E s a_q
-1.7882 E s b
-1.9766 E s d
-1.9766 E s h
-0.6604 E s i
-1.6532 E s j
-1.6532 E s k
-1.3082 E s m
-2.0112 E s n
-1.6532 E s p
-1.6532 E s q
-1.9766 E s q_a
-1.7882 E s r
-1.7882 E s rf
-2.0112 E s t
-1.7882 E s t_l
-0.9837 E s u
-1.4999 E s v
-1.6532 E s w
-1.7848 E s y
-1.9766 E s z
-1.4753 E t A
-2.1271 E t E
-2.0926 E t H
-1.7691 E t P
-1.0996 E t _S_
-2.0926 E t _q_
-1.4242 E t a
-1.9007 E t a_q
-1.7691 E t d
-2.1271 E t f
-1.6159 E t g
-1.9042 E t h
-0.5459 E t i
-2.1271 E t j
-1.9042 E t k
-1.9042 E t l
-1.9042 E t m
-1.4753 E t n
-1.7691 E t p
-1.9007 E t r
-1.3784 E t s
-1.0360 E t u
-2.1271 E t v
-2.1271 E t w
-2.0926 E t x
-1.4242 E t y
-2.1271 E t ya_q
-2.0926 E t z
-0.9183 E t_l E
-0.9529 E t_l i
-0.9183 E t_l y
-1.5035 E u G
-1.6919 E u P
-1.6919 E u T
-1.7265 E u Y
-1.0235 E u _S_
-1.6919 E u a_md
-1.3685 E u b
-1.2152 E u d
-1.6919 E u f
-1.6919 E u g
-1.6919 E u h
-1.5035 E u i
-1.7265 E u j
-1.6919 E u k
-1.3685 E u m
-1.5001 E u q
-1.5001 E u s
-0.8316 E u w
-1.6919 E u x
-1.7265 E u y
-1.7265 E u z
-1.3051 E v A
-1.2705 E v a
-1.2705 E v h
-0.9470 E v i
-1.2705 E v j
-1.2705 E v n
-1.2705 E v p
-1.2705 E v r
-0.9470 E v u
-1.0821 E v y
-2.5163 E w A
-2.3279 E w D
-2.1928 E w E
-1.6260 E w G
-2.3279 E w H
-2.3279 E w J
-1.4597 E w P
-2.3279 E w S
-1.2836 E w T
-1.6260 E w Z
-1.1119 E w _S_
-2.3279 E w a
-2.5508 E w a_q
-1.1788 E w b
-1.2110 E w d
-2.5163 E w dh
-1.6260 E w f
-2.3244 E w g
-2.3279 E w h
-1.2836 E w i
-1.3397 E w j
-1.0778 E w k
-1.6560 E w l
-1.5011 E w m
-1.7607 E w n
-2.0396 E w p
-1.2223 E w q
-1.8021 E w r
-2.5508 E w rf
-1.3250 E w s
-1.3707 E w t
-2.5163 E w t_l
-1.5468 E w u
-2.0396 E w v
-1.5716 E w x
-1.5468 E w y
-2.5163 E w ya_q
-1.5233 E w z
-1.7228 E x E
-1.7228 E x S
-1.5344 E x _S_
-1.7228 E x a
-1.7228 E x a_md
-1.5344 E x b
-1.7574 E x d
-1.7574 E x f
-1.3993 E x g
-1.5309 E x i
-1.7228 E x j
-1.7228 E x m
-1.5344 E x n
-1.7228 E x p
-1.3993 E x q
-1.7228 E x q_a
-1.7574 E x r
-1.7228 E x rf
-1.5344 E x s
-1.3993 E x t
-1.1055 E x u
-1.7228 E x v
-0.9294 E x w
-1.3993 E x y
-2.3301 E y A
-2.3647 E y D
-1.8534 E y G
-1.5368 E y P
-2.3647 E y T
-2.3647 E y Z
-0.9532 E y _S_
-2.1417 E y _q_
-2.3647 E y a
-2.3301 E y a_md
-2.1417 E y a_q
-1.6159 E y b
-0.9347 E y d
-1.7129 E y dh
-1.7129 E y h
-1.4399 E y i
-1.3149 E y j
-1.2180 E y k
-1.7129 E y l
-1.2542 E y m
-1.1846 E y n
-2.3301 E y o
-1.6617 E y p
-1.8534 E y q
-2.3647 E y q_a
-1.5368 E y r
-1.2542 E y s
-1.3607 E y t
-2.0067 E y t_l
-1.6617 E y u
-1.4399 E y v
-1.5746 E y w
-2.1383 E y x
-1.8534 E y z
-2.3655 E ya_q D
-1.6513 E ya_q G
-2.3655 E ya_q J
-2.1770 E ya_q P
-0.8879 E ya_q _S_
-2.1770 E ya_q _q_
-2.3655 E ya_q a_q
-1.8888 E ya_q b
-1.3502 E ya_q d
-1.8888 E ya_q dh
-2.3655 E ya_q f
-1.8888 E ya_q h
-1.5373 E ya_q i
-1.3502 E ya_q j
-1.0492 E ya_q k
-1.6099 E ya_q l
-2.0420 E ya_q m
-1.1599 E ya_q n
-1.4208 E ya_q p
-2.3655 E ya_q q
-1.4752 E ya_q r
-1.8888 E ya_q s
-2.4000 E ya_q t
-2.1770 E ya_q t_l
-2.3655 E ya_q v
-2.1736 E ya_q w
-2.3655 E ya_q x
-0.5509 E ya_q y
-1.5721 E ya_q z
-1.8603 E z A
-1.8603 E z E
-1.8603 E z T
-1.5369 E z _S_
-1.8603 E z a
-1.6719 E z a_md
-1.6685 E z a_q
-1.6685 E z b
-1.1047 E z d
-1.8949 E z f
-1.6719 E z g
-0.8037 E z i
-1.6719 E z j
-1.8949 E z k
-1.6719 E z m
-1.5369 E z n
-1.8949 E z o
-1.6719 E z p
-1.6719 E z r
-1.8949 E z rf
-1.6719 E z s
-1.8603 E z t
-1.8603 E z t_l
-1.1919 E z u
-1.8949 E z v
-1.6719 E z w
-1.1919 E z y
-0.1913 F P T
-0.3163 F _S_ w
-0.3163 F d y
-0.0152 F f u
-0.3163 F g E
-0.9248 F i n
-0.8903 F i y
-0.4923 F k i
-0.1913 F q i
-0.1913 F s q_a
-0.5269 F u w
-0.3163 F v A
-1.3954 G & A
-1.3954 G & E
-1.2070 G & Y
-1.3954 G & _q_
-1.0720 G & d
-1.3954 G & g
-1.3954 G & i
-1.3954 G & m
-1.3954 G & q
-1.3954 G & r
-1.3954 G & t
-0.6812 G & w
-1.4300 G & ya_q
-2.1325 G A D
-2.1325 G A G
-2.1325 G A J
-2.1671 G A P
-1.4641 G A T
-1.9441 G A Y
-1.3769 G A Z
-1.9406 G A _S_
-1.4641 G A _q_
-1.6558 G A b
-1.3769 G A d
-1.9406 G A dh
-1.3769 G A g
-1.3391 G A h
-2.1325 G A i
-1.1630 G A l
-0.9559 G A m
-1.0033 G A n
-1.9441 G A p
-2.1671 G A q
-1.0033 G A r
-1.9406 G A s
-1.3044 G A t
-2.1325 G A u
-1.2422 G A w
-1.8090 G A x
-2.1325 G A y
-1.8090 G A ya_q
-1.9406 G A z
-1.0364 G D G
-1.0710 G D k
-1.0364 G D x
-1.9219 G E A
-1.9219 G E H
-1.5639 G E Y
-1.6990 G E Z
-1.9219 G E _S_
-1.5639 G E _q_
-1.2189 G E a
-1.8874 G E b
-1.4107 G E d
-1.6990 G E g
-1.6990 G E h
-1.8874 G E k
-0.9971 G E l
-1.9219 G E m
-1.0592 G E n
-1.9219 G E p
-1.8874 G E q
-0.9427 G E r
-1.8874 G E t
-1.6990 G E u
-1.9219 G E v
-1.0271 G E w
-1.5639 G E y
-1.5639 G E ya_q
-1.9219 G E z
-0.7019 G H u
-0.8903 G H v
-1.3285 G P T
-1.2940 G P _S_
-0.8173 G P k
-1.1021 G P q
-0.9705 G P t
-1.3285 G P u
-1.2940 G P v
-1.2940 G P w
-0.9183 G S G
-0.9183 G S d
-0.9183 G S u
-1.2705 G T &
-1.2705 G T E
-1.0821 G T a
-1.2705 G T i
-0.5563 G T u
-0.9470 G T w
-1.2705 G T y
-1.3720 G Y P
-1.3374 G Y Z
-1.3374 G Y g
-1.3720 G Y h
-1.3374 G Y j
-1.0140 G Y m
-1.3720 G Y q
-1.3374 G Y r
-1.3374 G Y u
-1.1490 G Y w
-1.3374 G Y y
-0.7488 G Z u
-2.1456 G _S_ A
-1.4771 G _S_ G
-1.8221 G _S_ P
-2.1801 G _S_ T
-1.9537 G _S_ a
-2.1801 G _S_ a_md
-2.1801 G _S_ a_q
-1.8221 G _S_ b
-1.9537 G _S_ d
-2.1801 G _S_ f
-1.9537 G _S_ g
-0.8403 G _S_ i
-2.1456 G _S_ j
-1.2553 G _S_ k
-2.1456 G _S_ l
-1.6689 G _S_ m
-1.4771 G _S_ n
-2.1456 G _S_ o
-1.9571 G _S_ p
-1.3522 G _S_ q
-2.1801 G _S_ q_a
-1.4314 G _S_ r
-2.1456 G _S_ rf
-1.8221 G _S_ s
-1.4771 G _S_ t
-2.1456 G _S_ t_l
-0.7782 G _S_ u
-1.3522 G _S_ v
-1.3522 G _S_ w
-1.9537 G _S_ x
-1.2852 G _S_ y
-1.7010 G _q_ A
-1.7010 G _q_ J
-1.7010 G _q_ P
-1.5125 G _q_ T
-1.3775 G _q_ Z
-1.7010 G _q_ _S_
-1.7010 G _q_ a
-1.7355 G _q_ b
-1.7355 G _q_ d
-1.7010 G _q_ g
-1.0837 G _q_ h
-1.5125 G _q_ k
-1.7010 G _q_ l
-0.7315 G _q_ m
-1.7010 G _q_ n
-1.5125 G _q_ q
-1.5125 G _q_ q_a
-1.5125 G _q_ r
-1.7010 G _q_ s
-1.7010 G _q_ t
-1.7355 G _q_ u
-1.2243 G _q_ w
-2.0889 G a A
-2.0889 G a D
-2.0889 G a E
-2.1235 G a G
-2.1235 G a P
-2.0889 G a S
-1.2608 G a T
-2.0889 G a Y
-1.3747 G a Z
-1.1195 G a _S_
-1.4717 G a _q_
-1.4717 G a b
-1.3747 G a d
-2.0889 G a dh
-1.9005 G a f
-1.7655 G a g
-1.8971 G a h
-2.1235 G a i
-1.7655 G a j
-1.7655 G a k
-1.2608 G a l
-1.1195 G a m
-1.8971 G a n
-1.9005 G a p
-1.4717 G a q
-1.0323 G a r
-1.1195 G a s
-1.4717 G a t
-2.0889 G a u
-1.4205 G a w
-1.9005 G a x
-1.7655 G a y
-2.0889 G a z
-0.8281 G a_md Y
-0.8281 G a_md r
-1.5530 G a_q G
-1.2296 G a_q _S_
-1.5530 G a_q _q_
-1.5530 G a_q a
-1.5530 G a_q d
-1.3646 G a_q dh
-1.5876 G a_q g
-1.5876 G a_q h
-1.2296 G a_q i
-1.3646 G a_q k
-1.2296 G a_q l
-1.2296 G a_q r
-1.5876 G a_q s
-0.7975 G a_q y
-1.5530 G a_q ya_q
-1.5876 G a_q z
-1.6463 G b &
-1.5113 G b A
-1.8693 G b E
-1.8693 G b G
-1.8348 G b Z
-1.8693 G b _S_
-0.8195 G b a
-1.8348 G b a_q
-1.8348 G b d
-1.8348 G b f
-1.8693 G b g
-0.8418 G b i
-1.6463 G b k
-1.6429 G b m
-1.8693 G b r
-1.8348 G b rf
-1.8348 G b t_l
-0.8653 G b u
-1.8348 G b v
-0.9744 G b w
-1.6429 G b y
-1.8348 G b ya_q
-1.4165 G d A
-1.8932 G d E
-1.8932 G d _S_
-1.2247 G d a
-1.7013 G d a_q
-1.8932 G d b
-1.8932 G d g
-0.6876 G d i
-1.5697 G d k
-1.8932 G d m
-1.1376 G d p
-1.8932 G d q
-1.1790 G d r
-1.8932 G d s
-1.9277 G d t
-1.9277 G d t_l
-0.9749 G d u
-1.2759 G d w
-1.0029 G d y
-1.8932 G d ya_q
-0.7684 G dh A
-1.3352 G dh E
-1.6587 G dh _S_
-0.9031 G dh a
-1.6932 G dh a_q
-1.6587 G dh d
-0.7684 G dh i
-1.4703 G dh o
-1.3352 G dh p
-1.6587 G dh q_a
-1.6932 G dh t_l
-0.9445 G dh u
-1.4703 G dh y
-0.5668 G f i
-0.9248 G f m
-1.5827 G g A
-1.8057 G g E
-1.7711 G g G
-1.8057 G g P
-0.8808 G g _S_
-1.5827 G g a
-1.7711 G g f
-1.8057 G g h
-0.6767 G g i
-1.5827 G g j
-1.8057 G g k
-1.7711 G g l
-1.8057 G g n
-1.8057 G g p
-0.9777 G g r
-1.4476 G g s
-1.7711 G g t
-1.8057 G g u
-1.7711 G g w
-1.7711 G g x
-1.5827 G g y
-1.5204 G h E
-1.5204 G h S
-1.5549 G h _S_
-1.5549 G h _q_
-1.5204 G h b
-1.5549 G h p
-1.5204 G h q
-1.5204 G h r
-1.3320 G h s
-1.5549 G h t
-0.9031 G h u
-1.5204 G h v
-0.7648 G h w
-1.5549 G h y
-1.7727 G i G
-2.2426 G i H
-1.8105 G i P
-2.6006 G i S
-1.8976 G i T
-2.6006 G i Z
-1.0810 G i _S_
-2.5661 G i _q_
-1.8105 G i b
-1.3747 G i d
-1.8976 G i dh
-2.2426 G i f
-2.2426 G i g
-1.9488 G i h
-1.4901 G i j
-1.2184 G i k
-1.4901 G i l
-1.8105 G i m
-1.5094 G i n
-1.5508 G i p
-1.8976 G i q
-1.8976 G i r
-1.9488 G i rf
-1.3895 G i s
-1.4047 G i t
-1.7727 G i t_l
-2.3742 G i u
-2.5661 G i v
-1.9488 G i w
-1.7727 G i x
-0.4453 G i y
-1.7057 G i z
-1.7511 G j A
-1.9741 G j E
-1.4628 G j G
-1.9395 G j P
-1.9395 G j T
-1.6160 G j _S_
-1.9395 G j a
-1.9395 G j b
-1.7511 G j d
-1.9395 G j g
-1.9741 G j h
-1.2711 G j i
-1.9741 G j k
-1.9395 G j l
-1.9395 G j n
-1.2711 G j p
-1.9741 G j q_a
-1.9395 G j r
-1.7511 G j rf
-1.7511 G j t
-1.7511 G j t_l
-1.0792 G j u
-1.7477 G j w
-0.4619 G j y
-1.9395 G j ya_q
-1.9446 G k A
-1.9446 G k G
-1.9446 G k H
-1.7528 G k _S_
-1.9446 G k a
-1.9446 G k a_q
-1.7528 G k b
-1.9792 G k d
-1.3274 G k g
-0.8325 G k i
-1.4679 G k l
-1.9792 G k m
-1.7562 G k n
-1.9792 G k p
-1.6212 G k q
-1.7562 G k q_a
-1.6212 G k r
-1.6212 G k rf
-1.7528 G k s
-1.7562 G k t
-1.7562 G k t_l
-1.1165 G k u
-1.9446 G k v
-0.7681 G k w
-1.2762 G k y
-1.9446 G k z
-1.7219 G l A
-1.7219 G l _S_
-1.3639 G l a
-1.6873 G l a_q
-1.6873 G l b
-0.7970 G l i
-1.6873 G l j
-1.6873 G l k
-1.6873 G l m
-1.7219 G l n
-1.6873 G l q
-1.7219 G l s
-1.6873 G l t
-1.0189 G l t_l
-1.0700 G l u
-1.3639 G l w
-0.7970 G l y
-1.6873 G l ya_q
-1.7658 G m &
-1.1139 G m A
-1.5428 G m E
-1.7312 G m S
-1.5428 G m _S_
-1.0628 G m a
-1.7658 G m a_q
-1.7312 G m d
-1.7658 G m h
-0.9379 G m i
-1.7658 G m k
-1.7658 G m n
-1.7312 G m p
-1.5394 G m t_l
-0.8709 G m u
-1.7312 G m v
-0.9379 G m w
-1.4078 G m y
-1.7345 G n A
-1.7380 G n E
-1.7345 G n G
-1.9609 G n T
-1.1708 G n _S_
-1.4497 G n a
-1.9264 G n a_md
-1.7380 G n b
-1.9609 G n d
-1.7380 G n h
-0.7972 G n i
-1.3091 G n j
-1.7345 G n k
-1.9609 G n m
-1.9609 G n p
-1.7380 G n q
-1.9264 G n rf
-1.6029 G n s
-1.9264 G n t
-1.0361 G n t_l
-1.2579 G n u
-1.9264 G n w
-1.7380 G n x
-0.9569 G n y
-1.1766 G o _q_
-1.1766 G o b
-0.5593 G o d
-1.2111 G o h
-1.2111 G o k
-0.9882 G o n
-1.1766 G o t
-2.3936 G p E
-1.7252 G p G
-2.3936 G p H
-2.2052 G p P
-1.4242 G p T
-2.3936 G p Y
-1.6002 G p Z
-1.5033 G p _S_
-2.2052 G p a
-2.4282 G p a_q
-1.4753 G p b
-1.4007 G p d
-1.9169 G p dh
-1.6380 G p f
-1.4753 G p g
-1.5333 G p h
-1.6380 G p i
-2.3936 G p j
-1.4242 G p k
-0.9312 G p m
-1.5333 G p n
-1.3784 G p q
-2.2018 G p q_a
-1.4490 G p r
-1.1609 G p s
-1.3784 G p t
-2.2052 G p t_l
-1.4490 G p u
-2.2052 G p v
-0.7986 G p w
-2.4282 G p x
-1.9169 G p y
-1.7763 G p z
-1.5467 G q A
-1.3549 G q E
-1.5467 G q G
-1.3583 G q _S_
-1.5467 G q a
-1.3583 G q b
-1.5467 G q g
-1.3549 G q i
-1.5467 G q j
-1.5467 G q n
-1.5467 G q q_a
-1.2232 G q r
-1.5467 G q t
-1.0700 G q u
-0.9294 G q w
-1.5467 G q y
-1.8146 G q_a &
-1.4911 G q_a E
-1.1004 G q_a Y
-1.8146 G q_a _S_
-1.4911 G q_a _q_
-0.9243 G q_a a
-1.8146 G q_a d
-1.6261 G q_a i
-1.8146 G q_a j
-1.8146 G q_a k
-1.6261 G q_a l
-1.8146 G q_a m
-1.8491 G q_a r
-1.6261 G q_a u
-0.5441 G q_a w
-1.8146 G q_a y
-1.1004 G q_a ya_q
-1.3135 G r A
-1.4896 G r E
-1.9150 G r G
-2.1069 G r P
-2.1069 G r S
-1.2466 G r T
-2.1069 G r Y
-2.1069 G r Z
-1.1374 G r _S_
-1.7834 G r _q_
-1.4896 G r a
-1.9150 G r a_q
-1.9150 G r b
-1.3927 G r d
-1.7834 G r f
-2.1069 G r g
-1.7834 G r h
-1.0310 G r i
-1.9185 G r j
-1.3927 G r k
-2.1069 G r l
-2.1069 G r m
-2.1069 G r n
-2.1069 G r o
-1.7834 G r p
-2.1414 G r q
-1.4385 G r q_a
-1.2788 G r s
-1.4385 G r t
-1.4385 G r t_l
-1.6302 G r u
-1.9185 G r v
-1.9150 G r w
-1.6302 G r x
-1.3135 G r y
-2.1069 G r ya_q
-1.4701 G rf T
-1.5046 G rf _S_
-1.4701 G rf g
-1.4701 G rf h
-1.4701 G rf i
-1.5046 G rf j
-1.2816 G rf k
-1.5046 G rf n
-1.4701 G rf r
-1.4701 G rf t
-1.4701 G rf u
-1.5046 G rf w
-0.6097 G rf y
-1.5593 G s A
-1.5593 G s T
-1.3674 G s a
-1.5593 G s a_md
-1.5593 G s dh
-1.5593 G s g
-0.9420 G s i
-1.3674 G s m
-1.5593 G s n
-1.5593 G s q
-1.5938 G s rf
-0.7659 G s u
-1.5593 G s v
-1.3674 G s w
-1.4218 G t A
-1.4218 G t _S_
-1.2333 G t a
-1.4218 G t a_q
-0.8045 G t i
-1.4218 G t j
-1.2333 G t n
-1.4218 G t r
-1.4218 G t rf
-0.6284 G t u
-1.4563 G t w
-1.9407 G t_l &
-0.8835 G t_l A
-1.0928 G t_l E
-2.1292 G t_l P
-1.9407 G t_l Y
-2.1292 G t_l Z
-1.4607 G t_l _S_
-1.4150 G t_l _q_
-0.7429 G t_l a
-2.1292 G t_l b
-2.1292 G t_l d
-2.1637 G t_l g
-1.4607 G t_l h
-1.1845 G t_l i
-2.1637 G t_l l
-2.1637 G t_l m
-1.3010 G t_l n
-1.9407 G t_l p
-2.1292 G t_l q
-2.1292 G t_l q_a
-1.2389 G t_l r
-2.1292 G t_l s
-2.1292 G t_l t
-2.1637 G t_l u
-1.1362 G t_l w
-1.3010 G t_l y
-1.5119 G t_l ya_q
-2.4461 G u &
-2.6725 G u A
-2.6380 G u E
-1.4766 G u G
-2.3145 G u H
-1.6450 G u P
-2.4461 G u S
-1.3923 G u T
-1.9695 G u Y
-1.6227 G u Z
-1.1995 G u _S_
-1.8446 G u _q_
-2.4461 G u a
-2.6380 G u a_md
-1.4052 G u b
-1.5258 G u d
-2.6725 G u dh
-1.8098 G u f
-1.7477 G u g
-1.6227 G u h
-1.9238 G u i
-2.4461 G u j
-1.5813 G u k
-2.0207 G u l
-1.3110 G u m
-2.4461 G u n
-1.7196 G u p
-1.1756 G u q
-2.6725 G u q_a
-1.6450 G u r
-2.6380 G u rf
-1.2610 G u s
-1.9238 G u t
-2.4461 G u t_l
-2.4495 G u v
-0.5833 G u w
-1.4924 G u x
-2.0207 G u y
-2.6380 G u ya_q
-1.8446 G u z
-1.0443 G v a
-1.2327 G v g
-0.4393 G v i
-1.2327 G v m
-1.2673 G v u
-1.2327 G v y
-2.5921 G w &
-2.1632 G w A
-2.4571 G w D
-2.4571 G w E
-1.7046 G w G
-2.3038 G w H
-1.8902 G w P
-1.9202 G w S
-1.4865 G w T
-1.9871 G w Y
-1.8111 G w Z
-1.0132 G w _S_
-1.9202 G w _q_
-1.7653 G w a
-2.1632 G w a_q
-1.2739 G w b
-1.4131 G w d
-2.4571 G w dh
-1.7441 G w f
-1.5750 G w g
-1.9524 G w h
-1.1472 G w i
-1.3421 G w j
-1.3674 G w k
-1.4131 G w l
-1.4535 G w m
-1.6039 G w n
-2.4571 G w p
-1.1798 G w q
-2.4571 G w q_a
-1.4431 G w r
-2.4571 G w rf
-1.2468 G w s
-1.4865 G w t
-2.3038 G w t_l
-1.6684 G w u
-2.1121 G w v
-1.4981 G w x
-1.4865 G w y
-2.0249 G w ya_q
-1.8622 G w z
-1.4850 G x A
-1.0083 G x _S_
-1.5196 G x a
-1.4850 G x a_md
-1.4850 G x b
-1.2966 G x i
-1.4850 G x j
-1.4850 G x k
-1.2932 G x m
-1.4850 G x q
-1.4850 G x r
-1.5196 G x s
-1.5196 G x u
-0.8166 G x w
-1.9469 G y A
-2.1900 G y D
-1.9469 G y E
-1.7506 G y G
-2.8418 G y H
-2.1900 G y J
-1.7506 G y P
-2.8418 G y S
-2.0139 G y T
-1.9791 G y Y
-2.3306 G y Z
-1.0887 G y _S_
-1.8378 G y _q_
-1.7709 G y a
-2.1388 G y a_q
-1.7129 G y b
-1.2238 G y d
-1.5249 G y dh
-1.9791 G y f
-1.6781 G y g
-1.5879 G y h
-1.5133 G y i
-1.5746 G y j
-1.4910 G y k
-1.6159 G y l
-1.3372 G y m
-1.2297 G y n
-2.8073 G y o
-1.6617 G y p
-1.8890 G y q
-2.8418 G y q_a
-1.2802 G y r
-2.4838 G y rf
-1.3149 G y s
-1.2480 G y t
-1.7313 G y t_l
-1.4210 G y u
-2.0931 G y v
-1.0802 G y w
-1.7506 G y x
-2.3306 G y ya_q
-1.7129 G y z
-1.1637 G ya_q _S_
-1.1292 G ya_q b
-1.1292 G ya_q d
-1.1292 G ya_q k
-0.8057 G ya_q t
-1.1637 G ya_q y
-1.3674 G z S
-1.1790 G z b
-1.1756 G z d
-1.0439 G z i
-1.3674 G z p
-1.3674 G z q_a
-1.3674 G z rf
-1.1790 G z u
-1.1756 G z y
-1.2327 H A T
-1.2327 H A _S_
-1.2327 H A b
-1.2327 H A d
-1.2327 H A h
-1.2673 H A m
-1.2673 H A n
-1.2327 H A r
-1.2673 H A s
-1.2327 H A y
-1.2673 H A z
-1.0364 H D H
-1.0364 H D q
-1.0364 H D u
-0.8480 H D w
-1.2547 H E Y
-1.4466 H E _S_
-1.4811 H E a
-1.4466 H E b
-1.4811 H E d
-1.4811 H E k
-1.4466 H E m
-0.9699 H E n
-1.4466 H E p
-1.4466 H E r
-1.4466 H E s
-1.4466 H E u
-1.2582 H E w
-1.1231 H E y
-1.2582 H E ya_q
-1.1613 H G _S_
-1.1613 H G a
-1.1959 H G i
-1.1613 H G k
-1.1613 H G t_l
-0.5441 H G w
-1.1613 H G y
-0.6990 H J _S_
-0.5393 H J i
-1.3674 H J j
-1.3674 H J m
-1.4020 H J s
-1.0439 H J y
-0.9092 H P _S_
-1.2327 H P g
-1.2673 H P i
-0.9092 H P k
-1.2327 H P q
-1.2327 H P rf
-1.2327 H P t
-1.2673 H P y
-1.0498 H S m
-0.6918 H S u
-0.8268 H S w
-1.1790 H T E
-1.3674 H T _S_
-0.5740 H T a
-1.3674 H T g
-1.1790 H T i
-1.1790 H T u
-1.1756 H T w
-1.3674 H T ya_q
-0.8903 H Y g
-0.8903 H Y t
-0.6173 H Z u
-1.9183 H _S_ A
-1.9183 H _S_ D
-1.9183 H _S_ J
-1.7299 H _S_ T
-1.2041 H _S_ a
-1.9183 H _S_ b
-1.9183 H _S_ d
-1.7265 H _S_ g
-1.9529 H _S_ h
-0.9254 H _S_ i
-1.9183 H _S_ j
-1.2499 H _S_ k
-1.7299 H _S_ m
-1.2499 H _S_ n
-1.9529 H _S_ p
-1.7265 H _S_ q
-1.7299 H _S_ r
-1.9183 H _S_ rf
-1.4416 H _S_ t
-1.5948 H _S_ t_l
-0.8239 H _S_ u
-1.1249 H _S_ w
-1.3010 H _S_ y
-1.9529 H _S_ ya_q
-1.2193 H _q_ _S_
-1.2539 H _q_ f
-1.2539 H _q_ i
-1.2539 H _q_ k
-1.2539 H _q_ s
-1.2539 H _q_ t
-1.2193 H _q_ w
-1.4385 H a H
-1.4730 H a _S_
-1.4385 H a _q_
-1.4385 H a b
-1.2466 H a d
-0.8212 H a k
-1.1150 H a l
-1.4730 H a n
-1.4385 H a r
-1.4385 H a s
-1.4385 H a w
-1.4385 H a y
-1.4730 H a z
-1.0364 H a_md A
-1.0364 H a_md E
-0.8446 H a_md w
-1.2299 H a_q _S_
-1.4218 H a_q g
-0.9451 H a_q i
-1.4563 H a_q j
-1.4563 H a_q k
-1.4563 H a_q l
-1.2333 H a_q n
-1.0983 H a_q r
-1.4218 H a_q u
-0.8045 H a_q y
-1.5876 H b &
-1.5530 H b A
-1.5530 H b E
-1.0763 H b a
-1.5530 H b a_q
-0.6927 H b i
-1.5530 H b j
-1.5876 H b k
-1.5530 H b l
-1.5530 H b m
-1.5530 H b rf
-1.5530 H b t_l
-1.0763 H b u
-1.5876 H b w
-1.3612 H b y
-1.5046 H d A
-1.4701 H d E
-1.4701 H d G
-1.2816 H d a
-1.2816 H d a_q
-0.7145 H d i
-1.4701 H d o
-1.5046 H d p
-1.2816 H d r
-1.4701 H d rf
-1.5046 H d t_l
-0.8016 H d u
-1.4701 H d y
