# VAD: 1
# Viterbi loop action: No record

BIGRAM: method Katz, cutoff 1
coef[7]: 0.000000 0.990000 0.990000 0.990000 0.990000 0.990000 0.990000

TRIGRAM: method Katz, cutoff 1
coef[4]: 0.000000 0.787872 0.990000 0.990000

\data\
ngram 1=41
ngram 2=1482
ngram 3=33844

\1-grams:
-1.5463 &	-1.7450
-2.1184 &r	-1.0114
-99.9900 </s>
-99.9900 <s>
-1.6591 >	-1.5355
-1.6908 @	-1.4461
-1.7436 A	-1.4857
-1.7048 C	-1.6668
-1.4973 E	-1.6353
-1.9478 I	-1.1201
-1.4974 N	-1.7569
-1.3392 cC	-4.3634
-1.9379 cCh	-1.3817
-1.6515 e	-1.7294
-2.1557 f	-2.8095
-1.3059 i	-1.8602
-1.5031 ixr	-1.5539
-1.4694 j	-1.3527
-1.9246 jw	-2.9706
-1.6174 k	-0.8544
-1.7592 kh	-0.8605
-1.7213 l	-0.8322
-1.5887 m	-0.8257
-1.4837 n	-1.6918
-1.4884 o	-1.4470
-1.5452 p	-1.0394
-2.3461 ph	-2.2826
-2.1409 r&	-0.4774
-1.8278 s	-0.9810
-1.3712 sr	-1.7902
-1.7090 t	-0.8514
-0.9525 tc	-2.8412
-2.0600 th	-0.6211
-1.9877 thsr	-0.8864
-1.8245 ts	-3.8698
-2.1976 tsh	-0.6766
-1.5878 tsr	-1.3313
-1.3069 u	-1.8765
-1.4187 w	-1.2420
-1.5232 x	-1.1673
-1.4990 y	-1.6618

\2-grams:
-2.3048 & &r	-0.3304
-2.6445 & >	-0.2511
-2.8800 & @	-0.0402
-2.6058 & A	-0.1452
-1.4297 & C	-0.1887
-2.6152 & E	-0.2451
-2.3759 & I	-0.3543
-1.1922 & N	-0.1600
-1.7270 & cC	-0.1612
-2.1872 & cCh	-0.3716
-2.3927 & e	-0.1013
-1.8586 & f	-0.3956
-1.6070 & i	-0.3476
-1.8970 & ixr	-0.4337
-1.6232 & j	-0.4822
-2.2017 & jw	-0.1616
-2.1630 & k	-0.2603
-2.2361 & kh	-0.3171
-1.2846 & l	-0.5136
-1.1312 & m	-0.5836
-1.0863 & n	-0.3450
-2.1663 & o	-0.2708
-2.1630 & p	-0.2191
-2.4102 & ph	-0.3170
-2.0457 & r&	-0.1004
-1.5246 & s	-0.2161
-1.1253 & sr	+1.0792
-2.5027 & t	-0.2165
-0.5666 & tc	-1.0682
-2.2401 & th	-0.4361
-2.2282 & thsr	-0.1248
-2.3759 & ts	-0.2054
-2.4285 & tsh	-0.2164
-1.9006 & tsr	-0.4953
-1.8844 & u	-0.2948
-1.3933 & w	-0.2073
-1.3375 & x	-0.7431
-1.9272 & y	-0.2713
-2.0826 &r &	-0.2100
-2.3256 &r >	-0.1498
-1.8997 &r @	-0.2363
-1.8798 &r A	-0.2157
-1.5445 &r C	-0.2572
-2.2145 &r E	-0.2341
-2.2543 &r I	-0.0851
-1.2915 &r N	-0.5203
-1.2750 &r cC	-0.0722
-1.6803 &r cCh	-0.2897
-2.1963 &r e	-0.0747
-2.0680 &r f	-0.1600
-1.6370 &r i	-0.4263
-1.6886 &r ixr	-0.3788
-1.5001 &r j	-0.5445
-2.1963 &r jw	-0.0591
-1.5909 &r k	-0.2410
-1.5342 &r kh	-0.3939
-1.4137 &r l	-0.1878
-1.8502 &r m	-0.2025
-1.3141 &r n	-0.2557
-2.1963 &r o	-0.1525
-1.6844 &r p	+0.0256
-2.1963 &r ph	-0.0947
-2.0294 &r r&	-0.3183
-1.6803 &r s	-0.2130
-1.0721 &r sr	-0.5792
-2.0580 &r t	-0.0879
-0.7655 &r tc	-0.3616
-2.0113 &r th	-0.3342
-1.9381 &r thsr	-0.2334
-1.6681 &r ts	+0.0079
-1.8150 &r tsh	-0.2448
-1.5342 &r tsr	-0.4577
-1.9233 &r u	-0.1212
-1.2966 &r w	-0.2733
-1.3195 &r x	-0.1277
-1.7877 &r y	-0.1962
-2.0512 > &	-0.3138
-2.0545 > &r	-0.2988
-2.0647 > @	-0.0952
-2.0579 > A	-0.2475
-1.5808 > C	-0.3593
-2.7179 > E	-0.2254
-2.3754 > I	-0.3490
-1.2158 > N	-0.4273
-1.6242 > cC	-0.1282
-2.0468 > cCh	-0.2647
-1.7183 > e	-0.1975
-2.1077 > f	-0.3850
-1.7198 > i	-0.5552
-1.9380 > ixr	-0.2533
-1.6556 > j	-0.6257
-2.0501 > jw	-0.2208
-1.7787 > k	-0.2672
-1.7663 > kh	-0.4106
-1.3669 > l	-0.3152
-1.2631 > m	-0.6234
-1.3028 > n	-0.4568
-2.2417 > o	-0.0762
-1.7408 > p	-0.2568
-2.3282 > ph	-0.1685
-1.9055 > r&	-0.3900
-1.6167 > s	-0.6802
-1.1054 > sr	-0.7801
-2.4532 > t	-0.2743
-0.6571 > tc	+0.0566
-2.1876 > th	-0.3137
-2.1115 > thsr	-0.3977
-2.1970 > ts	-0.2095
-2.3683 > tsh	-0.2428
-1.7559 > tsr	-0.4485
-1.6396 > u	-0.2500
-1.2805 > w	-0.6764
-1.1363 > x	-0.7063
-1.9818 > y	-0.2786
-2.0470 @ &	-0.2965
-1.9602 @ &r	-0.4082
-2.6019 @ >	-0.1524
-2.0690 @ A	-0.3469
-1.6123 @ C	-0.4685
-1.7736 @ E	-0.3989
-2.2902 @ I	-0.2909
-0.9404 @ N	-1.0313
-2.0052 @ cC	-0.2777
-2.3809 @ cCh	-0.3604
-2.0052 @ e	-0.3927
-2.4663 @ f	-0.0559
-1.2628 @ i	-0.6151
-1.7711 @ ixr	-0.3865
-0.8203 @ j	-1.5836
-2.1468 @ jw	-0.0397
-2.5270 @ k	-0.1766
-2.3509 @ kh	-0.2997
-1.2136 @ l	-0.4114
-1.6266 @ m	-0.4827
-0.7898 @ n	-1.5617
-2.0997 @ o	-0.0151
-2.5976 @ p	-0.2846
-2.5493 @ ph	-0.2654
-2.0535 @ r&	-0.2706
-2.0052 @ s	-0.3151
-1.2681 @ sr	-0.8025
-2.7488 @ t	-0.1319
-1.1710 @ tc	-0.5095
-2.2902 @ th	-0.3935
-2.5058 @ thsr	-0.1746
-2.8280 @ ts	-0.3979
-2.8068 @ tsh	-0.1014
-2.1378 @ tsr	-0.0052
-2.0427 @ u	-0.2564
-1.1920 @ w	-0.9682
-1.5402 @ x	-0.4085
-1.7091 @ y	-0.4519
-2.0237 A &	-0.2992
-1.8658 A &r	-0.3199
-1.9376 A >	-0.0710
-1.9163 A @	-0.3032
-1.9872 A C	-0.3225
-2.8765 A E	-0.1047
-2.3128 A I	-0.2770
-0.9267 A N	-1.0502
-1.6433 A cC	+0.1300
-2.0232 A cCh	-0.1250
-2.3128 A e	-0.1946
-1.9690 A f	-0.3646
-2.1897 A i	-0.2874
-2.0985 A ixr	-0.4006
-1.9364 A j	-0.1347
-2.5711 A jw	-0.0370
-1.8234 A k	-0.1458
-1.7998 A kh	-0.5012
-1.3577 A l	-0.7142
-1.2064 A m	-0.4534
-1.3790 A n	-0.4253
-1.9690 A o	-0.2426
-1.8831 A p	-0.0237
-2.4635 A ph	-0.1521
-2.1897 A r&	-0.1604
-1.6006 A s	-0.4016
-1.4005 A sr	-0.0471
-2.1468 A t	-0.0985
-0.9307 A tc	-0.1143
-2.2189 A th	-0.3271
-2.2502 A thsr	-0.3122
-2.0895 A ts	+0.0040
-2.1268 A tsh	-0.2558
-1.7998 A tsr	-0.0629
-1.3304 A u	-0.6131
-0.7778 A w	+0.0494
-1.1050 A x	-0.7306
-2.3602 A y	-0.2120
-2.1849 C &	-0.2327
-2.2999 C &r	-0.4001
-2.4567 C >	-0.2538
-2.4662 C @	-0.3378
-2.8184 C A	-0.2037
-1.6555 C E	-0.2987
-1.8526 C I	-0.1958
-2.1239 C N	-0.2582
-1.0918 C cC	-0.3903
-1.5457 C cCh	-0.1819
-1.8745 C e	-0.2304
-2.4249 C f	-0.2932
-0.8913 C i	+0.0605
-1.0058 C ixr	-1.0523
-1.2326 C j	-0.7009
-1.3248 C jw	-0.3492
-1.7806 C k	-0.4529
-1.9752 C kh	-0.3711
-2.2955 C l	-0.1617
-2.0582 C m	-0.0625
-1.5185 C n	+0.0874
-1.9689 C o	-0.2650
-1.7648 C p	-0.4067
-2.4619 C ph	-0.2910
-2.3592 C r&	-0.3602
-2.0079 C s	-0.4957
-1.8479 C sr	-0.4722
-1.8526 C t	-0.2223
-1.2663 C tc	-0.5598
-2.0469 C th	-0.1770
-1.5387 C thsr	-0.4058
-1.7001 C ts	-0.1570
-1.8273 C tsh	-0.1603
-1.2864 C tsr	-0.4551
-1.7908 C u	-0.3146
-1.9056 C w	-0.1478
-2.0079 C x	-0.2683
-0.9419 C y	-0.9055
-2.1626 E &	-0.0583
-2.0110 E &r	-0.2052
-2.9652 E >	-0.2631
-1.9070 E @	-0.2891
-1.9806 E A	-0.2231
-1.4894 E C	+0.1078
-2.4035 E I	-0.1888
-1.0818 E N	-0.3015
-1.8440 E cC	-0.4506
-2.5518 E cCh	-0.1821
-2.2932 E e	-0.1824
-1.7899 E f	-0.3757
-1.7823 E i	-0.1252
-1.8412 E ixr	-0.5719
-1.6351 E j	-0.4118
-2.3014 E jw	-0.0557
-2.2020 E k	-0.1438
-2.1923 E kh	-0.3850
-1.2507 E l	-0.4008
-1.2267 E m	-0.5236
-0.8701 E n	+0.7783
-1.7195 E o	-0.3317
-2.3183 E p	-0.0850
-2.7428 E ph	-0.1761
-1.9763 E r&	-0.3648
-1.5975 E s	-0.3498
-1.1568 E sr	-1.4024
-2.6599 E t	-0.2449
-0.6723 E tc	-1.2546
-2.3831 E th	-0.3082
-2.3541 E thsr	-0.1542
-2.4305 E ts	-0.2341
-2.4361 E tsh	-0.1934
-2.0485 E tsr	-0.1924
-2.0439 E u	-0.3417
-1.3679 E w	-0.9150
-1.3309 E x	-0.5179
-2.0259 E y	-0.4147
-1.9419 I &	-0.2703
-2.1952 I &r	-0.1994
-2.3201 I >	-0.1207
-2.4450 I @	-0.1006
-2.1440 I A	-0.0465
-1.2898 I C	-0.4077
-2.5933 I E	-0.1068
-1.3920 I N	-0.4588
-1.5688 I cC	-0.0620
-2.0659 I cCh	-0.2265
-1.7018 I e	-0.3810
-2.0525 I f	-0.1591
-1.4455 I i	-0.3515
-2.0460 I ixr	-0.1356
-1.8989 I j	-0.1721
-1.9744 I jw	-0.0582
-2.0395 I k	-0.1027
-2.1478 I kh	-0.2875
-1.4829 I l	-0.5193
-1.4375 I m	-0.1777
-1.4359 I n	-0.2443
-1.9970 I o	-0.1519
-1.9426 I p	-0.1747
-2.5498 I ph	-0.1051
-1.8989 I r&	-0.2997
-1.2188 I s	-0.6611
-0.9130 I sr	-0.0619
-2.3807 I t	-0.2559
-0.6056 I tc	-0.4012
-2.1731 I th	-0.1380
-2.0332 I thsr	-0.3158
-2.1012 I ts	-0.0823
-2.1012 I tsh	-0.1445
-1.9226 I tsr	-0.1379
-1.8113 I u	-0.3094
-1.4439 I w	-0.5866
-1.5160 I x	-0.4158
-1.7137 I y	-0.2098
-2.1997 N &	-0.1510
-2.4130 N &r	-0.2143
-2.1173 N >	-0.0663
-2.7470 N @	-0.2737
-2.4026 N A	-0.1540
-1.5008 N C	+0.2731
-2.4591 N E	-0.0508
-2.1551 N I	-0.2905
-1.1596 N cC	-0.3869
-1.7270 N cCh	-0.2125
-2.1826 N e	+0.1321
-1.8410 N f	-0.6515
-1.5049 N i	-0.2158
-1.8738 N ixr	-0.3181
-1.8026 N j	-0.6082
-2.2694 N jw	-0.2778
-1.4645 N k	-0.0524
-1.5869 N kh	-0.3334
-1.6449 N l	-0.2181
-1.3321 N m	-0.3118
-1.7602 N n	-0.6589
-2.2290 N o	-0.1085
-1.3824 N p	-0.3186
-1.9761 N ph	-0.0174
-2.2290 N r&	-0.2848
-1.5336 N s	-0.6579
-1.2963 N sr	+0.9490
-2.0460 N t	-0.3395
-0.5549 N tc	+0.6698
-1.9075 N th	-0.3886
-1.8382 N thsr	-0.2556
-1.8784 N ts	-0.1270
-1.9941 N tsh	-0.2343
-1.5116 N tsr	-0.0726
-1.5885 N u	-0.3560
-1.7172 N w	-0.3522
-1.3755 N x	-0.6279
-1.8911 N y	-0.3738
-2.0987 cC &	-0.3238
-3.2503 cC &r	-0.2652
-3.1383 cC >	-0.1273
-2.6954 cC @	-0.3275
-3.3046 cC A	-0.1576
-2.0213 cC C	-0.4734
-0.9403 cC E	-1.9308
-2.1606 cC I	-0.3808
-2.1952 cC N	-0.3243
-2.8373 cC cCh	-0.2270
-1.6592 cC e	-0.4203
-3.7069 cC f	-0.0852
-0.6226 cC i	+0.3476
-1.1769 cC ixr	+0.3183
-0.8750 cC j	-1.1169
-1.2190 cC jw	-0.5906
-2.2377 cC k	-0.2041
-2.9492 cC kh	-0.4853
-2.2089 cC l	-0.4407
-2.1754 cC m	-0.1579
-2.0305 cC n	-0.5310
-1.4445 cC o	-0.6342
-2.6612 cC p	-0.1668
-2.9622 cC ph	-0.2326
-2.3701 cC r&	-0.2668
-2.7564 cC s	-0.1890
-1.9391 cC sr	-0.0936
-2.2932 cC t	-0.3944
-1.7564 cC tc	-0.2910
-2.6174 cC th	-0.3629
-2.5217 cC thsr	-0.3269
-2.6356 cC ts	-0.5012
-2.9893 cC tsh	-0.1850
-2.4052 cC tsr	-0.4665
-1.8606 cC u	-0.0741
-2.3346 cC w	-0.4203
-2.6295 cC x	-0.2456
-0.7294 cC y	+0.1695
-1.9725 cCh &	-0.2347
-2.5439 cCh &r	-0.1113
-2.4392 cCh >	-0.0793
-2.4239 cCh @	-0.2840
-2.5853 cCh A	-0.0880
-1.6215 cCh C	-0.3832
-1.2556 cCh E	-0.3199
-2.0826 cCh I	-0.2329
-1.5376 cCh N	-0.3091
-1.6566 cCh cC	-0.2796
-1.7358 cCh e	-0.0914
-2.5202 cCh f	-0.1081
-0.8300 cCh i	-0.7545
-1.0812 cCh ixr	-0.2706
-1.2053 cCh j	-0.5683
-1.2297 cCh jw	-0.1385
-2.1416 cCh k	-0.3542
-2.5597 cCh kh	-0.1850
-1.8138 cCh l	-0.4755
-1.6645 cCh m	-0.3426
-1.4364 cCh n	-0.4583
-1.6778 cCh o	-0.1968
-1.9475 cCh p	-0.5170
-2.6032 cCh ph	-0.1426
-2.1038 cCh r&	-0.1665
-2.0896 cCh s	-0.2405
-1.5536 cCh sr	-0.4436
-2.3257 cCh t	-0.2609
-1.3257 cCh tc	-0.3734
-2.2287 cCh th	-0.3534
-2.0307 cCh thsr	-0.2183
-2.2587 cCh ts	-0.3644
-2.4348 cCh tsh	-0.2219
-1.8175 cCh tsr	-0.2792
-1.6592 cCh u	-0.4314
-1.8028 cCh w	-0.2708
-1.9955 cCh x	-0.2061
-0.7903 cCh y	-1.3003
-2.3154 e &	-0.2844
-2.8303 e &r	-0.1998
-2.7103 e >	-0.1513
-2.7256 e @	-0.1431
-2.7748 e A	-0.1737
-1.5323 e C	+0.1927
-1.0965 e E	-0.4589
-2.5056 e I	-0.1544
-1.2551 e N	-0.4258
-2.0161 e cC	-0.1802
-2.4202 e cCh	-0.4323
-2.9643 e f	-0.1986
-0.6749 e i	-1.4243
-1.7419 e ixr	-0.5402
-0.7105 e j	-1.6358
-1.5795 e jw	-0.0728
-2.5886 e k	+0.0176
-2.6121 e kh	-0.3755
-1.8609 e l	-0.5351
-2.3760 e m	-0.1207
-1.1763 e n	-0.4993
-1.6632 e o	-0.4226
-2.6499 e p	-0.2387
-2.7212 e ph	-0.1877
-1.8441 e r&	-0.3147
-2.3233 e s	-0.2628
-1.3636 e sr	-0.5935
-2.8067 e t	-0.0915
-1.5420 e tc	-0.3899
-2.5556 e th	-0.4872
-2.4125 e thsr	-0.1572
-2.7534 e ts	-0.1415
-2.7534 e tsh	-0.2844
-2.4280 e tsr	-0.1221
-2.0785 e u	-0.3566
-2.0680 e w	-0.3243
-2.2876 e x	-0.1056
-0.9570 e y	-0.1220
-0.9222 f &	-0.4172
-1.5814 f &r	-0.3854
-1.2360 f >	-0.2849
-0.9884 f @	-0.1204
-1.0687 f A	-0.4260
-2.1590 f C	-0.0618
-2.4089 f E	-0.2280
-1.5814 f I	-0.4323
-1.5743 f N	+0.0271
-1.7611 f cC	-0.2310
-2.0514 f cCh	-0.3288
-1.3317 f e	-0.0621
-1.9083 f i	-0.1743
-1.4910 f ixr	-0.1178
-2.1590 f j	-0.2025
-2.9696 f jw	+0.0328
-1.5814 f k	-0.3093
-1.8068 f kh	-0.4541
-2.1079 f l	-0.3157
-1.9652 f m	-0.0914
-1.9829 f n	-0.2804
-1.4493 f o	-0.4196
-1.9160 f p	-0.1127
-2.4601 f ph	-0.1020
-2.2662 f r&	-0.0900
-2.0960 f s	-0.2164
-1.6910 f sr	-0.1916
-1.6685 f t	-0.4295
-1.8008 f tc	-0.2375
-2.1590 f th	-0.1815
-2.2328 f thsr	-0.2663
-2.0844 f ts	-0.3599
-2.2018 f tsh	-0.1735
-1.8933 f tsr	-0.1157
-0.9669 f u	-0.4157
-1.2593 f w	-0.1111
-1.7891 f x	-0.2036
-2.1871 f y	-0.0887
-2.2442 i &	-0.2158
-2.3848 i &r	-0.4579
-2.7190 i >	-0.2433
-3.0412 i @	-0.4103
-2.4249 i A	-0.2487
-1.2912 i C	-0.5158
-1.4687 i E	-0.9704
-2.3556 i I	-0.3886
-1.2573 i N	-0.4737
-1.4774 i cC	-0.5058
-2.0116 i cCh	-0.4982
-2.2398 i e	+0.0736
-2.0731 i f	-0.0159
-1.7905 i ixr	-0.4753
-1.7402 i j	-0.7367
-1.7713 i jw	-0.4461
-1.9285 i k	-0.1218
-1.8656 i kh	+0.1336
-1.6609 i l	-0.2420
-1.2861 i m	-0.9218
-1.1195 i n	-0.5522
-1.2752 i o	-1.0246
-2.1429 i p	-0.1586
-2.4533 i ph	-0.2331
-2.1231 i r&	-0.3241
-1.6695 i s	-0.2266
-1.1405 i sr	+0.6853
-2.4928 i t	-0.3167
-0.5709 i tc	-1.5474
-2.0607 i th	-0.4838
-2.0088 i thsr	-0.4301
-2.3467 i ts	-0.2518
-2.1485 i tsh	-0.5259
-2.0048 i tsr	-0.0091
-1.9712 i u	-0.3692
-1.8918 i w	-0.2528
-1.4879 i x	-0.6688
-1.6646 i y	+0.5486
-2.0201 ixr &	-0.2946
-2.1689 ixr &r	-0.3483
-2.4951 ixr >	-0.3817
-2.0984 ixr @	-0.3543
-2.0052 ixr A	-0.1866
-1.3058 ixr C	+0.4938
-2.2449 ixr E	-0.2768
-2.3300 ixr I	-0.1988
-1.4078 ixr N	-0.0881
-1.6438 ixr cC	-0.2751
-2.2340 ixr cCh	-0.1612
-2.0967 ixr e	-0.1037
-1.9241 ixr f	-0.2550
-1.5901 ixr i	-0.3638
-1.8854 ixr j	-0.0877
-2.1865 ixr jw	-0.1739
-2.0520 ixr k	-0.2232
-2.0158 ixr kh	-0.1854
-1.5052 ixr l	-0.3932
-1.4589 ixr m	-0.1283
-1.3332 ixr n	-0.1414
-1.7970 ixr o	-0.3019
-2.0688 ixr p	-0.0933
-2.2915 ixr ph	-0.4423
-1.9384 ixr r&	-0.2668
-1.3582 ixr s	-0.8394
-0.8932 ixr sr	+1.0339
-2.4535 ixr t	-0.0769
-0.5555 ixr tc	+0.6702
-2.2199 ixr th	-0.1624
-2.0615 ixr thsr	-0.1234
-2.1615 ixr ts	-0.1664
-2.2834 ixr tsh	+0.0118
-1.8268 ixr tsr	-0.3520
-1.7509 ixr u	-0.4391
-1.4824 ixr w	-0.5913
-1.4331 ixr x	-0.2640
-1.8455 ixr y	-0.2757
-1.6550 j &	-0.4406
-1.9124 j &r	-0.1198
-2.5224 j >	-0.2536
-1.3939 j @	-0.2884
-1.3111 j A	-0.4715
-1.6473 j C	-0.5066
-1.0022 j E	-0.5984
-2.3867 j I	-0.1963
-1.5104 j N	-0.5821
-1.4680 j cC	-0.3873
-2.1832 j cCh	-0.4334
-2.1687 j e	-0.2907
-2.1802 j f	-0.2645
-1.6915 j i	-0.0415
-1.8634 j ixr	-0.3709
-2.2332 j jw	-0.1751
-1.9112 j k	-0.4347
-1.9065 j kh	-0.7307
-1.6766 j l	-0.5354
-1.7835 j m	-0.2396
-1.3223 j n	-1.7522
-0.8400 j o	-1.5751
-1.9721 j p	-0.0109
-2.5443 j ph	-0.1778
-2.1744 j r&	-0.1872
-1.9457 j s	-0.5459
-1.4612 j sr	-0.6363
-2.2713 j t	-0.2523
-0.7280 j tc	-0.9837
-2.2170 j th	-0.3633
-2.1518 j thsr	-0.2553
-2.3377 j ts	-0.1735
-2.5443 j tsh	-0.2561
-1.9578 j tsr	-0.0521
-2.0582 j u	-0.3849
-1.6328 j w	-0.5802
-1.4872 j x	-0.3641
-1.9240 j y	-0.3593
-1.3487 jw &	-0.3620
-1.9130 jw &r	-0.3160
-2.7491 jw >	-0.0363
-1.4939 jw @	-0.2124
-1.8054 jw A	+0.0222
-1.7309 jw C	-0.3568
-0.4378 jw E	-1.4798
-2.0823 jw I	-0.3717
-1.7460 jw N	-0.0989
-2.4639 jw cC	+0.0805
-2.7192 jw cCh	-0.0720
-1.4210 jw e	-0.1686
-3.4225 jw f
-1.2059 jw i	-0.2768
-1.3901 jw ixr	-0.5227
-1.2430 jw j	-0.2011
-2.1963 jw k	-0.5273
-2.8161 jw kh
-2.0379 jw l	-0.3897
-2.7813 jw m	-0.1695
-2.1171 jw n	-0.2875
-0.9836 jw o	-0.2541
-2.8539 jw p	-0.0492
-2.5730 jw ph	-0.1528
-2.0144 jw r&	-0.3541
-2.2325 jw s	-0.0530
-1.3143 jw sr	-0.5534
-2.6165 jw t	-0.1809
-2.0757 jw tc	+0.1806
-2.2825 jw th	-0.2546
-2.4181 jw thsr	-0.3606
-3.0545 jw ts	-0.0635
-2.9922 jw tsh	-0.0720
-2.5942 jw tsr	-0.0674
-2.1549 jw u	-0.1624
-2.3390 jw w	-0.1196
-2.2618 jw x	-0.0291
-1.3942 jw y	-0.3538
-1.0284 k &	-0.2521
-1.7787 k &r	-0.3448
-1.0162 k >	-0.9960
-1.1331 k @	-0.6971
-1.3329 k A	-0.5130
-2.1349 k C	-0.3022
-1.2206 k E	-0.1917
-1.8464 k I	-0.4195
-1.7695 k N	-0.2342
-2.2247 k cC	-0.0816
-2.7111 k cCh	-0.2440
-1.4932 k e	-0.2217
-2.7111 k f	-0.1389
-1.5690 k i	-0.6144
-1.7695 k ixr	-0.2763
-1.5123 k j	-0.2369
-2.6710 k jw	-0.0595
-2.3895 k kh	-0.4954
-1.9102 k l	-0.4008
-1.9014 k m	-0.2226
-2.0149 k n	-0.1235
-1.2570 k o	-0.5460
-2.0852 k p	-0.4968
-2.6114 k ph	-0.2649
-2.2782 k r&	-0.7223
-2.7111 k s	-0.2988
-1.8186 k sr	-0.2531
-2.1981 k t	-0.4571
-1.6390 k tc	-0.1826
-2.3104 k th	-0.2759
-2.5123 k thsr	-0.2892
-2.7401 k ts	-0.1362
-2.9983 k tsh	-0.1620
-2.4390 k tsr	-0.2624
-0.7786 k u	-0.6129
-1.0468 k w	-0.5365
-1.7858 k x	-0.2465
-2.0471 k y	-0.2998
-1.0418 kh &	-0.6187
-1.6903 kh &r	-0.4331
-1.8073 kh >	-0.1986
-1.1946 kh @	-0.5946
-1.4751 kh A	-0.3596
-1.8719 kh C	-0.1901
-1.8703 kh E	-0.3238
-1.5395 kh I	-0.2585
-1.6073 kh N	-0.1002
-1.5908 kh cC	-0.2617
-2.0395 kh cCh	-0.1180
-1.2725 kh e	-0.4960
-2.2613 kh f	-0.2108
-1.2898 kh i	-0.4595
-1.2627 kh ixr	-0.1060
-1.5421 kh j	-0.0445
-2.0395 kh jw	+0.0164
-1.7104 kh k	-0.5471
-1.6043 kh l	-0.5022
-1.6457 kh m	-0.2952
-1.6424 kh n	-0.3201
-1.5596 kh o	-0.3327
-1.8406 kh p	-0.3640
-2.4586 kh ph	-0.1112
-1.9208 kh r&	-0.3939
-1.9401 kh s	-0.1955
-1.4232 kh sr	-0.3191
-1.6558 kh t	-0.2681
-1.5679 kh tc	-0.0669
-2.1630 kh th	-0.1916
-2.1856 kh thsr	-0.2885
-1.9208 kh ts	-0.3407
-2.3364 kh tsh	-0.3678
-1.7774 kh tsr	-0.0520
-1.1079 kh u	-0.0180
-1.3867 kh w	-0.6316
-1.7865 kh x	-0.2016
-1.5555 kh y	-0.2313
-1.0522 l &	-0.1052
-1.8751 l &r	-0.2173
-1.7033 l >	-0.1737
-1.0495 l @	-0.3071
-1.2092 l A	+0.0470
-2.3954 l C	-0.2773
-1.0368 l E	+0.3277
-2.0692 l I	-0.3460
-1.7220 l N	-0.1217
-2.1848 l cC	-0.2939
-2.5801 l cCh	-0.2422
-1.0803 l e	-0.6318
-2.8433 l f	-0.1761
-0.9384 l i	-0.3089
-1.4879 l ixr	-0.5815
-1.2155 l j	-0.6069
-1.9225 l jw	-0.5250
-1.9283 l k	-0.4328
-2.3743 l kh	-0.2225
-2.2010 l m	-0.4337
-2.2993 l n	-0.0841
-1.4066 l o	-0.3327
-1.9748 l p	-0.6544
-2.3427 l ph	-0.2763
-2.2353 l r&	-0.3154
-2.6362 l s	-0.1163
-1.9847 l sr	+0.0261
-1.5257 l t	-0.4925
-1.9813 l tc	-0.1022
-2.1541 l th	-0.2935
-2.3910 l thsr	-0.2395
-2.4454 l ts	-0.5070
-2.9225 l tsh	-0.0758
-2.5075 l tsr	-0.0114
-1.6754 l u	-0.2367
-1.7112 l w	-0.3468
-1.9027 l x	-0.4225
-1.1292 l y	-1.3043
-0.8990 m &	-1.4431
-2.0894 m &r	-0.3708
-1.0851 m >	-1.7697
-1.1470 m @	-0.2485
-1.0554 m A	-0.4338
-2.2670 m C	-0.1344
-1.5093 m E	-0.0345
-1.8790 m I	-0.3581
-1.4373 m N	-0.5248
-1.9832 m cC	-0.0962
-2.3986 m cCh	-0.3650
-0.9044 m e	-0.6703
-2.7998 m f	-0.2565
-1.2557 m i	+0.3468
-1.6883 m ixr	-0.4607
-1.5693 m j	-0.4280
-2.4987 m jw	-0.1318
-1.8437 m k	-0.3704
-2.5151 m kh	-0.2688
-2.1858 m l	-0.3193
-2.1977 m n	-0.3281
-1.4182 m o	-0.6066
-1.9433 m p	-0.6736
-2.3280 m ph	-0.3760
-2.3923 m r&	-0.1612
-2.7126 m s	-0.1955
-1.7824 m sr	-0.1885
-1.5093 m t	-0.3596
-2.0436 m tc	-0.2663
-2.0668 m th	-0.4060
-2.3390 m thsr	-0.3248
-2.0325 m ts	-0.7195
-2.8509 m tsh	-0.2731
-2.1448 m tsr	-0.2352
-1.3248 m u	-0.0575
-1.4116 m w	-0.1789
-1.9007 m x	-0.2623
-1.9663 m y	-0.4283
-1.7429 n &	-0.2649
-2.6002 n &r	-0.0971
-2.2687 n >	-0.2450
-1.8635 n @	-0.3501
-1.9223 n A	-0.4285
-1.8395 n C	-0.4607
-1.5927 n E	-0.3087
-2.0714 n I	-0.2794
-1.6416 n N	-0.5465
-1.1032 n cC	-0.3552
-1.9596 n cCh	-0.1632
-1.3997 n e	-0.4504
-1.9783 n f	-0.3956
-0.8821 n i	-1.8109
-1.6725 n ixr	-0.3602
-1.3608 n j	-0.5978
-1.8352 n jw	-0.1907
-1.5273 n k	-0.4084
-2.0690 n kh	-0.2164
-1.5101 n l	-0.6815
-1.2516 n m	-0.8404
-1.8463 n o	-0.2089
-1.4967 n p	-0.2471
-2.2189 n ph	-0.5834
-2.0667 n r&	-0.4742
-2.0858 n s	-0.1671
-1.6022 n sr	+0.6128
-1.6669 n t	-0.4693
-0.8888 n tc	-0.2907
-1.7884 n th	-0.3710
-1.9435 n thsr	-0.6353
-1.7182 n ts	-0.6653
-2.3868 n tsh	-0.3069
-1.6632 n tsr	-0.1496
-1.7331 n u	-0.4942
-1.9348 n w	-0.4056
-1.6014 n x	-0.6007
-1.5523 n y	-0.5082
-1.9093 o &	-0.1347
-2.4013 o &r	-0.2767
-1.1087 o >	+0.4384
-2.6282 o @	-0.2022
-2.0391 o A	-0.2863
-2.0348 o C	-0.3058
-2.5832 o E	-0.2596
-2.0934 o I	-0.1737
-1.1077 o N	-2.2271
-1.9494 o cC	-0.4408
-2.3447 o cCh	+0.0250
-1.7381 o e	-0.1047
-1.9530 o f	-0.4316
-2.0810 o i	-0.2134
-2.2175 o ixr	-0.3165
-2.1582 o j	-0.1347
-2.6880 o jw	-0.2953
-1.9266 o k	-0.4767
-1.9283 o kh	-0.3660
-1.7061 o l	-0.3173
-1.2454 o m	-0.6058
-1.9423 o n	-0.4064
-2.0737 o p	-0.2116
-2.6239 o ph	-0.3396
-2.1355 o r&	-0.3294
-1.8751 o s	+0.0310
-1.4229 o sr	-0.9021
-2.5390 o t	-0.0616
-1.0678 o tc	-0.6910
-2.4564 o th	-0.3066
-2.3537 o thsr	-0.1717
-2.5054 o ts	-0.3653
-2.7516 o tsh	-0.1562
-2.1701 o tsr	-0.3127
-0.7103 o u	+0.2116
-0.8575 o w	-2.2111
-1.0018 o x	-1.0468
-2.3358 o y	-0.1301
-1.1231 p &	-0.4674
-1.8542 p &r	-0.3247
-1.1529 p >	-0.8901
-1.3277 p @	-0.3460
-1.3920 p A	-0.3441
-1.9780 p C	-0.5134
-1.6254 p E	-0.5461
-1.7961 p I	-0.1386
-1.8515 p N	-0.5605
-2.0029 p cC	-0.2342
-2.2704 p cCh	-0.3715
-1.2025 p e	-0.6576
-3.0443 p f	-0.1526
-0.9867 p i	-0.4024
-1.5989 p ixr	-0.2305
-1.4084 p j	-0.2915
-1.8750 p jw	-0.5589
-2.1641 p k	-0.2532
-2.3662 p kh	-0.2738
-2.0123 p l	-0.3799
-2.0929 p m	-0.1506
-2.0625 p n	-0.3610
-1.4545 p o	-0.5821
-2.5188 p ph	-0.2546
-2.1133 p r&	-0.4934
-2.6949 p s	-0.1822
-1.7053 p sr	-0.2599
-2.2661 p t	-0.6054
-1.6463 p tc	-0.1153
-2.3882 p th	-0.3911
-2.3016 p thsr	-0.2393
-2.9323 p ts	-0.2265
-3.0443 p tsh	-0.1145
-2.4359 p tsr	-0.0908
-0.7399 p u	-1.8743
-1.3081 p w	-1.3058
-2.0546 p x	-0.3857
-1.4168 p y	-0.3640
-1.5707 ph &	-0.0972
-2.1727 ph &r	-0.2182
-1.2332 ph >	-0.2512
-1.8827 ph @	-0.2145
-1.5393 ph A	-0.2319
-1.7495 ph C	-0.1237
-1.7414 ph E	-0.3813
-2.0114 ph I	-0.0937
-1.3598 ph N	-0.4147
-1.3339 ph cC	-0.1995
-1.5007 ph cCh	-0.3213
-1.6676 ph e	-0.1256
-2.6330 ph f
-1.0811 ph i	-0.3238
-1.5495 ph ixr	-0.2373
-1.3402 ph j	-0.4290
-1.8505 ph jw	-0.1415
-1.9175 ph k	-0.0624
-2.0114 ph kh	-0.1194
-1.9297 ph l	-0.1218
-1.6225 ph m	-0.1332
-1.6164 ph n	-0.3661
-1.5495 ph o	-0.2833
-1.8827 ph p	-0.3589
-2.1314 ph r&	-0.1345
-1.7179 ph s	-0.1849
-1.4056 ph sr	-0.1913
-2.1121 ph t	-0.1536
-1.2948 ph tc	-0.3081
-1.9967 ph th	-0.1043
-1.7179 ph thsr	-0.2579
-1.6956 ph ts	-0.2665
-1.9824 ph tsh	-0.2732
-1.5495 ph tsr	-0.2542
-1.2283 ph u	-0.2803
-1.2891 ph w	-0.1441
-1.5817 ph x	-0.1546
-1.4961 ph y	-0.3965
-1.2224 r& &	-0.2166
-1.6303 r& &r	-0.2014
-1.6921 r& >	-0.1442
-1.1544 r& @	-0.1393
-1.2209 r& A	-0.4241
-2.3409 r& C	-0.0441
-1.1399 r& E	-0.2584
-1.8866 r& I	-0.2594
-1.4563 r& N	-0.2985
-1.7705 r& cC	-0.3370
-2.2476 r& cCh	-0.0913
-1.6071 r& e	-0.0358
-2.5998 r& f	-0.0764
-1.4118 r& i	-0.3040
-1.3845 r& ixr	-0.1938
-1.6578 r& j	-0.2283
-2.4002 r& jw	-0.2522
-2.1475 r& k	-0.3355
-2.2476 r& kh	-0.1477
-1.9800 r& l	-0.1005
-1.9008 r& m	-0.1399
-1.7296 r& n	-0.3295
-0.8661 r& o	-0.3567
-2.1605 r& p	-0.4001
-2.5328 r& ph	-0.0894
-2.4485 r& s	-0.1436
-1.7759 r& sr	-0.0592
-2.0355 r& t	-0.3651
-1.6661 r& tc	-0.1673
-2.1738 r& th	-0.1563
-2.1876 r& thsr	-0.1105
-2.2810 r& ts	-0.1663
-2.6376 r& tsh	-0.0616
-2.0557 r& tsr	-0.3292
-1.0306 r& u	-0.7668
-1.2033 r& w	-0.6728
-1.5617 r& x	-0.4423
-1.7296 r& y	-0.2434
-1.2040 s &	-0.4017
-1.9065 s &r	-0.3176
-1.9101 s >	-0.1716
-1.4474 s @	-0.3690
-1.6501 s A	-0.4513
-2.0722 s C	-0.3829
-2.3688 s E	-0.1810
-1.3457 s I	-0.3263
-1.9467 s N	-0.2417
-1.1765 s cC	-0.1047
-1.4815 s cCh	-0.6935
-1.7642 s e	-0.2141
-2.0378 s f	-0.1966
-1.8617 s i	-0.3601
-1.2139 s ixr	+0.4944
-1.9668 s j	-0.4344
-2.4869 s jw	-0.3202
-1.4227 s k	-0.1653
-1.5282 s kh	-0.4598
-2.3019 s l	-0.2535
-1.7110 s m	-0.3695
-1.5237 s n	-0.2519
-1.6137 s o	-0.3521
-1.4856 s p	-0.5459
-2.3019 s ph	-0.2399
-2.3293 s r&	-0.1477
-1.7565 s sr	-0.3173
-1.4077 s t	-0.4199
-1.2597 s tc	-0.4292
-1.8491 s th	-0.2729
-1.6761 s thsr	-0.4490
-1.4775 s ts	-0.3791
-1.6998 s tsh	-0.5972
-1.3719 s tsr	-0.2829
-1.2082 s u	-0.4950
-1.4032 s w	-0.7391
-1.5838 s x	-0.0830
-1.9792 s y	-0.1529
-1.4974 sr &	+0.1604
-2.1675 sr &r	-0.5939
-2.3458 sr >	-0.3529
-2.0398 sr @	-0.2325
-2.0517 sr A	-0.2785
-2.1456 sr C	-0.3188
-1.9476 sr E	-0.2872
-1.4849 sr I	-0.4925
-1.8122 sr N	-0.6641
-1.3229 sr cC	+0.0638
-1.5830 sr cCh	-0.6281
-1.8985 sr e	+0.0448
-2.2208 sr f	-0.3097
-1.4691 sr i	-0.5389
-0.8355 sr ixr	+0.4933
-1.5072 sr j	-0.6197
-1.6669 sr jw	-0.5764
-1.6305 sr k	-0.2208
-1.8092 sr kh	-0.0850
-2.0667 sr l	-0.4667
-1.6913 sr m	-0.3603
-1.4570 sr n	-0.1311
-1.3174 sr o	-0.2499
-1.7612 sr p	-0.4641
-2.2964 sr ph	-0.3087
-2.2081 sr r&	-0.2768
-1.9730 sr s	-0.3957
-1.6720 sr t	-0.6194
-1.2531 sr tc	-0.1001
-2.0908 sr th	-0.4856
-1.6207 sr thsr	-0.6884
-1.8224 sr ts	-0.4137
-1.9893 sr tsh	-0.1046
-1.5599 sr tsr	-0.1484
-1.1263 sr u	-0.6409
-1.5322 sr w	-0.3458
-1.5748 sr x	-0.4706
-1.1958 sr y	-0.5504
-1.1818 t &	-0.3774
-1.5800 t &r	-0.5341
-1.9057 t >	-0.3234
-1.0412 t @	-0.1120
-1.1534 t A	+0.5409
-2.1757 t C	-0.4010
-1.0129 t E	-0.3752
-1.9495 t I	-0.2786
-1.4252 t N	-0.3535
-2.2244 t cC	-0.1135
-2.7492 t cCh	-0.0965
-1.5631 t e	-0.2713
-2.5198 t f	-0.2779
-1.1724 t i	-0.7237
-1.6181 t ixr	-0.2503
-1.1779 t j	-0.3955
-1.9648 t jw	-0.2702
-2.3705 t k	-0.2741
-2.7492 t kh	-0.1012
-1.9206 t l	-0.3243
-1.9150 t m	-0.3855
-1.6622 t n	-0.3293
-1.1083 t o	-0.2733
-2.6057 t p	-0.2590
-2.9348 t ph	-0.0436
-2.3256 t r&	-0.2668
-2.6338 t s	-0.2489
-1.7866 t sr	-0.3996
-1.7343 t tc	+0.0816
-2.6195 t th	-0.1426
-2.6338 t thsr	-0.1518
-3.1567 t ts	-0.1266
-3.2078 t tsh	-0.0720
-2.6959 t tsr	-0.2948
-1.2920 t u	-0.6391
-1.1166 t w	-0.7607
-1.5034 t x	-0.7008
-1.5232 t y	-0.3770
-2.3832 tc &	-0.1191
-2.8383 tc &r	-0.4776
-2.7225 tc >	-0.3982
-2.6569 tc @	-0.3214
-2.8717 tc A	-0.3958
-2.3106 tc C	-0.6542
-2.8105 tc E	-0.2426
-2.2556 tc I	-0.3377
-2.8989 tc N	-0.1981
-0.7142 tc cC	+0.1502
-1.5305 tc cCh	-1.0172
-2.1415 tc e	-0.1594
-2.3542 tc f	-0.6231
-2.0639 tc i	-0.3259
-1.9578 tc ixr	-0.6187
-2.2279 tc j	-0.5888
-2.5431 tc jw	-0.0609
-1.0404 tc k	+0.8129
-1.2332 tc kh	+0.9329
-2.5841 tc l	-0.4853
-2.6770 tc m	-0.1142
-2.5841 tc n	-0.5774
-2.7060 tc o	-0.1921
-0.8373 tc p	+0.8184
-2.1294 tc ph	-0.6045
-2.6243 tc r&	-0.3591
-2.2084 tc s	-0.5113
-1.9681 tc sr	+0.0135
-0.9953 tc t	-2.7096
-1.6421 tc th	-0.8454
-1.6473 tc thsr	-1.7439
-1.1429 tc ts
-1.8417 tc tsh	-1.2485
-0.9298 tc tsr	+1.0624
-2.0465 tc u	-0.3873
-2.0687 tc w	-1.1037
-2.0387 tc x	-0.3075
-2.3135 tc y	-0.5281
-1.2743 th &	-0.2136
-1.7150 th &r	-0.3191
-1.8400 th >	-0.1573
-1.2605 th @	-0.2600
-1.2843 th A	-0.0329
-1.9009 th C	-0.3491
-1.3654 th E	-0.3663
-1.8678 th I	-0.1390
-1.3672 th N	-0.3556
-1.4927 th cC	-0.2056
-1.8356 th cCh	-0.0666
-1.7556 th e	-0.1018
-2.2547 th f	-0.2325
-1.0934 th i	-0.2820
-1.5696 th ixr	-0.3913
-1.4096 th j	-0.2519
-1.7513 th jw	-0.2413
-1.6630 th k	-0.2664
-1.9746 th kh	-0.1998
-1.7068 th l	-0.2075
-1.6138 th m	-0.1909
-1.4503 th n	-0.7520
-1.4632 th o	-0.1104
-1.8514 th p	-0.1091
-2.6807 th ph	-0.3762
-2.3797 th r&	-0.4649
-1.9675 th s	-0.2356
-1.4881 th sr	-0.2162
-1.9470 th t	-0.1522
-1.1813 th tc	-0.4492
-2.1366 th thsr	-0.2202
-2.0195 th ts	-0.2671
-2.4175 th tsh	-0.0771
-1.8009 th tsr	-0.2783
-1.2915 th u	-0.1385
-1.4439 th w	-0.2788
-1.6076 th x	-0.2880
-1.6460 th y	-0.3705
-1.4729 thsr &	-0.2104
-1.8543 thsr &r	-0.3107
-2.0962 thsr >	-0.3330
-1.5694 thsr @	-0.1097
-1.3772 thsr A	-0.4526
-2.1123 thsr C	-0.3010
-1.9131 thsr E	-0.3431
-1.5842 thsr I	-0.4880
-1.4430 thsr N	-0.2302
-1.5745 thsr cC	-0.2687
-2.0061 thsr cCh	-0.1853
-1.7988 thsr e	-0.2021
-2.0688 thsr f	-0.3343
-1.7083 thsr i	-0.1595
-1.2547 thsr ixr	-0.4797
-1.9184 thsr j	-0.2724
-2.5100 thsr jw	-0.2574
-1.4957 thsr k	-0.3001
-1.6532 thsr kh	-0.3733
-1.6955 thsr l	-0.4124
-1.3298 thsr m	-0.6607
-1.4556 thsr n	-0.3943
-1.3436 thsr o	-0.3108
-1.7051 thsr p	-0.3510
-2.2301 thsr ph	-0.1818
-2.0763 thsr r&	-0.3534
-1.7566 thsr s	-0.2519
-1.4667 thsr sr	-0.3359
-1.9028 thsr t	-0.1021
-1.0166 thsr tc	-0.1405
-2.1246 thsr th	-0.2691
-1.9871 thsr ts	-0.1533
-2.2301 thsr tsh	-0.2120
-1.8110 thsr tsr	-0.3618
-0.9809 thsr u	-0.5429
-1.2969 thsr w	-0.4094
-1.3992 thsr x	-0.3273
-1.9630 thsr y	-0.1385
-0.8425 ts &	-0.6288
-1.8618 ts &r	-0.3106
-1.7913 ts >	-0.3726
-0.9863 ts @	-0.4615
-1.5513 ts A	-0.3189
-2.3519 ts C	-0.1886
-1.0644 ts E	-0.3784
-1.1811 ts I	-0.3607
-1.8950 ts N	-0.1264
-2.4902 ts cC	+0.0159
-2.8492 ts cCh	-0.1046
-1.5436 ts e	-0.1113
-2.5482 ts f	-0.3559
-1.8251 ts i	-0.1997
-0.9729 ts ixr	-0.2987
-1.7859 ts j	-0.2332
-2.4272 ts jw	-0.2439
-2.3519 ts k	-0.2378
-2.6529 ts kh	-0.1244
-2.0923 ts l	-0.4809
-1.9701 ts m	-0.1359
-1.8555 ts n	-0.2399
-1.1597 ts o	-0.5309
-2.2794 ts p	-0.2581
-2.7401 ts ph	-0.3356
-2.3326 ts r&	-0.3277
-2.5482 ts s	-0.2689
-2.0711 ts sr	-0.2948
-1.8715 ts t	-0.5424
-1.8462 ts tc	-0.1691
-2.4902 ts th	-0.1401
-2.6529 ts thsr	-0.2076
-3.6987 ts tsh
-2.5640 ts tsr	-0.2819
-0.9624 ts u	+0.2911
-1.3431 ts w	-0.1148
-1.9272 ts x	-0.4610
-1.8492 ts y	-0.4779
-1.2902 tsh &	-0.2718
-1.8633 tsh &r	-0.3102
-1.9024 tsh >	-0.2558
-1.6310 tsh @	-0.2004
-1.7236 tsh A	-0.1556
-1.9024 tsh C	-0.1997
-1.8980 tsh E	-0.1980
-1.4731 tsh I	-0.1135
-1.6267 tsh N	-0.2081
-1.3148 tsh cC	-0.0505
-1.7473 tsh cCh	-0.2099
-1.6878 tsh e	+0.0153
-1.9789 tsh f	-0.1790
-1.7138 tsh i	-0.2472
-1.2819 tsh ixr	-0.1686
-1.7835 tsh j	-0.2246
-2.3213 tsh jw	-0.1008
-1.5117 tsh k	-0.5163
-1.6980 tsh kh	-0.2585
-2.0203 tsh l	-0.2233
-1.4793 tsh m	-0.1791
-1.3170 tsh n	-0.3857
-1.5579 tsh o	-0.2043
-1.6492 tsh p	-0.0572
-2.3670 tsh ph	-0.2463
-2.2244 tsh r&	-0.1871
-1.7711 tsh s	-0.2374
-1.4824 tsh sr	-0.3320
-1.7835 tsh t	-0.2862
-1.1380 tsh tc	-0.3447
-1.9991 tsh th	-0.1265
-1.9596 tsh thsr	-0.4028
-1.8028 tsh ts	-0.2346
-1.7032 tsh tsr	-0.2350
-1.0159 tsh u	-0.5070
-1.1974 tsh w	-0.3041
-1.4462 tsh x	-0.2772
-1.8899 tsh y	-0.0986
-1.2240 tsr &	-0.7893
-2.2111 tsr &r	-0.2918
-2.3334 tsr >	-0.2627
-1.6730 tsr @	-0.2750
-1.6826 tsr A	-0.4618
-2.1683 tsr C	-0.3266
-1.1102 tsr E	-0.5730
-1.3989 tsr I	-0.5813
-1.8188 tsr N	-0.5014
-2.1790 tsr cC	-0.0974
-2.7697 tsr cCh	-0.0152
-1.2793 tsr e	-0.5451
-2.4327 tsr f	-0.1044
-1.3658 tsr i	-0.3970
-0.9441 tsr ixr	-1.6290
-1.3640 tsr j	-0.4675
-1.9246 tsr jw	-0.5045
-2.1493 tsr k	-0.3926
-2.6523 tsr kh	-0.1919
-1.8877 tsr l	-0.2947
-1.8897 tsr m	-0.3614
-1.5936 tsr n	-0.0959
-0.9021 tsr o	-0.6502
-2.3570 tsr p	-0.3881
-2.9533 tsr ph	-0.1453
-2.0985 tsr r&	-0.3700
-2.5078 tsr s	-0.2746
-1.7637 tsr sr	+0.0169
-2.1181 tsr t	-0.4210
-1.5554 tsr tc	-0.2195
-2.4397 tsr th	-0.1348
-2.6410 tsr thsr	-0.2212
-2.5693 tsr ts	-0.3655
-3.1181 tsr tsh	-0.0121
-0.9758 tsr u	-0.9267
-1.4785 tsr w	-0.6835
-1.6893 tsr x	-0.5124
-1.3345 tsr y	-0.5658
-2.1809 u &	-0.2186
-2.5003 u &r	-0.3990
-1.8064 u >	-0.1307
-2.8271 u @	-0.0750
-2.5217 u A	-0.2098
-1.4555 u C	-0.5031
-2.6153 u E	-0.3001
-2.4161 u I	-0.2470
-1.6237 u N	-0.3301
-1.5496 u cC	-0.2869
-1.9931 u cCh	-0.0390
-1.9567 u e	+0.0423
-1.9034 u f	-0.0082
-1.4743 u i	-0.0406
-1.9275 u ixr	-0.3879
-1.7414 u j	-0.3626
-1.9066 u jw	-0.2070
-1.7399 u k	-0.4146
-1.6617 u kh	-0.5464
-1.5877 u l	-0.2776
-1.4951 u m	-0.9798
-1.6248 u n	+0.2866
-1.9802 u o	-0.3349
-1.7075 u p	-0.2152
-2.0358 u ph	-0.2262
-1.8550 u r&	-0.3920
-1.4047 u s	-1.4543
-0.8908 u sr	+0.8964
-2.3668 u t	-0.2155
-0.6192 u tc	+0.5199
-2.0230 u th	-0.2320
-1.8436 u thsr	-0.3172
-2.2252 u ts	-0.0830
-2.0643 u tsh	-0.5375
-1.6811 u tsr	-0.2244
-1.4429 u w	-1.4093
-1.2130 u x	-2.1323
-1.6449 u y	+0.0735
-1.6512 w &	-0.4759
-2.0058 w &r	-0.1542
-0.9055 w >	-0.6777
-1.7171 w @	-0.3712
-1.7542 w A	-0.4980
-1.6398 w C	-0.5269
-2.3758 w E	-0.1873
-2.3637 w I	-0.3211
-1.5186 w N	-0.6355
-1.6060 w cC	+0.0030
-1.9587 w cCh	-0.0974
-1.3148 w e	-0.1860
-1.9946 w f	-0.3149
-1.8377 w i	-0.4399
-2.0728 w ixr	-0.3542
-1.9387 w j	-0.2353
-2.4769 w jw	-0.1459
-1.5118 w k	-0.4640
-1.4493 w kh	-1.4290
-1.7365 w l	-0.4332
-1.6385 w m	-0.2593
-1.9602 w n	-0.3559
-2.0264 w o	-0.3627
-1.6568 w p	-0.2767
-2.2708 w ph	-0.3508
-2.0894 w r&	-0.2112
-1.7384 w s	-0.0466
-1.2926 w sr	-1.3452
-2.1890 w t	-0.2314
-0.8513 w tc	+0.1925
-2.1156 w th	-0.1637
-1.9779 w thsr	-0.4424
-1.8893 w ts	+0.1414
-2.0528 w tsh	-0.2608
-1.7894 w tsr	-0.2241
-0.9437 w u	-1.7969
-1.2625 w x	-0.6660
-2.2338 w y	-0.2054
-1.4698 x &	+0.1314
-2.0133 x &r	-0.2736
-1.0187 x >	-0.4602
-1.7100 x @	-0.0692
-1.4146 x A	-0.5931
-2.3468 x C	-0.1181
-2.4706 x E	-0.2575
-1.8784 x I	-0.1123
-1.5951 x N	-0.4612
-1.5378 x cC	+0.1419
-2.0342 x cCh	-0.2070
-1.7639 x e	-0.0487
-2.2175 x f	-0.3700
-2.0845 x i	+0.1023
-1.8124 x ixr	+0.0483
-2.2797 x j	-0.2507
-2.8495 x jw	-0.1212
-1.3208 x k	-0.8355
-1.4216 x kh	-0.5195
-2.1895 x l	-0.1272
-1.7215 x m	-0.6122
-1.8067 x n	-0.1631
-1.3483 x o	-0.8449
-1.3587 x p	-0.2861
-2.2475 x ph	-0.3926
-2.3522 x r&	-0.3177
-1.9871 x s	+0.3717
-1.8298 x sr	-0.6549
-1.8239 x t	-0.3367
-1.4541 x tc	-0.1292
-2.0953 x th	-0.3553
-2.1064 x thsr	-0.3949
-1.8734 x ts	-0.1033
-2.1861 x tsh	-0.3581
-1.6925 x tsr	-0.2554
-0.7958 x u	+0.4550
-0.8525 x w	+0.7164
-2.3011 x y	-0.3415
-2.3296 y &	-0.2547
-2.5259 y &r	-0.2985
-2.6440 y >	-0.2310
-2.9636 y @	-0.0174
-2.5259 y A	-0.1777
-1.2646 y C	-0.9688
-2.1141 y E	-0.3194
-2.2875 y I	-0.4362
-1.5991 y N	-0.2040
-1.3930 y cC	-0.1004
-1.8928 y cCh	-0.2285
-2.3814 y e	-0.2076
-1.8896 y f	-0.4272
-1.5950 y i	-0.6017
-1.8199 y ixr	-0.5201
-1.8077 y j	-0.4884
-2.1141 y jw	-0.1783
-1.8738 y k	-0.3358
-1.9649 y kh	-0.4813
-1.7092 y l	-0.5358
-1.5435 y m	-0.4997
-1.3506 y n	-0.7949
-1.4119 y o	-0.5187
-1.9161 y p	-0.2366
-2.2997 y ph	-0.3092
-2.0561 y r&	-0.1929
-1.5161 y s	+0.1602
-1.0287 y sr	+0.9995
-2.3166 y t	-0.0009
-0.5134 y tc	+0.7736
-2.0829 y th	-0.2820
-1.9282 y thsr	-0.3911
-2.0514 y ts	-0.0507
-1.9611 y tsh	-0.2819
-1.7985 y tsr	-0.0118
-1.6185 y u	-0.4639
-1.6168 y w	-0.5069
-1.4244 y x	-0.1499

\3-grams:
-1.7756 & &r A
-1.5004 & &r C
-1.7756 & &r N
-1.0700 & &r cC
-1.3754 & &r cCh
-1.7756 & &r ixr
-1.5004 & &r j
-1.3754 & &r k
-1.2742 & &r kh
-1.3754 & &r l
-1.7756 & &r m
-1.7756 & &r p
-1.7756 & &r r&
-1.7756 & &r s
-1.0189 & &r sr
-0.6114 & &r tc
-1.7756 & &r ts
-1.3754 & &r tsr
-1.5004 & &r w
-1.4360 & > N
-0.9345 & > cC
-1.1607 & > ixr
-1.1607 & > l
-1.4360 & > n
-1.4360 & > p
-0.5543 & > tc
-1.1607 & > w
-1.4360 & > x
-0.9252 & @ N
-0.8002 & @ j
-0.6990 & @ n
-1.2005 & @ tc
-1.4746 & A &r
-1.4746 & A C
-1.4746 & A I
-1.4746 & A N
-1.4746 & A cC
-1.4746 & A e
-1.4746 & A k
-1.1993 & A kh
-1.4746 & A l
-0.8270 & A tc
-1.4746 & A th
-1.4746 & A tsr
-0.9731 & A w
-1.0744 & A x
-2.2505 & C &
-2.6507 & C &r
-2.3754 & C @
-1.6721 & C E
-1.7690 & C I
-2.0700 & C N
-1.0773 & C cC
-1.5058 & C cCh
-1.8482 & C e
-2.6507 & C f
-0.8988 & C i
-1.0420 & C ixr
-1.3568 & C j
-1.4010 & C jw
-1.7021 & C k
-2.0700 & C kh
-2.2505 & C l
-2.0031 & C m
-1.3568 & C n
-1.8068 & C o
-1.8482 & C p
-2.6507 & C ph
-2.3754 & C r&
-1.8482 & C s
-1.7690 & C sr
-1.8068 & C t
-1.1950 & C tc
-2.3754 & C th
-1.3858 & C thsr
-2.0700 & C ts
-1.8482 & C tsh
-1.3430 & C tsr
-1.8939 & C u
-2.2505 & C w
-2.1492 & C x
-0.8797 & C y
-1.4653 & E &r
-1.4653 & E A
-1.0651 & E N
-1.0651 & E cC
-1.0651 & E l
-0.9638 & E m
-1.0651 & E o
-0.7597 & E tc
-1.4249 & I C
-1.2999 & I N
-1.1987 & I cC
-1.7001 & I f
-1.7001 & I j
-1.7001 & I m
-1.7001 & I n
-1.7001 & I r&
-1.0525 & I s
-1.2999 & I sr
-0.3925 & I tc
-1.7001 & I th
-1.2999 & I x
-2.8839 & N &
-2.6086 & N &r
-2.3824 & N >
-2.3824 & N A
-1.4092 & N C
-2.8839 & N E
-2.1783 & N I
-1.1036 & N cC
-1.5499 & N cCh
-2.0400 & N e
-1.9053 & N f
-1.5762 & N i
-2.0400 & N ixr
-2.0022 & N j
-2.4837 & N jw
-1.5499 & N k
-1.6664 & N kh
-1.6500 & N l
-1.4686 & N m
-1.8509 & N n
-2.2362 & N o
-1.4281 & N p
-2.0022 & N ph
-2.2362 & N r&
-1.6189 & N s
-1.2960 & N sr
-2.0400 & N t
-0.4739 & N tc
-2.0400 & N th
-1.9352 & N thsr
-1.8772 & N ts
-2.4837 & N tsh
-1.3332 & N tsr
-1.7803 & N u
-1.8261 & N w
-1.4379 & N x
-1.9352 & N y
-2.3491 & cC &
-1.9488 & cC C
-0.9555 & cC E
-1.9488 & cC N
-1.7684 & cC e
-0.6544 & cC i
-1.2041 & cC ixr
-0.8223 & cC j
-1.4004 & cC jw
-2.3491 & cC k
-1.7014 & cC l
-1.7014 & cC m
-2.0738 & cC n
-1.5051 & cC o
-1.8476 & cC sr
-2.0738 & cC t
-1.5051 & cC tc
-2.0738 & cC thsr
-2.3491 & cC ts
-2.3491 & cC u
-2.0738 & cC w
-2.3491 & cC x
-0.7404 & cC y
-1.6136 & cCh &
-1.8889 & cCh C
-1.3874 & cCh E
-1.6136 & cCh N
-1.6136 & cCh e
-0.8311 & cCh i
-1.1833 & cCh ixr
-1.2413 & cCh j
-1.1321 & cCh jw
-1.8889 & cCh kh
-1.8889 & cCh l
-1.3874 & cCh m
-1.1833 & cCh n
-1.6136 & cCh p
-1.0864 & cCh tc
-1.6136 & cCh tsr
-1.4887 & cCh w
-0.8076 & cCh y
-1.1818 & e E
-1.1818 & e N
-0.5006 & e i
-0.9266 & e j
-1.6833 & e jw
-1.6833 & e n
-1.6833 & e o
-1.6833 & e sr
-1.1027 & e tc
-0.8394 & e y
-0.8468 & f &
-1.7160 & f &r
-1.4150 & f >
-0.8835 & f @
-1.3010 & f A
-1.9422 & f C
-1.8173 & f I
-1.5119 & f N
-1.5699 & f cC
-1.4607 & f e
-1.7160 & f i
-1.4150 & f ixr
-1.8173 & f j
-1.7160 & f k
-1.8173 & f kh
-1.9422 & f m
-1.7160 & f n
-1.6368 & f o
-1.5699 & f p
-2.2175 & f r&
-2.2175 & f s
-1.9422 & f sr
-1.5699 & f t
-1.7160 & f tc
-1.6368 & f tsr
-0.9678 & f u
-1.1845 & f w
-1.7160 & f x
-2.2175 & f y
-2.1938 & i &
-2.4690 & i &r
-2.1938 & i >
-1.2686 & i C
-1.7634 & i E
-1.5204 & i N
-1.3443 & i cC
-2.1938 & i cCh
-2.4690 & i e
-2.1938 & i f
-1.8214 & i ixr
-1.4112 & i j
-1.6665 & i jw
-1.6665 & i k
-2.1938 & i kh
-1.8884 & i l
-1.5873 & i m
-1.1614 & i n
-1.2515 & i o
-2.0688 & i p
-2.4690 & i ph
-2.4690 & i r&
-1.5526 & i s
-1.1480 & i sr
-0.4875 & i tc
-1.8214 & i th
-1.9675 & i thsr
-2.4690 & i ts
-2.1938 & i tsh
-2.4690 & i u
-1.6665 & i w
-1.6665 & i x
-1.6665 & i y
-2.1791 & ixr &r
-2.1791 & ixr >
-2.1791 & ixr @
-1.9038 & ixr A
-1.2626 & ixr C
-1.6776 & ixr N
-1.4223 & ixr cC
-1.6776 & ixr i
-1.7789 & ixr k
-2.1791 & ixr kh
-1.3766 & ixr l
-1.6776 & ixr m
-1.2974 & ixr n
-1.9038 & ixr p
-2.1791 & ixr ph
-2.1791 & ixr r&
-1.4223 & ixr s
-1.1213 & ixr sr
-1.9038 & ixr t
-0.3898 & ixr tc
-1.9038 & ixr ts
-1.7789 & ixr tsr
-1.5315 & ixr w
-1.5315 & ixr x
-1.8722 & j &
-2.1776 & j @
-2.4528 & j A
-1.6961 & j C
-1.3950 & j E
-1.5042 & j N
-1.1452 & j cC
-2.1776 & j cCh
-2.0526 & j f
-1.6089 & j i
-1.8722 & j ixr
-2.0526 & j jw
-1.6089 & j k
-2.0526 & j kh
-1.8052 & j l
-1.7472 & j m
-1.3716 & j n
-1.2353 & j o
-1.6089 & j p
-2.1776 & j r&
-2.1776 & j s
-1.6961 & j sr
-2.4528 & j t
-0.3808 & j tc
-2.1776 & j th
-2.0526 & j thsr
-2.0526 & j ts
-1.6503 & j tsr
-1.9513 & j w
-1.6503 & j x
-1.9513 & j y
-1.8744 & jw &
-1.8744 & jw @
-1.5991 & jw C
-0.4921 & jw E
-1.8744 & jw N
-1.8744 & jw e
-0.9927 & jw i
-1.1688 & jw ixr
-1.3729 & jw j
-1.5991 & jw k
-0.8678 & jw o
-1.4742 & jw sr
-1.5991 & jw tc
-1.8744 & jw tsr
-1.8744 & jw u
-1.1688 & jw y
-1.1563 & k &
-0.9645 & k >
-1.2075 & k @
-1.2075 & k A
-1.4116 & k E
-1.6378 & k N
-1.9131 & k cC
-1.4116 & k e
-1.5129 & k i
-1.2655 & k j
-1.9131 & k kh
-1.6378 & k l
-1.9131 & k m
-1.5129 & k o
-1.5129 & k p
-1.1563 & k tc
-1.0314 & k u
-1.0314 & k w
-1.4116 & k x
-1.5129 & k y
-1.0832 & kh &
-1.4397 & kh &r
-1.8399 & kh >
-1.3385 & kh @
-1.5647 & kh A
-1.5647 & kh C
-1.2593 & kh I
-1.8399 & kh N
-1.5647 & kh cC
-1.0832 & kh e
-1.0832 & kh i
-1.4397 & kh l
-1.8399 & kh m
-1.8399 & kh n
-1.3385 & kh o
-1.4397 & kh r&
-1.8399 & kh s
-1.3385 & kh sr
-1.4397 & kh t
-1.8399 & kh ts
-1.8399 & kh tsr
-1.1923 & kh u
-1.3385 & kh w
-1.8399 & kh y
-1.0348 & l &
-1.8429 & l &r
-1.9476 & l >
-1.0348 & l @
-1.3456 & l A
-2.5162 & l C
-1.0699 & l E
-1.8129 & l I
-1.5911 & l N
-2.0859 & l cC
-1.0348 & l e
-0.9245 & l i
-1.5740 & l ixr
-1.2037 & l j
-2.0859 & l jw
-2.0348 & l k
-2.2109 & l kh
-2.1439 & l m
-1.9098 & l n
-1.3358 & l o
-1.8751 & l p
-2.5162 & l ph
-2.2109 & l r&
-2.3913 & l s
-1.7849 & l sr
-1.5911 & l t
-1.8751 & l tc
-2.1439 & l th
-2.7915 & l thsr
-2.5162 & l ts
-2.7915 & l tsh
-1.7586 & l u
-1.9098 & l w
-1.7586 & l x
-1.1439 & l y
-0.7515 & m &
-1.9963 & m &r
-1.1693 & m >
-1.0779 & m @
-1.0153 & m A
-2.1010 & m C
-1.7807 & m E
-1.8000 & m I
-1.4611 & m N
-2.1424 & m cC
-2.5447 & m cCh
-0.9329 & m e
-2.6696 & m f
-1.4434 & m i
-1.8414 & m ixr
-1.7444 & m j
-2.9449 & m jw
-1.9963 & m k
-2.6696 & m kh
-2.2393 & m l
-2.0284 & m n
-1.4611 & m o
-2.0632 & m p
-2.9449 & m r&
-1.5983 & m sr
-1.5296 & m t
-1.7807 & m tc
-2.1010 & m th
-2.9449 & m thsr
-1.8202 & m ts
-2.9449 & m tsh
-2.3642 & m tsr
-1.3500 & m u
-1.2393 & m w
-2.1424 & m x
-2.1881 & m y
-1.7248 & n &
-2.5895 & n &r
-2.9898 & n >
-1.9831 & n @
-2.1458 & n A
-1.7401 & n C
-1.6959 & n E
-2.1872 & n I
-1.5538 & n N
-1.0834 & n cC
-1.9568 & n cCh
-1.4019 & n e
-2.2330 & n f
-0.9467 & n i
-1.5852 & n ixr
-1.4091 & n j
-1.7893 & n jw
-1.4314 & n k
-2.2330 & n kh
-1.5245 & n l
-1.3612 & n m
-1.8650 & n o
-1.5060 & n p
-2.3421 & n ph
-2.0411 & n r&
-2.0411 & n s
-1.6959 & n sr
-1.6309 & n t
-0.7981 & n tc
-1.7101 & n th
-1.9320 & n thsr
-1.5640 & n ts
-2.4883 & n tsh
-1.5245 & n tsr
-1.7101 & n u
-2.0111 & n w
-1.7559 & n x
-1.5438 & n y
-1.3291 & o >
-1.4082 & o N
-1.5095 & o cC
-1.6345 & o cCh
-1.4082 & o e
-1.9097 & o i
-1.4082 & o k
-1.6345 & o kh
-1.5095 & o l
-1.6345 & o m
-1.6345 & o n
-1.9097 & o p
-1.6345 & o sr
-1.9097 & o t
-0.9611 & o tc
-1.9097 & o tsr
-0.6758 & o u
-0.9311 & o w
-0.9611 & o x
-1.1563 & p &
-1.0692 & p >
-1.6378 & p @
-1.5129 & p A
-1.5129 & p E
-1.5129 & p I
-1.5129 & p N
-1.5129 & p e
-0.9645 & p i
-1.9131 & p ixr
-1.4116 & p j
-1.9131 & p m
-1.5129 & p o
-1.9131 & p ph
-1.5129 & p sr
-1.4116 & p tc
-0.6634 & p u
-1.5129 & p w
-1.9131 & p x
-1.2655 & p y
-1.6658 & ph &
-1.0852 & ph >
-1.3906 & ph @
-1.3906 & ph C
-1.6658 & ph E
-1.3906 & ph N
-1.6658 & ph e
-1.1644 & ph i
-1.3906 & ph ixr
-1.6658 & ph kh
-1.6658 & ph m
-1.6658 & ph p
-1.6658 & ph sr
-0.9091 & ph tc
-1.6658 & ph th
-1.6658 & ph ts
-1.6658 & ph tsr
-1.1644 & ph u
-1.3906 & ph w
-1.3906 & ph x
-1.3906 & ph y
-1.1139 & r& &
-1.7551 & r& &r
-1.5289 & r& >
-1.5289 & r& @
-1.6302 & r& A
-1.3828 & r& E
-1.6302 & r& I
-1.4497 & r& N
-1.3248 & r& cC
-2.0304 & r& cCh
-1.4497 & r& e
-1.3828 & r& i
-1.7551 & r& ixr
-1.6302 & r& j
-2.0304 & r& kh
-1.7551 & r& m
-1.3248 & r& n
-0.8477 & r& o
-2.0304 & r& p
-1.3828 & r& sr
-2.0304 & r& t
-1.7551 & r& thsr
-0.9491 & r& u
-1.5289 & r& w
-1.6302 & r& x
-1.6302 & r& y
-1.2576 & s &
-1.8459 & s &r
-1.9708 & s >
-1.5185 & s @
-1.9708 & s A
-2.2762 & s C
-1.3018 & s I
-1.6698 & s N
-1.1808 & s cC
-1.6698 & s cCh
-1.9039 & s e
-2.1513 & s f
-1.7947 & s i
-1.3176 & s ixr
-1.9039 & s j
-2.5515 & s jw
-1.2304 & s k
-1.6028 & s kh
-2.2762 & s l
-1.8459 & s m
-1.5448 & s n
-1.6350 & s o
-1.6698 & s p
-2.1513 & s ph
-2.5515 & s r&
-1.9039 & s sr
-1.4479 & s t
-1.0769 & s tc
-1.9708 & s th
-1.7490 & s thsr
-1.3510 & s ts
-1.7490 & s tsh
-1.3018 & s tsr
-1.0769 & s u
-1.5729 & s w
-1.5185 & s x
-1.9039 & s y
-1.5194 & sr &
-2.2496 & sr &r
-2.1113 & sr >
-2.0022 & sr @
-2.1483 & sr A
-2.1941 & sr C
-2.0691 & sr E
-1.4323 & sr I
-1.7504 & sr N
-1.2618 & sr cC
-1.6042 & sr cCh
-1.8261 & sr e
-2.1483 & sr f
-1.4762 & sr i
-0.8954 & sr ixr
-1.5462 & sr j
-1.7504 & sr jw
-1.6431 & sr k
-1.9178 & sr kh
-2.0022 & sr l
-1.8059 & sr m
-1.4323 & sr n
-1.3701 & sr o
-1.6859 & sr p
-2.1941 & sr ph
-2.1483 & sr r&
-1.7866 & sr s
-1.7011 & sr t
-1.2345 & sr tc
-1.9722 & sr th
-1.6859 & sr thsr
-1.6168 & sr ts
-2.0344 & sr tsh
-1.5148 & sr tsr
-1.1527 & sr u
-1.5048 & sr w
-1.5048 & sr x
-1.2507 & sr y
-1.2981 & t &
-1.1732 & t A
-1.1732 & t E
-1.5734 & t I
-1.5734 & t N
-1.1732 & t cC
-1.5734 & t e
-1.0719 & t i
-1.5734 & t ixr
-1.5734 & t l
-1.0719 & t o
-1.1732 & t u
-0.9927 & t w
-1.1732 & t x
-2.2299 & tc &
-3.2342 & tc &r
-2.5029 & tc >
-2.8039 & tc @
-2.9288 & tc A
-2.2920 & tc C
-2.7527 & tc E
-2.0257 & tc I
-3.1093 & tc N
-0.8389 & tc cC
-1.5964 & tc cCh
-1.9994 & tc e
-2.4517 & tc f
-2.1629 & tc i
-1.9146 & tc ixr
-2.2756 & tc j
-2.7527 & tc jw
-1.0665 & tc k
-1.3434 & tc kh
-2.5930 & tc l
-2.5930 & tc m
-2.7070 & tc n
-2.6278 & tc o
-0.7910 & tc p
-2.1159 & tc ph
-2.9288 & tc r&
-2.1272 & tc s
-1.9288 & tc sr
-0.9391 & tc t
-1.6578 & tc th
-1.5640 & tc thsr
-1.0423 & tc ts
-1.8205 & tc tsh
-0.9153 & tc tsr
-1.9827 & tc u
-1.8874 & tc w
-1.9994 & tc x
-2.2920 & tc y
-1.4357 & th &
-1.5607 & th >
-1.1883 & th @
-1.3345 & th E
-1.5607 & th N
-1.4357 & th cCh
-1.0334 & th i
-1.5607 & th ixr
-1.4357 & th j
-1.8359 & th jw
-1.1303 & th k
-1.3345 & th m
-1.2553 & th n
-1.3345 & th o
-1.5607 & th t
-1.1303 & th tc
-1.2553 & th u
-1.2553 & th x
-1.4357 & th y
-1.4476 & thsr &
-1.8478 & thsr >
-1.4476 & thsr A
-1.8478 & thsr E
-1.8478 & thsr I
-1.4476 & thsr N
-1.4476 & thsr i
-1.5726 & thsr ixr
-1.2672 & thsr j
-1.8478 & thsr k
-1.3464 & thsr kh
-1.5726 & thsr l
-1.3464 & thsr m
-1.8478 & thsr n
-1.2672 & thsr o
-1.3464 & thsr p
-1.8478 & thsr ph
-1.5726 & thsr sr
-1.5726 & thsr t
-1.0911 & thsr tc
-1.8478 & thsr ts
-1.8478 & thsr tsr
-1.0039 & thsr u
-1.3464 & thsr w
-1.3464 & thsr x
-0.9434 & ts &
-1.4249 & ts &r
-1.7001 & ts >
-0.9945 & ts @
-1.4249 & ts A
-1.2999 & ts E
-1.1195 & ts I
-1.4249 & ts e
-1.4249 & ts ixr
-1.7001 & ts m
-1.4249 & ts n
-0.9434 & ts o
-1.7001 & ts t
-1.1195 & ts tc
-0.9945 & ts u
-1.4249 & ts w
-1.0000 & tsh &
-1.6476 & tsh &r
-1.3723 & tsh A
-1.6476 & tsh I
-1.2474 & tsh cC
-1.2474 & tsh cCh
-0.9420 & tsh ixr
-1.3723 & tsh k
-1.6476 & tsh l
-1.6476 & tsh m
-1.3723 & tsh n
-1.6476 & tsh o
-1.3723 & tsh tc
-1.3723 & tsh thsr
-1.0000 & tsh u
-1.6476 & tsh w
-1.1425 & tsr &
-1.9002 & tsr &r
-1.7752 & tsr A
-1.1968 & tsr E
-1.5278 & tsr I
-1.3729 & tsr N
-1.9002 & tsr cC
-1.1425 & tsr e
-1.2937 & tsr i
-0.9415 & tsr ixr
-1.6739 & tsr j
-2.1754 & tsr kh
-1.7752 & tsr l
-1.2937 & tsr m
-1.6739 & tsr n
-1.0507 & tsr o
-1.9002 & tsr p
-1.9002 & tsr sr
-1.2268 & tsr tc
-1.9002 & tsr th
-2.1754 & tsr ts
-1.0305 & tsr u
-1.3315 & tsr w
-1.6739 & tsr x
-1.7752 & tsr y
-2.1917 & u >
-1.4349 & u C
-1.6902 & u N
-1.4861 & u cC
-1.6902 & u cCh
-1.7915 & u e
-2.1917 & u f
-1.4349 & u i
-2.1917 & u ixr
-1.6902 & u j
-1.5441 & u k
-1.7915 & u kh
-1.7915 & u l
-1.2752 & u m
-1.7915 & u n
-1.6902 & u o
-2.1917 & u p
-2.1917 & u ph
-1.6902 & u r&
-1.3100 & u s
-0.8451 & u sr
-2.1917 & u t
-0.6110 & u tc
-2.1917 & u th
-1.7915 & u thsr
-2.1917 & u ts
-1.9164 & u tsh
-1.6110 & u tsr
-1.2430 & u x
-1.9164 & u y
-1.7042 & w &
-1.8388 & w &r
-1.4178 & w >
-1.9260 & w @
-2.2825 & w A
-1.3751 & w C
-2.4075 & w E
-2.6828 & w I
-1.5580 & w N
-1.3120 & w cC
-1.6015 & w cCh
-1.8011 & w e
-2.0351 & w f
-1.9260 & w i
-1.8802 & w ixr
-1.9772 & w j
-2.4075 & w jw
-1.2081 & w k
-1.1990 & w kh
-1.8802 & w l
-1.5378 & w m
-1.8802 & w n
-2.2825 & w o
-1.5580 & w p
-2.1813 & w ph
-2.6828 & w r&
-1.5378 & w s
-1.2468 & w sr
-1.6250 & w t
-0.7597 & w tc
-2.1813 & w th
-1.6498 & w thsr
-1.4489 & w ts
-1.7663 & w tsh
-1.5792 & w tsr
-1.4489 & w u
-1.3889 & w x
-2.2825 & w y
-1.3128 & x &
-2.0909 & x &r
-1.0169 & x >
-1.7899 & x @
-1.6573 & x A
-2.2370 & x E
-1.6350 & x I
-1.5046 & x N
-1.5936 & x cC
-2.4633 & x cCh
-1.7319 & x e
-2.2370 & x f
-1.8946 & x i
-1.6573 & x ixr
-2.3383 & x j
-1.3449 & x k
-1.8568 & x kh
-2.2370 & x l
-1.9360 & x m
-1.6138 & x n
-1.3449 & x o
-1.2926 & x p
-2.4633 & x ph
-2.4633 & x r&
-1.8946 & x s
-1.8221 & x sr
-1.6350 & x t
-1.3797 & x tc
-2.0329 & x th
-2.3383 & x thsr
-1.8568 & x ts
-2.3383 & x tsh
-1.7599 & x tsr
-0.7687 & x u
-0.8716 & x w
-2.4633 & x y
-1.8736 & y &
-1.3464 & y C
-1.0676 & y cC
-1.3464 & y cCh
-1.5682 & y f
-1.3921 & y i
-1.7487 & y j
-1.8736 & y jw
-2.1489 & y k
-1.8736 & y kh
-1.7487 & y l
-1.7487 & y m
-1.6474 & y n
-1.7487 & y o
-1.8736 & y p
-1.7487 & y s
-1.1703 & y sr
-0.5402 & y tc
-2.1489 & y thsr
-1.8736 & y ts
-1.4433 & y tsh
-1.6474 & y tsr
-1.5682 & y u
-1.4433 & y w
-1.4433 & y x
-1.1505 &r & C
-0.9243 &r & N
-1.1505 &r & f
-1.4258 &r & l
-1.0256 &r & m
-0.7782 &r & n
-1.4258 &r & sr
-0.7202 &r & tc
-1.4258 &r & x
-1.1827 &r > C
-0.9075 &r > N
-1.1827 &r > cC
-1.1827 &r > p
-1.1827 &r > sr
-0.6812 &r > tc
-1.6087 &r @ E
-0.8062 &r @ N
-1.3334 &r @ e
-1.3334 &r @ i
-0.8519 &r @ j
-1.2085 &r @ l
-1.0280 &r @ n
-1.0280 &r @ sr
-0.8519 &r @ tc
-1.6087 &r @ w
-1.3334 &r @ x
-1.2284 &r A N
-1.6286 &r A cCh
-1.6286 &r A f
-1.6286 &r A l
-1.6286 &r A m
-1.3533 &r A n
-1.3533 &r A p
-1.3533 &r A sr
-0.7469 &r A tc
-1.6286 &r A thsr
-1.6286 &r A tsh
-0.9810 &r A u
-0.7469 &r A w
-1.2284 &r A x
-1.6886 &r C E
-1.5637 &r C I
-1.2071 &r C cC
-0.7812 &r C i
-0.9309 &r C ixr
-1.3832 &r C j
-1.5637 &r C jw
-1.4624 &r C k
-1.9639 &r C kh
-1.5637 &r C n
-1.5637 &r C p
-1.9639 &r C sr
-1.1614 &r C tc
-1.6886 &r C thsr
-1.4624 &r C tsr
-1.4624 &r C u
-1.9639 &r C w
-1.9639 &r C x
-0.8189 &r C y
-0.8937 &r E m
-0.7132 &r E n
-1.2939 &r E sr
-0.4914 &r E tc
-1.2497 &r I cC
-1.2497 &r I m
-0.4929 &r I tc
-1.9372 &r N &
-1.2960 &r N C
-2.2124 &r N E
-1.2058 &r N cC
-1.9372 &r N cCh
-2.2124 &r N e
-1.4557 &r N i
-1.7110 &r N ixr
-1.9372 &r N jw
-1.6318 &r N k
-1.3685 &r N kh
-1.4557 &r N l
-1.5068 &r N m
-1.5648 &r N n
-2.2124 &r N o
-1.6318 &r N p
-1.9372 &r N ph
-1.5648 &r N s
-1.3685 &r N sr
-1.7110 &r N t
-0.5068 &r N tc
-1.7110 &r N th
-1.6318 &r N ts
-1.9372 &r N tsh
-1.6318 &r N tsr
-1.6318 &r N u
-2.2124 &r N w
-1.5068 &r N x
-1.6318 &r N y
-1.9538 &r cC &
-2.2290 &r cC @
-1.8288 &r cC C
-1.1712 &r cC E
-2.2290 &r cC N
-1.4723 &r cC e
-0.5940 &r cC i
-1.0463 &r cC ixr
-1.0115 &r cC j
-1.1961 &r cC jw
-1.9538 &r cC k
-2.2290 &r cC m
-2.2290 &r cC n
-1.4723 &r cC o
-2.2290 &r cC r&
-2.2290 &r cC sr
-1.6484 &r cC tc
-2.2290 &r cC tsh
-1.4265 &r cC u
-2.2290 &r cC w
-2.2290 &r cC x
-0.7544 &r cC y
-1.4235 &r cCh &
-1.8237 &r cCh C
-1.3222 &r cCh E
-1.4235 &r cCh cC
-0.9072 &r cCh i
-0.9420 &r cCh ixr
-1.4235 &r cCh j
-1.4235 &r cCh jw
-1.8237 &r cCh p
-1.8237 &r cCh ph
-1.5484 &r cCh sr
-1.4235 &r cCh tc
-1.3222 &r cCh thsr
-1.8237 &r cCh tsh
-1.8237 &r cCh tsr
-1.4235 &r cCh w
-1.4235 &r cCh x
-0.7424 &r cCh y
-1.3077 &r e C
-1.3077 &r e E
-0.9075 &r e N
-0.9075 &r e i
-0.6601 &r e j
-1.3077 &r e l
-1.0324 &r e n
-1.0324 &r e y
-0.9345 &r f &
-1.1607 &r f &r
-0.7884 &r f @
-1.4360 &r f A
-1.4360 &r f N
-1.4360 &r f e
-1.1607 &r f kh
-1.4360 &r f ph
-1.4360 &r f t
-1.0358 &r f u
-1.1102 &r i C
-1.8670 &r i I
-1.4668 &r i N
-1.2863 &r i cC
-1.2194 &r i cCh
-1.5917 &r i e
-1.5917 &r i ixr
-1.5917 &r i jw
-1.3655 &r i m
-1.0645 &r i n
-1.2863 &r i o
-1.1614 &r i sr
-0.5204 &r i tc
-1.8670 &r i th
-1.8670 &r i thsr
-1.8670 &r i x
-1.8670 &r i y
-1.2347 &r ixr C
-1.8154 &r ixr I
-1.8154 &r ixr N
-1.1677 &r ixr cC
-1.8154 &r ixr f
-1.4151 &r ixr i
-1.8154 &r ixr kh
-1.5401 &r ixr l
-1.8154 &r ixr m
-1.2347 &r ixr n
-1.3139 &r ixr sr
-0.3407 &r ixr tc
-1.8154 &r ixr w
-1.4151 &r ixr x
-1.8154 &r ixr y
-2.0039 &r j @
-1.2983 &r j C
-1.5024 &r j E
-1.7286 &r j N
-0.9461 &r j cC
-1.7286 &r j cCh
-2.0039 &r j f
-1.7286 &r j i
-1.7286 &r j k
-1.2983 &r j kh
-1.4232 &r j l
-1.5024 &r j m
-1.2014 &r j n
-1.2983 &r j o
-2.0039 &r j p
-1.7286 &r j ph
-1.6037 &r j sr
-0.5993 &r j tc
-1.7286 &r j th
-1.7286 &r j thsr
-2.0039 &r j ts
-1.7286 &r j tsr
-1.4232 &r j x
-1.7286 &r j y
-0.4260 &r jw E
-1.0324 &r jw ixr
-1.3077 &r jw j
-1.3077 &r jw y
-1.3324 &r k &
-1.9131 &r k &r
-1.1106 &r k >
-1.5129 &r k @
-1.5129 &r k A
-1.5129 &r k C
-1.6378 &r k E
-1.9131 &r k N
-1.4116 &r k e
-1.9131 &r k f
-1.9131 &r k i
-1.6378 &r k ixr
-1.5129 &r k m
-1.2655 &r k n
-1.3324 &r k o
-1.9131 &r k sr
-1.1563 &r k tc
-1.9131 &r k tsr
-0.7126 &r k u
-0.8553 &r k w
-1.6378 &r k x
-1.0212 &r kh &
-0.9912 &r kh @
-1.6946 &r kh A
-1.6946 &r kh C
-1.9698 &r kh E
-1.9698 &r kh I
-1.9698 &r kh N
-1.4683 &r kh cC
-1.1673 &r kh e
-1.2131 &r kh i
-1.0881 &r kh ixr
-1.9698 &r kh j
-1.4683 &r kh l
-1.5696 &r kh m
-1.5696 &r kh n
-1.5696 &r kh o
-1.6946 &r kh p
-1.3892 &r kh sr
-1.6946 &r kh t
-1.4683 &r kh tc
-1.5696 &r kh ts
-1.9698 &r kh tsr
-1.0881 &r kh u
-1.5696 &r kh w
-1.6946 &r kh x
-1.5696 &r kh y
-1.0090 &r l &
-1.3336 &r l &r
-1.6901 &r l >
-1.2464 &r l @
-1.4427 &r l A
-1.2464 &r l E
-1.5097 &r l N
-1.0325 &r l e
-0.9656 &r l i
-1.0574 &r l ixr
-1.4427 &r l j
-1.8150 &r l k
-2.0903 &r l kh
-1.6901 &r l n
-1.2878 &r l o
-2.0903 &r l r&
-1.6901 &r l sr
-1.8150 &r l t
-1.8150 &r l tc
-1.8150 &r l u
-1.8150 &r l w
-1.8150 &r l x
-1.1117 &r l y
-0.8970 &r m &
-1.6538 &r m >
-1.0062 &r m @
-1.2536 &r m A
-1.6538 &r m I
-1.1523 &r m N
-1.6538 &r m cC
-0.8099 &r m e
-1.6538 &r m i
-1.2536 &r m ixr
-1.1523 &r m j
-1.6538 &r m l
-1.2536 &r m t
-1.6538 &r m u
-1.6538 &r m y
-1.6884 &r n &
-1.7897 &r n C
-1.9146 &r n E
-1.9146 &r n I
-1.6884 &r n N
-1.2113 &r n cC
-1.7897 &r n cCh
-1.6884 &r n e
-2.1899 &r n f
-1.0257 &r n i
-1.4331 &r n ixr
-1.4843 &r n j
-2.1899 &r n jw
-1.5423 &r n k
-2.1899 &r n kh
-1.3082 &r n l
-1.4331 &r n m
-2.1899 &r n o
-1.3874 &r n p
-2.1899 &r n ph
-1.7897 &r n r&
-2.1899 &r n s
-1.3874 &r n sr
-1.6884 &r n t
-0.8433 &r n tc
-1.7897 &r n th
-2.1899 &r n thsr
-1.4331 &r n ts
-1.4331 &r n tsr
-1.6884 &r n u
-1.6092 &r n w
-1.6092 &r n x
-1.2734 &r n y
-1.3077 &r o >
-1.3077 &r o N
-1.3077 &r o n
-0.6021 &r o tc
-0.9075 &r o u
-0.7270 &r o w
-1.1139 &r p &
-1.5443 &r p >
-1.5443 &r p @
-1.8195 &r p A
-1.5443 &r p C
-1.5443 &r p E
-1.5443 &r p I
-1.2389 &r p N
-1.5443 &r p cCh
-1.1139 &r p e
-1.3181 &r p i
-1.5443 &r p j
-1.8195 &r p l
-1.8195 &r p m
-1.8195 &r p n
-1.5443 &r p o
-1.8195 &r p t
-1.8195 &r p tc
-1.8195 &r p th
-0.9379 &r p u
-0.9756 &r p w
-1.5443 &r p x
-1.5443 &r p y
-1.3077 &r ph N
-1.3077 &r ph o
-1.3077 &r ph tc
-1.0324 &r ph w
-1.0324 &r ph x
-1.3077 &r ph y
-1.4746 &r r& &
-0.9731 &r r& @
-1.4746 &r r& A
-1.4746 &r r& C
-1.1993 &r r& E
-1.4746 &r r& N
-1.1993 &r r& cC
-1.4746 &r r& i
-1.4746 &r r& sr
-0.7179 &r r& u
-0.8270 &r r& w
-1.1181 &r s &
-1.4235 &r s &r
-1.3222 &r s @
-1.4235 &r s A
-1.2430 &r s I
-1.8237 &r s N
-1.1181 &r s cC
-1.8237 &r s cCh
-1.8237 &r s i
-0.9798 &r s ixr
-1.4235 &r s k
-1.4235 &r s kh
-1.2430 &r s n
-1.8237 &r s o
-1.8237 &r s p
-1.8237 &r s sr
-1.8237 &r s t
-1.1761 &r s tc
-1.8237 &r s thsr
-1.5484 &r s ts
-1.8237 &r s tsr
-1.4235 &r s u
-1.2430 &r s w
-1.4253 &r sr &
-1.9304 &r sr &r
-2.4319 &r sr >
-2.0317 &r sr @
-2.0317 &r sr A
-2.4319 &r sr C
-2.1567 &r sr E
-1.4253 &r sr I
-1.6752 &r sr N
-1.3990 &r sr cC
-1.5155 &r sr cCh
-1.8513 &r sr e
-2.4319 &r sr f
-1.7263 &r sr i
-0.6752 &r sr ixr
-1.9304 &r sr j
-2.0317 &r sr jw
-1.7843 &r sr k
-1.9304 &r sr kh
-2.0317 &r sr l
-1.9304 &r sr m
-1.4533 &r sr n
-1.3284 &r sr o
-1.7843 &r sr p
-2.4319 &r sr ph
-1.6294 &r sr t
-1.2315 &r sr tc
-2.0317 &r sr th
-1.5880 &r sr thsr
-1.8513 &r sr ts
-2.0317 &r sr tsh
-1.6294 &r sr tsr
-1.0166 &r sr u
-1.7843 &r sr w
-1.5502 &r sr x
-1.2315 &r sr y
-1.4460 &r t @
-1.4460 &r t A
-1.1707 &r t E
-1.4460 &r t N
-1.1707 &r t cC
-0.7404 &r t i
-1.1707 &r t ixr
-1.4460 &r t j
-1.4460 &r t jw
-1.4460 &r t o
-1.0458 &r t u
-1.4460 &r t w
-1.4460 &r t x
-2.0909 &r tc &
-2.4633 &r tc &r
-2.7385 &r tc >
-2.4633 &r tc A
-2.4633 &r tc C
-2.1579 &r tc I
-0.6856 &r tc cC
-1.3562 &r tc cCh
-2.4633 &r tc e
-2.2370 &r tc f
-2.2370 &r tc i
-1.5936 &r tc ixr
-2.3383 &r tc j
-2.7385 &r tc jw
-1.0384 &r tc k
-1.3128 &r tc kh
-2.3383 &r tc l
-2.4633 &r tc n
-2.3383 &r tc o
-0.8497 &r tc p
-2.7385 &r tc ph
-1.8946 &r tc s
-2.0329 &r tc sr
-0.9866 &r tc t
-1.5936 &r tc th
-1.6573 &r tc thsr
-1.2200 &r tc ts
-2.2370 &r tc tsh
-0.9675 &r tc tsr
-2.3383 &r tc u
-2.3383 &r tc w
-1.9360 &r tc x
-2.0909 &r tc y
-1.2174 &r th @
-0.9120 &r th A
-1.2174 &r th E
-1.4927 &r th N
-1.0925 &r th cC
-1.4927 &r th j
-1.2174 &r th jw
-1.2174 &r th m
-1.2174 &r th n
-1.0925 &r th tc
-1.2174 &r th tsr
-1.4927 &r th x
-1.0645 &r thsr A
-1.2907 &r thsr E
-1.2907 &r thsr I
-0.9183 &r thsr N
-1.5659 &r thsr ixr
-1.2907 &r thsr m
-1.1657 &r thsr n
-1.0645 &r thsr o
-1.5659 &r thsr sr
-1.1657 &r thsr tc
-1.0645 &r thsr u
-1.5659 &r thsr x
-0.9542 &r ts &
-1.8359 &r ts >
-1.5607 &r ts @
-1.8359 &r ts A
-1.5607 &r ts E
-0.8293 &r ts I
-1.4357 &r ts N
-1.5607 &r ts e
-0.8030 &r ts ixr
-1.8359 &r ts kh
-1.8359 &r ts m
-1.5607 &r ts o
-1.8359 &r ts p
-1.8359 &r ts sr
-1.8359 &r ts tc
-0.8293 &r ts u
-1.4357 &r ts w
-1.8359 &r ts x
-1.8359 &r ts y
-1.4137 &r tsh &
-1.4137 &r tsh &r
-1.6890 &r tsh @
-1.6890 &r tsh A
-1.6890 &r tsh I
-1.2888 &r tsh cC
-1.1875 &r tsh cCh
-1.6890 &r tsh f
-1.1875 &r tsh ixr
-1.6890 &r tsh m
-1.2888 &r tsh n
-1.4137 &r tsh o
-1.2888 &r tsh s
-1.2888 &r tsh sr
-1.0414 &r tsh tc
-1.4137 &r tsh th
-1.1875 &r tsh u
-1.1875 &r tsh w
-1.6890 &r tsh x
-1.4683 &r tsr &
-1.9698 &r tsr @
-1.4683 &r tsr A
-1.9698 &r tsr C
-1.2642 &r tsr E
-1.3222 &r tsr I
-1.9698 &r tsr N
-1.6946 &r tsr f
-1.1259 &r tsr i
-0.9632 &r tsr ixr
-1.4683 &r tsr j
-1.9698 &r tsr kh
-1.5696 &r tsr m
-1.2131 &r tsr n
-0.9120 &r tsr o
-1.6946 &r tsr p
-1.3892 &r tsr tc
-0.8886 &r tsr u
-1.3222 &r tsr w
-1.3892 &r tsr y
-1.3054 &r u C
-1.5807 &r u N
-1.5807 &r u cC
-1.5807 &r u e
-1.5807 &r u ixr
-1.3054 &r u j
-1.5807 &r u l
-1.5807 &r u r&
-1.3054 &r u s
-1.0000 &r u sr
-0.6642 &r u tc
-1.5807 &r u tsr
-1.0792 &r u x
-1.5807 &r u y
-1.9321 &r w &
-1.8071 &r w &r
-1.6267 &r w >
-1.9321 &r w @
-1.8071 &r w A
-1.4506 &r w C
-1.6267 &r w N
-1.1261 &r w cC
-1.5597 &r w cCh
-1.8071 &r w e
-1.4506 &r w i
-1.7059 &r w ixr
-1.9321 &r w j
-1.5017 &r w k
-1.2909 &r w kh
-1.6267 &r w l
-1.5017 &r w m
-2.2073 &r w n
-2.2073 &r w o
-2.2073 &r w p
-1.9321 &r w ph
-1.6267 &r w s
-1.5017 &r w sr
-2.2073 &r w t
-0.6724 &r w tc
-2.2073 &r w thsr
-1.5597 &r w ts
-1.8071 &r w tsr
-1.1744 &r w u
-1.0431 &r w x
-1.6039 &r x &
-2.1845 &r x &r
-1.3820 &r x >
-1.5369 &r x @
-1.4278 &r x A
-1.9093 &r x C
-2.1845 &r x I
-1.6039 &r x N
-1.1267 &r x cC
-1.4789 &r x cCh
-1.9093 &r x e
-2.1845 &r x f
-1.9093 &r x ixr
-1.0810 &r x k
-1.5369 &r x kh
-2.1845 &r x l
-1.7843 &r x m
-1.6039 &r x n
-1.5369 &r x o
-1.3028 &r x p
-1.9093 &r x r&
-1.6830 &r x s
-1.9093 &r x sr
-1.9093 &r x t
-1.4789 &r x tc
-1.7843 &r x th
-1.9093 &r x thsr
-2.1845 &r x ts
-1.5369 &r x tsr
-0.8907 &r x u
-0.9049 &r x w
-2.1845 &r x y
-1.3161 &r y C
-1.7163 &r y N
-1.4411 &r y cC
-1.7163 &r y f
-1.3161 &r y i
-1.7163 &r y ixr
-1.7163 &r y k
-1.7163 &r y m
-1.2148 &r y n
-1.7163 &r y o
-1.7163 &r y p
-1.0687 &r y sr
-0.3953 &r y tc
-1.9165 > & &r
-1.9165 > & A
-1.9165 > & C
-1.9165 > & I
-1.0726 > & N
-1.9165 > & cC
-1.9165 > & cCh
-1.9165 > & f
-1.9165 > & i
-1.5162 > & j
-1.1139 > & l
-1.1597 > & m
-1.1139 > & n
-1.6412 > & r&
-1.2688 > & sr
-0.5119 > & tc
-1.6412 > & tsr
-1.3358 > & w
-1.4150 > & x
-1.9165 > & y
-1.6378 > &r &
-1.6378 > &r A
-1.5129 > &r C
-1.2075 > &r N
-1.0314 > &r cC
-1.2655 > &r cCh
-1.4116 > &r i
-1.5129 > &r ixr
-1.9131 > &r j
-1.5129 > &r k
-1.6378 > &r l
-1.9131 > &r m
-1.2655 > &r n
-1.1563 > &r sr
-0.7682 > &r tc
-1.9131 > &r th
-1.9131 > &r thsr
-1.4116 > &r ts
-1.9131 > &r tsh
-1.5129 > &r tsr
-1.6378 > &r u
-1.5129 > &r w
-1.9131 > &r x
-1.6378 > &r y
-1.5027 > @ C
-1.2553 > @ E
-1.3222 > @ N
-1.4014 > @ e
-1.1461 > @ i
-1.9029 > @ ixr
-0.7782 > @ j
-1.5027 > @ jw
-1.4014 > @ l
-1.9029 > @ m
-0.9542 > @ n
-1.9029 > @ o
-1.6276 > @ r&
-1.1004 > @ sr
-1.3222 > @ tc
-1.9029 > @ u
-1.2553 > @ w
-1.5027 > @ x
-1.4014 > @ y
-1.6345 > A &r
-1.6345 > A @
-1.9097 > A C
-1.9097 > A I
-1.1072 > A N
-0.9611 > A cC
-1.6345 > A cCh
-1.6345 > A f
-1.4082 > A l
-1.1530 > A m
-1.4082 > A n
-1.9097 > A o
-1.9097 > A p
-1.4082 > A s
-1.2621 > A sr
-0.9933 > A tc
-1.6345 > A tsr
-1.4082 > A u
-0.8519 > A w
-1.3291 > A x
-2.1116 > C &r
-2.3868 > C @
-2.3868 > C A
-1.8854 > C E
-1.6812 > C I
-2.1116 > C N
-1.0658 > C cC
-1.5051 > C cCh
-2.1116 > C e
-0.8854 > C i
-1.0792 > C ixr
-1.1864 > C j
-1.1864 > C jw
-2.3868 > C k
-1.8854 > C l
-2.3868 > C m
-1.6301 > C n
-2.3868 > C o
-1.6812 > C p
-1.9866 > C r&
-2.1116 > C s
-1.8854 > C sr
-1.9866 > C t
-1.3802 > C tc
-2.1116 > C th
-1.7392 > C thsr
-1.5429 > C ts
-1.8854 > C tsh
-1.2833 > C tsr
-1.9866 > C u
-1.6812 > C w
-0.8135 > C y
-1.2497 > E &r
-1.2497 > E N
-1.2497 > E k
-0.9744 > E l
-1.2497 > E n
-0.8495 > E tc
-0.9744 > E w
-0.7482 > E x
-1.1876 > I C
-1.1876 > I N
-1.3126 > I cC
-1.5878 > I cCh
-1.5878 > I i
-1.5878 > I ixr
-1.5878 > I k
-1.3126 > I p
-1.0072 > I s
-0.5812 > I tc
-1.5878 > I x
-1.0864 > I y
-2.0419 > N &
-2.0999 > N &r
-1.9907 > N >
-2.7475 > N A
-1.5300 > N C
-2.1668 > N E
-2.3473 > N I
-0.9450 > N cC
-1.7988 > N cCh
-2.3473 > N e
-2.1668 > N f
-1.3539 > N i
-1.7988 > N ixr
-1.7409 > N j
-1.6228 > N k
-1.7409 > N kh
-1.4826 > N l
-1.3429 > N m
-1.6662 > N n
-2.3473 > N o
-1.4978 > N p
-2.1668 > N ph
-2.1668 > N r&
-1.5136 > N s
-1.1526 > N sr
-1.9907 > N t
-0.6396 > N tc
-1.7689 > N th
-1.9036 > N thsr
-1.7988 > N ts
-1.9450 > N tsh
-1.4009 > N tsr
-1.7988 > N u
-1.9450 > N w
-1.4679 > N x
-1.7409 > N y
-2.3391 > cC &
-1.7584 > cC C
-1.2355 > cC E
-2.0638 > cC I
-1.9389 > cC N
-1.8376 > cC e
-0.7170 > cC i
-0.9925 > cC ixr
-0.9803 > cC j
-1.1748 > cC jw
-2.0638 > cC k
-2.3391 > cC m
-1.9389 > cC n
-1.4574 > cC o
-2.3391 > cC p
-2.3391 > cC r&
-2.3391 > cC s
-1.6915 > cC sr
-1.6915 > cC tc
-2.3391 > cC thsr
-2.3391 > cC tsr
-1.8376 > cC u
-0.5872 > cC y
-1.9165 > cCh &r
-1.9165 > cCh @
-1.9165 > cCh A
-1.9165 > cCh C
-1.6412 > cCh E
-1.5162 > cCh N
-1.4150 > cCh cC
-0.8352 > cCh i
-1.1139 > cCh ixr
-1.1597 > cCh j
-1.2688 > cCh jw
-1.9165 > cCh k
-1.9165 > cCh l
-1.2109 > cCh n
-1.5162 > cCh sr
-1.1139 > cCh tc
-1.9165 > cCh thsr
-1.5162 > cCh tsr
-1.9165 > cCh u
-1.9165 > cCh x
-0.7715 > cCh y
-1.8448 > e C
-0.9110 > e E
-1.4011 > e N
-2.2450 > e cC
-0.7101 > e i
-1.7435 > e ixr
-0.8297 > e j
-1.4882 > e jw
-1.9697 > e l
-1.1001 > e n
-1.4882 > e o
-1.9697 > e r&
-2.2450 > e s
-1.5974 > e sr
-1.5974 > e tc
-1.8448 > e thsr
-2.2450 > e u
-1.8448 > e x
-0.7797 > e y
-0.8226 > f &
-1.1500 > f >
-0.9070 > f @
-1.0988 > f A
-1.3541 > f I
-1.2749 > f N
-1.4554 > f e
-1.2749 > f ixr
-1.2749 > f o
-1.8556 > f p
-1.8556 > f sr
-1.3541 > f t
-1.5803 > f tc
-1.8556 > f ts
-1.0988 > f u
-1.3541 > f w
-1.8556 > f x
-1.9682 > i &
-1.2948 > i C
-1.5958 > i E
-1.2948 > i N
-1.4409 > i cC
-1.9682 > i cCh
-2.2434 > i f
-1.5378 > i ixr
-1.7419 > i j
-1.2368 > i jw
-1.5958 > i l
-1.7419 > i m
-1.2368 > i n
-0.9358 > i o
-1.5958 > i s
-1.1622 > i sr
-1.9682 > i t
-0.5717 > i tc
-1.9682 > i th
-1.8432 > i tsr
-1.9682 > i u
-1.9682 > i x
-1.3995 > i y
-1.3776 > ixr C
-1.6250 > ixr N
-1.3776 > ixr cC
-2.0252 > ixr cCh
-1.7500 > ixr e
-1.7500 > ixr f
-1.6250 > ixr i
-1.5237 > ixr l
-1.1435 > ixr m
-1.2685 > ixr n
-2.0252 > ixr o
-2.0252 > ixr ph
-1.7500 > ixr s
-0.9674 > ixr sr
-1.7500 > ixr t
-0.4234 > ixr tc
-2.0252 > ixr tsr
-1.7500 > ixr u
-2.0252 > ixr w
-2.0252 > ixr x
-1.8062 > j &
-2.3077 > j &r
-2.3077 > j A
-1.9075 > j C
-1.2747 > j E
-1.5509 > j N
-1.1249 > j cC
-2.0324 > j cCh
-1.7270 > j i
-1.8062 > j ixr
-1.9075 > j jw
-1.7270 > j k
-1.4638 > j kh
-1.3010 > j l
-2.0324 > j m
-1.3590 > j n
-1.2499 > j o
-1.2747 > j p
-2.0324 > j r&
-1.7270 > j s
-1.5051 > j sr
-1.9075 > j t
-0.6359 > j tc
-2.0324 > j th
-2.0324 > j thsr
-1.7270 > j ts
-1.4260 > j tsr
-1.9075 > j u
-1.6601 > j w
-1.6601 > j x
-1.4638 > j y
-1.3324 > jw &
-1.0692 > jw @
-1.9131 > jw A
-0.6335 > jw E
-1.1563 > jw e
-1.4116 > jw i
-1.3324 > jw ixr
-1.3324 > jw j
-1.6378 > jw k
-1.9131 > jw l
-1.6378 > jw n
-0.8318 > jw o
-1.2655 > jw sr
-1.9131 > jw tc
-1.1106 > jw y
-1.2059 > k &
-1.7843 > k &r
-0.8022 > k >
-1.6039 > k @
-1.3820 > k A
-1.6830 > k E
-1.6830 > k I
-1.5369 > k N
-1.9093 > k cC
-1.4278 > k e
-1.7843 > k i
-1.9093 > k j
-2.1845 > k kh
-1.9093 > k l
-1.5369 > k m
-2.1845 > k n
-1.3406 > k o
-1.5369 > k p
-2.1845 > k r&
-1.7843 > k sr
-1.3028 > k tc
-2.1845 > k thsr
-2.1845 > k tsr
-0.7485 > k u
-0.9841 > k w
-1.7843 > k x
-2.1845 > k y
-1.0327 > kh &
-1.5494 > kh &r
-1.5494 > kh >
-1.1640 > kh @
-1.4402 > kh A
-2.1970 > kh C
-1.5494 > kh I
-2.1970 > kh N
-1.4914 > kh cC
-1.2184 > kh e
-1.2184 > kh i
-1.3945 > kh ixr
-1.4914 > kh j
-1.7968 > kh jw
-1.7968 > kh k
-1.7968 > kh l
-1.9217 > kh m
-1.7968 > kh n
-1.7968 > kh o
-1.6163 > kh p
-2.1970 > kh r&
-2.1970 > kh s
-1.3153 > kh sr
-1.4914 > kh t
-1.5494 > kh tc
-1.7968 > kh ts
-1.6163 > kh tsr
-1.1903 > kh u
-1.3153 > kh w
-1.7968 > kh x
-1.2805 > kh y
-1.1036 > l &
-1.9487 > l &r
-1.5897 > l >
-1.1406 > l @
-1.5897 > l A
-0.9613 > l E
-1.9487 > l I
-1.7938 > l N
-2.0156 > l cC
-2.5963 > l cCh
-1.0304 > l e
-0.9677 > l i
-1.3466 > l ixr
-1.1917 > l j
-2.0948 > l jw
-2.3210 > l k
-2.5963 > l kh
-2.5963 > l m
-2.1961 > l n
-1.2497 > l o
-2.0156 > l p
-1.9487 > l r&
-2.3210 > l s
-1.9487 > l sr
-1.7146 > l t
-2.0948 > l tc
-2.0948 > l th
-2.3210 > l thsr
-2.5963 > l tsh
-2.0156 > l u
-1.7938 > l w
-2.1961 > l x
-0.9017 > l y
-0.7609 > m &
-1.9434 > m &r
-1.0226 > m >
-1.2744 > m @
-1.2349 > m A
-1.7215 > m E
-1.6935 > m I
-1.5174 > m N
-1.8976 > m cC
-2.7001 > m cCh
-0.8602 > m e
-1.4997 > m i
-1.4505 > m ixr
-1.9945 > m j
-1.6672 > m k
-1.9945 > m l
-2.1987 > m n
-1.3294 > m o
-2.1195 > m p
-2.2999 > m ph
-2.2999 > m r&
-1.6189 > m sr
-1.5552 > m t
-2.0525 > m tc
-1.9945 > m th
-2.2999 > m thsr
-1.9945 > m ts
-2.4249 > m tsh
-2.1195 > m tsr
-1.2956 > m u
-1.5359 > m w
-1.8562 > m x
-1.9434 > m y
-1.8165 > n &
-2.3852 > n >
-2.0128 > n @
-2.0798 > n A
-1.7788 > n C
-1.4962 > n E
-2.3852 > n I
-1.6027 > n N
-0.9771 > n cC
-1.9548 > n cCh
-1.4266 > n e
-2.2602 > n f
-0.8536 > n i
-1.6818 > n ixr
-1.1677 > n j
-1.7118 > n jw
-1.4962 > n k
-1.3808 > n l
-1.7788 > n m
-1.7440 > n o
-1.6538 > n p
-2.6604 > n ph
-2.0128 > n r&
-2.0128 > n s
-1.5569 > n sr
-1.7440 > n t
-0.8989 > n tc
-1.8579 > n th
-1.9548 > n thsr
-1.4430 > n ts
-2.0798 > n tsh
-1.5792 > n tsr
-2.0128 > n u
-2.6604 > n w
-1.9037 > n x
-1.5357 > n y
-1.7216 > o &
-1.4463 > o >
-1.7216 > o I
-1.4463 > o N
-1.4463 > o cC
-1.7216 > o l
-1.3214 > o m
-1.7216 > o n
-1.0740 > o tc
-1.4463 > o tsr
-0.7150 > o u
-0.6886 > o w
-1.0740 > o x
-1.1412 > p &
-1.9472 > p &r
-0.9576 > p >
-1.5749 > p @
-1.3786 > p A
-2.2225 > p C
-1.7210 > p E
-1.8223 > p I
-2.2225 > p N
-1.3408 > p e
-1.1647 > p i
-1.4657 > p ixr
-1.3060 > p j
-1.8223 > p jw
-1.7210 > p k
-1.8223 > p l
-1.9472 > p m
-1.7210 > p n
-1.6418 > p o
-1.5749 > p sr
-1.4657 > p tc
-1.9472 > p thsr
-2.2225 > p tsr
-0.7124 > p u
-1.3786 > p w
-2.2225 > p x
-1.3408 > p y
-1.6350 > ph &
-0.9874 > ph >
-1.6350 > ph N
-1.3598 > ph cC
-1.6350 > ph cCh
-1.3598 > ph e
-0.8783 > ph i
-1.6350 > ph j
-1.6350 > ph m
-1.6350 > ph o
-1.6350 > ph p
-1.3598 > ph tc
-1.6350 > ph th
-1.2348 > ph tsr
-1.0544 > ph u
-1.6350 > ph w
-1.3598 > ph y
-1.3010 > r& &
-1.4102 > r& &r
-1.4771 > r& @
-1.5563 > r& A
-1.2553 > r& E
-1.5563 > r& N
-1.6576 > r& cC
-2.0578 > r& cCh
-1.4771 > r& e
-1.4102 > r& i
-1.0512 > r& ixr
-1.4771 > r& j
-1.6576 > r& m
-1.5563 > r& n
-0.7639 > r& o
-1.3522 > r& sr
-1.6576 > r& tc
-2.0578 > r& thsr
-1.7825 > r& ts
-1.7825 > r& tsr
-1.2553 > r& u
-1.1091 > r& w
-1.5563 > r& x
-2.0578 > r& y
-1.1823 > s &
-1.7659 > s &r
-2.0713 > s >
-1.2888 > s @
-1.6990 > s A
-2.0713 > s C
-1.2653 > s I
-1.2218 > s cC
-1.3979 > s cCh
-2.0713 > s i
-1.1823 > s ixr
-1.7659 > s j
-1.3680 > s k
-1.6410 > s kh
-2.0713 > s l
-1.5898 > s m
-1.3979 > s n
-1.6410 > s o
-1.5027 > s p
-1.5441 > s sr
-1.2653 > s t
-1.4301 > s tc
-1.6990 > s thsr
-1.5027 > s ts
-1.7659 > s tsh
-1.5441 > s tsr
-1.2888 > s u
-1.1639 > s w
-1.5898 > s x
-1.9464 > s y
-1.4991 > sr &
-2.4577 > sr &r
-2.5826 > sr >
-2.2772 > sr @
-2.0554 > sr A
-2.1011 > sr C
-2.0140 > sr E
-1.4991 > sr I
-1.8249 > sr N
-1.2995 > sr cC
-1.6937 > sr cCh
-1.9414 > sr e
-2.2772 > sr f
-1.5113 > sr i
-0.7698 > sr ixr
-1.4219 > sr j
-1.6752 > sr jw
-1.7543 > sr k
-1.9414 > sr kh
-1.9414 > sr l
-1.8001 > sr m
-1.4872 > sr n
-1.2630 > sr o
-1.7130 > sr p
-2.5826 > sr ph
-1.9093 > sr r&
-2.0140 > sr s
-1.6752 > sr t
-1.3394 > sr tc
-2.5826 > sr th
-1.6752 > sr thsr
-1.8001 > sr ts
-2.3564 > sr tsh
-1.6082 > sr tsr
-1.1921 > sr u
-1.4872 > sr w
-1.7332 > sr x
-1.0062 > sr y
-1.1099 > t &
-1.5101 > t @
-0.8045 > t A
-0.8625 > t N
-1.1099 > t e
-1.2348 > t i
-1.5101 > t ixr
-1.5101 > t j
-1.5101 > t jw
-1.5101 > t l
-1.5101 > t tc
-1.2348 > t u
-1.5101 > t w
-1.5101 > t y
-2.2995 > tc &
-3.3062 > tc &r
-2.2732 > tc >
-3.0309 > tc @
-2.9060 > tc A
-2.5494 > tc C
-3.0309 > tc E
-2.3276 > tc I
-3.0309 > tc N
-0.6263 > tc cC
-1.4467 > tc cCh
-1.9851 > tc e
-3.0309 > tc f
-2.2249 > tc i
-1.9596 > tc ixr
-2.1234 > tc j
-2.5494 > tc jw
-1.2092 > tc k
-1.5692 > tc kh
-2.2995 > tc l
-2.7255 > tc m
-2.7255 > tc n
-2.6006 > tc o
-0.8343 > tc p
-2.5037 > tc ph
-2.8047 > tc r&
-2.5494 > tc s
-1.8047 > tc sr
-0.9596 > tc t
-1.7328 > tc th
-1.5794 > tc thsr
-1.2412 > tc ts
-2.0413 > tc tsh
-0.8334 > tc tsr
-1.9851 > tc u
-1.9985 > tc w
-2.4245 > tc x
-2.2995 > tc y
-1.5004 > th &
-1.5004 > th >
-1.2742 > th @
-1.5004 > th A
-1.7756 > th C
-1.5004 > th E
-1.0189 > th cC
-1.1950 > th e
-0.9317 > th i
-1.5004 > th j
-1.7756 > th jw
-1.7756 > th k
-1.7756 > th m
-1.3754 > th n
-1.5004 > th o
-1.7756 > th p
-1.5004 > th sr
-1.7756 > th t
-1.1950 > th tc
-1.7756 > th ts
-1.5004 > th u
-1.1280 > th w
-1.5765 > thsr @
-1.5765 > thsr N
-1.4515 > thsr cC
-1.5765 > thsr cCh
-1.5765 > thsr i
-0.9700 > thsr ixr
-1.2711 > thsr k
-1.8517 > thsr l
-1.4515 > thsr m
-1.5765 > thsr n
-1.8517 > thsr o
-1.8517 > thsr p
-1.5765 > thsr ph
-1.8517 > thsr s
-1.3502 > thsr sr
-1.5765 > thsr t
-0.8731 > thsr tc
-1.5765 > thsr th
-1.5765 > thsr ts
-1.0078 > thsr u
-1.2041 > thsr w
-1.4515 > thsr x
-0.7877 > ts &
-1.4910 > ts >
-1.4910 > ts @
-1.3661 > ts E
-1.1856 > ts I
-0.7877 > ts ixr
-1.7663 > ts j
-1.7663 > ts l
-1.7663 > ts m
-1.2648 > ts o
-1.7663 > ts sr
-1.7663 > ts t
-0.8177 > ts u
-1.0607 > ts w
-1.3196 > tsh &
-1.5949 > tsh A
-1.5949 > tsh I
-1.1947 > tsh cC
-1.5949 > tsh e
-1.5949 > tsh ixr
-1.5949 > tsh m
-1.5949 > tsh n
-1.5949 > tsh p
-1.1947 > tsh sr
-1.5949 > tsh t
-1.0934 > tsh tc
-1.5949 > tsh ts
-0.7510 > tsh u
-1.0934 > tsh w
-1.1947 > tsh x
-1.4048 > tsr &
-2.2073 > tsr &r
-1.5017 > tsr @
-1.8071 > tsr A
-1.2909 > tsr E
-1.2587 > tsr I
-2.2073 > tsr cC
-2.2073 > tsr cCh
-1.2909 > tsr e
-2.2073 > tsr f
-1.2909 > tsr i
-0.8734 > tsr ixr
-1.2909 > tsr j
-1.5597 > tsr jw
-1.9321 > tsr k
-1.7059 > tsr l
-1.9321 > tsr m
-1.6267 > tsr n
-0.8863 > tsr o
-1.9321 > tsr r&
-2.2073 > tsr sr
-1.6267 > tsr tc
-2.2073 > tsr thsr
-1.1038 > tsr u
-1.2287 > tsr w
-1.2287 > tsr y
-2.3237 > u &r
-1.8222 > u >
-1.6760 > u C
-2.0484 > u I
-1.7430 > u N
-1.4797 > u cC
-1.8222 > u e
-1.8222 > u f
-1.2659 > u i
-1.7430 > u ixr
-1.7430 > u j
-1.8222 > u jw
-2.0484 > u k
-1.6760 > u kh
-1.9234 > u l
-1.6180 > u m
-1.7430 > u n
-2.0484 > u o
-1.4420 > u p
-1.8222 > u ph
-2.3237 > u r&
-1.3170 > u s
-0.8051 > u sr
-2.3237 > u t
-0.7082 > u tc
-1.9234 > u th
-1.8222 > u thsr
-2.0484 > u ts
-2.0484 > u tsh
-1.9234 > u tsr
-1.4072 > u w
-1.1787 > u x
-1.4797 > u y
-1.7663 > w &
-1.9772 > w &r
-1.0477 > w >
-1.7663 > w @
-2.1813 > w A
-1.8011 > w C
-2.1021 > w I
-1.6015 > w N
-1.1900 > w cC
-1.7663 > w cCh
-1.5000 > w e
-2.1813 > w f
-2.0351 > w i
-1.8011 > w ixr
-1.8011 > w j
-1.6498 > w k
-1.2892 > w kh
-1.5580 > w l
-1.6498 > w m
-1.8388 > w n
-1.6015 > w p
-2.1021 > w ph
-2.1813 > w r&
-1.6015 > w s
-1.2368 > w sr
-1.8802 > w t
-0.7730 > w tc
-2.1021 > w th
-2.1021 > w thsr
-1.7663 > w ts
-2.4075 > w tsh
-1.3889 > w tsr
-1.1399 > w u
-1.3120 > w x
-2.4075 > w y
-1.3617 > x &
-1.9105 > x &r
-1.0702 > x >
-1.7940 > x @
-1.7692 > x A
-2.0245 > x C
-2.2463 > x E
-1.8204 > x I
-1.6821 > x N
-1.3810 > x cC
-2.0245 > x cCh
-1.8784 > x e
-2.2463 > x f
-2.1214 > x i
-1.8204 > x ixr
-2.1794 > x j
-2.8270 > x jw
-1.2536 > x k
-1.2536 > x kh
-2.0702 > x l
-1.9453 > x m
-2.0245 > x n
-1.5931 > x o
-1.1856 > x p
-2.1794 > x ph
-2.1214 > x r&
-1.9105 > x s
-1.6628 > x sr
-1.6443 > x t
-1.3910 > x tc
-2.1794 > x th
-2.0245 > x thsr
-1.7457 > x ts
-2.1214 > x tsh
-1.4563 > x tsr
-0.8974 > x u
-0.9105 > x w
-2.3255 > x y
-1.9815 > y &r
-1.1790 > y C
-1.4008 > y cC
-1.7062 > y cCh
-1.7062 > y f
-1.7062 > y i
-1.5813 > y ixr
-1.9815 > y k
-1.5813 > y m
-1.3339 > y n
-1.7062 > y o
-1.9815 > y p
-1.7062 > y r&
-0.9002 > y sr
-1.9815 > y t
-0.5557 > y tc
-1.9815 > y th
-1.9815 > y thsr
-1.9815 > y ts
-1.5813 > y tsr
-1.4008 > y u
-1.4800 > y w
-1.4008 > y x
-1.8889 @ & &r
-0.9402 @ & N
-1.6136 @ & f
-1.4887 @ & i
-1.8889 @ & k
-1.8889 @ & l
-0.9724 @ & m
-0.8822 @ & n
-1.8889 @ & p
-1.3082 @ & sr
-1.6136 @ & t
-0.5182 @ & tc
-1.8889 @ & u
-1.8889 @ & w
-1.6136 @ & x
-1.7004 @ &r @
-1.4742 @ &r C
-1.9757 @ &r E
-1.3950 @ &r N
-0.9179 @ &r cC
-1.9757 @ &r cCh
-1.5755 @ &r i
-1.4742 @ &r ixr
-1.9757 @ &r jw
-1.3950 @ &r k
-1.3281 @ &r kh
-1.3281 @ &r n
-1.5755 @ &r p
-1.9757 @ &r r&
-1.4742 @ &r s
-1.1732 @ &r sr
-1.7004 @ &r t
-0.8308 @ &r tc
-1.4742 @ &r ts
-1.5755 @ &r tsh
-1.5755 @ &r tsr
-1.4742 @ &r w
-1.2701 @ &r x
-1.9757 @ &r y
-1.3340 @ > l
-1.3340 @ > n
-1.3340 @ > p
-0.9338 @ > sr
-0.5772 @ > tc
-1.3340 @ > u
-1.3340 @ > x
-1.3340 @ > y
-1.8670 @ A &
-1.5917 @ A &r
-0.8340 @ A N
-1.4668 @ A cC
-1.5917 @ A f
-1.5917 @ A k
-1.8670 @ A kh
-1.2863 @ A m
-1.2194 @ A n
-1.2863 @ A s
-1.8670 @ A t
-0.6495 @ A tc
-1.8670 @ A thsr
-1.2863 @ A tsr
-1.5917 @ A u
-1.2863 @ A w
-1.1614 @ A x
-2.0484 @ C &
-2.3237 @ C &r
-1.5211 @ C E
-1.8222 @ C I
-1.0587 @ C cC
-1.6180 @ C cCh
-1.7430 @ C e
-0.9771 @ C i
-0.8877 @ C ixr
-1.1409 @ C j
-1.6180 @ C jw
-1.6760 @ C k
-1.6760 @ C kh
-2.3237 @ C m
-1.4420 @ C n
-2.3237 @ C o
-1.8222 @ C p
-1.9234 @ C s
-1.7430 @ C sr
-2.0484 @ C t
-1.2424 @ C tc
-1.7430 @ C th
-1.4072 @ C thsr
-1.6760 @ C ts
-2.3237 @ C tsh
-1.1989 @ C tsr
-1.9234 @ C u
-1.8222 @ C w
-1.0298 @ C y
-1.5147 @ E C
-1.3598 @ E N
-1.2807 @ E cC
-1.7621 @ E f
-1.6609 @ E i
-1.8871 @ E ixr
-2.1623 @ E kh
-1.3598 @ E l
-0.9981 @ E m
-0.8547 @ E n
-2.1623 @ E r&
-1.4567 @ E s
-1.3184 @ E sr
-0.5890 @ E tc
-1.8871 @ E tsr
-1.8871 @ E u
-1.3184 @ E w
-1.3598 @ E x
-1.8871 @ E y
-1.3661 @ I C
-1.2412 @ I N
-1.1399 @ I cC
-1.6414 @ I cCh
-1.6414 @ I i
-1.6414 @ I k
-1.6414 @ I m
-1.2412 @ I n
-0.9938 @ I s
-1.3661 @ I sr
-0.4771 @ I tc
-1.6414 @ I thsr
-1.6414 @ I tsr
-2.0747 @ N &
-2.5910 @ N &r
-2.2344 @ N >
-2.3435 @ N @
-2.5910 @ N A
-1.3893 @ N C
-2.3435 @ N E
-2.1473 @ N I
-1.0747 @ N cC
-1.7907 @ N cCh
-2.3435 @ N e
-1.8876 @ N f
-1.4178 @ N i
-1.7262 @ N ixr
-1.7737 @ N j
-2.2856 @ N jw
-1.5165 @ N k
-1.7737 @ N kh
-1.6572 @ N l
-1.4105 @ N m
-1.7262 @ N n
-2.2344 @ N o
-1.5259 @ N p
-2.0425 @ N ph
-2.4105 @ N r&
-1.5759 @ N s
-1.3561 @ N sr
-2.2344 @ N t
-0.5101 @ N tc
-1.9334 @ N th
-1.8664 @ N thsr
-1.8664 @ N ts
-2.1473 @ N tsh
-1.5552 @ N tsr
-1.5759 @ N u
-1.8269 @ N w
-1.4811 @ N x
-1.7573 @ N y
-1.6511 @ cC C
-0.8934 @ cC E
-1.9264 @ cC N
-1.3457 @ cC e
-0.5556 @ cC i
-1.4249 @ cC ixr
-0.8934 @ cC j
-1.5262 @ cC jw
-1.5262 @ cC l
-1.6511 @ cC o
-1.5262 @ cC tc
-1.9264 @ cC th
-0.7621 @ cC y
-1.2754 @ cCh C
-1.2754 @ cCh N
-1.2754 @ cCh e
-0.8451 @ cCh i
-1.0492 @ cCh ixr
-1.2754 @ cCh j
-1.1505 @ cCh m
-1.1505 @ cCh n
-1.5507 @ cCh o
-1.1505 @ cCh tc
-1.5507 @ cCh w
-0.8451 @ cCh y
-1.6511 @ e &
-1.5262 @ e C
-1.0825 @ e E
-1.2208 @ e N
-0.9197 @ e i
-1.4249 @ e ixr
-0.7089 @ e j
-1.5262 @ e l
-1.1239 @ e n
-1.3457 @ e o
-1.3457 @ e sr
-1.9264 @ e tc
-0.7089 @ e y
-0.9638 @ f &
-1.1900 @ f >
-0.7597 @ f @
-1.4653 @ f A
-1.1900 @ f I
-1.4653 @ f N
-1.1900 @ f k
-1.4653 @ f m
-1.4653 @ f o
-1.4653 @ f u
-2.1673 @ i &r
-1.2981 @ i C
-1.9120 @ i E
-2.0881 @ i I
-1.3611 @ i N
-1.1587 @ i cC
-1.7202 @ i cCh
-2.3935 @ i e
-2.3935 @ i f
-1.9632 @ i ixr
-2.0212 @ i j
-2.0212 @ i jw
-2.0881 @ i k
-1.6358 @ i kh
-1.7202 @ i l
-1.1673 @ i m
-1.0739 @ i n
-1.6358 @ i o
-1.9632 @ i p
-2.3935 @ i ph
-1.8249 @ i s
-1.1339 @ i sr
-2.3935 @ i t
-0.4971 @ i tc
-2.3935 @ i th
-1.7871 @ i thsr
-2.2686 @ i ts
-2.2686 @ i tsh
-2.0881 @ i tsr
-2.6688 @ i u
-1.9120 @ i w
-1.6110 @ i x
-1.7523 @ i y
-2.1604 @ ixr &
-1.3165 @ ixr C
-1.4037 @ ixr N
-1.3579 @ ixr cC
-1.8852 @ ixr f
-2.1604 @ ixr i
-1.7602 @ ixr j
-2.1604 @ ixr k
-1.4548 @ ixr l
-1.4037 @ ixr m
-1.0792 @ ixr n
-1.7602 @ ixr s
-1.1275 @ ixr sr
-0.4234 @ ixr tc
-1.8852 @ ixr ts
-1.7602 @ ixr tsr
-1.8852 @ ixr u
-1.8852 @ ixr w
-1.2440 @ ixr x
-1.6590 @ ixr y
-2.3545 @ j &
-2.6098 @ j &r
-2.6098 @ j >
-2.7111 @ j @
-2.4637 @ j A
-1.3220 @ j C
-1.8317 @ j E
-2.4057 @ j I
-1.4057 @ j N
-1.1752 @ j cC
-2.0300 @ j cCh
-2.3545 @ j e
-2.4637 @ j f
-1.5094 @ j i
-1.8774 @ j ixr
-1.9664 @ j jw
-2.2296 @ j k
-2.3088 @ j kh
-1.4395 @ j l
-1.9470 @ j m
-1.2369 @ j n
-1.7647 @ j o
-2.1948 @ j p
-2.3088 @ j ph
-2.1047 @ j r&
-1.7903 @ j s
-1.2084 @ j sr
-2.3545 @ j t
-0.4030 @ j tc
-2.2296 @ j th
-2.3088 @ j thsr
-2.7111 @ j ts
-2.5306 @ j tsh
-1.7647 @ j tsr
-2.2674 @ j u
-1.6960 @ j w
-1.3950 @ j x
-1.9470 @ j y
-1.3846 @ jw &
-1.5095 @ jw A
-1.5095 @ jw C
-0.6021 @ jw E
-1.7848 @ jw cC
-1.3846 @ jw e
-1.3846 @ jw i
-1.2833 @ jw ixr
-1.0792 @ jw j
-0.8683 @ jw o
-1.5095 @ jw sr
-1.7848 @ jw tsh
-1.7848 @ jw u
-1.1372 @ jw y
-1.4046 @ k &
-1.0044 @ k >
-1.0044 @ k @
-1.4046 @ k A
-1.1293 @ k N
-1.4046 @ k e
-0.8239 @ k j
-1.0044 @ k u
-0.9031 @ k w
-1.0792 @ kh &
-1.1805 @ kh @
-1.0792 @ kh A
-1.5807 @ kh I
-1.3054 @ kh N
-1.5807 @ kh cC
-1.0792 @ kh i
-1.1805 @ kh j
-1.3054 @ kh m
-1.5807 @ kh p
-1.5807 @ kh sr
-1.5807 @ kh tsr
-1.0000 @ kh u
-1.1805 @ kh w
-0.8701 @ l &
-1.8740 @ l &r
-1.8740 @ l >
-1.0829 @ l @
-1.3591 @ l A
-2.0703 @ l C
-0.9759 @ l E
-1.7693 @ l I
-1.3969 @ l N
-2.7179 @ l cC
-2.4426 @ l cCh
-1.3026 @ l e
-1.0233 @ l i
-1.4682 @ l ixr
-1.2078 @ l j
-2.3177 @ l jw
-1.9612 @ l k
-2.4426 @ l kh
-2.2164 @ l m
-1.7393 @ l n
-1.2622 @ l o
-2.3177 @ l p
-2.1372 @ l ph
-2.2164 @ l r&
-2.7179 @ l s
-2.0703 @ l sr
-1.9154 @ l t
-1.6850 @ l tc
-2.0123 @ l th
-2.3177 @ l ts
-2.2164 @ l tsr
-1.7693 @ l u
-1.7113 @ l w
-1.7113 @ l x
-1.2622 @ l y
-0.7782 @ m &
-2.3049 @ m &r
-1.2720 @ m >
-1.1407 @ m @
-1.1600 @ m A
-1.5024 @ m E
-1.8035 @ m I
-1.2014 @ m N
-1.0111 @ m e
-1.2472 @ m i
-1.8035 @ m ixr
-1.7243 @ m j
-2.3049 @ m jw
-1.9047 @ m k
-1.7243 @ m l
-1.8035 @ m n
-1.5482 @ m o
-1.6573 @ m p
-1.5993 @ m sr
-1.7243 @ m t
-1.4232 @ m tc
-1.9047 @ m ts
-1.1802 @ m u
-1.5482 @ m w
-2.3049 @ m x
-1.7243 @ m y
-1.8479 @ n &
-2.7416 @ n &r
-2.4362 @ n >
-2.0170 @ n @
-2.4942 @ n A
-1.6580 @ n C
-1.7482 @ n E
-2.0170 @ n I
-1.3802 @ n N
-1.1690 @ n cC
-2.0382 @ n cCh
-1.5132 @ n e
-2.1088 @ n f
-0.9095 @ n i
-1.3948 @ n ixr
-1.4098 @ n j
-1.7952 @ n jw
-1.6860 @ n k
-2.1931 @ n kh
-1.2601 @ n l
-1.3850 @ n m
-1.8341 @ n o
-1.7595 @ n p
-2.3850 @ n ph
-1.9590 @ n r&
-1.8479 @ n s
-1.5539 @ n sr
-1.8921 @ n t
-0.8040 @ n tc
-1.9413 @ n th
-2.0382 @ n thsr
-1.6958 @ n ts
-2.5611 @ n tsh
-1.6672 @ n tsr
-1.7830 @ n u
-1.9079 @ n w
-1.6672 @ n x
-1.3480 @ n y
-1.4317 @ o >
-1.8319 @ o C
-1.8319 @ o I
-1.0294 @ o N
-1.8319 @ o cCh
-1.8319 @ o e
-1.8319 @ o f
-1.8319 @ o i
-1.2512 @ o m
-1.5566 @ o n
-1.8319 @ o p
-1.8319 @ o ph
-1.8319 @ o s
-1.3304 @ o sr
-1.1263 @ o tc
-1.8319 @ o tsr
-0.7741 @ o u
-0.8833 @ o w
-1.0294 @ o x
-0.9338 @ p &
-1.3340 @ p >
-1.3340 @ p E
-0.9338 @ p e
-0.8325 @ p i
-0.9338 @ p j
-1.3340 @ p m
-1.3340 @ p thsr
-1.1070 @ ph N
-0.9821 @ ph i
-0.9821 @ ph ixr
-0.9821 @ ph j
-1.3823 @ ph n
-1.3823 @ ph tc
-1.1070 @ ph tsr
-1.1070 @ ph u
-1.3823 @ ph y
-1.3766 @ r& &
-1.4779 @ r& @
-1.4779 @ r& A
-0.8203 @ r& E
-1.3766 @ r& N
-1.8781 @ r& cC
-1.8781 @ r& cCh
-1.8781 @ r& f
-1.2304 @ r& i
-1.1725 @ r& ixr
-1.6028 @ r& j
-1.4779 @ r& n
-1.0342 @ r& o
-1.8781 @ r& sr
-1.2304 @ r& u
-0.9294 @ r& w
-1.2974 @ r& x
-1.4779 @ r& y
-1.3457 @ s &
-1.9264 @ s >
-1.6511 @ s @
-1.6511 @ s C
-1.4249 @ s I
-1.0099 @ s cC
-1.0825 @ s cCh
-1.6511 @ s ixr
-1.1696 @ s k
-1.9264 @ s kh
-1.9264 @ s l
-1.5262 @ s m
-1.3457 @ s n
-1.9264 @ s p
-1.3457 @ s t
-1.1239 @ s tc
-1.9264 @ s th
-1.5262 @ s ts
-1.9264 @ s tsh
-1.0447 @ s tsr
-1.0825 @ s u
-1.9264 @ s w
-1.5262 @ s x
-1.2927 @ sr &
-2.0158 @ sr &r
-2.1620 @ sr >
-1.7818 @ sr @
-2.1620 @ sr A
-2.3882 @ sr C
-1.7148 @ sr E
-1.5599 @ sr I
-1.3985 @ sr N
-1.2699 @ sr cC
-1.5822 @ sr cCh
-2.0158 @ sr e
-2.3882 @ sr f
-1.3295 @ sr i
-0.7571 @ sr ixr
-1.5822 @ sr j
-1.6848 @ sr jw
-1.7470 @ sr k
-1.8609 @ sr kh
-1.8195 @ sr m
-1.5387 @ sr n
-1.4460 @ sr o
-1.8195 @ sr p
-2.0828 @ sr ph
-2.1620 @ sr r&
-1.6305 @ sr s
-1.7148 @ sr t
-1.2589 @ sr tc
-2.1620 @ sr th
-1.6568 @ sr thsr
-1.8609 @ sr ts
-2.1620 @ sr tsh
-1.5822 @ sr tsr
-1.2927 @ sr u
-1.6848 @ sr w
-1.8195 @ sr x
-1.2812 @ sr y
-0.9075 @ t j
-1.1827 @ t o
-1.1827 @ t u
-1.1827 @ t w
-0.7825 @ t x
-2.0038 @ tc &
-2.4853 @ tc @
-2.4853 @ tc A
-1.8441 @ tc C
-2.0550 @ tc E
-2.1130 @ tc I
-2.3604 @ tc N
-0.6277 @ tc cC
-1.3670 @ tc cCh
-2.1130 @ tc e
-2.0038 @ tc i
-1.5964 @ tc ixr
-2.1130 @ tc j
-2.3604 @ tc jw
-1.1519 @ tc k
-1.3670 @ tc kh
-2.7606 @ tc m
-2.7606 @ tc n
-1.1385 @ tc p
-2.4853 @ tc ph
-2.4853 @ tc r&
-2.0550 @ tc s
-1.7276 @ tc sr
-1.0889 @ tc t
-1.5964 @ tc th
-1.4810 @ tc thsr
-1.2099 @ tc ts
-1.6157 @ tc tsh
-0.9089 @ tc tsr
-1.8441 @ tc u
-2.7606 @ tc w
-1.7540 @ tc x
-2.3604 @ tc y
-0.9358 @ th @
-1.1399 @ th E
-1.2412 @ th cC
-1.6414 @ th e
-1.2412 @ th i
-1.6414 @ th ixr
-1.3661 @ th j
-1.6414 @ th l
-1.6414 @ th m
-1.3661 @ th n
-1.6414 @ th s
-0.9358 @ th tc
-1.3661 @ th thsr
-1.6414 @ th tsr
-1.6414 @ th u
-0.9938 @ th w
-1.6414 @ th x
-1.4258 @ thsr &
-1.1505 @ thsr &r
-1.4258 @ thsr @
-1.1505 @ thsr A
-1.4258 @ thsr N
-1.1505 @ thsr ixr
-1.1505 @ thsr l
-1.4258 @ thsr m
-0.8451 @ thsr tc
-1.4258 @ thsr w
-1.1035 @ ts &
-1.1035 @ ts @
-0.8283 @ ts e
-1.1035 @ ts m
-1.1035 @ ts n
-0.5229 @ ts u
-0.8495 @ tsh cC
-1.1247 @ tsh ixr
-1.1247 @ tsh w
-1.1247 @ tsh x
-1.0881 @ tsr &
-1.5185 @ tsr A
-1.3935 @ tsr E
-1.2923 @ tsr I
-1.5185 @ tsr N
-1.7937 @ tsr cCh
-1.2923 @ tsr e
-1.2923 @ tsr i
-1.0370 @ tsr ixr
-1.1461 @ tsr j
-1.5185 @ tsr m
-1.5185 @ tsr n
-1.2923 @ tsr o
-1.7937 @ tsr sr
-1.2131 @ tsr tc
-1.2923 @ tsr u
-1.2923 @ tsr w
-1.7937 @ tsr x
-1.2131 @ tsr y
-1.8889 @ u >
-1.8889 @ u @
-1.1321 @ u C
-1.6136 @ u N
-1.8889 @ u cC
-1.6136 @ u cCh
-1.3082 @ u i
-1.8889 @ u j
-1.8889 @ u jw
-1.6136 @ u l
-1.6136 @ u m
-1.8889 @ u n
-1.3082 @ u o
-1.2413 @ u s
-0.9724 @ u sr
-0.5678 @ u tc
-1.4887 @ u tsr
-1.6136 @ u w
-1.3082 @ u x
-2.4643 @ w &
-2.2380 @ w &r
-1.5753 @ w >
-2.2380 @ w A
-1.5391 @ w C
-2.2380 @ w E
-2.3393 @ w I
-1.5753 @ w N
-1.3242 @ w cC
-1.7909 @ w cCh
-1.7329 @ w e
-1.8578 @ w f
-1.7609 @ w i
-1.8578 @ w ixr
-1.7909 @ w j
-2.7395 @ w jw
-1.7066 @ w k
-1.6817 @ w kh
-1.6360 @ w l
-1.9370 @ w m
-1.6583 @ w n
-2.4643 @ w o
-1.7329 @ w p
-1.9828 @ w ph
-2.0919 @ w r&
-1.5946 @ w s
-1.3807 @ w sr
-2.7395 @ w t
-0.5550 @ w tc
-1.9370 @ w th
-2.3393 @ w thsr
-2.0919 @ w ts
-1.9370 @ w tsh
-1.5568 @ w tsr
-0.9036 @ w u
-1.1967 @ w x
-2.0919 @ w y
-1.3101 @ x &
-1.9911 @ x &r
-1.1909 @ x >
-1.5474 @ x @
-1.4127 @ x A
-2.3913 @ x C
-2.3913 @ x E
-1.8899 @ x I
-1.6346 @ x N
-1.1417 @ x cC
-1.5474 @ x e
-2.1161 @ x f
-1.8107 @ x i
-1.5097 @ x ixr
-1.3847 @ x k
-1.5474 @ x kh
-1.6346 @ x m
-1.9911 @ x n
-1.5097 @ x o
-1.4427 @ x p
-1.7437 @ x s
-1.8899 @ x sr
-1.6857 @ x t
-1.6346 @ x tc
-1.8899 @ x th
-1.6857 @ x ts
-2.1161 @ x tsh
-1.2878 @ x tsr
-0.7827 @ x u
-1.0574 @ x w
-2.3913 @ x y
-1.2439 @ y C
-2.2225 @ y I
-1.9472 @ y N
-1.2439 @ y cC
-1.3408 @ y cCh
-1.9472 @ y f
-1.9472 @ y i
-1.9472 @ y j
-1.8223 @ y k
-2.2225 @ y kh
-1.7210 @ y l
-1.5749 @ y n
-2.2225 @ y o
-1.8223 @ y p
-1.6418 @ y s
-0.9014 @ y sr
-2.2225 @ y t
-0.4287 @ y tc
-2.2225 @ y th
-1.6418 @ y thsr
-1.7210 @ y tsh
-1.4657 @ y tsr
-1.9472 @ y u
-1.7210 @ y w
-1.5749 @ y x
-0.9777 A & N
-1.5841 A & cC
-1.5841 A & i
-1.5841 A & j
-1.1538 A & l
-1.0155 A & m
-0.8808 A & n
-1.8594 A & p
-1.8594 A & r&
-1.5841 A & s
-1.1027 A & sr
-0.6097 A & tc
-1.4592 A & w
-1.8594 A & x
-2.0174 A &r >
-2.0174 A &r @
-1.7421 A &r A
-1.7421 A &r C
-2.0174 A &r I
-1.5159 A &r N
-1.4367 A &r cC
-1.5159 A &r cCh
-2.0174 A &r f
-1.7421 A &r i
-1.6171 A &r j
-1.6171 A &r k
-2.0174 A &r kh
-1.3118 A &r l
-1.5159 A &r m
-1.2148 A &r n
-2.0174 A &r o
-1.7421 A &r p
-1.0388 A &r sr
-1.7421 A &r t
-0.7524 A &r tc
-1.5159 A &r th
-1.7421 A &r thsr
-1.4367 A &r tsr
-1.7421 A &r u
-1.3118 A &r w
-1.1009 A &r x
-1.9455 A > &
-1.9455 A > &r
-1.9455 A > C
-1.3649 A > N
-1.9455 A > cC
-1.9455 A > cCh
-1.4440 A > e
-1.6703 A > f
-1.5453 A > i
-1.9455 A > j
-1.9455 A > k
-1.6703 A > kh
-1.6703 A > l
-1.2979 A > m
-1.5453 A > n
-1.9455 A > o
-1.5453 A > p
-1.6703 A > s
-1.3649 A > sr
-0.6115 A > tc
-1.9455 A > th
-1.1888 A > tsr
-1.5453 A > u
-1.1430 A > w
-1.1888 A > x
-1.6916 A @ C
-1.0504 A @ N
-0.8856 A @ i
-1.6916 A @ ixr
-0.7494 A @ j
-1.9669 A @ kh
-1.2101 A @ l
-1.6916 A @ m
-0.7841 A @ n
-1.9669 A @ s
-1.0852 A @ sr
-1.4654 A @ tc
-1.2613 A @ w
-1.9669 A @ x
-1.3862 A @ y
-1.8959 A C &r
-1.6207 A C I
-1.1392 A C cC
-1.4957 A C cCh
-1.4957 A C f
-1.1392 A C i
-1.0934 A C ixr
-1.0520 A C j
-1.0934 A C jw
-1.6207 A C k
-1.6207 A C n
-1.6207 A C p
-1.8959 A C s
-1.8959 A C t
-1.1392 A C tc
-1.3945 A C thsr
-1.4957 A C tsr
-1.8959 A C u
-1.8959 A C w
-1.4957 A C x
-0.8893 A C y
-1.0066 A E sr
-0.7314 A E tc
-0.7314 A E w
-1.2907 A I e
-1.2907 A I i
-1.1657 A I k
-1.2907 A I l
-1.5659 A I m
-1.1657 A I n
-1.5659 A I p
-1.2907 A I sr
-0.4624 A I tc
-1.5659 A I ts
-2.1081 A N &
-2.3044 A N &r
-2.1495 A N >
-2.4506 A N @
-2.3714 A N A
-1.6871 A N C
-2.4506 A N E
-2.2464 A N I
-1.3502 A N cC
-1.8708 A N cCh
-2.3044 A N e
-1.8943 A N f
-1.7024 A N i
-1.8708 A N ixr
-1.7182 A N j
-2.5518 A N jw
-1.4171 A N k
-1.5585 A N kh
-1.6444 A N l
-1.2201 A N m
-1.6871 A N n
-2.6768 A N o
-1.3571 A N p
-1.8708 A N ph
-2.1953 A N r&
-1.5932 A N s
-1.2745 A N sr
-1.8708 A N t
-0.5496 A N tc
-2.1081 A N th
-1.8485 A N thsr
-1.9454 A N ts
-2.0356 A N tsh
-1.5697 A N tsr
-1.3571 A N u
-1.5161 A N w
-1.3861 A N x
-1.7693 A N y
-1.9602 A cC &
-2.2355 A cC C
-1.0350 A cC E
-1.9602 A cC I
-2.2355 A cC N
-1.4330 A cC e
-0.6848 A cC i
-1.2288 A cC ixr
-0.8648 A cC j
-1.1777 A cC jw
-1.6548 A cC k
-1.9602 A cC l
-1.7340 A cC m
-1.7340 A cC n
-1.5879 A cC o
-1.9602 A cC r&
-1.9602 A cC sr
-1.8353 A cC tc
-1.7340 A cC thsr
-1.8353 A cC u
-2.2355 A cC w
-0.7995 A cC y
-1.4554 A cCh C
-1.2080 A cCh E
-1.8556 A cCh I
-1.8556 A cCh cC
-1.5803 A cCh e
-0.7978 A cCh i
-1.2080 A cCh ixr
-1.0117 A cCh j
-1.1500 A cCh jw
-1.8556 A cCh l
-1.8556 A cCh m
-1.4554 A cCh n
-1.8556 A cCh o
-1.5803 A cCh p
-1.8556 A cCh sr
-1.2080 A cCh tc
-1.8556 A cCh u
-0.8226 A cCh y
-1.0645 A e N
-0.5593 A e i
-0.8092 A e j
-1.5659 A e k
-1.5659 A e n
-1.2907 A e tc
-1.2907 A e w
-0.9183 A e y
-0.9611 A f &
-1.3291 A f &r
-1.4082 A f >
-0.7850 A f @
-1.0658 A f A
-1.9097 A f I
-1.5095 A f N
-1.2621 A f e
-1.9097 A f i
-1.6345 A f k
-1.6345 A f kh
-1.9097 A f m
-1.2041 A f o
-1.5095 A f r&
-1.9097 A f t
-1.9097 A f tc
-1.0280 A f u
-1.1530 A f w
-1.6345 A f x
-1.1083 A i C
-1.2888 A i N
-0.9834 A i cC
-1.6890 A i f
-1.4137 A i ixr
-1.6890 A i j
-1.0414 A i m
-1.4137 A i o
-0.9834 A i sr
-0.6077 A i tc
-1.6890 A i tsr
-1.5050 A ixr C
-1.3800 A ixr N
-1.3800 A ixr cC
-1.3800 A ixr i
-1.2788 A ixr l
-1.2788 A ixr n
-1.7802 A ixr r&
-1.3800 A ixr s
-1.0746 A ixr sr
-0.4337 A ixr tc
-1.7802 A ixr tsr
-1.5050 A ixr w
-1.1326 A ixr x
-1.7802 A ixr y
-1.9424 A j @
-1.9424 A j A
-1.9424 A j C
-1.4409 A j E
-1.6671 A j N
-1.1399 A j cC
-1.9424 A j ixr
-1.6671 A j k
-1.5422 A j kh
-1.5422 A j l
-1.6671 A j m
-1.0607 A j n
-1.5422 A j o
-1.6671 A j ph
-1.6671 A j s
-1.1856 A j sr
-1.9424 A j t
-0.5378 A j tc
-1.9424 A j thsr
-1.6671 A j tsr
-1.9424 A j u
-1.5422 A j w
-1.5422 A j x
-1.3077 A jw &
-0.6021 A jw E
-1.3077 A jw I
-1.3077 A jw cC
-0.9075 A jw i
-1.3077 A jw j
-1.3077 A jw o
-1.3077 A jw tc
-1.3077 A jw y
-1.2115 A k &
-2.0554 A k &r
-0.8911 A k >
-1.2115 A k @
-1.4078 A k A
-1.3498 A k E
-2.0554 A k N
-2.0554 A k cC
-1.5539 A k e
-1.4747 A k i
-1.7801 A k ixr
-1.5539 A k j
-2.0554 A k l
-1.7801 A k m
-2.0554 A k n
-1.3498 A k o
-1.5539 A k p
-1.7801 A k sr
-1.3498 A k tc
-2.0554 A k tsr
-0.7615 A k u
-0.9104 A k w
-2.0554 A k x
-1.1625 A kh &
-1.5775 A kh &r
-1.5775 A kh >
-0.9754 A kh @
-1.1625 A kh A
-2.0790 A kh C
-1.8037 A kh E
-1.4983 A kh I
-1.2351 A kh N
-1.5775 A kh cC
-2.0790 A kh cCh
-1.4314 A kh e
-1.2765 A kh i
-1.6788 A kh ixr
-1.4983 A kh j
-1.8037 A kh k
-1.5775 A kh l
-1.4314 A kh m
-1.6788 A kh n
-1.6788 A kh o
-1.8037 A kh sr
-1.4314 A kh t
-1.1004 A kh tc
-2.0790 A kh th
-1.3222 A kh u
-1.3222 A kh w
-1.8037 A kh x
-0.9192 A l &
-1.7185 A l &r
-1.5144 A l >
-1.0750 A l @
-0.8264 A l A
-1.7185 A l E
-2.2457 A l I
-1.3383 A l N
-1.2414 A l e
-1.9404 A l f
-1.3963 A l i
-1.5144 A l ixr
-1.6393 A l j
-1.9404 A l k
-2.5210 A l kh
-1.9404 A l m
-2.2457 A l n
-1.3035 A l o
-1.6393 A l p
-2.1208 A l r&
-1.8154 A l sr
-1.7185 A l t
-1.5424 A l tc
-2.1208 A l th
-2.0195 A l thsr
-2.1208 A l ts
-2.2457 A l tsr
-1.3963 A l u
-1.3206 A l w
-1.3568 A l x
-1.7185 A l y
-0.9303 A m &
-2.2721 A m &r
-0.9948 A m >
-1.0917 A m @
-0.8612 A m A
-2.0247 A m C
-2.0917 A m E
-1.9667 A m I
-1.2264 A m N
-2.0917 A m cC
-2.3971 A m cCh
-1.0065 A m e
-1.6145 A m i
-2.0247 A m ixr
-1.9667 A m j
-2.3971 A m jw
-2.0917 A m k
-2.2721 A m kh
-1.9667 A m l
-1.9667 A m n
-1.2071 A m o
-1.9667 A m p
-2.2721 A m s
-1.5274 A m sr
-1.6657 A m t
-1.8284 A m tc
-2.0917 A m th
-2.6723 A m thsr
-2.0247 A m ts
-2.6723 A m tsr
-1.3383 A m u
-1.4074 A m w
-1.8698 A m x
-2.2721 A m y
-1.5511 A n &
-2.2245 A n >
-1.7430 A n @
-1.4420 A n A
-1.6972 A n C
-1.9191 A n E
-2.2245 A n I
-1.5211 A n N
-1.1409 A n cC
-1.4420 A n e
-1.9983 A n f
-1.0740 A n i
-1.6972 A n ixr
-1.5211 A n j
-2.2245 A n jw
-1.6180 A n k
-2.4997 A n kh
-1.3355 A n l
-1.3962 A n m
-1.6180 A n o
-1.5833 A n p
-1.9191 A n r&
-1.9983 A n s
-1.4931 A n sr
-1.3962 A n t
-0.7334 A n tc
-1.9191 A n th
-2.2245 A n thsr
-1.9983 A n ts
-1.6558 A n tsr
-1.5833 A n u
-1.7430 A n w
-1.5511 A n x
-1.9983 A n y
-1.9097 A o &
-1.2041 A o >
-1.9097 A o C
-0.9611 A o N
-1.6345 A o cC
-1.9097 A o e
-1.9097 A o f
-1.6345 A o k
-1.6345 A o l
-0.9311 A o m
-1.9097 A o n
-1.6345 A o sr
-1.6345 A o tc
-1.9097 A o tsr
-0.6448 A o u
-0.7455 A o w
-1.3291 A o x
-1.1931 A p &
-1.2900 A p >
-1.2900 A p @
-1.3480 A p A
-1.9956 A p C
-1.9956 A p E
-1.9956 A p I
-1.5954 A p N
-1.7204 A p cC
-1.9956 A p cCh
-1.4942 A p e
-1.0470 A p i
-1.4942 A p ixr
-1.5954 A p j
-1.7204 A p k
-1.5954 A p l
-1.5954 A p m
-1.4942 A p o
-1.2900 A p sr
-1.3480 A p tc
-0.8314 A p u
-1.3480 A p w
-1.9956 A p x
-1.2900 A p y
-1.4153 A ph >
-1.4153 A ph A
-1.1400 A ph C
-1.1400 A ph N
-1.1400 A ph cC
-1.4153 A ph i
-1.1400 A ph n
-1.4153 A ph o
-1.4153 A ph s
-1.4153 A ph tc
-1.4153 A ph ts
-1.1400 A ph u
-1.4153 A ph w
-1.2888 A r& &
-1.6890 A r& @
-1.1083 A r& A
-1.4137 A r& N
-1.2888 A r& cC
-1.6890 A r& e
-1.6890 A r& i
-1.1875 A r& ixr
-1.2888 A r& j
-1.2888 A r& m
-1.4137 A r& n
-1.1875 A r& o
-1.6890 A r& p
-1.4137 A r& sr
-1.1875 A r& tc
-1.6890 A r& ts
-1.2888 A r& u
-1.1875 A r& w
-1.6890 A r& x
-1.6890 A r& y
-1.1969 A s &
-1.8780 A s &r
-1.7767 A s >
-1.4343 A s @
-1.3965 A s A
-1.6975 A s C
-1.2204 A s I
-2.0029 A s N
-1.1969 A s cC
-1.5726 A s cCh
-2.2782 A s e
-2.0029 A s f
-1.6306 A s i
-1.1332 A s ixr
-2.0029 A s j
-1.5214 A s k
-1.4757 A s kh
-1.5726 A s m
-1.4757 A s n
-1.3965 A s p
-1.8780 A s r&
-2.0029 A s sr
-1.3965 A s t
-1.3965 A s tc
-2.0029 A s th
-1.8780 A s thsr
-2.2782 A s ts
-1.6975 A s tsh
-1.6975 A s tsr
-0.9985 A s u
-1.4343 A s w
-1.5726 A s x
-2.0029 A s y
-1.2286 A sr &
-2.4783 A sr &r
-2.2030 A sr >
-2.0781 A sr @
-1.7727 A sr A
-1.8976 A sr C
-2.0781 A sr E
-1.2956 A sr I
-1.7727 A sr N
-1.4205 A sr cC
-1.5297 A sr cCh
-1.7215 A sr e
-1.9768 A sr f
-1.7727 A sr i
-0.8307 A sr ixr
-1.8307 A sr j
-2.4783 A sr jw
-1.7215 A sr k
-1.7215 A sr kh
-2.2030 A sr l
-1.8307 A sr m
-1.3747 A sr n
-1.3141 A sr o
-1.8976 A sr p
-2.4783 A sr r&
-1.8307 A sr s
-1.6344 A sr t
-1.2778 A sr tc
-2.2030 A sr th
-1.5297 A sr thsr
-1.9768 A sr ts
-1.7727 A sr tsh
-1.6758 A sr tsr
-1.0737 A sr u
-1.3747 A sr w
-1.4717 A sr x
-1.4997 A sr y
-1.4567 A t &
-1.3317 A t @
-1.7319 A t A
-1.7319 A t C
-1.2304 A t E
-1.1513 A t N
-1.7319 A t e
-1.0843 A t i
-1.7319 A t ixr
-0.9294 A t j
-1.4567 A t l
-1.3317 A t o
-1.7319 A t s
-1.3317 A t tc
-1.7319 A t thsr
-1.1513 A t u
-1.1513 A t w
-1.3317 A t x
-1.3317 A t y
-2.1455 A tc &
-2.9480 A tc &r
-2.9480 A tc >
-2.1041 A tc @
-2.3674 A tc A
-1.8902 A tc C
-2.9480 A tc E
-2.2424 A tc I
-0.9254 A tc cC
-1.5657 A tc cCh
-2.0663 A tc e
-2.4465 A tc f
-2.4465 A tc i
-1.9994 A tc ixr
-2.6728 A tc j
-1.0383 A tc k
-1.1817 A tc kh
-2.9480 A tc l
-2.9480 A tc m
-2.2424 A tc n
-2.6728 A tc o
-0.8071 A tc p
-2.2424 A tc ph
-2.4465 A tc r&
-1.9414 A tc s
-1.7476 A tc sr
-0.9841 A tc t
-1.5892 A tc th
-1.4553 A tc thsr
-1.1002 A tc ts
-1.8233 A tc tsh
-0.8737 A tc tsr
-2.0663 A tc u
-2.2424 A tc w
-1.9414 A tc x
-2.9480 A tc y
-1.6598 A th &
-1.3846 A th &r
-1.1584 A th @
-0.8573 A th A
-1.6598 A th N
-1.6598 A th cCh
-1.1584 A th i
-1.6598 A th j
-1.6598 A th l
-1.6598 A th p
-1.2596 A th t
-0.9031 A th tc
-1.2596 A th u
-1.0792 A th w
-1.6598 A th x
-1.6598 A th y
-1.1271 A thsr &
-1.3533 A thsr A
-1.6286 A thsr I
-1.2284 A thsr N
-1.6286 A thsr ixr
-1.6286 A thsr kh
-1.2284 A thsr m
-1.6286 A thsr n
-1.6286 A thsr o
-1.2284 A thsr p
-0.9230 A thsr tc
-0.7847 A thsr u
-1.2284 A thsr w
-1.1271 A thsr x
-0.8107 A ts &
-1.7893 A ts &r
-1.7893 A ts >
-0.9868 A ts @
-1.0837 A ts A
-1.3891 A ts E
-1.2878 A ts I
-1.2878 A ts e
-1.3891 A ts ixr
-1.7893 A ts j
-1.7893 A ts m
-1.7893 A ts n
-1.2878 A ts o
-1.7893 A ts tc
-0.8728 A ts u
-1.2086 A ts w
-1.1712 A tsh &
-1.7519 A tsh @
-1.2504 A tsh C
-1.4766 A tsh I
-1.7519 A tsh N
-1.7519 A tsh ixr
-1.7519 A tsh j
-1.3517 A tsh k
-1.4766 A tsh l
-1.1712 A tsh n
-1.7519 A tsh p
-1.7519 A tsh r&
-1.4766 A tsh s
-1.7519 A tsh sr
-0.9494 A tsh tc
-1.7519 A tsh thsr
-1.4766 A tsh ts
-1.7519 A tsh tsr
-1.1043 A tsh u
-1.1712 A tsh w
-1.4766 A tsh x
-1.7519 A tsh y
-1.2765 A tsr &
-2.0790 A tsr &r
-2.0790 A tsr >
-1.6788 A tsr @
-1.6788 A tsr A
-1.8037 A tsr C
-1.0212 A tsr E
-1.4314 A tsr I
-2.0790 A tsr N
-1.8037 A tsr cC
-1.3222 A tsr e
-2.0790 A tsr f
-1.4983 A tsr i
-0.9977 A tsr ixr
-1.2351 A tsr j
-1.8037 A tsr kh
-2.0790 A tsr l
-1.3734 A tsr m
-1.3222 A tsr n
-1.2351 A tsr o
-1.4983 A tsr p
-2.0790 A tsr s
-1.6788 A tsr sr
-1.4314 A tsr tc
-2.0790 A tsr th
-1.1303 A tsr u
-1.3734 A tsr w
-1.6788 A tsr x
-1.8037 A tsr y
-1.9677 A u &
-2.5484 A u @
-2.1482 A u A
-1.3656 A u C
-2.2731 A u I
-1.9008 A u N
-1.3145 A u cC
-2.5484 A u cCh
-2.0469 A u e
-1.8428 A u f
-1.3309 A u i
-1.7045 A u ixr
-1.5997 A u j
-1.5997 A u jw
-2.1482 A u k
-1.9008 A u kh
-1.5698 A u l
-1.9677 A u m
-1.4236 A u n
-2.1482 A u o
-1.7045 A u p
-2.5484 A u ph
-2.2731 A u r&
-1.4236 A u s
-0.8164 A u sr
-2.2731 A u t
-0.5785 A u tc
-2.1482 A u th
-2.5484 A u thsr
-1.6319 A u tsr
-1.5698 A u w
-1.2987 A u x
-1.7459 A u y
-2.1978 A w &
-2.0987 A w &r
-1.1855 A w >
-2.2192 A w @
-2.0680 A w A
-1.5908 A w C
-2.5994 A w E
-2.2192 A w I
-1.5824 A w N
-1.6752 A w cC
-1.9560 A w cCh
-1.7302 A w e
-1.7302 A w f
-1.9005 A w i
-2.2192 A w ixr
-2.2570 A w j
-2.5994 A w jw
-1.6856 A w k
-1.5824 A w kh
-1.7543 A w l
-1.5824 A w m
-1.9367 A w n
-2.1523 A w o
-1.9005 A w p
-2.5994 A w ph
-2.4533 A w r&
-1.7799 A w s
-1.2610 A w sr
-2.0943 A w t
-0.6910 A w tc
-2.3442 A w th
-2.5203 A w thsr
-1.9762 A w ts
-2.4533 A w tsh
-1.7933 A w tsr
-0.6888 A w u
-1.0579 A w x
-2.2192 A w y
-1.4150 A x &
-1.7408 A x &r
-0.9800 A x >
-1.5241 A x @
-1.1262 A x A
-2.2723 A x C
-1.8251 A x I
-1.4942 A x N
-1.5733 A x cC
-2.1931 A x cCh
-1.7952 A x e
-2.0170 A x f
-2.1931 A x i
-2.0170 A x ixr
-2.4985 A x j
-1.2811 A x k
-1.4031 A x kh
-2.1262 A x l
-1.8921 A x m
-1.7952 A x n
-1.4528 A x o
-1.5089 A x p
-2.4985 A x ph
-2.2723 A x r&
-2.0170 A x s
-1.8251 A x sr
-1.6491 A x t
-1.4398 A x tc
-2.2723 A x th
-2.0682 A x thsr
-1.8573 A x ts
-2.1931 A x tsh
-1.5089 A x tsr
-0.8957 A x u
-0.9106 A x w
-1.0170 A y cC
-1.5185 A y ixr
-1.5185 A y n
-1.2432 A y o
-1.5185 A y s
-1.1183 A y sr
-0.4856 A y tc
-1.5185 A y u
-1.0170 A y x
-1.2355 C & N
-1.4617 C & cC
-1.7370 C & f
-1.3368 C & i
-1.7370 C & ixr
-1.4617 C & j
-1.3368 C & l
-1.0894 C & m
-0.9345 C & n
-1.7370 C & s
-0.4873 C & tc
-1.4617 C & x
-1.6221 C &r C
-0.7782 C &r cC
-1.6221 C &r f
-1.2218 C &r j
-1.2218 C &r kh
-1.6221 C &r p
-1.6221 C &r s
-1.1206 C &r sr
-0.5643 C &r tc
-1.6221 C &r th
-1.6221 C &r tsh
-1.6221 C &r tsr
-1.4653 C > A
-1.4653 C > N
-0.8846 C > cC
-1.4653 C > cCh
-1.4653 C > k
-1.4653 C > n
-0.5166 C > tc
-1.4653 C > tsr
-1.4653 C > w
-1.1900 C > x
-1.1805 C @ N
-1.1805 C @ i
-0.7501 C @ j
-1.0555 C @ m
-0.6532 C @ n
-1.4557 C @ o
-1.4557 C @ sr
-0.9542 C @ tc
-1.4557 C @ w
-1.4557 C @ y
-0.6021 C A N
-0.8283 C A tc
-1.1035 C A u
-1.1035 C A w
-0.8283 C A x
-1.9911 C E @
-1.6857 C E A
-1.4639 C E C
-0.9725 C E N
-1.8662 C E cC
-2.2664 C E f
-1.6857 C E i
-1.9911 C E ixr
-1.8662 C E j
-2.2664 C E jw
-2.2664 C E k
-1.3499 C E l
-1.1851 C E m
-0.6577 C E n
-1.6188 C E o
-1.9911 C E s
-1.2878 C E sr
-0.7649 C E tc
-2.2664 C E th
-1.6857 C E thsr
-2.2664 C E tsh
-1.7649 C E tsr
-2.2664 C E u
-1.3499 C E w
-1.5608 C E x
-1.9911 C E y
-1.2211 C I C
-2.0650 C I E
-1.5635 C I N
-1.6648 C I cC
-1.7897 C I cCh
-1.6648 C I e
-1.3594 C I i
-2.0650 C I ixr
-2.0650 C I j
-2.0650 C I jw
-1.5635 C I l
-1.3082 C I m
-1.4174 C I n
-1.7897 C I o
-2.0650 C I p
-1.5635 C I r&
-1.3594 C I s
-0.9614 C I sr
-0.5382 C I tc
-1.7897 C I th
-1.7897 C I thsr
-2.0650 C I tsh
-2.0650 C I tsr
-1.7897 C I u
-1.5635 C I w
-1.7897 C I x
-2.0650 C I y
-1.2131 C N C
-1.7937 C N E
-1.7937 C N I
-1.2923 C N cC
-1.5185 C N i
-1.3935 C N j
-1.7937 C N jw
-1.5185 C N k
-1.3935 C N m
-1.3935 C N p
-1.5185 C N s
-1.2131 C N sr
-1.7937 C N t
-0.5288 C N tc
-1.7937 C N th
-1.7937 C N w
-1.1461 C N x
-2.2451 C cC &
-1.9093 C cC C
-0.9263 C cC E
-2.8258 C cC I
-2.8258 C cC N
-2.8258 C cC cCh
-1.7010 C cC e
-0.6100 C cC i
-1.2909 C cC ixr
-0.8137 C cC j
-1.3898 C cC jw
-2.4256 C cC k
-1.8472 C cC l
-2.1202 C cC m
-1.7680 C cC n
-1.3243 C cC o
-2.5505 C cC p
-2.5505 C cC r&
-1.8472 C cC sr
-2.8258 C cC t
-1.6253 C cC tc
-2.4256 C cC thsr
-2.5505 C cC ts
-2.3243 C cC tsr
-1.8191 C cC u
-2.4256 C cC w
-0.7514 C cC y
-2.0966 C cCh &
-1.3933 C cCh C
-1.3389 C cCh E
-2.3719 C cCh I
-1.6663 C cCh N
-1.6663 C cCh cC
-1.7243 C cCh e
-0.8059 C cCh i
-1.0923 C cCh ixr
-1.2683 C cCh j
-1.2270 C cCh jw
-2.0966 C cCh k
-1.6151 C cCh l
-1.9717 C cCh m
-1.3141 C cCh n
-1.7912 C cCh o
-1.9717 C cCh p
-2.3719 C cCh r&
-1.8704 C cCh s
-1.5694 C cCh sr
-2.3719 C cCh t
-1.2076 C cCh tc
-2.3719 C cCh thsr
-2.3719 C cCh ts
-2.0966 C cCh tsh
-1.7243 C cCh tsr
-1.6663 C cCh u
-1.7243 C cCh w
-2.3719 C cCh x
-0.7912 C cCh y
-1.3955 C e C
-1.1266 C e E
-1.4624 C e N
-2.0431 C e cC
-0.6723 C e i
-1.4624 C e ixr
-0.6385 C e j
-1.2863 C e jw
-1.7678 C e l
-1.1992 C e n
-1.4624 C e o
-2.0431 C e r&
-1.7678 C e sr
-1.6429 C e tc
-2.0431 C e thsr
-1.0101 C e y
-0.9912 C f &
-1.4927 C f &r
-0.6902 C f @
-0.7360 C f A
-1.4927 C f I
-1.4927 C f N
-1.4927 C f cC
-1.0925 C f u
-1.2174 C f x
-2.2238 C i &
-2.2238 C i &r
-3.0263 C i >
-3.0263 C i @
-2.5248 C i A
-1.2460 C i C
-1.5903 C i E
-2.3787 C i I
-1.2553 C i N
-1.5078 C i cC
-1.9933 C i cCh
-2.2238 C i e
-2.2238 C i f
-1.8620 C i ixr
-1.8258 C i j
-1.7766 C i jw
-1.9933 C i k
-1.9685 C i kh
-1.6217 C i l
-1.1234 C i m
-1.1132 C i n
-1.2370 C i o
-2.0477 C i p
-2.6261 C i ph
-2.1446 C i r&
-1.7324 C i s
-1.2238 C i sr
-2.4456 C i t
-0.5667 C i tc
-2.1446 C i th
-1.9015 C i thsr
-3.0263 C i ts
-2.0477 C i tsh
-1.9450 C i tsr
-2.0477 C i u
-2.2238 C i w
-1.5078 C i x
-1.5517 C i y
-1.9051 C ixr &
-2.0678 C ixr &r
-2.6365 C ixr >
-1.8540 C ixr @
-1.9953 C ixr A
-1.1747 C ixr C
-2.1550 C ixr E
-2.4103 C ixr I
-1.4190 C ixr N
-1.6179 C ixr cC
-2.1550 C ixr cCh
-2.2062 C ixr e
-1.9953 C ixr f
-1.4658 C ixr i
-1.9631 C ixr j
-2.3311 C ixr jw
-2.0301 C ixr k
-2.0301 C ixr kh
-1.5182 C ixr l
-1.6179 C ixr m
-1.2519 C ixr n
-1.8788 C ixr o
-1.9953 C ixr p
-2.6365 C ixr ph
-1.9331 C ixr r&
-1.3168 C ixr s
-0.9449 C ixr sr
-2.5115 C ixr t
-0.5260 C ixr tc
-2.2062 C ixr th
-2.0301 C ixr thsr
-2.4103 C ixr ts
-2.1092 C ixr tsh
-2.0301 C ixr tsr
-2.0301 C ixr u
-1.6621 C ixr w
-1.4860 C ixr x
-1.9953 C ixr y
-1.7364 C j &
-1.7064 C j &r
-1.1923 C j @
-1.0696 C j A
-1.9283 C j C
-0.7653 C j E
-2.1836 C j I
-1.5023 C j N
-1.7364 C j cC
-2.2848 C j e
-1.8825 C j i
-2.0374 C j ixr
-2.1836 C j k
-2.6850 C j kh
-1.8033 C j l
-1.6273 C j m
-1.3143 C j n
-0.6598 C j o
-2.1836 C j p
-2.6850 C j ph
-2.6850 C j r&
-2.6850 C j s
-1.8033 C j sr
-2.1836 C j t
-0.9380 C j tc
-2.6850 C j th
-2.1044 C j thsr
-2.1836 C j tsh
-2.4098 C j tsr
-2.2848 C j u
-1.7364 C j w
-1.6038 C j x
-2.2848 C j y
-1.3923 C jw &
-2.1926 C jw &r
-1.4893 C jw @
-1.7903 C jw A
-1.7489 C jw C
-0.4229 C jw E
-2.0121 C jw I
-1.7489 C jw N
-1.2989 C jw e
-1.1992 C jw i
-1.5350 C jw ixr
-1.1992 C jw j
-2.0121 C jw k
-1.7903 C jw l
-2.1926 C jw n
-1.0269 C jw o
-2.5928 C jw r&
-1.9452 C jw s
-1.3279 C jw sr
-2.3175 C jw tc
-2.0913 C jw th
-2.5928 C jw u
-2.1926 C jw w
-2.3175 C jw x
-1.2989 C jw y
-1.2205 C k &
-1.0557 C k >
-1.0792 C k @
-1.2931 C k A
-2.1370 C k C
-0.9542 C k E
-1.7368 C k N
-1.4314 C k e
-1.2931 C k i
-1.3802 C k j
-1.8617 C k l
-1.6355 C k m
-1.3802 C k n
-1.1584 C k o
-1.8617 C k r&
-1.5563 C k sr
-1.6355 C k tc
-2.1370 C k thsr
-2.1370 C k tsr
-0.9727 C k u
-1.1883 C k w
-1.8617 C k y
-0.9638 C kh &
-1.9424 C kh &r
-1.0259 C kh @
-1.6671 C kh A
-1.9424 C kh C
-1.9424 C kh E
-1.3617 C kh I
-1.9424 C kh N
-1.4409 C kh cC
-1.1399 C kh e
-1.0985 C kh i
-1.5422 C kh ixr
-1.1856 C kh j
-1.9424 C kh l
-1.9424 C kh m
-0.9938 C kh n
-1.5422 C kh o
-1.5422 C kh p
-1.9424 C kh tc
-1.9424 C kh th
-1.9424 C kh tsr
-1.3617 C kh u
-1.5422 C kh w
-1.4409 C kh y
-1.1206 C l &
-0.8195 C l @
-1.2218 C l A
