# VAD: 1
# Viterbi loop action: No record

BIGRAM: method Katz, cutoff 1
coef[7]: 0.000000 0.723270 0.990000 0.990000 0.659623 0.990000 0.990000

TRIGRAM: method Katz, cutoff 1
coef[6]: 0.000000 0.779411 0.990000 0.889465 0.990000 0.990000

\data\
ngram 1=44
ngram 2=1704
ngram 3=40830

\1-grams:
-1.5133 &	-3.0243
-99.9900 </s>
-99.9900 <s>
-1.6792 @	-0.5510
-1.7738 A	-3.4681
-1.8646 D&	-0.5174
-2.2063 D&i	-1.3944
-2.2643 E	-1.0360
-1.3084 I	-4.5750
-1.6357 N	-3.7443
-1.3911 S	-0.4261
-1.5238 U	-4.2693
-1.7193 Y	-2.3654
-1.7424 a	-3.5310
-2.0968 aU	-3.2378
-1.8522 ai	-3.6260
-1.6497 b	-3.8924
-1.4581 d	-3.1346
-1.2948 dc	-1.2776
-1.6565 e	-2.7379
-2.1518 f	-3.0131
-1.4131 g	-2.9726
-1.9137 h	-2.2234
-1.4664 i	-3.7472
-1.8714 j	-2.0525
-1.7021 kh	-2.1589
-1.5581 l	-4.2006
-1.6678 m	-2.4672
-1.5921 n	+0.0104
-1.5830 o	-0.7010
-1.8401 oe	-3.5116
-3.3499 pf	-0.0729
-1.7370 ph	-3.8427
-1.4411 r	-4.0666
-1.4229 s	-0.7725
-2.4615 tS	-1.9238
-1.1409 tc	-4.7340
-1.5196 th	-3.9096
-1.5989 ts	-0.1444
-1.5256 u	-4.2657
-1.5635 v	-2.6739
-1.7455 x	-2.0720
-1.9747 y	-1.8370
-1.6221 z	-3.7127

\2-grams:
-2.4882 & @	-0.0054
-1.6058 & A	-0.1572
-2.4355 & D&	-0.2721
-2.7243 & D&i	-0.4552
-3.0765 & E	-0.0710
-1.7796 & I	+0.0098
-1.3663 & N	+0.4883
-1.2793 & S	-1.1016
-2.0065 & U	-0.1856
-2.3941 & Y	-0.1283
-2.0111 & a	-0.2977
-1.9343 & aU	-0.2672
-1.9133 & ai	-0.2396
-1.9284 & b	-0.1000
-2.1837 & d	-0.2419
-1.1184 & dc	-0.1835
-2.3411 & e	-0.0322
-2.0502 & f	-0.2929
-2.0903 & g	+0.0982
-1.8212 & h	-0.3857
-1.9170 & i	-0.1779
-2.3216 & j	-0.2695
-2.0088 & kh	-0.2155
-1.3293 & l	+1.0761
-1.3595 & m	-0.2940
-1.1989 & n	-1.5112
-2.1837 & o	-0.1765
-2.7491 & oe	-0.1059
-4.1203 & pf
-2.2984 & ph	-0.2515
-1.0971 & r	-0.3749
-1.0386 & s	-0.8175
-2.4418 & tS	-0.1821
-0.7646 & tc	-0.4829
-1.9928 & th	-0.2737
-2.0988 & ts	-0.2464
-1.8968 & u	-0.2686
-1.3487 & v	+0.0638
-1.6636 & x	-0.1826
-2.6574 & y	-0.0179
-1.4657 & z	+0.4309
-1.9013 @ &	-0.4292
-1.6434 @ A	-0.0019
-2.5750 @ D&	-0.2796
-3.0913 @ D&i	-0.0900
-2.5063 @ E	-0.3539
-1.3035 @ I	-0.0314
-1.1752 @ N	-0.1254
-1.6001 @ S	-0.3233
-1.8405 @ U	-0.1986
-1.9811 @ Y	-0.1293
-1.9503 @ a	-0.2493
-2.2696 @ aU	-0.0902
-2.1279 @ ai	-0.2223
-2.3665 @ b	-0.2414
-2.5126 @ d	-0.3034
-1.1212 @ dc	-0.4230
-1.8868 @ e	-0.1593
-2.5962 @ f	-0.1346
-2.3018 @ g	-0.2477
-1.7723 @ h	-0.1131
-1.4352 @ i	-0.3111
-1.8946 @ j	-0.1953
-2.2396 @ kh	-0.4025
-1.2431 @ l	-0.2537
-1.3315 @ m	-0.4359
-1.3688 @ n	-1.0382
-1.9415 @ o	-0.2640
-2.1147 @ oe	-0.2327
-2.4334 @ ph	-0.0898
-0.9389 @ r	+0.5393
-1.3431 @ s	-0.2738
-3.0733 @ tS	-0.0979
-0.8980 @ tc	-0.2678
-2.0578 @ th	-0.3767
-2.3987 @ ts	-0.1459
-1.5706 @ u	-0.3062
-1.4417 @ v	-0.0720
-1.6914 @ x	-0.5518
-2.3743 @ y	-0.2585
-1.5465 @ z	-0.3395
-1.9866 A &	-0.2122
-2.2797 A @	-0.1324
-2.1750 A D&	-0.3404
-2.3573 A D&i	-0.4126
-2.7190 A E	-0.0369
-1.7896 A I	-0.3119
-1.2797 A N	-0.3515
-1.4472 A S	-0.3678
-1.9989 A U	-0.1257
-2.0658 A Y	-0.1769
-1.8187 A a	-0.3734
-1.9445 A aU	-0.3828
-2.0563 A ai	-0.3112
-1.5745 A b	-0.0602
-1.8382 A d	-0.1472
-1.1850 A dc	-0.1345
-2.0610 A e	+0.0230
-1.9266 A f	-0.2633
-1.7368 A g	-0.0028
-1.5301 A h	-0.3661
-1.7795 A i	-0.1155
-2.1170 A j	-0.0547
-1.7190 A kh	-0.4796
-1.3498 A l	-0.4435
-1.3151 A m	-0.4451
-1.2869 A n	-0.6542
-1.7974 A o	-0.1795
-2.3211 A oe	-0.1244
-3.2463 A pf
-1.4158 A ph	-0.1428
-1.3211 A r	-0.2219
-1.2485 A s	-0.1719
-2.4886 A tS	-0.1342
-0.9807 A tc	-0.1016
-1.6757 A th	-0.0632
-1.6640 A ts	-0.2606
-1.5029 A u	-0.3100
-1.2766 A v	-0.2477
-1.7020 A x	-0.1563
-2.3388 A y	-0.4710
-1.5698 A z	-0.3988
-2.5928 D& &	-0.1776
-2.8197 D& @	-0.1383
-1.8617 D& A	-0.3046
-2.2235 D& D&i	-0.1070
-2.9794 D& E
-2.2347 D& I	-0.2770
-1.3019 D& N	-0.1053
-1.5437 D& S	-0.2628
-1.8999 D& U	-0.1702
-2.2480 D& Y	-0.0918
-2.1032 D& a	-0.1094
-1.8394 D& aU	-0.4576
-2.0372 D& ai	-0.2957
-1.2149 D& b	-0.3031
-2.3852 D& d	-0.1644
-1.1658 D& dc	-0.3015
-2.6988 D& e	-0.0329
-1.9561 D& f	-0.2712
-1.5210 D& g	-0.2730
-1.5948 D& h	-0.6752
-2.1658 D& i	-0.1298
-2.8879 D& j	-0.0847
-1.4029 D& kh	-0.3073
-1.3338 D& l	-0.4585
-1.1742 D& m	-0.6942
-1.4550 D& n	-0.4129
-1.7503 D& o	-0.1827
-2.6282 D& oe	-0.2814
-1.3360 D& ph	-0.2676
-1.1078 D& r	-0.2763
-1.3790 D& s	-0.4646
-2.4821 D& tS	-0.1252
-1.0519 D& tc	-0.3911
-2.1439 D& th	-0.1451
-1.9122 D& ts	-0.2620
-1.4365 D& u	-0.0207
-1.3449 D& v	-0.4090
-1.3240 D& x	-0.3576
-2.4521 D& y	-0.2995
-2.0719 D& z	-0.4944
-1.7883 D&i &	-0.2797
-1.2909 D&i @	-0.4488
-2.3088 D&i A	-0.1963
-2.9899 D&i D&
-2.0962 D&i E	-0.1040
-0.9432 D&i I	-0.2564
-1.2335 D&i N	-0.1972
-1.1914 D&i S	-0.4241
-2.3835 D&i U	-0.1304
-1.3396 D&i Y	-0.2252
-2.3088 D&i a	-0.1000
-2.6845 D&i aU	-0.0548
-2.5084 D&i ai	-0.0509
-2.3571 D&i b	-0.0818
-2.4737 D&i d	-0.0705
-1.3066 D&i dc	-0.5568
-2.0194 D&i e	-0.0609
-2.1726 D&i f	-0.2344
-2.2866 D&i g	-0.2521
-1.9965 D&i h	-0.2458
-1.2278 D&i i	-0.1294
-1.5012 D&i j	-0.2182
-2.1252 D&i kh	-0.2955
-1.0824 D&i l	-0.4420
-1.9155 D&i m	-0.1694
-1.3973 D&i n	-0.4325
-2.4115 D&i o	-0.3928
-1.9541 D&i oe	-0.1895
-2.6334 D&i ph	-0.1394
-1.4262 D&i r	-0.4508
-1.2675 D&i s	-0.3259
-2.6334 D&i tS	-0.1019
-0.9759 D&i tc	-0.4088
-2.1726 D&i th	-0.2733
-2.5084 D&i ts	-0.0404
-2.4115 D&i u	-0.0953
-1.8023 D&i v	-0.6885
-1.5790 D&i x	-0.3536
-2.0435 D&i y	-0.2478
-1.7425 D&i z	-0.4004
-1.6431 E &	-0.3163
-1.7814 E @	-0.0517
-1.6105 E A	-0.2190
-3.0113 E D&
-1.1622 E I	-0.0622
-1.0553 E N	-0.4308
-1.3042 E S	-0.2787
-2.1493 E U	-0.1472
-1.7514 E Y	-0.2275
-1.8053 E a	-0.1031
-2.2285 E aU	-0.1831
-1.7814 E ai	-0.2820
-2.6265 E b	-0.0587
-2.6265 E d	-0.0397
-1.2940 E dc	-0.1611
-1.9498 E e	-0.2309
-2.3254 E f	-0.0631
-2.4156 E g	-0.2375
-1.7892 E h	-0.0679
-1.3420 E i	-0.2767
-1.7661 E j	-0.1852
-1.9981 E kh	-0.1374
-1.2285 E l	-0.4464
-1.6431 E m	-0.2815
-1.3928 E n	-0.3455
-2.1871 E o	-0.0506
-1.9275 E oe	-0.1832
-2.6888 E ph
-1.0747 E r	-0.4188
-1.1991 E s	-0.2225
-2.5296 E tS	-0.1298
-0.9661 E tc	-0.0534
-1.9275 E th	-0.2213
-2.2743 E ts	-0.1339
-1.8961 E u	-0.0607
-1.8861 E v	-0.3122
-1.4651 E x	-0.2866
-2.3254 E y	-0.1592
-1.7587 E z	+0.0702
-1.6204 I &	-0.7386
-1.8685 I @	-0.4581
-2.0306 I A	-0.5363
-2.1653 I D&	-0.2292
-2.5410 I D&i	-0.0922
-2.4942 I E	-0.0001
-1.5000 I N	-0.3749
-1.2178 I S	-1.1937
-1.4504 I U	+0.0268
-2.0276 I Y	-0.2548
-2.0772 I a	-0.1614
-2.5878 I aU	-0.0237
-2.8834 I ai	+0.0292
-2.1089 I b	+0.4907
-2.1716 I d	+0.1304
-1.0420 I dc	-0.6390
-1.7720 I e	-0.2861
-2.0945 I f	-0.3635
-1.7451 I g	+0.2553
-1.8834 I h	-0.1232
-1.6485 I i	-0.3994
-1.7427 I j	+0.0239
-1.7296 I kh	-0.1818
-1.5862 I l	-0.3958
-1.4934 I m	-0.3117
-1.4565 I n	-1.7075
-1.5856 I o	-0.3616
-1.9352 I oe	-0.3279
-3.8878 I pf
-1.9763 I ph	-0.0913
-1.3507 I r	+0.5721
-1.3048 I s	-1.0849
-2.5217 I tS	-0.3384
-0.8122 I tc	+0.7176
-1.7926 I th	-0.1763
-1.8520 I ts	-0.4621
-1.4110 I u	+0.7519
-1.3692 I v	-0.2640
-1.5445 I x	+0.0900
-2.1977 I y	-0.1389
-1.5041 I z	-0.2233
-1.4464 N &	-0.2659
-1.7499 N @	-0.3844
-1.8486 N A	-0.1419
-2.0900 N D&	-0.2042
-2.3520 N D&i	-0.3865
-2.4422 N E	-0.2139
-1.2728 N I	+0.0185
-1.2843 N S	-0.7887
-1.6503 N U	-0.1249
-1.9127 N Y	-0.0738
-1.9407 N a	-0.3228
-2.5147 N aU	-0.3525
-1.9678 N ai	-0.1265
-1.4973 N b	-0.0541
-1.4618 N d	-0.3518
-1.2182 N dc	-0.5586
-1.6796 N e	-0.2820
-2.1991 N f	-0.1168
-1.0462 N g	+0.0881
-1.6725 N h	-0.1184
-1.5128 N i	-0.0758
-1.6654 N j	-0.0401
-1.5486 N kh	+0.2162
-1.8099 N l	-0.1139
-1.6216 N m	-0.2715
-1.4540 N n	-0.5299
-1.7655 N o	-0.0011
-2.0937 N oe	-0.1186
-3.3844 N pf
-1.9735 N ph	-0.1716
-1.8177 N r	-0.2045
-1.6530 N s	-0.0868
-2.3386 N tS	-0.2239
-1.0540 N tc	-0.4863
-1.6154 N th	-0.4925
-1.8486 N ts	-0.0843
-1.4123 N u	-0.2269
-1.4751 N v	+0.0090
-1.5237 N x	+0.0253
-2.1991 N y	-0.0936
-1.7690 N z	-0.0576
-1.5558 S &	-0.0338
-1.7341 S @	-0.2735
-1.9447 S A	-0.2964
-2.0921 S D&	-0.1510
-2.4577 S D&i	-0.1118
-2.0933 S E	-0.2930
-1.0164 S I	+0.2384
-2.0207 S N	-0.3497
-1.0335 S U	+0.0970
-1.2548 S Y	-0.3160
-1.9434 S a	-0.1468
-2.2325 S aU	-0.0978
-2.2296 S ai	-0.3407
-2.2474 S b	-0.1854
-1.6118 S d	-0.1795
-1.3132 S dc	-0.5021
-1.8029 S e	-0.2296
-1.9979 S f	-0.3973
-1.5583 S g	-0.3303
-1.9682 S h	-0.4843
-1.3193 S i	-0.1338
-1.5709 S j	-0.4471
-1.9213 S kh	-0.0818
-1.8150 S l	-0.4330
-1.6484 S m	-0.5956
-1.6744 S n	-0.6094
-1.3783 S o	-0.6634
-1.5614 S oe	-0.4261
-3.2888 S pf	-0.2106
-1.8842 S ph	+0.0179
-1.6793 S r	+0.1466
-1.9285 S s	-0.3549
-2.8117 S tS	-0.1976
-1.2167 S tc	-0.2049
-1.6648 S th	-0.1720
-1.6239 S ts	-0.6304
-1.4553 S u	-0.4371
-1.4811 S v	-0.2745
-2.1827 S x	-0.2176
-1.8007 S y	-0.0867
-1.5533 S z	-0.5670
-2.0053 U &	-0.0622
-2.4441 U @	-0.0825
-2.1732 U A	-0.3216
-1.8991 U D&	-0.3396
-1.9891 U D&i	-0.0797
-2.8899 U E	-0.0883
-1.6659 U I	+0.0137
-1.4949 U N	+1.0006
-1.1179 U S	-1.1421
-1.7477 U Y	-0.1046
-2.2615 U a	-0.1596
-2.3617 U aU	-0.3804
-2.2615 U ai	-0.0702
-1.5075 U b	-0.3240
-2.1802 U d	-0.0201
-0.9515 U dc	-0.4533
-2.4572 U e	-0.0713
-1.7529 U f	-0.3258
-1.6758 U g	-0.1429
-1.7705 U h	-0.4922
-1.8388 U i	-0.1194
-2.2834 U j	-0.2465
-1.6648 U kh	-0.5493
-1.5442 U l	+0.0352
-1.6267 U m	-0.1406
-1.7138 U n	-0.5496
-1.7664 U o	+0.0844
-2.2209 U oe	-0.0795
-3.7974 U pf
-1.7451 U ph	-0.4041
-1.6616 U r	-0.2907
-1.2034 U s	-0.4979
-2.5980 U tS	-0.0439
-0.7445 U tc	-0.3533
-1.8568 U th	-0.2445
-1.9735 U ts	-0.2136
-1.6055 U u	-0.2272
-1.3649 U v	+0.1770
-1.3681 U x	-0.1411
-2.2171 U y	-0.4444
-1.6703 U z	-0.0647
-1.5889 Y &	-0.3391
-1.8416 Y @	-0.0479
-1.9918 Y A	+0.0861
-2.0412 Y D&	-0.3073
-2.4119 Y D&i	-0.2011
-2.6767 Y E	-0.1540
-1.3961 Y I	-0.2778
-1.5588 Y N	+0.0495
-1.1927 Y S	-0.5775
-1.2402 Y U	-0.3227
-2.1661 Y a	-0.3566
-2.6944 Y aU	-0.1161
-2.8705 Y ai	-0.2762
-1.8957 Y b	-0.1844
-2.1938 Y d	-0.0422
-1.1024 Y dc	-0.2925
-1.9193 Y e	-0.1356
-2.0746 Y f	-0.3956
-2.1302 Y g	-0.0842
-1.7566 Y h	-0.4116
-1.5381 Y i	-0.2904
-1.8843 Y j	-0.2778
-2.1825 Y kh	-0.3228
-1.3889 Y l	-0.1011
-1.3970 Y m	-0.2834
-1.5183 Y n	-0.3891
-1.3150 Y o	-0.4842
-1.8899 Y oe	-0.1461
-2.2234 Y ph	-0.2112
-1.4473 Y r	-0.2099
-1.2240 Y s	-0.2254
-2.7322 Y tS	-0.0923
-1.0870 Y tc	+0.0033
-1.9607 Y th	-0.4337
-2.3844 Y ts	-0.1207
-1.4138 Y u	-0.2266
-1.2222 Y v	-0.1664
-1.7054 Y x	-0.3553
-1.8493 Y y	-0.3804
-1.4243 Y z	-0.1685
-2.2453 a &	-0.2027
-2.7727 a @	-0.2358
-2.0830 a A	-0.3498
-2.7091 a D&	-0.1582
-2.6365 a D&i	-0.1589
-2.9376 a E	-0.1595
-2.1377 a I	-0.2205
-1.3064 a N	-0.4860
-1.1070 a S	-0.8510
-2.3033 a U	-0.3469
-2.2522 a Y	-0.2268
-2.1539 a aU	-0.2646
-2.0925 a ai	-0.0252
-1.9309 a b	-0.1503
-2.1942 a d	-0.1919
-1.3119 a dc	-0.1666
-2.3033 a e	-0.2036
-1.8668 a f	-0.0225
-2.0830 a g	-0.1596
-1.7843 a h	-0.3705
-2.0877 a i	-0.1481
-2.5744 a j	-0.1141
-1.9477 a kh	-0.2058
-1.0798 a l
-1.5601 a m	-0.1799
-1.1125 a n	-0.9877
-2.3794 a o	-0.2261
-2.6201 a oe	-0.1535
-3.2777 a pf	-0.2928
-1.7334 a ph	-0.4527
-1.2763 a r	-0.3509
-0.8660 a s	-0.8781
-2.2881 a tS	-0.2474
-0.7732 a tc	+0.0598
-1.9244 a th	-0.3119
-1.6090 a ts	-0.5058
-2.1120 a u	-0.2503
-1.8011 a v	-0.1063
-1.6217 a x	-0.1645
-2.4283 a y	-0.2103
-1.6536 a z	+0.0935
-2.3749 aU &	-0.1672
-3.0994 aU @	-0.1613
-2.2347 aU A	-0.1330
-1.8459 aU D&	-0.1591
-2.0069 aU D&i	-0.0697
-2.1289 aU I	-0.0622
-1.3044 aU N	-0.2908
-1.3317 aU S	-0.3269
-1.2072 aU U	-0.1705
-2.1786 aU Y	-0.3019
-2.2500 aU a	+0.0142
-2.5510 aU ai	-0.0712
-1.2332 aU b	-0.5984
-2.4667 aU d	-0.2143
-1.1839 aU dc	-0.3337
-2.6557 aU e	-0.4367
-1.6557 aU f	-0.3528
-1.5125 aU g	-0.1649
-1.7626 aU h	-0.3677
-2.2347 aU i	-0.1178
-2.5832 aU j	-0.0969
-1.4443 aU kh	-0.2711
-1.7626 aU l	-0.2525
-1.5153 aU m	-0.4685
-1.9490 aU n	-0.2191
-1.3133 aU o	-0.0075
-2.6971 aU oe	-0.2269
-1.3151 aU ph	+0.2344
-1.4253 aU r	-0.1188
-1.3298 aU s	-0.6332
-2.6971 aU tS
-1.0627 aU tc	-0.5206
-2.0637 aU th	-0.1939
-1.8107 aU ts	-0.3315
-1.1027 aU u	-0.2839
-1.3567 aU v	-0.4371
-1.3115 aU x	-0.3707
-2.5211 aU y	-0.2765
-1.9811 aU z	-0.1306
-1.8554 ai &	-0.1623
-1.5895 ai @	-0.3069
-1.8886 ai A	-0.2532
-3.0386 ai D&	-0.0538
-3.4690 ai D&i
-2.3289 ai E	-0.1469
-1.2109 ai I	-0.1444
-1.0868 ai N	-0.8169
-1.3174 ai S	-0.6216
-2.2427 ai U	-0.2088
-1.8278 ai Y	-0.3789
-2.0609 ai a	-0.2131
-2.6195 ai aU	-0.1266
-2.2605 ai b	-0.2913
-2.2013 ai d	-0.2621
-1.3268 ai dc	-0.1685
-2.1288 ai e	-0.1137
-2.4946 ai f	-0.2119
-2.0966 ai g	-0.1948
-1.7803 ai h	-0.3327
-1.2013 ai i	-0.2225
-2.0496 ai j	-0.2165
-2.2605 ai kh	-0.2552
-0.8761 ai l	-0.7939
-1.7458 ai m	-0.5242
-1.0814 ai n	-0.6618
-2.4946 ai o	-0.1298
-2.3397 ai oe	-0.3489
-2.4366 ai ph	-0.2145
-1.3375 ai r	-0.1689
-1.2109 ai s	-0.5566
-2.9875 ai tS	-0.0670
-0.9234 ai tc	-0.2094
-2.1935 ai th	-0.3780
-2.4102 ai ts	-0.1774
-2.3854 ai u	-0.3239
-1.8589 ai v	-0.3859
-1.7087 ai x	-0.5757
-2.3506 ai y	-0.1650
-1.6699 ai z	-0.3903
-1.1059 b &	+0.4257
-1.4478 b @	-0.2360
-1.6283 b A	-0.1251
-1.3162 b D&	-0.1689
-1.5007 b D&i	-0.4928
-1.9710 b E	-0.2461
-1.3631 b I	-0.0268
-2.2357 b N	-0.2310
-1.8367 b S	-0.2772
-1.3497 b U	-0.3265
-1.6700 b Y	-0.3056
-1.3016 b a	-0.2639
-1.7193 b aU	-0.0624
-1.2634 b ai	-0.2910
-1.8889 b d	-0.1755
-1.9980 b dc	-0.0352
-1.2056 b e	-0.3028
-2.7824 b f	-0.2976
-1.7128 b g	-0.2148
-2.2691 b h	-0.2634
-1.2929 b i	-0.4418
-2.1899 b j	-0.4294
-2.0988 b kh	-0.1140
-1.6514 b l	-0.3634
-2.1148 b m	-0.1552
-1.9888 b n	-0.3680
-1.2510 b o	-0.7826
-1.3266 b oe	+0.0699
-3.5465 b pf
-2.3733 b ph	-0.2083
-1.3944 b r	-0.1249
-1.8410 b s	-0.0707
-2.8889 b tS	-0.0492
-2.0203 b tc	-0.1268
-2.0336 b th	-0.2440
-2.3181 b ts	-0.2231
-1.2476 b u	-0.1582
-2.0797 b v	-0.2541
-2.1710 b x	+0.0383
-1.4375 b y	-0.1731
-2.2411 b z	-0.2443
-1.0844 d &	+0.0971
-1.1562 d @	-0.6574
-1.3490 d A	-0.5380
-1.8266 d D&	-0.3123
-2.2286 d D&i	-0.3666
-1.8375 d E	-0.3899
-0.9368 d I	+0.2178
-1.9093 d N	-0.2544
-1.9484 d S	-0.4031
-1.4870 d U	-0.0576
-1.6291 d Y	-0.0048
-1.3162 d a	-0.1500
-1.8081 d aU	-0.1030
-1.5215 d ai	-0.1098
-3.2218 d b	-0.0603
-2.0261 d dc	-0.1886
-1.2192 d e	-0.1107
-2.9044 d f	-0.2435
-3.0136 d g	-0.4326
-2.2494 d h	-0.4402
-1.2323 d i	-0.3431
-1.7771 d j	-0.4230
-2.8734 d kh	-0.2280
-1.6189 d l	+0.2665
-1.9538 d m	-0.5830
-2.1685 d n	-0.3498
-1.3744 d o	-0.4812
-1.6325 d oe	-0.1621
-4.1754 d pf
-3.2566 d ph	-0.0218
-0.9287 d r	-0.5751
-1.6845 d s	-0.3620
-3.3815 d tS	-0.2656
-1.6993 d tc	-0.3019
-3.0136 d th	-0.3869
-3.1317 d ts	-0.0308
-1.6066 d u	-0.3571
-2.2789 d v	-0.2790
-2.2866 d x	-0.1619
-1.7905 d y	-0.2699
-2.4550 d z	-0.1488
-2.5192 dc &	-0.1927
-2.0868 dc @	-0.1786
-2.9353 dc A	-0.2476
-2.5692 dc D&	-0.3820
-3.0121 dc D&i	-0.1379
-2.6284 dc E	-0.3651
-1.4961 dc I	+0.2107
-2.9550 dc N	-0.1492
-1.9967 dc S	-0.2206
-2.0412 dc U	-0.0666
-1.9651 dc Y	-0.0698
-2.3561 dc a	-0.1280
-3.0677 dc aU	-0.2762
-2.9309 dc ai	-0.3952
-0.8649 dc b	-1.2456
-0.5232 dc d	-0.6796
-2.2611 dc e	-0.2094
-2.7138 dc f	-0.2549
-0.6883 dc g	-0.2839
-2.4697 dc h	-0.1464
-1.8188 dc i	+0.1295
-1.8206 dc j	-0.1981
-1.5800 dc kh	+0.5125
-2.4821 dc l	-0.5442
-2.5353 dc m	-0.2719
-2.4236 dc n	-0.2513
-1.9333 dc o	-0.2189
-2.5449 dc oe	-0.2712
-3.2438 dc pf	-0.3053
-1.7349 dc ph	-0.3810
-2.4577 dc r	-0.3965
-2.8656 dc s	-0.2025
-2.7748 dc tS	-0.2969
-2.5646 dc tc	-0.1032
-1.0305 dc th	-0.6323
-1.9780 dc ts	-0.4721
-1.7357 dc u	-0.3343
-2.0077 dc v	-0.3468
-2.3818 dc x	-0.5232
-2.4422 dc y	-0.1242
-2.0742 dc z	-0.8343
-2.0960 e &	-0.2978
-2.0582 e @	-0.1174
-1.5751 e A	-0.2921
-2.8587 e D&	-0.2041
-2.8364 e D&i	-0.1604
-2.6323 e E	-0.3287
-1.5847 e I	-0.2247
-1.2065 e N	-0.6536
-1.3815 e S	-0.4717
-2.2343 e U	-0.3806
-2.1246 e Y	-0.2081
-1.8656 e a	-0.2045
-2.3179 e aU	-0.2457
-1.5364 e ai	-0.3289
-2.3113 e b	-0.2294
-2.2986 e d	-0.0321
-1.1200 e dc	-0.4969
-2.3971 e f	-0.2026
-2.3245 e g	-0.2049
-1.7627 e h	-0.2664
-1.5728 e i	-0.3171
-2.2566 e j	-0.0195
-2.1979 e kh	-0.2627
-1.0036 e l	-1.0193
-1.5799 e m	-0.5827
-1.1741 e n	-1.3020
-2.6189 e o	-0.3479
-2.4940 e oe	-0.1165
-3.9771 e pf
-2.2801 e ph	-0.1851
-1.1611 e r	+0.8255
-1.0305 e s	-0.6992
-2.5811 e tS	-0.1677
-0.8370 e tc	-0.6044
-2.0960 e th	-0.1092
-2.1374 e ts	-0.2445
-2.2509 e u	-0.3083
-1.7360 e v	-0.6749
-1.6517 e x	-0.5052
-2.5692 e y	-0.0817
-1.4900 e z	-0.2695
-1.5022 f &	-0.0329
-2.1949 f @	-0.1830
-1.7670 f A	-0.3118
-1.1737 f D&	-0.2527
-1.8786 f D&i	-0.4574
-2.2619 f E	-0.0843
-1.4194 f I	-0.2333
-2.0086 f N	-0.2746
-1.6976 f S	-0.2589
-1.2238 f U	-0.2040
-1.6046 f Y	-0.0725
-1.5702 f a	-0.0649
-1.7970 f aU	-0.2625
-1.9017 f ai	-0.0312
-1.8786 f b	-0.0976
-1.6335 f d	-0.2111
-1.6007 f dc	-0.0302
-1.8862 f e	-0.1981
-1.3941 f g	-0.4090
-1.9889 f h	-0.2478
-1.6464 f i	-0.1666
-2.0623 f j	-0.0290
-1.6464 f kh	-0.4495
-1.8292 f l	-0.2844
-1.6377 f m	-0.2306
-1.7283 f n	-0.3532
-1.0774 f o	-0.3135
-1.8427 f oe	-0.2442
-3.1693 f pf
-1.8292 f ph	-0.3204
-1.4631 f r	-0.2918
-1.8939 f s	-0.0854
-2.5629 f tS	-0.0502
-1.3990 f tc	-0.1121
-1.8292 f th	-0.2109
-1.5890 f ts	-0.1674
-0.9986 f u	-0.2046
-1.5117 f v	-0.4725
-2.0400 f x	-0.2089
-1.8427 f y	-0.1510
-1.7613 f z	-0.2070
-1.0295 g &	+0.6384
-1.2251 g @	-0.6499
-1.8583 g A	-0.0930
-1.6436 g D&	+0.0201
-2.3052 g D&i	+0.0110
-1.8318 g E	-0.2955
-0.9696 g I	-0.5160
-1.7524 g N	-0.1391
-1.6151 g S	-0.7066
-1.1941 g U	+0.4402
-1.4585 g Y	-0.0730
-1.6565 g a	-0.2818
-2.0024 g aU	-0.2055
-1.9725 g ai	-0.1710
-2.2668 g b	-0.3645
-2.2602 g d	-0.1988
-1.8993 g dc	-0.2057
-1.3034 g e	-0.4472
-2.9036 g f	-0.0963
-2.1402 g h	-0.3983
-1.1417 g i	-0.0232
-1.6279 g j	-0.4899
-2.6906 g kh	-0.1674
-1.5264 g l	-0.1259
-1.9095 g m	-0.2508
-1.7690 g n	-0.4483
-1.2440 g o	-0.5084
-1.4755 g oe	-0.3711
-2.7787 g ph	-0.1680
-1.5277 g r	+0.0536
-1.8079 g s	+0.0341
-2.7897 g tS	-0.1546
-1.8044 g tc	-0.3463
-2.6484 g th	-0.2143
-2.6906 g ts	-0.0547
-1.2381 g u	-0.5531
-1.9007 g v	-0.4689
-2.0930 g x	-0.0740
-1.6888 g y	-0.1032
-2.4363 g z	-0.1917
-1.4299 h &	-0.2063
-1.5770 h @	-0.1688
-1.1786 h A	+0.3609
-1.2925 h D&	-0.3053
-1.5559 h D&i	-0.1957
-2.1478 h E	-0.2954
-1.4910 h I	-0.2798
-1.3916 h N	+0.4361
-1.7833 h S	-0.2184
-1.6083 h U	-0.0582
-1.9308 h Y	-0.2274
-1.3386 h a	-0.3521
-1.4805 h aU	-0.1532
-1.4284 h ai	+0.0139
-2.0110 h b	-0.2826
-1.8083 h d	-0.1768
-1.8388 h dc	-0.0961
-1.5748 h e	-0.1536
-2.2270 h f	-0.2014
-1.9071 h g	-0.3339
-1.5417 h i	-0.0670
-1.8010 h j	-0.1067
-2.1812 h kh	-0.1888
-1.6707 h l	-0.4059
-1.3750 h m	-0.4530
-1.6107 h n	-0.4022
-1.1909 h o	-0.0685
-1.8549 h oe	-0.4367
-3.7199 h pf
-2.0413 h ph	-0.3053
-1.2706 h r	-0.3084
-1.5684 h s	-0.2154
-2.8802 h tS	-0.0663
-1.8046 h tc	-0.0114
-1.9994 h th	-0.3433
-2.0808 h ts	-0.2233
-1.2017 h u	-0.5441
-1.8508 h v	-0.0054
-1.7662 h x	-0.2664
-2.0477 h y	-0.1346
-1.9357 h z	-0.2124
-2.2341 i &	-0.1530
-2.0243 i @	-0.3101
-2.8651 i A	-0.2242
-3.1814 i D&	-0.2091
-3.5537 i D&i	-0.1087
-2.5566 i E	-0.3027
-1.2348 i I	+0.9320
-1.3130 i N	-0.2904
-0.8028 i S	-2.0342
-2.1752 i U	-0.4011
-2.0746 i Y	-0.3832
-2.7834 i a	+0.0138
-3.4868 i aU	-0.1018
-2.9473 i ai	-0.0263
-2.2376 i b	-0.0888
-2.1344 i d	-0.1838
-1.0973 i dc	-0.6771
-2.3781 i e	+0.0142
-2.0157 i f	-0.0220
-1.9244 i g	-0.1382
-1.9010 i h	+0.1277
-1.8130 i j	-0.2038
-2.0265 i kh	-0.2518
-1.5093 i l	-0.5833
-1.7320 i m	-0.4168
-1.4048 i n	-0.9037
-2.5716 i o	-0.1946
-2.9658 i oe	-0.1271
-3.2483 i pf	-0.1034
-2.2520 i ph	-0.3910
-2.0795 i r	-0.0342
-1.0109 i s	-0.9676
-2.0397 i tS	-0.2227
-0.8244 i tc	-0.3764
-1.7834 i th	-0.4921
-1.5603 i ts	-0.4800
-2.3590 i u	-0.1988
-1.6900 i v	-0.4763
-1.2200 i x	+0.2115
-2.8224 i y	-0.0684
-1.3297 i z	-0.0496
-1.2962 j &	-0.4702
-1.9830 j @	+0.0657
-0.8649 j A	-0.5033
-1.9097 j D&	-0.3095
-2.2413 j D&i	-0.3093
-2.3662 j E	-0.1472
-2.1096 j I	-0.3854
-1.8291 j N	-0.2821
-1.7733 j S	-0.2262
-1.7024 j U	-0.0050
-2.2693 j Y	-0.2504
-1.1659 j a	-0.3531
-1.3161 j aU	-0.0354
-1.2870 j ai	-0.4060
-2.4601 j b	-0.1625
-2.3784 j d	-0.1022
-2.2693 j dc	+0.0423
-1.4326 j e	-0.2501
-2.4454 j f	-0.2304
-2.3543 j g	-0.1397
-1.7294 j h	-0.4811
-1.8362 j i	-0.0197
-2.1591 j kh	-0.1630
-1.6507 j l	-0.1807
-1.7552 j m	-0.3136
-1.8733 j n	-0.3309
-1.5143 j o	-0.2682
-1.9313 j oe	-0.1770
-2.3205 j ph	-0.1237
-0.6639 j r	-0.8933
-1.6820 j s	-0.3846
-3.4498 j tS
-2.0837 j tc	-0.2225
-2.3097 j th	-0.1885
-2.4912 j ts	-0.3049
-1.1958 j u	-0.2066
-2.0713 j v	-0.3653
-2.1666 j x	-0.1179
-2.1517 j y	-0.1555
-2.0837 j z	-0.0045
-1.3507 kh &	+0.4608
-1.6670 kh @	-0.0797
-1.5284 kh A	-0.3577
-1.4406 kh D&	-0.1189
-2.2406 kh D&i	-0.1047
-2.0584 kh E	-0.1905
-1.1439 kh I	+0.2274
-1.9779 kh N	-0.1153
-1.4624 kh S	-0.6317
-1.4686 kh U	-0.1670
-1.4898 kh Y	-0.0367
-1.3611 kh a	-0.3825
-1.8154 kh aU	-0.2566
-1.5121 kh ai	-0.1035
-1.9129 kh b	-0.5275
-1.7358 kh d	-0.5328
-1.5578 kh dc	-0.1681
-1.3307 kh e	-0.1788
-2.1523 kh f	-0.3731
-1.6573 kh g	-0.1856
-1.9187 kh h	-0.1745
-1.4514 kh i	+0.0732
-1.8987 kh j	-0.2422
-1.5591 kh l	-0.2191
-1.7696 kh m	-0.2511
-1.7494 kh n	-0.2397
-1.4253 kh o	-0.2729
-1.4614 kh oe	-0.3675
-3.5736 kh pf
-1.9647 kh ph	-0.2490
-1.4244 kh r	-0.3090
-1.7676 kh s	-0.1454
-2.5478 kh tS	-0.1884
-1.4738 kh tc	-0.1873
-1.8877 kh th	-0.2607
-1.8085 kh ts	-0.3821
-1.3554 kh u	-0.4687
-1.4635 kh v	-0.0881
-1.9713 kh x	-0.3771
-1.8588 kh y	-0.1496
-1.7397 kh z	-0.2550
-1.2247 l &	-0.6129
-1.0919 l @	-0.5577
-1.6783 l A	-0.3471
-2.0344 l D&	-0.2834
-2.3907 l D&i	-0.2072
-1.7996 l E	-0.4877
-1.0574 l I	+0.9015
-1.7856 l N	-0.4058
-1.6664 l S	-0.1394
-1.6549 l U	-0.0693
-1.5768 l Y	-0.2414
-1.5826 l a	-0.2205
-1.8629 l aU	-0.3445
-1.6023 l ai	-0.4548
-2.1424 l b	-0.1128
-1.7764 l d	+0.1297
-1.3387 l dc	-0.4615
-1.1751 l e	-0.7347
-2.5826 l f	-0.2558
-1.7645 l g	-0.2326
-1.9978 l h	-0.3544
-1.1417 l i	-0.1499
-1.6905 l j	-0.4619
-2.1389 l kh	-0.2351
-1.9283 l m	-0.2763
-1.7487 l n	-0.4108
-1.7147 l o	-0.1456
-1.5308 l oe	-0.1565
-3.7630 l pf
-2.3167 l ph	-0.3195
-1.7965 l r	-0.1734
-1.6023 l s	-0.3151
-2.6795 l tS	-0.0934
-1.1427 l tc	-0.1500
-1.9830 l th	-0.3782
-2.1185 l ts	-0.3761
-1.7587 l u	-0.2065
-1.6905 l v	-0.1010
-1.9781 l x	-0.3925
-1.7213 l y	-0.3859
-1.6942 l z	-0.3343
-1.2974 m &	-0.2480
-1.5603 m @	-0.5163
-1.4101 m A	-0.2601
-1.2413 m D&	-0.3740
-1.5883 m D&i	-0.0891
-2.2569 m E	-0.1202
-1.3351 m I	+0.2679
-1.7663 m N	-0.3512
-1.5734 m S	-0.3912
-1.7299 m U	-0.4104
-2.0847 m Y	-0.2976
-1.2646 m a	-0.3068
-1.6883 m aU	-0.1942
-1.2694 m ai	+0.0263
-1.9113 m b	-0.3566
-1.5567 m d	-0.3660
-1.5759 m dc	-0.2470
-1.4211 m e	-0.3395
-2.3479 m f	-0.2331
-1.7957 m g	-0.3076
-1.7477 m h	+0.0981
-1.2634 m i	-0.0089
-1.7196 m j	-0.2989
-2.2810 m kh	-0.3010
-2.0542 m l	-0.1700
-1.7423 m n	-0.3156
-1.4758 m o	-0.2070
-2.0506 m oe	-0.3000
-2.1175 m ph	-0.1006
-1.6578 m r	+0.0469
-1.4977 m s	-0.1890
-2.5820 m tS	-0.1595
-1.3913 m tc	-0.0768
-2.0469 m th	-0.3288
-2.0692 m ts	-0.2537
-1.1028 m u	+1.2137
-1.7334 m v	-0.1025
-1.8207 m x	-0.1584
-1.9862 m y	-0.2357
-1.8906 m z	-0.1849
-1.3301 n &	-0.3504
-1.2819 n @	-0.3966
-1.4778 n A	+0.0705
-1.8510 n D&	-0.2224
-2.1380 n D&i	-0.4462
-2.0075 n E	-0.2148
-1.2476 n I	+0.0606
-2.0747 n N	-0.1771
-1.4866 n S	-0.7110
-1.7769 n U	-0.1183
-1.9394 n Y	-0.1875
-1.4452 n a	-0.3222
-1.8289 n aU	+0.0865
-1.6119 n ai	-0.2116
-1.7721 n b	-0.4370
-1.3719 n d	-0.0114
-1.2186 n dc	-0.7614
-1.1636 n e	-0.1673
-2.4536 n f	-0.1323
-1.4369 n g	-0.2217
-1.8653 n h	-0.3068
-1.3385 n i	+0.0622
-1.5744 n j	-0.3846
-1.9185 n kh	-0.2801
-2.0228 n l	-0.3685
-1.9714 n m	-0.3480
-1.8420 n o	-0.0309
-2.1190 n oe	-0.1935
-3.2987 n pf	-0.0814
-2.1049 n ph	-0.4212
-1.7409 n r	-0.1878
-1.7902 n s	-0.2220
-2.6107 n tS	-0.1014
-1.1314 n tc	-0.6659
-1.6953 n th	-0.1853
-1.9588 n ts	-0.1733
-1.5334 n u	-0.1913
-1.7049 n v	-0.4716
-1.7516 n x	-0.3901
-2.1226 n y	-0.0949
-1.7970 n z	-0.3493
-2.2797 o &	+0.0013
-2.4023 o @	+0.0481
-2.1982 o A	-0.1635
-2.2362 o D&	-0.1368
-2.1080 o D&i	-0.1629
-2.8930 o E	-0.0403
-1.5425 o I	+0.1719
-1.4619 o N	+0.0176
-1.2649 o S	-1.1215
-1.6794 o U	+0.0517
-1.6474 o Y	-0.1817
-2.2971 o a	-0.1235
-2.3188 o aU	-0.2683
-2.2664 o ai	-0.1201
-1.3493 o b	-0.8005
-2.0679 o d	-0.2538
-0.9923 o dc	-0.4940
-2.5388 o e	-0.0980
-1.8147 o f	-0.3170
-1.4809 o g	+0.1326
-1.7098 o h	-0.5486
-1.9055 o i	-0.2317
-2.2332 o j	-0.2337
-1.4866 o kh	+0.1745
-1.5815 o l	-0.0906
-1.6154 o m	-0.5437
-1.7747 o n	-0.3585
-2.2866 o oe	-0.3283
-3.3078 o pf
-1.4761 o ph	+1.2374
-1.5538 o r	-0.1159
-1.1839 o s	-0.3910
-2.3358 o tS	-0.3288
-0.9142 o tc	-0.5512
-1.7795 o th	-0.2717
-1.7044 o ts	-0.2561
-1.6668 o u	-0.0252
-1.2359 o v	-0.2407
-1.3572 o x	-0.5774
-2.3596 o y	-0.0984
-1.6794 o z	-0.5521
-1.9007 oe &	+0.0143
-1.8969 oe @	-0.3600
-1.5097 oe A	-0.4261
-2.6315 oe D&	-0.2334
-2.4766 oe D&i	-0.2646
-2.4097 oe E	-0.1353
-1.2743 oe I	-0.3271
-1.3561 oe N	-0.0803
-1.1442 oe S	-0.4666
-2.0673 oe U	-0.4005
-1.6727 oe Y	-0.3012
-1.7662 oe a	-0.3374
-2.3740 oe aU	-0.0955
-1.7984 oe ai	-0.2185
-2.5558 oe b	-0.1190
-2.2817 oe d	-0.1781
-1.3274 oe dc	-0.3960
-2.0964 oe e	-0.2127
-2.1149 oe f	-0.4102
-2.1277 oe g	-0.1769
-1.7009 oe h	-0.1547
-1.4752 oe i	-0.2971
-1.8674 oe j	-0.2716
-2.3305 oe kh	-0.2403
-0.9594 oe l	+1.0581
-1.6637 oe m	-0.6200
-1.3274 oe n	-0.7098
-2.0904 oe o	-0.1683
-3.3561 oe pf
-2.5388 oe ph	-0.2139
-1.0611 oe r	+0.8091
-1.0405 oe s	-0.7710
-2.5735 oe tS	-0.1846
-1.1635 oe tc	-0.1716
-2.0729 oe th	-0.2828
-2.3305 oe ts	-0.1968
-2.0399 oe u	-0.1896
-1.6133 oe v	-0.3340
-1.6866 oe x	-0.2607
-2.3103 oe y	-0.2706
-1.4313 oe z	-0.2804
-1.2136 pf &	-0.0960
-2.2837 pf @
-1.9713 pf A
-1.8463 pf D&
-2.2837 pf D&i
-1.9713 pf E
-1.1653 pf I	-0.2471
-1.9713 pf N
-1.9713 pf S
-1.2979 pf U	-0.1082
-1.5410 pf Y	-0.1658
-1.9713 pf a
-1.9713 pf aU
-1.6033 pf b	-0.1902
-1.6033 pf d	-0.0721
-1.4440 pf dc	-0.1501
-1.6703 pf e	-0.0964
-2.2837 pf f
-1.4027 pf g	-0.0883
-1.9258 pf h	-0.3728
-1.1218 pf i	-0.0967
-1.6033 pf j	-0.0869
-1.6703 pf kh	-0.1108
-1.4440 pf l	-0.5017
-1.6703 pf m
-1.4898 pf n	-0.0766
-1.4440 pf o	-0.0523
-1.6703 pf oe	-0.1069
-1.9713 pf ph
-1.6033 pf r
-1.8463 pf s	-0.1701
-2.2837 pf tS
-1.5410 pf tc	-0.1254
-1.4898 pf th	-0.2380
-1.9258 pf ts
-1.4440 pf u	-0.1105
-1.2680 pf v	-0.1316
-1.8463 pf x	-0.1881
-2.2837 pf y	-0.6169
-1.5423 ph &	-0.1668
-1.7066 ph @	-0.2097
-1.7781 ph A	-0.2314
-1.2794 ph D&	-0.2668
-1.9429 ph D&i	-0.1330
-2.2308 ph E	-0.2529
-1.1168 ph I	+0.3493
-2.0701 ph N	+0.0723
-1.6223 ph S	-0.3805
-1.2890 ph U	-0.1330
-1.7047 ph Y	-0.1525
-1.4473 ph a	-0.3012
-1.9233 ph aU	-0.2347
-1.6877 ph ai	-0.1212
-1.9463 ph b	+0.0523
-1.9201 ph d	-0.2823
-1.5216 ph dc	-0.0843
-1.6255 ph e	-0.2669
-2.2645 ph f	-0.2596
-1.5165 ph g	-0.3696
-2.0194 ph h	-0.2119
-1.3649 ph i	-0.2858
-1.8750 ph j	-0.1305
-1.7515 ph kh	-0.1424
-1.7367 ph l	-0.2557
-1.7388 ph m	-0.0017
-1.7691 ph n	-0.2829
-1.2360 ph o	-0.3862
-1.7326 ph oe	-0.3565
-3.5841 ph pf
-1.3434 ph r	-0.0302
-1.6877 ph s	-0.4199
-2.5797 ph tS	-0.0876
-1.5267 ph tc	-0.0620
-1.7224 ph th	-0.2852
-1.7346 ph ts	-0.2097
-1.0696 ph u	+1.1895
-1.6035 ph v	-0.3391
-1.8665 ph x	-0.1157
-1.8555 ph y	-0.2398
-1.7804 ph z	-0.4100
-1.8087 r &	-0.2101
-1.9873 r @	-0.0204
-1.8889 r A	-0.1908
-1.8800 r D&	-0.1690
-2.0518 r D&i	-0.2048
-2.5534 r E	-0.2321
-1.7005 r I	-0.2413
-1.6444 r N	-0.3492
-1.5439 r S	-0.8301
-1.8316 r U	-0.1292
-2.0143 r Y	-0.2063
-1.7507 r a	-0.2521
-2.1073 r aU	-0.3752
-1.7776 r ai	-0.1106
-1.3567 r b	+0.3267
-1.8436 r d	-0.3762
-0.9916 r dc	-0.6585
-1.7143 r e	-0.1818
-2.1024 r f	-0.0054
-1.6188 r g	-0.1648
-1.6986 r h	-0.3493
-1.6351 r i	+0.2898
-2.3275 r j	-0.2167
-1.5827 r kh	-0.2619
-1.5293 r l	-0.2910
-1.4443 r m	+0.2589
-1.4411 r n	-0.9271
-1.6368 r o	-0.3990
-1.8995 r oe	+0.0764
-3.5120 r pf	-0.0787
-1.4918 r ph	+0.9180
-1.4063 r s	-0.7015
-2.3751 r tS	-0.1490
-0.9464 r tc	-0.0711
-1.6591 r th	+1.2047
-1.5632 r ts	-0.5890
-1.5639 r u	-0.3347
-1.1935 r v	+0.0218
-1.7965 r x	-0.1084
-2.1569 r y	-0.3090
-1.6401 r z	+0.2104
-1.9129 s &	-0.1446
-2.1767 s @	-0.2368
-2.3977 s A	-0.2689
-2.5224 s D&	-0.3056
-2.8702 s D&i	-0.2543
-2.5181 s E	-0.1096
-1.4509 s I	-0.3371
-2.3888 s N	-0.3006
-1.3470 s S	-1.3978
-1.7315 s U	-0.2219
-1.7178 s Y	-0.2042
-2.0406 s a	+0.0074
-2.7800 s aU	-0.2598
-2.5450 s ai	-0.1757
-1.8147 s b	+0.4123
-1.4879 s d	+0.3600
-1.0336 s dc	-0.7816
-2.0551 s e	-0.1616
-1.9042 s f	-0.5267
-1.4812 s g	-0.1646
-2.0923 s h	-0.1895
-1.6330 s i	-0.2361
-1.8713 s j	+0.2995
-1.5595 s kh	+0.5997
-2.1724 s l	-0.4131
-1.7140 s m	-0.2399
-1.7593 s n	-0.5229
-2.0188 s o	-0.4601
-2.0900 s oe	-0.2063
-2.7178 s pf	-0.1589
-1.3659 s ph	-0.4294
-1.8605 s r	-0.4206
-2.1562 s tS	-0.2062
-1.1771 s tc	-0.2388
-1.2886 s th	+0.1111
-0.8033 s ts	-1.8297
-1.8135 s u	-0.1113
-1.5752 s v	-0.3712
-1.8797 s x	-0.1364
-2.2249 s y	-0.1271
-1.0123 s z	-0.6371
-1.5690 tS &	-0.0344
-1.6792 tS @	-0.1102
-2.2185 tS A	-0.2853
-2.1563 tS D&	-0.0740
-2.5587 tS D&i	-0.1258
-1.9900 tS E	-0.3189
-1.0207 tS I	-0.2606
-1.7761 tS N	-0.2544
-1.2871 tS S	-0.4508
-1.4186 tS U	-0.1484
-1.3640 tS Y	-0.4061
-2.2185 tS a	-0.0335
-2.7347 tS aU
-2.2910 tS ai	-0.1159
-2.1020 tS b	-0.0435
-1.6335 tS d	-0.2771
-1.1283 tS dc	-0.2402
-1.8411 tS e	-0.0488
-2.3324 tS f	-0.0435
-1.5543 tS g	-0.3608
-1.8139 tS h	-0.2245
-1.4516 tS i	-0.3659
-1.5921 tS j	-0.2711
-2.0102 tS kh	-0.1039
-1.9522 tS l	-0.1270
-1.5263 tS m	-0.2850
-1.6603 tS n	-0.2209
-2.1283 tS o	-0.1292
-1.7197 tS oe	-0.2222
-1.7197 tS ph	-0.2237
-1.7884 tS r	-0.1922
-1.7761 tS s	-0.1278
-1.1071 tS tc	-0.1241
-1.2832 tS th	-0.1593
-1.3929 tS ts	-0.2044
-1.7761 tS u	-0.0939
-1.5331 tS v	-0.0712
-1.8010 tS x	-0.1399
-2.1283 tS y	-0.3816
-1.3196 tS z	-0.2523
-2.5227 tc &	-0.1561
-2.6318 tc @	-0.1768
-3.1345 tc A	-0.1200
-2.6662 tc D&	-0.2093
-3.8792 tc D&i
-3.1345 tc E	-0.1508
-1.9567 tc I	-0.3455
-3.2728 tc N	-0.2721
-1.3925 tc S	-1.4691
-2.5357 tc U	-0.2050
-2.3953 tc Y	-0.3217
-2.4887 tc a	-0.2199
-3.2913 tc aU	-0.1710
-3.1759 tc ai	-0.1071
-1.4053 tc b	-0.2722
-0.9624 tc d	-0.1316
-1.6022 tc dc	-0.3881
-2.7185 tc e	-0.1322
-2.0329 tc f	-0.3165
-0.7940 tc g	+0.5217
-2.5526 tc h	-0.1311
-2.1891 tc i	-0.3741
-2.3455 tc j	-0.1966
-1.0118 tc kh	-1.3031
-2.9903 tc l	-0.2143
-2.7135 tc m	-0.1760
-2.8749 tc n	-0.1330
-2.4571 tc o	-0.0425
-2.9126 tc oe	-0.2125
-2.7665 tc pf	-0.2808
-1.0723 tc ph	+0.0244
-2.3765 tc r	-0.4639
-2.2216 tc s	-0.2223
-1.9463 tc tS	-0.2544
-0.7350 tc th	+1.1559
-0.9474 tc ts	-2.0162
-2.0979 tc u	-0.5230
-2.1547 tc v	-0.2497
-2.1190 tc x	-0.3349
-2.9287 tc y	-0.0752
-1.4752 tc z	-0.6730
-1.1851 th &	-0.3619
-1.5693 th @	-0.3998
-1.7302 th A	-0.3024
-1.7914 th D&	-0.0807
-2.2787 th D&i	+0.0335
-2.0648 th E	-0.0782
-1.0610 th I	+0.1021
-2.1809 th N	-0.2800
-1.6398 th S	-0.1195
-1.1235 th U	-0.2214
-1.3712 th Y	+0.1397
-1.6378 th a	-0.1764
-2.2212 th aU	-0.1391
-1.9107 th ai	-0.2519
-2.0982 th b	-0.1217
-1.8712 th d	-0.3696
-1.4456 th dc	-0.0427
-1.4212 th e	-0.0036
-2.3878 th f	-0.2991
-1.7265 th g	+0.0073
-2.0542 th h	-0.3696
-1.3044 th i	-0.3409
-1.6521 th j	-0.2234
-1.8381 th kh	+0.0243
-1.6866 th l	-0.1114
-1.6957 th m	+0.3100
-1.6004 th n	-0.5312
-1.2822 th o	-1.1916
-1.4661 th oe	-0.3393
-3.4336 th pf
-1.9604 th ph	-0.3059
-1.4840 th r	+0.6162
-1.7584 th s	-0.2684
-2.7302 th tS	-0.1965
-1.5109 th tc	-0.1598
-1.8869 th ts	-0.2168
-1.4476 th u	-0.3462
-1.5642 th v	-0.3576
-2.1129 th x	-0.1824
-1.6240 th y	-0.1505
-1.7857 th z	-0.2701
-1.4712 ts &	-0.3429
-1.8813 ts @	-0.0776
-1.9275 ts A	-0.0984
-2.0353 ts D&	-0.5622
-2.2126 ts D&i	-0.4070
-2.2217 ts E	-0.1187
-1.0943 ts I	+1.1536
-2.3438 ts N	-0.2849
-1.6687 ts S	-0.5638
-0.9383 ts U	+0.7284
-1.2451 ts Y	-0.3124
-1.7107 ts a	-0.0221
-2.2360 ts aU	-0.1412
-1.9936 ts ai	-0.2114
-2.1195 ts b	-0.2749
-1.6436 ts d	-0.1256
-1.6084 ts dc	-0.2403
-1.6674 ts e	-0.1792
-2.3377 ts f	-0.2482
-1.7988 ts g	-0.1014
-2.0551 ts h	-0.3554
-1.2105 ts i	-0.1705
-1.8112 ts j	-0.0636
-2.1268 ts kh	-0.2650
-1.7510 ts l	-0.3886
-1.5595 ts m	+0.3797
-1.6858 ts n	-0.5704
-1.2007 ts o	-0.7532
-1.5039 ts oe	-0.4128
-3.1158 ts pf	-0.0511
-1.9697 ts ph	-0.0754
-1.6899 ts r	-0.2884
-1.4841 ts s	-0.3617
-3.1158 ts tS	-0.0492
-1.5360 ts tc	-0.0871
-1.9232 ts th	+0.1239
-1.5147 ts u	-0.2376
-1.3468 ts v	-0.5296
-2.2505 ts x	-0.2000
-1.4293 ts y	-0.3716
-1.9072 ts z	-0.2711
-1.9805 u &	-0.1533
-2.2771 u @	-0.0113
-2.3239 u A	-0.2226
-2.1714 u D&	-0.3623
-2.2513 u D&i	-0.3126
-2.8370 u E	-0.1736
-1.4711 u I	-0.0769
-1.2069 u N	-0.5053
-1.0761 u S	-1.6554
-1.6037 u U	-0.0545
-1.5625 u Y	+0.1580
-2.3762 u a	-0.1162
-2.3441 u aU	-0.2546
-2.2349 u ai	-0.1542
-1.5241 u b	+0.1469
-2.2816 u d	-0.0518
-1.2156 u dc	-0.3370
-2.4423 u e	-0.1941
-1.9162 u f	-0.2808
-1.8774 u g	-0.0693
-1.6641 u h	-0.1878
-1.5449 u i	+0.2659
-2.0808 u j	-0.2053
-1.9461 u kh	-0.1793
-1.3239 u l	+0.8946
-1.3420 u m	-0.1338
-1.2893 u n	-1.2529
-1.8899 u o	-0.1717
-2.2430 u oe	-0.1485
-3.7956 u pf
-1.9420 u ph	-0.1893
-1.4475 u r	-0.0408
-1.0949 u s	-0.6857
-2.5202 u tS	-0.2118
-0.9972 u tc	-0.4242
-2.0808 u th	-0.1743
-2.1010 u ts	-0.3344
-1.3117 u v	-0.3965
-1.4116 u x	+0.0292
-1.9988 u y	-0.2843
-1.7912 u z	-0.3987
-1.3284 v &	-0.4724
-1.2010 v @	-0.5961
-1.4472 v A	+0.0758
-1.3706 v D&	-0.3012
-1.5314 v D&i	-0.1746
-1.8394 v E	-0.1765
-1.0113 v I	+0.8057
-2.0182 v N	-0.3047
-1.9381 v S	-0.3495
-1.5144 v U	-0.0204
-1.8055 v Y	-0.2577
-1.2979 v a	-0.2125
-1.6349 v aU	-0.2330
-1.1882 v ai	-0.3723
-2.5402 v b	-0.0717
-2.0051 v d	-0.3187
-2.3853 v dc	-0.1784
-1.2051 v e	+0.0707
-2.7119 v f	-0.0811
-2.2010 v g	-0.0953
-2.0429 v h	-0.2340
-1.0772 v i	-0.1636
-1.8860 v j	-0.2432
-2.5491 v kh	-0.2823
-2.0077 v l	-0.1449
-2.1098 v m	-0.2185
-2.0937 v n	-0.3742
-1.2175 v o	-0.2229
-1.3484 v oe	+0.1794
-2.7680 v ph	-0.0965
-1.5437 v r	-0.2573
-2.0572 v s	-0.3802
-3.2304 v tS	-0.0383
-2.4175 v tc	-0.0734
-2.6506 v th	-0.1611
-2.8879 v ts	-0.2463
-1.2347 v u	-0.5372
-2.2218 v x	-0.1898
-1.6176 v y	-0.0738
-2.6741 v z	-0.1348
-1.6402 x &	-0.1286
-1.7517 x @	-0.1064
-2.1733 x A	-0.1939
-2.0190 x D&	-0.0993
-2.8443 x D&i	-0.0561
-2.3160 x E	-0.0772
-1.1356 x I	+0.1461
-1.7651 x N	-0.2313
-1.2567 x S	-0.8348
-1.3176 x U	-0.2286
-1.5068 x Y	-0.2775
-2.0942 x a	-0.0499
-2.6012 x aU	-0.1198
-2.4686 x ai	-0.1570
-1.8129 x b	-0.1877
-1.6592 x d	-0.2539
-1.1164 x dc	-0.1764
-1.9117 x e	-0.2792
-1.9246 x f	-0.3408
-1.3591 x g	-0.5694
-2.0031 x h	-0.1660
-1.5742 x i	-0.2184
-1.5966 x j	-0.1870
-1.5801 x kh	-0.2721
-2.0231 x l	-0.3172
-1.6592 x m	-0.4273
-1.5997 x n	-0.4038
-1.7674 x o	-0.1917
-1.9585 x oe	-0.1345
-3.5301 x pf
-1.5068 x ph	+0.2613
-1.7860 x r	+0.0207
-1.6522 x s	-0.4898
-2.1089 x tS	-0.3964
-1.1491 x tc	-0.4012
-1.5460 x th	-0.0930
-1.2302 x ts	-0.6111
-1.4079 x u	+0.1797
-1.5920 x v	-0.0891
-2.3494 x y	-0.0500
-1.4200 x z	-0.2470
-2.0268 y &	-0.0580
-2.3006 y @	-0.3444
-2.2751 y A	-0.1333
-2.6431 y D&	-0.1153
-2.5887 y D&i	-0.0810
-2.7052 y E	-0.1980
-1.5032 y I	-0.3320
-1.6123 y N	+0.0824
-1.0694 y S	-0.5680
-1.9161 y U	-0.2395
-1.7980 y Y	-0.3676
-2.4212 y a	-0.2584
-3.0454 y aU
-2.6730 y ai	-0.1008
-2.1202 y b	-0.0813
-2.2877 y d	-0.2597
-1.0610 y dc	-0.2226
-2.4389 y e	-0.1522
-2.2509 y f	-0.1544
-2.1116 y g	-0.2130
-1.9558 y h	-0.3617
-1.8747 y i	+0.0290
-2.2877 y j	-0.0129
-2.1116 y kh	-0.1205
-1.3059 y l	-0.4986
-1.6824 y m	-0.2752
-1.4444 y n	-0.2685
-2.1564 y o	-0.2392
-2.3006 y oe	-0.0950
-2.3878 y ph	-0.1752
-1.6824 y r	-0.4687
-0.7894 y s	-0.4415
-2.4389 y tS	-0.1911
-0.7278 y tc	-0.4204
-1.9383 y th	-0.4000
-2.0130 y ts	-0.2593
-2.0338 y u	-0.4121
-1.4631 y v	-0.3751
-1.5615 y x	-0.3965
-1.2604 y z	-0.5857
-1.0546 z &	-0.3729
-1.2939 z @	-0.3807
-1.6180 z A	-0.5891
-1.7486 z D&	-0.2284
-2.1074 z D&i	-0.2293
-1.9214 z E	+0.0172
-1.0619 z I	-0.2697
-2.4084 z N	-0.3279
-1.9843 z S	-0.3380
-1.1396 z U	-0.0648
-1.4307 z Y	-0.1887
-1.4933 z a	-0.2498
-2.0351 z aU	-0.4871
-1.8354 z ai	-0.2608
-2.2424 z b	-0.1526
-1.7155 z d	-0.1080
-1.9414 z dc	-0.4485
-1.3073 z e	-0.4402
-2.8294 z f	-0.2156
-2.0288 z g	-0.1312
-2.0613 z h	-0.3494
-1.0019 z i	-0.4189
-1.7309 z j	-0.6025
-2.5384 z kh	-0.2000
-1.7953 z l	-0.0993
-1.7653 z m	-0.5861
-1.8730 z n	-0.3896
-1.1316 z o	-0.4369
-1.3858 z oe	-0.2279
-2.6278 z ph	-0.1520
-1.6278 z r	-0.0918
-1.7898 z s	-0.3105
-3.3311 z tS	-0.0925
-2.0513 z tc	+0.0351
-2.2910 z th	-0.2574
-2.5808 z ts	-0.2384
-1.4755 z u	-0.1934
-1.8314 z v	-0.0564
-2.6947 z x	-0.1093
-1.4509 z y	-0.1032

\3-grams:
-1.2412 & @ I
-1.0978 & @ N
-1.5996 & @ Y
-1.5996 & @ dc
-1.5996 & @ e
-1.5996 & @ h
-1.3196 & @ i
-1.3196 & @ l
-1.5996 & @ m
-1.5996 & @ n
-1.2412 & @ r
-0.7132 & @ tc
-1.5996 & @ v
-1.2412 & @ x
-1.9803 & A &
-1.9803 & A D&
-2.4821 & A E
-1.9011 & A I
-1.2769 & A N
-1.2946 & A S
-1.9803 & A U
-2.1237 & A Y
-1.7718 & A a
-2.4821 & A aU
-2.4821 & A ai
-1.7718 & A b
-1.8298 & A d
-1.0951 & A dc
-1.7718 & A e
-2.2021 & A f
-1.5287 & A g
-1.5609 & A h
-1.6749 & A i
-1.7718 & A kh
-1.3738 & A l
-1.2125 & A m
-1.1977 & A n
-1.7206 & A o
-2.1237 & A oe
-1.2946 & A ph
-1.4444 & A r
-1.2125 & A s
-1.1697 & A tc
-1.6335 & A th
-1.4707 & A ts
-1.5957 & A u
-1.3526 & A v
-1.9011 & A x
-2.1237 & A y
-1.7718 & A z
-1.0000 & D& N
-1.3723 & D& S
-1.6523 & D& U
-1.1505 & D& b
-1.1505 & D& dc
-1.3723 & D& g
-1.6523 & D& h
-1.6523 & D& kh
-1.3723 & D& l
-0.9420 & D& m
-1.3723 & D& ph
-1.6523 & D& r
-1.2939 & D& s
-1.3723 & D& tc
-1.6523 & D& ts
-1.1505 & D& u
-1.3723 & D& v
-1.3723 & D& z
-1.3635 & D&i @
-0.7825 & D&i I
-1.3635 & D&i N
-1.0835 & D&i Y
-1.3635 & D&i dc
-1.0835 & D&i i
-1.0835 & D&i l
-0.5149 & D&i tc
-0.6529 & E r
-2.3083 & I &
-1.9499 & I @
-1.7273 & I A
-2.3083 & I D&
-1.4219 & I N
-1.1586 & I S
-1.5468 & I U
-2.0283 & I Y
-1.9499 & I b
-2.3083 & I d
-0.8676 & I dc
-1.9499 & I e
-2.3083 & I f
-2.3083 & I g
-1.8065 & I h
-1.7273 & I i
-1.7273 & I j
-1.7273 & I kh
-1.7273 & I l
-1.5980 & I m
-2.0283 & I n
-1.7273 & I o
-1.8065 & I oe
-1.9499 & I ph
-1.1788 & I r
-1.2969 & I s
-0.7529 & I tc
-1.5980 & I th
-2.0283 & I ts
-1.6560 & I u
-1.4597 & I v
-1.5468 & I x
-2.3083 & I y
-1.5011 & I z
-1.5921 & N &
-1.9143 & N @
-1.5526 & N A
-1.9601 & N D&
-2.2197 & N D&i
-2.7215 & N E
-1.4830 & N I
-1.3580 & N S
-1.7383 & N U
-1.9143 & N Y
-1.7102 & N a
-2.1406 & N aU
-1.6133 & N ai
-1.4092 & N b
-1.3829 & N d
-1.1819 & N dc
-1.9143 & N e
-2.4416 & N f
-1.0818 & N g
-1.5719 & N h
-1.5719 & N i
-1.8352 & N j
-1.4830 & N kh
-1.7682 & N l
-1.6591 & N m
-1.6591 & N n
-1.8730 & N o
-2.0692 & N oe
-2.0113 & N ph
-1.8352 & N r
-1.5921 & N s
-2.4416 & N tS
-0.9506 & N tc
-1.6356 & N th
-2.0113 & N ts
-1.4672 & N u
-1.4519 & N v
-1.4830 & N x
-2.3632 & N y
-1.6591 & N z
-1.3578 & S &
-2.0982 & S @
-1.8874 & S A
-2.0013 & S D&
-2.3067 & S D&i
-2.2275 & S E
-1.1951 & S I
-2.0013 & S N
-0.9927 & S U
-1.4828 & S Y
-1.8252 & S a
-2.0471 & S aU
-2.1562 & S ai
-2.1562 & S b
-1.5242 & S d
-1.2454 & S dc
-1.7460 & S e
-1.8552 & S f
-1.3885 & S g
-2.0982 & S h
-1.3678 & S i
-1.8552 & S j
-1.6396 & S kh
-1.8874 & S l
-1.7709 & S m
-1.4572 & S n
-1.4102 & S o
-1.6589 & S oe
-1.6034 & S ph
-1.6034 & S r
-2.3067 & S s
-2.5285 & S tS
-1.1752 & S tc
-1.6034 & S th
-1.6589 & S ts
-1.4698 & S u
-1.5099 & S v
-2.2275 & S x
-1.9221 & S y
-1.3992 & S z
-1.8014 & U &
-2.0814 & U @
-1.7230 & U D&
-1.8014 & U I
-1.5796 & U N
-1.0189 & U S
-2.0814 & U Y
-1.3711 & U b
-2.0814 & U d
-0.9317 & U dc
-2.0814 & U f
-1.8014 & U g
-2.0814 & U h
-1.8014 & U i
-1.8014 & U j
-1.5004 & U l
-1.8014 & U m
-1.5004 & U n
-2.0814 & U o
-1.7230 & U ph
-1.0189 & U s
-0.7556 & U tc
-2.0814 & U th
-2.0814 & U ts
-1.8014 & U u
-1.7230 & U v
-1.1602 & U x
-1.7230 & U z
-1.3353 & Y I
-1.3353 & Y N
-1.1127 & Y S
-1.6937 & Y U
-1.6937 & Y aU
-1.4137 & Y b
-1.1127 & Y dc
-1.6937 & Y l
-1.6937 & Y n
-1.6937 & Y o
-1.6937 & Y ph
-1.6937 & Y r
-1.1127 & Y tc
-1.4137 & Y th
-1.3353 & Y u
-1.1127 & Y v
-1.0414 & Y z
-1.2695 & a N
-0.9473 & a S
-2.0767 & a ai
-2.0767 & a d
-1.2695 & a dc
-1.7968 & a f
-2.0767 & a h
-2.0767 & a i
-2.0767 & a kh
-1.0391 & a l
-1.7183 & a m
-1.0654 & a n
-2.0767 & a ph
-1.3664 & a r
-0.8716 & a s
-2.0767 & a tS
-0.8545 & a tc
-1.5749 & a th
-1.2281 & a ts
-1.4957 & a x
-1.7183 & a z
-2.1536 & aU A
-1.2002 & aU N
-1.2324 & aU S
-1.3464 & aU U
-1.8736 & aU Y
-1.5726 & aU b
-1.0911 & aU dc
-1.1703 & aU f
-1.7952 & aU g
-2.1536 & aU h
-1.6517 & aU kh
-1.6517 & aU l
-1.5726 & aU m
-1.8736 & aU n
-1.3921 & aU o
-1.3921 & aU ph
-1.3050 & aU r
-1.3050 & aU s
-0.9846 & aU tc
-2.1536 & aU th
-1.7952 & aU ts
-1.0039 & aU u
-1.3921 & aU v
-1.3921 & aU x
-2.1536 & aU z
-1.8946 & ai @
-2.1746 & ai A
-1.2534 & ai I
-1.2212 & ai N
-1.3260 & ai S
-1.8946 & ai U
-1.5223 & ai Y
-2.1746 & ai a
-1.8946 & ai d
-1.4643 & ai dc
-2.1746 & ai e
-2.1746 & ai h
-1.2534 & ai i
-2.1746 & ai j
-0.6861 & ai l
-1.6728 & ai m
-1.0663 & ai n
-1.8946 & ai o
-1.4643 & ai r
-1.1913 & ai s
-1.0451 & ai tc
-2.1746 & ai th
-1.5223 & ai v
-1.8946 & ai x
-2.1746 & ai y
-1.4131 & ai z
-1.1217 & b &
-2.1594 & b @
-1.3979 & b A
-1.1761 & b D&
-1.6576 & b D&i
-1.1481 & b I
-1.5071 & b U
-1.6576 & b Y
-1.3108 & b a
-1.8010 & b aU
-1.1761 & b ai
-2.1594 & b d
-1.8010 & b dc
-1.5071 & b e
-1.8010 & b g
-2.1594 & b h
-1.5784 & b i
-1.8794 & b j
-1.8794 & b kh
-1.8794 & b l
-1.8010 & b n
-1.3979 & b o
-1.4491 & b oe
-1.8794 & b ph
-1.3979 & b r
-1.6576 & b s
-2.1594 & b tS
-1.5071 & b tc
-1.5784 & b th
-1.8010 & b ts
-1.1481 & b u
-2.1594 & b v
-2.1594 & b x
-1.6576 & b y
-1.0969 & d &
-1.0177 & d @
-1.5457 & d A
-1.4023 & d D&
-1.9041 & d E
-1.1427 & d I
-1.1938 & d N
-1.6242 & d U
-1.6242 & d Y
-1.2518 & d a
-1.1938 & d e
-1.5457 & d i
-1.9041 & d j
-1.9041 & d kh
-1.9041 & d m
-1.9041 & d n
-1.4023 & d o
-1.9041 & d ph
-0.8416 & d r
-1.6242 & d s
-1.6242 & d tc
-1.9041 & d u
-1.9041 & d y
-1.9041 & d z
-2.2592 & dc &
-2.6111 & dc @
-2.6111 & dc D&
-2.4677 & dc E
-1.8400 & dc I
-2.1623 & dc S
-2.1623 & dc U
-2.0831 & dc Y
-2.3172 & dc a
-2.9695 & dc aU
-2.9695 & dc ai
-0.7557 & dc b
-0.4828 & dc d
-2.0831 & dc e
-0.7894 & dc g
-2.3885 & dc h
-1.8198 & dc i
-1.9581 & dc j
-1.5941 & dc kh
-2.6111 & dc l
-2.6111 & dc m
-2.4677 & dc n
-1.9581 & dc o
-2.4677 & dc oe
-2.6895 & dc pf
-1.8835 & dc ph
-2.3172 & dc r
-2.9695 & dc tS
-2.6111 & dc tc
-1.0724 & dc th
-1.9581 & dc ts
-1.6851 & dc u
-1.6308 & dc v
-2.2592 & dc x
-2.3172 & dc y
-2.0161 & dc z
-1.3883 & e A
-1.7467 & e I
-1.3883 & e N
-1.4668 & e S
-1.7467 & e Y
-1.0364 & e ai
-1.4668 & e dc
-1.7467 & e g
-0.9395 & e l
-1.7467 & e m
-1.3883 & e n
-1.4668 & e ph
-1.0944 & e r
-1.4668 & e s
-0.7634 & e tc
-1.4668 & e z
-1.7577 & f @
-1.0263 & f D&
-2.0377 & f I
-2.0377 & f N
-1.3854 & f S
-1.0843 & f U
-1.6793 & f Y
-1.3854 & f a
-1.7577 & f d
-1.6793 & f dc
-1.5358 & f e
-1.1891 & f g
-1.7577 & f h
-2.0377 & f j
-1.7577 & f kh
-2.0377 & f l
-1.7577 & f m
-1.7577 & f n
-1.0263 & f o
-2.0377 & f ph
-1.5358 & f r
-1.6793 & f s
-1.2762 & f tc
-1.5358 & f ts
-1.0544 & f u
-1.6793 & f v
-1.7577 & f x
-2.0377 & f y
-2.0377 & f z
-1.0764 & g &
-1.6391 & g @
-1.7176 & g A
-1.9975 & g D&
-1.7176 & g E
-0.9116 & g I
-1.3452 & g N
-1.9975 & g S
-1.4957 & g U
-1.6391 & g Y
-1.4957 & g a
-1.9975 & g aU
-1.6391 & g b
-1.6391 & g d
-1.4957 & g dc
-1.7176 & g e
-1.2872 & g i
-1.9975 & g j
-1.6391 & g l
-1.6391 & g m
-1.4957 & g n
-1.2361 & g o
-1.6391 & g oe
-1.3452 & g r
-1.7176 & g s
-1.6391 & g tc
-1.3452 & g u
-1.7176 & g x
-1.4165 & g y
-1.3454 & h &
-1.4594 & h @
-1.2833 & h A
-1.3133 & h D&
-1.7648 & h D&i
-1.6856 & h E
-1.6143 & h I
-1.6143 & h N
-1.9082 & h S
-1.5563 & h U
-1.3454 & h a
-1.3133 & h aU
-1.4594 & h ai
-1.5051 & h d
-1.6856 & h dc
-1.6143 & h e
-1.9082 & h f
-1.9866 & h g
-1.7648 & h i
-1.7648 & h kh
-1.9082 & h l
-1.4594 & h m
-1.4180 & h n
-1.2041 & h o
-1.9866 & h ph
-1.2553 & h r
-1.6856 & h s
-1.6856 & h tc
-1.7648 & h th
-1.6856 & h ts
-1.1170 & h u
-1.9082 & h v
-2.2666 & h x
-2.2666 & h y
-1.7648 & h z
-2.1708 & i &
-1.8124 & i @
-2.1708 & i A
-1.4094 & i I
-1.4094 & i N
-0.7508 & i S
-1.8909 & i U
-2.1708 & i d
-1.1332 & i dc
-1.8909 & i e
-2.1708 & i f
-1.8909 & i g
-1.6690 & i j
-2.1708 & i kh
-2.1708 & i l
-1.6690 & i m
-1.5185 & i n
-2.1708 & i ph
-1.8909 & i r
-0.9834 & i s
-1.8124 & i tS
-0.8321 & i tc
-1.4605 & i ts
-1.6690 & i v
-1.0849 & i x
-1.4094 & i z
-1.0048 & j &
-1.7662 & j @
-0.9176 & j A
-1.7662 & j S
-0.9590 & j a
-1.4079 & j aU
-1.7662 & j ai
-1.1139 & j e
-1.7662 & j h
-1.4863 & j l
-1.4863 & j o
-1.7662 & j oe
-0.6580 & j r
-1.2644 & j u
-1.7662 & j z
-2.0790 & kh &
-1.5772 & kh A
-1.1257 & kh D&
-1.3176 & kh I
-1.7207 & kh N
-1.5772 & kh S
-1.3688 & kh U
-1.7991 & kh Y
-1.3176 & kh a
-1.7207 & kh aU
-2.0790 & kh ai
-1.7207 & kh b
-1.7207 & kh d
-1.4981 & kh dc
-1.4267 & kh e
-1.7207 & kh g
-2.0790 & kh h
-1.2718 & kh i
-1.4267 & kh l
-1.3688 & kh n
-1.5772 & kh o
-1.3688 & kh oe
-1.3688 & kh r
-1.4981 & kh s
-1.4267 & kh tc
-1.5772 & kh th
-1.5772 & kh ts
-1.3176 & kh u
-1.7207 & kh v
-2.0790 & kh x
-1.7991 & kh y
-1.7991 & kh z
-1.1253 & l &
-1.3281 & l @
-1.6961 & l A
-1.9971 & l D&
-2.7585 & l D&i
-2.1062 & l E
-1.1589 & l I
-2.7585 & l N
-1.8374 & l S
-1.6503 & l U
-1.7209 & l Y
-1.7209 & l a
-1.9099 & l aU
-1.5711 & l ai
-1.9099 & l b
-1.7472 & l d
-1.2110 & l dc
-1.1660 & l e
-2.4001 & l f
-1.5896 & l g
-1.9971 & l h
-1.1805 & l i
-1.8052 & l j
-1.9513 & l kh
-1.8374 & l m
-1.8722 & l n
-1.7752 & l o
-1.5042 & l oe
-2.4001 & l ph
-1.6726 & l r
-1.4462 & l s
-2.4786 & l tS
-1.0168 & l tc
-2.1776 & l th
-1.9513 & l ts
-1.7752 & l u
-1.6291 & l v
-1.9099 & l x
-1.6503 & l y
-1.5364 & l z
-1.0761 & m &
-1.9212 & m @
-1.3301 & m A
-1.2399 & m D&
-1.5989 & m D&i
-2.0761 & m E
-1.5989 & m I
-1.9669 & m N
-1.6201 & m S
-1.6424 & m U
-2.7284 & m Y
-0.9527 & m a
-1.5410 & m aU
-1.1969 & m ai
-1.8420 & m b
-1.8072 & m d
-1.5062 & m dc
-1.3649 & m e
-2.0761 & m g
-1.8420 & m h
-1.3084 & m i
-2.2266 & m j
-2.4484 & m kh
-2.0181 & m l
-1.7451 & m n
-1.7170 & m o
-2.0761 & m oe
-2.2266 & m ph
-1.4160 & m r
-1.5989 & m s
-1.4898 & m tc
-2.0761 & m th
-2.3700 & m ts
-1.0951 & m u
-1.9669 & m v
-1.8072 & m x
-2.0761 & m y
-2.4484 & m z
-1.2304 & n &
-1.4585 & n @
-1.3109 & n A
-1.4005 & n D&
-2.2366 & n D&i
-2.5305 & n E
-1.3915 & n I
-2.1786 & n N
-1.5135 & n S
-1.9678 & n U
-2.2366 & n Y
-1.3258 & n a
-1.7393 & n aU
-1.4383 & n ai
-1.6667 & n b
-1.4383 & n d
-1.1841 & n dc
-1.1040 & n e
-2.3871 & n f
-1.5135 & n g
-1.6838 & n h
-1.3657 & n i
-1.6667 & n j
-1.8264 & n kh
-1.8776 & n l
-2.2366 & n m
-1.9678 & n o
-2.2366 & n oe
-2.3079 & n ph
-1.6667 & n r
-1.8513 & n s
-2.8889 & n tS
-1.0817 & n tc
-1.7015 & n th
-1.9356 & n ts
-1.5502 & n u
-1.8264 & n v
-1.7807 & n x
-1.8776 & n y
-2.0025 & n z
-1.5457 & o D&i
-1.6242 & o I
-1.9041 & o N
-1.3231 & o S
-1.4023 & o U
-1.6242 & o d
-1.1427 & o dc
-1.9041 & o f
-1.6242 & o g
-1.6242 & o h
-1.5457 & o kh
-1.9041 & o l
-1.5457 & o m
-1.6242 & o n
-1.6242 & o oe
-1.9041 & o ph
-1.5457 & o r
-1.0177 & o s
-0.8928 & o tc
-1.5457 & o u
-1.0555 & o v
-1.3231 & o x
-1.5457 & o z
-1.3387 & oe I
-1.0587 & oe N
-0.9803 & oe S
-1.3387 & oe l
-1.3387 & oe n
-1.3387 & oe r
-1.0587 & oe s
-0.9803 & oe tc
-1.0587 & oe th
-1.3387 & oe z
-1.5095 & ph D&
-1.7895 & ph E
-1.7895 & ph I
-1.7895 & ph S
-1.7895 & ph U
-1.1372 & ph a
-1.7895 & ph ai
-1.1372 & ph dc
-1.0792 & ph g
-1.5095 & ph h
-1.5095 & ph i
-1.5095 & ph kh
-1.4311 & ph m
-1.5095 & ph n
-1.4311 & ph o
-1.4311 & ph oe
-1.4311 & ph r
-1.2085 & ph tc
-1.7895 & ph th
-1.4311 & ph ts
-1.0792 & ph u
-1.7895 & ph v
-1.5095 & ph z
-1.9048 & r &
-2.4098 & r @
-1.9283 & r A
-2.0374 & r D&
-2.1836 & r D&i
-2.7108 & r E
-1.8218 & r I
-1.5208 & r N
-1.5603 & r S
-1.8613 & r U
-2.1422 & r Y
-1.7064 & r a
-2.1836 & r aU
-1.9048 & r ai
-1.2751 & r b
-1.9794 & r d
-0.9164 & r dc
-1.8613 & r e
-2.0374 & r f
-1.7364 & r g
-1.7856 & r h
-1.7364 & r i
-2.1836 & r j
-1.5023 & r kh
-1.6521 & r l
-1.4201 & r m
-1.3640 & r n
-1.7212 & r o
-2.4098 & r oe
-1.3027 & r ph
-1.3706 & r s
-2.3385 & r tS
-0.9380 & r tc
-1.7364 & r th
-1.5115 & r ts
-1.5925 & r u
-1.2104 & r v
-1.7212 & r x
-2.4889 & r y
-1.5925 & r z
-1.8271 & s &
-2.1281 & s @
-2.7693 & s A
-2.2420 & s D&
-2.5474 & s E
-1.6738 & s I
-2.4683 & s N
-1.4497 & s S
-1.6857 & s U
-1.7507 & s Y
-2.0379 & s a
-3.0492 & s aU
-2.7693 & s ai
-1.8107 & s b
-1.4291 & s d
-1.0193 & s dc
-1.8803 & s e
-1.7949 & s f
-1.4095 & s g
-2.2878 & s h
-1.6623 & s i
-1.8271 & s j
-1.5431 & s kh
-2.0379 & s l
-1.6400 & s m
-1.7507 & s n
-1.9410 & s o
-2.0660 & s oe
-2.6909 & s pf
-1.3126 & s ph
-1.7507 & s r
-2.2420 & s tS
-1.1486 & s tc
-1.3556 & s th
-0.8107 & s ts
-1.7235 & s u
-1.6188 & s v
-1.7649 & s x
-2.2007 & s y
-1.0517 & s z
-1.6461 & tS &
-1.3661 & tS I
-1.2877 & tS S
-1.3661 & tS U
-1.1442 & tS d
-1.1442 & tS dc
-1.6461 & tS g
-1.6461 & tS h
-1.3661 & tS i
-1.6461 & tS m
-1.6461 & tS n
-0.7597 & tS tc
-1.3661 & tS th
-1.3661 & tS ts
-1.3661 & tS u
-1.3661 & tS v
-1.6461 & tS z
-2.3399 & tc &
-2.6129 & tc @
-2.4368 & tc D&
-3.0432 & tc E
-2.2856 & tc I
-1.4591 & tc S
-2.5160 & tc U
-2.5160 & tc Y
-2.2607 & tc a
-3.0432 & tc ai
-1.3730 & tc b
-0.9597 & tc d
-1.5337 & tc dc
-2.5618 & tc e
-1.9478 & tc f
-0.8590 & tc g
-2.5618 & tc h
-2.4021 & tc i
-2.5160 & tc j
-0.9936 & tc kh
-2.6129 & tc l
-3.0432 & tc m
-3.0432 & tc n
-2.4368 & tc o
-3.3232 & tc oe
-2.9648 & tc pf
-0.9695 & tc ph
-2.1358 & tc r
-2.2373 & tc s
-1.9719 & tc tS
-0.7617 & tc th
-0.9502 & tc ts
-2.0109 & tc u
-2.1181 & tc v
-2.3399 & tc x
-2.7422 & tc y
-1.3889 & tc z
-1.2086 & th &
-2.0950 & th @
-1.8150 & th A
-2.0950 & th D&
-2.0950 & th D&i
-1.0574 & th I
-1.7366 & th S
-1.5140 & th U
-1.5140 & th Y
-1.5140 & th b
-2.0950 & th d
-1.0325 & th dc
-1.5932 & th e
-2.0950 & th g
-2.0950 & th h
-1.5140 & th i
-2.0950 & th j
-1.3336 & th kh
-1.7366 & th m
-1.5932 & th n
-1.5140 & th o
-1.8150 & th oe
-1.4427 & th ph
-1.5140 & th r
-1.5932 & th s
-1.1417 & th tc
-1.3847 & th ts
-1.7366 & th u
-1.5140 & th v
-1.8150 & th x
-1.2464 & th z
-1.1027 & ts &
-1.9890 & ts @
-1.1818 & ts I
-1.7091 & ts N
-1.4872 & ts S
-0.7505 & ts U
-1.7091 & ts Y
-1.7091 & ts a
-1.7091 & ts aU
-1.7091 & ts b
-1.4081 & ts d
-1.4872 & ts dc
-1.7091 & ts e
-1.7091 & ts g
-1.1818 & ts i
-1.9890 & ts j
-1.9890 & ts l
-1.7091 & ts m
-1.4081 & ts n
-1.9890 & ts o
-1.4872 & ts oe
-1.6307 & ts r
-1.4081 & ts s
-1.9890 & ts tc
-1.7091 & ts th
-1.7091 & ts u
-1.4872 & ts v
-1.9890 & ts x
-1.6307 & ts y
-1.6892 & u &
-1.9111 & u @
-2.1910 & u A
-2.1910 & u D&
-1.6892 & u I
-0.9367 & u N
-1.1797 & u S
-1.2377 & u U
-1.9111 & u Y
-1.4807 & u b
-1.3424 & u dc
-1.6100 & u f
-1.6892 & u g
-1.5387 & u h
-1.4807 & u i
-1.8326 & u kh
-1.4296 & u l
-1.4296 & u m
-1.2377 & u n
-1.6100 & u o
-1.8326 & u r
-1.1051 & u s
-1.3046 & u tc
-2.1910 & u th
-1.9111 & u ts
-1.1534 & u v
-1.3838 & u x
-1.8326 & u z
-1.2599 & v &
-1.1916 & v @
-1.4268 & v A
-1.4268 & v D&
-1.4696 & v D&i
-1.9777 & v E
-1.1059 & v I
-2.0869 & v N
-1.9320 & v S
-1.4848 & v U
-1.9320 & v Y
-1.2985 & v a
-1.7858 & v aU
-1.2077 & v ai
-2.3808 & v b
-1.8528 & v d
-2.2374 & v dc
-1.1761 & v e
-2.4592 & v f
-1.9777 & v g
-1.9320 & v h
-1.1761 & v i
-1.9320 & v j
-2.7392 & v kh
-2.0289 & v l
-2.7392 & v m
-1.9320 & v n
-1.1916 & v o
-1.2885 & v oe
-1.4548 & v r
-2.1582 & v s
-2.2374 & v tc
-2.7392 & v th
-2.3808 & v ts
-1.1838 & v u
-2.4592 & v x
-1.5702 & v y
-1.5031 & x &
-2.1442 & x @
-1.7719 & x D&
-2.4242 & x D&i
-2.4242 & x E
-1.3382 & x I
-1.8432 & x N
-1.5031 & x S
-1.3617 & x U
-1.5756 & x Y
-2.0658 & x a
-2.4242 & x ai
-1.6170 & x b
-1.4409 & x d
-0.9938 & x dc
-1.6628 & x e
-1.9224 & x f
-1.4409 & x g
-2.1442 & x h
-1.5378 & x i
-1.7719 & x j
-1.8432 & x kh
-2.1442 & x l
-1.3866 & x m
-1.5378 & x n
-1.8432 & x o
-1.7719 & x oe
-1.2746 & x ph
-1.9224 & x r
-1.5031 & x s
-2.4242 & x tS
-1.1856 & x tc
-1.6628 & x th
-1.2191 & x ts
-1.6170 & x u
-1.6170 & x v
-1.9224 & x y
-1.3866 & x z
-1.1505 & y S
-0.8495 & y dc
-1.4305 & y r
-0.8495 & y s
-0.8495 & y tc
-1.4305 & y x
-1.1505 & y z
-1.0989 & z &
-1.2834 & z @
-1.6388 & z A
-1.8607 & z D&
-2.0411 & z D&i
-1.7735 & z E
-1.2708 & z I
-2.6221 & z N
-1.7357 & z S
-1.2964 & z U
-1.4170 & z Y
-1.5845 & z a
-1.9118 & z aU
-1.8149 & z ai
-2.6221 & z b
-1.4927 & z d
-1.6688 & z dc
-1.3236 & z e
-2.6221 & z f
-2.2637 & z g
-1.9118 & z h
-1.0825 & z i
-1.9698 & z j
-2.0411 & z kh
-1.7357 & z l
-1.6108 & z m
-1.9698 & z n
-1.1617 & z o
-1.2964 & z oe
-1.9698 & z ph
-1.4532 & z r
-1.6688 & z s
-1.8149 & z tc
-2.0411 & z th
-2.6221 & z ts
-1.6108 & z u
-1.5596 & z v
-1.4347 & z y
-1.8814 @ & A
-2.1613 @ & I
-1.3541 @ & N
-1.0988 @ & S
-1.8814 @ & aU
-2.1613 @ & ai
-2.1613 @ & b
-1.0988 @ & dc
-1.8814 @ & e
-1.8814 @ & f
-1.6595 @ & g
-1.5090 @ & h
-1.8814 @ & kh
-1.4510 @ & l
-1.6595 @ & m
-1.2749 @ & n
-1.6595 @ & r
-0.9227 @ & s
-1.8814 @ & tS
-0.7009 @ & tc
-1.8029 @ & th
-1.5803 @ & ts
-1.3541 @ & v
-1.3541 @ & x
-1.5090 @ & z
-1.7019 @ A &
-2.2829 @ A @
-2.2829 @ A D&i
-1.6306 @ A I
-1.3965 @ A N
-1.5214 @ A S
-2.0029 @ A U
-1.6306 @ A Y
-2.0029 @ A a
-1.9245 @ A aU
-2.2829 @ A ai
-1.7811 @ A b
-1.5214 @ A d
-1.1139 @ A dc
-1.9245 @ A e
-1.7811 @ A f
-1.5726 @ A g
-1.5726 @ A h
-2.0029 @ A i
-1.7811 @ A j
-1.3965 @ A kh
-1.5214 @ A l
-1.4757 @ A m
-1.1535 @ A n
-1.9245 @ A o
-1.5214 @ A ph
-1.3965 @ A r
-1.2996 @ A s
-0.9572 @ A tc
-2.0029 @ A th
-1.5214 @ A ts
-1.7019 @ A u
-1.3617 @ A v
-2.2829 @ A x
-1.4343 @ A z
-1.3513 @ D& N
-0.8495 @ D& dc
-0.8495 @ D& kh
-1.0713 @ D& m
-0.9929 @ D& n
-1.3513 @ D& s
-0.9929 @ D& tc
-1.3513 @ D& x
-1.0113 @ D&i dc
-1.0113 @ D&i l
-0.7314 @ D&i tc
-1.4200 @ E &
-1.1400 @ E I
-0.7677 @ E N
-1.4200 @ E Y
-1.1400 @ E dc
-1.1400 @ E n
-1.0616 @ E s
-0.8390 @ E tc
-1.4200 @ E th
-1.4200 @ E u
-1.5368 @ I &
-2.6228 @ I @
-1.8613 @ I A
-1.5603 @ I D&
-2.0418 @ I D&i
-1.3842 @ I N
-1.3104 @ I S
-1.3532 @ I U
-2.2644 @ I Y
-1.6694 @ I a
-2.1210 @ I aU
-1.9125 @ I b
-2.1210 @ I d
-1.1080 @ I dc
-2.0418 @ I e
-1.9705 @ I f
-1.6395 @ I g
-2.2644 @ I h
-2.0418 @ I i
-1.7016 @ I j
-1.7016 @ I kh
-1.8613 @ I l
-1.5603 @ I m
-1.7364 @ I n
-1.3532 @ I o
-1.7742 @ I oe
-1.9125 @ I ph
-1.4006 @ I r
-1.5145 @ I s
-0.8518 @ I tc
-1.5851 @ I th
-1.8156 @ I ts
-1.1343 @ I u
-1.6115 @ I v
-1.7364 @ I x
-2.1210 @ I y
-1.4176 @ I z
-1.4210 @ N &
-1.6385 @ N @
-2.0364 @ N A
-2.4668 @ N D&
-2.1657 @ N D&i
-2.3883 @ N E
-1.1266 @ N I
-1.3485 @ N S
-1.8603 @ N U
-1.8256 @ N Y
-1.8256 @ N a
-2.1657 @ N ai
-1.5971 @ N b
-1.5778 @ N d
-1.1992 @ N dc
-1.7934 @ N e
-2.4668 @ N f
-0.9664 @ N g
-1.8603 @ N h
-1.4344 @ N i
-1.6842 @ N j
-1.5778 @ N kh
-1.7091 @ N l
-1.4624 @ N m
-1.3061 @ N n
-2.4668 @ N o
-2.1657 @ N oe
-2.2449 @ N ph
-2.0944 @ N r
-1.7634 @ N s
-2.3883 @ N tS
-1.0204 @ N tc
-1.5593 @ N th
-1.8256 @ N ts
-1.5593 @ N u
-1.5778 @ N v
-1.4624 @ N x
-2.1657 @ N y
-1.6842 @ N z
-1.6115 @ S &
-1.8199 @ S @
-2.0418 @ S A
-2.0418 @ S D&
-2.0418 @ S D&i
-1.2358 @ S I
-1.9634 @ S N
-1.0094 @ S U
-1.2841 @ S Y
-1.8199 @ S a
-2.3218 @ S ai
-2.0418 @ S b
-1.4354 @ S d
-1.2593 @ S dc
-1.7408 @ S e
-1.8199 @ S f
-1.5145 @ S g
-2.0418 @ S h
-1.4354 @ S i
-1.8199 @ S j
-2.3218 @ S kh
-1.5603 @ S l
-1.5603 @ S m
-1.3104 @ S n
-1.3684 @ S o
-1.8199 @ S oe
-2.0418 @ S ph
-1.4354 @ S r
-2.3218 @ S s
-1.1923 @ S tc
-1.7408 @ S th
-1.5603 @ S ts
-1.7408 @ S u
-1.2841 @ S v
-2.0418 @ S x
-1.9634 @ S y
-1.4354 @ S z
-1.8014 @ U &
-2.0814 @ U D&i
-2.0814 @ U I
-1.8014 @ U N
-1.0700 @ U S
-2.0814 @ U Y
-2.0814 @ U ai
-1.7230 @ U b
-0.9731 @ U dc
-1.5004 @ U f
-1.8014 @ U g
-1.7230 @ U h
-1.4291 @ U i
-1.3199 @ U kh
-2.0814 @ U m
-1.7230 @ U n
-2.0814 @ U ph
-1.4291 @ U r
-1.1280 @ U s
-0.7060 @ U tc
-1.8014 @ U th
-2.0814 @ U ts
-1.8014 @ U u
-1.3711 @ U v
-1.1602 @ U x
-2.0814 @ U z
-1.4389 @ Y &
-1.9407 @ Y D&
-1.4389 @ Y I
-1.3598 @ Y S
-1.5824 @ Y U
-1.9407 @ Y b
-1.1335 @ Y dc
-1.9407 @ Y f
-1.9407 @ Y h
-1.9407 @ Y i
-1.3598 @ Y l
-1.2884 @ Y m
-1.4389 @ Y n
-1.1793 @ Y o
-1.9407 @ Y oe
-1.9407 @ Y r
-1.3598 @ Y s
-0.9031 @ Y tc
-1.6608 @ Y ts
-1.1793 @ Y u
-1.0921 @ Y v
-1.9407 @ Y y
-1.3598 @ Y z
-1.9716 @ a &
-1.6132 @ a I
-1.3906 @ a N
-0.9883 @ a S
-1.9716 @ a Y
-1.3906 @ a dc
-1.6916 @ a h
-1.9716 @ a i
-1.9716 @ a j
-1.6916 @ a kh
-1.1644 @ a l
-1.6132 @ a m
-1.1230 @ a n
-0.7664 @ a s
-0.8026 @ a tc
-1.3906 @ a ts
-1.9716 @ a v
-1.4697 @ a x
-1.6916 @ a z
-1.3723 @ aU S
-1.3723 @ aU U
-1.3723 @ aU b
-1.2939 @ aU dc
-1.6523 @ aU f
-1.3723 @ aU g
-1.3723 @ aU kh
-1.6523 @ aU l
-1.3723 @ aU m
-1.3723 @ aU n
-1.1505 @ aU o
-1.2939 @ aU ph
-1.6523 @ aU r
-0.7659 @ aU s
-1.2939 @ aU tc
-1.2939 @ aU u
-1.6523 @ aU v
-1.6523 @ aU x
-1.5140 @ ai A
-1.1417 @ ai I
-1.0325 @ ai N
-1.4356 @ ai S
-1.7940 @ ai a
-0.9868 @ ai dc
-1.7940 @ ai h
-1.5140 @ ai i
-1.5140 @ ai j
-0.6443 @ ai l
-1.5140 @ ai m
-0.9868 @ ai n
-1.7940 @ ai oe
-1.7940 @ ai r
-1.7940 @ ai s
-1.2922 @ ai tc
-1.0536 @ b &
-1.0536 @ b A
-1.1970 @ b I
-1.1970 @ b U
-1.1970 @ b a
-1.5554 @ b d
-1.5554 @ b dc
-1.2754 @ b e
-1.5554 @ b g
-1.5554 @ b n
-1.0536 @ b oe
-1.2754 @ b r
-1.5554 @ b y
-0.8283 @ d &
-1.4093 @ d @
-1.4093 @ d N
-1.1293 @ d S
-1.1293 @ d U
-1.4093 @ d aU
-1.4093 @ d dc
-1.4093 @ d l
-1.4093 @ d o
-0.9075 @ d r
-1.4093 @ d tc
-1.4093 @ d u
-1.6712 @ dc @
-2.5207 @ dc D&
-2.1483 @ dc E
-1.4024 @ dc I
-2.0903 @ dc S
-2.5207 @ dc U
-2.1483 @ dc Y
-2.5207 @ dc a
-2.5207 @ dc ai
-0.9365 @ dc b
-0.5007 @ dc d
-2.1483 @ dc e
-0.7193 @ dc g
-2.2196 @ dc h
-1.4749 @ dc i
-1.5021 @ dc j
-1.6510 @ dc kh
-2.2196 @ dc l
-2.4422 @ dc m
-2.0392 @ dc n
-2.4422 @ dc o
-2.1483 @ dc oe
-1.9934 @ dc ph
-2.2988 @ dc r
-2.5207 @ dc tc
-1.1483 @ dc th
-2.2196 @ dc ts
-1.8173 @ dc u
-1.9934 @ dc v
-2.0392 @ dc x
-2.4422 @ dc y
-1.8795 @ dc z
-2.0351 @ e @
-2.0351 @ e A
-1.7551 @ e I
-1.2736 @ e N
-1.3828 @ e S
-2.0351 @ e U
-1.7551 @ e ai
-0.8855 @ e dc
-1.7551 @ e h
-1.7551 @ e i
-1.7551 @ e j
-2.0351 @ e kh
-1.0238 @ e l
-1.3828 @ e m
-0.9974 @ e n
-2.0351 @ e o
-1.7551 @ e ph
-1.5333 @ e r
-1.1865 @ e s
-0.8855 @ e tc
-2.0351 @ e ts
-1.6767 @ e v
-1.3828 @ e x
-1.4541 @ e z
-1.3257 @ f @
-1.3257 @ f D&
-1.3257 @ f I
-1.3257 @ f ai
-1.3257 @ f g
-1.3257 @ f oe
-1.0458 @ f ph
-1.3257 @ f u
-1.3257 @ f v
-1.3257 @ f y
-1.0391 @ g &
-0.9678 @ g @
-1.2617 @ g E
-1.2617 @ g I
-1.1183 @ g U
-1.3402 @ g i
-1.2617 @ g l
-1.3402 @ g m
-1.1183 @ g n
-1.6201 @ g oe
-1.3402 @ g tc
-1.3402 @ g u
-1.3402 @ g v
-1.3882 @ h &
-1.4973 @ h @
-1.2632 @ h A
-1.4973 @ h D&
-1.5686 @ h D&i
-2.1496 @ h E
-1.3424 @ h I
-1.1120 @ h N
-1.6478 @ h S
-1.8697 @ h U
-2.1496 @ h Y
-1.4393 @ h a
-1.7912 @ h aU
-1.6478 @ h ai
-1.6478 @ h d
-1.3882 @ h dc
-1.3882 @ h e
-2.1496 @ h f
-1.8697 @ h g
-1.3882 @ h i
-1.7912 @ h j
-1.6478 @ h l
-1.3882 @ h m
-1.3424 @ h n
-1.5686 @ h o
-1.7912 @ h oe
-1.8697 @ h ph
-1.3010 @ h r
-1.8697 @ h s
-1.8697 @ h tc
-1.7912 @ h ts
-1.4973 @ h u
-1.5686 @ h v
-1.8697 @ h x
-1.6478 @ h y
-2.4866 @ i &
-2.4866 @ i @
-1.4242 @ i I
-2.2067 @ i N
-0.6927 @ i S
-2.1282 @ i Y
-2.2067 @ i a
-2.4866 @ i b
-1.2481 @ i dc
-1.9848 @ i e
-2.2067 @ i f
-1.7763 @ i g
-2.1282 @ i h
-1.9848 @ i j
-1.7252 @ i kh
-1.8343 @ i l
-1.9848 @ i m
-1.5033 @ i n
-2.2067 @ i o
-1.8343 @ i ph
-2.2067 @ i r
-0.9086 @ i s
-1.9848 @ i tS
-0.7986 @ i tc
-1.6380 @ i th
-1.3370 @ i ts
-1.6002 @ i v
-1.1479 @ i x
-1.3177 @ i z
-1.5255 @ j &
-0.7430 @ j A
-1.7474 @ j D&
-2.0273 @ j D&i
-2.0273 @ j S
-1.4463 @ j U
-1.7474 @ j Y
-1.2659 @ j a
-1.3170 @ j aU
-1.7474 @ j ai
-2.0273 @ j d
-2.0273 @ j dc
-1.7474 @ j e
-2.0273 @ j h
-2.0273 @ j kh
-1.4463 @ j l
-2.0273 @ j m
-1.2659 @ j o
-2.0273 @ j oe
-0.7016 @ j r
-1.4463 @ j s
-1.0740 @ j u
-1.7474 @ j y
-1.1805 @ kh &
-1.4023 @ kh A
-1.4023 @ kh I
-1.6823 @ kh U
-1.4023 @ kh a
-1.4023 @ kh aU
-1.6823 @ kh ai
-1.6823 @ kh d
-1.4023 @ kh dc
-1.0300 @ kh e
-1.6823 @ kh g
-1.1805 @ kh i
-1.3239 @ kh o
-1.4023 @ kh oe
-1.6823 @ kh ph
-1.1805 @ kh r
-1.6823 @ kh tc
-1.4023 @ kh th
-1.4023 @ kh ts
-1.3239 @ kh u
-1.4023 @ kh z
-1.2184 @ l &
-0.9965 @ l @
-1.7576 @ l A
-2.1770 @ l D&
-2.3204 @ l D&i
-1.7576 @ l E
-1.0520 @ l I
-1.7924 @ l N
-1.5705 @ l S
-1.7924 @ l U
-1.6955 @ l Y
-1.6411 @ l a
-2.0265 @ l aU
-1.9685 @ l ai
-1.7254 @ l d
-1.2805 @ l dc
-1.1473 @ l e
-1.7254 @ l g
-1.8716 @ l h
-1.1726 @ l i
-1.6955 @ l j
-2.1770 @ l kh
-1.8302 @ l m
-1.5292 @ l n
-1.8302 @ l o
-1.4914 @ l oe
-2.6788 @ l ph
-1.9173 @ l r
-1.3802 @ l s
-1.2588 @ l tc
-2.0265 @ l th
-2.3988 @ l ts
-1.6675 @ l u
-1.8716 @ l v
-1.8302 @ l x
-1.6675 @ l y
-1.7254 @ l z
-1.3360 @ m &
-1.3061 @ m @
-1.5527 @ m A
-1.4822 @ m D&
-1.7832 @ m D&i
-2.0094 @ m E
-1.2647 @ m I
-1.7418 @ m N
-1.7040 @ m S
-1.8289 @ m U
-2.3104 @ m Y
-1.2269 @ m a
-2.0094 @ m aU
-1.2391 @ m ai
-2.3104 @ m b
-1.6692 @ m d
-1.3852 @ m dc
-1.4610 @ m e
-2.5904 @ m f
-1.9381 @ m g
-1.6692 @ m h
-1.0273 @ m i
-1.9381 @ m j
-2.0886 @ m kh
-2.2320 @ m l
-1.6692 @ m n
-1.7040 @ m o
-1.7832 @ m oe
-2.0094 @ m ph
-1.5044 @ m r
-1.4822 @ m s
-2.3104 @ m tS
-1.2150 @ m tc
-2.0886 @ m th
-2.0094 @ m ts
-1.3682 @ m u
-1.7040 @ m v
-1.7832 @ m x
-1.6371 @ m z
-1.2018 @ n &
-1.4448 @ n @
-1.4034 @ n A
-1.7916 @ n D&
-2.2731 @ n D&i
-1.9721 @ n E
-1.3656 @ n I
-1.9721 @ n N
-1.7045 @ n S
-1.9008 @ n U
-2.0512 @ n Y
-1.3656 @ n a
-1.7916 @ n aU
-1.4448 @ n ai
-1.6319 @ n b
-1.2545 @ n d
-1.1438 @ n dc
-1.2018 @ n e
-2.2731 @ n f
-1.4034 @ n g
-1.6667 @ n h
-1.1896 @ n i
-1.9721 @ n j
-1.9721 @ n kh
-1.9008 @ n l
-1.7459 @ n o
-2.2731 @ n oe
-2.1947 @ n ph
-1.9721 @ n r
-1.7916 @ n s
-1.1226 @ n tc
-1.7916 @ n th
-2.2731 @ n ts
-1.5154 @ n u
-1.5417 @ n v
-1.9721 @ n x
-1.9721 @ n y
-1.6319 @ n z
-1.6220 @ o &
-1.7004 @ o D&
-1.9804 @ o I
-1.2189 @ o N
-1.6220 @ o S
-1.6220 @ o Y
-1.4786 @ o b
-0.9427 @ o dc
-1.4786 @ o g
-1.9804 @ o j
-1.2701 @ o kh
-1.7004 @ o l
-1.7004 @ o m
-1.7004 @ o n
-1.4786 @ o ph
-1.2701 @ o r
-1.3994 @ o s
-0.7418 @ o tc
-1.6220 @ o th
-1.7004 @ o u
-1.6220 @ o v
-1.2701 @ o x
-1.7004 @ o z
-1.4488 @ oe I
-1.3054 @ oe N
-1.0969 @ oe S
-1.8072 @ oe U
-1.5272 @ oe Y
-1.8072 @ oe ai
-1.0000 @ oe dc
-1.8072 @ oe f
-1.4488 @ oe i
-1.5272 @ oe j
-1.0458 @ oe l
-1.8072 @ oe n
-1.2262 @ oe r
-0.9208 @ oe s
-0.9208 @ oe tc
-1.8072 @ oe x
-1.8072 @ oe y
-1.5272 @ oe z
-1.4884 @ ph &
-1.4884 @ ph A
-1.1301 @ ph D&
-1.2085 @ ph I
-1.4884 @ ph U
-1.1301 @ ph a
-1.4884 @ ph b
-1.4884 @ ph o
-1.4884 @ ph r
-1.4884 @ ph th
-1.4884 @ ph ts
-1.2085 @ ph u
-1.2085 @ ph v
-1.4884 @ ph z
-1.7608 @ r &
-1.8536 @ r @
-1.9717 @ r A
-2.4812 @ r D&
-2.1758 @ r D&i
-2.7030 @ r E
-2.2216 @ r I
-1.5960 @ r N
-1.5737 @ r S
-1.8536 @ r U
-2.0966 @ r Y
-1.7444 @ r a
-2.4020 @ r aU
-2.1758 @ r ai
-1.3629 @ r b
-1.8334 @ r d
-0.9254 @ r dc
-1.8970 @ r e
-2.0297 @ r f
-1.7286 @ r g
-1.5847 @ r h
-1.9454 @ r i
-2.6246 @ r j
-1.6573 @ r kh
-1.5526 @ r l
-1.2950 @ r m
-1.4434 @ r n
-1.8334 @ r o
-2.0966 @ r oe
-1.6195 @ r ph
-1.2620 @ r s
-2.7030 @ r tS
-0.8515 @ r tc
-1.6707 @ r th
-1.6443 @ r ts
-1.6076 @ r u
-1.1424 @ r v
-1.8334 @ r x
-2.1758 @ r y
-1.4434 @ r z
-1.8685 @ s &
-1.9978 @ s @
-1.9978 @ s A
-2.2988 @ s D&
-1.4494 @ s I
-1.9265 @ s N
-1.5163 @ s S
-1.9978 @ s U
-1.6255 @ s Y
-1.8173 @ s a
-2.5788 @ s aU
-2.5788 @ s ai
-1.7716 @ s b
-1.6924 @ s d
-1.0473 @ s dc
-2.0770 @ s e
-1.9265 @ s f
-1.3244 @ s g
-2.5788 @ s h
-1.6576 @ s i
-2.0770 @ s j
-1.2664 @ s kh
-1.9265 @ s l
-1.8173 @ s m
-1.6255 @ s n
-2.5788 @ s o
-2.5788 @ s oe
-1.2945 @ s ph
-1.7302 @ s r
-2.5788 @ s tS
-1.1805 @ s tc
-1.4099 @ s th
-0.8321 @ s ts
-1.5675 @ s u
-1.6255 @ s v
-1.9265 @ s x
-2.2988 @ s y
-1.0312 @ s z
-0.8486 @ tS dc
-0.8486 @ tS g
-2.2625 @ tc &
-2.7439 @ tc @
-3.0239 @ tc E
-1.9379 @ tc I
-3.0239 @ tc N
-1.3654 @ tc S
-2.3136 @ tc U
-2.2625 @ tc Y
-2.4429 @ tc a
-3.0239 @ tc aU
-3.0239 @ tc ai
-1.4763 @ tc b
-0.9940 @ tc d
-1.4105 @ tc dc
-2.4429 @ tc e
-1.8550 @ tc f
-0.8170 @ tc g
-2.5221 @ tc h
-2.0406 @ tc i
-2.7439 @ tc j
-0.9357 @ tc kh
-3.0239 @ tc l
-2.2625 @ tc m
-2.6655 @ tc n
-2.7439 @ tc oe
-2.6655 @ tc pf
-0.9914 @ tc ph
-2.1375 @ tc r
-2.1375 @ tc s
-2.1375 @ tc tS
-0.8550 @ tc th
-0.9614 @ tc ts
-2.3136 @ tc u
-2.0126 @ tc v
-2.0126 @ tc x
-3.0239 @ tc y
-1.4843 @ tc z
-1.5057 @ th &
-1.8641 @ th @
-1.2118 @ th I
-1.3623 @ th N
-1.2831 @ th S
-1.5057 @ th a
-1.8641 @ th b
-1.5841 @ th d
-1.2831 @ th dc
-1.5057 @ th g
-1.8641 @ th i
-1.3623 @ th j
-0.9108 @ th kh
-1.8641 @ th l
-1.2831 @ th m
-1.5057 @ th n
-1.8641 @ th o
-1.8641 @ th oe
-1.1538 @ th ph
-1.8641 @ th tc
-1.1538 @ th ts
-1.8641 @ th u
-1.8641 @ th v
-1.8641 @ th x
-1.8641 @ th z
-1.2432 @ ts &
-1.5232 @ ts @
-1.1648 @ ts U
-1.5232 @ ts Y
-1.2432 @ ts a
-1.5232 @ ts d
-1.5232 @ ts dc
-1.5232 @ ts i
-1.5232 @ ts m
-1.1648 @ ts n
-1.0214 @ ts o
-1.5232 @ ts r
-1.2432 @ ts tc
-1.2432 @ ts u
-1.5898 @ u &
-2.0713 @ u A
-1.9929 @ u D&
-2.3513 @ u D&i
-2.3513 @ u E
-1.5441 @ u I
-1.0527 @ u N
-1.2888 @ u S
-1.5027 @ u U
-1.6410 @ u Y
-2.3513 @ u a
-1.5898 @ u b
-1.3136 @ u dc
-2.0713 @ u e
-2.0713 @ u f
-1.7703 @ u g
-1.4301 @ u h
-1.7703 @ u i
-1.6410 @ u kh
-1.3979 @ u l
-1.3399 @ u m
-1.3680 @ u n
-1.7703 @ u o
-1.8495 @ u ph
-1.5898 @ u r
-1.1291 @ u s
-0.9530 @ u tc
-2.3513 @ u ts
-1.1127 @ u v
-1.3979 @ u x
-2.3513 @ u y
-1.8495 @ u z
-1.2106 @ v &
-1.0932 @ v @
-1.7699 @ v A
-1.4426 @ v D&
-1.6730 @ v D&i
-1.8279 @ v E
-1.0009 @ v I
-1.8279 @ v N
-1.7699 @ v S
-1.5938 @ v U
-2.1218 @ v Y
-1.3306 @ v a
-1.7188 @ v aU
-1.3943 @ v ai
-2.4802 @ v b
-1.9784 @ v d
-1.0602 @ v e
-2.1218 @ v g
-0.9248 @ v i
-2.2003 @ v j
-2.4802 @ v kh
-2.2003 @ v l
-2.1218 @ v m
-1.9784 @ v n
-1.4689 @ v o
-1.3306 @ v oe
-2.4802 @ v ph
-1.5269 @ v r
-1.8279 @ v s
-2.1218 @ v tc
-2.4802 @ v ts
-1.4177 @ v u
-1.9784 @ v x
-1.5269 @ v y
-2.4802 @ v z
-1.9505 @ x &
-1.4690 @ x @
-2.2304 @ x E
-1.0808 @ x I
-1.1928 @ x S
-1.4690 @ x U
-1.5781 @ x Y
-1.9505 @ x a
-1.9505 @ x b
-1.6495 @ x d
-1.0430 @ x dc
-2.2304 @ x e
-1.8721 @ x f
-1.2472 @ x g
-1.5202 @ x i
-1.9505 @ x j
-1.2472 @ x kh
-1.7286 @ x l
-1.6495 @ x m
-1.3093 @ x n
-2.2304 @ x oe
-1.5781 @ x ph
-1.9505 @ x s
-1.1445 @ x tc
-1.4232 @ x th
-1.1222 @ x ts
-1.6495 @ x u
-1.3819 @ x v
-1.6495 @ x z
-1.5476 @ y N
-0.9666 @ y S
-1.5476 @ y b
-0.8953 @ y dc
-1.2676 @ y m
-1.2676 @ y r
-0.6612 @ y s
-0.8373 @ y tc
-1.5476 @ y x
-1.0911 @ z &
-1.1210 @ z @
-1.6651 @ z A
-1.7231 @ z D&
-2.0170 @ z E
-0.9450 @ z I
-2.0954 @ z S
-1.2894 @ z U
-1.7944 @ z Y
-1.5682 @ z a
-1.8736 @ z aU
-1.5682 @ z d
-1.6140 @ z dc
-1.2460 @ z e
-1.6651 @ z g
-1.8736 @ z h
-1.1210 @ z i
-1.7944 @ z j
-2.3754 @ z kh
-2.0954 @ z l
-1.5682 @ z m
-1.6651 @ z n
-1.4221 @ z o
-1.7231 @ z oe
-2.3754 @ z ph
-1.4890 @ z r
-1.7944 @ z s
-2.3754 @ z tS
-2.3754 @ z tc
-2.0170 @ z th
-2.0954 @ z ts
-1.3378 @ z u
-1.7231 @ z v
-1.2894 @ z y
-1.8406 A & @
-1.5607 A & I
-1.4822 A & N
-1.1303 A & S
-1.8406 A & U
-1.4822 A & b
-1.5607 A & d
-0.8030 A & dc
-1.5607 A & f
-1.8406 A & g
-1.8406 A & j
-1.5607 A & m
-1.3388 A & n
-1.8406 A & o
-1.5607 A & r
-1.4822 A & s
-0.8030 A & tc
-1.8406 A & th
-1.4822 A & u
-1.1883 A & v
-1.8406 A & x
-1.5476 A @ &
-1.2676 A @ A
-1.1892 A @ I
-1.2676 A @ N
-1.0458 A @ dc
-1.5476 A @ i
-1.0458 A @ l
-1.2676 A @ m
-1.2676 A @ n
-1.2676 A @ r
-1.2676 A @ s
-0.9666 A @ tc
-1.1892 A @ z
-1.3723 A D& N
-1.6523 A D& S
-1.6523 A D& U
-1.3723 A D& b
-1.0000 A D& dc
-1.6523 A D& f
-1.6523 A D& h
-1.2939 A D& kh
-1.3723 A D& l
-1.6523 A D& m
-1.6523 A D& n
-1.1505 A D& ph
-0.9420 A D& s
-0.8451 A D& tc
-1.6523 A D& ts
-1.1505 A D& v
-1.3723 A D& x
-1.4700 A D&i @
-0.8890 A D&i I
-1.4700 A D&i N
-1.1900 A D&i S
-1.1116 A D&i Y
-1.1900 A D&i dc
-1.1900 A D&i i
-0.9682 A D&i l
-1.1900 A D&i n
-1.4700 A D&i s
-0.9682 A D&i tc
-1.1900 A D&i x
-1.1900 A D&i z
-1.1082 A E I
-1.1082 A E N
-0.8283 A E r
-1.1082 A E s
-1.1082 A E tc
-1.7577 A I &
-2.0377 A I @
-1.7577 A I A
-2.0377 A I D&
-2.0377 A I N
-1.0843 A I S
-1.2304 A I U
-1.5358 A I Y
-2.0377 A I d
-0.9294 A I dc
-2.0377 A I e
-1.6793 A I g
-1.4567 A I j
-1.5358 A I kh
-1.3854 A I m
-1.7577 A I n
-2.0377 A I o
-1.7577 A I oe
-2.0377 A I ph
-1.5358 A I r
-1.7577 A I s
-2.0377 A I tS
-0.7391 A I tc
-1.5358 A I u
-1.3854 A I v
-1.3274 A I x
-1.7577 A I y
-1.7577 A I z
-1.4181 A N &
-1.9666 A N @
-1.8953 A N A
-1.7404 A N D&
-2.2676 A N D&i
-1.8953 A N I
-1.3254 A N S
-1.7861 A N U
-2.0458 A N Y
-1.8953 A N a
-2.5476 A N aU
-1.7861 A N ai
-1.4181 A N b
-1.7404 A N d
-1.1722 A N dc
-1.7861 A N e
-0.9845 A N g
-1.4393 A N h
-1.7404 A N i
-2.2676 A N j
-1.3090 A N kh
-1.7404 A N l
-1.7404 A N m
-1.5362 A N n
-1.6990 A N o
-1.8373 A N oe
-2.5476 A N ph
-1.7404 A N r
-1.3979 A N s
-2.2676 A N tS
-0.9622 A N tc
-1.6264 A N th
-1.6990 A N ts
-1.3602 A N u
-1.5099 A N v
-1.7861 A N x
-1.5643 A N z
-1.2304 A S &
-1.7278 A S @
-1.5315 A S A
-2.0217 A S D&
-2.3801 A S E
-1.1749 A S I
-2.1001 A S N
-1.0958 A S U
-1.3176 A S Y
-1.7278 A S a
-2.1001 A S aU
-2.1001 A S ai
-1.5729 A S d
-1.3968 A S dc
-1.7278 A S e
-2.0217 A S f
-1.6186 A S g
-2.0217 A S h
-1.3176 A S i
-1.8783 A S j
-2.0217 A S kh
-1.7991 A S l
-1.5315 A S m
-1.7991 A S n
-1.1415 A S o
-1.6698 A S oe
-1.7278 A S ph
-1.5729 A S r
-2.0217 A S s
-1.2304 A S tc
-1.6186 A S th
-2.0217 A S ts
-1.2718 A S u
-1.5315 A S v
-2.0217 A S x
-1.5729 A S y
-2.0217 A S z
-1.5484 A U A
-1.3266 A U I
-1.0669 A U S
-1.8284 A U Y
-1.4700 A U b
-0.9798 A U dc
-1.4700 A U g
-1.4700 A U h
-1.8284 A U l
-1.5484 A U n
-1.4700 A U ph
-1.8284 A U r
-1.1181 A U s
-0.9420 A U tc
-1.3266 A U v
-1.3266 A U x
-1.3266 A U z
-1.7614 A Y @
-1.7614 A Y E
-1.4031 A Y I
-1.1805 A Y S
-1.7614 A Y a
-1.7614 A Y b
-1.7614 A Y d
-0.8751 A Y dc
-1.7614 A Y e
-1.4031 A Y h
-1.7614 A Y j
-1.7614 A Y l
-1.4815 A Y m
-1.4815 A Y n
-1.7614 A Y o
-1.7614 A Y oe
-1.4031 A Y r
-1.1091 A Y s
-1.1805 A Y tc
-1.7614 A Y th
-1.2596 A Y v
-1.4815 A Y x
-1.7286 A a A
-2.0086 A a I
-1.4276 A a N
-1.0875 A a S
-2.0086 A a Y
-1.6502 A a aU
-1.5068 A a ai
-2.0086 A a b
-1.1600 A a dc
-2.0086 A a e
-1.7286 A a h
-0.9004 A a l
-1.5068 A a m
-1.1222 A a n
-1.7286 A a ph
-1.3563 A a r
-1.4276 A a s
-0.6332 A a tc
-1.6502 A a ts
-1.7286 A a u
-1.7286 A a x
-1.8828 A aU &
-1.6028 A aU D&
-1.8828 A aU I
-0.9964 A aU N
-1.3018 A aU S
-0.8995 A aU U
-1.8828 A aU a
-1.3809 A aU b
-1.8828 A aU d
-1.3018 A aU dc
-1.6028 A aU f
-1.5244 A aU g
-1.6028 A aU kh
-1.8828 A aU m
-1.8828 A aU o
-1.0755 A aU ph
-1.6028 A aU r
-1.0755 A aU tc
-0.9616 A aU u
-1.6028 A aU v
-1.3809 A aU x
-1.8828 A aU z
-0.9224 A ai I
-1.2692 A ai N
-1.4126 A ai S
-1.7710 A ai dc
-1.2692 A ai h
-1.0607 A ai i
-0.8846 A ai l
-1.0095 A ai n
-1.2692 A ai r
-1.1900 A ai s
-0.8498 A ai tc
-1.4910 A ai v
-1.1234 A b &
-1.7510 A b @
-1.6718 A b A
-1.3664 A b D&
-1.6005 A b D&i
-1.7510 A b I
-1.9728 A b N
-1.4456 A b S
-1.8944 A b U
-1.7510 A b Y
-1.2995 A b a
-1.9728 A b aU
-1.0477 A b ai
-1.6005 A b d
-1.8944 A b dc
-1.3664 A b e
-1.6005 A b g
-1.7510 A b h
-1.2152 A b i
-1.7510 A b kh
-1.6718 A b l
-2.2528 A b m
-1.4914 A b n
-1.2995 A b o
-1.4042 A b oe
-2.2528 A b ph
-1.3317 A b r
-1.8944 A b tc
-1.8944 A b th
-2.2528 A b ts
-1.1032 A b u
-1.8944 A b v
-2.2528 A b x
-2.2528 A b y
-1.1405 A d &
-1.3367 A d @
-1.1818 A d A
-1.9890 A d E
-0.9777 A d I
-1.6307 A d S
-1.7091 A d U
-1.9890 A d Y
-1.2788 A d a
-1.7091 A d aU
-1.2788 A d ai
-1.7091 A d dc
-1.3367 A d e
-1.9890 A d h
-1.9890 A d i
-1.6307 A d l
-1.9890 A d m
-1.9890 A d o
-0.8016 A d r
-1.4872 A d s
-1.1405 A d tc
-1.3367 A d u
-2.3623 A dc &
-2.6423 A dc @
-2.2839 A dc A
-2.1405 A dc D&
-2.6423 A dc E
-1.8808 A dc I
-2.0613 A dc N
-1.8351 A dc S
-1.7211 A dc U
-2.0613 A dc Y
-1.8351 A dc a
-0.7782 A dc b
-0.6046 A dc d
-2.3623 A dc e
-0.8180 A dc g
-1.9900 A dc h
-1.8808 A dc i
-2.1405 A dc j
-1.4548 A dc kh
-2.3623 A dc m
-2.6423 A dc n
-1.6889 A dc o
-2.3623 A dc oe
-1.6046 A dc ph
-2.0613 A dc r
-2.3623 A dc tc
-0.9962 A dc th
-1.8808 A dc ts
-1.7937 A dc u
-1.5563 A dc v
-2.0613 A dc x
-2.3623 A dc y
-1.9320 A dc z
-1.7662 A e &
-1.4079 A e A
-1.7662 A e I
-1.4079 A e N
-1.4079 A e S
-1.4863 A e ai
-1.7662 A e b
-1.4079 A e dc
-1.4863 A e i
-1.1853 A e l
-1.7662 A e m
-0.9590 A e n
-1.1853 A e r
-1.1853 A e s
-0.8129 A e tc
-1.1139 A e v
-1.7662 A e z
-1.6207 A f &
-1.3988 A f D&
-1.3988 A f I
-1.9006 A f N
-1.5422 A f S
-1.3196 A f U
-1.6207 A f Y
-1.6207 A f a
-1.6207 A f aU
-1.5422 A f ai
-1.5422 A f d
-1.6207 A f dc
-1.2483 A f g
-1.6207 A f i
-1.3196 A f kh
-1.6207 A f m
-1.2483 A f o
-1.2483 A f ph
-1.2483 A f r
-1.3988 A f tc
-1.3988 A f th
-1.0520 A f u
-1.5422 A f v
-1.6207 A f y
-1.1694 A g &
-1.1694 A g @
-1.8105 A g A
-1.5095 A g D&
-1.2833 A g I
-1.3291 A g S
-1.2419 A g U
-1.7321 A g Y
-1.5887 A g a
-2.0905 A g ai
-2.0905 A g b
-1.7321 A g dc
-1.1694 A g e
-1.8105 A g h
-1.3291 A g i
-2.0905 A g j
-1.5095 A g l
-1.4382 A g m
-1.8105 A g n
-1.1372 A g o
-2.0905 A g oe
-1.3802 A g r
-1.3802 A g s
-1.8105 A g tc
-1.2041 A g u
-1.7321 A g v
-1.8105 A g x
-1.7321 A g y
-1.4900 A h &
-2.0172 A h @
-0.9337 A h A
-1.2595 A h D&
-1.3139 A h D&i
-2.2972 A h I
-1.3139 A h N
-2.2972 A h S
-1.6449 A h U
-1.0920 A h a
-1.4486 A h aU
-1.2347 A h ai
-1.9388 A h d
-1.6449 A h dc
-1.5869 A h e
-2.2972 A h f
-1.7954 A h g
-2.2972 A h i
-2.2972 A h j
-2.0172 A h kh
-2.2972 A h l
-1.3139 A h m
-1.6449 A h n
-1.3760 A h o
-1.9388 A h oe
-1.3760 A h r
-1.6449 A h s
-2.2972 A h tc
-1.6449 A h ts
-1.1889 A h u
-1.6449 A h v
-1.5357 A h x
-1.9388 A h y
-2.0172 A h z
-1.7678 A i @
-1.1614 A i I
-1.3955 A i N
-0.8256 A i S
-1.7678 A i U
-1.1266 A i dc
-2.0478 A i f
-1.7678 A i g
-1.7678 A i h
-1.7678 A i j
-1.3375 A i l
-2.0478 A i m
-1.6894 A i n
-2.0478 A i r
-1.1992 A i s
-1.6894 A i tS
-0.7934 A i tc
-1.6894 A i ts
-1.4668 A i v
-1.1614 A i x
-1.2405 A i z
-1.3519 A j &
-1.3519 A j @
-1.0000 A j A
-1.7103 A j N
-1.7103 A j S
-1.7103 A j U
-1.3519 A j a
-1.4303 A j aU
-1.0580 A j ai
-1.1293 A j e
-1.3519 A j i
-1.4303 A j l
-0.7891 A j r
-1.7103 A j s
-1.4303 A j tc
-1.7103 A j u
-1.7103 A j y
-1.3979 A kh &
-1.3979 A kh @
-1.5272 A kh A
-1.0223 A kh D&
-1.8283 A kh E
-1.5272 A kh I
-1.8283 A kh N
-1.4559 A kh S
-1.6064 A kh U
-1.7498 A kh Y
-1.1871 A kh a
-1.7498 A kh aU
-1.1871 A kh ai
-2.1082 A kh d
-2.1082 A kh dc
-1.4559 A kh e
-1.5272 A kh g
-1.6064 A kh h
-1.8283 A kh i
-1.8283 A kh j
-1.8283 A kh m
-1.8283 A kh n
-1.8283 A kh o
-1.7498 A kh ph
-1.1871 A kh r
-1.4559 A kh s
-1.2218 A kh tc
-1.8283 A kh th
-1.5272 A kh ts
-1.3468 A kh u
-1.8283 A kh v
-2.1082 A kh y
-2.1082 A kh z
-1.3692 A l &
-1.4150 A l @
-1.9756 A l A
-2.1191 A l D&
-1.8251 A l E
-1.2723 A l I
-1.5241 A l N
-1.4398 A l S
-1.6289 A l U
-1.6289 A l Y
-1.7672 A l a
-2.4774 A l aU
-1.4398 A l ai
-1.8965 A l b
-1.6702 A l d
-1.2389 A l dc
-1.3692 A l e
-1.8965 A l g
-1.8251 A l h
-1.2078 A l i
-1.7672 A l j
-1.6702 A l m
-1.7160 A l n
-1.7672 A l o
-1.5911 A l oe
-1.5563 A l r
-1.5241 A l s
-0.8573 A l tc
-1.9756 A l th
-2.1191 A l ts
-1.8251 A l u
-1.5563 A l v
-1.7160 A l x
-1.7160 A l y
-1.4661 A l z
-1.2736 A m &
-1.7508 A m @
-1.1487 A m A
-1.2136 A m D&
-1.7050 A m D&i
-2.2323 A m E
-1.6636 A m I
-1.7508 A m N
-1.5289 A m S
-1.6258 A m U
-1.0715 A m a
-1.8599 A m aU
-1.1865 A m ai
-1.7508 A m b
-1.7050 A m d
-1.3828 A m dc
-2.1538 A m e
-2.1538 A m f
-2.1538 A m g
-1.7050 A m h
-1.5009 A m i
-1.8599 A m j
-2.0104 A m kh
-2.2323 A m l
-1.4746 A m n
-1.4263 A m o
-1.7508 A m ph
-1.6258 A m r
-1.6258 A m s
-1.3626 A m tc
-1.9312 A m th
-2.2323 A m ts
-1.0922 A m u
-1.7508 A m v
-1.8019 A m x
-2.0104 A m y
-2.2323 A m z
-1.4322 A n &
-1.6540 A n @
-1.3908 A n A
-1.8301 A n D&
-2.2604 A n D&i
-1.5027 A n I
-2.2604 A n N
-1.4322 A n S
-1.8301 A n U
-2.1820 A n Y
-1.5571 A n a
-2.1820 A n aU
-1.7790 A n ai
-1.6540 A n b
-1.6540 A n d
-1.0089 A n dc
-1.5027 A n e
-2.2604 A n f
-1.1534 A n g
-1.6540 A n h
-1.4544 A n i
-1.9594 A n j
-2.0386 A n kh
-2.2604 A n l
-1.9594 A n m
-1.6193 A n o
-1.9594 A n oe
-2.1820 A n ph
-1.7790 A n r
-1.6918 A n s
-0.8943 A n tc
-1.5291 A n th
-1.8881 A n ts
-1.3530 A n u
-1.6193 A n v
-1.7790 A n x
-1.8881 A n y
-1.4544 A n z
-2.0299 A o &
-1.7500 A o D&
-1.3196 A o I
-1.3776 A o N
-1.5281 A o S
-2.0299 A o U
-1.7500 A o Y
-2.0299 A o aU
-2.0299 A o ai
-1.6715 A o b
-1.7500 A o d
-0.9674 A o dc
-2.0299 A o f
-1.4489 A o g
-1.7500 A o i
-1.4489 A o kh
-1.5281 A o l
-1.3776 A o m
-2.0299 A o n
-1.6715 A o ph
-1.6715 A o r
-1.3776 A o s
-0.7914 A o tc
-2.0299 A o ts
-1.7500 A o u
-1.1813 A o v
-1.3196 A o x
-1.4489 A o z
-1.5062 A oe D&
-1.5062 A oe N
-0.9252 A oe S
-1.5062 A oe a
-1.2262 A oe ai
-1.5062 A oe dc
-0.8539 A oe l
-1.5062 A oe r
-1.2262 A oe s
-1.2262 A oe tc
-1.2262 A oe v
-1.2262 A oe z
-1.5628 A ph &
-2.0530 A ph @
-1.6500 A ph A
-1.4281 A ph D&
-2.1315 A ph D&i
-1.3490 A ph I
-2.4114 A ph N
-1.5250 A ph S
-1.3490 A ph U
-2.0530 A ph Y
-1.4281 A ph a
-2.0530 A ph ai
-1.8304 A ph b
-1.7591 A ph d
-1.1571 A ph dc
-1.5250 A ph e
-1.6042 A ph f
-1.3490 A ph g
-1.9096 A ph h
-1.5628 A ph i
-2.1315 A ph j
-1.8304 A ph kh
-2.4114 A ph l
-1.9096 A ph m
-1.5250 A ph n
-1.2063 A ph o
-1.7011 A ph oe
-1.3255 A ph r
-1.6042 A ph s
-1.5628 A ph tc
-1.5628 A ph th
-1.4581 A ph ts
-1.1129 A ph u
-1.4903 A ph v
-1.8304 A ph x
-2.0530 A ph y
-1.7591 A ph z
-1.7447 A r &
-1.7447 A r @
-1.6990 A r A
-1.6990 A r D&
-2.2262 A r D&i
-2.5062 A r E
-1.6990 A r I
-1.6990 A r N
-1.6576 A r S
-1.7447 A r U
-1.9252 A r Y
-1.5229 A r a
-1.6576 A r aU
-1.5850 A r ai
-1.3010 A r b
-1.7959 A r d
-1.1079 A r dc
-1.5528 A r e
-1.8539 A r f
-1.6198 A r g
-2.1478 A r h
-1.5528 A r i
-1.7959 A r kh
-1.3768 A r l
-1.7447 A r m
-1.5850 A r n
-1.4437 A r o
-1.5850 A r oe
-1.2840 A r ph
-1.4949 A r s
-2.5062 A r tS
-1.0757 A r tc
-1.9252 A r th
-1.7959 A r ts
-1.4949 A r u
-1.2840 A r v
-1.7447 A r x
-2.2262 A r y
-1.5850 A r z
-1.8685 A s &
-2.2988 A s @
-2.2988 A s A
-2.2204 A s D&
-2.5788 A s D&i
-2.5788 A s E
-1.4928 A s I
-2.2988 A s N
-1.3736 A s S
-1.6924 A s U
-1.8685 A s Y
-1.7302 A s a
-1.6576 A s b
-1.4706 A s d
-0.9863 A s dc
-2.5788 A s e
-1.8685 A s f
-1.7302 A s g
-2.2204 A s h
-1.4928 A s i
-1.6576 A s j
-1.5163 A s kh
-1.9978 A s l
-1.5955 A s m
-1.8173 A s n
-1.9978 A s o
-2.5788 A s oe
-2.2988 A s pf
-1.4928 A s ph
-1.8173 A s r
-2.2204 A s tS
-1.2945 A s tc
-1.2153 A s th
-0.9083 A s ts
-1.6576 A s u
-1.5955 A s v
-1.6576 A s x
-1.9265 A s y
-0.9863 A s z
-0.8369 A tS I
-1.3387 A tS S
-1.3387 A tS Y
-1.3387 A tS aU
-1.3387 A tS dc
-1.3387 A tS m
-1.3387 A tS s
-0.9803 A tS ts
-2.5667 A tc &
-2.8466 A tc @
-2.8466 A tc A
-2.3448 A tc D&
-2.0394 A tc I
-1.4596 A tc S
-2.4882 A tc U
-2.1363 A tc Y
-2.2656 A tc a
-1.2991 A tc b
-1.1049 A tc d
-1.5923 A tc dc
-2.8466 A tc e
-1.6777 A tc f
-0.8299 A tc g
-2.5667 A tc h
-2.1363 A tc i
-2.5667 A tc j
-0.9639 A tc kh
-2.1363 A tc o
-2.4882 A tc oe
-1.0266 A tc ph
-2.1363 A tc r
-1.9602 A tc s
-2.0394 A tc tS
-0.7584 A tc th
-0.9425 A tc ts
-1.9980 A tc u
-2.0852 A tc v
-2.3448 A tc x
-1.4831 A tc z
-1.2304 A th &
-1.4993 A th @
-1.6498 A th A
-2.1516 A th D&
-1.2652 A th I
-1.8716 A th N
-1.5706 A th S
-1.2304 A th U
-1.6498 A th Y
-1.7932 A th a
-2.1516 A th aU
-1.7932 A th b
-1.8716 A th d
-1.1139 A th dc
-1.7932 A th e
-1.8716 A th f
-1.4993 A th g
-1.6498 A th h
-1.4993 A th i
-1.8716 A th j
-1.5706 A th l
-1.4413 A th m
-1.2652 A th n
-1.4993 A th o
-1.5706 A th oe
-1.6498 A th ph
-1.4413 A th r
-2.1516 A th s
-1.4413 A th tc
-1.6498 A th ts
-1.4993 A th u
-1.3901 A th v
-1.8716 A th y
-1.7932 A th z
-1.2768 A ts &
-1.8833 A ts A
-1.3146 A ts I
-2.1632 A ts N
-1.4018 A ts S
-1.1008 A ts U
-1.3146 A ts Y
-1.8833 A ts a
-1.8048 A ts ai
-1.8048 A ts b
-1.8048 A ts d
-1.1799 A ts dc
-1.8048 A ts e
-1.8833 A ts g
-2.1632 A ts h
-1.3146 A ts i
-2.1632 A ts j
-1.8048 A ts kh
-1.5109 A ts l
-1.3560 A ts m
-1.5109 A ts n
-1.4018 A ts o
-1.8048 A ts oe
-2.1632 A ts pf
-2.1632 A ts ph
-1.4529 A ts r
-1.1799 A ts s
-1.3560 A ts tc
-2.1632 A ts th
-1.5109 A ts u
-1.4018 A ts v
-1.5822 A ts x
-1.8833 A ts y
-1.8226 A u &
-2.3244 A u D&
-1.4758 A u I
-1.5172 A u N
-0.9731 A u S
-1.6141 A u U
-1.4758 A u Y
-2.0444 A u a
-2.3244 A u aU
-1.9660 A u ai
-1.5630 A u b
-2.3244 A u d
-1.1555 A u dc
-2.0444 A u e
-1.9660 A u f
-2.3244 A u g
-1.8226 A u h
-1.7434 A u i
-2.3244 A u j
-1.9660 A u kh
-1.3711 A u l
-1.5630 A u m
-1.4380 A u n
-1.5630 A u o
-2.0444 A u oe
-2.0444 A u ph
-1.6141 A u r
-1.1022 A u s
-0.8544 A u tc
-2.0444 A u th
-2.0444 A u ts
-1.1555 A u v
-1.5172 A u x
-1.6721 A u y
-1.4011 A v &
-1.2964 A v @
-1.1637 A v A
-1.3818 A v D&
-1.4648 A v D&i
-1.9697 A v E
-1.2120 A v I
-2.2708 A v N
-1.8404 A v S
-1.6296 A v U
-1.9697 A v Y
-1.1872 A v a
-1.5974 A v aU
-1.1524 A v ai
-2.2708 A v b
-2.2708 A v d
-1.1753 A v e
-2.5507 A v f
-2.1923 A v g
-1.7021 A v h
-1.0808 A v i
-1.8984 A v j
-2.0489 A v l
-1.7893 A v m
-2.0489 A v n
-1.3285 A v o
-1.5131 A v oe
-1.4425 A v r
-1.9697 A v s
-1.9697 A v tc
-2.5507 A v th
-1.1307 A v u
-1.7435 A v y
-2.5507 A v z
-2.1253 A x &
-2.1253 A x @
-2.1253 A x A
-1.8453 A x D&
-1.3181 A x I
-1.2767 A x S
-1.4730 A x U
-1.5443 A x Y
-1.6235 A x a
-1.8453 A x b
-1.8453 A x d
-1.0393 A x dc
-1.6235 A x f
-1.2767 A x g
-1.8453 A x h
-1.8453 A x i
-1.8453 A x j
-1.4730 A x kh
-1.7669 A x l
-1.5443 A x m
-2.1253 A x n
-1.5443 A x o
-1.6235 A x oe
-1.1420 A x ph
-1.8453 A x r
-1.5443 A x s
-1.7669 A x tS
-1.1139 A x tc
-1.7669 A x th
-1.4150 A x ts
-1.4730 A x u
-1.4150 A x v
-1.5443 A x z
-1.4884 A y I
-1.2085 A y N
-0.9866 A y dc
-1.2085 A y l
-1.4884 A y m
-1.4884 A y n
-1.4884 A y r
-0.4508 A y tc
-1.4884 A y v
-0.9866 A y z
-1.1492 A z &
-1.4960 A z @
-1.4502 A z A
-1.4089 A z D&
-2.2575 A z D&i
-1.1715 A z I
-1.9775 A z N
-1.2198 A z U
-1.6052 A z Y
-1.4502 A z a
-1.8991 A z aU
-1.6052 A z ai
-1.8991 A z b
-1.6765 A z d
-1.9775 A z dc
-1.2198 A z e
-1.8991 A z g
-1.6765 A z h
-1.1492 A z i
-1.8991 A z j
-1.6765 A z l
-1.6765 A z m
-1.7556 A z n
-1.0523 A z o
-1.6052 A z oe
-1.3363 A z r
-1.7556 A z s
-2.2575 A z tc
-1.9775 A z ts
-1.4089 A z u
-1.7556 A z v
-1.4502 A z y
-1.0044 D& & N
-1.2843 D& & b
-1.0044 D& & dc
-1.2843 D& & i
-1.2843 D& & n
-1.0044 D& & r
-0.7825 D& & tc
-1.2843 D& & v
-0.9211 D& @ N
-0.6412 D& @ dc
-0.9211 D& @ tc
-1.8791 D& A @
-1.8791 D& A I
-1.2268 D& A N
-1.3773 D& A S
-1.8791 D& A Y
-1.8791 D& A a
-1.5991 D& A ai
-1.5207 D& A b
-1.2268 D& A dc
-1.5991 D& A g
-1.5207 D& A h
-1.5991 D& A i
-1.2981 D& A l
-1.5207 D& A m
-1.0719 D& A n
-1.8791 D& A o
-1.2981 D& A ph
-1.2981 D& A r
-1.2981 D& A s
-1.0305 D& A tc
-1.5207 D& A th
-1.8791 D& A u
-1.3773 D& A v
-1.2268 D& A x
-1.3353 D& D&i &
-1.4137 D& D&i @
-1.0414 D& D&i I
-1.6937 D& D&i N
-1.3353 D& D&i S
-1.6937 D& D&i Y
-1.1127 D& D&i dc
-1.6937 D& D&i e
-1.6937 D& D&i g
-1.3353 D& D&i i
-1.3353 D& D&i j
-0.9834 D& D&i l
-1.4137 D& D&i n
-1.4137 D& D&i s
-0.8073 D& D&i tc
-1.4137 D& D&i z
-1.2262 D& I &
-1.5062 D& I N
-1.5062 D& I S
-1.5062 D& I Y
-1.0044 D& I dc
-1.5062 D& I g
-1.5062 D& I r
-1.1478 D& I s
-0.5850 D& I tc
-1.2262 D& I v
-1.2262 D& I x
-1.7243 D& N &
-2.0762 D& N @
-1.8536 D& N A
-1.6274 D& N D&
-2.1546 D& N I
-1.3051 D& N S
-1.6274 D& N U
-2.0762 D& N Y
-2.1546 D& N a
-1.7823 D& N ai
-1.3051 D& N b
-1.4513 D& N d
-1.0711 D& N dc
-1.7243 D& N e
-0.9198 D& N g
-1.6274 D& N h
-1.6274 D& N i
-2.1546 D& N j
-1.3486 D& N kh
-1.8536 D& N l
-1.7823 D& N m
-1.6731 D& N n
-1.3721 D& N o
-2.0762 D& N oe
-1.6731 D& N ph
-1.6731 D& N r
-2.4346 D& N s
-2.1546 D& N tS
-1.0833 D& N tc
-1.7243 D& N th
-1.9328 D& N ts
-1.1222 D& N u
-1.4812 D& N v
-1.7823 D& N x
-2.4346 D& N y
-2.4346 D& N z
-1.2717 D& S &
-1.6910 D& S @
-2.1928 D& S A
-1.6910 D& S D&
-2.1928 D& S E
-1.2717 D& S I
-0.9706 D& S U
-1.4314 D& S Y
-1.8344 D& S a
-2.1928 D& S aU
-1.6910 D& S ai
-1.8344 D& S d
-1.0634 D& S dc
-1.9128 D& S e
-1.4825 D& S g
-1.3856 D& S i
-1.6910 D& S j
-1.9128 D& S kh
-2.1928 D& S l
-1.6910 D& S m
-1.6910 D& S n
-1.2717 D& S o
-1.4314 D& S oe
-2.1928 D& S ph
-1.6910 D& S r
-1.8344 D& S s
-1.1552 D& S tc
-1.6118 D& S th
-1.9128 D& S ts
-1.5405 D& S u
-1.2395 D& S v
-2.1928 D& S x
-1.9128 D& S y
-1.9128 D& S z
-1.5566 D& U D&
-1.4782 D& U N
-1.4782 D& U S
-1.8366 D& U Y
-1.8366 D& U a
-1.2556 D& U b
-0.9154 D& U dc
-1.8366 D& U f
-1.5566 D& U g
-1.5566 D& U kh
-1.5566 D& U l
-1.8366 D& U oe
-1.5566 D& U ph
-1.4782 D& U r
-1.1843 D& U s
-0.7741 D& U tc
-1.5566 D& U u
-1.5566 D& U v
-1.1263 D& U x
-1.8366 D& U y
-1.1301 D& Y I
-1.4884 D& Y S
-0.9866 D& Y U
-0.9866 D& Y dc
-1.4884 D& Y j
-1.4884 D& Y l
-1.2085 D& Y o
-1.2085 D& Y oe
-1.4884 D& Y s
-1.1301 D& Y tc
-1.4884 D& Y u
-1.4884 D& Y v
-1.0523 D& a S
-1.1315 D& a dc
-1.6333 D& a g
-1.0523 D& a l
-1.1315 D& a n
-1.3533 D& a ph
-1.6333 D& a r
-1.2749 D& a s
-0.6799 D& a tc
-1.6333 D& a th
-1.3533 D& a x
-1.3533 D& a z
-1.5387 D& aU D&
-1.1357 D& aU N
-1.2448 D& aU S
-1.1357 D& aU U
-1.0899 D& aU b
-1.1357 D& aU dc
-1.8971 D& aU g
-1.8971 D& aU h
-1.1868 D& aU kh
-1.8971 D& aU m
-1.0485 D& aU o
-1.5387 D& aU ph
-1.3953 D& aU s
-1.1357 D& aU tc
-1.8971 D& aU th
-1.0485 D& aU u
-1.2448 D& aU v
-1.3161 D& aU x
-1.8971 D& aU z
-1.6993 D& ai &
-1.4193 D& ai @
-1.6993 D& ai I
-1.0470 D& ai N
-1.4193 D& ai Y
-1.6993 D& ai dc
-1.4193 D& ai j
-0.7782 D& ai l
-0.8921 D& ai n
-1.4193 D& ai r
-1.3409 D& ai s
-0.7782 D& ai tc
-1.4193 D& ai x
-1.6993 D& ai z
-1.1958 D& b &
-1.8692 D& b @
-1.6004 D& b A
-1.0516 D& b D&
-1.1958 D& b D&i
-2.5215 D& b E
-1.8112 D& b I
-1.9405 D& b S
-1.6729 D& b U
-1.6004 D& b Y
-1.2230 D& b a
-1.5102 D& b aU
-1.1233 D& b ai
-2.0197 D& b d
-2.0197 D& b dc
-1.6004 D& b e
-1.2519 D& b g
-1.6004 D& b i
-1.6351 D& b kh
-1.6351 D& b l
-2.5215 D& b m
-1.1703 D& b o
-1.4356 D& b oe
-2.1631 D& b ph
-1.2092 D& b r
-1.9405 D& b s
-1.6004 D& b th
-2.1631 D& b ts
-1.2092 D& b u
-2.2416 D& b v
-2.5215 D& b x
-1.8112 D& b y
-2.2416 D& b z
-1.0713 D& d &
-1.0713 D& d A
-1.3513 D& d I
-0.9929 D& d U
-1.3513 D& d a
-1.3513 D& d aU
-0.9929 D& d e
-0.9929 D& d r
-1.3513 D& d s
-1.3513 D& d tc
-2.5706 D& dc &
-2.2907 D& dc D&
-2.2122 D& dc D&i
-1.9896 D& dc I
-2.2122 D& dc S
-1.8092 D& dc U
-1.8603 D& dc Y
-2.5706 D& dc a
-0.6771 D& dc b
-0.7812 D& dc d
-2.5706 D& dc f
-0.6299 D& dc g
-2.2122 D& dc i
-2.5706 D& dc j
-1.4210 D& dc kh
-2.2907 D& dc l
-2.2122 D& dc n
-1.7634 D& dc o
-1.4210 D& dc ph
-1.9896 D& dc r
-2.5706 D& dc tS
-2.2122 D& dc tc
-1.1102 D& dc th
-2.2122 D& dc ts
-1.1402 D& dc u
-1.9183 D& dc v
-2.5706 D& dc x
-2.5706 D& dc z
-1.0377 D& e n
-1.0377 D& e tc
-1.0377 D& e u
-1.5004 D& f &
-1.5004 D& f A
-1.2785 D& f D&
-1.4219 D& f I
-1.1993 D& f U
-1.5004 D& f a
-1.1993 D& f aU
-1.7803 D& f b
-1.5004 D& f d
-1.4219 D& f dc
-1.7803 D& f e
-1.7803 D& f g
-1.5004 D& f h
-0.9731 D& f o
-1.7803 D& f oe
-1.5004 D& f r
-1.7803 D& f s
-1.7803 D& f ts
-0.8939 D& f u
-1.2785 D& f v
-1.0465 D& g &
-1.8571 D& g @
-1.5631 D& g A
-1.3668 D& g D&
-1.9355 D& g D&i
-1.1295 D& g I
-1.9355 D& g N
-1.1072 D& g S
-1.3668 D& g U
-1.9355 D& g Y
-1.7136 D& g a
-1.8571 D& g aU
-2.2154 D& g ai
-2.2154 D& g b
-2.2154 D& g d
-1.8571 D& g dc
-1.8571 D& g e
-2.2154 D& g f
-1.1778 D& g i
-1.3291 D& g l
-2.2154 D& g m
-1.9355 D& g n
-1.2621 D& g o
-1.2943 D& g oe
-1.2621 D& g r
-1.5051 D& g s
-1.5631 D& g tc
-1.2321 D& g u
-1.3668 D& g v
-1.7136 D& g y
-2.2154 D& g z
-1.4314 D& h &
-1.8617 D& h @
-1.4314 D& h A
-0.9542 D& h D&
-1.1303 D& h D&i
-2.1417 D& h N
-1.5607 D& h U
-1.1883 D& h a
-1.2553 D& h aU
-1.2931 D& h ai
-2.1417 D& h b
-1.8617 D& h d
-1.8617 D& h e
-1.8617 D& h f
-1.8617 D& h i
-2.1417 D& h m
-1.3345 D& h n
-0.8293 D& h o
-1.3802 D& h r
-2.1417 D& h tc
-0.9365 D& h u
-2.1417 D& h v
-1.6398 D& h x
-1.7833 D& h z
-1.2122 D& i I
-1.5706 D& i N
-0.9896 D& i S
-1.5706 D& i dc
-1.5706 D& i g
-1.5706 D& i h
-1.0688 D& i j
-1.2907 D& i m
-1.2122 D& i n
-0.9183 D& i s
-0.9896 D& i tc
-1.5706 D& i th
-1.2122 D& i v
-1.2907 D& i z
-0.8486 D& j a
-0.5686 D& j r
-1.2711 D& kh &
-1.4849 D& kh @
-1.3502 D& kh A
-1.4849 D& kh D&
-1.2253 D& kh I
-2.3335 D& kh N
-1.6232 D& kh S
-1.7526 D& kh U
-1.4124 D& kh Y
-1.2959 D& kh a
-1.6812 D& kh aU
-1.4124 D& kh ai
-1.7526 D& kh b
-1.5721 D& kh d
-1.6232 D& kh dc
-1.2711 D& kh e
-1.9752 D& kh f
-1.4849 D& kh g
-1.3802 D& kh i
-1.9752 D& kh j
-1.5263 D& kh l
-1.8317 D& kh m
-2.0536 D& kh n
-1.6812 D& kh o
-1.3502 D& kh oe
-2.0536 D& kh ph
-1.3222 D& kh r
-1.6812 D& kh s
-1.5721 D& kh tc
-1.9752 D& kh th
-1.6812 D& kh ts
-1.4472 D& kh u
-1.6232 D& kh v
-1.9752 D& kh x
-1.9752 D& kh y
-1.8317 D& kh z
-1.3167 D& l &
-1.5163 D& l @
-1.5163 D& l D&
-2.1227 D& l D&i
-1.8217 D& l E
-1.2153 D& l I
-1.8217 D& l N
-1.7504 D& l S
-2.1227 D& l U
-1.8217 D& l Y
-1.6924 D& l a
-1.9009 D& l aU
-1.7504 D& l ai
-1.7504 D& l b
-1.9009 D& l d
-1.0640 D& l dc
-1.5163 D& l e
-1.9009 D& l g
-2.1227 D& l h
-1.2945 D& l i
-1.9009 D& l j
-2.0443 D& l kh
-1.7504 D& l m
-1.5955 D& l n
-1.6413 D& l o
-1.5955 D& l oe
-2.1227 D& l ph
-1.5955 D& l r
-1.5955 D& l s
-0.8965 D& l tc
-2.0443 D& l th
-1.8217 D& l ts
-1.3914 D& l u
-1.1805 D& l v
-1.9009 D& l x
-1.9009 D& l y
-1.6924 D& l z
-1.4127 D& m &
-1.9813 D& m @
-1.1869 D& m A
-0.9698 D& m D&
-1.0739 D& m D&i
-1.8009 D& m I
-1.8520 D& m N
-2.0605 D& m S
-1.7551 D& m U
-1.1531 D& m a
-1.3401 D& m aU
-0.9627 D& m ai
-2.2824 D& m b
-1.7551 D& m d
-1.7137 D& m dc
-1.5510 D& m e
-2.5623 D& m f
-2.2039 D& m h
-1.5247 D& m i
-2.5623 D& m j
-2.5623 D& m kh
-2.5623 D& m l
-1.9813 D& m n
-1.4127 D& m o
-1.9100 D& m oe
-2.5623 D& m ph
-1.4998 D& m r
-1.9100 D& m s
-2.2824 D& m tS
-1.9100 D& m tc
-0.9698 D& m u
-1.7551 D& m v
-2.0605 D& m x
-1.6090 D& m y
-1.3603 D& n &
-1.5200 D& n @
-1.3603 D& n A
-1.3603 D& n D&
-1.9230 D& n D&i
-2.2814 D& n E
-1.6291 D& n I
-1.7796 D& n N
-1.4742 D& n S
-1.9230 D& n U
-1.9230 D& n Y
-1.3603 D& n a
-1.6291 D& n aU
-1.3603 D& n ai
-1.5711 D& n b
-1.1125 D& n d
-1.1732 D& n dc
-1.3281 D& n e
-1.9230 D& n g
-2.0015 D& n h
-1.5711 D& n i
-1.4742 D& n j
-2.0015 D& n kh
-1.9230 D& n m
-1.4742 D& n o
-1.9230 D& n oe
-2.2814 D& n ph
-1.5200 D& n r
-2.0015 D& n s
-2.2814 D& n tS
-1.1955 D& n tc
-1.6291 D& n th
-2.2814 D& n ts
-1.5200 D& n u
-1.4328 D& n v
-1.9230 D& n x
-2.2814 D& n z
-1.4052 D& o I
-1.2247 D& o N
-1.2247 D& o S
-1.7062 D& o Y
-1.9862 D& o aU
-1.7062 D& o ai
-1.7062 D& o b
-1.0328 D& o dc
-1.6278 D& o g
-1.4844 D& o h
-1.6278 D& o i
-1.7062 D& o kh
-1.3339 D& o l
-1.6278 D& o m
-1.9862 D& o n
-1.1790 D& o ph
-1.9862 D& o r
-1.1790 D& o s
-1.0328 D& o tc
-1.9862 D& o th
-1.7062 D& o ts
-1.3339 D& o u
-1.3339 D& o v
-1.2247 D& o x
-1.9862 D& o z
-1.1082 D& oe A
-0.8283 D& oe I
-1.1082 D& oe h
-0.8283 D& oe n
-0.8283 D& oe r
-1.6390 D& ph &
-2.4005 D& ph @
-1.8987 D& ph A
-1.0135 D& ph D&
-1.6902 D& ph D&i
-2.4005 D& ph E
-1.5141 D& ph I
-2.4005 D& ph N
-1.5519 D& ph S
-1.3380 D& ph U
-2.0421 D& ph Y
-1.5519 D& ph a
-2.0421 D& ph aU
-1.5519 D& ph ai
-1.7482 D& ph b
-1.7482 D& ph d
-1.5141 D& ph dc
-1.7482 D& ph e
-1.8987 D& ph f
-1.3380 D& ph g
-2.4005 D& ph h
-1.4172 D& ph i
-1.3892 D& ph kh
-2.0421 D& ph l
-2.0421 D& ph m
-1.1619 D& ph o
-2.4005 D& ph oe
-1.2711 D& ph r
-1.6902 D& ph s
-1.5141 D& ph tc
-2.1205 D& ph th
-1.5933 D& ph ts
-0.9805 D& ph u
-1.3145 D& ph v
-2.0421 D& ph x
-1.8987 D& ph y
-2.0421 D& ph z
-1.8215 D& r &
-1.8673 D& r @
-1.7801 D& r A
-1.9184 D& r D&
-2.0477 D& r D&i
-1.8215 D& r I
-1.7076 D& r N
-1.3444 D& r S
-1.8673 D& r U
-2.3488 D& r Y
-2.0477 D& r a
-1.8215 D& r aU
-1.7076 D& r ai
-1.2417 D& r b
-2.1269 D& r d
-0.9077 D& r dc
-1.8673 D& r e
-2.1269 D& r f
-1.5205 D& r g
-1.9184 D& r h
-1.7423 D& r i
-1.5662 D& r kh
-1.6454 D& r l
-1.6454 D& r m
-1.4598 D& r n
-1.4791 D& r o
-1.9764 D& r oe
-1.3744 D& r ph
-1.7076 D& r s
-2.1269 D& r tS
-0.9764 D& r tc
-1.4993 D& r th
-1.4598 D& r ts
-1.5911 D& r u
-1.3030 D& r v
-1.7423 D& r x
-2.6287 D& r y
-1.5205 D& r z
-1.8556 D& s &
-2.0775 D& s D&
-1.5502 D& s I
-2.3574 D& s N
-1.1189 D& s S
-1.5088 D& s U
-1.5502 D& s Y
-2.0775 D& s a
-1.8556 D& s b
-1.3741 D& s d
-1.0187 D& s dc
-2.0775 D& s e
-1.6471 D& s f
-1.7764 D& s g
-1.7051 D& s i
-1.5960 D& s kh
-1.9990 D& s m
-1.7051 D& s n
-2.0775 D& s oe
-1.4710 D& s ph
-2.0775 D& s r
-1.9990 D& s tS
-1.3198 D& s tc
-1.4041 D& s th
-0.6637 D& s ts
-2.0775 D& s u
-1.7051 D& s v
-1.7764 D& s x
-1.0317 D& s z
-0.8960 D& tS S
-1.2544 D& tS Y
-1.2544 D& tS dc
-1.2544 D& tS kh
-1.2544 D& tS m
-1.2544 D& tS r
-1.2544 D& tS tc
-1.2544 D& tS th
-2.4046 D& tc D&
-1.9743 D& tc I
-1.3722 D& tc S
-2.6846 D& tc U
-2.4046 D& tc a
-1.2053 D& tc b
-1.1698 D& tc d
-1.6221 D& tc dc
-1.7634 D& tc f
-0.7702 D& tc g
-2.1828 D& tc i
-2.6846 D& tc j
-0.8688 D& tc kh
-2.4046 D& tc m
-2.1036 D& tc o
-2.4046 D& tc oe
-0.9480 D& tc ph
-2.4046 D& tc s
-1.9231 D& tc tS
-0.8129 D& tc th
-1.0200 D& tc ts
-1.8360 D& tc u
-2.1828 D& tc v
-2.4046 D& tc x
-1.6469 D& tc z
-1.5925 D& th &
-1.3126 D& th I
-1.5925 D& th N
-1.2341 D& th S
-1.2341 D& th Y
-1.3126 D& th a
-1.2341 D& th dc
-1.3126 D& th e
-1.5925 D& th g
-1.5925 D& th kh
-1.5925 D& th l
-1.5925 D& th m
-1.5925 D& th o
-1.5925 D& th r
-1.5925 D& th s
-1.5925 D& th tc
-1.5925 D& th ts
-1.0907 D& th u
-1.5925 D& th z
-1.5443 D& ts &
-1.5443 D& ts D&
-1.2432 D& ts I
-1.5443 D& ts S
-0.9756 D& ts U
-1.3224 D& ts Y
-1.5443 D& ts ai
-1.8242 D& ts b
-1.5443 D& ts d
-1.8242 D& ts dc
-1.8242 D& ts e
-1.1719 D& ts i
-1.8242 D& ts j
-1.8242 D& ts l
-1.8242 D& ts n
-1.0170 D& ts o
-1.3224 D& ts ph
-1.1719 D& ts r
-1.8242 D& ts s
-1.1139 D& ts u
-1.4658 D& ts v
-2.3000 D& u &
-1.9416 D& u @
-2.3000 D& u A
-2.0200 D& u D&
-2.3000 D& u E
-1.2623 D& u I
-1.2623 D& u N
-1.0614 D& u S
-1.7982 D& u U
-1.3788 D& u Y
-2.3000 D& u aU
-1.7982 D& u ai
-1.7982 D& u b
-1.1705 D& u dc
-2.0200 D& u f
-1.6477 D& u g
-2.0200 D& u h
-1.1310 D& u i
-1.9416 D& u j
-1.9416 D& u kh
-1.2375 D& u l
-1.5385 D& u m
-1.2886 D& u n
-1.9416 D& u o
-2.3000 D& u oe
-2.0200 D& u ph
-1.5897 D& u r
-1.1125 D& u s
-1.1125 D& u tc
-2.0200 D& u th
-1.7982 D& u ts
-1.7190 D& u v
-1.5385 D& u x
-2.0200 D& u y
-1.7190 D& u z
-1.4082 D& v &
-1.4704 D& v @
-1.4704 D& v A
-1.0792 D& v D&
-1.1864 D& v D&i
-2.3915 D& v E
-1.5429 D& v I
-2.0331 D& v S
-1.7392 D& v U
-1.1694 D& v a
-1.4704 D& v aU
-1.1372 D& v ai
-2.3915 D& v b
-2.1116 D& v d
-1.3056 D& v e
-2.3915 D& v g
-2.3915 D& v h
-1.4082 D& v i
-1.8897 D& v j
-2.1116 D& v kh
-2.1116 D& v l
-2.3915 D& v m
-2.3915 D& v n
-0.9933 D& v o
-1.2419 D& v oe
-2.3915 D& v ph
-1.3802 D& v r
-2.1116 D& v s
-0.9311 D& v u
-2.3915 D& v x
-1.8105 D& v y
-1.7602 D& x &
-2.0541 D& x @
-2.1325 D& x A
-1.8315 D& x D&
-2.4125 D& x E
-1.8315 D& x I
-1.7022 D& x N
-1.1739 D& x S
-1.3749 D& x U
-1.9107 D& x Y
-1.9107 D& x a
-2.4125 D& x aU
-1.9107 D& x ai
-1.6511 D& x b
-1.6053 D& x d
-1.1002 D& x dc
-1.9107 D& x e
-2.0541 D& x f
-1.3500 D& x g
-1.8315 D& x h
-1.5639 D& x i
-1.4292 D& x kh
-2.4125 D& x l
-1.6053 D& x m
-1.9107 D& x n
-1.4292 D& x o
-2.0541 D& x oe
-1.4012 D& x ph
-1.4914 D& x r
-1.4292 D& x s
-2.4125 D& x tS
-1.1903 D& x tc
-1.7602 D& x th
-0.9925 D& x ts
-1.4592 D& x u
-1.9107 D& x v
-1.3266 D& x z
-1.0044 D& y S
-0.5740 D& y dc
-0.5740 D& y tc
-1.2843 D& y th
-1.1627 D& z &
-1.0122 D& z @
-1.3061 D& z A
-1.6645 D& z D&
-1.6645 D& z D&i
-1.6645 D& z S
-1.0122 D& z U
-1.3846 D& z a
-1.6645 D& z d
-0.9542 D& z e
-0.9542 D& z i
-0.8159 D& z o
-1.3846 D& z oe
-1.6645 D& z u
-1.2482 D&i & I
-0.9542 D&i & N
-1.2482 D&i & S
-1.6065 D&i & U
-1.2482 D&i & dc
-1.0256 D&i & l
-1.3266 D&i & m
-1.1047 D&i & n
-1.3266 D&i & s
-0.7579 D&i & tc
-1.6065 D&i & u
-1.2482 D&i & v
-2.1039 D&i @ &
-2.1039 D&i @ A
-1.7455 D&i @ I
-1.1505 D&i @ N
-1.4516 D&i @ S
-1.5229 D&i @ U
-1.0179 D&i @ dc
-1.6021 D&i @ e
-2.1039 D&i @ f
-1.6021 D&i @ h
-1.3936 D&i @ i
-1.4516 D&i @ l
-1.2553 D&i @ m
-1.5229 D&i @ n
-2.1039 D&i @ o
-0.9542 D&i @ r
-1.1827 D&i @ s
-0.8987 D&i @ tc
-1.2967 D&i @ u
-1.5229 D&i @ v
-1.5229 D&i @ x
-1.2553 D&i @ z
-1.0860 D&i A ph
-1.0860 D&i A s
-0.7276 D&i A tc
-0.8060 D&i A z
-1.2986 D&i E I
-1.2986 D&i E dc
-1.2986 D&i E j
-1.2986 D&i E l
-0.9402 D&i E n
-1.0186 D&i E r
-0.9402 D&i E s
-1.2986 D&i E tc
-1.2986 D&i E x
-1.6444 D&i I &
-1.8707 D&i I @
-2.1717 D&i I A
-1.7993 D&i I D&
-2.1717 D&i I D&i
-2.4516 D&i I E
-1.6030 D&i I N
-1.2465 D&i I S
-1.1973 D&i I U
-1.9498 D&i I Y
-2.0932 D&i I a
-2.1717 D&i I aU
-2.1717 D&i I d
-1.0317 D&i I dc
-1.7413 D&i I e
-2.0932 D&i I f
-1.6030 D&i I g
-1.9498 D&i I h
-1.5653 D&i I i
-1.4403 D&i I j
-1.4983 D&i I kh
-2.0932 D&i I l
-1.6444 D&i I m
-1.7413 D&i I n
-1.3222 D&i I o
-1.7993 D&i I oe
-2.4516 D&i I ph
-1.6444 D&i I r
-1.2642 D&i I s
-0.9202 D&i I tc
-1.6902 D&i I th
-1.9498 D&i I ts
-1.2465 D&i I u
-1.4683 D&i I v
-1.6030 D&i I x
-1.4983 D&i I z
-1.3999 D&i N &
-1.5090 D&i N @
-2.1613 D&i N A
-2.1613 D&i N E
-0.9924 D&i N I
-1.2402 D&i N S
-2.1613 D&i N U
-2.1613 D&i N Y
-1.8814 D&i N a
-1.3541 D&i N d
-1.2080 D&i N dc
-1.5803 D&i N e
-2.1613 D&i N f
-1.3999 D&i N g
-1.8029 D&i N h
-1.5803 D&i N i
-1.3541 D&i N j
-2.1613 D&i N kh
-1.8029 D&i N l
-1.8029 D&i N m
-1.3999 D&i N n
-2.1613 D&i N o
-2.1613 D&i N ph
-1.8814 D&i N r
-1.5803 D&i N s
-2.1613 D&i N tS
-1.0117 D&i N tc
-1.5803 D&i N th
-2.1613 D&i N ts
-1.3999 D&i N u
-1.3999 D&i N v
-1.2749 D&i N x
-1.8029 D&i N z
-1.4931 D&i S &
-1.5511 D&i S @
-2.2034 D&i S A
-1.9234 D&i S D&
-1.8450 D&i S D&i
-1.8450 D&i S E
-0.8777 D&i S I
-1.8450 D&i S N
-0.9983 D&i S U
-1.2823 D&i S Y
-2.2034 D&i S a
-1.4931 D&i S d
-1.4931 D&i S dc
-1.9234 D&i S e
-1.2823 D&i S g
-1.8450 D&i S h
-1.3962 D&i S i
-1.3170 D&i S j
-1.5511 D&i S l
-1.6224 D&i S m
-1.3962 D&i S n
-1.8450 D&i S o
-1.4931 D&i S oe
-1.5511 D&i S r
-1.7016 D&i S tc
-2.2034 D&i S th
-2.2034 D&i S ts
-1.3548 D&i S u
-1.4931 D&i S v
-1.6224 D&i S y
-1.6224 D&i S z
-1.0113 D&i U A
-0.7314 D&i U N
-1.0113 D&i U S
-1.0113 D&i U tc
-1.6968 D&i Y &
-1.7752 D&i Y @
-1.5534 D&i Y D&
-1.2937 D&i Y I
-1.4742 D&i Y N
-1.2937 D&i Y S
-1.3449 D&i Y U
-2.0552 D&i Y a
-1.5534 D&i Y b
-1.6968 D&i Y d
-1.0439 D&i Y dc
-1.7752 D&i Y h
-2.0552 D&i Y i
-1.5534 D&i Y j
-1.5534 D&i Y l
-1.7752 D&i Y m
-2.0552 D&i Y n
-1.0719 D&i Y o
-2.0552 D&i Y oe
-1.4742 D&i Y r
-1.0719 D&i Y s
-2.0552 D&i Y tS
-1.2480 D&i Y tc
-2.0552 D&i Y ts
-1.3449 D&i Y u
-1.2066 D&i Y v
-1.4029 D&i Y x
-1.7752 D&i Y z
-0.7276 D&i a s
-0.5841 D&i a tc
-0.7103 D&i aU tc
-0.8864 D&i ai l
-0.8864 D&i ai s
-0.8864 D&i ai tc
-1.0377 D&i b ai
-1.0377 D&i b g
-1.0377 D&i b i
-0.9211 D&i d I
-0.6412 D&i d r
-1.5072 D&i dc @
-0.9008 D&i dc I
-1.7298 D&i dc S
-1.3779 D&i dc Y
-1.5072 D&i dc b
-0.4118 D&i dc d
-0.8186 D&i dc g
-2.0882 D&i dc i
-1.1671 D&i dc j
-1.2396 D&i dc th
-2.0882 D&i dc v
-1.5864 D&i dc x
-1.3754 D&i e I
-1.0954 D&i e N
-1.3754 D&i e S
-1.3754 D&i e b
-1.3754 D&i e dc
-1.0170 D&i e l
-0.6651 D&i e n
-1.3754 D&i e r
-1.0954 D&i e s
-1.3754 D&i e tc
-1.2222 D&i f @
-1.2222 D&i f A
-0.9422 D&i f I
-0.9422 D&i f U
-1.2222 D&i f Y
-1.2222 D&i f n
-1.2222 D&i f ts
-0.8283 D&i g I
-1.1082 D&i g U
-1.1082 D&i g e
-0.8283 D&i g l
-1.1082 D&i g r
-1.1082 D&i g y
-1.1183 D&i h @
-1.3983 D&i h E
-1.0399 D&i h I
-1.0399 D&i h N
-1.3983 D&i h S
-1.3983 D&i h Y
-1.3983 D&i h a
-1.3983 D&i h b
-1.3983 D&i h i
-1.3983 D&i h n
-1.3983 D&i h oe
-1.8871 D&i i E
-1.2459 D&i i I
-1.4567 D&i i N
-0.6696 D&i i S
-2.1670 D&i i Y
-0.9981 D&i i dc
-1.8086 D&i i f
-2.1670 D&i i g
-1.8086 D&i i h
-1.5147 D&i i j
-2.1670 D&i i kh
-1.5147 D&i i l
-1.8086 D&i i m
-1.5860 D&i i n
-1.8871 D&i i ph
-1.8871 D&i i r
-1.1294 D&i i s
-1.8871 D&i i tS
-1.0588 D&i i tc
-1.8086 D&i i th
-1.3598 D&i i ts
-1.5860 D&i i v
-1.1557 D&i i x
-1.5147 D&i i z
-1.1833 D&i j &
-1.6136 D&i j @
-0.9402 D&i j A
-1.8936 D&i j D&
-1.5352 D&i j S
-1.6136 D&i j U
-1.2413 D&i j a
-1.5352 D&i j aU
-1.5352 D&i j ai
-1.8936 D&i j dc
-1.5352 D&i j e
-1.8936 D&i j g
-1.3918 D&i j h
-1.5352 D&i j kh
-1.8936 D&i j m
-1.3126 D&i j o
-1.6136 D&i j oe
-0.7246 D&i j r
-1.6136 D&i j s
-1.0072 D&i j u
-0.7678 D&i kh I
-1.2696 D&i kh S
-0.9896 D&i kh a
-0.9112 D&i kh dc
-1.2696 D&i kh l
-1.2696 D&i kh ph
-1.2696 D&i kh ts
-1.3912 D&i l &
-1.0428 D&i l @
-2.3124 D&i l A
-0.8239 D&i l I
-1.8105 D&i l N
-1.4260 D&i l S
-1.5509 D&i l U
-1.2499 D&i l Y
-2.3124 D&i l a
-2.3124 D&i l aU
-2.0324 D&i l ai
-2.3124 D&i l d
-1.4638 D&i l dc
-1.2499 D&i l e
-2.3124 D&i l g
-1.0738 D&i l i
-1.3912 D&i l j
-1.9540 D&i l kh
-1.8105 D&i l m
-1.6601 D&i l n
-1.5509 D&i l o
-1.4638 D&i l oe
-1.6601 D&i l s
-1.3590 D&i l tc
-2.0324 D&i l th
-2.3124 D&i l ts
-1.6601 D&i l u
-1.4638 D&i l v
-2.0324 D&i l x
-1.7314 D&i l y
-1.5051 D&i l z
-1.1209 D&i m @
-1.4793 D&i m D&
-1.1209 D&i m I
-1.4793 D&i m S
-1.4793 D&i m U
-1.4793 D&i m d
-1.1209 D&i m dc
-1.4793 D&i m e
-1.4793 D&i m i
-1.1993 D&i m j
-1.4793 D&i m tc
-1.4793 D&i m th
-1.1993 D&i m u
-1.4793 D&i m x
-1.2872 D&i n &
-1.0142 D&i n @
-1.9975 D&i n A
-0.9862 D&i n I
-1.2872 D&i n S
-1.9975 D&i n U
-1.9975 D&i n Y
-1.7176 D&i n a
-1.7176 D&i n aU
-1.1903 D&i n d
-1.4165 D&i n dc
-1.2872 D&i n e
