# VAD: 1
# Viterbi loop action: No record

BIGRAM: method Katz, cutoff 1
coef[7]: 0.000000 0.990000 0.990000 0.990000 0.990000 0.990000 0.990000

TRIGRAM: method Katz, cutoff 1
coef[4]: 0.000000 0.874818 0.990000 0.990000

\data\
ngram 1=41
ngram 2=1482
ngram 3=35733

\1-grams:
-1.5176 &	-1.9415
-2.0955 &r	-0.9910
-99.9900 </s>
-99.9900 <s>
-1.6904 >	-1.5651
-1.5237 @	-1.7410
-1.4896 A	-1.7626
-1.8292 C	-1.3824
-1.6113 E	-1.6430
-2.0892 I	-1.0026
-1.4967 N	-1.7107
-1.5518 cC	-1.8957
-1.9008 cCh	-1.3655
-1.9140 e	-1.4108
-1.9541 f	-0.4232
-1.3374 i	-1.8619
-1.5483 ixr	-1.5470
-1.4764 j	-1.2191
-2.0710 jw	-0.8809
-1.6390 k	-0.8387
-1.7526 kh	-0.8114
-1.6706 l	-0.7415
-1.4991 m	-1.0076
-1.3842 n	-1.6104
-1.5770 o	-1.3377
-1.4894 p	-1.0556
-2.1400 ph	-0.7755
-2.1484 r&	-2.6755
-1.8924 s	-0.8437
-1.3241 sr	-1.6077
-1.6469 t	-0.7842
-0.9425 tc	-2.7059
-1.9215 th	-0.6622
-1.7375 thsr	-0.9836
-1.8290 ts	-0.5849
-2.1265 tsh	-0.6602
-1.5370 tsr	-1.1591
-1.3496 u	-1.8935
-1.3522 w	-1.3574
-1.6207 x	-1.0287
-1.7074 y	-1.5759

\2-grams:
-2.5967 & &r	-0.3474
-2.4292 & >	-0.2775
-2.7479 & @	-0.2566
-2.6415 & A	-0.2097
-1.6549 & C	-0.3203
-2.7132 & E	-0.1492
-2.6371 & I	-0.2639
-1.3475 & N	-0.2899
-2.0446 & cC	-0.2732
-2.2317 & cCh	-0.3890
-2.6871 & e	-0.2845
-1.6009 & f	-0.3939
-1.6390 & i	-0.1704
-2.0446 & ixr	-0.4964
-1.5253 & j	-0.6007
-2.4078 & jw	-0.2772
-2.1859 & k	-0.1860
-2.1325 & kh	-0.4464
-1.3984 & l	-0.6866
-1.0730 & m	-2.2430
-0.9662 & n	-1.7370
-2.0877 & o	-0.2152
-2.1385 & p	-0.0200
-2.4190 & ph	-0.4838
-2.0720 & r&	-0.4591
-1.5772 & s	-0.7455
-1.1334 & sr	+0.7579
-2.7088 & t	-0.1196
-0.5132 & tc	-1.6612
-2.2171 & th	-0.3865
-2.2135 & thsr	-0.5183
-2.4365 & ts	-0.2058
-2.5364 & tsh	-0.1758
-1.9196 & tsr	-0.2863
-1.7866 & u	-0.5426
-1.4055 & w	-0.4598
-1.5117 & x	-0.2706
-1.9945 & y	-0.4615
-1.7969 &r &	-0.2734
-2.1031 &r >	-0.2082
-1.8513 &r @	-0.1843
-1.7819 &r A	-0.1397
-1.6619 &r C	-0.4008
-2.3114 &r E	-0.1305
-2.3070 &r I	-0.1142
-1.4209 &r N	-0.3772
-1.4941 &r cC	-0.2288
-1.6845 &r cCh	-0.1772
-2.2306 &r e	-0.3105
-1.7352 &r f	-0.3796
-1.6651 &r i	-0.2838
-1.8029 &r ixr	-0.0889
-1.5758 &r j	-0.5675
-2.4209 &r jw	-0.1497
-1.7008 &r k	-0.4288
-1.5316 &r kh	-0.3095
-1.3364 &r l	-0.3601
-1.6926 &r m	-0.3483
-1.1892 &r n	-0.4198
-2.1422 &r o	-0.0388
-1.7091 &r p	-0.1177
-2.0592 &r ph	-0.3846
-2.0785 &r r&	-0.2085
-1.7443 &r s	-0.3834
-1.0300 &r sr	-0.5492
-2.0592 &r t	-0.1992
-0.7502 &r tc	-0.0571
-1.9585 &r th	-0.3858
-1.8029 &r thsr	-0.3019
-1.6182 &r ts	-0.4372
-1.8707 &r tsh	-0.2530
-1.5576 &r tsr	-0.2800
-1.8527 &r u	-0.1383
-1.3004 &r w	-0.1468
-1.3491 &r x	-0.4342
-2.1199 &r y	-0.1956
-2.1676 > &	-0.2224
-2.2563 > &r	-0.2965
-2.1676 > @	-0.4375
-1.8810 > A	-0.2548
-1.6675 > C	-0.5319
-2.9273 > E	-0.4339
-2.5473 > I	-0.1026
-1.3503 > N	-0.3358
-1.7205 > cC	-0.4858
-2.0778 > cCh	-0.4105
-2.1633 > e	-0.4490
-1.5719 > f	-0.6622
-1.5994 > i	-0.0236
-2.2697 > ixr	-0.3448
-1.5905 > j	-0.8129
-2.1358 > jw	-0.4199
-1.8599 > k	-0.4683
-1.7634 > kh	-0.6886
-1.4011 > l	-0.5698
-1.1046 > m	-0.8161
-1.2709 > n	-0.6883
-2.1776 > o	-0.0172
-1.6514 > p	-0.3955
-2.1142 > ph	-0.3135
-1.9539 > r&	-0.5241
-1.7597 > s	-0.6174
-1.0600 > sr	+0.6722
-2.6499 > t	-0.3347
-0.6615 > tc	-0.2726
-2.0515 > th	-0.3193
-1.9256 > thsr	-0.3334
-2.2945 > ts	-0.3772
-2.2028 > tsh	-0.2999
-1.6165 > tsr	-0.2487
-1.5671 > u	-0.2706
-1.2826 > w	-0.7896
-1.2863 > x	-0.2853
-2.0131 > y	-0.3836
-2.1520 @ &	-0.2953
-2.0036 @ &r	-0.5692
-2.3896 @ >	-0.2678
-2.0994 @ A	-0.1757
-1.9054 @ C	-0.1926
-1.9071 @ E	-0.3728
-2.4875 @ I	-0.3817
-1.0973 @ N	-1.5119
-2.2643 @ cC	-0.2688
-2.4129 @ cCh	-0.2380
-2.3160 @ e	-0.2274
-2.1264 @ f	-0.4828
-1.2885 @ i	-0.5670
-1.8576 @ ixr	-0.5209
-0.8959 @ j	-1.1833
-2.0082 @ jw	-0.3311
-2.5229 @ k	-0.2680
-2.2809 @ kh	-0.3093
-1.1220 @ l	-0.8378
-1.3577 @ m	-1.0174
-0.7273 @ n	-1.9698
-2.0658 @ o	-0.3100
-2.5156 @ p	-0.4262
-2.4425 @ ph	-0.2852
-2.2293 @ r&	-0.2880
-2.0978 @ s	-0.5812
-1.2131 @ sr	-1.5468
-2.9320 @ t	-0.0741
-1.0733 @ tc	-0.1334
-2.2643 @ th	-0.2454
-2.2767 @ thsr	-0.3444
-2.7622 @ ts	-0.1966
-2.6405 @ tsh	-0.2941
-2.2484 @ tsr	-0.3270
-1.9884 @ u	-0.5681
-1.0577 @ w	-1.4850
-1.6809 @ x	-0.5735
-2.0684 @ y	-0.3519
-2.0941 A &	-0.2445
-1.8819 A &r	-0.5012
-1.8450 A >	-0.5116
-2.0580 A @	-0.5295
-2.0018 A C	-0.4321
-2.9172 A E	-0.1539
-2.4357 A I	-0.1511
-0.9417 A N	+0.1760
-2.0268 A cC	-0.0694
-2.1911 A cCh	-0.2845
-2.4140 A e	-0.0100
-1.6834 A f	-0.3254
-2.2309 A i	-0.2727
-2.2240 A ixr	-0.2964
-1.8565 A j	-0.4778
-2.5285 A jw	-0.2376
-2.1264 A k	-0.1381
-1.8838 A kh	-0.4708
-1.1780 A l	-0.6883
-1.0956 A m	-1.6116
-1.1409 A n	+0.5572
-2.2240 A o	-0.2577
-2.0445 A p	-0.1580
-2.3025 A ph	-0.2484
-2.3688 A r&	-0.2964
-1.6717 A s	+0.1016
-1.3175 A sr	+0.8063
-2.3833 A t	-0.0884
-0.9054 A tc	-0.6135
-2.1975 A th	-0.3919
-2.0077 A thsr	-0.6024
-2.2786 A ts	-0.2298
-2.1725 A tsh	-0.3800
-1.9512 A tsr	-0.2556
-1.6315 A u	-0.6305
-0.7559 A w	-2.2603
-1.2717 A x	-0.5376
-2.4470 A y	-0.2900
-2.0014 C &	-0.3064
-2.5302 C &r	-0.0983
-2.3394 C >	-0.3752
-2.1234 C @	-0.3188
-2.4741 C A	-0.2342
-1.4888 C E	-0.2028
-2.0245 C I	-0.4309
-1.9352 C N	-0.3529
-1.2615 C cC	-0.5235
-1.4271 C cCh	-0.4722
-2.1132 C e	-0.0615
-2.1370 C f	-0.6305
-0.9441 C i	-0.9728
-1.1057 C ixr	+0.0706
-1.1848 C j	-0.7019
-1.4283 C jw	-0.3018
-1.8515 C k	-0.1789
-1.8360 C kh	-0.4213
-2.1889 C l	-0.3873
-1.8515 C m	-0.4033
-1.4392 C n	-0.4756
-2.1753 C o	-0.2997
-1.7049 C p	-0.4531
-2.1622 C ph	-0.5527
-2.2893 C r&	-0.1945
-1.8879 C s	-0.3782
-1.5666 C sr	-0.1758
-1.6872 C t	-0.1252
-1.2159 C tc	-0.3724
-1.9238 C th	-0.3834
-1.2559 C thsr	-0.5119
-1.7004 C ts	-0.5125
-1.7814 C tsh	-0.5466
-1.3302 C tsr	-0.7145
-1.7378 C u	-0.3946
-1.7553 C w	-0.2817
-1.8710 C x	-0.5170
-1.1538 C y	-0.3145
-2.0769 E &	-0.3101
-2.1349 E &r	-0.1739
-2.4945 E >	-0.1497
-2.1498 E @	-0.2215
-1.9116 E A	-0.2827
-1.7727 E C	-0.5725
-2.5249 E I	-0.1748
-1.0928 E N	-0.6761
-2.3428 E cC	-0.2629
-2.5727 E cCh	-0.0048
-2.5434 E e	-0.1550
-1.7764 E f	-0.6530
-1.9161 E i	-0.2371
-1.9029 E ixr	-0.4528
-1.4851 E j	-0.2017
-2.8444 E jw	+0.0555
-2.2923 E k	-0.2923
-2.2239 E kh	-0.2441
-1.2950 E l	-0.7182
-1.1569 E m	-1.3964
-0.7621 E n	+0.4998
-1.5881 E o	-0.6157
-2.3311 E p	-0.2345
-2.7148 E ph	-0.4686
-1.9390 E r&	-0.4066
-1.7764 E s	-0.5512
-1.2252 E sr	-0.6506
-2.7912 E t	-0.1137
-0.6720 E tc	-0.4872
-2.2194 E th	-0.2974
-2.3085 E thsr	-0.3331
-2.7010 E ts	-0.1081
-2.5159 E tsh	-0.2790
-2.1891 E tsr	-0.1507
-1.8314 E u	-0.2857
-1.2381 E w	-0.4596
-1.4876 E x	-0.6946
-2.0758 E y	-0.3777
-1.9473 I &	-0.1616
-2.1886 I &r	-0.2760
-2.3013 I >	-0.0698
-2.1529 I @	-0.3088
-1.9844 I A	-0.1932
-1.3982 I C	-0.3662
-2.3665 I E	-0.2530
-1.3918 I N	-0.4897
-1.9501 I cC	-0.1800
-2.1968 I cCh	-0.2358
-2.0381 I e	-0.2765
-1.6829 I f	-0.2404
-1.3722 I i	-0.2856
-1.9724 I ixr	-0.2413
-1.7551 I j	-0.3682
-2.0655 I jw	-0.1911
-1.9154 I k	-0.0606
-2.1485 I kh	-0.2498
-1.5884 I l	-0.2230
-1.4186 I m	-0.3809
-1.2313 I n	-0.2094
-1.9574 I o	-0.1710
-1.9648 I p	-0.3387
-2.1601 I ph	-0.4010
-1.8649 I r&	-0.1649
-1.3858 I s	-0.4009
-0.9174 I sr	-0.6623
-2.4061 I t	-0.1479
-0.5800 I tc	-0.7548
-2.0751 I th	-0.3184
-2.0040 I thsr	-0.2492
-2.1842 I ts	-0.5849
-2.1842 I tsh	-0.2013
-1.8770 I tsr	-0.2726
-1.7030 I u	-0.2461
-1.5760 I w	-0.2454
-1.5522 I x	-0.3208
-1.8252 I y	-0.3590
-2.1461 N &	-0.2206
-2.4060 N &r	-0.2107
-2.2145 N >	-0.2241
-2.4275 N @	-0.1554
-2.3123 N A	-0.1914
-1.4483 N C	-0.2327
-2.5145 N E	-0.2220
-2.2068 N I	-0.1977
-1.4027 N cC	-0.2469
-1.6459 N cCh	-0.3639
-2.1840 N e	-0.1145
-1.6944 N f	-0.7149
-1.3190 N i	-0.3548
-1.9193 N ixr	-0.3093
-1.8266 N j	-0.0477
-2.3762 N jw	-0.1411
-1.7058 N k	-0.4559
-1.6893 N kh	-0.3180
-1.5710 N l	-0.6262
-1.2481 N m	-1.7208
-1.4652 N n	-0.4905
-2.1715 N o	-0.2108
-1.4707 N p	-0.7812
-1.8598 N ph	-0.3924
-2.2035 N r&	+0.2077
-1.5092 N s	-0.6924
-1.1326 N sr	+0.7248
-2.2638 N t	-0.2237
-0.5921 N tc	-0.6816
-1.8583 N th	-0.4050
-1.6637 N thsr	-0.8623
-1.9705 N ts	-0.2485
-1.8814 N tsh	-0.0363
-1.5649 N tsr	-0.4761
-1.5780 N u	-0.5520
-1.6822 N w	-0.3531
-1.5152 N x	-0.6299
-1.9193 N y	-0.3154
-1.8601 cC &	-0.3116
-2.9276 cC &r	-0.1680
-2.8076 cC >	-0.2426
-2.3669 cC @	-0.4155
-2.7386 cC A	-0.1835
-1.8971 cC C	-0.3480
-0.9815 cC E	-0.6080
-2.2528 cC I	-0.3783
-2.1289 cC N	-0.4128
-2.6424 cC cCh	-0.1615
-2.0670 cC e	-0.3644
-2.9039 cC f	-0.2528
-0.7014 cC i	-0.9021
-1.1214 cC ixr	-0.4922
-0.8153 cC j	-1.3072
-1.2613 cC jw	-0.4268
-2.2243 cC k	-0.3146
-2.8033 cC kh	-0.2951
-2.1321 cC l	-0.6365
-1.9002 cC m	-0.3674
-1.8154 cC n	-0.2609
-1.5513 cC o	-0.3634
-2.2879 cC p	-0.3380
-2.8343 cC ph	-0.3663
-2.2404 cC r&	-0.2944
-2.4663 cC s	-0.3664
-1.7167 cC sr	-0.4336
-1.9332 cC t	-0.5824
-1.5060 cC tc	-0.2054
-2.2164 cC th	-0.4099
-2.0615 cC thsr	-0.4132
-2.2486 cC ts	-0.6262
-2.8185 cC tsh	-0.3079
-1.9690 cC tsr	-0.3497
-1.6702 cC u	-0.4373
-2.0753 cC w	-0.3205
-2.3519 cC x	-0.2985
-0.8636 cC y	-1.0048
-1.8957 cCh &	-0.1761
-2.3528 cCh &r	-0.2819
-2.4025 cCh >	-0.2233
-2.2775 cCh @	-0.4893
-2.3412 cCh A	-0.1105
-1.6445 cCh C	-0.2059
-1.2965 cCh E	-0.5346
-2.1173 cCh I	-0.2695
-1.6311 cCh N	-0.3857
-1.7348 cCh cC	-0.1866
-2.0301 cCh e	-0.3394
-2.3484 cCh f	-0.2585
-0.7987 cCh i	-0.7097
-1.1313 cCh ixr	-0.5026
-1.1883 cCh j	-0.3954
-1.3233 cCh jw	-0.0858
-1.9721 cCh k	-0.2499
-2.0358 cCh kh	-0.3974
-1.9624 cCh l	-0.5196
-1.5802 cCh m	-0.4483
-1.3826 cCh n	-0.3693
-1.8338 cCh o	-0.1633
-2.0654 cCh p	-0.3407
-2.4695 cCh ph	-0.1314
-2.1458 cCh r&	-0.1865
-1.8996 cCh s	-0.3997
-1.4115 cCh sr	-0.5510
-2.2634 cCh t	-0.2392
-1.2031 cCh tc	-0.1828
-1.9254 cCh th	-0.4575
-1.7405 cCh thsr	-0.5015
-1.9435 cCh ts	-0.3234
-2.0971 cCh tsh	-0.2082
-1.7291 cCh tsr	-0.4552
-1.6091 cCh u	-0.3802
-1.8267 cCh w	-0.2450
-1.9481 cCh x	-0.3093
-0.9348 cCh y	-0.0647
-2.1835 e &	-0.0114
-2.4307 e &r	-0.2031
-2.4164 e >	-0.2531
-2.3893 e @	-0.1006
-2.2950 e A	-0.2292
-1.6267 e C	-0.5272
-1.0905 e E	-0.2978
-2.5232 e I	-0.1387
-1.2010 e N	-0.3752
-2.2906 e cC	-0.2550
-2.3124 e cCh	-0.1452
-2.5232 e f	-0.1438
-0.7731 e i	-0.3866
-1.7332 e ixr	-0.5195
-0.7028 e j	-0.6684
-1.6224 e jw	-0.3730
-2.4121 e k	-0.0876
-2.3014 e kh	-0.0716
-1.7103 e l	-0.5111
-2.0972 e m	-0.2813
-1.0108 e n	-0.2956
-1.6859 e o	-0.3339
-2.5417 e p	-0.1888
-2.6247 e ph	-0.1715
-1.9396 e r&	-0.3038
-2.1631 e s	-0.3142
-1.4205 e sr	-0.5014
-2.9492 e t	-0.1403
-1.4321 e tc	-0.0370
-2.1710 e th	-0.2776
-2.1475 e thsr	-0.2363
-2.6024 e ts	-0.0179
-2.5610 e tsh	-0.1202
-2.2502 e tsr	-0.1301
-1.8352 e u	-0.2402
-1.6704 e w	-0.2284
-2.0709 e x	-0.2441
-1.2222 e y	-0.2528
-1.1517 f &	-0.3749
-1.7279 f &r	-0.3984
-1.2069 f >	-0.2608
-0.8877 f @	-0.4301
-0.8859 f A	-0.3000
-2.3492 f C	-0.2320
-2.7494 f E	-0.0687
-1.6731 f I	-0.3677
-1.5330 f N	-0.2044
-1.8634 f cC	-0.3725
-1.9769 f cCh	-0.1737
-1.7020 f e	-0.3416
-1.7267 f i	-0.3104
-1.5624 f ixr	-0.2690
-2.1732 f j	-0.2182
-2.5846 f jw	-0.0579
-1.6279 f k	-0.3096
-1.7330 f kh	-0.3019
-2.1913 f l	-0.4238
-1.8065 f m	-0.3599
-1.6961 f n	-0.3287
-1.5249 f o	-0.5113
-1.6990 f p	-0.4604
-2.1310 f ph	-0.2980
-2.3319 f r&	-0.3741
-2.1474 f s	-0.3516
-1.5915 f sr	-0.5059
-1.7562 f t	-0.3347
-1.7142 f tc	-0.2800
-2.2401 f th	-0.2084
-1.8463 f thsr	-0.2496
-2.0572 f ts	-0.4777
-2.2199 f tsh	-0.3069
-1.8811 f tsr	-0.3333
-1.0933 f u	-0.5175
-1.2016 f w	-0.0994
-1.7878 f x	-0.3834
-2.2952 f y	-0.3344
-2.2969 i &	-0.2148
-2.3638 i &r	-0.5460
-2.6851 i >	-0.3376
-2.6152 i @	-0.2165
-2.2103 i A	-0.1776
-1.3711 i C	-1.2997
-1.4714 i E	-0.1969
-2.4426 i I	-0.2397
-1.3513 i N	-1.0762
-1.7558 i cC	-0.3314
-2.0407 i cCh	-0.4629
-2.4507 i e	+0.0210
-1.9642 i f	-0.3927
-1.8578 i ixr	-0.4060
-1.6618 i j	-0.8090
-2.0651 i jw	-0.3908
-1.8307 i k	-0.3866
-1.8547 i kh	-0.6287
-1.6520 i l	-0.4925
-1.2084 i m	+0.4411
-1.1364 i n	-1.7470
-1.5196 i o	-0.2656
-1.9511 i p	-0.6932
-2.2954 i ph	-0.4027
-2.0344 i r&	-0.2220
-1.7272 i s	-0.3814
-1.1269 i sr	+0.6700
-2.4801 i t	-0.1294
-0.5270 i tc	+0.2612
-2.0283 i th	-0.2537
-1.7326 i thsr	-0.3547
-2.3040 i ts	-0.2611
-2.1017 i tsh	-0.1639
-1.8466 i tsr	-0.7857
-1.7582 i u	-0.1338
-1.8436 i w	-0.3120
-1.5786 i x	-0.4259
-1.6807 i y	-0.3881
-1.8535 ixr &	-0.3036
-2.1061 ixr &r	-0.2733
-2.3440 ixr >	-0.2115
-1.9724 ixr @	-0.3287
-1.9291 ixr A	-0.2523
-1.5130 ixr C	-0.4239
-2.0872 ixr E	-0.3979
-2.5287 ixr I	-0.2759
-1.4589 ixr N	-0.3168
-1.8282 ixr cC	-0.2547
-2.1292 ixr cCh	-0.5236
-2.2277 ixr e	-0.1913
-1.7325 ixr f	-0.4158
-1.6178 ixr i	-0.3682
-1.7934 ixr j	-0.2579
-2.3940 ixr jw	-0.0643
-1.9973 ixr k	-0.3101
-2.0732 ixr kh	-0.4522
-1.5343 ixr l	-0.7252
-1.3381 ixr m	-1.0243
-1.2297 ixr n	-0.5392
-1.7667 ixr o	-0.2593
-1.9469 ixr p	-0.4488
-2.3883 ixr ph	-0.3583
-1.9448 ixr r&	-0.4294
-1.5049 ixr s	-0.1827
-0.9525 ixr sr	+0.7661
-2.2960 ixr t	-0.2152
-0.5155 ixr tc	-1.6281
-2.1018 ixr th	-0.4777
-2.1261 ixr thsr	-0.3701
-2.2317 ixr ts	-0.1533
-2.3770 ixr tsh	-0.4014
-1.8764 ixr tsr	-0.3143
-1.7080 ixr u	-0.3966
-1.5303 ixr w	-0.2853
-1.4909 ixr x	-1.2686
-1.8764 ixr y	-0.5044
-1.5895 j &	-0.1394
-1.8471 j &r	-0.2725
-2.3284 j >	-0.3651
-1.3104 j @	-0.7244
-1.0481 j A	-0.7749
-1.7819 j C	-0.3160
-1.0299 j E	-0.5148
-2.6007 j I	-0.1959
-1.5615 j N	-0.1165
-1.6456 j cC	-0.4198
-2.0858 j cCh	-0.3653
-2.4116 j e	-0.1793
-2.1424 j f	-0.5371
-1.7590 j i	-0.2627
-1.9113 j ixr	-0.4532
-2.6251 j jw	-0.1271
-1.7467 j k	-0.4747
-1.7693 j kh	-0.5870
-1.7693 j l	-0.4644
-1.7489 j m	-0.7823
-1.3966 j n	-0.6796
-1.0321 j o	-0.7147
-1.6908 j p	+0.0549
-2.2766 j ph	-0.2838
-2.2338 j r&	-0.1510
-1.9889 j s	-0.3179
-1.4429 j sr	-0.4219
-2.1369 j t	-0.3030
-0.7285 j tc	+0.3534
-2.0046 j th	-0.3867
-1.9162 j thsr	-0.5356
-2.2729 j ts	-0.3361
-2.3588 j tsh	-0.2485
-1.7168 j tsr	-0.3509
-2.0026 j u	-0.3617
-1.5143 j w	-0.2968
-1.5960 j x	-0.4987
-2.0209 j y	-0.3168
-1.3546 jw &	-0.0037
-2.0518 jw &r	-0.1360
-2.5466 jw >	-0.1466
-1.5053 jw @	-0.2767
-1.8112 jw A	-0.4544
-2.0976 jw C	-0.2430
-0.4071 jw E	-1.6376
-2.3485 jw I	-0.0699
-1.7552 jw N	-0.1245
-2.5703 jw cC	-0.2169
-2.6325 jw cCh	-0.0091
-1.5850 jw e	-0.1967
-2.7922 jw f	-0.0337
-1.3866 jw i	-0.3232
-1.3717 jw ixr	-0.2698
-1.0108 jw j	-0.5093
-2.2023 jw k	-0.3912
-2.3847 jw kh	-0.3840
-1.8891 jw l	-0.3727
-2.8433 jw m	-0.0948
-2.1443 jw n	-0.2355
-1.1020 jw o	-0.3794
-2.5703 jw p	-0.1309
-2.7050 jw ph	-0.1373
-2.0304 jw r&	-0.3109
-2.5703 jw s	-0.1841
-1.3753 jw sr	-0.3327
-2.0836 jw t	-0.2240
-2.1443 jw tc	-0.2088
-2.2992 jw th	-0.2474
-2.1782 jw thsr	-0.1655
-2.5160 jw ts	-0.3820
-2.7922 jw tsh	-0.0674
-2.6003 jw tsr	-0.1991
-1.8221 jw u	-0.2998
-2.2840 jw w	-0.3300
-2.1901 jw x	-0.1875
-1.5211 jw y	-0.2824
-1.1543 k &	-0.5112
-1.9300 k &r	-0.4081
-0.9276 k >	-0.3745
-1.2325 k @	+0.6310
-1.1785 k A	-0.2476
-2.3195 k C	-0.2142
-1.4848 k E	-0.1995
-2.0386 k I	-0.3525
-1.7313 k N	-0.1585
-2.2054 k cC	-0.0812
-2.4003 k cCh	-0.1291
-1.9882 k e	-0.1704
-2.4076 k f	-0.2666
-1.4865 k i	-0.2780
-1.9798 k ixr	-0.5202
-1.5491 k j	-0.5635
-2.7161 k jw	-0.2294
-2.1962 k kh	-0.2676
-1.9506 k l	-0.4764
-1.9160 k m	-0.4401
-1.8753 k n	-0.2764
-1.2035 k o	-0.7445
-1.8907 k p	-0.6448
-2.6222 k ph	-0.2701
-2.2194 k r&	-0.6278
-2.4381 k s	-0.3011
-1.6639 k sr	-0.2426
-2.2340 k t	-0.1476
-1.5668 k tc	-0.3845
-2.2920 k th	-0.3543
-2.3152 k thsr	-0.2780
-2.5253 k ts	-0.1883
-2.9480 k tsh	-0.0892
-2.2147 k tsr	-0.4102
-0.8032 k u	-1.6551
-0.9293 k w	-1.9375
-1.6270 k x	-0.4214
-2.3034 k y	-0.2837
-1.2137 kh &	-0.1499
-1.7596 kh &r	-0.4445
-1.5339 kh >	-0.4030
-1.1087 kh @	-0.4647
-1.1073 kh A	-0.4262
-2.1941 kh C	-0.1847
-1.8395 kh E	-0.3604
-1.8526 kh I	-0.3813
-1.5679 kh N	-0.4190
-1.8526 kh cC	-0.0363
-2.0826 kh cCh	-0.2341
-1.8120 kh e	-0.3653
-2.0354 kh f	-0.5340
-1.6400 kh i	-0.1957
-1.4896 kh ixr	-0.5799
-1.6774 kh j	+0.0343
-2.3166 kh jw	-0.1219
-1.6482 kh k	-0.4414
-1.6499 kh l	-0.5225
-1.6828 kh m	-0.5328
-1.5049 kh n	-0.5965
-1.4136 kh o	-0.8647
-1.7595 kh p	-0.5485
-2.3245 kh ph	-0.3921
-1.8916 kh r&	-0.4264
-2.0004 kh s	-0.1405
-1.3530 kh sr	+0.0593
-1.6774 kh t	-0.4698
-1.4224 kh tc	-0.2173
-2.0274 kh th	-0.3738
-1.8500 kh thsr	-0.2710
-1.7704 kh ts	-0.2819
-2.1783 kh tsh	-0.5295
-1.6432 kh tsr	-0.4576
-1.0701 kh u	-0.5559
-1.1558 kh w	-0.6983
-1.5921 kh x	-0.0930
-2.0234 kh y	-0.2896
-0.9812 l &	-0.6599
-1.8840 l &r	-0.4416
-1.7071 l >	-0.4115
-0.8471 l @	-0.3145
-1.0029 l A	-0.7199
-2.3316 l C	-0.2482
-1.1455 l E	-0.5349
-2.0038 l I	-0.4032
-1.7091 l N	-0.4041
-2.2603 l cC	-0.2296
-2.5786 l cCh	-0.1061
-1.3061 l e	-0.4132
-2.6844 l f	-0.2759
-1.1038 l i	-1.4332
-1.6527 l ixr	-0.4261
-1.2841 l j	-0.9028
-1.9736 l jw	-0.2200
-1.9854 l k	-0.5091
-2.4566 l kh	-0.2906
-2.0464 l m	-0.3402
-2.0976 l n	-0.4100
-1.3879 l o	-0.5869
-1.8205 l p	-0.7265
-2.3406 l ph	-0.2114
-2.2437 l r&	-0.3248
-2.6027 l s	-0.3329
-1.8393 l sr	-0.4623
-1.4025 l t	-0.6118
-1.8820 l tc	-0.0607
-2.0499 l th	-0.2980
-2.2437 l thsr	-0.3651
-2.2717 l ts	-0.7061
-2.9164 l tsh	-0.1608
-2.2895 l tsr	-0.2163
-1.4888 l u	-0.2367
-1.6458 l w	-0.4815
-1.9884 l x	-0.3749
-1.5205 l y	-0.2480
-1.0333 m &	-0.5515
-2.1268 m &r	-0.3190
-1.3787 m >	-0.3392
-1.1655 m @	-0.6547
-1.0464 m A	-0.4134
-2.0872 m C	-0.3310
-1.7818 m E	-0.2912
-1.8173 m I	-0.4100
-1.4120 m N	+0.3772
-1.8186 m cC	-0.3198
-2.4152 m cCh	-0.2053
-1.1889 m e	-0.8774
-2.4988 m f	-0.4479
-1.1172 m i	-0.2770
-1.6848 m ixr	-0.6926
-1.5512 m j	-1.0101
-2.3838 m jw	-0.4431
-1.8118 m k	-0.4399
-2.3097 m kh	-0.3999
-1.9101 m l	-0.2764
-1.7669 m n	-0.5174
-1.5081 m o	-0.4786
-1.5957 m p	-0.4245
-2.0853 m ph	-0.2513
-2.2769 m r&	-0.2633
-2.3013 m s	-0.4654
-1.5526 m sr	-0.3815
-1.3650 m t	-0.7520
-1.5431 m tc	-0.1116
-1.9681 m th	-0.6264
-1.9759 m thsr	-0.5964
-2.0535 m ts	-0.4918
-2.4550 m tsh	-0.4224
-1.7730 m tsr	-0.3512
-1.1791 m u	-1.9362
-1.4751 m w	-0.9448
-1.8412 m x	-0.3934
-1.8902 m y	-0.2288
-1.6328 n &	-0.3993
-2.4981 n &r	-0.3118
-2.3884 n >	-0.3807
-1.5308 n @	-0.4406
-1.6335 n A	-0.2404
-1.7702 n C	-0.5569
-1.8489 n E	-0.2858
-2.1977 n I	-0.2437
-1.5845 n N	-0.3526
-1.3501 n cC	-0.7422
-2.1685 n cCh	-0.2631
-1.5205 n e	-0.4872
-2.1902 n f	-0.2867
-0.6959 n i	+0.0640
-1.8163 n ixr	-0.5923
-1.3444 n j	-0.9208
-2.0459 n jw	-0.1562
-1.6530 n k	-0.3610
-2.0928 n kh	-0.5773
-1.6669 n l	-0.3660
-1.3810 n m	-0.6545
-1.8880 n o	-0.2793
-1.4695 n p	-0.7178
-2.1614 n ph	-0.6935
-2.1236 n r&	-0.1986
-2.0531 n s	-0.5918
-1.5090 n sr	-1.3904
-1.4625 n t	-0.4353
-0.9018 n tc	-1.2810
-1.7968 n th	-0.3819
-1.9419 n thsr	-0.8466
-1.7223 n ts	-0.7165
-2.4290 n tsh	-0.4550
-1.8039 n tsr	-0.1703
-1.6098 n u	-0.0305
-1.8456 n w	-0.9100
-1.9547 n x	-0.1507
-1.6360 n y	-0.3658
-1.9267 o &	-0.4533
-2.3997 o &r	-0.2692
-1.0904 o >	-0.7369
-2.4454 o @	-0.0560
-1.8945 o A	-0.5375
-2.1479 o C	-0.3647
-2.4696 o E	+0.0429
-2.3654 o I	-0.2902
-0.8923 o N	-1.2956
-1.9351 o cC	-0.3254
-2.2110 o cCh	-0.2294
-2.1722 o e	-0.4850
-1.6595 o f	-0.4762
-1.9804 o i	-0.4666
-2.3373 o ixr	-0.3394
-2.0761 o j	-0.2414
-2.7089 o jw	-0.1968
-1.8548 o k	-0.3626
-1.9876 o kh	-0.3803
-1.5619 o l	-0.6770
-1.1558 o m	-1.7405
-1.7299 o n	-0.3210
-1.9020 o p	-0.4740
-2.5080 o ph	-0.2733
-2.0943 o r&	-0.3708
-1.9308 o s	-0.4342
-1.3573 o sr	-0.3381
-2.5502 o t	-0.1910
-1.1722 o tc	-0.2671
-2.3059 o th	-0.2537
-2.1265 o thsr	-0.2187
-2.4845 o ts	-0.0897
-2.4411 o tsh	-0.2613
-1.8960 o tsr	-0.3560
-0.8615 o u	-1.5338
-0.8086 o w	-2.2451
-1.2940 o x	-0.5333
-2.2766 o y	-0.4275
-1.2906 p &	-0.6912
-1.8179 p &r	-0.2774
-1.2755 p >	-0.0389
-1.1087 p @	-0.3468
-1.1232 p A	-0.9003
-2.0164 p C	-0.3095
-1.9371 p E	-0.0797
-2.0227 p I	-0.4324
-1.7815 p N	-0.1352
-1.8202 p cC	-0.1681
-2.1977 p cCh	-0.3484
-1.8270 p e	-0.4231
-2.6946 p f	-0.2300
-0.9874 p i	-0.6224
-1.7163 p ixr	-0.2364
-1.3905 p j	-0.8778
-1.9837 p jw	-0.2838
-2.1913 p k	-0.3840
-2.1322 p kh	-0.3864
-1.8353 p l	-0.4816
-2.0336 p m	-0.5104
-1.8747 p n	-0.3374
-1.4949 p o	-0.4598
-2.3596 p ph	-0.4328
-2.0976 p r&	-0.7355
-2.5499 p s	-0.3068
-1.4683 p sr	-0.0353
-2.2346 p t	-0.8511
-1.3685 p tc	+0.1646
-2.1434 p th	-0.3421
-1.8951 p thsr	-0.3597
-2.6038 p ts	-0.4223
-2.7966 p tsh	-0.3272
-1.9015 p tsr	-0.5452
-0.8273 p u	-1.6557
-1.2175 p w	-0.7595
-1.8284 p x	-0.3023
-1.6196 p y	-0.4329
-1.5780 ph &	-0.2696
-2.4030 ph &r	-0.0983
-1.5388 ph >	-0.3661
-1.8756 ph @	-0.3750
-1.5057 ph A	-0.3509
-1.7842 ph C	-0.4024
-1.7531 ph E	-0.2433
-2.0754 ph I	-0.1766
-1.4956 ph N	-0.4205
-1.2477 ph cC	-0.1849
-1.4626 ph cCh	-0.3619
-2.0053 ph e	-0.1829
-2.3350 ph f	-0.4152
-0.9656 ph i	-0.2857
-1.2365 ph ixr	-0.3419
-1.3008 ph j	-0.3987
-1.6019 ph jw	-0.2219
-1.9215 ph k	-0.2133
-1.9699 ph kh	-0.1890
-1.8781 ph l	-0.2191
-1.7743 ph m	-0.2771
-1.5221 ph n	-0.1652
-1.7329 ph o	-0.1221
-1.9531 ph p	-0.2523
-2.3552 ph r&	-0.0888
-2.0754 ph s	-0.2172
-1.2865 ph sr	-0.2357
-2.1092 ph t	-0.2844
-1.3531 ph tc	-0.3271
-2.0440 ph th	-0.1372
-1.4927 ph thsr	-0.5911
-1.9371 ph ts	-0.2423
-1.8921 ph tsh	-0.3531
-1.3370 ph tsr	-0.4555
-1.3657 ph u	-0.4219
-1.4033 ph w	-0.3906
-1.6688 ph x	-0.2597
-1.5375 ph y	-0.2499
-1.1791 r& &	-0.3427
-1.6397 r& &r	-0.2867
-1.6397 r& >	-0.4136
-1.0325 r& @	-0.4049
-0.9692 r& A	-0.5058
-2.4929 r& C	-0.4047
-1.2313 r& E	-0.3033
-2.0063 r& I	-0.2741
-1.3768 r& N	-0.3521
-2.1127 r& cC	-0.0741
-2.3680 r& cCh	-0.4100
-1.7940 r& e	-0.1888
-2.4649 r& f	-0.0902
-1.6437 r& i	-0.2494
-1.4929 r& ixr	-0.5368
-1.6823 r& j	-0.2265
-2.8283 r& jw
-2.1127 r& k	-0.0845
-2.0356 r& kh	-0.1749
-1.7882 r& l	-0.5171
-1.8629 r& m	-0.4004
-1.7345 r& n	-0.3098
-0.9311 r& o	-0.6106
-2.0458 r& p	-0.2651
-2.4138 r& ph	-0.4831
-2.4386 r& s	-0.0645
-1.6237 r& sr	-0.2232
-1.9788 r& t	-0.2643
-1.7659 r& tc	-0.3165
-2.2219 r& th	-0.1223
-2.1777 r& thsr	-0.1646
-2.2066 r& ts	-0.4421
-2.4649 r& tsh	-0.3512
-2.1127 r& tsr	-0.3182
-1.0168 r& u	-0.5908
-1.2746 r& w	-0.4171
-1.5972 r& x	-0.2384
-1.9878 r& y	-0.2949
-1.1667 s &	-0.3816
-1.9041 s &r	-0.3451
-1.8650 s >	-0.3209
-1.3114 s @	-0.3193
-1.4997 s A	-0.2259
-2.1513 s C	-0.2622
-2.4199 s E	-0.2642
-1.4612 s I	-0.5130
-1.9566 s N	-0.1380
-1.4733 s cC	-0.1327
-1.6373 s cCh	-0.3119
-1.8997 s e	-0.2017
-1.7404 s f	-0.5125
-1.9039 s i	-0.2087
-1.2866 s ixr	-0.2502
-1.9660 s j	-0.3855
-2.7490 s jw	+0.0163
-1.5671 s k	-0.2622
-1.5118 s kh	-0.3449
-2.1121 s l	-0.4786
-1.6845 s m	-0.4537
-1.4552 s n	-0.5740
-1.6008 s o	-0.3898
-1.3430 s p	-0.6010
-2.0800 s ph	-0.3633
-2.3688 s r&	-0.2741
-1.5633 s sr	-0.3642
-1.2366 s t	-0.4559
-1.2718 s tc	-0.3975
-1.7697 s th	-0.4128
-1.4538 s thsr	-0.4360
-1.4465 s ts	-0.3744
-1.7519 s tsh	-0.6935
-1.4309 s tsr	-0.1601
-1.2987 s u	-0.2173
-1.3936 s w	+0.0814
-1.6698 s x	-0.3882
-2.3230 s y	-0.5112
-1.2789 sr &	-0.4159
-2.1193 sr &r	-0.3229
-2.2122 sr >	-0.3909
-1.6502 sr @	-0.4043
-1.7269 sr A	-0.5249
-2.0778 sr C	-0.4058
-1.8881 sr E	-0.5291
-1.6892 sr I	-0.3723
-1.9407 sr N	-0.2920
-1.3692 sr cC	-0.7230
-1.5440 sr cCh	-0.9596
-1.9581 sr e	-0.2253
-2.0784 sr f	-0.6454
-1.5070 sr i	-0.4149
-0.8428 sr ixr	+0.4706
-1.5523 sr j	-0.4322
-1.6641 sr jw	-0.4719
-1.6954 sr k	-0.7981
-1.8194 sr kh	-0.3394
-1.9978 sr l	-0.6131
-1.6686 sr m	-0.3365
-1.4484 sr n	-0.5058
-1.4567 sr o	-0.3086
-1.6024 sr p	-0.5024
-2.1945 sr ph	-0.3413
-2.1732 sr r&	-0.3287
-1.9722 sr s	+0.0084
-1.5411 sr t	-0.7685
-1.2281 sr tc	-0.2992
-1.8816 sr th	-0.9567
-1.4603 sr thsr	-0.5555
-1.7467 sr ts	-0.6593
-1.9347 sr tsh	-0.0601
-1.4873 sr tsr	-0.5504
-1.3525 sr u	-0.3410
-1.4968 sr w	-0.6737
-1.6464 sr x	-0.3623
-1.3951 sr y	-0.6389
-1.1762 t &	-0.3159
-1.6739 t &r	-0.1848
-1.6920 t >	-0.5068
-0.9414 t @	-0.5486
-0.8564 t A	-0.5663
-2.2884 t C	-0.2605
-1.2401 t E	-0.5892
-2.1452 t I	-0.3246
-1.4116 t N	-0.7297
-2.5473 t cC	-0.0709
-2.7392 t cCh	-0.2001
-2.0032 t e	-0.2552
-2.0435 t f	-0.4383
-1.6191 t i	-0.3152
-1.7392 t ixr	-0.3429
-1.2134 t j	-0.8878
-2.6024 t jw	-0.1237
-2.3852 t k	-0.2302
-2.3644 t kh	-0.2988
-1.7692 t l	-0.7160
-1.8504 t m	-0.3844
-1.6118 t n	-0.4033
-1.1740 t o	-1.0991
-2.6654 t p	-0.2603
-2.6024 t ph	-0.3160
-2.1292 t r&	-0.3237
-2.5078 t s	-0.3770
-1.5840 t sr	-0.3380
-1.5773 t tc	-0.1039
-2.2955 t th	-0.2715
-2.2955 t thsr	-0.3675
-2.7903 t ts	-0.1759
-2.9401 t tsh	-0.0491
-2.4985 t tsr	-0.3168
-1.2897 t u	-0.2499
-1.0241 t w	-1.0995
-1.5919 t x	-0.5865
-1.9974 t y	-0.4154
-2.2719 tc &	-0.4010
-2.5634 tc &r	-0.3055
-2.6671 tc >	-0.1563
-2.4291 tc @	+0.0289
-2.5551 tc A	-0.1447
-2.2592 tc C	-0.7985
-2.9612 tc E	-0.3171
-2.3384 tc I	-0.4020
-2.8375 tc N	-0.4872
-1.0077 tc cC	+0.6983
-1.4483 tc cCh	+0.4229
-2.3698 tc e	-0.1684
-2.2675 tc f	-0.7385
-2.0688 tc i	-0.2604
-1.9564 tc ixr	-1.0627
-2.1910 tc j	-0.6658
-2.9455 tc jw	-0.2599
-1.0445 tc k	+0.4828
-1.2445 tc kh	+0.4955
-2.4126 tc l	-0.4896
-2.2355 tc m	-0.2412
-2.1482 tc n	-0.4088
-2.7351 tc o	-0.1625
-0.8181 tc p	+0.4139
-1.7492 tc ph	-0.8117
-2.5021 tc r&	-0.3396
-2.2113 tc s	-0.5912
-1.5761 tc sr	+0.7860
-0.9857 tc t	+0.3697
-1.4603 tc th	+0.3942
-1.2800 tc thsr	+0.5681
-1.1996 tc ts	+0.7855
-1.6995 tc tsh	-1.9117
-0.9203 tc tsr	+0.7232
-1.9857 tc u	-0.5045
-1.9840 tc w	-0.8161
-1.9953 tc x	-0.6993
-2.4420 tc y	-0.3083
-1.3938 th &	-0.4320
-1.7016 th &r	-0.5007
-1.9318 th >	-0.2850
-1.0854 th @	+0.0619
-1.0275 th A	-0.3020
-1.9918 th C	-0.3270
-1.5949 th E	-0.2548
-2.0897 th I	-0.2384
-1.3722 th N	-0.2729
-1.7753 th cC	-0.3816
-2.0634 th cCh	-0.0057
-2.0151 th e	-0.1797
-2.0267 th f	-0.3409
-1.1508 th i	-0.3323
-1.5635 th ixr	-0.3306
-1.3594 th j	-0.5123
-2.0508 th jw	-0.0740
-1.8315 th k	-0.2289
-1.9274 th kh	-0.3617
-1.7921 th l	-0.1328
-1.6081 th m	-0.3866
-1.3408 th n	-0.4224
-1.4441 th o	-0.3056
-1.8506 th p	-0.2477
-2.3908 th ph	-0.1790
-2.2831 th r&	-0.1470
-1.9091 th s	-0.3559
-1.4159 th sr	-0.5033
-2.0326 th t	-0.1297
-1.2057 th tc	-0.2920
-1.8873 th thsr	-0.2541
-2.0830 th ts	-0.2089
-2.3049 th tsh	-0.2667
-1.7346 th tsr	-0.1933
-1.3242 th u	-0.4217
-1.3670 th w	-0.4074
-1.6554 th x	-0.4244
-1.7820 th y	-0.3338
-1.3377 thsr &	-0.2435
-1.8539 thsr &r	-0.3906
-2.0469 thsr >	-0.3605
-1.3456 thsr @	-0.3177
-1.1743 thsr A	-0.5813
-2.1448 thsr C	-0.3740
-1.8547 thsr E	-0.4459
-1.8369 thsr I	-0.4557
-1.4578 thsr N	-0.6818
-1.6072 thsr cC	-0.3266
-1.9496 thsr cCh	-0.2988
-2.0193 thsr e	-0.2105
-1.7789 thsr f	-0.5602
-1.7034 thsr i	-0.3117
-1.3326 thsr ixr	-0.0797
-1.7557 thsr j	-0.4775
-2.3241 thsr jw	-0.2450
-1.5297 thsr k	-0.6223
-1.7855 thsr kh	-0.4437
-1.8105 thsr l	-0.2062
-1.4506 thsr m	-0.2733
-1.3500 thsr n	-0.4845
-1.3836 thsr o	-0.3769
-1.7640 thsr p	-0.3601
-2.2738 thsr ph	-0.2286
-2.1935 thsr r&	-0.1958
-1.8599 thsr s	-0.6429
-1.4715 thsr sr	-0.3138
-1.9901 thsr t	-0.2549
-1.0441 thsr tc	-0.6367
-1.9796 thsr th	-0.4426
-1.8786 thsr ts	-0.2714
-2.1209 thsr tsh	-0.3309
-1.7640 thsr tsr	-0.3378
-1.0609 thsr u	-0.1673
-1.2487 thsr w	-0.9375
-1.4900 thsr x	-0.4396
-1.9308 thsr y	-0.4574
-0.7545 ts &	-0.0799
-1.9136 ts &r	-0.4024
-1.7701 ts >	-0.2092
-0.8742 ts @	-0.4562
-1.4085 ts A	-0.2172
-2.4130 ts C	-0.3034
-1.0778 ts E	-0.5958
-1.4915 ts I	-0.2864
-1.8812 ts N	-0.2796
-2.4699 ts cC	+0.0821
-2.6267 ts cCh	-0.1560
-1.6540 ts e	-0.4711
-2.2103 ts f	-0.3037
-1.9092 ts i	-0.4534
-1.1617 ts ixr	-0.8636
-1.5735 ts j	-0.4242
-2.6267 ts jw	-0.1516
-2.2641 ts k	-0.2123
-2.3550 ts kh	-0.4410
-2.0062 ts l	-0.5561
-1.9590 ts m	-0.4172
-1.7284 ts n	-0.4448
-1.2886 ts o	-0.4249
-2.2176 ts p	-0.3423
-2.7332 ts ph	-0.1480
-2.1822 ts r&	-0.3938
-2.1822 ts s	-0.4064
-1.6421 ts sr	-0.1974
-1.8454 ts t	-0.3879
-1.6382 ts tc	-0.1837
-2.2481 ts th	-0.3185
-2.4699 ts thsr	-0.2049
-2.7843 ts tsh	-0.2352
-2.3550 ts tsr	-0.3493
-1.0778 ts u	-0.1304
-1.3704 ts w	-0.5682
-1.9972 ts x	-0.3178
-2.1134 ts y	-0.1628
-1.2870 tsh &	-0.3737
-2.0140 tsh &r	-0.3027
-1.7459 tsh >	-0.2813
-1.4424 tsh @	-0.2451
-1.4674 tsh A	-0.3226
-1.9099 tsh C	-0.3725
-2.0097 tsh E	-0.1617
-1.6953 tsh I	-0.1902
-1.6340 tsh N	-0.2390
-1.5148 tsh cC	-0.2539
-1.8521 tsh cCh	-0.2555
-1.8985 tsh e	-0.2870
-1.7132 tsh f	-0.3132
-1.7464 tsh i	-0.2660
-1.2285 tsh ixr	-0.4594
-1.7666 tsh j	-0.3597
-2.6495 tsh jw	-0.1331
-1.5975 tsh k	-0.3063
-1.6575 tsh kh	-0.4473
-2.0097 tsh l	-0.2377
-1.7224 tsh m	-0.2141
-1.3728 tsh n	-0.4030
-1.5295 tsh o	-0.2783
-1.7514 tsh p	-0.3803
-2.2437 tsh ph	-0.3462
-2.1995 tsh r&	-0.1958
-1.5479 tsh s	-0.1395
-1.2878 tsh sr	-0.5622
-1.8101 tsh t	-0.2863
-1.0300 tsh tc	-0.3951
-1.8916 tsh th	-0.3573
-1.8521 tsh thsr	-0.4418
-1.7988 tsh ts	-0.1003
-1.5871 tsh tsr	-0.3125
-1.1724 tsh u	-0.2471
-1.1607 tsh w	-0.0959
-1.5177 tsh x	-0.4144
-2.0574 tsh y	-0.2167
-1.1134 tsr &	-0.3904
-2.0443 tsr &r	-0.1726
-2.1776 tsr >	-0.2469
-1.4051 tsr @	-0.5346
-1.2122 tsr A	-0.4761
-2.2279 tsr C	-0.3457
-1.3311 tsr E	-0.4646
-1.6010 tsr I	-0.5390
-1.8348 tsr N	-0.5337
-2.0526 tsr cC	-0.2379
-2.3883 tsr cCh	-0.3362
-1.6420 tsr e	-0.4493
-2.2718 tsr f	-0.4684
-1.4473 tsr i	-0.4734
-0.9557 tsr ixr	+0.3776
-1.4048 tsr j	-0.4810
-1.9603 tsr jw	-0.3219
-2.0374 tsr k	-0.2673
-2.3996 tsr kh	-0.3479
-1.8048 tsr l	-0.4567
-1.7767 tsr m	-0.2464
-1.4635 tsr n	-0.2835
-1.0505 tsr o	-0.9415
-2.0929 tsr p	-0.3880
-2.4609 tsr ph	-0.3484
-2.0204 tsr r&	-0.4070
-2.3562 tsr s	-0.3026
-1.5938 tsr sr	-0.4970
-1.8948 tsr t	-0.6688
-1.4372 tsr tc	-0.3015
-2.1977 tsr th	-0.3303
-2.1343 tsr thsr	-0.5458
-2.0790 tsr ts	-0.7297
-2.7241 tsr tsh	-0.2734
-1.0528 tsr u	-1.0815
-1.3495 tsr w	-1.4166
-1.7699 tsr x	-0.6478
-1.5074 tsr y	-0.3301
-2.0441 u &	-0.4301
-2.5037 u &r	-0.3548
-1.9657 u >	+0.1981
-2.7820 u @	-0.1606
-2.3516 u A	-0.2047
-1.5611 u C	-0.6306
-2.4109 u E	-0.2415
-2.4186 u I	-0.3807
-1.6713 u N	-0.4908
-1.7322 u cC	-0.2784
-1.9980 u cCh	-0.5359
-2.1118 u e	-0.2640
-1.5825 u f	-0.4547
-1.3713 u i	+0.0377
-2.0161 u ixr	-0.6133
-1.6706 u j	-0.1062
-1.9533 u jw	-0.2176
-1.8175 u k	-0.4307
-1.6516 u kh	-0.7893
-1.5578 u l	-0.3106
-1.3923 u m	-0.8766
-1.5313 u n	-0.5909
-1.9600 u o	-0.3060
-1.5578 u p	-0.4641
-1.8060 u ph	-0.5471
-1.9140 u r&	-0.3909
-1.5303 u s	-0.4526
-0.8956 u sr	+0.7413
-2.1756 u t	-0.1672
-0.6450 u tc	+0.3607
-1.9067 u th	-0.6813
-1.6569 u thsr	-0.3568
-2.0682 u ts	-0.2106
-2.1042 u tsh	-0.4898
-1.5003 u tsr	-0.6676
-1.5031 u w	-0.5555
-1.3890 u x	-0.9665
-1.6861 u y	-0.5461
-1.7495 w &	-0.3124
-2.0028 w &r	-0.4637
-1.0412 w >	+0.4472
-1.4951 w @	-0.5607
-1.5548 w A	-0.5362
-1.8341 w C	-0.4461
-2.2921 w E	-0.0929
-2.5257 w I	-0.2964
-1.5873 w N	-0.1497
-1.7577 w cC	-0.0649
-1.9896 w cCh	-0.3237
-1.7079 w e	-0.3707
-1.7620 w f	-0.2884
-1.6729 w i	+0.2462
-2.1410 w ixr	-0.2435
-1.7663 w j	-0.6427
-2.5788 w jw	-0.0917
-1.6632 w k	-0.3828
-1.5077 w kh	-1.6154
-1.5525 w l	-0.4359
-1.4363 w m	-1.3461
-1.5984 w n	-0.7488
-2.0228 w o	-0.2507
-1.6484 w p	-0.4470
-2.0743 w ph	-0.3462
-2.1035 w r&	-0.4710
-1.7265 w s	-0.2212
-1.2210 w sr	+0.7780
-2.2100 w t	-0.0246
-0.7551 w tc	-0.5989
-2.0029 w th	-0.5923
-1.8228 w thsr	-0.3779
-1.9428 w ts	-0.1452
-2.0887 w tsh	-0.2485
-1.6328 w tsr	-0.6649
-1.0485 w u	-0.7752
-1.3857 w x	-0.6972
-2.1017 w y	-0.2653
-1.5384 x &	-0.4750
-1.8707 x &r	-0.5985
-1.1238 x >	-0.5609
-1.5136 x @	-0.4349
-1.1649 x A	+0.1460
-2.2769 x C	-0.4502
-2.5155 x E	-0.3156
-1.9296 x I	-0.2573
-1.4356 x N	-0.2828
-1.6717 x cC	-0.0993
-1.9513 x cCh	-0.3192
-2.0569 x e	-0.0524
-2.1176 x f	-0.5837
-1.9320 x i	-0.2730
-1.8184 x ixr	-0.3541
-2.0601 x j	-0.2380
-2.8166 x jw	-0.2093
-1.3913 x k	-0.6188
-1.4580 x kh	-0.8589
-2.0601 x l	-0.3358
-1.6615 x m	-0.3233
-1.6309 x n	-0.5624
-1.3694 x o	-0.4545
-1.3030 x p	-0.5318
-2.0384 x ph	-0.3242
-2.3772 x r&	-0.2367
-2.1715 x s	-0.2848
-1.4935 x sr	-0.7799
-1.8524 x t	-0.3701
-1.3886 x tc	+0.1890
-1.9562 x th	-0.3854
-1.8058 x thsr	-0.2997
-1.9663 x ts	-0.3630
-2.0930 x tsh	-0.2370
-1.6080 x tsr	-0.3866
-0.9515 x u	-0.4966
-0.9108 x w	-1.1778
-2.3455 x y	-0.0331
-2.3363 y &	-0.1629
-2.4912 y &r	-0.2311
-2.4332 y >	-0.2720
-2.8134 y @	-0.0556
-2.3082 y A	-0.0688
-1.4739 y C	-0.3646
-2.1057 y E	-0.1810
-2.4666 y I	-0.1302
-1.7446 y N	-0.1716
-1.4492 y cC	-0.6041
-1.8178 y cCh	-0.2813
-2.5418 y e	-0.0887
-1.9457 y f	-0.3622
-1.4501 y i	-0.7824
-1.9928 y ixr	-0.4817
-1.7408 y j	-0.2726
-2.2971 y jw	-0.0875
-1.7637 y k	-0.3329
-1.9578 y kh	-0.3034
-1.6660 y l	-0.6597
-1.4120 y m	-0.5853
-1.3163 y n	-0.1930
-1.5454 y o	-0.2878
-1.7408 y p	-0.4703
-2.2971 y ph	-0.3172
-2.1463 y r&	-0.2382
-1.8069 y s	-0.6031
-1.0298 y sr	+0.6511
-2.1962 y t	-0.2837
-0.4923 y tc	-0.4126
-2.1188 y th	-0.2042
-1.7408 y thsr	-0.4332
-2.1233 y ts	-0.3170
-2.0889 y tsh	-0.3384
-1.6173 y tsr	-0.4410
-1.5291 y u	-0.3663
-1.6117 y w	-0.6471
-1.4899 y x	-0.6632

\3-grams:
-1.4646 & &r C
-1.4646 & &r N
-1.0086 & &r cC
-1.2348 & &r f
-1.4646 & &r ixr
-1.4646 & &r j
-1.2348 & &r m
-1.4646 & &r n
-1.4646 & &r s
-1.1099 & &r sr
-1.4646 & &r t
-0.7533 & &r tc
-1.4646 & &r thsr
-1.1099 & &r w
-1.6321 & > C
-1.2774 & > cC
-1.6321 & > f
-1.4023 & > k
-1.4023 & > kh
-1.6321 & > m
-1.2774 & > n
-1.1761 & > p
-0.9720 & > sr
-1.6321 & > t
-0.8337 & > tc
-1.6321 & > th
-1.6321 & > thsr
-1.6321 & > ts
-1.6321 & > tsh
-1.2774 & > tsr
-1.1761 & > w
-1.6321 & > x
-1.6321 & > y
-0.9586 & @ N
-1.3134 & @ i
-0.9586 & @ ixr
-0.9586 & @ j
-0.5149 & @ n
-1.3134 & @ sr
-1.3134 & @ tc
-1.3134 & @ w
-0.8177 & A N
-1.4198 & A cC
-1.4198 & A kh
-0.9638 & A l
-1.1900 & A n
-1.0651 & A sr
-0.7597 & A tc
-1.4198 & A thsr
-1.4198 & A tsr
-1.4198 & A w
-1.4198 & A x
-1.8042 & C &
-2.0516 & C &r
-2.0516 & C @
-1.3941 & C E
-2.4064 & C I
-2.0516 & C N
-1.1442 & C cC
-1.5702 & C cCh
-2.1766 & C e
-0.9418 & C i
-1.1053 & C ixr
-1.3483 & C j
-1.3069 & C jw
-1.9504 & C k
-1.9504 & C kh
-1.5354 & C m
-1.6493 & C n
-2.0516 & C o
-1.8712 & C p
-1.8712 & C ph
-2.0516 & C r&
-1.7462 & C s
-1.7462 & C sr
-1.9504 & C t
-1.0261 & C tc
-2.1766 & C th
-1.3706 & C thsr
-1.6079 & C ts
-1.6493 & C tsh
-1.3941 & C tsr
-1.8042 & C u
-1.9504 & C w
-2.4064 & C x
-1.0811 & C y
-1.3481 & E A
-1.3481 & E C
-0.8129 & E N
-1.1183 & E m
-0.8129 & E n
-1.3481 & E s
-0.8921 & E tc
-1.1183 & E w
-1.3481 & E x
-1.0651 & I C
-1.4198 & I N
-1.4198 & I i
-1.4198 & I k
-1.4198 & I l
-1.4198 & I n
-1.4198 & I s
-0.8177 & I sr
-0.5836 & I tc
-1.4198 & I x
-1.1900 & I y
-2.1742 & N &
-2.7094 & N &r
-2.4796 & N >
-2.7094 & N @
-2.4796 & N A
-1.4082 & N C
-2.2533 & N I
-1.2447 & N cC
-1.5209 & N cCh
-2.4796 & N e
-1.8731 & N f
-1.3612 & N i
-1.7762 & N ixr
-1.9523 & N j
-2.3546 & N jw
-1.6970 & N k
-1.7482 & N kh
-1.5209 & N l
-1.4899 & N m
-1.4472 & N n
-2.0492 & N o
-1.4082 & N p
-1.7762 & N ph
-2.4796 & N r&
-1.3841 & N s
-1.1599 & N sr
-2.4796 & N t
-0.5492 & N tc
-1.9109 & N th
-1.6301 & N thsr
-2.1742 & N ts
-1.8384 & N tsh
-1.5051 & N tsr
-1.8384 & N u
-1.9523 & N w
-1.6301 & N x
-1.7219 & N y
-1.6576 & cC &
-2.0123 & cC @
-2.0123 & cC C
-1.0000 & cC E
-2.0123 & cC N
-0.5740 & cC i
-1.0512 & cC ixr
-0.9331 & cC j
-1.6576 & cC jw
-1.7825 & cC k
-2.0123 & cC l
-1.7825 & cC m
-1.3522 & cC n
-1.4771 & cC o
-2.0123 & cC r&
-1.7825 & cC sr
-1.6576 & cC tc
-2.0123 & cC u
-2.0123 & cC w
-0.9128 & cC y
-1.8252 & cCh &
-1.5954 & cCh @
-1.2231 & cCh E
-1.5954 & cCh N
-1.8252 & cCh cC
-0.9890 & cCh i
-1.0268 & cCh ixr
-1.0682 & cCh j
-1.3692 & cCh jw
-1.8252 & cCh m
-1.2900 & cCh n
-1.5954 & cCh o
-1.8252 & cCh ph
-1.2900 & cCh s
-1.2231 & cCh tc
-1.8252 & cCh thsr
-1.8252 & cCh tsh
-1.5954 & cCh tsr
-1.4705 & cCh u
-1.8252 & cCh x
-0.8641 & cCh y
-1.0151 & e E
-1.3698 & e N
-0.8346 & e i
-0.7097 & e j
-1.3698 & e jw
-1.3698 & e ph
-0.9138 & e tc
-0.9138 & e y
-0.9355 & f &
-1.7447 & f &r
-1.1805 & f >
-0.8665 & f @
-0.8729 & f A
-2.4560 & f C
-1.9208 & f I
-1.6990 & f N
-1.6990 & f cC
-2.1013 & f cCh
-1.6198 & f e
-1.7959 & f i
-1.6576 & f ixr
-2.0000 & f j
-1.6576 & f k
-1.7959 & f kh
-2.2262 & f l
-1.6990 & f m
-1.8539 & f n
-1.4949 & f o
-1.6198 & f p
-2.2262 & f ph
-2.1013 & f r&
-2.0000 & f s
-2.0000 & f sr
-1.5528 & f t
-2.0000 & f tc
-2.4560 & f th
-2.1013 & f thsr
-1.9208 & f ts
-2.4560 & f tsr
-1.1192 & f u
-1.1549 & f w
-2.1013 & f x
-2.1881 & i &
-2.4179 & i &r
-2.4179 & i A
-1.4304 & i C
-1.5817 & i E
-2.4179 & i I
-1.2991 & i N
-1.7066 & i cC
-2.1881 & i cCh
-1.9619 & i f
-1.6195 & i ixr
-1.6609 & i j
-2.0632 & i jw
-1.7578 & i k
-1.8827 & i kh
-2.0632 & i l
-1.1294 & i m
-0.9533 & i n
-1.4848 & i o
-1.8827 & i p
-2.1881 & i ph
-2.1881 & i r&
-1.8827 & i s
-1.2295 & i sr
-0.5469 & i tc
-1.8827 & i th
-1.7066 & i thsr
-2.4179 & i tsh
-2.0632 & i tsr
-1.7578 & i u
-1.8158 & i w
-1.5817 & i x
-1.6609 & i y
-1.3010 & ixr C
-2.0123 & ixr I
-1.4102 & ixr N
-1.4771 & ixr cC
-2.0123 & ixr cCh
-1.7825 & ixr f
-1.2139 & ixr i
-1.6576 & ixr j
-1.6576 & ixr k
-1.7825 & ixr l
-1.2553 & ixr m
-1.3522 & ixr n
-1.4102 & ixr s
-1.0248 & ixr sr
-2.0123 & ixr t
-0.5229 & ixr tc
-2.0123 & ixr th
-1.7825 & ixr thsr
-1.5563 & ixr tsr
-1.7825 & ixr u
-1.7825 & ixr w
-1.3522 & ixr x
-2.1768 & j &
-2.0755 & j &r
-1.9964 & j @
-1.7331 & j A
-1.7331 & j C
-1.9294 & j E
-2.5316 & j I
-1.5984 & j N
-1.3432 & j cC
-1.8714 & j cCh
-2.1768 & j f
-1.5441 & j i
-1.9964 & j ixr
-2.1768 & j jw
-1.4523 & j k
-1.4128 & j kh
-1.7331 & j l
-1.6953 & j m
-1.2974 & j n
-1.3274 & j o
-1.2063 & j p
-1.6284 & j ph
-1.9294 & j s
-1.4523 & j sr
-1.6953 & j t
-0.5814 & j tc
-1.9294 & j th
-1.5441 & j thsr
-2.1768 & j ts
-1.9964 & j tsh
-1.4735 & j tsr
-2.1768 & j u
-1.5704 & j w
-1.6284 & j x
-1.9964 & j y
-1.6491 & jw &
-1.4193 & jw @
-1.6491 & jw A
-0.5304 & jw E
-1.1139 & jw i
-1.0470 & jw ixr
-0.9890 & jw j
-1.1139 & jw o
-0.9379 & jw sr
-1.2944 & jw tc
-1.2109 & k &
-1.8710 & k &r
-0.8835 & k >
-1.2688 & k @
-1.2688 & k A
-1.5162 & k E
-1.8710 & k N
-1.5162 & k cC
-1.8710 & k e
-1.1597 & k i
-1.5162 & k j
-1.8710 & k kh
-1.8710 & k m
-1.8710 & k n
-1.2688 & k o
-1.5162 & k p
-1.8710 & k tc
-1.8710 & k th
-1.8710 & k tsr
-1.0000 & k u
-0.8129 & k w
-1.8710 & k x
-0.9120 & kh &
-1.6946 & kh &r
-1.9244 & kh >
-0.9632 & kh @
-1.1673 & kh A
-1.5696 & kh E
-1.3222 & kh N
-1.9244 & kh cC
-1.3892 & kh e
-1.4683 & kh i
-1.5696 & kh ixr
-1.9244 & kh j
-1.9244 & kh k
-1.3892 & kh m
-1.4683 & kh n
-1.3892 & kh o
-1.6946 & kh r&
-1.3892 & kh sr
-1.5696 & kh t
-1.4683 & kh tc
-1.1673 & kh u
-1.1259 & kh w
-1.9244 & kh x
-0.9283 & l &
-1.9015 & l &r
-1.7553 & l >
-0.8640 & l @
-1.0689 & l A
-2.2025 & l C
-1.2887 & l E
-1.9984 & l I
-1.9015 & l N
-2.0564 & l cC
-1.3333 & l e
-2.4287 & l f
-1.0150 & l i
-1.6227 & l ixr
-1.3700 & l j
-1.7553 & l jw
-1.8223 & l k
-2.0564 & l m
-1.9472 & l n
-1.3217 & l o
-1.9015 & l p
-2.0564 & l ph
-2.3038 & l r&
-2.6585 & l s
-1.6710 & l sr
-1.5212 & l t
-1.8223 & l tc
-1.9472 & l th
-2.2025 & l thsr
-2.6585 & l ts
-2.4287 & l tsh
-2.3038 & l tsr
-1.4243 & l u
-1.7875 & l w
-2.0564 & l x
-1.4101 & l y
-1.0041 & m &
-2.0508 & m &r
-1.3404 & m >
-1.1700 & m @
-1.0227 & m A
-2.0227 & m C
-1.9716 & m E
-1.8289 & m I
-1.2974 & m N
-1.9258 & m cC
-2.3818 & m cCh
-1.2140 & m e
-2.3238 & m f
-1.1855 & m i
-1.6828 & m ixr
-1.7083 & m j
-2.2726 & m jw
-1.7645 & m k
-2.3238 & m kh
-1.9964 & m l
-1.6471 & m n
-1.6141 & m o
-1.6248 & m p
-2.0227 & m ph
-2.2726 & m r&
-2.0227 & m s
-1.5026 & m sr
-1.4865 & m t
-1.4415 & m tc
-2.1855 & m th
-2.0508 & m thsr
-2.5279 & m ts
-2.7541 & m tsh
-1.8466 & m tsr
-1.1334 & m u
-1.4710 & m w
-1.6248 & m x
-1.8844 & m y
-1.6261 & n &
-2.5555 & n &r
-2.7360 & n >
-1.7209 & n @
-1.7316 & n A
-1.7539 & n C
-1.8151 & n E
-2.0784 & n I
-1.5702 & n N
-1.3293 & n cC
-2.1295 & n cCh
-1.6804 & n e
-2.2923 & n f
-0.6347 & n i
-1.8565 & n ixr
-1.4528 & n j
-1.8865 & n jw
-1.5933 & n k
-2.1032 & n kh
-1.7426 & n l
-1.5076 & n m
-2.0114 & n o
-1.4763 & n p
-2.1576 & n ph
-2.0326 & n r&
-2.0549 & n s
-1.5011 & n sr
-1.4763 & n t
-0.8138 & n tc
-1.8865 & n th
-1.9912 & n thsr
-1.8285 & n ts
-2.6347 & n tsh
-1.8565 & n tsr
-1.6347 & n u
-2.0114 & n w
-2.1032 & n x
-1.5628 & n y
-1.9692 & o &
-1.6145 & o >
-1.4340 & o A
-1.9692 & o E
-1.0361 & o N
-1.2122 & o cC
-1.9692 & o cCh
-1.6145 & o f
-1.6145 & o i
-1.9692 & o j
-1.3671 & o k
-1.7394 & o l
-1.3091 & o m
-1.9692 & o n
-1.6145 & o p
-1.7394 & o s
-1.1330 & o sr
-1.0661 & o tc
-1.9692 & o th
-1.7394 & o ts
-1.9692 & o tsh
-1.3671 & o tsr
-1.0361 & o u
-1.0081 & o w
-1.2579 & o x
-1.4624 & p &
-1.9184 & p &r
-1.2583 & p >
-1.9184 & p @
-1.6886 & p A
-1.9184 & p C
-1.9184 & p E
-1.9184 & p I
-1.9184 & p N
-1.9184 & p cC
-1.9184 & p e
-0.7996 & p i
-1.6886 & p ixr
-1.4624 & p j
-1.6886 & p jw
-1.9184 & p k
-1.9184 & p l
-1.6886 & p m
-1.9184 & p n
-1.4624 & p o
-1.9184 & p s
-1.2583 & p sr
-1.3832 & p tc
-0.7300 & p u
-1.3832 & p w
-1.6886 & p x
-1.3832 & p y
-1.4081 & ph >
-1.1818 & ph A
-1.4081 & ph N
-1.4081 & ph cC
-1.0357 & ph i
-1.0357 & ph ixr
-1.4081 & ph j
-1.2831 & ph l
-1.4081 & ph m
-1.4081 & ph n
-1.6379 & ph p
-1.6379 & ph r&
-1.6379 & ph sr
-1.1818 & ph tc
-1.4081 & ph tsh
-1.4081 & ph tsr
-1.1818 & ph u
-1.1027 & ph w
-1.1865 & r& &
-1.7551 & r& >
-1.3828 & r& @
-1.2736 & r& A
-1.3828 & r& E
-1.9849 & r& I
-1.1487 & r& N
-1.5289 & r& cC
-1.6302 & r& e
-1.4497 & r& i
-1.4497 & r& ixr
-1.7551 & r& j
-1.7551 & r& jw
-1.9849 & r& k
-1.7551 & r& l
-1.6302 & r& m
-1.9849 & r& n
-0.7965 & r& o
-1.9849 & r& p
-1.5289 & r& sr
-1.9849 & r& t
-1.9849 & r& tc
-0.9269 & r& u
-1.1865 & r& w
-1.5289 & r& x
-1.7551 & r& y
-0.9984 & s &
-2.1249 & s &r
-1.8195 & s >
-1.4922 & s @
-1.5765 & s A
-2.0237 & s C
-1.3802 & s I
-2.0237 & s N
-1.4674 & s cC
-1.8195 & s cCh
-2.0237 & s e
-1.7226 & s f
-1.9445 & s i
-1.3802 & s ixr
-1.9445 & s j
-1.6087 & s k
-1.6435 & s kh
-1.7684 & s l
-1.5465 & s m
-1.5185 & s n
-1.5765 & s o
-1.4439 & s p
-1.9445 & s ph
-1.4674 & s sr
-1.1912 & s t
-1.2041 & s tc
-1.7684 & s th
-1.4922 & s thsr
-1.4439 & s ts
-1.7684 & s tsh
-1.3077 & s tsr
-1.3802 & s u
-1.3077 & s w
-2.1249 & s x
-2.2499 & s y
-1.3380 & sr &
-2.2166 & sr &r
-2.1708 & sr >
-1.7351 & sr @
-1.6613 & sr A
-2.2122 & sr C
-1.9903 & sr E
-1.5754 & sr I
-1.7862 & sr N
-1.3740 & sr cC
-1.4504 & sr cCh
-2.0203 & sr e
-1.9623 & sr f
-1.3603 & sr i
-0.8547 & sr ixr
-1.6350 & sr j
-1.7685 & sr jw
-1.7351 & sr k
-1.9903 & sr kh
-1.9903 & sr l
-1.6893 & sr m
-1.4762 & sr n
-1.4106 & sr o
-1.4943 & sr p
-2.0203 & sr ph
-2.2122 & sr r&
-2.1250 & sr s
-1.5644 & sr t
-1.1578 & sr tc
-1.9360 & sr th
-1.4675 & sr thsr
-1.8047 & sr ts
-1.9112 & sr tsh
-1.4106 & sr tsr
-1.3091 & sr u
-1.6224 & sr w
-1.6224 & sr x
-1.6893 & sr y
-0.9934 & t @
-0.9934 & t A
-1.3481 & t cC
-1.3481 & t m
-1.3481 & t n
-1.3481 & t o
-1.1183 & t sr
-1.3481 & t thsr
-1.3481 & t u
-1.3481 & t w
-1.1183 & t x
-2.3096 & tc &
-2.7453 & tc &r
-2.7075 & tc >
-2.4443 & tc @
-2.5826 & tc A
-2.2185 & tc C
-2.8836 & tc E
-2.2185 & tc I
-2.7075 & tc N
-1.1249 & tc cC
-1.5640 & tc cCh
-2.3243 & tc e
-2.1054 & tc f
-2.1846 & tc i
-1.9234 & tc ixr
-2.3096 & tc j
-3.3139 & tc jw
-1.0100 & tc k
-1.2967 & tc kh
-2.3395 & tc l
-2.5314 & tc m
-2.3717 & tc n
-2.7867 & tc o
-0.7348 & tc p
-1.6863 & tc ph
-2.3553 & tc r&
-2.2304 & tc s
-1.5880 & tc sr
-0.9685 & tc t
-1.4686 & tc th
-1.3489 & tc thsr
-1.1403 & tc ts
-1.7375 & tc tsh
-0.9485 & tc tsr
-1.8324 & tc u
-1.9671 & tc w
-2.0085 & tc x
-2.4443 & tc y
-1.3046 & th &
-1.3838 & th @
-1.3046 & th A
-1.6100 & th E
-1.6100 & th I
-1.8398 & th N
-1.8398 & th cCh
-1.8398 & th f
-0.9067 & th i
-1.6100 & th ixr
-1.4851 & th j
-1.4851 & th k
-1.2377 & th m
-1.4851 & th n
-1.3838 & th o
-1.6100 & th p
-1.4851 & th sr
-1.1285 & th tc
-0.9367 & th u
-1.3838 & th w
-1.4851 & th x
-1.6100 & th y
-1.3082 & thsr &
-1.4887 & thsr @
-1.0864 & thsr A
-1.6136 & thsr N
-1.8434 & thsr cC
-1.8434 & thsr f
-1.3082 & thsr i
-1.3082 & thsr ixr
-1.4887 & thsr k
-1.4887 & thsr kh
-1.8434 & thsr l
-1.3082 & thsr m
-1.6136 & thsr n
-1.3082 & thsr o
-1.8434 & thsr p
-0.7853 & thsr tc
-1.6136 & thsr ts
-1.6136 & thsr tsr
-1.0072 & thsr u
-1.1833 & thsr w
-1.6136 & thsr y
-0.8633 & ts &
-1.6204 & ts &r
-0.9091 & ts @
-1.6204 & ts A
-1.6204 & ts C
-1.6204 & ts I
-1.3906 & ts ixr
-1.3906 & ts j
-1.1644 & ts n
-1.3906 & ts o
-1.1644 & ts tc
-0.9602 & ts u
-1.0182 & ts w
-0.9853 & tsh &
-1.5205 & tsh A
-1.5205 & tsh E
-1.5205 & tsh cCh
-1.2907 & tsh ixr
-1.5205 & tsh j
-1.5205 & tsh m
-1.2907 & tsh o
-1.5205 & tsh t
-0.8603 & tsh tc
-1.5205 & tsh ts
-1.5205 & tsh u
-1.5205 & tsh w
-1.1657 & tsh x
-1.0185 & tsr &
-2.1373 & tsr &r
-2.1373 & tsr >
-1.6021 & tsr @
-1.9075 & tsr A
-1.2663 & tsr E
-1.6021 & tsr I
-1.6021 & tsr N
-1.7825 & tsr cC
-1.3802 & tsr e
-1.9075 & tsr f
-1.3010 & tsr i
-1.0185 & tsr ixr
-1.3388 & tsr j
-1.7825 & tsr jw
-1.3802 & tsr l
-1.4771 & tsr m
-1.6021 & tsr n
-1.2041 & tsr o
-1.7825 & tsr p
-1.9075 & tsr r&
-1.3802 & tsr sr
-1.4771 & tsr tc
-1.6812 & tsr thsr
-1.0580 & tsr u
-1.5351 & tsr w
-1.9075 & tsr x
-1.6812 & tsr y
-1.9155 & u &
-2.2703 & u >
-2.0405 & u @
-1.3671 & u C
-1.9155 & u E
-1.7351 & u N
-1.7351 & u cC
-1.8142 & u cCh
-1.8142 & u f
-1.2828 & u i
-1.9155 & u ixr
-1.4718 & u j
-2.0405 & u jw
-1.9155 & u kh
-1.5590 & u l
-1.3371 & u m
-1.6101 & u n
-1.8142 & u o
-1.4718 & u p
-1.6681 & u ph
-2.2703 & u r&
-1.6681 & u s
-0.8900 & u sr
-0.6211 & u tc
-1.6681 & u thsr
-2.0405 & u ts
-1.4340 & u tsr
-1.4340 & u w
-1.4340 & u x
-2.0405 & u y
-2.1162 & w &
-2.0492 & w &r
-1.5141 & w >
-1.9912 & w @
-2.1162 & w A
-1.8151 & w C
-2.6514 & w E
-2.4216 & w I
-2.1162 & w N
-1.4630 & w cC
-1.5519 & w cCh
-1.8943 & w e
-1.8529 & w f
-1.7804 & w i
-1.8529 & w ixr
-1.9912 & w j
-2.6514 & w jw
-1.3380 & w k
-1.1783 & w kh
-1.5721 & w l
-1.6390 & w m
-1.8529 & w n
-2.1953 & w o
-1.3145 & w p
-1.8151 & w ph
-2.1162 & w r&
-1.7804 & w s
-1.2411 & w sr
-1.9401 & w t
-0.7482 & w tc
-1.8529 & w th
-1.3502 & w thsr
-1.5519 & w ts
-1.5721 & w tsh
-1.4172 & w tsr
-1.3033 & w u
-1.3502 & w x
-2.0492 & w y
-1.4080 & x &
-2.1905 & x &r
-1.0173 & x >
-1.6121 & x @
-1.3258 & x A
-2.5452 & x E
-1.9431 & x I
-1.5577 & x N
-1.7090 & x cC
-1.8339 & x cCh
-2.5452 & x e
-2.1905 & x f
-2.0100 & x i
-1.6742 & x ixr
-2.0892 & x j
-1.3110 & x k
-1.4871 & x kh
-1.9431 & x l
-1.7882 & x m
-1.5577 & x n
-1.2567 & x o
-1.1971 & x p
-2.1905 & x ph
-2.1905 & x r&
-2.1905 & x s
-1.6121 & x sr
-1.7882 & x t
-1.3568 & x tc
-1.8851 & x th
-2.0100 & x thsr
-1.7882 & x ts
-2.5452 & x tsh
-1.5577 & x tsr
-0.9017 & x u
-1.0100 & x w
-2.3154 & x y
-2.0624 & y @
-1.4603 & y C
-1.1293 & y cC
-1.8326 & y cCh
-2.0624 & y e
-2.0624 & y f
-1.3511 & y i
-2.0624 & y ixr
-1.8326 & y j
-1.5272 & y k
-1.3511 & y m
-1.4023 & y n
-1.7077 & y o
-1.1293 & y p
-1.6064 & y ph
-2.0624 & y s
-1.1592 & y sr
-0.5272 & y tc
-2.0624 & y thsr
-2.0624 & y tsh
-1.4603 & y tsr
-1.4603 & y u
-1.6064 & y w
-1.6064 & y x
-1.0263 &r & N
-1.6865 &r & ixr
-1.6865 &r & l
-0.9294 &r & m
-0.7833 &r & n
-1.6865 &r & ph
-1.0843 &r & sr
-0.6072 &r & tc
-1.6865 &r & u
-1.3317 &r & w
-1.6865 &r & x
-1.6865 &r & y
-1.3803 &r > cC
-0.8451 &r > m
-1.3803 &r > n
-1.3803 &r > r&
-1.3803 &r > sr
-0.7782 &r > tc
-1.3803 &r > th
-1.3803 &r > tsh
-1.3803 &r > w
-0.8451 &r > x
-1.2774 &r @ N
-1.6321 &r @ cC
-1.2774 &r @ i
-0.7611 &r @ j
-1.1761 &r @ l
-1.6321 &r @ m
-0.6198 &r @ n
-1.0300 &r @ sr
-1.2774 &r @ tc
-1.0300 &r @ w
-1.7015 &r A @
-1.0994 &r A N
-1.4717 &r A cCh
-1.2455 &r A f
-1.7015 &r A j
-1.7015 &r A kh
-0.9902 &r A l
-1.2455 &r A m
-1.0994 &r A n
-1.4717 &r A s
-1.1663 &r A sr
-1.0414 &r A tc
-1.7015 &r A u
-0.8653 &r A w
-1.1663 &r A x
-1.8215 &r C &
-1.2863 &r C E
-1.2863 &r C cC
-1.8215 &r C cCh
-1.8215 &r C e
-0.8603 &r C i
-0.9853 &r C ixr
-1.0231 &r C j
-1.8215 &r C jw
-1.3655 &r C n
-1.8215 &r C o
-1.4668 &r C p
-1.8215 &r C sr
-1.4668 &r C tc
-1.2194 &r C thsr
-1.8215 &r C ts
-1.4668 &r C tsh
-1.2863 &r C tsr
-1.4668 &r C w
-1.5917 &r C x
-1.1614 &r C y
-1.1720 &r E N
-1.1720 &r E cC
-1.1720 &r E l
-1.1720 &r E n
-0.8173 &r E tc
-1.1720 &r E th
-0.9422 &r E w
-0.9422 &r E x
-1.1720 &r I C
-1.1720 &r I N
-1.1720 &r I i
-0.9422 &r I s
-1.1720 &r I sr
-0.5699 &r I tc
-2.0581 &r N &
-2.0581 &r N A
-1.3010 &r N C
-1.4559 &r N cC
-1.8283 &r N cCh
-2.0581 &r N e
-1.3010 &r N i
-1.6021 &r N ixr
-1.7033 &r N j
-2.0581 &r N k
-1.4559 &r N l
-1.2596 &r N m
-1.3468 &r N n
-1.2596 &r N p
-2.0581 &r N ph
-1.8283 &r N r&
-1.7033 &r N s
-1.0000 &r N sr
-0.6478 &r N tc
-1.8283 &r N th
-1.6021 &r N thsr
-2.0581 &r N ts
-1.8283 &r N tsh
-1.6021 &r N tsr
-1.7033 &r N u
-1.7033 &r N w
-1.3468 &r N x
-1.7551 &r cC C
-1.2736 &r cC E
-1.6302 &r cC I
-1.9849 &r cC cCh
-0.6964 &r cC i
-1.1487 &r cC ixr
-0.9491 &r cC j
-1.1865 &r cC jw
-1.7551 &r cC k
-1.9849 &r cC kh
-1.7551 &r cC m
-1.3828 &r cC n
-1.9849 &r cC o
-1.4497 &r cC sr
-1.5289 &r cC t
-1.5289 &r cC tc
-1.9849 &r cC th
-1.9849 &r cC thsr
-1.9849 &r cC tsr
-1.4497 &r cC u
-1.9849 &r cC x
-0.8855 &r cC y
-1.7945 &r cCh &
-1.5647 &r cCh C
-1.3385 &r cCh E
-1.7945 &r cCh N
-1.7945 &r cCh cC
-0.8070 &r cCh i
-0.9960 &r cCh ixr
-1.1923 &r cCh j
-1.1923 &r cCh jw
-1.7945 &r cCh k
-1.7945 &r cCh m
-1.5647 &r cCh n
-1.5647 &r cCh sr
-1.4397 &r cCh t
-1.0374 &r cCh tc
-1.7945 &r cCh th
-1.4397 &r cCh thsr
-1.7945 &r cCh ts
-1.7945 &r cCh tsr
-1.4397 &r cCh u
-1.1923 &r cCh y
-1.2484 &r e N
-0.6463 &r e i
-0.7132 &r e j
-1.2484 &r e jw
-1.2484 &r e kh
-0.8937 &r e n
-1.0186 &r e y
-1.1417 &r f &
-1.7438 &r f &r
-1.2086 &r f >
-0.8728 &r f @
-0.7827 &r f A
-1.5140 &r f I
-1.5140 &r f i
-1.7438 &r f k
-1.7438 &r f n
-1.7438 &r f o
-1.5140 &r f p
-1.5140 &r f sr
-1.3891 &r f t
-1.7438 &r f tc
-1.0325 &r f u
-1.0325 &r f w
-1.5140 &r f x
-1.8140 &r i &r
-1.8140 &r i A
-1.5841 &r i E
-1.5841 &r i N
-1.8140 &r i cC
-1.5841 &r i j
-1.8140 &r i kh
-1.8140 &r i l
-1.0155 &r i m
-1.2788 &r i n
-1.0569 &r i o
-1.3579 &r i sr
-0.5655 &r i tc
-1.5841 &r i thsr
-1.8140 &r i ts
-1.8140 &r i tsh
-1.4592 &r i u
-1.3579 &r i w
-1.8140 &r i x
-1.3579 &r i y
-1.6761 &r ixr &r
-1.6761 &r ixr C
-1.4463 &r ixr N
-1.4463 &r ixr cC
-1.6761 &r ixr i
-1.6761 &r ixr k
-1.6761 &r ixr l
-1.3214 &r ixr m
-1.3214 &r ixr n
-1.6761 &r ixr o
-1.6761 &r ixr s
-1.1409 &r ixr sr
-0.4567 &r ixr tc
-1.6761 &r ixr tsr
-1.6761 &r ixr u
-1.3214 &r ixr x
-1.9032 &r j C
-1.6734 &r j E
-1.6734 &r j N
-1.0000 &r j cC
-1.5484 &r j cCh
-1.4472 &r j i
-1.9032 &r j ixr
-1.5484 &r j k
-1.6734 &r j kh
-1.9032 &r j l
-1.9032 &r j m
-1.3010 &r j n
-1.0669 &r j o
-1.5484 &r j p
-1.5484 &r j r&
-1.6734 &r j s
-1.2430 &r j sr
-0.7148 &r j tc
-1.9032 &r j th
-1.6734 &r j thsr
-1.9032 &r j tsr
-1.2430 &r j w
-1.3680 &r j x
-1.6734 &r j y
-1.0581 &r jw &
-0.5229 &r jw E
-1.0581 &r jw N
-1.0581 &r jw i
-0.8283 &r jw j
-1.1761 &r k &
-1.0669 &r k >
-1.3222 &r k A
-1.4235 &r k E
-1.5484 &r k e
-1.2430 &r k i
-1.5484 &r k j
-1.5484 &r k n
-1.3222 &r k o
-1.7782 &r k ph
-1.7782 &r k s
-1.7782 &r k tc
-1.5484 &r k tsr
-0.6595 &r k u
-0.9420 &r k w
-1.1181 &r k x
-1.1903 &r kh &
-1.4914 &r kh &r
-1.4914 &r kh >
-1.3452 &r kh @
-1.0764 &r kh A
-1.9474 &r kh E
-1.5926 &r kh I
-1.5926 &r kh N
-1.9474 &r kh e
-1.7176 &r kh i
-1.1112 &r kh ixr
-1.9474 &r kh j
-1.7176 &r kh k
-1.4914 &r kh l
-1.4122 &r kh m
-1.7176 &r kh n
-1.5926 &r kh o
-1.9474 &r kh p
-1.7176 &r kh r&
-1.9474 &r kh s
-1.4122 &r kh sr
-1.7176 &r kh t
-1.0442 &r kh tc
-1.9474 &r kh thsr
-1.1112 &r kh u
-1.2361 &r kh w
-1.4914 &r kh x
-0.9232 &r l &
-1.5405 &r l &r
-1.7879 &r l >
-0.9542 &r l @
-1.4314 &r l A
-1.0432 &r l E
-1.7879 &r l I
-1.9128 &r l N
-1.1303 &r l e
-0.8942 &r l i
-1.4825 &r l ixr
-1.6866 &r l j
-2.1427 &r l jw
-1.7879 &r l k
-2.1427 &r l m
-1.3064 &r l o
-2.1427 &r l p
-1.9128 &r l ph
-1.7879 &r l r&
-1.6866 &r l sr
-1.7879 &r l tc
-2.1427 &r l th
-1.3856 &r l u
-1.6866 &r l w
-2.1427 &r l x
-1.3442 &r l y
-1.0751 &r m &
-1.3304 &r m @
-0.9502 &r m A
-1.7864 &r m N
-1.3304 &r m e
-1.1843 &r m i
-1.7864 &r m ixr
-1.5566 &r m j
-1.4317 &r m k
-1.7864 &r m l
-1.4317 &r m n
-1.5566 &r m o
-1.3304 &r m p
-1.7864 &r m s
-1.3304 &r m sr
-1.5566 &r m t
-1.4317 &r m tc
-1.5566 &r m thsr
-1.7864 &r m ts
-1.4317 &r m tsr
-1.0294 &r m u
-1.4317 &r m w
-1.7546 &r n &
-2.2898 &r n >
-1.6877 &r n @
-1.8338 &r n A
-1.8338 &r n C
-1.9351 &r n E
-1.9351 &r n I
-1.6877 &r n N
-1.0556 &r n cC
-1.6877 &r n cCh
-1.2540 &r n e
-0.6243 &r n i
-1.9351 &r n ixr
-1.4188 &r n j
-1.6877 &r n k
-2.2898 &r n kh
-1.5785 &r n l
-1.6877 &r n m
-2.2898 &r n o
-1.5785 &r n p
-2.0600 &r n ph
-1.7546 &r n r&
-2.0600 &r n s
-1.2105 &r n sr
-1.6877 &r n t
-0.9530 &r n tc
-2.0600 &r n thsr
-1.9351 &r n ts
-1.6877 &r n tsr
-1.8338 &r n u
-1.9351 &r n w
-2.0600 &r n x
-2.0600 &r n y
-1.3368 &r o >
-0.8808 &r o N
-1.1070 &r o l
-1.3368 &r o m
-0.8016 &r o tc
-1.1070 &r o u
-0.8016 &r o w
-1.3368 &r o x
-1.7699 &r p &
-1.7699 &r p &r
-1.1677 &r p >
-1.5401 &r p @
-1.7699 &r p A
-1.7699 &r p N
-1.4151 &r p cC
-1.0586 &r p i
-1.7699 &r p ixr
-1.7699 &r p j
-1.7699 &r p k
-1.3139 &r p kh
-1.7699 &r p m
-1.5401 &r p o
-1.1677 &r p sr
-1.7699 &r p tc
-1.7699 &r p thsr
-1.4151 &r p tsr
-0.6906 &r p u
-1.0586 &r p w
-1.7699 &r p x
-1.0651 &r ph >
-1.4198 &r ph A
-1.4198 &r ph cCh
-1.4198 &r ph ixr
-1.4198 &r ph jw
-1.1900 &r ph kh
-1.0651 &r ph n
-1.1900 &r ph s
-1.1900 &r ph sr
-1.1900 &r ph tc
-1.0651 &r ph u
-1.0651 &r ph w
-1.4005 &r r& &r
-1.4005 &r r& >
-1.1707 &r r& @
-1.1707 &r r& A
-1.0458 &r r& N
-1.4005 &r r& kh
-1.1707 &r r& l
-0.7984 &r r& o
-0.8653 &r r& u
-1.1996 &r s &
-1.2788 &r s @
-1.7348 &r s C
-1.3800 &r s I
-1.7348 &r s N
-1.3800 &r s cC
-1.7348 &r s cCh
-1.7348 &r s i
-1.5050 &r s ixr
-1.2788 &r s k
-1.3800 &r s kh
-1.7348 &r s m
-1.5050 &r s n
-1.7348 &r s p
-1.2788 &r s sr
-1.0235 &r s t
-1.0746 &r s tc
-1.2788 &r s ts
-1.5050 &r s tsr
-1.1326 &r s u
-1.3800 &r s w
-1.3697 &r sr &
-1.9930 &r sr &r
-1.9930 &r sr @
-1.6128 &r sr A
-1.9138 &r sr C
-1.8469 &r sr E
-1.6506 &r sr I
-1.7889 &r sr N
-1.2296 &r sr cC
-1.5780 &r sr cCh
-2.4490 &r sr e
-1.4132 &r sr i
-0.8996 &r sr ixr
-1.5780 &r sr j
-1.6506 &r sr jw
-1.5458 &r sr k
-1.8469 &r sr kh
-1.3909 &r sr m
-1.2296 &r sr n
-1.3909 &r sr o
-1.8469 &r sr p
-2.2192 &r sr ph
-2.4490 &r sr r&
-1.9930 &r sr s
-1.4878 &r sr t
-1.2448 &r sr tc
-1.7889 &r sr th
-1.6128 &r sr thsr
-1.7889 &r sr ts
-2.0943 &r sr tsh
-1.6920 &r sr tsr
-1.4132 &r sr u
-1.4878 &r sr w
-1.9930 &r sr x
-1.1868 &r sr y
-1.0651 &r t &
-1.1900 &r t A
-0.9638 &r t E
-1.4198 &r t i
-1.1900 &r t ixr
-1.4198 &r t j
-1.0651 &r t n
-1.1900 &r t sr
-0.9638 &r t u
-1.1900 &r t w
-2.0686 &r tc &
-2.1936 &r tc &r
-2.1266 &r tc @
-2.1266 &r tc A
-2.2728 &r tc C
-2.7288 &r tc I
-2.4990 &r tc N
-1.0322 &r tc cC
-1.3383 &r tc cCh
-2.2728 &r tc e
-2.3740 &r tc f
-2.1936 &r tc i
-2.1266 &r tc ixr
-2.4990 &r tc j
-2.7288 &r tc jw
-1.0796 &r tc k
-1.1864 &r tc kh
-2.1936 &r tc l
-2.0175 &r tc m
-2.1936 &r tc n
-2.7288 &r tc o
-0.8962 &r tc p
-1.7956 &r tc ph
-2.1266 &r tc r&
-1.9303 &r tc s
-1.4035 &r tc sr
-1.1864 &r tc t
-1.4946 &r tc th
-1.2815 &r tc thsr
-1.2159 &r tc ts
-1.5246 &r tc tsh
-0.8999 &r tc tsr
-1.9717 &r tc u
-1.7956 &r tc w
-1.7676 &r tc x
-2.2728 &r tc y
-1.2907 &r th &
-1.0645 &r th @
-1.0645 &r th A
-0.9853 &r th N
-0.9183 &r th i
-1.2907 &r th j
-1.5205 &r th m
-1.2907 &r th n
-1.0645 &r th sr
-1.1657 &r th tc
-1.5205 &r th tsr
-1.2907 &r th u
-1.5205 &r th y
-1.3214 &r thsr &
-1.6761 &r thsr >
-1.4463 &r thsr @
-1.0740 &r thsr A
-1.6761 &r thsr e
-1.6761 &r thsr i
-1.0160 &r thsr ixr
-1.3214 &r thsr j
-1.6761 &r thsr l
-1.3214 &r thsr m
-1.2201 &r thsr n
-1.6761 &r thsr o
-1.6761 &r thsr r&
-1.4463 &r thsr sr
-1.3214 &r thsr tc
-1.0740 &r thsr u
-1.2201 &r thsr w
-1.3214 &r thsr x
-1.4463 &r thsr y
-1.0624 &r ts &
-1.8609 &r ts >
-1.5061 &r ts @
-1.4048 &r ts A
-1.5061 &r ts E
-1.4048 &r ts I
-1.6310 &r ts N
-1.4048 &r ts e
-1.8609 &r ts i
-0.8485 &r ts ixr
-1.8609 &r ts j
-1.6310 &r ts k
-1.8609 &r ts l
-1.5061 &r ts m
-1.8609 &r ts n
-1.8609 &r ts r&
-1.4048 &r ts sr
-1.5061 &r ts tc
-1.8609 &r ts th
-1.8609 &r ts thsr
-0.7421 &r ts u
-1.1496 &r ts w
-1.5061 &r ts y
-1.3785 &r tsh &
-1.6083 &r tsh >
-1.6083 &r tsh A
-1.3785 &r tsh I
-1.2536 &r tsh cC
-1.6083 &r tsh cCh
-1.6083 &r tsh f
-1.2536 &r tsh i
-1.1523 &r tsh ixr
-1.6083 &r tsh kh
-1.3785 &r tsh m
-0.9482 &r tsh n
-1.3785 &r tsh o
-1.6083 &r tsh ph
-1.1523 &r tsh sr
-1.6083 &r tsh tc
-1.6083 &r tsh tsr
-1.2536 &r tsh u
-1.3785 &r tsh w
-1.0504 &r tsr &
-1.3862 &r tsr @
-1.3862 &r tsr A
-1.6916 &r tsr C
-1.5667 &r tsr E
-1.9214 &r tsr I
-1.5667 &r tsr N
-1.9214 &r tsr f
-1.6916 &r tsr i
-0.9339 &r tsr ixr
-1.5667 &r tsr j
-1.5667 &r tsr k
-1.5667 &r tsr kh
-1.5667 &r tsr m
-1.9214 &r tsr n
-1.1644 &r tsr o
-1.3193 &r tsr sr
-1.9214 &r tsr t
-1.6916 &r tsr tc
-1.9214 &r tsr ts
-0.9091 &r tsr u
-1.2101 &r tsr w
-1.2613 &r tsr y
-1.3965 &r u i
-1.6263 &r u jw
-1.3965 &r u l
-1.2715 &r u m
-1.2715 &r u n
-1.6263 &r u o
-0.9661 &r u sr
-0.6931 &r u tc
-1.2715 &r u th
-1.6263 &r u thsr
-1.3965 &r u tsr
-1.6263 &r u w
-1.2715 &r u x
-1.6263 &r u y
-1.9488 &r w &
-1.8239 &r w &r
-1.1663 &r w >
-1.8239 &r w @
-1.7226 &r w A
-1.6435 &r w C
-2.1787 &r w E
-1.9488 &r w I
-1.7226 &r w N
-1.2755 &r w cC
-1.6435 &r w cCh
-1.9488 &r w e
-2.1787 &r w f
-1.6435 &r w i
-1.9488 &r w ixr
-1.7226 &r w j
-1.6435 &r w k
-1.6435 &r w kh
-1.4216 &r w l
-1.5185 &r w m
-1.7226 &r w n
-1.7226 &r w p
-1.9488 &r w ph
-2.1787 &r w r&
-1.4216 &r w s
-1.2455 &r w sr
-0.7984 &r w tc
-2.1787 &r w th
-1.8239 &r w thsr
-1.9488 &r w ts
-1.6435 &r w tsh
-1.3802 &r w tsr
-1.1912 &r w u
-1.2175 &r w x
-1.4698 &r x &
-1.6739 &r x &r
-1.2590 &r x >
-1.4698 &r x @
-0.9258 &r x A
-2.1300 &r x I
-1.9002 &r x N
-1.4187 &r x cC
-1.9002 &r x e
-1.6739 &r x i
-1.9002 &r x ixr
-1.6739 &r x j
-1.2268 &r x k
-1.5948 &r x kh
-1.9002 &r x l
-1.5278 &r x m
-1.4187 &r x n
-1.4187 &r x o
-1.3315 &r x p
-1.9002 &r x ph
-2.1300 &r x r&
-1.5948 &r x sr
-1.6739 &r x t
-1.4187 &r x tc
-1.9002 &r x ts
-1.5278 &r x tsr
-1.0719 &r x u
-0.9927 &r x w
-1.1293 &r y C
-1.1293 &r y cC
-1.3591 &r y i
-1.3591 &r y k
-1.0044 &r y n
-1.1293 &r y sr
-0.5607 &r y tc
-1.3591 &r y tsr
-1.3591 &r y x
-1.4910 > & >
-1.7208 > & N
-1.4910 > & f
-1.7208 > & i
-1.7208 > & j
-1.7208 > & l
-0.8177 > & m
-0.9638 > & n
-1.7208 > & o
-1.7208 > & s
-1.0095 > & sr
-0.5658 > & tc
-1.7208 > & u
-1.4910 > & w
-1.3661 > & x
-1.7208 > & y
-1.6321 > &r &
-1.4023 > &r @
-1.6321 > &r A
-1.2774 > &r C
-1.4023 > &r N
-1.6321 > &r cC
-1.2774 > &r cCh
-1.6321 > &r j
-1.4023 > &r k
-1.4023 > &r l
-1.0969 > &r n
-1.4023 > &r p
-1.0300 > &r sr
-0.7289 > &r tc
-1.6321 > &r u
-1.2774 > &r w
-1.6321 > &r x
-1.7208 > @ C
-0.8846 > @ N
-1.2648 > @ i
-0.8177 > @ j
-1.1187 > @ l
-1.1856 > @ m
-0.9638 > @ n
-1.7208 > @ ph
-1.0095 > @ sr
-1.1856 > @ tc
-0.9224 > @ w
-1.4910 > @ x
-1.7777 > A &r
-1.7777 > A >
-2.0075 > A @
-1.2090 > A N
-2.0075 > A cCh
-1.4723 > A f
-1.7777 > A ixr
-2.0075 > A jw
-1.7777 > A k
-1.7777 > A kh
-1.2504 > A l
-1.1043 > A m
-1.2090 > A n
-2.0075 > A ph
-1.0743 > A s
-1.1712 > A sr
-1.0463 > A tc
-2.0075 > A th
-2.0075 > A ts
-1.5515 > A tsr
-2.0075 > A u
-0.7453 > A w
-1.2962 > A x
-1.6188 > C &
-1.8662 > C E
-1.8662 > C I
-1.0015 > C cC
-1.2086 > C cCh
-0.8841 > C i
-1.1417 > C ixr
-1.0837 > C j
-1.2878 > C jw
-2.2209 > C k
-1.6857 > C m
-1.4639 > C n
-2.2209 > C o
-1.7649 > C p
-1.8662 > C r&
-2.2209 > C s
-1.6857 > C sr
-2.2209 > C t
-1.3499 > C tc
-1.9911 > C th
-1.6857 > C thsr
-1.9911 > C ts
-1.8662 > C tsh
-1.3499 > C tsr
-1.6857 > C u
-1.9911 > C w
-1.8662 > C x
-0.9587 > C y
-0.7314 > E N
-0.9612 > E n
-0.7314 > E sr
-0.6064 > E tc
-0.9612 > E x
-1.1070 > I e
-1.3368 > I i
-1.3368 > I l
-0.9821 > I m
-1.3368 > I n
-0.8016 > I sr
-0.9821 > I tc
-1.3368 > I thsr
-1.3368 > I u
-2.5338 > N &
-2.5338 > N &r
-2.3039 > N A
-1.3295 > N C
-2.1790 > N I
-1.1856 > N cC
-1.4150 > N cCh
-2.0777 > N e
-2.0777 > N f
-1.2326 > N i
-2.0777 > N ixr
-1.8736 > N j
-1.8225 > N k
-1.9985 > N kh
-1.6006 > N l
-1.3143 > N m
-1.4545 > N n
-2.3039 > N o
-1.3453 > N p
-1.9985 > N ph
-2.5338 > N r&
-1.6628 > N s
-1.0208 > N sr
-1.9985 > N t
-0.6214 > N tc
-2.1790 > N th
-1.5463 > N thsr
-2.0777 > N ts
-1.8736 > N tsh
-1.5726 > N tsr
-1.8736 > N u
-1.7767 > N w
-1.4343 > N x
-1.8736 > N y
-1.8088 > cC &
-1.9338 > cC @
-1.9338 > cC C
-1.4065 > cC E
-1.9338 > cC I
-1.9338 > cC N
-2.1636 > cC cCh
-0.7533 > cC i
-1.1055 > cC ixr
-0.9441 > cC j
-1.1761 > cC jw
-1.4523 > cC m
-1.2926 > cC n
-1.8088 > cC o
-1.9338 > cC p
-2.1636 > cC r&
-1.5614 > cC sr
-1.9338 > cC t
-1.2304 > cC tc
-2.1636 > cC thsr
-1.8088 > cC tsr
-1.6284 > cC u
-0.7631 > cC y
-1.8063 > cCh >
-1.2041 > cCh E
-1.5765 > cCh N
-1.8063 > cCh cC
-0.7705 > cCh i
-1.0950 > cCh ixr
-1.0078 > cCh j
-1.3502 > cCh jw
-1.3502 > cCh m
-1.4515 > cCh n
-1.8063 > cCh sr
-1.4515 > cCh tc
-1.5765 > cCh ts
-1.3502 > cCh tsr
-1.4515 > cCh w
-0.7939 > cCh y
-1.7208 > e C
-0.7597 > e E
-1.1856 > e N
-0.6850 > e i
-0.6850 > e j
-1.7208 > e jw
-1.1856 > e n
-1.4910 > e o
-1.7208 > e r&
-1.1856 > e sr
-1.7208 > e tc
-1.7208 > e u
-1.4910 > e y
-1.2763 > f &
-1.6009 > f &r
-1.2127 > f >
-1.0110 > f @
-0.9753 > f A
-1.1749 > f I
-1.6520 > f N
-1.7769 > f cC
-1.7100 > f cCh
-1.3790 > f e
-1.5137 > f i
-1.3790 > f ixr
-1.9574 > f jw
-1.4759 > f k
-2.3121 > f kh
-2.3121 > f l
-1.8561 > f m
-1.7100 > f n
-1.4759 > f o
-1.4759 > f p
-1.8561 > f ph
-2.0823 > f s
-1.5551 > f sr
-1.8561 > f t
-1.9574 > f thsr
-1.7100 > f ts
-1.9574 > f tsh
-1.1401 > f u
-1.3510 > f w
-1.7769 > f x
-1.9574 > f y
-2.0549 > i &
-2.0549 > i &r
-1.6825 > i C
-1.6245 > i E
-2.0549 > i I
-1.1127 > i N
-1.7495 > i cC
-2.0549 > i cCh
-2.2847 > i e
-1.7495 > i f
-1.6245 > i ixr
-1.6245 > i j
-2.2847 > i jw
-2.2847 > i k
-1.7495 > i kh
-1.7495 > i l
-1.1127 > i m
-1.2054 > i n
-1.3815 > i o
-2.0549 > i p
-2.0549 > i ph
-2.2847 > i r&
-1.9299 > i s
-1.0505 > i sr
-2.0549 > i t
-0.5982 > i tc
-2.2847 > i th
-1.8287 > i thsr
-2.0549 > i ts
-2.0549 > i tsh
-1.9299 > i tsr
-1.6825 > i u
-1.6825 > i w
-1.8287 > i x
-1.5734 > i y
-1.3846 > ixr C
-1.2596 > ixr N
-1.3846 > ixr j
-1.3846 > ixr k
-1.6144 > ixr n
-1.3846 > ixr r&
-1.1584 > ixr s
-1.0122 > ixr sr
-0.4594 > ixr tc
-1.6144 > ixr th
-1.6144 > ixr tsr
-1.6144 > ixr u
-1.6144 > ixr w
-2.2936 > j @
-1.9389 > j A
-1.8376 > j C
-1.7584 > j E
-1.9389 > j N
-1.1748 > j cC
-2.2936 > j cCh
-2.0638 > j f
-1.5366 > j i
-2.0638 > j ixr
-1.3605 > j k
-1.6915 > j kh
-2.2936 > j l
-1.6915 > j m
-1.4574 > j n
-1.1563 > j o
-0.8833 > j p
-1.4952 > j ph
-2.2936 > j s
-1.3324 > j sr
-1.6915 > j t
-0.8833 > j tc
-1.6915 > j th
-1.4952 > j thsr
-1.5823 > j ts
-2.0638 > j tsh
-1.0051 > j tsr
-2.0638 > j u
-1.6915 > j w
-1.5823 > j x
-1.9389 > j y
-1.7483 > jw &
-1.5185 > jw &r
-1.3935 > jw @
-1.5185 > jw A
-0.4114 > jw E
-1.7483 > jw N
-1.5185 > jw i
-1.3935 > jw ixr
-1.2131 > jw j
-0.8151 > jw o
-1.7483 > jw u
-0.9912 > jw y
-1.4221 > k &
-1.6695 > k &r
-0.8870 > k >
-1.4890 > k @
-1.3641 > k A
-1.6695 > k N
-1.7944 > k cCh
-2.0242 > k e
-1.7944 > k f
-1.5682 > k i
-2.0242 > k ixr
-1.5682 > k j
-1.4890 > k m
-1.4221 > k o
-1.7944 > k p
-2.0242 > k ph
-1.4890 > k sr
-1.2258 > k tc
-1.6695 > k thsr
-1.5682 > k tsr
-0.6874 > k u
-0.9247 > k w
-1.3636 > kh &
-1.8909 > kh &r
-1.4605 > kh >
-1.1875 > kh @
-1.2175 > kh A
-1.5855 > kh cC
-1.7659 > kh cCh
-1.7659 > kh e
-1.4605 > kh i
-1.3636 > kh ixr
-1.7659 > kh j
-1.8909 > kh jw
-1.7659 > kh k
-1.7659 > kh l
-1.6646 > kh m
-1.4094 > kh n
-1.5855 > kh o
-1.6646 > kh p
-1.8909 > kh r&
-1.8909 > kh s
-1.2844 > kh sr
-1.6646 > kh t
-1.3636 > kh tc
-1.8909 > kh th
-1.8909 > kh thsr
-1.8909 > kh ts
-2.1207 > kh tsh
-1.8909 > kh tsr
-0.9165 > kh u
-1.1332 > kh w
-1.3222 > kh x
-1.8909 > kh y
-0.9335 > l &
-2.0269 > l &r
-1.5498 > l >
-0.8998 > l @
-0.9406 > l A
-1.3642 > l E
-2.2532 > l I
-1.8228 > l N
-2.1282 > l cC
-2.2532 > l cCh
-1.2635 > l e
-2.4830 > l f
-0.8808 > l i
-1.6120 > l ixr
-1.4037 > l j
-1.5798 > l jw
-2.4830 > l kh
-2.0269 > l m
-2.1282 > l n
-1.4706 > l o
-2.1282 > l p
-2.0269 > l ph
-2.0269 > l sr
-1.4955 > l t
-1.9478 > l tc
-2.4830 > l th
-2.4830 > l ts
-2.4830 > l tsh
-1.5218 > l u
-1.6120 > l w
-1.8808 > l x
-1.4249 > l y
-0.9771 > m &
-1.8463 > m &r
-1.4314 > m >
-1.2742 > m @
-1.0268 > m A
-1.8183 > m C
-1.9810 > m E
-1.6075 > m I
-1.5600 > m N
-2.0224 > m cC
-2.3235 > m cCh
-1.1416 > m e
-2.3235 > m f
-1.1964 > m i
-1.7002 > m ixr
-1.7672 > m j
-2.2443 > m jw
-1.7920 > m k
-2.7795 > m kh
-1.7214 > m l
-1.5753 > m n
-1.5173 > m o
-1.4096 > m p
-1.9085 > m ph
-2.3235 > m r&
-2.3235 > m s
-1.4909 > m sr
-1.5039 > m t
-1.5311 > m tc
-2.0224 > m th
-1.8463 > m thsr
-2.7795 > m ts
-2.3235 > m tsh
-1.9085 > m tsr
-1.1532 > m u
-1.5311 > m w
-2.1773 > m x
-1.6245 > m y
-1.7100 > n &
-2.3834 > n &r
-1.7769 > n @
-1.9019 > n A
-1.8561 > n C
-2.0780 > n E
-2.2584 > n I
-1.6520 > n N
-1.0568 > n cC
-1.9530 > n cCh
-1.6257 > n e
-2.6132 > n f
-0.4851 > n i
-1.9530 > n ixr
-1.1934 > n j
-2.2584 > n jw
-1.9530 > n k
-2.2584 > n kh
-1.8147 > n l
-1.7769 > n m
-1.9019 > n o
-1.7769 > n p
-1.9019 > n ph
-2.3834 > n r&
-2.1572 > n s
-1.5551 > n sr
-1.6520 > n t
-0.9869 > n tc
-2.0780 > n th
-1.8147 > n thsr
-1.9019 > n ts
-2.6132 > n tsh
-1.7769 > n tsr
-1.7422 > n u
-2.3834 > n w
-2.2584 > n x
-1.6009 > n y
-1.4766 > o >
-0.9951 > o N
-1.3517 > o cCh
-1.4766 > o f
-1.1712 > o k
-1.7064 > o kh
-1.2504 > o m
-1.7064 > o n
-1.1712 > o p
-1.7064 > o r&
-1.4766 > o sr
-1.1712 > o tc
-0.9951 > o u
-0.8702 > o w
-1.4766 > o x
-1.2204 > p &
-1.7767 > p &r
-1.3965 > p >
-1.4343 > p @
-1.2204 > p A
-2.2327 > p C
-1.8780 > p E
-1.7767 > p I
-1.7767 > p N
-1.6306 > p cC
-1.5726 > p e
-0.8129 > p i
-1.8780 > p ixr
-1.2996 > p j
-2.0029 > p jw
-2.2327 > p kh
-1.7767 > p l
-1.7767 > p m
-1.8780 > p n
-1.3295 > p o
-1.8780 > p r&
-1.3965 > p sr
-2.0029 > p t
-1.3965 > p tc
-2.2327 > p th
-1.8780 > p tsr
-0.9075 > p u
-1.3295 > p w
-1.6975 > p x
-1.5726 > p y
-1.7699 > ph >
-1.7699 > ph @
-1.3139 > ph A
-1.2347 > ph C
-1.7699 > ph E
-1.5401 > ph I
-1.0586 > ph cC
-1.2347 > ph cCh
-1.7699 > ph i
-1.4151 > ph ixr
-1.7699 > ph j
-1.4151 > ph k
-1.5401 > ph m
-1.5401 > ph o
-1.7699 > ph p
-1.4151 > ph sr
-1.2347 > ph tc
-1.1677 > ph thsr
-1.4151 > ph ts
-1.7699 > ph tsh
-1.5401 > ph tsr
-1.1677 > ph u
-1.5401 > ph w
-1.7699 > ph x
-1.5401 > ph y
-1.0940 > r& &
-1.7004 > r& >
-1.3281 > r& A
-1.4742 > r& E
-1.9302 > r& I
-1.2701 > r& N
-1.9302 > r& cCh
-1.3281 > r& e
-1.7004 > r& i
-1.2189 > r& ixr
-1.7004 > r& j
-1.7004 > r& k
-1.7004 > r& l
-1.7004 > r& m
-1.4742 > r& n
-0.6961 > r& o
-1.3950 > r& sr
-1.9302 > r& tc
-1.9302 > r& tsr
-1.0592 > r& u
-1.2701 > r& w
-1.9302 > r& x
-1.5755 > r& y
-1.0056 > s &
-1.6684 > s >
-1.4643 > s @
-1.5892 > s A
-1.2534 > s I
-1.6684 > s cC
-1.7697 > s e
-1.5892 > s f
-1.7697 > s i
-1.2212 > s ixr
-2.1244 > s j
-1.5892 > s k
-1.7697 > s kh
-1.8946 > s l
-1.5223 > s m
-1.4131 > s n
-1.6684 > s o
-1.2882 > s p
-1.7697 > s ph
-1.6684 > s sr
-1.2882 > s t
-1.4131 > s tc
-2.1244 > s th
-1.4131 > s thsr
-1.3674 > s ts
-1.5223 > s tsh
-1.2882 > s tsr
-1.3260 > s u
-1.3260 > s w
-2.1244 > s x
-1.4262 > sr &
-2.3725 > sr &r
-2.0300 > sr >
-1.8118 > sr @
-2.0671 > sr A
-1.8910 > sr C
-1.9879 > sr E
-1.6691 > sr I
-2.0671 > sr N
-1.1863 > sr cC
-1.4139 > sr cCh
-2.0671 > sr e
-2.1128 > sr f
-1.6357 > sr i
-0.8392 > sr ixr
-1.4236 > sr j
-1.5899 > sr jw
-1.7660 > sr k
-1.9879 > sr kh
-2.0671 > sr l
-1.4989 > sr m
-1.5757 > sr n
-1.3950 > sr o
-1.5757 > sr p
-2.2220 > sr ph
-2.2889 > sr r&
-2.0671 > sr s
-1.5108 > sr t
-1.2677 > sr tc
-1.9879 > sr th
-1.6521 > sr thsr
-1.7660 > sr ts
-2.1128 > sr tsh
-1.6521 > sr tsr
-1.2282 > sr u
-1.4650 > sr w
-1.7660 > sr x
-1.2282 > sr y
-0.8794 > t &
-0.7782 > t @
-1.0044 > t A
-1.2342 > t f
-1.0044 > t i
-1.2342 > t th
-1.2342 > t u
-1.0044 > t w
-2.3516 > tc &
-2.9928 > tc &r
-2.4655 > tc >
-2.5624 > tc @
-2.4655 > tc A
-2.4655 > tc C
-3.2226 > tc E
-2.2351 > tc I
-2.6874 > tc N
-0.9431 > tc cC
-1.4612 > tc cCh
-2.4241 > tc e
-2.3864 > tc f
-2.0342 > tc i
-1.8745 > tc ixr
-2.5113 > tc j
-2.8678 > tc jw
-1.1602 > tc k
-1.4241 > tc kh
-2.2351 > tc l
-2.2894 > tc m
-1.9884 > tc n
-2.9928 > tc o
-0.7189 > tc p
-1.7666 > tc ph
-2.4655 > tc r&
-2.3516 > tc s
-1.4878 > tc sr
-1.0489 > tc t
-1.5465 > tc th
-1.2250 > tc thsr
-1.2808 > tc ts
-1.7331 > tc tsh
-0.9178 > tc tsr
-1.7753 > tc u
-1.8973 > tc w
-1.9604 > tc x
-2.6204 > tc y
-1.6028 > th &
-1.8326 > th &r
-1.8326 > th >
-1.1725 > th @
-1.8326 > th A
-1.8326 > th C
-1.4779 > th I
-1.2974 > th N
-1.4779 > th cC
-1.8326 > th cCh
-1.8326 > th e
-1.4779 > th i
-1.1725 > th ixr
-1.2304 > th j
-1.8326 > th l
-1.3766 > th m
-1.4779 > th n
-1.6028 > th o
-1.8326 > th s
-1.3766 > th sr
-1.3766 > th t
-1.1725 > th tc
-1.8326 > th thsr
-1.8326 > th tsh
-1.8326 > th tsr
-1.2304 > th u
-1.0755 > th w
-1.8326 > th y
-1.5024 > thsr &
-1.9584 > thsr &r
-1.6037 > thsr @
-1.5024 > thsr A
-1.9584 > thsr C
-1.7286 > thsr I
-1.2983 > thsr N
-1.5024 > thsr cC
-1.7286 > thsr cCh
-1.5024 > thsr i
-1.2472 > thsr ixr
-1.9584 > thsr j
-1.9584 > thsr jw
-1.5024 > thsr k
-1.9584 > thsr kh
-1.7286 > thsr m
-1.2472 > thsr n
-1.4232 > thsr o
-1.5024 > thsr p
-1.7286 > thsr s
-1.5024 > thsr sr
-0.7542 > thsr tc
-1.9584 > thsr tsr
-0.9461 > thsr u
-1.4232 > thsr w
-1.6037 > thsr x
-0.8325 > ts &
-1.5896 > ts @
-1.5896 > ts I
-0.7533 > ts ixr
-1.5896 > ts j
-0.9874 > ts o
-1.5896 > ts p
-1.3598 > ts sr
-1.1335 > ts tc
-0.9874 > ts u
-1.0544 > ts w
-1.5896 > ts y
-1.3266 > tsh &
-1.4515 > tsh >
-1.2253 > tsh @
-1.4515 > tsh A
-1.6813 > tsh N
-1.6813 > tsh cC
-1.6813 > tsh f
-1.6813 > tsh ixr
-1.6813 > tsh k
-1.4515 > tsh kh
-1.6813 > tsh m
-1.4515 > tsh n
-1.2253 > tsh p
-1.6813 > tsh s
-1.1461 > tsh sr
-1.6813 > tsh t
-0.9700 > tsh tc
-1.6813 > tsh tsr
-0.9700 > tsh u
-1.1461 > tsh w
-1.6813 > tsh x
-1.6813 > tsh y
-1.0956 > tsr &
-1.9128 > tsr &r
-1.8116 > tsr >
-1.6075 > tsr @
-1.5105 > tsr A
-1.6654 > tsr E
-1.9128 > tsr I
-1.5563 > tsr N
-1.5105 > tsr cC
-2.0378 > tsr e
-2.2676 > tsr f
-1.4314 > tsr i
-1.0192 > tsr ixr
-1.3644 > tsr j
-1.5563 > tsr jw
-2.2676 > tsr kh
-1.7324 > tsr l
-1.6654 > tsr m
-1.5563 > tsr n
-1.3345 > tsr o
-1.8116 > tsr p
-2.2676 > tsr ph
-1.9128 > tsr r&
-1.8116 > tsr sr
-1.7324 > tsr t
-1.4692 > tsr tc
-2.2676 > tsr thsr
-2.0378 > tsr ts
-0.9308 > tsr u
-1.1488 > tsr w
-1.6075 > tsr x
-1.2318 > tsr y
-2.0872 > u &r
-1.7148 > u >
-1.7818 > u C
-1.9622 > u E
-1.6568 > u N
-1.7818 > u cC
-2.0872 > u cCh
-2.0872 > u e
-1.9622 > u f
-1.1982 > u i
-1.8609 > u ixr
-1.7818 > u j
-1.8609 > u jw
-2.3170 > u k
-2.0872 > u kh
-1.4138 > u l
-1.3295 > u m
-1.1982 > u n
-1.6568 > u o
-1.5599 > u p
-2.0872 > u ph
-1.8609 > u r&
-1.8609 > u s
-0.8878 > u sr
-2.0872 > u t
-0.7404 > u tc
-1.8609 > u th
-1.7148 > u thsr
-2.3170 > u ts
-1.9622 > u tsh
-1.3558 > u tsr
-1.6568 > u w
-1.2812 > u x
-1.5599 > u y
-1.9414 > w &
-2.0663 > w &r
-1.2763 > w >
-1.6983 > w @
-1.9414 > w A
-1.9994 > w C
-2.2468 > w I
-1.6140 > w N
-1.6404 > w cC
-1.6404 > w cCh
-1.8031 > w e
-1.8445 > w f
-1.6140 > w i
-1.8031 > w ixr
-2.1455 > w j
-1.6404 > w k
-1.4465 > w kh
-1.7653 > w l
-1.3674 > w m
-1.3821 > w n
-2.3717 > w o
-1.3821 > w p
-1.7653 > w ph
-2.0663 > w r&
-1.7305 > w s
-1.1202 > w sr
-2.3717 > w t
-0.7239 > w tc
-2.1455 > w th
-1.4827 > w thsr
-1.8031 > w ts
-1.8902 > w tsh
-1.4131 > w tsr
-1.2763 > w u
-1.4131 > w x
-1.8902 > w y
-1.5397 > x &
-1.7993 > x &r
-0.9834 > x >
-1.6946 > x @
-1.2967 > x A
-2.0626 > x C
-2.5978 > x E
-1.9376 > x I
-1.4983 > x N
-1.8407 > x cC
-1.9376 > x cCh
-1.9376 > x e
-2.5978 > x f
-2.2430 > x i
-1.7993 > x ixr
-2.3680 > x j
-1.3936 > x k
-1.4258 > x kh
-2.2430 > x l
-1.6946 > x m
-1.4983 > x n
-1.4094 > x o
-1.1004 > x p
-1.8865 > x ph
-2.5978 > x s
-1.6103 > x sr
-1.8407 > x t
-1.2844 > x tc
-2.1418 > x th
-1.7993 > x thsr
-1.9376 > x ts
-1.8865 > x tsh
-1.4790 > x tsr
-1.0212 > x u
-0.9486 > x w
-2.1418 > x y
-1.5162 > y C
-1.2688 > y cC
-1.8710 > y cCh
-1.4150 > y i
-1.6412 > y l
-1.1139 > y m
-1.2688 > y n
-1.2109 > y o
-1.2109 > y p
-1.8710 > y ph
-1.6412 > y s
-0.9379 > y sr
-0.6826 > y tc
-1.8710 > y th
-1.6412 > y thsr
-1.2688 > y tsr
-1.5162 > y u
-1.5162 > y w
-1.8710 > y x
-1.5484 @ & C
-1.9032 @ & E
-1.3010 @ & N
-1.6734 @ & cC
-1.6734 @ & i
-1.1461 @ & l
-0.9420 @ & m
-0.8451 @ & n
-1.9032 @ & o
-1.6734 @ & r&
-1.6734 @ & s
-1.2430 @ & sr
-0.6146 @ & tc
-1.9032 @ & th
-1.6734 @ & thsr
-1.5484 @ & u
-1.5484 @ & w
-1.9032 @ & x
-1.9032 @ & y
-1.4494 @ &r @
-2.0515 @ &r E
-2.0515 @ &r I
-1.2531 @ &r N
-1.5955 @ &r cC
-1.5163 @ &r cCh
-1.4494 @ &r i
-2.0515 @ &r ixr
-1.4494 @ &r j
-1.4494 @ &r k
-1.3914 @ &r kh
-1.2945 @ &r l
-2.0515 @ &r m
-0.9520 @ &r n
-2.0515 @ &r o
-1.8217 @ &r p
-2.0515 @ &r ph
-0.8795 @ &r sr
-1.8217 @ &r t
-0.8795 @ &r tc
-1.8217 @ &r th
-1.8217 @ &r thsr
-1.6968 @ &r ts
-1.5163 @ &r tsr
-2.0515 @ &r u
-1.5955 @ &r w
-1.5955 @ &r x
-1.6968 @ &r y
-1.6655 @ > A
-1.4357 @ > N
-1.0054 @ > cC
-1.3108 @ > cCh
-1.4357 @ > j
-1.4357 @ > kh
-1.6655 @ > l
-1.3108 @ > n
-1.2095 @ > p
-1.6655 @ > r&
-1.6655 @ > s
-1.3108 @ > sr
-0.9085 @ > tc
-1.6655 @ > th
-1.2095 @ > tsr
-1.4357 @ > w
-1.0054 @ > x
-1.7259 @ A &r
-1.6010 @ A >
-1.3536 @ A @
-0.9199 @ A N
-1.6010 @ A cC
-1.9557 @ A cCh
-1.9557 @ A f
-1.9557 @ A i
-1.7259 @ A j
-1.7259 @ A k
-1.7259 @ A kh
-1.2444 @ A l
-1.3536 @ A m
-1.0847 @ A n
-1.4205 @ A p
-1.7259 @ A s
-1.4997 @ A sr
-0.8976 @ A tc
-1.6010 @ A thsr
-1.9557 @ A ts
-1.7259 @ A tsh
-1.6010 @ A tsr
-0.9199 @ A w
-1.7259 @ A x
-1.9199 @ C &
-1.9199 @ C @
-1.2788 @ C E
-1.9199 @ C I
-2.1497 @ C N
-1.3135 @ C cC
-1.2466 @ C cCh
-1.7950 @ C e
-0.8129 @ C i
-1.2466 @ C ixr
-1.2466 @ C j
-1.3927 @ C jw
-2.1497 @ C kh
-2.1497 @ C m
-1.3513 @ C n
-1.7950 @ C o
-2.1497 @ C p
-2.1497 @ C s
-1.7950 @ C sr
-1.7950 @ C t
-1.2166 @ C tc
-1.9199 @ C th
-1.1139 @ C thsr
-2.1497 @ C ts
-1.7950 @ C tsh
-1.4385 @ C tsr
-1.7950 @ C u
-1.9199 @ C w
-2.1497 @ C x
-1.1139 @ C y
-1.7932 @ E &
-1.9182 @ E @
-1.7932 @ E A
-1.3495 @ E C
-0.7782 @ E N
-1.9182 @ E i
-1.5458 @ E j
-2.1480 @ E k
-2.1480 @ E kh
-1.2770 @ E l
-1.3495 @ E m
-0.8227 @ E n
-1.2770 @ E o
-1.9182 @ E p
-1.9182 @ E r&
-1.1868 @ E sr
-0.9138 @ E tc
-2.1480 @ E th
-2.1480 @ E thsr
-1.9182 @ E tsr
-1.6920 @ E u
-1.1605 @ E w
-1.6128 @ E x
-1.5632 @ I C
-1.2085 @ I N
-1.5632 @ I cC
-1.5632 @ I cCh
-1.0280 @ I i
-1.5632 @ I kh
-1.3334 @ I m
-0.9611 @ I n
-1.3334 @ I sr
-1.5632 @ I t
-0.6301 @ I tc
-1.3334 @ I th
-1.3334 @ I w
-1.3334 @ I y
-2.0825 @ N &
-2.7237 @ N &r
-2.2422 @ N >
-2.3514 @ N @
-2.3514 @ N A
-1.3156 @ N C
-2.4975 @ N E
-2.2934 @ N I
-1.2988 @ N cC
-1.6167 @ N cCh
-2.0204 @ N e
-1.8954 @ N f
-1.1551 @ N i
-1.7815 @ N ixr
-1.7651 @ N j
-2.4975 @ N jw
-1.5944 @ N k
-1.7985 @ N kh
-1.5063 @ N l
-1.3835 @ N m
-1.4483 @ N n
-1.9923 @ N o
-1.3835 @ N p
-2.1173 @ N ph
-2.1173 @ N r&
-1.5244 @ N s
-1.2280 @ N sr
-2.2422 @ N t
-0.6213 @ N tc
-1.8540 @ N th
-1.7651 @ N thsr
-1.9660 @ N ts
-1.9660 @ N tsh
-1.4889 @ N tsr
-1.6913 @ N u
-1.6913 @ N w
-1.6402 @ N x
-1.7985 @ N y
-1.5566 @ cC &
-0.9880 @ cC E
-1.7864 @ cC N
-1.7864 @ cC cCh
-0.5380 @ cC i
-1.0751 @ cC ixr
-0.9502 @ cC j
-1.5566 @ cC jw
-1.7864 @ cC m
-1.3304 @ cC n
-1.7864 @ cC sr
-1.7864 @ cC tc
-1.7864 @ cC thsr
-0.9154 @ cC y
-1.6379 @ cCh &
-1.4081 @ cCh E
-1.4081 @ cCh N
-0.6255 @ cCh i
-1.2831 @ cCh ixr
-0.9777 @ cCh j
-1.6379 @ cCh l
-1.1818 @ cCh m
-1.2831 @ cCh n
-1.6379 @ cCh sr
-1.1027 @ cCh tc
-1.6379 @ cCh th
-1.6379 @ cCh u
-1.2831 @ cCh y
-1.5050 @ e C
-0.8638 @ e E
-1.0746 @ e N
-1.0235 @ e i
-0.9363 @ e j
-1.3800 @ e jw
-0.8638 @ e n
-1.1996 @ e o
-1.7348 @ e ph
-1.7348 @ e s
-1.5050 @ e sr
-1.7348 @ e tsr
-1.0746 @ e y
-1.0881 @ f &
-1.9244 @ f &r
-1.3892 @ f >
-0.8886 @ f @
-0.9369 @ f A
-1.6946 @ f C
-1.9244 @ f I
-1.3222 @ f N
-1.6946 @ f cC
-1.6946 @ f e
-1.4683 @ f i
-1.2642 @ f ixr
-1.9244 @ f j
-1.9244 @ f m
-1.3892 @ f n
-1.4683 @ f o
-1.5696 @ f p
-1.5696 @ f sr
-1.6946 @ f t
-1.6946 @ f tc
-1.9244 @ f thsr
-1.9244 @ f ts
-1.9244 @ f tsr
-1.1259 @ f u
-1.2642 @ f w
-1.6946 @ f x
-2.1021 @ i &
-2.7622 @ i &r
-2.7622 @ i >
-2.4075 @ i @
-1.7264 @ i A
-1.5000 @ i C
-1.2270 @ i E
-2.7622 @ i I
-1.1601 @ i N
-2.0052 @ i cC
-2.1021 @ i cCh
-2.3062 @ i e
-2.3062 @ i f
-1.9260 @ i ixr
-1.5738 @ i j
-2.0509 @ i jw
-2.0509 @ i k
-1.9638 @ i kh
-1.6830 @ i l
-1.1419 @ i m
-1.1478 @ i n
-1.2809 @ i o
-2.2270 @ i p
-2.7622 @ i ph
-2.1601 @ i r&
-1.8011 @ i s
-1.1727 @ i sr
-0.5803 @ i tc
-2.0509 @ i th
-1.9260 @ i thsr
-2.4075 @ i ts
-2.0509 @ i tsh
-1.9638 @ i tsr
-1.6250 @ i u
-1.7042 @ i w
-1.7042 @ i x
-1.6250 @ i y
-2.1932 @ ixr &
-1.5331 @ ixr C
-1.4362 @ ixr N
-1.5911 @ ixr cC
-1.7372 @ ixr cCh
-1.9634 @ ixr e
-2.1932 @ ixr f
-1.4362 @ ixr i
-1.4819 @ ixr j
-1.5911 @ ixr k
-1.5331 @ ixr kh
-1.3948 @ ixr l
-1.3948 @ ixr m
-1.1574 @ ixr n
-1.9634 @ ixr o
-1.9634 @ ixr p
-2.1932 @ ixr ph
-1.8385 @ ixr r&
-1.7372 @ ixr s
-0.9590 @ ixr sr
-1.9634 @ ixr t
-0.5849 @ ixr tc
-2.1932 @ ixr th
-2.1932 @ ixr thsr
-1.9634 @ ixr ts
-1.7372 @ ixr tsr
-1.7372 @ ixr u
-1.3570 @ ixr w
-1.8385 @ ixr x
-1.8385 @ ixr y
-2.4435 @ j &
-2.4947 @ j &r
-2.5527 @ j >
-2.8001 @ j @
-1.7350 @ j A
-1.4840 @ j C
-1.5717 @ j E
-2.6196 @ j I
-1.5001 @ j N
-1.5057 @ j cC
-1.8415 @ j cCh
-2.6196 @ j e
-1.9998 @ j f
-1.3766 @ j i
-1.9064 @ j ixr
-3.1548 @ j jw
-1.9354 @ j k
-1.7745 @ j kh
-1.6269 @ j l
-1.6343 @ j m
-1.0304 @ j n
-1.4246 @ j o
-1.8926 @ j p
-2.3978 @ j ph
-2.1936 @ j r&
-1.8067 @ j s
-1.3150 @ j sr
-2.3186 @ j t
-0.4730 @ j tc
-2.1425 @ j th
-1.9506 @ j thsr
-2.3186 @ j ts
-2.8001 @ j tsh
-1.6124 @ j tsr
-1.9828 @ j u
-1.5782 @ j w
-1.6419 @ j x
-1.6988 @ j y
-1.8128 @ jw &
-2.0426 @ jw &r
-1.3825 @ jw @
-2.0426 @ jw A
-0.5074 @ jw E
-2.0426 @ jw I
-2.0426 @ jw e
-1.3313 @ jw i
-1.5074 @ jw ixr
-0.7670 @ jw j
-0.7415 @ jw o
-2.0426 @ jw r&
-1.5074 @ jw sr
-1.2064 @ jw y
-1.5279 @ k &
-0.8166 @ k @
-0.9927 @ k A
-1.5279 @ k E
-1.2981 @ k e
-1.0719 @ k i
-0.9927 @ k j
-1.5279 @ k m
-1.2981 @ k o
-1.5279 @ k sr
-1.5279 @ k thsr
-1.2981 @ k u
-1.0719 @ k w
-1.1097 @ kh &
-1.4151 @ kh &r
-1.7699 @ kh >
-1.0128 @ kh @
-1.3139 @ kh A
-1.4151 @ kh E
-1.2347 @ kh N
-1.4151 @ kh cCh
-1.7699 @ kh e
-1.7699 @ kh f
-1.5401 @ kh i
-1.5401 @ kh ixr
-1.5401 @ kh j
-1.7699 @ kh k
-1.5401 @ kh l
-1.2347 @ kh n
-1.7699 @ kh o
-1.5401 @ kh r&
-1.7699 @ kh s
-1.5401 @ kh t
-1.1097 @ kh tc
-1.5401 @ kh u
-1.3139 @ kh w
-0.8862 @ l &
-1.8495 @ l &r
-1.9676 @ l >
-0.7277 @ l @
-1.1035 @ l A
-2.2686 @ l C
-1.0015 @ l E
-1.8293 @ l I
-1.5807 @ l N
-2.9288 @ l cC
-2.9288 @ l cCh
-1.1225 @ l e
-2.9288 @ l f
-1.3144 @ l i
-1.6532 @ l ixr
-1.2322 @ l j
-2.4728 @ l jw
-2.3936 @ l k
-2.5740 @ l kh
-2.0256 @ l m
-1.9413 @ l n
-1.3457 @ l o
-1.9676 @ l p
-2.2175 @ l r&
-2.4728 @ l s
-1.7246 @ l sr
-1.9165 @ l t
-1.9165 @ l tc
-2.3266 @ l th
-2.5740 @ l thsr
-2.9288 @ l ts
-2.3936 @ l tsr
-1.5919 @ l u
-1.6035 @ l w
-2.1717 @ l x
-1.8495 @ l y
-0.9274 @ m &
-2.1579 @ m &r
-1.5558 @ m >
-1.1231 @ m @
-1.1507 @ m A
-2.1579 @ m C
-1.9360 @ m E
-1.8568 @ m I
-1.2370 @ m N
-1.8946 @ m cC
-2.1579 @ m cCh
-1.1035 @ m e
-2.6931 @ m f
-0.9770 @ m i
-1.8221 @ m ixr
-1.5558 @ m j
-2.4633 @ m k
-2.1579 @ m kh
-2.0909 @ m l
-1.5936 @ m n
-1.4889 @ m o
-2.0329 @ m p
-2.1579 @ m ph
-2.0329 @ m r&
-2.3383 @ m s
-1.4889 @ m sr
-1.8221 @ m t
-1.4589 @ m tc
-1.8568 @ m th
-2.2370 @ m thsr
-2.4633 @ m ts
-2.6931 @ m tsh
-1.7599 @ m tsr
-1.2036 @ m u
-1.4589 @ m w
-1.6573 @ m x
-1.9818 @ m y
-1.7276 @ n &
-2.9687 @ n &r
-2.6633 @ n >
-1.6170 @ n @
-1.9754 @ n A
-1.7339 @ n C
-1.8106 @ n E
-2.2240 @ n I
-1.4266 @ n N
-1.4592 @ n cC
-2.3112 @ n cCh
-1.4203 @ n e
-2.1685 @ n f
-0.6370 @ n i
-1.8675 @ n ixr
-1.4426 @ n j
-2.1351 @ n jw
-1.7603 @ n k
-2.0893 @ n kh
-1.4329 @ n l
-1.3088 @ n m
-2.0224 @ n o
-1.5797 @ n p
-2.0893 @ n ph
-2.0751 @ n r&
-2.0224 @ n s
-1.4983 @ n sr
-1.7031 @ n t
-0.8277 @ n tc
-1.8182 @ n th
-2.1193 @ n thsr
-1.7811 @ n ts
-2.4873 @ n tsh
-1.9754 @ n tsr
-1.6688 @ n u
-1.8261 @ n w
-1.9982 @ n x
-1.6856 @ n y
-1.7551 @ o &
-1.0518 @ o >
-1.9849 @ o @
-1.6302 @ o C
-1.9849 @ o I
-0.8129 @ o N
-1.9849 @ o cC
-1.7551 @ o cCh
-1.7551 @ o e
-1.7551 @ o i
-1.9849 @ o ixr
-1.7551 @ o j
-1.7551 @ o k
-1.5289 @ o l
-1.2736 @ o m
-1.9849 @ o n
-1.9849 @ o p
-1.1865 @ o sr
-1.9849 @ o t
-1.0818 @ o tc
-1.7551 @ o ts
-1.9849 @ o tsr
-0.9057 @ o u
-1.0238 @ o w
-1.5289 @ o x
-1.0792 @ p @
-1.1805 @ p e
-0.6320 @ p i
-1.5352 @ p j
-1.1805 @ p sr
-1.3054 @ p tc
-0.7782 @ p u
-1.0792 @ p w
-1.5352 @ p x
-1.5352 @ p y
-1.6083 @ ph &
-1.3785 @ ph >
-1.6083 @ ph @
-1.6083 @ ph A
-1.3785 @ ph N
-1.6083 @ ph cC
-0.9482 @ ph i
-1.1523 @ ph ixr
-1.1523 @ ph j
-1.2536 @ ph m
-1.6083 @ ph n
-1.6083 @ ph o
-1.1523 @ ph sr
-1.6083 @ ph t
-1.3785 @ ph tc
-1.6083 @ ph thsr
-1.1523 @ ph tsr
-1.3785 @ ph u
-1.6083 @ ph w
-1.6083 @ ph x
-1.6083 @ ph y
-1.1614 @ r& &
-1.8215 @ r& >
-1.1614 @ r& @
-1.1614 @ r& A
-1.0231 @ r& E
-1.8215 @ r& I
-1.0645 @ r& N
-1.8215 @ r& e
-1.8215 @ r& i
-1.1614 @ r& ixr
-1.4668 @ r& j
-1.8215 @ r& n
-0.9505 @ r& o
-1.8215 @ r& p
-1.5917 @ r& sr
-1.8215 @ r& tc
-0.9853 @ r& u
-1.2863 @ r& w
-1.4668 @ r& x
-1.2928 @ s &
-1.2417 @ s @
-1.5982 @ s A
-1.5982 @ s C
-1.9530 @ s E
-1.4969 @ s I
-1.4177 @ s cC
-1.5982 @ s cCh
-1.5982 @ s e
-1.3508 @ s f
-1.7231 @ s i
-1.4177 @ s ixr
-1.7231 @ s j
-1.3508 @ s kh
-1.7231 @ s m
-1.2928 @ s n
-1.5982 @ s p
-1.4177 @ s sr
-1.3508 @ s t
-1.1959 @ s tc
-1.9530 @ s th
-1.2417 @ s thsr
-1.3508 @ s ts
-1.4969 @ s tsh
-1.5982 @ s tsr
-1.3508 @ s u
-1.4177 @ s w
-1.7231 @ s x
-1.3172 @ sr &
-2.4829 @ sr &r
-2.1775 @ sr >
-1.3904 @ sr @
-1.6335 @ sr A
-1.9045 @ sr C
-1.5893 @ sr E
-1.6657 @ sr I
-2.0392 @ sr N
-1.3994 @ sr cC
-1.5893 @ sr cCh
-1.8765 @ sr e
-2.0392 @ sr f
-1.5366 @ sr i
-0.8376 @ sr ixr
-1.6657 @ sr j
-1.7189 @ sr jw
-1.6657 @ sr k
-1.9045 @ sr kh
-1.9667 @ sr l
-1.6827 @ sr m
-1.3248 @ sr n
-1.4896 @ sr o
-1.7004 @ sr p
-2.3025 @ sr ph
-2.2355 @ sr r&
-1.9345 @ sr s
-1.5124 @ sr t
-1.2744 @ sr tc
-2.0806 @ sr th
-1.3994 @ sr thsr
-1.9667 @ sr ts
-1.9045 @ sr tsh
-1.5621 @ sr tsr
-1.4085 @ sr u
-1.4574 @ sr w
-1.8019 @ sr x
-1.3403 @ sr y
-1.1188 @ t &
-1.1188 @ t @
-1.1188 @ t cCh
-1.1188 @ t tc
-1.1188 @ t u
-1.1188 @ t w
-1.8586 @ tc &
-2.5214 @ tc &r
-2.4422 @ tc >
-2.1064 @ tc @
-2.9774 @ tc A
-2.0443 @ tc C
-2.4422 @ tc I
-2.5214 @ tc N
-0.9044 @ tc cC
-1.2910 @ tc cCh
-2.0162 @ tc e
-2.2661 @ tc f
-2.0742 @ tc i
-2.0443 @ tc ixr
-2.1412 @ tc j
-2.9774 @ tc jw
-1.2118 @ tc k
-1.2519 @ tc kh
-2.2204 @ tc l
-2.2204 @ tc m
-2.1790 @ tc n
-2.7476 @ tc o
-1.0590 @ tc p
-1.7432 @ tc ph
-2.6227 @ tc r&
-2.2204 @ tc s
-1.4142 @ tc sr
-1.0162 @ tc t
-1.4210 @ tc th
-1.3511 @ tc thsr
-1.0933 @ tc ts
-1.8054 @ tc tsh
-0.8605 @ tc tsr
-1.9899 @ tc u
-2.1412 @ tc w
-1.8402 @ tc x
-2.6227 @ tc y
-1.4317 @ th &
-1.4317 @ th &r
-1.1843 @ th @
-1.1263 @ th A
-1.7864 @ th C
-1.7864 @ th E
-1.3304 @ th N
-1.4317 @ th cC
-1.7864 @ th e
-0.9154 @ th i
-1.5566 @ th j
-1.7864 @ th k
-1.5566 @ th m
-1.0751 @ th n
-1.5566 @ th o
-1.5566 @ th sr
-0.9502 @ th tc
-1.5566 @ th u
-1.4317 @ th w
-1.7864 @ th x
-1.7864 @ th y
-1.4193 @ thsr &
-1.7741 @ thsr &r
-1.1719 @ thsr @
-1.1719 @ thsr A
-1.7741 @ thsr C
-1.3181 @ thsr E
-1.3181 @ thsr N
-1.4193 @ thsr cC
-1.5443 @ thsr f
-1.2389 @ thsr i
-1.4193 @ thsr j
-1.5443 @ thsr l
-1.3181 @ thsr n
-1.4193 @ thsr o
-1.3181 @ thsr sr
-1.7741 @ thsr t
-1.1139 @ thsr tc
-1.0170 @ thsr u
-1.4193 @ thsr w
-1.7741 @ thsr x
-0.7533 @ ts &
-0.8325 @ ts @
-0.9338 @ ts E
-1.2885 @ ts I
-1.2885 @ ts n
-1.2885 @ ts u
-1.0587 @ ts w
-1.2885 @ ts x
-1.1805 @ tsh &
-1.4103 @ tsh &r
-1.4103 @ tsh @
-1.4103 @ tsh A
-1.4103 @ tsh E
-1.4103 @ tsh cC
-1.1805 @ tsh i
-1.1805 @ tsh n
-1.4103 @ tsh o
-1.4103 @ tsh sr
-1.4103 @ tsh t
-1.4103 @ tsh tc
-1.1805 @ tsh u
-0.9542 @ tsh w
-1.1805 @ tsh x
-1.2002 @ tsr &
-1.4476 @ tsr @
-1.8024 @ tsr E
-1.3464 @ tsr e
-1.0911 @ tsr i
-1.0453 @ tsr ixr
-1.1422 @ tsr j
-1.8024 @ tsr l
-1.1422 @ tsr n
-1.1422 @ tsr o
-1.8024 @ tsr sr
-1.5726 @ tsr t
-1.2002 @ tsr tc
-1.8024 @ tsr th
-1.8024 @ tsr thsr
-1.0911 @ tsr u
-1.1422 @ tsr w
-1.4476 @ tsr y
-2.0624 @ u >
-1.7077 @ u A
-1.3054 @ u C
-1.8326 @ u I
-1.8326 @ u N
-1.5272 @ u cC
-1.7077 @ u e
-1.8326 @ u f
-1.1293 @ u i
-1.8326 @ u j
-1.7077 @ u jw
-1.7077 @ u k
-2.0624 @ u kh
-1.6064 @ u l
-1.7077 @ u m
-1.3511 @ u n
-1.7077 @ u o
-1.8326 @ u p
-2.0624 @ u r&
-1.6064 @ u s
-0.8282 @ u sr
-0.7868 @ u tc
-1.4023 @ u thsr
-2.0624 @ u ts
-2.0624 @ u tsh
-1.2262 @ u tsr
-1.7077 @ u x
-1.2262 @ u y
-1.9573 @ w &
-2.1569 @ w &r
-1.3384 @ w >
-1.8936 @ w @
-2.1569 @ w A
-1.6562 @ w C
-2.3909 @ w E
-2.4579 @ w I
-1.7309 @ w N
-1.5036 @ w cC
-1.6797 @ w cCh
-1.8211 @ w e
-1.7736 @ w f
-1.6562 @ w i
-2.0599 @ w ixr
-1.7889 @ w j
-2.6383 @ w jw
-1.8047 @ w k
-1.5285 @ w kh
-1.4957 @ w l
-1.4035 @ w m
-1.6026 @ w n
-2.7633 @ w o
-1.8211 @ w p
-2.3329 @ w ph
-2.6383 @ w r&
-1.4367 @ w s
-1.2148 @ w sr
-2.2360 @ w t
-0.5985 @ w tc
-2.0899 @ w th
-1.6678 @ w thsr
-1.6797 @ w ts
-1.9573 @ w tsh
-1.4802 @ w tsr
-1.1122 @ w u
-1.4507 @ w x
-2.1946 @ w y
-1.5714 @ x &
-1.6128 @ x &r
-1.4087 @ x >
-1.2326 @ x @
-1.1978 @ x A
-1.8346 @ x C
-1.7677 @ x I
-1.3575 @ x N
-1.7097 @ x cC
-1.7677 @ x cCh
-2.1400 @ x e
-2.3698 @ x f
-1.5714 @ x i
-1.7097 @ x ixr
-2.1400 @ x j
-1.4367 @ x k
-1.3823 @ x kh
-2.3698 @ x l
-1.4667 @ x n
-1.5336 @ x o
-1.2906 @ x p
-2.3698 @ x ph
-2.1400 @ x r&
-1.5336 @ x sr
-1.9138 @ x t
-1.2511 @ x tc
-1.9138 @ x th
-1.8346 @ x thsr
-1.6585 @ x ts
-1.8346 @ x tsh
-1.3340 @ x tsr
-1.2704 @ x u
-0.9052 @ x w
-2.1400 @ x y
-1.9824 @ y &
-1.4472 @ y C
-1.6276 @ y E
-1.9824 @ y N
-1.4472 @ y cC
-1.1839 @ y i
-1.9824 @ y ixr
-1.6276 @ y j
-1.9824 @ y kh
-1.7526 @ y l
-1.5263 @ y m
-1.2253 @ y n
-1.5263 @ y o
-1.9824 @ y p
-1.7526 @ y s
-0.8829 @ y sr
-0.6455 @ y tc
-1.6276 @ y th
-1.3802 @ y thsr
-1.2253 @ y tsr
-1.2711 @ y u
-1.9824 @ y w
-1.7526 @ y x
-1.9951 A & @
-1.9951 A & C
-1.9951 A & I
-1.1967 A & N
-1.6404 A & cC
-1.7653 A & f
-1.2838 A & i
-1.6404 A & j
-1.9951 A & k
-1.2838 A & l
-1.3350 A & m
-0.7609 A & n
-1.9951 A & p
-1.5391 A & s
-1.2380 A & sr
-0.5753 A & tc
-1.9951 A & tsr
-1.6404 A & u
-1.5391 A & w
-1.5391 A & x
-1.9951 A & y
-1.6052 A &r &
-1.6721 A &r >
-1.9775 A &r @
-1.6721 A &r A
-1.6721 A &r C
-2.2073 A &r I
-1.3711 A &r N
-1.4960 A &r cC
-1.4089 A &r cCh
-2.2073 A &r e
-1.8526 A &r f
-1.7513 A &r i
-1.8526 A &r ixr
-1.6721 A &r j
-1.6721 A &r k
-1.3711 A &r kh
-1.4960 A &r l
-1.5472 A &r m
-1.1280 A &r n
-1.8526 A &r p
-2.2073 A &r r&
-1.7513 A &r s
-1.2198 A &r sr
-1.8526 A &r t
-0.8592 A &r tc
-1.8526 A &r th
-1.5472 A &r thsr
-1.6052 A &r ts
-1.6052 A &r tsh
-1.4502 A &r tsr
-1.9775 A &r u
-1.3363 A &r w
-1.2198 A &r x
-2.2073 A &r y
-1.5840 A > &
-1.6420 A > @
-1.5840 A > C
-1.2319 A > N
-1.5329 A > cC
-2.0144 A > cCh
-2.0144 A > e
-2.2442 A > f
-1.3732 A > i
-2.0144 A > ixr
-1.6420 A > j
-2.0144 A > k
-2.0144 A > kh
-1.3410 A > l
-1.1254 A > m
-1.0558 A > n
-1.4080 A > p
-2.2442 A > ph
-1.7882 A > s
-1.1649 A > sr
-0.7090 A > tc
-2.2442 A > th
-1.8894 A > thsr
-2.0144 A > tsh
-1.4871 A > tsr
-1.8894 A > u
-1.3110 A > w
-1.4080 A > x
-2.2442 A > y
-1.6765 A @ &
-1.8014 A @ >
-1.5752 A @ C
-0.9519 A @ N
-1.6765 A @ cC
-1.0981 A @ i
-1.3711 A @ ixr
-0.9124 A @ j
-1.6765 A @ jw
-1.2742 A @ l
-0.6307 A @ n
-2.0312 A @ o
-2.0312 A @ s
-1.0981 A @ sr
-1.2328 A @ tc
-1.4960 A @ w
-2.0312 A @ x
-2.0312 A @ y
-1.5523 A C E
-1.8577 A C N
-1.0751 A C cC
-1.5523 A C cCh
-2.0875 A C e
-0.8119 A C i
-1.2512 A C ixr
-1.0517 A C j
-1.5523 A C jw
-2.0875 A C k
-1.8577 A C kh
-2.0875 A C m
-1.4273 A C n
-1.8577 A C o
-1.8577 A C p
-1.7327 A C ph
-1.8577 A C r&
-1.7327 A C sr
-1.1843 A C tc
-1.7327 A C th
-1.4273 A C thsr
-1.7327 A C ts
-1.4853 A C tsr
-1.4273 A C u
-1.5523 A C w
-1.8577 A C x
-1.1263 A C y
-1.1720 A E C
-0.9422 A E N
-1.1720 A E ixr
-0.9422 A E m
-0.9422 A E n
-1.1720 A E r&
-0.9422 A E tc
-1.1720 A E x
-1.4193 A I @
-1.6491 A I A
-1.6491 A I C
-1.1139 A I N
-1.4193 A I e
-1.6491 A I f
-1.0470 A I i
-1.6491 A I l
-1.6491 A I m
-1.1931 A I n
-1.6491 A I p
-1.1931 A I s
-1.1931 A I sr
-0.6880 A I tc
-1.6491 A I thsr
-1.4193 A I x
-2.2401 A N &
-2.3905 A N &r
-2.1864 A N >
-2.2722 A N @
-2.2400 A N A
-1.5800 A N C
-2.6872 A N E
-2.0244 A N I
-1.5053 A N cC
-1.7427 A N cCh
-1.9390 A N e
-1.7734 A N f
-1.3487 A N i
-1.8179 A N ixr
-1.8676 A N j
-2.4319 A N jw
-1.7140 A N k
-1.6959 A N kh
-1.4177 A N l
-1.2308 A N m
-1.4619 A N n
-2.2722 A N o
-1.5053 A N p
-1.9548 A N ph
-2.2400 A N r&
-1.5410 A N s
-1.1006 A N sr
-2.2400 A N t
-0.5588 A N tc
-1.9090 A N th
-1.7427 A N thsr
-1.9237 A N ts
-2.0059 A N tsh
-1.5536 A N tsr
-1.5938 A N u
-1.6458 A N w
-1.6227 A N x
-1.9090 A N y
-1.7033 A cC &
-1.7033 A cC C
-1.2596 A cC E
-2.0581 A cC I
-1.6021 A cC N
-1.7033 A cC e
-0.7825 A cC i
-1.0458 A cC ixr
-0.9788 A cC j
-1.1549 A cC jw
-2.0581 A cC l
-1.5229 A cC m
-1.6021 A cC n
-2.0581 A cC o
-2.0581 A cC s
-1.6021 A cC sr
-2.0581 A cC t
-1.2596 A cC tc
-2.0581 A cC th
-2.0581 A cC thsr
-2.0581 A cC ts
-1.7033 A cC u
-2.0581 A cC w
-0.8097 A cC y
-1.8938 A cCh &
-1.8938 A cCh >
-1.6640 A cCh A
-1.8938 A cCh C
-1.2336 A cCh E
-1.4378 A cCh N
-1.6640 A cCh cC
-0.9326 A cCh i
-0.9906 A cCh ixr
-1.3586 A cCh j
-1.2916 A cCh jw
-1.8938 A cCh kh
-1.6640 A cCh l
-1.6640 A cCh m
-1.6640 A cCh n
-1.8938 A cCh o
-1.6640 A cCh r&
-1.5390 A cCh s
-1.2336 A cCh sr
-1.0228 A cCh tc
-1.8938 A cCh th
-1.8938 A cCh tsh
-1.8938 A cCh tsr
-1.3586 A cCh u
-1.1367 A cCh y
-1.6709 A e C
-1.1357 A e E
-1.6709 A e I
-1.2148 A e N
-1.4411 A e cC
-0.7097 A e i
-0.9138 A e j
-1.6709 A e k
-1.2148 A e n
-1.6709 A e o
-1.6709 A e sr
-1.3161 A e tc
-1.6709 A e th
-1.6709 A e tsr
-1.4411 A e u
-1.3161 A e y
-1.1393 A f &
-1.9455 A f &r
-1.3222 A f >
-0.8663 A f @
-0.8056 A f A
-1.6030 A f I
-1.5305 A f N
-1.9455 A f cC
-1.9455 A f cCh
-1.4683 A f e
-1.6444 A f i
-1.5653 A f ixr
-2.4015 A f j
-1.6444 A f k
-1.7413 A f kh
-2.0467 A f l
-1.9455 A f m
-1.6444 A f n
-1.3892 A f o
-1.8663 A f p
-2.1717 A f ph
-1.9455 A f s
-1.4403 A f sr
-1.6030 A f t
-1.7413 A f tc
-1.9455 A f thsr
-2.4015 A f ts
-2.4015 A f tsh
-1.8663 A f tsr
-1.2131 A f u
-1.2642 A f w
-2.0467 A f x
-2.1717 A f y
-1.6242 A i &
-1.8540 A i &r
-1.3979 A i C
-1.2518 A i E
-1.1938 A i N
-1.6242 A i cCh
-1.8540 A i ixr
-1.3979 A i j
-1.8540 A i k
-1.8540 A i kh
-1.0177 A i m
-1.1938 A i n
-1.3979 A i o
-1.8540 A i p
-1.8540 A i r&
-1.8540 A i s
-1.4992 A i sr
-0.5654 A i tc
-1.8540 A i u
-1.8540 A i w
-1.6242 A i x
-1.6242 A i y
-1.6310 A ixr C
-1.8609 A ixr E
-1.5061 A ixr N
-1.2587 A ixr cC
-1.1496 A ixr i
-1.8609 A ixr k
-1.8609 A ixr l
-1.6310 A ixr m
-1.1038 A ixr n
-1.8609 A ixr o
-1.6310 A ixr r&
-1.4048 A ixr s
-0.9899 A ixr sr
-0.5017 A ixr tc
-1.2587 A ixr w
-1.6310 A ixr x
-1.9985 A j &
-2.2283 A j &r
-2.2283 A j >
-1.6262 A j @
-1.8736 A j A
-1.8736 A j C
-2.2283 A j E
-1.6931 A j N
-1.3573 A j cC
-1.8736 A j cCh
-1.9985 A j f
-1.9985 A j i
-1.9985 A j jw
-1.3252 A j k
-1.3573 A j kh
-1.6931 A j l
-1.5682 A j m
-1.3573 A j n
-1.5170 A j o
-1.2672 A j p
-1.7723 A j ph
-1.9985 A j s
-1.4299 A j sr
-1.5170 A j t
-0.6584 A j tc
-1.5682 A j th
-1.5170 A j thsr
-1.7723 A j ts
-1.1925 A j tsr
-1.4299 A j w
-1.6262 A j x
-1.6931 A j y
-0.6232 A jw E
-1.5564 A jw f
-1.5564 A jw i
-1.3266 A jw ixr
-0.8963 A jw j
-0.6532 A jw o
-1.3266 A jw sr
-1.5564 A jw w
-1.1004 A jw y
-1.2983 A k &
-0.7542 A k >
-1.6037 A k @
-1.3563 A k A
-1.9584 A k C
-1.3563 A k E
-1.7286 A k N
-1.9584 A k cC
-1.9584 A k e
-1.2014 A k i
-1.9584 A k m
-1.7286 A k n
-1.3563 A k o
-1.9584 A k p
-1.3563 A k sr
-1.2983 A k tc
-0.9226 A k u
-0.8792 A k w
-1.9584 A k x
-1.9584 A k y
-1.3301 A kh &
-1.4440 A kh &r
-1.6659 A kh >
-1.3301 A kh @
-1.0461 A kh A
-2.2011 A kh E
-1.9713 A kh I
-1.5989 A kh N
-1.8463 A kh cC
-2.2011 A kh cCh
-1.5989 A kh e
-1.7451 A kh f
-1.4440 A kh i
-1.5989 A kh ixr
-1.8463 A kh j
-1.5410 A kh k
-1.5989 A kh l
-1.4440 A kh m
-1.2979 A kh n
-1.3301 A kh o
-1.9713 A kh p
-2.2011 A kh ph
-2.2011 A kh r&
-1.9713 A kh s
-1.5410 A kh sr
-1.8463 A kh t
-1.4898 A kh tc
-1.8463 A kh th
-1.7451 A kh thsr
-1.4898 A kh ts
-1.9713 A kh tsh
-1.7451 A kh tsr
-0.9527 A kh u
-1.4440 A kh w
-1.5989 A kh x
-1.9713 A kh y
-0.8734 A l &
-2.0707 A l &r
-1.4686 A l >
-0.9019 A l @
-0.9457 A l A
-2.2467 A l C
-1.3940 A l E
-1.7027 A l I
-1.4871 A l N
-2.3717 A l cC
-2.4509 A l cCh
-1.0780 A l e
-1.3303 A l i
-1.6585 A l ixr
-1.4423 A l j
-2.1498 A l jw
-2.3717 A l k
-2.6771 A l kh
-1.7696 A l m
-1.9194 A l n
-1.4338 A l o
-1.8074 A l p
-2.4509 A l ph
-1.9194 A l r&
-2.4509 A l s
-1.8946 A l sr
-1.7027 A l t
-1.7519 A l tc
-2.1084 A l th
-2.3717 A l thsr
-2.3047 A l ts
-2.5521 A l tsr
-1.4509 A l u
-1.3790 A l w
-1.8711 A l x
-1.8488 A l y
-0.9581 A m &
-2.1531 A m &r
-1.3514 A m >
-1.1604 A m @
-0.9867 A m A
-2.0281 A m C
-2.0561 A m E
-1.7551 A m I
-1.2028 A m N
-2.1183 A m cC
-2.6345 A m cCh
-1.1150 A m e
-2.4541 A m f
-1.1988 A m i
-1.6882 A m ixr
-1.7271 A m j
-2.3871 A m jw
-2.1908 A m k
-2.2322 A m kh
-2.0018 A m l
-1.6090 A m n
-1.4688 A m o
-1.7851 A m p
-2.1531 A m ph
-2.7595 A m r&
-2.2780 A m s
-1.5420 A m sr
-1.4398 A m t
-1.4919 A m tc
-1.9535 A m th
-2.3291 A m thsr
-2.7595 A m ts
-2.7595 A m tsh
-1.8520 A m tsr
-1.2194 A m u
-1.4127 A m w
-1.7409 A m x
-1.9312 A m y
-1.6016 A n &
-2.4132 A n &r
-2.4924 A n >
-1.4088 A n @
-1.4161 A n A
-2.0408 A n C
-1.8647 A n E
-2.0730 A n I
-1.5637 A n N
-1.3946 A n cC
-2.2839 A n cCh
-1.2893 A n e
-2.1456 A n f
-0.6998 A n i
-1.8067 A n ixr
-1.4088 A n j
-2.0408 A n jw
-1.6956 A n k
-2.3419 A n kh
-1.5742 A n l
-1.4016 A n m
-1.9828 A n o
-1.3808 A n p
-2.0408 A n ph
-2.1870 A n r&
-2.0730 A n s
-1.6307 A n sr
-1.5242 A n t
-0.9245 A n tc
-1.8067 A n th
-2.1078 A n thsr
-1.6072 A n ts
-2.4880 A n tsh
-1.9317 A n tsr
-1.6956 A n u
-1.9317 A n w
-2.0730 A n x
-1.7398 A n y
-1.8609 A o &
-0.9277 A o >
-1.8609 A o A
-0.8997 A o N
-1.8609 A o cC
-1.8609 A o cCh
-1.5061 A o e
-1.3257 A o k
-1.6310 A o kh
-1.1496 A o m
-1.8609 A o n
-1.8609 A o p
-1.6310 A o s
-1.8609 A o sr
-1.8609 A o t
-1.8609 A o tc
-1.8609 A o thsr
-1.6310 A o tsr
-1.0246 A o u
-0.6566 A o w
-1.8609 A o x
-1.2419 A p &
-1.8105 A p &r
-1.4382 A p >
-1.3291 A p @
-1.2419 A p A
-2.0404 A p C
-2.0404 A p E
-1.5843 A p N
-1.5051 A p cC
-1.6856 A p e
-0.8519 A p i
-2.0404 A p ixr
-1.3802 A p j
-2.0404 A p jw
-2.0404 A p k
-2.0404 A p kh
-1.6856 A p l
-1.6856 A p m
-1.5051 A p n
-1.5051 A p o
-1.3291 A p sr
-2.0404 A p t
-1.4382 A p tc
-1.6856 A p tsr
-0.8209 A p u
-1.4382 A p w
-1.8105 A p y
-1.5525 A ph &
-1.3263 A ph >
-1.7824 A ph @
-1.0711 A ph A
-1.7824 A ph E
-1.3263 A ph N
-1.3263 A ph cC
-1.7824 A ph f
-1.2472 A ph i
-1.5525 A ph ixr
-1.7824 A ph j
-1.7824 A ph jw
-1.7824 A ph k
-1.7824 A ph l
-1.7824 A ph m
-1.3263 A ph n
-1.4276 A ph o
-1.7824 A ph p
-1.7824 A ph s
-1.5525 A ph sr
-1.1222 A ph tc
-1.5525 A ph th
-1.7824 A ph thsr
-1.4276 A ph tsr
-1.5525 A ph u
-1.0711 A ph w
-1.5525 A ph x
-1.0560 A r& &
-1.7161 A r& >
-1.7161 A r& @
-0.9590 A r& A
-1.4863 A r& E
-1.1809 A r& N
-1.7161 A r& cC
-1.3613 A r& i
-1.4863 A r& kh
-1.7161 A r& m
-1.7161 A r& n
-0.7549 A r& o
-1.4863 A r& tc
-1.7161 A r& thsr
-1.3613 A r& ts
-1.4863 A r& u
-1.0048 A r& w
-1.7161 A r& x
-1.0998 A s &
-2.1833 A s &r
-1.8779 A s >
-1.4800 A s @
-1.5100 A s A
-2.0584 A s C
-2.4132 A s E
-1.3551 A s I
-1.7530 A s N
-1.5100 A s cC
-1.4256 A s cCh
-2.1833 A s e
-2.1833 A s f
-1.8110 A s i
-1.2089 A s ixr
-2.4132 A s j
-1.7019 A s k
-1.4256 A s kh
-2.1833 A s l
-1.8110 A s m
-1.4256 A s n
-2.0584 A s o
-1.4520 A s p
-2.0584 A s ph
-2.4132 A s r&
-1.2944 A s sr
-1.5100 A s t
-1.3551 A s tc
-2.0584 A s th
-1.3339 A s thsr
-1.2411 A s ts
-1.6561 A s tsh
-1.4008 A s tsr
-1.1937 A s u
-1.5769 A s w
-1.6561 A s x
-2.0584 A s y
-1.2902 A sr &
-2.0147 A sr &r
-2.2365 A sr >
-1.7093 A sr @
-1.7550 A sr A
-1.9689 A sr C
-1.9311 A sr E
-1.7093 A sr I
-1.8642 A sr N
-1.3871 A sr cC
-1.4788 A sr cCh
-1.8964 A sr e
-2.0561 A sr f
-1.5789 A sr i
-0.8459 A sr ixr
-1.5789 A sr j
-1.7799 A sr jw
-1.6486 A sr k
-1.8342 A sr kh
-1.7550 A sr l
-1.5631 A sr m
-1.4540 A sr n
-1.6486 A sr o
-1.7315 A sr p
-2.0103 A sr ph
-2.1072 A sr r&
-1.7799 A sr s
-1.6881 A sr t
-1.2621 A sr tc
-1.8642 A sr th
-1.5189 A sr thsr
-1.9689 A sr ts
-1.6124 A sr tsh
-1.5631 A sr tsr
-1.2943 A sr u
-1.4082 A sr w
-1.5953 A sr x
-1.4421 A sr y
-1.4717 A t &
-1.0994 A t @
-1.3468 A t A
-1.4717 A t E
-1.4717 A t N
-1.4717 A t e
-1.3468 A t i
-1.7015 A t ixr
-1.0994 A t j
-1.7015 A t jw
-1.7015 A t kh
-1.3468 A t l
-1.4717 A t n
-1.2455 A t o
-1.7015 A t s
-1.7015 A t sr
-1.1663 A t tc
-1.7015 A t th
-1.1663 A t u
-1.0414 A t w
-1.4717 A t x
-2.1920 A tc &
-2.3810 A tc &r
-2.7235 A tc >
-2.2183 A tc @
-2.1002 A tc A
-2.2183 A tc C
-2.9497 A tc E
-2.1672 A tc I
-2.9497 A tc N
-1.0664 A tc cC
-1.6300 A tc cCh
-2.0245 A tc e
-2.1214 A tc f
-2.1437 A tc i
-2.1672 A tc ixr
-2.4682 A tc j
-1.1128 A tc k
-1.1894 A tc kh
-2.3085 A tc l
-2.0075 A tc m
-2.1672 A tc n
-0.8808 A tc p
-1.5964 A tc ph
-2.3810 A tc r&
-1.9311 A tc s
-1.5359 A tc sr
-1.0025 A tc t
-1.3771 A tc th
-1.2732 A tc thsr
-1.2023 A tc ts
-1.6516 A tc tsh
-0.8821 A tc tsr
-1.9600 A tc u
-1.9600 A tc w
-1.8784 A tc x
-2.5773 A tc y
-1.2272 A th &
-1.8874 A th &r
-1.1303 A th @
-1.0512 A th A
-1.8874 A th C
-1.6576 A th E
-1.8874 A th I
-1.1761 A th N
-1.3522 A th cC
-1.0512 A th i
-1.6576 A th ixr
-1.2852 A th j
-1.8874 A th k
-1.4314 A th m
-1.3522 A th n
-1.5326 A th o
-1.6576 A th p
-1.4314 A th sr
-1.3522 A th tc
-1.8874 A th thsr
-1.6576 A th tsr
-1.1761 A th u
-1.5326 A th w
-1.8874 A th x
-1.6576 A th y
-1.4171 A thsr &
-1.4750 A thsr &r
-1.8474 A thsr >
-1.4750 A thsr @
-1.0649 A thsr A
-1.6212 A thsr E
-2.0772 A thsr I
-1.4750 A thsr N
-2.0772 A thsr cC
-1.8474 A thsr cCh
-1.6212 A thsr e
-1.7225 A thsr f
-1.6212 A thsr i
-1.7225 A thsr ixr
-2.0772 A thsr j
-1.7225 A thsr k
-1.8474 A thsr l
-1.3659 A thsr m
-1.4750 A thsr n
-1.2062 A thsr o
-1.6212 A thsr p
-1.7225 A thsr ph
-1.8474 A thsr s
-1.4750 A thsr sr
-0.9584 A thsr tc
-1.8474 A thsr th
-2.0772 A thsr ts
-0.9222 A thsr u
-1.2410 A thsr w
-1.7225 A thsr x
-0.8451 A ts &
-1.8063 A ts &r
-1.0078 A ts @
-1.5765 A ts A
-1.5765 A ts E
-1.4515 A ts I
-1.4515 A ts N
-1.4515 A ts e
-1.5765 A ts f
-1.8063 A ts i
-1.0492 A ts ixr
-1.5765 A ts j
-1.5765 A ts m
-1.8063 A ts n
-1.1461 A ts o
-1.2711 A ts sr
-1.8063 A ts tc
-0.9700 A ts u
-1.3502 A ts w
-1.5765 A ts x
-1.2522 A tsh &
-1.4564 A tsh @
-1.3772 A tsh A
-1.6826 A tsh I
-1.5576 A tsh N
-1.5576 A tsh cC
-1.9124 A tsh cCh
-1.9124 A tsh f
-1.2011 A tsh ixr
-1.5576 A tsh j
-1.3772 A tsh k
-1.5576 A tsh kh
-1.6826 A tsh l
-1.4564 A tsh m
-1.4564 A tsh n
-1.5576 A tsh o
-1.3772 A tsh s
-1.2522 A tsh sr
-1.5576 A tsh t
-0.8766 A tsh tc
-1.9124 A tsh th
-1.6826 A tsh thsr
-1.5576 A tsh ts
-1.4564 A tsh tsr
-1.4564 A tsh u
-1.4564 A tsh w
-1.0544 A tsr &
-1.7789 A tsr &r
-1.2626 A tsr @
-1.6776 A tsr A
-1.5315 A tsr E
-1.4735 A tsr I
-1.7789 A tsr N
-1.5315 A tsr e
-1.1725 A tsr i
-1.2974 A tsr ixr
-1.4735 A tsr j
-2.1336 A tsr jw
-1.7789 A tsr k
-2.1336 A tsr l
-1.4735 A tsr m
-1.2974 A tsr n
-1.0755 A tsr o
-1.9038 A tsr s
-1.9038 A tsr sr
-1.9038 A tsr t
-1.2005 A tsr tc
-2.1336 A tsr thsr
-2.1336 A tsr ts
-2.1336 A tsr tsh
-0.9294 A tsr u
-1.3352 A tsr w
-1.5984 A tsr x
-1.9038 A tsr y
-1.6964 A u &
-2.2236 A u &r
-1.9974 A u >
-2.4534 A u @
-2.2236 A u A
-1.6172 A u C
-2.0987 A u E
-1.6964 A u N
-1.6550 A u cC
-1.9182 A u cCh
-1.8513 A u e
-1.6964 A u f
-1.2650 A u i
-2.2236 A u ixr
-1.5824 A u j
-2.2236 A u jw
-1.6964 A u k
-1.7421 A u kh
-1.7933 A u l
-1.6172 A u m
-1.3539 A u n
-2.0987 A u o
-1.5824 A u p
-1.7421 A u ph
-1.9182 A u r&
-1.7421 A u s
-0.8638 A u sr
-1.9182 A u t
-0.6835 A u tc
-1.8513 A u th
-1.7933 A u thsr
-2.2236 A u ts
-2.2236 A u tsh
-1.4659 A u tsr
-1.4411 A u w
-1.5502 A u x
-1.4176 A u y
-1.9092 A w &
-2.0668 A w &r
-1.0778 A w >
-1.7146 A w @
-1.6911 A w A
-1.8644 A w C
-2.9742 A w E
-2.3678 A w I
-1.6082 A w N
-1.7938 A w cC
-2.0948 A w cCh
-1.8161 A w e
-1.6855 A w f
-1.6911 A w i
-2.1406 A w ixr
-1.7590 A w j
-2.5305 A w jw
-1.8316 A w k
-1.7590 A w kh
-1.4820 A w l
-1.3240 A w m
-1.4892 A w n
-2.2932 A w o
-1.7726 A w p
-2.1570 A w ph
-2.2709 A w r&
-1.5807 A w s
-1.2065 A w sr
-2.3959 A w t
-0.6405 A w tc
-2.2497 A w th
-1.9592 A w thsr
-2.0405 A w ts
-2.1570 A w tsh
-1.6969 A w tsr
-1.0291 A w u
-1.3289 A w x
-1.9809 A w y
-1.5121 A x &
-1.6582 A x &r
-1.2366 A x >
-1.3749 A x @
-0.9880 A x A
-2.1019 A x C
-2.0147 A x I
-1.4127 A x N
-1.6582 A x cC
-2.1531 A x cCh
-2.2110 A x e
-2.0561 A x f
-2.1531 A x i
-1.8009 A x ixr
-2.3572 A x j
-1.5510 A x k
-1.5376 A x kh
-2.0561 A x l
-1.6248 A x m
-1.5937 A x n
-1.4541 A x o
-1.3572 A x p
-1.8801 A x ph
-2.8132 A x r&
-2.0561 A x s
-1.4651 A x sr
-1.7774 A x t
-1.4329 A x tc
-1.8801 A x th
