# VAD: 1
# Viterbi loop action: No record

BIGRAM: method Katz, cutoff 1
coef[7]: 0.000000 0.990000 0.779661 0.990000 0.990000 0.931144 0.968523

TRIGRAM: method Katz, cutoff 1
coef[7]: 0.000000 0.791948 0.935919 0.922351 0.990000 0.990000 0.990000

\data\
ngram 1=44
ngram 2=1703
ngram 3=40994

\1-grams:
-1.4806 &	-4.5238
-99.9900 </s>
-99.9900 <s>
-1.9710 @	-3.2420
-1.6722 A	-1.3162
-1.6538 D&	-3.4784
-2.3589 D&i	-1.0576
-2.5465 E	-0.6088
-1.3615 I	-4.3641
-1.6136 N	-3.9567
-1.2140 S	-1.1066
-1.5347 U	-4.4156
-1.9632 Y	-0.4455
-1.4691 a	-4.1490
-1.9000 aU	-2.0312
-1.8195 ai	-1.9375
-1.6618 b	-4.1615
-1.5118 d	-4.4614
-1.2956 dc	-1.8657
-1.6364 e	-3.1701
-1.9296 f	-2.1067
-1.4962 g	-4.4926
-1.9296 h	-3.2279
-1.5806 i	-2.9883
-1.8525 j	-3.1269
-1.6262 kh	-2.9175
-1.5272 l	-4.4306
-1.6673 m	-3.8495
-1.4057 n	-3.1545
-1.6900 o	-2.5859
-2.0676 oe	-2.3268
-3.4187 pf	-0.2842
-1.7651 ph	-3.9549
-1.4479 r	-3.0702
-1.5865 s	-1.3714
-2.2648 tS	-1.2285
-1.1454 tc	-2.4204
-1.4577 th	-0.9068
-1.7415 ts	-3.7010
-1.5704 u	-2.6515
-1.6078 v	-2.5770
-1.6858 x	-0.9272
-2.1238 y	-1.7261
-1.6798 z	-2.4342

\2-grams:
-2.6620 & @	-0.3012
-1.7166 & A	-0.0490
-2.2969 & D&	-0.2393
-2.6427 & D&i	-0.2171
-3.3055 & E	-0.1362
-1.5557 & I	-0.3291
-1.3635 & N	-0.8487
-1.2010 & S	-1.5839
-1.7949 & U	-0.1079
-2.1849 & Y	-0.2080
-1.9494 & a	-0.2399
-1.9980 & aU	+0.1230
-2.1208 & ai	-0.1722
-1.9362 & b	+0.3485
-2.1441 & d	-0.1541
-1.0338 & dc	-0.4652
-2.3970 & e	-0.2071
-1.8922 & f	-0.1011
-1.9690 & g	-0.2872
-1.9418 & h	-0.1785
-1.8476 & i	-0.0716
-2.1982 & j	-0.0167
-2.0177 & kh	-0.0542
-1.3393 & l	-0.3467
-1.2939 & m	-0.3369
-1.0877 & n	+0.4359
-2.0933 & o	-0.1365
-2.7144 & oe	-0.0973
-4.0088 & pf
-2.1816 & ph	-0.0636
-1.0869 & r	-1.3088
-1.3068 & s	-0.4506
-2.5651 & tS	-0.2105
-0.8452 & tc	-0.3425
-1.8155 & th	-0.1949
-2.4134 & ts	-0.1638
-1.7516 & u	+0.1552
-1.4368 & v	+1.8981
-1.6206 & x	-0.1298
-2.8003 & y	-0.2029
-1.4666 & z	-0.1922
-1.7181 @ &	-0.1059
-1.5695 @ A	-0.0456
-2.1075 @ D&	-0.1724
-2.8150 @ D&i	-0.2908
-2.6109 @ E	-0.1108
-1.6247 @ I	-0.1674
-1.1024 @ N	-0.5835
-1.5228 @ S	-0.4574
-1.7897 @ U	-0.1470
-2.4171 @ Y	-0.1444
-1.7506 @ a	-0.3163
-1.9120 @ aU	-0.1387
-1.9890 @ ai	-0.3665
-2.3237 @ b	-0.1817
-2.5598 @ d	-0.0638
-1.0723 @ dc	-0.5171
-1.8238 @ e	-0.1016
-2.2836 @ f	-0.1981
-2.2130 @ g	-0.0755
-1.8419 @ h	-0.1534
-1.6597 @ i	-0.4838
-2.2353 @ j	-0.2581
-2.0227 @ kh	-0.2882
-1.2848 @ l	-0.3202
-1.2152 @ m	-0.0562
-1.2330 @ n	-0.0670
-1.9120 @ o	-0.1367
-2.4171 @ oe	-0.1616
-3.2174 @ pf
-2.4726 @ ph	-0.1377
-0.9371 @ r	-0.8955
-1.5033 @ s	+0.0958
-2.8608 @ tS
-0.9988 @ tc	-0.2510
-2.0442 @ th	-0.2951
-2.4726 @ ts	-0.2238
-1.4154 @ u	-0.2098
-1.4667 @ v	+0.0474
-1.6537 @ x	-0.2879
-2.6109 @ y	+0.0165
-1.5317 @ z	+0.0827
-1.9088 A &	-0.1029
-2.9210 A @	-0.1104
-2.1738 A D&	-0.2249
-2.5162 A D&i	-0.3574
-3.1035 A E	-0.1137
-1.9025 A I	-0.1036
-1.3350 A N	-0.0428
-1.1990 A S	-0.3479
-2.0384 A U	-0.0775
-2.3979 A Y	-0.1726
-1.7775 A a	-0.0908
-2.1271 A aU	+0.0426
-2.0033 A ai	-0.1499
-1.6368 A b	-0.1330
-2.1597 A d	-0.0865
-1.1422 A dc	+0.1953
-2.1501 A e	+0.0217
-1.7177 A f	-0.0144
-1.8784 A g	-0.0512
-1.6606 A h	-0.0642
-1.9586 A i	-0.0813
-2.3215 A j	-0.0044
-1.6412 A kh	+0.0001
-1.3236 A l	-0.2890
-1.3003 A m	+0.4367
-1.0998 A n	+1.0422
-1.9436 A o	-0.2379
-2.5118 A oe	-0.1228
-3.2108 A pf	-0.1869
-1.5410 A ph	-0.3946
-1.3017 A r	-0.1079
-1.3037 A s	-0.0671
-2.3146 A tS	-0.2703
-0.9540 A tc	-0.0741
-1.6989 A th	-0.2342
-1.8107 A ts	-0.3031
-1.5954 A u	+0.0208
-1.3603 A v	+0.3848
-1.5173 A x	-0.1457
-2.7715 A y	-0.4236
-1.5140 A z	-0.1903
-2.0792 D& &	+0.0592
-2.7520 D& @	-0.1078
-2.1237 D& A	-0.1445
-2.3999 D& D&i	+0.0496
-3.4377 D& E	-0.3803
-1.9309 D& I	-0.1455
-1.1228 D& N	+0.3049
-1.2555 D& S	-0.6980
-1.8205 D& U	+0.1583
-2.2458 D& Y	-0.1097
-2.0678 D& a	-0.2754
-2.0792 D& aU	-0.0585
-2.2689 D& ai	-0.1605
-1.3629 D& b	-0.3242
-2.4510 D& d	-0.1185
-1.1375 D& dc	-0.0546
-2.6008 D& e	-0.3044
-1.4918 D& f	-0.2807
-1.8942 D& g	-0.2248
-1.8892 D& h	-0.3298
-2.1500 D& i	-0.2146
-2.7173 D& j	-0.1305
-1.7107 D& kh	-0.3223
-1.2767 D& l	-0.4178
-1.1642 D& m	+0.0082
-1.1577 D& n	-0.3037
-1.7326 D& o	-0.3484
-2.6851 D& oe	-0.1802
-3.4377 D& pf
-1.6190 D& ph	-0.2861
-1.1947 D& r	+0.1559
-1.5664 D& s	-0.2771
-2.6551 D& tS	-0.0614
-1.0029 D& tc	+0.0360
-2.1323 D& th	-0.3926
-2.2630 D& ts	-0.1286
-1.5882 D& u	-0.1597
-1.3081 D& v	-0.3051
-1.2648 D& x	-0.3642
-2.6137 D& y	-0.1878
-1.9739 D& z	-0.3540
-1.6790 D&i &	-0.0681
-1.2569 D&i @	-0.1498
-2.1719 D&i A	-0.0728
-2.4729 D&i D&	-0.5805
-2.3480 D&i E	-0.1190
-0.9180 D&i I	-0.1343
-1.1091 D&i N	-0.4180
-1.0056 D&i S	-0.4447
-2.1719 D&i U	-0.0751
-1.4540 D&i Y	-0.3930
-2.0847 D&i a	-0.2762
-2.5960 D&i aU	-0.2105
-2.2810 D&i ai	-0.0238
-2.5960 D&i b
-2.8295 D&i d
-1.4634 D&i dc	-0.0579
-1.7837 D&i e	-0.3914
-2.1967 D&i f	-0.2778
-2.6800 D&i g
-2.1484 D&i h	-0.1119
-1.3480 D&i i	-0.3033
-1.4449 D&i j	-0.2557
-2.1967 D&i kh	-0.1543
-1.0711 D&i l	-0.3805
-1.8590 D&i m	-0.2401
-1.2019 D&i n	-0.3887
-2.3858 D&i o	-0.1427
-2.1261 D&i oe	-0.1870
-2.5960 D&i ph	-0.0841
-1.3132 D&i r	-0.3369
-1.4876 D&i s	-0.2938
-2.4729 D&i tS	-0.1367
-1.1695 D&i tc	-0.2781
-2.2810 D&i th	-0.0654
-2.5241 D&i ts	-0.0794
-2.0292 D&i u	-0.0942
-2.1049 D&i v	-0.2856
-1.5638 D&i x	-0.3816
-2.3480 D&i y	-0.2332
-1.9648 D&i z	-0.2548
-1.5863 E &	-0.1014
-2.0934 E @	-0.1526
-1.5072 E A	-0.2096
-2.4924 E D&
-2.9429 E D&i
-1.3762 E I	-0.2214
-1.0492 E N	-0.3322
-1.3419 E S	-0.2765
-1.8593 E U	-0.0075
-2.2853 E Y	-0.1316
-1.6375 E a	-0.2420
-2.2395 E aU	-0.0560
-1.8082 E ai	-0.0944
-2.4083 E b	-0.1002
-2.4083 E d	-0.3025
-1.3587 E dc	-0.1255
-1.5235 E e	-0.2786
-2.2395 E f	-0.1331
-2.2395 E g	-0.0866
-1.6268 E h	-0.1814
-1.5235 E i	-0.2781
-1.7210 E j	-0.2485
-1.9843 E kh	-0.0873
-1.1124 E l	-0.2557
-1.5406 E m	-0.0785
-1.1426 E n	-0.3364
-1.9843 E o	-0.1421
-2.0354 E oe	-0.0719
-2.5449 E ph
-1.0142 E r	-0.3343
-1.3645 E s	-0.2612
-2.6419 E tS
-1.1357 E tc	-0.1875
-2.0354 E th	-0.2572
-2.2395 E ts	-0.1278
-1.6375 E u	-0.2389
-2.0354 E v	-0.2301
-1.4837 E x	-0.2331
-2.4924 E y
-1.8416 E z	-0.1542
-1.5161 I &	-0.2131
-1.9592 I @	-0.0630
-2.0426 I A	-0.2994
-1.9346 I D&	+0.0449
-2.8118 I D&i	-0.2314
-2.4655 I E	-0.1964
-1.5129 I N	+0.4812
-1.1143 I S	-2.0202
-1.4916 I U	-0.5396
-2.1693 I Y	-0.1652
-2.0390 I a	-0.0780
-2.2456 I aU	-0.0228
-2.5003 I ai	-0.1633
-2.0198 I b	-0.2253
-1.8793 I d	-0.4112
-1.0108 I dc	-0.5951
-1.6874 I e	-0.3732
-1.9667 I f	+0.0774
-1.6741 I g	+0.4345
-1.9592 I h	-0.1707
-1.7145 I i	-0.4759
-1.8358 I j	-0.1869
-1.7119 I kh	-0.2294
-1.4752 I l	-0.4018
-1.5364 I m	-0.4219
-1.3571 I n	-0.3068
-1.8970 I o	-0.1688
-2.3208 I oe	-0.1763
-3.7300 I pf
-1.9682 I ph	-0.3428
-1.5536 I r	+1.2302
-1.5297 I s	-0.2379
-2.5325 I tS	-0.2763
-0.8280 I tc	+0.0633
-1.6164 I th	-0.6487
-1.9021 I ts	-0.2305
-1.5314 I u	-0.4971
-1.3932 I v	-0.2802
-1.5156 I x	-0.5768
-2.3952 I y	-0.1717
-1.3354 I z	+1.2932
-1.5250 N &	-0.2798
-1.8869 N @	-0.2533
-2.1681 N A	-0.2189
-2.1390 N D&	-0.1399
-3.0585 N D&i	-0.0589
-2.5492 N E	-0.1918
-1.0918 N I	-0.2394
-1.1035 N S	-0.8755
-1.5575 N U	+0.0844
-1.9471 N Y	-0.1857
-1.9420 N a	+0.0706
-2.4822 N aU	-0.2684
-2.0969 N ai	-0.2060
-1.5106 N b	-0.0602
-1.4709 N d	-0.0404
-1.3386 N dc	-0.3275
-1.8261 N e	-0.1911
-2.1005 N f	-0.2737
-1.1852 N g	-0.2374
-1.8671 N h	-0.0145
-1.4113 N i	-0.2317
-1.4840 N j	-0.1703
-1.6089 N kh	-0.3127
-1.6686 N l	-0.3059
-1.6054 N m	-0.2498
-1.2693 N n	-0.2373
-1.8340 N o	-0.2387
-2.3336 N oe	-0.2016
-3.5747 N pf	-0.1940
-1.9147 N ph	-0.1411
-2.0022 N r	+0.1098
-1.6552 N s	-0.1938
-2.3336 N tS	-0.1841
-1.0565 N tc	-0.1769
-1.5554 N th	+0.0755
-1.7762 N ts	-0.0983
-1.5961 N u	-0.3838
-1.5715 N v	-0.0859
-1.5125 N x	-0.0751
-2.2693 N y	+0.0647
-1.6910 N z	-0.1223
-1.1643 S &	+0.8301
-1.9296 S @	-0.4417
-1.7510 S A	+0.0009
-1.6344 S D&	-0.2946
-2.7165 S D&i	-0.0428
-2.1932 S E	-0.2587
-1.0554 S I	-0.3724
-2.2316 S N	-0.2693
-1.1920 S U	+0.2182
-1.5098 S Y	-0.5497
-1.5605 S a	-0.0981
-1.9159 S aU	-0.3761
-1.9376 S ai	-0.2460
-2.2710 S b	-0.2195
-1.5538 S d	-0.2219
-1.3120 S dc	-0.1289
-1.4247 S e	-0.0412
-1.9866 S f	-0.4210
-1.5707 S g	-0.3950
-1.8783 S h	-0.4884
-1.3251 S i	-0.0455
-1.5652 S j	+0.0499
-1.8101 S kh	-0.1160
-1.6381 S l	-0.2524
-1.7686 S m	-0.4860
-1.5943 S n	-0.2231
-1.6844 S o	-0.4127
-1.6386 S oe	-0.2336
-3.4581 S pf	-0.1470
-1.9356 S ph	-0.2275
-1.5232 S r	+0.0465
-1.8421 S s	-0.2985
-2.6375 S tS	-0.3438
-1.2275 S tc	+0.0588
-1.5322 S th	-1.2491
-1.7440 S ts	-0.5905
-1.5660 S u	-0.1953
-1.6102 S v	-0.2930
-2.0615 S x	-0.2265
-1.7853 S y	-0.3606
-1.8494 S z	-0.3183
-1.8499 U &	-0.1807
-2.3763 U @	-0.2158
-2.0695 U A	-0.2278
-1.7211 U D&	-0.3282
-2.3168 U D&i	-0.2798
-2.8896 U E	-0.1735
-1.5118 U I	-0.0111
-1.4479 U N	-0.1536
-0.9818 U S	-0.9030
-1.9417 U Y	-0.0735
-1.8200 U a	-0.2482
-2.1832 U aU	-0.3710
-2.0667 U ai	-0.3255
-1.6119 U b	-0.1953
-1.9680 U d	-0.0537
-1.0421 U dc	-0.5373
-2.2139 U e	-0.2155
-1.4144 U f	-0.4347
-1.7060 U g	-0.0722
-1.8184 U h	-0.0547
-1.7713 U i	-0.1301
-2.2220 U j	-0.0998
-1.6987 U kh	-0.4910
-1.4703 U l	-0.0366
-1.6537 U m	-0.1235
-1.5481 U n	-0.2985
-1.7572 U o	-0.2087
-2.3483 U oe	+0.0012
-3.9547 U pf
-1.8934 U ph	-0.2895
-1.7199 U r	-0.1343
-1.4305 U s	-0.2731
-2.5792 U tS	-0.2002
-0.8160 U tc	-0.3987
-1.8089 U th	-0.2179
-2.2021 U ts	-0.2131
-1.5914 U u	-0.1989
-1.4820 U v	-0.3890
-1.3359 U x	-0.3598
-2.2601 U y	+0.0093
-1.6129 U z	+0.0875
-1.4674 Y &	-0.2940
-1.9353 Y @	+0.0076
-2.0279 Y A	-0.1575
-1.8273 Y D&	-0.1330
-2.8539 Y D&i	-0.0654
-2.6906 Y E	-0.1885
-1.3757 Y I	+0.0765
-1.5262 Y N	-0.2023
-1.1716 Y S	-0.1293
-1.2454 Y U	-0.2197
-2.0825 Y a	+0.0229
-2.2431 Y aU	-0.2235
-2.5007 Y ai	-0.3243
-1.9308 Y b	-0.4741
-2.1894 Y d	-0.1622
-1.0937 Y dc	-0.5317
-1.8059 Y e	-0.1740
-2.1069 Y f	-0.0612
-2.1327 Y g	-0.3729
-1.8406 Y h	-0.2829
-1.5487 Y i	-0.2279
-1.8884 Y j	-0.2067
-2.2788 Y kh	-0.1680
-1.2442 Y l	-0.1291
-1.3867 Y m	-0.3422
-1.3315 Y n	-0.2790
-1.6054 Y o	-0.1004
-2.1996 Y oe	-0.1302
-2.4079 Y ph	-0.1979
-1.6080 Y r	-0.0987
-1.4746 Y s	-0.2109
-2.6768 Y tS	-0.0628
-1.0825 Y tc	-0.2464
-1.8784 Y th	-0.3791
-2.3605 Y ts	-0.1496
-1.4096 Y u	-0.3994
-1.1582 Y v	-0.3231
-1.7056 Y x	-0.2220
-2.0167 Y y	-0.2935
-1.3883 Y z	-0.4999
-2.1899 a &	-0.2319
-2.9553 a @	-0.1056
-2.1211 a A	-0.1412
-2.6449 a D&	-0.1653
-2.6735 a D&i	-0.2972
-3.3628 a E	-0.1054
-2.0160 a I	+0.0627
-1.4260 a N	+0.5410
-1.0661 a S	-1.1676
-2.2525 a U	-0.1588
-2.6449 a Y	-0.1647
-2.3580 a aU	-0.0240
-2.1526 a ai	-0.1447
-1.9907 a b	+0.0749
-2.3725 a d	-0.1139
-1.1244 a dc	+0.1631
-2.3127 a e	-0.2717
-1.7032 a f	-0.3496
-2.2132 a g	+0.0373
-1.8591 a h	-0.0619
-2.1899 a i	-0.1572
-2.6010 a j	-0.1793
-1.8761 a kh	-0.2200
-1.0417 a l	+0.5075
-1.4362 a m	-0.0184
-0.8748 a n	-0.7607
-2.3042 a o	-0.1674
-2.6835 a oe	-0.2935
-3.6224 a pf
-1.9332 a ph	-0.1533
-1.2909 a r	-0.1080
-1.1360 a s	-0.6772
-2.3258 a tS	-0.2557
-0.8245 a tc	-0.5862
-2.0314 a th	-0.2496
-2.1102 a ts	-0.3094
-2.0715 a u	-0.2353
-1.6599 a v	-0.1019
-1.4311 a x	-0.3252
-3.1129 a y	-0.0765
-1.5619 a z	-0.3091
-2.1701 aU &	+0.0817
-2.8447 aU @	-0.0414
-1.9723 aU A	-0.2583
-1.6713 aU D&	-0.3449
-1.6073 aU D&i	-0.0483
-3.5171 aU E
-2.3063 aU I	-0.1844
-1.2319 aU N	-0.3597
-1.2786 aU S	-0.5329
-1.3006 aU U	-0.2700
-2.2628 aU Y	-0.2232
-1.6847 aU a	-0.2881
-1.9776 aU ai	-0.4935
-1.2995 aU b	-0.4429
-2.5437 aU d	-0.2813
-1.2085 aU dc	-0.4556
-2.7722 aU e	-0.0637
-1.6143 aU f	+0.0137
-1.9940 aU g	-0.2837
-1.8487 aU h	-0.2775
-2.4882 aU i	-0.1875
-2.7100 aU j	-0.0386
-1.6608 aU kh	-0.0382
-1.6119 aU l	-0.1085
-1.3702 aU m	-0.3647
-1.5598 aU n	-0.0827
-1.2262 aU o	-0.3572
-2.7100 aU oe	-0.2642
-3.5894 aU pf
-1.5059 aU ph	-0.3286
-1.2808 aU r	-0.2873
-1.5557 aU s	-0.3150
-3.0549 aU tS	-0.0690
-1.1594 aU tc	-0.3107
-2.1152 aU th	-0.2095
-1.9996 aU ts	-0.1911
-1.1684 aU u	+0.0850
-1.2984 aU v	-0.1016
-1.3310 aU x	-0.1145
-2.8069 aU y	-0.1035
-1.7526 aU z	-0.1106
-1.8767 ai &	-0.3031
-1.5304 ai @	-0.2133
-1.9798 ai A	-0.2006
-2.6241 ai D&	-0.1643
-3.5975 ai D&i
-2.2945 ai E	-0.3983
-1.0898 ai I	+0.3012
-0.9888 ai N	-0.2090
-1.2667 ai S	-0.1964
-1.9798 ai U	-0.3330
-2.0028 ai Y	-0.3362
-2.0581 ai a	-0.1903
-2.6443 ai aU	-0.1950
-2.3038 ai b	-0.2249
-2.1277 ai d	-0.2843
-1.3351 ai dc	-0.0563
-1.9888 ai e	-0.3220
-2.4351 ai f	-0.1390
-1.9372 ai g	-0.3684
-1.9331 ai h	-0.2524
-1.3211 ai i	-0.2729
-1.4655 ai j	-0.4889
-2.0423 ai kh	-0.2106
-1.0938 ai l	-0.3194
-1.5617 ai m	-0.3111
-0.8907 ai n	-0.6189
-2.2107 ai o	-0.2441
-2.4752 ai oe	-0.1483
-2.3433 ai ph	-0.1818
-1.3766 ai r	-0.4833
-1.4163 ai s	-0.2984
-2.7113 ai tS	-0.1506
-1.1490 ai tc	-0.3754
-2.1032 ai th	-0.2556
-2.4614 ai ts	-0.1798
-2.0123 ai u	-0.2342
-1.7876 ai v	-0.2645
-1.5992 ai x	-0.4803
-2.6878 ai y	-0.0435
-1.8526 ai z	-0.2409
-1.1269 b &	+0.8588
-1.8812 b @	-0.1051
-1.5041 b A	+0.1978
-1.1136 b D&	+0.0151
-1.7625 b D&i	-0.0804
-2.4711 b E	-0.1273
-1.4485 b I	-0.0871
-2.0037 b N	-0.3052
-1.4701 b S	+0.0493
-1.3041 b U	-0.1371
-1.8595 b Y	-0.0101
-1.0418 b a	-0.0363
-1.5596 b aU	-0.1738
-1.3134 b ai	-0.3103
-1.8714 b d	-0.0329
-1.9175 b dc	-0.0089
-1.4099 b e	-0.3670
-2.4615 b f	-0.1835
-1.8104 b g	-0.0432
-2.2266 b h	-0.2348
-1.3542 b i	-0.3503
-2.1031 b j	-0.2452
-2.0171 b kh	-0.3237
-1.5765 b l	-0.3545
-2.1072 b m	-0.2408
-1.7093 b n	-0.4942
-1.3047 b o	-0.2550
-1.5954 b oe	-0.2802
-3.8276 b pf
-2.2792 b ph	-0.2619
-1.3270 b r	+0.3558
-1.9540 b s	-0.1594
-2.7441 b tS	-0.1264
-1.8342 b tc	-0.1240
-1.9629 b th	-0.1184
-2.5222 b ts	-0.2149
-1.3201 b u	+0.0730
-2.1605 b v	-0.1943
-2.0103 b x	-0.3064
-1.5010 b y	-0.3435
-2.4615 b z	-0.2349
-1.1019 d &	+0.4841
-1.6711 d @	-0.2889
-1.2083 d A	-0.3003
-1.3679 d D&	-0.3730
-2.1537 d D&i	-0.2232
-2.3712 d E	-0.2062
-1.2665 d I	-0.3113
-1.9299 d N	-0.3522
-1.7265 d S	-0.3105
-1.4056 d U	-0.2377
-1.9338 d Y	-0.1110
-0.9670 d a	-0.1923
-1.5101 d aU	-0.0824
-1.4469 d ai	-0.0961
-2.9318 d b	-0.2587
-1.9259 d dc	-0.0132
-1.2708 d e	-0.1760
-2.5419 d f	-0.2636
-2.6408 d g	-0.2831
-2.2061 d h	-0.1779
-1.4593 d i	-0.2718
-1.9144 d j	-0.2200
-2.5930 d kh	-0.1999
-1.4784 d l	-0.4290
-2.0982 d m	-0.1670
-1.8626 d n	-0.2679
-1.4925 d o	-0.3758
-1.8543 d oe	-0.1985
-3.9776 d pf
-2.9520 d ph	-0.0132
-0.8405 d r	+0.5686
-1.8044 d s	-0.4121
-2.9955 d tS	-0.0915
-1.6788 d tc	+0.0466
-2.7428 d th	-0.2010
-2.9125 d ts	-0.2430
-1.5387 d u	-0.1938
-2.3105 d v	-0.1968
-2.0784 d x	-0.3466
-1.8995 d y	-0.1901
-2.4230 d z	-0.3433
-2.1959 dc &	-0.1752
-2.7534 dc @	-0.2439
-2.8613 dc A	-0.1180
-2.3742 dc D&	-0.1386
-3.1992 dc D&i	-0.2623
-3.1426 dc E	-0.1829
-1.6829 dc I	-0.0432
-2.5127 dc N	-0.0345
-1.4639 dc S	-0.9482
-1.9129 dc U	-0.2441
-2.2549 dc Y	-0.3192
-2.2094 dc a	+0.0801
-2.7196 dc aU	-0.2632
-2.6980 dc ai	+0.0020
-0.8458 dc b	-0.9925
-0.6035 dc d	+0.2418
-2.2474 dc e	-0.0948
-2.4112 dc f	-0.4790
-0.7722 dc g	+0.2999
-2.4692 dc h	-0.1719
-1.9084 dc i	+0.0984
-1.9106 dc j	-0.2523
-1.3575 dc kh	-0.1823
-2.0236 dc l	-0.3948
-2.2973 dc m	-0.1094
-1.9706 dc n	-0.2637
-2.0639 dc o	-0.3367
-2.7744 dc oe	-0.2508
-3.3765 dc pf	-0.0782
-1.4676 dc ph	+0.9257
-2.4041 dc r	-0.2157
-2.6709 dc s	-0.2462
-2.3601 dc tS	-0.3554
-2.2140 dc tc	-0.1629
-0.9401 dc th	-1.6587
-1.8960 dc ts	-0.1776
-1.8819 dc u	+0.0319
-1.8440 dc v	-0.3715
-2.4076 dc x	-0.2715
-2.4530 dc y	-0.0058
-2.1560 dc z	-0.2821
-1.8732 e &	-0.0088
-2.1584 e @	-0.2623
-1.5994 e A	-0.2211
-2.5162 e D&	-0.3188
-3.0035 e D&i	-0.0969
-2.7694 e E	-0.2710
-1.6364 e I	-0.1839
-1.1479 e N	+0.0134
-1.2723 e S	-0.2220
-2.0066 e U	-0.2181
-2.3108 e Y	-0.2462
-1.6873 e a	-0.2815
-2.2306 e aU	-0.3181
-1.8508 e ai	-0.2817
-2.4421 e b	-0.1373
-2.2923 e d	-0.1386
-1.0317 e dc	-0.2824
-2.1719 e f	-0.1634
-2.3236 e g	-0.2158
-1.8274 e h	-0.3819
-1.6351 e i	-0.3524
-2.1584 e j	-0.2236
-1.9765 e kh	-0.1487
-1.1816 e l	+1.2866
-1.5619 e m	-0.2748
-0.9958 e n	+0.7128
-2.2254 e o	-0.2349
-2.4964 e oe	-0.1982
-3.3184 e pf
-2.2804 e ph	-0.1665
-1.1231 e r	+1.0179
-1.2542 e s	-0.1495
-2.7183 e tS	-0.2061
-0.8567 e tc	+0.1347
-2.0035 e th	-0.3095
-2.3367 e ts	-0.2474
-2.0098 e u	-0.0624
-1.8092 e v	-0.1577
-1.5826 e x	-0.4501
-2.6056 e y	-0.2464
-1.5586 e z	-0.1149
-1.5220 f &	+0.0250
-2.6260 f @	-0.0755
-1.6951 f A	-0.2215
-1.0641 f D&	-0.0823
-1.7920 f D&i	-0.1368
-2.7425 f E	-0.1120
-1.3852 f I	-0.4142
-2.2654 f N	-0.1708
-1.3050 f S	+0.2762
-1.4251 f U	-0.5788
-1.9534 f Y	-0.1834
-1.2836 f a	-0.1675
-1.5940 f aU	-0.0469
-1.7042 f ai	-0.1219
-1.8742 f b	-0.2274
-1.7561 f d	-0.5421
-1.5469 f dc	-0.3046
-1.7737 f e	-0.2770
-1.6662 f g	-0.2833
-1.7809 f h	-0.3534
-1.7294 f i	-0.2237
-1.8880 f j	-0.2654
-1.5180 f kh	-0.2888
-1.8653 f l	-0.1203
-1.8312 f m	-0.1128
-1.6551 f n	-0.1873
-1.3263 f o	-0.0731
-2.1937 f oe	+0.0325
-3.4875 f pf
-1.7958 f ph	-0.1473
-1.5005 f r	-0.4594
-1.7459 f s	-0.1317
-2.2883 f tS	-0.2934
-1.1918 f tc	-0.1940
-1.6443 f th	+0.0980
-1.6718 f ts	-0.2532
-1.0946 f u	+0.0278
-1.6061 f v	-0.0681
-1.8788 f x	-0.3551
-2.2654 f y	-0.1333
-1.7561 f z	-0.4073
-1.1490 g &	-0.1564
-1.5363 g @	-0.1941
-1.6366 g A	-0.0226
-1.2383 g D&	-0.2039
-2.1531 g D&i	-0.0972
-2.2605 g E	-0.1780
-1.1071 g I	+0.9070
-1.6625 g N	+0.0075
-1.3017 g S	-0.6145
-1.0563 g U	+0.5512
-1.8289 g Y	-0.3856
-1.3830 g a	-0.0136
-1.7508 g aU	-0.2290
-1.9615 g ai	-0.1570
-2.2406 g b	-0.5314
-2.2070 g d	-0.1579
-1.7181 g dc	-0.0846
-1.5190 g e	-0.4534
-2.3404 g f	-0.1573
-2.0518 g h	-0.0597
-1.3681 g i	-0.0704
-1.6214 g j	-0.2468
-2.4510 g kh	-0.2967
-1.4283 g l	-0.3405
-1.9676 g m	-0.2840
-1.4723 g n	+0.2029
-1.1908 g o	-0.3445
-1.9697 g oe	-0.1302
-3.9932 g pf
-2.5117 g ph	-0.2275
-1.4612 g r	-0.0419
-1.9096 g s	-0.0667
-2.5574 g tS	-0.2113
-1.6122 g tc	-0.0361
-2.1929 g th	-0.2263
-2.5045 g ts	-0.2809
-1.2658 g u	+0.3603
-1.9377 g v	-0.2708
-1.8489 g x	-0.2526
-1.9635 g y	-0.2738
-2.3604 g z	-0.1606
-1.4499 h &	-0.0714
-1.7737 h @	-0.2885
-1.0871 h A	-0.0081
-1.4891 h D&	-0.1299
-2.0436 h D&i	-0.3261
-2.3651 h E	-0.1706
-1.5777 h I	-0.3490
-1.5642 h N	-0.1582
-1.4673 h S	-0.2359
-1.5121 h U	-0.1729
-2.0436 h Y	-0.2619
-1.0592 h a	-0.0859
-1.5343 h aU	-0.1098
-1.4219 h ai	-0.0440
-2.0114 h b	-0.1266
-1.8479 h d	-0.3077
-1.9022 h dc	-0.0080
-1.4799 h e	-0.1579
-1.9427 h f	-0.3735
-1.9120 h g	-0.3025
-1.5555 h i	+0.0799
-1.8231 h j	-0.2143
-1.7958 h kh	+0.0131
-1.5426 h l	-0.2306
-1.4799 h m	+0.2729
-1.4415 h n	-0.3732
-1.5101 h o	-0.3423
-1.9427 h oe	-0.1156
-3.1619 h pf
-2.0436 h ph	-0.1170
-1.1771 h r	-0.2088
-1.6061 h s	-0.0063
-2.7773 h tS	-0.0633
-1.8151 h tc	-0.0038
-1.8312 h th	-0.3980
-1.9374 h ts	-0.2634
-1.4001 h u	-0.2473
-1.7920 h v	-0.1720
-1.7073 h x	-0.0058
-2.0304 h y	+0.0151
-1.7809 h z	-0.2239
-1.8812 i &	+0.1080
-2.2970 i @	-0.1581
-2.6614 i A	-0.0437
-2.6614 i D&	-0.1661
-3.9088 i D&i
-2.8438 i E	-0.1454
-1.2042 i I	-0.3782
-1.3095 i N	-0.4900
-0.7824 i S	-1.5481
-1.8937 i U	-0.1566
-2.0208 i Y	+0.0202
-2.4731 i a	-0.1519
-2.8076 i aU	-0.1628
-2.6144 i ai	-0.2501
-2.3993 i b	-0.2791
-2.1721 i d	-0.2238
-1.1263 i dc	-0.3847
-2.3860 i e	+0.0381
-1.8163 i f	+0.0287
-1.9132 i g	-0.2318
-1.8553 i h	-0.1527
-1.8235 i j	-0.1813
-1.7461 i kh	-0.3214
-1.6269 i l	+0.0554
-1.6189 i m	-0.3588
-1.2620 i n	+1.1505
-2.3079 i o	-0.2006
-2.9045 i oe	-0.0951
-3.4583 i pf
-2.3079 i ph	-0.1115
-2.1227 i r	-0.1438
-1.2112 i s	-0.3111
-2.1486 i tS	-0.3520
-0.8533 i tc	-0.1510
-1.7401 i th	-0.3861
-1.8651 i ts	+0.0248
-2.0532 i u	-0.1583
-1.6870 i v	-0.1539
-1.1369 i x	-0.2945
-2.9267 i y	-0.0695
-1.3959 i z	-0.2842
-1.1972 j &	-0.5071
-1.7722 j @	-0.1388
-0.8081 j A	-0.4664
-1.5444 j D&	-0.2791
-2.2523 j D&i	-0.0748
-2.4565 j E	-0.2870
-2.2260 j I	-0.2216
-2.0823 j N	-0.1757
-1.4990 j S	+0.0838
-1.9468 j U	-0.3348
-2.5022 j Y	-0.0877
-0.9779 j a	+0.1028
-1.2434 j aU	-0.3776
-1.4257 j ai	-0.0908
-2.5912 j b	-0.2542
-2.5719 j d	-0.1201
-2.1854 j dc	-0.1954
-1.2941 j e	-0.1677
-2.3654 j f	-0.0998
-2.3773 j g	-0.3668
-1.7604 j h	-0.2047
-1.8508 j i	-0.0827
-2.0823 j kh	-0.3177
-1.6503 j l	-0.2039
-1.9002 j m	-0.1291
-1.8691 j n	-0.3395
-1.8472 j o	-0.1883
-2.2615 j oe	-0.0334
-3.3359 j pf
-2.6114 j ph	-0.1383
-0.7868 j r	-0.2751
-1.8163 j s	-0.0213
-3.2390 j tS
-1.8654 j tc	+0.2644
-2.1140 j th	-0.1589
-2.7031 j ts	-0.1193
-1.2381 j u	+0.2120
-2.4422 j v	-0.2660
-1.8883 j x	-0.4887
-2.6326 j y	-0.1900
-2.2901 j z	-0.1758
-1.5335 kh &	-0.1369
-2.0991 kh @	-0.2189
-1.3067 kh A	-0.1799
-1.1248 kh D&	-0.1603
-2.0629 kh D&i	-0.3515
-2.5164 kh E	-0.2202
-1.4661 kh I	-0.0442
-2.0426 kh N	-0.1518
-1.2717 kh S	-0.3431
-1.4040 kh U	+0.0207
-1.9397 kh Y	-0.1655
-1.1354 kh a	-0.0533
-1.5460 kh aU	+0.0802
-1.4877 kh ai	-0.1527
-2.1345 kh b	-0.0982
-1.8019 kh d	-0.3444
-1.3647 kh dc	-0.3140
-1.5366 kh e	-0.2789
-1.8610 kh f	-0.3976
-1.7550 kh g	-0.3770
-1.8418 kh h	-0.2700
-1.7550 kh i	-0.0943
-1.9243 kh j	+0.0188
-1.5733 kh l	-0.6693
-1.8254 kh m	-0.3810
-1.6387 kh n	-0.5074
-1.4777 kh o	-0.4239
-1.9955 kh oe	-0.1952
-3.4127 kh pf	-0.1121
-1.9094 kh ph	-0.2262
-1.4140 kh r	+0.2875
-1.7253 kh s	-0.1084
-2.3469 kh tS	-0.3049
-1.2989 kh tc	-0.0837
-1.7158 kh th	-0.1596
-1.7465 kh ts	-0.3636
-1.3261 kh u	+0.1051
-1.7004 kh v	-0.0706
-1.8418 kh x	-0.1669
-2.1776 kh y	-0.0280
-1.7962 kh z	-0.1052
-1.1811 l &	-0.1055
-1.5297 l @	-0.2828
-1.3656 l A	-0.4986
-1.5722 l D&	-0.1752
-2.2857 l D&i	-0.2856
-2.0886 l E	-0.0960
-1.2730 l I	+1.0758
-1.7703 l N	-0.0753
-1.5138 l S	-0.3065
-1.5821 l U	-0.0850
-1.9028 l Y	-0.1819
-1.0915 l a	-0.2137
-1.6700 l aU	-0.4128
-1.5272 l ai	-0.4073
-2.0109 l b	-0.0752
-1.7377 l d	+0.0414
-1.4406 l dc	-0.3869
-0.9928 l e	-0.2047
-2.6460 l f	-0.1400
-1.8086 l g	-0.1918
-1.9105 l h	-0.1992
-1.3243 l i	-0.2651
-1.8609 l j	-0.1682
-2.1516 l kh	-0.2195
-1.9471 l m	-0.0518
-1.6345 l n	-0.2988
-1.7025 l o	-0.0658
-1.6611 l oe	-0.2530
-3.9622 l pf
-2.4735 l ph	-0.2089
-1.6356 l r	-0.1886
-1.7605 l s	-0.1844
-2.4807 l tS	-0.2231
-1.2993 l tc	-0.1352
-1.8389 l th	-0.2410
-2.2418 l ts	-0.2962
-1.7591 l u	-0.1980
-1.7510 l v	-0.1173
-1.8841 l x	-0.0767
-1.8323 l y	-0.3463
-1.5437 l z	+0.2789
-1.3800 m &	-0.4336
-1.8733 m @	-0.2256
-1.5050 m A	-0.2868
-1.2206 m D&	-0.2952
-1.8070 m D&i	-0.2986
-2.6003 m E	-0.1810
-1.2087 m I	-0.2863
-1.6374 m N	-0.3191
-1.4087 m S	-0.0905
-1.5367 m U	-0.4080
-1.9917 m Y	-0.2503
-1.1402 m a	-0.0242
-1.5222 m aU	-0.3730
-1.4164 m ai	-0.4067
-1.8332 m b	-0.1362
-1.6564 m d	-0.1689
-1.6763 m dc	-0.2730
-1.5637 m e	-0.1618
-2.0854 m f	-0.1169
-1.6732 m g	-0.3508
-1.7705 m h	-0.1456
-1.2921 m i	-0.1606
-1.6082 m j	-0.3003
-2.0360 m kh	-0.2025
-1.8935 m l	-0.1488
-1.4724 m n	-0.1815
-1.5448 m o	-0.2743
-2.0735 m oe	-0.0760
-3.5211 m pf
-2.1276 m ph	-0.1312
-1.8178 m r	-0.3018
-1.6504 m s	-0.3766
-2.8178 m tS	-0.0112
-1.3370 m tc	+0.2094
-1.9093 m th	-0.3643
-2.0396 m ts	-0.2642
-1.2787 m u	-0.3179
-1.7803 m v	+0.0782
-1.7191 m x	-0.0067
-2.0432 m y	-0.2859
-1.7022 m z	+0.2185
-1.2612 n &	-0.5404
-1.6238 n @	-0.1782
-1.3580 n A	-0.1391
-1.6155 n D&	-0.3601
-2.5742 n D&i	-0.1183
-2.3430 n E	-0.0424
-1.0829 n I	-0.5960
-1.9271 n N	-0.0705
-1.3535 n S	-0.7259
-1.7370 n U	-0.2221
-2.0112 n Y	-0.2082
-1.1374 n a	-0.1345
-1.6911 n aU	-0.0966
-1.4640 n ai	-0.2172
-1.8807 n b	-0.1413
-1.5124 n d	-0.1245
-1.3592 n dc	-0.6855
-1.2434 n e	-0.5325
-2.2190 n f	-0.3223
-1.5756 n g	-0.2247
-1.8632 n h
-1.3324 n i	-0.3051
-1.4800 n j	-0.0526
-1.9442 n kh	+0.0135
-1.8990 n l	-0.1557
-1.8876 n m	-0.4651
-1.9507 n o	-0.1690
-2.2101 n oe	-0.1604
-4.0114 n pf
-2.1349 n ph	+0.1421
-1.8122 n r	+0.8672
-1.7882 n s	-0.0770
-2.5609 n tS	-0.2650
-1.1280 n tc	-0.2957
-1.7350 n th	-0.1204
-1.9705 n ts	+0.1311
-1.6594 n u	-0.4887
-1.7860 n v	+0.0350
-1.7001 n x	-0.5388
-2.3235 n y	-0.2063
-1.7389 n z	-0.3466
-2.0354 o &	-0.0542
-2.4148 o @	-0.0255
-1.9499 o A	-0.3888
-1.9288 o D&	-0.0642
-2.3557 o D&i	-0.0967
-3.0961 o E	-0.0557
-1.4687 o I	-0.3926
-1.4429 o N	-0.5003
-1.0795 o S	-0.4735
-1.6567 o U	-0.1475
-2.0430 o Y	-0.2582
-1.9499 o a	-0.1412
-2.0205 o aU	-0.2125
-2.1048 o ai	-0.1057
-1.3597 o b	-0.0863
-2.0547 o d	-0.1669
-1.0253 o dc	-0.5371
-2.2899 o e	+0.0656
-1.5039 o f	-0.3266
-1.5314 o g	-0.1590
-1.7950 o h	-0.2663
-1.9086 o i	-0.1142
-2.1229 o j	-0.1663
-1.5896 o kh	-0.2184
-1.4697 o l	-0.2394
-1.6352 o m	-0.3057
-1.5749 o n	-0.0772
-2.4240 o oe	-0.0956
-3.7270 o pf
-1.6567 o ph	-0.1053
-1.6175 o r	+0.0334
-1.3980 o s	-0.4739
-2.3801 o tS	-0.2007
-0.9518 o tc	-0.3964
-1.7677 o th	-0.3621
-1.9562 o ts	-0.3317
-1.6132 o u	-0.3173
-1.2164 o v	-0.2375
-1.4677 o x	-0.4595
-2.5398 o y	-0.2269
-1.5039 o z	-0.1065
-1.6732 oe &	-0.0773
-2.0850 oe @	-0.1571
-1.5254 oe A	-0.2973
-2.1503 oe D&	-0.1246
-2.3761 oe D&i	-0.3790
-2.8873 oe E
-1.5818 oe I	-0.1043
-1.1987 oe N	-0.1136
-1.1562 oe S	-0.2251
-1.9123 oe U	-0.2466
-1.8264 oe Y	-0.1543
-1.6891 oe a	-0.2633
-2.1387 oe aU	-0.1912
-1.9192 oe ai	-0.2243
-2.4632 oe b	-0.0314
-2.2271 oe d	-0.1055
-1.3942 oe dc	-0.0038
-1.8990 oe e	-0.0508
-2.1387 oe f	-0.1388
-2.2134 oe g	-0.1461
-1.7643 oe h	-0.2750
-1.7691 oe i	-0.0936
-1.9476 oe j	-0.1970
-2.2271 oe kh	-0.1248
-0.9885 oe l	-0.4020
-1.4656 oe m	-0.1152
-1.0994 oe n	+0.0746
-2.0750 oe o	-0.0370
-2.4632 oe ph	-0.1758
-0.9742 oe r	+0.4880
-1.2576 oe s	+0.2961
-2.8154 oe tS
-1.1387 oe tc	-0.0965
-2.0464 oe th	-0.2475
-2.4881 oe ts	-0.1889
-1.8493 oe u	-0.1964
-1.6251 oe v	-0.0022
-1.7099 oe x	-0.2274
-2.1503 oe y	-0.3532
-1.4656 oe z	-0.2205
-1.7697 pf &	-0.1970
-1.4643 pf D&	-0.0672
-1.2534 pf I	-0.1263
-2.0707 pf N
-1.2212 pf S	-0.0965
-1.6202 pf U	-0.2598
-2.0707 pf Y
-1.4131 pf a	-0.1509
-2.0707 pf aU
-2.0707 pf ai	-0.6220
-1.7697 pf b	-0.1776
-1.7697 pf d	-0.1512
-1.2212 pf dc	-0.2441
-2.0707 pf e
-1.9983 pf f	-0.2896
-1.4643 pf g	-0.0605
-1.6728 pf h
-1.6202 pf i	-0.2724
-1.6202 pf j
-1.4643 pf kh	-0.0748
-1.9983 pf l
-1.5361 pf m	-0.2444
-1.3260 pf n	-0.1053
-1.6728 pf ph	-0.1382
-1.3674 pf r	-0.1462
-1.7697 pf s	-0.1858
-2.0707 pf tS
-1.1913 pf tc	-0.1773
-1.4643 pf th
-1.4131 pf ts	-0.2744
-1.4131 pf u	-0.0673
-1.4131 pf v	-0.2758
-1.6728 pf x
-1.4643 pf z	-0.0523
-1.6518 ph &	-0.1018
-2.1459 ph @	-0.2518
-1.6536 ph A	-0.1368
-1.1328 ph D&	-0.4201
-2.0865 ph D&i	-0.1467
-2.6593 ph E	-0.2083
-1.2155 ph I	+0.0421
-2.0967 ph N	-0.2800
-1.1294 ph S	-0.5316
-1.3317 ph U	-0.5432
-2.0815 ph Y	-0.2843
-1.1962 ph a	-0.2927
-1.6727 ph aU	-0.4691
-1.6669 ph ai	-0.2177
-1.9876 ph b	+0.0183
-1.9206 ph d	-0.3004
-1.4611 ph dc	-0.3057
-1.7905 ph e	+0.0308
-1.8874 ph f	-0.3061
-1.6885 ph g	-0.1271
-2.0081 ph h	-0.3465
-1.6555 ph i	-0.2910
-1.8279 ph j	-0.1452
-1.6650 ph kh	-0.4451
-1.7029 ph l	-0.3188
-1.9528 ph m	-0.2229
-1.7377 ph n	-0.1481
-1.2918 ph o	-0.5390
-2.3489 ph oe	-0.1112
-3.7243 ph pf
-1.4008 ph r	-0.1446
-1.7468 ph s	-0.1479
-2.2081 ph tS	-0.2388
-1.3220 ph tc	-0.1491
-1.6988 ph th	-0.2972
-1.8061 ph ts	-0.3279
-1.1141 ph u	-0.3896
-1.7880 ph v	-0.1873
-1.6825 ph x	-0.1959
-2.1577 ph y	-0.0588
-1.9241 ph z	-0.3007
-1.8197 r &	-0.2638
-2.2015 r @	-0.3659
-1.8525 r A	+0.1097
-1.7160 r D&	-0.5005
-2.3339 r D&i	-0.1370
-2.8469 r E	-0.2317
-1.5931 r I	-0.2757
-1.6507 r N	+0.3633
-1.3296 r S	-0.5371
-1.7244 r U	+0.2856
-2.1368 r Y	-0.1911
-1.6315 r a	+0.0013
-2.0038 r aU	-0.2926
-1.7449 r ai	-0.0280
-1.4292 r b	+1.2396
-1.8184 r d	-0.2876
-0.9372 r dc	+0.0120
-1.8304 r e	-0.0706
-2.0098 r f	-0.0579
-1.6652 r g	+0.0797
-1.8926 r h	-0.5569
-1.8184 r i	+0.0455
-2.2929 r j	-0.3046
-1.5877 r kh	+0.1487
-1.5354 r l	-0.3611
-1.4994 r m	+0.8592
-1.3660 r n	-0.0278
-1.7505 r o	-0.2364
-2.1479 r oe	-0.2452
-3.9692 r pf	-0.2991
-1.6410 r ph	-0.3353
-1.4827 r s	+0.3484
-2.1829 r tS	-0.0965
-0.8939 r tc	-0.3069
-1.6840 r th	-0.1425
-1.8344 r ts	-0.5353
-1.6123 r u	-0.0291
-1.2079 r v	-0.1244
-1.7700 r x	-0.1552
-2.2775 r y	-0.0704
-1.5063 r z	-0.3708
-1.6488 s &	-0.3972
-2.6356 s @	-0.0590
-2.2901 s A	-0.2339
-2.2217 s D&	-0.2104
-3.0844 s D&i	-0.0450
-2.8332 s E	-0.1198
-1.4207 s I	-0.4705
-2.3735 s N	-0.1157
-1.0673 s S	-0.5953
-1.6971 s U	-0.1376
-1.9565 s Y	-0.0554
-1.9029 s a	-0.1348
-2.5006 s aU	-0.3881
-2.3362 s ai	-0.3202
-1.7387 s b	-0.1589
-1.3601 s d	-0.0494
-1.1582 s dc	-0.3505
-1.9347 s e	-0.1201
-1.6771 s f	+0.0366
-1.3508 s g	-0.3237
-1.8631 s h	-0.2124
-1.7731 s i	-0.3084
-1.9541 s j	-0.0932
-1.3557 s kh	-0.3779
-1.8671 s l	-0.3556
-1.7587 s m	-0.4092
-1.5165 s n	+0.3678
-2.0790 s o	-0.2854
-2.3303 s oe	-0.2218
-2.8985 s pf	-0.1231
-1.4407 s ph	+1.3780
-1.9185 s r	-0.1019
-1.8942 s tS	-0.2383
-1.0836 s tc	-0.5364
-1.1336 s th	-0.8790
-1.1374 s ts	-0.4433
-1.7731 s u	-0.3169
-1.4354 s v	+0.2443
-1.8964 s x	-0.1864
-2.4361 s y	-0.1431
-1.2884 s z	-0.2503
-1.3877 tS &	-0.4417
-1.8878 tS @	-0.2765
-2.1063 tS A	-0.1699
-2.0299 tS D&	-0.3962
-2.1233 tS E	-0.1151
-0.9949 tS I	-0.3446
-2.2908 tS N	-0.0440
-1.0313 tS S	-0.2276
-1.4421 tS U	-0.4201
-1.6405 tS Y	-0.2173
-1.7809 tS a	-0.0786
-2.4799 tS aU	-0.0413
-2.4073 tS ai	-0.1448
-2.2660 tS b	-0.2586
-1.4531 tS d	-0.3503
-1.3540 tS dc	-0.1263
-1.5213 tS e	-0.1934
-1.7889 tS f	-0.1969
-1.5390 tS g	-0.3538
-1.7359 tS h	-0.2349
-1.3481 tS i	-0.3148
-1.5345 tS j	-0.1655
-1.5719 tS kh	-0.3080
-1.7578 tS l	-0.3134
-1.6888 tS m	-0.2241
-1.5575 tS n	-0.3248
-1.8778 tS o	-0.2275
-1.7151 tS oe	-0.2732
-1.9192 tS ph	-0.1705
-2.0161 tS r	-0.2062
-1.8681 tS s	-0.3617
-1.2541 tS tc	-0.1647
-1.3254 tS th	-0.3056
-1.5001 tS ts	-0.2499
-1.8878 tS u	-0.1430
-1.5868 tS v	-0.2969
-1.8878 tS x	-0.2670
-2.0899 tS y	-0.1589
-1.5042 tS z	-0.2668
-2.2541 tc &	+0.0419
-3.2716 tc @	-0.0321
-3.0016 tc A	-0.2960
-2.4897 tc D&	+0.0282
-3.6716 tc D&i	-0.0297
-3.7515 tc E	-0.2949
-1.9147 tc I	-0.2932
-3.2604 tc N	-0.1623
-0.9384 tc S	-1.3910
-2.4026 tc U	-0.2045
-2.6769 tc Y	-0.2419
-2.3123 tc a	+0.1790
-2.9779 tc aU	-0.1924
-3.0174 tc ai	-0.0803
-1.4102 tc b	+0.9071
-1.1232 tc d	+0.3690
-1.7436 tc dc	-0.2803
-2.5800 tc e	+0.0241
-1.8833 tc f	-0.2990
-0.9628 tc g	+0.3109
-2.4976 tc h	-0.2557
-2.2963 tc i	-0.4145
-2.4232 tc j	-0.0679
-0.9629 tc kh	+0.1498
-2.7714 tc l	-0.4382
-2.7062 tc m	-0.2852
-2.5762 tc n	-0.2597
-2.6278 tc o	-0.1787
-3.1783 tc oe	-0.1567
-2.8698 tc pf	-0.2075
-1.1126 tc ph	+0.1919
-2.4884 tc r	-0.2741
-1.9348 tc s	-0.2002
-1.5270 tc tS	+0.4385
-0.7064 tc th	-2.7916
-1.0062 tc ts	+1.2097
-2.1369 tc u	-0.3142
-2.2013 tc v	-0.3325
-2.0247 tc x	+0.0455
-3.1935 tc y	-0.0701
-1.7221 tc z	-0.0883
-1.1916 th &	+0.0990
-2.0132 th @	+0.0495
-1.5663 th A	-0.3244
-1.5597 th D&	-0.0388
-2.5143 th D&i	-0.0169
-2.3337 th E	-0.2940
-1.2171 th I	-0.4894
-2.1823 th N	-0.1872
-1.2842 th S	-1.3216
-1.1721 th U	-0.5025
-1.7072 th Y	-0.2347
-1.3665 th a	+0.0103
-1.7637 th aU	-0.0011
-1.8246 th ai	-0.2930
-2.2078 th b	-0.2036
-1.8112 th d	+0.3404
-1.3147 th dc	-0.0124
-1.3703 th e	+0.0853
-2.0428 th f	-0.4332
-1.7881 th g	-0.2475
-1.7532 th h	-0.2303
-1.4545 th i	-0.2561
-1.6949 th j	-0.0356
-1.8125 th kh	-0.1516
-1.5672 th l	-0.1470
-1.8301 th m	-0.3035
-1.4291 th n	-0.3572
-1.4921 th o	-0.2296
-1.7831 th oe	-0.2331
-3.2492 th pf	-0.0509
-1.9536 th ph	-0.1671
-1.4308 th r	-0.5342
-1.6800 th s	-0.4310
-2.4476 th tS	-0.0537
-1.3143 th tc	-0.1282
-1.8751 th ts	+0.0565
-1.4946 th u	+0.0076
-1.7114 th v	-0.2416
-1.9051 th x	+0.0489
-1.9101 th y	-0.1364
-1.9051 th z	-0.1716
-1.3050 ts &	+0.0991
-2.1255 ts @	-0.2332
-1.6263 ts A	-0.0197
-1.5394 ts D&	-0.1862
-2.4535 ts D&i	-0.2763
-2.4648 ts E	-0.1851
-1.2179 ts I	+0.1135
-2.3203 ts N	-0.1888
-1.3302 ts S	-0.2640
-1.0942 ts U	-0.0575
-1.5822 ts Y	-0.1563
-1.4307 ts a	-0.2761
-1.8487 ts aU	-0.0547
-1.9110 ts ai	-0.2089
-2.1308 ts b	-0.2682
-1.6263 ts d	-0.4044
-1.4591 ts dc	-0.4778
-1.5689 ts e	-0.0920
-1.8271 ts f	-0.4820
-1.7307 ts g	-0.4136
-1.8571 ts h	-0.2641
-1.4265 ts i	-0.2429
-1.7991 ts j	-0.0692
-1.8015 ts kh	-0.2599
-1.6021 ts l	-0.3185
-1.6847 ts m	+0.1048
-1.5675 ts n	+0.1581
-1.3753 ts o	-0.2609
-1.6197 ts oe	-0.1151
-3.4469 ts pf
-1.8219 ts ph	-0.0360
-1.6164 ts r	-0.1978
-1.4591 ts s	-0.3641
-2.5261 ts tS	-0.1557
-1.3066 ts tc	-0.0388
-1.7061 ts th	-0.2988
-1.5018 ts u	-0.2777
-1.5248 ts v	-0.0479
-1.9408 ts x	-0.2446
-1.7081 ts y	-0.2856
-1.8459 ts z	-0.1328
-1.8635 u &	-0.2378
-2.4095 u @	-0.1839
-2.0543 u A	-0.0674
-1.9956 u D&	-0.2852
-2.6247 u D&i	-0.2143
-3.1743 u E	-0.0892
-1.4419 u I	-0.2721
-1.1061 u N	-0.1561
-0.8923 u S	-2.3934
-1.5167 u U	-0.1012
-1.8853 u Y	-0.3536
-1.7892 u a	-0.2897
-2.2334 u aU	-0.1966
-1.9235 u ai	-0.1140
-1.7609 u b	-0.2503
-2.2567 u d	-0.1147
-1.2403 u dc	-0.1655
-2.3407 u e	-0.3366
-1.6729 u f	+0.0588
-1.9147 u g	-0.1620
-1.8894 u h	+0.3039
-1.7748 u i	-0.3329
-2.0634 u j	-0.1599
-1.8559 u kh	-0.3137
-1.3832 u l	-0.2124
-1.3488 u m	+1.0548
-1.1188 u n	+0.9277
-1.8301 u o	-0.3922
-2.5822 u oe	-0.2524
-1.9416 u ph	-0.2209
-1.4683 u r	+0.0818
-1.4240 u s	-0.2933
-2.6247 u tS	-0.1335
-1.0601 u tc	-0.1115
-2.0425 u th	-0.2984
-2.2334 u ts	-0.0709
-1.4226 u v	+0.0295
-1.4247 u x	-0.3991
-2.3292 u y	-0.1477
-1.6487 u z	-0.1532
-1.2823 v &	-0.2402
-1.4979 v @	-0.3648
-1.3102 v A	+0.0522
-1.2801 v D&	+0.2937
-1.7517 v D&i	-0.2325
-2.1063 v E	-0.0605
-0.9447 v I	+0.4249
-1.9634 v N	-0.0321
-1.7700 v S	-0.2826
-1.6317 v U	-0.2325
-1.8794 v Y	-0.2865
-0.9503 v a	-0.3787
-1.4133 v aU	-0.1718
-1.1978 v ai	-0.7452
-2.4880 v b	-0.1878
-2.0813 v d	-0.1266
-2.3522 v dc	-0.2106
-1.3049 v e	-0.2819
-2.6869 v f	-0.1787
-2.0676 v g	-0.3436
-2.1739 v h	-0.0545
-1.1263 v i	-0.2937
-1.6690 v j	-0.4081
-2.4001 v kh	-0.2038
-1.8203 v l	-0.2989
-2.2806 v m	-0.1780
-1.8498 v n	-0.3951
-1.4316 v o	+0.8040
-1.6545 v oe	-0.3491
-2.5155 v ph	-0.1962
-1.5872 v r	-0.5341
-2.3653 v s	-0.1843
-2.9230 v tS	-0.0201
-2.3858 v tc	+0.2757
-2.3720 v th	-0.2516
-2.6597 v ts	-0.2907
-1.3844 v u	-0.2429
-2.0919 v x	-0.2004
-1.6354 v y	-0.2967
-2.5762 v z	-0.1705
-1.5341 x &	-0.1655
-2.2172 x @	-0.2068
-2.1090 x A	-0.2833
-1.8742 x D&	-0.0492
-2.6999 x D&i	-0.1436
-2.6828 x E	-0.1406
-1.2229 x I	-0.2733
-1.7802 x N	-0.1940
-1.0870 x S	-0.7049
-1.5727 x U	+0.1227
-1.8402 x Y	-0.2029
-1.7950 x a	-0.1096
-2.1226 x aU	-0.1434
-2.4101 x ai	-0.1975
-1.8103 x b	-0.1278
-1.7041 x d	+0.2316
-1.0986 x dc	-0.2256
-1.9271 x e	-0.0281
-1.8058 x f	-0.1404
-1.4638 x g	-0.3027
-1.8125 x h	-0.4956
-1.6320 x i	-0.0215
-1.6921 x j	+0.0203
-1.3185 x kh	+1.0427
-1.7822 x l	-0.4017
-1.6673 x m	-0.0747
-1.3868 x n	+0.0835
-2.0104 x o	-0.1159
-2.3079 x oe	-0.0847
-2.8962 x pf	-0.0915
-1.5818 x ph	-0.0523
-1.8193 x r	-0.2506
-1.5575 x s	+0.1449
-2.0104 x tS	-0.2132
-0.9758 x tc	-0.3443
-1.4699 x th	-0.2142
-1.4442 x ts	+0.3223
-1.5452 x u	-0.1904
-1.6020 x v	-0.1886
-2.3927 x y	-0.0781
-1.7147 x z	-0.1316
-1.9463 y &	-0.3332
-2.5162 y @	-0.1852
-2.3006 y A	-0.0777
-2.6623 y D&	-0.0834
-3.3656 y E
-1.5795 y I	-0.2140
-1.5654 y N	-0.0998
-0.9651 y S	-0.1473
-1.8699 y U	-0.4284
-2.1060 y Y	-0.2002
-2.3006 y a	-0.0122
-3.0646 y aU	-0.2082
-2.6209 y ai	-0.1176
-1.9721 y b	-0.2516
-2.1060 y d	-0.0949
-0.9513 y dc	-0.3525
-2.2643 y e	-0.1068
-2.0602 y f	-0.2119
-2.1060 y g	-0.0901
-1.9299 y h	-0.1722
-1.9463 y i	-0.1275
-2.4070 y j	-0.0988
-2.0390 y kh	-0.2586
-1.2423 y l	-0.2603
-1.4920 y m	-0.4381
-1.2714 y n	-0.0661
-2.0712 y o	-0.1768
-2.5162 y oe	-0.1616
-2.4862 y ph	-0.3169
-1.5904 y r	-0.3430
-1.1723 y s	-0.3066
-2.3401 y tS	-0.1176
-0.7004 y tc	-0.3828
-1.8770 y th	-0.4157
-2.3835 y ts	-0.0862
-2.1999 y u	-0.1294
-1.4119 y v	-0.1535
-1.5831 y x	-0.1248
-1.2626 y z	-0.2330
-1.0206 z &	-0.2083
-1.6813 z @	-0.2045
-1.4778 z A	-0.2005
-1.4677 z D&	-0.4724
-2.2489 z D&i	-0.2013
-2.2197 z E	-0.2390
-1.2680 z I	+0.3621
-2.2254 z N	-0.0523
-1.8074 z S	-0.1240
-1.2283 z U	+0.1611
-1.7352 z Y	-0.2421
-1.1647 z a	-0.2624
-1.7260 z aU	-0.4216
-1.6499 z ai	-0.2407
-2.0976 z b	-0.3351
-1.5735 z d	-0.3653
-2.0609 z dc	-0.3073
-1.2059 z e	+0.0250
-2.4934 z f	-0.2049
-1.9479 z g	-0.3884
-2.0128 z h	-0.2673
-1.1994 z i	-0.1478
-1.6765 z j	-0.4205
-2.2197 z kh	-0.2452
-1.6079 z l	-0.7160
-1.7987 z m	-0.1260
-1.5031 z n	-0.4938
-1.1496 z o	-0.2923
-1.4850 z oe	-0.3550
-2.4435 z ph	-0.2657
-1.6234 z r	+0.1504
-1.9272 z s	-0.3180
-3.0270 z tS	-0.0455
-2.2086 z tc	-0.0406
-2.1331 z th	-0.2212
-2.4073 z ts	-0.2870
-1.4169 z u	-0.2556
-1.7924 z v	-0.2800
-2.3659 z x	-0.0961
-1.5219 z y	-0.1110

\3-grams:
-1.4437 & @ A
-1.1951 & @ N
-1.4437 & @ S
-0.8027 & @ dc
-1.4437 & @ h
-1.0765 & @ l
-1.1951 & @ m
-0.9488 & @ n
-1.1951 & @ r
-1.0765 & @ tc
-1.4437 & @ x
-1.1951 & @ z
-2.3891 & A &
-1.5888 & A I
-1.3336 & A N
-1.1739 & A S
-1.8942 & A U
-2.1405 & A Y
-1.8150 & A a
-2.1405 & A aU
-1.8942 & A ai
-1.5474 & A b
-2.0219 & A d
-1.3336 & A dc
-2.3891 & A e
-1.7481 & A f
-2.1405 & A g
-1.5888 & A h
-1.7481 & A i
-2.1405 & A j
-1.7481 & A kh
-1.3101 & A l
-1.2666 & A m
-1.1117 & A n
-1.8942 & A o
-2.3891 & A oe
-1.5888 & A ph
-1.2878 & A r
-1.3584 & A s
-2.3891 & A tS
-0.9454 & A tc
-1.5474 & A th
-1.8150 & A ts
-1.6857 & A u
-1.4427 & A v
-1.4427 & A x
-1.4749 & A z
-1.8089 & D& &
-1.0086 & D& N
-1.5602 & D& S
-1.4416 & D& U
-1.8089 & D& b
-1.8089 & D& d
-1.2348 & D& dc
-1.8089 & D& f
-1.4416 & D& kh
-1.1055 & D& m
-1.1679 & D& n
-1.3140 & D& o
-1.1055 & D& r
-1.8089 & D& s
-0.8045 & D& tc
-1.5602 & D& u
-1.4416 & D& v
-1.2348 & D& x
-1.4630 & D&i @
-0.8220 & D&i I
-0.8890 & D&i N
-0.8890 & D&i S
-1.2144 & D&i Y
-1.4630 & D&i dc
-1.2144 & D&i e
-1.4630 & D&i i
-1.2144 & D&i l
-1.2144 & D&i n
-1.2144 & D&i tc
-0.8003 & E I
-0.8003 & E u
-1.4073 & I &
-2.0551 & I @
-1.9090 & I A
-1.8466 & I D&
-2.3014 & I D&i
-1.6036 & I N
-1.1265 & I S
-1.7955 & I U
-2.5500 & I Y
-1.7955 & I a
-1.9090 & I aU
-2.1828 & I b
-1.4487 & I d
-0.8805 & I dc
-1.9759 & I e
-1.9759 & I f
-1.6706 & I g
-2.0551 & I h
-1.7083 & I i
-1.9090 & I j
-1.6358 & I kh
-1.6358 & I l
-1.6036 & I m
-1.3026 & I n
-2.0551 & I o
-1.7083 & I ph
-1.7083 & I r
-1.4487 & I s
-0.8632 & I tc
-1.4275 & I th
-1.6358 & I ts
-1.6706 & I u
-1.6036 & I v
-1.6706 & I x
-2.5500 & I y
-1.4275 & I z
-1.4105 & N &
-2.1013 & N @
-1.7959 & N A
-2.1013 & N D&
-2.3751 & N D&i
-2.7423 & N E
-1.1861 & N I
-1.0969 & N S
-1.7959 & N U
-1.9878 & N Y
-1.6867 & N a
-2.2474 & N aU
-2.0389 & N ai
-1.3738 & N b
-1.7116 & N d
-1.3622 & N dc
-1.7959 & N e
-1.2260 & N g
-1.8628 & N h
-1.3509 & N i
-1.5270 & N j
-1.6410 & N kh
-1.7379 & N l
-1.5441 & N m
-1.2986 & N n
-1.7959 & N o
-2.2474 & N oe
-1.8281 & N ph
-1.9878 & N r
-1.6198 & N s
-2.2474 & N tS
-0.9552 & N tc
-1.5618 & N th
-1.8628 & N ts
-1.7659 & N u
-1.5270 & N v
-1.6410 & N x
-2.0389 & N y
-1.7116 & N z
-1.2069 & S &
-1.9004 & S @
-1.6573 & S A
-1.6274 & S D&
-2.4099 & S D&i
-2.4099 & S E
-1.1002 & S I
-2.1045 & S N
-1.2594 & S U
-1.6573 & S Y
-1.4417 & S a
-1.9584 & S aU
-2.1045 & S ai
-2.2014 & S b
-1.5024 & S d
-1.1502 & S dc
-1.4417 & S e
-1.8035 & S f
-1.4232 & S g
-1.9905 & S h
-1.4917 & S i
-1.7428 & S j
-1.7621 & S kh
-1.5730 & S l
-1.5730 & S m
-1.5604 & S n
-1.5860 & S o
-1.6731 & S oe
-2.0631 & S ph
-1.5604 & S r
-1.8035 & S s
-2.2638 & S tS
-1.1960 & S tc
-1.5247 & S th
-1.6131 & S ts
-1.7243 & S u
-1.6421 & S v
-2.0631 & S x
-2.1502 & S y
-1.8035 & S z
-2.0622 & U &
-1.7368 & U A
-1.9436 & U D&
-1.4692 & U I
-1.3345 & U N
-1.0634 & U S
-2.0622 & U Y
-1.9436 & U a
-2.3108 & U ai
-1.5563 & U b
-1.7368 & U d
-0.9308 & U dc
-1.3966 & U f
-1.6698 & U g
-1.4692 & U i
-1.8159 & U j
-2.3108 & U kh
-1.5105 & U l
-2.3108 & U m
-1.8159 & U n
-1.5563 & U o
-2.3108 & U oe
-1.9436 & U ph
-1.8159 & U r
-1.6698 & U s
-0.7782 & U tc
-1.5105 & U th
-2.3108 & U ts
-1.5105 & U u
-1.6698 & U v
-1.2801 & U x
-2.3108 & U y
-1.8159 & U z
-1.6722 & Y &
-1.9208 & Y @
-1.6722 & Y D&
-1.5536 & Y I
-1.4260 & Y N
-1.5536 & Y S
-1.1663 & Y U
-1.9208 & Y d
-1.0414 & Y dc
-1.9208 & Y e
-1.6722 & Y f
-1.2798 & Y i
-1.5536 & Y l
-1.1206 & Y m
-1.4260 & Y n
-1.9208 & Y ph
-1.3468 & Y s
-0.9445 & Y tc
-1.6722 & Y u
-1.0792 & Y v
-1.5536 & Y x
-1.3468 & Y z
-1.6614 & a I
-2.1563 & a N
-0.8936 & a S
-1.6614 & a U
-1.7891 & a b
-1.2768 & a dc
-1.5822 & a f
-2.1563 & a h
-1.1256 & a l
-1.3560 & a m
-0.8375 & a n
-2.1563 & a o
-1.9077 & a ph
-1.4018 & a r
-1.0338 & a s
-0.9581 & a tc
-2.1563 & a ts
-1.7891 & a v
-1.1799 & a x
-1.3146 & a z
-1.7405 & aU A
-1.3075 & aU D&
-1.6129 & aU D&i
-1.4044 & aU N
-1.3075 & aU S
-1.2661 & aU U
-1.5337 & aU a
-1.5337 & aU b
-1.2283 & aU dc
-1.4668 & aU f
-1.8591 & aU g
-1.8591 & aU h
-2.1078 & aU i
-2.1078 & aU kh
-1.8591 & aU l
-1.4044 & aU m
-1.6129 & aU n
-1.1614 & aU o
-2.1078 & aU oe
-1.8591 & aU ph
-1.0522 & aU r
-1.8591 & aU s
-1.3075 & aU tc
-1.8591 & aU th
-1.8591 & aU ts
-1.1936 & aU u
-1.6129 & aU v
-1.1614 & aU x
-1.8591 & aU z
-1.4901 & ai &
-1.4901 & ai @
-0.9806 & ai I
-1.0386 & ai N
-1.6177 & ai S
-1.9850 & ai U
-1.9850 & ai Y
-1.6177 & ai d
-1.4109 & ai dc
-1.7363 & ai h
-1.1433 & ai i
-1.6177 & ai j
-1.2304 & ai l
-1.3440 & ai m
-1.0386 & ai n
-1.9850 & ai o
-1.9850 & ai r
-1.1433 & ai s
-1.1847 & ai tc
-1.9850 & ai th
-1.6177 & ai u
-1.4109 & ai v
-1.6177 & ai x
-1.1651 & b &
-1.8023 & b @
-1.6746 & b A
-1.1931 & b D&
-1.4661 & b D&i
-1.4661 & b I
-1.6746 & b N
-1.4150 & b S
-1.3692 & b U
-2.1695 & b Y
-1.1388 & b a
-1.8023 & b aU
-1.3278 & b ai
-2.1695 & b d
-1.8023 & b dc
-1.4661 & b e
-1.4661 & b g
-1.9209 & b h
-1.3278 & b i
-1.8023 & b j
-2.1695 & b kh
-2.1695 & b l
-1.9209 & b m
-1.9209 & b n
-1.4150 & b o
-1.6746 & b oe
-1.3278 & b r
-1.8023 & b s
-1.5954 & b tc
-1.8023 & b th
-1.9209 & b ts
-1.3692 & b u
-1.8023 & b v
-1.6746 & b x
-1.6746 & b y
-2.1695 & b z
-1.0152 & d &
-1.4668 & d @
-1.2583 & d A
-1.4668 & d D&
-0.9061 & d I
-1.4668 & d N
-1.5944 & d S
-1.5944 & d U
-1.0474 & d a
-1.5944 & d ai
-1.9616 & d dc
-1.3206 & d e
-1.9616 & d h
-1.7130 & d i
-1.9616 & d j
-1.9616 & d l
-1.7130 & d m
-1.7130 & d n
-1.7130 & d o
-0.8826 & d r
-1.7130 & d s
-1.9616 & d tc
-1.5944 & d u
-1.9616 & d x
-1.7130 & d z
-1.9706 & dc &
-3.0719 & dc A
-2.4978 & dc D&
-2.8232 & dc D&i
-1.8092 & dc I
-2.4978 & dc N
-1.7275 & dc S
-1.9706 & dc U
-2.2302 & dc Y
-2.5770 & dc a
-2.5770 & dc aU
-2.7047 & dc ai
-0.7275 & dc b
-0.5416 & dc d
-2.2302 & dc e
-2.8232 & dc f
-0.8033 & dc g
-2.4978 & dc h
-1.8737 & dc i
-2.1924 & dc j
-1.4935 & dc kh
-1.9099 & dc l
-2.1924 & dc m
-1.7802 & dc n
-2.0955 & dc o
-2.8232 & dc oe
-1.5814 & dc ph
-2.3685 & dc r
-2.8232 & dc s
-3.0719 & dc tS
-1.8914 & dc tc
-1.0261 & dc th
-2.1577 & dc ts
-2.0163 & dc u
-1.8092 & dc v
-2.5770 & dc x
-2.4978 & dc y
-2.3685 & dc z
-1.3415 & e &
-1.4601 & e I
-1.0678 & e N
-0.8671 & e S
-1.7088 & e aU
-1.4601 & e ai
-1.1347 & e dc
-1.4601 & e h
-1.7088 & e kh
-1.1347 & e l
-1.7088 & e m
-1.2139 & e n
-1.7088 & e oe
-1.4601 & e r
-0.9085 & e tc
-1.7088 & e x
-1.7088 & e z
-1.5726 & f &
-1.9649 & f A
-1.2672 & f D&
-1.6395 & f D&i
-1.5102 & f I
-1.3719 & f S
-1.5726 & f U
-1.9649 & f Y
-1.0331 & f a
-1.4133 & f aU
-1.5102 & f ai
-1.8463 & f b
-1.5102 & f d
-1.3719 & f dc
-1.8463 & f e
-1.6395 & f g
-1.7187 & f h
-1.6395 & f i
-2.2136 & f j
-1.9649 & f kh
-2.2136 & f l
-2.2136 & f m
-1.7187 & f n
-1.3719 & f o
-1.7187 & f ph
-1.8463 & f r
-2.2136 & f s
-1.1829 & f tc
-1.6395 & f th
-1.6395 & f ts
-0.8451 & f u
-1.7187 & f v
-2.2136 & f x
-1.8463 & f z
-1.0577 & g &
-1.4957 & g @
-1.7695 & g A
-1.2573 & g D&
-1.8881 & g D&i
-1.0812 & g I
-1.4957 & g N
-1.5627 & g S
-1.0142 & g U
-1.8881 & g Y
-1.4957 & g a
-1.6419 & g aU
-2.1367 & g dc
-1.4334 & g e
-1.7695 & g h
-1.3365 & g i
-1.8881 & g j
-1.6419 & g l
-1.4334 & g m
-1.2225 & g n
-1.2951 & g o
-1.3822 & g r
-1.8881 & g tc
-1.3365 & g u
-1.8881 & g v
-1.5627 & g x
-1.8881 & g z
-1.5898 & h &
-1.9153 & h @
-1.1332 & h A
-1.3636 & h D&
-2.1639 & h D&i
-1.4094 & h I
-1.5229 & h N
-1.4605 & h S
-1.6690 & h U
-1.0212 & h a
-1.5229 & h aU
-1.5229 & h ai
-1.6690 & h b
-1.5229 & h d
-1.6690 & h dc
-1.5898 & h e
-1.9153 & h f
-1.9153 & h g
-1.5229 & h i
-1.5229 & h kh
-1.3636 & h l
-1.3636 & h m
-1.5229 & h n
-1.5898 & h o
-2.1639 & h oe
-1.5229 & h r
-1.7967 & h s
-1.7967 & h tc
-1.6690 & h th
-1.6690 & h ts
-1.3222 & h u
-2.1639 & h v
-1.9153 & h x
-1.6690 & h y
-2.1639 & h z
-1.7633 & i &
-2.0095 & i @
-2.2582 & i E
-1.0962 & i I
-1.3787 & i N
-0.7858 & i S
-1.8909 & i U
-1.6841 & i Y
-2.2582 & i b
-2.0095 & i d
-1.1791 & i dc
-2.2582 & i f
-2.0095 & i g
-2.2582 & i h
-1.8909 & i j
-1.5036 & i kh
-1.4579 & i l
-1.5548 & i m
-1.2818 & i n
-2.2582 & i ph
-1.1791 & i s
-2.0095 & i tS
-0.9808 & i tc
-1.6171 & i th
-1.5036 & i ts
-1.7633 & i v
-1.1155 & i x
-1.7633 & i z
-0.9311 & j &
-1.9075 & j @
-0.7093 & j A
-1.3334 & j D&
-1.9075 & j I
-1.4126 & j S
-1.9075 & j U
-1.0280 & j a
-1.3334 & j aU
-1.9075 & j ai
-1.3334 & j e
-1.9075 & j g
-1.9075 & j i
-1.6589 & j l
-1.9075 & j o
-1.0280 & j r
-1.5403 & j s
-1.9075 & j tc
-1.3334 & j u
-1.9075 & j x
-1.5932 & kh &
-2.0881 & kh A
-1.2086 & kh D&
-1.3336 & kh I
-1.3336 & kh S
-1.4471 & kh U
-1.5932 & kh Y
-1.1117 & kh a
-1.5140 & kh aU
-2.0881 & kh ai
-1.8394 & kh b
-1.8394 & kh d
-1.1417 & kh dc
-1.8394 & kh e
-2.0881 & kh f
-1.5140 & kh g
-2.0881 & kh h
-2.0881 & kh i
-1.5932 & kh j
-1.5140 & kh l
-1.8394 & kh m
-1.4471 & kh n
-1.3847 & kh o
-2.0881 & kh oe
-1.8394 & kh ph
-1.1417 & kh r
-2.0881 & kh s
-1.2086 & kh tc
-1.3847 & kh u
-1.8394 & kh v
-1.7208 & kh x
-2.0881 & kh z
-1.1600 & l &
-1.5348 & l @
-1.5859 & l A
-1.7357 & l D&
-2.2715 & l D&i
-2.1924 & l E
-1.3534 & l I
-1.8522 & l N
-1.4748 & l S
-1.5859 & l U
-2.0119 & l Y
-1.2258 & l a
-1.8200 & l aU
-1.6874 & l ai
-1.8870 & l b
-1.7109 & l d
-1.1738 & l dc
-1.1273 & l e
-2.5178 & l f
-1.7357 & l g
-1.9661 & l h
-1.3227 & l i
-1.8200 & l j
-1.8870 & l kh
-1.7901 & l m
-1.6439 & l n
-1.6044 & l o
-1.7901 & l oe
-2.1924 & l ph
-1.6044 & l r
-1.5682 & l s
-1.1668 & l tc
-1.8870 & l th
-2.1924 & l ts
-1.8200 & l u
-1.6237 & l v
-1.7620 & l x
-1.7901 & l y
-1.3864 & l z
-1.3214 & m &
-2.0573 & m @
-1.4434 & m A
-1.2956 & m D&
-1.8075 & m D&i
-1.4318 & m I
-1.6136 & m N
-1.3988 & m S
-1.5344 & m U
-2.1085 & m Y
-1.0622 & m a
-1.4675 & m aU
-1.3488 & m ai
-2.1085 & m b
-1.5202 & m d
-1.6894 & m dc
-1.6498 & m e
-2.3170 & m f
-1.7811 & m g
-1.8075 & m h
-1.4205 & m i
-1.9324 & m j
-2.0116 & m kh
-1.8654 & m l
-1.4553 & m n
-1.4801 & m o
-1.9324 & m oe
-2.1085 & m ph
-1.6498 & m r
-1.8075 & m s
-1.1791 & m tc
-1.7563 & m th
-2.1085 & m ts
-1.2262 & m u
-1.8075 & m v
-1.7105 & m x
-2.0573 & m y
-1.6136 & m z
-1.2635 & n &
-1.8028 & n @
-1.3665 & n A
-1.5550 & n D&
-2.7694 & n D&i
-2.6508 & n E
-1.2310 & n I
-1.9625 & n N
-1.2684 & n S
-1.8028 & n U
-2.1386 & n Y
-1.1314 & n a
-1.7706 & n aU
-1.4543 & n ai
-1.7706 & n b
-1.6267 & n d
-1.2883 & n dc
-1.3093 & n e
-2.0716 & n f
-1.5843 & n g
-1.8375 & n h
-1.3665 & n i
-1.6992 & n j
-1.9167 & n kh
-1.8753 & n l
-1.7706 & n m
-2.0136 & n o
-2.2177 & n oe
-2.0716 & n ph
-1.8198 & n r
-1.7406 & n s
-2.4440 & n tS
-1.0136 & n tc
-1.5843 & n th
-1.9390 & n ts
-1.6863 & n u
-1.6737 & n v
-1.7706 & n x
-2.1386 & n y
-1.6050 & n z
-2.0125 & o &
-1.7638 & o @
-1.4384 & o A
-1.5176 & o I
-1.3091 & o N
-1.1330 & o S
-1.5176 & o U
-2.0125 & o Y
-1.6452 & o a
-2.0125 & o ai
-1.2579 & o b
-1.7638 & o d
-1.0982 & o dc
-1.6452 & o f
-1.4384 & o g
-1.4384 & o h
-2.0125 & o i
-1.5176 & o j
-1.5176 & o l
-1.7638 & o m
-1.4384 & o n
-2.0125 & o ph
-2.0125 & o r
-1.7638 & o s
-0.8900 & o tc
-1.5176 & o th
-2.0125 & o u
-1.5176 & o v
-1.6452 & o x
-1.6452 & o z
-1.1427 & oe A
-1.3913 & oe N
-1.3913 & oe S
-1.0241 & oe h
-1.1427 & oe l
-1.3913 & oe m
-1.0241 & oe n
-1.0241 & oe r
-1.3913 & oe s
-1.1427 & oe x
-1.5569 & ph A
-1.1696 & ph D&
-1.9241 & ph D&i
-1.2831 & ph I
-1.9241 & ph S
-1.5569 & ph U
-1.2831 & ph a
-1.6755 & ph aU
-1.9241 & ph ai
-1.9241 & ph b
-1.0099 & ph dc
-1.5569 & ph e
-1.9241 & ph f
-1.6755 & ph h
-1.5569 & ph i
-1.6755 & ph j
-1.3501 & ph kh
-1.9241 & ph l
-1.6755 & ph m
-1.3501 & ph n
-1.3501 & ph o
-1.6755 & ph r
-1.6755 & ph s
-1.1696 & ph tc
-1.6755 & ph th
-1.9241 & ph ts
-1.1696 & ph u
-1.9241 & ph v
-1.9241 & ph x
-1.8963 & r &
-2.6516 & r @
-1.7414 & r A
-1.8568 & r D&
-2.4447 & r D&i
-1.6871 & r I
-1.6165 & r N
-1.2691 & r S
-1.6388 & r U
-2.4447 & r Y
-1.5851 & r a
-2.0724 & r aU
-1.6388 & r ai
-1.3552 & r b
-2.0424 & r d
-0.9706 & r dc
-2.1046 & r e
-2.1046 & r f
-1.7714 & r g
-1.8963 & r h
-1.9633 & r i
-1.5196 & r kh
-1.5110 & r l
-1.4551 & r m
-1.3673 & r n
-1.8036 & r o
-2.4447 & r oe
-1.6388 & r ph
-1.4627 & r s
-2.2185 & r tS
-0.8761 & r tc
-1.6388 & r th
-1.7714 & r ts
-1.7414 & r u
-1.1046 & r v
-1.6745 & r x
-2.5239 & r y
-1.4627 & r z
-1.7434 & s &
-2.0445 & s A
-1.9573 & s D&
-2.7990 & s D&i
-2.7990 & s E
-1.4424 & s I
-2.3041 & s N
-1.0956 & s S
-1.5837 & s U
-1.8848 & s Y
-1.9573 & s a
-2.4317 & s ai
-1.5363 & s b
-1.3652 & s d
-1.1598 & s dc
-1.9573 & s e
-1.6370 & s f
-1.3175 & s g
-2.0445 & s h
-1.8526 & s i
-2.2249 & s j
-1.2997 & s kh
-2.3041 & s l
-1.7946 & s m
-1.6008 & s n
-2.0956 & s o
-2.3041 & s oe
-1.5363 & s ph
-1.9987 & s r
-1.7434 & s tS
-1.0445 & s tc
-1.1792 & s th
-1.0796 & s ts
-1.6563 & s u
-1.5216 & s v
-1.8226 & s x
-2.7990 & s y
-1.2744 & s z
-1.5406 & tS @
-1.1734 & tS S
-1.5406 & tS a
-1.1734 & tS dc
-1.5406 & tS e
-1.5406 & tS g
-1.5406 & tS j
-1.2920 & tS kh
-1.2920 & tS m
-1.2920 & tS n
-0.9666 & tS tc
-1.2920 & tS th
-1.1734 & tS ts
-1.5406 & tS v
-2.2298 & tc &
-2.4603 & tc D&
-1.9418 & tc I
-0.9187 & tc S
-2.4189 & tc U
-3.2606 & tc Y
-2.3811 & tc a
-3.0119 & tc aU
-3.0119 & tc ai
-1.3332 & tc b
-1.1299 & tc d
-1.6894 & tc dc
-2.7657 & tc e
-1.8168 & tc f
-0.9444 & tc g
-2.5572 & tc h
-2.3811 & tc i
-2.4603 & tc j
-0.9379 & tc kh
-2.7657 & tc l
-2.7657 & tc m
-2.7657 & tc n
-2.5061 & tc o
-2.7657 & tc pf
-1.0676 & tc ph
-2.2842 & tc r
-2.0624 & tc s
-1.5465 & tc tS
-0.7368 & tc th
-1.0641 & tc ts
-2.1381 & tc u
-2.1815 & tc v
-1.9979 & tc x
-3.2606 & tc y
-1.7613 & tc z
-1.3139 & th &
-2.2902 & th @
-1.7954 & th A
-1.4900 & th D&
-1.2347 & th I
-2.2902 & th N
-1.3760 & th S
-1.2112 & th U
-1.9230 & th Y
-1.6492 & th a
-1.4486 & th aU
-1.7954 & th b
-1.7162 & th d
-0.9218 & th dc
-1.6492 & th e
-1.6492 & th g
-2.0416 & th h
-1.9230 & th i
-1.7954 & th j
-1.4900 & th kh
-1.9230 & th l
-2.2902 & th m
-1.4108 & th n
-1.6492 & th o
-2.0416 & th oe
-1.7162 & th ph
-1.4486 & th r
-1.9230 & th s
-2.2902 & th tS
-1.1677 & th tc
-1.6492 & th ts
-1.4486 & th u
-1.4486 & th v
-1.7954 & th x
-2.0416 & th y
-1.6492 & th z
-1.3251 & ts &
-1.6924 & ts A
-1.6924 & ts D&
-1.6924 & ts I
-1.6924 & ts S
-0.8921 & ts U
-1.6924 & ts Y
-1.4437 & ts ai
-1.6924 & ts d
-1.6924 & ts dc
-1.4437 & ts e
-0.9890 & ts i
-1.3251 & ts n
-1.1975 & ts o
-1.6924 & ts r
-1.4437 & ts s
-1.6924 & ts u
-1.6924 & ts v
-1.1975 & ts z
-1.6508 & u &
-1.7801 & u A
-1.9869 & u D&
-1.5539 & u I
-1.0224 & u N
-0.8726 & u S
-1.2986 & u U
-2.1055 & u Y
-1.5996 & u a
-2.1055 & u aU
-1.7801 & u ai
-1.7801 & u b
-1.9869 & u d
-1.5996 & u dc
-2.1055 & u f
-1.7131 & u g
-1.7801 & u h
-1.9869 & u i
-1.9869 & u j
-2.3542 & u kh
-1.5539 & u l
-1.6508 & u m
-1.2317 & u n
-1.7801 & u o
-1.9869 & u oe
-2.1055 & u ph
-1.4747 & u r
-1.5125 & u s
-0.9976 & u tc
-2.3542 & u th
-2.1055 & u ts
-1.3234 & u v
-1.3498 & u x
-2.3542 & u y
-1.5539 & u z
-1.1363 & v &
-1.6382 & v @
-1.2252 & v A
-1.3123 & v D&
-1.7547 & v D&i
-2.0279 & v E
-1.0763 & v I
-2.0279 & v N
-1.7225 & v S
-1.5676 & v U
-2.0279 & v Y
-0.9765 & v a
-1.3635 & v aU
-1.1128 & v ai
-2.1740 & v b
-2.0949 & v d
-2.1740 & v dc
-1.3123 & v e
-2.6689 & v f
-2.1740 & v g
-2.1740 & v h
-1.0693 & v i
-1.9656 & v j
-2.1740 & v kh
-1.7547 & v l
-2.6689 & v m
-1.7547 & v n
-1.3372 & v o
-1.7895 & v oe
-2.6689 & v ph
-1.7547 & v r
-2.4203 & v s
-2.6689 & v tS
-2.6689 & v tc
-2.4203 & v th
-2.6689 & v ts
-1.3773 & v u
-2.0949 & v x
-1.8273 & v y
-2.6689 & v z
-1.5709 & x &
-2.4851 & x @
-2.1179 & x A
-1.9902 & x D&
-1.4296 & x I
-1.7818 & x N
-1.2224 & x S
-1.6848 & x U
-1.8441 & x Y
-1.9902 & x a
-2.2365 & x aU
-1.7818 & x b
-1.5088 & x d
-0.9067 & x dc
-2.1179 & x e
-1.6435 & x f
-1.5387 & x g
-2.4851 & x h
-1.7306 & x i
-2.1179 & x j
-1.3424 & x kh
-1.7306 & x l
-1.6057 & x m
-1.3046 & x n
-1.9902 & x o
-2.4851 & x oe
-1.4807 & x ph
-1.9902 & x r
-1.4807 & x s
-1.7818 & x tS
-0.8523 & x tc
-1.5088 & x th
-1.5709 & x ts
-1.4807 & x u
-1.6435 & x v
-1.7818 & x z
-1.0568 & y I
-1.0568 & y dc
-0.8105 & y n
-1.0568 & y r
-0.6644 & y tc
-0.9412 & z &
-1.7975 & z @
-1.5166 & z A
-1.6927 & z D&
-2.2719 & z D&i
-2.2719 & z E
-1.4964 & z I
-1.8388 & z S
-1.2261 & z U
-1.7597 & z Y
-1.0465 & z a
-1.8846 & z aU
-1.5166 & z ai
-1.9981 & z b
-1.4771 & z d
-1.6628 & z dc
-1.2261 & z e
-2.0651 & z g
-2.0651 & z h
-1.2591 & z i
-1.7249 & z j
-1.9358 & z kh
-1.5836 & z l
-1.8388 & z m
-1.5378 & z n
-1.2948 & z o
-1.5836 & z oe
-2.2719 & z ph
-1.6084 & z r
-1.7975 & z s
-2.6391 & z tS
-2.1442 & z tc
-1.8846 & z th
-2.6391 & z ts
-1.3074 & z u
-1.7249 & z v
-1.5166 & z y
-1.4023 @ & I
-1.8972 @ & N
-0.9508 @ & S
-1.5300 @ & a
-1.5300 @ & b
-1.1427 @ & dc
-1.6486 @ & g
-1.8972 @ & h
-1.2562 @ & kh
-1.5300 @ & l
-1.5300 @ & m
-0.9508 @ & n
-1.8972 @ & oe
-1.8972 @ & ph
-1.3231 @ & r
-1.1427 @ & s
-0.9508 @ & tc
-1.6486 @ & th
-1.6486 @ & v
-1.8972 @ & x
-1.8972 @ & z
-1.7972 @ A &
-2.0458 @ A I
-1.0151 @ A N
-1.2913 @ A S
-2.0458 @ A U
-2.0458 @ A Y
-2.0458 @ A a
-2.0458 @ A aU
-1.7972 @ A b
-1.4048 @ A dc
-2.0458 @ A f
-1.4717 @ A g
-2.0458 @ A h
-1.4717 @ A kh
-1.1663 @ A l
-1.1663 @ A m
-1.0414 @ A n
-2.0458 @ A o
-1.5509 @ A ph
-1.3424 @ A r
-1.4717 @ A s
-1.0151 @ A tc
-1.7972 @ A th
-1.7972 @ A ts
-1.5509 @ A u
-1.3424 @ A v
-2.0458 @ A x
-1.4048 @ A z
-1.5078 @ D& @
-1.2592 @ D& A
-1.0130 @ D& S
-0.9338 @ D& dc
-1.2592 @ D& f
-1.5078 @ D& l
-1.5078 @ D& m
-0.8668 @ D& n
-1.5078 @ D& r
-1.1406 @ D& tc
-1.5078 @ D& z
-0.5516 @ D&i S
-0.5516 @ D&i i
-1.0044 @ E l
-1.0044 @ E n
-1.0044 @ E r
-0.7558 @ E tc
-1.3496 @ I &
-1.9906 @ I @
-1.7420 @ I N
-1.1489 @ I S
-1.4957 @ I U
-1.9906 @ I Y
-1.9906 @ I a
-1.9906 @ I d
-1.0442 @ I dc
-1.9906 @ I f
-1.6234 @ I g
-1.9906 @ I h
-1.7420 @ I i
-1.6234 @ I j
-1.9906 @ I kh
-1.2361 @ I l
-1.6234 @ I m
-1.3496 @ I n
-1.6234 @ I ph
-1.4957 @ I r
-1.4165 @ I s
-0.9116 @ I tc
-1.4957 @ I th
-1.7420 @ I ts
-1.7420 @ I u
-1.2872 @ I v
-1.4165 @ I x
-1.3496 @ I z
-1.5665 @ N &
-2.0180 @ N @
-2.2643 @ N A
-2.0180 @ N D&
-2.5129 @ N E
-1.1941 @ N I
-0.9966 @ N S
-1.6713 @ N U
-2.0180 @ N Y
-1.7126 @ N a
-2.2643 @ N ai
-2.1457 @ N b
-1.5987 @ N d
-1.6713 @ N dc
-1.6713 @ N e
-1.2213 @ N g
-1.9389 @ N h
-1.3509 @ N i
-1.2813 @ N j
-1.5987 @ N kh
-1.4116 @ N m
-1.1329 @ N n
-1.6713 @ N o
-1.9389 @ N oe
-2.1457 @ N ph
-1.8719 @ N r
-1.4339 @ N s
-1.0692 @ N tc
-1.7126 @ N th
-1.7126 @ N ts
-1.5366 @ N u
-1.5665 @ N v
-1.4822 @ N x
-2.5129 @ N y
-1.5665 @ N z
-1.1783 @ S &
-1.8439 @ S @
-1.5185 @ S A
-1.5977 @ S D&
-1.8439 @ S E
-1.3892 @ S I
-1.1162 @ S U
-1.8439 @ S Y
-1.7253 @ S a
-1.7253 @ S aU
-1.7253 @ S ai
-1.7253 @ S d
-1.1783 @ S dc
-1.2131 @ S e
-1.5185 @ S f
-1.5977 @ S g
-2.0925 @ S h
-1.3892 @ S i
-1.5185 @ S j
-1.5977 @ S kh
-2.0925 @ S m
-1.5185 @ S n
-1.5185 @ S oe
-1.8439 @ S ph
-1.5185 @ S r
-1.0135 @ S tc
-1.4515 @ S th
-1.5185 @ S ts
-1.5977 @ S v
-2.0925 @ S z
-1.8256 @ U &
-1.5769 @ U A
-1.5769 @ U D&
-1.5769 @ U D&i
-1.5769 @ U I
-1.4583 @ U N
-1.0711 @ U S
-1.8256 @ U ai
-1.8256 @ U b
-1.5769 @ U d
-0.9461 @ U dc
-1.3307 @ U f
-1.8256 @ U g
-1.5769 @ U h
-1.8256 @ U i
-1.8256 @ U kh
-1.4583 @ U l
-1.4583 @ U n
-1.8256 @ U o
-1.5769 @ U ph
-1.8256 @ U tS
-0.8492 @ U tc
-1.8256 @ U th
-1.8256 @ U v
-1.5769 @ U x
-1.8256 @ U y
-1.8256 @ U z
-1.1982 @ Y N
-1.1982 @ Y l
-1.1982 @ Y r
-0.7033 @ Y tc
-1.1982 @ Y z
-1.4975 @ a N
-1.2237 @ a S
-1.8647 @ a U
-1.8647 @ a ai
-1.1614 @ a dc
-1.6161 @ a h
-0.9505 @ a l
-0.7634 @ a n
-1.8647 @ a ph
-1.3699 @ a r
-0.9505 @ a s
-0.7857 @ a tc
-1.4975 @ a x
-1.3699 @ a z
-1.2085 @ aU N
-1.1293 @ aU S
-1.4547 @ aU U
-1.0624 @ aU a
-1.7034 @ aU ai
-1.4547 @ aU b
-1.0000 @ aU dc
-1.7034 @ aU g
-1.4547 @ aU kh
-1.3361 @ aU l
-1.2085 @ aU m
-1.3361 @ aU n
-1.7034 @ aU o
-1.3361 @ aU r
-1.4547 @ aU tc
-1.7034 @ aU th
-1.7034 @ aU u
-1.3361 @ aU v
-1.4547 @ aU x
-0.9853 @ ai I
-0.8718 @ ai N
-1.3777 @ ai S
-1.3777 @ ai dc
-1.3777 @ ai g
-1.2591 @ ai j
-1.1315 @ ai l
-0.8261 @ ai n
-1.6263 @ ai r
-1.6263 @ ai s
-1.0523 @ ai tc
-1.6263 @ ai ts
-1.6263 @ ai u
-1.3777 @ ai v
-1.6263 @ ai x
-1.0430 @ b I
-1.2916 @ b a
-1.2916 @ b ai
-1.2916 @ b i
-1.0430 @ b j
-1.2916 @ b n
-1.0430 @ b r
-1.0430 @ b u
-1.0555 @ d &
-1.0555 @ d A
-1.0555 @ d D&
-0.8069 @ d r
-1.9689 @ dc &
-2.1758 @ dc @
-1.6288 @ dc I
-2.0481 @ dc S
-1.9689 @ dc U
-2.0481 @ dc Y
-0.8289 @ dc b
-0.7215 @ dc d
-1.8396 @ dc e
-0.5552 @ dc g
-2.5430 @ dc h
-1.7885 @ dc i
-1.7885 @ dc j
-1.4640 @ dc kh
-1.9020 @ dc l
-2.2944 @ dc m
-1.5966 @ dc n
-2.0481 @ dc o
-1.7885 @ dc ph
-2.2944 @ dc tS
-1.9020 @ dc tc
-1.0895 @ dc th
-2.2944 @ dc ts
-1.9689 @ dc u
-1.9020 @ dc v
-2.1758 @ dc x
-2.1758 @ dc y
-1.9689 @ dc z
-1.7915 @ e &
-1.2174 @ e N
-1.5429 @ e Y
-1.7915 @ e a
-1.0370 @ e dc
-1.7915 @ e h
-1.2966 @ e i
-1.7915 @ e j
-1.7915 @ e kh
-1.4243 @ e l
-1.2174 @ e m
-0.9498 @ e n
-1.7915 @ e ph
-1.4243 @ e r
-1.5429 @ e s
-0.8773 @ e tc
-1.2174 @ e x
-1.5429 @ e z
-1.3318 @ f D&
-1.3318 @ f U
-1.3318 @ f d
-0.9645 @ f h
-1.3318 @ f kh
-1.3318 @ f o
-1.3318 @ f ph
-1.0831 @ f tc
-0.9645 @ f u
-1.3318 @ f x
-1.4023 @ g &
-1.4023 @ g @
-1.4023 @ g I
-1.1537 @ g N
-1.4023 @ g U
-1.4023 @ g dc
-1.1537 @ g l
-0.9075 @ g n
-1.4023 @ g o
-1.4023 @ g r
-1.4023 @ g tc
-1.5248 @ h &
-1.4062 @ h @
-1.0700 @ h A
-1.5248 @ h D&
-1.7734 @ h D&i
-1.4062 @ h I
-1.4062 @ h S
-1.5248 @ h Y
-1.1993 @ h a
-1.7734 @ h aU
-1.7734 @ h ai
-1.4062 @ h dc
-1.4062 @ h e
-1.5248 @ h f
-1.7734 @ h i
-1.7734 @ h j
-1.5248 @ h l
-1.5248 @ h m
-1.4062 @ h n
-1.1993 @ h r
-1.4062 @ h s
-1.7734 @ h tc
-1.7734 @ h ts
-1.7734 @ h u
-1.4062 @ h v
-0.8766 @ i I
-1.4607 @ i N
-0.6368 @ i S
-1.9556 @ i U
-1.3815 @ i dc
-1.7070 @ i g
-1.7070 @ i h
-1.7070 @ i j
-1.2522 @ i n
-1.7070 @ i ph
-1.0762 @ i s
-0.9792 @ i tc
-1.5884 @ i th
-1.9556 @ i u
-1.0414 @ i x
-1.4607 @ i z
-1.0128 @ j &
-0.6255 @ j A
-1.3801 @ j D&
-0.8852 @ j a
-1.3801 @ j aU
-0.7391 @ j r
-1.3801 @ j x
-1.2254 @ kh &
-1.3440 @ kh A
-1.3440 @ kh I
-1.5927 @ kh S
-1.3440 @ kh U
-1.5927 @ kh aU
-1.2254 @ kh ai
-1.3440 @ kh dc
-1.0978 @ kh e
-1.5927 @ kh g
-1.5927 @ kh l
-1.3440 @ kh n
-1.0978 @ kh r
-1.5927 @ kh s
-1.0186 @ kh tc
-1.3440 @ kh u
-1.2292 @ l &
-1.3841 @ l @
-1.5760 @ l A
-2.0818 @ l D&
-2.0818 @ l D&i
-1.2292 @ l I
-1.6895 @ l N
-1.5302 @ l S
-1.5302 @ l U
-2.0818 @ l Y
-1.0117 @ l a
-1.7564 @ l aU
-1.9632 @ l ai
-1.4163 @ l d
-1.4510 @ l dc
-1.0531 @ l e
-2.3305 @ l f
-1.7564 @ l g
-1.9632 @ l h
-1.4888 @ l i
-1.6895 @ l j
-1.7564 @ l m
-1.6271 @ l n
-1.8356 @ l o
-1.9632 @ l oe
-1.8356 @ l r
-1.3841 @ l s
-2.3305 @ l tS
-1.1152 @ l tc
-1.4888 @ l th
-2.3305 @ l ts
-2.0818 @ l u
-1.7564 @ l x
-1.7564 @ l y
-1.5302 @ l z
-1.5207 @ m &
-1.9053 @ m @
-1.4238 @ m A
-1.1375 @ m D&
-2.0329 @ m D&i
-1.3211 @ m I
-1.6968 @ m N
-1.3446 @ m S
-1.3958 @ m U
-2.4002 @ m Y
-1.0947 @ m a
-1.5207 @ m aU
-1.4859 @ m ai
-1.6456 @ m b
-1.5999 @ m d
-1.5207 @ m dc
-1.6456 @ m e
-2.1515 @ m f
-1.8261 @ m g
-2.0329 @ m h
-1.3211 @ m i
-1.4538 @ m j
-2.4002 @ m l
-1.3446 @ m n
-1.5999 @ m o
-2.4002 @ m oe
-1.6456 @ m r
-1.5207 @ m s
-2.4002 @ m tS
-1.1685 @ m tc
-2.4002 @ m th
-2.0329 @ m ts
-1.3211 @ m u
-1.9053 @ m v
-2.1515 @ m x
-2.1515 @ m y
-1.8261 @ m z
-1.2396 @ n &
-1.7413 @ n @
-1.3268 @ n A
-1.7413 @ n D&
-1.4681 @ n I
-1.8083 @ n N
-1.4060 @ n S
-1.8083 @ n U
-2.0151 @ n Y
-1.1507 @ n a
-1.4359 @ n aU
-1.4359 @ n ai
-1.6790 @ n b
-1.3268 @ n d
-1.2203 @ n dc
-1.5029 @ n e
-2.3823 @ n f
-1.4681 @ n g
-2.1337 @ n h
-1.5821 @ n i
-1.5407 @ n j
-1.6790 @ n kh
-2.0151 @ n l
-1.8083 @ n m
-2.0151 @ n o
-2.1337 @ n oe
-1.8875 @ n ph
-1.8083 @ n r
-1.6278 @ n s
-1.0023 @ n tc
-1.6278 @ n th
-1.6790 @ n ts
-1.5029 @ n u
-1.7413 @ n v
-2.0151 @ n x
-2.0151 @ n z
-1.7034 @ o I
-1.3361 @ o N
-1.0624 @ o S
-1.7034 @ o U
-1.4547 @ o a
-1.7034 @ o aU
-1.4547 @ o ai
-1.4547 @ o b
-1.0000 @ o dc
-1.7034 @ o f
-1.4547 @ o g
-1.0624 @ o n
-1.4547 @ o ph
-1.7034 @ o r
-1.0624 @ o tc
-1.7034 @ o th
-1.7034 @ o u
-1.3361 @ o v
-1.7034 @ o x
-1.4547 @ o z
-0.5572 @ oe S
-0.9496 @ oe l
-1.1982 @ oe r
-1.1982 @ oe x
-1.1427 @ ph I
-0.8941 @ ph S
-0.8941 @ ph kh
-1.1427 @ ph n
-1.5992 @ r &
-1.7988 @ r A
-1.9237 @ r D&
-2.4296 @ r D&i
-1.9237 @ r I
-1.5557 @ r N
-1.3594 @ r S
-1.9749 @ r U
-2.1833 @ r Y
-1.6475 @ r a
-2.0372 @ r aU
-1.5992 @ r ai
-1.5557 @ r b
-1.9237 @ r d
-0.9485 @ r dc
-1.6738 @ r e
-2.0372 @ r f
-1.5769 @ r g
-1.7988 @ r h
-1.8779 @ r i
-2.4296 @ r j
-1.6227 @ r kh
-1.4630 @ r l
-1.3594 @ r m
-1.2345 @ r n
-1.8366 @ r o
-1.8366 @ r ph
-1.2759 @ r s
-0.8736 @ r tc
-1.8366 @ r th
-1.9749 @ r ts
-1.7988 @ r u
-1.1537 @ r v
-1.8779 @ r x
-1.4008 @ r z
-1.6171 @ s &
-1.8634 @ s A
-1.3575 @ s I
-1.8634 @ s N
-1.4087 @ s S
-1.6171 @ s U
-2.1120 @ s Y
-1.7448 @ s a
-1.7448 @ s ai
-1.8634 @ s b
-1.6171 @ s d
-1.2326 @ s dc
-1.5380 @ s e
-1.6171 @ s f
-1.4710 @ s g
-1.7448 @ s h
-1.8634 @ s i
-2.1120 @ s j
-1.2704 @ s kh
-1.8634 @ s l
-1.7448 @ s m
-1.5380 @ s n
-2.1120 @ s o
-1.4087 @ s ph
-1.8634 @ s tS
-0.8646 @ s tc
-1.2704 @ s th
-1.3118 @ s ts
-1.6171 @ s u
-1.3118 @ s v
-1.8634 @ s x
-1.5380 @ s z
-2.1216 @ tc &
-2.1216 @ tc I
-2.6165 @ tc N
-1.0838 @ tc S
-2.3679 @ tc Y
-2.3679 @ tc a
-1.4940 @ tc b
-1.1535 @ tc d
-1.7371 @ tc dc
-1.8162 @ tc f
-0.8119 @ tc g
-2.3679 @ tc h
-1.9132 @ tc i
-2.3679 @ tc j
-0.8620 @ tc kh
-2.6165 @ tc m
-2.2493 @ tc n
-2.6165 @ tc pf
-1.1260 @ tc ph
-2.3679 @ tc r
-1.7371 @ tc s
-1.7023 @ tc tS
-0.8119 @ tc th
-0.9837 @ tc ts
-1.9132 @ tc u
-2.2493 @ tc v
-2.3679 @ tc x
-1.6121 @ tc z
-1.3225 @ th &
-1.5711 @ th N
-1.2039 @ th S
-1.5711 @ th U
-1.3225 @ th a
-1.5711 @ th b
-0.9971 @ th dc
-1.2039 @ th e
-1.3225 @ th i
-1.5711 @ th j
-1.5711 @ th kh
-1.2039 @ th l
-1.5711 @ th o
-0.9971 @ th tc
-1.5711 @ th v
-1.3225 @ th x
-0.7755 @ ts dc
-0.6478 @ ts tc
-1.1427 @ ts th
-1.8327 @ u A
-2.1999 @ u D&
-2.1999 @ u D&i
-1.8327 @ u I
-1.1956 @ u N
-0.9847 @ u S
-1.5589 @ u U
-1.9513 @ u Y
-1.9513 @ u a
-1.8327 @ u aU
-1.5589 @ u ai
-1.8327 @ u b
-1.0986 @ u dc
-1.5589 @ u f
-1.9513 @ u h
-1.8327 @ u i
-1.9513 @ u j
-2.1999 @ u kh
-1.4966 @ u l
-1.3205 @ u m
-1.0379 @ u n
-1.7051 @ u o
-1.8327 @ u ph
-1.3583 @ u r
-1.3583 @ u s
-0.9373 @ u tc
-2.1999 @ u th
-1.4966 @ u v
-1.5589 @ u x
-1.6259 @ u z
-1.0696 @ v &
-1.2691 @ v @
-1.3483 @ v A
-1.3483 @ v D&
-2.1486 @ v D&i
-0.8042 @ v I
-2.1486 @ v N
-1.7813 @ v S
-1.8999 @ v U
-2.1486 @ v Y
-1.0930 @ v a
-1.3483 @ v aU
-1.1722 @ v ai
-1.8999 @ v d
-1.3941 @ v e
-2.1486 @ v g
-1.0696 @ v i
-1.4452 @ v j
-1.8999 @ v l
-2.1486 @ v m
-1.8999 @ v n
-1.6537 @ v o
-1.8999 @ v oe
-1.7813 @ v r
-1.5745 @ v u
-1.8999 @ v x
-2.1486 @ v y
-2.1486 @ v z
-1.4668 @ x &
-1.9616 @ x @
-1.7130 @ x D&
-1.0822 @ x I
-1.7130 @ x N
-1.2583 @ x S
-1.5944 @ x U
-1.9616 @ x a
-1.9616 @ x d
-0.9309 @ x dc
-1.7130 @ x f
-1.3206 @ x g
-1.9616 @ x i
-1.9616 @ x j
-1.1200 @ x kh
-1.4668 @ x m
-1.4668 @ x n
-1.7130 @ x o
-1.3876 @ x ph
-1.7130 @ x s
-0.9309 @ x tc
-1.7130 @ x th
-1.4668 @ x ts
-1.5944 @ x u
-1.5944 @ x v
-1.0044 @ y S
-1.0044 @ y l
-1.0044 @ y n
-1.0044 @ y tc
-0.8854 @ z &
-1.5887 @ z @
-1.3802 @ z A
-1.8349 @ z D&
-1.2833 @ z I
-2.0836 @ z N
-1.3802 @ z S
-1.5095 @ z U
-1.8349 @ z Y
-1.3291 @ z a
-1.8349 @ z ai
-1.7163 @ z d
-1.8349 @ z dc
-1.2833 @ z e
-2.0836 @ z f
-1.7163 @ z g
-2.0836 @ z h
-1.2833 @ z i
-1.5887 @ z j
-2.0836 @ z kh
-1.5887 @ z l
-1.7163 @ z m
-1.2833 @ z n
-1.1694 @ z o
-1.4426 @ z oe
-2.0836 @ z r
-1.8349 @ z s
-2.0836 @ z th
-1.7163 @ z u
-1.7163 @ z v
-1.5095 @ z y
-2.0098 A & A
-1.7612 A & D&
-1.3064 A & I
-1.3064 A & N
-1.3688 A & S
-1.5149 A & U
-2.0098 A & Y
-1.5149 A & b
-0.8671 A & dc
-1.7612 A & e
-1.5149 A & h
-1.7612 A & i
-1.2553 A & l
-2.0098 A & m
-1.1681 A & n
-1.2553 A & r
-1.5149 A & s
-2.0098 A & tS
-1.0054 A & tc
-1.6426 A & th
-1.5149 A & u
-1.3064 A & v
-1.7612 A & x
-1.5149 A & z
-0.8527 A @ N
-1.1013 A @ m
-0.8527 A @ r
-0.8527 A @ tc
-1.3775 A D& N
-1.4961 A D& S
-1.7448 A D& Y
-1.7448 A D& a
-1.7448 A D& aU
-1.7448 A D& ai
-1.3775 A D& b
-0.9031 A D& dc
-1.4961 A D& g
-1.1707 A D& l
-1.7448 A D& m
-1.1037 A D& n
-1.7448 A D& o
-1.7448 A D& ph
-0.6435 A D& tc
-1.7448 A D& th
-1.7448 A D& v
-1.4961 A D& x
-0.6021 A D&i I
-0.9075 A D&i N
-1.0351 A D&i S
-1.4023 A D&i i
-1.1537 A D&i l
-1.1537 A D&i n
-0.9075 A D&i r
-1.4023 A D&i x
-0.8417 A E A
-0.8417 A E dc
-1.6584 A I &
-1.7769 A I A
-1.6584 A I D&
-2.0256 A I N
-1.2253 A I S
-1.7769 A I U
-1.7769 A I b
-2.0256 A I d
-0.9700 A I dc
-2.0256 A I e
-1.4515 A I g
-1.6584 A I i
-1.6584 A I j
-1.6584 A I kh
-1.2711 A I m
-1.3222 A I n
-2.0256 A I oe
-1.3846 A I ph
-1.6584 A I r
-1.7769 A I s
-0.8451 A I tc
-1.2711 A I th
-1.6584 A I ts
-1.3846 A I u
-1.5307 A I v
-2.0256 A I x
-1.5307 A I z
-1.3809 A N &
-2.2119 A N @
-1.7375 A N A
-2.5791 A N D&
-1.2737 A N I
-1.1068 A N S
-1.5748 A N U
-2.3305 A N Y
-1.6997 A N a
-2.3305 A N aU
-1.7375 A N ai
-1.5484 A N b
-1.4171 A N d
-1.3165 A N dc
-1.8246 A N e
-1.8758 A N f
-1.3018 A N g
-1.7375 A N h
-1.6649 A N i
-1.5236 A N j
-1.7375 A N kh
-1.6327 A N l
-1.5748 A N m
-1.3018 A N n
-1.6028 A N o
-1.9381 A N oe
-2.2119 A N ph
-2.0051 A N r
-1.5748 A N s
-2.5791 A N tS
-1.0230 A N tc
-1.7375 A N th
-1.5484 A N ts
-1.4778 A N u
-1.5236 A N v
-1.6028 A N x
-2.3305 A N y
-1.6028 A N z
-1.1155 A S &
-1.8735 A S @
-1.6361 A S A
-1.8735 A S D&
-2.3479 A S E
-1.2428 A S I
-2.1411 A S N
-1.2073 A S U
-1.7687 A S Y
-1.4999 A S a
-2.0741 A S aU
-1.8357 A S ai
-2.2203 A S b
-1.5724 A S d
-1.2247 A S dc
-1.4525 A S e
-2.1411 A S f
-1.5347 A S g
-1.8357 A S h
-1.3351 A S i
-1.5724 A S j
-1.9149 A S kh
-1.5169 A S l
-1.7687 A S m
-1.4525 A S n
-1.5169 A S o
-1.6596 A S oe
-1.8735 A S ph
-1.6361 A S r
-1.7687 A S s
-2.2203 A S tS
-1.1667 A S tc
-1.4999 A S th
-1.8357 A S ts
-1.7388 A S u
-1.4999 A S v
-2.0118 A S x
-1.7108 A S y
-1.8009 A S z
-1.6272 A U &
-1.6272 A U A
-1.5086 A U D&
-1.3809 A U I
-1.3018 A U N
-1.0342 A U S
-1.5086 A U ai
-1.6272 A U b
-1.1725 A U dc
-1.8758 A U f
-1.5086 A U g
-1.5086 A U h
-1.8758 A U i
-1.8758 A U kh
-1.1725 A U l
-1.8758 A U n
-1.6272 A U s
-0.8714 A U tc
-1.6272 A U th
-1.6272 A U u
-1.6272 A U v
-1.6272 A U x
-1.3018 A U z
-1.5163 A Y I
-1.1490 A Y U
-1.1490 A Y dc
-1.5163 A Y e
-1.2676 A Y h
-1.2676 A Y i
-1.5163 A Y l
-1.2676 A Y m
-0.9422 A Y n
-1.2676 A Y o
-1.5163 A Y s
-1.2676 A Y tc
-1.5163 A Y th
-1.2676 A Y v
-1.5163 A Y z
-1.7695 A a A
-1.6419 A a I
-1.3822 A a N
-1.2225 A a S
-2.1367 A a U
-1.8881 A a aU
-1.8881 A a ai
-1.8881 A a d
-1.1060 A a dc
-1.8881 A a e
-1.8881 A a f
-1.7695 A a h
-2.1367 A a i
-2.1367 A a kh
-1.0354 A a l
-1.6419 A a m
-0.7924 A a n
-2.1367 A a ph
-1.2225 A a r
-1.2951 A a s
-0.9940 A a tc
-1.4334 A a th
-2.1367 A a ts
-1.8881 A a u
-1.4957 A a v
-1.5627 A a x
-1.5627 A a z
-1.7870 A aU @
-1.7870 A aU I
-1.5384 A aU N
-1.1460 A aU S
-1.1460 A aU U
-1.7870 A aU a
-1.7870 A aU b
-1.1460 A aU dc
-1.4198 A aU f
-1.5384 A aU g
-1.7870 A aU h
-1.7870 A aU kh
-1.7870 A aU l
-1.7870 A aU m
-1.7870 A aU n
-0.9868 A aU o
-1.4198 A aU ph
-1.2922 A aU r
-1.4198 A aU tc
-1.7870 A aU th
-1.7870 A aU ts
-1.1460 A aU u
-1.4198 A aU v
-1.7870 A aU x
-1.6622 A ai @
-1.3368 A ai I
-0.9345 A ai N
-1.4160 A ai S
-1.6622 A ai U
-1.6622 A ai a
-1.9109 A ai d
-1.4160 A ai dc
-1.5436 A ai g
-1.1106 A ai i
-1.5436 A ai j
-1.0314 A ai l
-1.4160 A ai m
-0.9645 A ai n
-1.4160 A ai r
-1.4160 A ai s
-1.2075 A ai tc
-1.9109 A ai u
-1.3368 A ai v
-1.6622 A ai x
-1.1549 A b &
-2.0288 A b @
-1.3632 A b A
-1.1347 A b D&
-1.9102 A b D&i
-1.4357 A b I
-2.0288 A b N
-1.3979 A b S
-1.5229 A b U
-1.7825 A b Y
-1.1154 A b a
-1.9102 A b aU
-1.3010 A b ai
-1.4771 A b d
-1.5229 A b dc
-1.3310 A b e
-2.2774 A b f
-1.6364 A b g
-2.2774 A b h
-1.3979 A b i
-2.2774 A b j
-1.9102 A b kh
-1.7825 A b l
-1.7033 A b m
-1.3632 A b n
-1.7033 A b o
-1.7033 A b ph
-1.2467 A b r
-1.9102 A b s
-2.2774 A b tS
-2.2774 A b tc
-1.6364 A b th
-1.6364 A b ts
-1.7033 A b u
-2.2774 A b v
-2.2774 A b x
-1.7033 A b y
-1.1805 A d &
-1.5059 A d @
-0.8751 A d A
-1.7545 A d D&
-1.7545 A d I
-1.7545 A d N
-1.5059 A d S
-1.7545 A d U
-0.8403 A d a
-1.7545 A d ai
-1.7545 A d dc
-1.1805 A d e
-1.7545 A d l
-1.7545 A d n
-1.7545 A d o
-1.7545 A d oe
-0.9128 A d r
-1.5059 A d tc
-1.5059 A d u
-1.7545 A d v
-1.7545 A d x
-2.4048 A dc &
-2.4048 A dc A
-2.2771 A dc D&
-2.7720 A dc D&i
-1.9303 A dc I
-1.9303 A dc N
-1.5404 A dc S
-1.6100 A dc U
-2.2771 A dc Y
-1.9303 A dc a
-2.0686 A dc aU
-2.7720 A dc ai
-0.7870 A dc b
-0.7786 A dc d
-2.0686 A dc e
-2.1310 A dc f
-0.9383 A dc g
-2.7720 A dc h
-2.1310 A dc i
-2.0175 A dc j
-1.4277 A dc kh
-1.7165 A dc l
-1.7956 A dc m
-1.6495 A dc n
-1.7413 A dc o
-2.5234 A dc oe
-1.4035 A dc ph
-1.8578 A dc r
-2.1980 A dc s
-2.7720 A dc tS
-1.6707 A dc tc
-1.0527 A dc th
-1.7413 A dc ts
-1.5738 A dc u
-1.3185 A dc v
-2.4048 A dc x
-2.5234 A dc y
-2.0686 A dc z
-1.5154 A e &
-1.7641 A e A
-1.7641 A e I
-1.5154 A e N
-1.0607 A e S
-1.5154 A e U
-1.3968 A e a
-1.7641 A e ai
-1.1231 A e dc
-1.7641 A e g
-1.7641 A e h
-1.5154 A e i
-1.3968 A e l
-1.2692 A e m
-0.8846 A e n
-1.1900 A e r
-1.7641 A e s
-1.0095 A e tc
-1.7641 A e th
-1.3968 A e x
-1.7641 A e z
-1.3548 A f &
-1.6224 A f A
-1.1174 A f D&
-1.7016 A f D&i
-1.3548 A f I
-1.2201 A f S
-1.4420 A f U
-1.7016 A f Y
-1.3548 A f a
-1.8292 A f aU
-1.9478 A f ai
-2.1965 A f d
-1.6224 A f dc
-2.1965 A f e
-2.1965 A f g
-1.6224 A f h
-1.5555 A f i
-1.8292 A f j
-1.4931 A f kh
-1.9478 A f l
-2.1965 A f m
-1.6224 A f n
-1.2201 A f o
-2.1965 A f ph
-1.5555 A f r
-1.7016 A f s
-1.9478 A f tS
-1.3170 A f tc
-1.9478 A f th
-1.5555 A f ts
-0.9191 A f u
-1.7016 A f v
-1.8292 A f x
-1.7016 A f z
-1.4617 A g &
-2.0358 A g @
-1.5409 A g A
-1.7872 A g D&
-1.0594 A g I
-1.3324 A g N
-1.1563 A g S
-1.0594 A g U
-1.7872 A g Y
-1.7872 A g a
-2.0358 A g aU
-1.7872 A g dc
-1.7872 A g e
-1.2355 A g i
-1.6686 A g j
-1.7872 A g kh
-1.6686 A g l
-1.7872 A g m
-1.1941 A g n
-1.2813 A g o
-1.3324 A g r
-1.7872 A g s
-1.2813 A g tc
-2.0358 A g th
-1.3324 A g u
-1.3948 A g x
-1.6795 A h &
-1.8864 A h @
-1.2229 A h A
-1.6126 A h D&
-1.8864 A h D&i
-1.4533 A h I
-1.4991 A h N
-1.4119 A h S
-1.3072 A h U
-2.2536 A h Y
-1.0554 A h a
-1.4533 A h aU
-1.4119 A h ai
-2.2536 A h b
-2.0050 A h d
-1.8864 A h dc
-1.3072 A h e
-2.0050 A h g
-1.6795 A h i
-1.6126 A h j
-1.7587 A h kh
-1.4991 A h l
-1.4991 A h m
-1.4533 A h n
-1.5502 A h o
-2.0050 A h oe
-1.3741 A h r
-1.4533 A h s
-2.0050 A h tc
-2.0050 A h th
-1.8864 A h ts
-1.3072 A h u
-1.6795 A h v
-1.7587 A h x
-2.0050 A h y
-1.5502 A h z
-1.9556 A i @
-1.9556 A i E
-1.2011 A i I
-1.2011 A i N
-0.9512 A i S
-1.7070 A i Y
-1.9556 A i aU
-1.5884 A i b
-1.2011 A i dc
-1.9556 A i e
-1.7070 A i j
-1.7070 A i kh
-1.9556 A i l
-1.7070 A i m
-1.0092 A i n
-1.9556 A i ph
-1.3146 A i s
-0.7574 A i tc
-1.9556 A i th
-1.9556 A i u
-1.9556 A i v
-1.3146 A i x
-1.5884 A i z
-1.5927 A j &
-0.9517 A j A
-1.2254 A j S
-0.8893 A j a
-1.5927 A j aU
-1.2254 A j ai
-1.5927 A j h
-1.5927 A j i
-1.5927 A j l
-1.3440 A j r
-1.5927 A j s
-1.5927 A j th
-0.8381 A j u
-1.5927 A j v
-1.7782 A kh &
-2.0244 A kh @
-1.6320 A kh A
-1.3266 A kh D&
-1.5185 A kh I
-1.7782 A kh N
-1.3936 A kh S
-1.5697 A kh U
-1.7782 A kh Y
-1.1940 A kh a
-1.2967 A kh aU
-1.6320 A kh ai
-2.2730 A kh b
-1.6990 A kh d
-1.4314 A kh dc
-1.5697 A kh e
-1.9058 A kh f
-1.9058 A kh g
-1.7782 A kh h
-2.0244 A kh i
-1.7782 A kh j
-1.6990 A kh l
-1.6990 A kh m
-1.6320 A kh n
-1.3936 A kh o
-2.2730 A kh oe
-1.4314 A kh ph
-1.6320 A kh r
-1.5697 A kh s
-1.2967 A kh tc
-1.9058 A kh th
-1.5697 A kh ts
-1.0256 A kh u
-1.5185 A kh v
-1.5697 A kh x
-1.7782 A kh z
-1.3589 A l &
-1.6142 A l @
-1.5598 A l A
-1.8360 A l D&
-1.8872 A l E
-1.2851 A l I
-1.6763 A l N
-1.7903 A l S
-1.6763 A l U
-2.0165 A l Y
-1.2851 A l a
-1.9496 A l aU
-1.6763 A l ai
-1.8872 A l b
-1.8872 A l d
-1.3132 A l dc
-0.8927 A l e
-2.5906 A l f
-2.3419 A l g
-1.7489 A l h
-1.1275 A l i
-1.8872 A l j
-2.3419 A l kh
-1.6142 A l m
-1.3923 A l n
-2.0957 A l o
-1.6763 A l oe
-2.3419 A l ph
-1.8360 A l r
-1.6442 A l s
-1.0579 A l tc
-2.0165 A l th
-1.7111 A l u
-1.7111 A l v
-1.8360 A l x
-2.2233 A l y
-1.2718 A l z
-1.3512 A m &
-2.0398 A m @
-1.3512 A m A
-1.0654 A m D&
-1.7722 A m D&i
-2.6139 A m E
-1.3822 A m I
-1.7344 A m N
-1.5348 A m S
-1.5583 A m U
-2.2466 A m Y
-1.1060 A m a
-1.4156 A m aU
-1.3822 A m ai
-1.7344 A m b
-1.8136 A m d
-1.7722 A m dc
-1.5831 A m e
-1.9105 A m f
-1.7344 A m g
-1.8136 A m h
-1.4156 A m i
-1.8593 A m j
-2.0398 A m kh
-2.1190 A m l
-1.4334 A m n
-1.5583 A m o
-2.3652 A m oe
-2.1190 A m ph
-1.6675 A m r
-1.6375 A m s
-1.4519 A m tc
-2.0398 A m th
-1.8136 A m ts
-1.1903 A m u
-1.8593 A m v
-1.6996 A m x
-2.1190 A m y
-1.4914 A m z
-1.4700 A n &
-1.6524 A n @
-1.2898 A n A
-1.8100 A n D&
-2.4471 A n D&i
-2.4471 A n E
-1.2432 A n I
-1.8100 A n N
-1.3909 A n S
-1.7353 A n U
-2.2403 A n Y
-1.2432 A n a
-1.6919 A n aU
-1.5090 A n ai
-1.9349 A n b
-1.5991 A n d
-1.2898 A n dc
-1.2079 A n e
-2.1734 A n f
-1.5517 A n g
-1.7353 A n h
-1.2582 A n i
-1.4343 A n j
-1.9349 A n kh
-1.8380 A n l
-1.9727 A n m
-1.8680 A n o
-2.4471 A n oe
-1.9002 A n ph
-2.0599 A n r
-1.7131 A n s
-2.3195 A n tS
-1.0185 A n tc
-1.5669 A n th
-1.6524 A n ts
-1.6339 A n u
-1.8680 A n v
-1.7837 A n x
-2.4471 A n y
-1.5827 A n z
-1.9705 A o &
-1.7219 A o D&
-1.7219 A o I
-1.7219 A o N
-1.0241 A o S
-1.9705 A o U
-1.6033 A o a
-1.3965 A o b
-1.9705 A o d
-0.9942 A o dc
-1.9705 A o e
-1.3965 A o f
-1.6033 A o g
-1.9705 A o i
-1.7219 A o kh
-1.6033 A o m
-1.2672 A o n
-1.4757 A o ph
-1.3295 A o r
-1.3965 A o s
-1.0241 A o tc
-1.9705 A o th
-1.4757 A o u
-1.3295 A o v
-1.1703 A o x
-1.7219 A o z
-1.0351 A oe N
-0.8283 A oe S
-1.4023 A oe ai
-1.1537 A oe dc
-1.1537 A oe l
-1.1537 A oe n
-1.1537 A oe r
-1.4023 A oe s
-1.1537 A oe tc
-1.4023 A oe u
-0.7034 A pf U
-0.7034 A pf n
-1.7991 A ph &
-1.8783 A ph A
-1.2304 A ph D&
-2.3731 A ph D&i
-1.3688 A ph I
-1.8783 A ph N
-1.2304 A ph S
-1.2941 A ph U
-2.1245 A ph Y
-1.1257 A ph a
-1.5315 A ph aU
-2.0059 A ph ai
-1.7321 A ph b
-1.5315 A ph d
-1.3968 A ph dc
-2.1245 A ph e
-1.8783 A ph f
-1.8783 A ph g
-1.6698 A ph i
-2.1245 A ph j
-1.5729 A ph kh
-2.1245 A ph l
-1.6698 A ph m
-1.4937 A ph n
-1.3688 A ph o
-1.5729 A ph r
-1.8783 A ph tS
-1.2718 A ph tc
-1.3968 A ph th
-1.4589 A ph ts
-1.0958 A ph u
-1.5729 A ph v
-1.6698 A ph x
-2.3731 A ph y
-1.6698 A ph z
-1.6983 A r &
-2.0385 A r @
-1.5818 A r A
-2.0385 A r D&
-1.3651 A r I
-1.7709 A r N
-1.6081 A r S
-1.7709 A r U
-1.9092 A r Y
-1.5818 A r a
-2.0385 A r aU
-1.6081 A r ai
-1.3209 A r b
-1.9092 A r d
-1.0641 A r dc
-1.6362 A r e
-1.8580 A r f
-1.9715 A r g
-1.9092 A r h
-1.5570 A r i
-2.1176 A r j
-1.9092 A r kh
-1.4505 A r l
-1.4143 A r m
-1.3351 A r n
-1.6362 A r o
-2.1176 A r oe
-1.4698 A r ph
-1.6661 A r s
-2.2453 A r tS
-1.0061 A r tc
-2.0385 A r th
-1.5570 A r ts
-1.4320 A r u
-1.3071 A r v
-1.7331 A r x
-2.6125 A r y
-1.3209 A r z
-1.7311 A s &
-2.2433 A s A
-2.6105 A s D&
-2.6105 A s E
-1.4123 A s I
-1.9695 A s N
-1.0544 A s S
-1.4880 A s U
-1.7688 A s Y
-1.7311 A s a
-2.6105 A s aU
-1.8102 A s b
-1.4300 A s d
-1.2788 A s dc
-1.9071 A s e
-1.7688 A s f
-1.4485 A s g
-1.5798 A s h
-1.6061 A s i
-1.8102 A s j
-1.5315 A s kh
-1.7688 A s l
-1.6963 A s m
-1.6061 A s n
-2.3619 A s o
-2.1156 A s oe
-1.4300 A s ph
-2.2433 A s r
-1.8560 A s tS
-1.2192 A s tc
-1.0860 A s th
-1.1290 A s ts
-1.9071 A s u
-1.3189 A s v
-1.7688 A s x
-2.6105 A s y
-1.2192 A s z
-1.5996 A tS &
-1.0256 A tS S
-1.5996 A tS U
-1.2324 A tS dc
-1.1047 A tS e
-1.5996 A tS h
-1.2324 A tS i
-1.2324 A tS l
-1.5996 A tS m
-1.5996 A tS o
-1.5996 A tS oe
-1.3510 A tS s
-1.5996 A tS tc
-1.1047 A tS th
-1.5996 A tS ts
-1.5996 A tS v
-1.1047 A tS z
-2.2568 A tc &
-2.9601 A tc A
-2.1185 A tc D&
-1.7981 A tc I
-0.9557 A tc S
-2.4653 A tc U
-2.0807 A tc a
-2.7115 A tc ai
-1.3605 A tc b
-1.2622 A tc d
-1.5688 A tc dc
-2.5929 A tc e
-1.6975 A tc f
-1.0992 A tc g
-2.1599 A tc h
-2.7115 A tc i
-2.3861 A tc j
-0.9752 A tc kh
-2.7115 A tc l
-2.9601 A tc m
-2.3191 A tc n
-2.4653 A tc o
-2.9601 A tc pf
-1.0076 A tc ph
-2.0807 A tc r
-1.7285 A tc s
-1.6975 A tc tS
-0.7585 A tc th
-0.9809 A tc ts
-1.9838 A tc u
-1.9838 A tc v
-2.2056 A tc x
-2.9601 A tc y
-1.5264 A tc z
-1.3736 A th &
-1.7204 A th @
-1.6412 A th A
-1.9666 A th D&
-1.3010 A th I
-2.2152 A th N
-1.4150 A th S
-1.2109 A th U
-1.8480 A th Y
-1.3010 A th a
-1.9666 A th aU
-1.9666 A th ai
-1.5742 A th b
-1.9666 A th d
-1.4607 A th dc
-1.3736 A th e
-2.2152 A th f
-1.8480 A th h
-1.6412 A th i
-1.5742 A th j
-2.2152 A th kh
-1.5119 A th l
-1.8480 A th m
-0.9379 A th n
-1.5119 A th o
-1.9666 A th oe
-2.2152 A th ph
-1.3010 A th r
-1.8480 A th s
-1.0348 A th tc
-1.7204 A th ts
-1.9666 A th u
-1.9666 A th v
-1.9666 A th y
-1.5119 A th z
-1.3490 A ts &
-1.8548 A ts @
-2.1035 A ts A
-1.6086 A ts D&
-1.4001 A ts I
-1.2618 A ts S
-1.0727 A ts U
-1.7362 A ts Y
-1.5294 A ts a
-1.8548 A ts ai
-1.4001 A ts dc
-1.4625 A ts e
-1.5294 A ts g
-2.1035 A ts h
-1.1271 A ts i
-2.1035 A ts j
-1.6086 A ts kh
-2.1035 A ts l
-1.5294 A ts m
-1.3490 A ts n
-1.4001 A ts o
-1.8548 A ts oe
-1.8548 A ts r
-1.3490 A ts s
-1.2618 A ts tc
-1.6086 A ts th
-1.3490 A ts u
-1.4625 A ts v
-1.7362 A ts x
-1.7362 A ts y
-1.8548 A ts z
-2.0702 A u &
-2.3188 A u A
-2.0702 A u D&
-1.9516 A u D&i
-1.4393 A u I
-1.3724 A u N
-0.7942 A u S
-1.4771 A u U
-1.6154 A u Y
-1.8239 A u a
-2.3188 A u aU
-2.0702 A u ai
-1.5643 A u b
-1.3144 A u dc
-1.9516 A u e
-1.4771 A u f
-2.3188 A u g
-2.3188 A u h
-1.5643 A u i
-2.0702 A u j
-1.9516 A u kh
-1.6778 A u l
-1.4771 A u m
-1.0414 A u n
-1.7447 A u o
-1.7447 A u ph
-1.5643 A u r
-1.4046 A u s
-1.1206 A u tc
-1.6778 A u th
-2.0702 A u ts
-1.4393 A u v
-1.5185 A u x
-1.6154 A u z
-1.5231 A v &
-1.5231 A v @
-1.2484 A v A
-1.3734 A v D&
-1.9798 A v D&i
-2.3052 A v E
-1.0293 A v I
-2.5539 A v N
-1.6396 A v S
-1.6075 A v U
-1.9798 A v Y
-0.9211 A v a
-1.3556 A v aU
-1.0460 A v ai
-2.5539 A v b
-2.0590 A v d
-2.5539 A v dc
-1.1854 A v e
-1.9798 A v g
-2.0590 A v h
-1.1303 A v i
-1.7993 A v j
-2.3052 A v kh
-1.7122 A v l
-2.0590 A v m
-1.9798 A v n
-1.4526 A v o
-1.8505 A v oe
-2.5539 A v ph
-1.5231 A v r
-2.5539 A v s
-2.3052 A v tS
-2.1866 A v tc
-2.3052 A v th
-1.3919 A v u
-1.9128 A v x
-1.8505 A v y
-2.1866 A v z
-1.4205 A x &
-1.8228 A x A
-1.9020 A x D&
-1.6424 A x I
-1.9020 A x N
-0.9631 A x S
-1.7559 A x U
-1.9020 A x Y
-1.5174 A x a
-2.1482 A x aU
-1.5966 A x b
-1.6424 A x d
-1.1987 A x dc
-2.0296 A x e
-1.6424 A x f
-1.5174 A x g
-1.9020 A x h
-2.1482 A x i
-1.8228 A x j
-1.2542 A x kh
-1.9020 A x l
-1.7559 A x m
-1.4505 A x n
-1.8228 A x o
-2.3969 A x oe
-1.3661 A x ph
-2.0296 A x r
-1.5966 A x s
-1.9020 A x tS
-0.9733 A x tc
-1.3661 A x th
-1.2744 A x ts
-1.4205 A x u
-1.8228 A x v
-1.9020 A x z
-0.8941 A y S
-0.6478 A y dc
-0.5017 A y tc
-1.1427 A y x
-1.1427 A y z
-1.1849 A z &
-1.5585 A z @
-1.4238 A z A
-1.9053 A z D&
-2.1515 A z D&i
-2.4002 A z E
-1.3446 A z I
-1.8261 A z N
-1.8261 A z S
-1.2777 A z U
-2.4002 A z Y
-1.1527 A z a
-2.4002 A z aU
-1.5207 A z ai
-2.0329 A z b
-1.7591 A z d
-1.0814 A z e
-2.4002 A z f
-2.0329 A z g
-1.9053 A z h
-1.0201 A z i
-1.5207 A z j
-1.6456 A z l
-1.6456 A z m
-1.4538 A z n
-1.1849 A z o
-1.3958 A z oe
-1.8261 A z r
-1.9053 A z s
-2.4002 A z tc
-2.0329 A z ts
-1.2777 A z u
-1.8261 A z v
-2.1515 A z x
-1.5207 A z y
-1.8534 D& & A
-1.3585 D& & I
-1.8534 D& & N
-1.6047 D& & S
-1.4861 D& & U
-1.8534 D& & ai
-1.4861 D& & b
-0.8770 D& & dc
-1.8534 D& & f
-1.8534 D& & g
-1.3585 D& & i
-1.6047 D& & j
-1.6047 D& & kh
-1.6047 D& & l
-1.2793 D& & m
-1.8534 D& & n
-1.8534 D& & ph
-1.8534 D& & r
-1.8534 D& & s
-1.0531 D& & tc
-1.2123 D& & th
-1.8534 D& & ts
-1.6047 D& & u
-1.2123 D& & v
-1.2123 D& & x
-0.9319 D& @ N
-1.1805 D& @ kh
-1.1805 D& @ r
-0.9319 D& @ u
-1.1805 D& @ z
-1.1679 D& A N
-1.3140 D& A S
-1.5602 D& A U
-1.1679 D& A dc
-1.8089 D& A e
-1.5602 D& A f
-1.5602 D& A g
-1.4416 D& A h
-1.8089 D& A i
-1.5602 D& A kh
-1.5602 D& A l
-1.4416 D& A m
-1.2348 D& A n
-1.4416 D& A ph
-1.4416 D& A r
-1.4416 D& A s
-0.8045 D& A tc
-1.5602 D& A th
-1.8089 D& A ts
-1.4416 D& A u
-1.5602 D& A v
-1.5602 D& A x
-1.2840 D& D&i @
-0.9586 D& D&i I
-1.1654 D& D&i N
-1.5327 D& D&i S
-1.5327 D& D&i Y
-1.5327 D& D&i a
-1.1654 D& D&i i
-1.5327 D& D&i j
-1.0378 D& D&i l
-1.5327 D& D&i n
-1.5327 D& D&i oe
-1.5327 D& D&i r
-1.1654 D& D&i s
-1.0378 D& D&i tc
-1.5327 D& D&i x
-0.4992 D& E l
-0.4992 D& E s
-1.7530 D& I &
-2.0017 D& I @
-2.0017 D& I D&
-2.0017 D& I D&i
-2.0017 D& I N
-1.2014 D& I S
-1.1600 D& I U
-1.6344 D& I b
-2.0017 D& I d
-1.0553 D& I dc
-1.6344 D& I g
-2.0017 D& I i
-2.0017 D& I j
-1.2014 D& I kh
-2.0017 D& I l
-2.0017 D& I m
-1.4276 D& I n
-2.0017 D& I o
-1.7530 D& I ph
-1.7530 D& I r
-1.4276 D& I s
-0.8792 D& I tc
-1.0553 D& I th
-2.0017 D& I ts
-1.2983 D& I u
-1.4276 D& I x
-1.5068 D& I z
-1.5471 D& N &
-1.9681 D& N @
-2.1687 D& N A
-2.0095 D& N D&
-2.8097 D& N E
-1.3282 D& N I
-1.1230 D& N S
-1.5323 D& N U
-1.8053 D& N Y
-1.9303 D& N a
-2.2357 D& N aU
-2.2357 D& N ai
-1.2386 D& N b
-1.2934 D& N d
-1.2613 D& N dc
-2.0552 D& N e
-2.2357 D& N f
-1.0601 D& N g
-2.1687 D& N h
-1.5181 D& N i
-1.9681 D& N j
-1.7084 D& N kh
-1.5623 D& N l
-1.7307 D& N m
-1.3967 D& N n
-1.8955 D& N o
-2.4425 D& N oe
-1.7542 D& N ph
-1.8053 D& N r
-1.6115 D& N s
-2.4425 D& N tS
-1.0750 D& N tc
-1.4412 D& N th
-1.5945 D& N ts
-1.4297 D& N u
-1.6477 D& N v
-1.6872 D& N x
-2.1064 D& N y
-1.7084 D& N z
-1.2236 D& S &
-2.3098 D& S @
-1.8354 D& S A
-1.4454 D& S D&
-2.4284 D& S D&i
-1.1525 D& S I
-2.6771 D& S N
-1.2333 D& S U
-1.7976 D& S Y
-1.5344 D& S a
-1.9226 D& S aU
-1.9226 D& S ai
-2.1822 D& S b
-1.5758 D& S d
-1.2535 D& S dc
-1.5151 D& S e
-2.1030 D& S f
-1.4144 D& S g
-1.7307 D& S h
-1.2535 D& S i
-1.8354 D& S j
-1.9226 D& S kh
-1.5758 D& S l
-2.1030 D& S m
-1.6463 D& S n
-1.5546 D& S o
-1.9226 D& S oe
-1.8768 D& S ph
-1.3854 D& S r
-1.7307 D& S s
-1.1525 D& S tc
-1.6215 D& S th
-1.5980 D& S ts
-1.4296 D& S u
-1.4966 D& S v
-1.9737 D& S x
-1.5344 D& S y
-1.8768 D& S z
-1.7448 D& U &
-2.1120 D& U @
-2.1120 D& U A
-1.5380 D& U D&
-1.4710 D& U I
-1.3118 D& U N
-1.1978 D& U S
-1.7448 D& U Y
-1.8634 D& U a
-2.1120 D& U ai
-1.8634 D& U b
-1.8634 D& U d
-1.0565 D& U dc
-1.8634 D& U f
-1.4087 D& U g
-1.7448 D& U h
-2.1120 D& U i
-1.7448 D& U kh
-1.5380 D& U l
-2.1120 D& U m
-1.4710 D& U n
-1.6171 D& U o
-1.8634 D& U oe
-1.7448 D& U ph
-1.7448 D& U r
-1.4710 D& U s
-0.8646 D& U tc
-1.4710 D& U th
-1.4710 D& U u
-1.7448 D& U v
-1.2704 D& U x
-1.8634 D& U y
-1.6171 D& U z
-1.6868 D& Y &
-1.6868 D& Y @
-1.6868 D& Y D&
-0.9322 D& Y I
-1.3195 D& Y N
-1.4381 D& Y S
-1.1919 D& Y U
-1.6868 D& Y a
-1.6868 D& Y d
-1.6868 D& Y dc
-1.3195 D& Y i
-1.4381 D& Y l
-1.6868 D& Y m
-1.3195 D& Y n
-1.4381 D& Y r
-1.1127 D& Y tc
-1.1919 D& Y u
-1.0458 D& Y v
-1.6868 D& Y z
-1.1102 D& a S
-0.9183 D& a dc
-1.8647 D& a f
-1.6161 D& a i
-0.9183 D& a l
-1.6161 D& a m
-0.7857 D& a n
-1.3699 D& a o
-1.2907 D& a r
-1.2237 D& a s
-1.0231 D& a tc
-1.6161 D& a u
-1.8647 D& a v
-1.3699 D& a x
-1.4975 D& a z
-1.8534 D& aU D&i
-1.8534 D& aU I
-1.4861 D& aU N
-1.3585 D& aU S
-1.2793 D& aU U
-1.8534 D& aU a
-1.0117 D& aU b
-1.2793 D& aU dc
-1.8534 D& aU f
-1.2793 D& aU kh
-1.6047 D& aU l
-1.8534 D& aU m
-1.2793 D& aU n
-1.2793 D& aU o
-1.3585 D& aU ph
-1.3585 D& aU r
-1.8534 D& aU s
-1.2123 D& aU tc
-1.8534 D& aU th
-1.2123 D& aU u
-1.2123 D& aU v
-1.2123 D& aU x
-1.4150 D& ai I
-1.0895 D& ai N
-0.9602 D& ai S
-1.2964 D& ai U
-1.6636 D& ai Y
-1.6636 D& ai a
-1.0226 D& ai dc
-1.6636 D& ai g
-1.6636 D& ai i
-1.6636 D& ai j
-1.4150 D& ai l
-0.8633 D& ai n
-1.0895 D& ai tc
-1.2964 D& ai v
-1.6636 D& ai x
-1.1896 D& b &
-2.3210 D& b @
-1.6554 D& b A
-1.1359 D& b D&
-1.4906 D& b D&i
-2.5697 D& b E
-1.5389 D& b I
-2.2024 D& b N
-1.6554 D& b S
-1.3714 D& b U
-1.6902 D& b Y
-1.0059 D& b a
-1.3892 D& b aU
-1.3070 D& b ai
-1.7694 D& b d
-1.7694 D& b dc
-1.7694 D& b e
-2.5697 D& b f
-1.3070 D& b g
-1.5933 D& b i
-2.5697 D& b j
-1.5933 D& b kh
-1.7694 D& b l
-1.7694 D& b m
-1.4270 D& b n
-1.4683 D& b o
-1.6232 D& b oe
-2.2024 D& b ph
-1.4472 D& b r
-1.8151 D& b s
-2.0748 D& b tc
-1.8663 D& b th
-2.0748 D& b ts
-1.3380 D& b u
-1.8151 D& b v
-1.8151 D& b x
-1.4472 D& b y
-1.2329 D& d &
-0.8405 D& d I
-0.9866 D& d U
-1.2329 D& d a
-1.4815 D& d dc
-1.4815 D& d e
-1.4815 D& d f
-1.4815 D& d m
-0.9075 D& d r
-2.5464 D& dc &
-1.9534 D& dc D&
-1.9534 D& dc I
-2.4278 D& dc N
-1.3927 D& dc S
-1.9948 D& dc U
-2.1540 D& dc Y
-2.3002 D& dc a
-2.7950 D& dc aU
-0.7183 D& dc b
-0.7070 D& dc d
-2.2210 D& dc e
-2.0405 D& dc f
-0.8158 D& dc g
-2.5464 D& dc h
-2.1540 D& dc i
-2.3002 D& dc j
-1.1954 D& dc kh
-2.0917 D& dc l
-2.7950 D& dc m
-2.0405 D& dc n
-1.9534 D& dc o
-1.2389 D& dc ph
-2.3002 D& dc r
-2.5464 D& dc s
-2.7950 D& dc tS
-1.7906 D& dc tc
-1.0503 D& dc th
-2.2210 D& dc ts
-1.5968 D& dc u
-1.7906 D& dc v
-2.2210 D& dc x
-2.7950 D& dc y
-2.1540 D& dc z
-0.8369 D& e I
-0.9645 D& e N
-1.3318 D& e S
-0.8369 D& e l
-0.8369 D& e r
-1.3318 D& e tc
-1.0831 D& e u
-1.6405 D& f &
-1.6405 D& f A
-1.3852 D& f D&
-1.9459 D& f D&i
-1.4644 D& f I
-1.1781 D& f S
-1.3852 D& f U
-2.0735 D& f Y
-1.5613 D& f a
-1.7374 D& f aU
-1.4644 D& f ai
-1.7374 D& f b
-1.7374 D& f d
-1.4364 D& f dc
-1.7997 D& f e
-1.6405 D& f g
-1.7997 D& f h
-1.6405 D& f i
-2.0735 D& f j
-1.5265 D& f kh
-1.8667 D& f m
-1.7374 D& f n
-1.3852 D& f o
-2.4408 D& f oe
-1.7997 D& f ph
-1.6405 D& f r
-1.6405 D& f s
-1.8667 D& f tS
-1.2255 D& f tc
-1.7374 D& f th
-1.5613 D& f ts
-1.0842 D& f u
-1.2981 D& f v
-1.6862 D& f x
-1.6405 D& f y
-1.4364 D& f z
-1.1967 D& g &
-1.4643 D& g @
-1.5434 D& g D&
-2.0383 D& g D&i
-1.3350 D& g I
-1.7897 D& g N
-1.1589 D& g S
-0.9158 D& g U
-1.7897 D& g Y
-1.1589 D& g a
-2.0383 D& g aU
-1.6711 D& g ai
-1.2838 D& g dc
-2.0383 D& g e
-2.0383 D& g h
-1.6711 D& g i
-1.7897 D& g j
-1.3350 D& g l
-1.5434 D& g m
-1.5434 D& g n
-1.2838 D& g o
-1.5434 D& g r
-1.7897 D& g s
-1.6711 D& g tc
-1.0620 D& g u
-1.7897 D& g y
-1.2888 D& h &
-1.4023 D& h A
-1.0669 D& h D&
-1.6761 D& h D&i
-1.6761 D& h I
-1.1291 D& h N
-1.7947 D& h S
-1.4693 D& h U
-1.3399 D& h a
-1.3399 D& h aU
-2.0433 D& h b
-1.5484 D& h dc
-1.7947 D& h e
-2.0433 D& h f
-2.0433 D& h g
-1.5484 D& h i
-1.7947 D& h l
-1.7947 D& h m
-1.6761 D& h n
-1.2888 D& h o
-2.0433 D& h oe
-1.0669 D& h r
-1.7947 D& h tc
-1.5484 D& h th
-1.0126 D& h u
-1.5484 D& h v
-2.0433 D& h x
-1.7825 D& i &
-0.7782 D& i I
-1.2877 D& i N
-0.9409 D& i S
-1.2877 D& i U
-1.7825 D& i Y
-1.4153 D& i dc
-1.7825 D& i g
-1.7825 D& i m
-1.2877 D& i n
-1.7825 D& i o
-1.7825 D& i ph
-1.4153 D& i s
-1.0280 D& i tc
-1.2877 D& i th
-0.9823 D& i x
-1.5339 D& i z
-0.7204 D& j A
-1.2152 D& j D&
-0.9666 D& j aU
-0.9666 D& j e
-1.2152 D& j o
-1.2152 D& j r
-1.2152 D& j u
-1.8546 D& kh &
-1.4674 D& kh A
-1.0066 D& kh D&
-1.6478 D& kh D&i
-1.3424 D& kh I
-1.6478 D& kh N
-1.4216 D& kh S
-1.5809 D& kh U
-1.9732 D& kh Y
-1.1429 D& kh a
-1.5185 D& kh aU
-1.8546 D& kh ai
-2.2219 D& kh b
-1.4216 D& kh dc
-1.6478 D& kh e
-1.8546 D& kh f
-1.5809 D& kh g
-1.8546 D& kh h
-1.9732 D& kh i
-1.7270 D& kh l
-1.6478 D& kh m
-1.3802 D& kh n
-1.4674 D& kh o
-1.8546 D& kh oe
-1.9732 D& kh ph
-1.4674 D& kh r
-1.9732 D& kh s
-1.9732 D& kh tS
-1.3424 D& kh tc
-1.7270 D& kh th
-1.6478 D& kh ts
-1.1912 D& kh u
-1.5185 D& kh v
-1.9732 D& kh x
-1.6478 D& kh y
-1.9732 D& kh z
-1.2221 D& l &
-1.9524 D& l @
-1.3504 D& l A
-1.5333 D& l D&
-2.1609 D& l D&i
-1.2221 D& l I
-1.4242 D& l N
-1.5545 D& l S
-1.5545 D& l U
-1.8141 D& l Y
-1.1743 D& l a
-1.9013 D& l aU
-1.5768 D& l ai
-1.8555 D& l b
-1.6514 D& l d
-1.4084 D& l dc
-1.0996 D& l e
-2.6558 D& l f
-1.9013 D& l g
-1.9524 D& l h
-1.3240 D& l i
-1.8141 D& l j
-2.0817 D& l kh
-1.8141 D& l m
-1.4753 D& l n
-1.9013 D& l o
-1.7416 D& l oe
-2.0817 D& l ph
-1.5768 D& l r
-1.9013 D& l s
-2.6558 D& l tS
-1.1312 D& l tc
-2.0148 D& l th
-2.4072 D& l ts
-1.6514 D& l u
-1.7094 D& l v
-1.8141 D& l x
-1.9013 D& l y
-1.4938 D& l z
-1.3660 D& m &
-2.0649 D& m @
-1.4365 D& m A
-1.0489 D& m D&
-1.4365 D& m D&i
-2.5197 D& m E
-1.5878 D& m I
-1.6670 D& m N
-1.6256 D& m S
-1.5878 D& m U
-2.0649 D& m Y
-1.0872 D& m a
-1.4767 D& m aU
-1.3448 D& m ai
-1.9266 D& m b
-1.9680 D& m d
-1.6063 D& m dc
-1.4909 D& m e
-2.0649 D& m f
-1.8888 D& m g
-1.9680 D& m h
-1.1355 D& m i
-1.9266 D& m j
-2.0649 D& m kh
-2.1273 D& m l
-1.4909 D& m n
-1.7127 D& m o
-1.8541 D& m oe
-2.7683 D& m ph
-1.8888 D& m r
-1.8888 D& m s
-1.3448 D& m tc
-2.0138 D& m th
-2.2734 D& m ts
-1.0704 D& m u
-1.6063 D& m v
-1.9680 D& m x
-1.8888 D& m y
-1.8219 D& m z
-1.1821 D& n &
-1.7441 D& n @
-1.4560 D& n A
-1.4560 D& n D&
-2.4076 D& n D&i
-1.0107 D& n I
-1.8606 D& n N
-1.2755 D& n S
-1.6523 D& n U
-2.2007 D& n Y
-1.2111 D& n a
-1.7192 D& n aU
-1.4430 D& n ai
-1.7441 D& n b
-1.5595 D& n d
-1.3410 D& n dc
-1.3834 D& n e
-2.5262 D& n f
-1.6958 D& n g
-2.0203 D& n h
-1.3311 D& n i
-1.5431 D& n j
-2.0203 D& n kh
-2.1338 D& n l
-2.2799 D& n m
-2.0203 D& n o
-2.0714 D& n oe
-2.5262 D& n ph
-1.6958 D& n r
-1.7984 D& n s
-2.4076 D& n tS
-1.0400 D& n tc
-1.7441 D& n th
-1.6735 D& n ts
-1.6523 D& n u
-1.8606 D& n v
-2.0714 D& n x
-1.9745 D& n y
-1.6735 D& n z
-1.7051 D& o A
-2.1999 D& o D&
-2.1999 D& o D&i
-1.5589 D& o I
-1.8327 D& o N
-1.1692 D& o S
-1.4966 D& o U
-2.1999 D& o aU
-2.1999 D& o ai
-1.0573 D& o b
-1.8327 D& o d
-1.0017 D& o dc
-1.9513 D& o f
-1.2857 D& o g
-2.1999 D& o h
-2.1999 D& o i
-1.2535 D& o kh
-1.4454 D& o l
-1.3997 D& o m
-1.3997 D& o n
-1.8327 D& o oe
-1.4454 D& o ph
-1.5589 D& o r
-1.7051 D& o s
-0.9373 D& o tc
-1.6259 D& o th
-1.3583 D& o u
-1.7051 D& o v
-1.8327 D& o x
-2.1999 D& o y
-1.8327 D& o z
-1.2474 D& oe I
-0.9988 D& oe N
-1.2474 D& oe ai
-0.9988 D& oe dc
-1.2474 D& oe i
-0.8802 D& oe n
-1.2474 D& oe r
-1.2474 D& oe tc
-1.8186 D& ph &
-1.5590 D& ph A
-1.1708 D& ph D&
-2.3135 D& ph D&i
-1.3671 D& ph I
-1.1515 D& ph S
-1.3671 D& ph U
-2.3135 D& ph Y
-1.3091 D& ph a
-1.6725 D& ph aU
-2.0649 D& ph ai
-1.9463 D& ph b
-1.5132 D& ph dc
-2.3135 D& ph e
-1.7394 D& ph f
-1.6725 D& ph g
-1.9463 D& ph h
-1.5132 D& ph i
-1.9463 D& ph j
-1.1515 D& ph kh
-1.7394 D& ph l
-1.7394 D& ph m
-1.7394 D& ph n
-1.1910 D& ph o
-1.3993 D& ph r
-1.8186 D& ph s
-2.3135 D& ph tS
-1.3671 D& ph tc
-1.7394 D& ph th
-1.3371 D& ph ts
-1.2122 D& ph u
-1.9463 D& ph v
-1.5590 D& ph x
-1.8186 D& ph y
-1.8186 D& ph z
-2.0968 D& r &
-2.1637 D& r @
-2.1637 D& r A
-1.7914 D& r D&
-2.3706 D& r D&i
-1.4751 D& r I
-1.9375 D& r N
-1.1313 D& r S
-1.7614 D& r U
-2.0344 D& r Y
-1.9833 D& r a
-1.8236 D& r aU
-1.6822 D& r ai
-1.2563 D& r b
-1.7334 D& r d
-0.8371 D& r dc
-1.8583 D& r e
-2.0344 D& r f
-1.6365 D& r g
-1.9833 D& r h
-1.9375 D& r i
-2.4892 D& r j
-1.5951 D& r kh
-1.6822 D& r l
-1.8236 D& r m
-1.5951 D& r n
-1.5951 D& r o
-2.2429 D& r oe
-1.3693 D& r ph
-1.5396 D& r s
-1.7914 D& r tS
-1.0132 D& r tc
-1.8236 D& r th
-1.8583 D& r ts
-1.4604 D& r u
-1.2385 D& r v
-1.7334 D& r x
-2.4892 D& r y
-1.5573 D& r z
-1.6116 D& s &
-2.3661 D& s D&
-1.3354 D& s I
-0.9031 D& s S
-1.6116 D& s U
-1.7921 D& s Y
-2.1175 D& s a
-2.1175 D& s ai
-1.6628 D& s b
-1.3898 D& s d
-1.4197 D& s dc
-2.3661 D& s e
-1.7251 D& s f
-1.2871 D& s g
-1.9989 D& s h
-1.8712 D& s i
-1.3106 D& s kh
-1.6628 D& s l
-2.1175 D& s m
-1.7921 D& s n
-2.1175 D& s o
-2.3661 D& s oe
-1.5245 D& s ph
-1.7251 D& s r
-1.6116 D& s tS
-1.2436 D& s tc
-1.1187 D& s th
-1.1509 D& s ts
-1.7251 D& s u
-1.4519 D& s v
-1.8712 D& s x
-2.1175 D& s y
-1.1509 D& s z
-1.2774 D& tS D&
-1.2774 D& tS I
-1.0288 D& tS S
-1.2774 D& tS i
-0.9102 D& tS ts
-2.1751 D& tc &
-2.6810 D& tc A
-2.1751 D& tc D&
-2.0880 D& tc I
-0.8693 D& tc S
-2.2263 D& tc U
-2.6810 D& tc Y
-2.4348 D& tc a
-2.6810 D& tc aU
-2.9296 D& tc ai
-1.2209 D& tc b
-1.2543 D& tc d
-1.5979 D& tc dc
-2.9296 D& tc e
-1.8506 D& tc f
-0.9119 D& tc g
-2.5624 D& tc h
-2.2263 D& tc i
-2.9296 D& tc j
-0.9093 D& tc kh
-2.9296 D& tc m
-2.9296 D& tc n
-2.5624 D& tc o
-2.9296 D& tc oe
-1.0222 D& tc ph
-2.2886 D& tc r
-1.9252 D& tc s
-1.7676 D& tc tS
-0.7929 D& tc th
-1.1751 D& tc ts
-1.9252 D& tc u
-2.1294 D& tc v
-2.0880 D& tc x
-2.6810 D& tc y
-1.7869 D& tc z
-1.2262 D& th &
-1.8003 D& th D&
-1.1593 D& th I
-1.0969 D& th S
-1.4330 D& th U
-1.3054 D& th a
-1.5516 D& th ai
-1.8003 D& th b
-1.5516 D& th d
-0.9208 D& th dc
-1.5516 D& th e
-1.5516 D& th f
-1.4330 D& th g
-1.3054 D& th n
-1.4330 D& th o
-1.5516 D& th r
-1.8003 D& th s
-1.3054 D& th tc
-1.5516 D& th ts
-1.2262 D& th u
-1.8003 D& th y
-1.3023 D& ts &
-1.4209 D& ts A
-1.4209 D& ts D&
-1.3023 D& ts I
-1.3023 D& ts S
-1.4209 D& ts U
-1.6695 D& ts a
-1.6695 D& ts aU
-1.0954 D& ts dc
-1.6695 D& ts f
-1.4209 D& ts g
-1.3023 D& ts i
-1.6695 D& ts n
-1.1746 D& ts o
-1.3023 D& ts s
-1.3023 D& ts tc
-1.6695 D& ts v
-1.6695 D& ts x
-1.6695 D& ts y
-1.5898 D& u &
-1.9771 D& u A
-1.8495 D& u D&
-1.5898 D& u I
-1.2653 D& u N
-0.9106 D& u S
-1.3680 D& u U
-1.5898 D& u Y
-1.9771 D& u a
-2.3443 D& u aU
-2.0957 D& u ai
-1.5898 D& u b
-2.0957 D& u d
-1.3680 D& u dc
-2.3443 D& u f
-1.5898 D& u g
-1.7703 D& u h
-1.9771 D& u i
-1.4301 D& u kh
-1.4649 D& u l
-1.4301 D& u m
-1.1461 D& u n
-1.9771 D& u o
-1.4649 D& u ph
-1.4649 D& u r
-1.6410 D& u s
-1.0000 D& u tc
-1.6410 D& u th
-1.8495 D& u ts
-1.6410 D& u v
-1.4301 D& u x
-2.3443 D& u y
-1.7033 D& u z
-1.3928 D& v &
-1.6200 D& v @
-1.4439 D& v A
-1.1520 D& v D&
-1.5019 D& v D&i
-2.3758 D& v E
-0.9981 D& v I
-2.2572 D& v N
-1.9210 D& v S
-1.7449 D& v U
-1.8699 D& v Y
-0.8699 D& v a
-1.0998 D& v aU
-1.1081 D& v ai
-2.6244 D& v b
-2.6244 D& v d
-1.4817 D& v e
-2.3758 D& v g
-2.6244 D& v h
-1.1429 D& v i
-1.8699 D& v j
-2.6244 D& v kh
-1.8699 D& v l
-2.1295 D& v n
-1.3928 D& v o
-1.5454 D& v oe
-1.5689 D& v r
-2.2572 D& v tc
-2.6244 D& v th
-1.2801 D& v u
-2.3758 D& v x
-1.5937 D& v y
-1.6370 D& x &
-2.0267 D& x A
-1.5664 D& x D&
-2.0937 D& x D&i
-1.3112 D& x I
-2.0267 D& x N
-1.0350 D& x S
-1.6633 D& x U
-2.0267 D& x Y
-1.7535 D& x a
-2.0267 D& x aU
-2.6677 D& x ai
-1.7213 D& x b
-1.6914 D& x d
-1.1432 D& x dc
-2.1729 D& x e
-1.7535 D& x f
-1.5664 D& x g
-1.6122 D& x h
-1.7883 D& x i
-2.3005 D& x j
-1.1954 D& x kh
-1.8675 D& x l
-1.8675 D& x m
-1.3903 D& x n
-1.8261 D& x o
-2.6677 D& x oe
-1.4695 D& x ph
-1.5250 D& x r
-1.4361 D& x s
-2.1729 D& x tS
-1.0286 D& x tc
-1.7213 D& x th
-1.3360 D& x ts
-1.4525 D& x u
-1.5664 D& x v
-2.4191 D& x y
-1.5664 D& x z
-0.9516 D& y I
-0.8239 D& y S
-0.7447 D& y dc
-1.3188 D& y n
-1.3188 D& y s
-0.8239 D& y tc
-1.3188 D& y x
-1.1584 D& z &
-1.4638 D& z @
-1.7100 D& z A
-1.5914 D& z D&
-1.9586 D& z D&i
-1.9586 D& z I
-1.9586 D& z N
-1.3176 D& z U
-1.7100 D& z Y
-0.8573 D& z a
-1.9586 D& z d
-1.9586 D& z dc
-1.3846 D& z e
-1.0122 D& z i
-1.3846 D& z l
-1.7100 D& z m
-1.4638 D& z n
-1.2041 D& z o
-1.4638 D& z oe
-1.5914 D& z s
-1.4638 D& z u
-1.5914 D& z v
-1.0122 D& z y
-1.5485 D&i & N
-1.2998 D&i & S
-1.2998 D&i & dc
-1.1812 D&i & g
-1.0536 D&i & l
-0.9075 D&i & m
-1.0536 D&i & n
-1.5485 D&i & r
-1.2998 D&i & s
-1.2998 D&i & tc
-1.1812 D&i & th
-1.1812 D&i & v
-1.6033 D&i @ &
-1.7219 D&i @ A
-1.7219 D&i @ I
-1.2160 D&i @ N
-1.1703 D&i @ S
-1.7219 D&i @ a
-1.9705 D&i @ aU
-0.9398 D&i @ dc
-1.9705 D&i @ e
-1.7219 D&i @ f
-1.9705 D&i @ g
-1.9705 D&i @ kh
-1.6033 D&i @ l
-1.7219 D&i @ m
-1.2672 D&i @ n
-1.6033 D&i @ o
-0.9661 D&i @ r
-1.4757 D&i @ s
-0.9398 D&i @ tc
-1.1703 D&i @ u
-1.4757 D&i @ v
-1.9705 D&i @ x
-1.3965 D&i @ z
-1.0555 D&i A S
-1.0555 D&i A ph
-1.0555 D&i A tc
-1.0555 D&i A z
-0.5059 D&i D& N
-0.5059 D&i D& r
-0.7545 D&i D& tc
-0.8795 D&i E N
-0.8795 D&i E s
-0.8795 D&i E tc
-1.6685 D&i I &
-1.7354 D&i I @
-1.8146 D&i I A
-1.7354 D&i I D&
-1.5550 D&i I N
-1.1290 D&i I S
-1.1870 D&i I U
-2.3095 D&i I Y
-1.7354 D&i I a
-2.3095 D&i I aU
-2.3095 D&i I d
-0.9777 D&i I dc
-2.3095 D&i I e
-2.3095 D&i I f
-1.7354 D&i I g
-2.3095 D&i I h
-1.4678 D&i I i
-1.6061 D&i I kh
-1.3631 D&i I l
-1.3051 D&i I m
-1.1668 D&i I n
-1.7354 D&i I o
-2.0608 D&i I oe
-2.0608 D&i I ph
-1.6685 D&i I r
-1.8146 D&i I s
-2.3095 D&i I tS
-0.9907 D&i I tc
-2.0608 D&i I th
-1.9422 D&i I ts
-1.3051 D&i I u
-1.5550 D&i I v
-1.9422 D&i I x
-1.2788 D&i I z
-1.6235 D&i N &
-2.1183 D&i N @
-0.9201 D&i N I
-0.9756 D&i N S
-1.5443 D&i N U
-1.7511 D&i N Y
-1.5443 D&i N b
-1.5443 D&i N d
-1.7511 D&i N dc
-1.7511 D&i N e
-1.3638 D&i N g
-1.2389 D&i N i
-1.2389 D&i N j
-1.7511 D&i N kh
-1.7511 D&i N l
-1.5443 D&i N m
-1.0876 D&i N n
-1.6235 D&i N o
-2.1183 D&i N ph
-1.7511 D&i N s
-1.8697 D&i N tS
-0.9379 D&i N tc
-1.8697 D&i N th
-1.8697 D&i N u
-1.4150 D&i N x
-1.2175 D&i S &
-1.8546 D&i S @
-1.9732 D&i S A
-2.2219 D&i S D&
-0.9031 D&i S I
-2.2219 D&i S N
-1.2175 D&i S U
-1.1206 D&i S Y
-1.8546 D&i S a
-1.7270 D&i S d
-1.3802 D&i S dc
-1.5809 D&i S e
-1.9732 D&i S g
-1.7270 D&i S h
-1.0237 D&i S i
-1.3424 D&i S j
-1.8546 D&i S l
-1.7270 D&i S m
-1.3077 D&i S n
-1.5809 D&i S o
-1.5809 D&i S oe
-1.9732 D&i S s
-1.2175 D&i S tc
-1.5809 D&i S th
-1.8546 D&i S ts
-1.6478 D&i S u
-1.6478 D&i S v
-1.9732 D&i S x
-1.9732 D&i S y
-1.7270 D&i S z
-1.0555 D&i U N
-1.0555 D&i U i
-1.0555 D&i U tc
-1.0555 D&i U z
-1.5248 D&i Y &
-1.7734 D&i Y D&
-1.1324 D&i Y I
-1.0700 D&i Y N
-1.5248 D&i Y S
-1.4062 D&i Y U
-1.0700 D&i Y dc
-1.7734 D&i Y f
-1.1993 D&i Y l
-1.1324 D&i Y n
-1.4062 D&i Y o
-1.2785 D&i Y r
-1.2785 D&i Y s
-1.2785 D&i Y tc
-0.9731 D&i Y u
-1.5248 D&i Y v
-1.2785 D&i Y z
-0.7755 D&i a l
-0.7755 D&i a m
-0.6478 D&i a n
-0.8941 D&i a tc
-0.3967 D&i aU n
-0.9464 D&i ai N
-0.9464 D&i ai n
-0.9464 D&i ai tc
-0.8498 D&i dc I
-1.1900 D&i dc S
-1.1900 D&i dc b
-0.8498 D&i dc d
-1.7641 D&i dc e
-0.6214 D&i dc g
-1.5154 D&i dc j
-1.7641 D&i dc kh
-1.5154 D&i dc o
-1.7641 D&i dc ph
-1.2692 D&i dc th
-1.5154 D&i dc ts
-1.5154 D&i dc u
-1.1951 D&i e I
-1.0765 D&i e l
-0.7404 D&i e n
-0.8027 D&i e r
-1.4437 D&i e s
-0.6892 D&i e tc
-1.1951 D&i e x
-0.7821 D&i f D&
-0.7821 D&i f I
-1.0307 D&i f o
-1.0307 D&i f tc
-1.0307 D&i f ts
-0.8304 D&i h a
-1.0790 D&i h aU
-1.0790 D&i h ai
-1.0790 D&i h r
-0.8004 D&i i I
-1.5122 D&i i N
-0.6642 D&i i S
-1.8795 D&i i dc
-1.6308 D&i i f
-1.5122 D&i i kh
-1.6308 D&i i l
-1.6308 D&i i n
-1.1249 D&i i s
-1.3846 D&i i tS
-0.9331 D&i i tc
-1.8795 D&i i ts
-1.8795 D&i i v
-1.0000 D&i i x
-1.5122 D&i i z
-1.2877 D&i j &
-0.9823 D&i j A
-1.0792 D&i j D&
-0.9823 D&i j a
-1.2877 D&i j aU
-1.5339 D&i j ai
-1.4153 D&i j e
-1.7825 D&i j h
-0.7270 D&i j r
-1.5339 D&i j s
-0.7782 D&i j u
-0.7821 D&i kh D&
-1.0307 D&i kh S
-1.0307 D&i kh e
-1.0307 D&i kh tc
-1.3146 D&i l &
-1.6614 D&i l @
-1.6614 D&i l A
-1.5822 D&i l D&
-1.6614 D&i l D&i
-1.0338 D&i l I
-1.5822 D&i l N
-1.1519 D&i l S
-1.6614 D&i l U
-1.7891 D&i l Y
-1.3146 D&i l a
-2.1563 D&i l aU
-1.4529 D&i l ai
-1.9077 D&i l b
-1.7891 D&i l d
-1.1519 D&i l e
-1.7891 D&i l g
-1.9077 D&i l h
-1.4529 D&i l i
-2.1563 D&i l j
-1.3146 D&i l m
-1.5822 D&i l n
-1.6614 D&i l oe
-2.1563 D&i l ph
-1.5822 D&i l r
-1.7891 D&i l s
-1.9077 D&i l tS
-1.2768 D&i l tc
-1.9077 D&i l ts
-1.5153 D&i l u
-1.5153 D&i l v
-1.5822 D&i l x
-1.9077 D&i l y
-1.9077 D&i l z
-1.3685 D&i m D&
-1.1198 D&i m I
-1.1198 D&i m N
-1.0012 D&i m a
-1.3685 D&i m ai
-1.1198 D&i m e
-1.3685 D&i m i
-1.3685 D&i m n
-1.0012 D&i m tc
-1.1198 D&i m z
-1.5307 D&i n &
-1.3846 D&i n @
-1.6584 D&i n A
-2.0256 D&i n D&
-0.7339 D&i n I
-1.5307 D&i n N
-1.0792 D&i n S
-1.6584 D&i n U
-1.7769 D&i n Y
-1.2253 D&i n a
-2.0256 D&i n aU
-2.0256 D&i n d
-1.5307 D&i n dc
-1.6584 D&i n e
-1.3846 D&i n g
-1.3222 D&i n i
-1.0212 D&i n j
-1.6584 D&i n l
-2.0256 D&i n o
-2.0256 D&i n oe
-2.0256 D&i n r
-1.7769 D&i n s
-1.3222 D&i n tc
-2.0256 D&i n th
-1.6584 D&i n ts
-1.7769 D&i n u
-2.0256 D&i n v
-1.6584 D&i n x
-0.8417 D&i o S
-0.8417 D&i o h
-0.8417 D&i o tc
-0.8527 D&i oe N
-0.7341 D&i oe S
-1.1013 D&i oe l
-1.1013 D&i oe m
-1.1013 D&i oe r
-1.1013 D&i oe tc
-0.6454 D&i ph I
-1.9142 D&i r &
-1.9142 D&i r @
-1.1597 D&i r I
-1.9142 D&i r N
-1.0348 D&i r S
-1.5470 D&i r aU
-1.4193 D&i r b
-1.1597 D&i r dc
-1.9142 D&i r e
-1.5470 D&i r g
-1.5470 D&i r kh
-1.1139 D&i r m
-1.4193 D&i r n
-1.9142 D&i r o
-1.5470 D&i r s
-1.6656 D&i r tS
-0.8835 D&i r tc
-1.2109 D&i r th
-1.9142 D&i r ts
-1.9142 D&i r u
-1.2109 D&i r v
-1.9142 D&i r x
-1.9142 D&i r y
-0.9853 D&i s I
-1.0364 D&i s S
-1.7398 D&i s a
-1.4912 D&i s d
-1.4912 D&i s e
-1.7398 D&i s f
-1.2449 D&i s g
-1.7398 D&i s i
-1.7398 D&i s kh
-1.2449 D&i s m
-1.7398 D&i s o
-1.4912 D&i s ph
-1.2449 D&i s tc
-1.4912 D&i s th
-0.8981 D&i s ts
-1.7398 D&i s u
