# VAD: 1
# Viterbi loop action: No record

BIGRAM: method Katz, cutoff 1
coef[7]: 0.000000 0.990000 0.990000 0.961364 0.990000 0.990000 0.945455

TRIGRAM: method Katz, cutoff 1
coef[5]: 0.000000 0.789388 0.976661 0.990000 0.990000

\data\
ngram 1=44
ngram 2=1718
ngram 3=42381

\1-grams:
-1.4519 &	-4.1771
-99.9900 </s>
-99.9900 <s>
-1.5990 @	-3.8827
-1.8658 A	-3.2701
-1.4013 A&	-1.8591
-1.6411 D	-4.0205
-2.0287 D&	-3.2452
-2.7648 D&i	-1.5603
-1.6152 E	-2.9674
-2.0425 E&r	-2.9958
-1.4019 I	-4.0216
-1.5585 N	-1.2396
-1.8210 S	-3.6606
-1.8493 T	-2.8922
-1.7601 U	-1.2529
-1.9995 Z	-3.4797
-1.9796 aI	-3.1083
-1.8503 aU	-0.6755
-1.6820 b	-4.1148
-1.5298 d	-0.8916
-1.9766 dZ	-0.5999
-1.2444 dc	-3.3039
-2.0801 ei	-2.2881
-1.7331 f	-0.7385
-1.6147 g	-0.7657
-1.7344 h	-0.7482
-1.5164 i	-3.5579
-1.5638 j	-1.0449
-1.5895 kh	-0.7766
-1.7046 l	-0.8762
-1.4820 m	-0.8160
-1.2984 n	-1.2476
-1.6765 oU	-1.1843
-1.7777 ph	-0.5449
-2.1005 r&	-2.8798
-1.6222 s	-3.7571
-2.1751 tS	-1.8477
-1.1146 tc	-1.7151
-1.5456 th	-0.9687
-1.5777 u	-1.2874
-1.4085 v	-1.0821
-1.7523 w	-3.0861
-1.4963 z	-4.0881

\2-grams:
-2.3548 & @	-0.3096
-2.5797 & A	-0.1183
-2.2275 & A&	-0.1963
-1.7357 & D	-0.3359
-2.5497 & D&	-0.1951
-3.6333 & D&i	-0.0899
-2.6466 & E	-0.0689
-2.5150 & E&r	-0.0224
-2.3688 & I	-0.0995
-1.4325 & N	-0.0410
-1.6012 & S	-0.4814
-1.5782 & T	+0.4602
-2.6844 & U	-0.3806
-1.8823 & Z	-0.4088
-2.6289 & aI	-0.3493
-2.6377 & aU	-0.1211
-2.7258 & b	-0.0531
-1.8200 & d	-0.1693
-2.3279 & dZ	-0.3406
-0.8082 & dc	-0.9411
-2.8094 & ei	-0.0085
-1.5272 & f	-0.5011
-2.2826 & g	-0.2228
-1.7990 & h	-0.2449
-2.2139 & i	-0.3570
-2.1130 & j	-0.1530
-2.0873 & kh	-0.0077
-1.5490 & l	-0.2043
-1.1395 & m	-2.0452
-1.1423 & n	-1.0537
-2.2173 & oU	-0.2233
-2.2345 & ph	-0.1240
-2.3193 & r&	-0.3534
-1.4088 & s	-0.7644
-2.9662 & tS	-0.1469
-0.7701 & tc	-1.3023
-2.0799 & th	-0.2669
-2.1944 & u	-0.2826
-0.9888 & v	-2.1495
-1.7119 & w	+0.5111
-1.2214 & z
-1.8462 @ &	-0.2294
-2.3883 @ A	-0.1937
-1.8840 @ A&	-0.2008
-1.7398 @ D	-0.2801
-2.6366 @ D&	-0.1590
-3.4861 @ D&i	-0.1155
-2.3294 @ E	-0.0541
-2.2513 @ E&r	-0.2525
-2.0377 @ I	-0.0826
-1.4639 @ N	-0.4699
-1.8078 @ S	-0.4265
-1.4333 @ T	-0.4508
-2.6622 @ U	-0.0469
-1.8711 @ Z	-0.5393
-1.6893 @ aI	-0.3364
-2.3419 @ aU	-0.2575
-2.6492 @ b	-0.2725
-1.6755 @ d	-0.4210
-2.6755 @ dZ	-0.1599
-1.2212 @ dc	+0.0873
-1.9739 @ ei	-0.2916
-1.5797 @ f	-0.3152
-2.3419 @ g	-0.1927
-1.6354 @ h	-0.3083
-2.3419 @ i	-0.1636
-2.1984 @ j	-0.2758
-1.7810 @ kh	-0.1868
-1.9303 @ l	-0.3018
-1.2580 @ m	-0.4758
-0.7452 @ n	+0.4492
-2.1276 @ oU	-0.0910
-2.0017 @ ph	-0.2173
-2.1637 @ r&	-0.4825
-1.3685 @ s	+0.7829
-2.7493 @ tS	-0.0759
-0.8239 @ tc	-1.2740
-1.7259 @ th	-0.5092
-2.1238 @ u	-0.1568
-1.1381 @ v	-0.5968
-2.1939 @ w	-0.1128
-1.2831 @ z	+0.1182
-1.7099 A &	+0.1493
-1.9502 A @	-0.1761
-1.5160 A A&	-0.3439
-1.8533 A D	-0.2068
-2.2238 A D&	-0.2307
-2.5522 A D&i	-0.3129
-2.2238 A E	-0.0975
-1.9097 A E&r	-0.1562
-2.4516 A I	-0.1881
-1.2949 A N	-0.2931
-1.6685 A S	-0.2238
-1.7099 A T	-0.3591
-2.2512 A U	-0.3753
-2.0627 A Z	-0.4286
-1.6173 A aI	-0.2392
-1.7967 A aU	-0.2603
-2.4668 A b	-0.1679
-1.6991 A d	-0.4996
-2.9140 A dZ	-0.0319
-1.2318 A dc	-0.0946
-2.8348 A ei	-0.0276
-1.7071 A f	-0.3821
-2.4990 A g	-0.1186
-1.6217 A h	-0.6059
-2.5338 A i	-0.0393
-2.3955 A j	-0.2955
-1.8384 A kh	-0.2306
-1.4940 A l	-0.2673
-1.0827 A m	-0.6482
-0.8826 A n	-0.7327
-1.8686 A oU	-0.2437
-2.0566 A ph	-0.2395
-1.5504 A r&	-0.3542
-1.6468 A s	-0.2653
-3.1402 A tS
-0.7808 A tc	-0.8205
-1.9949 A th	-0.1707
-2.4990 A u	-0.1031
-1.1889 A v	-0.7657
-2.0815 A w	-0.2182
-1.6239 A z	-0.3054
-2.1422 A& &	+0.0353
-2.2790 A& @	-0.2573
-2.5962 A& A	-0.2017
-1.5753 A& D	-0.4129
-2.6424 A& D&	-0.0666
-3.2889 A& D&i	-0.0448
-2.4808 A& E	-0.1085
-2.3572 A& E&r	-0.1434
-2.1995 A& I	-0.0318
-1.4081 A& N	-0.1214
-1.6558 A& S	-0.2744
-1.5478 A& T	-0.2293
-2.6226 A& U	-0.0519
-1.9857 A& Z	-0.3848
-2.5151 A& aI	-0.0932
-2.6460 A& aU	-0.1574
-2.5151 A& b	-0.0204
-1.8508 A& d	-0.2584
-2.6795 A& dZ	-0.2059
-1.0037 A& dc	-0.0349
-2.6076 A& ei	-0.1297
-1.4959 A& f	-0.9063
-2.5333 A& g	-0.2654
-1.7742 A& h	-0.1461
-2.1429 A& i	-0.2298
-2.1256 A& j	-0.2962
-2.1379 A& kh	-0.3157
-1.8319 A& l	-0.2772
-1.0180 A& m	+0.2223
-0.9631 A& n	-1.2449
-2.2850 A& oU	-0.2616
-2.2231 A& ph	-0.3729
-2.3531 A& r&	-0.4429
-1.4694 A& s	+0.2907
-2.9471 A& tS	-0.1212
-0.8675 A& tc	-0.6562
-2.0301 A& th	-0.1324
-2.1454 A& u	-0.1450
-0.8000 A& v	-2.3888
-1.9585 A& w	-0.3737
-1.3261 A& z	+0.8205
-0.9276 D &	-0.6648
-1.2567 D @	+0.1255
-1.9626 D A	-0.0435
-0.9551 D A&	-0.1130
-2.4666 D D&	-0.2348
-3.0973 D D&i	-0.4100
-0.9417 D E	-0.3751
-1.7770 D E&r	-0.3992
-0.8615 D I	-0.4735
-2.1387 D N	-0.3859
-2.4144 D S	-0.3706
-2.5705 D T	-0.0848
-1.4503 D U	-0.2302
-2.0181 D Z	-0.2922
-1.7220 D aI	-0.1293
-1.5555 D aU	-0.3412
-3.2356 D b	-0.0760
-1.8377 D d	-0.7287
-2.9346 D dZ	-0.2095
-2.1053 D dc	-0.1718
-1.4363 D ei	-0.2952
-2.4759 D f	-0.2278
-2.9346 D g	-0.1808
-2.0705 D h	-0.2975
-1.2967 D i	-0.0403
-2.0383 D j	-0.2870
-2.5259 D kh	-0.2814
-2.1749 D l	-0.2674
-2.3191 D m	-0.3419
-1.6854 D n	-0.3319
-1.4583 D oU	-0.3955
-2.6616 D ph	-0.2253
-2.3393 D r&	-0.1996
-2.2874 D s	-0.2647
-3.6659 D tS
-2.1656 D tc	-0.0839
-2.2998 D th	-0.2213
-1.2356 D u	-0.5701
-1.9512 D v	-0.3966
-2.4311 D w	-0.3888
-1.5872 D z	-0.4947
-1.5779 D& &	-0.3132
-2.3708 D& @	-0.2601
-2.3893 D& A	-0.0470
-1.4566 D& A&	-0.1677
-2.2739 D& D	-0.3363
-2.4288 D& D&i	-0.2175
-2.6049 D& E	-0.0436
-1.8372 D& E&r	-0.2196
-2.2739 D& I	-0.4705
-1.0600 D& N	-0.3397
-1.4769 D& S	-0.1955
-1.9729 D& T	-0.2974
-1.6305 D& U	-0.4119
-1.8590 D& Z	-0.2390
-2.0350 D& aI	-0.2644
-2.1176 D& aU	-0.0952
-2.6719 D& b	-0.1817
-1.8115 D& d	-0.3686
-2.5750 D& dZ	-0.1052
-1.2514 D& dc	-0.2351
-2.8480 D& ei	-0.2312
-1.5721 D& f	-0.1091
-2.4958 D& g	-0.0424
-1.8818 D& h	-0.2440
-2.1490 D& i	-0.3171
-1.9587 D& j	-0.2384
-2.0187 D& kh	-0.2567
-1.1393 D& l	-0.7834
-1.0091 D& m	-0.4948
-0.9817 D& n	-0.4022
-1.5957 D& oU	-0.2034
-2.0790 D& ph	-0.2269
-1.4886 D& r&	-0.4258
-1.7136 D& s	-0.2618
-3.2783 D& tS
-1.0609 D& tc	-0.4635
-2.2070 D& th	-0.2012
-2.4086 D& u	-0.3643
-1.1567 D& v	-0.0137
-2.1947 D& w	-0.1996
-1.5055 D& z	-0.4443
-1.5236 D&i &	-0.1755
-1.7597 D&i @	-0.2426
-2.3203 D&i A	-0.1038
-1.4352 D&i A&	-0.2657
-2.3203 D&i D	-0.1005
-2.2412 D&i D&
-1.6000 D&i E	-0.1718
-2.0149 D&i E&r	-0.1203
-1.2746 D&i I	-0.1200
-1.1889 D&i N	-0.5036
-1.4239 D&i S	-0.3359
-2.3203 D&i T
-2.0149 D&i U	-0.3542
-1.5836 D&i Z	-0.0777
-2.2412 D&i aI
-1.9358 D&i aU	-0.1046
-2.7183 D&i b
-1.6532 D&i d	-0.1880
-1.8108 D&i dc	-0.1893
-1.4709 D&i ei	-0.1676
-2.7183 D&i f
-2.3203 D&i g
-2.0149 D&i h	-0.0363
-0.8001 D&i i	-0.2551
-0.9696 D&i j	-0.1782
-2.2412 D&i kh
-1.9735 D&i l	-0.0541
-1.4467 D&i m	-0.1999
-1.0754 D&i n	-0.3715
-1.7362 D&i oU	-0.1858
-2.7183 D&i ph
-2.3203 D&i r&
-2.0149 D&i s	-0.0016
-1.6347 D&i tc	-0.2560
-2.5422 D&i th
-1.2088 D&i u	-0.2081
-1.9010 D&i v	-0.0293
-2.7183 D&i w
-1.6347 D&i z	-0.2456
-1.8280 E &	-0.2645
-2.1192 E @	-0.3430
-2.3864 E A	-0.2532
-1.8402 E A&	-0.2010
-1.8527 E D	-0.0835
-2.4485 E D&	-0.2103
-3.3438 E D&i
-2.0472 E E&r	-0.2522
-1.9240 E I	-0.2382
-1.4041 E N	-0.3712
-1.8201 E S	-0.3401
-1.6473 E T	-0.6525
-2.4485 E U	-0.0509
-1.8485 E Z	-0.2859
-2.2560 E aI	-0.3169
-2.3320 E aU	-0.1364
-3.0506 E b	-0.0773
-1.6180 E d	-0.4596
-2.9341 E dZ	-0.0312
-1.1168 E dc	-0.0976
-2.0890 E ei	-0.1623
-1.7614 E f	-0.2234
-2.5734 E g	-0.1574
-1.7971 E h	-0.4166
-2.0711 E i	-0.2802
-2.2300 E j	-0.3819
-1.9550 E kh	-0.4578
-1.7934 E l	-0.4662
-1.1555 E m	-1.0437
-0.7883 E n	-1.1664
-1.9604 E oU	-0.4003
-2.3072 E ph	-0.4401
-2.2055 E r&	-0.3596
-1.5103 E s	-0.0067
-2.9341 E tS	-0.2898
-0.7874 E tc	-0.5656
-1.9770 E th	-0.2202
-1.8382 E u	-0.1057
-1.0403 E v	-0.9249
-2.0746 E w	-0.3569
-1.2831 E z	-0.3413
-1.6728 E&r &	-0.1536
-1.7460 E&r @	-0.1548
-2.0652 E&r A	-0.1928
-1.6691 E&r A&	-0.2059
-1.8288 E&r D	-0.0026
-2.0841 E&r D&	-0.2253
-3.0427 E&r D&i	-0.3303
-1.9177 E&r E	-0.3051
-1.8182 E&r I	-0.0319
-1.4678 E&r N	-0.4571
-1.4213 E&r S	-0.0736
-1.7550 E&r T	-0.3871
-2.3393 E&r U	-0.1839
-1.5974 E&r Z	-0.3109
-2.2188 E&r aI	-0.1165
-1.9112 E&r aU	-0.3371
-2.4151 E&r b	-0.2421
-1.5441 E&r d	-0.3901
-2.1932 E&r dZ	-0.2866
-1.1944 E&r dc	-0.2107
-2.0130 E&r ei	-0.1352
-1.5700 E&r f	-0.2687
-1.9738 E&r g	-0.2937
-1.5700 E&r h	-0.3859
-1.6654 E&r i	-0.1752
-1.8342 E&r j	-0.1509
-1.7550 E&r kh	-0.2947
-1.8235 E&r l	-0.3516
-1.4748 E&r m	-0.2104
-1.1762 E&r n	-0.2571
-1.6654 E&r oU	-0.2790
-1.8984 E&r ph	-0.2584
-2.0560 E&r r&	-0.3644
-1.3870 E&r s	-0.5407
-2.4820 E&r tS	-0.1603
-0.9414 E&r tc	-0.2865
-1.8182 E&r th	-0.1639
-1.7595 E&r u	-0.2973
-1.1151 E&r v	-0.0946
-1.9664 E&r w	-0.3034
-1.1309 E&r z	+0.1579
-2.1683 I &	-0.2461
-2.4236 I @	-0.0730
-2.9154 I A	-0.3336
-2.2986 I A&	-0.1236
-1.6720 I D	-0.4864
-2.9007 I D&	-0.0435
-3.9051 I D&i
-2.6876 I E	-0.1560
-2.5854 I E&r	-0.2220
-1.1323 I N	-1.5190
-1.7179 I S	-0.3392
-1.5396 I T	+0.6892
-2.8727 I U	-0.0431
-1.8463 I Z	-0.2150
-3.6040 I aI	-0.2354
-2.7758 I aU	-0.2676
-2.9007 I b	-0.3450
-1.7650 I d	-0.3481
-2.4383 I dZ	-0.1748
-0.8862 I dc	+1.1880
-2.7650 I ei	-0.1361
-1.7324 I f	+0.0283
-2.3910 I g	-0.2504
-1.8865 I h	-0.1602
-2.1348 I i	-0.2970
-2.1960 I j	-0.2356
-2.2255 I kh	-0.3896
-2.2255 I l	-0.2742
-1.2414 I m	-1.1652
-0.8723 I n	-2.3961
-2.3134 I oU	-0.3340
-2.4970 I ph	-0.2788
-2.7443 I r&	-0.1812
-1.4015 I s
-3.1474 I tS	-0.1149
-0.7910 I tc	-0.6269
-2.0790 I th	-0.2967
-1.9065 I u	-0.4200
-1.0478 I v	-1.9942
-2.0968 I w	-0.2567
-1.0981 I z	+0.4574
-1.6203 N &	-0.1501
-1.5881 N @	-0.4043
-2.1930 N A	-0.2790
-1.7485 N A&	-0.2959
-1.5408 N D	-0.4376
-2.2042 N D&	-0.1166
-3.1799 N D&i	-0.1353
-1.7947 N E	-0.3537
-2.1799 N E&r	-0.3983
-1.2584 N I	-0.3624
-1.6674 N S	+0.0298
-1.8730 N T	-0.4701
-2.2213 N U	-0.2472
-1.8303 N Z	-0.5219
-2.4289 N aI	-0.1528
-1.8130 N aU	-0.2296
-2.0011 N b	-0.2332
-1.5680 N d	-0.2321
-1.8429 N dZ	-0.1598
-1.0938 N dc	+0.3947
-1.9757 N ei	-0.1841
-1.7257 N f	-0.3272
-1.6602 N g	-0.2227
-1.6127 N h	-0.3072
-1.2274 N i	-0.5394
-0.9555 N j	-0.5221
-1.8357 N kh	-0.2519
-1.8130 N l	-0.3083
-1.5302 N m	-0.4390
-1.5838 N n	-0.4544
-1.7851 N oU	-0.4996
-1.9471 N ph	-0.4281
-2.3404 N r&	-0.2694
-1.4897 N s	-0.4846
-2.3952 N tS	-0.1789
-1.1591 N tc	-0.3677
-1.8113 N th	-0.1441
-1.6032 N u	+0.0215
-1.5680 N v	+0.1093
-1.8063 N w	-0.2060
-1.2852 N z	-0.0505
-1.2067 S &	-0.2282
-1.6986 S @	-0.5474
-2.0666 S A	-0.3532
-1.4632 S A&	-0.2686
-2.0344 S D	-0.5052
-2.2511 S D&	-0.3148
-3.4860 S D&i
-1.5194 S E	-0.3685
-2.0449 S E&r	-0.2762
-0.9591 S I	-0.4813
-2.0396 S N	-0.0997
-2.0556 S T	-0.1673
-1.6986 S U	-0.2962
-2.1392 S Z	-0.2250
-2.6577 S aI	-0.2181
-2.0142 S aU	-0.2079
-2.4402 S b	-0.3163
-2.1326 S d	-0.2357
-1.6665 S dZ	-0.5222
-1.9056 S dc	-0.0325
-2.1953 S ei	-0.3553
-1.6008 S f	-0.4935
-1.8448 S g	-0.7068
-1.4324 S h	-0.6122
-1.1398 S i	-0.1554
-1.3074 S j	-0.3309
-1.6709 S kh	-0.4759
-2.1014 S l	-0.3762
-1.5821 S m	-0.6536
-1.5100 S n	-0.2204
-1.7973 S oU	-0.2895
-1.9856 S ph	-0.3652
-2.0396 S r&	-0.3992
-1.6709 S s	-0.0546
-1.6386 S tS	-0.3992
-1.0700 S tc	-0.6337
-1.3699 S th	-0.6229
-1.1471 S u	-0.6485
-2.2959 S v	-0.3326
-1.8316 S w	-0.3386
-1.7182 S z	-0.3691
-1.1808 T &	-0.4672
-1.2630 T @	-0.3743
-1.9528 T A	-0.1821
-1.2178 T A&	-0.2527
-1.6382 T D	-0.2567
-2.1044 T D&	-0.1861
-3.3455 T D&i
-1.2307 T E	-0.1942
-1.7691 T E&r	-0.2977
-1.2529 T I	-0.5015
-2.1746 T N	-0.3030
-1.8774 T S	-0.3227
-1.6124 T U	+0.0621
-2.4833 T Z	-0.1252
-1.8971 T aI	-0.2115
-1.6610 T aU	-0.0724
-1.5981 T b	-0.2422
-1.8371 T d	-0.1537
-2.3507 T dZ	-0.1915
-1.7264 T dc	-0.2566
-2.0011 T ei	-0.1311
-1.7458 T f	-0.3316
-1.7544 T g	-0.4090
-1.6230 T h	-0.3263
-1.5007 T i	-0.3153
-1.6850 T j	-0.2067
-1.5189 T kh	-0.2322
-1.8660 T l	-0.0896
-1.5650 T m	-0.4626
-1.3295 T n	-0.4177
-1.7291 T oU	-0.2511
-1.6563 T ph	-0.3116
-2.0011 T r&	-0.3568
-1.6850 T s	-0.4864
-2.1746 T tS	-0.2210
-1.1784 T tc	-0.4451
-1.5467 T th	-0.1986
-1.4772 T u	-0.1826
-1.7458 T v	-0.6090
-1.7078 T w	-0.1625
-1.7844 T z	-0.2463
-1.8596 U &	-0.1385
-2.0997 U @	-0.3778
-2.4135 U A	-0.1842
-1.7935 U A&	+0.0595
-1.6956 U D	-0.2317
-2.4005 U D&	-0.1570
-2.9057 U D&i	-0.1165
-1.9984 U E	-0.2549
-2.1623 U E&r	-0.2558
-1.9514 U I	+0.1088
-1.4985 U N	-0.4649
-1.7229 U S	-0.1949
-1.8321 U T	-0.1077
-1.6598 U Z	-0.5094
-2.6217 U aI	-0.1239
-2.2272 U aU	-0.1885
-2.5572 U b	-0.1434
-1.5899 U d	-0.4713
-2.9057 U dZ	-0.1022
-0.7323 U dc	-0.3593
-2.3861 U ei	-0.1708
-1.6504 U f	-0.2911
-2.2872 U g	-0.1646
-1.8704 U h	-0.4616
-1.8523 U i	-0.2294
-1.9627 U j	-0.1638
-2.1745 U kh	-0.4199
-1.7363 U l	-0.1268
-1.3841 U m	-0.6322
-1.2691 U n	-0.1351
-1.8155 U oU	-0.3927
-2.4286 U ph	-0.2134
-1.9627 U r&	-0.3170
-1.6852 U s	-0.3577
-3.0654 U tS	-0.1699
-0.8226 U tc	-0.4226
-2.0419 U th	-0.2186
-1.7741 U u	-0.2228
-0.9518 U v	-0.9527
-2.0328 U w	-0.3252
-1.2653 U z	+1.0793
-1.0865 Z &	-0.1711
-1.4836 Z @	-0.2396
-1.8260 Z A	-0.4362
-1.2903 Z A&	-0.2767
-1.9741 Z D	-0.2544
-1.9229 Z D&	-0.2759
-3.4836 Z D&i
-1.2833 Z E	-0.3074
-1.6597 Z E&r	-0.1789
-0.9023 Z I	-0.4752
-1.6764 Z N	-0.2256
-2.0479 Z S	-0.0630
-2.4185 Z T	-0.1676
-1.6467 Z U	-0.3301
-2.4185 Z aI	-0.1319
-1.7047 Z aU	-0.3390
-2.2239 Z b	-0.3254
-1.8309 Z d	-0.3285
-1.8938 Z dZ	-0.3590
-1.7549 Z dc	-0.5845
-1.8260 Z ei	-0.4699
-1.9169 Z f	-0.6215
-2.0642 Z g	-0.4564
-1.8118 Z h	-0.3811
-1.3737 Z i	-0.4709
-1.4073 Z j	-0.4798
-2.0813 Z kh	-0.3065
-1.9949 Z l	-0.2562
-1.7759 Z m	-0.4096
-1.5274 Z n	-0.3963
-1.6249 Z oU	-0.2475
-2.1570 Z ph	-0.2781
-1.8938 Z r&	-0.5782
-1.7802 Z s	-0.4996
-1.8508 Z tS	-0.2022
-1.5178 Z tc	-0.4914
-1.5131 Z th	-0.3420
-1.1549 Z u	-0.1124
-1.8718 Z v	-0.3309
-1.6730 Z w	-0.4307
-1.5422 Z z	-0.2229
-1.7319 aI &	-0.0306
-1.6478 aI @	-0.2638
-2.4779 aI A	-0.1584
-1.8758 aI A&	-0.1491
-2.1873 aI D	-0.2088
-2.7209 aI D&	-0.0586
-1.9872 aI E	-0.1450
-2.0292 aI E&r	-0.1964
-1.5879 aI I	-0.2962
-0.9204 aI N	-0.4460
-1.7470 aI S	-0.2742
-2.0841 aI T	-0.2967
-2.4779 aI U	-0.2041
-1.9368 aI Z	-0.4231
-1.9806 aI aU	-0.3280
-2.8970 aI b
-1.6963 aI d	-0.4407
-2.8459 aI dZ	-0.1704
-1.2113 aI dc	-0.4203
-1.4758 aI ei	-0.2253
-2.1469 aI f	-0.1431
-2.4779 aI g	-0.2428
-1.8001 aI h	-0.3645
-0.9740 aI i	-0.0021
-1.1636 aI j	-0.1745
-2.0841 aI kh	-0.2564
-2.1980 aI l	-0.2561
-1.5145 aI m	-0.3670
-0.8444 aI n	-0.7742
-2.0677 aI oU	-0.2637
-2.3529 aI ph	-0.0880
-2.3687 aI r&	-0.2330
-1.6929 aI s	-0.1074
-3.0263 aI tS
-1.1738 aI tc	-0.3449
-1.9872 aI th	-0.2386
-1.5191 aI u	-0.3067
-1.5774 aI v	-0.4316
-2.3377 aI w	-0.2675
-1.4862 aI z	-0.3355
-1.7520 aU &	-0.0441
-1.8846 aU @	-0.3740
-1.5168 aU A	-0.4430
-1.5342 aU A&	-0.1424
-1.8846 aU D	-0.2721
-1.7524 aU D&	-0.3608
-1.7563 aU D&i	-0.2870
-2.4823 aU E	-0.0915
-1.9657 aU E&r	-0.0700
-2.3732 aU I	-0.1525
-1.2036 aU N	-0.5080
-2.0001 aU S	-0.1965
-1.9563 aU T	-0.2877
-2.1233 aU U	-0.2204
-2.1813 aU Z	-0.1959
-1.5950 aU aI	-0.1453
-2.3167 aU b	-0.0159
-1.8613 aU d	-0.4371
-2.8155 aU dZ	-0.0296
-1.4163 aU dc	-0.2337
-2.7833 aU ei	-0.2061
-1.7865 aU f	-0.2224
-2.3980 aU g	-0.1924
-1.7505 aU h	-0.2241
-2.1660 aU i	-0.1520
-2.2052 aU j	-0.2405
-1.9517 aU kh	-0.3555
-1.1139 aU l	-0.2841
-0.9885 aU m	-1.4847
-0.9728 aU n	-0.6580
-1.6328 aU oU	-0.2034
-1.9752 aU ph	-0.1765
-1.8056 aU r&	-0.4906
-1.8431 aU s	-0.3087
-2.9752 aU tS	-0.1752
-1.1616 aU tc	-0.0438
-1.9563 aU th	-0.3648
-2.0487 aU u	-0.3055
-1.1040 aU v	-0.4296
-1.2602 aU w	-0.5710
-1.6815 aU z	-0.2627
-1.1274 b &	-0.1544
-1.2615 b @	-0.0266
-1.3442 b A	-0.5226
-0.9334 b A&	-0.4370
-2.7554 b D	-0.1161
-1.5779 b D&	-0.2690
-2.2782 b D&i	-0.4481
-1.3574 b E	-0.3461
-1.8991 b E&r	-0.3456
-1.3389 b I	-0.3502
-2.0186 b N	-0.2595
-2.5296 b S	-0.2004
-2.9838 b T	-0.2060
-1.1421 b U	-0.5716
-2.1484 b Z	-0.3965
-1.2923 b aI	-0.2086
-1.4613 b aU	-0.1970
-2.2465 b d	-0.2607
-2.8673 b dZ	-0.0695
-1.8673 b dc	-0.2893
-2.0978 b ei	-0.2169
-2.4643 b f	-0.3289
-3.0978 b g	-0.1896
-2.1387 b h	-0.2495
-1.1856 b i	-0.3313
-1.6236 b j	-0.3286
-2.6664 b kh	-0.2241
-1.1730 b l	-1.1788
-2.4165 b m	-0.3954
-2.0259 b n	-0.2833
-1.0807 b oU	-0.6019
-2.9217 b ph	-0.1315
-2.0044 b r&	-0.4269
-2.6064 b s	-0.3026
-3.8011 b tS
-1.9159 b tc	-0.1414
-2.5180 b th	-0.1271
-1.5045 b u	-0.2740
-2.1293 b v	-0.3702
-1.5793 b w	-0.3348
-2.2227 b z	-0.1946
-1.1198 d &	-0.3542
-1.3084 d @	-0.0864
-1.6053 d A	-0.1342
-1.1179 d A&	-0.1325
-2.1272 d D	-0.2177
-1.9260 d D&	-0.1911
-2.9278 d D&i	-0.1441
-1.2820 d E	-0.5520
-1.7861 d E&r	-0.0656
-1.0904 d I	-0.3263
-1.6691 d N	-0.4026
-2.1496 d S	-0.2773
-2.3749 d T	-0.2582
-1.7160 d U	-0.3677
-2.0541 d Z	-0.2055
-1.9017 d aI	-0.3047
-1.3819 d aU	-0.2735
-2.5779 d b	-0.2322
-2.4175 d dZ	-0.0471
-1.3485 d dc	-0.2947
-1.7816 d ei	-0.5480
-2.1261 d f	-0.2232
-2.2371 d g	-0.2709
-1.6668 d h	-0.4050
-1.3524 d i	+0.0001
-1.6841 d j	-0.1569
-2.0653 d kh	-0.3327
-1.7758 d l	-0.2760
-1.8044 d m	-0.4638
-1.4828 d n	-0.2294
-1.3658 d oU	-0.3656
-2.2126 d ph	-0.3991
-2.1601 d r&	-0.3275
-2.1294 d s	-0.3125
-2.6589 d tS	-0.1689
-1.2962 d tc	-0.0470
-1.9622 d th	-0.2050
-1.2376 d u	-0.3579
-1.7435 d v	-0.3812
-1.7134 d w	-0.4284
-1.6818 d z	-0.2750
-1.0509 dZ &	-0.5942
-1.6286 dZ @	-0.3955
-1.9118 dZ A	-0.3248
-1.3604 dZ A&	-0.5944
-2.3762 dZ D	-0.1165
-2.0282 dZ D&	-0.3546
-2.8032 dZ D&i	+0.0003
-1.4176 dZ E	-0.2326
-1.8538 dZ E&r	-0.4452
-0.8361 dZ I	-0.5499
-1.7204 dZ N	-0.2994
-2.1311 dZ S	-0.1144
-2.2717 dZ T	-0.1254
-1.7501 dZ U	-0.4893
-1.8947 dZ Z	-0.2091
-2.7618 dZ aI	-0.2141
-1.5805 dZ aU	-0.3880
-2.7618 dZ b	-0.2382
-2.1500 dZ d	-0.2762
-1.5022 dZ dc	-0.6258
-1.7779 dZ ei	-0.3730
-2.0789 dZ f	-0.2027
-2.4608 dZ g	-0.1472
-1.9707 dZ h	-0.1978
-1.0193 dZ i	-0.5663
-1.4105 dZ j	-0.2079
-2.2847 dZ kh	-0.3490
-2.0323 dZ l	-0.3296
-1.7350 dZ m	-0.4203
-1.6793 dZ n	-0.1530
-1.5154 dZ oU	-0.1459
-2.3718 dZ ph	-0.1179
-2.0628 dZ r&	-0.3360
-2.0872 dZ s	-0.2506
-2.9001 dZ tS	-0.0821
-1.3049 dZ tc	-0.5094
-2.0250 dZ th	-0.2886
-1.0287 dZ u	-0.4197
-1.8394 dZ v	-0.3605
-1.7313 dZ w	-0.1364
-1.7168 dZ z	-0.3124
-2.0944 dc &	-0.1854
-2.2801 dc @	-0.2290
-2.5268 dc A	-0.3393
-2.2729 dc A&	+0.1478
-1.2188 dc D	-0.5038
-2.5909 dc D&	-0.0523
-2.4083 dc E	-0.1633
-2.6841 dc E&r	-0.0837
-2.1755 dc I	-0.2319
-2.6903 dc N	-0.3019
-2.0155 dc S	-0.1343
-2.0001 dc T	-0.5011
-2.2300 dc U	-0.1896
-2.4598 dc Z	-0.5807
-3.1040 dc aI	-0.1081
-2.9556 dc aU	-0.0196
-0.7734 dc b	-0.7347
-0.7221 dc d	+0.7403
-1.2813 dc dZ	-0.5410
-3.5354 dc ei	-0.0533
-2.0482 dc f	-0.4056
-0.7987 dc g	+0.5484
-2.2070 dc h	-0.4040
-1.9163 dc i	-0.5246
-1.4908 dc j	-0.4768
-1.3240 dc kh	-2.1463
-2.3800 dc l	-0.3406
-2.0992 dc m	-0.6769
-2.0077 dc n	-0.5765
-2.4115 dc oU	-0.4161
-1.4999 dc ph	-0.8541
-2.5622 dc r&	-0.0981
-1.7742 dc s	-0.3135
-1.9476 dc tS	-0.3896
-1.8244 dc tc	-0.0579
-1.2968 dc th	-1.5201
-2.2029 dc u	-0.2170
-2.6215 dc v	-0.2846
-1.9602 dc w	-0.5923
-1.7054 dc z	+0.8124
-1.9438 ei &	-0.1365
-2.1556 ei @	-0.3053
-2.6583 ei A	-0.0410
-1.8868 ei A&	-0.2361
-2.0562 ei D	-0.2484
-2.3986 ei D&	-0.2011
-3.1147 ei D&i	-0.2048
-2.0662 ei E	-0.2424
-2.1199 ei E&r	-0.1361
-1.6352 ei I	-0.2388
-0.9546 ei N	-0.4380
-1.5925 ei S	-0.1538
-1.8801 ei T	-0.2773
-2.6583 ei U	-0.0533
-1.6504 ei Z	-0.2423
-2.9259 ei aI	-0.2239
-1.9438 ei aU	-0.5065
-2.6997 ei b	-0.0766
-1.8868 ei d	-0.1576
-2.3379 ei dZ	-0.1917
-0.9377 ei dc	-0.1844
-1.7265 ei f	-0.4829
-2.0869 ei g	-0.2113
-1.8189 ei h	-0.2552
-1.2418 ei i	-0.1798
-1.2699 ei j	-0.5276
-2.0007 ei kh	-0.2849
-2.0276 ei l	-0.3719
-1.5758 ei m	-0.4002
-1.1280 ei n	-0.2763
-1.8736 ei oU	-0.3306
-2.2525 ei ph	-0.2727
-2.5236 ei r&	-0.1730
-1.4718 ei s	-0.1869
-2.7966 ei tS	-0.3019
-0.9377 ei tc	-0.2854
-1.8246 ei th	-0.2071
-1.5535 ei u	-0.0030
-1.3304 ei v	-0.4100
-2.0976 ei w	-0.0766
-1.3213 ei z	-0.4934
-1.3259 f &	-0.3657
-1.5032 f @	-0.4045
-1.6229 f A	-0.1601
-1.2876 f A&	-0.2239
-1.6893 f D	-0.0319
-1.8086 f D&	-0.2730
-2.3306 f D&i	-0.3118
-1.7725 f E	-0.2831
-1.9711 f E&r	-0.2434
-1.5281 f I	-0.0820
-2.1774 f N	-0.1376
-1.7286 f S	-0.4015
-1.6906 f T	-0.4790
-1.5190 f U	-0.1441
-2.4903 f Z	-0.2696
-2.0554 f aI	-0.1875
-1.9603 f aU	-0.2423
-1.8677 f b	-0.3713
-2.1071 f d	-0.0558
-2.0735 f dZ	-0.4691
-1.8345 f dc	-0.1827
-2.4556 f ei	-0.1609
-1.8398 f g	-0.4701
-1.4646 f h	-0.3985
-1.6925 f i	-0.4042
-1.6925 f j	-0.3321
-1.3248 f kh	-0.6743
-1.4796 f l	-0.8147
-1.5739 f m	-0.3439
-1.4457 f n	-0.7182
-1.5114 f oU	+0.0495
-1.5321 f ph	-0.4607
-1.8563 f r&	-0.4649
-1.5828 f s	-0.4265
-1.9036 f tS	-0.2968
-0.9418 f tc	-0.9044
-1.2627 f th	-0.6170
-1.5798 f u	-0.4235
-2.0467 f v	-0.3906
-1.4738 f w	-0.2696
-1.8265 f z	-0.5569
-1.1958 g &	-0.5179
-1.4298 g @	-0.3985
-1.5889 g A	-0.2021
-1.0653 g A&	-0.1700
-2.0080 g D	-0.3153
-1.7037 g D&	-0.3338
-2.5523 g D&i	-0.1332
-1.3508 g E	-0.1784
-1.6779 g E&r	-0.3988
-1.2408 g I	-0.1679
-1.7102 g N	-0.2777
-1.9664 g S	-0.2899
-2.5118 g T	-0.1926
-1.1522 g U	-0.4785
-1.9098 g Z	-0.2167
-2.2156 g aI	-0.2323
-1.5491 g aU	-0.1750
-2.6879 g b	-0.2220
-1.7940 g d	-0.4599
-2.2460 g dZ	-0.3141
-1.4911 g dc	-0.2306
-2.1650 g ei	-0.1320
-2.1480 g f	-0.3449
-1.9476 g h	-0.2053
-1.4115 g i	-0.3534
-1.6505 g j	-0.0198
-2.5316 g kh	-0.1952
-1.3455 g l	-0.5753
-1.8266 g m	-0.2529
-1.4457 g n	-0.6487
-1.1552 g oU	-0.4793
-2.4661 g ph	-0.1238
-1.8428 g r&	-0.3491
-2.0097 g s	-0.3987
-2.4408 g tS	-0.0917
-1.6640 g tc	-0.3874
-2.0511 g th	-0.3142
-1.4757 g u	-0.1228
-1.6348 g v	-0.4640
-1.5762 g w	-0.0767
-1.6751 g z	-0.2102
-1.3438 h &	-0.2390
-1.3054 h @	+0.0190
-1.6680 h A	-0.1230
-1.2573 h A&	-0.1327
-1.8142 h D	-0.0902
-1.8822 h D&	-0.3052
-2.7443 h D&i	-0.0356
-1.4058 h E	+0.0240
-1.7553 h E&r	-0.2960
-1.0792 h I	-0.1096
-1.5138 h N	-0.4155
-2.1588 h S	-0.2526
-2.0863 h T	-0.4818
-1.6320 h U	-0.3459
-2.2745 h Z	-0.1028
-1.6188 h aI	-0.1075
-1.6254 h aU	-0.2294
-2.3050 h b	-0.0736
-1.7378 h d	-0.2066
-2.5982 h dZ	-0.0592
-1.7925 h dc	-0.0944
-1.8200 h ei	-0.1985
-1.8606 h f	-0.3519
-1.9661 h g	-0.5127
-1.0731 h i	-0.3053
-1.5361 h j	-0.2972
-1.6526 h kh	-0.1322
-1.6874 h l	-0.4311
-1.5456 h m	-0.6463
-1.2593 h n	-0.6349
-1.5334 h oU	-0.4308
-1.8412 h ph	-0.3434
-2.0815 h r&	-0.2189
-1.7531 h s	-0.6364
-2.5540 h tS	-0.2450
-1.5920 h tc	-0.0180
-1.6354 h th	-0.3936
-1.3186 h u	-0.5085
-2.0119 h v	-0.1516
-1.7949 h w	-0.3576
-1.7949 h z	-0.3412
-1.8672 i &	-0.1683
-1.8637 i @	-0.1259
-2.2064 i A	-0.4272
-1.8672 i A&	+0.0097
-1.8451 i D	-0.4028
-2.4504 i D&	-0.1396
-3.6784 i D&i
-1.6940 i E	-0.2400
-2.2634 i E&r	-0.2878
-1.3038 i I	-0.4169
-1.0809 i N	-0.5017
-1.5839 i S	-0.4412
-1.7921 i T	-0.1634
-2.4780 i U	-0.0517
-1.7107 i Z	+0.2456
-2.8010 i aI	-0.1898
-2.0485 i aU	-0.4294
-2.6952 i b	-0.2741
-1.7637 i d	-0.3390
-2.0355 i dZ	-0.4506
-0.8459 i dc	-0.4784
-2.1298 i ei	-0.4903
-1.6259 i f	-0.3959
-1.9892 i g	-0.1699
-1.6999 i h	-0.5855
-1.6044 i j	-0.1916
-1.9370 i kh	-0.3998
-2.1734 i l	-0.3689
-1.6279 i m	-0.2015
-1.3130 i n	-0.3825
-2.2064 i oU	-0.2224
-2.0702 i ph	-0.4968
-2.8484 i r&	-0.1746
-1.4152 i s	-0.1523
-2.9016 i tS	-0.1717
-0.8055 i tc	-0.5179
-1.9269 i th	-0.5985
-1.5894 i u	-0.0195
-1.4030 i v	-0.1014
-1.9269 i w	-0.3902
-1.2838 i z	-0.4194
-1.2062 j &	-0.4698
-1.4321 j @	-0.3369
-1.9170 j A	-0.2682
-1.5798 j A&	-0.3183
-2.2709 j D	-0.3573
-1.9458 j D&	-0.4208
-2.5927 j D&i	-0.1245
-1.3403 j E	-0.5677
-2.0200 j E&r	-0.4289
-0.9162 j I	+0.2403
-1.3233 j N	-0.0602
-2.1628 j S	-0.0797
-2.4916 j T	-0.3440
-1.8485 j U	-0.2257
-1.7121 j Z	-0.1313
-2.7108 j aI	-0.2931
-1.4867 j aU	-0.2873
-2.8009 j b	-0.2484
-1.7373 j d	-0.3502
-2.6361 j dZ	-0.2009
-1.3484 j dc	-0.5001
-1.7845 j ei	-0.4849
-1.9606 j f	-0.2429
-2.1825 j g	-0.1453
-1.7476 j h	-0.2913
-1.5293 j i	-0.3066
-2.1020 j kh	-0.4021
-1.7782 j l	-0.5566
-1.6350 j m	-0.6961
-1.5083 j n	-0.6015
-1.5161 j oU	-0.3021
-2.3771 j ph	-0.4274
-2.5347 j r&	-0.1882
-1.7217 j s	-0.1679
-2.8937 j tS	-0.1441
-1.3177 j tc	-0.4549
-2.0037 j th	-0.5026
-0.9987 j u	-0.4265
-1.4138 j v	-0.4269
-1.4949 j w	+0.3184
-1.6106 j z	-0.3157
-1.4100 kh &	-0.4641
-1.2856 kh @	-0.0167
-1.5639 kh A	-0.0520
-1.1332 kh A&	-0.4829
-1.7616 kh D	-0.1627
-1.6235 kh D&	-0.1595
-2.5882 kh D&i	-0.2400
-1.5419 kh E	-0.1913
-2.0319 kh E&r	-0.3838
-1.5163 kh I	-0.3633
-1.7573 kh N	-0.3148
-1.5458 kh S	-0.2059
-1.8155 kh T	-0.2289
-1.4827 kh U	-0.2807
-2.0259 kh Z	-0.3882
-1.7976 kh aI	-0.3346
-1.6197 kh aU	-0.2609
-2.3329 kh b	-0.3125
-2.0599 kh d	-0.2402
-2.0899 kh dZ	-0.3087
-1.7871 kh dc	-0.0755
-2.2608 kh ei	-0.1856
-1.5680 kh f	-0.4915
-2.0441 kh g	-0.4943
-1.6784 kh h	-0.3499
-1.5448 kh i	-0.5791
-1.7017 kh j	-0.2458
-1.3483 kh l	-0.7192
-1.6524 kh m	-0.6847
-1.4114 kh n	-0.3389
-1.3552 kh oU	-0.2630
-2.0171 kh ph	-0.2483
-1.9943 kh r&	-0.1650
-1.5081 kh s	+0.1093
-1.9999 kh tS	-0.3150
-1.0947 kh tc	-0.6315
-1.7059 kh th	-0.3701
-1.6575 kh u	-0.5084
-1.9115 kh v	-0.4026
-1.4397 kh w	-0.2791
-1.7400 kh z	-0.3373
-1.6323 l &	-0.2695
-1.6053 l @	-0.3218
-1.6497 l A	-0.5277
-1.1885 l A&	-0.5482
-1.9063 l D	-0.4251
-2.0995 l D&	-0.0080
-2.8447 l D&i	-0.1246
-1.5261 l E	-0.1622
-2.1161 l E&r	-0.2573
-1.4785 l I	-0.3500
-1.5951 l N	-0.3849
-1.6618 l S	-0.3789
-1.8447 l T	-0.4928
-1.8550 l U	-0.3295
-1.9578 l Z	-0.3376
-1.6519 l aI	-0.3532
-1.8656 l aU	-0.2533
-1.9513 l b	-0.0986
-1.7407 l d	+0.0429
-2.7741 l dZ	-0.2424
-1.0852 l dc	-0.1565
-1.9259 l ei	-0.2149
-1.2439 l f	-0.3602
-1.7172 l g	-0.4910
-1.5980 l h	-0.3935
-1.4114 l i	-0.1815
-1.5994 l j	-0.5910
-1.5754 l kh	-0.0948
-1.4447 l m	-0.5775
-1.5249 l n	-0.2111
-1.9817 l oU	-0.2524
-1.7078 l ph	-0.1031
-2.1560 l r&	-0.1557
-1.5965 l s	-0.3227
-2.8447 l tS	-0.2224
-1.0888 l tc	-0.4366
-1.9679 l th	-0.0367
-2.0144 l u	-0.3995
-1.2523 l v	-0.1380
-1.8010 l w	-0.2101
-1.5700 l z	-0.4040
-1.4230 m &	-0.1994
-1.3503 m @	-0.3625
-1.3890 m A	-0.2333
-1.0250 m A&	-0.1753
-1.6606 m D	-0.2046
-1.6188 m D&	-0.1816
-2.1871 m D&i	-0.4246
-1.4398 m E	+0.3809
-2.0033 m E&r	-0.1375
-1.3411 m I	-0.5131
-1.6704 m N	-0.4297
-2.0829 m S	-0.3361
-1.9945 m T	-0.3766
-1.7650 m U	-0.2686
-2.2222 m Z	-0.3697
-1.3503 m aI	+0.0215
-1.5138 m aU	-0.2765
-1.9212 m b	+0.0634
-1.6183 m d	-0.4257
-2.5496 m dZ	-0.0325
-1.2370 m dc	+0.5330
-1.8149 m ei	-0.2762
-2.1074 m f	-0.2164
-2.0597 m g	-0.2723
-1.6014 m h	-0.3335
-1.4001 m i	-0.3469
-1.2132 m j	-0.6544
-2.2008 m kh	-0.2351
-1.5842 m l	-0.2944
-1.7295 m n	-0.4944
-1.4614 m oU	-0.1461
-2.0329 m ph	-0.4001
-2.1805 m r&	-0.2194
-1.8664 m s	-0.2736
-2.8998 m tS	-0.0980
-1.3776 m tc	-0.3991
-2.0522 m th	-0.3551
-1.7953 m u	-0.0133
-1.7727 m v	-0.2144
-1.7500 m w	-0.5815
-1.6494 m z	+1.0799
-1.4958 n &	-0.3563
-1.1997 n @	+0.4136
-1.8245 n A	-0.3502
-1.2957 n A&	-0.4932
-1.4217 n D	-0.2152
-2.1713 n D&	-0.1130
-3.5783 n D&i	-0.0797
-1.4192 n E	+0.2844
-2.1253 n E&r	-0.3881
-1.3562 n I	-0.2577
-1.6904 n N	-0.4945
-2.0160 n S	-0.2931
-1.8654 n T	-0.0595
-2.2142 n U	+0.0572
-2.0904 n Z	-0.3454
-1.8243 n aI	-0.5102
-1.5707 n aU	-0.4003
-1.9776 n b	+0.2273
-1.4937 n d	-0.6611
-1.9803 n dZ	-0.4839
-1.1112 n dc	-0.0981
-1.8102 n ei	-0.4659
-1.8870 n f	-0.4588
-1.7127 n g	-0.6637
-1.6482 n h	-0.3550
-1.2781 n i	-0.3535
-1.1164 n j	-0.9522
-1.9817 n kh	-0.3826
-1.9385 n l	-0.1258
-1.6163 n m	-0.2743
-1.7247 n oU	-0.5161
-1.9708 n ph	-0.1287
-2.3024 n r&	-0.4172
-1.6222 n s	+0.3902
-2.5571 n tS	-0.3877
-1.2242 n tc	-0.5513
-1.9073 n th	-0.2990
-1.6813 n u	-0.4305
-1.7824 n v	-0.6508
-1.9050 n w	-0.1062
-1.3654 n z	-0.5315
-2.0358 oU &	-0.0016
-2.3917 oU @	-0.2125
-2.1118 oU A	-0.2331
-1.7422 oU A&	-0.3623
-1.9008 oU D	-0.2326
-1.9663 oU D&	-0.2451
-2.2837 oU D&i	-0.2875
-2.4698 oU E	-0.0541
-2.1490 oU E&r	-0.4013
-2.1348 oU I	+0.0090
-1.2151 oU N	-0.5252
-1.5835 oU S	-0.5055
-1.9186 oU T	-0.4182
-1.8529 oU U	-0.2806
-1.7688 oU Z	-0.5525
-2.4043 oU aI	-0.3065
-2.7231 oU aU	-0.1682
-2.0947 oU b	-0.2358
-1.7648 oU d	-0.4443
-2.5848 oU dZ	-0.0402
-0.8970 oU dc	-0.6116
-2.5718 oU ei	-0.4799
-1.4729 oU f	-0.5302
-1.9572 oU g	-0.2469
-1.7002 oU h	-0.3216
-1.7304 oU i	-0.0300
-1.7915 oU j	-0.0157
-1.8652 oU kh	-0.1045
-1.6119 oU l	-0.1664
-1.1524 oU m	-0.6814
-1.2412 oU n	-0.1422
-1.8858 oU ph	-0.2542
-1.9480 oU r&	-0.4217
-1.7213 oU s	-0.2475
-2.8023 oU tS	-0.2103
-0.9981 oU tc	-0.3023
-2.0277 oU th	-0.2592
-2.0388 oU u	-0.0971
-0.9348 oU v	-1.8327
-1.4158 oU w	-0.1368
-1.4415 oU z	+1.0440
-1.1868 ph &	-0.1425
-1.3483 ph @	-0.4595
-1.4382 ph A	-0.5048
-1.0584 ph A&	-0.4232
-2.0332 ph D	-0.1596
-1.6800 ph D&	-0.1429
-2.2461 ph D&i	-0.4600
-1.5989 ph E	-0.0918
-1.7793 ph E&r	-0.3814
-1.6696 ph I	-0.3459
-1.8982 ph N	-0.1357
-1.9892 ph S	-0.6480
-2.1569 ph T	-0.2732
-1.1851 ph U	-0.4818
-2.3299 ph Z	-0.2236
-1.7232 ph aI	-0.3618
-1.8201 ph aU	-0.2412
-2.4109 ph b	-0.2169
-1.8948 ph d	-0.3468
-2.1387 ph dZ	-0.3516
-1.6945 ph dc	-0.1904
-2.6041 ph ei	-0.0567
-1.9051 ph f	-0.2704
-1.9264 ph g	-0.4211
-1.8006 ph h	-0.5654
-1.3440 ph i	-0.5173
-1.5456 ph j	-0.3398
-1.8982 ph kh	-0.2441
-1.1740 ph l	-0.7366
-1.7164 ph m	-0.1675
-1.4199 ph n	-0.4421
-1.2877 ph oU	-0.4829
-1.7142 ph r&	-0.3345
-1.8230 ph s	-0.4634
-2.3585 ph tS	-0.2990
-1.2944 ph tc	-0.1541
-1.8436 ph th	-0.5173
-1.7010 ph u	-0.3058
-1.8406 ph v	-0.2241
-1.5771 ph w	-0.4329
-1.8230 ph z	-0.3833
-1.5270 r& &	-0.1066
-1.4697 r& @	-0.2260
-1.7708 r& A	-0.2272
-1.2511 r& A&	-0.2169
-2.1879 r& D	-0.2326
-1.9803 r& D&	-0.1287
-2.9846 r& D&i	-0.0899
-1.3718 r& E	-0.3386
-1.9158 r& E&r	-0.2414
-1.4917 r& I	-0.1873
-1.4644 r& N	-0.3288
-1.2848 r& S	-0.3333
-2.1110 r& T	-0.2836
-2.0071 r& U	-0.1275
-1.5032 r& Z	-0.0976
-1.6339 r& aI	-0.3302
-1.5489 r& aU	-0.3440
-2.6379 r& b	-0.0520
-1.5394 r& d	-0.3947
-1.9469 r& dZ	-0.2798
-1.4591 r& dc	-0.1153
-1.5554 r& ei	-0.2448
-1.8100 r& f	-0.2692
-2.2168 r& g	-0.1997
-1.7348 r& h	-0.3105
-1.2336 r& i	-0.2521
-1.4974 r& j	-0.1881
-2.1229 r& kh	-0.3418
-1.8467 r& l	-0.3478
-1.6581 r& m	-0.1942
-1.3329 r& n	-0.3259
-1.4974 r& oU	-0.3653
-2.2479 r& ph	-0.2363
-1.5554 r& s	-0.2852
-2.5032 r& tS	-0.0297
-1.1865 r& tc	-0.1179
-2.1229 r& th	-0.1096
-1.7447 r& u	-0.2469
-1.5239 r& v	-0.3200
-1.9803 r& w	-0.2199
-1.3290 r& z	-0.1554
-1.2796 s &	-0.1876
-1.5437 s @	+0.1038
-2.0240 s A	-0.3154
-1.3289 s A&	-0.3185
-1.5676 s D	-0.2408
-2.2033 s D&	-0.3521
-3.3837 s D&i	-0.1903
-1.4745 s E	-0.2296
-1.9561 s E&r	-0.1589
-1.2506 s I	-0.2049
-2.1532 s N	-0.1721
-1.9728 s S	-0.3818
-1.5343 s T	+0.2997
-1.6775 s U	-0.5633
-2.4251 s Z	-0.1860
-2.2180 s aI	-0.2243
-1.7939 s aU	-0.4330
-2.1890 s b	-0.4289
-2.0747 s d	-0.2493
-1.9271 s dZ	-0.2333
-1.8015 s dc	-0.1616
-2.2825 s ei	-0.2896
-1.5598 s f	-0.3496
-1.8092 s g	-0.5650
-1.4736 s h	-0.5600
-1.5755 s i	-0.4219
-1.5447 s j	-0.1235
-1.5437 s kh	-0.5112
-2.0114 s l	-0.1996
-1.5732 s m	-0.1433
-1.4525 s n	-0.1713
-1.7476 s oU	-0.1313
-1.6147 s ph	-0.5950
-1.9728 s r&	-0.3284
-1.9348 s tS	-0.3631
-0.8102 s tc	-0.7551
-1.3353 s th	-0.4271
-1.4109 s u	-0.3996
-2.0676 s v	-0.4161
-1.5835 s w	-0.3564
-1.8112 s z	-0.1941
-1.1247 tS &	-0.1573
-1.3446 tS @	-0.3243
-1.8643 tS A	-0.2345
-1.3146 tS A&	-0.2257
-1.9145 tS D	-0.0790
-1.9612 tS D&	-0.1751
-2.7839 tS D&i	-0.1030
-1.3898 tS E	-0.2337
-1.8643 tS E&r	-0.3746
-1.0283 tS I	-0.3963
-1.8643 tS N	-0.2102
-2.3259 tS S	-0.2069
-1.9612 tS T	-0.2534
-1.7534 tS U	-0.0819
-2.2244 tS Z	-0.0784
-2.0365 tS aI	-0.1684
-1.5365 tS aU	-0.3224
-2.3494 tS b	-0.1347
-2.2067 tS d	-0.1557
-2.0249 tS dZ	-0.1583
-1.7296 tS dc	-0.2440
-1.8488 tS ei	-0.3020
-1.7413 tS f	-0.2986
-1.9326 tS g	-0.2606
-1.5183 tS h	-0.2754
-1.2622 tS i	-0.0812
-1.3768 tS j	-0.1462
-1.7238 tS kh	-0.3769
-2.0136 tS l	-0.1374
-1.5593 tS m	-0.2598
-1.4060 tS n	-0.5132
-1.7126 tS oU	-0.4849
-1.9145 tS ph	-0.1663
-2.0995 tS r&	-0.1818
-1.9326 tS s	-0.1435
-1.0995 tS tc	-0.2969
-1.7658 tS th	-0.1330
-1.1864 tS u	-0.3591
-2.1897 tS v	-0.1256
-1.7182 tS w	-0.2902
-2.0136 tS z	-0.2836
-2.0620 tc &	-0.3634
-1.9974 tc @	-0.2733
-2.0408 tc A	-0.1423
-1.9128 tc A&	-0.4468
-1.4517 tc D	-0.4650
-2.1131 tc D&	-0.0453
-3.7620 tc D&i	-0.1744
-2.2831 tc E	-0.2398
-2.7157 tc E&r	-0.0825
-2.1696 tc I	-0.0379
-3.0419 tc N	-0.2529
-1.7556 tc S	+0.7423
-1.7820 tc T	-0.4573
-2.4123 tc U	-0.2670
-2.7566 tc Z	-0.2262
-2.4890 tc aI	-0.2572
-2.5932 tc aU	-0.1292
-1.2779 tc b	-0.5143
-1.3731 tc d	-1.0704
-1.4349 tc dZ	-1.4074
-2.0168 tc dc	-0.4435
-3.2672 tc ei	-0.0858
-1.5984 tc f	-1.1479
-1.0935 tc g	+0.6421
-1.7434 tc h	-1.7241
-2.1137 tc i	-0.2495
-1.6833 tc j	-0.6201
-0.8118 tc kh	+0.3968
-2.3707 tc l	-0.3042
-1.9705 tc m	-0.6844
-2.0419 tc n	-0.3875
-2.4610 tc oU	-0.3378
-1.0763 tc ph	+0.6110
-2.5648 tc r&	-0.4587
-1.3333 tc s	+0.0475
-1.3843 tc tS	+0.3665
-0.7783 tc th	-2.7704
-2.4450 tc u	-0.2354
-2.6237 tc v	-0.3929
-1.9193 tc w	+1.2293
-1.6994 tc z	-0.2051
-1.1050 th &	-0.3167
-1.4618 th @	-0.0690
-1.7656 th A	-0.1703
-1.2776 th A&	-0.4144
-1.9881 th D	-0.0786
-1.9890 th D&	-0.2739
-3.2342 th D&i	-0.0973
-1.3884 th E	-0.4455
-1.8839 th E&r	-0.3122
-1.1521 th I	-0.6809
-1.7223 th N	-0.4143
-2.0466 th S	-0.1694
-2.1373 th T	-0.2672
-1.5413 th U	-0.0079
-2.1270 th Z	-0.1599
-1.9986 th aI	-0.2926
-1.6343 th aU	-0.3289
-2.4017 th b	-0.3863
-1.9140 th d	+0.0202
-2.3649 th dZ	-0.3591
-1.4994 th dc	-0.1569
-1.9765 th ei	-0.3921
-1.8362 th f	-0.4306
-1.9862 th g	-0.4060
-1.8259 th h	-0.3292
-1.3805 th i	-0.1919
-1.7778 th j	-0.2850
-1.9353 th kh	-0.4276
-1.5676 th l	+0.0324
-1.5584 th m	-0.6392
-1.2867 th n	-0.2724
-1.4775 th oU	-0.1706
-2.0495 th ph	-0.3325
-1.9600 th r&	-0.2559
-1.8878 th s	-0.2672
-2.4707 th tS	-0.1796
-1.1983 th tc	-0.6756
-1.0746 th u	-0.7314
-1.7236 th v	-0.5858
-1.5957 th w	-0.4566
-1.6278 th z	-0.1394
-1.8967 u &	-0.1046
-1.9231 u @	-0.2677
-2.1547 u A	-0.2453
-1.7410 u A&	-0.2002
-1.6011 u D	-0.2476
-2.1619 u D&	-0.3239
-2.7106 u D&i	-0.2310
-1.8881 u E	-0.4521
-2.1413 u E&r	-0.2610
-1.7972 u I	-0.2260
-1.3387 u N	-0.2281
-1.7149 u S	-0.3350
-1.7396 u T	-0.4034
-1.8309 u U	-0.3840
-1.6783 u Z	-0.2472
-2.2882 u aI	-0.4579
-2.3759 u aU	-0.0186
-2.2882 u b	-0.2700
-1.6315 u d	-0.2224
-2.4167 u dZ	-0.2719
-0.9104 u dc	-0.1531
-2.2478 u ei	-0.1046
-1.4970 u f	-0.2003
-2.1086 u g	-0.3360
-1.6211 u h	-0.1374
-1.6373 u i	+0.0202
-1.7134 u j	-0.2499
-1.9715 u kh	-0.5044
-1.4145 u l	-0.4526
-1.4040 u m	-0.9056
-1.3471 u n	-0.5473
-1.8006 u oU	-0.3260
-2.0590 u ph	-0.4041
-2.0781 u r&	-0.4956
-1.5706 u s	-0.2857
-3.0559 u tS	-0.1793
-0.9405 u tc	-0.2170
-1.9715 u th	-0.1904
-1.0720 u v	-0.7138
-1.6718 u w	+0.0721
-1.2373 u z	-0.4772
-1.3008 v &	+0.0080
-1.5463 v @	-0.1724
-1.7863 v A	+0.0197
-1.2889 v A&	-0.2690
-1.2206 v D	-0.6827
-1.9454 v D&	-0.3567
-2.6470 v D&i	-0.1938
-1.5563 v E	-0.3271
-1.8716 v E&r	-0.1734
-1.2747 v I	-0.4326
-1.8462 v N	-0.2869
-2.2251 v S	-0.2287
-2.0095 v T	-0.1603
-1.5103 v U	+0.3511
-2.2640 v Z	-0.3241
-1.9664 v aI	-0.2422
-1.8567 v aU	-0.3938
-1.1377 v b	-0.6266
-1.4454 v d	-0.8073
-2.0328 v dZ	-0.3879
-1.6146 v dc	-0.4022
-1.9856 v ei	-0.0910
-2.1112 v f	-0.2910
-1.3931 v g	-0.9323
-1.7388 v h	-0.4383
-1.3708 v i	+0.0145
-1.5524 v j	-0.3880
-1.5859 v kh	-0.6432
-1.7606 v l	-0.4598
-1.7123 v m	-0.6382
-1.5038 v n	-0.3311
-1.4797 v oU	-0.5153
-1.7470 v ph	-0.5795
-2.0348 v r&	-0.3095
-1.7338 v s	-0.6362
-2.4792 v tS	-0.2590
-1.5497 v tc	-0.3774
-1.7180 v th	-0.5021
-1.5044 v u	-0.5866
-1.5698 v w	-0.4286
-1.6964 v z	-0.1111
-1.3007 w &	-0.4402
-1.7722 w @	-0.2898
-1.5389 w A	-0.0339
-0.9849 w A&	-0.4922
-2.2079 w D	-0.2025
-1.6260 w D&	-0.3237
-2.2716 w D&i	-0.3535
-1.5913 w E	-0.4815
-1.8971 w E&r	-0.4749
-1.3675 w I	-0.0315
-1.8047 w N	-0.4948
-1.6158 w S	-0.4411
-2.5803 w T	-0.2163
-1.1006 w U	-0.6607
-1.6582 w Z	-0.2303
-1.5977 w aI	-0.0835
-2.0188 w aU	-0.2949
-2.3114 w b	-0.1548
-1.7115 w d	-0.2232
-2.7052 w dZ	-0.1431
-1.3762 w dc	-0.2225
-2.0318 w ei	-0.1331
-1.8099 w f	-0.2418
-1.8813 w g	-0.3056
-1.7199 w h	-0.2931
-1.3056 w i	-0.0714
-1.4846 w j	-0.5327
-1.8844 w kh	-0.3496
-1.3471 w l	-0.0512
-1.7579 w m	-0.2548
-1.5518 w n	-0.4105
-1.3656 w oU	-0.2774
-2.1466 w ph	-0.3084
-1.5129 w r&	-0.0697
-2.1243 w s	-0.3442
-3.4425 w tS
-1.4809 w tc	-0.1481
-2.1949 w th	-0.2822
-1.8691 w u	-0.2932
-1.5236 w v	-0.6497
-1.6436 w z	-0.1717
-1.1685 z &	-0.4708
-1.4945 z @	-0.2366
-1.9612 z A	-0.4447
-1.3098 z A&	-0.2732
-1.5641 z D	-0.4267
-2.2115 z D&	-0.4239
-3.5888 z D&i
-1.3135 z E	-0.1953
-1.7756 z E&r	-0.4991
-1.1648 z I	-0.3324
-1.7991 z N	-0.4892
-2.1342 z S	-0.2392
-1.8210 z T	+0.0469
-1.6560 z U	-0.3325
-2.3439 z Z	-0.3356
-2.2706 z aI	-0.2218
-1.8409 z aU	-0.4079
-2.0233 z b	-0.4670
-1.7610 z d	-0.3828
-2.1281 z dZ	-0.2318
-1.3080 z dc	-0.6174
-2.1404 z ei	-0.3803
-1.6890 z f	-0.3823
-1.8077 z g	-0.4282
-1.7002 z h	-0.5645
-1.4477 z i	-0.3268
-1.5995 z j	-0.0348
-1.6868 z kh	-0.8099
-2.0162 z l	-0.2608
-1.4496 z m	-1.0233
-1.2778 z n	-0.3966
-1.8255 z oU	-0.5371
-1.8473 z ph	-0.3508
-1.9198 z r&	-0.5316
-1.8394 z s	-0.5553
-2.1661 z tS	-0.2214
-1.0758 z tc	-0.5231
-1.5478 z th	-0.0786
-1.3187 z u	-0.8004
-1.7649 z v	-0.3103
-1.6560 z w	-0.5028

\3-grams:
-1.7748 & @ A&
-1.0700 & @ N
-1.7748 & @ S
-1.5063 & @ T
-1.1950 & @ dc
-1.5063 & @ f
-1.5063 & @ m
-0.7970 & @ n
-1.3754 & @ s
-0.7690 & @ tc
-1.5063 & @ th
-0.9731 & @ v
-1.0189 & @ z
-1.5499 & A &
-1.5499 & A D
-1.2813 & A E&r
-1.5499 & A aI
-1.5499 & A d
-1.5499 & A dc
-1.5499 & A kh
-1.5499 & A l
-0.9031 & A m
-1.1505 & A n
-0.7068 & A tc
-1.2813 & A z
-1.6335 & A& D
-1.9021 & A& I
-1.5027 & A& N
-1.6335 & A& S
-1.4058 & A& T
-1.6335 & A& Z
-1.9021 & A& b
-0.9243 & A& dc
-1.5027 & A& f
-1.4058 & A& h
-1.9021 & A& l
-1.1461 & A& m
-0.8963 & A& n
-1.5027 & A& s
-0.9864 & A& tc
-0.7386 & A& v
-1.4058 & A& z
-0.9294 & D &
-1.3369 & D @
-1.5922 & D A
-0.8932 & D A&
-1.0124 & D E
-1.8976 & D E&r
-0.8140 & D I
-2.1253 & D N
-1.8976 & D S
-1.4161 & D U
-2.3939 & D Z
-1.5922 & D aI
-1.6891 & D aU
-1.8140 & D d
-1.9945 & D dc
-1.4161 & D ei
-2.3939 & D f
-1.1608 & D i
-1.7471 & D j
-2.3939 & D kh
-2.3939 & D l
-1.8140 & D n
-1.8976 & D oU
-2.1253 & D r&
-1.9945 & D s
-2.1253 & D tc
-1.4782 & D u
-1.8976 & D v
-1.4782 & D z
-1.5798 & D& A&
-1.5798 & D& E&r
-1.5798 & D& N
-1.3113 & D& S
-1.5798 & D& U
-1.1805 & D& dc
-1.1805 & D& l
-0.9331 & D& m
-1.0835 & D& n
-1.3113 & D& oU
-1.0835 & D& r&
-1.0000 & D& tc
-0.9331 & D& v
-0.5006 & D&i i
-1.4829 & E &
-1.2144 & E N
-1.0835 & E dc
-1.4829 & E j
-1.0835 & E m
-0.7782 & E n
-1.0835 & E s
-0.9866 & E tc
-1.2144 & E v
-1.6146 & E&r &
-1.6146 & E&r @
-1.6146 & E&r A&
-1.6146 & E&r D
-1.6146 & E&r N
-1.6146 & E&r S
-1.6146 & E&r T
-1.3460 & E&r Z
-1.2152 & E&r dc
-1.6146 & E&r f
-1.6146 & E&r h
-1.3460 & E&r i
-1.6146 & E&r l
-1.6146 & E&r m
-1.1183 & E&r n
-1.3460 & E&r oU
-1.3460 & E&r ph
-1.6146 & E&r r&
-1.1183 & E&r s
-1.2152 & E&r tc
-1.6146 & E&r th
-1.6146 & E&r v
-1.6146 & E&r z
-1.7607 & I D
-1.0560 & I N
-1.4922 & I T
-1.7607 & I Z
-1.4922 & I d
-0.7830 & I dc
-1.4922 & I l
-1.4922 & I m
-0.7549 & I n
-1.7607 & I s
-0.8451 & I tc
-1.1139 & I v
-1.2644 & I z
-1.5337 & N &
-1.8162 & N @
-2.2977 & N A
-1.8162 & N A&
-1.6167 & N D
-2.2977 & N D&
-1.9412 & N E
-2.1173 & N E&r
-1.1965 & N I
-1.5152 & N S
-1.8162 & N T
-2.1173 & N U
-1.8162 & N Z
-2.4286 & N aI
-2.0503 & N aU
-1.8954 & N b
-1.6913 & N d
-2.0503 & N dZ
-1.0442 & N dc
-2.1173 & N ei
-1.7493 & N f
-1.6913 & N g
-1.4641 & N h
-1.3639 & N i
-1.0693 & N j
-1.8540 & N kh
-1.5732 & N l
-1.4975 & N m
-1.5152 & N n
-1.8162 & N oU
-1.8954 & N ph
-2.2977 & N r&
-1.3903 & N s
-2.6971 & N tS
-1.1101 & N tc
-1.8954 & N th
-1.6167 & N u
-1.5337 & N v
-1.8954 & N w
-1.1965 & N z
-1.3465 & S &
-2.0321 & S @
-2.5284 & S A
-1.5226 & S A&
-2.1290 & S D
-1.6853 & S E
-1.8816 & S E&r
-1.0278 & S I
-1.9486 & S N
-1.8816 & S T
-1.8816 & S U
-1.8816 & S Z
-1.8236 & S aU
-2.5284 & S b
-2.5284 & S d
-1.7725 & S dZ
-1.9486 & S dc
-1.3465 & S f
-1.6475 & S g
-1.4045 & S h
-1.3650 & S i
-1.3288 & S j
-1.4480 & S kh
-1.8236 & S l
-1.3650 & S m
-1.6853 & S n
-2.1290 & S oU
-1.8816 & S ph
-2.0321 & S r&
-1.6128 & S s
-1.6128 & S tS
-0.9138 & S tc
-1.1247 & S th
-1.2954 & S u
-1.7725 & S w
-1.7725 & S z
-1.1934 & T &
-1.3184 & T @
-2.1520 & T A
-1.2584 & T A&
-1.6706 & T D
-2.5514 & T D&
-1.2726 & T E
-1.9046 & T E&r
-1.3348 & T I
-2.0551 & T N
-1.7955 & T S
-1.8466 & T U
-2.1520 & T Z
-2.0551 & T aI
-1.7497 & T aU
-1.6036 & T b
-1.9046 & T d
-2.2829 & T dZ
-1.9046 & T dc
-2.1520 & T ei
-1.5193 & T f
-1.6036 & T g
-1.5456 & T h
-1.7955 & T i
-1.6036 & T j
-1.4710 & T kh
-1.9046 & T l
-1.5736 & T m
-1.3880 & T n
-1.9716 & T oU
-1.5456 & T ph
-1.7955 & T r&
-1.7497 & T s
-2.0551 & T tS
-0.9716 & T tc
-1.3880 & T th
-1.6036 & T u
-1.6706 & T v
-1.6706 & T w
-1.7497 & T z
-1.4451 & U &
-0.4130 & U dc
-1.4451 & U h
-1.1766 & U m
-0.6435 & U tc
-0.9685 & Z &
-1.4914 & Z @
-1.7510 & Z A
-1.3664 & Z A&
-1.8479 & Z D
-1.6675 & Z D&
-1.3317 & Z E
-1.4456 & Z E&r
-0.9015 & Z I
-1.6005 & Z N
-1.9787 & Z U
-1.9787 & Z aU
-2.2473 & Z d
-1.9787 & Z dZ
-1.8479 & Z dc
-1.7510 & Z ei
-2.2473 & Z f
-1.8479 & Z g
-1.8479 & Z h
-1.5425 & Z i
-1.2695 & Z j
-1.5425 & Z l
-1.9787 & Z m
-1.4456 & Z n
-1.8479 & Z oU
-1.9787 & Z s
-1.6005 & Z tS
-1.5425 & Z tc
-1.4914 & Z th
-1.1446 & Z u
-1.6675 & Z v
-1.7510 & Z w
-1.5425 & Z z
-1.5006 & aI A&
-0.6576 & aI N
-1.0044 & aI dc
-1.1013 & aI h
-0.7959 & aI i
-0.8539 & aI n
-1.2321 & aI tc
-1.2233 & aU A&
-1.4919 & aU D&i
-1.4919 & aU N
-1.4919 & aU dc
-1.0925 & aU m
-0.6902 & aU n
-1.4919 & aU oU
-1.4919 & aU s
-1.2233 & aU tc
-1.0925 & aU v
-1.4919 & aU w
-1.4919 & aU z
-1.4037 & b &
-1.1352 & b A&
-1.4037 & b E
-1.1352 & b I
-0.9075 & b U
-1.4037 & b ei
-1.1352 & b i
-0.9075 & b l
-1.4037 & b oU
-1.1276 & d &
-1.3037 & d @
-1.6048 & d A
-1.1276 & d A&
-2.0410 & d D
-1.6628 & d D&
-1.2526 & d E
-1.7297 & d E&r
-1.1099 & d I
-1.7297 & d N
-2.3095 & d S
-2.3095 & d T
-1.9102 & d U
-2.3095 & d aI
-1.6628 & d aU
-2.0410 & d b
-2.0410 & d dZ
-1.2291 & d dc
-1.5536 & d ei
-2.3095 & d f
-2.3095 & d h
-1.3617 & d i
-1.7297 & d j
-2.3095 & d kh
-1.9102 & d l
-2.0410 & d m
-1.6048 & d n
-1.3037 & d oU
-2.3095 & d r&
-2.0410 & d s
-2.0410 & d tS
-1.0307 & d tc
-1.9102 & d th
-1.2526 & d u
-2.0410 & d v
-1.6628 & d w
-1.8133 & d z
-1.2218 & dZ &
-1.0969 & dZ A&
-1.8017 & dZ E
-0.9586 & dZ I
-1.5331 & dZ T
-1.8017 & dZ U
-1.5331 & dZ aU
-1.2218 & dZ dc
-1.8017 & dZ ei
-1.5331 & dZ f
-1.3054 & dZ i
-1.5331 & dZ j
-1.4023 & dZ m
-1.5331 & dZ n
-1.3054 & dZ oU
-1.8017 & dZ r&
-1.1549 & dZ tc
-1.0000 & dZ u
-1.5331 & dZ v
-1.3054 & dZ w
-1.8017 & dZ z
-1.9286 & dc &
-2.4058 & dc @
-2.6746 & dc A
-2.1395 & dc A&
-1.2596 & dc D
-2.5197 & dc D&
-2.5197 & dc E
-2.7415 & dc E&r
-2.1773 & dc I
-2.8251 & dc N
-2.2644 & dc S
-2.0012 & dc T
-2.1773 & dc U
-2.5197 & dc Z
-3.3214 & dc aI
-0.6636 & dc b
-0.7548 & dc d
-1.3465 & dc dZ
-2.1580 & dc f
-0.8121 & dc g
-2.0725 & dc h
-2.0573 & dc i
-1.6505 & dc j
-1.3049 & dc kh
-2.4405 & dc l
-2.1580 & dc m
-2.0573 & dc n
-2.3436 & dc oU
-1.3379 & dc ph
-2.2644 & dc r&
-1.8207 & dc s
-2.0883 & dc tS
-1.9286 & dc tc
-1.3553 & dc th
-2.2409 & dc u
-3.0528 & dc v
-1.8295 & dc w
-1.8476 & dc z
-1.3202 & ei N
-0.9208 & ei dc
-1.0516 & ei j
-1.3202 & ei kh
-0.9208 & ei n
-1.3202 & ei s
-1.3202 & ei tc
-1.3202 & ei v
-1.3202 & ei z
-1.2444 & f &
-1.4390 & f @
-1.6546 & f A
-1.2692 & f A&
-1.4785 & f D
-1.7215 & f D&
-2.6024 & f D&i
-1.6868 & f E
-2.6024 & f E&r
-1.4997 & f I
-2.2030 & f N
-1.8007 & f S
-1.5220 & f T
-1.5454 & f U
-2.3339 & f Z
-1.7215 & f aI
-1.8007 & f aU
-1.6868 & f b
-2.6024 & f d
-2.1061 & f dZ
-2.0226 & f dc
-2.2030 & f ei
-1.8976 & f g
-1.6246 & f h
-1.8976 & f i
-2.0226 & f j
-1.3857 & f kh
-1.4785 & f l
-1.8007 & f m
-1.4390 & f n
-1.8007 & f oU
-1.4205 & f ph
-2.0226 & f r&
-1.4390 & f s
-1.6546 & f tS
-0.9682 & f tc
-1.2822 & f th
-1.7215 & f u
-1.4205 & f w
-1.5703 & f z
-1.1422 & g &
-1.3507 & g @
-1.0911 & g A&
-1.8470 & g D
-1.5785 & g D&
-1.2672 & g E
-1.4476 & g E&r
-1.2672 & g I
-1.5785 & g N
-1.8470 & g T
-1.0039 & g U
-1.4476 & g aU
-1.2672 & g dc
-1.5785 & g i
-1.3507 & g l
-1.3507 & g n
-1.5785 & g oU
-1.4476 & g tc
-1.8470 & g th
-1.3507 & g u
-1.8470 & g v
-1.3248 & h &
-1.4497 & h @
-1.6838 & h A
-1.1310 & h A&
-1.8343 & h D
-1.6258 & h D&
-1.5289 & h E
-1.7508 & h E&r
-1.2067 & h I
-1.7508 & h N
-2.3306 & h S
-2.3306 & h T
-1.3828 & h U
-2.3306 & h Z
-1.6838 & h aI
-1.6838 & h aU
-1.9312 & h b
-2.3306 & h dZ
-1.7508 & h dc
-1.6838 & h ei
-1.4875 & h f
-2.0621 & h g
-1.2067 & h i
-1.3828 & h j
-1.6258 & h kh
-1.7508 & h l
-1.3528 & h m
-1.3528 & h n
-1.3828 & h oU
-2.0621 & h ph
-2.0621 & h r&
-1.6258 & h s
-2.3306 & h tS
-1.7508 & h tc
-1.8343 & h th
-1.3528 & h u
-1.6258 & h v
-1.9312 & h w
-1.7508 & h z
-1.5162 & i &
-1.6471 & i @
-1.6471 & i D
-1.9156 & i D&
-1.5162 & i E
-1.2688 & i I
-1.0726 & i N
-1.4193 & i S
-1.6471 & i Z
-0.9379 & i dc
-1.6471 & i f
-1.6471 & i kh
-1.9156 & i m
-1.2688 & i n
-1.9156 & i oU
-1.9156 & i ph
-1.4193 & i s
-0.7917 & i tc
-1.2109 & i u
-1.5162 & i v
-1.2109 & i z
-1.1735 & j &
-1.7480 & j @
-1.4367 & j A
-1.7480 & j A&
-1.7480 & j D&
-1.3697 & j E
-2.0165 & j E&r
-0.8926 & j I
-1.5202 & j N
-1.6171 & j S
-2.0165 & j T
-1.5202 & j U
-1.7480 & j Z
-2.0165 & j aU
-1.7480 & j d
-1.3697 & j dc
-2.0165 & j g
-1.6171 & j i
-1.7480 & j kh
-2.0165 & j l
-1.7480 & j m
-1.6171 & j n
-1.5202 & j oU
-1.6171 & j s
-1.1735 & j tc
-1.6171 & j th
-1.0687 & j u
-1.2606 & j v
-1.7480 & j w
-1.6171 & j z
-1.4624 & kh &
-1.3955 & kh @
-1.2863 & kh A
-1.1266 & kh A&
-2.0422 & kh D
-1.2863 & kh D&
-2.0422 & kh E
-2.0422 & kh E&r
-1.3955 & kh I
-1.5459 & kh N
-1.3955 & kh S
-1.7737 & kh T
-1.3375 & kh U
-2.0422 & kh Z
-1.6429 & kh aI
-2.0422 & kh aU
-1.7737 & kh b
-2.0422 & kh dc
-1.5459 & kh f
-2.0422 & kh h
-1.3955 & kh i
-1.7737 & kh j
-1.7737 & kh l
-1.6429 & kh m
-2.0422 & kh n
-1.4624 & kh oU
-1.6429 & kh r&
-1.5459 & kh s
-0.9853 & kh tc
-1.6429 & kh th
-2.0422 & kh u
-1.6429 & kh v
-1.5459 & kh w
-2.0422 & kh z
-1.7789 & l &
-1.8758 & l @
-1.5484 & l A
-1.2875 & l A&
-1.6327 & l D
-2.1812 & l D&
-1.8758 & l E
-2.5806 & l E&r
-1.6327 & l I
-1.5748 & l N
-1.6997 & l S
-1.7789 & l T
-2.0007 & l U
-2.0843 & l Z
-1.6327 & l aI
-2.0007 & l aU
-1.7789 & l b
-2.0007 & l d
-1.0154 & l dc
-2.0843 & l ei
-1.1991 & l f
-1.6028 & l g
-1.5484 & l h
-1.7789 & l i
-1.7789 & l j
-1.3475 & l kh
-1.3317 & l m
-1.5001 & l n
-2.0843 & l oU
-1.6649 & l ph
-2.1812 & l r&
-1.6327 & l s
-0.9727 & l tc
-2.0007 & l th
-2.1812 & l u
-1.1354 & l v
-1.8246 & l w
-1.5748 & l z
-1.4560 & m &
-1.4480 & m @
-1.3310 & m A
-0.9842 & m A&
-1.6569 & m D
-1.4402 & m D&
-2.3433 & m D&i
-1.4982 & m E
-2.1470 & m E&r
-1.4175 & m I
-1.6970 & m N
-1.8661 & m S
-1.8873 & m T
-1.5756 & m U
-2.2853 & m Z
-1.3019 & m aI
-1.5549 & m aU
-1.8661 & m b
-1.6569 & m d
-2.7215 & m dZ
-1.2341 & m dc
-2.1884 & m ei
-2.1470 & m f
-1.9579 & m g
-1.5863 & m h
-1.5549 & m i
-1.4480 & m j
-2.3433 & m kh
-1.5071 & m l
-1.7412 & m n
-1.4030 & m oU
-1.8082 & m ph
-1.9579 & m r&
-1.9331 & m s
-2.4102 & m tS
-1.2641 & m tc
-2.0422 & m th
-1.8873 & m u
-1.7570 & m v
-1.6569 & m w
-1.6699 & m z
-1.5835 & n &
-1.3222 & n @
-1.6942 & n A
-1.2717 & n A&
-1.2879 & n D
-1.8633 & n D&
-1.6804 & n E
-1.9551 & n E&r
-1.3404 & n I
-1.7706 & n N
-2.0095 & n S
-1.8431 & n T
-1.9814 & n U
-2.0716 & n Z
-1.9068 & n aI
-1.8053 & n aU
-1.7876 & n b
-1.3932 & n d
-1.8431 & n dZ
-1.0394 & n dc
-2.0716 & n ei
-2.0716 & n f
-1.6058 & n g
-1.7231 & n h
-1.4613 & n i
-1.2171 & n j
-1.8633 & n kh
-1.9068 & n l
-1.6173 & n m
-1.6670 & n oU
-2.0394 & n ph
-2.1441 & n r&
-1.5323 & n s
-2.9872 & n tS
-1.1402 & n tc
-1.8431 & n th
-1.8053 & n u
-1.7231 & n v
-1.7876 & n w
-1.3282 & n z
-1.5129 & oU N
-1.3324 & oU S
-1.9123 & oU U
-1.6437 & oU d
-0.8553 & oU dc
-1.9123 & oU f
-1.6437 & oU h
-1.9123 & oU i
-1.9123 & oU j
-1.5129 & oU l
-1.1106 & oU m
-1.5129 & oU n
-1.9123 & oU ph
-1.5129 & oU s
-0.7489 & oU tc
-1.9123 & oU th
-1.6437 & oU u
-0.8801 & oU v
-1.9123 & oU w
-1.3324 & oU z
-1.1392 & ph &
-1.6266 & ph @
-1.4957 & ph A
-1.0142 & ph A&
-1.6266 & ph D
-1.6266 & ph D&
-1.8951 & ph D&i
-1.8951 & ph E
-1.8951 & ph I
-1.4957 & ph N
-1.6266 & ph U
-1.6266 & ph aI
-1.6266 & ph dc
-1.8951 & ph h
-1.4957 & ph i
-1.6266 & ph j
-1.2483 & ph l
-1.4957 & ph m
-1.6266 & ph n
-1.0520 & ph oU
-1.6266 & ph r&
-1.6266 & ph tS
-1.1903 & ph tc
-1.8951 & ph th
-1.6266 & ph u
-1.6266 & ph v
-1.4957 & ph w
-1.3140 & r& &
-1.5417 & r& @
-1.2304 & r& A&
-1.8103 & r& D&
-1.5417 & r& E
-1.8103 & r& E&r
-1.4109 & r& I
-1.5417 & r& N
-1.1635 & r& S
-1.8103 & r& aU
-1.2304 & r& dc
-1.4109 & r& ei
-1.8103 & r& h
-1.1055 & r& i
-1.5417 & r& j
-1.8103 & r& kh
-1.8103 & r& l
-1.3140 & r& n
-1.8103 & r& oU
-1.3140 & r& s
-1.3140 & r& tc
-1.8103 & r& u
-1.8103 & r& w
-0.9672 & r& z
-1.2756 & s &
-1.4139 & s @
-1.8777 & s A
-1.2856 & s A&
-1.4420 & s D
-1.4420 & s E
-2.2245 & s E&r
-1.4420 & s I
-2.2245 & s N
-1.9648 & s S
-1.3280 & s T
-1.6638 & s U
-1.6180 & s aU
-2.0160 & s b
-2.0160 & s d
-1.9648 & s dZ
-2.0740 & s dc
-1.4567 & s f
-2.0160 & s g
-1.5211 & s h
-1.9648 & s i
-1.7150 & s j
-1.4006 & s kh
-1.8399 & s l
-1.7150 & s m
-1.6638 & s n
-1.5767 & s oU
-1.5211 & s ph
-1.8777 & s r&
-1.8051 & s tS
-0.7730 & s tc
-1.3063 & s th
-1.5969 & s u
-2.1409 & s v
-1.4877 & s w
-2.0740 & s z
-0.5836 & tS I
-0.8949 & tS tc
-1.1634 & tS u
-2.0664 & tc &
-1.9895 & tc @
-2.1428 & tc A
-1.9045 & tc A&
-1.5324 & tc D
-2.0664 & tc D&
-2.3536 & tc E
-2.6547 & tc E&r
-2.3817 & tc I
-1.8096 & tc S
-1.7796 & tc T
-2.5164 & tc U
-2.6547 & tc Z
-2.3817 & tc aI
-2.5577 & tc aU
-1.1941 & tc b
-1.3646 & tc d
-1.3536 & tc dZ
-1.9780 & tc dc
-3.3594 & tc ei
-1.6133 & tc f
-1.0301 & tc g
-1.8096 & tc h
-2.6547 & tc i
-1.8588 & tc j
-0.8004 & tc kh
-2.3817 & tc l
-2.2567 & tc m
-2.0526 & tc n
-2.5164 & tc oU
-0.9450 & tc ph
-2.6547 & tc r&
-1.3403 & tc s
-1.4472 & tc tS
-0.8536 & tc th
-2.9601 & tc u
-2.4116 & tc v
-1.8676 & tc w
-1.6769 & tc z
-1.4029 & th &
-1.4698 & th @
-2.0497 & th A
-1.3449 & th A&
-2.0497 & th D
-1.7811 & th D&
-1.2937 & th E
-1.3449 & th I
-1.6503 & th N
-1.7811 & th S
-1.7811 & th U
-2.0497 & th aI
-1.7811 & th aU
-1.2066 & th dc
-1.7811 & th f
-1.6503 & th g
-1.7811 & th i
-1.6503 & th j
-1.7811 & th kh
-1.3449 & th l
-1.3449 & th m
-1.4029 & th n
-1.4698 & th oU
-1.6503 & th ph
-2.0497 & th r&
-0.9258 & th tc
-1.0719 & th u
-1.7811 & th v
-1.4698 & th z
-1.3554 & u A&
-1.9352 & u D&
-1.5358 & u N
-1.6667 & u S
-1.6667 & u U
-1.9352 & u Z
-1.9352 & u d
-0.6864 & u dc
-1.6667 & u f
-1.4389 & u h
-1.4389 & u i
-1.2884 & u l
-1.9352 & u m
-1.2884 & u n
-1.9352 & u oU
-1.3554 & u s
-1.0544 & u tc
-0.9574 & u v
-1.6667 & u w
-1.2884 & u z
-1.3391 & v &
-1.5832 & v @
-1.8477 & v A
-1.3706 & v A&
-1.1688 & v D
-1.8076 & v D&
-2.6444 & v D&i
-1.7158 & v E
-1.9966 & v E&r
-1.4306 & v I
-1.7950 & v N
-2.3848 & v S
-1.8339 & v T
-1.4757 & v U
-2.4940 & v Z
-2.1086 & v aI
-1.8339 & v aU
-1.0148 & v b
-1.4526 & v d
-2.0838 & v dZ
-1.5909 & v dc
-2.2977 & v ei
-2.0603 & v f
-1.3800 & v g
-1.7480 & v h
-1.4306 & v i
-1.6578 & v j
-1.3995 & v kh
-1.7828 & v l
-1.7056 & v m
-1.4698 & v n
-1.5609 & v oU
-1.5987 & v ph
-2.0380 & v r&
-1.7056 & v s
-2.4360 & v tS
-1.4526 & v tc
-1.7370 & v th
-1.5987 & v u
-1.4360 & v w
-1.7828 & v z
-1.2735 & w &
-1.8378 & w @
-1.6617 & w A
-1.0032 & w A&
-2.0183 & w D
-1.6617 & w D&
-2.4176 & w D&i
-1.7709 & w E
-2.0183 & w E&r
-1.5368 & w I
-2.0183 & w N
-1.5368 & w S
-2.4176 & w T
-1.0596 & w U
-1.6159 & w Z
-1.9213 & w aI
-2.0183 & w aU
-2.4176 & w b
-1.6617 & w d
-1.2180 & w dc
-2.0183 & w ei
-1.6159 & w f
-1.8378 & w g
-2.0183 & w h
-1.4118 & w i
-1.5368 & w j
-1.9213 & w kh
-1.3372 & w l
-1.5368 & w m
-2.0183 & w n
-1.4698 & w oU
-1.8378 & w ph
-1.5020 & w r&
-2.4176 & w s
-1.1388 & w tc
-2.0183 & w th
-1.7129 & w u
-1.4698 & w v
-2.0183 & w z
-1.1620 & z &
-1.5751 & z @
-2.1523 & z A
-1.2870 & z A&
-1.5751 & z D
-2.4119 & z D&
-2.9082 & z D&i
-1.3141 & z E
-1.9926 & z E&r
-1.1720 & z I
-1.8278 & z N
-2.0273 & z S
-1.7086 & z T
-1.8278 & z U
-2.3284 & z Z
-2.9082 & z aI
-2.1065 & z aU
-1.8278 & z b
-1.7263 & z d
-2.1065 & z dZ
-1.1927 & z dc
-2.0651 & z ei
-1.5625 & z f
-1.7086 & z g
-1.6752 & z h
-1.6014 & z i
-1.7086 & z j
-1.6752 & z kh
-2.0651 & z l
-1.4344 & z m
-1.3357 & z n
-1.9024 & z oU
-1.8055 & z ph
-1.9024 & z r&
-1.9024 & z s
-2.3284 & z tS
-0.9860 & z tc
-1.4833 & z th
-1.4438 & z u
-1.6752 & z v
-1.6152 & z w
-1.8676 @ & @
-1.7368 @ & A&
-1.6398 @ & D
-1.8676 @ & I
-1.6398 @ & N
-1.3345 @ & T
-2.1361 @ & Z
-1.8676 @ & aI
-1.8676 @ & d
-1.8676 @ & dZ
-0.9195 @ & dc
-1.8676 @ & ei
-1.5563 @ & f
-2.1361 @ & g
-1.4894 @ & h
-2.1361 @ & j
-1.5563 @ & l
-1.7368 @ & m
-0.9542 @ & n
-2.1361 @ & ph
-2.1361 @ & r&
-1.6398 @ & s
-0.8721 @ & tc
-2.1361 @ & u
-0.9727 @ & v
-1.5563 @ & w
-1.0334 @ & z
-1.3255 @ A N
-1.5941 @ A S
-0.9473 @ A dc
-1.3255 @ A l
-1.0142 @ A m
-0.7510 @ A n
-0.7510 @ A tc
-1.1947 @ A v
-1.8298 @ A& @
-2.0983 @ A& A
-1.6021 @ A& D
-2.0983 @ A& E
-2.0983 @ A& I
-1.2553 @ A& N
-1.5185 @ A& S
-1.5185 @ A& T
-1.8298 @ A& Z
-1.0414 @ A& dc
-2.0983 @ A& f
-1.3936 @ A& h
-1.8298 @ A& i
-1.8298 @ A& j
-1.8298 @ A& l
-1.0925 @ A& m
-0.9165 @ A& n
-2.0983 @ A& oU
-1.3424 @ A& s
-0.9165 @ A& tc
-1.6990 @ A& th
-1.8298 @ A& u
-0.9956 @ A& v
-1.2175 @ A& z
-0.9938 @ D &
-1.1622 @ D @
-1.0607 @ D A&
-0.9638 @ D E
-1.8432 @ D E&r
-0.8388 @ D I
-2.2426 @ D S
-1.7463 @ D U
-1.9740 @ D Z
-1.6628 @ D aI
-1.8432 @ D aU
-1.5958 @ D d
-1.4409 @ D dc
-1.4409 @ D ei
-1.8432 @ D h
-1.2105 @ D i
-2.2426 @ D j
-1.9740 @ D l
-1.9740 @ D m
-1.4867 @ D n
-1.3617 @ D oU
-2.2426 @ D s
-2.2426 @ D tc
-1.9740 @ D th
-1.3995 @ D u
-1.4409 @ D z
-1.0772 @ D& &
-1.3457 @ D& N
-1.0772 @ D& S
-1.0772 @ D& dc
-1.0772 @ D& l
-0.9464 @ D& tc
-0.9464 @ D& v
-0.5006 @ D&i j
-1.3844 @ E A&
-1.6529 @ E I
-1.6529 @ E S
-1.6529 @ E Z
-1.2536 @ E d
-1.6529 @ E dc
-1.3844 @ E j
-1.6529 @ E kh
-1.6529 @ E l
-1.1567 @ E m
-1.0062 @ E n
-1.6529 @ E r&
-1.3844 @ E s
-0.7721 @ E tc
-1.6529 @ E u
-1.3844 @ E v
-1.1567 @ E z
-1.4626 @ E&r E
-1.2348 @ E&r N
-1.4626 @ E&r S
-1.4626 @ E&r T
-1.3317 @ E&r aU
-1.7311 @ E&r d
-1.2348 @ E&r dc
-1.7311 @ E&r f
-1.4626 @ E&r g
-1.7311 @ E&r h
-1.1513 @ E&r i
-1.4626 @ E&r j
-1.7311 @ E&r l
-1.1513 @ E&r n
-1.7311 @ E&r oU
-1.7311 @ E&r ph
-1.7311 @ E&r s
-1.0843 @ E&r tc
-1.7311 @ E&r th
-1.7311 @ E&r u
-1.3317 @ E&r v
-1.0263 @ E&r z
-1.9447 @ I &
-1.5453 @ I D
-1.1016 @ I N
-1.6761 @ I S
-1.5453 @ I T
-0.9669 @ I dc
-1.6761 @ I ei
-1.6761 @ I f
-1.6761 @ I g
-1.6761 @ I i
-1.6761 @ I kh
-1.2399 @ I m
-0.8208 @ I n
-1.4484 @ I s
-0.8643 @ I tc
-1.9447 @ I u
-1.1430 @ I v
-1.1888 @ I z
-1.8717 @ N &
-1.3946 @ N @
-2.2500 @ N A
-1.6377 @ N A&
-1.5707 @ N D
-2.5185 @ N D&
-1.6754 @ N E
-2.2500 @ N E&r
-1.1258 @ N I
-1.7168 @ N S
-1.6754 @ N T
-2.5185 @ N U
-1.7626 @ N Z
-2.5185 @ N aI
-1.6029 @ N aU
-1.6754 @ N d
-2.0222 @ N dZ
-1.2697 @ N dc
-1.8717 @ N ei
-1.7168 @ N f
-1.8137 @ N g
-1.5127 @ N h
-1.1728 @ N i
-0.8247 @ N j
-1.7626 @ N kh
-2.0222 @ N l
-2.1191 @ N m
-1.7168 @ N n
-1.8137 @ N oU
-1.9387 @ N ph
-1.5127 @ N s
-2.5185 @ N tS
-1.1854 @ N tc
-1.9387 @ N th
-1.5707 @ N u
-1.6754 @ N v
-1.8717 @ N w
-1.2255 @ N z
-1.1425 @ S &
-1.5278 @ S @
-1.9060 @ S A
-1.3315 @ S A&
-1.4187 @ S E
-1.0507 @ S I
-1.9060 @ S Z
-1.5278 @ S aU
-1.4698 @ S dZ
-1.7752 @ S f
-1.2937 @ S h
-1.2937 @ S i
-1.5278 @ S j
-2.1746 @ S kh
-1.9060 @ S l
-1.5278 @ S m
-1.4698 @ S n
-1.5948 @ S oU
-1.6783 @ S ph
-1.4698 @ S s
-1.4187 @ S tS
-0.9415 @ S tc
-2.1746 @ S th
-1.1425 @ S u
-1.3729 @ S z
-1.1792 @ T &
-1.3495 @ T @
-2.2805 @ T A
-1.5713 @ T A&
-1.5170 @ T D
-1.4252 @ T E
-1.9023 @ T E&r
-1.3672 @ T I
-2.0528 @ T N
-1.9023 @ T S
-1.8443 @ T U
-2.1497 @ T aI
-2.1497 @ T aU
-1.7060 @ T b
-1.7474 @ T d
-2.0528 @ T dZ
-1.5170 @ T dc
-1.9023 @ T ei
-1.7932 @ T f
-1.8443 @ T g
-1.5713 @ T h
-1.4464 @ T i
-1.6013 @ T j
-1.3495 @ T kh
-1.7060 @ T l
-1.6013 @ T m
-1.1911 @ T n
-2.0528 @ T oU
-1.6335 @ T ph
-1.9693 @ T r&
-1.4687 @ T s
-1.7474 @ T tS
-1.0314 @ T tc
-1.4252 @ T th
-1.5170 @ T u
-1.6682 @ T v
-1.7474 @ T w
-1.6335 @ T z
-1.3202 @ U @
-1.3202 @ U A&
-0.9208 @ U dc
-1.3202 @ U m
-0.8239 @ U tc
-0.8239 @ U v
-1.3202 @ U z
-1.0544 @ Z &
-1.4645 @ Z @
-1.0309 @ Z A&
-1.8428 @ Z D&
-1.2682 @ Z E
-2.1113 @ Z E&r
-0.8783 @ Z I
-1.5315 @ Z N
-2.1113 @ Z S
-1.8428 @ Z U
-1.8428 @ Z aI
-1.6150 @ Z aU
-1.8428 @ Z b
-1.8428 @ Z d
-1.5315 @ Z dZ
-1.7119 @ Z ei
-1.7119 @ Z h
-1.2682 @ Z i
-1.5315 @ Z j
-2.1113 @ Z kh
-1.7119 @ Z l
-1.8428 @ Z m
-1.4065 @ Z n
-1.7119 @ Z oU
-1.8428 @ Z ph
-2.1113 @ Z r&
-1.8428 @ Z tS
-1.6150 @ Z tc
-1.1635 @ Z u
-1.7119 @ Z w
-1.7119 @ Z z
-2.0245 @ aI &
-1.5883 @ aI @
-1.8937 @ aI A&
-2.2930 @ aI E
-2.0245 @ aI E&r
-1.4122 @ aI I
-0.8101 @ aI N
-1.8937 @ aI S
-1.8937 @ aI Z
-1.8937 @ aI aU
-1.8937 @ aI d
-1.7132 @ aI dc
-1.5371 @ aI ei
-2.0245 @ aI f
-1.7968 @ aI h
-0.7924 @ aI i
-1.0764 @ aI j
-2.0245 @ aI kh
-1.4914 @ aI m
-0.8012 @ aI n
-2.0245 @ aI oU
-1.8937 @ aI s
-1.4914 @ aI tc
-2.0245 @ aI th
-1.5371 @ aI u
-1.7132 @ aI v
-1.4122 @ aI z
-1.3720 @ aU @
-1.2412 @ aU A
-1.3720 @ aU A&
-1.3720 @ aU N
-1.6405 @ aU aI
-0.9938 @ aU dc
-1.6405 @ aU h
-0.9938 @ aU l
-0.9938 @ aU m
-1.0607 @ aU n
-1.3720 @ aU tc
-0.8846 @ aU v
-1.3720 @ aU w
-1.3332 @ b A
-1.3332 @ b A&
-1.3332 @ b I
-1.0646 @ b U
-1.0646 @ b dc
-1.3332 @ b i
-1.3332 @ b j
-0.9338 @ b l
-1.3332 @ b n
-1.0646 @ b oU
-1.0646 @ b u
-1.3332 @ b w
-1.1829 @ d &
-1.0428 @ d @
-1.6021 @ d A
-1.2041 @ d A&
-2.3068 @ d D&
-1.1072 @ d E
-1.6601 @ d E&r
-1.0280 @ d I
-1.6021 @ d N
-2.3068 @ d T
-2.0383 @ d U
-1.8105 @ d Z
-1.7270 @ d aI
-1.6601 @ d aU
-1.3912 @ d dc
-1.2499 @ d ei
-2.0383 @ d f
-2.3068 @ d g
-1.5509 @ d i
-1.6601 @ d j
-1.5509 @ d l
-1.9075 @ d m
-1.6021 @ d n
-1.6021 @ d oU
-2.0383 @ d r&
-1.1829 @ d tc
-1.8105 @ d th
-1.3912 @ d u
-2.0383 @ d v
-1.9075 @ d w
-1.5051 @ d z
-1.3068 @ dZ &
-0.9075 @ dZ I
-1.3068 @ dZ N
-1.0383 @ dZ d
-0.9075 @ dZ dc
-1.3068 @ dZ i
-0.9075 @ dZ tc
-1.9595 @ dc &
-2.3618 @ dc @
-2.4927 @ dc A
-2.4927 @ dc A&
-1.3063 @ dc D
-2.3618 @ dc D&
-2.3618 @ dc E
-2.4927 @ dc E&r
-1.8456 @ dc I
-2.0053 @ dc S
-1.8803 @ dc T
-2.3618 @ dc U
-2.3618 @ dc Z
-2.7612 @ dc aI
-0.9639 @ dc b
-0.6291 @ dc d
-1.5616 @ dc dZ
-1.8456 @ dc f
-0.7863 @ dc g
-2.0053 @ dc h
-1.8456 @ dc i
-1.5124 @ dc j
-1.3467 @ dc kh
-2.7612 @ dc l
-1.9181 @ dc m
-1.8456 @ dc n
-2.4927 @ dc oU
-1.5978 @ dc ph
-2.4927 @ dc r&
-1.6585 @ dc s
-1.8803 @ dc tS
-1.5445 @ dc tc
-1.3467 @ dc th
-2.1144 @ dc u
-2.7612 @ dc v
-2.2649 @ dc w
-1.4824 @ dc z
-1.5122 @ ei A&
-2.0085 @ ei D
-1.6091 @ ei E&r
-1.7400 @ ei I
-0.8846 @ ei N
-1.6091 @ ei S
-1.6091 @ ei Z
-1.7400 @ ei aU
-1.6091 @ ei d
-2.0085 @ ei dZ
-1.3037 @ ei dc
-1.5122 @ ei f
-2.0085 @ ei g
-1.6091 @ ei h
-1.3037 @ ei i
-1.1276 @ ei j
-2.0085 @ ei l
-1.3617 @ ei m
-1.0027 @ ei n
-1.6091 @ ei oU
-2.0085 @ ei s
-1.2526 @ ei tc
-1.4287 @ ei th
-1.5122 @ ei u
-1.2526 @ ei v
-1.4287 @ ei z
-1.4870 @ f &
-1.3222 @ f @
-1.9064 @ f A
-1.2208 @ f A&
-1.6010 @ f D
-1.9064 @ f D&
-2.4027 @ f D&i
-2.0033 @ f E
-1.8228 @ f E&r
-1.5218 @ f I
-2.4027 @ f N
-1.6010 @ f S
-1.6010 @ f T
-1.6467 @ f U
-2.4027 @ f Z
-2.0033 @ f aI
-2.4027 @ f aU
-1.7559 @ f dZ
-1.6979 @ f dc
-1.8228 @ f g
-1.4548 @ f h
-1.6010 @ f i
-1.6467 @ f j
-1.2788 @ f kh
-1.6979 @ f l
-1.5596 @ f m
-1.2788 @ f n
-2.1341 @ f oU
-1.3705 @ f ph
-1.9064 @ f r&
-1.4249 @ f s
-2.4027 @ f tS
-0.9020 @ f tc
-1.3222 @ f th
-1.6467 @ f u
-1.9064 @ f v
-1.6979 @ f w
-1.6467 @ f z
-1.2412 @ g &
-1.6405 @ g @
-1.0607 @ g A&
-1.2412 @ g E
-0.9358 @ g I
-1.6405 @ g N
-1.3720 @ g U
-1.6405 @ g aU
-1.3720 @ g dc
-1.6405 @ g i
-1.0607 @ g j
-1.6405 @ g l
-1.6405 @ g n
-1.2412 @ g oU
-1.3720 @ g r&
-1.6405 @ g tc
-1.3720 @ g u
-1.3720 @ g z
-1.3412 @ h &
-1.0829 @ h @
-1.4314 @ h A
-1.2029 @ h A&
-1.7672 @ h D
-1.8507 @ h D&
-1.4314 @ h E
-2.0784 @ h E&r
-1.2029 @ h I
-1.5039 @ h N
-2.0784 @ h T
-1.8507 @ h U
-1.4661 @ h aI
-1.5453 @ h aU
-2.3470 @ h b
-1.7672 @ h d
-1.8507 @ h dc
-1.7002 @ h ei
-1.7672 @ h f
-1.7672 @ h g
-1.2666 @ h i
-1.5911 @ h j
-1.3149 @ h kh
-1.7002 @ h l
-1.5453 @ h m
-1.2900 @ h n
-1.7002 @ h oU
-1.8507 @ h ph
-2.0784 @ h r&
-1.9476 @ h s
-1.7002 @ h tc
-1.4314 @ h th
-1.5039 @ h u
-1.7672 @ h v
-1.7672 @ h w
-1.9476 @ h z
-1.6405 @ i A&
-1.6405 @ i D
-1.6405 @ i E
-1.2412 @ i I
-1.1442 @ i N
-0.7249 @ i dc
-1.3720 @ i j
-1.6405 @ i m
-1.2412 @ i n
-0.8846 @ i tc
-1.3720 @ i w
-1.1442 @ i z
-1.7840 @ j &
-1.2877 @ j A&
-1.0792 @ j E
-0.9823 @ j I
-1.1372 @ j N
-1.3846 @ j aU
-1.3846 @ j dc
-1.2041 @ j i
-1.7840 @ j kh
-1.5154 @ j l
-1.5154 @ j m
-1.0792 @ j s
-1.2041 @ j tc
-1.7840 @ j th
-1.0792 @ j u
-1.5154 @ j v
-1.3997 @ kh &
-1.2857 @ kh @
-1.7051 @ kh A
-1.2857 @ kh A&
-1.9328 @ kh D
-1.9328 @ kh D&
-1.8020 @ kh E
-1.6215 @ kh I
-1.5546 @ kh N
-1.9328 @ kh S
-1.3997 @ kh U
-1.6215 @ kh Z
-1.6215 @ kh aI
-1.3997 @ kh aU
-1.9328 @ kh d
-2.2014 @ kh dZ
-1.7051 @ kh dc
-2.2014 @ kh ei
-1.8020 @ kh f
-1.9328 @ kh g
-1.9328 @ kh h
-1.4454 @ kh i
-1.4966 @ kh j
-1.4454 @ kh l
-1.5546 @ kh m
-1.3205 @ kh n
-1.4966 @ kh oU
-1.9328 @ kh ph
-2.2014 @ kh r&
-1.5546 @ kh s
-2.2014 @ kh tS
-0.8812 @ kh tc
-1.4966 @ kh th
-1.4454 @ kh u
-1.9328 @ kh v
-2.2014 @ kh w
-1.7051 @ kh z
-1.3473 @ l &
-1.2962 @ l @
-1.6527 @ l A
-0.8191 @ l A&
-1.7836 @ l D&
-1.2504 @ l E
-1.1365 @ l I
-2.0521 @ l N
-2.0521 @ l S
-2.0521 @ l T
-1.6527 @ l U
-1.2962 @ l aI
-2.0521 @ l aU
-2.0521 @ l d
-1.2962 @ l dc
-2.0521 @ l ei
-1.7836 @ l f
-2.0521 @ l g
-2.0521 @ l h
-1.1712 @ l i
-1.7836 @ l j
-1.6527 @ l m
-1.2090 @ l n
-2.0521 @ l ph
-2.0521 @ l s
-1.2962 @ l tc
-1.7836 @ l u
-1.5558 @ l v
-1.4723 @ l z
-1.4914 @ m &
-1.3787 @ m @
-1.5803 @ m A
-1.1165 @ m A&
-1.7466 @ m D
-2.1446 @ m D&
-2.7244 @ m D&i
-1.4756 @ m E
-1.9685 @ m E&r
-1.2793 @ m I
-1.4914 @ m N
-2.0776 @ m S
-1.9685 @ m T
-1.8435 @ m U
-2.2281 @ m Z
-1.4914 @ m aI
-1.6217 @ m aU
-1.9685 @ m b
-1.5803 @ m d
-1.1446 @ m dc
-1.6923 @ m ei
-1.8088 @ m f
-2.3250 @ m g
-1.5425 @ m h
-1.1903 @ m i
-1.1824 @ m j
-1.9227 @ m kh
-1.4456 @ m l
-1.6923 @ m n
-1.7766 @ m oU
-2.0776 @ m ph
-2.3250 @ m r&
-1.7186 @ m s
-1.2325 @ m tc
-1.9227 @ m th
-1.7766 @ m u
-1.7766 @ m v
-1.8088 @ m w
-1.6217 @ m z
-1.5888 @ n &
-1.2390 @ n @
-1.9775 @ n A
-1.4187 @ n A&
-1.4102 @ n D
-2.4813 @ n D&
-1.4960 @ n E
-2.0206 @ n E&r
-1.3020 @ n I
-1.5379 @ n N
-2.1133 @ n S
-1.8021 @ n T
-2.3941 @ n U
-2.2594 @ n Z
-1.9170 @ n aI
-1.7453 @ n aU
-2.0931 @ n b
-1.4533 @ n d
-2.2894 @ n dZ
-1.0517 @ n dc
-1.6797 @ n ei
-2.0206 @ n f
-1.5722 @ n g
-1.6502 @ n h
-1.1011 @ n i
-1.1778 @ n j
-1.9584 @ n kh
-1.9304 @ n l
-1.6160 @ n m
-1.9170 @ n oU
-1.9170 @ n ph
-2.0931 @ n r&
-1.5605 @ n s
-2.5904 @ n tS
-1.2260 @ n tc
-1.9442 @ n th
-1.7366 @ n u
-1.7921 @ n v
-1.9304 @ n w
-1.3492 @ n z
-1.8548 @ oU A
-1.5862 @ oU A&
-1.8548 @ oU D
-1.8548 @ oU D&
-1.8548 @ oU E
-1.8548 @ oU I
-1.3585 @ oU N
-1.5862 @ oU S
-1.4554 @ oU U
-1.4554 @ oU aI
-1.0531 @ oU dc
-1.8548 @ oU ei
-1.8548 @ oU f
-1.4554 @ oU h
-1.8548 @ oU i
-1.8548 @ oU j
-1.8548 @ oU kh
-1.8548 @ oU l
-1.4554 @ oU m
-1.0988 @ oU n
-1.8548 @ oU s
-1.0117 @ oU tc
-0.8490 @ oU v
-1.3585 @ oU z
-0.9749 @ ph &
-1.3339 @ ph @
-1.3339 @ ph A
-1.2247 @ ph A&
-1.7121 @ ph D&
-1.9807 @ ph D&i
-1.4844 @ ph E&r
-1.7121 @ ph I
-1.7121 @ ph N
-1.9807 @ ph T
-1.3339 @ ph U
-1.7121 @ ph aI
-1.7121 @ ph aU
-1.9807 @ ph dZ
-1.9807 @ ph dc
-1.9807 @ ph f
-1.7121 @ ph g
-1.3339 @ ph i
-1.7121 @ ph j
-1.9807 @ ph kh
-1.1376 @ ph l
-1.5813 @ ph m
-1.3339 @ ph n
-1.4844 @ ph oU
-1.7121 @ ph r&
-1.7121 @ ph s
-1.3339 @ ph tc
-1.4844 @ ph th
-1.7121 @ ph u
-1.5813 @ ph w
-1.9807 @ ph z
-1.4193 @ r& &
-1.1719 @ r& @
-1.5502 @ r& E
-1.3224 @ r& I
-1.3224 @ r& N
-1.1719 @ r& S
-1.8187 @ r& T
-1.3224 @ r& Z
-1.5502 @ r& aI
-1.5502 @ r& d
-1.4193 @ r& ei
-1.8187 @ r& f
-1.2389 @ r& i
-1.3224 @ r& j
-1.2389 @ r& n
-1.5502 @ r& s
-0.9756 @ r& tc
-1.3224 @ r& v
-1.1139 @ r& z
-1.4698 @ s &
-1.3973 @ s @
-2.3454 @ s A
-1.4900 @ s A&
-1.7331 @ s D
-2.6139 @ s D&
-1.5818 @ s E
-2.1176 @ s E&r
-1.2102 @ s I
-2.6139 @ s N
-1.7709 @ s S
-1.4505 @ s T
-1.8580 @ s U
-2.1176 @ s Z
-2.1176 @ s aI
-1.8580 @ s aU
-2.3454 @ s b
-1.9671 @ s d
-2.1176 @ s dZ
-1.5818 @ s dc
-2.2145 @ s ei
-1.6362 @ s f
-1.6983 @ s g
-1.4900 @ s h
-1.5570 @ s i
-1.5335 @ s j
-1.5112 @ s kh
-1.9092 @ s l
-1.5335 @ s m
-1.3651 @ s n
-1.7709 @ s oU
-1.6362 @ s ph
-1.9092 @ s r&
-1.9092 @ s tS
-0.8122 @ s tc
-1.2937 @ s th
-1.3809 @ s u
-2.6139 @ s v
-1.3809 @ s w
-1.8580 @ s z
-1.2330 @ tS &
-1.2330 @ tS @
-1.2330 @ tS A&
-1.2330 @ tS E
-1.2330 @ tS I
-1.2330 @ tS f
-1.2330 @ tS n
-0.9645 @ tS u
-2.0558 @ tc &
-1.7233 @ tc @
-1.9096 @ tc A
-1.8797 @ tc A&
-1.5506 @ tc D
-1.9951 @ tc D&
-2.2776 @ tc E
-2.7591 @ tc E&r
-1.9589 @ tc I
-2.8899 @ tc N
-1.7770 @ tc S
-1.7233 @ tc T
-2.4537 @ tc U
-2.6622 @ tc Z
-2.4537 @ tc aI
-2.5786 @ tc aU
-1.4123 @ tc b
-1.4223 @ tc d
-1.5439 @ tc dZ
-2.0144 @ tc dc
-2.5117 @ tc ei
-1.6086 @ tc f
-1.1419 @ tc g
-1.5307 @ tc h
-1.9589 @ tc i
-1.7036 @ tc j
-0.8177 @ tc kh
-2.3568 @ tc l
-1.8516 @ tc m
-1.8516 @ tc n
-2.3568 @ tc oU
-1.1039 @ tc ph
-2.5786 @ tc r&
-1.1554 @ tc s
-1.4123 @ tc tS
-0.8449 @ tc th
-2.2428 @ tc u
-2.7591 @ tc v
-2.1015 @ tc w
-1.5307 @ tc z
-1.3409 @ th &
-1.4135 @ th @
-1.3087 @ th A&
-1.6097 @ th E
-1.3087 @ th I
-1.6097 @ th N
-1.8571 @ th T
-1.8571 @ th U
-2.2565 @ th Z
-1.7602 @ th aI
-1.5518 @ th aU
-2.2565 @ th b
-1.8571 @ th d
-2.2565 @ th dZ
-1.3087 @ th dc
-1.7602 @ th ei
-1.9880 @ th g
-1.6097 @ th h
-1.2788 @ th i
-2.2565 @ th j
-1.9880 @ th kh
-1.3757 @ th l
-1.6097 @ th m
-1.1761 @ th n
-1.3409 @ th oU
-1.7602 @ th ph
-1.7602 @ th s
-1.1326 @ th tc
-1.0931 @ th u
-1.5518 @ th v
-1.6767 @ th w
-1.3087 @ th z
-1.5900 @ u A
-1.4592 @ u A&
-1.4592 @ u D
-1.4592 @ u I
-1.2788 @ u N
-1.5900 @ u S
-1.8586 @ u U
-1.4592 @ u d
-1.0155 @ u dc
-1.8586 @ u ei
-1.4592 @ u f
-1.8586 @ u i
-1.5900 @ u j
-1.4592 @ u l
-1.2788 @ u m
-1.4592 @ u n
-1.5900 @ u oU
-1.5900 @ u s
-1.1027 @ u tc
-1.8586 @ u th
-1.0155 @ u v
-1.8586 @ u w
-1.2118 @ u z
-1.2717 @ v &
-1.4515 @ v @
-1.8385 @ v A
-1.2791 @ v A&
-1.1733 @ v D
-2.1975 @ v D&
-1.5802 @ v E
-2.1395 @ v E&r
-1.1081 @ v I
-1.7638 @ v N
-2.5757 @ v S
-2.1975 @ v T
-1.6446 @ v U
-2.0426 @ v Z
-2.1975 @ v aI
-2.0883 @ v aU
-1.4091 @ v b
-1.4091 @ v d
-1.9286 @ v dZ
-1.3705 @ v dc
-2.0426 @ v ei
-2.4449 @ v f
-1.4515 @ v g
-1.6112 @ v h
-1.3022 @ v i
-1.4405 @ v j
-1.5802 @ v kh
-1.9286 @ v l
-1.7415 @ v m
-1.3798 @ v n
-1.6276 @ v oU
-2.0012 @ v ph
-2.1975 @ v r&
-1.7204 @ v s
-2.8443 @ v tS
-1.5802 @ v tc
-1.7002 @ v th
-1.5111 @ v u
-1.5111 @ v w
-1.5512 @ v z
-1.7885 @ w &
-1.7885 @ w @
-1.7885 @ w A
-1.1417 @ w A&
-0.9454 @ w I
-1.7885 @ w N
-1.7885 @ w S
-1.3891 @ w U
-1.3891 @ w Z
-1.7885 @ w aI
-1.5199 @ w d
-1.5199 @ w dc
-1.7885 @ w ei
-1.7885 @ w f
-1.5199 @ w g
-1.5199 @ w h
-1.0325 @ w i
-1.1417 @ w j
-1.5199 @ w l
-1.7885 @ w n
-1.7885 @ w oU
-1.5199 @ w r&
-1.7885 @ w tc
-1.5199 @ w th
-1.5199 @ w v
-1.5199 @ w z
-1.1195 @ z &
-1.2542 @ z @
-1.9945 @ z A
-1.3661 @ z A&
-1.5359 @ z D
-2.2999 @ z D&
-1.3925 @ z E
-1.8184 @ z E&r
-1.1342 @ z I
-1.6424 @ z N
-2.2030 @ z S
-1.8976 @ z T
-1.8184 @ z U
-2.2030 @ z Z
-1.8184 @ z aI
-1.5966 @ z aU
-2.2999 @ z b
-1.7837 @ z d
-2.2030 @ z dZ
-1.2349 @ z dc
-1.9434 @ z ei
-1.9434 @ z f
-1.8976 @ z g
-1.6672 @ z h
-1.4063 @ z i
-1.5754 @ z j
-2.0525 @ z kh
-1.9945 @ z l
-1.4352 @ z m
-1.2349 @ z n
-2.1195 @ z oU
-1.7837 @ z ph
-2.1195 @ z r&
-1.9945 @ z s
-2.2999 @ z tS
-1.1123 @ z tc
-1.4827 @ z th
-1.4205 @ z u
-1.7515 @ z v
-1.8976 @ z w
-2.0058 A & A&
-1.5095 A & D
-1.2499 A & N
-1.6064 A & S
-1.7373 A & T
-2.0058 A & U
-2.0058 A & Z
-1.6064 A & d
-1.7373 A & dZ
-0.8424 A & dc
-1.6064 A & f
-2.0058 A & h
-1.7373 A & j
-1.6064 A & l
-1.2499 A & m
-1.3010 A & n
-2.0058 A & ph
-2.0058 A & r&
-2.0058 A & s
-0.7270 A & tc
-2.0058 A & th
-2.0058 A & u
-1.1627 A & v
-1.7373 A & w
-1.1627 A & z
-1.7655 A @ &
-1.3661 A @ A&
-1.4969 A @ I
-1.7655 A @ N
-1.7655 A @ T
-1.7655 A @ Z
-0.8498 A @ dc
-1.7655 A @ ei
-1.7655 A @ h
-1.7655 A @ i
-1.7655 A @ l
-1.4969 A @ m
-0.6850 A @ n
-1.4969 A @ s
-1.2692 A @ tc
-1.7655 A @ th
-0.9638 A @ v
-1.1856 A @ z
-2.1996 A A& A
-1.3979 A A& D
-2.1996 A A& D&
-1.7033 A A& I
-1.1427 A A& N
-2.1996 A A& S
-1.6198 A A& T
-2.1996 A A& U
-2.1996 A A& aU
-1.9311 A A& d
-0.9208 A A& dc
-1.9311 A A& h
-1.3188 A A& i
-1.9311 A A& j
-2.1996 A A& kh
-1.8002 A A& l
-1.1675 A A& m
-0.8416 A A& n
-1.8002 A A& ph
-1.5528 A A& s
-1.0969 A A& tc
-1.8002 A A& th
-1.8002 A A& u
-1.0177 A A& v
-1.6198 A A& w
-1.2218 A A& z
-0.8054 A D &
-1.1576 A D @
-1.4630 A D A&
-1.1065 A D E
-0.7819 A D I
-1.8624 A D U
-1.4630 A D aI
-1.5938 A D aU
-1.8624 A D d
-1.8624 A D dc
-1.4630 A D ei
-1.0193 A D i
-1.2825 A D n
-1.2156 A D oU
-1.5938 A D u
-1.5938 A D v
-1.5938 A D z
-1.4919 A D& E&r
-1.2233 A D& N
-1.4919 A D& S
-1.0925 A D& dc
-1.4919 A D& f
-1.2233 A D& l
-0.9120 A D& m
-0.8451 A D& n
-1.4919 A D& ph
-1.2233 A D& r&
-0.9120 A D& tc
-0.8949 A D&i N
-1.1634 A D&i ei
-0.8949 A D&i i
-1.1634 A D&i j
-0.8949 A D&i m
-0.7640 A D&i n
-1.1634 A D&i z
-1.4919 A E A&
-1.4919 A E S
-1.2233 A E Z
-1.0925 A E d
-0.9956 A E dc
-1.4919 A E f
-1.4919 A E m
-0.6488 A E n
-1.4919 A E tc
-1.4919 A E u
-1.0925 A E v
-1.4919 A E z
-1.8060 A E&r &
-1.8060 A E&r A&
-1.3097 A E&r D
-1.4066 A E&r D&
-1.8060 A E&r E
-1.5375 A E&r N
-1.3097 A E&r S
-1.5375 A E&r Z
-1.4066 A E&r d
-1.1012 A E&r dc
-1.2262 A E&r f
-1.4066 A E&r h
-1.3097 A E&r i
-1.8060 A E&r j
-1.8060 A E&r kh
-1.4066 A E&r m
-1.1012 A E&r n
-1.5375 A E&r ph
-1.8060 A E&r s
-1.0043 A E&r tc
-1.4066 A E&r v
-1.8060 A E&r z
-0.7678 A I N
-1.2641 A I T
-0.9955 A I dc
-1.2641 A I m
-0.6842 A I n
-0.9955 A I tc
-0.9955 A I v
-1.9245 A N &
-1.8409 A N @
-1.6191 A N A
-1.4730 A N A&
-1.2574 A N D
-2.0214 A N D&
-2.0214 A N E
-1.9245 A N E&r
-1.4730 A N I
-1.8409 A N S
-1.7160 A N T
-1.7740 A N Z
-2.0214 A N aI
-2.0214 A N aU
-1.8409 A N b
-1.6649 A N d
-2.1522 A N dZ
-0.9856 A N dc
-2.0214 A N ei
-1.7740 A N f
-1.8409 A N g
-1.8409 A N h
-1.4430 A N i
-1.3181 A N j
-2.1522 A N kh
-2.0214 A N l
-1.3886 A N m
-1.6649 A N n
-1.6649 A N oU
-1.9245 A N ph
-1.2574 A N s
-0.9756 A N tc
-1.7740 A N th
-1.5399 A N u
-1.5051 A N v
-2.0214 A N w
-1.1420 A N z
-1.1663 A S &
-1.7786 A S @
-1.6478 A S A&
-1.6478 A S D
-2.0472 A S D&
-1.6478 A S E
-1.3424 A S I
-1.7786 A S U
-2.0472 A S Z
-2.0472 A S b
-1.7786 A S d
-1.2455 A S dZ
-1.5509 A S dc
-2.0472 A S f
-1.7786 A S g
-1.5509 A S h
-1.6478 A S i
-1.5509 A S j
-1.6478 A S kh
-2.0472 A S l
-1.6478 A S m
-1.2455 A S n
-2.0472 A S oU
-1.7786 A S ph
-2.0472 A S r&
-1.2913 A S s
-1.6478 A S tS
-0.7270 A S tc
-1.6478 A S th
-1.3424 A S u
-1.4674 A S z
-1.3590 A T &
-1.2499 A T @
-1.2499 A T A&
-1.5095 A T D
-1.7373 A T E
-1.1627 A T I
-2.0058 A T N
-2.0058 A T S
-1.6064 A T aI
-1.6064 A T aU
-1.3590 A T b
-1.6064 A T d
-1.5095 A T dc
-1.5095 A T ei
-1.3010 A T h
-1.7373 A T i
-1.7373 A T j
-1.2499 A T kh
-2.0058 A T m
-1.3010 A T n
-1.7373 A T oU
-1.6064 A T ph
-1.5095 A T s
-1.7373 A T tS
-1.0902 A T tc
-1.3010 A T th
-1.7373 A T u
-2.0058 A T v
-1.4644 A U N
-0.6628 A U dc
-1.4644 A U j
-0.8846 A U n
-0.6214 A U tc
-0.8177 A U v
-0.8970 A Z &
-1.6529 A Z @
-0.9482 A Z A&
-1.6529 A Z D&
-1.0731 A Z E
-1.1567 A Z E&r
-0.8970 A Z I
-1.3844 A Z N
-1.3844 A Z b
-1.3844 A Z i
-1.3844 A Z m
-1.0731 A Z u
-1.6529 A Z z
-1.6990 A aI &
-1.6990 A aI A&
-2.0983 A aI D
-2.0983 A aI E
-2.0983 A aI E&r
-1.6990 A aI I
-0.9744 A aI N
-1.8298 A aI S
-2.0983 A aI Z
-1.8298 A aI aU
-1.6990 A aI d
-1.2175 A aI dc
-1.6021 A aI ei
-1.6990 A aI h
-1.0925 A aI i
-0.9542 A aI j
-1.4516 A aI m
-0.7285 A aI n
-1.6021 A aI oU
-2.0983 A aI ph
-1.2967 A aI tc
-2.0983 A aI th
-1.3424 A aI u
-1.8298 A aI v
-1.6021 A aI z
-1.6504 A aU &
-1.4227 A aU A
-1.5196 A aU D&
-1.9190 A aU D&i
-1.9190 A aU I
-1.9190 A aU N
-1.4227 A aU d
-1.5196 A aU dc
-1.6504 A aU f
-1.5196 A aU g
-1.9190 A aU h
-1.9190 A aU j
-1.1173 A aU l
-1.0381 A aU m
-1.0381 A aU n
-1.6504 A aU oU
-1.1630 A aU tc
-1.5196 A aU th
-0.9412 A aU v
-0.9711 A aU w
-0.9803 A b A&
-0.9803 A b U
-0.9803 A b i
-0.8495 A b l
-1.2488 A b oU
-0.9803 A b u
-0.9596 A d &
-1.5202 A d @
-1.5202 A d A
-1.0388 A d A&
-0.9361 A d E
-1.6171 A d E&r
-1.0687 A d I
-2.0165 A d N
-1.7480 A d U
-2.0165 A d aI
-1.5202 A d aU
-1.1357 A d dc
-1.4367 A d ei
-2.0165 A d f
-1.7480 A d i
-2.0165 A d j
-1.4367 A d kh
-1.6171 A d l
-2.0165 A d m
-1.5202 A d n
-1.7480 A d oU
-2.0165 A d ph
-1.3697 A d tc
-2.0165 A d v
-1.4367 A d w
-1.5202 A d z
-0.8017 A dZ u
-1.9040 A dc &
-2.4838 A dc @
-2.0844 A dc A&
-1.2197 A dc D
-2.0844 A dc D&
-2.2153 A dc E
-1.9875 A dc E&r
-2.2153 A dc I
-2.4838 A dc N
-2.4838 A dc S
-1.9875 A dc T
-1.9040 A dc U
-0.6651 A dc b
-0.6487 A dc d
-1.3811 A dc dZ
-2.2153 A dc ei
-2.4838 A dc f
-0.9498 A dc g
-1.9040 A dc i
-1.6821 A dc j
-1.3811 A dc kh
-2.4838 A dc l
-2.4838 A dc m
-1.9875 A dc n
-1.8370 A dc ph
-2.4838 A dc r&
-1.9875 A dc s
-1.9875 A dc tS
-1.8370 A dc tc
-1.3397 A dc th
-1.9040 A dc w
-1.5682 A dc z
-0.8809 A ei n
-1.1654 A f &
-1.6091 A f @
-1.7400 A f A
-1.2526 A f A&
-1.6091 A f D
-2.0085 A f D&
-2.0085 A f E&r
-1.6091 A f I
-1.7400 A f S
-1.7400 A f U
-2.0085 A f aU
-1.7400 A f g
-1.2526 A f h
-2.0085 A f i
-1.7400 A f kh
-1.4287 A f l
-1.2526 A f m
-1.2068 A f oU
-1.5122 A f ph
-2.0085 A f r&
-1.5122 A f s
-1.4287 A f tS
-0.8451 A f tc
-1.3037 A f th
-2.0085 A f u
-1.5122 A f v
-1.6091 A f w
-1.6091 A f z
-1.2167 A g A&
-0.9481 A g E
-1.2167 A g dc
-1.2167 A g m
-1.2167 A g tc
-1.2167 A g u
-1.1162 A h &
-1.2131 A h @
-1.4472 A h A
-1.1461 A h A&
-1.6946 A h D
-1.5141 A h D&
-1.4472 A h E
-1.6946 A h E&r
-1.5141 A h I
-1.8254 A h T
-1.4472 A h U
-1.6946 A h aI
-2.0939 A h aU
-1.5977 A h d
-1.6946 A h dc
-1.8254 A h ei
-1.6946 A h f
-1.8254 A h g
-1.8254 A h i
-1.8254 A h j
-1.1783 A h kh
-1.3380 A h l
-1.5141 A h m
-1.6946 A h n
-1.5141 A h oU
-1.6946 A h ph
-1.8254 A h r&
-1.5977 A h s
-1.6946 A h tc
-1.3892 A h th
-1.5141 A h u
-1.6946 A h w
-1.5141 A h z
-0.9133 A i N
-1.1819 A i T
-0.9133 A i dc
-1.1819 A i tc
-0.9133 A i z
-1.3202 A j @
-1.3202 A j E
-0.7404 A j I
-1.0516 A j N
-1.3202 A j S
-1.3202 A j Z
-1.0516 A j n
-0.8239 A j u
-1.4779 A kh &
-1.8772 A kh @
-1.8772 A kh A&
-1.8772 A kh D&
-1.6087 A kh E
-1.2304 A kh N
-1.8772 A kh S
-1.6087 A kh T
-1.1213 A kh U
-1.4779 A kh dc
-1.3809 A kh f
-1.8772 A kh h
-1.6087 A kh i
-1.6087 A kh j
-1.4779 A kh l
-1.2974 A kh m
-1.2974 A kh n
-1.8772 A kh oU
-1.8772 A kh r&
-1.2304 A kh s
-1.0342 A kh tc
-1.3809 A kh th
-1.6087 A kh u
-1.1725 A kh w
-1.6087 A kh z
-1.5749 A l &
-1.9531 A l @
-1.3786 A l A
-1.4200 A l A&
-1.4657 A l D
-1.5169 A l D&
-1.4200 A l E
-1.4200 A l I
-1.6418 A l N
-1.7254 A l S
-1.7254 A l T
-1.6418 A l U
-1.9531 A l Z
-1.6418 A l aI
-1.8223 A l aU
-1.9531 A l b
-1.8223 A l d
-1.0397 A l dc
-1.9531 A l ei
-1.4657 A l f
-1.9531 A l g
-1.5749 A l h
-1.5749 A l i
-1.7254 A l j
-1.3408 A l kh
-1.4657 A l m
-1.7254 A l n
-1.6418 A l ph
-2.2216 A l r&
-2.2216 A l s
-0.9428 A l tc
-2.2216 A l th
-1.2738 A l v
-1.5749 A l w
-1.9531 A l z
-1.4333 A m &
-1.4695 A m @
-1.3399 A m A
-1.1878 A m A&
-1.6008 A m D
-1.5760 A m D&
-2.0531 A m D&i
-1.7898 A m E
-1.7173 A m E&r
-1.1978 A m I
-1.5760 A m N
-2.1366 A m S
-1.9861 A m T
-1.9861 A m U
-1.3841 A m aI
-1.4695 A m aU
-2.0531 A m b
-1.7898 A m d
-2.6329 A m dZ
-1.2292 A m dc
-1.6271 A m ei
-1.9861 A m f
-2.2335 A m g
-1.7898 A m h
-1.3841 A m i
-1.3261 A m j
-1.9281 A m kh
-1.7520 A m l
-1.6271 A m n
-1.4333 A m oU
-2.0531 A m ph
-2.1366 A m r&
-1.9281 A m s
-2.3644 A m tS
-1.1878 A m tc
-2.1366 A m th
-1.5525 A m u
-1.8770 A m v
-1.6271 A m w
-1.4333 A m z
-1.5129 A n &
-1.1741 A n @
-1.7761 A n A
-1.3324 A n A&
-1.4873 A n D
-2.1283 A n D&
-1.3687 A n E
-2.3368 A n E&r
-1.1229 A n I
-1.6512 A n N
-1.9175 A n S
-1.9175 A n T
-2.5645 A n U
-2.1863 A n Z
-1.6512 A n aI
-1.5543 A n aU
-2.1283 A n b
-1.5400 A n d
-1.9900 A n dZ
-0.9980 A n dc
-1.5843 A n ei
-2.0772 A n f
-1.7761 A n g
-1.8273 A n h
-1.2533 A n i
-1.1863 A n j
-2.1283 A n kh
-1.8853 A n l
-1.6512 A n m
-1.7527 A n oU
-1.9900 A n ph
-2.3368 A n r&
-1.7092 A n s
-1.2252 A n tc
-1.9900 A n th
-1.8273 A n u
-2.0772 A n v
-1.9900 A n w
-1.4293 A n z
-1.8470 A oU A
-1.5785 A oU A&
-1.3507 A oU D
-1.5785 A oU E
-1.3507 A oU N
-1.4476 A oU T
-1.8470 A oU U
-1.5785 A oU Z
-1.5785 A oU d
-0.8692 A oU dc
-1.8470 A oU f
-1.8470 A oU g
-1.8470 A oU i
-1.4476 A oU j
-1.4476 A oU m
-1.2672 A oU n
-1.3507 A oU r&
-1.2672 A oU tc
-0.8692 A oU v
-1.2672 A oU w
-1.4476 A oU z
-1.0122 A ph &
-1.6590 A ph A
-1.1627 A ph A&
-1.6590 A ph D&
-1.3905 A ph I
-1.2596 A ph U
-1.6590 A ph dc
-1.6590 A ph g
-1.2596 A ph j
-1.2596 A ph l
-1.0792 A ph m
-1.6590 A ph s
-0.8573 A ph tc
-1.6590 A ph v
-2.1653 A r& &
-2.1653 A r& @
-1.6690 A r& A&
-1.8967 A r& D
-2.1653 A r& D&
-2.1653 A r& E
-1.8967 A r& E&r
-1.7659 A r& I
-1.5855 A r& N
-1.1875 A r& S
-1.5855 A r& T
-1.5185 A r& Z
-2.1653 A r& aI
-1.4605 A r& d
-1.6690 A r& dZ
-1.1083 A r& dc
-1.8967 A r& ei
-1.8967 A r& f
-1.8967 A r& g
-1.5185 A r& h
-1.5855 A r& i
-1.5185 A r& j
-1.5855 A r& kh
-1.5855 A r& m
-1.0626 A r& n
-1.8967 A r& oU
-1.5185 A r& s
-2.1653 A r& tS
-0.7838 A r& tc
-2.1653 A r& th
-1.8967 A r& u
-1.3636 A r& v
-2.1653 A r& w
-1.4094 A r& z
-1.4890 A s &
-2.0689 A s @
-1.5726 A s A&
-1.4221 A s D
-1.3641 A s E
-1.3641 A s I
-2.0689 A s S
-1.3129 A s T
-1.5726 A s U
-2.0689 A s aU
-2.0689 A s b
-1.8003 A s dc
-1.8003 A s ei
-1.8003 A s f
-1.8003 A s g
-1.4221 A s h
-2.0689 A s i
-1.8003 A s j
-1.4221 A s kh
-1.6695 A s l
-1.6695 A s m
-1.6695 A s n
-1.8003 A s oU
-1.5726 A s ph
-2.0689 A s r&
-1.8003 A s tS
-0.6237 A s tc
-1.4890 A s th
-1.4221 A s u
-1.8003 A s v
-1.5726 A s w
-1.5726 A s z
-2.0193 A tc &
-2.2301 A tc @
-1.6861 A tc A
-1.8110 A tc A&
-1.4430 A tc D
-1.9291 A tc D&
-2.4386 A tc E
-2.6664 A tc E&r
-2.2301 A tc I
-1.6147 A tc S
-1.8545 A tc T
-2.2301 A tc aI
-2.4386 A tc aU
-1.3137 A tc b
-1.4342 A tc d
-1.6708 A tc dZ
-1.8322 A tc dc
-2.5355 A tc ei
-1.5100 A tc f
-1.1555 A tc g
-1.6419 A tc h
-1.9291 A tc i
-1.6561 A tc j
-0.8131 A tc kh
-2.3551 A tc l
-1.9571 A tc m
-2.0540 A tc n
-2.2301 A tc oU
-1.0650 A tc ph
-2.2881 A tc r&
-1.2944 A tc s
-1.4089 A tc tS
-0.7908 A tc th
-2.4386 A tc u
-2.9349 A tc v
-2.0918 A tc w
-1.7353 A tc z
-1.1409 A th &
-1.4522 A th @
-1.4522 A th A
-1.1409 A th A&
-1.4522 A th E
-1.2245 A th I
-1.7208 A th S
-1.7208 A th U
-1.4522 A th dc
-1.7208 A th h
-1.3214 A th i
-1.7208 A th j
-1.4522 A th kh
-1.7208 A th l
-1.4522 A th m
-1.3214 A th n
-1.4522 A th ph
-1.0740 A th tc
-1.2245 A th u
-1.4522 A th z
-1.2167 A u U
-0.8173 A u dc
-1.2167 A u g
-1.2167 A u kh
-1.2199 A v &
-1.8800 A v @
-1.6837 A v A
-1.2480 A v A&
-1.0916 A v D
-2.2582 A v D&
-2.2582 A v D&i
-1.9469 A v E
-1.9469 A v E&r
-1.3449 A v I
-1.9469 A v N
-2.5268 A v S
-1.8220 A v U
-1.8800 A v aI
-2.0305 A v aU
-1.1688 A v b
-1.4029 A v d
-1.9469 A v dZ
-1.4241 A v dc
-1.6837 A v ei
-1.8220 A v f
-1.4241 A v g
-1.8800 A v h
-1.1936 A v i
-1.4463 A v j
-1.8220 A v kh
-1.7251 A v l
-1.8220 A v m
-1.3827 A v n
-1.4946 A v oU
-1.8220 A v ph
-1.6837 A v r&
-1.7709 A v s
-2.2582 A v tS
-1.5210 A v tc
-1.9469 A v th
-1.7251 A v u
-1.4698 A v w
-1.7709 A v z
-1.0544 A w &
-0.9874 A w A
-1.0544 A w A&
-1.3656 A w E
-1.2348 A w I
-1.2348 A w S
-1.2348 A w U
-1.6342 A w Z
-1.6342 A w aI
-1.6342 A w dc
-1.2348 A w i
-1.6342 A w j
-1.6342 A w l
-1.3656 A w oU
-1.3656 A w tc
-1.6342 A w th
-1.6342 A w z
-1.2109 A z &
-1.5119 A z @
-2.0917 A z A
-1.2109 A z A&
-1.2109 A z D
-1.8232 A z D&
-1.1761 A z E
-1.5119 A z E&r
-1.2486 A z I
-1.8232 A z T
-1.4449 A z U
-1.8232 A z aU
-2.0917 A z d
-1.8232 A z dZ
-1.3869 A z dc
-2.0917 A z ei
-1.6923 A z f
-1.8232 A z g
-1.8232 A z h
-2.0917 A z i
-1.4449 A z j
-1.6923 A z kh
-1.5954 A z m
-1.2900 A z n
-1.5119 A z oU
-2.0917 A z r&
-1.5954 A z tS
-1.2109 A z tc
-1.5954 A z th
-1.3358 A z u
-1.6923 A z v
-1.6923 A z w
-2.0422 A& & @
-1.5459 A& & A&
-1.5459 A& & D
-1.7737 A& & N
-1.5459 A& & S
-2.0422 A& & T
-1.6429 A& & Z
-2.0422 A& & aI
-1.3955 A& & d
-0.8256 A& & dc
-1.7737 A& & f
-1.6429 A& & h
-2.0422 A& & i
-1.6429 A& & j
-1.6429 A& & kh
-1.2863 A& & m
-1.1992 A& & n
-2.0422 A& & ph
-1.4624 A& & s
-0.9183 A& & tc
-2.0422 A& & th
-0.8981 A& & v
-1.6429 A& & w
-1.3955 A& & z
-1.6369 A& @ A&
-1.9055 A& @ D
-1.2587 A& @ N
-1.9055 A& @ S
-1.5061 A& @ T
-1.1038 A& @ dc
-1.4092 A& @ f
-1.5061 A& @ h
-1.6369 A& @ j
-1.6369 A& @ kh
-1.9055 A& @ l
-1.1496 A& @ m
-0.7236 A& @ n
-1.1496 A& @ s
-1.1038 A& @ tc
-1.6369 A& @ th
-1.2587 A& @ v
-1.1038 A& @ z
-1.6010 A& A &
-1.6010 A& A A&
-1.2016 A& A N
-1.6010 A& A S
-0.9542 A& A dc
-1.2016 A& A l
-1.6010 A& A m
-0.7202 A& A n
-1.6010 A& A ph
-0.7993 A& A tc
-1.1047 A& A v
-0.9154 A& D &
-1.1948 A& D @
-2.0294 A& D A
-0.9154 A& D A&
-0.9563 A& D E
-1.8533 A& D E&r
-0.9044 A& D I
-2.0294 A& D N
-2.3407 A& D S
-2.3407 A& D T
-1.7284 A& D U
-1.8075 A& D Z
-1.4273 A& D aI
-1.5523 A& D aU
-1.8533 A& D d
-2.0294 A& D dc
-1.3304 A& D ei
-1.1741 A& D i
-1.8075 A& D j
-2.2098 A& D l
-2.2098 A& D m
-1.7661 A& D n
-1.4651 A& D oU
-2.6092 A& D ph
-2.6092 A& D s
-2.3407 A& D tc
-2.6092 A& D th
-1.3604 A& D u
-2.2098 A& D v
-2.2098 A& D w
-1.6614 A& D z
-1.0458 A& D& N
-1.5420 A& D& Z
-1.5420 A& D& d
-1.5420 A& D& dc
-1.5420 A& D& f
-1.2735 A& D& l
-1.5420 A& D& m
-0.9622 A& D& n
-1.5420 A& D& oU
-0.7404 A& D& tc
-1.1427 A& D& v
-1.2735 A& D& z
-0.9156 A& D&i Z
-1.6993 A& E &
-1.6993 A& E D
-1.4308 A& E E&r
-1.6993 A& E N
-1.6993 A& E S
-1.2999 A& E d
-1.1195 A& E dc
-1.4308 A& E f
-1.6993 A& E h
-1.2030 A& E m
-0.8184 A& E n
-0.8976 A& E tc
-1.6993 A& E th
-1.2030 A& E u
-1.2999 A& E v
-1.2030 A& E z
-1.8229 A& E&r A
-1.4235 A& E&r A&
-1.8229 A& E&r D&
-1.8229 A& E&r E
-1.8229 A& E&r I
-1.4235 A& E&r N
-1.5543 A& E&r S
-1.8229 A& E&r U
-1.3266 A& E&r Z
-1.8229 A& E&r aU
-1.1761 A& E&r d
-1.0669 A& E&r dc
-1.8229 A& E&r ei
-1.8229 A& E&r f
-1.8229 A& E&r h
-1.8229 A& E&r j
-1.8229 A& E&r kh
-1.3266 A& E&r m
-1.4235 A& E&r n
-1.5543 A& E&r oU
-1.8229 A& E&r ph
-1.4235 A& E&r s
-1.3266 A& E&r tc
-1.5543 A& E&r th
-1.8229 A& E&r u
-1.0669 A& E&r v
-1.1181 A& E&r z
-1.9807 A& I &
-1.9807 A& I @
-1.9807 A& I D
-0.7640 A& I N
-1.9807 A& I S
-1.4844 A& I T
-1.9807 A& I Z
-0.7810 A& I dc
-1.9807 A& I f
-1.9807 A& I h
-1.4008 A& I m
-1.0328 A& I n
-1.9807 A& I s
-0.9749 A& I tc
-1.5813 A& I u
-1.0029 A& I v
-1.0328 A& I z
-1.6693 A& N &
-1.6693 A& N @
-1.9290 A& N A
-1.4790 A& N A&
-1.4140 A& N D
-2.0673 A& N D&
-1.8564 A& N E
-2.5035 A& N E&r
-1.2802 A& N I
-1.7151 A& N S
-1.7943 A& N T
-2.1252 A& N U
-1.8564 A& N Z
-2.2757 A& N aI
-1.8242 A& N aU
-1.5724 A& N b
-1.7399 A& N d
-1.7943 A& N dZ
-0.9926 A& N dc
-1.9290 A& N ei
-2.0673 A& N f
-1.6916 A& N g
-1.8242 A& N h
-1.3171 A& N i
-1.2222 A& N j
-1.9703 A& N kh
-1.6279 A& N l
-1.6086 A& N m
-1.4790 A& N n
-1.6481 A& N oU
-2.0161 A& N ph
-2.7720 A& N r&
-1.5554 A& N s
-2.2757 A& N tS
-1.1130 A& N tc
-1.8564 A& N th
-1.7662 A& N u
-1.3269 A& N v
-1.6481 A& N w
-1.2714 A& N z
-1.1099 A& S &
-1.7226 A& S @
-1.8195 A& S A
-1.4922 A& S A&
-2.0280 A& S D
-2.1249 A& S D&
-1.6435 A& S E
-2.0280 A& S E&r
-1.0792 A& S I
-2.0280 A& S N
-1.9445 A& S T
-1.8775 A& S U
-2.5243 A& S Z
-2.2558 A& S aI
-2.2558 A& S aU
-2.2558 A& S d
-1.6812 A& S dZ
-1.7684 A& S dc
-1.9445 A& S ei
-1.6087 A& S f
-1.9445 A& S g
-1.5465 A& S h
-1.1316 A& S i
-1.3609 A& S j
-2.0280 A& S kh
-2.1249 A& S l
-1.8195 A& S m
-1.5185 A& S n
-1.7226 A& S oU
-2.1249 A& S ph
-2.0280 A& S r&
-1.6812 A& S s
-1.4004 A& S tS
-0.8714 A& S tc
-1.4216 A& S th
-1.1663 A& S u
-2.2558 A& S v
-2.1249 A& S w
-1.6087 A& S z
-1.1774 A& T &
-1.3834 A& T @
-1.9855 A& T A
-1.0824 A& T A&
-1.5753 A& T D
-2.1360 A& T D&
-1.3535 A& T E
-1.9275 A& T E&r
-1.3682 A& T I
-2.1360 A& T N
-1.6545 A& T S
-1.8763 A& T U
-1.9855 A& T aI
-2.1360 A& T aU
-1.5518 A& T b
-1.8763 A& T d
-2.0524 A& T dc
-2.2329 A& T ei
-2.1360 A& T f
-1.5084 A& T g
-1.6265 A& T h
-1.5084 A& T i
-1.6845 A& T j
-1.4504 A& T kh
-1.7166 A& T l
-1.5518 A& T m
-1.3834 A& T n
-1.5518 A& T oU
-1.5084 A& T ph
-2.2329 A& T r&
-1.5518 A& T s
-1.9275 A& T tS
-1.1585 A& T tc
-1.4882 A& T th
-1.6001 A& T u
-1.5518 A& T v
-1.5296 A& T w
-1.7514 A& T z
-1.5576 A& U Z
-0.9777 A& U dc
-1.2890 A& U f
-1.2890 A& U i
-1.5576 A& U l
-1.1582 A& U n
-1.5576 A& U oU
-1.5576 A& U r&
-0.7145 A& U tc
-1.5576 A& U u
-1.2890 A& U v
-1.2890 A& U z
-0.9613 A& Z &
-1.3927 A& Z @
-1.6145 A& Z A
-1.1622 A& Z A&
-1.6981 A& Z D
-1.7950 A& Z D&
-1.6981 A& Z E
-1.6145 A& Z E&r
-0.9455 A& Z I
-1.4896 A& Z N
-1.9258 A& Z S
-1.9258 A& Z T
-1.6981 A& Z U
-1.6981 A& Z aU
-1.9258 A& Z b
-1.7950 A& Z dc
-1.7950 A& Z ei
-2.1944 A& Z f
-1.9258 A& Z g
-1.2166 A& Z i
-1.4385 A& Z j
-2.1944 A& Z kh
-1.9258 A& Z l
-1.9258 A& Z m
-1.6145 A& Z n
-1.9258 A& Z oU
-1.7950 A& Z ph
-2.1944 A& Z tS
-1.4896 A& Z tc
-1.6145 A& Z th
-1.1139 A& Z u
-1.7950 A& Z w
-1.4896 A& Z z
-1.6650 A& aI @
-1.3965 A& aI A&
-1.6650 A& aI E
-1.2656 A& aI I
-1.6650 A& aI N
-1.6650 A& aI S
-1.6650 A& aI aU
-1.6650 A& aI d
-1.2656 A& aI dc
-1.6650 A& aI ei
-0.9602 A& aI i
-1.3965 A& aI j
-1.1687 A& aI m
-0.9091 A& aI n
-1.0852 A& aI tc
-1.1687 A& aI u
-1.3965 A& aI v
-1.3965 A& aI z
-1.5341 A& aU D
-1.5341 A& aU E
-1.1347 A& aU N
-1.5341 A& aU T
-0.9542 A& aU l
-1.5341 A& aU m
-0.7782 A& aU n
-0.9542 A& aU tc
-1.2655 A& aU v
-1.1347 A& aU w
-1.0852 A& b &
-1.3965 A& b @
-1.2656 A& b A
-1.1687 A& b A&
-1.6650 A& b D&i
-1.3965 A& b E
-1.3965 A& b I
-1.6650 A& b N
-1.2656 A& b U
-1.0182 A& b aI
-1.6650 A& b aU
-1.0182 A& b i
-1.6650 A& b j
-1.1687 A& b l
-1.3965 A& b n
-1.2656 A& b oU
-1.6650 A& b u
-1.0963 A& d &
-1.2266 A& d @
-1.5734 A& d A
-1.1474 A& d A&
-2.0608 A& d D
-1.7495 A& d D&
-2.3293 A& d D&i
-1.2266 A& d E
-1.4862 A& d E&r
-1.1127 A& d I
-1.4137 A& d N
-2.3293 A& d T
-1.6245 A& d U
-1.9299 A& d Z
-1.9299 A& d aI
-1.3815 A& d aU
-2.0608 A& d dZ
-1.5276 A& d dc
-1.5734 A& d ei
-2.0608 A& d h
-1.4862 A& d i
-2.3293 A& d j
-2.3293 A& d kh
-1.7495 A& d l
-1.9299 A& d m
-1.4484 A& d n
-1.2489 A& d oU
-2.3293 A& d r&
-1.2724 A& d tc
-2.3293 A& d th
-1.2972 A& d u
-1.6245 A& d v
-1.8330 A& d w
-1.7495 A& d z
-0.9208 A& dZ &
-1.0044 A& dZ A&
-1.5006 A& dZ D
-1.5006 A& dZ E
-1.1013 A& dZ I
-1.1013 A& dZ dc
-1.2321 A& dZ i
-1.5006 A& dZ j
-1.2321 A& dZ n
-0.8539 A& dZ u
-1.5006 A& dZ v
-1.9598 A& dc &
-2.4205 A& dc @
-2.4205 A& dc A
-2.0130 A& dc A&
-1.0937 A& dc D
-3.1764 A& dc D&
-2.4717 A& dc E
-2.9079 A& dc E&r
-2.2286 A& dc I
-2.7771 A& dc N
-1.9945 A& dc S
-2.1195 A& dc T
-2.1987 A& dc U
-2.6801 A& dc Z
-2.6801 A& dc aI
-2.9079 A& dc aU
-0.6819 A& dc b
-0.7110 A& dc d
-1.4352 A& dc dZ
-2.0525 A& dc f
-0.9386 A& dc g
-2.1706 A& dc h
-1.8307 A& dc i
-1.5055 A& dc j
-1.4453 A& dc kh
-2.3747 A& dc l
-2.0130 A& dc m
-1.8562 A& dc n
-2.3334 A& dc oU
-1.4883 A& dc ph
-2.4717 A& dc r&
-1.8976 A& dc s
-2.0130 A& dc tS
-2.0130 A& dc tc
-1.3217 A& dc th
-2.0323 A& dc u
-2.4205 A& dc v
-1.9945 A& dc w
-1.5966 A& dc z
-0.8678 A& ei N
-1.5725 A& ei U
-1.1732 A& ei dc
-1.3040 A& ei i
-1.1732 A& ei j
-1.5725 A& ei m
-0.9927 A& ei n
-1.3040 A& ei s
-1.3040 A& ei tc
-1.1732 A& ei u
-1.5725 A& ei v
-0.9258 A& ei z
-1.1923 A& f &
-1.6273 A& f @
-1.7686 A& f A
-1.1191 A& f A&
-1.6521 A& f D
-1.7064 A& f D&
-2.6842 A& f D&i
-1.8411 A& f E
-1.8411 A& f E&r
-1.5208 A& f I
-1.9283 A& f N
-1.6521 A& f S
-1.4676 A& f T
-1.7364 A& f U
-2.4157 A& f Z
-2.2848 A& f aI
-2.0374 A& f aU
-1.5401 A& f b
-2.0374 A& f d
-2.1879 A& f dZ
-2.4157 A& f dc
-1.8033 A& f g
-1.3510 A& f h
-1.9283 A& f i
-1.9283 A& f j
-1.4054 A& f kh
-1.5208 A& f l
-1.5815 A& f m
-1.4201 A& f n
-1.6273 A& f oU
-1.5023 A& f ph
-1.7364 A& f r&
-1.4512 A& f s
-1.8411 A& f tS
-1.0972 A& f tc
-1.2104 A& f th
-1.7686 A& f u
-1.8411 A& f v
-1.4846 A& f w
-1.8033 A& f z
-1.6468 A& g &
-1.6468 A& g @
-0.8451 A& g A&
-1.6468 A& g D&
-1.2474 A& g E
-1.3782 A& g I
-1.6468 A& g N
-1.0000 A& g U
-1.3782 A& g aU
-1.3782 A& g d
-1.6468 A& g ei
-1.2474 A& g h
-1.6468 A& g i
-1.6468 A& g l
-1.6468 A& g m
-1.3782 A& g n
-1.3782 A& g oU
-1.6468 A& g r&
-1.6468 A& g th
-1.3782 A& g v
-1.6468 A& g z
-1.2240 A& h &
-1.3738 A& h @
-1.4281 A& h A
-0.9230 A& h A&
-1.7591 A& h D
-1.4903 A& h D&
-2.4059 A& h D&i
-1.4281 A& h E
-2.0065 A& h E&r
-1.1418 A& h I
-1.4001 A& h N
-2.0065 A& h T
-1.4903 A& h U
-2.4059 A& h Z
-1.7591 A& h aI
-1.4903 A& h aU
-2.4059 A& h b
-2.4059 A& h d
-2.4059 A& h dZ
-2.0065 A& h dc
-1.7011 A& h ei
-1.7591 A& h f
-2.4059 A& h g
-1.6500 A& h i
-1.7591 A& h j
-1.5628 A& h kh
-1.6500 A& h l
-1.6500 A& h m
-1.4001 A& h n
-1.4001 A& h oU
-1.9096 A& h ph
-1.4281 A& h s
-1.5250 A& h tc
-1.8261 A& h th
-1.5250 A& h u
-2.4059 A& h v
-1.7011 A& h w
-1.8261 A& h z
-2.0372 A& i &
-1.6378 A& i @
-1.4574 A& i A&
-2.0372 A& i D
-1.4574 A& i E
-1.2813 A& i I
-1.1563 A& i N
-1.7687 A& i S
-1.7687 A& i Z
-1.5409 A& i aU
-1.5409 A& i d
-0.8042 A& i dc
-2.0372 A& i f
-1.7687 A& i h
-2.0372 A& i j
-1.3904 A& i m
-1.3324 A& i n
-1.7687 A& i ph
-1.5409 A& i s
-0.8738 A& i tc
-1.3904 A& i u
-1.3324 A& i v
-2.0372 A& i w
-1.2355 A& i z
-1.2115 A& j &
-1.5582 A& j @
-1.7860 A& j A
-1.4078 A& j A&
-1.2529 A& j E
-2.0545 A& j E&r
-0.9976 A& j I
-1.4747 A& j N
-1.6552 A& j U
-1.7860 A& j Z
-2.0545 A& j aI
-1.4747 A& j aU
-1.7860 A& j d
-1.1389 A& j dc
-1.7860 A& j ei
-2.0545 A& j g
-1.5582 A& j h
-1.6552 A& j i
-1.6552 A& j l
-1.6552 A& j m
-1.5582 A& j n
-2.0545 A& j s
-1.1737 A& j tc
-1.7860 A& j th
-0.8911 A& j u
-1.4747 A& j v
-1.7860 A& j w
-1.6552 A& j z
-1.3375 A& kh &
-1.2863 A& kh @
-1.5459 A& kh A
-1.0364 A& kh A&
-1.5459 A& kh D
-1.7737 A& kh D&
-1.6429 A& kh E
-2.0422 A& kh E&r
-1.7737 A& kh I
-1.3375 A& kh N
-2.0422 A& kh S
-1.7737 A& kh T
-1.4624 A& kh U
-1.6429 A& kh Z
-1.7737 A& kh aI
-1.4624 A& kh aU
-1.6429 A& kh d
-1.7737 A& kh f
-1.7737 A& kh g
-1.5459 A& kh i
-1.2863 A& kh l
-1.5459 A& kh m
-1.1266 A& kh n
-1.4624 A& kh oU
-1.6429 A& kh ph
-2.0422 A& kh r&
-1.7737 A& kh s
-1.5459 A& kh tc
-2.0422 A& kh th
-1.5459 A& kh u
-1.6429 A& kh v
-1.6429 A& kh w
-1.5459 A& kh z
-1.5051 A& l &
-1.7014 A& l @
-1.8519 A& l A
-0.9131 A& l A&
-1.9488 A& l D
-1.7684 A& l D&
-1.4674 A& l E
-2.0797 A& l E&r
-1.2243 A& l I
-1.6435 A& l N
-1.5923 A& l S
-1.8519 A& l T
-1.7684 A& l U
-2.0797 A& l Z
-1.6435 A& l aI
-1.4674 A& l aU
-1.9488 A& l d
-1.1486 A& l dc
-1.8519 A& l ei
-1.4674 A& l f
-1.5465 A& l g
-1.6435 A& l h
-1.6435 A& l i
-1.5923 A& l j
-1.7014 A& l kh
-1.4004 A& l m
-1.8519 A& l n
-1.8519 A& l oU
-1.7684 A& l ph
-2.3482 A& l r&
-1.8519 A& l s
-1.2678 A& l tc
-2.3482 A& l th
-1.6435 A& l u
-1.3705 A& l v
-1.8519 A& l w
-1.4326 A& l z
-1.5186 A& m &
-1.4842 A& m @
-1.4057 A& m A
-0.9115 A& m A&
-1.5409 A& m D
-1.6614 A& m D&
-2.1563 A& m D&i
-1.4683 A& m E
-2.0382 A& m E&r
-1.2301 A& m I
-1.5896 A& m N
-1.9625 A& m S
-1.9987 A& m T
-1.8041 A& m U
-2.2143 A& m Z
-1.3190 A& m aI
-1.5680 A& m aU
-1.8553 A& m b
-1.8041 A& m d
-2.5823 A& m dZ
-1.2020 A& m dc
-1.8289 A& m ei
-2.2143 A& m f
-2.2465 A& m g
-1.8041 A& m h
-1.4683 A& m i
-1.4259 A& m j
-2.1563 A& m kh
-1.4971 A& m l
-1.7372 A& m n
-1.3476 A& m oU
-2.0594 A& m ph
-2.1563 A& m r&
-1.8690 A& m s
-1.3692 A& m tc
-1.9987 A& m th
-1.9132 A& m u
-1.7476 A& m v
-1.7170 A& m w
-1.7170 A& m z
-1.3700 A& n &
-1.2510 A& n @
-2.0174 A& n A
-1.2450 A& n A&
-1.3361 A& n D
-2.3739 A& n D&
-3.2170 A& n D&i
-1.3900 A& n E
-2.0003 A& n E&r
-1.2480 A& n I
-1.8132 A& n N
-1.8471 A& n S
-1.8355 A& n T
-2.3361 A& n U
-2.2112 A& n Z
-1.7163 A& n aI
-1.6829 A& n aU
-1.8838 A& n b
-1.4611 A& n d
-1.8242 A& n dZ
-1.0555 A& n dc
-1.7341 A& n ei
-1.9839 A& n f
-1.8471 A& n g
-1.7621 A& n h
-1.3149 A& n i
-1.1481 A& n j
-2.0729 A& n kh
-2.0003 A& n l
-1.8355 A& n m
-1.7525 A& n oU
-2.1143 A& n ph
-2.4611 A& n r&
-1.6594 A& n s
-2.5702 A& n tS
-1.2569 A& n tc
-1.9839 A& n th
-1.6372 A& n u
-1.6993 A& n v
-1.9529 A& n w
-1.3508 A& n z
-1.8951 A& oU @
-1.8951 A& oU E
-1.8951 A& oU I
-1.3153 A& oU N
-1.4957 A& oU d
-1.0142 A& oU dc
-1.8951 A& oU f
-1.3988 A& oU h
-1.6266 A& oU l
-1.3153 A& oU m
-1.1392 A& oU n
-1.8951 A& oU s
-0.9173 A& oU tc
-1.4957 A& oU th
-0.8630 A& oU v
-1.2483 A& oU w
-1.0520 A& oU z
-1.1553 A& ph &
-1.4607 A& ph @
-1.4607 A& ph A
-1.1553 A& ph A&
-1.5576 A& ph D
-1.6885 A& ph D&
-1.6885 A& ph I
-1.4607 A& ph N
-1.6885 A& ph T
-1.0092 A& ph U
-1.9570 A& ph Z
-1.6885 A& ph d
-1.9570 A& ph dc
-1.9570 A& ph f
-1.4607 A& ph i
-1.4607 A& ph j
-1.6885 A& ph kh
-1.2011 A& ph l
-1.6885 A& ph m
-1.6885 A& ph n
-1.2011 A& ph oU
-1.6885 A& ph r&
-1.6885 A& ph s
-1.0762 A& ph tc
-1.9570 A& ph v
-1.3772 A& ph w
-1.3307 A& r& &
-1.2472 A& r& A&
-1.8270 A& r& D&
-1.5584 A& r& E
-1.1222 A& r& I
-1.2472 A& r& S
-1.8270 A& r& U
-1.2472 A& r& Z
-1.5584 A& r& aU
-1.2472 A& r& d
-1.5584 A& r& dZ
-1.5584 A& r& dc
-1.8270 A& r& ei
-1.4276 A& r& f
-1.5584 A& r& h
-1.0711 A& r& i
-1.5584 A& r& j
-1.4276 A& r& l
-1.4276 A& r& n
-1.8270 A& r& tS
-1.3307 A& r& tc
-1.8270 A& r& u
-1.4276 A& r& v
-1.4276 A& r& z
-1.2858 A& s &
-1.5666 A& s @
-1.7951 A& s A
-1.2656 A& s A&
-1.3650 A& s D
-2.0059 A& s D&
-1.5111 A& s E
-2.3113 A& s E&r
-1.4039 A& s I
-2.4422 A& s N
-1.9548 A& s S
-1.5666 A& s T
-1.6537 A& s U
-2.3113 A& s Z
-2.2144 A& s aI
-1.7951 A& s aU
-2.0639 A& s b
-2.0059 A& s d
-1.9548 A& s dZ
-1.7329 A& s dc
-2.7107 A& s ei
-1.5666 A& s f
-1.8298 A& s g
-1.5473 A& s h
-2.0639 A& s i
-1.8676 A& s j
-1.7629 A& s kh
-2.3113 A& s l
-1.4940 A& s m
-1.5666 A& s n
-1.7329 A& s oU
-1.4777 A& s ph
-1.7951 A& s r&
-1.9090 A& s tS
-0.7477 A& s tc
-1.3408 A& s th
-1.4619 A& s u
-1.9548 A& s v
-1.4940 A& s w
-1.6080 A& s z
-0.8337 A& tS &
-0.9645 A& tS A&
-1.2330 A& tS I
-1.2330 A& tS N
-1.2330 A& tS ei
-1.2330 A& tS tc
-2.0058 A& tc &
-1.9427 A& tc @
-2.1130 A& tc A
-1.8982 A& tc A&
-1.3679 A& tc D
-2.1887 A& tc D&
-2.1887 A& tc E
-2.6658 A& tc E&r
-2.2557 A& tc I
-1.7328 A& tc S
-1.6301 A& tc T
-2.4696 A& tc U
-2.8163 A& tc Z
-2.3970 A& tc aI
-2.8163 A& tc aU
-1.2299 A& tc b
-1.3937 A& tc d
-1.4428 A& tc dZ
-2.0638 A& tc dc
-1.5567 A& tc f
-1.1646 A& tc g
-1.8577 A& tc h
-2.1307 A& tc i
-1.8482 A& tc j
-0.8735 A& tc kh
-2.3970 A& tc l
-1.9669 A& tc m
-2.1130 A& tc n
-3.0441 A& tc oU
-0.9681 A& tc ph
-2.8163 A& tc r&
-1.3014 A& tc s
-1.4816 A& tc tS
-0.7643 A& tc th
-2.3970 A& tc u
-2.3349 A& tc v
-1.9669 A& tc w
-1.5971 A& tc z
-1.2344 A& th &
-1.7506 A& th @
-1.6537 A& th A
-1.2022 A& th A&
-1.8814 A& th D
-2.1500 A& th D&
-1.3483 A& th E
-1.7506 A& th E&r
-1.2022 A& th I
-1.5702 A& th N
-2.1500 A& th S
-1.5032 A& th U
-1.3941 A& th aU
-2.1500 A& th d
-1.5032 A& th dc
-1.7506 A& th ei
-1.8814 A& th f
-1.8814 A& th g
-1.8814 A& th h
-1.3941 A& th i
-1.7506 A& th kh
-1.5032 A& th l
-1.8814 A& th m
-1.2344 A& th n
-1.3483 A& th oU
-1.5702 A& th ph
-2.1500 A& th r&
-1.7506 A& th s
-1.3483 A& th tc
-1.2691 A& th u
-1.3483 A& th v
-1.5702 A& th w
-1.6537 A& th z
-1.6353 A& u @
-1.7661 A& u A&
-1.4548 A& u D
-2.0347 A& u D&
-1.5384 A& u E
-2.0347 A& u I
-1.5384 A& u N
-1.5384 A& u S
-1.6353 A& u T
-1.4548 A& u U
-1.5384 A& u Z
-2.0347 A& u d
-0.9320 A& u dc
-1.7661 A& u f
-2.0347 A& u h
-2.0347 A& u i
-1.5384 A& u j
-1.5384 A& u l
-1.2330 A& u m
-1.1538 A& u n
-1.7661 A& u oU
-2.0347 A& u ph
-2.0347 A& u s
-1.1191 A& u tc
-2.0347 A& u th
-1.0025 A& u v
-1.7661 A& u w
-1.0569 A& u z
-1.2974 A& v &
-1.5784 A& v @
-1.6753 A& v A
-1.1910 A& v A&
-1.1205 A& v D
-1.8794 A& v D&
-2.8838 A& v D&i
-1.7151 A& v E
-1.9350 A& v E&r
-1.3480 A& v I
-1.8708 A& v N
-2.2360 A& v S
-2.0870 A& v T
-1.6007 A& v U
-2.5784 A& v Z
-1.5961 A& v aI
-1.6976 A& v aU
-1.0221 A& v b
-1.5215 A& v d
-2.1313 A& v dZ
-1.7722 A& v dc
-2.0870 A& v ei
-2.2360 A& v f
-1.4678 A& v g
-1.8302 A& v h
-1.3636 A& v i
-1.6194 A& v j
-1.6919 A& v kh
-1.7151 A& v l
-1.5961 A& v m
-1.5741 A& v n
-1.4578 A& v oU
-1.7523 A& v ph
-2.2360 A& v r&
-1.7272 A& v s
-2.5370 A& v tS
-1.5140 A& v tc
-1.8150 A& v th
-1.6007 A& v u
-1.6007 A& v w
-1.6242 A& v z
-1.1895 A& w &
-1.4657 A& w @
-1.4657 A& w A
-0.9148 A& w A&
-1.8223 A& w D&
-2.2216 A& w D&i
-1.4657 A& w E
-1.8223 A& w E&r
-1.2738 A& w I
-1.9531 A& w N
-1.6418 A& w S
-1.1895 A& w U
-1.9531 A& w Z
-1.7254 A& w aI
-1.8223 A& w aU
-2.2216 A& w b
-1.9531 A& w d
-1.3060 A& w dc
-2.2216 A& w ei
-1.9531 A& w f
-1.9531 A& w h
-1.1647 A& w i
-1.5749 A& w j
-1.7254 A& w kh
-1.4200 A& w l
-1.6418 A& w m
-1.6418 A& w n
-1.4657 A& w oU
-1.9531 A& w ph
-1.5749 A& w r&
-2.2216 A& w s
-1.7254 A& w tc
-1.8223 A& w u
-1.5749 A& w v
-1.4657 A& w z
-1.0270 A& z &
-1.5208 A& z @
-2.2072 A& z A
-1.1438 A& z A&
-1.5472 A& z D
-2.3577 A& z D&
-1.3711 A& z E
-1.7736 A& z E&r
-1.1438 A& z I
-1.7736 A& z N
-2.8540 A& z S
-1.9062 A& z T
-1.6373 A& z U
-2.8540 A& z Z
-2.3577 A& z aI
-1.9731 A& z aU
-2.0109 A& z b
-2.0109 A& z d
-2.1492 A& z dZ
-1.2394 A& z dc
-1.9731 A& z ei
-1.6209 A& z f
-1.8219 A& z g
-1.8219 A& z h
-1.6544 A& z i
-1.7301 A& z j
-1.9062 A& z kh
-1.7970 A& z l
-1.3363 A& z m
-1.2889 A& z n
-1.6544 A& z oU
-1.9731 A& z ph
-2.2742 A& z r&
-1.9062 A& z s
-2.1492 A& z tS
-1.1890 A& z tc
-1.6906 A& z th
-1.2889 A& z u
-1.5472 A& z v
-1.6209 A& z w
-2.5165 D & @
-2.2569 D & A&
-1.5879 D & D
-2.6134 D & E
-2.3660 D & E&r
-2.5165 D & I
-1.5777 D & N
-1.4330 D & S
-1.5579 D & T
-2.5165 D & U
-1.8889 D & Z
-2.7443 D & aI
-2.6134 D & b
-1.7798 D & d
-2.2569 D & dZ
-0.8401 D & dc
-3.0128 D & ei
-1.4552 D & f
-2.1697 D & g
-1.7340 D & h
-2.0972 D & i
-2.2569 D & j
-2.1697 D & kh
-1.8309 D & l
-1.1356 D & m
-1.1319 D & n
-2.4330 D & oU
-2.3660 D & ph
-2.5165 D & r&
-1.3080 D & s
-2.6134 D & tS
-0.7640 D & tc
-2.1697 D & th
-2.0350 D & u
-0.9607 D & v
-1.7961 D & w
-1.2473 D & z
-2.1038 D @ &
-2.2843 D @ A
-2.0369 D @ A&
-1.5395 D @ D
-2.1873 D @ E
-2.2843 D @ E&r
-1.9277 D @ I
-1.5017 D @ N
-1.7358 D @ S
-1.3906 D @ T
-2.6836 D @ U
-1.8820 D @ Z
-1.5202 D @ aI
-2.6836 D @ aU
-2.6836 D @ b
-1.6515 D @ d
-2.6836 D @ dZ
-1.2799 D @ dc
-1.6778 D @ ei
-2.0369 D @ f
-2.1873 D @ g
-1.8406 D @ h
-2.2843 D @ i
-2.1873 D @ j
-1.7358 D @ kh
-1.8406 D @ l
-1.1830 D @ m
-0.7782 D @ n
-2.1873 D @ oU
-2.1038 D @ ph
-2.4151 D @ r&
-1.4670 D @ s
-0.7549 D @ tc
-1.8028 D @ th
-1.8820 D @ u
-1.1496 D @ v
-2.6836 D @ w
-1.3505 D @ z
-1.7092 D A &
-1.5784 D A A&
-1.9778 D A D
-1.5784 D A E&r
-1.3979 D A N
-1.9778 D A S
-1.3979 D A T
-1.9778 D A U
-1.5784 D A aI
-1.9778 D A aU
-1.4815 D A dc
-1.7092 D A f
-1.4815 D A h
-1.9778 D A j
-1.7092 D A kh
-1.4815 D A l
-1.1347 D A m
-1.0300 D A n
-1.9778 D A ph
-1.3310 D A r&
-0.8539 D A tc
-1.5784 D A th
-1.0000 D A v
-1.4815 D A z
-2.1836 D A& &
-2.9852 D A& @
-2.5859 D A& A
-1.6784 D A& D
-2.7167 D A& D&
-2.9852 D A& D&i
-2.4054 D A& E
-2.3385 D A& E&r
-2.3385 D A& I
-1.5501 D A& N
-1.5208 D A& S
-1.4354 D A& T
-2.7167 D A& U
-1.9794 D A& Z
-2.7167 D A& aI
-2.9852 D A& aU
-2.3385 D A& b
-1.9531 D A& d
-2.4054 D A& dZ
-1.0468 D A& dc
-2.2805 D A& ei
-1.3982 D A& f
-2.5859 D A& g
-1.8033 D A& h
-2.2293 D A& i
-2.1836 D A& j
-2.0075 D A& kh
-2.0075 D A& l
-1.1422 D A& m
-1.1461 D A& n
-2.4054 D A& oU
-2.4054 D A& ph
-2.9852 D A& r&
-1.3202 D A& s
-0.8199 D A& tc
-2.0374 D A& th
-2.1836 D A& u
-0.6811 D A& v
-2.1422 D A& w
-1.2751 D A& z
-1.2052 D D& A&
-0.9775 D D& N
-1.4738 D D& Z
-1.2052 D D& h
-1.4738 D D& l
-0.8939 D D& m
-0.8939 D D& n
-1.2052 D D& oU
-1.4738 D D& s
-1.0744 D D& tc
-1.4738 D D& v
-1.4738 D D& z
-0.8431 D D&i D&
-0.4437 D D&i I
-0.8431 D D&i ei
-2.0831 D E &
-2.0831 D E @
-2.3519 D E A
-2.1970 D E A&
-1.8748 D E D
-2.5024 D E D&
-1.9929 D E E&r
-1.8960 D E I
-1.4411 D E N
-1.8353 D E S
-1.6655 D E T
-2.7301 D E U
-1.7991 D E Z
-2.2939 D E aI
-2.5024 D E aU
-1.4336 D E d
-2.5024 D E dZ
-1.0699 D E dc
-2.0831 D E ei
-1.7498 D E f
-2.9987 D E g
-2.1178 D E h
-2.0209 D E i
-2.5993 D E j
-2.0209 D E kh
-1.7056 D E l
-1.1842 D E m
-0.8241 D E n
-1.9183 D E oU
-2.1970 D E ph
-2.3519 D E r&
-1.5249 D E s
-0.7871 D E tc
-2.1178 D E th
-1.8960 D E u
-0.9717 D E v
-1.8960 D E w
-1.2102 D E z
-1.8949 D E&r &
-1.6671 D E&r @
-1.8949 D E&r A
-1.6671 D E&r A&
-1.7640 D E&r D
-2.1634 D E&r D&
-1.8949 D E&r E
-1.6671 D E&r I
-1.4586 D E&r N
-1.3203 D E&r S
-1.5836 D E&r T
-1.8949 D E&r U
-1.2825 D E&r Z
-1.4586 D E&r d
-1.1313 D E&r dc
-1.8949 D E&r g
-1.4586 D E&r h
-2.1634 D E&r i
-1.8949 D E&r j
-1.6671 D E&r kh
-1.8949 D E&r l
-1.7640 D E&r m
-1.2478 D E&r n
-1.4586 D E&r oU
-2.1634 D E&r r&
-1.4586 D E&r s
-1.0193 D E&r tc
-2.1634 D E&r th
-1.5836 D E&r u
-1.0830 D E&r v
-1.8949 D E&r w
-1.0830 D E&r z
-2.3741 D I &
-2.3229 D I @
