~o
<STREAMINFO> 1 39
<VECSIZE> 39<NULLD><PLP_D_A_Z_0><DIAGC>
~h "&"
<BEGINHMM>
<NUMSTATES> 5
<STATE> 2
<NUMMIXES> 12
<MIXTURE> 1 6.596556e-002
<MEAN> 39
 1.246479e-001 -1.470479e-001 -3.577576e-001 -1.529640e-003 -6.132155e-002 -5.976934e-002 3.622344e-001 6.522240e-001 2.080787e-001 -3.752936e-001 -2.814369e-001 -9.463824e-002 2.730754e-001 -1.522856e-002 -5.437887e-002 -5.006664e-002 4.886174e-002 1.045999e-001 3.252818e-002 5.895792e-003 -1.113753e-002 -4.467744e-002 -2.492092e-002 4.163963e-002 4.355409e-002 -8.694981e-003 -7.605364e-003 2.922781e-004 2.132969e-002 3.409100e-003 5.776982e-003 -2.177168e-004 -1.997462e-002 -7.386724e-002 -4.345961e-002 4.494186e-002 4.704455e-002 1.461946e-002 -7.684597e-003
<VARIANCE> 39
 1.150183e-002 3.600733e-002 2.976279e-002 5.323904e-002 6.503449e-002 1.419200e-001 1.363191e-001 4.566042e-002 1.072363e-001 1.247467e-001 5.323732e-002 5.873188e-002 2.854726e-002 1.206184e-003 3.473324e-003 3.106978e-003 3.629779e-003 8.010576e-003 8.946443e-003 8.482308e-003 6.952736e-003 7.732559e-003 1.213673e-002 7.453249e-003 4.550189e-003 2.971444e-003 3.097850e-004 2.356696e-004 6.812912e-004 6.200386e-004 8.323661e-004 2.646031e-003 1.928928e-003 1.394613e-003 1.253535e-003 1.839546e-003 1.593434e-003 1.412584e-003 4.031729e-004
<GCONST> -1.251662e+002
<MIXTURE> 2 1.747924e-001
<MEAN> 39
 1.670264e-001 -2.967821e-001 -5.495508e-001 1.846512e-001 2.521814e-001 -1.774672e-001 1.615110e-001 4.775158e-001 -1.143367e-001 -3.892389e-001 -2.105984e-002 1.600430e-001 3.672545e-001 -1.366708e-002 -2.460121e-002 1.145686e-002 3.367908e-002 9.244962e-003 5.355485e-003 3.925562e-002 -2.502844e-002 -6.609204e-002 -5.645772e-004 5.802058e-002 2.354549e-002 1.360227e-002 -5.369028e-003 6.172424e-003 2.723146e-002 -9.150348e-003 -2.553502e-002 7.361504e-003 1.360714e-002 -2.193146e-002 -8.364795e-003 3.852736e-002 1.368371e-002 -2.545538e-002 3.465219e-003
<VARIANCE> 39
 8.995304e-003 2.035494e-002 2.376132e-002 2.413553e-002 2.383671e-002 2.306432e-002 3.895178e-002 3.521853e-002 4.060834e-002 3.451012e-002 4.247190e-002 3.211853e-002 2.750557e-002 5.559984e-004 1.311859e-003 2.496066e-003 1.580578e-003 6.557700e-003 2.095191e-003 4.584364e-003 4.060134e-003 4.682249e-003 4.698334e-003 5.165342e-003 2.977560e-003 9.440815e-004 7.452447e-005 1.891114e-004 3.173447e-004 3.582493e-004 6.051126e-004 5.358599e-004 4.708066e-004 6.493939e-004 4.928317e-004 9.896472e-004 8.268426e-004 6.272846e-004 1.189325e-004
<GCONST> -1.547358e+002
<MIXTURE> 3 1.192734e-001
<MEAN> 39
 1.061248e-001 -1.988906e-001 -3.624349e-001 9.348327e-002 3.417823e-002 -2.288510e-001 4.305753e-001 4.699588e-001 -1.864197e-001 -2.893114e-001 4.016637e-002 4.882212e-002 3.446541e-001 -1.067930e-002 -4.452395e-002 -2.179711e-002 4.633985e-002 6.728246e-002 5.806235e-002 -1.542250e-003 -5.069523e-002 -7.285733e-002 -2.826018e-002 3.421557e-002 3.719403e-002 1.801293e-002 -1.161200e-003 5.127885e-003 1.167843e-002 6.345919e-003 -1.206434e-002 5.641835e-003 -8.912459e-003 -2.549097e-002 -1.319870e-003 2.814648e-002 9.458748e-003 -8.106663e-003 -4.263287e-003
<VARIANCE> 39
 7.853819e-003 2.077016e-002 1.616801e-002 2.279516e-002 2.065595e-002 3.342737e-002 4.202935e-002 3.569611e-002 4.773266e-002 3.206518e-002 3.572579e-002 2.005609e-002 2.780430e-002 6.288690e-004 7.993986e-004 1.132887e-003 1.079725e-003 1.705875e-003 2.373628e-003 1.973761e-003 1.395732e-003 2.109808e-003 3.577974e-003 2.117230e-003 2.350212e-003 5.047622e-004 9.198490e-005 1.228424e-004 1.920362e-004 2.902547e-004 2.432058e-004 4.930200e-004 5.066423e-004 6.022912e-004 7.238799e-004 5.650430e-004 4.443422e-004 3.813404e-004 8.777671e-005
<GCONST> -1.665497e+002
<MIXTURE> 4 6.698608e-002
<MEAN> 39
 7.929245e-002 -5.058523e-001 -3.444593e-001 4.572164e-001 6.736022e-002 8.097818e-002 6.491361e-001 -1.492179e-001 -3.660166e-001 2.183798e-001 3.847629e-001 -1.231984e-001 3.524408e-001 -2.562715e-002 -4.674545e-002 3.871007e-002 6.923218e-002 3.377251e-002 -4.281915e-002 -7.764521e-002 -4.681361e-002 4.055750e-002 8.357138e-002 5.004199e-003 -2.989845e-002 2.933934e-002 1.758358e-004 1.887809e-002 1.254353e-002 -2.120209e-002 -2.288694e-002 4.146069e-004 -1.760566e-002 1.529774e-002 3.314128e-002 -9.719546e-003 -5.246488e-002 -2.757954e-003 1.496102e-003
<VARIANCE> 39
 1.367779e-002 3.855616e-002 1.916573e-002 2.453201e-002 6.749000e-002 4.876777e-002 9.975114e-002 2.524062e-002 6.150888e-002 4.397376e-002 4.337100e-002 3.369651e-002 1.907390e-002 7.897195e-004 1.348051e-003 2.546084e-003 1.841430e-003 2.383761e-003 7.846366e-003 4.066011e-003 5.619630e-003 5.369979e-003 4.521728e-003 5.564786e-003 3.278922e-003 1.135728e-003 1.787696e-004 2.877325e-004 3.730105e-004 3.014251e-004 6.855190e-004 1.238321e-003 7.497189e-004 4.428024e-004 1.524554e-003 5.333860e-004 1.094653e-003 6.691027e-004 1.934330e-004
<GCONST> -1.459298e+002
<MIXTURE> 5 9.332866e-002
<MEAN> 39
 1.155138e-001 -4.061393e-001 -5.266581e-001 5.433017e-001 3.057765e-001 -1.912027e-001 1.862668e-001 2.270728e-001 -2.203871e-001 -1.873936e-001 2.972404e-001 1.274528e-001 2.783283e-001 -3.024420e-002 -4.071340e-002 5.985440e-002 5.189150e-002 -3.333651e-002 3.311102e-002 6.869642e-002 -6.051543e-002 -9.760697e-002 4.209102e-002 7.491812e-002 -1.270522e-002 1.368188e-002 -2.401782e-003 1.752385e-002 2.753530e-002 -4.070200e-002 -2.070591e-002 2.044111e-002 -1.153351e-002 -2.863594e-002 1.901457e-002 3.532572e-002 -3.123302e-002 -2.954258e-002 9.267249e-004
<VARIANCE> 39
 1.796942e-002 2.447127e-002 2.910546e-002 6.714591e-002 4.137713e-002 3.234913e-002 8.301257e-002 5.406375e-002 6.102318e-002 5.394938e-002 5.501945e-002 6.740166e-002 3.030884e-002 6.897006e-004 1.379226e-003 2.374359e-003 5.873860e-003 5.601524e-003 7.025133e-003 8.144739e-003 5.393616e-003 1.413780e-002 8.965552e-003 8.163374e-003 1.012381e-002 3.012104e-003 2.199708e-004 2.829755e-004 7.340083e-004 9.779010e-004 5.555099e-004 7.438567e-004 1.301105e-003 1.618369e-003 2.223171e-003 1.439559e-003 1.031576e-003 1.645039e-003 5.730634e-004
<GCONST> -1.304359e+002
<MIXTURE> 6 1.407271e-001
<MEAN> 39
 7.434876e-002 -2.807082e-001 -3.018359e-001 8.335076e-002 -4.240058e-002 1.163620e-001 5.579881e-001 1.700173e-001 -2.659780e-001 -7.857140e-002 9.116068e-002 -8.720359e-002 3.504527e-001 -2.335149e-002 -6.615307e-002 -1.962283e-002 6.898012e-002 8.858760e-002 3.147831e-002 -1.280491e-002 -8.001522e-002 -9.583515e-002 6.296304e-003 8.845049e-002 3.308030e-002 2.744661e-002 -5.872635e-003 1.337159e-002 2.115091e-002 -5.096991e-005 -4.285905e-003 -7.827302e-003 -3.563361e-002 -1.492368e-002 2.066055e-002 1.662387e-002 -5.207386e-003 -4.613503e-004 -1.008704e-002
<VARIANCE> 39
 9.181415e-003 3.454788e-002 3.180560e-002 3.063077e-002 3.888371e-002 5.571023e-002 8.967023e-002 8.448664e-002 7.217134e-002 4.609015e-002 3.288435e-002 3.258239e-002 3.638950e-002 7.849660e-004 2.492156e-003 2.263299e-003 4.659322e-003 4.306433e-003 7.047215e-003 5.417468e-003 7.302559e-003 5.006409e-003 6.063155e-003 4.051623e-003 3.833177e-003 1.215435e-003 1.616471e-004 4.291911e-004 5.001632e-004 5.207562e-004 6.645363e-004 8.669944e-004 1.197875e-003 1.220811e-003 7.585138e-004 1.016576e-003 8.257009e-004 8.302078e-004 4.459555e-004
<GCONST> -1.389516e+002
<MIXTURE> 7 6.977936e-002
<MEAN> 39
 -2.519493e-001 9.709843e-002 2.775304e-001 -3.346676e-002 7.807613e-002 6.538445e-002 -4.802510e-003 -2.763712e-001 1.991990e-001 2.961425e-002 -6.060299e-002 5.957506e-003 -1.606598e-001 5.472353e-002 -1.103570e-002 -1.786461e-002 -3.212139e-002 -4.920710e-002 -4.018978e-002 5.013427e-002 5.492558e-002 -2.580221e-002 4.454266e-002 -1.892276e-002 -1.474504e-002 6.461038e-002 2.152298e-002 -6.660895e-003 -3.303662e-002 3.095929e-004 -1.021196e-002 -1.215685e-002 1.597750e-002 4.274834e-002 -1.830870e-002 -2.109597e-003 3.229109e-003 -7.450278e-003 2.414136e-002
<VARIANCE> 39
 7.752541e-002 3.013447e-002 1.477341e-001 8.080887e-002 1.456625e-001 1.121234e-001 8.694030e-002 8.742720e-002 5.199763e-002 4.731101e-002 5.592797e-002 2.807483e-002 2.468190e-002 6.866530e-003 3.789824e-003 6.407328e-003 5.022393e-003 1.140161e-002 7.833086e-003 8.728542e-003 9.439314e-003 6.977422e-003 9.736995e-003 5.394113e-003 4.625414e-003 4.812602e-003 3.629182e-004 2.846199e-004 1.207682e-003 1.004132e-003 1.074995e-003 1.027741e-003 1.254617e-003 1.308478e-003 1.169166e-003 7.068604e-004 1.286245e-003 5.573512e-004 6.818914e-004
<GCONST> -1.213193e+002
<MIXTURE> 8 1.396813e-001
<MEAN> 39
 1.946730e-001 -1.409664e-001 -5.740979e-001 1.565682e-001 3.965839e-001 -3.185641e-002 -1.578731e-001 1.412147e-001 2.264508e-001 -1.366621e-001 -1.880457e-001 -3.899062e-002 2.514931e-001 -1.790656e-002 -3.939148e-002 -2.635659e-003 5.743004e-002 5.678574e-004 -2.293000e-002 6.299630e-002 5.199815e-002 -6.927858e-002 -8.390658e-002 9.616960e-003 6.434682e-002 8.377423e-003 -5.148676e-003 2.151566e-003 2.672331e-002 -1.793128e-003 -2.770351e-002 -1.278560e-002 1.754745e-002 5.235346e-003 -3.512265e-002 8.772259e-003 3.159797e-002 1.230395e-002 -3.130211e-003
<VARIANCE> 39
 7.263595e-003 1.655653e-002 3.367306e-002 5.172876e-002 6.857990e-002 4.705373e-002 3.538758e-002 1.071965e-001 4.688443e-002 6.442093e-002 4.774002e-002 4.216459e-002 1.881697e-002 5.921778e-004 1.645348e-003 2.328282e-003 5.601329e-003 3.422830e-003 5.778084e-003 5.998267e-003 5.094687e-003 5.157451e-003 5.159134e-003 8.216463e-003 3.731034e-003 1.793921e-003 9.095266e-005 3.126977e-004 6.089971e-004 7.885271e-004 6.914360e-004 7.309679e-004 5.902985e-004 9.468276e-004 1.243804e-003 1.245141e-003 9.499059e-004 6.722512e-004 2.656109e-004
<GCONST> -1.412570e+002
<MIXTURE> 9 3.190429e-002
<MEAN> 39
 -5.706433e-002 -6.067483e-001 4.069495e-002 6.695361e-001 1.191725e-001 -1.006251e-004 7.878025e-002 -1.016605e-001 1.000983e-001 3.887128e-001 -1.226341e-002 -3.536649e-001 2.322116e-001 -2.821694e-002 -5.180461e-002 5.510121e-002 7.370403e-002 -5.829314e-002 -9.703894e-002 -1.330765e-002 4.897856e-002 5.557389e-002 3.216976e-002 -7.661721e-002 -2.030993e-002 6.762932e-002 5.662803e-003 1.786748e-002 -1.364681e-002 -3.178947e-002 -2.018976e-003 2.763682e-002 4.155431e-003 -2.777074e-002 -6.304687e-003 -2.677085e-002 -1.940545e-003 3.476254e-002 2.785103e-002
<VARIANCE> 39
 1.093898e-002 2.653483e-002 1.777541e-002 4.226213e-002 4.513575e-002 5.254618e-002 2.599606e-002 6.463799e-002 4.697025e-002 5.832654e-002 7.471706e-002 1.588082e-002 4.544074e-002 2.112101e-003 3.658799e-003 2.191531e-003 2.662303e-003 1.478304e-003 1.324609e-002 3.115903e-003 6.247366e-003 4.919504e-003 1.843495e-003 3.317153e-003 2.038598e-003 5.430757e-003 2.020588e-004 3.516173e-004 1.542521e-004 5.204727e-004 8.543382e-004 9.071847e-004 9.260722e-004 7.467407e-004 4.990499e-004 1.258026e-003 1.033423e-003 2.003408e-004 4.085257e-004
<GCONST> -1.445894e+002
<MIXTURE> 10 3.890955e-002
<MEAN> 39
 6.331760e-002 -2.623387e-001 -1.590219e-001 2.120513e-001 2.565643e-001 4.660359e-001 3.460450e-001 -2.598443e-001 -3.624423e-001 2.077364e-001 2.524608e-001 -1.600509e-001 -8.817448e-002 2.315330e-003 -5.426946e-002 -6.303656e-003 1.013857e-001 3.826000e-002 -4.995105e-002 -1.682341e-002 1.139490e-003 6.716862e-003 1.271186e-002 3.058356e-002 -3.227201e-002 -1.106368e-002 -8.266409e-003 -1.084962e-002 1.149909e-003 -1.477958e-002 -2.684845e-002 -2.112340e-002 3.789236e-004 9.264962e-003 4.758771e-002 -4.244245e-004 -4.340243e-002 1.175795e-002 4.921125e-002
<VARIANCE> 39
 1.222812e-002 6.826511e-002 4.511418e-002 7.608955e-002 3.100680e-002 3.541389e-002 1.080692e-001 1.511909e-001 4.409133e-002 6.414501e-002 1.137610e-001 5.191495e-002 6.568923e-002 1.899328e-003 6.242313e-003 4.624756e-003 2.154665e-003 6.871351e-003 6.643387e-003 4.943048e-003 1.297339e-002 7.447024e-003 5.399605e-003 1.680951e-002 3.481621e-003 1.120380e-002 4.767533e-004 1.681486e-003 6.533436e-004 8.297698e-004 4.505736e-004 8.378505e-004 4.320330e-004 2.288185e-003 8.455432e-004 1.968456e-003 2.580220e-003 1.056783e-003 1.789103e-003
<GCONST> -1.221294e+002
<MIXTURE> 11 9.304691e-003
<MEAN> 39
 -1.522001e-001 -7.109231e-001 2.564197e-001 3.302527e-001 2.548351e-001 5.223647e-001 1.721192e-001 -7.692597e-001 -2.148834e-001 5.463907e-002 7.867062e-002 1.609930e-001 5.118724e-001 -4.646014e-002 -6.967575e-002 -2.850525e-002 6.217096e-002 1.153349e-001 4.516068e-002 -6.784815e-002 -9.254292e-002 1.537945e-001 8.434287e-002 2.871903e-002 -5.471361e-002 4.266164e-002 2.057370e-002 4.529893e-002 -1.895493e-002 -1.658822e-002 -4.762007e-002 -1.910906e-003 -1.205334e-002 4.757379e-002 4.838857e-002 8.688413e-003 -3.713543e-002 -3.443697e-002 -9.023184e-003
<VARIANCE> 39
 2.819700e-003 4.825042e-003 3.077890e-002 2.950611e-002 1.608124e-002 2.010389e-002 5.609247e-003 1.920890e-002 6.705839e-002 2.215003e-002 5.664259e-002 1.867653e-002 2.190340e-002 5.740559e-004 4.005673e-003 9.702945e-003 1.630987e-003 6.184016e-003 2.886467e-003 7.592119e-003 1.254670e-003 8.387325e-003 1.006933e-002 1.444178e-003 1.184735e-002 1.043466e-003 9.875552e-005 4.464495e-004 5.884655e-004 3.394383e-004 6.789323e-004 2.796284e-004 3.320596e-004 5.915106e-004 2.195865e-003 4.607420e-004 6.074103e-004 7.588188e-004 8.934660e-005
<GCONST> -1.556416e+002
<MIXTURE> 12 4.934697e-002
<MEAN> 39
 9.166405e-002 2.585203e-002 6.631166e-002 -2.427709e-001 -4.839126e-001 1.591786e-002 4.778540e-001 7.796082e-002 5.347155e-002 1.257172e-001 -2.088615e-001 -9.453391e-002 1.622012e-001 7.291154e-002 -4.962496e-002 -1.217662e-001 1.811322e-002 -3.720853e-002 -4.871910e-002 1.337821e-001 1.127227e-001 -8.183613e-002 2.416300e-002 -1.730708e-002 -7.800432e-002 9.502059e-002 -2.651649e-002 1.050033e-003 -6.133112e-003 5.545023e-002 7.649244e-002 -8.717127e-003 -4.489266e-002 1.639796e-002 -4.970976e-003 -3.479388e-002 2.686012e-002 9.909692e-004 -3.576899e-002
<VARIANCE> 39
 8.163147e-003 2.404815e-002 2.928568e-002 5.100172e-002 6.045525e-002 4.529237e-002 8.882051e-002 5.488398e-002 6.478246e-002 6.237463e-002 7.609129e-002 5.307116e-002 4.413860e-002 3.400611e-003 4.415036e-003 5.971943e-003 5.530155e-003 1.421398e-002 3.702838e-003 1.928231e-002 1.436402e-002 8.831564e-003 8.836132e-003 8.445975e-003 1.036743e-002 4.984181e-003 2.524732e-004 3.035817e-004 9.752737e-004 4.433659e-004 2.037978e-003 8.877115e-004 2.006364e-003 1.956893e-003 1.720023e-003 1.520669e-003 1.552645e-003 1.608132e-003 2.559563e-004
<GCONST> -1.230380e+002
<STATE> 3
<NUMMIXES> 12
<MIXTURE> 1 8.616973e-002
<MEAN> 39
 -4.486078e-002 -6.122750e-001 -6.298238e-002 6.709984e-001 1.142755e-001 -3.654169e-002 2.196655e-001 -1.756111e-001 -5.727440e-002 4.794426e-001 3.394204e-002 -2.809512e-001 4.320371e-001 -1.174788e-002 1.769449e-002 2.907653e-002 -2.292979e-002 -1.165964e-002 1.068876e-002 -6.692570e-002 -5.098490e-002 6.497688e-002 -4.911662e-003 -8.175538e-002 2.119033e-002 5.384482e-002 1.111278e-002 2.580269e-002 -7.203785e-003 -3.527674e-002 7.930883e-003 1.206103e-002 -1.639722e-002 1.786443e-003 -2.094304e-003 -4.625773e-002 5.014977e-003 3.397942e-002 -1.349629e-002
<VARIANCE> 39
 1.871238e-002 1.796920e-002 5.814344e-002 7.239397e-002 4.690454e-002 9.477935e-002 7.924715e-002 7.207447e-002 9.182604e-002 5.486811e-002 6.636548e-002 2.773857e-002 3.001448e-002 1.386282e-003 2.442790e-003 3.460127e-003 4.110376e-003 5.317192e-003 7.596268e-003 5.037437e-003 6.701611e-003 4.286018e-003 8.305868e-003 5.522868e-003 5.685825e-003 1.694421e-003 2.482045e-004 3.767868e-004 8.306738e-004 8.898575e-004 4.246114e-004 1.287888e-003 1.027088e-003 1.256057e-003 1.126444e-003 1.186198e-003 1.741012e-003 6.753847e-004 4.079480e-004
<GCONST> -1.318944e+002
<MIXTURE> 2 5.637030e-002
<MEAN> 39
 6.039530e-002 -3.718045e-001 -2.134787e-001 1.736587e-001 -1.289972e-001 1.550678e-001 6.270499e-001 4.537615e-003 -4.342036e-001 1.665778e-001 1.490033e-001 -2.063663e-001 4.830661e-001 -3.161168e-002 3.686105e-002 1.096376e-001 -1.167758e-001 -5.609296e-002 1.339932e-001 -1.147589e-002 -1.293239e-001 8.280513e-002 7.269061e-002 -1.248552e-001 -3.550141e-002 2.936330e-002 2.330915e-003 2.737011e-002 -6.517805e-003 -3.431665e-002 2.507857e-002 -1.201876e-002 -5.719276e-002 3.193533e-002 6.536514e-002 -3.907074e-002 -3.712853e-002 3.466851e-002 -1.121862e-002
<VARIANCE> 39
 9.965980e-003 2.766190e-002 1.813251e-002 4.398791e-002 3.070209e-002 3.267535e-002 2.294281e-002 4.155850e-002 2.950635e-002 1.964251e-002 5.973596e-002 1.671552e-002 3.509165e-002 6.594663e-004 1.724582e-003 2.493591e-003 5.333885e-003 4.033735e-003 4.562380e-003 4.370531e-003 2.989327e-003 5.929901e-003 4.678397e-003 4.680986e-003 3.359600e-003 1.563544e-003 1.132981e-004 2.293657e-004 2.116720e-004 8.481025e-004 3.761935e-004 6.417743e-004 9.602782e-004 7.475741e-004 9.489937e-004 9.334267e-004 1.825299e-003 3.973517e-004 4.293657e-004
<GCONST> -1.485108e+002
<MIXTURE> 3 1.296974e-001
<MEAN> 39
 -1.251451e-003 -4.713696e-001 -3.195733e-001 4.918692e-001 3.399540e-001 2.913202e-002 2.008538e-001 -4.198498e-002 -5.110463e-001 1.490733e-001 3.747861e-001 -4.353237e-002 5.036672e-001 -1.545190e-002 3.770991e-003 2.418501e-002 1.235185e-003 6.469510e-003 4.018086e-002 -7.611755e-003 -7.266017e-002 -2.406360e-003 7.455432e-002 -3.962054e-003 -4.060519e-002 1.869748e-002 1.359780e-003 6.265629e-003 1.137915e-003 -1.536566e-002 -1.196046e-002 8.835988e-003 5.935873e-003 4.463928e-003 1.014033e-002 -1.630123e-002 -1.296583e-002 9.177000e-003 -3.077345e-003
<VARIANCE> 39
 7.837511e-003 1.562713e-002 1.850973e-002 2.851443e-002 3.287074e-002 2.793521e-002 3.858666e-002 3.487965e-002 4.010947e-002 4.003671e-002 3.275347e-002 3.808972e-002 2.158312e-002 3.306975e-004 6.545343e-004 7.822060e-004 1.033899e-003 2.424656e-003 1.579309e-003 3.204703e-003 3.092993e-003 1.981080e-003 2.128080e-003 3.186011e-003 1.528648e-003 2.402879e-004 8.535882e-005 1.391635e-004 1.557716e-004 2.658337e-004 4.332988e-004 3.646036e-004 5.274868e-004 6.115691e-004 4.038569e-004 3.463097e-004 3.272425e-004 3.726826e-004 4.464953e-005
<GCONST> -1.693232e+002
<MIXTURE> 4 1.639366e-001
<MEAN> 39
 9.028248e-003 -4.142686e-001 -2.726536e-001 2.474023e-001 1.306352e-001 1.402576e-001 3.662044e-001 9.202231e-002 -4.648306e-001 -1.120970e-001 3.216541e-001 1.572448e-002 4.742027e-001 -2.105367e-002 -3.110733e-002 2.322942e-002 3.450265e-002 3.617859e-002 5.308344e-002 -4.307519e-002 -1.018632e-001 -1.454158e-002 5.638289e-002 3.036475e-002 -9.749058e-003 3.311194e-002 3.098275e-003 1.692638e-002 7.056603e-004 -1.349609e-002 -5.553618e-003 -8.588268e-003 3.411472e-004 -1.729328e-003 2.307097e-002 1.443294e-002 -2.316518e-002 -1.045993e-002 -4.611052e-003
<VARIANCE> 39
 6.741756e-003 1.642864e-002 2.963720e-002 4.158855e-002 2.395734e-002 4.261254e-002 4.008065e-002 5.070975e-002 4.460376e-002 3.227380e-002 3.460103e-002 2.554838e-002 2.416538e-002 6.029644e-004 1.274358e-003 1.400228e-003 2.848583e-003 2.611003e-003 2.842635e-003 3.333186e-003 5.898471e-003 4.882719e-003 2.843064e-003 4.597300e-003 2.728121e-003 5.856671e-004 1.053924e-004 1.514493e-004 2.936739e-004 4.259071e-004 4.760835e-004 5.467971e-004 5.573386e-004 4.658674e-004 7.112682e-004 6.657363e-004 5.165863e-004 3.364266e-004 1.104316e-004
<GCONST> -1.569979e+002
<MIXTURE> 5 9.521528e-002
<MEAN> 39
 9.504308e-002 -3.833066e-001 -4.823474e-001 4.329362e-001 4.978150e-001 -9.951375e-002 -2.726157e-002 2.618377e-001 -1.997502e-001 -2.800142e-001 4.865048e-002 2.653601e-001 3.325273e-001 -1.409901e-002 -2.387360e-002 3.836046e-002 2.511425e-002 -3.127409e-002 -2.452079e-002 9.497189e-003 -1.862524e-003 -5.750556e-002 3.124935e-002 6.188223e-002 1.278732e-002 2.484433e-002 6.062910e-003 1.790716e-002 9.740612e-003 -2.409227e-002 -1.857458e-002 3.796298e-003 -9.681460e-004 -1.579676e-002 1.552271e-002 2.038680e-002 -1.203938e-002 -2.263576e-002 -6.512571e-003
<VARIANCE> 39
 2.307452e-002 2.627838e-002 3.871991e-002 5.473612e-002 3.553006e-002 4.629906e-002 6.138000e-002 8.240110e-002 6.838790e-002 5.395485e-002 7.878653e-002 1.626992e-002 2.202630e-002 1.336712e-003 2.095335e-003 4.842824e-003 2.059095e-003 5.859255e-003 3.787648e-003 5.287184e-003 8.827777e-003 8.374431e-003 7.564546e-003 6.349050e-003 4.166267e-003 2.190557e-003 2.096515e-004 3.489872e-004 4.409876e-004 8.650189e-004 8.424811e-004 6.959099e-004 7.049224e-004 1.031010e-003 8.190910e-004 1.465896e-003 1.696898e-003 6.233989e-004 2.146068e-004
<GCONST> -1.365139e+002
<MIXTURE> 6 2.152507e-001
<MEAN> 39
 1.077286e-001 -3.168610e-001 -4.303217e-001 3.172451e-001 2.511869e-001 -9.657837e-002 3.058698e-001 1.668518e-001 -3.901121e-001 -2.501087e-001 1.828930e-001 2.244850e-001 4.169882e-001 -1.016175e-002 -2.085383e-002 1.189028e-002 1.408417e-002 1.737063e-002 1.806819e-002 -1.338944e-004 -4.072112e-002 -2.977533e-002 3.401298e-002 3.140017e-002 -4.560735e-004 1.445293e-002 -5.967114e-004 2.886074e-003 4.450454e-003 -6.256958e-003 -9.473020e-003 2.589884e-003 -1.030873e-003 -2.649528e-003 8.858549e-003 5.929849e-003 -2.276561e-003 -1.117619e-002 -3.740682e-004
<VARIANCE> 39
 1.307175e-002 7.535605e-003 1.135180e-002 1.550692e-002 3.203677e-002 1.819394e-002 3.478394e-002 3.172883e-002 3.545981e-002 2.709793e-002 2.159653e-002 1.548962e-002 1.647676e-002 3.077876e-004 6.313149e-004 9.413902e-004 1.239150e-003 1.478747e-003 1.850225e-003 2.462730e-003 2.631130e-003 1.819766e-003 2.764249e-003 2.044285e-003 1.514664e-003 3.787856e-004 4.769771e-005 1.064176e-004 1.716093e-004 1.946552e-004 2.517985e-004 2.942405e-004 3.905841e-004 4.530763e-004 3.180052e-004 4.124000e-004 3.399741e-004 2.983324e-004 4.153327e-005
<GCONST> -1.764595e+002
<MIXTURE> 7 1.031004e-001
<MEAN> 39
 1.017453e-001 -2.600185e-001 -3.673771e-001 2.604513e-001 1.779457e-002 -1.937944e-001 4.094522e-001 3.373230e-001 -3.251461e-001 -1.203437e-001 2.039210e-001 2.437482e-002 2.733620e-001 -2.724484e-002 6.979122e-003 9.613888e-002 -3.695215e-002 -8.816051e-002 4.560885e-002 7.911436e-002 -1.097025e-001 -5.364135e-002 1.033317e-001 2.887083e-002 -5.231998e-002 6.414772e-003 -1.954329e-003 1.980328e-002 1.587368e-002 -2.713132e-002 5.589648e-003 2.023084e-002 -3.501178e-002 -3.187247e-002 4.021461e-002 1.353349e-002 -4.784796e-002 -5.412574e-003 -1.011475e-002
<VARIANCE> 39
 1.030638e-002 2.534133e-002 2.491391e-002 4.797516e-002 3.166513e-002 3.642600e-002 3.635528e-002 8.171190e-002 4.564000e-002 4.700406e-002 3.271770e-002 4.217395e-002 5.300382e-002 4.435790e-004 2.167270e-003 3.353602e-003 1.828670e-003 4.044664e-003 6.275428e-003 3.323310e-003 6.735596e-003 3.509708e-003 5.048145e-003 6.412446e-003 3.589728e-003 2.831595e-003 1.273526e-004 2.857597e-004 4.153939e-004 6.286454e-004 7.245353e-004 8.428554e-004 7.744142e-004 1.335915e-003 5.649180e-004 9.186084e-004 7.426419e-004 8.799526e-004 4.480554e-004
<GCONST> -1.429870e+002
<MIXTURE> 8 4.468031e-002
<MEAN> 39
 8.832400e-002 7.201114e-002 -4.928307e-002 -8.169304e-002 -3.190315e-001 -2.987190e-001 3.119326e-001 3.325774e-001 6.274959e-002 1.656392e-001 -7.789866e-002 -2.603934e-001 -5.375859e-002 8.038521e-002 -3.100722e-002 -8.309711e-002 1.912955e-002 2.315464e-002 -9.902699e-002 -1.546103e-002 1.582291e-001 -1.774643e-002 -9.605617e-003 3.111207e-002 -1.424839e-002 4.743644e-002 -1.869028e-002 3.927309e-003 -2.249325e-002 1.683796e-002 4.358204e-002 1.772566e-002 -3.591260e-002 -1.937293e-002 2.368916e-002 -3.157097e-002 9.322631e-003 3.309310e-002 -4.083649e-003
<VARIANCE> 39
 1.301738e-002 2.572876e-002 2.740321e-002 4.856453e-002 6.299691e-002 6.078495e-002 9.970672e-002 1.279685e-001 7.057998e-002 1.055582e-001 7.309627e-002 3.361431e-002 3.140798e-002 2.988178e-003 2.222281e-003 5.493762e-003 7.456539e-003 1.387308e-002 6.851975e-003 7.160301e-003 1.206972e-002 8.069924e-003 7.042932e-003 6.895522e-003 5.920006e-003 4.286067e-003 2.127808e-004 5.437816e-004 1.236152e-003 7.663763e-004 1.741230e-003 9.492190e-004 1.828452e-003 3.431769e-003 1.837486e-003 1.886121e-003 1.818545e-003 1.039632e-003 5.383493e-004
<GCONST> -1.216303e+002
<MIXTURE> 9 9.159221e-003
<MEAN> 39
 8.705566e-002 -6.099733e-002 -3.039415e-001 -1.812339e-001 -6.118858e-001 2.464253e-002 9.424462e-001 2.376029e-001 1.914941e-001 8.977864e-002 1.966369e-001 -2.790629e-001 8.555717e-002 5.654795e-002 -3.721466e-002 -1.411185e-001 5.443420e-002 3.435533e-002 -4.863355e-002 7.900717e-002 1.642651e-001 -4.873166e-002 1.571935e-002 5.362838e-002 1.376570e-003 1.706131e-002 -2.791070e-002 1.897821e-002 3.025990e-002 4.959519e-002 8.245664e-002 -1.636913e-002 -1.200460e-001 7.450430e-003 1.402387e-002 -3.843077e-002 -1.999840e-002 1.970562e-002 -2.806115e-002
<VARIANCE> 39
 3.965186e-003 1.429409e-002 6.574516e-003 3.319119e-002 5.006136e-002 3.487264e-002 4.978646e-002 2.554879e-002 1.050328e-001 1.665149e-002 4.632510e-002 5.394206e-003 7.254958e-003 9.791802e-004 9.820251e-004 1.473004e-003 1.229414e-003 7.124869e-003 1.842815e-003 1.094274e-002 4.273838e-003 4.699239e-003 3.223456e-003 1.258869e-003 4.329463e-003 1.202699e-003 8.532134e-005 2.928339e-004 3.759568e-004 1.620381e-004 1.628622e-003 1.320402e-003 9.596075e-004 2.884697e-003 2.793039e-003 4.716442e-004 1.186944e-003 6.208981e-004 2.908350e-004
<GCONST> -1.531152e+002
<MIXTURE> 10 2.875934e-002
<MEAN> 39
 2.064684e-001 4.920287e-002 -4.084080e-001 -8.941892e-002 2.408301e-001 -1.432300e-001 -5.907221e-002 -8.624372e-002 1.784005e-001 2.895301e-001 -1.283247e-001 -1.276979e-001 1.225239e-001 1.341159e-002 4.159527e-002 3.923479e-003 -7.772644e-003 1.789211e-002 2.148905e-002 -3.581353e-002 -6.881483e-002 -3.159380e-002 -5.371343e-004 1.210323e-002 5.188026e-002 -3.200236e-002 -7.498642e-003 4.999063e-004 2.111312e-002 -4.973261e-003 -1.607230e-002 1.151179e-002 8.139373e-003 -4.898724e-003 -1.113280e-002 -2.530565e-002 1.811190e-002 1.321206e-002 -7.557209e-003
<VARIANCE> 39
 1.467202e-002 2.083839e-002 7.377201e-002 7.253923e-002 7.000345e-002 4.582132e-002 1.671972e-001 5.261272e-002 3.884377e-002 7.372457e-002 1.659372e-002 4.037951e-002 4.213176e-002 1.240978e-003 2.810227e-003 4.907335e-003 1.685742e-003 6.024394e-003 7.176564e-003 9.589903e-003 1.265375e-002 4.987426e-003 1.006506e-002 6.177770e-003 3.473673e-003 4.545262e-003 1.529117e-004 5.583854e-004 6.036116e-004 8.937671e-004 9.952654e-004 1.185872e-003 2.300076e-003 1.471759e-003 3.012735e-004 1.059458e-003 4.373949e-004 7.665709e-004 1.873271e-004
<GCONST> -1.332325e+002
<MIXTURE> 11 2.944891e-002
<MEAN> 39
 -2.910425e-002 -3.147846e-001 -1.913869e-001 2.873548e-002 7.392216e-002 5.317877e-001 2.620163e-001 -4.480511e-001 -1.039196e-001 9.218327e-002 1.753543e-001 -2.563667e-002 4.266408e-001 -2.483498e-002 1.793817e-003 2.108649e-002 2.239921e-002 3.871342e-002 4.836245e-002 -5.455820e-002 -6.387545e-002 2.450829e-003 3.110693e-002 2.082971e-002 -1.900889e-002 3.943510e-002 4.167326e-003 1.642033e-002 1.757102e-002 -1.004108e-002 -2.106088e-002 -2.672403e-002 -6.501806e-003 3.249380e-002 -3.488067e-003 -1.038691e-002 -1.377984e-002 6.410789e-003 -1.002550e-002
<VARIANCE> 39
 1.042663e-002 2.043091e-002 1.516655e-002 3.718458e-002 5.179433e-002 2.615736e-002 6.190687e-002 1.748012e-002 1.034592e-001 3.201243e-002 2.407127e-002 1.958444e-002 3.702215e-002 4.510515e-004 1.135470e-003 2.154892e-003 1.179908e-003 1.910106e-003 3.913713e-003 1.437524e-003 3.134769e-003 4.666196e-003 3.780285e-003 1.157059e-003 2.712692e-003 4.589656e-003 1.851367e-004 3.676711e-004 4.352544e-004 2.603941e-004 4.898214e-004 1.684532e-004 8.005297e-004 3.187993e-004 9.156167e-004 7.050138e-004 3.366072e-004 6.921926e-004 1.452370e-004
<GCONST> -1.571881e+002
<MIXTURE> 12 3.821169e-002
<MEAN> 39
 1.567615e-001 -3.757318e-001 -2.158383e-001 5.224018e-001 2.695993e-001 -4.520634e-001 1.472653e-001 -3.764021e-001 -5.372155e-001 2.754854e-001 -3.064897e-002 9.464461e-002 4.031397e-001 -3.067890e-003 1.109500e-003 2.719817e-002 -1.249713e-002 -2.597990e-002 -6.171253e-003 -1.973568e-002 -5.293945e-002 9.652350e-003 2.058812e-002 1.811400e-003 -1.187064e-002 -7.907311e-003 -2.503699e-003 -3.984246e-003 -1.238738e-003 -3.781127e-003 4.178114e-003 1.382518e-002 3.368896e-003 2.061507e-002 6.733732e-003 -5.626818e-003 7.519928e-003 -1.021524e-002 -1.252646e-003
<VARIANCE> 39
 5.784737e-003 6.016851e-002 1.425108e-002 2.307539e-002 2.374478e-002 3.363550e-002 4.545989e-002 6.923472e-002 1.319046e-002 1.031750e-001 3.655357e-002 1.915056e-002 1.060449e-002 2.955211e-004 1.610088e-003 8.700077e-004 1.704925e-003 9.851444e-004 3.157686e-003 3.886971e-003 8.722057e-003 1.215258e-003 1.672797e-003 3.229886e-003 3.816714e-003 4.181373e-004 1.058967e-004 2.667832e-004 1.847792e-004 4.653855e-004 2.193832e-004 4.770753e-004 8.789825e-004 7.000772e-004 2.923113e-004 3.326916e-004 5.867899e-004 5.003168e-004 9.697668e-005
<GCONST> -1.632045e+002
<STATE> 4
<NUMMIXES> 12
<MIXTURE> 1 1.561549e-001
<MEAN> 39
 3.154792e-002 -3.341411e-001 -3.156673e-001 1.556925e-001 1.409944e-001 1.121025e-001 4.406836e-001 -9.576359e-002 -5.297538e-001 2.801131e-002 2.841992e-001 4.172229e-002 4.812454e-001 -4.814914e-003 3.657808e-003 2.395131e-002 -2.809503e-002 -1.275748e-002 2.653886e-002 6.221333e-003 -3.452067e-002 -4.517486e-003 2.955080e-002 -2.188617e-002 -7.913157e-003 7.056597e-004 2.803561e-003 3.930883e-003 2.370713e-003 -5.981591e-003 -3.255191e-003 -3.220184e-003 -1.712103e-003 8.845334e-003 7.503566e-003 -4.386762e-003 -1.498544e-002 6.435465e-005 -3.524262e-003
<VARIANCE> 39
 2.045379e-002 1.311901e-002 1.448790e-002 2.464713e-002 1.365984e-002 3.776426e-002 3.895633e-002 4.646804e-002 3.634682e-002 3.227686e-002 1.298858e-002 2.251663e-002 1.770067e-002 3.261252e-004 6.447248e-004 4.910890e-004 1.757319e-003 1.819450e-003 2.206680e-003 2.098361e-003 2.151052e-003 1.041280e-003 1.443477e-003 1.968348e-003 1.329307e-003 2.152547e-004 1.032314e-004 1.201851e-004 1.154410e-004 2.480471e-004 3.190477e-004 4.255157e-004 5.048482e-004 3.447088e-004 2.170665e-004 2.786257e-004 2.674760e-004 2.499132e-004 2.758967e-005
<GCONST> -1.766540e+002
<MIXTURE> 2 9.253380e-002
<MEAN> 39
 5.854076e-003 -4.483036e-001 2.353169e-002 4.778387e-001 7.173816e-002 3.218680e-003 8.488167e-003 -3.549026e-001 1.955177e-001 1.854684e-001 -2.464926e-001 -1.181238e-002 4.780841e-001 -1.343294e-002 2.019960e-002 9.352935e-003 -5.500453e-002 2.255471e-002 1.438674e-002 -7.020234e-002 -2.222126e-002 3.233318e-002 -5.857068e-002 4.510087e-003 6.943228e-002 1.797011e-002 1.094624e-003 4.733911e-003 -9.248509e-003 -2.059395e-002 3.285981e-003 3.309175e-003 4.737413e-004 1.795934e-002 -1.523033e-002 -7.279941e-004 3.290061e-002 -9.910772e-003 -1.277945e-002
<VARIANCE> 39
 1.078262e-002 2.222659e-002 2.519549e-002 5.520616e-002 3.429075e-002 6.793103e-002 6.836024e-002 6.142057e-002 5.685417e-002 5.114779e-002 3.908540e-002 3.769241e-002 2.455619e-002 7.032820e-004 1.357668e-003 3.671889e-003 3.945858e-003 2.186303e-003 2.389282e-003 4.793960e-003 3.861540e-003 6.908699e-003 4.914766e-003 6.365272e-003 3.003946e-003 1.293807e-003 1.168265e-004 2.823517e-004 3.352290e-004 5.041931e-004 2.758430e-004 7.553587e-004 7.683465e-004 8.090553e-004 6.917350e-004 8.044561e-004 5.583923e-004 5.490928e-004 1.885529e-004
<GCONST> -1.471788e+002
<MIXTURE> 3 5.701137e-002
<MEAN> 39
 2.005313e-001 -5.152849e-002 -3.088384e-001 6.065167e-002 -1.379712e-001 -3.823850e-001 2.563065e-001 5.863705e-001 1.193925e-001 8.795865e-003 1.947886e-002 -1.049175e-001 5.266576e-003 3.696636e-002 -2.253597e-002 -1.021644e-001 2.946375e-002 8.345233e-002 -4.946910e-002 -9.175098e-002 5.327020e-002 7.623249e-002 -3.204896e-002 -7.665991e-003 3.235043e-002 2.327469e-002 -1.759417e-002 1.477947e-002 2.082293e-002 -1.253580e-002 -2.303440e-003 3.260282e-002 -1.674329e-002 -5.497740e-002 1.827790e-002 7.002157e-003 -1.255834e-002 -3.345742e-003 2.858237e-003
<VARIANCE> 39
 6.590202e-003 2.877225e-002 3.126661e-002 3.621307e-002 7.406920e-002 6.104257e-002 1.163195e-001 6.061764e-002 6.273435e-002 5.635661e-002 6.293958e-002 4.261658e-002 1.913409e-002 1.239025e-003 9.505208e-004 4.003761e-003 5.040818e-003 6.324964e-003 4.964278e-003 1.087207e-002 1.479190e-002 6.160914e-003 7.167208e-003 1.161132e-002 8.633134e-003 1.830877e-003 1.623440e-004 4.542265e-004 8.730057e-004 1.097552e-003 1.783430e-003 7.810719e-004 1.596865e-003 1.169991e-003 1.519677e-003 1.591147e-003 1.416438e-003 9.970448e-004 3.565259e-004
<GCONST> -1.299554e+002
<MIXTURE> 4 8.930419e-002
<MEAN> 39
 3.547158e-003 -4.538082e-001 -3.205793e-001 3.131689e-001 4.048819e-001 1.425564e-001 7.401136e-002 1.059161e-001 -1.570625e-001 -1.508682e-001 1.739385e-001 4.474196e-002 4.611508e-001 3.467431e-003 8.246932e-003 2.664307e-002 -2.974601e-002 -4.090821e-002 4.010381e-003 6.485603e-003 -2.981691e-002 -9.833213e-003 2.117020e-002 -8.733095e-003 -1.611341e-002 2.682161e-003 7.724492e-003 2.324193e-002 2.535501e-003 -1.932008e-002 -2.657009e-002 -1.397760e-002 1.483079e-002 -6.881044e-003 -7.339440e-003 1.441974e-002 -1.668019e-002 -1.037607e-003 -2.074986e-002
<VARIANCE> 39
 2.010304e-002 2.531377e-002 3.698947e-002 6.216111e-002 4.636045e-002 1.226798e-001 6.583450e-002 7.943981e-002 9.692815e-002 5.698563e-002 1.448873e-001 5.141995e-002 2.551736e-002 1.244741e-003 2.009048e-003 3.350172e-003 4.439179e-003 3.891253e-003 3.020681e-003 5.680063e-003 3.863989e-003 4.275352e-003 7.899546e-003 6.564173e-003 3.011607e-003 1.575330e-003 4.013524e-004 4.161911e-004 6.967456e-004 1.017503e-003 8.112703e-004 6.970533e-004 1.172811e-003 1.169372e-003 8.513128e-004 9.237788e-004 1.903565e-003 5.991125e-004 1.980772e-004
<GCONST> -1.337608e+002
<MIXTURE> 5 5.282332e-002
<MEAN> 39
 -4.914666e-002 -2.688043e-001 -8.468737e-003 -1.272195e-001 -2.853712e-002 4.309808e-001 4.353124e-001 -1.692930e-001 -5.902489e-002 1.207318e-001 -3.231764e-001 -1.260225e-001 5.693432e-001 -1.770707e-003 9.380051e-002 5.227497e-002 -1.627827e-001 -1.199744e-003 4.877060e-002 -1.453075e-001 -8.505105e-005 1.609232e-001 -7.666674e-002 -1.079159e-001 8.509455e-002 -8.008539e-003 1.359065e-002 2.069230e-002 -2.269792e-002 1.185874e-002 1.281162e-002 -6.183123e-002 -4.158795e-002 5.150911e-002 -5.194678e-003 -2.569715e-002 5.508239e-002 2.470929e-002 -2.471955e-002
<VARIANCE> 39
 6.817747e-003 3.363219e-002 1.543760e-002 4.973945e-002 6.702644e-002 5.295821e-002 4.840673e-002 2.853122e-002 6.849961e-002 3.160648e-002 5.157575e-002 3.584171e-002 4.481834e-002 1.463865e-003 2.334667e-003 3.360268e-003 3.759230e-003 5.139481e-003 5.119106e-003 1.002508e-002 6.146994e-003 1.027857e-002 4.107413e-003 9.662136e-003 2.695580e-003 1.615394e-003 2.318309e-004 4.375581e-004 3.952623e-004 9.889695e-004 1.982557e-003 9.792504e-004 9.877847e-004 8.262750e-004 1.461150e-003 1.123884e-003 1.715922e-003 9.721751e-004 4.958508e-004
<GCONST> -1.350590e+002
<MIXTURE> 6 4.402892e-002
<MEAN> 39
 1.613625e-001 5.299786e-002 -2.828018e-001 -2.759380e-001 6.166517e-002 7.631278e-002 5.968278e-002 -4.702903e-002 -1.016816e-002 1.842256e-002 -1.139983e-001 8.413833e-002 5.484712e-002 5.315787e-004 5.318578e-002 6.461313e-002 -9.463539e-003 -4.114908e-002 3.338265e-003 -6.284205e-002 -3.999672e-002 -4.034052e-002 1.057436e-002 4.199764e-002 1.179168e-002 -6.148830e-002 -8.829710e-003 -8.668373e-003 1.788624e-002 3.650980e-002 4.895657e-003 -2.270224e-002 -1.386789e-002 1.350312e-002 9.962387e-003 3.703452e-003 -1.635229e-003 -1.455930e-002 -5.553092e-003
<VARIANCE> 39
 1.356855e-002 3.525411e-002 5.060476e-002 5.064344e-002 3.534716e-002 6.978913e-002 7.270911e-002 8.487659e-002 4.907636e-002 3.577543e-002 6.236337e-002 4.189312e-002 4.910503e-002 1.191697e-003 1.472362e-003 3.169774e-003 4.711747e-003 6.832779e-003 7.917409e-003 8.431096e-003 7.747631e-003 2.590828e-003 7.677968e-003 6.451714e-003 6.443451e-003 3.648431e-003 1.477032e-004 2.519616e-004 5.696892e-004 8.643827e-004 7.430179e-004 1.515976e-003 1.251788e-003 1.314914e-003 8.522626e-004 1.094034e-003 6.407548e-004 1.096019e-003 4.314873e-004
<GCONST> -1.331329e+002
<MIXTURE> 7 6.361809e-002
<MEAN> 39
 -3.144462e-002 -3.030509e-001 -1.612773e-001 2.284051e-001 1.604446e-001 3.845738e-001 3.853566e-001 -3.820570e-001 -6.160862e-001 5.308346e-002 3.150910e-001 1.533886e-001 8.267438e-002 -1.516882e-002 3.914936e-002 6.019859e-002 -6.491418e-002 -1.804830e-002 3.470777e-002 -2.508367e-002 -6.449365e-002 1.986608e-002 2.962324e-002 -6.303229e-002 8.029055e-003 -1.933131e-002 2.480285e-003 4.748215e-003 -7.101479e-003 -8.944726e-003 -6.450437e-003 -3.107568e-002 -1.917400e-002 3.956616e-002 4.458298e-002 -1.080226e-002 -2.028490e-002 -5.674560e-004 5.882289e-003
<VARIANCE> 39
 5.503817e-003 1.178666e-002 4.266087e-002 3.717726e-002 3.326829e-002 6.103975e-002 7.541821e-002 9.706289e-002 5.131369e-002 8.618911e-002 6.241780e-002 3.437012e-002 2.018691e-001 8.145964e-004 1.669005e-003 5.081734e-003 1.074365e-002 4.938668e-003 7.608794e-003 9.010537e-003 1.275027e-002 1.010197e-002 9.183186e-003 8.915951e-003 6.407536e-003 8.412939e-003 1.349711e-004 3.353362e-004 5.969239e-004 9.133882e-004 5.759016e-004 6.619770e-004 1.398890e-003 1.720321e-003 1.671254e-003 1.060134e-003 1.960653e-003 1.740024e-003 1.171261e-003
<GCONST> -1.267443e+002
<MIXTURE> 8 1.780031e-001
<MEAN> 39
 3.348148e-002 -3.419152e-001 -1.261575e-001 4.232852e-001 1.204919e-001 6.531065e-002 1.400344e-001 -3.317349e-001 -6.500743e-002 2.511976e-001 -7.834171e-003 -2.358423e-001 4.036863e-001 -6.858733e-004 9.508012e-003 1.688699e-002 -1.278180e-002 -5.717174e-003 7.295198e-003 -2.504652e-002 -2.309317e-002 3.872793e-002 -1.069171e-002 -3.766322e-002 1.986870e-002 5.812809e-003 -4.878225e-006 1.048819e-003 -3.202719e-003 -5.637469e-003 -1.092592e-003 6.709719e-003 5.468938e-003 -8.513106e-004 -4.326731e-003 -6.300692e-003 4.101762e-003 1.198530e-002 -2.529250e-003
<VARIANCE> 39
 8.235655e-003 1.001409e-002 1.625973e-002 1.343804e-002 2.715751e-002 1.885917e-002 4.345801e-002 4.534862e-002 8.360366e-002 3.180626e-002 5.344712e-002 1.552706e-002 3.712872e-002 3.606829e-004 5.368520e-004 1.321203e-003 1.451074e-003 1.377285e-003 2.280247e-003 2.878462e-003 2.128236e-003 2.346854e-003 2.429260e-003 1.262128e-003 2.583430e-003 3.332454e-004 7.185285e-005 9.957836e-005 1.731404e-004 2.858645e-004 2.981300e-004 3.398686e-004 3.979969e-004 2.784079e-004 5.181130e-004 5.607939e-004 2.538424e-004 3.384803e-004 3.180312e-005
<GCONST> -1.716638e+002
<MIXTURE> 9 3.167167e-002
<MEAN> 39
 -3.281657e-002 1.179225e-002 1.456914e-001 1.093519e-001 -5.713365e-003 -1.282496e-001 1.687859e-001 -2.549233e-001 -2.377757e-001 -6.849463e-002 -1.221246e-002 1.607390e-001 -2.549727e-001 -3.785030e-002 2.035908e-002 6.839167e-002 -4.709809e-002 9.088780e-002 5.535632e-003 -8.120010e-002 -7.031723e-002 3.294064e-002 1.006959e-003 8.652722e-003 2.547708e-002 -1.155569e-001 2.504881e-003 -1.522935e-002 -4.442283e-002 -5.139190e-003 1.639274e-002 2.401258e-002 -3.765152e-003 4.830115e-002 2.340834e-002 -1.708885e-002 2.569192e-003 -1.913184e-002 3.380059e-002
<VARIANCE> 39
 4.904947e-003 8.489052e-003 3.697656e-002 6.656720e-002 6.061139e-002 3.208270e-002 3.884276e-002 7.546606e-002 4.123588e-002 2.586623e-002 4.635152e-002 5.149388e-002 5.771670e-002 6.885329e-004 8.062584e-004 1.363878e-003 7.980043e-003 7.018002e-003 9.709820e-003 6.577025e-003 1.292377e-002 7.223263e-003 8.508084e-003 4.064958e-003 2.438114e-003 5.518229e-003 6.354468e-005 2.599355e-004 7.444684e-004 6.802659e-004 1.415500e-003 8.298106e-004 1.131269e-003 1.701525e-003 7.598378e-004 6.066821e-004 1.877620e-003 4.937524e-004 9.946139e-004
<GCONST> -1.380666e+002
<MIXTURE> 10 1.612006e-001
<MEAN> 39
 -6.628734e-002 -3.821781e-001 -1.628170e-001 2.680148e-001 2.160931e-001 3.348872e-001 2.875350e-001 -3.864818e-001 -3.651530e-001 1.912420e-001 2.460540e-001 -3.994656e-002 5.778417e-001 -1.009603e-002 1.202977e-002 2.045949e-002 -2.593229e-002 -7.356136e-003 3.914687e-002 -8.783704e-004 -5.237052e-002 2.884883e-002 1.054449e-002 -3.752808e-002 5.635477e-003 1.593172e-002 9.268274e-003 5.881095e-003 -3.113147e-003 -1.579856e-002 -1.735105e-002 -1.604961e-002 1.142106e-002 3.699908e-002 1.143781e-002 -1.856071e-002 -1.437922e-002 2.275193e-003 -1.078956e-002
<VARIANCE> 39
 7.933064e-003 2.764817e-002 1.828920e-002 4.736286e-002 3.030493e-002 4.256973e-002 3.929339e-002 7.044320e-002 4.468038e-002 3.859998e-002 3.290066e-002 2.371896e-002 1.562307e-002 6.040771e-004 1.370881e-003 8.638051e-004 2.154158e-003 2.504529e-003 3.072252e-003 3.323365e-003 4.233140e-003 4.548008e-003 3.523380e-003 4.709064e-003 3.222046e-003 3.396062e-004 8.917570e-005 3.364591e-004 1.846136e-004 3.695293e-004 5.252450e-004 5.247358e-004 6.286243e-004 5.512015e-004 4.702788e-004 6.670282e-004 3.677329e-004 4.121831e-004 7.152451e-005
<GCONST> -1.583142e+002
<MIXTURE> 11 6.325684e-002
<MEAN> 39
 1.295053e-001 -6.921485e-002 -1.375321e-001 4.612345e-002 -2.771606e-001 -2.272799e-001 4.337192e-001 1.117922e-001 -4.688341e-002 1.292886e-001 4.372160e-002 -1.364815e-001 1.899391e-001 3.478948e-003 5.696603e-002 7.486470e-002 -3.490629e-002 -1.259976e-002 1.983917e-003 -4.915849e-002 -8.767511e-002 5.461870e-003 3.514841e-002 -5.512896e-002 7.957576e-003 -6.926534e-002 -6.886580e-003 -2.847924e-003 -1.702997e-002 1.657628e-002 5.614205e-002 1.825616e-002 -4.694423e-002 1.413380e-002 5.883217e-003 -4.109535e-002 -1.187650e-002 2.159324e-002 -3.537349e-002
<VARIANCE> 39
 1.166500e-002 1.712888e-002 2.118098e-002 2.355780e-002 2.621509e-002 6.829509e-002 6.676980e-002 7.407437e-002 4.203039e-002 2.729465e-002 1.967537e-002 5.286683e-002 4.430122e-002 3.311563e-003 3.893375e-003 7.971860e-003 4.953998e-003 6.160800e-003 5.604246e-003 6.124957e-003 2.572384e-002 6.842836e-003 8.369021e-003 4.658751e-003 5.205253e-003 1.037716e-002 3.449963e-004 6.709767e-004 3.311980e-004 8.156709e-004 1.290058e-003 1.558313e-003 7.375898e-004 1.776403e-003 8.146156e-004 8.712406e-004 8.352760e-004 1.237653e-003 7.075265e-004
<GCONST> -1.304846e+002
<MIXTURE> 12 1.039257e-002
<MEAN> 39
 1.000947e-002 1.190502e-002 2.297964e-001 1.888693e-001 -1.310032e-001 -1.592119e-001 -1.716029e-001 -6.823459e-001 -2.000757e-001 2.667105e-001 7.980900e-002 2.110177e-001 -1.969437e-001 -9.566518e-002 9.631005e-002 9.104948e-002 -3.541719e-002 1.154301e-001 6.656484e-002 -4.858846e-002 -1.978704e-003 7.657912e-002 9.750078e-003 -1.003655e-001 -1.424968e-002 -1.324687e-001 -8.431630e-003 1.906335e-003 -4.927532e-002 -8.449052e-003 2.693020e-002 2.665147e-002 3.416807e-002 9.103051e-002 1.307863e-002 -4.916332e-002 9.470586e-003 -1.260344e-002 -1.075052e-002
<VARIANCE> 39
 3.052828e-002 3.892929e-002 1.857347e-002 2.522686e-002 6.665739e-002 6.125896e-002 7.989714e-002 9.058256e-002 1.089176e-001 3.346409e-002 6.554873e-003 5.060818e-002 6.289174e-002 8.041703e-004 4.335450e-003 9.034041e-003 2.378813e-003 6.076014e-003 4.771206e-003 1.703534e-003 1.012080e-002 5.231956e-003 4.386561e-003 7.302752e-003 7.081470e-003 1.301718e-003 2.595490e-005 7.580938e-004 2.654106e-004 4.936104e-004 1.996898e-003 1.118688e-003 2.833483e-003 5.362512e-004 2.377127e-003 8.282585e-004 3.031612e-004 1.123330e-003 1.516826e-003
<GCONST> -1.359951e+002
<TRANSP> 5
 0.000000e+000 1.000000e+000 0.000000e+000 0.000000e+000 0.000000e+000
 0.000000e+000 6.604056e-001 3.395944e-001 0.000000e+000 0.000000e+000
 0.000000e+000 0.000000e+000 6.656600e-001 3.343401e-001 0.000000e+000
 0.000000e+000 0.000000e+000 0.000000e+000 6.207002e-001 3.792998e-001
 0.000000e+000 0.000000e+000 0.000000e+000 0.000000e+000 0.000000e+000
<ENDHMM>
~h "A"
<BEGINHMM>
<NUMSTATES> 5
<STATE> 2
<NUMMIXES> 12
<MIXTURE> 1 1.186464e-001
<MEAN> 39
 -1.052466e-001 -3.853698e-001 8.513679e-002 2.190882e-001 1.324721e-001 1.806891e-001 -2.702807e-001 -2.827397e-001 2.024661e-001 3.957310e-002 2.525537e-002 1.198116e-001 4.902990e-001 -6.066483e-004 -4.561259e-003 1.454871e-003 8.975716e-003 -3.595922e-003 -5.591399e-003 3.315977e-003 -1.892366e-003 -5.517162e-004 7.381416e-003 -1.780875e-003 -2.685921e-003 -2.170010e-003 4.778093e-003 6.784211e-003 -7.669603e-003 -1.165789e-002 -2.506806e-003 3.273739e-003 7.461782e-003 1.589317e-003 -8.184093e-003 -3.503671e-004 5.186213e-003 -1.682357e-003 -5.242250e-003
<VARIANCE> 39
 1.264655e-002 2.372204e-002 2.817800e-002 5.566073e-002 6.410948e-002 5.775725e-002 5.897084e-002 4.997427e-002 4.560220e-002 4.833796e-002 5.326702e-002 3.786784e-002 2.244186e-002 4.173005e-004 8.289325e-004 1.124531e-003 2.244232e-003 2.024113e-003 2.104450e-003 2.364954e-003 1.962600e-003 2.318650e-003 2.257172e-003 2.380716e-003 1.967458e-003 2.547409e-004 8.029574e-005 1.543629e-004 1.923948e-004 3.169775e-004 3.419156e-004 3.353242e-004 4.133421e-004 3.524293e-004 3.857220e-004 3.707293e-004 4.097322e-004 3.445690e-004 4.743429e-005
<GCONST> -1.635905e+002
<MIXTURE> 2 8.540000e-002
<MEAN> 39
 7.012597e-002 -3.528825e-001 -3.506707e-001 3.373167e-001 2.491557e-001 -6.759448e-002 1.464202e-001 9.838297e-002 -2.981255e-001 -1.680638e-001 2.628571e-001 1.532899e-001 4.449494e-001 -1.606643e-002 -2.020439e-002 2.002031e-002 2.320839e-002 -5.908614e-004 1.304962e-002 1.700571e-002 -3.857902e-002 -3.477156e-002 3.291034e-002 3.679389e-002 -1.202167e-002 1.244026e-002 5.771161e-003 1.876016e-002 1.198605e-002 -1.953461e-002 -1.627361e-002 -3.370834e-003 -1.217652e-002 -2.752719e-004 2.593490e-002 1.398640e-002 -2.497198e-002 -1.643416e-002 -1.895739e-002
<VARIANCE> 39
 1.545255e-002 2.364118e-002 3.543478e-002 5.682547e-002 6.623464e-002 4.904438e-002 6.723815e-002 5.617394e-002 5.855715e-002 4.704002e-002 4.944451e-002 3.652959e-002 3.870190e-002 6.986504e-004 1.363074e-003 2.435965e-003 3.098575e-003 3.963651e-003 3.582328e-003 4.837477e-003 5.127843e-003 4.404766e-003 4.625860e-003 4.151465e-003 3.556024e-003 8.532259e-004 1.675894e-004 3.604287e-004 4.755472e-004 5.486090e-004 6.376916e-004 7.535891e-004 8.620273e-004 7.966136e-004 9.116292e-004 7.438586e-004 7.852276e-004 5.883718e-004 2.646978e-004
<GCONST> -1.431827e+002
<MIXTURE> 3 7.859669e-002
<MEAN> 39
 -7.193326e-002 -3.339638e-001 -2.818406e-002 7.446802e-002 2.386886e-001 3.365768e-001 -2.896972e-001 -3.510424e-001 1.750467e-001 3.310452e-002 8.141634e-002 8.776803e-002 5.090514e-001 -1.974322e-002 -3.608028e-002 2.563943e-002 6.518263e-002 1.526417e-002 -2.220012e-002 -2.530287e-002 -1.539203e-002 1.974155e-002 3.300354e-002 -5.826830e-003 -1.384733e-002 1.531955e-002 1.183364e-002 2.323484e-002 5.272829e-004 -1.531789e-002 -3.070371e-002 -2.678114e-002 3.278799e-002 2.461186e-002 -1.816343e-002 -3.928058e-003 -1.047014e-002 -1.787531e-003 -2.333311e-002
<VARIANCE> 39
 1.382816e-002 2.554289e-002 2.760456e-002 4.819070e-002 5.361585e-002 5.474693e-002 6.068072e-002 5.227561e-002 4.463822e-002 5.575457e-002 4.693333e-002 3.914274e-002 2.634087e-002 7.881327e-004 1.782706e-003 2.081674e-003 4.644841e-003 4.355774e-003 4.504316e-003 5.649104e-003 4.361440e-003 4.756068e-003 5.637376e-003 4.571420e-003 4.151546e-003 7.047187e-004 1.745563e-004 3.662519e-004 3.882675e-004 5.662934e-004 6.688082e-004 7.677457e-004 7.142602e-004 8.145693e-004 8.220082e-004 9.172386e-004 9.182885e-004 7.421697e-004 2.539449e-004
<GCONST> -1.428490e+002
<MIXTURE> 4 1.074200e-001
<MEAN> 39
 -4.082515e-002 -4.332145e-001 -1.186922e-001 4.417713e-001 1.892249e-001 9.602327e-002 9.525155e-002 -3.226664e-001 -2.717137e-001 2.983894e-001 2.224057e-001 -1.309966e-001 5.228820e-001 -8.844906e-003 -2.792470e-003 1.596551e-002 -3.892614e-003 -4.794157e-003 1.119259e-002 -2.755565e-003 -2.295251e-002 1.635233e-002 1.963354e-002 -1.758697e-002 -4.314952e-003 2.076651e-003 1.034080e-002 1.793097e-002 -9.206651e-004 -2.936358e-002 -1.645570e-002 -6.294870e-003 -9.960311e-004 2.785775e-002 1.553836e-002 -3.186465e-002 -1.584354e-002 1.967910e-002 -1.751261e-002
<VARIANCE> 39
 1.526890e-002 2.889409e-002 3.225702e-002 6.598206e-002 5.433082e-002 7.888606e-002 5.982796e-002 6.816446e-002 6.853766e-002 4.757941e-002 5.876656e-002 3.507029e-002 3.028701e-002 8.760976e-004 1.512211e-003 2.643015e-003 5.991071e-003 3.434516e-003 5.946293e-003 5.239248e-003 5.747971e-003 5.404323e-003 4.839703e-003 5.283659e-003 3.922910e-003 6.933801e-004 1.743320e-004 3.893002e-004 4.210223e-004 6.406234e-004 6.936017e-004 9.539048e-004 8.669199e-004 1.033587e-003 9.203628e-004 7.614790e-004 9.211480e-004 6.552706e-004 2.283606e-004
<GCONST> -1.396308e+002
<MIXTURE> 5 5.904179e-002
<MEAN> 39
 -1.988140e-002 -1.750775e-001 -8.744737e-002 -1.812937e-001 2.642227e-002 4.234300e-001 1.870604e-001 -2.738926e-001 -2.625477e-003 -3.108294e-002 -1.696737e-001 1.676906e-001 4.696568e-001 -1.558373e-002 -3.484953e-002 -5.930441e-003 3.705917e-002 4.757594e-002 2.769314e-002 -1.725780e-002 -4.956237e-002 -2.616413e-002 1.222912e-002 3.073474e-002 1.078880e-002 2.052287e-002 8.634953e-003 1.700122e-002 1.197981e-002 8.933033e-003 -1.498917e-002 -4.099690e-002 -1.273250e-002 2.449350e-002 8.424356e-004 1.254948e-002 1.352334e-002 -2.312498e-002 -2.726181e-002
<VARIANCE> 39
 1.292757e-002 2.048687e-002 2.519871e-002 4.112824e-002 4.753773e-002 4.451867e-002 5.719951e-002 5.505571e-002 5.492062e-002 5.816943e-002 4.354312e-002 3.796880e-002 3.512114e-002 7.272231e-004 1.768619e-003 1.655388e-003 4.250053e-003 4.027780e-003 4.157236e-003 4.938569e-003 5.339491e-003 6.557391e-003 5.577281e-003 5.127099e-003 4.282322e-003 9.576458e-004 1.706540e-004 3.539560e-004 3.584783e-004 5.306793e-004 6.856113e-004 7.943154e-004 7.576005e-004 9.082652e-004 9.370930e-004 9.518547e-004 7.856915e-004 6.123045e-004 3.468150e-004
<GCONST> -1.428665e+002
<MIXTURE> 6 9.189587e-002
<MEAN> 39
 -7.805872e-003 -3.064718e-001 -1.354400e-001 5.503031e-002 6.580621e-002 3.304196e-001 2.897334e-001 -2.868579e-001 -3.230111e-001 1.406232e-001 1.084366e-001 -3.185007e-003 4.971917e-001 -6.561077e-003 -2.591679e-002 -4.538896e-003 4.344569e-002 3.006678e-002 -8.880956e-003 -1.823750e-002 -2.298040e-002 -2.695862e-002 2.047931e-002 4.273125e-002 -4.603592e-003 6.223143e-003 5.470608e-003 1.295159e-002 4.030498e-003 -8.528622e-003 -1.271698e-002 -1.952831e-002 -7.085269e-003 2.444006e-002 2.116485e-002 -9.668887e-003 -1.322064e-002 -2.320881e-003 -1.227965e-002
<VARIANCE> 39
 1.153039e-002 1.735860e-002 2.286693e-002 3.563565e-002 3.621635e-002 4.916791e-002 5.261283e-002 4.956655e-002 4.816243e-002 3.485370e-002 4.310735e-002 2.700240e-002 2.859754e-002 5.161911e-004 1.085310e-003 1.380122e-003 2.671382e-003 2.626567e-003 3.442015e-003 3.410866e-003 4.341739e-003 3.820708e-003 3.401275e-003 3.903927e-003 2.770343e-003 4.565562e-004 9.822405e-005 2.082524e-004 2.482449e-004 3.619234e-004 4.307200e-004 5.519125e-004 5.562832e-004 6.347431e-004 6.060518e-004 5.414977e-004 5.925856e-004 4.261118e-004 1.171505e-004
<GCONST> -1.561613e+002
<MIXTURE> 7 5.617484e-002
<MEAN> 39
 7.580878e-002 -2.219924e-001 -1.881991e-001 3.080287e-002 -1.288210e-001 8.357082e-002 4.295224e-001 2.971900e-002 -2.897204e-001 6.928459e-002 7.916482e-002 -1.013114e-001 4.017543e-001 -7.094462e-003 -1.476238e-002 -4.591527e-003 4.134577e-003 7.840272e-003 2.070574e-002 1.080878e-002 -2.579039e-002 -1.360431e-002 9.985890e-003 2.343513e-003 3.627351e-003 1.661342e-002 2.640124e-003 2.824918e-002 2.107839e-002 -1.170127e-003 4.190886e-003 -2.450196e-002 -4.989114e-002 3.578403e-003 3.264654e-002 -7.437353e-003 -9.786789e-003 1.082542e-002 -3.772172e-002
<VARIANCE> 39
 1.418963e-002 2.654803e-002 2.940888e-002 4.251065e-002 4.850383e-002 6.398243e-002 5.408418e-002 7.849578e-002 5.562202e-002 4.420339e-002 4.843410e-002 3.187873e-002 4.672245e-002 1.202150e-003 3.081146e-003 4.063570e-003 5.639640e-003 6.312836e-003 8.540419e-003 6.583322e-003 1.012915e-002 6.586499e-003 6.608569e-003 6.526586e-003 4.341521e-003 2.796277e-003 3.264216e-004 5.245565e-004 6.247257e-004 7.025502e-004 8.916809e-004 1.233824e-003 1.041640e-003 1.426996e-003 1.226660e-003 9.270099e-004 1.053192e-003 6.688403e-004 6.721268e-004
<GCONST> -1.312163e+002
<MIXTURE> 8 6.776670e-002
<MEAN> 39
 4.860374e-002 5.471089e-002 -2.539820e-002 -4.206050e-001 -1.819616e-001 1.641244e-001 9.651967e-002 1.247481e-001 2.129403e-001 -4.646894e-002 -1.633312e-001 -1.845806e-002 2.694794e-001 1.146180e-002 2.726640e-002 1.285501e-002 -2.595265e-002 -3.893858e-002 -1.910524e-002 -5.738525e-003 -4.788665e-003 2.431796e-002 1.081126e-002 -2.228190e-002 3.910902e-003 7.766305e-003 -9.307757e-004 1.420578e-002 1.622245e-002 4.683847e-002 9.286372e-003 -3.218209e-002 -1.657852e-002 -1.873171e-002 -2.815097e-002 5.191163e-003 1.511194e-002 3.060461e-003 -4.694661e-002
<VARIANCE> 39
 1.661112e-002 3.360705e-002 3.992977e-002 5.179589e-002 7.836404e-002 7.628057e-002 7.259234e-002 8.104763e-002 7.002433e-002 9.082453e-002 7.359952e-002 5.990647e-002 4.875355e-002 1.894230e-003 4.206125e-003 3.775899e-003 5.861034e-003 7.189203e-003 7.692072e-003 7.488733e-003 7.361338e-003 7.688772e-003 7.479806e-003 6.495917e-003 5.262576e-003 6.959484e-003 5.819737e-004 6.755224e-004 8.277517e-004 1.079713e-003 1.564902e-003 1.538273e-003 1.543220e-003 1.682636e-003 1.526307e-003 1.683919e-003 1.494444e-003 1.182263e-003 1.108426e-003
<GCONST> -1.202329e+002
<MIXTURE> 9 1.055429e-001
<MEAN> 39
 -1.469059e-001 -4.205041e-001 1.333051e-001 3.522664e-001 2.514796e-002 -1.826782e-002 -2.268531e-001 -1.976134e-001 2.105756e-001 1.019148e-001 7.953551e-002 1.463166e-001 5.179863e-001 -2.378328e-004 -2.672011e-003 -1.117693e-003 -5.178929e-003 -1.147910e-003 5.606620e-003 2.644572e-003 8.299664e-003 9.335158e-003 1.697101e-003 1.094598e-003 9.461567e-005 -5.068723e-003 1.078685e-002 1.058265e-002 -1.522217e-002 -2.160253e-002 1.276644e-003 1.094663e-002 1.068900e-002 3.579492e-003 -1.356972e-002 9.108828e-004 8.550124e-003 -7.371874e-003 -9.753262e-003
<VARIANCE> 39
 1.582184e-002 3.808062e-002 5.100370e-002 8.509613e-002 9.459985e-002 7.292227e-002 9.666999e-002 1.096633e-001 9.411427e-002 9.518369e-002 9.766908e-002 7.211661e-002 3.500194e-002 8.588627e-004 1.414983e-003 3.145289e-003 5.128322e-003 5.239587e-003 5.336807e-003 5.778973e-003 5.441944e-003 6.328594e-003 5.893552e-003 6.365674e-003 5.414650e-003 5.691336e-004 1.742796e-004 3.295365e-004 4.899335e-004 7.473478e-004 8.798463e-004 8.001660e-004 1.100022e-003 1.081977e-003 1.122780e-003 1.159127e-003 1.199500e-003 1.036898e-003 1.569808e-004
<GCONST> -1.323836e+002
<MIXTURE> 10 6.290917e-002
<MEAN> 39
 -7.592028e-002 -3.460229e-001 -7.727624e-002 1.577807e-001 1.838603e-001 2.482493e-001 -5.792793e-002 -3.075259e-001 -3.400873e-002 1.123183e-001 2.020683e-001 8.559737e-002 5.150310e-001 -2.636588e-002 -3.482763e-002 1.508445e-002 4.775561e-002 3.634240e-002 6.192583e-003 -3.297595e-002 -3.409217e-002 7.427999e-003 7.789907e-003 9.126543e-003 4.442943e-003 2.795243e-002 1.339595e-002 3.501332e-002 1.200645e-002 -1.587380e-002 -3.077886e-002 -3.874210e-002 7.357713e-003 4.039213e-002 7.163627e-003 -9.083970e-003 -2.418463e-002 -9.498575e-003 -4.068283e-002
<VARIANCE> 39
 2.059683e-002 4.229845e-002 4.879191e-002 1.044562e-001 8.477210e-002 9.056445e-002 1.112659e-001 1.028941e-001 1.481683e-001 1.183095e-001 1.060574e-001 8.638588e-002 4.971114e-002 2.243359e-003 4.393416e-003 5.396360e-003 1.098574e-002 8.586061e-003 9.261077e-003 1.093150e-002 1.071226e-002 1.229340e-002 1.219641e-002 1.030346e-002 8.797079e-003 3.195923e-003 4.522902e-004 8.533814e-004 9.636520e-004 1.370466e-003 1.370964e-003 1.629173e-003 2.018074e-003 1.914901e-003 2.636699e-003 2.265687e-003 2.098869e-003 1.756507e-003 7.975044e-004
<GCONST> -1.107909e+002
<MIXTURE> 11 8.953044e-002
<MEAN> 39
 3.518332e-002 -8.561207e-002 -9.225589e-002 -1.866520e-001 -3.642223e-003 2.345445e-001 1.018299e-001 -5.915169e-002 1.374237e-002 -3.705446e-002 -7.772935e-002 2.560336e-002 3.283201e-001 -1.413925e-003 -3.610147e-003 6.599352e-005 3.704537e-003 2.850345e-003 1.347044e-003 -9.583081e-004 -5.281641e-003 -3.421886e-003 2.664843e-003 3.136302e-003 1.741384e-003 -1.040029e-003 1.920516e-003 2.457450e-003 3.073160e-003 3.730818e-003 -6.599015e-003 -1.001635e-002 -5.643036e-004 2.271461e-003 -1.988440e-004 4.331756e-003 1.456692e-003 -1.818261e-003 -5.557219e-003
<VARIANCE> 39
 1.442967e-002 2.398592e-002 3.340420e-002 5.379549e-002 7.279105e-002 7.014869e-002 8.144285e-002 6.985472e-002 6.672756e-002 6.035073e-002 6.090548e-002 4.527457e-002 5.383144e-002 3.415164e-004 9.497720e-004 1.041052e-003 1.687749e-003 2.099537e-003 2.251593e-003 2.579710e-003 2.698267e-003 2.844798e-003 2.683725e-003 2.561067e-003 2.102170e-003 4.210985e-004 7.195432e-005 1.716729e-004 2.125570e-004 2.880216e-004 4.282269e-004 4.458817e-004 5.081536e-004 5.035699e-004 5.081960e-004 4.981976e-004 4.978595e-004 4.063255e-004 9.062994e-005
<GCONST> -1.567874e+002
<MIXTURE> 12 7.706945e-002
<MEAN> 39
 1.037775e-001 9.913347e-002 3.734170e-002 -1.003904e-003 -1.230057e-001 -1.603774e-001 -4.455332e-002 1.008808e-002 -3.348321e-002 1.424046e-002 -9.887922e-003 -2.862085e-003 -7.032562e-002 -5.928202e-003 2.348623e-002 2.787755e-002 7.658230e-003 -8.427189e-003 -2.004257e-002 -1.151051e-002 -7.236188e-003 -5.392777e-003 -4.204398e-004 -1.074338e-003 2.673300e-003 -3.611409e-002 -9.768434e-003 -1.042883e-002 -7.100085e-003 -5.325127e-004 9.785303e-003 1.573981e-002 6.514220e-003 3.255099e-004 5.283206e-003 -1.296496e-003 -5.863135e-004 2.403162e-004 8.535849e-003
<VARIANCE> 39
 3.667787e-002 5.567139e-002 6.284841e-002 7.722005e-002 8.816172e-002 8.627000e-002 9.158379e-002 9.784478e-002 7.746173e-002 7.165843e-002 6.853335e-002 4.914410e-002 9.555543e-002 4.003345e-003 5.567067e-003 6.311237e-003 6.904122e-003 7.783008e-003 9.351546e-003 9.349760e-003 9.056172e-003 8.154487e-003 7.193057e-003 6.431592e-003 4.917567e-003 9.025279e-003 5.180603e-004 7.403780e-004 8.819934e-004 1.009567e-003 1.267324e-003 1.290838e-003 1.500708e-003 1.631611e-003 1.337598e-003 1.227177e-003 1.183853e-003 8.668235e-004 8.469121e-004
<GCONST> -1.162763e+002
<STATE> 3
<NUMMIXES> 12
<MIXTURE> 1 8.382689e-002
<MEAN> 39
 -8.399981e-002 -3.628768e-001 8.725685e-003 1.050592e-001 1.823700e-001 2.574226e-001 -2.947068e-001 -3.120439e-001 2.004315e-001 3.718197e-002 7.990638e-002 1.234254e-001 4.818128e-001 2.462511e-002 3.624931e-002 -2.928015e-002 -6.957375e-002 -1.767281e-002 2.028065e-002 2.519962e-002 1.625212e-002 -1.812486e-002 -2.234091e-002 9.322511e-003 5.662244e-003 -3.039102e-002 1.465120e-002 2.608377e-002 -3.728947e-004 -1.350869e-002 -2.759226e-002 -2.108333e-002 2.520007e-002 1.822695e-002 -1.759572e-002 -1.312590e-003 -8.447682e-003 -6.123971e-003 -2.471675e-002
<VARIANCE> 39
 1.410829e-002 2.722000e-002 2.786800e-002 5.461032e-002 6.276144e-002 5.844399e-002 5.769222e-002 5.337774e-002 4.645997e-002 5.571562e-002 5.095952e-002 4.057073e-002 2.384486e-002 8.003041e-004 1.590624e-003 2.003351e-003 4.383409e-003 4.562769e-003 4.261511e-003 5.428826e-003 3.768649e-003 4.362124e-003 4.656451e-003 4.119156e-003 3.586652e-003 7.070651e-004 1.502673e-004 3.367512e-004 3.651938e-004 5.160561e-004 7.307759e-004 7.373882e-004 7.125281e-004 6.854066e-004 7.575158e-004 7.490334e-004 8.568584e-004 6.193591e-004 2.355089e-004
<GCONST> -1.444188e+002
<MIXTURE> 2 8.929108e-002
<MEAN> 39
 2.784205e-002 -4.640399e-001 -1.040959e-001 5.325757e-001 5.436102e-002 -5.726657e-002 6.890503e-002 -1.436990e-001 -1.638288e-001 2.055068e-001 1.916022e-001 -1.257761e-001 4.081374e-001 1.281182e-003 -7.657647e-004 -1.552417e-004 -7.440117e-004 -1.475189e-003 -3.793762e-004 3.982770e-004 -9.972581e-004 1.863156e-003 2.922201e-003 1.082837e-003 -1.026904e-003 -5.948866e-003 9.596294e-004 6.158553e-003 -1.985603e-003 -1.302607e-002 1.153515e-003 6.438243e-003 -1.752655e-003 -1.895814e-003 1.737037e-003 -5.268698e-003 -2.375133e-003 7.793199e-003 -2.899220e-003
<VARIANCE> 39
 1.613576e-002 2.353412e-002 4.015971e-002 5.042520e-002 6.614790e-002 4.863558e-002 4.843397e-002 5.920852e-002 5.582510e-002 4.957023e-002 5.507644e-002 3.891221e-002 2.896474e-002 4.990405e-004 7.303445e-004 1.306950e-003 1.787957e-003 1.679926e-003 2.305143e-003 2.168510e-003 2.532939e-003 2.424447e-003 2.071550e-003 2.085310e-003 1.859786e-003 3.479827e-004 8.846519e-005 1.507792e-004 2.301056e-004 3.093499e-004 3.069621e-004 3.646601e-004 4.018697e-004 3.937702e-004 3.874168e-004 3.694455e-004 3.665407e-004 3.308737e-004 5.607265e-005
<GCONST> -1.622905e+002
<MIXTURE> 3 1.161340e-001
<MEAN> 39
 5.546152e-002 -3.478951e-001 -2.874294e-001 2.605616e-001 1.760674e-001 3.039518e-002 2.180351e-001 -1.531750e-002 -3.778118e-001 -4.650774e-002 3.035526e-001 8.764971e-002 4.314824e-001 1.279062e-003 3.256957e-004 2.756519e-003 -2.559961e-003 -5.382231e-003 1.370925e-003 -7.441993e-004 -3.366274e-003 1.709154e-003 3.819530e-003 -1.865599e-003 -3.073123e-003 -6.961039e-003 2.959133e-003 6.362978e-003 2.521016e-003 -7.748588e-003 -7.057202e-003 -1.750830e-003 -1.974516e-003 5.069709e-003 1.163413e-002 -6.985019e-004 -1.425857e-002 -2.774633e-003 -5.915008e-003
<VARIANCE> 39
 1.302491e-002 1.927420e-002 2.856986e-002 4.215463e-002 5.362241e-002 4.377298e-002 6.145318e-002 4.924005e-002 4.739008e-002 4.491563e-002 3.785517e-002 3.305913e-002 3.528657e-002 4.479879e-004 8.012716e-004 1.273046e-003 1.720286e-003 2.055588e-003 2.210166e-003 2.425412e-003 3.042698e-003 2.325032e-003 2.755407e-003 2.388763e-003 1.978650e-003 3.597344e-004 8.552196e-005 1.682582e-004 2.321503e-004 2.904279e-004 3.671578e-004 4.058129e-004 4.567840e-004 4.753578e-004 4.692182e-004 4.192041e-004 4.308487e-004 3.376715e-004 7.466069e-005
<GCONST> -1.618290e+002
<MIXTURE> 4 1.119081e-001
<MEAN> 39
 -4.796586e-002 -3.786278e-001 -7.439919e-002 2.187816e-001 1.669330e-001 2.721304e-001 6.438892e-002 -4.217517e-001 -1.100925e-001 2.946777e-001 6.944780e-002 -4.645294e-002 4.859706e-001 3.405936e-003 4.028938e-003 -1.338731e-003 -1.211349e-002 -6.560109e-003 3.258660e-003 1.948815e-003 3.434341e-003 4.109674e-004 -6.118599e-003 -2.030718e-003 6.377137e-003 -9.212746e-003 5.784495e-003 8.409133e-003 -2.375740e-003 -1.152536e-002 -1.098921e-002 -5.039868e-003 5.817300e-003 1.815741e-002 -1.856098e-003 -1.811133e-002 -5.850809e-004 6.473280e-003 -7.905197e-003
<VARIANCE> 39
 1.144817e-002 2.071019e-002 2.205615e-002 4.638560e-002 3.791672e-002 5.142344e-002 5.147299e-002 4.104529e-002 6.193962e-002 3.606693e-002 4.051426e-002 3.108649e-002 2.783596e-002 4.468694e-004 9.088938e-004 1.181467e-003 2.942120e-003 1.822464e-003 2.901389e-003 2.659804e-003 2.441195e-003 2.829435e-003 2.495989e-003 2.588938e-003 2.296180e-003 3.304546e-004 8.059055e-005 1.717829e-004 1.969072e-004 3.545231e-004 3.390825e-004 4.092139e-004 4.371981e-004 4.567144e-004 4.312099e-004 4.013987e-004 4.327250e-004 3.727988e-004 6.340785e-005
<GCONST> -1.622722e+002
<MIXTURE> 5 5.572288e-002
<MEAN> 39
 3.777379e-002 -2.159911e-001 -1.503976e-001 -4.447750e-002 -1.243586e-001 1.830530e-001 4.431529e-001 -5.388269e-002 -2.623721e-001 1.177783e-001 -6.630767e-003 -1.052278e-001 4.288038e-001 2.431669e-002 4.889873e-002 2.897429e-002 -2.037234e-002 -5.914841e-002 -6.681726e-002 -2.147020e-002 4.760556e-002 4.068331e-002 8.121088e-003 -1.600215e-002 -2.187787e-002 -5.385184e-002 7.351343e-003 2.411402e-002 1.679112e-002 9.362055e-003 2.196715e-003 -3.064093e-002 -4.365362e-002 5.887248e-003 1.707136e-002 -1.058185e-002 6.245988e-003 1.197390e-002 -3.532063e-002
<VARIANCE> 39
 1.274340e-002 2.177593e-002 2.458300e-002 3.341047e-002 4.095653e-002 5.279428e-002 4.592284e-002 6.114232e-002 5.307843e-002 3.858559e-002 4.563616e-002 2.928260e-002 3.787459e-002 8.477970e-004 2.007871e-003 2.491530e-003 4.331484e-003 4.613110e-003 6.792531e-003 5.317559e-003 8.088702e-003 6.119105e-003 5.306792e-003 6.531290e-003 3.591529e-003 1.529881e-003 1.858910e-004 3.904433e-004 4.291692e-004 5.422470e-004 6.803928e-004 9.380138e-004 8.216175e-004 1.068614e-003 9.753935e-004 8.243426e-004 8.676073e-004 6.133083e-004 4.644808e-004
<GCONST> -1.404111e+002
<MIXTURE> 6 7.513541e-002
<MEAN> 39
 -2.390917e-002 -2.549570e-001 -9.601279e-002 -5.936610e-002 7.124111e-002 4.217345e-001 2.019484e-001 -3.188873e-001 -1.469038e-001 6.892087e-002 -3.354616e-002 8.833216e-002 4.666350e-001 1.311240e-002 3.552846e-002 8.266862e-003 -5.243454e-002 -5.227662e-002 -1.219512e-002 2.035017e-002 4.537927e-002 3.456786e-002 -2.307035e-002 -4.409736e-002 -1.848473e-003 -2.372959e-002 9.833314e-003 1.847567e-002 7.402158e-003 -7.101426e-005 -2.002909e-002 -3.556066e-002 -5.688358e-003 2.688190e-002 1.108381e-002 2.024257e-003 -1.219157e-004 -1.412429e-002 -2.108262e-002
<VARIANCE> 39
 1.120846e-002 2.046575e-002 2.359733e-002 4.212754e-002 4.003398e-002 4.562786e-002 5.448814e-002 5.091919e-002 6.433021e-002 4.659746e-002 4.596029e-002 3.306483e-002 3.181199e-002 4.905363e-004 1.247573e-003 1.234849e-003 3.167663e-003 2.812452e-003 3.479253e-003 3.989512e-003 3.688802e-003 4.281429e-003 3.852655e-003 3.775912e-003 3.042028e-003 4.823096e-004 1.008641e-004 2.454605e-004 2.754455e-004 4.084639e-004 4.937113e-004 6.170743e-004 5.710158e-004 6.955139e-004 7.057111e-004 7.062253e-004 6.856793e-004 4.924934e-004 1.876251e-004
<GCONST> -1.522507e+002
<MIXTURE> 7 6.741074e-002
<MEAN> 39
 7.745651e-002 1.071783e-001 2.713751e-002 -3.882400e-001 -2.638630e-001 9.438008e-002 6.650152e-002 7.855971e-002 2.351863e-001 4.611102e-003 -1.884611e-001 -9.625111e-003 2.193307e-001 1.386936e-002 4.931632e-002 3.741461e-002 3.582725e-002 -2.310240e-002 -6.383174e-002 -3.199787e-002 -3.256680e-002 -1.903810e-002 1.742770e-002 2.912982e-003 6.636881e-003 -5.802922e-002 -3.408388e-003 5.358636e-003 6.138001e-003 3.584228e-002 1.686678e-002 -1.993688e-002 -7.874180e-003 -9.178348e-003 -2.842900e-002 -1.296911e-003 1.655380e-002 4.640963e-004 -3.127196e-002
<VARIANCE> 39
 1.486423e-002 3.162500e-002 3.776212e-002 4.803528e-002 6.385049e-002 7.042070e-002 7.039630e-002 7.820678e-002 6.326062e-002 8.575778e-002 6.557000e-002 5.524166e-002 4.155048e-002 1.364017e-003 3.273236e-003 3.518922e-003 4.894068e-003 6.360209e-003 7.284369e-003 7.327660e-003 7.531818e-003 7.863328e-003 7.192165e-003 6.786979e-003 5.332263e-003 4.536917e-003 4.225431e-004 5.749748e-004 6.948654e-004 9.269383e-004 1.226950e-003 1.304417e-003 1.289109e-003 1.423301e-003 1.258265e-003 1.412986e-003 1.223233e-003 9.862118e-004 8.162886e-004
<GCONST> -1.254163e+002
<MIXTURE> 8 5.520019e-002
<MEAN> 39
 8.392514e-002 -3.320841e-001 -3.445838e-001 2.726550e-001 1.928155e-001 -6.729129e-002 2.031975e-001 1.467447e-001 -3.105924e-001 -2.003664e-001 2.367812e-001 1.500137e-001 4.274552e-001 2.859608e-002 3.837275e-002 -7.626445e-003 -3.373324e-002 -2.280416e-002 -4.132829e-002 -3.269203e-002 5.698555e-002 6.220985e-002 -2.062958e-002 -5.496792e-002 -4.943931e-003 -4.448742e-002 6.778608e-003 2.634361e-002 1.831089e-002 -1.480620e-002 -1.473211e-002 -9.008454e-003 -2.636950e-002 -7.008279e-003 3.049140e-002 2.074643e-002 -2.381844e-002 -1.783468e-002 -2.792793e-002
<VARIANCE> 39
 1.351268e-002 2.233849e-002 3.381666e-002 5.054967e-002 5.780742e-002 4.316658e-002 6.335005e-002 5.225406e-002 5.781440e-002 3.909253e-002 4.710490e-002 3.354247e-002 3.460316e-002 7.719685e-004 1.729127e-003 3.546064e-003 3.345208e-003 4.799934e-003 4.508579e-003 6.093667e-003 6.610840e-003 5.209109e-003 5.840697e-003 4.474098e-003 3.932832e-003 1.037486e-003 1.642044e-004 3.329012e-004 5.434895e-004 5.567136e-004 6.828856e-004 7.992965e-004 8.860718e-004 9.107088e-004 9.633323e-004 7.791619e-004 8.650614e-004 6.337420e-004 3.243560e-004
<GCONST> -1.410955e+002
<MIXTURE> 9 7.528040e-002
<MEAN> 39
 1.167879e-002 -4.332184e-001 -1.665309e-001 3.518190e-001 1.022171e-001 1.063499e-001 1.540108e-001 -2.553115e-001 -2.784694e-001 2.209419e-001 2.338856e-001 -6.806722e-002 4.585170e-001 3.299798e-002 3.060886e-002 -1.908804e-002 -3.407376e-002 -3.874475e-002 -3.257005e-002 2.333618e-002 6.128400e-002 -1.260738e-002 -4.387221e-002 -4.212744e-003 1.290326e-002 -4.180165e-002 1.066843e-002 3.147344e-002 1.177932e-002 -2.041437e-002 -1.590961e-002 -1.985340e-002 -1.295310e-002 2.546337e-002 1.721727e-002 -2.169246e-002 -2.045909e-002 7.400698e-003 -2.834118e-002
<VARIANCE> 39
 1.295407e-002 2.116679e-002 2.852593e-002 4.975889e-002 4.356821e-002 5.604461e-002 5.185356e-002 5.303799e-002 5.647964e-002 3.862322e-002 4.533070e-002 3.220591e-002 2.717277e-002 7.370005e-004 1.755722e-003 2.366047e-003 4.742015e-003 3.641773e-003 5.182525e-003 4.811202e-003 5.963329e-003 4.369206e-003 4.127756e-003 4.258033e-003 3.214756e-003 9.162998e-004 1.473662e-004 3.279716e-004 4.092905e-004 5.586935e-004 5.895401e-004 8.329963e-004 7.229337e-004 8.509365e-004 8.153835e-004 5.976036e-004 7.311664e-004 5.616738e-004 2.461391e-004
<GCONST> -1.451791e+002
<MIXTURE> 10 7.171958e-002
<MEAN> 39
 8.237450e-002 1.086803e-001 5.963691e-002 1.498143e-002 -1.099365e-001 -1.686362e-001 -4.760814e-002 3.231072e-004 -5.283070e-002 6.269793e-003 7.685421e-004 6.321942e-003 -1.048410e-001 -1.756611e-002 1.663661e-002 2.237158e-002 8.589755e-003 4.122454e-003 -5.922749e-003 -8.672955e-003 -7.228135e-003 2.478492e-003 -1.492756e-003 -3.007862e-003 2.597358e-003 -3.555518e-002 -7.766570e-003 -1.106054e-002 -9.594126e-003 -1.849041e-003 8.874908e-003 1.601086e-002 6.874321e-003 3.272942e-003 7.925821e-003 -1.376173e-003 -1.828816e-003 -1.014913e-003 9.542253e-003
<VARIANCE> 39
 3.922098e-002 5.755330e-002 6.367486e-002 8.034942e-002 8.938935e-002 9.252013e-002 9.258969e-002 9.527946e-002 7.821220e-002 7.235263e-002 6.782284e-002 4.752737e-002 9.686814e-002 4.061149e-003 4.692217e-003 5.602536e-003 6.185756e-003 7.146468e-003 7.776079e-003 8.466390e-003 8.267266e-003 7.365508e-003 6.558106e-003 6.122977e-003 4.584174e-003 7.583022e-003 5.343557e-004 7.627626e-004 9.893953e-004 1.058879e-003 1.292743e-003 1.379778e-003 1.552217e-003 1.564236e-003 1.347086e-003 1.257590e-003 1.156791e-003 8.542102e-004 9.873590e-004
<GCONST> -1.169509e+002
<MIXTURE> 11 1.336305e-001
<MEAN> 39
 -1.608614e-002 -3.367216e-001 -8.602855e-002 2.268976e-001 8.790224e-002 1.683636e-001 8.864622e-002 -2.519772e-001 -1.321236e-001 1.466600e-001 1.213509e-001 -9.551242e-003 4.161657e-001 9.951636e-004 -1.087646e-003 -1.187070e-003 2.202251e-003 -3.464993e-004 -2.553051e-003 1.464167e-003 1.580295e-003 -3.388198e-003 1.123500e-003 2.733848e-003 -1.329214e-003 -3.756718e-003 9.237631e-004 1.859304e-003 -9.204156e-004 -2.872619e-003 -1.282335e-003 -1.776554e-004 1.189818e-003 1.892816e-003 -6.441228e-004 -1.430116e-003 -5.554435e-004 4.111326e-004 -1.400733e-003
<VARIANCE> 39
 1.124054e-002 1.850673e-002 2.808603e-002 5.592655e-002 4.392060e-002 5.117836e-002 6.430145e-002 5.240894e-002 7.745969e-002 4.778649e-002 5.025379e-002 3.229917e-002 2.415721e-002 2.271565e-004 4.272617e-004 5.419206e-004 8.856647e-004 8.369136e-004 1.024312e-003 1.051972e-003 1.069092e-003 1.094664e-003 1.048421e-003 9.959445e-004 8.801477e-004 1.201311e-004 4.060333e-005 7.715933e-005 9.893417e-005 1.402967e-004 1.459497e-004 1.772258e-004 1.907307e-004 1.897430e-004 1.978450e-004 1.814135e-004 1.758640e-004 1.523684e-004 1.761828e-005
<GCONST> -1.836134e+002
<MIXTURE> 12 6.473856e-002
<MEAN> 39
 -8.034158e-002 -3.784634e-001 -5.256757e-002 2.050405e-001 1.317339e-001 1.535134e-001 -3.876345e-002 -2.582502e-001 -6.995359e-003 1.628705e-001 1.792452e-001 6.620956e-002 4.719763e-001 1.921492e-002 2.635970e-002 5.833022e-003 -3.113805e-002 -2.645320e-002 -1.343230e-002 8.832052e-003 2.909004e-002 1.376444e-002 3.164011e-003 -1.854407e-002 -1.437701e-002 -4.262275e-002 1.244483e-002 3.154560e-002 7.218832e-003 -1.514760e-002 -2.057886e-002 -2.315968e-002 2.734848e-003 2.927490e-002 2.588601e-003 -1.370869e-002 -1.632974e-002 -6.068323e-003 -3.281809e-002
<VARIANCE> 39
 2.152972e-002 4.849080e-002 5.723274e-002 1.228806e-001 9.838648e-002 1.081962e-001 1.127858e-001 1.190255e-001 1.495536e-001 1.169102e-001 1.098585e-001 8.804020e-002 5.612708e-002 2.515082e-003 4.145492e-003 6.323397e-003 1.035755e-002 8.231479e-003 9.535383e-003 1.135705e-002 1.070011e-002 1.213875e-002 1.057909e-002 9.415788e-003 9.026221e-003 3.235149e-003 3.986614e-004 7.288069e-004 9.793551e-004 1.293253e-003 1.523968e-003 1.814997e-003 1.907117e-003 1.912393e-003 2.324934e-003 2.123105e-003 2.017487e-003 1.760167e-003 7.249324e-004
<GCONST> -1.101497e+002
<STATE> 4
<NUMMIXES> 12
<MIXTURE> 1 8.736157e-002
<MEAN> 39
 -4.618214e-002 -2.440808e-001 -6.921887e-002 -1.496127e-001 1.902494e-001 3.566985e-001 -1.983147e-001 -2.171244e-001 1.110400e-001 -8.436843e-002 1.442637e-001 1.463019e-001 4.366989e-001 4.573381e-002 8.895160e-002 -1.356261e-002 -9.367133e-002 -8.454277e-002 -3.738067e-002 6.481286e-002 6.550872e-002 -1.346630e-002 -2.621033e-002 -3.508983e-002 -7.264860e-003 -6.907127e-002 9.154328e-003 2.320309e-002 1.331340e-002 1.834705e-002 -2.648726e-002 -4.132440e-002 9.483032e-003 8.660117e-003 -4.567583e-003 1.585272e-002 -2.170202e-002 -1.189717e-002 -2.781509e-002
<VARIANCE> 39
 1.304835e-002 3.148568e-002 2.800466e-002 5.752653e-002 5.962583e-002 6.304968e-002 6.923293e-002 6.759638e-002 5.896613e-002 6.465799e-002 5.734463e-002 5.074093e-002 2.703216e-002 1.208817e-003 2.690727e-003 2.699637e-003 4.607700e-003 6.823405e-003 5.799982e-003 7.242238e-003 6.378514e-003 6.930473e-003 6.944265e-003 6.424436e-003 4.852546e-003 1.752657e-003 1.776902e-004 4.188691e-004 4.711672e-004 7.658988e-004 8.508000e-004 1.030454e-003 1.106115e-003 1.089850e-003 1.213761e-003 1.141021e-003 1.079126e-003 1.010760e-003 3.963468e-004
<GCONST> -1.331093e+002
<MIXTURE> 2 8.966346e-002
<MEAN> 39
 1.746095e-002 -1.941790e-001 -6.204123e-002 -1.681161e-001 -9.997929e-002 3.636213e-001 2.157015e-001 -2.301383e-001 3.514041e-002 4.101520e-002 -1.792264e-001 9.187124e-002 4.083266e-001 4.509435e-002 9.206702e-002 3.201254e-002 -4.126132e-002 -9.937135e-002 -9.464028e-002 3.836536e-003 7.165943e-002 2.647770e-002 6.847587e-003 -3.542759e-002 -3.203690e-002 -9.186751e-002 3.269402e-003 1.689933e-002 1.093120e-002 2.327987e-002 7.940910e-003 -3.373382e-002 -2.616857e-002 4.542449e-003 -1.326137e-002 6.638485e-003 2.275864e-002 -1.045047e-002 -2.971178e-002
<VARIANCE> 39
 1.173530e-002 2.452594e-002 2.353257e-002 4.540481e-002 3.823468e-002 4.539340e-002 5.611898e-002 4.651622e-002 5.721123e-002 4.668340e-002 3.954762e-002 3.470143e-002 2.991337e-002 1.142191e-003 2.601747e-003 2.359125e-003 4.907566e-003 4.835775e-003 6.128762e-003 6.944777e-003 5.674978e-003 9.060150e-003 6.499481e-003 5.732041e-003 4.341862e-003 2.279780e-003 1.753380e-004 3.913386e-004 3.994749e-004 7.187817e-004 7.126560e-004 9.123984e-004 8.742605e-004 1.057524e-003 9.483824e-004 9.816566e-004 8.537633e-004 6.744939e-004 4.926744e-004
<GCONST> -1.383017e+002
<MIXTURE> 3 8.248840e-002
<MEAN> 39
 9.950090e-002 -3.558849e-001 -2.382466e-001 2.458695e-001 -7.256011e-003 5.704947e-003 2.451415e-001 -3.700453e-002 -3.158120e-001 7.713630e-002 2.324915e-001 -3.400084e-002 3.676078e-001 5.045246e-002 1.022150e-001 3.050644e-002 -5.562134e-002 -7.387598e-002 -9.217670e-002 -2.407474e-002 9.385362e-002 2.365474e-002 -5.087870e-002 -4.313268e-002 5.041971e-003 -1.081859e-001 -3.689480e-003 2.819650e-002 2.719866e-002 -4.436520e-003 -1.263473e-003 -1.081004e-002 -3.165464e-002 -6.982935e-003 2.060497e-002 -1.774459e-003 -1.866119e-002 4.033871e-003 -2.748197e-002
<VARIANCE> 39
 1.422040e-002 2.307039e-002 3.150122e-002 4.706248e-002 4.817284e-002 5.123705e-002 5.819632e-002 6.329986e-002 4.656652e-002 4.743285e-002 3.958362e-002 3.547546e-002 3.279209e-002 1.158477e-003 3.165774e-003 3.580828e-003 5.302749e-003 5.081231e-003 6.864418e-003 7.517596e-003 8.758155e-003 7.307741e-003 6.059437e-003 5.597604e-003 4.278404e-003 2.089515e-003 2.127479e-004 4.352404e-004 5.169375e-004 7.545598e-004 7.772736e-004 9.775121e-004 1.004132e-003 1.142328e-003 9.043210e-004 9.010661e-004 8.166212e-004 6.846036e-004 4.949704e-004
<GCONST> -1.354320e+002
<MIXTURE> 4 1.450582e-001
<MEAN> 39
 5.387793e-002 -2.767600e-001 -1.022363e-001 1.811011e-001 2.640193e-002 5.803271e-002 2.248451e-002 -1.555546e-001 -1.056234e-001 8.646453e-002 1.226091e-001 1.219401e-002 2.561896e-001 9.445252e-003 2.022631e-002 6.239798e-003 -1.230898e-002 -9.403228e-003 -1.374005e-002 -1.212194e-002 1.389311e-002 6.550094e-003 -7.377829e-003 -7.386004e-003 1.480769e-003 -3.474677e-002 -1.065751e-004 9.008511e-003 3.638879e-003 -6.136976e-003 -2.113902e-003 -1.529455e-003 -5.822617e-005 3.990665e-003 1.915743e-003 -3.784321e-003 -4.660110e-003 8.903476e-004 -6.060750e-003
<VARIANCE> 39
 1.888306e-002 3.296586e-002 4.038752e-002 7.760172e-002 6.713326e-002 7.283326e-002 7.469935e-002 7.507113e-002 7.614341e-002 5.892989e-002 5.806005e-002 4.240503e-002 5.574108e-002 7.344630e-004 1.579286e-003 2.043671e-003 3.055694e-003 2.789984e-003 3.452253e-003 3.785069e-003 3.912758e-003 3.856789e-003 3.543859e-003 3.408773e-003 2.855043e-003 1.204243e-003 1.124820e-004 2.259866e-004 3.302173e-004 4.159943e-004 4.660217e-004 5.321078e-004 5.794158e-004 5.859089e-004 5.952298e-004 5.646875e-004 5.518498e-004 4.719119e-004 1.636063e-004
<GCONST> -1.462375e+002
<MIXTURE> 5 7.193597e-002
<MEAN> 39
 1.771799e-001 -1.942262e-001 -3.490444e-001 1.369461e-001 8.906028e-002 -1.856413e-001 9.441567e-002 3.228293e-001 -8.563978e-002 -2.179440e-001 4.276615e-002 8.887237e-002 2.867150e-001 3.425716e-002 8.579850e-002 3.733054e-002 -3.937958e-002 -4.179347e-002 -6.776571e-002 -8.727536e-002 2.620433e-002 8.938596e-002 1.863114e-002 -6.275956e-002 -2.432603e-002 -9.560513e-002 -8.114916e-003 8.899355e-003 2.236605e-002 3.822719e-003 -3.602701e-003 8.702824e-003 -9.624658e-003 -3.571055e-002 -6.070931e-003 2.486698e-002 8.198882e-003 -8.047475e-003 -1.354503e-002
<VARIANCE> 39
 1.209626e-002 2.168079e-002 3.821883e-002 4.245262e-002 5.451404e-002 4.382560e-002 6.511321e-002 5.118394e-002 5.548720e-002 3.927076e-002 4.447061e-002 3.391002e-002 4.030443e-002 1.106705e-003 2.833353e-003 4.642896e-003 3.818036e-003 5.402996e-003 6.216845e-003 7.483920e-003 7.644670e-003 7.100324e-003 6.344019e-003 5.525523e-003 4.408171e-003 2.619263e-003 1.878999e-004 3.497222e-004 5.660530e-004 5.958928e-004 6.979550e-004 8.376088e-004 9.628597e-004 9.632320e-004 9.623150e-004 8.495640e-004 8.589242e-004 6.486129e-004 4.227623e-004
<GCONST> -1.366988e+002
<MIXTURE> 6 8.029394e-002
<MEAN> 39
 1.107557e-001 -9.682589e-002 -7.363875e-002 -8.596643e-002 -3.011339e-001 6.351078e-003 3.757238e-001 8.107243e-002 -1.327647e-001 1.553977e-001 -4.526534e-002 -1.757592e-001 2.838635e-001 3.581829e-002 9.261043e-002 5.454361e-002 9.584311e-003 -5.304160e-002 -1.183910e-001 -7.063074e-002 3.736235e-002 1.439584e-002 -7.429223e-004 1.351466e-002 -3.472047e-003 -1.168875e-001 -6.941039e-003 4.910064e-003 6.915287e-003 1.499362e-002 3.073084e-002 3.782876e-003 -3.575391e-002 -2.346971e-002 -1.023206e-003 -1.419537e-002 9.471793e-003 2.292388e-002 -1.858524e-002
<VARIANCE> 39
 1.258872e-002 2.247119e-002 2.803416e-002 3.604433e-002 3.809189e-002 5.217047e-002 4.867051e-002 5.780038e-002 5.180983e-002 4.379022e-002 4.862930e-002 2.968324e-002 3.538232e-002 1.176105e-003 3.197555e-003 3.151852e-003 4.931185e-003 5.854018e-003 7.158238e-003 7.046930e-003 8.127063e-003 8.305291e-003 6.238726e-003 7.309146e-003 4.711695e-003 3.523844e-003 2.218746e-004 3.831805e-004 4.551884e-004 6.589381e-004 7.724534e-004 1.009996e-003 9.854225e-004 1.172336e-003 1.053925e-003 9.429395e-004 9.360206e-004 6.015599e-004 5.562158e-004
<GCONST> -1.353999e+002
<MIXTURE> 7 4.534553e-002
<MEAN> 39
 -4.509892e-002 -3.003463e-001 -7.385036e-002 1.708202e-001 5.000345e-002 1.898014e-001 1.974957e-001 3.211671e-001 5.227073e-001 3.742065e-001 -1.726457e-002 -4.655297e-001 2.925536e-001 1.261113e-002 2.552207e-002 -6.679186e-003 -2.501124e-002 -1.093629e-002 -4.001386e-003 1.084797e-002 3.020696e-002 5.641672e-003 -1.148575e-002 -3.012643e-002 -2.175505e-002 -4.090264e-002 1.893883e-003 8.989513e-003 3.715788e-003 -5.033512e-003 -7.269666e-003 -1.144652e-002 -1.073992e-002 -1.605544e-002 -2.451123e-002 -1.813919e-002 5.835434e-003 3.202708e-002 -9.732795e-003
<VARIANCE> 39
 2.048867e-002 4.708733e-002 5.153701e-002 1.082765e-001 8.559080e-002 7.846875e-002 1.010494e-001 1.477731e-001 2.149776e-001 2.592389e-001 2.969098e-001 1.947185e-001 8.068360e-002 1.431360e-003 3.067716e-003 3.513332e-003 5.668251e-003 6.189158e-003 6.770370e-003 7.560979e-003 1.165585e-002 1.457932e-002 1.566298e-002 1.899447e-002 2.025994e-002 3.319026e-003 2.455636e-004 4.378677e-004 6.103176e-004 8.552828e-004 1.058722e-003 1.088944e-003 1.219533e-003 1.704273e-003 2.209529e-003 2.950856e-003 3.243286e-003 2.511380e-003 3.653990e-004
<GCONST> -1.112912e+002
<MIXTURE> 8 7.186603e-002
<MEAN> 39
 -8.112155e-002 -8.226962e-002 1.025353e-001 2.024880e-001 1.129346e-001 1.009472e-002 -6.391964e-002 -1.421544e-001 -5.981117e-002 -6.800745e-003 4.393679e-002 1.901544e-002 -1.128823e-001 -3.867399e-002 -4.591501e-003 1.724951e-002 9.324059e-003 2.057905e-002 1.545435e-002 4.860217e-003 9.774689e-003 1.178135e-002 -6.896041e-003 2.052828e-003 -3.210552e-003 -3.784644e-002 7.129805e-003 -5.060615e-004 -1.494383e-002 -1.619358e-002 -1.083740e-002 2.033425e-003 1.027518e-002 1.461707e-002 7.135063e-003 2.094441e-003 -3.204806e-003 -2.268089e-003 1.536666e-002
<VARIANCE> 39
 4.451761e-002 8.820813e-002 7.322658e-002 1.020794e-001 8.630214e-002 1.053135e-001 1.080523e-001 1.026842e-001 9.286928e-002 7.549544e-002 6.594201e-002 4.758009e-002 1.800409e-001 4.459324e-003 4.998093e-003 6.323927e-003 7.423118e-003 7.282429e-003 8.011120e-003 9.183285e-003 8.806493e-003 8.268261e-003 7.186817e-003 6.537209e-003 4.860097e-003 9.823925e-003 6.237107e-004 9.217115e-004 1.093237e-003 1.213288e-003 1.320415e-003 1.559993e-003 1.851832e-003 1.700158e-003 1.609356e-003 1.417591e-003 1.223859e-003 9.224669e-004 1.615551e-003
<GCONST> -1.117372e+002
<MIXTURE> 9 8.504503e-002
<MEAN> 39
 1.330669e-001 2.543209e-001 1.252334e-001 -2.579433e-001 -2.936923e-001 -1.209917e-001 -7.270346e-002 -2.723837e-003 1.343015e-001 1.310985e-002 -1.448963e-001 3.855826e-002 -6.478930e-003 -1.329849e-003 5.379229e-002 3.316042e-002 4.774228e-002 3.041488e-003 -5.087659e-002 -2.617625e-002 -2.376273e-002 -3.335560e-002 -4.973042e-003 1.942925e-003 6.530582e-003 -8.930015e-002 -1.706100e-002 -2.902097e-002 -1.418517e-002 2.433434e-002 3.176580e-002 1.927105e-002 1.179130e-002 -4.445697e-004 -1.499041e-002 -2.324187e-003 1.742730e-002 -4.504394e-003 3.408829e-003
<VARIANCE> 39
 1.866560e-002 4.298658e-002 4.926104e-002 6.125195e-002 6.911913e-002 9.433417e-002 8.809947e-002 9.027106e-002 8.610921e-002 1.043699e-001 8.160360e-002 6.058135e-002 5.867448e-002 3.459047e-003 6.351617e-003 5.709316e-003 9.298996e-003 9.940706e-003 1.136937e-002 1.072403e-002 1.095543e-002 1.131533e-002 9.754246e-003 9.155742e-003 6.775212e-003 9.107386e-003 4.982737e-004 8.252356e-004 9.015278e-004 1.158246e-003 1.363474e-003 1.741033e-003 1.653361e-003 1.764664e-003 1.639074e-003 1.797006e-003 1.508757e-003 1.177756e-003 1.026224e-003
<GCONST> -1.132131e+002
<MIXTURE> 10 7.828244e-002
<MEAN> 39
 1.207452e-001 -2.465890e-001 -1.042778e-001 1.208051e-001 -4.302450e-002 5.934465e-002 -1.492388e-001 -2.970707e-001 3.661031e-002 1.604572e-001 4.863832e-002 8.087789e-002 2.461935e-001 2.111699e-002 1.008374e-001 5.563429e-002 -2.280331e-002 -3.408417e-002 -4.807848e-002 -2.479741e-002 1.444113e-002 -1.253413e-002 -3.843613e-002 -3.312486e-002 5.854251e-004 -1.226532e-001 -2.058741e-002 1.176654e-002 1.975099e-002 8.386279e-003 1.143475e-002 -3.123677e-003 1.262622e-002 1.860917e-002 -1.097737e-002 -1.695785e-002 1.460636e-003 -6.619108e-003 -2.049107e-002
<VARIANCE> 39
 1.525283e-002 3.736351e-002 4.373622e-002 7.344182e-002 6.324083e-002 6.576002e-002 7.004495e-002 5.709122e-002 6.477329e-002 5.570525e-002 5.180066e-002 4.731194e-002 4.322288e-002 2.457893e-003 3.836025e-003 5.006740e-003 6.398351e-003 5.803145e-003 5.942895e-003 7.441462e-003 6.442175e-003 7.743794e-003 6.026293e-003 5.654855e-003 4.885467e-003 3.335552e-003 3.145168e-004 5.519760e-004 7.487299e-004 1.034131e-003 1.056256e-003 1.065979e-003 1.167096e-003 9.841300e-004 1.006458e-003 9.883477e-004 9.329516e-004 8.472042e-004 4.818143e-004
<GCONST> -1.281497e+002
<MIXTURE> 11 6.748659e-002
<MEAN> 39
 2.381137e-001 2.711895e-002 -2.879178e-002 1.591414e-001 -1.725127e-001 -1.771805e-001 2.349826e-002 -3.868100e-002 -1.994673e-001 1.815608e-002 3.754672e-002 -4.284251e-002 -5.534796e-002 -7.086106e-003 9.216848e-002 7.680097e-002 9.550051e-003 5.893346e-003 -3.073192e-002 -6.855579e-002 -1.742984e-002 2.674907e-003 -3.514611e-002 -2.551169e-002 1.019821e-002 -1.453068e-001 -3.073542e-002 -1.977283e-002 2.383676e-004 4.501361e-004 2.513742e-002 2.762705e-002 3.739042e-003 -5.717996e-003 1.267608e-002 5.586208e-004 2.430077e-003 4.750453e-003 5.825548e-003
<VARIANCE> 39
 1.105402e-002 3.464175e-002 3.641917e-002 5.605436e-002 5.488141e-002 5.866769e-002 6.362183e-002 7.667569e-002 5.227437e-002 4.652124e-002 4.895863e-002 3.572315e-002 4.697996e-002 2.730163e-003 4.312978e-003 4.293160e-003 5.929643e-003 6.248457e-003 7.381071e-003 7.335128e-003 8.602120e-003 7.070627e-003 6.093224e-003 5.656515e-003 4.208355e-003 4.526247e-003 3.190264e-004 5.085008e-004 6.163021e-004 7.667379e-004 9.076818e-004 1.002998e-003 1.104028e-003 1.227605e-003 9.859602e-004 9.694728e-004 8.847627e-004 7.029198e-004 5.935925e-004
<GCONST> -1.297515e+002
<MIXTURE> 12 9.521238e-002
<MEAN> 39
 1.265102e-001 1.899074e-001 7.102992e-002 -1.849029e-001 -2.511518e-001 -1.885031e-001 -2.722372e-002 5.916506e-002 2.777260e-002 6.360283e-002 -5.752616e-002 8.044296e-003 1.531059e-002 4.478947e-003 2.879838e-002 1.131979e-002 8.412283e-003 -6.943419e-003 -3.203178e-002 -1.309128e-002 -5.920053e-003 -4.358941e-003 7.098684e-003 -2.509000e-003 3.981137e-003 -3.255048e-002 -2.296152e-003 -1.229597e-002 -8.471888e-003 8.437192e-003 9.506651e-003 1.235959e-002 5.168577e-003 -2.504826e-003 -1.718724e-003 -4.436726e-003 2.806904e-003 -2.152361e-003 4.844890e-003
<VARIANCE> 39
 1.522581e-002 3.475221e-002 4.182344e-002 5.540782e-002 6.357940e-002 7.961547e-002 7.641064e-002 8.547188e-002 8.722081e-002 8.100262e-002 7.910391e-002 5.073483e-002 4.706506e-002 6.237385e-004 2.177378e-003 2.574031e-003 3.417793e-003 3.739253e-003 5.776219e-003 5.171506e-003 5.720406e-003 5.579718e-003 4.916082e-003 4.685547e-003 3.604990e-003 1.644363e-003 1.159624e-004 3.392297e-004 4.482668e-004 5.369806e-004 7.014603e-004 8.991647e-004 9.287159e-004 1.011799e-003 9.900522e-004 9.439340e-004 8.905442e-004 6.618280e-004 2.537092e-004
<GCONST> -1.369548e+002
<TRANSP> 5
 0.000000e+000 1.000000e+000 0.000000e+000 0.000000e+000 0.000000e+000
 0.000000e+000 5.357977e-001 4.642023e-001 0.000000e+000 0.000000e+000
 0.000000e+000 0.000000e+000 5.765193e-001 4.234807e-001 0.000000e+000
 0.000000e+000 0.000000e+000 0.000000e+000 4.102634e-001 5.897365e-001
 0.000000e+000 0.000000e+000 0.000000e+000 0.000000e+000 0.000000e+000
<ENDHMM>
~h "D"
<BEGINHMM>
<NUMSTATES> 5
<STATE> 2
<NUMMIXES> 12
<MIXTURE> 1 1.364232e-001
<MEAN> 39
 2.887685e-001 2.301143e-001 -7.879107e-002 -2.547658e-002 -1.562163e-001 -1.392211e-001 -1.180564e-001 2.542252e-002 -1.803640e-003 -4.897405e-002 -9.056067e-002 -4.474860e-002 -1.826120e-001 -1.553259e-003 7.237357e-003 6.567780e-003 1.119280e-003 3.061741e-004 7.179677e-004 -5.412677e-003 -4.121605e-003 -4.796635e-004 3.208339e-003 -2.376994e-004 -3.075617e-004 -1.791053e-002 -4.765587e-003 -9.250307e-003 -1.968674e-003 3.412110e-003 6.114234e-003 3.625622e-003 2.809454e-003 -2.100069e-003 -1.260268e-003 2.940759e-003 4.978368e-003 1.608950e-003 7.250133e-003
<VARIANCE> 39
 1.914771e-002 3.974222e-002 5.415758e-002 5.038124e-002 4.814704e-002 5.894728e-002 5.792003e-002 6.318926e-002 7.031377e-002 4.693867e-002 4.505270e-002 3.670587e-002 7.760826e-002 6.138163e-004 1.714074e-003 2.530664e-003 2.680373e-003 3.165991e-003 3.621114e-003 3.724031e-003 4.537114e-003 4.514814e-003 3.601649e-003 3.656904e-003 2.838397e-003 1.273205e-003 1.164293e-004 3.016748e-004 4.431571e-004 4.948058e-004 5.968638e-004 7.119967e-004 7.766627e-004 7.809958e-004 8.568778e-004 7.208384e-004 6.953779e-004 5.406421e-004 2.356719e-004
<GCONST> -1.436844e+002
<MIXTURE> 2 9.618604e-002
<MEAN> 39
 3.001612e-001 4.368629e-001 9.408624e-002 8.342887e-002 -2.523646e-001 -2.597602e-001 -1.817731e-001 -7.503235e-002 -2.123321e-001 -1.050768e-001 -1.576630e-001 -1.580472e-002 -4.392072e-001 -3.896668e-002 -3.924896e-003 4.315663e-002 5.562847e-003 2.608395e-002 2.192796e-002 -5.297919e-003 -1.096804e-002 2.353226e-003 -8.230155e-003 5.677068e-003 1.940237e-003 -2.829517e-002 -2.332470e-002 -6.314870e-002 -3.337122e-002 -5.149455e-003 1.493719e-002 2.419427e-002 4.402218e-002 1.987533e-002 2.635444e-002 1.182191e-002 2.067666e-002 -3.032259e-003 7.310935e-002
<VARIANCE> 39
 1.899631e-002 3.776469e-002 4.526636e-002 5.675850e-002 5.371542e-002 6.108789e-002 6.320233e-002 6.415831e-002 7.787552e-002 5.940770e-002 5.887360e-002 3.848074e-002 4.383714e-002 2.784916e-003 6.380293e-003 4.496906e-003 4.340826e-003 5.458720e-003 6.108406e-003 7.863013e-003 6.896114e-003 6.666077e-003 5.178809e-003 5.277827e-003 3.631351e-003 8.155232e-003 4.503464e-004 6.984889e-004 1.125528e-003 1.212381e-003 1.165210e-003 1.555387e-003 1.692547e-003 1.642313e-003 1.726510e-003 1.375532e-003 1.174920e-003 8.926945e-004 1.185945e-003
<GCONST> -1.231523e+002
<MIXTURE> 3 4.299222e-002
<MEAN> 39
 -1.137682e-001 1.503594e-001 2.274682e-001 2.295976e-001 1.517020e-001 1.459339e-002 -5.492577e-002 -1.364157e-002 -8.709078e-002 -1.159956e-001 -3.719782e-002 -1.690633e-002 -3.358790e-001 -1.113492e-002 -4.407326e-002 -2.419324e-003 -3.249129e-002 1.138588e-003 1.806204e-002 2.387040e-002 1.004073e-002 2.966144e-002 5.277626e-004 9.909433e-003 -6.335238e-003 1.033882e-001 9.156773e-003 -1.684095e-002 -2.716802e-002 -1.944156e-002 -1.547472e-002 -5.890143e-004 5.472850e-003 3.076774e-003 1.108040e-002 1.334617e-002 6.458011e-003 -3.163257e-004 2.416017e-002
<VARIANCE> 39
 8.027943e-002 6.045339e-002 5.830199e-002 9.516802e-002 6.471329e-002 6.655665e-002 7.024800e-002 6.381348e-002 6.588893e-002 5.794045e-002 4.898259e-002 2.898059e-002 3.556953e-001 1.127373e-002 1.158111e-002 1.108700e-002 1.379781e-002 1.202571e-002 1.118979e-002 1.191028e-002 1.025880e-002 1.072844e-002 9.517040e-003 7.464358e-003 5.632459e-003 5.929194e-002 1.752931e-003 1.317158e-003 1.330880e-003 1.748478e-003 1.534223e-003 1.485085e-003 1.678973e-003 1.617195e-003 1.487916e-003 1.384830e-003 1.225410e-003 8.072521e-004 8.643785e-003
<GCONST> -1.040315e+002
<MIXTURE> 4 6.369296e-002
<MEAN> 39
 2.017449e-001 7.246815e-002 -2.124448e-001 -1.410051e-001 -1.339105e-001 -1.007176e-001 7.336243e-002 2.919987e-001 2.267912e-001 8.044465e-002 -1.594038e-001 -1.933016e-001 7.445583e-002 5.868881e-003 2.079969e-002 2.270464e-002 2.356203e-003 -1.218914e-002 -1.700487e-002 -2.020879e-002 -4.794122e-003 2.425220e-003 2.001137e-003 -1.829206e-003 -1.650197e-003 -3.959206e-002 -1.312155e-002 -8.331063e-003 1.474423e-002 2.228445e-002 1.828232e-002 7.384412e-003 -1.064055e-002 -3.426154e-002 -3.409036e-002 -9.980873e-003 2.241624e-002 2.558969e-002 -5.885714e-003
<VARIANCE> 39
 2.930616e-002 5.238457e-002 7.546345e-002 8.074550e-002 9.160363e-002 9.029528e-002 9.713761e-002 7.336465e-002 7.853812e-002 7.258283e-002 5.488363e-002 4.612141e-002 1.466719e-001 2.909678e-003 6.251441e-003 7.552656e-003 6.992688e-003 8.181578e-003 9.679194e-003 9.900820e-003 1.016604e-002 1.009299e-002 7.746578e-003 6.925507e-003 5.669925e-003 1.088229e-002 3.937457e-004 6.672432e-004 9.519563e-004 9.592081e-004 1.433633e-003 1.498570e-003 1.645903e-003 1.236427e-003 1.405039e-003 1.446239e-003 1.058743e-003 7.671430e-004 1.163349e-003
<GCONST> -1.153410e+002
<MIXTURE> 5 7.763474e-002
<MEAN> 39
 -1.774306e-001 2.619576e-002 2.659032e-001 -2.826389e-002 9.911582e-002 -5.287607e-002 -1.179895e-001 -5.601560e-002 7.634071e-002 -8.141315e-002 1.822278e-002 4.677101e-002 3.712617e-002 -2.700507e-002 -2.534714e-002 1.751147e-002 1.223113e-002 1.283911e-002 2.580805e-002 1.441981e-002 1.000893e-003 -3.648302e-004 -1.469539e-002 8.977198e-003 -5.489594e-003 3.683856e-003 2.004690e-002 -2.033125e-003 -2.714621e-002 3.514709e-003 -1.042490e-002 4.323209e-003 9.136494e-003 4.673612e-003 -6.855743e-003 8.470567e-003 -1.358760e-003 -5.039194e-003 -1.292467e-003
<VARIANCE> 39
 3.729736e-002 4.882136e-002 6.378965e-002 8.020399e-002 8.620846e-002 8.930685e-002 8.017131e-002 6.533601e-002 6.854764e-002 5.830248e-002 5.411268e-002 3.899098e-002 1.519263e-001 4.203126e-003 3.939182e-003 6.670651e-003 6.232375e-003 7.022032e-003 7.013245e-003 6.739863e-003 6.897847e-003 6.234930e-003 5.534377e-003 5.556778e-003 3.934356e-003 5.439889e-003 4.152041e-004 6.497312e-004 1.014161e-003 1.171548e-003 1.374713e-003 1.331785e-003 1.272729e-003 1.193088e-003 1.150536e-003 9.947646e-004 1.006900e-003 7.769147e-004 1.046584e-003
<GCONST> -1.207848e+002
<MIXTURE> 6 7.277057e-002
<MEAN> 39
 9.123833e-002 -2.739315e-001 -2.267923e-001 2.009339e-001 3.154746e-002 -4.618026e-002 1.965655e-001 6.050269e-002 -1.894802e-001 1.414337e-002 1.282978e-001 -2.239336e-002 2.757169e-001 2.419274e-003 2.518043e-004 8.388477e-003 -2.252475e-003 -1.328371e-002 -1.133852e-002 -4.201056e-003 1.608451e-003 2.564337e-004 2.025012e-003 5.232024e-003 4.889322e-004 1.904861e-003 -2.133646e-003 3.006955e-002 1.839645e-002 -1.531653e-002 -2.608667e-003 1.204477e-003 -2.608928e-002 -9.067007e-003 1.818368e-002 1.889324e-003 -1.406678e-002 1.379098e-003 -2.275281e-002
<VARIANCE> 39
 3.786093e-002 3.823394e-002 6.774410e-002 7.020824e-002 7.975739e-002 7.795804e-002 8.479012e-002 8.512937e-002 7.164767e-002 6.910492e-002 5.525053e-002 3.879501e-002 2.091540e-001 2.458031e-003 5.847709e-003 5.963887e-003 6.358771e-003 7.107650e-003 7.206604e-003 8.708718e-003 7.644012e-003 8.189783e-003 6.264580e-003 6.071777e-003 4.389040e-003 8.873898e-003 4.382097e-004 5.966787e-004 9.133872e-004 9.801741e-004 1.243317e-003 1.311545e-003 1.274648e-003 1.340041e-003 1.301042e-003 1.304936e-003 1.078908e-003 7.803806e-004 1.453744e-003
<GCONST> -1.186975e+002
<MIXTURE> 7 1.017306e-001
<MEAN> 39
 2.966893e-001 1.730877e-001 -7.367159e-002 1.657206e-001 -1.374083e-001 -3.187407e-001 -1.217181e-001 8.447336e-003 -1.269240e-001 -4.969114e-002 -3.565471e-002 1.617083e-002 -1.575718e-001 1.736015e-002 1.012046e-001 9.025384e-002 1.039069e-002 -5.886544e-003 -2.288156e-002 -9.944776e-002 -7.982814e-002 -4.439512e-002 -1.017851e-002 -1.091995e-002 1.675065e-002 -1.525938e-001 -2.059030e-002 -3.039734e-002 -1.279405e-002 -1.104103e-003 1.742797e-002 2.920485e-002 2.349873e-002 1.738297e-003 1.384739e-003 -2.074364e-004 7.570887e-003 -8.821477e-005 3.146794e-002
<VARIANCE> 39
 1.229855e-002 3.553211e-002 4.144141e-002 4.385884e-002 5.675920e-002 5.822316e-002 6.898792e-002 8.316793e-002 7.904186e-002 5.770834e-002 5.479687e-002 4.117851e-002 5.055998e-002 1.581744e-003 3.325803e-003 4.333482e-003 4.153887e-003 5.264431e-003 6.322957e-003 6.826738e-003 7.903752e-003 7.993343e-003 6.212308e-003 5.642355e-003 3.987124e-003 2.970056e-003 2.179856e-004 4.538373e-004 5.648728e-004 6.416065e-004 7.570005e-004 8.838972e-004 1.133104e-003 1.255115e-003 1.181944e-003 9.823418e-004 8.498784e-004 6.435349e-004 6.179457e-004
<GCONST> -1.314743e+002
<MIXTURE> 8 7.358719e-002
<MEAN> 39
 2.525418e-001 4.743521e-002 -2.503532e-001 -9.721304e-002 3.930987e-003 3.957490e-002 -8.819706e-002 -7.024108e-002 -2.042176e-003 4.696408e-002 -7.153367e-003 -4.127977e-004 1.101075e-001 1.429364e-002 -1.416708e-002 -1.328827e-002 -2.933713e-003 -2.409542e-003 -3.387759e-003 -4.750991e-003 -1.046369e-002 4.246417e-004 8.967774e-003 6.298514e-003 1.068306e-003 3.715972e-002 -2.515837e-002 1.602982e-003 3.119008e-002 1.893225e-002 -5.568146e-004 -9.540174e-003 4.773219e-003 8.972666e-003 2.094942e-004 -8.499248e-003 -1.965123e-003 -8.206139e-004 -2.412766e-002
<VARIANCE> 39
 2.489061e-002 3.833430e-002 5.908276e-002 5.294529e-002 4.836837e-002 5.773160e-002 5.703605e-002 5.123595e-002 4.803249e-002 3.984012e-002 3.575025e-002 2.780315e-002 1.213283e-001 4.636928e-003 5.410567e-003 9.343259e-003 6.310428e-003 6.398087e-003 6.220818e-003 6.883808e-003 6.837308e-003 6.241801e-003 5.450639e-003 4.389354e-003 3.711615e-003 1.292075e-002 5.248826e-004 6.817012e-004 9.681588e-004 9.082583e-004 8.826139e-004 1.060794e-003 1.022546e-003 9.807834e-004 1.024667e-003 8.233701e-004 7.716308e-004 5.788964e-004 1.629191e-003
<GCONST> -1.256403e+002
<MIXTURE> 9 1.155065e-001
<MEAN> 39
 2.603809e-001 2.581364e-001 8.235125e-003 1.471788e-001 -5.096392e-002 -2.131638e-001 -2.316138e-001 -2.101398e-001 -2.235188e-001 -7.312662e-002 -1.488343e-002 7.127836e-002 -3.112078e-001 -1.242066e-002 1.146557e-002 2.949943e-002 4.566741e-003 7.559144e-003 9.071078e-003 -8.300182e-003 -1.417661e-002 -9.852035e-003 -8.451988e-003 -5.195898e-004 3.289265e-003 -3.965630e-002 -1.225013e-002 -2.739453e-002 -1.962930e-002 -1.548459e-002 -8.853817e-003 6.847343e-003 3.464093e-002 3.972299e-002 3.359914e-002 6.813247e-003 -3.951361e-003 -1.304314e-002 4.465455e-002
<VARIANCE> 39
 1.725049e-002 3.577383e-002 4.339528e-002 4.804646e-002 5.245590e-002 6.254523e-002 6.506509e-002 6.662890e-002 8.426727e-002 6.072456e-002 5.875942e-002 4.237761e-002 4.783152e-002 8.737628e-004 1.719983e-003 2.604055e-003 2.863845e-003 3.310851e-003 3.822220e-003 4.415187e-003 5.426100e-003 5.299229e-003 4.381045e-003 3.814507e-003 3.124055e-003 2.165582e-003 2.594331e-004 4.538700e-004 7.847589e-004 7.593513e-004 8.606506e-004 1.116913e-003 1.279657e-003 1.253046e-003 1.272189e-003 1.194087e-003 1.013670e-003 7.445157e-004 6.662213e-004
<GCONST> -1.349264e+002
<MIXTURE> 10 2.681458e-002
<MEAN> 39
 -1.437063e-001 -2.504878e-001 6.112117e-002 2.748780e-001 2.349865e-001 2.126601e-001 4.923841e-003 -2.759748e-001 -3.179555e-002 2.487904e-001 1.303658e-001 -1.278968e-001 2.594514e-001 -3.709189e-003 -1.821650e-002 4.566018e-003 -1.149970e-002 4.698868e-003 2.487112e-002 -1.287477e-003 -4.042648e-003 9.086921e-003 -5.078831e-003 9.010927e-003 -4.964231e-003 4.570426e-002 8.903001e-003 2.295269e-002 -9.768853e-004 -1.574387e-002 -1.990414e-002 -1.755378e-002 1.949394e-003 2.886241e-002 2.600801e-003 -2.261088e-002 -1.322164e-002 1.028342e-002 -3.231279e-002
<VARIANCE> 39
 3.804992e-002 7.745263e-002 7.978589e-002 1.795117e-001 1.179196e-001 2.240034e-001 2.035722e-001 3.017881e-001 2.737735e-001 2.040102e-001 2.105767e-001 1.253048e-001 2.979792e-001 4.562069e-003 8.941357e-003 8.011302e-003 1.748009e-002 1.434054e-002 1.979546e-002 1.784148e-002 3.586534e-002 3.046822e-002 2.348357e-002 2.376084e-002 1.570644e-002 2.422492e-002 7.877888e-004 1.380286e-003 1.557053e-003 2.866528e-003 2.290248e-003 3.764445e-003 3.885269e-003 6.211721e-003 5.547307e-003 4.254086e-003 4.573515e-003 2.848543e-003 4.393328e-003
<GCONST> -8.158298e+001
<MIXTURE> 11 1.420890e-001
<MEAN> 39
 1.576436e-001 -1.504502e-001 -2.386411e-001 -7.052332e-004 1.971205e-002 3.583398e-002 2.297357e-002 -3.193022e-002 -8.876168e-002 1.625949e-002 6.934745e-002 9.925957e-003 4.202058e-001 2.690894e-003 2.906407e-003 -8.721345e-004 -8.066518e-005 -2.114485e-003 -4.721832e-003 -3.192974e-003 1.546429e-003 2.668812e-003 -2.364611e-003 -9.816110e-004 5.267965e-004 -1.014500e-002 -3.518335e-006 3.899517e-003 4.967672e-003 -9.702687e-004 -3.861246e-003 -2.676420e-003 -8.007485e-004 1.579664e-004 1.865351e-003 -4.207543e-005 -2.364225e-003 -3.615253e-004 -4.652288e-003
<VARIANCE> 39
 2.985791e-002 3.737973e-002 5.385119e-002 6.771394e-002 6.646599e-002 7.353487e-002 8.949001e-002 8.337886e-002 7.069975e-002 5.600247e-002 4.610956e-002 4.111819e-002 1.587492e-001 5.361233e-004 1.137826e-003 1.792565e-003 2.010381e-003 2.503536e-003 2.900031e-003 3.384572e-003 3.171259e-003 3.437882e-003 3.017853e-003 2.576398e-003 2.547013e-003 8.689800e-004 9.937602e-005 2.165169e-004 3.364841e-004 3.708017e-004 4.886229e-004 5.435793e-004 6.423083e-004 5.914540e-004 6.561076e-004 5.425463e-004 5.156114e-004 4.631847e-004 1.166326e-004
<GCONST> -1.477993e+002
<MIXTURE> 12 5.057286e-002
<MEAN> 39
