~o
<STREAMINFO> 1 39
<VECSIZE> 39<NULLD><PLP_D_A_Z_0><DIAGC>
~h "&"
<BEGINHMM>
<NUMSTATES> 5
<STATE> 2
<NUMMIXES> 12
<MIXTURE> 1 6.289275e-002
<MEAN> 39
 -2.592311e-002 -2.903535e-001 -2.307484e-002 -1.209297e-001 9.622167e-003 3.785678e-001 -3.153671e-002 -4.001193e-001 9.700708e-002 -6.265207e-002 -1.746349e-002 1.876788e-001 3.684469e-001 -1.360788e-002 1.033026e-002 4.282884e-003 -3.180091e-002 3.421279e-002 1.335179e-002 -2.374537e-002 1.691211e-002 1.670550e-002 -3.649654e-002 1.581073e-002 2.114670e-003 7.013833e-003 1.455771e-002 3.562386e-002 3.953539e-003 9.482001e-004 -2.459574e-002 -4.382857e-002 8.472824e-003 4.568575e-002 -1.481395e-002 6.133474e-003 -4.571067e-004 -2.028142e-002 -3.624251e-002
<VARIANCE> 39
 1.506801e-002 2.540329e-002 2.580977e-002 4.584100e-002 5.334353e-002 4.843228e-002 7.293764e-002 4.753010e-002 5.148375e-002 6.304070e-002 4.715624e-002 3.730202e-002 2.454445e-002 1.135660e-003 2.455926e-003 1.673657e-003 7.371014e-003 5.001549e-003 4.886804e-003 8.585636e-003 5.412866e-003 7.407997e-003 7.866433e-003 6.802590e-003 4.850058e-003 1.283482e-003 2.259961e-004 4.993549e-004 5.025364e-004 7.071416e-004 9.022435e-004 8.613286e-004 1.088238e-003 1.066434e-003 1.258928e-003 1.184267e-003 1.018888e-003 8.135413e-004 3.819346e-004
<GCONST> -1.356218e+002
<MIXTURE> 2 1.171115e-001
<MEAN> 39
 -1.950051e-002 -3.796867e-001 -2.192386e-002 1.977015e-001 1.657969e-002 1.502420e-001 5.568737e-002 -3.018429e-001 -2.512516e-002 2.070988e-001 7.823544e-002 -8.932449e-002 3.627569e-001 -3.258027e-003 -2.535278e-003 9.986818e-003 1.392973e-003 6.148190e-003 4.137687e-003 -5.472579e-003 -6.298239e-003 7.823898e-003 2.881562e-003 1.533061e-003 -6.119139e-004 1.193567e-004 2.855052e-003 5.067246e-003 -9.242552e-004 -6.456475e-003 -2.646917e-003 -1.504970e-003 1.012265e-003 7.818896e-003 -3.127908e-003 -9.866145e-003 -1.443675e-003 7.982197e-003 -5.903779e-003
<VARIANCE> 39
 1.657881e-002 2.685690e-002 3.299480e-002 6.255950e-002 4.356140e-002 4.802930e-002 5.798695e-002 6.306595e-002 6.850675e-002 4.519026e-002 5.208919e-002 3.775068e-002 2.435626e-002 4.108814e-004 6.197838e-004 8.836708e-004 1.978677e-003 1.309116e-003 2.237052e-003 2.291642e-003 2.216327e-003 2.395567e-003 2.451380e-003 2.103043e-003 1.977940e-003 3.779356e-004 7.619915e-005 1.320984e-004 1.506528e-004 2.624376e-004 2.360855e-004 2.961471e-004 3.754190e-004 4.509049e-004 4.098157e-004 3.719536e-004 3.658900e-004 3.259788e-004 7.253919e-005
<GCONST> -1.641128e+002
<MIXTURE> 3 1.170323e-001
<MEAN> 39
 7.757036e-002 -3.075905e-001 -2.441269e-001 2.171571e-001 4.486230e-002 -6.106669e-002 2.072323e-001 -3.194139e-002 -2.843168e-001 -1.834699e-002 2.102798e-001 5.883367e-002 2.947956e-001 -7.024758e-004 -4.178486e-003 -8.684002e-004 1.039578e-002 7.064423e-003 -7.270695e-004 -4.342010e-003 -1.108082e-002 -1.563183e-003 4.223708e-003 3.138727e-003 8.049700e-004 -5.080797e-004 1.051217e-003 4.526468e-003 4.686392e-003 -6.055717e-003 -4.996579e-003 5.000378e-003 -3.866506e-003 -1.542893e-003 8.304975e-003 3.506570e-003 -7.191082e-003 -4.520834e-003 -4.779998e-003
<VARIANCE> 39
 1.152823e-002 2.757884e-002 3.438354e-002 5.814461e-002 5.005820e-002 4.718567e-002 7.451995e-002 5.712099e-002 5.054491e-002 5.414581e-002 5.558766e-002 4.933145e-002 4.274685e-002 3.566789e-004 6.620912e-004 1.190714e-003 1.566988e-003 1.971962e-003 1.683389e-003 1.983781e-003 2.580224e-003 2.707091e-003 2.651677e-003 2.474484e-003 2.035005e-003 4.896369e-004 5.719700e-005 1.130345e-004 1.922577e-004 2.340475e-004 3.021159e-004 2.525156e-004 3.722838e-004 3.800253e-004 4.619237e-004 4.336484e-004 4.050201e-004 3.388283e-004 5.720804e-005
<GCONST> -1.628927e+002
<MIXTURE> 4 5.941444e-002
<MEAN> 39
 4.563386e-002 -2.799580e-001 -1.001255e-001 1.872168e-002 -1.852497e-001 1.470092e-001 3.428479e-001 -2.384219e-001 -2.282212e-001 1.659234e-001 2.867027e-002 -7.895534e-002 3.243825e-001 -2.333565e-002 2.204774e-002 4.102629e-002 -8.048674e-002 -4.326334e-003 8.774810e-002 -3.824607e-002 -7.620984e-002 8.709633e-002 7.092819e-003 -7.551409e-002 2.019309e-002 1.204174e-002 7.505577e-003 2.878542e-002 5.199069e-003 -9.355465e-003 6.183273e-003 -2.215268e-002 -3.966030e-002 3.538615e-002 2.641965e-002 -2.630892e-002 -9.446496e-003 2.107680e-002 -2.340251e-002
<VARIANCE> 39
 1.234608e-002 3.700621e-002 3.046815e-002 5.831261e-002 4.882005e-002 4.892829e-002 6.425297e-002 6.553946e-002 6.048927e-002 4.990588e-002 5.888408e-002 3.689810e-002 3.330368e-002 8.218168e-004 1.988802e-003 2.217779e-003 3.843990e-003 3.878179e-003 3.782044e-003 5.259457e-003 6.202336e-003 5.113177e-003 6.196056e-003 4.640976e-003 5.039788e-003 1.163041e-003 1.465968e-004 4.453115e-004 5.176111e-004 7.141522e-004 8.124707e-004 8.796179e-004 1.121367e-003 1.069028e-003 1.174956e-003 8.820358e-004 1.190567e-003 7.121724e-004 3.059851e-004
<GCONST> -1.384208e+002
<MIXTURE> 5 4.777235e-002
<MEAN> 39
 -8.523013e-002 -2.926401e-001 -1.316791e-001 -9.107006e-002 -7.475924e-002 1.602404e-001 1.485298e-001 -1.397707e-001 4.177653e-002 1.130432e-001 2.635912e-001 8.845902e-002 3.470905e-001 2.880081e-003 6.799975e-003 1.973558e-005 2.243740e-003 2.436247e-003 -8.417950e-003 -1.842630e-002 -2.289746e-002 -2.379139e-002 -2.446140e-002 1.320182e-003 1.592597e-002 4.480743e-003 1.903737e-002 4.487849e-002 1.930668e-002 7.316096e-004 -1.227386e-002 -2.822607e-002 -1.936621e-002 3.332088e-002 3.988711e-003 -5.660111e-003 -3.433316e-002 -1.267567e-002 -4.862130e-002
<VARIANCE> 39
 2.132961e-002 4.681652e-002 4.870396e-002 9.371014e-002 1.079698e-001 9.911192e-002 1.451118e-001 1.588912e-001 2.094309e-001 2.059917e-001 1.337192e-001 1.373253e-001 3.858726e-002 3.064724e-003 4.021522e-003 5.671753e-003 9.799386e-003 9.244856e-003 1.251527e-002 1.130769e-002 1.493089e-002 1.960907e-002 1.684194e-002 1.360276e-002 1.175829e-002 4.389911e-003 4.738996e-004 9.863324e-004 1.127557e-003 1.612612e-003 2.140630e-003 2.102609e-003 3.579095e-003 3.090891e-003 3.943502e-003 3.404636e-003 2.530048e-003 2.522428e-003 1.044713e-003
<GCONST> -1.019229e+002
<MIXTURE> 6 6.029082e-002
<MEAN> 39
 -1.165713e-002 -1.273369e-002 6.944874e-003 -5.285400e-001 -8.720855e-002 1.579365e-001 7.422026e-002 8.352153e-002 1.693854e-001 -1.691428e-001 -1.415447e-001 5.061151e-002 3.342899e-001 -6.484534e-004 -1.283016e-003 -1.364889e-002 -1.231217e-002 1.325411e-002 3.511590e-003 2.857611e-003 -3.854121e-004 -4.683472e-003 -4.599595e-003 2.585525e-003 -7.690499e-003 2.205457e-002 4.096702e-003 1.878897e-002 1.187873e-002 5.187086e-002 -1.120926e-003 -2.234235e-002 -1.377568e-002 -8.326557e-003 -2.158683e-002 1.760650e-002 1.385721e-002 -6.412604e-003 -4.675161e-002
<VARIANCE> 39
 1.574819e-002 3.585069e-002 3.065729e-002 4.345584e-002 6.667892e-002 6.048224e-002 7.306696e-002 6.842240e-002 6.092398e-002 9.179696e-002 7.814835e-002 6.541824e-002 3.696772e-002 2.228846e-003 4.172996e-003 3.140377e-003 7.171303e-003 6.946494e-003 6.423881e-003 7.075718e-003 7.555582e-003 8.640193e-003 7.077120e-003 7.284220e-003 6.324304e-003 3.873919e-003 4.968204e-004 5.990032e-004 6.540986e-004 9.014556e-004 1.298336e-003 1.075934e-003 1.353107e-003 1.348393e-003 1.377748e-003 1.464870e-003 1.473290e-003 1.246248e-003 7.142994e-004
<GCONST> -1.240084e+002
<MIXTURE> 7 9.722658e-002
<MEAN> 39
 1.389720e-002 -9.330863e-002 -1.619480e-002 -2.657800e-001 -5.393334e-002 2.633542e-001 1.078929e-002 -9.630761e-002 8.216985e-002 -1.100311e-001 -6.541521e-002 6.769470e-002 2.441686e-001 -7.736970e-003 -1.121718e-002 -1.840472e-003 5.748791e-003 1.066232e-002 7.671841e-003 -1.822863e-003 -1.323197e-002 -3.540445e-003 1.057913e-003 9.708425e-003 5.960444e-003 1.398594e-002 3.620686e-003 9.001473e-003 4.402518e-003 9.074227e-003 -6.240455e-003 -1.420659e-002 -3.027481e-004 5.266787e-003 -2.996240e-003 7.463487e-003 1.057575e-003 -6.055150e-003 -1.321931e-002
<VARIANCE> 39
 1.583760e-002 3.265729e-002 3.029836e-002 5.553907e-002 5.305514e-002 5.689157e-002 8.238810e-002 6.827074e-002 5.338286e-002 6.325250e-002 5.158918e-002 4.779151e-002 3.899878e-002 5.682738e-004 1.233471e-003 1.443736e-003 2.331199e-003 2.665004e-003 2.576377e-003 3.190805e-003 3.099504e-003 3.692225e-003 3.393539e-003 3.020097e-003 2.465820e-003 1.039305e-003 1.097044e-004 2.696996e-004 2.598786e-004 3.641810e-004 4.607124e-004 4.534126e-004 6.063280e-004 5.703953e-004 5.858828e-004 5.917583e-004 5.180594e-004 4.677539e-004 1.978532e-004
<GCONST> -1.507548e+002
<MIXTURE> 8 6.393941e-002
<MEAN> 39
 8.329965e-002 1.719343e-001 1.305008e-002 -7.471059e-002 -1.269763e-001 -1.706738e-001 -3.177023e-002 5.607317e-002 1.105267e-004 4.704874e-002 -9.035409e-002 1.212594e-002 -9.313841e-002 1.651496e-003 1.301457e-002 -1.273128e-002 -1.475937e-002 -2.903363e-003 8.416967e-003 -2.792206e-003 -7.796105e-003 1.024068e-002 -2.646946e-003 -3.875782e-003 8.530769e-004 2.971190e-003 -4.036302e-003 -7.610760e-003 1.998075e-003 6.714819e-003 6.297764e-003 1.348213e-002 3.037686e-003 -1.814582e-003 -1.367508e-003 -5.420858e-003 3.938172e-003 -8.647991e-004 2.946505e-004
<VARIANCE> 39
 3.323407e-002 5.235933e-002 6.758634e-002 9.672860e-002 8.834689e-002 8.526906e-002 1.011448e-001 8.755206e-002 1.009835e-001 7.226215e-002 8.404250e-002 6.107408e-002 8.634475e-002 2.307245e-003 5.002385e-003 5.285898e-003 6.232358e-003 5.698538e-003 7.747488e-003 7.233989e-003 7.775626e-003 7.249706e-003 5.712709e-003 5.539723e-003 4.378159e-003 3.858021e-003 3.725213e-004 5.885121e-004 8.459985e-004 9.113942e-004 1.217860e-003 1.131185e-003 1.506472e-003 1.393648e-003 1.449396e-003 1.215179e-003 1.119162e-003 9.209707e-004 5.395841e-004
<GCONST> -1.202811e+002
<MIXTURE> 9 6.326217e-002
<MEAN> 39
 1.504378e-001 -1.818864e-001 -8.577982e-002 -6.636716e-002 -1.931782e-001 1.573858e-001 1.743001e-001 -1.554964e-001 -8.334960e-002 1.031949e-001 -1.084595e-001 -4.405228e-002 2.275898e-001 4.210596e-002 -3.103170e-002 -4.994925e-002 3.125393e-002 -2.395721e-002 -2.543490e-002 2.694318e-002 2.650706e-002 -4.960386e-002 9.878500e-003 2.168366e-002 -2.919024e-003 3.935645e-002 -2.074818e-002 3.634948e-002 2.792410e-002 1.351387e-002 1.744408e-002 -2.559377e-002 -2.168139e-002 2.663467e-002 8.258826e-003 -1.826008e-002 7.382511e-003 3.608867e-003 -4.640008e-002
<VARIANCE> 39
 1.422127e-002 3.316821e-002 3.284863e-002 4.750236e-002 4.882048e-002 5.582027e-002 8.515181e-002 6.428970e-002 5.255524e-002 4.490329e-002 4.970858e-002 3.372931e-002 4.582688e-002 3.475578e-003 5.047524e-003 4.851634e-003 8.080486e-003 6.732990e-003 7.486177e-003 7.952467e-003 8.587571e-003 8.052864e-003 6.641789e-003 6.869294e-003 4.722653e-003 5.546453e-003 5.194417e-004 9.439642e-004 9.012591e-004 8.888023e-004 1.161356e-003 1.306584e-003 2.010418e-003 1.612818e-003 1.270716e-003 1.045054e-003 1.089931e-003 7.599766e-004 9.037544e-004
<GCONST> -1.241801e+002
<MIXTURE> 10 9.788283e-002
<MEAN> 39
 -1.569131e-001 -2.984778e-001 4.077614e-002 -8.393731e-004 7.173228e-002 1.508910e-001 -1.123226e-001 -2.800185e-001 6.783085e-002 7.590999e-002 2.343976e-001 1.185665e-001 4.178677e-001 -9.699136e-004 -9.300285e-004 1.646019e-003 4.115527e-003 2.037518e-003 -6.144261e-003 -7.368611e-003 5.954838e-003 3.874143e-004 -3.229958e-003 7.531138e-003 4.960621e-004 -1.807127e-003 1.213141e-002 9.272488e-003 -6.756958e-003 -8.559007e-003 -1.253866e-002 -3.072502e-003 1.088631e-002 1.747292e-002 9.505936e-004 -2.608765e-003 -9.678287e-003 -4.203573e-003 -1.279997e-002
<VARIANCE> 39
 1.237407e-002 3.898235e-002 4.632338e-002 1.090117e-001 7.875301e-002 8.508056e-002 9.152087e-002 9.204965e-002 1.250838e-001 1.205703e-001 1.105987e-001 7.610391e-002 2.745260e-002 8.050828e-004 1.276356e-003 1.919947e-003 3.474572e-003 3.371694e-003 4.071725e-003 4.919612e-003 5.212953e-003 6.307404e-003 6.497880e-003 5.241652e-003 4.850912e-003 5.098913e-004 1.429445e-004 2.740500e-004 3.652103e-004 5.056557e-004 6.974111e-004 7.505849e-004 8.392192e-004 9.380110e-004 1.264352e-003 1.269456e-003 1.161051e-003 8.671191e-004 1.616746e-004
<GCONST> -1.362924e+002
<MIXTURE> 11 1.310571e-001
<MEAN> 39
 -3.631501e-002 -3.106358e-001 8.774389e-003 -1.314565e-002 3.549663e-002 2.912493e-001 -1.118950e-001 -2.916400e-001 1.170064e-001 -1.752357e-002 6.693583e-002 8.914761e-002 3.554992e-001 2.092070e-003 8.908164e-004 9.621818e-004 -4.834955e-005 8.427140e-004 2.788391e-003 -2.730543e-003 1.128224e-003 1.580571e-003 -3.361815e-003 -1.447876e-003 -1.034286e-004 -2.274971e-003 4.620648e-004 1.519057e-003 -6.577140e-004 -1.370613e-003 -5.909165e-004 -9.107877e-004 2.367698e-003 1.681127e-003 -1.453245e-003 -2.786949e-004 1.794018e-004 -1.042209e-003 -1.571113e-003
<VARIANCE> 39
 1.350924e-002 2.393384e-002 3.282061e-002 4.817361e-002 4.790870e-002 5.640811e-002 6.638768e-002 5.101769e-002 6.159806e-002 7.914162e-002 6.141910e-002 3.507078e-002 1.682821e-002 1.808980e-004 3.888288e-004 4.255559e-004 7.043850e-004 6.587363e-004 7.849428e-004 9.362609e-004 1.110575e-003 9.674689e-004 1.163254e-003 9.213092e-004 8.686337e-004 1.149614e-004 3.349337e-005 6.599935e-005 7.480547e-005 1.080307e-004 1.115903e-004 1.384121e-004 1.615107e-004 1.829789e-004 1.507888e-004 1.854518e-004 1.612595e-004 1.502701e-004 1.522934e-005
<GCONST> -1.864148e+002
<MIXTURE> 12 8.211179e-002
<MEAN> 39
 1.085675e-001 -2.810526e-001 -2.640190e-001 1.636976e-001 -5.500761e-002 -9.040424e-002 2.610216e-001 4.591747e-002 -2.739125e-001 -5.253083e-002 1.921458e-001 5.401504e-002 2.825099e-001 -1.202372e-002 -1.530820e-002 4.535282e-003 -1.937293e-003 2.574761e-003 2.264784e-002 1.962771e-002 -3.238449e-002 -1.872375e-002 1.660078e-002 1.485021e-002 -9.247761e-003 2.039837e-002 5.117788e-004 2.675103e-002 2.430799e-002 -1.193470e-002 -5.650588e-003 1.614459e-003 -2.665737e-002 -4.562806e-003 2.491363e-002 1.011293e-002 -2.638772e-002 -6.407457e-003 -2.683064e-002
<VARIANCE> 39
 1.455888e-002 3.357641e-002 4.158203e-002 5.678346e-002 5.592374e-002 4.936740e-002 8.161700e-002 7.543647e-002 5.939509e-002 6.054907e-002 5.495875e-002 4.818735e-002 3.676965e-002 9.514564e-004 2.077241e-003 3.421899e-003 3.552706e-003 4.879047e-003 4.854676e-003 6.994510e-003 7.128476e-003 5.651021e-003 6.555087e-003 5.071730e-003 4.229434e-003 1.758568e-003 2.335643e-004 4.592232e-004 6.271397e-004 5.680851e-004 6.898482e-004 7.836773e-004 1.116821e-003 9.963372e-004 9.833637e-004 1.049420e-003 9.756532e-004 8.239965e-004 3.905557e-004
<GCONST> -1.348478e+002
<STATE> 3
<NUMMIXES> 12
<MIXTURE> 1 1.128157e-001
<MEAN> 39
 4.776561e-003 -3.032818e-001 -5.644675e-002 -6.784604e-003 -1.562110e-002 2.198243e-001 8.045729e-002 -2.603293e-001 1.159222e-002 4.202373e-002 4.147868e-002 5.086002e-002 3.226820e-001 1.450699e-002 2.387265e-002 4.091305e-003 -2.026294e-002 -2.106113e-002 6.906803e-004 -9.333677e-004 2.408502e-002 1.249672e-002 -1.583360e-002 -2.233590e-002 -6.842792e-004 -2.557707e-002 8.117486e-003 1.703209e-002 1.404258e-003 -1.236113e-003 -9.696844e-003 -1.147506e-002 -2.515359e-003 1.412635e-002 -3.004682e-003 -1.698624e-003 -6.187452e-003 -1.525978e-003 -1.541408e-002
<VARIANCE> 39
 1.178171e-002 2.336213e-002 3.065402e-002 6.619522e-002 4.567692e-002 6.134806e-002 8.786247e-002 5.223411e-002 7.128750e-002 5.949945e-002 5.483667e-002 4.424011e-002 2.357982e-002 4.070335e-004 9.767053e-004 1.042333e-003 2.422070e-003 1.898415e-003 2.416407e-003 2.837941e-003 3.085851e-003 3.026166e-003 2.940380e-003 2.749881e-003 2.564916e-003 4.569578e-004 8.840390e-005 2.318531e-004 2.114844e-004 3.218256e-004 3.326237e-004 4.262095e-004 5.209594e-004 4.965204e-004 5.014976e-004 5.084207e-004 5.069848e-004 4.546871e-004 1.348411e-004
<GCONST> -1.564808e+002
<MIXTURE> 2 5.904103e-002
<MEAN> 39
 7.399503e-002 -3.101958e-001 -8.791900e-002 9.279758e-002 -1.160607e-001 1.404257e-001 2.138670e-001 -2.686664e-001 -2.023475e-001 1.406706e-001 6.275960e-002 -4.562495e-002 2.897206e-001 3.413820e-002 2.831659e-002 -8.921489e-003 5.784060e-002 -2.563547e-002 -9.250329e-002 1.390129e-002 8.867347e-002 -5.548842e-002 -6.327423e-003 2.872210e-002 -1.379885e-002 -4.950928e-002 3.028419e-003 4.354812e-002 1.599460e-002 -1.288706e-002 -4.043822e-003 -2.655886e-002 -2.631473e-002 3.929528e-002 2.000294e-002 -2.124536e-002 -1.588391e-002 1.218213e-002 -3.664861e-002
<VARIANCE> 39
 1.783740e-002 2.876565e-002 2.786506e-002 4.503559e-002 4.878598e-002 4.557908e-002 6.545898e-002 6.042306e-002 5.916417e-002 5.333967e-002 5.090249e-002 3.490474e-002 3.312561e-002 9.896918e-004 3.683630e-003 3.374431e-003 5.506182e-003 4.784492e-003 5.574810e-003 7.757361e-003 7.582317e-003 7.100646e-003 6.726192e-003 6.379926e-003 4.905443e-003 2.158794e-003 4.174467e-004 6.713715e-004 7.052420e-004 7.413918e-004 1.013494e-003 9.195849e-004 1.334147e-003 1.256930e-003 1.196887e-003 1.045755e-003 1.075514e-003 7.587809e-004 3.976814e-004
<GCONST> -1.320423e+002
<MIXTURE> 3 1.314211e-001
<MEAN> 39
 6.212226e-003 -3.516718e-001 -1.573043e-001 2.029550e-001 6.080353e-002 6.490518e-002 2.628379e-001 -1.066483e-001 -2.403081e-001 1.422891e-001 1.648870e-001 -4.667518e-002 2.733111e-001 5.021784e-004 7.844451e-004 1.441811e-003 -7.369007e-004 -3.205779e-003 2.106603e-003 1.231324e-003 1.174809e-003 8.579270e-004 3.676988e-004 -8.837220e-004 -1.676758e-003 -2.761577e-003 4.540836e-004 1.174969e-003 9.648194e-004 -2.088584e-003 -8.547009e-004 6.618011e-004 -1.293191e-004 9.091859e-004 7.353863e-004 -1.022656e-003 -1.431353e-003 4.076552e-004 -8.961643e-004
<VARIANCE> 39
 9.312290e-003 1.869316e-002 3.079743e-002 6.208541e-002 3.680479e-002 3.747002e-002 4.145898e-002 5.595555e-002 5.420421e-002 5.120718e-002 4.549812e-002 4.174110e-002 1.686919e-002 1.535455e-004 2.619012e-004 3.716678e-004 6.407782e-004 5.725368e-004 7.585445e-004 8.272398e-004 8.243343e-004 7.370811e-004 8.503767e-004 7.144680e-004 7.177011e-004 9.529963e-005 2.763249e-005 4.736130e-005 6.722354e-005 1.062025e-004 1.024323e-004 1.326764e-004 1.466155e-004 1.444051e-004 1.302518e-004 1.519353e-004 1.232098e-004 1.256166e-004 1.436166e-005
<GCONST> -1.931476e+002
<MIXTURE> 4 6.760007e-002
<MEAN> 39
 -1.453017e-001 -1.943934e-001 -2.329383e-002 -2.485497e-001 1.222557e-001 2.832831e-001 -1.229425e-001 -1.442688e-001 1.405531e-001 -7.132712e-002 3.157245e-001 1.046427e-001 3.549215e-001 2.080970e-002 4.795260e-002 -7.513511e-003 -4.276619e-002 -2.572082e-002 -2.267084e-002 -1.010673e-003 5.953727e-002 6.898784e-003 -7.801400e-003 -3.241481e-003 -1.589252e-002 -3.940512e-002 2.497407e-002 2.487880e-002 5.125448e-004 1.081029e-002 -3.810566e-002 -3.535795e-002 1.218144e-002 1.876506e-002 -6.842635e-003 2.363526e-002 -3.227969e-002 -6.406541e-003 -3.355156e-002
<VARIANCE> 39
 1.730103e-002 3.526683e-002 3.740565e-002 8.721454e-002 7.286950e-002 8.485343e-002 1.057868e-001 1.180412e-001 1.438120e-001 2.023654e-001 1.072007e-001 1.052112e-001 2.685815e-002 1.501458e-003 3.304069e-003 3.147962e-003 6.162168e-003 7.731482e-003 7.683962e-003 8.342711e-003 9.842454e-003 1.136120e-002 1.142302e-002 1.044504e-002 7.765901e-003 1.297421e-003 2.638532e-004 4.872654e-004 6.519422e-004 1.177247e-003 1.143684e-003 1.311357e-003 1.838962e-003 2.065670e-003 2.355609e-003 2.312844e-003 1.661493e-003 1.560099e-003 3.830694e-004
<GCONST> -1.184658e+002
<MIXTURE> 5 1.695015e-001
<MEAN> 39
 3.586955e-002 -4.384481e-002 -5.693166e-002 -2.928536e-001 -1.030874e-001 2.351310e-001 1.334016e-001 -7.496943e-003 2.722685e-002 -4.942942e-002 -1.129118e-001 -2.638701e-002 2.128850e-001 1.674009e-003 3.038845e-003 9.897721e-004 -1.710541e-003 -2.750261e-003 -6.648579e-005 1.595843e-003 2.785208e-003 5.631764e-003 -2.275969e-003 -5.397721e-003 -7.681724e-004 -3.861946e-003 4.284343e-004 3.812840e-004 5.841801e-004 1.223982e-003 -7.644241e-004 -2.348434e-003 -5.916574e-004 1.154085e-004 5.181342e-004 3.941736e-004 4.853926e-004 -1.264475e-004 -1.630656e-003
<VARIANCE> 39
 1.412151e-002 2.749952e-002 2.187463e-002 5.245165e-002 5.346517e-002 6.182582e-002 5.985320e-002 7.991179e-002 6.764700e-002 7.002112e-002 5.493605e-002 4.360941e-002 2.133875e-002 2.000569e-004 5.380267e-004 5.334218e-004 7.797419e-004 1.014907e-003 1.366419e-003 1.374218e-003 1.548190e-003 1.568029e-003 1.535645e-003 1.358560e-003 1.211898e-003 2.095112e-004 3.399075e-005 8.871353e-005 9.803329e-005 1.289920e-004 1.679498e-004 2.342370e-004 2.447463e-004 2.485838e-004 2.545707e-004 2.572221e-004 2.187379e-004 2.007059e-004 3.037016e-005
<GCONST> -1.766024e+002
<MIXTURE> 6 7.905561e-002
<MEAN> 39
 8.917488e-002 -6.709027e-002 -1.122941e-001 6.445518e-002 -1.680008e-002 -8.401348e-002 6.726245e-003 -4.586697e-002 -1.964857e-001 -3.715871e-003 8.746792e-002 4.857172e-002 1.036353e-001 1.023433e-003 6.884455e-003 7.353955e-003 1.522789e-003 -1.936908e-003 6.832025e-003 -1.520845e-002 -7.495185e-003 1.029976e-002 6.240875e-003 -6.205081e-003 -2.735183e-003 -1.365767e-002 2.575781e-004 6.873389e-003 8.072553e-003 -2.727028e-003 -2.803882e-003 3.658070e-003 -2.130017e-003 4.769839e-003 1.417213e-002 5.372983e-004 -1.096410e-002 -5.773287e-003 -7.644579e-003
<VARIANCE> 39
 2.827464e-002 6.821294e-002 6.198277e-002 8.298242e-002 6.481694e-002 6.080731e-002 8.206637e-002 6.558142e-002 7.922255e-002 6.227794e-002 6.225444e-002 3.535466e-002 1.097847e-001 6.474349e-004 1.415397e-003 2.239769e-003 2.494780e-003 2.956828e-003 2.868643e-003 4.342322e-003 3.795024e-003 4.517020e-003 3.977257e-003 3.978231e-003 2.817530e-003 7.920803e-004 1.324516e-004 3.279781e-004 4.155755e-004 5.264736e-004 5.626932e-004 5.780599e-004 8.707863e-004 8.086918e-004 9.308302e-004 7.836723e-004 7.200282e-004 4.933184e-004 1.755927e-004
<GCONST> -1.414205e+002
<MIXTURE> 7 6.834423e-002
<MEAN> 39
 7.463921e-002 1.629481e-001 1.219646e-002 -2.261419e-001 -1.257410e-001 -5.866714e-002 -2.404371e-003 5.049075e-002 8.511347e-002 1.248002e-002 -1.180548e-001 -1.308888e-002 3.652206e-002 4.260496e-003 4.085232e-002 9.296509e-003 3.317966e-002 9.168342e-003 -1.157655e-002 -1.625102e-002 -1.029658e-002 -2.296278e-002 -3.863675e-003 -2.981613e-003 -1.696201e-003 -4.036064e-002 -7.788364e-003 -3.049434e-003 7.318070e-003 2.327512e-002 7.906341e-003 1.881017e-003 9.707213e-004 2.335969e-003 -1.279792e-002 -3.258835e-003 1.117016e-002 -6.344176e-004 -1.505144e-002
<VARIANCE> 39
 3.339696e-002 5.417790e-002 6.385724e-002 1.115802e-001 9.203251e-002 9.240193e-002 1.098815e-001 9.149143e-002 1.073725e-001 9.792209e-002 9.199446e-002 6.177144e-002 8.285622e-002 4.202206e-003 5.911332e-003 6.252564e-003 8.586620e-003 8.976724e-003 9.405120e-003 1.042256e-002 1.121457e-002 1.171052e-002 9.304056e-003 7.663980e-003 6.708327e-003 6.688577e-003 6.071827e-004 8.186757e-004 9.978303e-004 1.586900e-003 1.549790e-003 1.533157e-003 1.974385e-003 1.964709e-003 1.993619e-003 1.646334e-003 1.581988e-003 1.288545e-003 1.049744e-003
<GCONST> -1.099115e+002
<MIXTURE> 8 4.751830e-002
<MEAN> 39
 4.499003e-003 -1.113717e-001 3.584540e-003 -3.405182e-001 -1.704257e-001 3.319473e-001 1.110351e-001 -1.835068e-001 1.518172e-001 -4.152622e-002 -2.402697e-001 1.201197e-001 3.130974e-001 -9.406172e-003 8.253427e-002 3.076450e-002 -9.070285e-002 2.520991e-002 3.294879e-003 -1.018848e-001 5.359726e-002 9.990747e-002 -7.739504e-002 -1.016980e-002 4.472080e-002 -2.424972e-002 9.653017e-003 2.314382e-002 -3.077497e-003 2.817885e-002 2.613430e-003 -5.193899e-002 -7.545876e-003 3.207865e-002 -2.775330e-002 2.337958e-003 3.221393e-002 -1.620688e-002 -2.564155e-002
<VARIANCE> 39
 1.439437e-002 3.319012e-002 3.098481e-002 5.203756e-002 4.508245e-002 3.723060e-002 7.262431e-002 6.790195e-002 6.140258e-002 6.399507e-002 4.460048e-002 4.209925e-002 3.407109e-002 7.135190e-004 2.334272e-003 2.347110e-003 3.713821e-003 4.549321e-003 5.134200e-003 4.848447e-003 7.044916e-003 6.920785e-003 5.298170e-003 7.770278e-003 4.918878e-003 1.142979e-003 2.139195e-004 3.898365e-004 5.041946e-004 7.957577e-004 7.438111e-004 8.686354e-004 1.256202e-003 1.448035e-003 1.336680e-003 1.182771e-003 1.055721e-003 9.844761e-004 3.418885e-004
<GCONST> -1.359756e+002
<MIXTURE> 9 6.925611e-002
<MEAN> 39
 8.591881e-002 -1.231803e-001 -8.489788e-002 -2.346510e-001 -2.847036e-001 1.247916e-001 3.247732e-001 1.283763e-001 4.558154e-002 9.648851e-002 -1.678845e-001 -1.955079e-001 2.617358e-001 1.411768e-002 3.158115e-002 1.726407e-002 4.445777e-003 -1.950949e-002 -2.741689e-002 -2.435592e-002 -4.339789e-004 1.279408e-002 1.527091e-002 -4.014732e-003 9.718639e-004 -3.234597e-002 1.094861e-003 1.786154e-002 1.267828e-002 1.648474e-002 1.230054e-002 -1.545551e-002 -2.594861e-002 -1.125135e-002 -7.003432e-003 -6.109728e-003 1.058323e-002 1.756635e-002 -2.290802e-002
<VARIANCE> 39
 1.374943e-002 2.475675e-002 2.720777e-002 4.771206e-002 4.146702e-002 5.126469e-002 5.148803e-002 7.115729e-002 8.253742e-002 5.090028e-002 5.372141e-002 4.427693e-002 3.670237e-002 5.790179e-004 1.996856e-003 2.372482e-003 3.480941e-003 2.938526e-003 3.964830e-003 4.107071e-003 5.113841e-003 5.043668e-003 4.612665e-003 5.864338e-003 3.902678e-003 1.359106e-003 1.743590e-004 3.789319e-004 3.788334e-004 5.143994e-004 4.975580e-004 6.693007e-004 7.313226e-004 1.021481e-003 9.299525e-004 7.387255e-004 7.727711e-004 6.117093e-004 3.268382e-004
<GCONST> -1.427840e+002
<MIXTURE> 10 5.896156e-002
<MEAN> 39
 1.484876e-001 -2.577382e-001 -2.865332e-001 1.087093e-001 -1.171120e-001 -1.416199e-001 2.677615e-001 1.518940e-001 -1.946231e-001 -6.896991e-002 9.984813e-002 4.833700e-002 2.786130e-001 4.237609e-002 8.190689e-002 1.928721e-002 2.155734e-002 -2.618949e-003 -5.670976e-002 -1.006933e-001 4.261180e-002 9.410809e-003 -1.138299e-002 -3.837365e-002 3.871129e-003 -8.254947e-002 -8.394451e-003 4.336340e-002 4.197448e-002 -6.297085e-003 3.963409e-003 7.877843e-003 -3.821379e-002 -1.906140e-002 2.032529e-002 1.430370e-002 -2.083891e-002 -8.077236e-003 -4.495700e-002
<VARIANCE> 39
 1.548323e-002 3.330412e-002 3.530308e-002 5.396028e-002 6.399063e-002 5.461445e-002 8.849370e-002 7.985161e-002 6.988831e-002 7.307713e-002 6.725903e-002 6.111346e-002 3.721093e-002 1.751233e-003 4.195864e-003 6.666663e-003 5.880618e-003 6.867598e-003 8.287266e-003 9.129408e-003 1.009514e-002 9.415156e-003 8.904420e-003 7.152653e-003 5.950038e-003 4.019936e-003 4.617369e-004 5.723643e-004 8.282805e-004 1.189640e-003 1.149714e-003 1.512941e-003 1.926755e-003 1.696270e-003 1.734879e-003 1.718582e-003 1.446248e-003 1.270469e-003 6.451742e-004
<GCONST> -1.209749e+002
<MIXTURE> 11 6.704260e-002
<MEAN> 39
 3.756856e-002 -2.119192e-001 -5.483498e-002 -2.234910e-001 -1.390842e-001 3.035685e-001 1.039382e-001 -2.506118e-001 1.061200e-001 -7.044239e-002 -1.441024e-001 1.456092e-001 3.240200e-001 4.522962e-002 7.995971e-002 2.945151e-002 1.153025e-002 -6.892449e-002 -5.064700e-002 -1.488829e-002 3.069202e-002 -8.603177e-003 2.055458e-002 -3.836942e-002 -2.157946e-002 -8.396343e-002 7.361168e-003 3.718169e-002 1.552511e-002 2.340345e-002 3.739791e-004 -3.455715e-002 -1.432698e-002 2.089768e-002 -2.228716e-002 1.151836e-002 9.956845e-003 -1.497346e-002 -4.260547e-002
<VARIANCE> 39
 1.427357e-002 2.667941e-002 2.528473e-002 4.811285e-002 5.430209e-002 5.021757e-002 7.149272e-002 5.123496e-002 5.804609e-002 6.158774e-002 5.218680e-002 4.107723e-002 2.729978e-002 1.167436e-003 3.223453e-003 2.419163e-003 5.526840e-003 4.719147e-003 5.086514e-003 7.441723e-003 6.116229e-003 6.831132e-003 6.622285e-003 6.258067e-003 4.594833e-003 2.071151e-003 3.090705e-004 4.158374e-004 4.563664e-004 7.340697e-004 9.825962e-004 8.944565e-004 1.188183e-003 1.222812e-003 1.072203e-003 1.189192e-003 9.037555e-004 7.494743e-004 4.222658e-004
<GCONST> -1.344995e+002
<MIXTURE> 12 6.944293e-002
<MEAN> 39
 -5.520120e-002 1.223254e-002 -2.877022e-002 -5.136347e-001 1.218488e-001 1.716697e-001 -5.764426e-002 1.152026e-001 1.030128e-001 -2.158915e-001 7.882127e-002 2.961388e-002 2.989970e-001 1.008551e-002 3.501643e-002 -4.887693e-003 -9.721401e-003 -1.728292e-002 -3.644809e-002 4.975454e-003 4.022024e-002 1.370359e-003 5.434902e-003 7.569013e-004 -2.976923e-002 -2.364437e-002 9.368081e-003 7.956543e-003 3.178584e-003 1.984638e-002 -2.171188e-002 -9.882200e-003 6.094813e-004 -8.310440e-003 -1.640625e-003 1.291301e-002 -9.039763e-003 -2.121782e-004 -1.626799e-002
<VARIANCE> 39
 1.300935e-002 3.226198e-002 2.916694e-002 3.636887e-002 5.095446e-002 6.834523e-002 6.232405e-002 5.494043e-002 5.982754e-002 6.713125e-002 7.028852e-002 5.360984e-002 2.308381e-002 5.663933e-004 1.699289e-003 1.611233e-003 2.412038e-003 3.183064e-003 3.036961e-003 3.773930e-003 4.248546e-003 4.698690e-003 3.652204e-003 4.291526e-003 3.423992e-003 6.108518e-004 9.908767e-005 2.490455e-004 2.972186e-004 3.840358e-004 5.225619e-004 5.173761e-004 6.118040e-004 5.930708e-004 7.238142e-004 6.048845e-004 6.931594e-004 6.072667e-004 1.677175e-004
<GCONST> -1.490241e+002
<STATE> 4
<NUMMIXES> 12
<MIXTURE> 1 8.591273e-002
<MEAN> 39
 1.910832e-001 3.230124e-001 1.644713e-001 5.558620e-002 -2.050315e-001 -7.074845e-002 -1.209681e-001 -7.493544e-002 -1.295546e-001 -4.393727e-002 -1.837238e-001 9.753645e-003 -2.405751e-001 -1.211849e-002 6.072278e-002 4.840485e-002 6.322862e-002 3.522182e-002 -4.028148e-003 -3.254769e-002 -7.081647e-003 -3.451950e-002 -1.526581e-002 3.602849e-003 -5.493343e-003 -9.774609e-002 -2.004503e-002 -3.087746e-002 -1.640411e-002 -7.966529e-003 1.900590e-002 1.389275e-002 2.152445e-002 1.207715e-002 1.402235e-002 5.403975e-004 1.428201e-002 -4.162108e-003 1.780513e-002
<VARIANCE> 39
 1.596472e-002 4.733859e-002 3.412041e-002 7.188804e-002 5.518981e-002 7.051555e-002 6.845735e-002 7.359640e-002 8.405048e-002 7.043536e-002 6.838549e-002 5.058860e-002 4.621819e-002 3.529575e-003 4.893744e-003 4.406830e-003 7.847021e-003 7.058725e-003 7.515735e-003 9.221826e-003 8.285739e-003 8.195620e-003 7.667914e-003 7.189794e-003 5.872705e-003 5.742741e-003 2.760665e-004 5.548115e-004 5.554144e-004 9.309838e-004 9.164774e-004 1.171781e-003 1.238757e-003 1.199517e-003 1.390887e-003 1.173073e-003 1.171833e-003 9.087673e-004 4.856371e-004
<GCONST> -1.237397e+002
<MIXTURE> 2 1.282957e-001
<MEAN> 39
 1.102775e-001 5.818932e-002 1.423948e-002 -1.781371e-001 -1.930230e-001 8.434226e-002 -2.434822e-002 -5.378084e-002 6.994378e-002 -3.493883e-002 -1.282768e-001 7.251071e-002 7.771639e-002 8.872617e-003 2.317305e-002 5.213547e-003 8.259322e-003 -8.083959e-003 -1.799646e-002 -1.271150e-002 1.268697e-002 2.046295e-003 2.192097e-003 -4.830116e-003 -5.085234e-003 -2.239918e-002 -1.267283e-003 -3.942409e-004 6.914667e-004 6.804552e-003 3.759169e-003 -5.940773e-003 1.993635e-003 1.337065e-003 -6.532651e-003 4.715701e-003 6.400238e-003 -4.893073e-003 -2.417630e-003
<VARIANCE> 39
 1.434954e-002 4.707077e-002 3.929446e-002 6.815761e-002 5.909854e-002 7.389221e-002 7.061433e-002 6.922170e-002 7.614319e-002 6.669468e-002 5.792012e-002 4.824095e-002 4.809888e-002 4.137889e-004 1.370848e-003 1.368103e-003 2.203716e-003 2.819354e-003 2.988808e-003 3.523042e-003 3.465100e-003 3.496788e-003 3.399157e-003 3.127700e-003 2.807794e-003 7.753661e-004 6.265505e-005 1.788504e-004 2.280555e-004 3.058151e-004 3.510545e-004 4.754295e-004 5.655143e-004 5.896674e-004 6.164371e-004 6.041930e-004 5.433559e-004 4.825605e-004 8.762551e-005
<GCONST> -1.513394e+002
<MIXTURE> 3 1.082492e-001
<MEAN> 39
 7.744238e-002 -3.256836e-001 -7.173392e-002 2.160486e-001 -4.345820e-002 8.341795e-003 4.862185e-002 -1.523251e-001 -1.142788e-001 9.469757e-002 1.695735e-001 -1.303548e-002 2.384441e-001 2.668297e-002 4.410012e-002 9.981606e-003 7.822421e-003 -1.599891e-002 -1.895320e-002 -2.369301e-002 1.639469e-002 -2.652250e-003 -3.325840e-003 -2.166843e-002 1.988505e-003 -5.887139e-002 1.019150e-003 2.509414e-002 8.761780e-003 -6.923102e-003 1.873585e-004 -2.694587e-003 -5.236484e-003 5.319579e-003 4.044047e-003 -5.451264e-003 -1.600850e-002 2.185592e-003 -1.851915e-002
<VARIANCE> 39
 1.292353e-002 2.947235e-002 4.677992e-002 7.646923e-002 5.163835e-002 5.222998e-002 6.113075e-002 6.472230e-002 8.217363e-002 5.746499e-002 4.947965e-002 5.020908e-002 3.857429e-002 9.218293e-004 2.151992e-003 2.510080e-003 3.258446e-003 2.895602e-003 3.758785e-003 4.472013e-003 5.336393e-003 4.526947e-003 4.061842e-003 4.091443e-003 2.937282e-003 1.675949e-003 1.330834e-004 2.751079e-004 3.652302e-004 4.770072e-004 4.495993e-004 6.353025e-004 6.211760e-004 7.798510e-004 8.416118e-004 6.893724e-004 5.800002e-004 5.043822e-004 2.145508e-004
<GCONST> -1.435718e+002
<MIXTURE> 4 9.800780e-002
<MEAN> 39
 -2.790140e-001 1.708757e-002 1.589278e-001 1.909997e-001 3.013676e-002 6.106992e-002 -1.007620e-001 -2.648925e-002 1.325659e-002 -4.667597e-002 1.193435e-002 9.718154e-003 -5.451383e-001 -8.635453e-004 2.843279e-003 3.813729e-004 7.453231e-004 -7.256480e-004 -9.761485e-004 -2.894108e-003 3.123805e-003 -1.131994e-003 -3.724557e-003 -1.823572e-003 1.223189e-003 -3.264639e-003 2.976263e-003 2.055026e-003 4.254499e-004 4.109544e-004 7.573507e-004 1.262380e-003 2.291274e-003 9.788033e-004 -8.825412e-004 -7.980284e-004 -1.290619e-003 -1.397902e-003 3.273446e-004
<VARIANCE> 39
 2.557229e-002 3.698439e-002 3.579313e-002 5.604040e-002 5.248703e-002 4.398969e-002 5.956775e-002 7.538734e-002 7.126561e-002 5.529904e-002 4.698041e-002 3.474364e-002 1.030282e-001 6.177977e-004 9.236346e-004 1.370538e-003 2.140908e-003 2.485436e-003 2.481556e-003 4.064311e-003 3.939329e-003 3.985918e-003 3.903747e-003 3.148613e-003 2.541233e-003 2.534186e-004 1.216972e-004 1.713076e-004 2.814030e-004 4.189611e-004 4.949783e-004 5.208685e-004 8.386382e-004 8.179178e-004 7.920082e-004 8.026917e-004 6.227528e-004 5.450569e-004 5.206532e-005
<GCONST> -1.504733e+002
<MIXTURE> 5 6.362374e-002
<MEAN> 39
 -1.234608e-001 1.423416e-001 1.833857e-001 2.762991e-001 1.671803e-001 1.632895e-001 6.110913e-002 4.625722e-002 -5.716013e-003 -2.628588e-002 -4.003147e-002 -1.177657e-001 -4.667690e-001 -4.440708e-002 -1.245598e-002 -3.667212e-003 5.981936e-003 1.747580e-002 -3.315026e-004 3.555466e-003 1.145956e-002 8.084943e-003 -5.000017e-003 7.342897e-003 6.315215e-003 -3.680753e-002 1.115405e-002 -8.257869e-003 -1.294281e-002 -2.236074e-002 -2.532174e-002 -1.618043e-002 -1.058384e-002 -9.437233e-003 -3.534359e-003 1.087465e-003 2.997010e-004 1.426529e-002 2.050374e-002
<VARIANCE> 39
 3.838736e-002 5.069650e-002 4.814287e-002 7.245466e-002 5.706724e-002 6.884699e-002 7.984386e-002 8.732655e-002 6.253197e-002 5.396203e-002 5.805259e-002 3.712340e-002 9.709477e-002 3.135187e-003 4.469112e-003 4.521751e-003 7.437868e-003 7.164571e-003 6.209093e-003 7.600132e-003 7.642702e-003 6.947706e-003 5.477563e-003 5.438862e-003 3.628638e-003 5.276925e-003 4.607482e-004 8.491350e-004 9.160452e-004 1.351041e-003 1.089477e-003 1.059169e-003 1.489639e-003 1.854442e-003 1.282107e-003 9.665888e-004 1.130459e-003 7.365326e-004 7.723092e-004
<GCONST> -1.219891e+002
<MIXTURE> 6 9.395850e-002
<MEAN> 39
 -8.291112e-003 -4.633962e-003 1.021926e-002 -4.771586e-001 -3.390219e-002 2.686855e-001 -1.053483e-001 4.946917e-002 1.891283e-001 -2.951139e-001 2.508038e-002 9.020618e-002 2.520566e-001 4.357678e-002 1.006974e-001 1.496018e-002 5.333844e-004 -5.335841e-002 -8.104175e-002 -3.536826e-002 5.162096e-002 -6.206202e-003 1.233105e-002 -7.552582e-003 -1.573200e-002 -8.653544e-002 1.094733e-002 1.160196e-002 1.473069e-003 4.375695e-002 -1.134219e-002 -2.841070e-002 8.434712e-003 -1.608287e-002 -2.674726e-002 3.568487e-002 -8.773968e-003 -4.363087e-003 -2.537648e-002
<VARIANCE> 39
 1.480092e-002 2.902093e-002 2.851779e-002 4.589858e-002 5.639966e-002 5.045222e-002 7.423124e-002 6.817988e-002 6.412093e-002 6.516639e-002 7.161108e-002 6.053345e-002 2.916130e-002 1.718462e-003 3.243344e-003 2.824917e-003 5.418331e-003 7.767243e-003 6.271008e-003 7.499931e-003 8.737607e-003 7.232584e-003 7.975319e-003 7.461662e-003 6.395811e-003 2.416189e-003 2.404351e-004 4.044245e-004 5.525927e-004 7.812661e-004 8.853010e-004 9.243338e-004 1.366331e-003 1.380545e-003 1.467740e-003 1.127238e-003 1.239158e-003 1.151626e-003 3.561695e-004
<GCONST> -1.295102e+002
<MIXTURE> 7 8.596820e-002
<MEAN> 39
 1.189239e-001 1.698645e-002 7.169098e-002 -2.526440e-001 -3.413685e-001 1.397775e-001 1.211946e-001 -7.651827e-002 1.840807e-001 5.938074e-002 -2.791593e-001 1.336668e-002 1.324615e-001 3.635097e-002 1.150894e-001 5.455027e-002 6.441380e-002 -1.650129e-002 -6.771497e-002 -7.226396e-002 -3.573144e-003 -4.118220e-002 1.597584e-002 -6.311656e-003 -4.194169e-003 -1.282462e-001 -9.336533e-003 7.076488e-003 -2.164551e-003 2.779371e-002 3.310717e-002 -6.440971e-003 -6.454738e-003 3.873179e-003 -3.048925e-002 -1.010758e-002 2.654966e-002 -1.254117e-003 -1.987757e-002
<VARIANCE> 39
 1.167507e-002 3.158127e-002 2.928559e-002 4.841781e-002 4.178260e-002 5.044810e-002 6.345162e-002 5.945985e-002 5.624337e-002 6.251609e-002 4.523207e-002 4.326162e-002 3.763628e-002 1.785561e-003 3.347038e-003 3.215677e-003 5.804549e-003 6.333489e-003 6.023021e-003 7.393463e-003 8.371498e-003 8.516726e-003 6.950981e-003 5.705750e-003 5.158050e-003 3.270081e-003 2.751840e-004 4.987880e-004 4.733409e-004 8.652646e-004 8.882831e-004 1.124024e-003 1.092749e-003 1.238294e-003 1.024573e-003 1.035032e-003 9.209934e-004 8.596615e-004 5.188629e-004
<GCONST> -1.315766e+002
<MIXTURE> 8 7.186595e-002
<MEAN> 39
 2.208724e-002 3.122189e-001 -9.276745e-002 -4.474430e-001 2.304799e-002 -2.380221e-001 9.896425e-002 1.864267e-001 4.304665e-002 -4.021112e-002 -5.364808e-002 -9.924144e-002 1.231178e-001 2.081451e-002 5.489640e-002 -3.537909e-003 4.691492e-002 -3.099087e-002 -4.975469e-002 -1.043097e-002 -6.417145e-003 -1.142570e-002 2.121703e-002 -1.318078e-002 3.155331e-003 -5.246830e-002 3.290659e-003 -1.629865e-002 8.434464e-003 2.230568e-002 -9.613180e-003 2.222736e-002 -1.251586e-002 -1.522243e-002 -4.797404e-003 -1.941303e-003 4.336545e-003 1.239015e-002 -6.278674e-003
<VARIANCE> 39
 1.823753e-002 3.498834e-002 4.508894e-002 4.542037e-002 6.235607e-002 4.597522e-002 7.463710e-002 7.570343e-002 6.130644e-002 7.260935e-002 6.898361e-002 6.178478e-002 4.183314e-002 1.354772e-003 3.284475e-003 3.423221e-003 4.159023e-003 5.878077e-003 6.302604e-003 6.590476e-003 6.616809e-003 5.918073e-003 5.526553e-003 6.272253e-003 5.145626e-003 1.984616e-003 1.861560e-004 3.496595e-004 4.846222e-004 5.793932e-004 9.922982e-004 6.980228e-004 9.698153e-004 1.100866e-003 1.130334e-003 9.212556e-004 9.527750e-004 8.810867e-004 2.312785e-004
<GCONST> -1.332686e+002
<MIXTURE> 9 8.470908e-002
<MEAN> 39
 1.871957e-001 -1.046997e-001 -7.078981e-002 1.015699e-001 -2.759448e-001 -6.512557e-002 2.341145e-001 3.504096e-002 -2.525711e-001 6.240075e-002 4.011584e-002 -7.002604e-002 8.962992e-002 2.934444e-002 1.053113e-001 4.224438e-002 2.249737e-002 -2.732597e-002 -1.122424e-001 -5.169255e-002 8.675680e-002 -1.880689e-002 -6.246684e-003 -6.001951e-003 1.177822e-002 -1.008955e-001 -1.109198e-002 1.779084e-002 1.274143e-002 -1.611830e-002 1.435568e-002 4.379862e-003 -2.351173e-002 -6.334010e-003 2.466888e-002 -7.299967e-003 -1.675489e-002 1.262651e-002 -8.431393e-003
<VARIANCE> 39
 1.144726e-002 2.818246e-002 2.836923e-002 4.190516e-002 4.428594e-002 5.393003e-002 5.677100e-002 8.023097e-002 6.144605e-002 5.288916e-002 4.567223e-002 4.452560e-002 3.363156e-002 1.222821e-003 4.333821e-003 4.532871e-003 5.966257e-003 5.994824e-003 6.648161e-003 1.007941e-002 9.842251e-003 8.538914e-003 6.772587e-003 8.251565e-003 5.262424e-003 2.368847e-003 1.590699e-004 4.522314e-004 4.951351e-004 6.768656e-004 7.951838e-004 9.508095e-004 8.796588e-004 1.294389e-003 1.087911e-003 1.046300e-003 1.010932e-003 7.687085e-004 3.458226e-004
<GCONST> -1.325675e+002
<MIXTURE> 10 6.207987e-002
<MEAN> 39
 2.511860e-001 1.737422e-002 -1.115342e-001 1.393954e-002 -1.759660e-001 -5.285336e-002 -1.252502e-001 -9.352746e-002 -1.079180e-001 6.240514e-002 -6.791007e-003 4.277159e-002 3.069397e-002 1.201899e-002 1.293048e-001 8.664349e-002 5.762376e-002 5.762532e-004 -1.446760e-002 -4.923514e-002 3.913786e-003 -4.122651e-002 -1.942687e-002 -4.015683e-002 -1.414782e-002 -1.489949e-001 -3.622711e-002 -2.257298e-003 2.574231e-002 1.419243e-002 3.179224e-002 2.397033e-002 2.890241e-002 1.071742e-002 1.048232e-002 -1.021798e-002 1.567938e-003 -9.208800e-003 -1.622780e-002
<VARIANCE> 39
 1.656514e-002 5.412874e-002 4.013148e-002 1.024516e-001 7.209053e-002 8.023573e-002 1.028180e-001 8.945623e-002 6.774653e-002 8.127590e-002 7.696700e-002 6.730273e-002 5.366616e-002 3.662440e-003 4.847462e-003 5.671568e-003 8.294679e-003 7.363224e-003 8.404915e-003 1.029081e-002 1.061136e-002 9.205420e-003 9.187601e-003 7.909962e-003 5.912877e-003 6.046344e-003 3.281806e-004 7.291448e-004 7.046186e-004 1.225905e-003 1.186557e-003 1.751837e-003 1.774851e-003 1.791909e-003 1.368256e-003 1.664376e-003 1.364191e-003 1.349961e-003 7.111749e-004
<GCONST> -1.166329e+002
<MIXTURE> 11 5.292222e-002
<MEAN> 39
 2.460250e-001 -8.709809e-002 -3.029467e-001 1.247069e-001 1.070433e-002 -1.711304e-001 -1.156676e-001 2.033666e-001 -5.692310e-003 -8.259165e-002 -6.378204e-002 4.396386e-002 9.101585e-002 1.697038e-002 9.443936e-002 5.304327e-002 -1.210503e-002 -2.951048e-003 -2.944804e-002 -9.523013e-002 -6.679803e-003 3.435744e-002 3.133566e-002 -4.348157e-002 -1.280202e-002 -8.744970e-002 -1.538567e-002 1.287689e-002 3.168812e-002 -6.857567e-003 -1.030230e-002 9.430075e-003 1.730423e-002 -2.265029e-002 -1.184035e-002 1.249217e-002 6.939636e-003 -5.339225e-003 -9.621623e-003
<VARIANCE> 39
 1.144986e-002 3.407852e-002 4.640119e-002 4.635331e-002 4.586677e-002 4.691611e-002 5.873951e-002 6.328054e-002 5.756752e-002 6.147153e-002 4.747741e-002 4.144916e-002 3.219536e-002 1.246287e-003 3.785507e-003 5.594046e-003 4.719348e-003 5.427266e-003 7.219027e-003 9.770572e-003 7.972015e-003 7.174488e-003 7.344867e-003 6.425420e-003 5.743937e-003 2.907921e-003 1.718317e-004 4.279251e-004 7.041262e-004 7.100951e-004 7.191064e-004 9.654051e-004 1.111248e-003 1.174626e-003 1.036790e-003 1.177531e-003 8.603492e-004 8.192677e-004 3.027061e-004
<GCONST> -1.322205e+002
<MIXTURE> 12 6.441119e-002
<MEAN> 39
 -8.193832e-002 -1.401925e-001 -8.492192e-002 -2.230920e-001 -3.887300e-002 9.956489e-002 -3.108170e-003 -1.463319e-002 1.582170e-001 1.852797e-001 3.436799e-001 3.039977e-002 2.453904e-001 3.694768e-002 4.473981e-002 -6.968680e-003 -3.836684e-004 -4.726963e-002 -4.619316e-002 4.258113e-003 4.450167e-002 7.698698e-003 3.441507e-002 -2.776710e-002 -1.274852e-002 -5.760062e-002 1.072738e-002 1.375402e-002 5.194210e-003 1.119179e-002 -8.621285e-003 -1.081338e-002 -1.610675e-003 6.815646e-003 -2.636865e-003 -4.396383e-003 -2.846683e-002 1.386216e-003 -1.680366e-002
<VARIANCE> 39
 2.229789e-002 5.061189e-002 5.658141e-002 9.481049e-002 1.099907e-001 1.148686e-001 1.289364e-001 1.690243e-001 2.019494e-001 1.885503e-001 1.438694e-001 1.284258e-001 4.545237e-002 2.066124e-003 5.438103e-003 4.460074e-003 7.183509e-003 8.553182e-003 9.918068e-003 1.168354e-002 1.189673e-002 1.708518e-002 1.406171e-002 1.317887e-002 1.091542e-002 3.566100e-003 2.921699e-004 6.528280e-004 8.112611e-004 1.149820e-003 1.528144e-003 1.759004e-003 1.982891e-003 2.212978e-003 2.973937e-003 2.494603e-003 2.068331e-003 1.782124e-003 4.422150e-004
<GCONST> -1.082702e+002
<TRANSP> 5
 0.000000e+000 1.000000e+000 0.000000e+000 0.000000e+000 0.000000e+000
 0.000000e+000 5.856901e-001 4.143099e-001 0.000000e+000 0.000000e+000
 0.000000e+000 0.000000e+000 5.406473e-001 4.593527e-001 0.000000e+000
 0.000000e+000 0.000000e+000 0.000000e+000 4.490482e-001 5.509518e-001
 0.000000e+000 0.000000e+000 0.000000e+000 0.000000e+000 0.000000e+000
<ENDHMM>
~h ">"
<BEGINHMM>
<NUMSTATES> 5
<STATE> 2
<NUMMIXES> 12
<MIXTURE> 1 5.172036e-002
<MEAN> 39
 -2.363265e-001 1.514241e-001 1.149987e-001 2.925833e-001 2.287126e-002 1.437324e-001 1.748443e-002 9.239250e-002 -1.300205e-001 -1.415303e-002 -9.906284e-002 -2.066032e-002 -9.137481e-001 -2.763175e-003 -8.231611e-004 -1.210180e-003 -8.819751e-004 -2.663159e-003 -3.369231e-003 -6.438704e-004 -2.161983e-003 -1.562532e-003 1.488820e-003 3.910427e-003 1.283852e-003 -3.005915e-003 2.601383e-003 3.284084e-004 5.837710e-005 -1.329454e-003 -4.247194e-004 -9.023210e-004 -1.619462e-003 -4.347940e-004 1.381480e-003 1.586098e-004 3.777417e-004 1.486673e-004 2.926558e-003
<VARIANCE> 39
 4.019876e-002 3.424746e-002 2.763670e-002 4.441811e-002 4.594231e-002 4.062810e-002 5.637079e-002 5.495290e-002 4.978047e-002 4.665460e-002 4.787600e-002 2.305217e-002 8.579831e-002 7.050111e-004 1.045173e-003 1.217806e-003 1.911562e-003 2.349793e-003 2.171129e-003 3.452235e-003 4.292987e-003 3.359942e-003 4.200074e-003 3.209048e-003 1.882591e-003 3.003462e-004 1.699156e-004 2.064825e-004 2.794169e-004 3.839227e-004 4.763865e-004 4.755035e-004 7.579173e-004 8.937522e-004 6.643939e-004 8.085605e-004 6.901190e-004 3.859195e-004 9.084698e-005
<GCONST> -1.522977e+002
<MIXTURE> 2 1.867801e-001
<MEAN> 39
 1.574535e-001 -3.297232e-001 -3.790221e-001 2.171789e-001 2.393737e-001 -1.295545e-001 -5.861841e-002 2.170259e-002 9.734969e-003 -1.067968e-001 1.228968e-001 9.646077e-002 4.785408e-001 2.561809e-003 1.367636e-003 -1.153061e-003 1.735303e-003 1.274091e-005 2.133413e-003 -4.164004e-003 1.530581e-003 8.603111e-004 2.218100e-004 -2.151347e-003 -8.484051e-004 -5.775755e-003 2.097194e-004 5.422330e-004 1.537213e-003 -2.578950e-004 -1.485262e-003 -1.269705e-004 1.340080e-003 9.561485e-004 -1.777502e-003 1.698462e-003 4.732205e-004 -1.561387e-003 -1.651660e-003
<VARIANCE> 39
 2.538594e-002 2.308360e-002 3.379986e-002 4.615805e-002 4.131341e-002 4.069502e-002 4.823799e-002 5.712515e-002 5.954847e-002 3.535874e-002 4.941254e-002 3.271784e-002 7.043200e-002 2.100742e-004 3.326055e-004 6.016669e-004 7.065798e-004 8.190429e-004 1.062570e-003 1.246734e-003 1.408288e-003 1.431368e-003 1.162520e-003 1.279376e-003 1.149713e-003 1.792711e-004 3.444995e-005 5.643974e-005 9.838699e-005 1.179154e-004 1.386424e-004 1.792134e-004 2.217311e-004 2.626337e-004 2.374554e-004 2.038227e-004 2.128727e-004 2.063678e-004 1.768537e-005
<GCONST> -1.806981e+002
<MIXTURE> 3 1.223969e-001
<MEAN> 39
 1.003410e-001 -3.358368e-001 -3.580795e-001 2.628693e-001 1.921462e-001 -1.189435e-001 2.096116e-002 7.070725e-002 -1.182251e-001 -1.143217e-001 1.965995e-001 1.069896e-001 3.426009e-001 -1.007137e-002 -1.123945e-002 7.767317e-003 1.252390e-002 8.712097e-003 -4.273262e-003 1.223378e-003 -1.077055e-002 -7.973911e-003 5.819845e-003 1.352676e-002 2.120467e-003 1.333493e-002 2.549680e-003 7.339932e-003 6.143045e-003 -6.653327e-003 -1.057819e-002 3.541189e-003 1.570678e-003 -2.382438e-003 3.546141e-003 9.404796e-003 -8.609946e-003 -7.954096e-003 -8.452668e-003
<VARIANCE> 39
 1.966279e-002 2.589394e-002 5.350003e-002 5.632924e-002 5.986347e-002 4.136242e-002 6.521308e-002 5.912641e-002 5.726422e-002 4.870782e-002 5.803605e-002 4.389415e-002 4.641293e-002 5.269612e-004 9.653924e-004 1.756361e-003 1.812326e-003 2.007456e-003 2.368253e-003 3.618161e-003 3.425139e-003 3.573401e-003 3.496988e-003 3.308685e-003 2.904979e-003 7.419565e-004 9.769455e-005 1.744117e-004 3.222883e-004 3.391395e-004 4.120132e-004 3.963674e-004 5.808389e-004 5.867205e-004 5.380971e-004 5.526613e-004 5.208037e-004 4.863107e-004 1.326403e-004
<GCONST> -1.525285e+002
<MIXTURE> 4 7.261547e-002
<MEAN> 39
 2.565385e-001 -1.540928e-001 -6.457117e-001 3.753331e-002 2.565161e-001 9.235757e-002 -1.483252e-001 9.564038e-002 2.171754e-001 1.129878e-002 -2.640984e-001 -1.787470e-001 1.954061e-001 -2.908226e-002 -5.907418e-002 2.001170e-002 6.629626e-002 1.253575e-002 -7.411788e-002 2.595752e-002 7.559063e-002 -2.288584e-002 -1.151455e-001 -1.795342e-002 8.294425e-002 4.236214e-002 -6.748016e-003 3.953640e-004 2.792366e-002 4.128021e-003 -2.761609e-002 -1.238510e-002 3.275181e-002 9.034386e-003 -3.909383e-002 -9.530801e-003 3.927945e-002 2.402623e-002 -4.080868e-003
<VARIANCE> 39
 1.111636e-002 2.717192e-002 3.383313e-002 4.057187e-002 3.952041e-002 4.603764e-002 4.493180e-002 5.660444e-002 5.451922e-002 4.650394e-002 3.572700e-002 3.631963e-002 2.890022e-002 6.638230e-004 1.327365e-003 1.812715e-003 2.647036e-003 3.322602e-003 3.726735e-003 4.465055e-003 5.372195e-003 4.585990e-003 4.524564e-003 6.189958e-003 4.055846e-003 1.021240e-003 1.221431e-004 2.822421e-004 4.071664e-004 3.785455e-004 5.523782e-004 5.563955e-004 8.332934e-004 8.151666e-004 9.642669e-004 8.572052e-004 8.759614e-004 8.207030e-004 1.841917e-004
<GCONST> -1.466766e+002
<MIXTURE> 5 7.659702e-002
<MEAN> 39
 3.181942e-001 -1.411389e-002 -6.569939e-001 -1.065656e-001 1.250917e-001 2.687119e-001 -6.600419e-002 -1.959410e-002 1.498934e-001 2.406895e-001 -1.903459e-002 -2.816690e-001 1.027459e-001 -2.630205e-002 -6.962870e-002 -2.121730e-002 5.646710e-002 6.635866e-002 -4.612275e-002 -2.930130e-002 2.709766e-002 6.657326e-002 -3.748533e-002 -7.572034e-002 -1.958703e-002 6.379469e-002 -1.245930e-002 -1.224338e-002 2.601217e-002 2.129125e-002 -1.173486e-002 -3.657308e-002 1.564512e-002 3.041730e-002 -1.884579e-002 -4.536743e-002 -4.266892e-003 3.978297e-002 1.872064e-003
<VARIANCE> 39
 1.093289e-002 3.076842e-002 3.848498e-002 4.558305e-002 4.799656e-002 5.273401e-002 5.516408e-002 5.594954e-002 6.940294e-002 5.234438e-002 6.329125e-002 3.998617e-002 3.051012e-002 8.405264e-004 1.748821e-003 2.933535e-003 3.309729e-003 4.351577e-003 6.257833e-003 4.824614e-003 6.271654e-003 5.087915e-003 6.776945e-003 6.060509e-003 5.642686e-003 1.690418e-003 1.429541e-004 3.792100e-004 5.370468e-004 5.701945e-004 8.365964e-004 7.784697e-004 1.263201e-003 1.149524e-003 1.328672e-003 1.044460e-003 1.508530e-003 9.723707e-004 2.860962e-004
<GCONST> -1.368388e+002
<MIXTURE> 6 1.138398e-001
<MEAN> 39
 3.322028e-001 1.547672e-001 -4.710314e-001 -1.903502e-001 -1.285785e-001 2.093111e-001 5.043734e-002 6.688289e-002 -2.186674e-002 9.228861e-002 4.887609e-002 -4.372939e-002 -6.146045e-002 4.459213e-004 -1.324780e-002 -2.381633e-002 -5.082212e-003 1.380777e-002 1.373712e-002 6.394567e-003 -2.923982e-003 1.623723e-002 1.225667e-002 -7.784761e-004 -2.002156e-002 2.535676e-002 -6.654218e-003 -1.827404e-002 -4.686567e-003 1.591374e-002 2.115881e-002 -9.098688e-003 -1.327933e-002 1.200208e-004 1.751526e-002 1.508788e-003 -1.521328e-002 -1.242258e-002 1.182868e-002
<VARIANCE> 39
 1.043526e-002 3.554299e-002 4.180913e-002 3.978197e-002 6.482507e-002 5.538516e-002 4.533247e-002 5.229602e-002 5.323726e-002 4.798399e-002 6.129182e-002 4.520261e-002 4.417770e-002 5.389487e-004 2.219809e-003 2.643281e-003 2.291448e-003 4.580404e-003 3.763685e-003 4.100620e-003 4.437238e-003 4.738310e-003 4.261380e-003 4.687444e-003 4.725663e-003 1.871656e-003 9.109533e-005 3.567949e-004 3.923921e-004 4.944531e-004 6.462270e-004 8.187227e-004 7.511765e-004 8.367738e-004 9.311971e-004 9.036492e-004 1.055276e-003 7.963589e-004 2.167455e-004
<GCONST> -1.424591e+002
<MIXTURE> 7 3.228543e-002
<MEAN> 39
 7.370286e-002 1.069576e-001 -5.489991e-002 9.623529e-002 -8.563280e-003 1.464117e-002 -5.336370e-002 4.649232e-002 -8.937743e-002 -4.335289e-002 -6.363501e-002 1.880763e-003 -3.788282e-001 1.451637e-002 -2.769957e-002 -4.871815e-002 -2.550938e-002 -6.604992e-004 -1.241580e-003 1.153673e-002 5.884710e-003 1.481924e-002 1.222757e-002 6.371312e-003 -2.722980e-005 4.886535e-002 -3.142673e-003 -8.598452e-003 -6.206583e-003 3.637526e-003 5.140169e-003 5.415981e-003 4.826072e-003 -9.039077e-005 8.332625e-003 6.436400e-004 -7.461052e-004 -1.931295e-003 1.450893e-002
<VARIANCE> 39
 7.200173e-002 5.248338e-002 8.739252e-002 8.754157e-002 5.882026e-002 6.412121e-002 6.201869e-002 8.126142e-002 5.443702e-002 5.399321e-002 6.022771e-002 3.970107e-002 2.156082e-001 6.059395e-003 5.395223e-003 1.013034e-002 7.100428e-003 6.590737e-003 7.670686e-003 7.954457e-003 7.718675e-003 7.189297e-003 6.346684e-003 4.616748e-003 5.034632e-003 1.808543e-002 9.655509e-004 9.355923e-004 1.657870e-003 1.000100e-003 1.163926e-003 1.363519e-003 1.213081e-003 1.436573e-003 1.069096e-003 1.093150e-003 9.464195e-004 9.656028e-004 2.169927e-003
<GCONST> -1.147196e+002
<MIXTURE> 8 3.367836e-002
<MEAN> 39
 1.160030e-001 -3.234980e-001 -2.877408e-001 1.457132e-001 -1.759157e-001 -1.279034e-001 4.438625e-001 1.883936e-001 -3.408662e-001 -1.040898e-001 1.641630e-001 -5.781499e-003 3.490956e-001 -3.393684e-002 1.809339e-002 9.729528e-002 -8.453815e-002 -7.933088e-002 7.847597e-002 5.934445e-002 -1.254278e-001 -3.884846e-003 9.499392e-002 -1.051830e-002 -5.258643e-002 1.911173e-002 5.432099e-003 3.819556e-002 1.171052e-002 -2.756299e-002 1.056125e-002 1.997729e-002 -6.404989e-002 -1.677646e-002 6.080923e-002 7.466331e-003 -4.410449e-002 3.839671e-004 -3.379102e-002
<VARIANCE> 39
 1.300122e-002 3.061690e-002 2.690762e-002 5.139713e-002 4.693271e-002 4.288453e-002 5.461250e-002 9.095507e-002 5.080029e-002 4.910093e-002 5.010708e-002 4.521331e-002 3.006990e-002 1.030018e-003 2.011500e-003 3.500348e-003 4.217068e-003 4.825457e-003 4.084893e-003 5.726597e-003 6.895626e-003 5.714844e-003 5.502613e-003 7.338386e-003 5.296989e-003 1.370330e-003 3.374882e-004 4.704045e-004 6.529107e-004 9.091502e-004 1.063987e-003 8.346675e-004 1.244788e-003 1.547154e-003 1.158678e-003 1.233187e-003 1.219027e-003 1.050916e-003 5.867285e-004
<GCONST> -1.336905e+002
<MIXTURE> 9 1.167800e-001
<MEAN> 39
 1.899664e-003 -4.339788e-001 -8.275163e-002 4.635443e-001 2.405546e-002 -2.048489e-001 3.474043e-003 -1.251025e-002 -1.695022e-001 9.863805e-002 2.137157e-001 -3.786944e-002 3.952839e-001 2.673500e-003 8.834763e-004 -9.181703e-004 -8.565777e-004 1.130622e-003 -1.622451e-004 -2.746197e-003 1.565704e-003 3.254716e-003 -7.894781e-004 -2.460648e-003 -7.602130e-004 -2.780990e-003 1.448988e-003 1.818650e-003 -3.230134e-004 -3.149344e-003 -4.800211e-004 4.417466e-003 2.045383e-004 -2.235146e-003 2.862618e-003 -2.770768e-003 -1.874618e-003 2.171807e-003 -3.128248e-003
<VARIANCE> 39
 2.092315e-002 2.196038e-002 4.175105e-002 8.227194e-002 6.368579e-002 5.715110e-002 6.508355e-002 9.021403e-002 6.733488e-002 5.400104e-002 5.079736e-002 4.741777e-002 2.709653e-002 4.200333e-004 5.446326e-004 9.118481e-004 1.069659e-003 1.201702e-003 1.692413e-003 1.759380e-003 1.860724e-003 2.043604e-003 1.865957e-003 1.758302e-003 1.637540e-003 2.348255e-004 7.572948e-005 1.101662e-004 1.324242e-004 1.887051e-004 1.974702e-004 2.576430e-004 2.981579e-004 3.035359e-004 3.459446e-004 2.904041e-004 2.679035e-004 2.675238e-004 4.415946e-005
<GCONST> -1.678580e+002
<MIXTURE> 10 4.146611e-002
<MEAN> 39
 -4.483839e-002 -3.193404e-001 -1.739276e-001 3.678962e-002 2.520591e-002 1.110599e-001 7.144201e-002 -9.921995e-002 5.233162e-002 9.525498e-002 1.684877e-001 7.120290e-002 3.597834e-001 2.647222e-003 2.394311e-002 5.631247e-003 -4.831904e-002 -5.603705e-003 1.423452e-002 -1.638567e-002 1.059043e-002 3.097464e-002 -1.734578e-002 -1.845714e-002 6.610465e-003 -1.678067e-002 1.626160e-002 2.654598e-002 3.128998e-003 -1.460628e-003 -1.435399e-002 -1.687759e-002 -8.144557e-003 1.566268e-002 -6.663104e-003 -1.396610e-003 -8.180823e-003 -6.226582e-003 -2.875194e-002
<VARIANCE> 39
 2.711472e-002 4.443589e-002 6.546372e-002 1.077660e-001 8.379880e-002 8.697560e-002 1.007017e-001 1.539297e-001 1.400521e-001 1.805236e-001 1.391962e-001 1.000746e-001 3.443363e-002 1.830633e-003 2.848724e-003 3.933878e-003 7.004359e-003 5.767293e-003 6.346412e-003 9.153668e-003 9.921024e-003 1.069331e-002 1.010543e-002 1.046695e-002 6.919909e-003 1.896794e-003 3.631681e-004 6.183707e-004 9.811813e-004 9.865984e-004 1.325014e-003 1.441001e-003 1.676607e-003 2.315267e-003 2.264230e-003 2.566841e-003 2.029824e-003 1.695925e-003 5.470515e-004
<GCONST> -1.144563e+002
<MIXTURE> 11 1.080123e-001
<MEAN> 39
 2.502664e-001 -7.508991e-002 -6.041797e-001 -7.305215e-002 1.922655e-001 1.401365e-001 -9.709661e-002 3.000189e-002 1.873769e-001 8.339640e-002 -1.285834e-001 -1.741010e-001 1.827009e-001 -2.962674e-003 -1.206644e-002 -2.570380e-003 1.233495e-002 1.475708e-002 -3.859400e-004 -6.752715e-003 2.388311e-004 2.592493e-003 -1.354258e-002 -1.003572e-002 8.189164e-003 4.168355e-003 -1.629055e-003 -7.584599e-004 8.777802e-003 6.700422e-003 -5.084690e-003 -1.051312e-002 3.638592e-003 8.928124e-003 -6.056373e-003 -1.015231e-002 2.572527e-003 1.014894e-002 -2.436300e-003
<VARIANCE> 39
 1.159467e-002 2.600093e-002 3.373166e-002 4.115940e-002 4.775004e-002 5.245357e-002 5.706573e-002 5.914149e-002 4.521566e-002 5.387615e-002 5.292420e-002 4.336225e-002 2.602644e-002 3.316931e-004 1.040050e-003 1.065380e-003 1.434997e-003 2.045514e-003 2.460778e-003 2.512490e-003 2.780257e-003 2.501431e-003 3.094391e-003 3.714851e-003 3.283733e-003 5.451063e-004 5.462615e-005 1.602470e-004 1.952855e-004 2.567389e-004 3.182616e-004 4.281415e-004 4.423349e-004 4.984633e-004 4.640756e-004 4.983489e-004 6.280518e-004 5.026250e-004 7.994898e-005
<GCONST> -1.595537e+002
<MIXTURE> 12 4.380964e-002
<MEAN> 39
 1.767208e-001 -1.833945e-001 -4.201576e-001 -3.352981e-002 3.129551e-002 4.489115e-002 7.982203e-002 2.726216e-001 2.294727e-001 -3.384236e-002 -2.748596e-001 -2.128017e-001 2.588282e-001 -1.031756e-002 -9.530886e-003 1.908309e-002 1.422558e-002 3.805290e-003 -1.352272e-002 -4.572647e-003 4.603310e-004 -7.965632e-003 -1.849853e-002 -2.253822e-004 2.281258e-002 1.028477e-002 -1.302466e-003 1.958377e-002 2.218892e-002 8.231997e-003 -7.261439e-003 -7.672608e-003 -6.890452e-003 -2.034799e-002 -2.990165e-002 -1.074437e-003 3.039524e-002 2.275102e-002 -2.497681e-002
<VARIANCE> 39
 1.705291e-002 4.247872e-002 6.440521e-002 4.882412e-002 5.912741e-002 6.759000e-002 7.330303e-002 7.198878e-002 5.711579e-002 8.337089e-002 7.223900e-002 5.913284e-002 3.338514e-002 1.417344e-003 3.601071e-003 4.026102e-003 3.166934e-003 5.175781e-003 6.162562e-003 7.122363e-003 7.899098e-003 7.796324e-003 7.701503e-003 7.510022e-003 6.926757e-003 3.677879e-003 2.953708e-004 5.831050e-004 1.068494e-003 6.444490e-004 8.713111e-004 1.057410e-003 1.358861e-003 1.230579e-003 1.142046e-003 1.467751e-003 1.269266e-003 1.084577e-003 6.807357e-004
<GCONST> -1.261171e+002
<STATE> 3
<NUMMIXES> 12
<MIXTURE> 1 9.733829e-003
<MEAN> 39
 -4.313518e-001 2.987985e-001 2.341623e-001 -2.033737e-001 -2.216452e-001 3.697397e-001 3.292419e-001 1.860127e-001 -2.071646e-001 2.091364e-001 -2.838157e-002 4.035182e-002 -1.121943e+000 5.018552e-004 3.544167e-004 -3.945131e-004 -4.645735e-003 -3.712072e-003 -2.315929e-003 -8.170863e-004 -1.616526e-003 1.679105e-003 -1.428786e-003 7.205479e-004 4.033948e-003 2.263831e-004 1.171850e-003 -4.863767e-004 -2.916990e-004 -3.394821e-004 -1.319074e-003 -9.403813e-004 -2.067787e-003 1.986795e-004 2.323911e-004 8.695463e-005 -1.245026e-003 1.044230e-003 8.754642e-004
<VARIANCE> 39
 2.838137e-003 4.428693e-003 1.312200e-002 1.724324e-002 2.243160e-002 2.274984e-002 1.804582e-002 4.105194e-002 2.951791e-002 3.220409e-002 4.785628e-002 1.716133e-002 2.655918e-003 2.967560e-004 3.923159e-004 1.079104e-003 1.381607e-003 2.912263e-003 1.413912e-003 2.364787e-003 3.831633e-003 4.533189e-003 4.478819e-003 2.981456e-003 2.207293e-003 8.971041e-005 6.618139e-005 7.764595e-005 2.051754e-004 2.778148e-004 6.538149e-004 2.890289e-004 5.238723e-004 8.135025e-004 1.085178e-003 9.798019e-004 5.743469e-004 5.230651e-004 2.394004e-005
<GCONST> -1.735610e+002
<MIXTURE> 2 8.633115e-002
<MEAN> 39
 2.263051e-001 -2.335234e-001 -6.037205e-001 1.469989e-001 2.201064e-001 -9.393413e-002 -7.896420e-002 2.711695e-001 2.218045e-001 -1.503982e-001 -2.783980e-001 -5.268208e-002 2.643507e-001 -4.867879e-002 -6.789091e-002 8.160419e-002 7.437958e-002 -4.150030e-002 -1.131125e-001 1.014973e-001 9.745747e-002 -1.001544e-001 -1.266922e-001 4.616361e-002 1.124555e-001 5.477268e-002 -3.130688e-003 1.962926e-002 3.708405e-002 -2.602713e-002 -4.052798e-002 2.516698e-002 3.680139e-002 -3.014786e-002 -4.865971e-002 3.325996e-002 4.894814e-002 -6.121682e-003 -1.560216e-002
<VARIANCE> 39
 1.464027e-002 2.541968e-002 4.351739e-002 4.401295e-002 4.302836e-002 5.795066e-002 4.703358e-002 6.664884e-002 6.022254e-002 5.895363e-002 5.501143e-002 5.352456e-002 3.267735e-002 1.054570e-003 2.089601e-003 3.396274e-003 3.751358e-003 6.070130e-003 5.425439e-003 7.454896e-003 7.997386e-003 7.797807e-003 6.407883e-003 9.037492e-003 5.460038e-003 1.813479e-003 2.114688e-004 3.739433e-004 6.449646e-004 7.384463e-004 7.270609e-004 1.098734e-003 1.083248e-003 1.401229e-003 1.289163e-003 1.284630e-003 1.357934e-003 1.179592e-003 2.384882e-004
<GCONST> -1.329488e+002
<MIXTURE> 3 9.869876e-002
<MEAN> 39
 1.383207e-001 -3.272210e-001 -4.626880e-001 2.151103e-001 1.215438e-001 -1.864021e-001 1.714483e-001 3.994856e-001 -9.952477e-002 -3.698675e-001 -2.479908e-002 1.969334e-001 3.351260e-001 -4.038838e-002 -3.367894e-002 1.018938e-001 1.538271e-002 -8.701966e-002 -2.650265e-002 1.388956e-001 2.653605e-003 -1.435987e-001 -7.500518e-003 1.239081e-001 3.561506e-002 3.110650e-002 5.921445e-003 2.889929e-002 1.750611e-002 -3.810341e-002 -2.090198e-002 4.273353e-002 -8.524101e-003 -5.785039e-002 1.365451e-002 6.877914e-002 -5.996112e-003 -4.919702e-002 -1.905222e-002
<VARIANCE> 39
 1.533260e-002 2.542553e-002 3.556243e-002 4.542850e-002 4.662019e-002 5.004704e-002 5.657291e-002 6.434810e-002 5.950441e-002 4.777675e-002 5.764880e-002 4.309053e-002 3.190832e-002 8.493511e-004 1.983054e-003 3.106194e-003 3.564683e-003 4.520430e-003 4.317532e-003 6.319047e-003 6.924856e-003 6.792876e-003 6.381892e-003 5.794074e-003 5.459691e-003 1.113020e-003 1.816432e-004 4.012285e-004 4.490007e-004 8.226556e-004 6.801210e-004 1.023585e-003 1.118703e-003 1.208156e-003 1.126565e-003 8.415774e-004 1.469019e-003 9.060490e-004 2.485451e-004
<GCONST> -1.370130e+002
<MIXTURE> 4 9.602817e-002
<MEAN> 39
 1.867785e-001 -2.455098e-001 -5.236610e-001 1.551109e-001 2.238735e-001 -8.037174e-002 -3.392505e-002 2.408853e-001 3.410611e-002 -2.573086e-001 -1.537995e-001 1.265606e-001 2.443992e-001 -1.877755e-002 -2.730586e-002 4.153480e-002 3.505740e-002 -1.927486e-002 -3.113304e-002 5.222335e-002 2.039155e-002 -7.178041e-002 -3.847662e-002 6.970016e-002 5.158645e-002 1.406493e-002 -8.394913e-006 8.065214e-003 1.166877e-002 -9.509658e-003 -1.668832e-002 6.454876e-003 1.192961e-002 -1.266768e-002 -5.297495e-003 2.587528e-002 1.313647e-002 -2.173354e-002 -6.119609e-003
<VARIANCE> 39
 1.131040e-002 2.476963e-002 3.383387e-002 3.913569e-002 4.121349e-002 4.179887e-002 4.860213e-002 5.352050e-002 5.277587e-002 3.959221e-002 3.799914e-002 3.933971e-002 2.374483e-002 4.119426e-004 9.226717e-004 1.330342e-003 1.861059e-003 2.679701e-003 2.490521e-003 3.585386e-003 3.791935e-003 3.262008e-003 4.020528e-003 4.565891e-003 4.376425e-003 5.210999e-004 9.045024e-005 1.768301e-004 2.498901e-004 3.030033e-004 3.279446e-004 4.893891e-004 5.649909e-004 5.571868e-004 6.680047e-004 6.615031e-004 6.742827e-004 5.941859e-004 1.003234e-004
<GCONST> -1.558325e+002
<MIXTURE> 5 9.120576e-002
<MEAN> 39
 1.016496e-001 -3.465560e-001 -3.218043e-001 2.645538e-001 3.996070e-002 -1.251338e-001 2.793927e-001 1.286093e-001 -2.922688e-001 -8.546679e-002 2.460374e-001 6.660491e-002 3.242421e-001 -1.489889e-002 -4.462978e-004 5.325867e-002 -2.534434e-002 -4.535494e-002 3.414013e-002 5.329258e-002 -6.586844e-002 -3.215027e-002 6.924986e-002 1.629807e-002 -4.779353e-002 3.084024e-003 2.286665e-003 1.290433e-002 5.624311e-003 -2.072701e-002 -6.990497e-003 1.129966e-002 -1.247944e-002 -1.051753e-002 2.714069e-002 7.119349e-003 -3.233167e-002 -5.601136e-003 -7.507912e-003
<VARIANCE> 39
 1.389185e-002 2.675924e-002 2.737828e-002 5.576824e-002 4.373903e-002 3.099832e-002 6.829049e-002 6.159002e-002 4.827186e-002 6.355303e-002 5.196997e-002 4.245063e-002 2.415594e-002 4.238155e-004 9.120370e-004 1.301428e-003 1.993675e-003 2.571109e-003 2.194672e-003 3.307823e-003 3.925216e-003 4.053732e-003 3.108197e-003 4.866632e-003 3.473058e-003 3.986715e-004 7.353240e-005 1.804177e-004 2.538162e-004 3.627180e-004 3.641669e-004 4.246708e-004 5.673668e-004 6.308884e-004 6.865872e-004 6.958209e-004 7.380744e-004 6.784735e-004 6.897200e-005
<GCONST> -1.549750e+002
<MIXTURE> 6 7.177728e-002
<MEAN> 39
 1.014083e-001 -3.604889e-001 -3.138762e-001 1.985342e-001 -6.267928e-002 -1.561413e-001 4.723307e-001 2.876196e-001 -3.717508e-001 -1.959241e-001 2.116176e-001 8.424586e-002 3.639203e-001 -3.293860e-002 9.758490e-003 1.186587e-001 -7.001740e-002 -1.104754e-001 7.106197e-002 1.017682e-001 -1.145293e-001 -6.471170e-002 1.113923e-001 3.869460e-002 -6.559077e-002 1.152378e-002 9.388778e-003 3.984022e-002 3.551865e-003 -4.127460e-002 6.522817e-003 3.482994e-002 -6.380848e-002 -3.788560e-002 7.187019e-002 3.136920e-002 -5.794861e-002 -2.567227e-002 -2.510393e-002
<VARIANCE> 39
 1.481772e-002 2.524858e-002 3.031100e-002 4.514203e-002 3.937167e-002 4.123026e-002 5.241475e-002 6.942448e-002 4.628312e-002 5.329260e-002 4.759784e-002 4.842382e-002 3.149746e-002 8.642301e-004 1.713488e-003 2.848542e-003 3.258004e-003 4.040080e-003 4.632100e-003 5.334193e-003 6.142561e-003 6.383355e-003 4.572159e-003 6.471109e-003 4.434939e-003 8.506239e-004 2.028589e-004 4.178715e-004 4.351902e-004 9.601698e-004 7.717764e-004 1.062607e-003 1.032329e-003 1.413578e-003 1.128970e-003 1.226066e-003 1.116872e-003 1.084707e-003 2.896737e-004
<GCONST> -1.382594e+002
<MIXTURE> 7 7.559735e-002
<MEAN> 39
 5.861278e-002 -1.121549e-001 -1.852056e-001 -7.542722e-002 -2.758382e-002 8.022393e-002 7.153931e-003 -4.414009e-002 1.200879e-001 7.489980e-002 7.265192e-002 6.083725e-003 1.559433e-001 4.648293e-003 5.656977e-002 4.842879e-002 -7.740579e-003 -1.232495e-002 -1.827822e-002 -2.756586e-002 1.438251e-002 -1.310758e-002 -2.112071e-002 -1.068391e-002 1.524587e-002 -6.420157e-002 1.485008e-003 1.368775e-002 1.056700e-002 1.848584e-002 2.574783e-003 -1.142263e-002 -1.115537e-004 8.214717e-003 -1.715426e-002 -6.686011e-003 -5.680490e-003 -1.834066e-003 -2.100568e-002
<VARIANCE> 39
 4.382990e-002 7.075851e-002 9.623750e-002 1.097818e-001 9.405011e-002 1.102456e-001 9.342315e-002 1.113488e-001 1.218121e-001 1.465741e-001 1.280400e-001 1.102328e-001 9.281645e-002 3.976293e-003 6.388254e-003 8.627230e-003 9.385912e-003 9.377347e-003 8.872711e-003 9.392032e-003 1.287556e-002 1.188456e-002 1.060103e-002 1.078712e-002 7.130816e-003 7.465047e-003 5.933453e-004 9.379031e-004 1.238420e-003 1.291863e-003 1.500393e-003 2.192748e-003 1.825609e-003 1.848579e-003 2.302884e-003 2.397775e-003 1.853194e-003 1.725977e-003 1.128526e-003
<GCONST> -1.047304e+002
<MIXTURE> 8 1.342373e-001
<MEAN> 39
 8.699048e-002 -3.519784e-001 -2.683933e-001 2.745298e-001 1.405599e-001 -8.051010e-002 1.591354e-002 -1.016118e-002 -8.444539e-002 -6.066146e-002 1.406339e-001 5.284863e-002 3.493446e-001 1.536726e-002 1.517912e-002 2.197802e-003 -9.407174e-003 -1.500182e-002 1.353462e-003 -3.587870e-003 2.945847e-003 4.241345e-003 4.918519e-003 -1.305607e-002 -5.275926e-003 -2.299065e-002 7.501605e-003 1.464662e-002 3.467966e-003 -6.635029e-003 -9.334356e-003 -2.263551e-003 -3.921520e-003 3.559540e-003 -7.209904e-004 3.115748e-003 -8.889576e-003 -2.351649e-003 -1.364230e-002
<VARIANCE> 39
 2.049797e-002 2.433621e-002 5.449255e-002 6.568842e-002 5.150154e-002 4.500658e-002 6.755847e-002 6.166830e-002 6.526702e-002 5.152518e-002 5.278204e-002 4.093441e-002 3.720427e-002 3.798078e-004 6.699230e-004 1.209313e-003 1.459591e-003 1.534877e-003 2.210270e-003 3.066899e-003 3.130721e-003 3.026163e-003 2.786019e-003 2.531840e-003 2.041351e-003 5.015504e-004 8.344576e-005 1.914986e-004 2.534223e-004 3.194890e-004 3.625360e-004 4.389735e-004 6.060903e-004 5.592727e-004 5.981563e-004 5.269934e-004 5.018406e-004 4.507884e-004 1.225938e-004
<GCONST> -1.563738e+002
<MIXTURE> 9 1.070410e-001
<MEAN> 39
 2.186893e-001 -2.161015e-001 -5.530708e-001 7.805326e-002 2.007992e-001 9.955460e-003 -5.397173e-002 1.616051e-001 9.234493e-002 -1.088199e-001 -1.306041e-001 -2.792017e-002 2.380815e-001 1.716229e-002 4.340782e-002 4.218920e-002 7.321603e-003 -3.045655e-002 -3.505714e-002 -2.416946e-002 8.096877e-003 -3.273745e-003 1.593440e-002 -2.222572e-003 -2.605602e-003 -5.090136e-002 -1.707531e-003 2.993506e-002 3.775168e-002 5.575634e-003 -1.586673e-002 -8.969419e-003 -5.984998e-003 -1.289043e-002 -1.365392e-002 1.089264e-002 3.862017e-003 -1.878212e-003 -3.129480e-002
<VARIANCE> 39
 1.341713e-002 3.266070e-002 4.809243e-002 5.290518e-002 5.481309e-002 6.293274e-002 5.798457e-002 6.579544e-002 5.336695e-002 6.125891e-002 6.040500e-002 5.209910e-002 3.108145e-002 8.198959e-004 2.196665e-003 3.563931e-003 3.272161e-003 4.133718e-003 4.575594e-003 6.012753e-003 5.704888e-003 5.343849e-003 5.006030e-003 4.787595e-003 4.538104e-003 1.843476e-003 2.142248e-004 3.853895e-004 5.492388e-004 6.520048e-004 6.395721e-004 9.401262e-004 9.395291e-004 9.567247e-004 8.420479e-004 9.720650e-004 7.862506e-004 8.902008e-004 3.171408e-004
<GCONST> -1.371704e+002
<MIXTURE> 10 8.894452e-002
<MEAN> 39
 7.535374e-002 -2.870668e-001 -1.558656e-001 -2.300753e-002 -2.678208e-001 2.456009e-002 5.305384e-001 3.817286e-002 -2.903896e-001 5.550890e-002 6.281397e-002 -1.207283e-001 3.679391e-001 -1.862846e-002 7.561956e-002 1.150727e-001 -1.292004e-001 -7.976125e-002 9.298321e-002 -3.611550e-002 -1.231788e-001 8.963578e-002 8.468885e-002 -8.130474e-002 -3.997823e-002 -2.282315e-002 1.253646e-002 4.261536e-002 -6.319517e-003 2.440867e-003 3.248869e-002 -1.221433e-002 -8.000626e-002 1.435709e-002 5.246398e-002 -2.516037e-002 -3.177041e-002 1.914199e-002 -4.074725e-002
<VARIANCE> 39
 1.547764e-002 3.184044e-002 2.721766e-002 4.792309e-002 4.443531e-002 4.633671e-002 5.389932e-002 8.712921e-002 5.379388e-002 5.204393e-002 5.479871e-002 5.145356e-002 3.200088e-002 1.220408e-003 2.332505e-003 3.573583e-003 5.458977e-003 4.551840e-003 5.259174e-003 6.907817e-003 6.116531e-003 6.969103e-003 5.675179e-003 5.966562e-003 5.065737e-003 1.475325e-003 3.699095e-004 4.496815e-004 6.206014e-004 1.134561e-003 1.247771e-003 1.039469e-003 1.166126e-003 1.897990e-003 1.463981e-003 1.289870e-003 1.295941e-003 1.097085e-003 5.151032e-004
<GCONST> -1.312743e+002
<MIXTURE> 11 8.488726e-002
<MEAN> 39
 3.190239e-002 -3.655232e-001 -1.363111e-001 1.565656e-001 -9.705960e-002 1.016257e-001 3.354315e-001 -2.688829e-001 -2.407564e-001 1.908729e-001 1.023920e-001 -9.849962e-002 3.697048e-001 -1.785513e-002 3.036299e-002 5.674604e-002 -1.018613e-001 -2.395939e-002 9.198876e-002 -3.502171e-002 -8.674233e-002 9.108891e-002 2.232271e-002 -8.443017e-002 6.399779e-003 -2.488763e-003 8.023866e-003 2.146395e-002 -6.663695e-003 -1.861249e-002 5.060163e-003 -7.411324e-003 -3.197876e-002 4.092777e-002 2.862867e-002 -4.075618e-002 -1.447403e-002 2.433365e-002 -1.417273e-002
<VARIANCE> 39
 1.235523e-002 2.255244e-002 2.682865e-002 6.836977e-002 4.050025e-002 5.014860e-002 5.825116e-002 6.673311e-002 5.998862e-002 5.817090e-002 4.977455e-002 4.605930e-002 2.459693e-002 6.886504e-004 1.299982e-003 1.733836e-003 3.458544e-003 2.974255e-003 3.436453e-003 5.069091e-003 5.706581e-003 4.809055e-003 6.014617e-003 4.693463e-003 4.798457e-003 4.897280e-004 1.191328e-004 2.561089e-004 3.238962e-004 4.988172e-004 6.441041e-004 8.218924e-004 9.053113e-004 1.183382e-003 1.123826e-003 9.744543e-004 1.239807e-003 8.111472e-004 1.355580e-004
<GCONST> -1.442481e+002
<MIXTURE> 12 5.551394e-002
<MEAN> 39
 -1.078044e-001 -3.496516e-002 8.755783e-003 -4.600079e-003 2.658718e-002 1.911091e-002 -8.147744e-003 4.282961e-002 1.698228e-002 9.097595e-004 4.928233e-002 4.400857e-002 -1.383928e-001 -8.908520e-003 2.491269e-003 -3.035819e-003 -8.007082e-003 -4.059854e-004 -8.318715e-003 8.193561e-003 3.748899e-003 2.498422e-003 9.514496e-003 4.652753e-003 -5.009664e-003 -3.656631e-003 4.270914e-003 2.754042e-003 2.686292e-003 3.837010e-003 -1.896902e-003 1.402326e-003 6.290748e-004 -3.141322e-003 -1.983198e-004 -1.373321e-003 -5.497082e-003 -2.791308e-003 1.435060e-003
<VARIANCE> 39
 5.346680e-002 5.105818e-002 4.005679e-002 7.676180e-002 4.904234e-002 4.826126e-002 3.929944e-002 5.160201e-002 5.279321e-002 5.459131e-002 5.107059e-002 3.017938e-002 1.707666e-001 6.665820e-004 1.328636e-003 1.459876e-003 2.232461e-003 2.955735e-003 3.686467e-003 3.595070e-003 4.240776e-003 3.724261e-003 4.028171e-003 3.135984e-003 2.796350e-003 8.006591e-004 2.000214e-004 2.970047e-004 3.215671e-004 4.779077e-004 5.973266e-004 6.283819e-004 6.448731e-004 8.967997e-004 7.045061e-004 7.656539e-004 5.628701e-004 5.051853e-004 2.483952e-004
<GCONST> -1.446127e+002
<STATE> 4
<NUMMIXES> 12
<MIXTURE> 1 8.373516e-002
<MEAN> 39
 9.668961e-002 -2.948833e-001 -2.068448e-001 8.209246e-002 -1.536693e-001 9.158414e-003 3.562305e-001 -2.429543e-003 -2.146915e-001 1.015674e-002 1.165904e-001 -3.128965e-002 2.904614e-001 3.677034e-002 9.176080e-002 5.868343e-002 -4.296904e-002 -8.731011e-002 -1.966130e-002 -2.146161e-002 -8.485734e-003 2.718411e-002 4.311984e-002 -6.745444e-002 -2.981267e-002 -8.077606e-002 4.539267e-003 3.187193e-002 1.283976e-002 1.310675e-002 1.464505e-002 -1.457228e-002 -3.894832e-002 8.079304e-003 6.929661e-003 -9.397568e-003 -1.285695e-002 1.168720e-002 -3.420020e-002
<VARIANCE> 39
 1.443867e-002 2.488997e-002 3.059393e-002 4.169710e-002 4.950531e-002 4.904339e-002 6.498020e-002 1.009320e-001 6.173326e-002 5.811756e-002 5.069148e-002 3.696164e-002 2.274422e-002 1.082873e-003 2.428001e-003 3.152113e-003 3.654588e-003 4.187391e-003 4.639625e-003 6.383991e-003 6.124846e-003 5.456667e-003 5.749907e-003 5.968289e-003 4.310410e-003 2.075920e-003 2.384740e-004 4.049861e-004 4.611387e-004 6.304557e-004 7.973571e-004 9.851151e-004 8.764689e-004 1.442765e-003 1.158125e-003 1.014216e-003 1.048602e-003 7.442448e-004 4.345232e-004
<GCONST> -1.362936e+002
<MIXTURE> 2 9.934426e-002
<MEAN> 39
 2.992446e-001 -5.015974e-002 -4.208660e-001 1.004585e-001 1.188776e-001 -6.205931e-002 -1.786510e-001 9.747422e-002 7.324135e-002 1.965752e-002 -1.140651e-001 -7.964340e-002 6.728871e-002 -1.915800e-003 9.981534e-002 1.240006e-001 3.580146e-002 -3.746989e-002 -4.166693e-002 -3.705463e-002 -2.669800e-002 -4.412944e-002 6.255109e-003 -9.804029e-003 1.259220e-002 -1.128250e-001 -2.015184e-002 6.131546e-003 3.213672e-002 1.043919e-002 -5.008772e-004 4.050083e-003 1.650041e-002 -3.819542e-003 -1.367658e-002 -1.011608e-002 4.338488e-003 7.112256e-003 -1.329238e-002
<VARIANCE> 39
 1.352379e-002 3.650991e-002 5.382526e-002 6.566633e-002 4.915439e-002 6.678960e-002 6.153999e-002 6.764749e-002 6.465466e-002 6.265534e-002 5.932904e-002 4.963492e-002 4.347269e-002 1.881652e-003 3.877845e-003 5.022225e-003 5.194893e-003 4.588608e-003 8.725473e-003 8.009581e-003 6.452933e-003 6.420609e-003 6.177726e-003 5.886004e-003 5.314262e-003 3.543523e-003 1.966037e-004 4.618156e-004 5.575707e-004 6.863815e-004 7.420504e-004 1.284416e-003 1.213144e-003 9.909469e-004 1.125711e-003 1.006225e-003 1.001556e-003 9.424810e-004 4.010390e-004
<GCONST> -1.296535e+002
<MIXTURE> 3 1.101284e-001
<MEAN> 39
 2.199984e-001 -2.587995e-001 -2.429287e-001 3.347549e-001 1.209923e-001 -1.860015e-001 -6.935325e-002 5.183484e-002 -1.004674e-001 -5.112581e-003 1.171988e-001 3.376305e-002 1.925651e-001 1.051381e-002 4.732297e-002 3.279454e-002 -3.443041e-003 -1.744159e-002 2.676028e-003 -1.701948e-002 -1.133747e-002 -2.432851e-003 4.889613e-003 -2.251801e-002 -4.964803e-003 -5.223296e-002 -6.582927e-003 1.117153e-002 1.345572e-002 -2.348372e-003 -1.653474e-003 4.714782e-003 1.937411e-003 -6.825980e-003 2.574685e-003 -3.315696e-003 -8.301492e-003 -2.110455e-003 -7.134025e-003
<VARIANCE> 39
 2.016060e-002 2.454389e-002 4.427900e-002 5.924975e-002 4.867180e-002 3.625134e-002 5.253502e-002 4.676756e-002 5.578014e-002 3.955022e-002 3.872180e-002 3.164202e-002 6.416371e-002 7.890890e-004 1.650674e-003 2.401041e-003 2.385845e-003 2.178807e-003 2.607388e-003 2.816027e-003 3.220835e-003 2.850832e-003 2.598570e-003 2.782486e-003 2.314034e-003 1.197381e-003 9.093255e-005 2.565913e-004 3.036595e-004 3.084052e-004 4.075412e-004 4.109156e-004 4.985196e-004 4.573553e-004 5.437955e-004 3.846256e-004 4.146294e-004 4.006572e-004 1.528878e-004
<GCONST> -1.540275e+002
<MIXTURE> 4 5.019473e-002
<MEAN> 39
 -1.061662e-001 5.482759e-002 1.844485e-001 2.560059e-001 1.254903e-001 1.601515e-001 1.357506e-001 5.087929e-002 6.427675e-003 2.586617e-002 -5.960645e-002 -9.281700e-002 -3.730483e-001 -3.535118e-002 2.501649e-002 3.372002e-002 -9.563733e-003 -9.550302e-003 1.235356e-002 7.527498e-003 -2.993495e-003 9.773090e-003 -1.134586e-002 -4.271253e-003 2.081102e-003 -4.440921e-002 1.404949e-002 -1.209567e-002 -2.779117e-002 -1.201227e-002 -9.699034e-003 -1.881447e-002 -1.867504e-002 -2.564801e-003 -3.409824e-003 -4.010127e-003 5.579125e-003 9.757017e-003 2.283856e-002
<VARIANCE> 39
 4.010100e-002 8.507898e-002 7.736624e-002 1.455064e-001 8.646324e-002 1.116655e-001 6.321900e-002 7.178023e-002 7.623488e-002 7.283434e-002 6.420723e-002 3.765019e-002 1.642434e-001 6.272208e-003 7.218601e-003 8.000395e-003 1.011001e-002 8.109754e-003 9.416693e-003 8.703715e-003 8.309941e-003 8.451838e-003 6.629030e-003 6.099284e-003 4.433144e-003 8.452976e-003 5.939699e-004 1.455796e-003 1.450327e-003 1.891140e-003 1.651368e-003 1.848244e-003 1.447405e-003 1.592276e-003 1.736787e-003 1.380147e-003 1.193398e-003 8.156062e-004 1.599030e-003
<GCONST> -1.107411e+002
<MIXTURE> 5 7.955710e-002
<MEAN> 39
 1.267024e-002 -4.168191e-001 -2.400728e-001 2.849801e-001 2.019129e-001 -5.561319e-002 1.827000e-002 -9.633746e-003 -2.101423e-001 -9.451002e-002 2.972903e-001 1.590584e-001 3.649113e-001 5.737130e-003 1.477582e-002 3.563564e-002 -1.110919e-002 -3.889551e-002 -1.578726e-002 2.990348e-002 -1.179139e-002 -1.371118e-002 3.584291e-002 -4.044701e-003 -2.068238e-002 -2.230310e-002 1.339902e-002 2.669038e-002 -6.386712e-004 -1.500001e-002 -1.831287e-002 2.447374e-003 -3.265268e-005 5.310819e-003 2.034038e-002 1.314441e-002 -3.420912e-002 -1.781755e-002 -2.431708e-002
<VARIANCE> 39
 1.581671e-002 2.960389e-002 5.210813e-002 7.501353e-002 5.678225e-002 7.240629e-002 9.494792e-002 8.712862e-002 9.046473e-002 9.046273e-002 8.199792e-002 5.367192e-002 3.623990e-002 1.542911e-003 2.406885e-003 3.933228e-003 5.415413e-003 4.717361e-003 5.887850e-003 7.148189e-003 7.954685e-003 9.167924e-003 7.442626e-003 1.002781e-002 6.683655e-003 1.843160e-003 1.879859e-004 4.423588e-004 5.219509e-004 6.702754e-004 6.858089e-004 1.152684e-003 1.167852e-003 1.365404e-003 1.322700e-003 1.489945e-003 1.620714e-003 1.354324e-003 2.950579e-004
<GCONST> -1.272602e+002
<MIXTURE> 6 8.053011e-002
<MEAN> 39
 -7.553072e-003 -2.828064e-001 -4.529271e-002 -1.169150e-001 -1.156183e-001 3.364483e-001 1.627422e-001 -3.730155e-001 5.481413e-002 3.097847e-002 -1.038293e-001 9.572248e-002 3.692718e-001 3.884777e-003 8.678096e-002 3.608399e-002 -1.385355e-001 -1.359609e-002 4.324464e-002 -9.430095e-002 4.373809e-002 1.121475e-001 -7.579903e-002 -5.437370e-002 4.186429e-002 -3.608091e-002 1.496742e-002 2.634512e-002 -9.593725e-003 2.008201e-002 2.061894e-003 -5.253974e-002 -7.558686e-003 5.780942e-002 -2.630365e-002 -1.697126e-002 2.204760e-002 -9.046216e-003 -2.726390e-002
<VARIANCE> 39
 1.422552e-002 2.523623e-002 2.757065e-002 5.831634e-002 4.712937e-002 4.376729e-002 7.246661e-002 6.681323e-002 5.881149e-002 6.664178e-002 4.898597e-002 4.805523e-002 2.559272e-002 1.465640e-003 2.398720e-003 2.471289e-003 3.919831e-003 6.184047e-003 5.261269e-003 7.158674e-003 8.032884e-003 6.605700e-003 6.782310e-003 7.241067e-003 4.640429e-003 1.419620e-003 2.058735e-004 3.728851e-004 5.327672e-004 8.372680e-004 9.298317e-004 8.003906e-004 1.355626e-003 1.377968e-003 1.211393e-003 1.418189e-003 1.119415e-003 9.594384e-004 3.417377e-004
<GCONST> -1.338391e+002
<MIXTURE> 7 7.425688e-002
<MEAN> 39
 2.520404e-001 1.621939e-001 8.741695e-003 2.988784e-001 1.373039e-002 -8.975884e-002 -1.785760e-001 -5.428013e-002 -2.093959e-001 -6.648825e-002 -1.357154e-001 -3.403737e-004 -2.199301e-001 -3.642271e-002 8.370718e-002 1.194072e-001 4.797522e-002 1.709420e-002 2.115341e-002 -7.856936e-003 -2.609302e-002 -4.213689e-002 -1.969375e-002 -2.500534e-002 2.268206e-003 -1.213706e-001 -2.068923e-002 -2.935526e-002 -1.629873e-002 -1.143373e-002 8.418859e-003 1.497995e-002 2.673965e-002 1.639848e-002 2.469209e-002 2.984712e-003 1.086732e-002 -5.526932e-003 1.700370e-002
<VARIANCE> 39
 1.845499e-002 5.156749e-002 6.732140e-002 8.125430e-002 7.766882e-002 7.265502e-002 7.197721e-002 7.040441e-002 7.437635e-002 6.583172e-002 6.957942e-002 4.509667e-002 6.386567e-002 2.361619e-003 4.656973e-003 5.867817e-003 5.412636e-003 6.071460e-003 9.132379e-003 7.824345e-003 8.493280e-003 8.284962e-003 7.176348e-003 6.422151e-003 5.487556e-003 4.676120e-003 2.480239e-004 5.117015e-004 7.363735e-004 7.670164e-004 8.702998e-004 1.197117e-003 1.194960e-003 1.271480e-003 1.393975e-003 1.344195e-003 1.134073e-003 8.908214e-004 4.866957e-004
<GCONST> -1.233873e+002
<MIXTURE> 8 6.466490e-002
<MEAN> 39
 2.032677e-001 -1.482479e-001 -2.192833e-001 1.342529e-001 -2.284005e-001 -3.454517e-001 2.011699e-001 4.089305e-001 -1.408226e-001 -1.849997e-001 1.510203e-002 7.484140e-002 1.790660e-001 -8.090861e-003 7.923499e-002 1.339705e-001 2.515918e-003 -7.470695e-002 -9.716864e-004 7.909553e-003 -5.652522e-002 -6.542294e-002 4.104785e-002 2.248602e-002 -1.567673e-002 -8.484440e-002 -1.112011e-002 2.228324e-002 4.165192e-003 -5.014376e-003 3.938962e-002 4.556020e-002 -3.355538e-002 -4.744634e-002 2.378725e-002 1.890171e-002 -1.456567e-002 -1.849272e-002 -2.454409e-002
<VARIANCE> 39
 1.547728e-002 3.542930e-002 5.403767e-002 5.553608e-002 6.421011e-002 5.674085e-002 7.406794e-002 7.105337e-002 7.741430e-002 6.287314e-002 7.778146e-002 5.443738e-002 5.096039e-002 3.474288e-003 4.866390e-003 6.789914e-003 6.217761e-003 7.645587e-003 7.262312e-003 9.927736e-003 8.511516e-003 9.202818e-003 7.317040e-003 6.773943e-003 5.230521e-003 4.736101e-003 5.364572e-004 8.256571e-004 1.198289e-003 1.143397e-003 1.327690e-003 1.289814e-003 1.727291e-003 1.611977e-003 1.722892e-003 1.545504e-003 1.602230e-003 1.129335e-003 8.434098e-004
<GCONST> -1.190490e+002
<MIXTURE> 9 1.166726e-001
<MEAN> 39
 4.596233e-002 -8.176456e-002 -7.156035e-002 -7.423498e-002 -9.880364e-002 -1.342726e-002 1.121856e-001 4.453409e-002 -9.818586e-003 2.947590e-002 -8.785881e-003 -2.617447e-002 1.653538e-001 -2.144119e-003 2.107470e-002 1.951342e-002 -1.397081e-002 -1.108626e-002 -1.239916e-003 -1.096046e-002 -9.924038e-004 1.869320e-002 8.922170e-003 -1.426964e-002 -4.188524e-003 -1.323920e-002 2.551970e-003 -8.949375e-004 -3.489138e-003 7.650903e-003 4.557482e-003 -2.715710e-003 -5.109852e-003 1.695947e-003 -3.473574e-003 -5.526353e-003 3.138872e-003 3.472162e-003 -1.930693e-003
<VARIANCE> 39
 2.520743e-002 4.167545e-002 5.483564e-002 8.826268e-002 6.499577e-002 6.018747e-002 8.175892e-002 6.829901e-002 7.343288e-002 5.899496e-002 5.877848e-002 3.847105e-002 8.078308e-002 5.055048e-004 1.561517e-003 2.131762e-003 2.698265e-003 3.106898e-003 3.787369e-003 4.426389e-003 3.528084e-003 4.501865e-003 3.784244e-003 3.961848e-003 2.908319e-003 7.217877e-004 8.886550e-005 2.196185e-004 3.017627e-004 4.089398e-004 5.271924e-004 6.188542e-004 7.391454e-004 7.234307e-004 7.114342e-004 6.798863e-004 7.683373e-004 5.523149e-004 9.703911e-005
<GCONST> -1.449055e+002
<MIXTURE> 10 8.180887e-002
<MEAN> 39
 7.484215e-002 -1.349404e-001 -1.015104e-002 -2.548136e-001 -3.790499e-001 9.938078e-002 3.796000e-001 2.517468e-002 1.044926e-002 1.285361e-001 -1.669243e-001 -1.577262e-001 3.155901e-001 9.970499e-003 1.399230e-001 1.077102e-001 -5.778966e-002 -3.072100e-002 2.019239e-002 -1.329116e-001 -7.229861e-002 9.948848e-002 1.766611e-002 -8.371893e-002 2.265033e-002 -1.019066e-001 4.701400e-003 2.177335e-002 -1.521880e-002 5.092255e-002 5.178416e-002 -2.964967e-002 -4.092086e-002 2.306853e-002 -1.358700e-002 -4.284269e-002 1.784081e-002 2.996901e-002 -4.101613e-002
<VARIANCE> 39
 1.393993e-002 2.789093e-002 3.409863e-002 4.866691e-002 3.839575e-002 4.949871e-002 6.501350e-002 6.065129e-002 6.790797e-002 4.433928e-002 5.734332e-002 3.944319e-002 3.181357e-002 1.947492e-003 2.837129e-003 3.384900e-003 8.628101e-003 6.170663e-003 6.214435e-003 6.453862e-003 9.279152e-003 9.441962e-003 6.898561e-003 5.095817e-003 5.322206e-003 4.038500e-003 3.566145e-004 5.363637e-004 7.793710e-004 1.138515e-003 9.505493e-004 1.066929e-003 1.412021e-003 1.380539e-003 2.062785e-003 1.116832e-003 1.338114e-003 8.544800e-004 6.131838e-004
<GCONST> -1.282416e+002
<MIXTURE> 11 8.541162e-002
<MEAN> 39
 -3.679285e-003 -2.068818e-002 3.056625e-003 -5.036501e-001 -1.513257e-001 2.139980e-001 -1.014481e-002 5.484153e-002 2.461871e-001 -1.529137e-001 -8.464804e-002 9.054916e-002 2.972238e-001 2.244948e-002 1.282019e-001 3.223326e-002 -3.845133e-002 4.479215e-003 -7.849450e-002 -8.660654e-002 6.931384e-002 1.460205e-002 -3.081033e-002 1.622890e-002 -7.140178e-003 -9.142627e-002 7.723324e-003 -2.350038e-004 -8.559430e-003 6.670637e-002 6.715739e-003 -3.357447e-002 2.493332e-002 -8.047771e-003 -5.385144e-002 2.052043e-002 1.702230e-002 -1.432487e-002 -2.398978e-002
<VARIANCE> 39
 1.615120e-002 3.854595e-002 3.192904e-002 4.728112e-002 5.913261e-002 5.858420e-002 6.867990e-002 8.940314e-002 6.832573e-002 1.109835e-001 9.080536e-002 6.990055e-002 3.149513e-002 2.017505e-003 3.756061e-003 3.235064e-003 7.437505e-003 7.150380e-003 5.805362e-003 8.399073e-003 1.028907e-002 1.092894e-002 9.326822e-003 7.381461e-003 8.475677e-003 4.137876e-003 2.481403e-004 5.776025e-004 7.356295e-004 1.132354e-003 1.219949e-003 1.345349e-003 1.441983e-003 1.968949e-003 1.450018e-003 2.104452e-003 1.754758e-003 1.356997e-003 5.505542e-004
<GCONST> -1.215880e+002
<MIXTURE> 12 7.369459e-002
<MEAN> 39
 1.893440e-001 5.457654e-002 2.105396e-002 -1.324191e-001 -4.021276e-001 3.510364e-002 1.349720e-001 -7.952506e-002 4.106065e-002 8.559679e-002 -1.822308e-001 -5.473652e-002 8.270644e-002 5.596242e-003 1.519876e-001 9.534213e-002 4.297731e-002 3.434506e-002 -2.349105e-002 -1.146695e-001 -2.627548e-002 -1.139387e-002 -4.713555e-002 -3.005105e-002 2.806725e-002 -1.580062e-001 -2.247316e-002 -1.277385e-002 -1.041747e-002 3.949696e-002 5.783461e-002 -6.026234e-003 8.640293e-003 2.590183e-002 -2.075057e-002 -2.599058e-002 3.139384e-002 4.755734e-003 -1.331984e-002
<VARIANCE> 39
 1.105582e-002 3.420432e-002 3.579063e-002 5.487689e-002 5.217428e-002 5.811760e-002 6.474956e-002 5.749192e-002 7.930037e-002 5.682987e-002 6.173784e-002 4.593499e-002 3.367383e-002 3.013643e-003 3.441687e-003 4.159371e-003 7.586320e-003 6.579655e-003 5.926217e-003 8.018908e-003 9.553119e-003 9.054757e-003 6.732482e-003 5.842328e-003 5.406923e-003 4.477209e-003 2.983623e-004 5.472235e-004 7.810320e-004 1.011296e-003 1.038562e-003 1.118828e-003 1.414080e-003 1.360028e-003 1.784509e-003 1.300806e-003 1.375010e-003 9.816759e-004 5.164489e-004
<GCONST> -1.259957e+002
<TRANSP> 5
 0.000000e+000 1.000000e+000 0.000000e+000 0.000000e+000 0.000000e+000
 0.000000e+000 7.385784e-001 2.614216e-001 0.000000e+000 0.000000e+000
 0.000000e+000 0.000000e+000 5.703186e-001 4.296815e-001 0.000000e+000
 0.000000e+000 0.000000e+000 0.000000e+000 5.514854e-001 4.485146e-001
 0.000000e+000 0.000000e+000 0.000000e+000 0.000000e+000 0.000000e+000
<ENDHMM>
~h "@"
<BEGINHMM>
<NUMSTATES> 5
<STATE> 2
<NUMMIXES> 12
<MIXTURE> 1 1.087076e-001
<MEAN> 39
 -1.702342e-001 -3.574393e-001 4.500788e-002 -1.046639e-001 3.072330e-001 1.907733e-001 -3.588692e-001 -2.130850e-001 1.935556e-001 -2.181670e-002 1.711361e-001 1.508625e-001 4.770336e-001 -2.280260e-002 8.017894e-003 7.009062e-003 -9.826729e-003 4.396208e-002 -8.659187e-003 -2.204248e-002 9.688824e-003 1.236446e-003 -1.198692e-002 1.414523e-002 -1.845395e-002 2.164536e-002 1.698398e-002 2.606757e-002 -1.722810e-003 -5.672472e-003 -3.002363e-002 -8.956616e-003 2.836647e-002 1.689175e-002 -1.688386e-002 1.612518e-003 -1.105862e-002 -8.307296e-003 -3.206073e-002
<VARIANCE> 39
 1.518204e-002 3.484271e-002 3.158594e-002 5.020126e-002 5.603116e-002 5.826501e-002 4.706430e-002 6.257112e-002 6.405433e-002 5.965782e-002 5.771506e-002 3.710232e-002 2.193523e-002 1.076111e-003 1.821649e-003 2.605461e-003 4.372155e-003 4.652115e-003 5.427805e-003 5.974786e-003 5.106229e-003 5.147905e-003 6.075345e-003 5.182291e-003 4.798182e-003 1.070989e-003 2.067976e-004 4.059804e-004 4.232020e-004 5.821497e-004 8.497211e-004 8.317748e-004 8.554654e-004 8.546665e-004 1.133047e-003 1.020240e-003 1.012474e-003 7.864776e-004 3.317185e-004
<GCONST> -1.382484e+002
<MIXTURE> 2 1.282295e-001
<MEAN> 39
 -2.387587e-001 -3.323119e-001 2.681153e-001 2.636528e-001 -5.621187e-002 -1.576549e-001 -1.869698e-001 -9.428498e-002 9.759071e-002 -8.640417e-002 4.404748e-002 2.325356e-001 4.969823e-001 -3.213203e-003 7.852300e-003 9.446203e-003 -4.568109e-003 -2.208428e-004 -3.683992e-003 -5.788408e-003 2.066371e-003 1.800961e-003 -2.152045e-002 -1.020350e-002 5.776495e-003 -1.349968e-003 9.539339e-003 1.329249e-003 -1.980878e-002 -1.796671e-002 2.055446e-002 2.098383e-002 -4.173660e-003 -6.834703e-003 3.713742e-003 1.833118e-002 7.336483e-003 -2.042000e-002 -8.039284e-003
<VARIANCE> 39
 1.482140e-002 5.145441e-002 4.139999e-002 7.386257e-002 8.283178e-002 7.586616e-002 8.742978e-002 7.803992e-002 9.143084e-002 1.049252e-001 8.741777e-002 5.682503e-002 2.366204e-002 8.011759e-004 1.447023e-003 2.425100e-003 3.238876e-003 6.185709e-003 4.611998e-003 6.807100e-003 5.461261e-003 6.558308e-003 6.978738e-003 6.146201e-003 4.972081e-003 6.932510e-004 1.657393e-004 2.933258e-004 4.382696e-004 6.437571e-004 8.038894e-004 8.577253e-004 1.113694e-003 1.059456e-003 1.206886e-003 1.300590e-003 1.297829e-003 1.043873e-003 1.649304e-004
<GCONST> -1.341366e+002
<MIXTURE> 3 7.605817e-002
<MEAN> 39
 -5.863763e-002 -5.163732e-001 -9.943826e-002 2.703737e-001 2.109822e-001 5.458985e-002 1.146324e-001 -2.588960e-001 -4.052333e-001 2.391925e-001 3.727595e-001 -1.175939e-001 4.808914e-001 -1.529737e-002 5.535649e-003 3.252495e-002 -2.108649e-002 -9.873523e-003 2.648385e-002 -5.594814e-003 -5.560358e-002 2.791404e-002 5.259914e-002 -3.645571e-002 -2.254060e-002 2.304028e-003 9.995049e-003 2.710155e-002 3.365487e-003 -2.598330e-002 -1.768420e-002 1.445843e-003 -5.887767e-003 1.934646e-002 3.611121e-002 -2.680722e-002 -4.204397e-002 2.164253e-002 -2.182054e-002
<VARIANCE> 39
 1.854900e-002 3.295577e-002 3.333541e-002 6.495369e-002 5.295407e-002 6.671681e-002 5.414523e-002 6.414296e-002 5.581823e-002 7.952078e-002 5.570953e-002 4.097494e-002 4.045727e-002 8.389034e-004 1.397291e-003 3.279885e-003 6.071272e-003 3.941442e-003 7.715641e-003 5.967033e-003 7.870390e-003 5.959080e-003 5.862227e-003 6.924513e-003 4.493365e-003 1.080243e-003 2.286045e-004 3.904749e-004 5.134878e-004 7.608683e-004 7.843635e-004 1.041480e-003 1.087524e-003 1.185515e-003 9.566015e-004 1.406108e-003 9.823049e-004 8.911966e-004 3.406373e-004
<GCONST> -1.342102e+002
<MIXTURE> 4 7.545660e-002
<MEAN> 39
 -9.117885e-002 -3.853604e-001 1.036497e-002 3.854333e-002 2.525094e-001 3.476706e-001 -9.352630e-002 -4.855582e-001 -1.496873e-001 2.349768e-001 1.211928e-001 -9.235724e-003 4.543801e-001 -8.878795e-003 -2.035429e-002 1.655742e-002 5.286483e-002 2.208875e-002 -2.662745e-002 -3.855630e-002 -5.749246e-003 2.577160e-003 2.890657e-002 2.404677e-002 -2.978677e-002 3.307651e-003 8.188833e-003 1.689601e-002 -1.026144e-003 -2.008080e-002 -2.444240e-002 -1.580443e-002 1.832777e-002 3.839068e-002 1.058691e-002 -2.806518e-002 -1.548979e-002 1.070458e-002 -1.517555e-002
<VARIANCE> 39
 1.276554e-002 3.705333e-002 2.626128e-002 5.358392e-002 4.775624e-002 4.725984e-002 7.720431e-002 5.193387e-002 8.226324e-002 4.178114e-002 4.368645e-002 4.412495e-002 3.743035e-002 5.771571e-004 1.420261e-003 1.663035e-003 4.427539e-003 2.700304e-003 4.433046e-003 5.590417e-003 4.795621e-003 4.958133e-003 4.529557e-003 4.043987e-003 3.958439e-003 5.409861e-004 1.071651e-004 4.137641e-004 2.858668e-004 6.114492e-004 5.108094e-004 5.903458e-004 7.893668e-004 7.834490e-004 9.992063e-004 7.089040e-004 7.509196e-004 8.244017e-004 1.754289e-004
<GCONST> -1.452347e+002
<MIXTURE> 5 9.475136e-002
<MEAN> 39
 -3.523348e-002 -2.283015e-001 -2.943075e-002 -2.504373e-001 8.896276e-002 2.937768e-001 3.309796e-002 -2.220614e-001 1.540433e-002 -2.460396e-002 -2.095989e-002 1.608983e-001 4.096801e-001 -1.067984e-002 -8.168462e-003 4.702783e-003 -3.541979e-003 1.607229e-002 7.212362e-003 -1.321517e-002 -5.467251e-003 4.502487e-003 -5.126606e-003 8.952679e-003 6.888261e-003 1.221956e-002 7.265678e-003 1.384866e-002 3.543284e-003 3.840638e-003 -1.107874e-002 -1.355151e-002 -1.319063e-003 1.276840e-002 2.732838e-003 3.898407e-003 -4.402170e-003 -1.207056e-002 -1.746696e-002
<VARIANCE> 39
 1.456068e-002 3.180524e-002 2.760607e-002 6.857745e-002 4.804468e-002 5.288076e-002 6.172803e-002 5.950074e-002 5.570152e-002 4.924042e-002 4.636072e-002 3.567924e-002 4.820934e-002 4.928540e-004 1.189920e-003 1.300615e-003 2.566747e-003 1.927156e-003 2.429639e-003 2.717302e-003 3.119468e-003 2.941177e-003 2.852459e-003 2.663860e-003 2.201363e-003 7.268428e-004 1.220135e-004 2.797543e-004 2.531965e-004 3.581339e-004 4.275481e-004 4.663678e-004 4.576723e-004 5.681061e-004 6.307474e-004 4.632446e-004 5.600270e-004 3.791853e-004 2.092327e-004
<GCONST> -1.539410e+002
<MIXTURE> 6 9.530412e-002
<MEAN> 39
 -1.131225e-001 -5.489215e-001 8.099681e-002 3.401332e-001 2.014160e-001 1.986446e-003 -4.904121e-002 -2.851153e-001 -2.203355e-002 3.295601e-001 7.972928e-002 -1.382278e-001 4.619649e-001 -9.220315e-003 4.693219e-003 2.119068e-002 -1.995919e-002 -5.601961e-003 1.109175e-002 -1.400028e-002 -1.716729e-002 3.258440e-002 -1.311163e-003 -1.830352e-002 1.044415e-002 -4.304349e-004 7.825200e-003 1.276462e-002 -1.063026e-002 -2.070646e-002 -5.582848e-003 1.480241e-002 5.315720e-003 1.907604e-003 -7.179181e-003 -1.802188e-002 5.359592e-003 1.577819e-002 -7.908044e-003
<VARIANCE> 39
 1.330698e-002 3.000214e-002 2.967957e-002 4.502925e-002 4.557127e-002 5.041568e-002 4.630519e-002 5.942416e-002 6.581792e-002 3.953124e-002 4.479596e-002 3.331467e-002 3.153437e-002 5.589199e-004 9.447983e-004 1.515796e-003 2.796562e-003 1.777862e-003 4.275809e-003 2.769749e-003 3.733454e-003 3.985173e-003 2.743702e-003 3.049512e-003 2.234366e-003 4.594808e-004 1.147299e-004 2.073740e-004 2.735082e-004 4.038580e-004 4.070423e-004 4.980969e-004 5.026491e-004 6.751654e-004 5.503580e-004 5.295450e-004 4.625364e-004 4.594369e-004 9.350736e-005
<GCONST> -1.553212e+002
<MIXTURE> 7 1.040930e-001
<MEAN> 39
 4.983644e-003 -3.818779e-001 -1.228338e-001 1.347091e-001 1.080560e-001 1.030093e-001 1.109360e-001 -2.706228e-001 -3.206344e-001 1.469899e-001 2.844463e-001 -1.779294e-002 3.909165e-001 -1.805226e-003 -4.291821e-003 8.233247e-003 5.062195e-003 -1.600011e-003 -1.022579e-003 -8.055804e-003 -2.457732e-003 4.079600e-003 3.993721e-003 2.614460e-003 -2.466264e-003 -2.614519e-003 2.209818e-003 6.759780e-003 1.064168e-003 -9.178763e-003 -5.642354e-003 1.601876e-003 1.031317e-003 7.758583e-003 9.445265e-003 -6.235476e-003 -1.565128e-002 4.589062e-003 -4.783426e-003
<VARIANCE> 39
 1.110284e-002 2.824697e-002 2.844342e-002 6.291849e-002 4.592959e-002 5.920118e-002 5.960771e-002 5.233966e-002 5.864502e-002 5.159336e-002 4.501643e-002 3.849074e-002 2.295871e-002 3.135478e-004 6.903191e-004 1.140799e-003 2.226573e-003 1.689867e-003 2.821412e-003 2.142517e-003 2.693921e-003 2.094059e-003 2.719452e-003 2.788227e-003 2.108286e-003 2.885136e-004 5.063773e-005 1.302999e-004 1.570566e-004 2.437009e-004 2.890463e-004 3.495069e-004 3.898904e-004 4.849231e-004 3.678071e-004 4.398440e-004 4.312833e-004 3.593609e-004 4.416946e-005
<GCONST> -1.639909e+002
<MIXTURE> 8 8.651857e-002
<MEAN> 39
 -1.718502e-001 -4.293956e-001 1.697008e-001 2.013375e-001 1.970662e-001 7.295816e-002 -3.462648e-001 -1.946012e-001 2.753348e-001 4.215878e-002 -5.809544e-002 7.595959e-002 4.634503e-001 -1.424877e-002 -1.506634e-002 4.727808e-002 5.263788e-002 -4.045798e-002 -4.966665e-002 1.316531e-002 3.156402e-002 3.092521e-003 -5.782125e-003 -2.591447e-002 3.471037e-003 1.424424e-003 1.256741e-002 1.669046e-002 -1.607673e-002 -2.688194e-002 -8.445333e-003 8.708457e-003 2.565335e-002 2.371406e-003 -2.962509e-002 -6.072605e-003 1.961407e-002 2.490260e-003 -1.430847e-002
<VARIANCE> 39
 1.476063e-002 3.091781e-002 2.807982e-002 4.879054e-002 4.990741e-002 4.279916e-002 4.644958e-002 6.732314e-002 4.289699e-002 6.110272e-002 4.739014e-002 3.342358e-002 2.785931e-002 8.399908e-004 1.309651e-003 2.371842e-003 3.891886e-003 4.877771e-003 3.952191e-003 5.508568e-003 4.059331e-003 5.245614e-003 5.023245e-003 4.856711e-003 4.248853e-003 5.721409e-004 1.547467e-004 2.679918e-004 3.464584e-004 5.215916e-004 7.215327e-004 5.709219e-004 7.863924e-004 6.959121e-004 7.479453e-004 9.575088e-004 8.713906e-004 6.967534e-004 1.517289e-004
<GCONST> -1.450761e+002
<MIXTURE> 9 6.827950e-002
<MEAN> 39
 -1.710796e-001 -4.277153e-001 1.317692e-001 1.555745e-001 1.774550e-001 2.197300e-001 -1.171774e-001 -4.750118e-001 6.737231e-002 2.963934e-001 5.423541e-003 5.298230e-002 5.134693e-001 -2.711797e-002 3.767902e-002 3.854189e-002 -7.385605e-002 3.366594e-002 5.022104e-002 -7.090030e-002 -6.828960e-003 6.507300e-002 -7.308320e-002 -2.871572e-002 5.414907e-002 8.894921e-003 1.850386e-002 2.148560e-002 -1.956690e-002 -2.155057e-002 -1.110018e-002 -2.028502e-002 1.319502e-002 6.087252e-002 -1.055434e-002 -3.921819e-002 1.362900e-002 1.814612e-003 -2.612053e-002
<VARIANCE> 39
 1.898946e-002 3.788165e-002 4.177866e-002 8.586747e-002 6.274603e-002 7.174419e-002 9.764084e-002 8.598200e-002 1.135234e-001 9.559055e-002 9.317072e-002 7.929928e-002 2.747066e-002 1.140901e-003 1.996794e-003 3.493348e-003 7.148546e-003 5.645740e-003 6.557267e-003 9.891645e-003 9.220086e-003 1.172444e-002 8.705328e-003 9.987009e-003 6.590585e-003 9.894682e-004 2.109113e-004 5.438824e-004 6.010604e-004 9.347779e-004 1.071733e-003 1.208028e-003 1.843184e-003 1.300132e-003 2.123957e-003 1.993145e-003 1.852706e-003 1.762483e-003 3.327140e-004
<GCONST> -1.231173e+002
<MIXTURE> 10 7.198959e-002
<MEAN> 39
 7.176479e-003 -3.127405e-001 -4.665896e-002 -1.659947e-001 1.140685e-001 3.174267e-001 -3.243816e-002 -2.872402e-001 -1.080828e-002 8.671139e-002 3.189896e-002 9.531150e-002 3.571697e-001 -1.375230e-002 -3.586579e-002 -1.943174e-002 -3.858796e-002 2.217437e-002 2.078464e-002 1.179772e-003 -3.108492e-002 -8.292610e-003 -5.681312e-003 2.694723e-002 2.776211e-002 9.584007e-002 -9.158740e-003 3.265351e-002 1.681284e-002 2.336660e-002 -7.855215e-003 -2.682071e-002 4.892516e-004 2.741897e-002 7.024613e-004 -1.234169e-002 -6.417341e-003 -1.031161e-002 -5.324870e-002
<VARIANCE> 39
 1.520847e-002 3.819318e-002 2.674303e-002 7.167107e-002 6.421927e-002 5.297815e-002 8.319880e-002 6.459001e-002 6.544725e-002 5.881106e-002 4.374518e-002 3.774005e-002 4.713787e-002 2.523696e-003 4.126613e-003 4.181058e-003 8.955374e-003 6.417441e-003 6.861245e-003 8.191881e-003 6.798133e-003 7.012852e-003 5.647488e-003 5.684545e-003 3.940099e-003 8.510090e-003 4.258243e-004 6.262453e-004 6.119681e-004 1.047523e-003 1.041637e-003 9.883440e-004 1.289744e-003 1.279940e-003 1.213153e-003 1.053143e-003 9.109583e-004 6.779379e-004 1.112834e-003
<GCONST> -1.262294e+002
<MIXTURE> 11 5.095007e-002
<MEAN> 39
 2.868880e-002 -2.869325e-002 2.448449e-003 -7.473995e-002 -2.442718e-002 -9.872845e-003 -2.104553e-002 3.535455e-002 3.478156e-003 -3.135956e-002 1.056032e-002 -2.504222e-002 1.480792e-001 2.773134e-004 1.484850e-003 1.983417e-003 -3.696789e-003 3.522688e-003 8.791296e-003 -8.212465e-003 -1.010760e-002 2.012359e-003 6.256730e-003 -5.581039e-003 -1.292063e-003 3.455585e-003 -6.593964e-003 -1.805452e-003 6.541895e-003 5.254205e-003 8.848093e-003 7.073979e-003 -1.356437e-003 -9.662353e-003 1.552645e-003 2.723856e-003 5.935763e-004 3.067229e-003 -5.389533e-003
<VARIANCE> 39
 3.327461e-002 6.433678e-002 5.721842e-002 1.091040e-001 8.327552e-002 7.335085e-002 9.820349e-002 8.655220e-002 8.857678e-002 7.594886e-002 7.938869e-002 5.012200e-002 1.448254e-001 1.807324e-003 3.907987e-003 3.774136e-003 5.198572e-003 5.838322e-003 7.246058e-003 5.448326e-003 6.795129e-003 7.311287e-003 6.702721e-003 6.708393e-003 4.518029e-003 3.905981e-003 3.737727e-004 6.227221e-004 6.319553e-004 9.849594e-004 9.916257e-004 9.808888e-004 1.304332e-003 1.213243e-003 1.394639e-003 1.257943e-003 1.291747e-003 9.757399e-004 6.555853e-004
<GCONST> -1.216492e+002
<MIXTURE> 12 3.965444e-002
<MEAN> 39
