~o
<STREAMINFO> 1 39
<VECSIZE> 39<NULLD><PLP_D_A_Z_0><DIAGC>
~h "&"
<BEGINHMM>
<NUMSTATES> 5
<STATE> 2
<NUMMIXES> 12
<MIXTURE> 1 1.355041e-001
<MEAN> 39
 2.532375e-002 -1.380390e-001 -5.839492e-002 -3.207417e-001 -6.384205e-002 1.870775e-001 1.287921e-001 -3.751432e-002 8.788910e-002 2.167734e-002 -1.042259e-001 6.576369e-002 3.658727e-001 3.917661e-004 -5.168328e-003 -1.130785e-003 5.049596e-003 1.239283e-003 5.115994e-003 1.903611e-003 -6.822397e-003 -3.247809e-003 1.363774e-003 -1.257086e-004 3.523527e-003 -3.315298e-003 2.966779e-003 4.555716e-003 1.816584e-003 3.416533e-003 -4.352624e-003 -5.245224e-003 -3.153330e-003 1.431023e-003 -6.051575e-004 1.538857e-003 9.935893e-004 -2.359218e-003 -6.223504e-003
<VARIANCE> 39
 1.587942e-002 3.826196e-002 2.655943e-002 5.679797e-002 6.666718e-002 6.968619e-002 8.675856e-002 7.686938e-002 8.667339e-002 7.155224e-002 6.722014e-002 6.167988e-002 2.934557e-002 2.714019e-004 7.277368e-004 7.396625e-004 1.114329e-003 1.456952e-003 1.404667e-003 1.794834e-003 1.951578e-003 1.983904e-003 1.887408e-003 1.922697e-003 1.659660e-003 3.464575e-004 5.694248e-005 1.271214e-004 1.431415e-004 1.966390e-004 2.684603e-004 2.773600e-004 2.959481e-004 3.477729e-004 3.465933e-004 3.434368e-004 3.583953e-004 2.934778e-004 6.394640e-005
<GCONST> -1.652313e+002
<MIXTURE> 2 1.110326e-001
<MEAN> 39
 2.103811e-001 2.130899e-001 -1.409164e-002 -5.990550e-002 -2.139962e-001 -1.884551e-001 -1.915061e-001 1.095194e-001 -1.214733e-001 8.289288e-002 -7.901288e-002 1.110987e-002 -2.915428e-002 5.791289e-004 1.318768e-002 -1.347883e-003 -8.723016e-003 -2.036416e-003 -5.907123e-003 -3.988540e-003 1.099307e-004 -1.309584e-003 3.679472e-003 -3.398237e-003 4.809112e-003 -1.126893e-003 -4.679211e-003 -8.690447e-003 9.279099e-005 3.121071e-003 7.772582e-003 9.462889e-003 5.143748e-003 -6.903708e-003 4.744745e-003 -5.137998e-003 4.969969e-003 -5.011063e-005 2.760029e-003
<VARIANCE> 39
 1.092577e-002 4.134618e-002 4.782905e-002 5.593023e-002 6.991589e-002 6.394050e-002 8.503341e-002 8.632523e-002 8.454287e-002 7.677338e-002 7.592606e-002 5.243356e-002 3.108539e-002 6.266376e-004 2.764065e-003 2.653872e-003 3.434753e-003 4.119609e-003 4.014264e-003 4.916556e-003 4.855687e-003 5.052903e-003 4.424404e-003 4.327355e-003 3.563701e-003 1.862675e-003 1.242389e-004 4.689951e-004 5.190815e-004 6.508387e-004 7.986886e-004 7.858314e-004 9.474193e-004 1.040204e-003 9.611456e-004 9.430257e-004 8.991679e-004 6.481341e-004 3.292084e-004
<GCONST> -1.368649e+002
<MIXTURE> 3 6.556701e-002
<MEAN> 39
 3.412217e-002 -4.123757e-001 -1.344584e-001 3.434287e-002 -2.369478e-002 1.673917e-001 1.675689e-001 -3.255538e-001 -1.350848e-001 1.905198e-001 6.683730e-002 8.272947e-002 4.488172e-001 -3.215452e-002 -5.376706e-002 3.072177e-003 2.086813e-002 6.181635e-002 4.110407e-002 -2.147621e-002 -7.736243e-002 2.184201e-002 9.420807e-003 1.379288e-002 2.280536e-002 4.737531e-002 4.144831e-003 3.990070e-002 1.772510e-002 1.034914e-003 -7.195094e-003 -2.711094e-002 -2.052574e-002 3.787790e-002 9.578912e-003 -2.117125e-002 -7.304024e-003 -6.517313e-003 -4.007968e-002
<VARIANCE> 39
 1.575391e-002 2.758051e-002 3.200678e-002 6.868657e-002 5.082006e-002 6.696549e-002 7.609374e-002 6.451228e-002 8.529727e-002 5.338310e-002 6.304770e-002 4.648865e-002 2.852546e-002 1.357393e-003 3.475252e-003 2.937619e-003 1.054656e-002 5.449631e-003 7.388247e-003 6.487949e-003 8.040942e-003 1.100107e-002 8.237094e-003 7.558648e-003 5.690875e-003 2.148769e-003 3.440313e-004 5.693095e-004 5.826547e-004 9.529275e-004 9.229964e-004 1.146742e-003 1.219318e-003 1.110984e-003 1.540395e-003 1.002081e-003 1.295466e-003 8.543240e-004 5.195608e-004
<GCONST> -1.278767e+002
<MIXTURE> 4 9.550359e-002
<MEAN> 39
 -4.376596e-002 -1.539342e-001 -6.120700e-002 -4.210829e-001 1.315805e-001 2.586019e-001 -7.195415e-002 -1.663567e-001 1.265244e-001 -1.810204e-001 6.957825e-002 2.448199e-001 4.176556e-001 -1.524375e-002 -4.403003e-002 5.823997e-004 2.332373e-002 3.282149e-002 3.165581e-002 -5.544197e-003 -4.289393e-002 -3.080634e-003 4.401460e-003 9.631593e-003 1.458052e-002 2.376827e-002 1.334117e-002 1.931898e-002 5.457062e-003 2.418103e-002 -2.945016e-002 -2.811610e-002 3.581751e-003 1.670101e-002 -8.949650e-003 2.570877e-002 -1.356466e-002 -2.213378e-002 -2.835289e-002
<VARIANCE> 39
 1.461362e-002 3.727942e-002 2.721237e-002 5.735307e-002 6.022268e-002 5.675554e-002 7.786763e-002 7.316132e-002 6.867293e-002 6.276415e-002 8.769694e-002 5.038889e-002 2.843352e-002 6.765550e-004 2.585076e-003 1.780806e-003 5.782679e-003 5.158241e-003 4.146910e-003 5.181049e-003 7.216822e-003 6.367835e-003 7.193106e-003 6.389182e-003 4.858590e-003 1.069514e-003 1.966494e-004 4.068032e-004 3.527710e-004 7.007648e-004 8.339936e-004 8.419905e-004 9.859882e-004 9.302050e-004 1.297918e-003 9.301790e-004 1.276545e-003 9.100566e-004 2.909001e-004
<GCONST> -1.355350e+002
<MIXTURE> 5 7.874975e-002
<MEAN> 39
 2.760810e-002 1.920658e-001 1.703541e-002 -6.736062e-001 -3.211441e-002 -4.994931e-002 -4.981756e-002 2.976795e-001 1.778522e-001 -9.424777e-002 -9.462624e-002 -4.624018e-002 2.884127e-001 2.953725e-002 3.143599e-002 5.041352e-003 1.588818e-002 -3.032629e-002 7.852628e-003 -2.344893e-002 -2.170518e-003 -8.464010e-003 1.972638e-004 -2.460366e-002 -1.011914e-003 -2.302801e-002 6.048554e-004 7.168056e-003 1.297793e-002 7.630574e-002 -1.060369e-003 3.714086e-004 -9.277214e-004 -3.431153e-002 -2.563920e-002 6.346073e-003 4.604023e-003 2.328355e-003 -5.278996e-002
<VARIANCE> 39
 1.316714e-002 3.358890e-002 3.813005e-002 3.458209e-002 8.054455e-002 6.985459e-002 6.749553e-002 5.850716e-002 6.649391e-002 6.617459e-002 6.087224e-002 4.836440e-002 3.088033e-002 1.782850e-003 5.315220e-003 3.315152e-003 7.675214e-003 7.609446e-003 8.633577e-003 7.203336e-003 7.631636e-003 6.062006e-003 6.486666e-003 6.804232e-003 5.334306e-003 5.191870e-003 5.850645e-004 8.147121e-004 7.631361e-004 1.240103e-003 1.980218e-003 1.453435e-003 1.443664e-003 1.268756e-003 1.373651e-003 1.229033e-003 1.328215e-003 9.786404e-004 9.724169e-004
<GCONST> -1.235135e+002
<MIXTURE> 6 8.301304e-002
<MEAN> 39
 9.799293e-002 -1.775212e-001 -1.001250e-001 -2.050023e-001 -3.303032e-001 2.527702e-002 3.485640e-001 1.307400e-001 -5.315976e-002 1.635046e-001 -3.640431e-002 -2.283110e-001 3.829015e-001 1.885878e-002 -2.112399e-002 -3.490517e-002 2.873052e-002 -3.799336e-003 -1.310757e-002 2.744680e-002 2.302282e-002 -4.537228e-002 -7.251880e-003 2.267387e-002 -9.743963e-003 1.967776e-002 -4.260637e-003 2.660386e-002 1.838948e-002 2.638525e-002 2.924808e-002 -1.245225e-002 -4.260563e-002 -1.106118e-002 3.186557e-003 -2.176834e-002 3.969891e-003 2.721989e-002 -4.590791e-002
<VARIANCE> 39
 1.382818e-002 2.735530e-002 3.348305e-002 3.932538e-002 4.210277e-002 5.963301e-002 6.038319e-002 7.051384e-002 6.903365e-002 5.529894e-002 5.482511e-002 4.245204e-002 3.132053e-002 1.376203e-003 3.151070e-003 3.432289e-003 6.031951e-003 5.034489e-003 6.194220e-003 5.651597e-003 6.929910e-003 7.418204e-003 5.979639e-003 6.119641e-003 4.385277e-003 2.924938e-003 4.295940e-004 6.708635e-004 7.428115e-004 8.045178e-004 1.057191e-003 1.151635e-003 1.128191e-003 1.494907e-003 1.264007e-003 1.102755e-003 1.035610e-003 8.271172e-004 8.069199e-004
<GCONST> -1.302940e+002
<MIXTURE> 7 8.762091e-002
<MEAN> 39
 -1.236839e-001 4.614791e-002 1.415659e-001 1.107647e-001 9.511877e-002 2.292127e-002 3.803132e-002 -6.760550e-002 2.875249e-002 -3.725474e-002 1.660367e-002 -3.809030e-002 -2.132810e-001 1.872218e-002 2.494203e-002 -4.665570e-004 -1.136627e-002 -1.471338e-002 -1.545274e-002 -2.317100e-002 -3.946413e-003 -1.403214e-002 4.974526e-004 -7.325010e-003 4.529857e-003 -5.158084e-003 1.470191e-002 1.034225e-003 -1.227540e-002 -6.869733e-003 -1.420695e-002 -4.706291e-003 -8.216399e-003 9.352494e-003 -4.317614e-003 4.423902e-003 -3.405372e-003 3.836276e-003 1.392381e-002
<VARIANCE> 39
 5.029889e-002 6.801761e-002 5.326691e-002 8.873969e-002 7.680101e-002 9.178606e-002 8.373031e-002 8.032069e-002 7.968323e-002 6.288911e-002 5.641479e-002 4.221098e-002 1.050198e-001 7.656164e-003 7.744675e-003 6.272680e-003 8.861516e-003 1.073625e-002 8.456908e-003 1.004808e-002 8.320947e-003 8.611037e-003 7.143350e-003 6.394444e-003 4.843535e-003 7.408909e-003 6.586408e-004 1.065992e-003 9.425387e-004 1.392851e-003 1.525206e-003 1.662845e-003 1.679038e-003 1.578492e-003 1.470995e-003 1.301683e-003 1.161549e-003 8.691184e-004 1.247605e-003
<GCONST> -1.132088e+002
<MIXTURE> 8 9.431203e-002
<MEAN> 39
 2.465021e-001 1.715660e-001 -1.093647e-001 -1.384632e-001 -2.582180e-001 -1.376969e-001 -1.346058e-001 6.441791e-002 -7.260751e-002 1.070550e-001 -1.223579e-001 6.304489e-003 2.903588e-002 6.071325e-002 1.933630e-002 -4.428430e-002 -4.898038e-002 -4.927777e-002 -1.176557e-002 -1.520943e-002 2.282587e-002 -1.364284e-002 3.115373e-002 -3.680283e-002 -4.304966e-003 7.810212e-002 -3.663551e-002 -1.360370e-002 2.329365e-002 2.269689e-002 3.602783e-002 1.602533e-002 1.823509e-002 -6.954340e-003 8.227263e-003 -1.463149e-002 1.334695e-002 -3.653485e-003 -2.127039e-002
<VARIANCE> 39
 1.065972e-002 4.996180e-002 3.983158e-002 5.990211e-002 6.058125e-002 5.701489e-002 6.675798e-002 6.684073e-002 6.212226e-002 5.395526e-002 5.681853e-002 3.892694e-002 4.088040e-002 3.202276e-003 5.714065e-003 5.137412e-003 6.333336e-003 8.110516e-003 7.501497e-003 7.998249e-003 8.330607e-003 7.665513e-003 6.805952e-003 6.693721e-003 5.137934e-003 5.543774e-003 3.228834e-004 8.461906e-004 7.982306e-004 1.098318e-003 1.080841e-003 1.128749e-003 1.166452e-003 1.285944e-003 1.161744e-003 1.045465e-003 1.057725e-003 8.011920e-004 8.389908e-004
<GCONST> -1.246599e+002
<MIXTURE> 9 4.294882e-002
<MEAN> 39
 3.669992e-002 -7.861231e-002 -1.495425e-001 -4.382483e-001 -2.057883e-001 3.373317e-002 -1.534775e-001 -1.326944e-001 9.112220e-002 4.926267e-002 1.074971e-001 3.949834e-001 2.884379e-001 1.105782e-002 -3.111611e-002 -2.502206e-002 -2.350949e-002 -2.277107e-002 1.667744e-002 -2.800153e-002 -6.146647e-002 -4.185230e-002 -3.457425e-003 -2.491557e-002 5.431045e-002 6.352984e-002 -1.396269e-002 1.298470e-002 2.883624e-002 5.515155e-002 2.943589e-002 -2.369081e-003 2.094963e-002 1.340169e-002 -9.001747e-003 -1.196736e-002 -1.034785e-002 -5.135636e-002 -4.089248e-002
<VARIANCE> 39
 1.552622e-002 4.538223e-002 3.400883e-002 6.437013e-002 6.344830e-002 6.451467e-002 6.457166e-002 5.968194e-002 6.746597e-002 8.684392e-002 8.350679e-002 4.283957e-002 3.370317e-002 2.716199e-003 5.925006e-003 4.221101e-003 8.629982e-003 8.799064e-003 6.326966e-003 8.148609e-003 7.040717e-003 7.610414e-003 1.064501e-002 7.632063e-003 6.963893e-003 4.710700e-003 4.948297e-004 8.672444e-004 7.934339e-004 1.292404e-003 1.392233e-003 1.283828e-003 1.509445e-003 1.274842e-003 1.477881e-003 1.786022e-003 1.397037e-003 7.997876e-004 9.761673e-004
<GCONST> -1.206945e+002
<MIXTURE> 10 7.417237e-002
<MEAN> 39
 1.516576e-001 -3.606375e-001 -3.778757e-001 1.933040e-001 6.128750e-002 -1.396672e-001 1.400364e-001 2.042395e-001 -1.827428e-001 -1.675292e-001 1.774282e-001 1.047385e-001 3.744033e-001 -1.968250e-002 -3.874715e-002 8.025491e-003 1.130304e-002 7.054414e-004 2.031211e-002 5.218060e-002 -3.608026e-002 -4.680314e-002 1.388228e-002 4.246892e-002 -1.821150e-004 3.908470e-002 -1.839721e-003 2.867798e-002 2.845293e-002 -9.793562e-003 -1.097991e-002 4.660027e-003 -1.707645e-002 -1.871198e-002 1.409317e-002 2.300931e-002 -1.958011e-002 -1.549490e-002 -2.780331e-002
<VARIANCE> 39
 1.429322e-002 2.847973e-002 3.944682e-002 5.278627e-002 6.635641e-002 4.432731e-002 8.107558e-002 7.814782e-002 6.971171e-002 6.367058e-002 5.917791e-002 4.809656e-002 3.542316e-002 1.009255e-003 2.174736e-003 4.164417e-003 3.796100e-003 5.961984e-003 4.086299e-003 8.284469e-003 6.784103e-003 6.122275e-003 6.069720e-003 5.626697e-003 4.478534e-003 1.878435e-003 2.226399e-004 4.553248e-004 6.290788e-004 6.859254e-004 7.500169e-004 8.220035e-004 1.199598e-003 1.094112e-003 1.028999e-003 1.008048e-003 1.093294e-003 7.528284e-004 4.483584e-004
<GCONST> -1.334755e+002
<MIXTURE> 11 3.791126e-002
<MEAN> 39
 -4.615895e-002 -1.543110e-001 -1.502485e-001 -2.259692e-001 -6.152645e-002 1.995317e-002 1.335805e-001 2.553054e-001 4.087388e-001 4.031575e-001 2.633184e-001 -1.620553e-001 2.442674e-001 -7.901310e-003 -1.824352e-002 -1.881978e-002 -1.055683e-002 1.170805e-002 2.581059e-002 -4.546176e-003 -4.856386e-003 2.811510e-002 4.130208e-002 1.661745e-002 -1.017504e-002 3.213276e-002 3.347648e-003 1.687520e-002 1.776608e-002 2.361409e-002 2.348961e-003 -5.530134e-003 -1.609695e-002 -1.754002e-002 -3.236255e-002 -3.362240e-002 -2.058487e-002 1.980670e-002 -2.806092e-002
<VARIANCE> 39
 2.810710e-002 6.252630e-002 7.435285e-002 1.261021e-001 1.114231e-001 1.116950e-001 1.196047e-001 1.761892e-001 2.170796e-001 2.292361e-001 2.079074e-001 1.580915e-001 7.191486e-002 3.508009e-003 6.531392e-003 6.440201e-003 9.443885e-003 9.878224e-003 1.183252e-002 1.339512e-002 1.871948e-002 2.249666e-002 2.134387e-002 1.839526e-002 2.021731e-002 6.045020e-003 5.740028e-004 1.142047e-003 1.429710e-003 1.514113e-003 2.088324e-003 2.079335e-003 2.488751e-003 3.424512e-003 3.741981e-003 4.335902e-003 3.760335e-003 2.523619e-003 1.227516e-003
<GCONST> -9.561199e+001
<MIXTURE> 12 9.366976e-002
<MEAN> 39
 4.113593e-002 -4.796457e-002 5.247379e-003 -4.532308e-001 -2.553158e-001 2.277806e-001 1.311637e-001 2.963234e-002 2.729052e-001 1.191911e-002 -3.202012e-001 5.040150e-002 3.606207e-001 -2.174816e-003 -2.241402e-002 -9.237707e-003 -1.258937e-003 3.924624e-003 2.747940e-002 2.738373e-002 -1.085369e-002 -6.532559e-003 3.360662e-003 -1.278377e-002 -2.885864e-003 2.125036e-002 4.071273e-004 1.604131e-002 9.297952e-003 3.530834e-002 1.394082e-002 -2.687081e-002 -1.529458e-002 -5.759935e-003 -2.633477e-002 2.008634e-003 3.121862e-002 -7.231829e-003 -3.561225e-002
<VARIANCE> 39
 1.310585e-002 2.687552e-002 2.728125e-002 3.874950e-002 4.298178e-002 4.516386e-002 5.014823e-002 6.594825e-002 5.425574e-002 6.912335e-002 4.380374e-002 4.143639e-002 2.999782e-002 7.855087e-004 2.543451e-003 1.944434e-003 4.945310e-003 3.937333e-003 3.970369e-003 4.830006e-003 5.930772e-003 6.649442e-003 5.594027e-003 4.850215e-003 4.484182e-003 1.830532e-003 3.080954e-004 4.649049e-004 4.234845e-004 7.542284e-004 7.917513e-004 9.268668e-004 7.805343e-004 1.159890e-003 9.119484e-004 1.027170e-003 8.239832e-004 6.921310e-004 4.898899e-004
<GCONST> -1.385618e+002
<STATE> 3
<NUMMIXES> 12
<MIXTURE> 1 9.114142e-002
<MEAN> 39
 1.212681e-001 -3.228840e-001 -2.845655e-001 5.178651e-002 -2.328085e-002 -3.436598e-002 2.686884e-001 1.103180e-001 -2.397503e-001 -5.314551e-002 1.118831e-001 2.507943e-002 4.021339e-001 -3.293496e-003 -1.165082e-002 6.359190e-005 2.198745e-002 1.937754e-002 -8.059042e-004 -2.538160e-003 -1.631684e-002 -1.682287e-002 -8.377938e-004 1.785278e-002 9.803011e-003 6.559398e-004 3.188067e-003 1.764917e-002 1.123868e-002 -3.369293e-003 -6.797655e-003 -5.635756e-003 -1.491650e-002 -3.533909e-004 1.614206e-002 6.345247e-003 -1.137034e-002 -5.210829e-003 -1.794220e-002
<VARIANCE> 39
 1.425745e-002 2.428147e-002 3.359145e-002 5.385694e-002 6.251666e-002 5.490616e-002 8.474437e-002 7.320151e-002 5.839469e-002 6.434659e-002 4.505339e-002 5.117634e-002 3.235245e-002 4.588237e-004 9.994144e-004 1.590603e-003 1.880295e-003 2.734414e-003 2.692791e-003 3.497027e-003 3.971331e-003 3.809341e-003 3.686164e-003 3.347230e-003 2.969822e-003 6.016828e-004 8.520095e-005 2.377388e-004 2.551716e-004 3.243275e-004 4.411907e-004 5.076661e-004 6.617316e-004 6.350948e-004 6.352520e-004 6.099538e-004 5.511515e-004 5.196076e-004 1.802502e-004
<GCONST> -1.513446e+002
<MIXTURE> 2 1.379193e-001
<MEAN> 39
 2.115695e-001 2.504343e-001 -1.732305e-002 -1.008070e-001 -2.443185e-001 -1.963025e-001 -1.842920e-001 1.017709e-001 -1.458564e-001 8.336463e-002 -9.613644e-002 3.791695e-002 -2.386243e-002 -2.344795e-003 5.578491e-003 1.000055e-003 -3.919174e-003 3.964815e-003 -1.052886e-003 9.318737e-004 -3.650620e-003 -2.805829e-003 1.408982e-003 6.473400e-005 2.122679e-003 4.680781e-003 -7.486359e-003 -7.496060e-003 6.110495e-003 9.881885e-003 1.077976e-002 8.768438e-003 3.302543e-003 -6.985940e-003 7.688502e-003 -4.878514e-003 5.905570e-003 -4.847324e-003 -8.269241e-003
<VARIANCE> 39
 1.027839e-002 3.219438e-002 3.651867e-002 5.208784e-002 6.500522e-002 5.866048e-002 7.504804e-002 7.602753e-002 7.726521e-002 7.222095e-002 7.403356e-002 5.206172e-002 2.838991e-002 4.759849e-004 1.705459e-003 1.829911e-003 2.611340e-003 3.204621e-003 3.337244e-003 4.011243e-003 3.995291e-003 4.328814e-003 3.796320e-003 4.075661e-003 3.075881e-003 1.331302e-003 1.910566e-004 4.437852e-004 4.902147e-004 6.095147e-004 8.533004e-004 7.384179e-004 8.589769e-004 9.116380e-004 8.879533e-004 8.703793e-004 9.439243e-004 6.588000e-004 4.157569e-004
<GCONST> -1.411260e+002
<MIXTURE> 3 7.252957e-002
<MEAN> 39
 2.648389e-001 -9.962266e-003 -2.847007e-001 -7.847639e-002 -9.878482e-002 -2.202560e-002 -1.162345e-001 5.999945e-002 2.531772e-002 1.276946e-001 -6.521353e-002 -5.481301e-002 1.425654e-001 3.024990e-003 1.287928e-002 8.411449e-003 -8.912684e-003 4.069239e-003 6.073145e-003 -5.095463e-003 -9.760786e-003 1.613435e-003 1.567426e-002 -1.059585e-002 -9.451915e-003 6.237137e-003 -2.436430e-002 1.051900e-002 3.909985e-002 1.388321e-002 6.862933e-003 -6.362449e-003 9.794767e-003 -5.343924e-003 -5.440540e-003 -1.767512e-002 5.791661e-003 5.898671e-003 -2.740715e-002
<VARIANCE> 39
 1.120459e-002 3.993777e-002 5.696827e-002 5.996028e-002 6.616561e-002 5.819249e-002 7.898149e-002 9.836037e-002 8.609404e-002 6.521028e-002 4.831549e-002 4.395311e-002 3.702157e-002 1.116389e-003 3.930867e-003 5.014270e-003 4.557396e-003 5.152685e-003 5.089571e-003 6.251291e-003 6.354413e-003 5.491521e-003 5.867575e-003 4.910361e-003 3.869249e-003 3.545581e-003 3.632598e-004 6.376334e-004 7.722244e-004 8.475305e-004 1.049571e-003 9.920445e-004 1.189898e-003 1.533635e-003 1.246091e-003 1.033784e-003 8.227872e-004 7.519572e-004 6.076725e-004
<GCONST> -1.290965e+002
<MIXTURE> 4 7.991867e-002
<MEAN> 39
 -2.432127e-002 -3.778780e-001 -6.538970e-002 -1.010051e-001 8.677354e-002 3.084998e-001 1.573852e-002 -4.202112e-001 4.066817e-002 1.266994e-001 -2.770955e-002 1.659473e-001 4.679947e-001 -6.576651e-003 -4.416222e-002 5.572152e-003 7.989833e-002 2.312199e-002 -2.510813e-002 -1.216921e-003 -3.082840e-002 -2.953080e-002 5.078268e-002 2.692812e-002 -2.896449e-002 5.575735e-003 8.036392e-003 2.600889e-002 2.939589e-003 -4.954535e-004 -1.650474e-002 -2.965018e-002 5.357520e-003 4.219163e-002 -5.092404e-003 -1.142301e-002 4.141094e-003 -1.448642e-002 -2.560139e-002
<VARIANCE> 39
 1.537854e-002 2.477536e-002 2.456551e-002 5.291681e-002 4.642888e-002 4.820835e-002 7.795765e-002 4.525078e-002 6.730057e-002 5.311970e-002 4.564846e-002 3.925488e-002 2.576130e-002 8.489024e-004 1.831499e-003 1.798477e-003 5.773587e-003 4.139535e-003 4.197229e-003 5.578254e-003 4.922911e-003 6.958211e-003 6.322826e-003 5.737385e-003 4.377331e-003 9.041074e-004 1.912727e-004 3.948644e-004 3.575845e-004 5.824374e-004 7.105586e-004 7.195100e-004 9.100358e-004 9.235907e-004 1.094654e-003 9.054602e-004 9.528775e-004 7.336776e-004 3.090555e-004
<GCONST> -1.404907e+002
<MIXTURE> 5 6.967261e-002
<MEAN> 39
 1.355762e-001 -2.189925e-001 -1.553767e-001 -6.986012e-002 -3.043351e-001 -6.393959e-002 3.382435e-001 1.609070e-001 -1.696415e-001 9.228236e-002 6.768267e-002 -1.454858e-001 3.432550e-001 3.425676e-002 3.030735e-002 -1.155490e-002 6.838312e-002 1.406349e-002 -5.414913e-002 -4.515388e-002 3.293020e-002 -4.106940e-002 -3.806328e-002 2.290380e-002 1.822451e-002 -4.970782e-002 -7.369884e-003 3.572397e-002 2.629802e-002 9.452603e-003 2.645459e-002 -4.090898e-005 -4.702405e-002 -1.454699e-002 2.243827e-002 -1.319247e-002 -1.554022e-002 1.682204e-002 -4.578904e-002
<VARIANCE> 39
 1.329009e-002 2.827984e-002 3.452045e-002 3.584803e-002 4.577810e-002 5.825168e-002 6.692452e-002 9.222855e-002 5.747161e-002 6.856706e-002 5.378688e-002 5.163482e-002 3.402785e-002 1.306919e-003 4.803360e-003 4.780289e-003 5.919498e-003 6.459673e-003 6.229975e-003 7.008797e-003 9.139486e-003 7.136940e-003 6.541505e-003 6.345537e-003 5.090848e-003 4.808964e-003 4.417629e-004 6.135519e-004 9.021288e-004 8.032649e-004 1.157301e-003 1.243004e-003 1.321662e-003 1.832640e-003 1.283629e-003 1.485190e-003 1.061386e-003 1.010348e-003 6.320739e-004
<GCONST> -1.265227e+002
<MIXTURE> 6 7.645921e-002
<MEAN> 39
 9.663453e-002 4.157916e-003 4.073229e-002 -4.058194e-001 -3.668104e-001 1.306293e-001 1.046743e-001 4.796739e-002 2.145815e-001 1.362429e-001 -2.936774e-001 -3.874156e-002 2.850132e-001 3.205332e-002 4.835287e-002 1.937320e-002 8.109790e-002 -2.016465e-002 -3.529179e-002 -1.935031e-002 -2.682559e-002 -5.553258e-002 1.466408e-002 8.915681e-003 -2.198067e-002 -7.733651e-002 -2.768521e-003 2.463883e-002 1.248693e-002 3.570991e-002 2.617855e-002 -1.764518e-002 -1.896424e-002 -3.665556e-003 -2.359516e-002 -1.853818e-002 2.529103e-002 1.834035e-003 -4.292607e-002
<VARIANCE> 39
 1.052086e-002 2.508422e-002 2.772973e-002 3.332155e-002 3.551766e-002 4.724963e-002 5.293805e-002 5.544820e-002 5.872387e-002 7.211215e-002 4.616393e-002 4.658610e-002 2.780930e-002 8.763135e-004 2.608613e-003 2.250427e-003 6.080981e-003 4.632133e-003 4.285580e-003 5.004061e-003 5.008171e-003 6.118677e-003 5.297977e-003 5.005302e-003 4.229582e-003 2.466588e-003 2.662021e-004 4.398201e-004 5.487578e-004 8.312180e-004 7.937254e-004 9.698506e-004 8.852984e-004 9.960298e-004 1.022493e-003 1.078555e-003 9.189795e-004 8.003500e-004 5.566818e-004
<GCONST> -1.375866e+002
<MIXTURE> 7 7.576042e-002
<MEAN> 39
 -8.207751e-002 -1.809145e-001 -4.707095e-002 -4.203417e-001 4.534025e-002 1.692257e-001 -9.883241e-002 -1.492590e-001 1.164133e-001 -1.948635e-002 1.746109e-001 3.010692e-001 3.944051e-001 1.787785e-002 1.697546e-002 8.466821e-003 1.726501e-002 -2.794856e-002 1.182885e-003 -1.515305e-002 -9.818577e-003 -1.511336e-003 -1.642760e-002 -3.205083e-002 8.718766e-003 -2.589905e-002 2.120663e-002 3.425752e-002 4.890490e-003 3.484291e-002 -2.675228e-002 -3.224733e-002 5.120936e-003 2.770116e-002 -1.524060e-002 1.193691e-002 -1.842180e-002 -3.509816e-002 -4.391428e-002
<VARIANCE> 39
 1.727650e-002 5.062285e-002 3.882084e-002 8.744421e-002 9.231577e-002 8.441930e-002 8.714011e-002 8.960830e-002 1.175440e-001 1.222181e-001 1.358919e-001 6.900909e-002 3.329372e-002 1.650041e-003 4.709973e-003 2.681510e-003 9.846430e-003 9.607278e-003 6.804616e-003 9.039119e-003 8.404379e-003 1.228093e-002 1.187113e-002 9.076281e-003 7.474064e-003 2.616288e-003 3.180588e-004 6.772585e-004 6.913113e-004 1.365019e-003 1.633513e-003 1.648882e-003 1.591348e-003 1.738180e-003 2.251306e-003 1.911544e-003 2.199667e-003 1.341061e-003 6.359409e-004
<GCONST> -1.161745e+002
<MIXTURE> 8 9.557243e-002
<MEAN> 39
 -6.893795e-002 1.035142e-001 1.475074e-001 1.291330e-001 5.833005e-002 -1.236675e-002 -2.739879e-002 -5.993626e-002 -1.448766e-002 -3.695914e-002 2.588038e-003 -2.758439e-002 -2.569643e-001 1.947156e-002 1.764739e-002 -9.376532e-003 -8.484809e-003 -2.107959e-002 -1.750949e-002 -2.380555e-002 1.247482e-004 -1.295204e-002 4.738846e-003 -5.557642e-003 1.032025e-002 7.216875e-003 5.541455e-003 -8.377195e-003 -1.213727e-002 -9.701800e-003 -8.486079e-003 1.122463e-004 1.605050e-003 7.884907e-003 2.116885e-003 4.804040e-003 -1.019180e-003 2.425762e-003 1.867374e-002
<VARIANCE> 39
 5.425138e-002 6.511526e-002 5.540612e-002 8.351887e-002 8.449810e-002 8.603212e-002 9.375571e-002 8.510973e-002 8.386827e-002 6.584301e-002 5.867627e-002 4.354365e-002 9.539568e-002 7.954659e-003 7.185484e-003 6.468109e-003 9.586485e-003 1.161098e-002 8.698715e-003 9.909079e-003 8.965779e-003 8.910523e-003 7.087618e-003 6.724036e-003 5.029655e-003 8.066043e-003 6.393586e-004 9.981160e-004 8.725158e-004 1.197349e-003 1.466908e-003 1.451233e-003 1.724515e-003 1.514763e-003 1.435008e-003 1.353879e-003 1.197431e-003 8.760866e-004 1.059346e-003
<GCONST> -1.131099e+002
<MIXTURE> 9 3.645364e-002
<MEAN> 39
 -1.098086e-001 -2.586074e-001 -1.457949e-001 -7.615045e-002 3.736223e-002 2.783591e-001 3.631027e-001 5.681409e-001 7.998195e-001 4.316699e-001 -1.608863e-001 -6.100044e-001 2.560898e-001 9.892115e-003 9.856069e-003 4.038944e-003 5.559343e-003 -1.729515e-002 -8.361717e-003 -8.490484e-003 -1.015829e-002 -2.684774e-002 -1.875894e-002 2.186805e-003 4.266166e-002 -2.427842e-002 8.224878e-003 1.365579e-002 6.571845e-003 6.866236e-004 -4.994466e-003 -1.590496e-002 -1.811237e-002 -2.474349e-002 -3.824278e-002 -2.086861e-002 1.026962e-002 3.711042e-002 -1.505590e-002
<VARIANCE> 39
 1.984162e-002 5.800369e-002 4.373270e-002 1.188272e-001 6.505957e-002 8.226060e-002 1.040162e-001 1.481282e-001 1.902174e-001 3.622788e-001 4.310345e-001 2.108986e-001 6.299035e-002 1.609985e-003 3.454477e-003 3.353233e-003 5.700314e-003 5.271166e-003 7.789750e-003 9.441766e-003 1.432389e-002 1.790876e-002 2.096689e-002 2.523799e-002 2.152332e-002 3.628101e-003 2.852323e-004 5.334386e-004 6.670658e-004 9.258190e-004 1.046045e-003 1.333739e-003 1.693041e-003 2.341603e-003 2.561191e-003 4.109431e-003 4.226619e-003 2.850914e-003 5.279077e-004
<GCONST> -1.068398e+002
<MIXTURE> 10 9.034105e-002
<MEAN> 39
 1.230746e-001 2.695005e-001 3.342270e-002 -4.548646e-001 -1.846487e-001 -1.385038e-001 -1.183458e-001 1.875284e-001 7.252081e-002 1.725400e-002 -1.345865e-001 8.723975e-004 1.144515e-001 2.278149e-002 5.626814e-002 2.705356e-002 7.803319e-002 -1.609927e-002 -1.822527e-003 -2.676799e-002 -3.457452e-002 -3.496654e-002 -1.014415e-002 -2.157408e-002 -3.598245e-003 -6.604689e-002 -2.179766e-002 -1.324319e-002 1.152590e-002 5.396707e-002 2.688335e-002 1.601793e-002 1.644493e-002 -1.951936e-002 -7.098327e-003 -8.514509e-003 1.607622e-002 -4.744805e-003 -2.935322e-002
<VARIANCE> 39
 1.597905e-002 3.752191e-002 4.394182e-002 7.132716e-002 8.578128e-002 8.685854e-002 8.642561e-002 8.287813e-002 9.199847e-002 8.542185e-002 8.253041e-002 6.599614e-002 3.742144e-002 3.203877e-003 5.356842e-003 4.378021e-003 1.141622e-002 9.195135e-003 7.294728e-003 8.117318e-003 8.759252e-003 7.749223e-003 7.550658e-003 6.562050e-003 5.555982e-003 9.331057e-003 6.901743e-004 8.544133e-004 1.029107e-003 1.174437e-003 2.014349e-003 1.820817e-003 1.682263e-003 1.613690e-003 1.636442e-003 1.540811e-003 1.670323e-003 1.278194e-003 9.251222e-004
<GCONST> -1.156037e+002
<MIXTURE> 11 1.065843e-001
<MEAN> 39
 7.686886e-003 -5.201416e-002 -2.742785e-002 -4.828372e-001 -2.298322e-002 1.940621e-001 2.581176e-002 -3.123099e-003 1.805995e-001 -1.290055e-001 -7.228013e-002 1.230394e-001 3.402231e-001 1.374081e-002 1.913815e-002 7.729167e-003 1.337538e-002 -1.756932e-002 -8.714594e-003 -1.219894e-002 -1.639346e-003 1.576733e-003 8.949417e-003 -5.383547e-003 -4.573928e-003 -2.636912e-002 1.169868e-002 2.023470e-002 6.788754e-003 2.496984e-002 -1.751113e-002 -1.640929e-002 -9.692024e-003 9.230304e-004 -1.100259e-002 1.285738e-002 -5.085998e-003 -8.892112e-003 -2.786986e-002
<VARIANCE> 39
 1.330264e-002 3.745413e-002 2.913018e-002 4.901952e-002 6.577847e-002 6.351336e-002 7.426546e-002 7.870542e-002 6.325798e-002 6.889263e-002 6.232402e-002 5.884967e-002 2.842470e-002 4.410551e-004 1.161346e-003 1.285869e-003 2.164403e-003 3.013977e-003 2.492515e-003 3.024543e-003 3.864840e-003 2.820567e-003 3.537431e-003 3.389277e-003 3.142749e-003 6.584987e-004 1.247645e-004 3.485793e-004 3.058251e-004 4.973738e-004 6.810023e-004 6.718796e-004 6.609873e-004 8.312036e-004 6.908688e-004 7.258167e-004 6.965817e-004 6.446203e-004 2.881934e-004
<GCONST> -1.473610e+002
<MIXTURE> 12 6.766754e-002
<MEAN> 39
 4.124726e-002 -4.701300e-001 -2.167606e-001 2.657128e-001 5.101726e-002 -4.227616e-002 2.127883e-001 -1.107198e-001 -2.775861e-001 6.966903e-002 2.788331e-001 2.600045e-002 4.498976e-001 -1.991434e-002 6.038527e-004 3.807257e-002 -1.995222e-002 -1.030760e-002 3.316519e-002 8.570706e-003 -5.730825e-002 1.623471e-002 3.704458e-002 -1.606484e-002 -1.547638e-002 6.266258e-003 1.121785e-002 4.115252e-002 1.244127e-002 -2.507035e-002 -1.527159e-002 -4.138834e-003 -2.595548e-002 2.039214e-002 2.899772e-002 -6.082107e-003 -3.712296e-002 -1.091965e-003 -3.414133e-002
<VARIANCE> 39
 1.644679e-002 2.741187e-002 4.431554e-002 6.346325e-002 6.641962e-002 6.135112e-002 7.690915e-002 1.015307e-001 7.941771e-002 9.192929e-002 5.929985e-002 4.884823e-002 3.838744e-002 1.087508e-003 2.058441e-003 3.851701e-003 6.799757e-003 5.911347e-003 6.428362e-003 7.268740e-003 8.333477e-003 6.730201e-003 6.966169e-003 6.427550e-003 4.747932e-003 1.364668e-003 2.207336e-004 5.118010e-004 6.447340e-004 8.013913e-004 8.984382e-004 1.084419e-003 1.402388e-003 1.566477e-003 1.568232e-003 1.583805e-003 1.136935e-003 1.030809e-003 4.322487e-004
<GCONST> -1.283427e+002
<STATE> 4
<NUMMIXES> 12
<MIXTURE> 1 6.926284e-002
<MEAN> 39
 1.801557e-001 1.151885e-001 -9.615419e-002 -8.646252e-002 -2.009648e-001 -1.886420e-001 -2.316403e-001 4.434641e-002 -2.958924e-002 1.585170e-001 9.214157e-002 1.100047e-001 -1.072821e-002 2.780277e-002 2.054105e-002 -9.494746e-003 -7.089241e-004 -2.586333e-002 -1.492600e-002 -2.625791e-002 -6.100024e-003 -2.057154e-002 -3.559230e-003 -9.482440e-003 1.563338e-002 9.544949e-003 -2.071543e-002 -8.390199e-003 1.261496e-002 8.467983e-003 1.960112e-002 1.656900e-002 2.796815e-002 -8.352570e-004 6.822240e-003 -1.310903e-002 -8.295723e-003 -1.412206e-002 -7.808788e-004
<VARIANCE> 39
 1.825620e-002 5.466836e-002 5.380982e-002 8.378672e-002 8.189401e-002 7.503006e-002 8.725016e-002 9.691571e-002 1.128115e-001 1.076501e-001 8.264626e-002 7.242711e-002 4.935545e-002 4.578395e-003 7.942388e-003 8.020717e-003 1.125234e-002 1.230782e-002 1.001704e-002 1.152896e-002 1.138089e-002 1.146205e-002 1.185551e-002 1.023872e-002 8.897149e-003 1.038998e-002 4.239075e-004 9.027522e-004 9.602322e-004 1.424461e-003 1.417119e-003 1.480935e-003 1.503603e-003 1.679794e-003 1.711732e-003 1.763382e-003 1.377404e-003 1.299886e-003 8.534978e-004
<GCONST> -1.105376e+002
<MIXTURE> 2 5.979218e-002
<MEAN> 39
 -1.952886e-001 -6.146221e-003 2.058825e-001 9.474363e-002 1.560127e-001 8.103883e-003 -3.365950e-002 -1.670377e-001 7.936990e-002 -1.197668e-001 2.198004e-002 2.834134e-002 -1.007374e-001 -2.171532e-002 -1.243973e-002 4.982897e-004 7.162736e-003 1.437380e-002 -3.337026e-003 3.223742e-003 -7.449886e-003 6.407179e-003 -5.811762e-003 8.482650e-003 1.900412e-003 -7.604209e-004 1.569885e-002 -8.996504e-004 -1.495524e-002 -7.543480e-003 -1.591681e-002 4.223573e-003 4.773019e-003 1.617647e-002 -3.968758e-003 1.127862e-002 -7.014652e-004 -5.847083e-003 5.723134e-003
<VARIANCE> 39
 4.708806e-002 7.447602e-002 5.553477e-002 7.611047e-002 7.977277e-002 6.617829e-002 8.987989e-002 7.538739e-002 7.952389e-002 6.489849e-002 5.471727e-002 4.460474e-002 1.014208e-001 3.678530e-003 4.016710e-003 4.388656e-003 7.760731e-003 7.494455e-003 5.962155e-003 7.230017e-003 6.668375e-003 6.619016e-003 5.456608e-003 5.134621e-003 3.954424e-003 4.154207e-003 5.025237e-004 7.802265e-004 8.011156e-004 9.317594e-004 1.361007e-003 1.004095e-003 1.312674e-003 1.345434e-003 1.420422e-003 1.141869e-003 9.568541e-004 8.372686e-004 5.772674e-004
<GCONST> -1.215699e+002
<MIXTURE> 3 1.194048e-001
<MEAN> 39
 -4.477493e-003 -4.156133e-001 -1.466546e-001 5.042244e-002 1.142217e-001 1.329858e-001 6.866179e-002 -2.561479e-001 -4.879356e-002 1.036648e-001 1.114421e-001 1.041882e-001 4.593544e-001 -1.816847e-004 -4.097803e-003 4.951734e-003 2.312012e-002 4.611233e-003 -1.484461e-002 -5.976181e-003 -3.901224e-003 2.608825e-004 1.431630e-002 3.529455e-003 -9.809385e-003 -7.725824e-003 9.486099e-003 1.881720e-002 8.265074e-005 -1.067359e-002 -1.634479e-002 -7.747092e-003 1.709946e-003 2.019447e-002 2.364534e-003 -8.165447e-003 -8.008560e-003 -2.600203e-003 -1.529570e-002
<VARIANCE> 39
 1.623404e-002 2.816242e-002 4.055956e-002 8.766434e-002 5.609806e-002 7.371341e-002 9.236366e-002 7.657319e-002 9.135256e-002 7.293310e-002 5.939719e-002 5.394079e-002 2.793603e-002 5.702767e-004 1.256774e-003 1.512537e-003 3.800965e-003 2.458423e-003 3.017613e-003 3.287836e-003 3.652899e-003 4.301672e-003 3.759920e-003 4.002371e-003 3.046120e-003 5.668814e-004 1.032367e-004 2.354020e-004 2.553773e-004 4.380859e-004 4.776763e-004 4.828967e-004 6.748749e-004 6.337404e-004 7.319662e-004 7.266619e-004 6.279564e-004 5.965697e-004 1.319625e-004
<GCONST> -1.472661e+002
<MIXTURE> 4 1.026099e-001
<MEAN> 39
 3.131345e-002 -5.582554e-002 1.003655e-003 -4.572761e-001 -9.840158e-002 2.079396e-001 -7.354636e-002 -9.609246e-002 2.132228e-001 -8.813606e-002 -4.047753e-002 2.043691e-001 3.022234e-001 4.777653e-002 7.780325e-002 2.229964e-002 6.097132e-002 -6.423455e-002 -3.882722e-002 -3.703425e-002 9.315643e-003 -2.678077e-002 2.196150e-002 -3.599222e-002 -2.374043e-002 -9.326690e-002 7.529749e-003 2.390439e-002 4.601954e-003 3.277374e-002 -3.599157e-003 -2.003769e-002 -8.699020e-004 1.248050e-002 -2.618501e-002 8.357338e-003 -2.404522e-003 -1.829044e-002 -3.315918e-002
<VARIANCE> 39
 1.366863e-002 3.516471e-002 3.104450e-002 5.017867e-002 6.894355e-002 5.416190e-002 8.297536e-002 7.149252e-002 6.834152e-002 7.466254e-002 8.186957e-002 5.688746e-002 3.068269e-002 1.057752e-003 3.024954e-003 2.374818e-003 5.925810e-003 6.146476e-003 5.216684e-003 6.541163e-003 6.648647e-003 6.898190e-003 6.596019e-003 6.493764e-003 4.704345e-003 2.503390e-003 2.228809e-004 4.262906e-004 4.735161e-004 8.744223e-004 9.939997e-004 1.079748e-003 1.124488e-003 1.101275e-003 1.097615e-003 1.161009e-003 1.119658e-003 8.463783e-004 4.702045e-004
<GCONST> -1.311930e+002
<MIXTURE> 5 6.970645e-002
<MEAN> 39
 2.357749e-001 4.167053e-001 1.098040e-001 -5.281035e-003 -2.399063e-001 -1.236182e-001 -2.044640e-001 5.963214e-002 -1.894815e-001 -6.225424e-002 -1.809461e-001 -1.969131e-002 -2.192755e-001 7.975926e-003 4.678674e-002 3.834438e-002 1.046014e-001 3.054618e-003 1.906032e-002 -1.118890e-002 -2.525806e-002 -3.423289e-002 -1.670197e-002 -6.333680e-003 -6.343387e-003 -9.840469e-002 -2.896823e-002 -3.937433e-002 -5.451876e-003 -1.153498e-002 2.803334e-002 1.656958e-002 2.728978e-002 4.349370e-003 2.753475e-002 4.484380e-003 1.749316e-002 -1.894033e-003 1.816767e-002
<VARIANCE> 39
 1.205052e-002 2.999779e-002 3.191066e-002 7.003058e-002 5.455858e-002 7.684921e-002 6.338502e-002 7.720088e-002 6.350736e-002 5.791028e-002 6.123875e-002 4.108830e-002 4.203015e-002 3.787742e-003 6.119518e-003 4.664434e-003 1.295432e-002 1.021677e-002 8.105426e-003 7.985216e-003 8.032493e-003 9.098373e-003 6.486236e-003 6.331718e-003 4.743832e-003 1.152708e-002 3.538228e-004 7.245585e-004 7.376838e-004 1.286027e-003 1.136150e-003 1.311701e-003 1.366304e-003 1.564457e-003 1.262178e-003 1.168931e-003 1.131491e-003 8.210943e-004 9.027803e-004
<GCONST> -1.218024e+002
<MIXTURE> 6 7.827342e-002
<MEAN> 39
 1.552094e-001 -3.064542e-001 -3.015924e-001 1.054588e-001 -6.324267e-002 -1.100280e-001 2.513253e-001 1.832101e-001 -2.259576e-001 -1.094264e-001 1.426978e-001 2.444705e-002 3.646311e-001 2.032465e-002 3.713283e-002 9.941622e-003 1.309035e-002 -2.963821e-004 -2.446043e-002 -4.477492e-002 1.259840e-002 1.822753e-002 -2.127077e-003 -2.222434e-002 2.732088e-003 -4.570379e-002 4.204060e-004 3.247801e-002 2.301356e-002 -7.480083e-003 -3.226035e-003 1.551457e-003 -2.857641e-002 -1.321952e-002 2.065757e-002 1.420275e-002 -2.065577e-002 -5.879520e-003 -3.174220e-002
<VARIANCE> 39
 1.340111e-002 2.456747e-002 3.779848e-002 5.439384e-002 5.900102e-002 5.143106e-002 7.551795e-002 8.410951e-002 7.000436e-002 5.867364e-002 5.178153e-002 5.054018e-002 3.028864e-002 8.440950e-004 2.597630e-003 4.725966e-003 4.087194e-003 6.977926e-003 4.545122e-003 7.834606e-003 7.742078e-003 5.543668e-003 6.963162e-003 5.006026e-003 4.545951e-003 1.834825e-003 2.031326e-004 4.466763e-004 5.952375e-004 6.961764e-004 7.503362e-004 8.711566e-004 1.030424e-003 1.128451e-003 1.058600e-003 1.019639e-003 9.277682e-004 7.893653e-004 4.535728e-004
<GCONST> -1.338122e+002
<MIXTURE> 7 8.709558e-002
<MEAN> 39
 2.095626e-001 -3.908339e-002 -4.872295e-002 -1.997687e-002 -3.505031e-001 -8.007358e-002 1.516466e-001 9.895705e-002 -1.473519e-001 1.501071e-001 -2.352879e-002 -1.515297e-001 1.452021e-001 2.164871e-002 9.074198e-002 4.463553e-002 7.580466e-002 1.471616e-002 -4.352869e-002 -7.099932e-002 -6.091136e-003 -3.473992e-002 -3.584417e-002 4.622311e-003 1.492570e-002 -1.156486e-001 -1.843623e-002 1.446435e-002 1.577491e-002 -5.314950e-003 2.739246e-002 1.171009e-002 -1.546480e-002 -8.682940e-003 1.930034e-002 -1.738632e-002 -7.030800e-003 1.627253e-002 -1.776849e-002
<VARIANCE> 39
 1.181469e-002 2.936653e-002 3.486532e-002 4.002559e-002 4.229567e-002 5.381799e-002 6.551252e-002 7.756774e-002 6.094848e-002 6.051920e-002 5.875206e-002 4.436095e-002 3.233190e-002 1.616529e-003 4.470064e-003 3.944381e-003 6.483344e-003 5.249066e-003 6.948269e-003 7.290986e-003 8.973348e-003 7.400839e-003 6.565416e-003 6.986385e-003 5.536555e-003 4.363799e-003 2.668437e-004 4.548779e-004 6.572312e-004 8.459861e-004 8.414686e-004 1.016106e-003 1.075863e-003 1.259282e-003 1.015894e-003 1.073395e-003 9.899811e-004 7.871168e-004 4.916361e-004
<GCONST> -1.302295e+002
<MIXTURE> 8 7.321949e-002
<MEAN> 39
 7.448535e-002 1.943097e-001 -5.149541e-002 -4.006353e-001 -1.744548e-002 -2.546514e-001 1.174123e-002 2.237061e-001 3.434289e-002 1.069283e-001 -8.554684e-002 -2.030699e-002 1.557436e-001 7.578800e-003 2.251879e-002 3.384510e-003 1.460350e-002 -5.263318e-003 -9.386295e-003 -9.653099e-003 -5.558517e-003 -3.712016e-003 9.996589e-003 -8.058963e-004 -6.330679e-003 -2.507183e-002 3.482248e-003 -2.527634e-003 5.912077e-003 2.667926e-002 -1.103194e-002 1.813546e-002 -1.045926e-002 -1.814940e-002 -1.473102e-003 -7.500412e-003 5.783475e-003 1.937412e-003 -1.623295e-002
<VARIANCE> 39
 1.935101e-002 4.625118e-002 5.563324e-002 6.715856e-002 7.570752e-002 7.508978e-002 1.045426e-001 8.295891e-002 1.059703e-001 9.675858e-002 1.077316e-001 7.517510e-002 4.019539e-002 8.763210e-004 2.543956e-003 2.610729e-003 3.428155e-003 4.611014e-003 5.136598e-003 5.278985e-003 5.391414e-003 4.656592e-003 4.874818e-003 5.163926e-003 4.125967e-003 1.882314e-003 1.924636e-004 4.407395e-004 6.137373e-004 6.231923e-004 8.684068e-004 8.180087e-004 1.102565e-003 9.987071e-004 1.138552e-003 1.232714e-003 1.215560e-003 8.990274e-004 3.779388e-004
<GCONST> -1.309590e+002
<MIXTURE> 9 8.452448e-002
<MEAN> 39
 1.634257e-001 2.355757e-001 7.810988e-002 -3.294508e-001 -2.784757e-001 3.831470e-002 -9.499867e-002 3.677642e-002 1.808155e-001 3.882431e-004 -2.648874e-001 -1.044066e-002 7.093412e-002 -1.108318e-002 6.440353e-002 5.951397e-002 1.108794e-001 3.190428e-002 -1.854421e-002 -2.001304e-002 -5.303704e-002 -4.931794e-002 -2.678655e-002 1.245527e-002 -1.435081e-002 -9.983992e-002 -2.481741e-002 -1.016493e-002 6.725498e-003 2.543280e-002 3.197842e-002 6.448545e-005 1.439155e-002 1.144300e-003 -1.329202e-002 -7.565705e-003 2.587304e-002 -1.078454e-003 -1.472090e-002
<VARIANCE> 39
 1.337396e-002 2.921077e-002 3.987726e-002 4.556292e-002 5.845771e-002 5.459189e-002 6.524427e-002 6.684007e-002 5.614343e-002 6.701241e-002 5.934669e-002 4.604538e-002 2.858728e-002 3.415661e-003 3.879089e-003 4.620336e-003 7.453861e-003 7.540577e-003 5.476336e-003 6.992092e-003 6.532358e-003 6.905052e-003 6.142765e-003 5.561992e-003 4.490513e-003 4.858229e-003 3.757340e-004 4.839165e-004 6.848648e-004 8.220822e-004 9.938950e-004 9.706500e-004 1.063912e-003 1.109150e-003 9.427538e-004 1.095348e-003 1.009593e-003 7.575960e-004 3.962484e-004
<GCONST> -1.294047e+002
<MIXTURE> 10 1.446421e-001
<MEAN> 39
 2.141607e-001 1.743508e-001 -6.566135e-002 -1.037156e-001 -2.174806e-001 -9.171202e-002 -1.442627e-001 4.096094e-002 -1.032310e-001 8.324229e-002 -8.951834e-002 1.074114e-002 3.233934e-002 -9.610639e-005 1.230253e-002 1.048546e-002 6.695004e-003 1.318289e-004 -2.950151e-003 -3.165424e-003 -4.690622e-003 -2.688634e-003 -1.057922e-003 -2.587590e-003 -1.870090e-003 -1.167954e-002 -2.975191e-003 2.332219e-003 7.405463e-003 6.042692e-003 1.822194e-003 -2.218536e-003 1.013505e-004 9.715024e-004 3.654796e-003 -4.366464e-003 1.229852e-003 -1.562155e-003 -9.658831e-003
<VARIANCE> 39
 1.014540e-002 4.311932e-002 4.395701e-002 4.809858e-002 6.452568e-002 6.173546e-002 8.182290e-002 8.285287e-002 7.404811e-002 6.446024e-002 5.891940e-002 4.647695e-002 3.129129e-002 3.266404e-004 1.304423e-003 1.427768e-003 2.047787e-003 2.418328e-003 2.642830e-003 3.169863e-003 3.532446e-003 3.540690e-003 3.496038e-003 3.262199e-003 2.554496e-003 7.079323e-004 8.167949e-005 3.036454e-004 3.517834e-004 4.190980e-004 5.479484e-004 5.442126e-004 6.524536e-004 7.306078e-004 6.434203e-004 6.301157e-004 6.236057e-004 5.080784e-004 2.044944e-004
<GCONST> -1.494673e+002
<MIXTURE> 11 7.847948e-002
<MEAN> 39
 -1.628252e-002 -4.117956e-001 -8.588326e-002 3.432395e-002 1.021482e-002 1.799280e-001 1.167912e-001 -3.009488e-001 -4.909778e-002 1.918327e-001 9.895050e-002 5.392639e-002 4.350317e-001 1.942971e-002 3.295343e-002 1.496005e-002 1.803619e-003 -3.314412e-002 -2.061228e-002 -2.401333e-003 2.734119e-002 -1.906160e-003 6.448788e-003 -2.133784e-002 -2.073242e-002 -4.236088e-002 1.310542e-002 4.134132e-002 4.876898e-003 -8.598152e-003 -1.212427e-002 -2.431051e-002 -1.385938e-002 4.201950e-002 1.884583e-003 -2.014533e-002 -1.082051e-002 -1.687269e-003 -3.590665e-002
<VARIANCE> 39
 1.937905e-002 3.503742e-002 3.904297e-002 9.406191e-002 7.722981e-002 7.329175e-002 1.013593e-001 9.274352e-002 1.251093e-001 1.001549e-001 9.443409e-002 7.227158e-002 3.894544e-002 1.780969e-003 5.569816e-003 3.581593e-003 1.440069e-002 6.704179e-003 9.556824e-003 8.067347e-003 1.032212e-002 1.386461e-002 9.430208e-003 1.018583e-002 7.620486e-003 3.240857e-003 3.071609e-004 6.116492e-004 6.699472e-004 1.222434e-003 1.282232e-003 1.250466e-003 1.982110e-003 1.532093e-003 1.933089e-003 1.706335e-003 1.828432e-003 1.358158e-003 5.878069e-004
<GCONST> -1.167763e+002
<MIXTURE> 12 3.300322e-002
<MEAN> 39
 -3.684674e-002 1.629136e-001 1.513699e-001 2.594366e-001 1.335117e-001 2.772477e-001 1.128651e-001 1.249025e-001 1.194160e-002 -3.049857e-002 -9.494842e-002 -1.446320e-001 -5.167314e-001 -2.171693e-002 -2.265783e-002 -2.107286e-003 9.008993e-003 3.764407e-003 -9.391413e-003 -9.978117e-004 9.536318e-003 1.696968e-002 -9.690535e-004 7.108362e-003 5.743259e-003 -1.859262e-002 2.406946e-004 -2.526038e-002 -1.643500e-002 -3.930746e-002 -1.608518e-002 -3.061774e-002 -1.227083e-002 -1.284844e-002 7.397934e-003 2.908478e-003 9.503732e-003 1.784684e-002 5.532604e-002
<VARIANCE> 39
 3.726674e-002 7.117830e-002 5.695991e-002 1.061423e-001 7.314658e-002 1.040731e-001 9.007190e-002 9.765834e-002 9.114295e-002 8.141940e-002 7.267618e-002 5.812988e-002 7.292982e-002 5.498177e-003 8.770701e-003 6.369699e-003 1.162260e-002 9.948482e-003 1.102605e-002 1.038621e-002 1.198292e-002 1.201785e-002 8.325519e-003 6.776860e-003 6.384043e-003 1.437172e-002 6.655690e-004 1.290290e-003 1.078189e-003 1.745934e-003 1.468169e-003 1.763002e-003 1.679462e-003 1.768134e-003 1.913457e-003 1.606732e-003 1.353616e-003 1.080460e-003 1.325276e-003
<GCONST> -1.085200e+002
<TRANSP> 5
 0.000000e+000 1.000000e+000 0.000000e+000 0.000000e+000 0.000000e+000
 0.000000e+000 3.080143e-001 6.919857e-001 0.000000e+000 0.000000e+000
 0.000000e+000 0.000000e+000 1.779047e-001 8.220953e-001 0.000000e+000
 0.000000e+000 0.000000e+000 0.000000e+000 2.229173e-001 7.770827e-001
 0.000000e+000 0.000000e+000 0.000000e+000 0.000000e+000 0.000000e+000
<ENDHMM>
~h "@"
<BEGINHMM>
<NUMSTATES> 5
<STATE> 2
<NUMMIXES> 12
<MIXTURE> 1 8.903634e-002
<MEAN> 39
 -3.867079e-002 -3.164153e-002 -1.314951e-002 -5.933913e-001 1.284742e-001 2.386959e-001 -6.436072e-002 3.662152e-002 2.059896e-001 -2.382916e-001 -5.204741e-002 2.104526e-001 4.002389e-001 -2.159345e-002 8.671995e-003 -1.684897e-002 -4.106912e-002 7.742251e-002 -1.325220e-002 2.519987e-003 3.304111e-002 -1.716339e-002 -2.912143e-002 4.331712e-002 -1.216795e-002 2.510070e-002 9.521175e-003 1.033980e-002 3.309290e-003 3.234995e-002 -2.215174e-002 -2.684503e-002 7.695185e-003 3.673903e-004 -2.256055e-002 2.796766e-002 -2.158392e-003 -2.372013e-002 -2.339053e-002
<VARIANCE> 39
 1.386546e-002 3.242932e-002 2.179719e-002 4.919754e-002 4.523327e-002 4.691313e-002 5.552909e-002 5.794386e-002 6.416624e-002 4.427845e-002 5.421050e-002 2.953020e-002 3.251994e-002 5.861589e-004 2.188988e-003 1.596178e-003 3.172454e-003 4.128130e-003 3.905851e-003 4.316622e-003 5.669001e-003 4.516153e-003 4.183862e-003 4.398925e-003 3.938046e-003 1.334116e-003 1.413592e-004 3.632033e-004 3.005516e-004 6.357034e-004 7.079744e-004 6.710889e-004 7.706436e-004 7.115562e-004 8.494363e-004 6.261012e-004 8.587300e-004 5.006223e-004 2.969528e-004
<GCONST> -1.448214e+002
<MIXTURE> 2 9.701078e-002
<MEAN> 39
 -3.145288e-002 9.174638e-002 -1.190230e-001 -6.047316e-001 -5.752064e-003 -2.877824e-002 2.560539e-001 4.755961e-001 2.445348e-001 -9.890147e-002 -1.949945e-001 -2.618400e-001 4.223089e-001 -1.357350e-002 -2.676165e-002 -1.668594e-002 -1.234241e-003 3.760587e-002 3.220427e-002 2.593579e-002 -8.788644e-003 -2.918686e-002 -9.857144e-003 -2.737016e-003 5.814588e-003 3.543207e-002 -6.755996e-004 -3.745145e-003 1.136591e-002 2.670577e-002 1.176848e-002 3.383043e-003 -2.275766e-002 -4.831379e-002 -2.381573e-002 3.634131e-003 2.466802e-002 3.264010e-002 -2.372896e-002
<VARIANCE> 39
 1.222647e-002 3.694760e-002 3.435063e-002 4.481499e-002 6.351093e-002 8.186088e-002 5.698001e-002 5.576367e-002 7.394279e-002 1.034665e-001 8.636425e-002 4.710878e-002 3.758353e-002 6.867668e-004 2.634769e-003 2.120830e-003 2.693316e-003 4.660062e-003 6.112660e-003 5.002460e-003 7.355909e-003 6.841279e-003 6.524157e-003 6.969514e-003 5.930741e-003 1.631883e-003 2.007047e-004 4.028073e-004 4.203565e-004 9.956583e-004 8.048214e-004 8.997874e-004 9.110107e-004 8.989805e-004 1.238336e-003 1.486125e-003 1.459126e-003 7.533962e-004 5.746409e-004
<GCONST> -1.332305e+002
<MIXTURE> 3 9.608010e-002
<MEAN> 39
 -6.764182e-003 1.869674e-001 8.470719e-002 -6.826363e-001 -1.072099e-001 3.837614e-003 -2.154923e-001 2.948818e-001 3.350389e-001 -7.551418e-002 -1.242846e-002 5.887836e-002 3.353741e-001 -1.319175e-002 -2.281989e-003 -1.866510e-002 -3.834593e-002 1.894866e-002 2.677088e-003 1.844162e-002 3.252666e-002 2.641251e-003 -1.496041e-002 1.426245e-002 -1.031078e-002 3.801520e-002 -1.090565e-003 -5.066385e-003 2.251763e-003 3.569541e-002 7.120776e-003 2.884723e-004 1.652572e-002 -2.678080e-002 -1.923941e-002 7.006631e-003 -6.063431e-003 -4.946550e-003 -2.275883e-002
<VARIANCE> 39
 1.286026e-002 2.809775e-002 2.307956e-002 3.495797e-002 4.409727e-002 5.286115e-002 4.539859e-002 4.452273e-002 5.531232e-002 5.292321e-002 6.073951e-002 3.493875e-002 2.988594e-002 6.581261e-004 1.846122e-003 1.845704e-003 2.592755e-003 4.033935e-003 4.346739e-003 4.168597e-003 4.353532e-003 4.156925e-003 3.958837e-003 4.432755e-003 3.141856e-003 1.243484e-003 2.410678e-004 3.397920e-004 3.941471e-004 6.121416e-004 8.186934e-004 7.247620e-004 6.953300e-004 6.396116e-004 7.943563e-004 7.569515e-004 7.453378e-004 4.937047e-004 4.003542e-004
<GCONST> -1.452418e+002
<MIXTURE> 4 1.043672e-001
<MEAN> 39
 -4.631365e-002 8.515743e-002 -1.212049e-001 -6.112592e-001 2.860480e-001 -5.883512e-002 7.899527e-002 1.970111e-001 2.726830e-004 -1.395286e-001 1.043272e-001 -8.308628e-002 3.941263e-001 -6.672665e-003 2.367296e-002 -2.454713e-002 -6.606592e-003 3.036169e-002 -5.184181e-002 3.922552e-002 5.282157e-003 -2.929366e-002 3.903105e-002 -1.299344e-002 -2.655551e-002 7.586391e-004 8.604744e-003 2.642521e-003 8.561417e-003 1.838009e-002 -2.856543e-002 1.334887e-003 -8.307306e-003 -9.095866e-003 6.768249e-003 8.960553e-003 -1.828844e-002 1.419869e-002 -1.542641e-002
<VARIANCE> 39
 1.206059e-002 3.162154e-002 1.877262e-002 4.452319e-002 5.125679e-002 5.123977e-002 5.377183e-002 6.708417e-002 5.601139e-002 5.646548e-002 4.641008e-002 3.398129e-002 3.177442e-002 5.583901e-004 1.214398e-003 1.234441e-003 1.612249e-003 3.101901e-003 3.262675e-003 3.295120e-003 3.613765e-003 3.288249e-003 3.561529e-003 4.014989e-003 2.869739e-003 7.789374e-004 9.836150e-005 2.367190e-004 2.317696e-004 3.994321e-004 6.504448e-004 6.034946e-004 5.993479e-004 7.520848e-004 6.074141e-004 7.517188e-004 6.720324e-004 4.574555e-004 2.337135e-004
<GCONST> -1.516501e+002
<MIXTURE> 5 7.982565e-002
<MEAN> 39
 5.027356e-003 -2.202999e-002 6.147052e-002 -5.179012e-001 -2.261982e-001 2.243546e-001 3.356696e-002 -8.347187e-003 2.904189e-001 8.856868e-002 -3.097123e-001 3.114433e-002 3.774391e-001 -2.339655e-002 5.209459e-003 4.278227e-004 -7.422828e-002 4.355559e-002 4.542819e-002 -2.740937e-002 2.478169e-002 6.056974e-002 -5.569226e-002 -2.027641e-002 4.340710e-002 3.806184e-002 4.161837e-003 1.015235e-002 -3.446043e-004 2.666421e-002 8.255718e-003 -2.742820e-002 -6.207085e-003 8.398928e-003 -2.533803e-002 -8.030424e-003 3.272996e-002 -5.821838e-003 -2.069927e-002
<VARIANCE> 39
 1.170829e-002 2.474980e-002 2.581030e-002 3.567548e-002 4.274428e-002 4.148059e-002 5.336665e-002 5.048190e-002 5.065883e-002 4.876108e-002 4.667593e-002 4.578047e-002 3.233361e-002 6.314861e-004 2.171725e-003 1.703292e-003 3.644024e-003 3.894157e-003 4.307593e-003 4.741379e-003 4.787080e-003 5.277963e-003 3.650501e-003 6.077919e-003 3.691992e-003 1.625017e-003 1.369559e-004 2.973005e-004 3.336015e-004 5.644395e-004 6.171755e-004 7.330353e-004 6.840174e-004 8.626339e-004 7.670496e-004 6.664966e-004 7.044663e-004 7.473258e-004 2.781329e-004
<GCONST> -1.450417e+002
<MIXTURE> 6 5.503098e-002
<MEAN> 39
 6.001658e-002 -2.849572e-001 -1.455117e-001 -1.582060e-001 -1.147337e-001 1.386928e-001 2.972502e-001 -9.374166e-002 -9.274127e-002 1.022255e-001 -5.629976e-002 -3.053247e-002 4.518740e-001 1.776304e-003 -2.516798e-002 -7.176436e-003 2.047417e-002 2.084919e-002 1.546306e-002 -1.773572e-003 -8.989160e-003 -3.082541e-002 -7.706005e-003 1.982820e-002 3.777141e-003 2.375048e-002 -2.379971e-003 3.128894e-002 2.056239e-002 1.476503e-002 6.832814e-003 -1.883141e-002 -3.335953e-002 9.099251e-003 6.958691e-003 -1.398512e-002 6.171677e-003 3.110302e-003 -4.098237e-002
<VARIANCE> 39
 1.524697e-002 3.262916e-002 3.646636e-002 6.173764e-002 5.904878e-002 5.401932e-002 6.739535e-002 7.812177e-002 7.389049e-002 4.924299e-002 6.905906e-002 4.169114e-002 3.243589e-002 1.400480e-003 3.155481e-003 2.807304e-003 6.242623e-003 5.438922e-003 6.186123e-003 7.501148e-003 6.206035e-003 8.114053e-003 6.046582e-003 6.791661e-003 4.815384e-003 3.391926e-003 3.855820e-004 6.227546e-004 7.518606e-004 1.053651e-003 1.056180e-003 9.559393e-004 1.326487e-003 1.464831e-003 1.512975e-003 9.942652e-004 1.232648e-003 7.371891e-004 6.787340e-004
<GCONST> -1.282685e+002
<MIXTURE> 7 8.658396e-002
<MEAN> 39
 9.728679e-002 1.960790e-001 -6.239581e-002 -5.977918e-001 -1.310367e-001 -7.647781e-002 -1.914112e-002 1.940603e-001 1.823131e-001 -8.829511e-003 -1.238831e-001 -7.652824e-003 2.973240e-001 3.223033e-002 8.526063e-003 -4.963892e-002 -9.922972e-002 -2.572133e-002 5.695446e-003 1.698624e-002 5.822873e-002 3.308849e-003 1.332587e-002 -3.773170e-002 -2.244594e-002 1.027415e-001 -3.408718e-002 -2.053425e-002 1.286168e-002 5.146823e-002 3.800040e-002 1.138781e-002 1.657082e-002 -1.720263e-002 -8.540027e-003 -7.277009e-003 1.696416e-002 -4.208008e-003 -3.329145e-002
<VARIANCE> 39
 1.113680e-002 3.941648e-002 3.388240e-002 3.859418e-002 4.638521e-002 7.440181e-002 5.194814e-002 5.352777e-002 5.149245e-002 7.260339e-002 5.918219e-002 5.398269e-002 2.784518e-002 2.292229e-003 3.499659e-003 3.823241e-003 6.049012e-003 6.857648e-003 6.072191e-003 5.813844e-003 6.902502e-003 5.929844e-003 7.277846e-003 7.318112e-003 4.989858e-003 3.079821e-003 2.538983e-004 5.964589e-004 6.629353e-004 9.208692e-004 7.971983e-004 1.084315e-003 8.842782e-004 9.899768e-004 1.079696e-003 1.134931e-003 9.874313e-004 9.502998e-004 5.362115e-004
<GCONST> -1.307771e+002
<MIXTURE> 8 7.932101e-002
<MEAN> 39
 -8.044186e-002 -1.372764e-001 -8.827637e-002 -5.318543e-001 1.651981e-001 2.057106e-001 1.407760e-002 -5.446534e-002 7.415611e-002 -1.146736e-001 1.591233e-001 2.330281e-001 4.475054e-001 -2.242207e-002 -4.769807e-002 -1.183432e-003 4.867978e-003 5.666884e-002 4.207631e-002 -1.374447e-002 -5.870507e-002 -4.099675e-002 -5.985028e-004 2.387682e-002 3.252287e-002 5.120927e-002 5.961449e-003 1.507261e-002 1.178031e-002 4.470810e-002 -1.314283e-002 -2.068825e-002 -6.190679e-003 4.775325e-003 -4.020102e-003 1.325873e-002 -1.595672e-002 -2.384718e-002 -3.925854e-002
<VARIANCE> 39
 1.406553e-002 3.911776e-002 3.257706e-002 5.946896e-002 8.338519e-002 8.208419e-002 6.339762e-002 9.034935e-002 9.669038e-002 1.299377e-001 1.254221e-001 6.408420e-002 3.207174e-002 1.882628e-003 3.530127e-003 2.727167e-003 6.599248e-003 7.449085e-003 5.834697e-003 8.810714e-003 7.453763e-003 7.559552e-003 1.144456e-002 1.039129e-002 8.285518e-003 3.587042e-003 3.848047e-004 6.731508e-004 5.582256e-004 1.323045e-003 1.545095e-003 1.242751e-003 1.240744e-003 1.638226e-003 1.929997e-003 2.126411e-003 2.081723e-003 1.356639e-003 8.484065e-004
<GCONST> -1.195355e+002
<MIXTURE> 9 1.098270e-001
<MEAN> 39
 -1.955002e-002 -1.047624e-001 -8.989228e-002 -4.243976e-001 1.644767e-001 1.111359e-001 -1.633147e-002 4.461063e-002 3.932067e-002 -4.856109e-002 6.724941e-002 5.781825e-002 3.907495e-001 -1.862427e-003 2.367017e-003 -2.376867e-003 -7.183203e-003 1.064234e-002 -3.362305e-003 5.082315e-003 6.458167e-003 -4.506670e-003 4.061367e-003 2.925069e-003 -4.390107e-003 -1.631624e-003 1.399162e-003 2.008145e-003 6.950198e-004 1.073079e-003 -5.882370e-003 -1.708483e-003 -4.063148e-004 -3.616702e-005 2.328571e-003 9.839862e-004 -2.219951e-003 7.660709e-004 -3.113684e-003
<VARIANCE> 39
 1.671006e-002 2.242567e-002 1.824544e-002 7.025315e-002 7.450979e-002 4.576319e-002 6.113547e-002 4.628425e-002 6.221446e-002 4.830030e-002 5.627774e-002 3.815028e-002 3.918309e-002 2.247308e-004 6.265553e-004 6.197041e-004 9.372674e-004 9.682135e-004 1.299398e-003 1.449272e-003 1.419490e-003 1.405548e-003 1.461189e-003 1.259837e-003 1.291297e-003 1.990544e-004 4.550790e-005 1.077801e-004 1.089483e-004 1.616775e-004 1.909469e-004 2.248724e-004 2.498093e-004 2.361401e-004 2.427871e-004 2.478018e-004 2.141697e-004 2.059880e-004 3.718991e-005
<GCONST> -1.757315e+002
<MIXTURE> 10 8.645614e-002
<MEAN> 39
 1.027768e-001 3.070020e-001 -1.929874e-001 -3.814091e-001 1.418661e-002 -2.238778e-001 8.851714e-002 3.249932e-002 -1.334915e-002 5.100108e-002 -1.376829e-001 -5.685479e-003 1.616372e-001 -5.207984e-003 -8.863377e-003 -1.774372e-002 -1.594781e-002 6.308747e-003 2.725109e-003 1.730911e-002 7.190683e-004 7.560828e-003 3.750736e-003 -7.884391e-003 2.156046e-003 2.369067e-002 -9.776262e-003 -1.443121e-002 1.662072e-002 5.532427e-003 5.058909e-003 1.125103e-002 -1.323456e-003 4.070129e-003 3.561653e-003 -9.744211e-003 8.610416e-003 -2.589777e-003 -1.259131e-003
<VARIANCE> 39
 1.533944e-002 5.360867e-002 4.595855e-002 6.178473e-002 8.915933e-002 8.025973e-002 8.363427e-002 9.497007e-002 7.210243e-002 5.928586e-002 6.712486e-002 4.518716e-002 3.540796e-002 9.919873e-004 1.981227e-003 2.518737e-003 3.243102e-003 3.741162e-003 3.823658e-003 4.299650e-003 4.395793e-003 3.899002e-003 3.550107e-003 3.365320e-003 3.446772e-003 1.949681e-003 2.154551e-004 3.634850e-004 5.253794e-004 6.505409e-004 9.304301e-004 7.727316e-004 8.934452e-004 8.988238e-004 7.693963e-004 6.719265e-004 8.309705e-004 6.942529e-004 3.782860e-004
<GCONST> -1.374910e+002
<MIXTURE> 11 7.037285e-002
<MEAN> 39
 -4.851842e-002 2.506217e-001 -1.720578e-001 -6.855920e-001 2.347411e-001 -2.840841e-001 2.522626e-001 2.747751e-001 6.991670e-002 -5.419652e-003 -3.611520e-002 -1.330069e-001 3.057658e-001 -1.901321e-002 2.277005e-002 -4.961748e-002 -5.384557e-002 3.946283e-002 -5.456653e-002 6.937583e-002 1.120784e-002 7.736347e-003 1.543799e-002 -2.621035e-002 -2.388816e-002 6.102080e-002 7.317475e-003 -7.604164e-003 1.514233e-002 5.186569e-002 -2.516718e-002 2.318373e-002 -2.219010e-002 -1.820740e-002 -7.431074e-003 -2.352599e-003 -3.351888e-003 1.121418e-002 -3.078489e-002
<VARIANCE> 39
 1.061469e-002 2.964030e-002 3.012731e-002 3.243783e-002 3.756764e-002 6.599395e-002 6.650991e-002 7.079940e-002 5.874510e-002 6.767550e-002 4.729385e-002 4.859800e-002 4.469863e-002 1.839090e-003 3.410497e-003 3.411185e-003 6.600204e-003 7.385766e-003 7.241213e-003 7.133029e-003 7.393726e-003 6.294333e-003 7.345801e-003 5.995304e-003 5.661548e-003 6.248557e-003 3.815501e-004 4.660917e-004 5.748780e-004 1.042645e-003 1.078578e-003 1.030553e-003 1.208932e-003 1.189668e-003 1.148851e-003 1.414406e-003 9.190048e-004 8.649352e-004 8.326482e-004
<GCONST> -1.285994e+002
<MIXTURE> 12 4.608096e-002
<MEAN> 39
 -5.289321e-002 6.595409e-002 3.087240e-002 -1.232204e-001 1.018960e-001 5.217667e-002 5.177864e-002 -2.725727e-004 3.210509e-003 -7.692993e-002 -3.129136e-002 1.598435e-002 -8.211738e-002 1.861187e-002 7.839143e-003 -2.671915e-002 -5.953635e-002 -1.332245e-002 -2.381971e-002 8.988423e-003 2.673464e-002 8.052136e-003 5.384157e-003 -6.738870e-003 -3.455533e-003 5.474493e-002 5.244896e-003 1.709940e-003 -3.880057e-003 3.390080e-003 -8.440065e-003 -4.819150e-003 -3.854714e-004 8.618595e-003 7.369768e-004 6.244812e-003 3.955999e-004 -5.101164e-003 6.823818e-003
<VARIANCE> 39
 4.280346e-002 7.094417e-002 8.491239e-002 1.207413e-001 1.118062e-001 1.206463e-001 1.143330e-001 1.079243e-001 1.080212e-001 7.735657e-002 6.463952e-002 5.402023e-002 1.227116e-001 5.476087e-003 6.795170e-003 5.755564e-003 1.681935e-002 1.022861e-002 1.212566e-002 1.380763e-002 9.379246e-003 9.791872e-003 8.495205e-003 6.816256e-003 5.932134e-003 1.433693e-002 6.040087e-004 8.530885e-004 1.181024e-003 2.202330e-003 1.631704e-003 1.874212e-003 1.857088e-003 1.751039e-003 1.754933e-003 1.463329e-003 1.194060e-003 1.052405e-003 1.943787e-003
<GCONST> -1.064593e+002
<STATE> 3
<NUMMIXES> 12
<MIXTURE> 1 4.647761e-002
<MEAN> 39
 -7.971535e-002 -9.595294e-002 -6.846664e-002 -6.086494e-001 3.018820e-001 3.131206e-001 5.329958e-002 1.023173e-001 4.433206e-002 -3.209009e-001 3.955966e-002 1.732635e-001 4.669746e-001 -7.151661e-003 -7.940888e-002 1.746546e-002 7.267923e-002 7.571185e-003 8.196758e-002 -3.485963e-002 -1.241963e-001 -5.526676e-003 2.361625e-002 -3.711566e-003 7.524415e-002 2.174885e-002 8.408451e-003 7.665783e-004 1.154663e-003 3.071971e-002 -2.563532e-002 -2.275856e-002 1.821055e-003 -1.254682e-002 3.981862e-003 4.414666e-002 -1.091786e-002 -2.061749e-002 -1.446393e-002
<VARIANCE> 39
 1.271666e-002 2.222468e-002 2.252576e-002 3.452501e-002 4.789559e-002 4.339955e-002 3.961783e-002 6.421161e-002 4.524595e-002 3.859560e-002 5.381417e-002 3.814854e-002 2.366859e-002 6.544502e-004 1.824415e-003 1.745240e-003 2.448876e-003 3.670029e-003 4.106120e-003 5.040227e-003 5.228035e-003 6.249902e-003 6.954784e-003 4.967888e-003 3.462861e-003 7.612784e-004 1.471298e-004 2.628525e-004 3.389442e-004 5.388457e-004 6.757275e-004 7.454285e-004 8.953241e-004 9.065290e-004 9.338987e-004 7.554353e-004 1.070486e-003 7.330690e-004 2.192221e-004
<GCONST> -1.456854e+002
<MIXTURE> 2 1.000558e-001
<MEAN> 39
 -1.029763e-002 3.593314e-001 -2.022912e-001 -6.098311e-001 1.026261e-001 -4.230465e-001 4.032757e-001 2.513660e-001 1.433343e-001 3.969502e-002 -2.677573e-001 -1.700582e-001 3.374662e-001 -2.231886e-003 -2.133557e-003 1.147191e-003 -3.838792e-003 1.071148e-002 4.425133e-003 -6.280147e-004 -1.119510e-002 -1.266599e-002 -1.056605e-002 -3.739185e-003 9.250155e-003 4.251286e-003 4.443058e-003 -8.199571e-003 1.044904e-002 1.177583e-002 -4.050502e-003 2.044831e-002 -2.891757e-002 -8.098039e-003 -9.301854e-003 -5.828818e-003 1.734088e-002 1.123959e-002 -1.218834e-002
<VARIANCE> 39
 1.201288e-002 2.665887e-002 2.439346e-002 3.317213e-002 3.754686e-002 3.831920e-002 5.021134e-002 7.060988e-002 4.576198e-002 6.005067e-002 5.678060e-002 3.355557e-002 2.731664e-002 4.263204e-004 1.625104e-003 1.390019e-003 1.732930e-003 3.129508e-003 3.789014e-003 3.601229e-003 5.094337e-003 4.014832e-003 4.026562e-003 3.834695e-003 3.201494e-003 9.275164e-004 1.160337e-004 2.632663e-004 2.792064e-004 4.523518e-004 5.373139e-004 5.709657e-004 5.253358e-004 7.498508e-004 6.263414e-004 7.554136e-004 6.606883e-004 4.965486e-004 2.422657e-004
<GCONST> -1.508781e+002
<MIXTURE> 3 1.466790e-001
<MEAN> 39
 -4.487842e-002 1.557455e-001 6.486510e-002 -6.883104e-001 -2.362585e-002 3.227564e-002 -1.174810e-001 2.437168e-001 3.422346e-001 -1.240748e-001 -3.762541e-002 6.143251e-002 3.745435e-001 3.384850e-004 -1.722785e-003 -9.730662e-004 -1.401488e-003 2.653664e-003 3.663164e-003 -2.189626e-003 6.075114e-003 -3.459506e-003 -8.441418e-004 5.529061e-003 -4.593879e-003 -4.928914e-004 3.908951e-003 -3.235606e-003 6.603752e-004 1.052748e-002 -7.752652e-003 2.713694e-003 5.875801e-005 -9.116584e-003 -5.496562e-003 8.576897e-003 -4.981670e-003 -1.188359e-003 -5.680298e-003
<VARIANCE> 39
 1.291310e-002 3.016182e-002 2.377336e-002 3.742273e-002 5.125732e-002 4.863505e-002 5.756601e-002 5.676022e-002 6.792548e-002 4.043345e-002 5.200204e-002 3.379221e-002 2.891709e-002 2.974774e-004 9.629531e-004 8.842993e-004 1.108866e-003 1.846323e-003 2.111048e-003 1.907592e-003 2.210813e-003 2.130702e-003 2.235438e-003 2.310578e-003 1.746228e-003 3.877846e-004 5.101599e-005 1.499119e-004 1.756747e-004 2.446094e-004 3.617046e-004 3.464590e-004 3.881122e-004 4.372537e-004 3.931484e-004 4.023946e-004 3.713346e-004 3.328588e-004 6.549711e-005
<GCONST> -1.652958e+002
<MIXTURE> 4 6.922984e-002
<MEAN> 39
 -3.841068e-002 1.230914e-001 3.967205e-002 -7.057255e-001 -6.539038e-002 6.200340e-002 -1.247621e-001 2.435046e-001 3.514969e-001 -5.467747e-002 -7.638562e-002 4.216738e-002 4.148800e-001 1.714410e-002 -1.692405e-003 1.529870e-002 1.819243e-002 -3.298382e-002 1.685416e-002 -1.472894e-002 -2.171242e-002 -1.507245e-002 2.143991e-002 -1.526826e-002 -4.698034e-003 -2.145568e-002 1.441842e-002 8.011522e-003 7.089147e-003 4.383507e-002 -1.489205e-002 -9.479386e-003 -1.130898e-003 -1.908296e-002 -2.745249e-002 7.193717e-003 1.747565e-003 -6.013123e-003 -3.269080e-002
<VARIANCE> 39
 1.320663e-002 2.985698e-002 2.905479e-002 3.184497e-002 5.720219e-002 4.764199e-002 5.931355e-002 6.228637e-002 5.915475e-002 5.779411e-002 6.268243e-002 3.812828e-002 2.665757e-002 5.339009e-004 2.051770e-003 1.567403e-003 2.562724e-003 3.360257e-003 4.324858e-003 4.376311e-003 4.220298e-003 4.021044e-003 4.389832e-003 4.886196e-003 4.099707e-003 9.417597e-004 1.451143e-004 3.765079e-004 3.633394e-004 6.312106e-004 8.968238e-004 7.180521e-004 7.671129e-004 7.431513e-004 7.435606e-004 8.454524e-004 8.910279e-004 5.581714e-004 3.695510e-004
<GCONST> -1.442515e+002
<MIXTURE> 5 6.315628e-002
<MEAN> 39
 -1.901068e-002 6.645988e-002 -1.888389e-001 -6.303626e-001 3.523762e-001 -1.279768e-002 1.542130e-001 2.180571e-001 -3.882757e-002 -1.116121e-001 2.729238e-002 -9.775633e-002 4.141067e-001 -9.376668e-003 -5.988790e-002 1.656759e-002 1.774021e-002 3.149908e-002 7.405946e-002 -4.980272e-002 -5.033350e-002 -1.350952e-002 -2.757592e-002 4.777906e-002 5.116931e-002 2.137068e-002 6.625367e-004 -9.687829e-003 1.083880e-002 1.462516e-002 -1.636676e-002 1.151627e-002 -1.300522e-002 -1.583706e-002 1.386843e-002 1.188275e-003 -2.724959e-003 1.531029e-002 -2.843549e-003
<VARIANCE> 39
 1.433839e-002 2.565240e-002 2.403718e-002 3.755000e-002 4.636363e-002 4.598245e-002 4.665368e-002 6.850099e-002 3.703569e-002 3.836095e-002 4.535368e-002 2.573895e-002 2.644754e-002 3.759392e-004 1.214398e-003 1.203042e-003 1.544745e-003 2.504852e-003 3.392237e-003 3.783927e-003 4.062566e-003 3.598935e-003 4.039026e-003 4.130334e-003 3.166960e-003 5.089585e-004 9.422326e-005 1.978609e-004 2.440535e-004 3.374276e-004 5.049941e-004 4.488243e-004 5.504710e-004 6.827999e-004 5.005199e-004 5.308060e-004 6.126400e-004 4.014897e-004 9.900005e-005
<GCONST> -1.563837e+002
<MIXTURE> 6 6.326351e-002
<MEAN> 39
 -5.577666e-002 -2.115170e-001 -7.907280e-002 -4.812343e-001 3.219212e-001 3.399596e-001 -9.434150e-002 -8.069552e-002 8.759994e-002 -1.563622e-001 9.199978e-002 1.917263e-001 4.797178e-001 -4.416554e-003 -3.940238e-002 9.428866e-003 3.822820e-002 -3.756381e-006 3.117019e-002 -1.622568e-002 -4.989678e-002 9.441063e-003 1.743301e-002 -1.977378e-003 2.865821e-002 1.031158e-002 4.266501e-003 5.420184e-003 1.270033e-003 4.333172e-003 -1.766391e-002 -1.010507e-002 9.391772e-003 3.006072e-003 1.442767e-003 1.136439e-002 -1.368126e-002 -7.784660e-003 -6.366374e-003
<VARIANCE> 39
 1.355824e-002 1.773230e-002 1.681040e-002 3.589284e-002 4.788316e-002 4.271297e-002 4.196945e-002 4.490950e-002 4.828908e-002 4.292684e-002 6.002104e-002 4.024805e-002 2.079708e-002 3.526179e-004 1.058189e-003 8.773247e-004 1.469369e-003 1.901852e-003 1.964047e-003 2.632579e-003 3.193208e-003 3.715420e-003 3.032155e-003 2.560556e-003 2.769289e-003 3.595434e-004 7.288518e-005 1.577588e-004 1.485298e-004 2.225922e-004 2.916841e-004 3.419399e-004 3.899563e-004 4.145263e-004 4.906965e-004 4.770430e-004 4.542019e-004 4.260894e-004 6.177867e-005
<GCONST> -1.640227e+002
<MIXTURE> 7 1.230532e-001
<MEAN> 39
 -3.983244e-002 2.568882e-001 -1.892320e-001 -5.797879e-001 2.128035e-001 -3.011062e-001 2.279824e-001 1.654095e-001 3.884150e-003 -9.715146e-003 -8.360370e-002 -5.381492e-002 3.264964e-001 1.757921e-004 4.275680e-004 -2.804136e-003 3.086634e-004 7.093699e-004 -2.251939e-003 1.954769e-003 -4.818453e-005 -2.670314e-004 3.116012e-003 -3.859375e-003 7.750557e-003 -2.488955e-003 9.118915e-004 -2.759652e-003 3.670661e-003 -1.192560e-003 -2.427594e-003 5.054978e-003 -5.503100e-003 1.629256e-003 1.804186e-003 -2.733568e-003 2.576264e-003 8.637829e-004 -8.566826e-004
<VARIANCE> 39
 1.230993e-002 2.766544e-002 1.756361e-002 4.210076e-002 4.595191e-002 4.452691e-002 6.574459e-002 5.092578e-002 4.754572e-002 5.136754e-002 5.109619e-002 3.319774e-002 2.712342e-002 1.470612e-004 5.346667e-004 5.421749e-004 7.153866e-004 9.597078e-004 1.305149e-003 1.375231e-003 1.452354e-003 1.460811e-003 1.306859e-003 1.392324e-003 1.055359e-003 1.536025e-004 2.430641e-005 7.938020e-005 9.745620e-005 1.299279e-004 1.513448e-004 2.241219e-004 2.370541e-004 2.094468e-004 2.364016e-004 2.397101e-004 2.335499e-004 1.857479e-004 2.093340e-005
<GCONST> -1.813075e+002
<MIXTURE> 8 6.201041e-002
<MEAN> 39
 -5.626549e-003 -1.443189e-001 -2.141811e-002 -4.809176e-001 -1.527483e-001 3.669147e-001 2.008087e-001 -8.321591e-002 1.295905e-001 1.882103e-002 -3.147886e-001 3.797847e-002 4.753357e-001 4.414026e-003 -5.128484e-002 -2.229596e-002 6.326327e-002 1.360569e-003 1.507904e-002 5.298453e-002 -4.810598e-002 -8.728909e-002 2.650359e-002 2.866459e-002 -2.313008e-002 1.146244e-002 5.268825e-003 5.682841e-003 1.203942e-003 1.981924e-002 8.644506e-005 -2.968607e-002 -8.391924e-003 1.356761e-002 -1.210695e-002 3.754420e-003 3.123559e-002 -9.600027e-003 -1.473173e-002
<VARIANCE> 39
 1.488719e-002 2.463947e-002 2.545867e-002 3.882353e-002 4.689546e-002 3.928786e-002 5.261177e-002 5.888702e-002 6.142472e-002 4.476756e-002 3.737535e-002 5.319126e-002 2.856284e-002 4.796473e-004 1.437283e-003 1.485089e-003 2.563222e-003 2.784596e-003 3.125787e-003 3.973359e-003 5.446739e-003 4.833988e-003 4.744729e-003 5.252875e-003 4.030785e-003 7.765897e-004 1.204606e-004 2.742751e-004 2.851690e-004 4.218924e-004 5.287981e-004 6.199253e-004 6.375202e-004 8.363923e-004 7.331125e-004 6.279765e-004 7.178329e-004 6.747440e-004 2.356922e-004
<GCONST> -1.485826e+002
<MIXTURE> 9 5.989388e-002
<MEAN> 39
 -7.124881e-002 -2.732664e-001 -1.292069e-001 -2.474982e-001 3.108598e-001 2.340164e-001 -2.878361e-002 -2.047686e-001 -9.970550e-002 -5.782619e-002 2.197817e-001 1.511812e-001 5.105572e-001 -8.388686e-003 -3.267882e-002 2.097759e-002 3.527802e-002 1.612068e-002 8.579716e-003 -4.852681e-002 -2.395874e-002 1.456117e-002 8.108310e-003 1.162605e-002 9.724386e-003 1.015698e-002 1.006672e-002 1.861988e-002 7.124736e-003 2.647969e-003 -3.305099e-002 -2.032976e-002 7.596836e-003 2.363157e-002 1.741905e-002 2.785490e-003 -2.787612e-002 -1.210917e-002 -2.317118e-002
<VARIANCE> 39
 1.869369e-002 4.348912e-002 3.754125e-002 7.802361e-002 8.099230e-002 6.934978e-002 9.794055e-002 7.749096e-002 1.053962e-001 9.200945e-002 8.166765e-002 6.542272e-002 3.504898e-002 7.964671e-004 2.363786e-003 2.415215e-003 5.212041e-003 5.459636e-003 4.636172e-003 8.008952e-003 7.326451e-003 8.586249e-003 7.195439e-003 7.760186e-003 5.869522e-003 1.196808e-003 2.080500e-004 4.976397e-004 4.476126e-004 7.759937e-004 1.009707e-003 8.821489e-004 1.376484e-003 1.200879e-003 1.721756e-003 1.338904e-003 1.335226e-003 1.249723e-003 4.804437e-004
<GCONST> -1.278876e+002
<MIXTURE> 10 6.065106e-002
<MEAN> 39
 6.144173e-002 4.562153e-003 -5.712995e-002 -2.597125e-001 -1.077815e-001 8.814832e-003 7.357035e-002 4.777762e-002 1.365015e-002 2.057439e-002 -6.234097e-002 -1.811352e-002 2.365663e-001 2.428779e-002 1.794514e-002 1.175159e-002 3.601649e-002 -2.147954e-002 -1.627648e-002 -2.354004e-002 9.246599e-003 -2.304857e-002 2.001838e-003 2.779020e-003 -6.688277e-003 -2.565969e-002 -4.883853e-003 1.396254e-002 1.535946e-002 2.612085e-002 7.303908e-003 -6.149683e-003 -1.360402e-002 -3.957101e-003 -2.005976e-003 -5.952835e-003 4.393463e-003 1.355936e-003 -3.327125e-002
<VARIANCE> 39
 3.113432e-002 7.427277e-002 6.254207e-002 1.222558e-001 9.174649e-002 8.484914e-002 1.034451e-001 9.181776e-002 9.409842e-002 8.253920e-002 7.162035e-002 5.882863e-002 9.356259e-002 2.614619e-003 5.368032e-003 4.348983e-003 8.178060e-003 7.303491e-003 7.259178e-003 9.070763e-003 7.805549e-003 8.098910e-003 8.508472e-003 6.305134e-003 5.533622e-003 7.612541e-003 5.796733e-004 1.005021e-003 1.049375e-003 1.836081e-003 1.606349e-003 1.590500e-003 1.713028e-003 1.750958e-003 1.730121e-003 1.560519e-003 1.425997e-003 1.088156e-003 1.297538e-003
<GCONST> -1.129729e+002
<MIXTURE> 11 8.779357e-002
<MEAN> 39
 -1.346518e-001 1.559018e-001 -2.290064e-001 -5.455365e-001 1.891706e-001 -3.612202e-001 1.385558e-001 -6.934937e-002 -1.347600e-001 4.061154e-003 1.497934e-001 2.251168e-001 3.746872e-001 -4.280379e-003 -4.435908e-003 -3.175568e-004 8.748428e-004 3.751768e-003 -7.649972e-004 -5.136618e-003 -3.666316e-003 2.029840e-003 1.319539e-002 1.396148e-002 1.127130e-002 -3.003334e-003 6.838448e-003 -1.284227e-003 7.564887e-003 2.276118e-003 -9.183790e-003 1.204813e-002 -7.964811e-003 1.252005e-002 1.282816e-002 6.104200e-004 -5.891326e-003 -1.273780e-002 -5.277284e-003
<VARIANCE> 39
 1.644289e-002 3.579461e-002 3.972445e-002 4.637793e-002 6.017880e-002 5.944251e-002 6.864912e-002 6.609465e-002 6.701847e-002 8.602128e-002 1.100805e-001 5.347279e-002 2.811470e-002 5.915192e-004 9.682179e-004 1.182104e-003 1.547844e-003 2.363803e-003 3.467381e-003 3.641633e-003 3.743418e-003 3.859799e-003 4.922312e-003 6.710776e-003 4.281304e-003 4.696854e-004 8.897152e-005 1.702675e-004 2.406336e-004 2.916003e-004 5.026135e-004 4.931584e-004 5.709266e-004 5.642637e-004 6.952636e-004 7.782974e-004 8.033054e-004 6.562492e-004 1.046563e-004
<GCONST> -1.491262e+002
<MIXTURE> 12 1.177118e-001
<MEAN> 39
 5.990386e-002 3.476902e-001 -1.263702e-001 -5.293894e-001 -3.025007e-002 -2.880248e-001 1.097171e-001 3.475306e-001 1.567042e-001 1.387905e-001 -1.030642e-001 -1.978556e-001 2.339443e-001 3.513639e-004 2.782284e-003 -2.245121e-003 9.218801e-005 1.424027e-003 -2.652588e-003 4.814742e-003 7.584764e-004 -1.472166e-003 3.838113e-003 -6.760030e-003 -2.108969e-004 -1.139058e-003 -1.841582e-003 -5.256171e-003 5.259422e-003 -2.068105e-003 4.048209e-003 5.815055e-003 -2.578829e-003 -4.700796e-003 -1.446681e-003 -1.032561e-002 9.142183e-004 9.206061e-003 -1.002099e-003
<VARIANCE> 39
 1.222125e-002 3.497352e-002 2.826508e-002 3.934805e-002 4.486595e-002 5.689348e-002 6.987158e-002 6.652627e-002 5.330818e-002 6.449103e-002 6.640566e-002 4.076327e-002 2.729913e-002 3.002945e-004 9.086258e-004 1.201676e-003 1.457041e-003 2.250328e-003 2.361783e-003 2.099966e-003 2.564731e-003 2.549339e-003 3.186899e-003 2.993522e-003 2.139932e-003 4.976800e-004 5.574913e-005 1.646332e-004 2.401743e-004 2.730301e-004 4.410958e-004 4.498993e-004 3.826856e-004 5.595414e-004 4.979064e-004 5.555584e-004 5.618866e-004 3.938477e-004 9.354807e-005
<GCONST> -1.588779e+002
<STATE> 4
<NUMMIXES> 12
<MIXTURE> 1 8.950777e-002
<MEAN> 39
 -7.191025e-002 -3.597552e-001 -8.158640e-003 -2.489039e-001 2.875495e-001 4.080894e-001 -1.446472e-001 -3.533492e-001 1.307829e-001 7.916544e-003 -5.294496e-003 2.731943e-001 5.033832e-001 9.984167e-003 -5.923171e-002 6.610218e-003 1.120257e-001 -5.393691e-002 -7.919146e-003 1.812681e-002 -7.550337e-002 -1.666956e-002 1.082397e-001 -3.546877e-002 -2.762810e-002 1.526577e-004 9.531376e-003 1.793518e-002 -9.987137e-003 2.095191e-003 -1.621799e-002 -3.378170e-002 2.618694e-002 3.587097e-002 -1.933153e-002 -9.423161e-004 6.508307e-003 -3.081482e-002 -1.402693e-002
<VARIANCE> 39
 1.495461e-002 2.533716e-002 2.041702e-002 4.885051e-002 4.215376e-002 4.270147e-002 5.899750e-002 4.230762e-002 5.033613e-002 5.209952e-002 4.515271e-002 3.224847e-002 2.985927e-002 6.048228e-004 1.450845e-003 1.509474e-003 3.300004e-003 3.176457e-003 3.364595e-003 5.305612e-003 4.666845e-003 5.199370e-003 4.306542e-003 4.430732e-003 4.739812e-003 6.710667e-004 1.406001e-004 2.489843e-004 2.646278e-004 4.835509e-004 6.119073e-004 7.598027e-004 6.948535e-004 7.835006e-004 7.776897e-004 8.599821e-004 8.317738e-004 7.270140e-004 1.470182e-004
<GCONST> -1.478098e+002
<MIXTURE> 2 8.919651e-002
<MEAN> 39
 2.033809e-001 2.995044e-001 3.755787e-002 -2.428648e-001 -2.158622e-001 -1.080926e-001 -1.389351e-001 1.084868e-001 -2.395341e-002 1.407335e-002 -1.552146e-001 -2.741533e-002 6.643943e-003 2.244067e-002 4.306753e-002 4.199831e-002 1.359249e-001 -1.866223e-002 -9.042754e-003 -3.987037e-002 -3.514405e-002 -4.942995e-002 -1.234763e-002 3.381608e-003 -5.722097e-003 -1.161421e-001 -2.460410e-002 -1.205789e-002 1.053643e-003 3.347587e-003 3.043292e-002 3.086115e-003 1.872762e-002 3.492363e-003 9.530946e-003 -4.377065e-003 1.197298e-002 -3.129102e-003 1.175824e-003
<VARIANCE> 39
 1.038910e-002 3.903839e-002 4.153255e-002 6.030738e-002 5.663421e-002 7.204884e-002 6.732238e-002 6.568679e-002 7.445255e-002 6.260981e-002 5.259321e-002 3.859818e-002 3.714890e-002 2.530451e-003 4.535705e-003 4.491682e-003 8.121740e-003 8.032254e-003 8.336300e-003 7.565652e-003 8.578963e-003 7.488204e-003 6.890775e-003 6.054365e-003 4.983901e-003 5.523312e-003 2.422947e-004 5.608808e-004 7.299281e-004 1.024786e-003 1.058581e-003 1.235242e-003 1.076767e-003 1.088541e-003 1.185639e-003 1.215248e-003 9.382280e-004 7.765972e-004 5.421322e-004
<GCONST> -1.264570e+002
<MIXTURE> 3 1.031288e-001
<MEAN> 39
 -4.441744e-002 2.869481e-001 -1.788471e-001 -6.520413e-001 2.280969e-001 -3.704779e-001 1.982676e-001 1.705906e-001 1.007825e-003 5.439887e-002 -9.043300e-002 -3.865205e-002 3.354940e-001 2.610393e-002 -1.441671e-002 4.492425e-002 7.177751e-003 -3.499614e-002 4.766567e-002 -7.885306e-002 1.775169e-002 -5.911321e-003 -1.805906e-002 1.347895e-002 1.450879e-002 -3.352249e-002 1.994800e-002 3.721713e-003 1.505594e-002 3.862341e-002 -3.752709e-002 1.996565e-002 -2.433917e-002 -2.560037e-003 -3.708534e-003 -4.222407e-003 -5.884602e-003 3.421278e-003 -3.206732e-002
<VARIANCE> 39
 1.408718e-002 2.933529e-002 3.481168e-002 3.142585e-002 4.728331e-002 4.496421e-002 6.153760e-002 8.789357e-002 5.440144e-002 5.647649e-002 6.419907e-002 5.488501e-002 2.492489e-002 6.997951e-004 2.472771e-003 1.794996e-003 2.605427e-003 4.068233e-003 5.272961e-003 4.061860e-003 4.425844e-003 3.978504e-003 4.426501e-003 4.730123e-003 3.277252e-003 1.432278e-003 1.177573e-004 3.503544e-004 3.411736e-004 5.265438e-004 7.049495e-004 6.349356e-004 6.375614e-004 1.116962e-003 8.157694e-004 7.927287e-004 7.333330e-004 6.641480e-004 3.129526e-004
<GCONST> -1.433830e+002
<MIXTURE> 4 9.574720e-002
<MEAN> 39
 -4.720151e-002 -2.519352e-001 -8.652531e-002 -4.033814e-001 1.983165e-001 3.389916e-001 2.880033e-002 -1.260181e-001 9.494554e-002 -1.186376e-001 1.114567e-002 1.962247e-001 5.075176e-001 1.292079e-002 5.882394e-003 9.239714e-003 6.322958e-003 -3.718734e-002 -4.565131e-003 2.389045e-003 2.413326e-003 1.256218e-002 1.063553e-002 -2.837887e-002 1.894676e-003 -1.556002e-002 1.375277e-002 2.727741e-002 6.602517e-003 5.121729e-003 -2.870316e-002 -2.240337e-002 -1.082079e-003 1.556638e-002 -1.139526e-003 7.350379e-003 -1.164134e-002 -1.555422e-002 -2.776191e-002
<VARIANCE> 39
 1.530472e-002 2.099402e-002 2.119401e-002 4.816317e-002 6.410250e-002 4.432578e-002 6.271724e-002 6.142712e-002 5.223322e-002 5.426084e-002 6.388684e-002 4.575269e-002 2.556391e-002 4.745320e-004 1.152630e-003 1.068667e-003 2.165203e-003 2.994982e-003 2.516256e-003 3.449937e-003 3.279829e-003 3.464261e-003 3.101079e-003 3.363315e-003 2.609557e-003 5.027279e-004 1.160390e-004 3.147903e-004 2.802541e-004 4.482647e-004 5.201675e-004 5.341445e-004 7.287175e-004 6.399797e-004 7.027668e-004 7.273038e-004 7.127133e-004 6.179588e-004 2.674719e-004
<GCONST> -1.513424e+002
<MIXTURE> 5 8.259584e-002
<MEAN> 39
 1.228043e-002 -3.687715e-001 -1.145437e-001 -9.522130e-002 -2.471658e-002 3.188006e-001 2.837380e-001 -2.909828e-001 -2.668541e-001 1.730040e-001 3.935891e-003 -5.306554e-002 4.891162e-001 1.887991e-002 -3.810228e-002 -3.792165e-002 9.817285e-002 8.250085e-003 -6.966896e-002 2.750249e-002 3.294202e-002 -8.107598e-002 1.159000e-002 9.850206e-002 -4.115333e-002 -9.413135e-003 5.233723e-003 1.874819e-002 1.524684e-003 -1.201971e-002 2.320010e-003 -2.184465e-002 -2.100639e-002 3.708565e-002 2.682123e-002 -2.564867e-002 -1.945444e-003 1.234672e-002 -1.361316e-002
<VARIANCE> 39
 1.180299e-002 2.775257e-002 2.111323e-002 4.969835e-002 4.522381e-002 4.686278e-002 6.327876e-002 6.144875e-002 5.526011e-002 4.484463e-002 5.715170e-002 3.376296e-002 2.354690e-002 7.145505e-004 1.099496e-003 1.726595e-003 3.313483e-003 4.012063e-003 4.061703e-003 5.049702e-003 6.786056e-003 4.545005e-003 5.394594e-003 4.668030e-003 4.273803e-003 6.903584e-004 1.071098e-004 2.638923e-004 3.041634e-004 4.677652e-004 5.844088e-004 7.081468e-004 8.893686e-004 9.590542e-004 8.381531e-004 8.697215e-004 1.057853e-003 6.894813e-004 1.755655e-004
<GCONST> -1.457925e+002
<MIXTURE> 6 6.921151e-002
<MEAN> 39
 -2.718488e-002 -1.809062e-001 -8.082974e-002 3.708952e-003 1.073501e-001 -1.694800e-002 3.416474e-002 -8.457246e-002 -7.312873e-002 -5.537636e-002 9.756909e-002 8.078841e-002 3.114813e-001 -2.554662e-004 -1.399276e-003 1.715988e-002 2.033065e-002 -8.016073e-003 -8.913015e-003 -1.486201e-002 1.664116e-002 2.204086e-002 -1.130795e-002 -1.097616e-002 1.622048e-003 -1.795726e-002 2.981027e-003 1.611618e-002 5.300211e-003 -1.270827e-002 -1.092793e-002 1.260695e-003 7.495923e-004 7.889837e-003 9.914411e-003 7.231062e-003 -1.044025e-002 -7.907273e-003 -1.676217e-002
<VARIANCE> 39
 3.425079e-002 7.550137e-002 9.159458e-002 8.948952e-002 1.117948e-001 1.212734e-001 1.342932e-001 1.251694e-001 1.041685e-001 1.172559e-001 8.442401e-002 6.487279e-002 1.176447e-001 2.099943e-003 4.267341e-003 5.391140e-003 8.333072e-003 7.345387e-003 7.649134e-003 1.067993e-002 1.118249e-002 1.000134e-002 8.623128e-003 7.048675e-003 7.012343e-003 5.838317e-003 4.454727e-004 7.715850e-004 1.122043e-003 1.239882e-003 1.420729e-003 1.768755e-003 2.035178e-003 2.101828e-003 1.968378e-003 2.010276e-003 1.502746e-003 1.194773e-003 9.355795e-004
<GCONST> -1.103626e+002
<MIXTURE> 7 1.001372e-001
<MEAN> 39
 5.654480e-002 5.435413e-002 9.623911e-002 -5.499613e-001 -2.302500e-001 1.973311e-001 -1.499145e-001 4.522450e-002 2.436526e-001 2.340727e-002 -1.865311e-001 1.068741e-001 3.013269e-001 5.384588e-002 2.517963e-002 2.182897e-002 1.379326e-001 -8.234084e-002 -3.164067e-002 -2.827787e-003 -4.279825e-002 -7.492249e-002 4.359502e-002 -6.976969e-003 -3.760875e-002 -9.703206e-002 1.252595e-003 2.168338e-002 -4.355016e-003 3.044219e-002 1.702691e-002 -3.541117e-002 4.504552e-003 1.177403e-002 -2.493966e-002 -8.281333e-003 1.821034e-002 -1.265776e-002 -2.624873e-002
<VARIANCE> 39
 1.315519e-002 2.708735e-002 2.539134e-002 3.608730e-002 4.364776e-002 3.216847e-002 5.909818e-002 5.533295e-002 5.995834e-002 5.459045e-002 4.985030e-002 4.632895e-002 2.886021e-002 9.675011e-004 3.366511e-003 2.887375e-003 4.403834e-003 5.997962e-003 4.494938e-003 5.829399e-003 5.823766e-003 5.710308e-003 6.151990e-003 6.434693e-003 4.112954e-003 2.654873e-003 1.944292e-004 4.234247e-004 4.296936e-004 7.882368e-004 7.675645e-004 8.605746e-004 8.868605e-004 9.262992e-004 8.583274e-004 1.071156e-003 8.860245e-004 8.322945e-004 4.440093e-004
<GCONST> -1.375259e+002
<MIXTURE> 8 1.111344e-001
<MEAN> 39
 5.391236e-002 1.365942e-001 -4.326046e-002 -4.645229e-001 3.093345e-002 -3.697642e-002 -7.117571e-002 1.522899e-001 3.925086e-002 -4.849637e-002 -8.046530e-003 3.461251e-002 2.164589e-001 1.606952e-002 8.337285e-003 1.818416e-002 3.564319e-002 -2.580744e-002 7.423839e-003 -3.377694e-002 -2.255935e-002 -4.635118e-003 3.449975e-003 -1.196732e-002 1.292902e-002 -3.396544e-002 7.775979e-004 2.297549e-003 4.546873e-003 1.521646e-002 -6.339074e-003 -2.652653e-003 1.798274e-003 -8.367570e-003 2.137962e-003 5.161078e-003 -4.917092e-003 -3.266721e-003 -7.920826e-003
<VARIANCE> 39
 1.227481e-002 4.421731e-002 3.884356e-002 5.965384e-002 6.998284e-002 6.534231e-002 8.393790e-002 5.929799e-002 7.742332e-002 5.313047e-002 5.031448e-002 4.061026e-002 3.512428e-002 7.281073e-004 1.924070e-003 2.251393e-003 2.736349e-003 4.199699e-003 3.601491e-003 3.752010e-003 4.336839e-003 4.439897e-003 3.773745e-003 3.775687e-003 3.449324e-003 1.113271e-003 8.066549e-005 2.593414e-004 3.919095e-004 4.022620e-004 6.316662e-004 5.336547e-004 6.812305e-004 5.973749e-004 6.748446e-004 6.318966e-004 5.562108e-004 4.818378e-004 1.431366e-004
<GCONST> -1.458967e+002
<MIXTURE> 9 8.812559e-002
<MEAN> 39
 5.068074e-002 2.884742e-001 -2.215815e-002 -6.814524e-001 -1.560384e-002 -2.043910e-001 -1.187729e-002 3.852758e-001 1.543369e-001 9.049751e-003 -9.008754e-002 -1.199348e-001 2.839859e-001 5.278750e-002 3.532847e-002 5.985701e-002 1.064978e-001 -6.303092e-002 4.647430e-002 -8.959480e-002 -4.566379e-002 -5.896793e-002 -3.018021e-002 -6.995527e-003 2.789177e-002 -1.188966e-001 1.744215e-003 4.502095e-003 5.950364e-003 5.330525e-002 -2.442909e-004 6.863427e-003 5.792701e-003 -2.606658e-002 -1.839777e-002 -2.871520e-003 -1.629271e-003 5.705238e-003 -3.540022e-002
<VARIANCE> 39
 1.292403e-002 2.615457e-002 3.743263e-002 2.738293e-002 4.512576e-002 6.271587e-002 7.083140e-002 6.100410e-002 6.020753e-002 6.178086e-002 6.135795e-002 4.923927e-002 2.762461e-002 1.236578e-003 3.595891e-003 2.794390e-003 5.796288e-003 5.137896e-003 5.945635e-003 5.195599e-003 7.237468e-003 6.982699e-003 5.279856e-003 5.767729e-003 5.147081e-003 3.720928e-003 2.579448e-004 4.956126e-004 5.837366e-004 7.031775e-004 9.574036e-004 1.220224e-003 1.038089e-003 1.160901e-003 1.109436e-003 1.170699e-003 1.069456e-003 8.235488e-004 5.066429e-004
<GCONST> -1.326123e+002
<MIXTURE> 10 7.712719e-002
<MEAN> 39
 -1.009384e-001 1.010647e-003 -3.170292e-002 -6.463727e-001 1.918117e-001 1.673703e-002 -1.059645e-001 5.566038e-002 6.136494e-002 -1.331614e-001 1.424853e-001 2.138222e-001 3.990929e-001 5.676718e-002 2.602187e-003 4.310016e-002 7.743351e-002 -1.215710e-001 2.972732e-002 -5.125200e-002 -1.895648e-002 6.107548e-003 3.403167e-002 -4.482473e-002 9.840899e-003 -6.860837e-002 2.010662e-002 2.449171e-002 -6.251442e-004 4.185928e-002 -3.084301e-002 -2.059754e-002 8.972697e-003 4.963709e-003 -1.869136e-002 1.791129e-002 -1.989523e-002 -2.084567e-002 -3.624295e-002
<VARIANCE> 39
 1.578988e-002 4.226585e-002 3.076002e-002 3.773979e-002 5.489674e-002 9.749499e-002 5.737894e-002 6.530731e-002 8.432066e-002 8.233245e-002 8.679049e-002 5.685370e-002 2.480746e-002 1.079644e-003 3.933555e-003 2.588117e-003 4.981911e-003 6.005058e-003 6.923583e-003 6.529233e-003 8.543011e-003 8.683522e-003 8.256398e-003 7.296911e-003 5.206698e-003 2.058070e-003 1.582260e-004 4.774064e-004 5.362814e-004 6.987442e-004 9.386496e-004 1.310221e-003 1.017942e-003 1.170406e-003 1.389058e-003 1.285191e-003 1.374174e-003 1.194092e-003 3.634170e-004
<GCONST> -1.295271e+002
<MIXTURE> 11 5.461327e-002
<MEAN> 39
 6.031129e-002 -1.313076e-001 1.599840e-002 -3.063155e-001 -3.569754e-001 1.202239e-001 2.414042e-001 4.171710e-002 6.994389e-002 1.787377e-001 -6.572518e-002 -2.405472e-001 3.946598e-001 4.687706e-002 3.193907e-002 -6.048046e-004 1.116440e-001 -8.229273e-003 -8.298021e-002 -3.141958e-002 1.952921e-002 -7.932846e-002 -1.625402e-002 5.985573e-002 -5.796543e-003 -8.547586e-002 -9.566882e-004 2.885213e-002 8.399929e-003 1.168020e-002 2.649686e-002 -1.425069e-002 -3.626848e-002 2.953033e-003 5.438366e-003 -2.170228e-002 -1.590911e-003 2.909944e-002 -3.442349e-002
<VARIANCE> 39
 1.612522e-002 2.984209e-002 3.524695e-002 3.841426e-002 4.047107e-002 4.862768e-002 6.455638e-002 4.765769e-002 7.763118e-002 5.824207e-002 6.540807e-002 3.690588e-002 3.070764e-002 1.273341e-003 4.849856e-003 3.573600e-003 6.444701e-003 5.668030e-003 5.465782e-003 7.836880e-003 6.983810e-003 7.971225e-003 6.118199e-003 6.348727e-003 5.617556e-003 4.491429e-003 3.103590e-004 5.141113e-004 6.146314e-004 7.474508e-004 8.853665e-004 1.023125e-003 1.206344e-003 1.029414e-003 1.469306e-003 1.160204e-003 1.366918e-003 8.348981e-004 6.465060e-004
<GCONST> -1.300012e+002
<MIXTURE> 12 3.947269e-002
<MEAN> 39
 -1.491559e-001 -5.951788e-003 -2.108548e-001 -3.563954e-001 1.844649e-001 -5.041239e-002 3.092015e-001 3.865961e-001 5.532041e-001 6.272598e-001 2.278137e-001 -4.060628e-001 2.892869e-001 7.173066e-003 -5.562916e-003 6.060796e-003 9.263137e-003 -1.596219e-003 1.425041e-002 1.446354e-002 3.316507e-002 2.932557e-002 1.001911e-002 -2.747101e-002 -4.997054e-002 -1.025694e-002 7.571504e-003 2.692410e-003 5.466625e-003 1.347312e-003 -1.005453e-002 -1.483599e-003 -1.300584e-002 -1.192128e-002 -1.950319e-002 -2.883695e-002 -1.105418e-002 2.496138e-002 -6.342024e-003
<VARIANCE> 39
 2.190564e-002 4.206424e-002 4.605106e-002 6.482846e-002 8.794914e-002 8.271001e-002 8.104065e-002 1.260132e-001 1.470014e-001 1.773827e-001 2.182391e-001 1.620546e-001 3.356320e-002 6.875385e-004 1.649672e-003 1.753307e-003 2.194573e-003 3.855460e-003 4.379879e-003 5.454649e-003 8.983972e-003 1.186516e-002 1.299560e-002 1.014317e-002 1.501339e-002 7.370400e-004 1.623425e-004 2.884454e-004 3.100556e-004 4.116425e-004 7.078008e-004 6.958062e-004 7.672597e-004 1.449176e-003 1.277506e-003 1.562419e-003 1.779505e-003 1.614870e-003 2.650860e-004
<GCONST> -1.279710e+002
<TRANSP> 5
 0.000000e+000 1.000000e+000 0.000000e+000 0.000000e+000 0.000000e+000
 0.000000e+000 5.815934e-001 4.184065e-001 0.000000e+000 0.000000e+000
 0.000000e+000 0.000000e+000 7.107250e-001 2.892750e-001 0.000000e+000
 0.000000e+000 0.000000e+000 0.000000e+000 4.839530e-001 5.160470e-001
 0.000000e+000 0.000000e+000 0.000000e+000 0.000000e+000 0.000000e+000
<ENDHMM>
~h "A"
<BEGINHMM>
<NUMSTATES> 5
<STATE> 2
<NUMMIXES> 12
<MIXTURE> 1 8.059231e-002
<MEAN> 39
 6.977023e-002 -5.133812e-001 -2.889823e-001 3.315074e-001 2.051923e-001 -8.230267e-002 3.487821e-002 -3.262571e-002 -2.208461e-001 1.392808e-002 2.466659e-001 8.392748e-002 4.539925e-001 -2.914082e-002 -4.011838e-002 1.315820e-002 3.039179e-002 2.446984e-002 -4.398042e-003 9.756328e-003 -2.600395e-002 -1.030179e-002 1.344419e-002 3.062669e-002 7.943896e-004 4.241762e-002 -1.334078e-003 2.838041e-002 2.117139e-002 -1.467260e-002 -1.422356e-002 3.039092e-003 -3.371200e-003 9.276461e-004 1.277687e-002 1.895516e-003 -1.937354e-002 -8.819900e-003 -2.901798e-002
<VARIANCE> 39
 1.546868e-002 2.641359e-002 4.135457e-002 5.500863e-002 6.206410e-002 5.155188e-002 5.630733e-002 6.209876e-002 5.364365e-002 6.974026e-002 5.109228e-002 3.808717e-002 2.969320e-002 8.692985e-004 1.547162e-003 3.215583e-003 3.357088e-003 3.456999e-003 3.833377e-003 5.012664e-003 5.233473e-003 4.969587e-003 4.870397e-003 4.533780e-003 3.615485e-003 1.707455e-003 2.759758e-004 4.063914e-004 5.238720e-004 6.414862e-004 6.959202e-004 7.604338e-004 8.355376e-004 9.266202e-004 8.131529e-004 9.045354e-004 7.526229e-004 6.452251e-004 5.036100e-004
<GCONST> -1.394022e+002
<MIXTURE> 2 4.323924e-002
<MEAN> 39
 4.251773e-002 -4.107971e-001 -2.002169e-001 1.108347e-002 2.158068e-002 1.710660e-001 3.730807e-001 -6.575600e-002 -4.499332e-001 3.522957e-002 2.401309e-001 -5.958258e-002 5.074697e-001 5.591203e-004 -4.579215e-002 -3.686122e-002 9.056587e-002 8.595145e-002 -3.551846e-002 -4.326149e-002 9.806245e-003 -5.770539e-002 -3.422937e-002 9.671634e-002 3.784205e-002 1.021320e-002 1.689103e-003 2.779800e-002 9.989507e-003 -6.781958e-003 -1.289676e-003 -1.848091e-002 -3.862142e-002 1.318708e-002 5.534286e-002 -7.237270e-003 -2.987683e-002 9.717678e-003 -2.663669e-002
<VARIANCE> 39
 1.493446e-002 2.503582e-002 2.906909e-002 4.157866e-002 5.072040e-002 4.943427e-002 5.283825e-002 7.237630e-002 5.025622e-002 5.748828e-002 5.660107e-002 3.875015e-002 4.098403e-002 1.012570e-003 1.776277e-003 3.069813e-003 4.438232e-003 5.381309e-003 6.366516e-003 5.487328e-003 8.200504e-003 6.816252e-003 5.919727e-003 6.627409e-003 5.156616e-003 1.395099e-003 2.364773e-004 4.198458e-004 4.840646e-004 8.203167e-004 7.979455e-004 9.519871e-004 1.098702e-003 1.259282e-003 1.031952e-003 1.141425e-003 1.241500e-003 8.032385e-004 5.143048e-004
<GCONST> -1.348389e+002
<MIXTURE> 3 6.579094e-002
<MEAN> 39
 -3.607159e-002 -5.564424e-001 -1.060045e-001 3.265057e-001 1.887565e-001 4.590311e-002 9.983565e-002 -3.001168e-001 -2.062756e-001 3.801171e-001 1.876620e-001 -1.358842e-001 5.128202e-001 5.240019e-003 -2.516388e-002 -1.605735e-002 8.541552e-002 1.575580e-002 -8.076588e-002 2.823102e-003 5.923136e-002 -3.468397e-002 4.430267e-003 5.171128e-002 -3.202258e-002 -8.558163e-003 6.605979e-003 2.270114e-002 -1.130815e-003 -3.305221e-002 -1.012727e-002 1.088572e-002 -4.895519e-003 1.614855e-002 1.633415e-002 -3.731662e-002 -1.825829e-002 2.674249e-002 -1.139822e-002
<VARIANCE> 39
 1.411361e-002 2.461893e-002 2.710437e-002 5.476396e-002 3.360517e-002 5.693726e-002 4.305480e-002 5.744557e-002 5.199593e-002 4.202534e-002 3.757346e-002 3.071973e-002 3.644245e-002 7.540308e-004 1.150161e-003 1.997887e-003 3.154971e-003 2.727559e-003 4.109935e-003 4.052016e-003 4.605071e-003 4.658966e-003 4.635234e-003 3.458048e-003 3.325654e-003 8.927745e-004 1.279596e-004 2.897399e-004 3.223773e-004 5.986627e-004 5.844514e-004 7.167914e-004 7.324625e-004 1.082115e-003 7.180099e-004 7.100773e-004 6.482711e-004 5.603801e-004 2.208834e-004
<GCONST> -1.476610e+002
<MIXTURE> 4 1.221788e-001
<MEAN> 39
 1.711023e-002 -5.030782e-001 -6.356961e-002 2.694358e-001 1.095818e-001 -6.322908e-002 1.129571e-001 -2.276807e-001 -5.030119e-002 3.034477e-001 6.391946e-002 -4.858594e-002 4.412209e-001 9.354915e-003 3.886938e-004 -6.534092e-003 3.035147e-002 -7.740991e-003 -2.919527e-002 6.700066e-003 1.950074e-002 -1.145289e-002 -1.091562e-002 1.573149e-002 -7.060314e-003 -1.630601e-002 2.422175e-003 9.593050e-003 1.956595e-004 -9.277842e-003 -2.649899e-003 9.440605e-003 -8.183391e-003 -1.947369e-003 2.658114e-003 -1.124584e-002 -3.180372e-003 7.670938e-003 -4.117900e-003
<VARIANCE> 39
 1.462596e-002 2.107313e-002 2.020525e-002 3.590425e-002 2.405151e-002 2.944469e-002 3.350757e-002 3.942892e-002 4.605164e-002 2.691337e-002 2.720962e-002 2.065533e-002 4.076885e-002 4.415075e-004 6.547942e-004 9.727657e-004 1.415423e-003 1.383430e-003 1.706561e-003 1.999431e-003 2.011476e-003 1.993641e-003 1.897366e-003 1.518831e-003 1.381487e-003 4.768567e-004 7.633917e-005 1.206645e-004 1.613556e-004 2.462860e-004 2.356865e-004 2.915242e-004 3.278290e-004 3.410576e-004 3.291547e-004 2.815620e-004 2.621632e-004 2.505978e-004 6.044738e-005
<GCONST> -1.725251e+002
<MIXTURE> 5 5.140535e-002
<MEAN> 39
 -3.190489e-002 -4.830608e-001 -9.600411e-002 2.734826e-002 1.570604e-001 2.824929e-001 2.191832e-002 -4.759427e-001 3.002485e-002 2.263291e-001 1.876797e-002 1.091887e-001 5.338020e-001 -1.427917e-002 -6.395539e-002 1.207960e-002 1.184476e-001 3.022753e-002 -5.454526e-002 -9.791494e-003 -1.336224e-002 -4.375675e-002 8.262759e-002 3.132877e-002 -5.600916e-002 2.039355e-002 6.495350e-003 3.565334e-002 8.324244e-003 -2.633153e-003 -1.812040e-002 -3.458083e-002 4.763150e-003 5.431155e-002 -5.128274e-003 -2.541455e-002 -8.827763e-004 -1.182743e-002 -3.534931e-002
<VARIANCE> 39
 1.408307e-002 2.064904e-002 1.917699e-002 5.274972e-002 3.214556e-002 4.930960e-002 6.268324e-002 3.997581e-002 5.897951e-002 4.121268e-002 3.168473e-002 3.180138e-002 2.593608e-002 1.244487e-003 1.755149e-003 2.263548e-003 5.179681e-003 5.321837e-003 4.672053e-003 6.604746e-003 5.217365e-003 5.761965e-003 5.507118e-003 6.060724e-003 4.383509e-003 1.440678e-003 3.025545e-004 4.847763e-004 4.553708e-004 7.756820e-004 7.701274e-004 8.871171e-004 9.861779e-004 8.917784e-004 1.008828e-003 9.849288e-004 8.261259e-004 6.915929e-004 5.144752e-004
<GCONST> -1.395738e+002
<MIXTURE> 6 6.508590e-002
<MEAN> 39
 -1.025675e-001 -5.760576e-001 7.999153e-002 2.706205e-001 1.668625e-001 4.445302e-002 -1.172933e-001 -3.925753e-001 1.367248e-001 2.867649e-001 -8.357763e-002 6.920366e-002 5.545384e-001 2.315480e-003 -2.773281e-002 1.173498e-002 8.325962e-002 -4.421080e-002 -7.026152e-002 4.678748e-002 2.353829e-002 -3.561639e-002 3.100131e-002 -6.432694e-003 -3.486811e-002 -1.096631e-002 9.207371e-003 2.283245e-002 -1.479462e-002 -3.027604e-002 -3.515460e-004 8.126494e-003 7.062273e-003 1.764411e-002 -1.238253e-002 -2.829247e-002 2.346920e-002 5.040873e-003 -1.195748e-002
<VARIANCE> 39
 1.519934e-002 2.290854e-002 2.434507e-002 4.864470e-002 3.690974e-002 4.162458e-002 4.349984e-002 5.008084e-002 4.791362e-002 5.423536e-002 2.699283e-002 3.512367e-002 3.962165e-002 8.288118e-004 1.208268e-003 1.808822e-003 3.447439e-003 3.126429e-003 3.678860e-003 3.687001e-003 3.939463e-003 4.159175e-003 3.967720e-003 3.840558e-003 3.172043e-003 9.346996e-004 1.278716e-004 2.717848e-004 3.056134e-004 5.607429e-004 5.778039e-004 5.684143e-004 7.398844e-004 7.951937e-004 7.015679e-004 9.068438e-004 6.280390e-004 5.905943e-004 1.502225e-004
<GCONST> -1.492963e+002
<MIXTURE> 7 7.781458e-002
<MEAN> 39
 7.388171e-002 -4.106075e-001 -2.650484e-001 1.060045e-001 1.295458e-001 2.754888e-002 1.892091e-001 3.453639e-002 -3.847405e-001 -1.000507e-001 3.448485e-001 6.770758e-002 4.734745e-001 4.232709e-003 -1.701982e-002 -2.338394e-002 4.686156e-002 5.044187e-002 -2.741019e-002 -4.973798e-002 1.583031e-002 6.365837e-003 -2.702125e-002 2.500695e-002 3.736982e-002 -3.286987e-003 5.118686e-004 1.064635e-002 7.012049e-003 -1.221395e-002 -1.186399e-002 2.421303e-003 -1.625456e-003 -3.023157e-003 2.073141e-002 1.027904e-002 -2.619501e-002 -8.101298e-003 -6.264982e-003
<VARIANCE> 39
 1.673518e-002 2.539147e-002 2.558981e-002 3.825621e-002 4.580073e-002 4.873126e-002 4.993776e-002 5.793045e-002 5.011465e-002 5.153309e-002 4.318846e-002 3.416503e-002 3.914051e-002 4.254696e-004 7.840534e-004 1.575289e-003 1.943995e-003 2.671050e-003 2.834493e-003 3.197263e-003 3.546671e-003 3.644813e-003 3.566466e-003 3.892698e-003 2.966926e-003 4.728714e-004 6.911796e-005 1.515225e-004 2.177123e-004 3.647028e-004 4.278772e-004 5.807573e-004 5.633620e-004 5.946014e-004 6.036649e-004 5.228926e-004 5.349485e-004 4.505759e-004 7.204984e-005
<GCONST> -1.563337e+002
<MIXTURE> 8 5.709095e-002
<MEAN> 39
 -1.367813e-001 -4.576877e-001 3.472646e-002 2.523316e-001 2.295213e-001 6.707668e-002 -2.104061e-001 -3.901799e-001 3.719024e-002 1.146444e-001 1.388701e-001 1.022478e-001 5.504237e-001 -1.998024e-002 -2.961195e-002 3.467976e-002 6.660648e-002 -1.090355e-002 -2.919661e-002 -7.351507e-003 -2.888897e-002 6.491371e-003 1.584013e-002 -2.838415e-002 5.326155e-003 9.495149e-003 1.575332e-002 2.496516e-002 -1.149649e-002 -3.035899e-002 -2.497703e-002 -6.987097e-003 2.568367e-002 4.055513e-002 -5.443177e-003 -8.065476e-003 -8.558455e-003 -7.337133e-003 -2.321483e-002
<VARIANCE> 39
 1.561860e-002 3.501663e-002 3.886774e-002 1.089329e-001 7.854340e-002 8.647408e-002 9.646504e-002 9.345102e-002 1.371268e-001 9.528869e-002 9.514242e-002 7.740615e-002 4.048390e-002 1.303336e-003 2.447485e-003 3.714070e-003 9.302021e-003 6.994059e-003 7.870916e-003 8.641738e-003 8.774785e-003 1.038807e-002 8.359722e-003 8.900077e-003 8.130923e-003 1.147097e-003 2.237596e-004 7.154358e-004 5.946974e-004 1.071080e-003 1.155963e-003 1.326257e-003 1.789912e-003 1.630169e-003 2.192118e-003 1.956476e-003 1.885226e-003 1.572582e-003 4.290434e-004
<GCONST> -1.202230e+002
<MIXTURE> 9 8.756088e-002
<MEAN> 39
 1.898104e-002 -3.217149e-001 -1.027702e-001 -6.165925e-002 4.442134e-002 7.689928e-002 1.483842e-001 -1.507656e-001 1.152227e-002 6.881779e-002 4.221273e-002 2.517365e-002 4.289554e-001 6.454174e-003 5.229233e-004 1.503435e-003 1.982176e-002 -8.939044e-003 -1.312549e-002 -2.886950e-003 -2.706905e-003 -3.998056e-003 6.351734e-003 1.594338e-003 -3.333819e-003 -1.309915e-002 7.872654e-003 1.796281e-002 4.463815e-003 2.965653e-003 -8.841090e-003 -6.486102e-003 -1.275248e-002 4.848643e-003 -4.893692e-003 -3.345666e-003 -5.166529e-003 8.231753e-004 -1.652373e-002
<VARIANCE> 39
 1.830047e-002 2.780491e-002 2.284571e-002 5.011520e-002 4.322271e-002 5.085517e-002 5.269763e-002 6.778237e-002 5.480634e-002 5.114377e-002 4.165706e-002 3.182639e-002 5.175334e-002 6.369342e-004 1.022630e-003 1.388981e-003 1.966801e-003 2.340220e-003 2.323820e-003 2.750230e-003 2.747836e-003 2.829920e-003 2.788961e-003 2.603904e-003 1.998757e-003 8.292209e-004 1.292821e-004 2.645684e-004 2.700751e-004 3.518273e-004 4.275164e-004 4.612614e-004 5.589999e-004 6.515423e-004 5.821905e-004 5.715942e-004 4.809352e-004 3.871453e-004 2.037658e-004
<GCONST> -1.544134e+002
<MIXTURE> 10 1.042430e-001
<MEAN> 39
 4.785628e-002 -2.887987e-001 4.926907e-002 3.093346e-001 -3.069942e-003 -9.310771e-002 -1.538486e-002 -2.366205e-001 -9.233479e-002 6.060463e-002 -3.110639e-002 3.204325e-003 2.709813e-001 2.870475e-003 -2.557252e-003 -3.726656e-003 2.135776e-002 -8.988712e-003 -1.683794e-002 1.262563e-002 8.436449e-003 -1.055317e-002 -4.795910e-003 1.300552e-002 -7.769923e-003 -9.767060e-003 -1.843076e-003 2.289743e-004 -6.013772e-003 -1.244409e-002 2.764313e-003 7.551940e-003 5.249783e-004 1.913849e-003 5.900851e-003 2.590140e-003 5.099475e-003 2.980730e-003 -8.505201e-004
<VARIANCE> 39
 1.388952e-002 2.529765e-002 2.701612e-002 4.841077e-002 3.983780e-002 4.307024e-002 5.288669e-002 6.350536e-002 6.611417e-002 4.491990e-002 4.481308e-002 3.691106e-002 3.483366e-002 5.919833e-004 1.131308e-003 1.707281e-003 2.287554e-003 2.916257e-003 3.189035e-003 3.830216e-003 4.080079e-003 4.030351e-003 3.713216e-003 3.286602e-003 2.933995e-003 6.409791e-004 8.660398e-005 1.780339e-004 2.416386e-004 3.487788e-004 4.691457e-004 5.380271e-004 6.978828e-004 7.064793e-004 7.179349e-004 6.137892e-004 5.485110e-004 5.193822e-004 7.906795e-005
<GCONST> -1.530370e+002
<MIXTURE> 11 6.218494e-002
<MEAN> 39
 4.875056e-002 -2.526751e-001 -6.455991e-002 2.803360e-002 1.113584e-002 2.234749e-002 2.533096e-002 -7.604436e-002 -2.060954e-002 6.556601e-002 2.644646e-002 1.482384e-003 2.784149e-001 1.733618e-002 -1.237034e-002 -1.167783e-002 1.875012e-002 -7.404666e-003 -5.027497e-003 -6.158554e-003 -8.770904e-005 -2.167502e-002 1.650662e-003 5.595503e-003 2.383558e-003 2.046901e-002 -7.722232e-003 1.957329e-002 1.151592e-002 9.682650e-003 4.322208e-003 -6.601893e-004 -3.440585e-003 1.340183e-003 -2.174772e-004 -7.319690e-003 -1.313928e-003 1.340345e-004 -2.877040e-002
<VARIANCE> 39
 3.724340e-002 8.512066e-002 6.692674e-002 1.250406e-001 7.716101e-002 7.940330e-002 7.398406e-002 1.048717e-001 8.766063e-002 7.996700e-002 6.818957e-002 4.964764e-002 1.476743e-001 2.646088e-003 6.593876e-003 4.992602e-003 7.067080e-003 6.397420e-003 6.887873e-003 7.697297e-003 8.681851e-003 8.266008e-003 6.697498e-003 5.475199e-003 4.825500e-003 9.697299e-003 5.647423e-004 1.403240e-003 1.010491e-003 1.358888e-003 1.223405e-003 1.440476e-003 1.397411e-003 1.759112e-003 1.432253e-003 1.386645e-003 1.187861e-003 9.805658e-004 2.090659e-003
<GCONST> -1.138802e+002
<MIXTURE> 12 1.827992e-001
<MEAN> 39
