~o
<STREAMINFO> 1 39
<VECSIZE> 39<NULLD><PLP_D_A_Z_0><DIAGC>
~h "&"
<BEGINHMM>
<NUMSTATES> 5
<STATE> 2
<NUMMIXES> 12
<MIXTURE> 1 7.770003e-002
<MEAN> 39
 1.949305e-001 -2.500331e-001 2.128719e-001 -3.776005e-001 -4.728903e-001 3.488996e-001 -1.083070e-002 -9.703233e-003 2.344060e-001 -1.291495e-001 8.843014e-002 -1.910361e-001 4.117648e-001 2.277636e-002 -6.103258e-003 2.182386e-002 4.901208e-003 -2.809496e-002 1.101505e-002 -8.184309e-003 -1.588300e-002 2.580016e-002 -1.049648e-002 1.804917e-003 2.207972e-003 -1.627809e-002 -1.305606e-002 3.516376e-002 -4.501984e-003 3.276270e-002 3.382536e-002 -4.276850e-002 -1.519669e-003 -7.404357e-004 -2.713465e-002 1.318140e-002 -1.512632e-002 2.302498e-002 -4.584036e-002
<VARIANCE> 39
 2.055172e-002 6.814279e-002 3.951223e-002 5.596463e-002 7.955950e-002 8.415603e-002 8.884642e-002 6.943928e-002 9.572527e-002 4.748113e-002 4.193312e-002 3.575334e-002 3.660930e-002 3.186031e-003 8.738677e-003 3.508976e-003 9.321655e-003 1.044996e-002 9.402673e-003 8.938522e-003 6.978236e-003 8.212174e-003 6.030777e-003 6.248654e-003 5.004059e-003 4.549065e-003 8.381657e-004 8.822829e-004 6.947554e-004 1.258918e-003 1.579869e-003 1.368880e-003 1.435084e-003 1.290841e-003 1.468782e-003 1.013804e-003 8.890257e-004 7.540230e-004 1.139516e-003
<GCONST> -1.204321e+002
<MIXTURE> 2 9.716789e-002
<MEAN> 39
 4.346359e-003 2.754183e-001 -2.051905e-002 -7.075734e-001 1.523548e-002 -2.308715e-002 -1.738469e-001 2.295254e-001 1.410409e-001 -7.756925e-002 -3.921499e-002 2.654781e-002 4.369957e-001 2.134231e-002 2.165171e-002 1.053785e-002 -8.839736e-003 6.013403e-003 -1.370573e-002 -1.609249e-002 6.098068e-003 -9.913433e-003 1.997851e-003 -4.077022e-003 -1.424625e-002 -1.690122e-002 3.801298e-003 -2.533701e-003 2.203526e-002 6.605502e-002 -1.190767e-002 -6.665828e-003 8.438023e-003 -2.564340e-002 -2.058313e-002 8.050665e-003 -4.651340e-003 -3.046788e-003 -6.257717e-002
<VARIANCE> 39
 2.266514e-002 6.804448e-002 4.956499e-002 3.753890e-002 6.124976e-002 9.013802e-002 8.022654e-002 5.994002e-002 5.592355e-002 4.922991e-002 5.143217e-002 4.237483e-002 5.854315e-002 2.203803e-003 6.560009e-003 4.094753e-003 6.065324e-003 6.635929e-003 8.687990e-003 7.017465e-003 8.659731e-003 6.841258e-003 5.995901e-003 6.920409e-003 5.136705e-003 6.726779e-003 8.754632e-004 1.113183e-003 8.863032e-004 1.528965e-003 1.357552e-003 1.872015e-003 1.426915e-003 1.261013e-003 1.234811e-003 1.170157e-003 1.129572e-003 8.736735e-004 1.514043e-003
<GCONST> -1.202801e+002
<MIXTURE> 3 7.897329e-002
<MEAN> 39
 1.648294e-001 -6.552625e-002 -5.367823e-002 -2.475889e-001 -4.028886e-001 -6.642056e-002 3.534591e-001 2.966162e-002 -1.236091e-001 3.470209e-001 -2.224266e-001 -1.816613e-001 4.345797e-001 4.832505e-002 -1.662221e-002 6.434321e-004 5.102200e-003 -2.574137e-002 -4.505511e-002 2.765526e-002 2.324324e-002 -3.460527e-002 1.087418e-002 2.417657e-002 -3.694820e-002 4.465417e-003 -2.719658e-002 3.284252e-002 1.811143e-002 4.483790e-002 3.995986e-002 2.936301e-003 -4.961657e-002 -5.029709e-003 1.044361e-002 -4.491391e-002 2.187833e-002 2.324769e-002 -6.848812e-002
<VARIANCE> 39
 2.067872e-002 4.160360e-002 3.647871e-002 4.278601e-002 3.646742e-002 6.286602e-002 6.818767e-002 5.111083e-002 5.874733e-002 3.628210e-002 4.118359e-002 3.918643e-002 5.312563e-002 3.898827e-003 4.744924e-003 4.013288e-003 9.011987e-003 5.857526e-003 7.937592e-003 6.944118e-003 6.755146e-003 7.554068e-003 6.834541e-003 7.649465e-003 4.717370e-003 5.891479e-003 1.062397e-003 1.021498e-003 1.027259e-003 1.140222e-003 1.108185e-003 1.740971e-003 1.544664e-003 1.374054e-003 1.336934e-003 1.020003e-003 9.590367e-004 9.121844e-004 1.593211e-003
<GCONST> -1.229090e+002
<MIXTURE> 4 5.403252e-002
<MEAN> 39
 3.957039e-001 -1.090591e-001 -7.726438e-001 1.378018e-001 1.418518e-001 -3.096468e-001 2.000306e-002 1.658851e-001 1.359020e-001 -6.371521e-002 -1.229669e-001 -9.134850e-002 4.018059e-001 5.430888e-002 1.326873e-003 -1.668894e-001 1.202832e-002 4.160532e-002 -5.225377e-003 7.485130e-003 1.508694e-003 4.741233e-002 1.489621e-002 -3.316987e-002 -2.125810e-002 4.799035e-002 -3.100706e-002 9.375320e-003 5.615101e-002 6.852144e-003 -1.258662e-002 2.258929e-002 -2.649658e-003 -1.415689e-002 -1.238827e-002 8.711586e-003 1.407415e-002 1.231866e-003 -3.171786e-002
<VARIANCE> 39
 2.053422e-002 3.728834e-002 7.073057e-002 6.803268e-002 9.306213e-002 6.628484e-002 6.072471e-002 9.061699e-002 6.559040e-002 5.354664e-002 4.680262e-002 4.526592e-002 5.046638e-002 4.786150e-003 3.570704e-003 1.000466e-002 6.588269e-003 4.857705e-003 6.400663e-003 5.619680e-003 6.686640e-003 6.045311e-003 6.095107e-003 5.136184e-003 4.346912e-003 3.501827e-003 1.019849e-003 7.016439e-004 1.391216e-003 8.669851e-004 9.790169e-004 1.328355e-003 1.276242e-003 1.464507e-003 1.149769e-003 1.041921e-003 8.551841e-004 8.379695e-004 6.644502e-004
<GCONST> -1.232860e+002
<MIXTURE> 5 7.972054e-002
<MEAN> 39
 1.643094e-001 -3.789946e-001 -4.918378e-001 2.198304e-001 1.596561e-001 -3.409827e-001 2.745222e-001 6.725446e-002 -2.839054e-001 -1.809723e-001 2.101122e-001 1.947908e-001 5.412973e-001 1.004164e-002 -9.900629e-003 -3.264009e-002 1.065566e-002 8.082814e-003 -2.636861e-003 1.048349e-002 8.512295e-003 1.400838e-003 -2.459087e-002 8.767031e-004 1.047207e-002 4.680651e-002 3.462341e-003 2.611184e-002 3.200060e-002 -4.482918e-003 -1.848837e-002 1.611116e-002 -2.442476e-002 -3.376893e-003 2.679578e-002 1.292706e-002 -2.243065e-002 -2.248456e-002 -4.480627e-002
<VARIANCE> 39
 3.103789e-002 3.599703e-002 6.510424e-002 7.093080e-002 1.075086e-001 5.081182e-002 8.035626e-002 8.795785e-002 7.293172e-002 6.722610e-002 6.957912e-002 4.999735e-002 8.578666e-002 2.145219e-003 3.702989e-003 1.058091e-002 5.393314e-003 6.962790e-003 6.048820e-003 6.489227e-003 6.800730e-003 7.646748e-003 6.986367e-003 6.356352e-003 5.010767e-003 8.926554e-003 5.971251e-004 7.346015e-004 9.897059e-004 8.861005e-004 1.041069e-003 1.053672e-003 1.389477e-003 1.319441e-003 1.189370e-003 1.282017e-003 1.210092e-003 8.370112e-004 1.517406e-003
<GCONST> -1.198285e+002
<MIXTURE> 6 6.111284e-002
<MEAN> 39
 4.182359e-001 -5.498111e-001 2.250484e-002 1.528382e-001 -6.522456e-001 5.704671e-002 3.709291e-001 -4.487895e-002 1.955290e-001 -1.520271e-001 5.476633e-002 -1.939027e-002 3.468174e-001 4.230556e-002 -4.650289e-002 -2.147944e-002 4.776629e-002 -6.776564e-002 -6.177740e-003 5.466215e-002 -8.920475e-003 4.363354e-003 6.514525e-003 1.290305e-003 -1.099880e-002 1.327509e-002 -3.081487e-002 3.899191e-002 1.236075e-002 -1.203729e-002 4.702114e-002 -6.727200e-003 -3.161474e-002 4.982359e-003 -1.731977e-002 1.133184e-002 -3.095668e-003 -3.086679e-003 -2.684989e-002
<VARIANCE> 39
 2.480356e-002 4.947149e-002 5.667959e-002 6.912086e-002 8.398429e-002 1.112026e-001 9.913290e-002 7.272743e-002 7.555829e-002 6.501933e-002 4.925767e-002 4.299848e-002 3.696766e-002 3.593113e-003 4.656587e-003 4.900349e-003 7.672072e-003 7.587972e-003 8.932932e-003 7.883653e-003 6.457514e-003 7.073315e-003 5.576116e-003 4.633875e-003 4.039415e-003 3.597099e-003 9.999233e-004 7.568969e-004 8.226158e-004 8.724392e-004 1.312423e-003 1.351789e-003 1.345741e-003 1.207373e-003 1.136848e-003 1.155991e-003 9.710356e-004 7.886985e-004 6.493242e-004
<GCONST> -1.220486e+002
<MIXTURE> 7 6.734836e-002
<MEAN> 39
 1.968092e-002 6.841555e-002 4.448677e-002 -1.061537e-001 -3.031815e-002 8.819700e-003 -6.245684e-002 -7.069770e-002 -2.202579e-002 -1.314138e-002 -2.589082e-002 2.811119e-002 7.406650e-002 1.071252e-001 -8.906774e-003 -2.639181e-002 -4.291412e-002 -4.715794e-002 -4.190342e-002 -2.873737e-002 -1.375560e-002 2.072038e-003 -1.030147e-002 -4.947904e-003 5.748435e-004 8.120926e-002 -6.915640e-003 -7.592846e-003 -3.965231e-003 1.194584e-002 -6.066213e-004 -2.236761e-003 9.904712e-003 1.287454e-002 2.453704e-003 1.849194e-003 7.655049e-004 -3.028141e-003 -1.053906e-002
<VARIANCE> 39
 7.613373e-002 8.520601e-002 7.531808e-002 1.176381e-001 9.342290e-002 9.635396e-002 8.925816e-002 8.760899e-002 7.619178e-002 7.195069e-002 6.666388e-002 5.256812e-002 8.943436e-002 1.160812e-002 9.935723e-003 1.069490e-002 1.181336e-002 1.218018e-002 1.191500e-002 1.111373e-002 1.056851e-002 9.824530e-003 9.618481e-003 8.796643e-003 6.568293e-003 1.869378e-002 1.376964e-003 1.120564e-003 1.354905e-003 1.757597e-003 1.625740e-003 1.838506e-003 1.717067e-003 1.833624e-003 1.564191e-003 1.540128e-003 1.304974e-003 1.087580e-003 2.155756e-003
<GCONST> -1.041196e+002
<MIXTURE> 8 9.446893e-002
<MEAN> 39
 3.320981e-003 -3.381667e-001 -1.385344e-001 -7.762416e-002 -9.009295e-002 1.890204e-001 1.546774e-001 -4.475475e-001 -1.226826e-001 1.727280e-001 4.062496e-002 1.120726e-001 6.083148e-001 1.686629e-002 -1.850673e-002 -1.674571e-002 3.499166e-002 -7.727718e-003 -1.436889e-002 2.116085e-002 -6.789058e-003 -3.488953e-002 4.262007e-003 2.021671e-002 -1.282083e-002 1.692743e-002 1.475989e-002 3.766403e-002 2.109660e-002 1.473532e-003 -7.015071e-003 -3.679645e-002 -1.368191e-002 5.130475e-002 9.366625e-004 -2.171397e-002 -7.147272e-003 -1.255721e-002 -5.014985e-002
<VARIANCE> 39
 3.136780e-002 4.285588e-002 3.932517e-002 8.182677e-002 5.929672e-002 5.669241e-002 1.025008e-001 6.073806e-002 8.597190e-002 6.451167e-002 6.104891e-002 5.574729e-002 8.240525e-002 2.424797e-003 4.202917e-003 3.740911e-003 9.580510e-003 5.742671e-003 7.136847e-003 7.698759e-003 8.314737e-003 9.071939e-003 7.103833e-003 8.002211e-003 5.055169e-003 4.676800e-003 6.129463e-004 6.829841e-004 8.390141e-004 9.899522e-004 1.028828e-003 1.371410e-003 1.516078e-003 1.404691e-003 1.425883e-003 1.261300e-003 1.164785e-003 9.072445e-004 1.296203e-003
<GCONST> -1.202967e+002
<MIXTURE> 9 1.512329e-001
<MEAN> 39
 4.394909e-002 -1.747428e-001 -3.258174e-002 -2.820058e-001 1.250831e-002 1.964412e-001 -2.093950e-002 -1.743365e-001 4.176962e-002 5.025881e-003 -2.747356e-002 1.009789e-001 5.322046e-001 5.409607e-003 -6.797601e-003 5.152385e-003 1.459922e-002 -8.533068e-003 4.788474e-003 -9.718134e-004 -1.628114e-002 4.901333e-003 1.266691e-003 -1.052310e-003 3.031258e-003 -7.289496e-003 6.585339e-003 1.125054e-002 4.817451e-003 4.846375e-003 -9.293143e-003 -1.235433e-002 1.072588e-003 4.965104e-003 -2.659284e-003 1.833098e-003 -3.595860e-003 -6.090652e-003 -1.708001e-002
<VARIANCE> 39
 2.889439e-002 8.254227e-002 3.908931e-002 9.566752e-002 7.958138e-002 6.501171e-002 9.050692e-002 8.296912e-002 6.961059e-002 6.763382e-002 6.035157e-002 5.256837e-002 7.164369e-002 7.349683e-004 1.723263e-003 1.194039e-003 2.379839e-003 2.449472e-003 2.347453e-003 2.722936e-003 2.838569e-003 3.022116e-003 2.756877e-003 2.551413e-003 2.231817e-003 9.173215e-004 1.680591e-004 2.852838e-004 2.626438e-004 3.821643e-004 4.265761e-004 4.705047e-004 4.935567e-004 4.745869e-004 4.715142e-004 4.675273e-004 5.050316e-004 4.057007e-004 2.681804e-004
<GCONST> -1.474146e+002
<MIXTURE> 10 6.856053e-002
<MEAN> 39
 1.824041e-001 -2.021172e-001 -1.387711e-001 -5.217561e-002 -2.933202e-001 -1.837001e-001 4.806763e-001 7.847313e-002 -2.715394e-001 7.688974e-002 1.150839e-001 -2.130100e-001 5.094728e-001 -2.878025e-002 6.712037e-002 6.264368e-002 -4.056001e-002 -6.020952e-002 7.876463e-002 1.176802e-003 -1.036623e-001 2.086486e-002 1.047187e-001 -8.274285e-002 -1.997371e-002 -1.902568e-002 2.559100e-003 3.378822e-002 3.808309e-003 1.847230e-002 2.183452e-002 -8.693630e-003 -5.856577e-002 4.470005e-003 3.502548e-002 -1.278205e-002 -2.355465e-002 2.088439e-002 -4.555825e-002
<VARIANCE> 39
 2.290552e-002 4.068742e-002 5.508358e-002 6.429487e-002 5.589515e-002 7.353704e-002 6.297048e-002 9.723509e-002 5.761092e-002 4.902412e-002 4.867677e-002 5.675640e-002 4.359707e-002 1.619333e-003 3.031492e-003 4.905198e-003 5.559065e-003 5.942785e-003 5.889880e-003 5.996515e-003 7.566401e-003 7.531560e-003 6.011624e-003 6.387317e-003 4.582693e-003 2.067244e-003 7.095351e-004 5.851797e-004 1.085958e-003 1.044274e-003 1.102223e-003 1.439684e-003 1.252660e-003 1.591071e-003 1.181100e-003 1.163471e-003 1.016644e-003 8.918535e-004 6.430835e-004
<GCONST> -1.256702e+002
<MIXTURE> 11 9.904570e-002
<MEAN> 39
 9.769826e-002 -3.585061e-002 -2.334607e-002 -4.725105e-001 -2.500852e-001 1.940082e-001 1.195731e-001 -1.462074e-001 1.808726e-001 4.869747e-002 -3.204910e-001 1.716023e-001 4.993705e-001 1.506558e-002 2.182197e-002 1.352150e-002 -3.266758e-002 -2.391171e-003 9.006842e-003 -1.820561e-002 -1.143480e-002 3.250270e-002 -1.814844e-002 -2.468592e-002 1.510937e-002 2.008014e-003 -4.802417e-003 2.591570e-002 1.902414e-002 5.436146e-002 1.459213e-002 -3.240467e-002 -2.056299e-002 1.843790e-002 -3.044912e-002 -6.801329e-003 3.081735e-002 -2.491336e-002 -6.652734e-002
<VARIANCE> 39
 2.188099e-002 3.597145e-002 2.995965e-002 4.291510e-002 4.798805e-002 4.128543e-002 5.647313e-002 5.397878e-002 5.408980e-002 4.948536e-002 3.527632e-002 4.112725e-002 5.206390e-002 2.813053e-003 5.369062e-003 3.295725e-003 8.183333e-003 6.633122e-003 5.213228e-003 9.760311e-003 7.709363e-003 8.587908e-003 8.411173e-003 6.636947e-003 5.282176e-003 4.795410e-003 1.021733e-003 8.168883e-004 8.108087e-004 1.240539e-003 1.305622e-003 1.447352e-003 1.294160e-003 1.455192e-003 1.280502e-003 1.096773e-003 8.985900e-004 8.361537e-004 1.329515e-003
<GCONST> -1.244480e+002
<MIXTURE> 12 7.063576e-002
<MEAN> 39
 2.042983e-001 -2.518401e-001 -2.379404e-001 2.227595e-002 -2.399680e-001 -2.239923e-001 4.153682e-001 1.149183e-001 -3.073743e-001 3.617414e-002 1.376342e-001 -1.282655e-001 4.930180e-001 7.615420e-002 -3.966967e-002 -8.375108e-002 4.659843e-002 2.567045e-002 -9.458619e-002 3.399928e-003 9.012945e-002 -1.763636e-002 -7.152387e-002 4.514133e-002 1.198588e-002 2.663650e-002 -2.040762e-002 3.763268e-002 2.030286e-002 7.561857e-003 2.610358e-002 1.543109e-002 -5.888357e-002 -6.848246e-003 4.545145e-002 -9.197810e-003 -2.719894e-002 1.629348e-002 -5.177264e-002
<VARIANCE> 39
 2.350574e-002 4.148733e-002 5.615606e-002 6.096776e-002 6.320880e-002 6.591268e-002 7.440031e-002 1.028531e-001 5.598047e-002 4.542564e-002 3.877727e-002 4.122957e-002 6.777678e-002 4.702150e-003 4.529557e-003 8.212268e-003 9.521908e-003 8.183903e-003 8.599724e-003 8.480930e-003 7.961623e-003 8.066700e-003 6.427811e-003 6.960115e-003 5.194762e-003 6.089574e-003 1.016586e-003 1.027538e-003 1.507523e-003 1.490660e-003 1.317308e-003 1.628927e-003 1.824717e-003 2.367190e-003 1.439413e-003 1.271449e-003 9.572849e-004 9.954264e-004 1.475933e-003
<GCONST> -1.167399e+002
<STATE> 3
<NUMMIXES> 12
<MIXTURE> 1 1.225184e-001
<MEAN> 39
 6.217379e-002 1.440900e-002 -2.759872e-002 -4.617042e-001 -6.062152e-002 1.912609e-001 -5.976548e-002 -1.826187e-001 1.926270e-001 -1.287534e-001 -1.329173e-001 2.071090e-001 4.961460e-001 3.790764e-002 3.960142e-002 3.869022e-002 3.318840e-002 -2.677934e-002 -4.145852e-002 -1.249731e-002 -1.544487e-002 -4.738271e-003 -1.812133e-003 -2.618277e-002 -1.444883e-002 -7.254815e-002 6.348199e-003 1.584183e-002 1.721620e-002 3.047890e-002 -3.856124e-003 -3.289628e-002 -2.642964e-003 1.928678e-002 -2.895248e-002 1.580302e-002 2.012446e-003 -2.334593e-002 -4.451960e-002
<VARIANCE> 39
 2.545143e-002 4.039919e-002 2.765764e-002 4.861432e-002 6.512782e-002 4.347319e-002 6.222345e-002 6.580190e-002 4.910069e-002 4.936226e-002 5.762447e-002 3.840234e-002 6.546493e-002 1.805763e-003 4.391871e-003 2.564209e-003 4.822126e-003 5.586703e-003 4.765442e-003 5.361625e-003 6.593637e-003 5.931809e-003 7.253773e-003 4.941931e-003 3.957502e-003 2.759504e-003 6.807207e-004 5.543695e-004 5.044493e-004 1.041401e-003 9.636870e-004 1.162621e-003 1.093694e-003 1.136219e-003 1.045653e-003 9.155325e-004 1.138839e-003 7.436062e-004 6.075944e-004
<GCONST> -1.304557e+002
<MIXTURE> 2 7.257644e-002
<MEAN> 39
 1.883484e-001 -2.660398e-001 -7.797152e-002 -4.282126e-002 -1.590797e-001 -1.288743e-002 -2.629831e-002 -1.183487e-002 4.669219e-002 -1.792669e-001 1.517762e-001 9.541269e-002 3.034354e-001 5.508076e-002 7.713971e-003 1.167823e-002 1.077659e-002 -3.646608e-002 -1.986927e-002 -1.872580e-002 -1.365283e-002 2.400246e-002 -1.637632e-003 -3.932950e-002 2.988576e-003 -2.458233e-002 -1.222704e-002 1.893664e-002 4.660183e-003 7.924213e-003 9.106155e-003 -1.197050e-002 8.858376e-003 3.603414e-003 -5.720038e-003 2.301376e-002 -1.785306e-002 -1.309904e-002 -2.196877e-002
<VARIANCE> 39
 7.779316e-002 1.299904e-001 1.076181e-001 1.272427e-001 1.577860e-001 1.047255e-001 1.285315e-001 1.373924e-001 1.429490e-001 1.697539e-001 1.211893e-001 9.895848e-002 1.038698e-001 8.954715e-003 9.348450e-003 9.793590e-003 9.728502e-003 1.488318e-002 1.248326e-002 1.175518e-002 1.094557e-002 1.565246e-002 1.250230e-002 1.219709e-002 7.981895e-003 8.869031e-003 1.443473e-003 1.449905e-003 1.625944e-003 1.849351e-003 2.382418e-003 2.252883e-003 2.431958e-003 2.504030e-003 2.587631e-003 2.826749e-003 2.256214e-003 1.835767e-003 1.307508e-003
<GCONST> -9.524638e+001
<MIXTURE> 3 1.136938e-001
<MEAN> 39
 4.524317e-002 -4.364014e-001 -2.993875e-001 2.441919e-001 5.260256e-002 -1.332764e-001 3.167762e-001 -2.549122e-001 -3.450723e-001 1.181991e-001 2.846026e-001 5.068467e-002 6.287695e-001 1.342671e-002 4.536816e-003 -3.910936e-003 2.174655e-002 6.912623e-004 -1.515352e-002 -7.194622e-003 7.540316e-003 1.729894e-003 -7.606340e-003 4.028547e-003 1.645092e-003 -1.675497e-002 6.959259e-003 1.594666e-002 1.082827e-002 -1.037722e-002 -7.359800e-003 4.371688e-004 -1.221208e-002 8.631252e-003 1.431776e-002 -7.107206e-003 -1.818648e-002 -1.673492e-003 -1.828777e-002
<VARIANCE> 39
 3.544903e-002 3.722773e-002 5.527863e-002 8.153069e-002 8.390519e-002 6.587370e-002 8.744834e-002 8.637137e-002 6.703523e-002 7.292403e-002 5.627016e-002 4.552777e-002 7.694373e-002 1.188664e-003 1.621385e-003 3.223240e-003 3.984737e-003 3.424664e-003 3.861622e-003 3.245859e-003 4.290482e-003 3.632913e-003 3.735720e-003 3.959062e-003 2.411982e-003 1.794388e-003 2.132692e-004 3.201645e-004 3.714209e-004 4.671597e-004 4.655228e-004 5.753605e-004 6.312430e-004 6.983926e-004 6.648093e-004 5.444240e-004 5.727013e-004 4.304723e-004 3.282353e-004
<GCONST> -1.401221e+002
<MIXTURE> 4 8.146371e-002
<MEAN> 39
 2.852902e-001 -2.408441e-001 -4.582476e-001 1.623242e-001 -5.234120e-002 -4.449007e-001 3.163808e-001 2.786409e-001 -1.529419e-001 -1.581143e-001 2.397370e-002 7.239240e-002 4.761329e-001 5.278702e-002 5.641650e-002 -1.950026e-002 2.371116e-002 3.477459e-002 -3.523125e-002 -1.000697e-001 2.586651e-002 6.613249e-002 -1.998567e-002 -4.639538e-002 -1.367836e-002 -7.244716e-002 -1.630910e-002 3.413454e-002 4.243622e-002 -7.436133e-003 -9.043016e-004 3.841441e-002 -4.329933e-002 -3.641374e-002 1.761902e-002 2.391874e-002 -8.200935e-003 -1.697118e-002 -4.673612e-002
<VARIANCE> 39
 2.597533e-002 4.350101e-002 6.394642e-002 5.625655e-002 1.085531e-001 4.671064e-002 7.723983e-002 7.949565e-002 7.627635e-002 5.425325e-002 4.735499e-002 4.017948e-002 6.547372e-002 3.149248e-003 4.530734e-003 1.511237e-002 5.785963e-003 8.041063e-003 7.172192e-003 8.446186e-003 8.765661e-003 8.485940e-003 7.554702e-003 5.392816e-003 5.041753e-003 6.140984e-003 9.436439e-004 7.371341e-004 1.267418e-003 1.330261e-003 1.432392e-003 1.358105e-003 1.504066e-003 1.707261e-003 1.546475e-003 1.456773e-003 1.209363e-003 8.762453e-004 1.017897e-003
<GCONST> -1.177703e+002
<MIXTURE> 5 1.075839e-001
<MEAN> 39
 1.974082e-001 5.389528e-003 -1.081727e-003 -1.886671e-001 -4.083709e-001 -1.158938e-001 3.457831e-001 -2.748473e-002 -7.937618e-002 3.359798e-001 -2.441476e-001 -1.353486e-001 3.481500e-001 -1.193749e-002 9.814198e-002 4.195694e-002 5.597632e-002 9.373074e-003 3.118664e-004 -5.782462e-002 -4.073369e-002 4.346931e-003 4.200040e-003 -2.347184e-002 6.795783e-004 -1.040210e-001 -3.117481e-002 1.832120e-002 1.831178e-003 4.093695e-002 3.837344e-002 8.919379e-003 -4.034525e-002 5.928963e-003 5.069692e-003 -4.553138e-002 2.663529e-002 1.555132e-002 -4.655210e-002
<VARIANCE> 39
 2.107159e-002 4.072083e-002 4.199245e-002 5.954441e-002 5.224360e-002 6.389315e-002 6.428163e-002 5.678463e-002 7.225734e-002 4.667439e-002 5.104620e-002 4.942436e-002 4.736297e-002 4.822302e-003 5.698877e-003 5.337503e-003 6.842341e-003 5.986365e-003 8.253783e-003 6.758620e-003 7.898433e-003 8.489597e-003 7.432254e-003 7.110785e-003 4.603628e-003 6.907371e-003 1.133987e-003 7.540389e-004 1.064667e-003 1.087226e-003 1.207797e-003 1.417077e-003 1.171428e-003 1.324777e-003 1.545408e-003 1.020644e-003 1.048540e-003 9.403612e-004 1.107412e-003
<GCONST> -1.211513e+002
<MIXTURE> 6 6.818716e-002
<MEAN> 39
 5.219339e-001 -6.597536e-001 -6.497192e-002 3.952852e-001 -6.693053e-001 -4.683693e-002 5.669901e-001 -1.022184e-003 -1.571157e-002 -1.452932e-002 -2.975970e-002 -6.088677e-002 2.104047e-001 3.321420e-003 -7.643901e-005 -7.269793e-003 1.371234e-002 1.335627e-002 2.956486e-006 -8.224590e-003 -6.090868e-004 -8.493074e-003 -5.316025e-003 1.636614e-003 3.715474e-003 -1.550457e-002 -1.502446e-002 1.471360e-002 1.235822e-002 -2.158285e-002 2.499054e-002 1.331194e-002 -2.545174e-002 -6.034442e-003 8.771263e-003 -9.143950e-003 1.485508e-003 7.807218e-003 -3.875689e-003
<VARIANCE> 39
 1.802666e-002 4.870132e-002 4.865301e-002 5.218337e-002 8.431616e-002 1.166720e-001 8.650044e-002 6.419175e-002 6.145262e-002 4.780327e-002 4.104856e-002 4.026243e-002 3.792865e-002 1.182744e-003 1.553063e-003 2.554814e-003 3.642078e-003 3.816966e-003 5.654600e-003 4.258926e-003 4.238637e-003 3.686866e-003 3.190199e-003 2.583429e-003 2.770619e-003 1.344109e-003 2.336240e-004 3.652035e-004 3.161936e-004 4.543475e-004 6.594987e-004 6.300546e-004 7.658484e-004 6.315023e-004 5.578017e-004 5.204760e-004 5.482920e-004 4.820278e-004 2.381704e-004
<GCONST> -1.427370e+002
<MIXTURE> 7 5.811837e-002
<MEAN> 39
 3.789516e-001 -1.110789e-001 -8.685274e-001 1.799580e-001 1.819292e-001 -2.635758e-001 2.550734e-002 1.085057e-001 1.480765e-001 -5.576413e-002 -1.269626e-001 -8.296485e-002 4.376533e-001 1.136458e-002 1.650728e-002 -7.090144e-002 2.058802e-002 1.211069e-002 2.852902e-002 -5.274696e-003 -1.709266e-002 2.606224e-002 1.977807e-002 -8.810407e-003 -1.755399e-002 1.853377e-003 -1.673007e-002 8.508627e-003 6.135906e-002 -2.820730e-003 -2.034446e-002 1.189225e-002 -7.759714e-003 -6.042146e-003 -1.469418e-002 4.172486e-003 1.516223e-002 5.562131e-004 -2.843363e-002
<VARIANCE> 39
 2.330512e-002 4.153766e-002 6.264937e-002 8.025867e-002 9.543941e-002 6.406993e-002 6.039147e-002 8.405039e-002 6.707375e-002 6.010673e-002 5.668592e-002 5.308955e-002 5.416541e-002 1.279501e-003 1.936290e-003 5.196996e-003 3.492810e-003 3.137299e-003 3.622156e-003 3.724862e-003 5.140152e-003 4.447794e-003 4.614310e-003 3.697880e-003 3.521266e-003 1.398968e-003 7.291249e-004 5.082336e-004 1.106072e-003 8.250291e-004 7.035378e-004 1.025796e-003 9.563455e-004 1.047338e-003 9.064519e-004 9.383382e-004 8.997273e-004 7.927691e-004 4.617565e-004
<GCONST> -1.323418e+002
<MIXTURE> 8 9.032942e-002
<MEAN> 39
 3.164579e-001 -4.710955e-001 2.015876e-001 -8.743835e-002 -5.584904e-001 4.129216e-001 1.716474e-001 -1.664493e-001 1.811106e-001 -1.050266e-001 4.171970e-002 -6.731974e-002 2.642871e-001 1.156007e-002 -3.850283e-004 -7.915719e-005 2.961368e-002 -8.433169e-003 -9.915294e-003 7.575466e-003 -1.388209e-002 -1.239620e-002 1.221338e-002 -5.078745e-003 1.394210e-003 -2.447421e-002 -7.718519e-003 1.891424e-002 -5.398943e-004 -4.773357e-003 2.233857e-002 -1.800759e-002 -9.986401e-003 7.007301e-003 -8.834622e-003 3.899931e-003 -2.267835e-003 9.443832e-004 -8.530886e-003
<VARIANCE> 39
 1.919599e-002 6.251987e-002 3.649652e-002 6.908654e-002 8.800254e-002 1.049686e-001 1.250086e-001 6.371904e-002 6.999915e-002 5.157200e-002 4.642549e-002 3.354271e-002 4.580794e-002 1.006687e-003 2.344094e-003 1.678350e-003 4.189203e-003 4.016326e-003 3.535487e-003 4.023810e-003 3.467194e-003 3.422989e-003 2.668981e-003 2.402544e-003 2.036069e-003 1.017163e-003 1.635931e-004 3.167063e-004 2.942212e-004 4.351122e-004 4.990526e-004 5.715201e-004 6.502670e-004 5.065895e-004 5.221730e-004 4.713771e-004 4.109768e-004 3.521319e-004 1.902567e-004
<GCONST> -1.457824e+002
<MIXTURE> 9 8.114477e-002
<MEAN> 39
 1.144103e-001 1.107015e-001 2.154167e-001 -5.865017e-001 -3.185460e-001 2.166827e-001 -2.066298e-001 6.392204e-002 3.023283e-001 -6.686246e-002 -7.527930e-002 -3.675367e-002 3.283657e-001 2.220930e-002 8.130657e-002 5.896089e-002 6.074317e-002 2.110172e-002 -4.440310e-002 -6.740808e-002 -8.065171e-003 -4.155961e-002 -1.928300e-002 6.549766e-003 3.061907e-003 -1.598709e-001 -1.197692e-002 7.347862e-003 -5.407503e-003 7.310787e-002 2.599352e-002 -3.212643e-002 1.968144e-002 -9.297432e-003 -4.715336e-002 6.164644e-003 5.741205e-003 3.139107e-003 -6.749408e-002
<VARIANCE> 39
 2.248229e-002 6.248102e-002 5.335492e-002 5.080135e-002 7.151593e-002 6.799960e-002 9.662877e-002 8.740216e-002 6.444703e-002 5.922481e-002 6.275322e-002 4.954348e-002 4.164105e-002 4.398619e-003 8.200166e-003 4.975942e-003 9.693992e-003 1.017325e-002 9.023231e-003 1.136030e-002 1.080868e-002 9.730997e-003 7.712202e-003 8.152584e-003 6.551001e-003 1.060555e-002 1.182509e-003 1.177829e-003 1.021260e-003 1.395071e-003 1.561299e-003 1.609285e-003 1.996984e-003 2.049174e-003 1.441605e-003 1.384546e-003 1.474737e-003 1.061633e-003 1.614128e-003
<GCONST> -1.129407e+002
<MIXTURE> 10 4.645274e-002
<MEAN> 39
 5.020297e-002 5.193520e-001 -2.125270e-002 -6.648837e-001 8.734537e-002 -3.404766e-001 -1.391150e-001 2.666202e-001 -2.831484e-002 8.460186e-002 -1.024245e-001 -5.674715e-002 2.503291e-001 3.873279e-002 4.875679e-002 4.633333e-002 8.290315e-002 4.609335e-003 -3.783138e-002 -7.279672e-003 -3.159112e-002 -6.156078e-002 1.010758e-002 -2.400861e-002 -1.494662e-002 -1.415609e-001 -6.232846e-003 -3.045599e-002 2.180026e-002 6.216424e-002 -1.911641e-002 3.367600e-002 2.816463e-003 -2.930050e-002 2.293125e-003 -1.562328e-002 8.516344e-003 9.644389e-003 -4.649446e-002
<VARIANCE> 39
 2.220029e-002 6.209502e-002 6.332546e-002 5.625978e-002 6.207695e-002 8.244689e-002 1.276798e-001 7.380608e-002 6.399158e-002 5.248727e-002 7.101512e-002 3.635748e-002 4.651503e-002 4.089479e-003 6.037217e-003 5.827674e-003 6.558365e-003 7.298051e-003 9.137964e-003 5.979510e-003 7.499667e-003 7.669930e-003 6.320633e-003 5.844996e-003 4.466541e-003 1.079214e-002 1.001281e-003 9.324490e-004 1.017267e-003 1.733196e-003 1.327083e-003 1.523008e-003 1.954697e-003 1.715446e-003 1.333043e-003 1.263945e-003 1.489738e-003 8.262956e-004 1.388896e-003
<GCONST> -1.169662e+002
<MIXTURE> 11 7.021079e-002
<MEAN> 39
 2.721890e-001 -2.588295e-001 -2.302757e-002 -8.518076e-002 -3.499818e-001 -1.207013e-001 2.483081e-001 2.164870e-001 -1.906691e-001 -4.443276e-002 2.506314e-001 -3.035329e-001 3.916386e-001 5.528196e-002 5.480530e-002 3.192011e-002 8.173700e-002 1.469178e-002 -8.581018e-002 -7.584547e-002 4.421441e-002 -1.541323e-002 -6.830339e-002 2.819535e-002 1.910684e-002 -1.266924e-001 -2.290350e-002 4.553438e-002 1.696378e-002 1.395267e-002 3.005155e-002 4.563318e-003 -3.916843e-002 -2.769296e-002 1.916976e-002 1.496247e-004 -4.056455e-002 3.911686e-002 -5.659514e-002
<VARIANCE> 39
 2.081108e-002 4.969928e-002 4.756546e-002 4.755688e-002 7.305633e-002 8.824966e-002 7.177649e-002 8.371533e-002 8.271077e-002 7.123156e-002 4.647170e-002 3.697652e-002 4.986881e-002 3.721291e-003 7.091255e-003 6.846375e-003 7.105712e-003 7.112477e-003 1.001052e-002 8.618469e-003 1.077315e-002 8.833318e-003 9.418368e-003 7.875656e-003 5.817308e-003 9.258945e-003 1.036653e-003 9.142397e-004 1.068303e-003 1.365836e-003 1.452063e-003 1.811752e-003 1.731789e-003 1.922784e-003 1.683580e-003 1.416905e-003 1.100729e-003 8.444829e-004 1.493449e-003
<GCONST> -1.154303e+002
<MIXTURE> 12 8.771452e-002
<MEAN> 39
 9.979571e-002 -2.337097e-001 -1.592948e-001 -2.189378e-002 -2.431806e-001 8.707921e-002 3.031208e-001 -3.200570e-001 -2.046677e-001 1.919033e-001 -7.129348e-002 2.684069e-002 5.551458e-001 4.981155e-002 6.498589e-002 5.085604e-002 1.123776e-002 -2.930812e-002 -6.980883e-002 -2.168922e-002 4.862555e-002 -2.350361e-002 -6.963911e-003 -1.698680e-002 -2.890973e-002 -8.713622e-002 7.526754e-003 3.306893e-002 2.858844e-002 -1.340573e-003 1.184550e-002 -3.248199e-002 -3.631142e-002 3.664837e-002 8.345854e-003 -2.195016e-002 4.803761e-003 -3.520643e-003 -4.899123e-002
<VARIANCE> 39
 2.800262e-002 4.254717e-002 4.054790e-002 6.269188e-002 5.275653e-002 5.533789e-002 8.879818e-002 7.177027e-002 7.200360e-002 3.759789e-002 5.734418e-002 3.745442e-002 6.910527e-002 2.167729e-003 3.944943e-003 5.256108e-003 8.565365e-003 5.768588e-003 8.283050e-003 7.493750e-003 8.971915e-003 8.940397e-003 6.785512e-003 7.955339e-003 4.406485e-003 3.062636e-003 6.305071e-004 6.398108e-004 7.717215e-004 1.043567e-003 1.091084e-003 1.402378e-003 1.497169e-003 1.606461e-003 1.335482e-003 9.864966e-004 1.097228e-003 6.916430e-004 7.342240e-004
<GCONST> -1.235720e+002
<STATE> 4
<NUMMIXES> 12
<MIXTURE> 1 7.185055e-002
<MEAN> 39
 1.696493e-001 1.859241e-001 1.004110e-002 -1.187774e-002 -3.594973e-001 -1.003845e-001 2.789777e-001 -5.957712e-002 -1.204237e-001 3.426651e-001 -2.223004e-001 -1.916827e-001 1.927326e-001 -1.090181e-001 1.213878e-001 1.898063e-002 1.177394e-001 6.081733e-002 5.424910e-002 -9.101735e-002 -3.996335e-002 3.302700e-002 -4.829960e-002 -1.192168e-003 2.901598e-002 -1.197853e-001 -4.336728e-002 -1.755526e-002 -1.311184e-002 1.811388e-002 2.952795e-002 1.633949e-002 -1.873993e-002 1.410973e-002 1.081405e-002 -3.911449e-002 2.584398e-002 2.223495e-002 -8.702077e-003
<VARIANCE> 39
 2.441975e-002 3.934472e-002 3.688189e-002 6.486222e-002 5.848569e-002 6.250617e-002 5.421014e-002 6.265329e-002 5.920918e-002 4.612042e-002 5.452485e-002 3.870027e-002 5.075316e-002 6.626076e-003 7.192679e-003 6.995648e-003 6.279079e-003 7.513213e-003 8.379263e-003 7.663955e-003 7.959641e-003 7.719854e-003 6.585764e-003 6.045210e-003 5.137151e-003 4.337354e-003 6.879735e-004 6.585683e-004 6.993947e-004 1.113773e-003 1.039812e-003 1.059545e-003 8.706742e-004 1.341781e-003 1.126353e-003 9.644683e-004 1.060875e-003 6.850794e-004 4.150822e-004
<GCONST> -1.244222e+002
<MIXTURE> 2 8.867589e-002
<MEAN> 39
 1.699032e-001 4.255895e-001 2.243030e-001 -3.810711e-001 -1.753857e-001 -5.494350e-002 -2.432729e-001 1.266187e-001 4.442891e-003 -2.043519e-002 -1.068812e-001 -1.040970e-001 -9.379212e-002 -5.159095e-004 5.261254e-002 6.971727e-002 1.723010e-001 2.454820e-002 -4.037706e-002 -1.934156e-002 -4.823123e-002 -7.614795e-002 -2.178149e-002 1.400337e-002 7.334506e-003 -2.559439e-001 -3.370924e-002 -4.191671e-002 -1.567648e-002 3.536427e-002 1.779192e-002 1.192384e-002 3.066609e-002 -8.446618e-003 3.291387e-003 1.570581e-003 1.014062e-002 1.370270e-002 2.430270e-004
<VARIANCE> 39
 2.858025e-002 7.335275e-002 6.703212e-002 9.269189e-002 9.967523e-002 1.392214e-001 1.454969e-001 9.777714e-002 1.056479e-001 8.416462e-002 8.848562e-002 4.910362e-002 7.663313e-002 8.415070e-003 8.871082e-003 6.289477e-003 8.323947e-003 9.751137e-003 1.096709e-002 9.610869e-003 9.556433e-003 8.457077e-003 7.706939e-003 6.624400e-003 5.375102e-003 1.493328e-002 8.235591e-004 1.159478e-003 1.166551e-003 1.607861e-003 1.787545e-003 2.332454e-003 2.437602e-003 2.002518e-003 2.086475e-003 1.750536e-003 1.786425e-003 1.009977e-003 1.970895e-003
<GCONST> -1.063568e+002
<MIXTURE> 3 7.676909e-002
<MEAN> 39
 4.015836e-001 -8.151079e-002 -7.228508e-001 8.365159e-002 2.114837e-001 -3.605171e-001 -1.255095e-002 1.510165e-001 1.833224e-001 -1.439295e-002 -1.964512e-001 -7.515092e-002 3.618642e-001 3.908120e-002 6.586134e-002 1.315696e-003 -1.221128e-002 1.193518e-003 3.137330e-002 -7.073367e-002 -4.713349e-002 4.068358e-002 6.023907e-002 -1.073294e-002 -4.813320e-002 -7.285335e-002 -1.711476e-002 6.427100e-003 5.041344e-002 -8.146415e-004 -2.512015e-002 2.077020e-002 4.208968e-003 -1.555197e-002 -2.586666e-002 3.730191e-003 2.615721e-002 3.772892e-003 -1.819770e-002
<VARIANCE> 39
 2.560360e-002 4.955622e-002 9.195920e-002 6.567746e-002 9.229249e-002 8.490650e-002 7.447047e-002 9.442437e-002 7.214236e-002 7.782524e-002 4.950284e-002 6.210068e-002 6.079191e-002 2.741354e-003 3.594297e-003 1.380276e-002 5.037226e-003 7.073976e-003 6.936528e-003 9.995406e-003 8.784818e-003 8.768974e-003 7.361635e-003 6.480743e-003 5.127797e-003 4.387347e-003 6.745495e-004 5.682244e-004 1.208950e-003 1.014671e-003 8.503986e-004 1.506162e-003 1.373120e-003 1.586362e-003 1.138456e-003 1.539950e-003 9.901859e-004 1.055721e-003 6.628717e-004
<GCONST> -1.187636e+002
<MIXTURE> 4 1.107346e-001
<MEAN> 39
 1.550125e-001 -2.036531e-002 3.358473e-002 -2.182195e-001 -1.887018e-001 7.216252e-002 3.851772e-003 -2.409910e-001 -2.737289e-002 8.134884e-002 -1.372862e-001 5.230608e-002 3.561696e-001 7.060000e-002 5.427710e-002 7.499976e-002 1.225591e-002 -1.044824e-002 -1.344774e-001 -2.587032e-002 5.429180e-002 -5.014662e-002 2.183578e-002 -2.161989e-002 -3.289461e-002 -1.161149e-001 3.662557e-003 9.965592e-003 7.468040e-003 -1.897182e-003 1.317336e-002 -2.755985e-002 -5.428181e-003 2.350754e-002 -6.585373e-003 -6.965416e-003 5.449307e-003 -3.295460e-003 -1.722442e-002
<VARIANCE> 39
 2.376307e-002 4.442793e-002 3.729439e-002 6.471330e-002 6.564186e-002 7.322861e-002 1.102401e-001 8.280606e-002 9.483232e-002 6.924203e-002 7.039307e-002 5.636281e-002 5.705548e-002 1.956903e-003 5.475849e-003 4.155035e-003 8.293607e-003 9.255894e-003 8.550999e-003 1.133944e-002 9.939242e-003 9.362879e-003 9.085886e-003 9.291530e-003 6.079515e-003 2.059684e-003 3.496925e-004 4.972257e-004 5.500985e-004 8.630828e-004 9.083287e-004 1.310645e-003 1.442252e-003 1.244055e-003 1.150947e-003 1.033555e-003 1.026738e-003 7.820696e-004 3.208565e-004
<GCONST> -1.229681e+002
<MIXTURE> 5 5.645065e-002
<MEAN> 39
 3.322028e-001 -1.898958e-001 -8.745446e-001 3.440772e-001 8.345335e-002 -2.434228e-001 8.947589e-002 1.019583e-001 8.476177e-002 -1.541671e-001 -1.293225e-002 -3.885719e-003 4.981360e-001 1.289735e-002 1.333575e-002 -2.766868e-002 1.813530e-002 -1.465924e-003 2.345024e-002 -3.023595e-002 -3.176833e-003 2.126245e-002 6.538390e-004 -3.378929e-003 -1.429357e-002 -1.589469e-002 1.677995e-003 7.797628e-003 3.574583e-002 -1.485369e-002 -1.019264e-002 -1.023321e-003 -1.012043e-002 -1.456391e-003 -9.824873e-003 8.416595e-003 5.829642e-004 -6.302790e-003 -1.872848e-002
<VARIANCE> 39
 2.497856e-002 3.699316e-002 5.532865e-002 6.807759e-002 9.907727e-002 5.218948e-002 6.075484e-002 7.037150e-002 5.748437e-002 4.444975e-002 5.528207e-002 5.486185e-002 5.992869e-002 6.898145e-004 9.117299e-004 1.944381e-003 1.800527e-003 1.868145e-003 2.067839e-003 2.625046e-003 2.801156e-003 2.699850e-003 2.507681e-003 2.387685e-003 2.347024e-003 6.623727e-004 2.292684e-004 2.332948e-004 6.850588e-004 4.347020e-004 3.525444e-004 4.264239e-004 4.800161e-004 5.404978e-004 4.887813e-004 4.872748e-004 4.798884e-004 4.526660e-004 2.458273e-004
<GCONST> -1.501833e+002
<MIXTURE> 6 9.421131e-002
<MEAN> 39
 1.793713e-001 1.710986e-001 8.097427e-002 -3.913144e-001 -2.555269e-001 4.073344e-002 1.778763e-002 -1.913587e-001 2.454231e-001 -7.992080e-002 -2.906669e-001 1.466450e-001 2.717935e-001 5.545242e-003 9.543894e-002 6.271534e-002 1.114863e-001 1.046605e-002 -4.897767e-002 -5.872789e-002 -6.453596e-003 -5.986553e-002 -1.641185e-002 -5.678089e-004 -2.870823e-002 -1.625074e-001 -2.831262e-002 -1.022835e-002 -3.961395e-003 3.835390e-002 2.054135e-002 2.388251e-003 -2.107881e-003 2.135300e-002 -2.924081e-002 8.425845e-003 2.966240e-002 -1.414233e-002 -2.274138e-002
<VARIANCE> 39
 2.263621e-002 3.550802e-002 3.408102e-002 5.416393e-002 5.729963e-002 3.848692e-002 5.777708e-002 6.032110e-002 5.561165e-002 8.958393e-002 5.472796e-002 3.214386e-002 7.143071e-002 6.397133e-003 4.159083e-003 4.339431e-003 6.518000e-003 6.791590e-003 5.225357e-003 6.469960e-003 7.536805e-003 7.495295e-003 7.071179e-003 5.720180e-003 4.325220e-003 9.380643e-003 8.934155e-004 7.595267e-004 5.809401e-004 8.925174e-004 9.228488e-004 8.142135e-004 1.056974e-003 1.173704e-003 1.220055e-003 1.549827e-003 1.037598e-003 6.076875e-004 7.314785e-004
<GCONST> -1.251600e+002
<MIXTURE> 7 1.079720e-001
<MEAN> 39
 3.838731e-001 -2.928554e-002 -3.491852e-002 1.207888e-001 -2.431124e-001 -3.527437e-001 7.844114e-002 2.345227e-001 -2.114919e-001 -9.323085e-002 5.305439e-002 -1.190592e-001 7.739554e-002 1.346528e-002 1.321897e-001 1.006685e-001 6.447177e-002 2.801624e-002 -3.433991e-002 -1.223726e-001 -2.972568e-002 -8.027970e-003 -4.145291e-002 -2.192975e-002 1.776956e-002 -2.006319e-001 -4.100253e-002 4.530689e-003 9.377114e-003 -7.008746e-003 1.775302e-002 3.934794e-002 -9.788158e-004 -3.190570e-002 1.573886e-002 1.208868e-002 -1.043901e-002 1.193625e-002 -1.041976e-002
<VARIANCE> 39
 2.346423e-002 4.969885e-002 6.218318e-002 4.596888e-002 7.521520e-002 6.602528e-002 9.667183e-002 8.514364e-002 8.639214e-002 8.414796e-002 6.220756e-002 4.830542e-002 6.543684e-002 6.847219e-003 6.064394e-003 7.834773e-003 7.397357e-003 8.500585e-003 1.203505e-002 1.070073e-002 1.174376e-002 8.466519e-003 9.317300e-003 7.547672e-003 6.223624e-003 1.142703e-002 7.349301e-004 8.333899e-004 9.109422e-004 9.520093e-004 1.219180e-003 1.163901e-003 1.521137e-003 1.465475e-003 1.658257e-003 1.481525e-003 1.266670e-003 9.065886e-004 1.114428e-003
<GCONST> -1.145336e+002
<MIXTURE> 8 1.207344e-001
<MEAN> 39
 2.199203e-001 -1.607086e-001 -2.539479e-002 1.732507e-002 -1.858220e-001 -7.950492e-002 1.127192e-001 -1.052660e-001 -8.272651e-002 8.863040e-002 1.738540e-002 -4.883996e-002 2.344705e-001 -1.259733e-003 3.081863e-002 2.392610e-002 2.323838e-002 5.075200e-003 -9.871613e-003 -2.516424e-002 -5.859539e-003 -2.263901e-003 1.245110e-003 -7.244931e-003 -7.036121e-004 -4.436984e-002 -9.012553e-003 2.360556e-003 2.303897e-003 -9.582939e-006 4.373818e-003 5.945759e-003 -2.942141e-003 1.406204e-003 3.442921e-003 -7.083510e-003 -6.486162e-004 3.633688e-003 -2.518571e-003
<VARIANCE> 39
 4.024791e-002 1.142547e-001 6.588174e-002 1.314689e-001 1.221280e-001 1.205515e-001 1.096537e-001 1.294997e-001 8.857747e-002 8.204340e-002 6.542617e-002 5.287609e-002 8.279464e-002 1.258167e-003 2.909406e-003 3.284347e-003 4.046179e-003 4.190946e-003 4.607311e-003 4.647979e-003 4.578835e-003 4.645415e-003 4.478336e-003 3.968661e-003 3.144625e-003 1.987436e-003 2.519471e-004 4.082632e-004 4.687912e-004 6.045769e-004 5.818268e-004 7.353734e-004 7.247938e-004 8.192930e-004 7.187236e-004 6.765300e-004 6.075277e-004 5.368758e-004 2.654906e-004
<GCONST> -1.315344e+002
<MIXTURE> 9 1.792184e-002
<MEAN> 39
 6.209556e-001 -6.646831e-001 -2.480034e-001 3.616255e-001 -4.384975e-001 -2.558040e-001 3.677472e-001 -2.885038e-002 4.708305e-001 -1.783931e-001 -2.878722e-001 -8.405119e-003 3.528194e-001 9.406731e-002 2.564421e-002 -5.829734e-002 7.365856e-002 -1.664450e-002 -1.091322e-001 5.286610e-004 -3.725547e-002 9.182409e-003 1.881530e-001 -5.165258e-002 -1.501329e-001 -7.568137e-002 -1.611877e-002 2.161849e-002 -5.123051e-003 -2.102561e-002 4.371725e-002 3.706155e-003 -2.301572e-002 1.158249e-002 -4.890959e-002 5.006044e-003 5.886446e-002 -1.516736e-002 -3.930755e-003
<VARIANCE> 39
 2.651669e-002 2.330667e-002 3.868524e-002 3.852679e-002 3.630507e-002 7.293425e-002 5.897349e-002 5.176006e-002 5.387253e-002 1.060205e-001 3.558569e-002 9.525777e-002 3.701038e-002 1.267873e-003 2.537566e-003 2.563752e-003 4.040049e-003 1.044059e-002 4.885694e-003 1.110655e-002 6.716283e-003 9.813662e-003 6.896019e-003 1.587656e-002 6.399270e-003 1.337111e-003 2.453041e-004 3.974058e-004 7.591480e-004 6.846916e-004 1.153892e-003 1.917908e-003 1.145042e-003 9.399329e-004 1.527278e-003 3.032377e-003 1.224064e-003 2.766679e-003 4.866803e-004
<GCONST> -1.269021e+002
<MIXTURE> 10 8.927932e-002
<MEAN> 39
 4.904485e-002 2.704867e-002 1.962592e-001 -1.034887e-001 3.700823e-002 2.619682e-002 -1.653804e-001 -2.011394e-001 -4.020197e-002 -2.715443e-002 -1.549899e-002 5.662230e-002 7.700517e-002 -1.499006e-002 4.280549e-002 2.563217e-002 5.236378e-002 3.980752e-002 -2.984656e-002 -3.065296e-002 5.451018e-003 -2.170116e-002 -2.847295e-003 -4.556951e-003 -3.600114e-003 -8.929823e-002 -2.417792e-003 -1.055210e-002 -2.091857e-002 6.156636e-003 -1.566643e-002 -1.904713e-003 2.411378e-002 2.048513e-002 5.896319e-003 6.361995e-003 3.015382e-003 -7.164798e-003 2.845038e-003
<VARIANCE> 39
 5.100906e-002 1.023376e-001 9.608018e-002 1.972544e-001 9.269205e-002 1.326344e-001 1.077271e-001 1.396731e-001 8.932831e-002 9.331234e-002 7.374316e-002 6.714600e-002 1.285686e-001 1.132947e-002 8.543283e-003 7.614049e-003 9.350265e-003 1.290850e-002 1.108511e-002 1.152510e-002 1.061553e-002 1.124978e-002 8.309656e-003 7.853511e-003 5.993509e-003 9.502267e-003 8.246620e-004 1.056251e-003 1.347857e-003 1.981948e-003 1.387497e-003 1.777575e-003 1.559582e-003 1.843557e-003 1.574866e-003 1.527465e-003 1.395953e-003 1.061360e-003 1.153665e-003
<GCONST> -1.044208e+002
<MIXTURE> 11 8.571529e-002
<MEAN> 39
 3.664523e-001 -4.430120e-001 1.969907e-001 4.592522e-002 -5.922951e-001 2.436706e-001 2.268178e-001 -2.045885e-001 1.731196e-001 -7.690593e-002 -4.599325e-003 -2.021980e-002 1.776928e-001 -3.981968e-002 7.980963e-002 3.992961e-002 -1.436958e-002 9.488326e-002 -6.235398e-003 -8.441059e-002 -1.042354e-002 -2.040457e-002 -6.979287e-003 -7.207710e-003 1.375827e-002 -7.711073e-002 -2.829521e-002 2.688456e-002 -8.506351e-003 1.631716e-004 4.449801e-002 -1.850004e-002 -1.505111e-002 1.993324e-002 -1.775271e-002 8.789286e-004 5.376440e-003 -2.783041e-003 -1.455458e-002
<VARIANCE> 39
 2.587879e-002 7.761011e-002 7.328572e-002 1.113337e-001 9.061671e-002 1.110000e-001 1.280046e-001 8.909359e-002 8.771673e-002 6.788047e-002 5.364850e-002 5.055280e-002 7.705897e-002 4.793676e-003 8.381907e-003 5.254174e-003 1.124058e-002 1.116980e-002 1.148432e-002 1.044862e-002 8.152018e-003 9.065257e-003 8.163247e-003 6.512127e-003 5.134834e-003 1.104062e-002 8.362366e-004 8.248491e-004 9.414778e-004 1.094330e-003 1.350439e-003 1.299641e-003 1.532901e-003 1.267288e-003 1.336959e-003 1.156717e-003 9.871288e-004 9.757936e-004 7.607539e-004
<GCONST> -1.133171e+002
<MIXTURE> 12 7.969981e-002
<MEAN> 39
 2.522573e-001 -3.380274e-001 -3.469075e-001 2.494323e-001 -1.695728e-001 -2.027245e-001 2.190257e-001 7.328212e-002 -2.134846e-001 -1.766732e-001 2.657588e-001 1.493231e-002 4.802811e-001 4.961006e-002 4.682205e-002 -1.337363e-002 2.140678e-002 1.470898e-002 -6.149034e-002 -7.975297e-002 8.063649e-002 4.483202e-002 -4.978686e-002 -3.656126e-002 5.358783e-003 -6.751619e-002 -2.603439e-003 2.539174e-002 2.388470e-002 -2.679507e-002 1.122130e-003 5.834480e-003 -2.346122e-002 -1.082877e-002 2.131257e-002 2.280066e-002 -3.638082e-002 -6.578155e-003 -1.870104e-002
<VARIANCE> 39
 2.940348e-002 4.229239e-002 8.783811e-002 7.415286e-002 9.435780e-002 6.197241e-002 9.699403e-002 1.084261e-001 8.516248e-002 7.569125e-002 5.124396e-002 5.624031e-002 7.203938e-002 1.706610e-003 3.407537e-003 1.082770e-002 6.622641e-003 7.875952e-003 7.938000e-003 9.103293e-003 9.115435e-003 8.755548e-003 7.090457e-003 6.965729e-003 5.317342e-003 2.252693e-003 3.494706e-004 4.285918e-004 8.228287e-004 8.638105e-004 9.058457e-004 1.203469e-003 1.385949e-003 1.591894e-003 1.313492e-003 1.332638e-003 9.128698e-004 9.789624e-004 3.832389e-004
<GCONST> -1.216031e+002
<TRANSP> 5
 0.000000e+000 1.000000e+000 0.000000e+000 0.000000e+000 0.000000e+000
 0.000000e+000 3.640258e-001 6.359742e-001 0.000000e+000 0.000000e+000
 0.000000e+000 0.000000e+000 3.392000e-001 6.607999e-001 0.000000e+000
 0.000000e+000 0.000000e+000 0.000000e+000 2.199908e-001 7.800092e-001
 0.000000e+000 0.000000e+000 0.000000e+000 0.000000e+000 0.000000e+000
<ENDHMM>
~h "@"
<BEGINHMM>
<NUMSTATES> 5
<STATE> 2
<NUMMIXES> 12
<MIXTURE> 1 9.404881e-002
<MEAN> 39
 -1.383045e-001 -4.579865e-001 -1.583605e-002 -1.306001e-001 3.579297e-001 1.436329e-001 -2.908161e-001 -3.547456e-001 1.683949e-001 1.575501e-001 1.410007e-001 1.447420e-001 7.785714e-001 -2.242546e-002 -4.078516e-002 2.947463e-002 4.476153e-002 1.093167e-002 -2.468263e-002 -6.996156e-003 3.453650e-003 2.861583e-002 2.258946e-002 -1.484984e-002 -1.098450e-002 3.268976e-002 6.431341e-003 1.917028e-002 1.249774e-003 -2.279644e-003 -2.018065e-002 -7.512993e-003 1.794139e-002 1.094077e-002 -1.444961e-002 -1.043449e-002 -1.106836e-002 1.410218e-003 -2.442553e-002
<VARIANCE> 39
 2.812585e-002 3.455190e-002 2.301076e-002 3.710201e-002 4.307291e-002 5.015429e-002 3.854132e-002 5.177969e-002 3.508317e-002 3.539891e-002 3.010292e-002 2.748241e-002 7.040263e-002 1.495737e-003 2.021567e-003 1.916897e-003 3.090781e-003 2.800884e-003 4.441591e-003 4.289123e-003 2.880030e-003 2.863222e-003 3.663473e-003 2.945456e-003 2.593890e-003 1.714402e-003 3.614340e-004 3.743771e-004 3.375830e-004 4.616538e-004 6.061515e-004 5.659616e-004 6.029892e-004 6.589780e-004 5.074553e-004 4.951212e-004 5.547502e-004 4.166169e-004 4.770579e-004
<GCONST> -1.473177e+002
<MIXTURE> 2 6.512066e-002
<MEAN> 39
 8.579933e-003 -5.644627e-001 -1.920103e-001 2.006071e-001 1.494986e-001 -7.106942e-002 1.812614e-001 -4.276510e-001 -2.424707e-001 2.425684e-001 1.796937e-001 3.305010e-002 7.740021e-001 -8.943947e-003 1.609115e-003 1.761802e-002 -9.903633e-003 4.028561e-003 5.998578e-003 -1.619840e-002 -1.452856e-002 1.774478e-002 9.024121e-003 -2.146085e-002 6.178571e-003 1.426367e-003 6.552029e-003 5.305827e-003 -1.067830e-003 -8.901293e-003 -6.255471e-003 7.899691e-003 -2.024194e-003 1.070250e-002 -1.946003e-003 -1.172621e-002 -3.394813e-004 1.114274e-003 -6.354776e-003
<VARIANCE> 39
 2.369521e-002 1.871563e-002 4.040967e-002 5.485931e-002 4.570794e-002 6.851771e-002 5.471368e-002 6.148733e-002 6.962061e-002 6.108621e-002 3.696415e-002 3.118967e-002 3.627651e-002 4.366721e-004 5.874014e-004 1.134804e-003 1.838099e-003 1.662536e-003 2.648329e-003 1.952570e-003 1.841577e-003 2.120839e-003 2.042254e-003 1.872106e-003 1.715263e-003 2.857007e-004 7.955811e-005 1.254638e-004 1.813715e-004 2.571547e-004 2.910985e-004 3.889365e-004 3.402289e-004 3.661037e-004 4.210807e-004 4.356088e-004 3.866917e-004 2.983246e-004 5.275793e-005
<GCONST> -1.639750e+002
<MIXTURE> 3 8.259165e-002
<MEAN> 39
 -6.045974e-002 5.447010e-002 -2.527680e-001 -3.346434e-001 4.977503e-001 -1.792918e-001 -1.748745e-001 -1.258355e-001 -1.193310e-001 6.667311e-002 1.695041e-001 1.741075e-002 5.385964e-001 -3.802618e-003 -2.314865e-002 1.805480e-002 1.888599e-002 3.133683e-003 6.086333e-003 -2.290106e-002 -3.661765e-005 1.469617e-002 -1.962746e-003 1.821905e-002 -8.759490e-003 1.478818e-002 1.473503e-003 -5.715097e-003 1.305173e-002 2.437740e-003 -1.841468e-002 1.264945e-002 -2.474896e-003 -1.113483e-003 1.191306e-002 -8.340887e-003 -3.720552e-003 5.980804e-003 -7.534603e-003
<VARIANCE> 39
 2.354971e-002 5.663319e-002 3.719762e-002 6.795293e-002 4.809258e-002 6.381110e-002 6.739096e-002 5.572593e-002 4.408191e-002 5.069395e-002 5.059420e-002 3.745135e-002 4.719371e-002 8.553850e-004 2.207261e-003 2.183516e-003 2.003585e-003 2.460473e-003 3.798923e-003 3.758216e-003 2.832787e-003 3.036187e-003 2.780122e-003 3.006722e-003 2.220222e-003 1.051991e-003 1.927505e-004 2.597128e-004 2.725058e-004 3.741037e-004 5.051568e-004 4.656694e-004 5.314146e-004 5.310661e-004 4.550300e-004 4.316070e-004 5.617673e-004 4.081159e-004 2.792154e-004
<GCONST> -1.488939e+002
<MIXTURE> 4 6.759601e-002
<MEAN> 39
 -1.570699e-001 -2.437707e-001 -1.252620e-001 -4.057214e-001 2.758988e-001 3.799179e-001 -1.169362e-001 -3.249606e-001 -2.239577e-002 -3.368866e-002 1.350690e-001 3.144059e-001 7.671238e-001 -2.569956e-002 -4.440077e-002 1.169670e-002 6.255484e-002 5.781818e-002 -4.004188e-003 -5.550219e-002 -6.260043e-002 1.369975e-003 4.575851e-002 4.816484e-002 -3.251194e-003 3.765251e-002 9.677025e-003 1.471388e-002 1.369437e-002 1.566288e-002 -2.352345e-002 -2.995343e-002 5.208543e-003 2.006161e-002 9.909307e-003 9.924361e-003 -2.099046e-002 -2.425370e-002 -2.911426e-002
<VARIANCE> 39
 2.732185e-002 3.805652e-002 2.213573e-002 3.855656e-002 4.781060e-002 4.244648e-002 5.280423e-002 5.949455e-002 4.059789e-002 4.021115e-002 3.880718e-002 3.146423e-002 8.226850e-002 1.331326e-003 2.473091e-003 1.569823e-003 2.909694e-003 3.763328e-003 3.418606e-003 4.712323e-003 4.279904e-003 3.470646e-003 3.845018e-003 3.772000e-003 3.409171e-003 1.852401e-003 3.601869e-004 3.628377e-004 2.974837e-004 6.031252e-004 5.838745e-004 5.515988e-004 6.835831e-004 6.863985e-004 5.796015e-004 6.072637e-004 6.169141e-004 4.633868e-004 6.103385e-004
<GCONST> -1.438477e+002
<MIXTURE> 5 8.656753e-002
<MEAN> 39
 6.495900e-002 -3.190820e-001 -7.710434e-002 -1.974305e-001 -4.899789e-002 2.515551e-001 1.539962e-001 -3.100171e-001 -2.189925e-001 1.866360e-001 -1.333148e-001 9.315299e-002 5.884578e-001 -4.215915e-003 -4.935752e-002 -2.223162e-002 -1.334795e-002 1.457008e-002 2.498341e-002 1.106789e-002 -4.396539e-002 -1.646908e-002 1.022668e-002 2.054227e-002 2.142630e-002 9.634460e-002 -1.669890e-002 2.564255e-002 1.484311e-002 2.173633e-002 1.075603e-002 -1.468033e-002 -1.415258e-002 1.506187e-002 1.680289e-002 -9.595135e-003 9.765849e-003 -6.049764e-003 -4.636418e-002
<VARIANCE> 39
 2.341425e-002 4.203488e-002 3.067136e-002 6.854484e-002 5.320638e-002 5.653427e-002 6.888092e-002 5.768498e-002 5.772502e-002 3.954804e-002 4.388990e-002 4.237543e-002 6.729098e-002 3.352468e-003 3.896995e-003 2.957127e-003 5.326469e-003 5.729050e-003 4.819421e-003 5.951629e-003 5.520872e-003 4.950956e-003 4.226951e-003 4.835244e-003 3.656141e-003 7.736297e-003 6.999873e-004 6.149451e-004 5.896847e-004 9.437613e-004 7.586078e-004 9.412644e-004 9.875260e-004 8.872029e-004 8.455844e-004 7.766663e-004 7.255845e-004 6.435679e-004 9.590386e-004
<GCONST> -1.304410e+002
<MIXTURE> 6 9.038449e-002
<MEAN> 39
 -1.185495e-001 1.860266e-002 -9.373133e-002 -4.548583e-001 4.138956e-001 7.224327e-002 -2.529311e-001 -6.226109e-002 -6.384176e-002 -9.951586e-002 1.602425e-001 1.574520e-001 6.973791e-001 1.530116e-004 -3.913625e-003 4.978041e-003 8.122764e-003 1.586229e-003 -1.892537e-003 -5.131353e-003 -4.310480e-003 5.164826e-003 -6.659327e-004 3.892582e-003 2.370192e-003 -3.783776e-004 3.652350e-003 -5.581412e-003 3.433956e-003 2.868295e-003 -1.121409e-002 6.712542e-003 1.332213e-003 -5.675589e-003 5.457704e-003 3.145776e-004 -5.109393e-003 2.663242e-003 -2.616654e-003
<VARIANCE> 39
 2.048949e-002 4.940208e-002 3.105069e-002 5.354876e-002 4.988513e-002 6.274240e-002 3.737060e-002 3.910278e-002 3.583356e-002 3.374739e-002 3.165426e-002 4.525207e-002 6.194533e-002 2.656383e-004 7.276956e-004 5.769449e-004 7.129562e-004 1.042463e-003 1.316505e-003 9.353292e-004 1.103499e-003 1.016987e-003 9.382648e-004 9.692195e-004 8.775610e-004 2.206773e-004 5.045618e-005 9.021411e-005 8.916169e-005 1.352769e-004 1.915944e-004 1.653747e-004 1.753134e-004 1.851941e-004 1.642897e-004 1.841969e-004 1.915151e-004 1.533875e-004 3.902265e-005
<GCONST> -1.804240e+002
<MIXTURE> 7 7.511393e-002
<MEAN> 39
 -3.756505e-002 -2.636878e-001 -3.207019e-002 -2.764734e-001 7.882443e-002 3.862619e-001 3.412970e-003 -3.826579e-001 -1.159999e-001 1.015014e-001 -1.146165e-001 2.205891e-001 6.588140e-001 -1.777285e-002 -2.143631e-003 1.988536e-003 -1.777761e-003 4.545889e-002 7.359207e-003 -4.218525e-002 -1.656050e-002 1.405297e-002 -7.517365e-003 1.991071e-002 2.834637e-002 1.212408e-002 9.789095e-003 3.404301e-003 2.825770e-003 8.268727e-003 -1.301071e-002 -2.057885e-002 9.417694e-003 1.753588e-002 -5.208836e-003 7.796712e-004 7.876144e-003 -1.946227e-002 -1.278988e-002
<VARIANCE> 39
 2.077729e-002 3.072967e-002 2.477959e-002 5.056683e-002 3.966803e-002 3.979453e-002 7.001509e-002 4.961694e-002 6.340075e-002 4.604265e-002 3.910293e-002 4.174905e-002 4.594699e-002 4.748386e-004 1.397018e-003 1.018900e-003 2.538130e-003 1.876763e-003 2.246483e-003 2.788134e-003 3.308718e-003 2.890438e-003 2.953421e-003 2.720850e-003 2.410845e-003 4.709954e-004 1.000116e-004 2.220009e-004 2.345149e-004 3.377242e-004 3.481007e-004 4.244673e-004 4.999336e-004 5.105132e-004 5.303042e-004 4.699645e-004 4.637921e-004 3.719638e-004 1.455302e-004
<GCONST> -1.566333e+002
<MIXTURE> 8 1.107913e-001
<MEAN> 39
 -1.429819e-001 -1.661025e-001 -1.091610e-001 -3.255308e-001 2.593210e-001 1.131291e-001 -2.742665e-001 -2.522332e-001 5.788344e-002 5.235538e-002 1.907427e-001 2.286977e-001 4.379338e-001 1.166374e-003 -6.584020e-002 -4.841024e-002 -8.157165e-002 1.358596e-002 7.790857e-003 -4.419227e-002 -5.672811e-002 7.182657e-003 -8.592733e-003 1.976830e-002 4.103454e-002 2.558565e-001 6.630231e-003 1.767964e-002 2.178728e-002 3.551705e-002 -4.926796e-003 3.484570e-003 2.731035e-002 1.905961e-002 -4.235354e-003 -1.060876e-002 -1.908309e-002 -2.019748e-002 -6.404866e-002
<VARIANCE> 39
 4.889676e-002 6.710203e-002 3.326169e-002 5.262548e-002 5.339722e-002 7.620150e-002 4.429777e-002 5.552931e-002 4.517003e-002 4.491096e-002 4.368191e-002 3.850557e-002 1.584512e-001 4.825487e-003 4.854359e-003 4.816986e-003 8.650020e-003 5.286962e-003 6.463932e-003 6.647816e-003 6.128877e-003 4.903889e-003 5.031928e-003 4.332306e-003 4.454810e-003 2.300266e-002 1.041249e-003 8.358203e-004 7.025375e-004 1.037178e-003 9.602747e-004 1.090058e-003 8.256575e-004 9.305267e-004 8.933640e-004 7.621984e-004 7.536032e-004 6.354279e-004 3.959566e-003
<GCONST> -1.229285e+002
<MIXTURE> 9 6.620625e-002
<MEAN> 39
 5.395309e-002 -5.166031e-001 -1.413176e-001 5.064917e-002 1.105697e-001 1.188615e-001 1.884515e-001 -3.566198e-001 -3.887950e-001 1.825626e-001 2.278213e-001 -4.656578e-002 6.791574e-001 -2.112803e-002 -1.642864e-002 1.407564e-002 1.173584e-002 2.074203e-002 1.343540e-002 -2.687149e-002 -4.457682e-002 1.079824e-002 3.521392e-002 -1.418290e-003 1.030472e-003 2.020769e-002 3.822945e-003 1.959077e-002 1.083320e-002 -9.296202e-003 -1.138180e-002 -6.270059e-003 -7.429841e-003 2.157913e-002 2.123106e-002 -1.516598e-002 -2.099195e-002 7.161795e-003 -2.068248e-002
<VARIANCE> 39
 2.460614e-002 3.115094e-002 3.865372e-002 6.137662e-002 5.072496e-002 8.698995e-002 7.775725e-002 6.093705e-002 5.378580e-002 6.205688e-002 4.548394e-002 3.503391e-002 5.195642e-002 1.086422e-003 2.251392e-003 2.575723e-003 5.020963e-003 4.296875e-003 6.246607e-003 4.606548e-003 4.891736e-003 4.398781e-003 4.258402e-003 5.407058e-003 3.501299e-003 1.363300e-003 3.007455e-004 4.087112e-004 4.546300e-004 6.043197e-004 6.567886e-004 8.937658e-004 8.040653e-004 8.282826e-004 6.836374e-004 8.030382e-004 6.716520e-004 5.785562e-004 3.654481e-004
<GCONST> -1.378577e+002
<MIXTURE> 10 8.694996e-002
<MEAN> 39
 -9.629964e-002 9.628361e-002 1.861123e-001 1.704518e-001 2.262413e-001 1.473725e-001 1.876469e-002 6.088983e-003 -1.557340e-002 1.376620e-002 1.640862e-002 -2.174726e-002 -5.864051e-001 -9.977431e-003 -4.624631e-002 -4.274776e-002 -9.378985e-002 4.690717e-003 -1.084267e-002 -6.882708e-002 -6.106320e-002 6.672707e-003 2.003034e-002 2.816354e-002 5.011123e-002 1.991309e-001 -3.958322e-004 -2.588340e-002 -2.622924e-002 -4.023727e-002 -3.531448e-003 3.394379e-003 -1.376115e-002 -2.035662e-002 5.539188e-003 2.421654e-003 7.688388e-003 1.861703e-002 8.294386e-002
<VARIANCE> 39
 3.253216e-002 3.857218e-002 3.497007e-002 6.943735e-002 6.261924e-002 7.015064e-002 6.048397e-002 6.668890e-002 5.400047e-002 5.071272e-002 4.917813e-002 3.698075e-002 1.543977e-001 4.912103e-003 6.276227e-003 6.466152e-003 1.358369e-002 8.158520e-003 8.935046e-003 7.990145e-003 9.205091e-003 8.302176e-003 7.138182e-003 6.995744e-003 6.171417e-003 2.505776e-002 7.012672e-004 6.819033e-004 7.248523e-004 1.401855e-003 1.210794e-003 1.329275e-003 1.363120e-003 1.378063e-003 1.168946e-003 1.124557e-003 1.039716e-003 7.950881e-004 2.411618e-003
<GCONST> -1.167375e+002
<MIXTURE> 11 6.951126e-002
<MEAN> 39
 -5.867466e-002 -1.062879e-001 -1.027742e-001 -2.962079e-001 1.685861e-002 2.400663e-001 1.346500e-001 -6.663757e-002 1.307717e-002 4.063633e-002 1.338498e-003 1.153631e-001 4.241875e-002 -4.411910e-003 -7.718973e-003 9.744254e-003 4.065896e-003 3.530905e-002 1.940568e-002 -2.811334e-002 -3.442954e-002 -1.029901e-002 -3.091941e-004 1.127044e-002 1.587494e-002 2.266343e-002 -2.203261e-003 9.271564e-003 1.260552e-002 2.518817e-002 5.036282e-003 -2.345093e-002 -1.933575e-002 1.901854e-003 1.478290e-004 -5.835412e-004 2.033306e-003 -6.374038e-003 5.397233e-003
<VARIANCE> 39
 6.472408e-002 8.869047e-002 7.073160e-002 1.438612e-001 1.287663e-001 1.614100e-001 1.480054e-001 1.717297e-001 1.634536e-001 1.518195e-001 1.555354e-001 1.213903e-001 2.669223e-001 6.015502e-003 7.719252e-003 7.618277e-003 1.510923e-002 1.080770e-002 1.236200e-002 1.341147e-002 1.363356e-002 1.272335e-002 1.168086e-002 1.246800e-002 9.596857e-003 2.389334e-002 1.250781e-003 1.091535e-003 1.307284e-003 2.298227e-003 2.049130e-003 2.388153e-003 2.540883e-003 2.842790e-003 2.827080e-003 2.727052e-003 2.564932e-003 1.970525e-003 3.732491e-003
<GCONST> -9.260155e+001
<MIXTURE> 12 1.050436e-001
<MEAN> 39
 -2.324994e-002 3.920416e-002 -6.575579e-003 -5.556386e-001 1.560942e-001 2.848623e-001 -1.510651e-001 -3.783130e-002 2.615029e-002 -1.966401e-001 -8.527318e-002 2.100319e-001 4.397118e-001 -3.401647e-003 -1.679915e-002 -7.862008e-003 7.586783e-003 1.252131e-002 1.327710e-002 -3.748222e-003 -2.551921e-002 -1.059955e-002 -3.647485e-003 7.253197e-003 2.073835e-002 4.952870e-002 -1.125693e-003 9.073311e-004 5.471720e-003 2.456410e-002 -6.847166e-003 -1.207189e-002 3.640584e-003 -8.620880e-003 -2.653369e-003 1.720662e-002 1.161444e-003 -9.071344e-003 -1.886238e-002
<VARIANCE> 39
 2.504233e-002 4.680137e-002 3.284691e-002 5.246301e-002 6.488581e-002 6.479575e-002 6.477603e-002 6.657416e-002 4.508791e-002 3.694268e-002 4.789900e-002 3.924558e-002 8.779223e-002 1.909146e-003 3.125697e-003 2.282938e-003 4.050933e-003 5.063295e-003 4.205346e-003 3.905273e-003 5.145364e-003 3.744263e-003 3.368493e-003 3.431591e-003 2.992887e-003 4.317127e-003 4.175351e-004 4.833699e-004 4.599101e-004 8.240439e-004 7.502190e-004 7.371527e-004 7.505767e-004 6.838203e-004 6.375603e-004 5.670781e-004 5.850201e-004 5.309151e-004 8.720965e-004
<GCONST> -1.368192e+002
<STATE> 3
<NUMMIXES> 12
<MIXTURE> 1 7.658397e-002
<MEAN> 39
 -1.889251e-001 -6.080487e-001 7.488669e-002 3.162593e-002 2.874122e-001 3.043799e-002 -1.946819e-001 -3.266687e-001 1.742596e-001 2.890939e-001 -2.426782e-002 1.915867e-001 9.426521e-001 1.166056e-002 1.739035e-004 -1.872250e-003 -5.596274e-004 -3.216199e-003 -1.805193e-003 4.301588e-003 -2.034489e-003 -1.464234e-002 7.031016e-003 -8.750677e-003 3.807682e-003 -1.015433e-002 1.144135e-002 1.884765e-002 -7.763888e-003 -1.226445e-002 -7.034674e-003 7.849645e-003 2.232243e-003 -2.474444e-003 -1.112171e-002 -1.395099e-002 5.847712e-003 -8.849794e-006 -1.748113e-002
<VARIANCE> 39
 2.338655e-002 1.997299e-002 1.892436e-002 2.630364e-002 2.365846e-002 3.073603e-002 2.762287e-002 3.212444e-002 3.001637e-002 2.575911e-002 1.620286e-002 1.537101e-002 7.391507e-002 1.351817e-003 1.369668e-003 1.411071e-003 2.118476e-003 1.294296e-003 2.151572e-003 2.053566e-003 1.702534e-003 1.623951e-003 2.050753e-003 1.499166e-003 1.246764e-003 9.143002e-004 2.001619e-004 2.461101e-004 2.128005e-004 2.788832e-004 2.609119e-004 3.025483e-004 4.144114e-004 2.588500e-004 2.687265e-004 3.065341e-004 2.755989e-004 2.249443e-004 2.339856e-004
<GCONST> -1.671303e+002
<MIXTURE> 2 9.894057e-002
<MEAN> 39
 -2.907793e-002 -4.890972e-001 -4.898173e-002 2.093537e-002 1.574934e-001 2.304242e-001 -2.809075e-002 -4.738563e-001 -2.114722e-001 3.270569e-001 8.112645e-002 1.488924e-002 6.923065e-001 1.163337e-002 -1.455094e-002 -1.280840e-002 3.644161e-002 -6.954256e-003 -2.778681e-002 2.099633e-002 1.004859e-002 -3.548643e-002 2.113160e-002 2.112799e-002 -2.451887e-002 -7.400026e-003 5.896290e-003 9.493548e-003 -1.973992e-003 -8.837441e-003 -5.029407e-003 -1.612824e-003 5.182631e-003 1.512172e-002 -2.782367e-003 -1.744371e-002 -1.853878e-003 6.584944e-003 -8.214360e-003
<VARIANCE> 39
 2.996174e-002 3.485639e-002 2.927132e-002 5.885552e-002 4.064310e-002 6.370349e-002 6.138683e-002 5.199496e-002 5.443955e-002 4.630545e-002 4.123744e-002 3.186729e-002 5.719011e-002 6.063982e-004 9.601688e-004 1.182296e-003 2.124740e-003 1.593104e-003 2.261726e-003 2.371155e-003 1.898463e-003 1.977835e-003 2.192606e-003 2.003658e-003 1.819947e-003 4.756717e-004 1.334071e-004 1.861276e-004 2.190699e-004 3.382015e-004 3.328078e-004 3.808473e-004 4.127169e-004 4.200312e-004 3.671235e-004 4.036860e-004 4.064161e-004 3.015517e-004 1.036826e-004
<GCONST> -1.595419e+002
<MIXTURE> 3 1.310069e-001
<MEAN> 39
 -5.150920e-002 -3.730705e-001 4.362817e-004 -1.325617e-001 1.762786e-001 2.521900e-001 -7.076171e-002 -4.395221e-001 -6.071055e-002 1.559215e-001 1.825000e-002 1.593909e-001 6.719969e-001 1.630242e-003 6.661833e-005 4.597828e-004 2.391423e-003 4.172894e-004 -1.312288e-003 -1.288139e-003 -2.075236e-003 1.181294e-003 2.502086e-003 -1.585892e-003 1.196063e-004 -4.244215e-003 3.520716e-003 2.990663e-003 -9.981546e-004 -3.448199e-003 -4.880117e-003 3.381841e-005 4.474095e-003 5.367402e-003 -3.090645e-003 -2.928703e-003 -1.473103e-003 -1.854988e-003 -3.944298e-003
<VARIANCE> 39
 1.991374e-002 2.835721e-002 2.238716e-002 4.474787e-002 4.382937e-002 4.233422e-002 6.897204e-002 5.006975e-002 6.152690e-002 4.814582e-002 3.628357e-002 3.729985e-002 4.732008e-002 2.810392e-004 5.522037e-004 4.583062e-004 1.117575e-003 8.587973e-004 9.682334e-004 1.038232e-003 9.605372e-004 1.035724e-003 1.153172e-003 9.140143e-004 8.921184e-004 2.128567e-004 4.402812e-005 7.802038e-005 7.692858e-005 1.461500e-004 1.424970e-004 1.525840e-004 1.711289e-004 1.645464e-004 1.757674e-004 1.734836e-004 1.590284e-004 1.427346e-004 3.240884e-005
<GCONST> -1.823035e+002
<MIXTURE> 4 5.808717e-002
<MEAN> 39
 -1.160397e-001 -1.592409e-001 -3.456593e-002 -2.363415e-001 4.061251e-001 6.197665e-003 -3.356914e-001 -1.232990e-001 1.013244e-001 -2.902778e-002 2.889771e-001 2.785520e-002 6.735774e-001 3.474141e-003 -4.024366e-002 3.996884e-002 2.679331e-002 -4.947048e-002 3.557152e-002 -1.676332e-002 -2.452783e-002 5.419313e-002 -2.301987e-002 -4.147954e-003 2.831657e-002 3.398738e-003 6.728599e-003 3.696267e-003 -3.803443e-003 -1.303490e-003 -1.158571e-002 6.731480e-005 1.331998e-002 -9.494778e-003 -1.360618e-003 3.221198e-003 -1.537050e-002 7.973132e-003 -7.170545e-003
<VARIANCE> 39
 2.314524e-002 3.359895e-002 2.299015e-002 4.681243e-002 4.198611e-002 3.607142e-002 3.499141e-002 3.492707e-002 4.321324e-002 3.819896e-002 2.900496e-002 3.776577e-002 6.342340e-002 4.676422e-004 8.590267e-004 9.192932e-004 1.092179e-003 1.352493e-003 1.874043e-003 1.712274e-003 1.857521e-003 1.626780e-003 1.708333e-003 1.942850e-003 1.465428e-003 2.783390e-004 8.481545e-005 1.300362e-004 1.443551e-004 1.909279e-004 2.476471e-004 2.391388e-004 2.747958e-004 2.497411e-004 2.814753e-004 2.850048e-004 3.014973e-004 2.581182e-004 6.857950e-005
<GCONST> -1.704904e+002
<MIXTURE> 5 1.181292e-001
<MEAN> 39
 4.267402e-002 -4.076744e-001 -3.607243e-002 -8.294155e-002 8.835031e-002 2.608610e-001 7.972404e-002 -4.055267e-001 -2.629861e-001 1.922131e-001 -1.277506e-003 8.044124e-002 6.150708e-001 8.751255e-003 2.474962e-002 9.608276e-003 -2.712518e-002 -1.712772e-002 1.157950e-002 -1.762402e-003 1.621367e-002 1.432270e-002 -1.987263e-002 -2.548108e-002 8.707102e-003 -1.857286e-002 3.932422e-003 1.773605e-002 6.108014e-003 -5.799060e-003 -7.990050e-003 -6.414691e-003 -2.282284e-003 1.414656e-002 1.063086e-002 -8.389028e-003 -6.499775e-003 -4.070583e-003 -1.805928e-002
<VARIANCE> 39
 2.253788e-002 3.410317e-002 3.125404e-002 5.814842e-002 4.510411e-002 6.900380e-002 6.690856e-002 5.071639e-002 4.887789e-002 4.676200e-002 3.781526e-002 3.519652e-002 5.158423e-002 8.922497e-004 1.410072e-003 1.583901e-003 2.686355e-003 2.312277e-003 2.918814e-003 3.191829e-003 2.712760e-003 2.910490e-003 2.604447e-003 2.418535e-003 1.882760e-003 1.073411e-003 2.093342e-004 3.355670e-004 2.900699e-004 4.216826e-004 4.662596e-004 5.846912e-004 5.315145e-004 5.255342e-004 4.706191e-004 4.899218e-004 4.371536e-004 3.421849e-004 3.175316e-004
<GCONST> -1.510198e+002
<MIXTURE> 6 6.870917e-002
<MEAN> 39
 -1.443058e-001 -5.492991e-001 1.414132e-001 8.523559e-002 2.342065e-001 -6.112161e-002 -1.764933e-001 -2.564591e-001 2.891055e-001 1.201011e-001 1.105718e-002 1.697357e-001 7.902305e-001 2.830941e-003 -7.587879e-003 4.961535e-003 9.821934e-003 -7.290501e-003 -8.779272e-003 9.982632e-003 -3.507269e-003 1.851835e-003 4.927794e-003 -9.514378e-003 4.336134e-003 -4.438791e-003 5.202438e-003 6.158751e-003 -9.134999e-003 -7.660979e-003 5.609008e-004 8.159810e-003 -1.950016e-003 -4.453023e-003 -5.553735e-003 1.481512e-003 4.987220e-003 -2.307488e-003 -3.960741e-003
<VARIANCE> 39
 2.325866e-002 2.763745e-002 1.953928e-002 3.018568e-002 3.081550e-002 2.566344e-002 2.909379e-002 3.181082e-002 2.421128e-002 3.501370e-002 2.269487e-002 1.760677e-002 7.397336e-002 3.942334e-004 5.460725e-004 7.655717e-004 9.471344e-004 1.042738e-003 9.904397e-004 1.033267e-003 1.020568e-003 8.915115e-004 9.396757e-004 9.356900e-004 8.000977e-004 1.891264e-004 7.052899e-005 8.531987e-005 1.004878e-004 1.393437e-004 1.377818e-004 1.615059e-004 1.769872e-004 1.417096e-004 1.565078e-004 1.594783e-004 1.684744e-004 1.461769e-004 3.758931e-005
<GCONST> -1.857913e+002
<MIXTURE> 7 8.617027e-002
<MEAN> 39
 -1.663322e-001 -1.768177e-001 -8.039930e-002 -3.895252e-001 2.801539e-001 2.013464e-001 -2.072722e-001 -2.581000e-001 1.054413e-001 -9.816585e-002 1.711534e-001 2.644968e-001 8.309284e-001 1.787149e-002 1.089998e-002 1.186569e-002 -1.424520e-002 -2.525953e-002 -1.042597e-003 2.053008e-002 -6.606080e-003 1.916741e-002 -3.220281e-002 -2.837259e-002 4.537782e-003 1.750182e-002 2.115615e-002 2.245838e-002 1.371222e-002 7.571380e-003 -2.323480e-002 -1.747913e-002 8.836091e-003 6.738920e-003 -1.955172e-003 1.803524e-003 -2.406544e-002 -9.715199e-003 -5.574382e-002
<VARIANCE> 39
 2.310580e-002 3.424242e-002 2.016807e-002 3.177344e-002 3.754954e-002 4.123982e-002 3.484756e-002 3.750286e-002 2.835225e-002 2.901687e-002 3.077124e-002 3.428407e-002 7.538041e-002 1.839436e-003 1.988794e-003 1.569848e-003 1.876444e-003 2.271135e-003 2.119692e-003 2.505610e-003 2.583424e-003 2.034200e-003 2.284589e-003 2.135930e-003 1.764562e-003 3.720310e-003 3.477338e-004 4.238063e-004 3.527998e-004 5.091148e-004 4.641955e-004 5.661197e-004 4.889669e-004 4.827404e-004 4.553478e-004 5.044321e-004 4.570810e-004 4.087898e-004 1.271992e-003
<GCONST> -1.513984e+002
<MIXTURE> 8 8.817690e-002
<MEAN> 39
 -6.018196e-002 -1.533347e-001 1.831724e-002 -3.744130e-001 2.061422e-001 3.091198e-001 -2.348371e-001 -3.062356e-001 4.184942e-002 -8.242205e-002 -2.946366e-002 3.340860e-001 6.217630e-001 1.069853e-002 -2.912418e-002 5.646752e-003 4.252456e-002 -3.611031e-002 4.618587e-003 2.667710e-002 -4.685931e-002 -1.474138e-004 3.831463e-002 -2.621313e-002 6.348873e-004 -2.223559e-003 5.610925e-003 1.876029e-003 -2.144023e-003 6.204962e-003 -1.056147e-002 -7.837412e-003 1.324292e-002 2.223002e-003 -9.286055e-003 9.955083e-003 -3.203507e-003 -1.362900e-002 -6.511454e-003
<VARIANCE> 39
 2.508260e-002 3.923491e-002 2.485528e-002 4.609436e-002 4.299069e-002 3.736278e-002 5.035364e-002 5.547468e-002 3.754652e-002 4.113702e-002 3.926359e-002 2.608481e-002 4.472059e-002 4.173634e-004 1.014302e-003 7.807715e-004 1.471285e-003 1.867511e-003 1.576847e-003 1.796434e-003 2.267583e-003 1.732352e-003 1.703872e-003 1.782221e-003 1.606142e-003 3.866899e-004 8.350808e-005 1.665795e-004 1.438477e-004 2.427713e-004 2.730668e-004 2.690217e-004 3.145520e-004 3.455357e-004 3.020540e-004 2.812426e-004 3.068574e-004 2.448413e-004 7.490210e-005
<GCONST> -1.675567e+002
<MIXTURE> 9 6.027284e-002
<MEAN> 39
 -2.222058e-002 -2.385127e-001 1.142160e-002 -2.079284e-001 5.953660e-002 3.092863e-001 -9.388600e-002 -4.607758e-001 -8.590504e-003 9.174983e-002 -1.348318e-001 2.847222e-001 6.295772e-001 2.775284e-002 -2.754336e-002 -7.308094e-003 7.095141e-002 -6.734639e-002 -2.696816e-002 7.431973e-002 -2.944453e-002 -5.008417e-002 6.261855e-002 -1.119060e-002 -4.699882e-002 -1.530996e-002 1.320226e-002 1.774043e-002 3.417460e-003 5.168061e-004 -3.022716e-003 -3.045390e-002 4.282951e-003 3.618640e-002 -1.906567e-002 -8.245473e-003 1.522443e-002 -2.399416e-002 -2.389868e-002
<VARIANCE> 39
 2.578555e-002 4.847422e-002 2.684501e-002 5.502237e-002 4.310893e-002 4.386047e-002 5.577489e-002 5.095028e-002 5.627672e-002 4.646125e-002 3.670465e-002 3.220948e-002 5.365195e-002 8.289190e-004 1.743466e-003 1.506983e-003 2.876061e-003 2.993658e-003 2.855123e-003 3.071076e-003 3.459795e-003 2.792666e-003 2.660711e-003 3.633369e-003 2.522212e-003 8.111507e-004 1.930783e-004 3.422732e-004 4.715019e-004 5.375139e-004 5.731434e-004 6.782803e-004 6.351550e-004 6.820029e-004 6.479220e-004 6.836146e-004 5.684497e-004 4.900757e-004 2.692965e-004
<GCONST> -1.477931e+002
<MIXTURE> 10 4.940691e-002
<MEAN> 39
 6.862985e-002 -1.354413e-001 -7.688246e-002 -3.683347e-001 -1.731915e-001 2.349479e-001 1.704510e-001 -1.703614e-001 -4.643295e-002 7.645425e-002 -2.158528e-001 1.007024e-001 5.735320e-001 2.291354e-002 2.998830e-002 2.283540e-002 5.439815e-003 -3.053431e-002 -2.912616e-002 8.884827e-003 4.000068e-003 7.559704e-003 9.091420e-003 -2.123581e-002 -1.298357e-002 -2.892940e-002 6.569975e-003 3.270162e-002 2.699394e-002 3.039757e-002 8.542527e-003 -3.634684e-002 -2.475093e-002 1.157055e-002 -4.094854e-003 -4.112768e-003 1.059967e-002 -1.311180e-002 -6.463820e-002
<VARIANCE> 39
 2.632816e-002 5.820097e-002 3.455868e-002 8.049189e-002 6.807660e-002 6.941515e-002 9.004932e-002 8.607458e-002 9.094869e-002 6.342424e-002 5.436645e-002 6.259941e-002 5.051861e-002 2.339554e-003 3.860535e-003 3.704492e-003 6.544321e-003 5.734942e-003 6.290723e-003 7.111204e-003 6.747268e-003 7.241647e-003 5.769972e-003 6.334795e-003 4.203924e-003 5.218447e-003 8.397828e-004 8.442301e-004 7.447023e-004 1.214902e-003 1.192094e-003 1.504670e-003 1.315292e-003 1.649486e-003 1.355548e-003 1.283092e-003 1.051396e-003 1.008230e-003 1.091428e-003
<GCONST> -1.212024e+002
<MIXTURE> 11 1.028164e-001
<MEAN> 39
 -1.100068e-001 -4.815581e-001 4.854012e-002 -1.261335e-003 1.519874e-001 -6.445448e-002 -2.901462e-001 -2.854464e-001 2.465084e-001 1.820392e-002 1.444821e-001 1.749350e-001 6.258098e-001 6.312180e-003 -4.323212e-004 -1.656530e-003 5.150605e-003 -1.830196e-002 5.697052e-003 6.873472e-003 -1.213406e-002 2.975807e-003 -7.238012e-004 -1.150242e-003 4.700962e-003 -9.071702e-003 5.677422e-003 1.180902e-002 -8.919191e-003 -1.002289e-002 9.015613e-004 6.613334e-003 4.945863e-003 -3.296041e-003 -1.168146e-002 7.097457e-003 1.737780e-003 -3.477680e-003 -8.286973e-003
<VARIANCE> 39
 3.655896e-002 4.458086e-002 3.719358e-002 5.723660e-002 8.678815e-002 5.916392e-002 6.086045e-002 6.498172e-002 5.349034e-002 4.812414e-002 6.779410e-002 5.148131e-002 3.941575e-002 9.734139e-004 1.575766e-003 1.820751e-003 2.382119e-003 2.942835e-003 2.772174e-003 2.897425e-003 3.191315e-003 2.796154e-003 2.810216e-003 2.887175e-003 2.679242e-003 5.513666e-004 1.881975e-004 2.494006e-004 2.858567e-004 3.662029e-004 4.523293e-004 4.926441e-004 5.772070e-004 5.085608e-004 5.890155e-004 4.784736e-004 5.177743e-004 4.754737e-004 1.369253e-004
<GCONST> -1.491231e+002
<MIXTURE> 12 6.159784e-002
<MEAN> 39
 -1.510077e-001 -3.746498e-001 -1.209826e-001 -1.093018e-001 1.239402e-001 -4.902340e-002 -2.609027e-001 -2.798513e-001 6.401667e-002 1.196851e-001 2.729625e-001 1.965235e-001 5.816939e-001 1.835665e-002 2.827374e-003 8.487853e-003 3.374879e-003 -1.378190e-002 8.983963e-003 -8.377623e-003 -5.037647e-003 2.806021e-003 -1.445555e-002 -4.817331e-003 9.384542e-004 -6.402380e-003 1.299438e-002 2.002375e-002 6.813951e-003 3.438491e-004 -1.130232e-002 -8.677123e-004 1.722647e-002 1.451778e-002 -4.802475e-003 -6.274928e-003 -1.705710e-002 -7.732312e-003 -2.732720e-002
<VARIANCE> 39
 5.688482e-002 1.088134e-001 7.955631e-002 1.218148e-001 1.153797e-001 1.177962e-001 1.152105e-001 1.106023e-001 1.130955e-001 1.089945e-001 1.162673e-001 9.883939e-002 1.398757e-001 3.694828e-003 4.663690e-003 4.692127e-003 6.478349e-003 6.710666e-003 8.073815e-003 7.848104e-003 7.408514e-003 8.004574e-003 7.757053e-003 7.104010e-003 6.318499e-003 4.405125e-003 5.786907e-004 8.012161e-004 8.826102e-004 1.074378e-003 1.230373e-003 1.329610e-003 1.491616e-003 1.470341e-003 1.508138e-003 1.494302e-003 1.403587e-003 1.272990e-003 1.138937e-003
<GCONST> -1.114254e+002
<STATE> 4
<NUMMIXES> 12
<MIXTURE> 1 1.229765e-001
<MEAN> 39
 -1.057881e-001 -4.912459e-001 -1.477483e-002 -1.055814e-001 2.800646e-001 1.356352e-001 -2.127322e-001 -3.972851e-001 1.238330e-001 1.832473e-001 9.058809e-002 1.851063e-001 7.656516e-001 3.680791e-002 5.326713e-002 -1.953507e-002 -5.615373e-002 -2.491938e-002 2.948163e-002 2.421850e-002 7.054763e-004 -3.363066e-002 -3.290819e-002 -3.031105e-003 7.009858e-003 -5.004999e-002 1.283423e-002 3.223229e-002 1.079265e-002 -3.174192e-003 -1.849458e-002 -9.632347e-003 7.830191e-003 1.552168e-002 -9.031949e-003 -1.409557e-002 -1.323629e-002 -8.532899e-003 -3.733304e-002
<VARIANCE> 39
 2.533492e-002 3.360198e-002 2.728582e-002 4.229648e-002 4.801023e-002 4.995243e-002 4.721196e-002 5.557552e-002 5.151244e-002 4.179829e-002 3.151825e-002 3.091856e-002 6.734174e-002 1.420897e-003 2.134134e-003 1.814830e-003 2.994538e-003 3.199363e-003 3.192568e-003 5.800378e-003 4.033582e-003 3.456326e-003 4.010846e-003 2.868441e-003 2.450159e-003 1.655561e-003 2.995045e-004 3.275440e-004 3.303872e-004 5.309144e-004 5.387429e-004 5.442710e-004 5.718370e-004 6.020556e-004 5.283803e-004 4.646222e-004 4.487623e-004 4.109414e-004 4.189060e-004
<GCONST> -1.464651e+002
<MIXTURE> 2 7.985419e-002
<MEAN> 39
 -2.814993e-003 -5.169531e-001 -1.289633e-001 1.103985e-001 8.102471e-002 9.044008e-002 1.253153e-001 -3.825012e-001 -3.625255e-001 3.090755e-001 1.973527e-001 -5.218219e-002 7.194933e-001 4.619945e-002 5.967371e-003 -3.559671e-002 3.570953e-002 -1.827345e-002 -6.035870e-002 4.777915e-002 7.826564e-002 -5.831584e-002 -4.910929e-002 4.848684e-002 -1.849944e-002 -4.052904e-002 1.250752e-002 2.819596e-002 1.087505e-002 -1.104245e-002 -6.308113e-004 -9.287117e-003 -2.027746e-002 2.620416e-002 2.271799e-002 -3.457447e-002 -1.478858e-002 1.178095e-002 -3.229090e-002
<VARIANCE> 39
 2.983154e-002 3.434834e-002 3.821337e-002 6.802168e-002 4.600535e-002 7.144455e-002 6.560704e-002 6.390125e-002 6.253464e-002 5.985928e-002 5.148481e-002 3.062346e-002 6.493528e-002 1.200864e-003 1.756790e-003 2.618301e-003 4.442296e-003 3.495948e-003 4.715762e-003 4.118024e-003 4.746635e-003 4.092555e-003 5.048119e-003 4.327990e-003 4.093973e-003 1.264788e-003 2.597937e-004 4.084108e-004 6.438621e-004 5.972725e-004 5.351898e-004 7.946667e-004 8.739522e-004 9.581843e-004 7.960565e-004 8.009832e-004 7.953499e-004 5.288166e-004 4.899505e-004
<GCONST> -1.378749e+002
<MIXTURE> 3 7.371761e-002
<MEAN> 39
 3.541513e-002 -8.789886e-002 -1.438898e-002 -4.974165e-001 -1.559695e-001 2.019349e-001 1.930183e-001 -1.818755e-001 1.599369e-001 -8.944462e-003 -3.234311e-001 2.383194e-001 6.189907e-001 6.575190e-002 1.132649e-001 7.280531e-002 4.463851e-002 -6.837863e-002 -8.775996e-002 -3.026007e-002 4.961673e-003 -6.196093e-003 2.292109e-002 -5.001791e-002 -4.259058e-002 -1.617647e-001 1.201459e-003 1.564063e-002 1.189684e-002 4.167501e-002 2.206247e-002 -1.074166e-002 -3.788231e-002 -1.082254e-002 -3.022765e-002 1.223917e-003 3.146308e-002 -1.286765e-002 -4.719529e-002
<VARIANCE> 39
 2.362189e-002 3.411475e-002 2.911262e-002 4.285423e-002 4.507690e-002 4.066914e-002 5.299417e-002 5.824155e-002 5.078436e-002 5.663819e-002 4.361489e-002 3.261055e-002 6.063906e-002 2.276532e-003 3.069910e-003 2.743734e-003 3.727084e-003 4.621920e-003 4.481270e-003 4.876456e-003 5.256700e-003 6.475036e-003 5.657071e-003 4.771694e-003 3.473615e-003 5.230241e-003 8.735030e-004 5.631061e-004 5.758904e-004 7.942548e-004 6.704973e-004 9.393068e-004 8.220004e-004 1.252317e-003 9.203366e-004 1.076404e-003 7.699374e-004 5.820363e-004 8.396070e-004
<GCONST> -1.333314e+002
<MIXTURE> 4 9.064657e-002
<MEAN> 39
 -3.099624e-003 -1.544854e-001 -1.018354e-001 -2.540359e-001 2.348601e-001 1.236909e-001 -3.479128e-001 -2.890276e-001 1.634188e-001 -1.346197e-001 3.190176e-001 8.598647e-002 5.586972e-001 7.582974e-002 5.523677e-002 2.785670e-002 -3.267658e-002 -7.900886e-002 -1.414382e-002 3.334011e-002 8.544088e-003 8.859981e-003 -4.113888e-002 -7.146099e-002 1.452500e-002 -7.568115e-002 1.864546e-002 2.276030e-002 2.173411e-002 -2.393822e-003 -1.789416e-002 -3.877478e-002 1.889699e-002 1.959790e-002 -1.182167e-002 2.290123e-003 -3.720755e-002 1.422794e-004 -3.671164e-002
<VARIANCE> 39
 2.505657e-002 4.624150e-002 3.198282e-002 5.056460e-002 6.615475e-002 4.979614e-002 5.290150e-002 5.325645e-002 6.363398e-002 4.318593e-002 3.920435e-002 5.499659e-002 3.629364e-002 1.894268e-003 3.696064e-003 3.141139e-003 3.967385e-003 4.304289e-003 6.064266e-003 4.722397e-003 4.597976e-003 4.994287e-003 4.370170e-003 5.132738e-003 3.980078e-003 1.994314e-003 3.950268e-004 4.686483e-004 4.225486e-004 7.596189e-004 8.274412e-004 9.464451e-004 1.078208e-003 8.065079e-004 9.538634e-004 8.653799e-004 6.538869e-004 7.964604e-004 3.851842e-004
<GCONST> -1.354584e+002
<MIXTURE> 5 1.365834e-001
<MEAN> 39
 -7.338878e-002 -2.229870e-001 -5.593514e-002 -4.070899e-001 9.871227e-002 3.138447e-001 1.088090e-002 -3.304153e-001 3.230292e-002 -6.090884e-002 -8.247139e-002 3.260158e-001 7.617812e-001 4.944942e-002 6.723501e-002 3.132517e-002 -3.118147e-002 -7.878015e-002 -4.241018e-002 3.613501e-002 3.920677e-002 2.097944e-002 -9.174580e-003 -7.823396e-002 -1.893259e-002 -6.993551e-002 1.827200e-002 2.487113e-002 1.959898e-002 1.904923e-002 -9.888094e-003 -3.154834e-002 -1.808971e-002 7.843260e-003 -5.851442e-003 1.535331e-002 -1.751260e-003 -2.496045e-002 -4.836098e-002
<VARIANCE> 39
 2.183962e-002 3.380564e-002 2.704758e-002 3.633086e-002 4.042336e-002 4.159108e-002 5.711979e-002 5.212604e-002 5.076027e-002 4.370536e-002 3.900104e-002 3.300740e-002 6.414727e-002 1.595182e-003 2.131193e-003 1.762876e-003 3.605631e-003 3.223991e-003 3.682851e-003 4.740002e-003 5.395614e-003 4.334088e-003 4.938250e-003 3.667713e-003 2.767654e-003 2.488251e-003 3.586433e-004 3.727460e-004 3.650064e-004 5.169607e-004 5.398418e-004 6.452268e-004 6.319704e-004 6.989247e-004 6.835673e-004 6.498946e-004 6.087259e-004 4.722805e-004 6.289346e-004
<GCONST> -1.427701e+002
<MIXTURE> 6 1.060770e-001
<MEAN> 39
 8.632128e-002 -4.500109e-001 -4.235524e-002 -3.834511e-002 1.241549e-001 7.795358e-002 -4.725335e-002 -4.026384e-001 -1.356899e-001 2.629817e-001 -5.049917e-002 1.434033e-001 6.026355e-001 4.104001e-002 1.146779e-001 2.715400e-002 5.096774e-003 -2.982224e-002 -1.963676e-003 -1.113266e-003 1.015630e-002 -3.715522e-002 -3.423628e-002 -3.568595e-002 -2.536588e-002 -1.296148e-001 -2.481862e-002 3.463902e-002 1.686526e-002 1.979636e-002 1.101054e-003 -1.924181e-003 -7.227805e-003 1.829248e-002 1.243610e-002 -1.802967e-002 5.392151e-003 -9.547168e-003 -3.807105e-002
<VARIANCE> 39
 2.388803e-002 2.992886e-002 3.544937e-002 5.426842e-002 4.102076e-002 5.914341e-002 7.510258e-002 5.634927e-002 8.556869e-002 4.621848e-002 3.372799e-002 3.576135e-002 6.751925e-002 2.280605e-003 3.589499e-003 3.037576e-003 4.238864e-003 4.677068e-003 4.896608e-003 6.214356e-003 5.271069e-003 5.637147e-003 4.772996e-003 3.835303e-003 3.034801e-003 3.403623e-003 5.665866e-004 7.034932e-004 5.860345e-004 6.744494e-004 6.894078e-004 8.885503e-004 1.114703e-003 9.737218e-004 1.036627e-003 7.711454e-004 6.313932e-004 5.485449e-004 7.061223e-004
<GCONST> -1.334949e+002
<MIXTURE> 7 7.985045e-002
<MEAN> 39
 6.879290e-002 -1.711945e-001 -4.426177e-002 -7.834546e-002 -1.669895e-001 2.387658e-001 1.154084e-001 -4.626773e-001 -1.303909e-001 1.538704e-001 -1.653702e-001 1.759987e-001 5.408493e-001 7.170278e-002 4.477228e-002 4.958205e-002 2.156071e-002 -6.794692e-002 -1.066597e-001 2.481084e-002 8.399622e-002 -5.926224e-002 2.095024e-002 5.099446e-003 -8.142119e-002 -9.290533e-002 1.425875e-002 2.164381e-002 2.894558e-002 -1.975836e-002 1.747007e-002 -4.074177e-002 -3.257015e-002 4.654447e-002 -1.714163e-003 -1.208949e-002 9.783588e-003 -1.312620e-002 -3.386664e-002
<VARIANCE> 39
 2.427276e-002 4.751039e-002 2.900957e-002 5.863765e-002 4.462299e-002 4.718064e-002 7.255934e-002 5.538984e-002 7.186171e-002 3.875060e-002 4.382959e-002 3.956630e-002 4.980945e-002 1.615620e-003 3.104411e-003 3.923712e-003 5.699410e-003 6.214736e-003 6.538318e-003 7.834513e-003 7.062658e-003 5.962919e-003 5.983388e-003 6.670977e-003 3.947990e-003 1.895218e-003 3.164053e-004 5.325903e-004 5.651538e-004 8.099899e-004 8.973425e-004 9.747155e-004 1.143000e-003 1.182744e-003 9.410594e-004 1.069182e-003 8.441806e-004 7.031837e-004 3.123562e-004
<GCONST> -1.321373e+002
<MIXTURE> 8 6.669252e-002
<MEAN> 39
 9.701567e-003 -1.475918e-001 4.246508e-002 -5.479596e-001 5.157017e-002 3.805986e-001 -1.922368e-001 -1.934550e-003 6.806638e-002 -1.601824e-001 3.778449e-002 4.532561e-002 5.565199e-001 4.526552e-002 1.082500e-001 6.143390e-002 -2.290904e-002 -7.144739e-002 -2.878143e-002 -5.404093e-002 7.069623e-002 3.488404e-002 -2.996595e-002 -2.273323e-002 -2.651155e-002 -1.343431e-001 5.271367e-003 1.286350e-002 1.208625e-002 5.420465e-002 -1.346678e-003 -3.286861e-002 2.825293e-003 -2.499489e-002 -1.647480e-002 2.466714e-002 -2.208076e-003 -1.064550e-003 -5.524483e-002
<VARIANCE> 39
 2.236216e-002 6.805818e-002 4.393045e-002 5.395968e-002 8.193570e-002 7.677309e-002 7.549173e-002 9.028363e-002 5.546885e-002 3.687470e-002 3.372351e-002 3.739814e-002 4.611324e-002 2.286987e-003 4.608717e-003 3.341184e-003 5.978758e-003 6.604040e-003 8.659148e-003 8.399336e-003 8.475178e-003 7.921764e-003 7.082324e-003 6.976326e-003 4.802158e-003 6.635158e-003 6.496602e-004 7.993395e-004 6.886382e-004 8.695526e-004 1.137211e-003 1.122582e-003 1.534573e-003 1.597936e-003 1.222969e-003 9.295087e-004 7.832655e-004 7.589351e-004 8.734724e-004
<GCONST> -1.239203e+002
<MIXTURE> 9 6.071005e-002
<MEAN> 39
 1.511837e-001 -4.763982e-001 -2.220318e-001 8.408509e-002 3.566437e-002 -3.415828e-002 2.034341e-001 -4.576673e-002 -4.523278e-001 -2.199202e-002 3.413851e-001 -8.156890e-002 5.938110e-001 6.867429e-002 9.369274e-002 3.143666e-002 1.101765e-002 -2.380622e-002 -7.730813e-002 -4.175294e-002 1.039221e-001 3.788731e-002 -9.460520e-002 -2.706997e-002 -1.362288e-003 -1.448725e-001 -1.161109e-002 3.824915e-002 3.331450e-002 -5.999470e-004 3.831840e-003 3.277330e-003 -3.447017e-002 -2.170561e-002 3.562124e-002 1.681011e-002 -3.590964e-002 9.151756e-003 -4.367489e-002
<VARIANCE> 39
 3.015774e-002 3.411621e-002 5.239346e-002 6.104704e-002 7.498121e-002 8.465732e-002 7.875700e-002 9.243573e-002 6.171790e-002 8.053771e-002 4.786163e-002 4.727743e-002 6.829459e-002 2.700369e-003 4.874256e-003 5.788103e-003 5.264498e-003 5.742936e-003 7.621935e-003 7.342319e-003 1.003943e-002 8.060770e-003 7.817909e-003 7.286733e-003 4.265898e-003 7.897274e-003 7.376599e-004 6.087660e-004 7.529646e-004 1.053682e-003 9.999538e-004 1.295328e-003 1.445827e-003 1.658400e-003 1.163429e-003 1.372893e-003 9.640175e-004 1.030650e-003 9.378892e-004
<GCONST> -1.203915e+002
<MIXTURE> 10 7.481468e-002
<MEAN> 39
 1.176644e-002 -1.940902e-001 1.484633e-001 1.228075e-001 2.380015e-001 1.089025e-001 -1.685978e-001 -3.714906e-001 -1.263106e-001 1.170739e-001 -7.274743e-002 5.631788e-002 1.912652e-001 -2.067285e-002 6.882859e-002 1.771870e-002 2.583834e-002 -6.803468e-003 1.772673e-002 9.454246e-003 2.880603e-002 2.699931e-003 -2.102420e-002 -6.323404e-003 -2.139377e-002 -9.913099e-002 -1.544425e-002 -4.211434e-003 -1.395443e-002 -3.858953e-003 -1.154553e-002 -8.639702e-004 1.221184e-002 2.282567e-002 1.391523e-002 1.036659e-003 1.121465e-002 -7.658445e-005 1.305587e-003
<VARIANCE> 39
 4.199658e-002 5.751499e-002 4.796789e-002 8.417087e-002 7.398264e-002 8.962855e-002 8.258400e-002 9.205859e-002 1.022336e-001 7.626460e-002 5.916471e-002 5.160898e-002 1.020808e-001 4.541814e-003 6.159411e-003 4.277985e-003 5.662550e-003 5.373197e-003 6.575231e-003 6.520745e-003 8.016500e-003 7.064783e-003 5.906992e-003 4.960889e-003 3.943412e-003 9.046795e-003 8.249070e-004 7.711024e-004 6.475060e-004 8.904875e-004 8.710957e-004 1.119675e-003 1.130243e-003 1.388212e-003 1.270969e-003 1.150535e-003 9.113646e-004 7.757524e-004 7.441916e-004
<GCONST> -1.201778e+002
<MIXTURE> 11 6.625922e-002
<MEAN> 39
 1.913440e-001 -1.624107e-001 -5.075916e-002 -1.579001e-001 -2.136025e-001 5.477116e-002 3.222202e-001 -9.248471e-002 -3.226876e-001 3.262308e-001 -2.360645e-001 -7.264988e-002 3.760006e-001 2.552962e-002 1.333478e-001 6.754738e-002 6.615359e-002 -3.022865e-002 -8.352529e-002 -4.373257e-002 3.729343e-002 8.687300e-003 -3.678092e-002 1.471553e-002 -4.280727e-002 -1.883187e-001 -2.779181e-002 1.357038e-002 1.130769e-002 2.046130e-002 3.077342e-002 5.164808e-003 -3.966377e-002 -1.253187e-002 2.482041e-002 -2.884065e-002 2.395569e-002 1.692357e-002 -2.939717e-002
<VARIANCE> 39
 2.306877e-002 4.133684e-002 3.463606e-002 5.839781e-002 6.098152e-002 6.574436e-002 6.912625e-002 6.977833e-002 6.568649e-002 3.619829e-002 5.045112e-002 4.216643e-002 6.387733e-002 5.068835e-003 5.513764e-003 4.503832e-003 6.140296e-003 6.450142e-003 7.862521e-003 7.171251e-003 7.177974e-003 7.742443e-003 6.095618e-003 5.603969e-003 4.249624e-003 8.783965e-003 1.008089e-003 7.947570e-004 6.919128e-004 9.309173e-004 9.326829e-004 1.214152e-003 1.135765e-003 1.259466e-003 1.206844e-003 8.843050e-004 9.702548e-004 6.725485e-004 1.112790e-003
<GCONST> -1.236009e+002
<MIXTURE> 12 4.176059e-002
<MEAN> 39
 1.760433e-001 -3.054282e-002 8.666843e-002 -3.110934e-001 -8.576702e-002 2.126978e-001 -1.987525e-001 -1.800145e-001 1.243009e-001 -1.068715e-001 -5.678749e-002 8.039995e-002 2.251868e-001 1.233394e-002 1.535288e-001 7.934493e-002 8.405174e-002 -5.336532e-002 -5.410995e-002 -1.888659e-002 3.254580e-002 -3.714592e-002 -9.263148e-003 -4.048992e-002 -2.083976e-002 -2.350515e-001 -3.719668e-002 -1.129669e-002 1.755182e-005 4.588280e-002 2.588808e-002 -1.638658e-002 1.776311e-002 7.222810e-003 -1.886581e-002 1.877036e-002 1.552881e-002 -4.566910e-003 -2.363341e-002
<VARIANCE> 39
 2.582673e-002 7.896675e-002 6.927016e-002 7.327826e-002 1.090403e-001 1.453071e-001 1.017009e-001 1.015000e-001 8.366150e-002 7.485896e-002 7.856760e-002 5.836935e-002 6.665301e-002 6.409053e-003 7.709920e-003 5.396050e-003 8.033381e-003 1.003252e-002 1.043899e-002 9.899912e-003 8.935550e-003 9.204884e-003 7.913858e-003 7.500047e-003 5.917456e-003 1.512923e-002 7.723955e-004 1.322293e-003 1.208859e-003 1.413768e-003 1.792508e-003 2.243785e-003 2.051486e-003 2.077563e-003 1.874999e-003 1.500117e-003 1.431166e-003 1.051053e-003 1.464380e-003
<GCONST> -1.084635e+002
<TRANSP> 5
 0.000000e+000 1.000000e+000 0.000000e+000 0.000000e+000 0.000000e+000
 0.000000e+000 7.123889e-001 2.876111e-001 0.000000e+000 0.000000e+000
 0.000000e+000 0.000000e+000 7.328560e-001 2.671440e-001 0.000000e+000
 0.000000e+000 0.000000e+000 0.000000e+000 5.730878e-001 4.269122e-001
 0.000000e+000 0.000000e+000 0.000000e+000 0.000000e+000 0.000000e+000
<ENDHMM>
~h "A"
<BEGINHMM>
<NUMSTATES> 5
<STATE> 2
<NUMMIXES> 12
<MIXTURE> 1 8.565839e-002
<MEAN> 39
 2.031046e-001 -4.715975e-001 -6.858433e-001 4.196846e-001 5.131446e-001 -3.040390e-001 -2.759779e-002 1.224580e-002 -1.251702e-001 -1.847753e-001 1.250261e-001 2.267711e-001 6.124105e-001 -3.154305e-002 -3.456274e-002 5.353026e-002 3.159100e-002 -1.758439e-002 -2.503307e-002 2.760419e-002 5.281161e-003 -5.166588e-002 8.313893e-003 6.242760e-002 2.294767e-002 2.551686e-002 4.612665e-003 8.558297e-003 1.275915e-002 -1.973379e-002 -1.631290e-002 1.090125e-002 4.441046e-003 -1.329592e-003 -3.147838e-003 1.521500e-002 9.554225e-004 -2.385447e-002 -8.506436e-003
<VARIANCE> 39
 2.225241e-002 2.286445e-002 4.666911e-002 6.067787e-002 6.043883e-002 4.708143e-002 5.585625e-002 6.012820e-002 5.948427e-002 6.055169e-002 5.236983e-002 4.271144e-002 4.084282e-002 5.189708e-004 7.944906e-004 1.720855e-003 2.248162e-003 2.432683e-003 2.137492e-003 2.505565e-003 2.751076e-003 2.855653e-003 3.099773e-003 2.691506e-003 2.721363e-003 4.042738e-004 9.025433e-005 1.553366e-004 3.222040e-004 3.098555e-004 3.451102e-004 3.885466e-004 4.505702e-004 4.384959e-004 5.391543e-004 4.942112e-004 5.188652e-004 4.034665e-004 8.161326e-005
<GCONST> -1.561422e+002
<MIXTURE> 2 9.549663e-002
<MEAN> 39
 3.112458e-001 -3.201351e-001 -7.864950e-001 1.295540e-001 6.043232e-001 -2.138586e-001 -9.285695e-002 -8.478417e-002 3.614446e-002 -1.238668e-001 -8.131945e-002 4.421291e-002 5.683073e-001 -7.964469e-003 -1.958677e-002 9.872823e-004 2.135812e-002 1.752504e-002 -8.426260e-003 -6.177292e-003 -1.114425e-002 4.642800e-003 -1.356180e-002 9.460872e-003 2.145047e-002 8.197965e-003 -4.654486e-003 1.927464e-003 2.867582e-002 7.472021e-004 -2.467482e-002 -2.311378e-003 8.015557e-003 1.361044e-002 -1.115013e-002 -4.052820e-003 1.429230e-002 1.652381e-004 -9.068916e-003
<VARIANCE> 39
 3.174451e-002 3.510948e-002 5.701989e-002 6.956593e-002 5.737632e-002 5.790154e-002 5.512551e-002 9.858254e-002 7.348607e-002 6.710518e-002 5.034127e-002 4.991430e-002 4.908555e-002 1.024169e-003 1.642608e-003 3.070363e-003 3.102504e-003 3.442619e-003 3.300243e-003 3.309495e-003 5.231220e-003 4.232875e-003 4.082660e-003 3.264138e-003 3.253006e-003 1.156668e-003 2.474751e-004 3.290617e-004 6.666743e-004 5.558756e-004 6.539407e-004 5.999376e-004 7.343509e-004 7.789767e-004 8.899302e-004 6.999660e-004 6.381347e-004 5.664566e-004 3.276174e-004
<GCONST> -1.396765e+002
<MIXTURE> 3 8.482878e-002
<MEAN> 39
 -2.960473e-002 -6.006749e-001 -3.823909e-002 2.683834e-001 -6.559320e-003 -1.123807e-002 3.377986e-002 -3.500381e-001 -7.013227e-002 3.562153e-001 7.349598e-002 -7.900924e-003 7.659063e-001 7.851792e-003 -4.303041e-002 5.739955e-003 7.980010e-002 -3.550072e-003 -7.030958e-002 2.283427e-002 4.293972e-002 -4.294740e-002 1.342973e-002 3.314619e-002 -3.321300e-002 -2.021977e-003 4.855768e-003 1.965136e-002 -6.306657e-003 -2.411932e-002 -1.896987e-003 7.382281e-003 -1.776494e-003 9.055805e-003 6.803654e-003 -2.666207e-002 2.329587e-003 1.098731e-002 -9.975777e-003
<VARIANCE> 39
 2.765490e-002 2.889165e-002 3.070179e-002 7.014259e-002 5.914517e-002 7.039073e-002 6.703268e-002 5.174476e-002 6.965780e-002 4.111130e-002 3.821780e-002 3.516660e-002 6.818154e-002 7.064203e-004 1.224963e-003 1.752534e-003 2.552204e-003 2.726428e-003 3.561525e-003 3.726497e-003 2.776191e-003 2.582537e-003 3.233300e-003 3.401025e-003 2.747489e-003 3.612061e-004 1.400410e-004 2.345205e-004 2.522188e-004 3.827036e-004 4.232561e-004 5.576523e-004 4.835634e-004 5.633837e-004 6.034032e-004 5.176715e-004 5.352527e-004 4.395112e-004 1.229050e-004
<GCONST> -1.513994e+002
<MIXTURE> 4 8.364113e-002
<MEAN> 39
 2.733780e-001 -6.398022e-001 -2.741725e-001 1.486627e-001 6.590315e-002 8.569135e-002 -1.464072e-001 1.094107e-001 -5.752979e-002 -3.599483e-001 3.994679e-001 -1.755134e-002 5.947580e-001 1.081226e-002 -8.539928e-002 -2.633987e-002 1.060160e-002 -9.938330e-003 3.846060e-002 7.682403e-003 -5.781881e-003 1.486661e-002 -5.807359e-002 4.634917e-002 5.139055e-002 8.037865e-002 -2.932612e-002 2.904994e-002 2.306575e-002 9.313145e-003 -5.336194e-003 8.549602e-004 2.002947e-002 -1.630932e-002 -2.674970e-003 2.860415e-002 -2.419854e-002 4.541683e-003 -3.121533e-002
<VARIANCE> 39
 2.622657e-002 3.820394e-002 6.497455e-002 7.518980e-002 1.293012e-001 7.960064e-002 1.041396e-001 6.926554e-002 8.212841e-002 7.605525e-002 5.503463e-002 4.991142e-002 5.293534e-002 3.511423e-003 3.865724e-003 5.727321e-003 4.954150e-003 1.017335e-002 6.591958e-003 7.063722e-003 5.362633e-003 5.681645e-003 6.599318e-003 5.882763e-003 5.744653e-003 4.466118e-003 7.270104e-004 6.548589e-004 7.084183e-004 8.318371e-004 1.373246e-003 9.432996e-004 1.225372e-003 9.627148e-004 1.060756e-003 1.033628e-003 9.108512e-004 8.622872e-004 6.512021e-004
<GCONST> -1.225623e+002
<MIXTURE> 5 1.233480e-001
<MEAN> 39
 4.501648e-002 -6.048400e-001 -3.292210e-001 4.464532e-001 1.303433e-001 -2.958853e-001 1.168447e-001 -1.396734e-001 -2.563054e-001 1.891401e-001 2.750832e-001 6.060839e-002 7.136113e-001 -2.929134e-002 -3.207665e-002 -1.151140e-003 3.781941e-002 2.609122e-002 -1.599786e-002 1.788125e-002 -8.242233e-004 7.251166e-003 9.222234e-003 2.093637e-002 -6.065220e-004 4.912379e-002 -5.166425e-003 2.578702e-002 2.274620e-002 -9.727755e-003 -9.430250e-003 1.415179e-002 -7.782422e-003 5.001478e-004 1.234767e-002 -8.820887e-003 -1.525552e-002 -3.663814e-003 -3.356308e-002
<VARIANCE> 39
 3.145659e-002 2.689031e-002 5.574849e-002 6.082463e-002 6.964529e-002 4.542534e-002 4.296410e-002 5.620043e-002 4.388281e-002 5.387764e-002 4.503657e-002 3.261365e-002 7.964962e-002 1.699279e-003 2.093004e-003 3.370631e-003 3.561151e-003 3.012251e-003 3.386796e-003 4.284001e-003 3.691089e-003 3.103895e-003 3.575257e-003 3.332336e-003 2.897919e-003 2.083384e-003 5.870153e-004 4.313829e-004 5.826887e-004 6.555257e-004 5.655900e-004 7.535318e-004 5.880252e-004 7.084371e-004 6.094254e-004 6.347615e-004 5.844528e-004 4.604825e-004 5.472971e-004
<GCONST> -1.402529e+002
<MIXTURE> 6 4.421853e-002
<MEAN> 39
 1.933576e-001 -5.666943e-001 -4.693271e-001 2.577391e-001 5.482267e-001 -3.875220e-001 -5.863623e-002 1.738475e-001 -3.748114e-001 -3.693269e-002 1.762974e-001 1.781935e-001 6.579537e-001 -1.532460e-002 -5.242838e-002 9.102210e-002 -1.575537e-002 -5.265187e-002 5.394555e-002 -1.905425e-002 4.244781e-002 -6.460045e-002 -1.877797e-002 1.139914e-001 -4.683789e-002 1.729741e-002 3.958421e-003 6.760845e-003 1.831098e-002 -8.971063e-003 -4.362296e-002 3.938539e-002 2.297548e-003 -2.241506e-002 2.420406e-002 -8.012660e-003 8.772122e-003 -1.995783e-002 -1.099915e-002
<VARIANCE> 39
 2.780112e-002 2.733712e-002 4.540220e-002 5.475060e-002 6.226863e-002 4.763122e-002 7.841855e-002 6.501493e-002 5.749640e-002 9.383891e-002 5.530769e-002 4.352006e-002 6.023196e-002 7.994078e-004 1.431593e-003 2.894388e-003 2.932884e-003 4.454195e-003 4.149549e-003 5.556853e-003 4.538698e-003 4.537615e-003 5.482673e-003 4.575993e-003 4.061000e-003 6.148232e-004 1.794705e-004 3.084897e-004 4.598879e-004 5.271099e-004 5.567581e-004 5.619280e-004 6.905243e-004 8.298879e-004 8.584107e-004 1.139391e-003 1.007330e-003 8.551544e-004 2.149240e-004
<GCONST> -1.399348e+002
<MIXTURE> 7 1.034445e-001
<MEAN> 39
 2.178286e-001 -4.444802e-001 -5.592517e-001 2.888714e-001 4.321893e-001 -3.956764e-001 1.071428e-001 1.962013e-002 -2.103624e-001 -1.839919e-001 1.198934e-001 2.466753e-001 5.907734e-001 7.328014e-003 -3.020575e-002 -5.624906e-002 2.644373e-002 6.071686e-002 -2.514207e-002 -1.808642e-002 -2.507878e-002 2.127103e-002 -1.760610e-002 4.714638e-003 4.302799e-002 4.338774e-002 -1.483793e-002 1.685157e-002 3.280006e-002 -2.281920e-003 -2.885107e-002 2.661999e-002 -3.453362e-003 -6.451664e-003 7.219364e-003 1.765113e-002 3.116063e-004 -2.531233e-002 -2.689731e-002
<VARIANCE> 39
 2.647859e-002 3.053915e-002 5.489118e-002 6.383434e-002 6.132160e-002 3.851047e-002 5.973010e-002 7.323204e-002 6.235750e-002 5.621144e-002 5.853611e-002 3.248653e-002 7.155777e-002 2.769627e-003 3.044883e-003 6.066793e-003 5.054336e-003 6.169132e-003 4.122585e-003 5.876870e-003 5.617247e-003 7.247679e-003 4.631964e-003 5.758895e-003 4.020937e-003 5.321431e-003 5.800404e-004 5.397569e-004 7.887785e-004 9.510588e-004 8.493077e-004 7.639869e-004 9.051836e-004 9.961709e-004 9.815583e-004 8.441828e-004 7.958479e-004 5.904445e-004 7.097197e-004
<GCONST> -1.293897e+002
<MIXTURE> 8 1.116378e-001
<MEAN> 39
 9.364639e-002 -5.643998e-001 -3.223511e-001 3.095265e-001 2.031839e-001 -1.287970e-001 1.535848e-001 -9.893027e-002 -4.361673e-001 -3.532007e-002 4.816678e-001 3.456383e-002 6.887708e-001 9.315490e-003 -2.828857e-002 -3.221354e-002 6.294029e-002 6.660278e-002 -5.975730e-002 -4.962651e-002 2.689106e-002 2.167957e-002 -2.747919e-002 2.615342e-002 3.219046e-002 -2.779892e-003 2.372796e-003 1.826487e-002 1.139744e-002 -2.451475e-002 -2.069410e-002 1.120452e-002 2.622445e-003 -3.074404e-003 2.209231e-002 3.539245e-003 -3.672931e-002 3.251170e-005 -9.716614e-003
<VARIANCE> 39
 2.285480e-002 2.801606e-002 4.516221e-002 6.408495e-002 6.228242e-002 7.312851e-002 6.502423e-002 8.020975e-002 5.310658e-002 9.376180e-002 4.345731e-002 4.319552e-002 3.976730e-002 6.490050e-004 1.400188e-003 1.821138e-003 2.693848e-003 3.425211e-003 3.825509e-003 4.314315e-003 4.285746e-003 4.635091e-003 5.147723e-003 4.783313e-003 3.747254e-003 4.137740e-004 1.191260e-004 2.349006e-004 3.028584e-004 4.637904e-004 5.180363e-004 6.931871e-004 6.361624e-004 7.001603e-004 7.190005e-004 8.179377e-004 6.120048e-004 6.353591e-004 1.196848e-004
<GCONST> -1.453854e+002
<MIXTURE> 9 8.834790e-002
<MEAN> 39
 1.653381e-002 -4.379410e-001 -2.577725e-001 2.423154e-001 9.793519e-002 -8.088378e-002 8.043739e-002 -5.930933e-002 -2.297817e-001 1.583508e-001 2.649371e-001 4.339539e-003 3.253188e-001 1.841123e-002 -8.971817e-002 -3.175098e-002 1.192848e-002 1.195438e-002 -2.180282e-002 -2.715558e-002 -2.144601e-002 -7.119098e-003 7.434931e-003 4.881888e-002 1.633820e-003 1.359957e-001 1.026426e-003 1.940591e-002 1.342406e-002 -8.405889e-003 -2.767129e-003 6.491386e-003 -2.840631e-003 2.538858e-003 1.615936e-002 -1.693913e-002 -1.689381e-002 1.896789e-003 -1.313575e-002
<VARIANCE> 39
 4.235857e-002 7.934688e-002 9.296399e-002 1.244428e-001 9.946515e-002 1.095669e-001 1.158584e-001 1.159938e-001 1.136392e-001 1.079455e-001 1.004653e-001 6.308933e-002 2.193909e-001 5.365742e-003 1.072564e-002 1.200351e-002 1.197131e-002 1.014512e-002 1.439945e-002 9.756647e-003 1.072650e-002 9.819877e-003 1.104013e-002 1.108106e-002 6.813833e-003 2.259996e-002 8.294148e-004 1.640003e-003 1.430023e-003 1.384345e-003 1.370315e-003 1.978667e-003 1.812917e-003 1.895639e-003 2.001354e-003 1.735469e-003 1.829629e-003 1.213574e-003 3.810004e-003
<GCONST> -1.005008e+002
<MIXTURE> 10 7.253909e-002
<MEAN> 39
 1.084739e-001 -4.361441e-001 -2.916403e-001 8.767343e-002 -2.580704e-002 -2.806201e-002 3.930512e-001 -3.883097e-002 -4.877352e-001 -5.332519e-002 3.262160e-001 -2.813218e-002 6.952609e-001 1.383024e-002 -8.713179e-002 -6.581303e-002 1.089843e-001 1.193197e-001 -5.124884e-002 -4.969490e-002 1.308197e-002 -3.077437e-002 -7.176748e-002 1.085721e-001 6.872560e-002 2.177819e-002 -7.928428e-003 2.779560e-002 1.729123e-002 -5.108850e-003 9.437111e-003 -6.868163e-003 -4.272059e-002 1.045946e-003 5.589823e-002 -2.434556e-004 -3.285613e-002 1.240283e-002 -2.783688e-002
<VARIANCE> 39
 2.313042e-002 3.028535e-002 4.194555e-002 4.762381e-002 5.267103e-002 7.211932e-002 5.551375e-002 8.915661e-002 5.141849e-002 7.143252e-002 4.554921e-002 4.455192e-002 5.383737e-002 1.407413e-003 2.378428e-003 4.154783e-003 4.573298e-003 5.519708e-003 7.608116e-003 5.890961e-003 6.064577e-003 6.400579e-003 6.318789e-003 6.393285e-003 5.399552e-003 1.460224e-003 5.323500e-004 4.109243e-004 5.116413e-004 9.926530e-004 1.096995e-003 1.078445e-003 1.108388e-003 1.427490e-003 1.056527e-003 1.218176e-003 9.495621e-004 9.561712e-004 4.363555e-004
<GCONST> -1.301719e+002
<MIXTURE> 11 7.515336e-002
<MEAN> 39
 -3.478321e-002 -4.755279e-001 -1.382665e-001 1.422140e-001 -3.170967e-002 1.333634e-001 2.045572e-002 -4.864791e-001 -5.727466e-002 2.711907e-001 1.274752e-001 6.254701e-002 7.348369e-001 -1.165607e-002 -8.944072e-002 2.786902e-003 1.356777e-001 2.096193e-002 -6.139173e-002 7.759623e-004 1.978560e-003 -3.352678e-002 5.978269e-002 4.814631e-002 -4.308663e-002 2.825768e-002 1.087270e-002 3.019154e-002 1.284220e-002 -1.368773e-002 -4.669555e-003 -3.547426e-002 1.255821e-003 4.543332e-002 -2.177363e-003 -2.739597e-002 -7.209584e-003 -5.169815e-003 -3.002912e-002
<VARIANCE> 39
 2.646456e-002 2.725825e-002 3.361318e-002 8.060846e-002 5.792719e-002 7.439180e-002 9.237994e-002 5.362128e-002 8.865440e-002 4.951433e-002 4.999395e-002 3.865451e-002 6.373995e-002 1.253989e-003 2.491303e-003 3.135717e-003 4.498410e-003 5.015144e-003 5.926366e-003 5.386234e-003 5.509117e-003 5.324580e-003 5.270949e-003 6.055288e-003 3.785058e-003 1.074557e-003 4.922206e-004 3.380732e-004 5.014006e-004 7.914696e-004 7.179633e-004 9.915439e-004 1.275463e-003 9.692485e-004 1.113489e-003 1.015620e-003 8.460994e-004 7.039582e-004 3.280956e-004
<GCONST> -1.335034e+002
<MIXTURE> 12 3.164355e-002
<MEAN> 39
