# VAD: 1
# Viterbi loop action: No record

BIGRAM: method Katz, cutoff 1
coef[7]: 0.000000 0.990000 0.990000 0.990000 0.990000 0.990000 0.990000

TRIGRAM: method Katz, cutoff 1
coef[7]: 0.000000 0.990000 0.838930 0.990000 0.918747 0.990000 0.956333

\data\
ngram 1=41
ngram 2=1482
ngram 3=50467

\1-grams:
-1.3889 &	-1.8299
-1.9949 &r	-0.8158
-99.9900 </s>
-99.9900 <s>
-1.5065 >	-1.2632
-1.4352 @	-1.5674
-1.4831 A	-1.4266
-1.7429 C	-1.4579
-1.4018 E	-1.4723
-1.9578 I	-0.9251
-1.4526 N	-1.5490
-1.6617 cC	-1.8268
-1.8550 cCh	-1.4071
-1.4092 e	-1.8539
-1.8814 f	-0.5418
-1.4024 i	-1.7198
-1.5967 ixr	-1.2831
-1.4970 j	-1.1868
-1.9186 jw	-0.8761
-1.7051 k	-0.6719
-2.0163 kh	-0.4640
-1.6319 l	-0.8125
-1.4085 m	-1.0425
-1.3164 n	-1.6966
-1.4518 o	-1.1923
-1.5975 p	-0.8142
-2.3479 ph	-0.3778
-1.8366 r&	-0.6914
-1.8042 s	-0.9265
-1.7061 sr	-1.2473
-1.6050 t	-0.8394
-0.9876 tc	-2.5214
-1.9291 th	-0.5509
-1.9771 thsr	-0.6313
-1.8076 ts	-0.5606
-2.1633 tsh	-0.4759
-1.8323 tsr	-0.9528
-1.5585 u	-1.4033
-1.4353 w	-1.0489
-1.6260 x	-0.8100
-1.7593 y	-1.3239

\2-grams:
-2.3593 & &r	-1.1324
-2.1530 & >	-0.9009
-2.1365 & @	-0.8809
-2.0805 & A	+0.1034
-1.5449 & C	-0.7758
-2.3684 & E	-0.9995
-2.2870 & I	+0.1206
-1.2712 & N	+0.6301
-2.0160 & cC	+0.2158
-2.2245 & cCh	-0.9975
-1.9380 & e	-0.5513
-1.6360 & f	+0.4321
-1.5992 & i	+0.6786
-2.0027 & ixr	+0.0374
-1.6739 & j	-1.3020
-2.2203 & jw	-0.1324
-2.1341 & k	-0.7859
-2.3550 & kh	-0.8286
-1.3474 & l	+0.5806
-0.9456 & m	+0.4462
-0.8665 & n	+0.5163
-1.6666 & o	-1.3122
-2.1517 & p	-1.0916
-2.6177 & ph	-0.3814
-1.8413 & r&	-1.0064
-1.5018 & s	+0.5323
-1.4812 & sr	+0.4990
-2.4089 & t	-1.1170
-0.6155 & tc	+0.5968
-2.3048 & th	-0.6120
-2.3802 & thsr	-0.7636
-2.3437 & ts	-0.6703
-2.5435 & tsh	-0.4359
-2.2898 & tsr	-0.6837
-1.7986 & u	-1.2405
-1.5736 & w	+0.3193
-1.4741 & x	+0.4450
-2.0831 & y	-0.3808
-1.4470 &r &	-1.1735
-1.9599 &r >	-0.7880
-1.5355 &r @	-0.6471
-1.6563 &r A	-0.6415
-1.3989 &r C	+0.0413
-1.8157 &r E	-1.0358
-2.0608 &r I	-0.7211
-1.3548 &r N	-0.2206
-1.8477 &r cC	-0.8640
-1.9024 &r cCh	-0.6928
-1.3710 &r e	-1.2512
-1.8057 &r f	-0.5504
-1.4111 &r i	-0.7489
-1.7306 &r ixr	-0.6675
-1.4767 &r j	-1.1677
-2.0727 &r jw	-0.7849
-1.9827 &r k	-0.4954
-1.9689 &r kh	-0.5599
-1.3068 &r l	-0.4967
-1.5381 &r m	-0.7542
-1.1441 &r n	+0.6151
-1.5938 &r o	-1.0585
-1.9955 &r p	-0.6146
-2.2673 &r ph	-0.7643
-1.5075 &r r&	-0.9979
-1.6371 &r s	-0.8325
-1.2516 &r sr	-0.6603
-2.2646 &r t	-0.5594
-0.8435 &r tc	+0.6544
-2.0574 &r th	-0.8439
-2.2022 &r thsr	-0.9043
-2.1645 &r ts	-0.6771
-2.1841 &r tsh	-0.6445
-2.0574 &r tsr	-0.5360
-1.7919 &r u	-0.9786
-1.3737 &r w	-1.3608
-1.4873 &r x	-0.8188
-2.0492 &r y	-1.0516
-1.4251 > &	-1.7209
-1.6270 > &r	+0.4340
-1.3513 > @	-1.8349
-1.5548 > A	-1.7242
-1.6012 > C	-0.6797
-2.0180 > E	-1.2068
-2.2482 > I	-0.6990
-1.2871 > N	+0.4817
-2.2516 > cC	-0.5356
-2.2988 > cCh	-0.7455
-1.2675 > e	-0.9467
-1.7114 > f	-0.7795
-1.5604 > i	-1.6778
-1.9409 > ixr	-0.0163
-1.5924 > j	-1.6863
-1.7970 > jw	+0.4688
-2.2923 > k	-0.7758
-2.3321 > kh	-0.2822
-1.3252 > l	-1.4248
-1.2038 > m	+0.4183
-1.1008 > n	+0.4687
-1.8115 > o	-0.5768
-2.1604 > p	-0.9040
-2.6703 > ph	-0.6170
-1.3976 > r&	+0.4581
-1.7357 > s	-0.6693
-1.4560 > sr	+0.3699
-2.5560 > t	-0.8187
-0.7483 > tc	+0.5437
-2.4453 > th	-0.6447
-2.4642 > thsr	-0.8955
-2.5077 > ts	-0.8237
-2.6261 > tsh	-1.1046
-2.3112 > tsr	-0.7503
-1.7242 > u	-0.5415
-1.4079 > w	+0.2684
-1.5546 > x	-1.2589
-2.1604 > y	-0.5181
-1.7535 @ &	+0.1284
-2.0730 @ &r	-0.0690
-2.3197 @ >	-1.0323
-1.8014 @ A	-0.1047
-1.9011 @ C	+0.1347
-1.4069 @ E	-0.7475
-2.4450 @ I	-0.8320
-1.2617 @ N	+0.6251
-2.3136 @ cC	-0.6559
-2.2600 @ cCh	-0.8199
-1.5921 @ e	-0.5096
-2.0616 @ f	-1.1859
-1.2059 @ i	+0.6852
-1.8930 @ ixr	-1.0058
-0.8359 @ j	+0.2645
-1.9780 @ jw	-0.5747
-2.3410 @ k	-0.5613
-2.3535 @ kh	-0.6286
-1.2157 @ l	+0.5759
-1.4538 @ m	+0.4641
-0.7460 @ n	+0.5729
-1.6273 @ o	-0.7656
-2.4317 @ p	-0.5258
-2.8379 @ ph	-0.8786
-1.8371 @ r&	-0.7199
-2.0743 @ s	-0.4763
-1.8150 @ sr	+0.4935
-2.5233 @ t	-1.2044
-1.0497 @ tc	+0.8144
-2.2331 @ th	-0.1281
-2.2833 @ thsr	-1.1429
-2.4317 @ ts	-0.7994
-2.5805 @ tsh	-0.9021
-2.3983 @ tsr	-0.7253
-2.0342 @ u	+0.1878
-1.2242 @ w	+0.0834
-1.7636 @ x	+0.6499
-1.8254 @ y	-0.0265
-1.6285 A &	-0.1555
-1.7616 A &r	-0.8549
-1.5463 A >	-1.0660
-1.4042 A @	-1.3793
-2.0497 A C	-1.1443
-2.3711 A E	-0.8170
-2.3647 A I	-0.5108
-0.9649 A N	+0.5113
-1.9705 A cC	-0.4566
-2.1303 A cCh	-0.8742
-1.8514 A e	-0.8885
-1.7099 A f	-1.3676
-2.1085 A i	-0.4171
-2.2135 A ixr	-0.5289
-1.9820 A j	-0.1514
-2.2330 A jw	-0.0259
-2.0694 A k	-0.6044
-2.1495 A kh	-0.0090
-1.2602 A l	+0.6124
-1.0600 A m	+0.4758
-1.2297 A n	+0.5626
-1.5532 A o	-0.6055
-2.1079 A p	-0.6733
-2.6534 A ph	-0.5624
-2.0086 A r&	-1.0021
-1.7595 A s	-1.8936
-1.8366 A sr	-2.4208
-2.3626 A t	-0.9304
-1.0111 A tc	+0.8051
-2.2338 A th	-0.8218
-2.3073 A thsr	-0.9865
-2.2005 A ts	-0.6804
-2.3375 A tsh	-0.9037
-2.1977 A tsr	-0.4063
-1.6075 A u	-1.3374
-0.7513 A w	+0.1564
-1.2809 A x	-1.7837
-2.7428 A y	-0.7145
-1.8986 C &	-1.0989
-2.5078 C &r	-0.7100
-2.0900 C >	-0.4244
-2.0350 C @	-0.5855
-2.3189 C A	-0.5930
-1.6112 C E	-1.1750
-1.6602 C I	-1.0227
-1.6742 C N	-0.3290
-1.4008 C cC	-0.6033
-1.3943 C cCh	+0.0679
-1.6176 C e	-0.5573
-1.7526 C f	-0.7183
-0.9764 C i	+0.7153
-1.0845 C ixr	+0.7752
-1.4240 C j	-0.7709
-1.3755 C jw	-0.6450
-1.5305 C k	-1.0661
-1.9733 C kh	-0.8090
-2.1102 C l	-0.4138
-1.6731 C m	-0.2511
-1.5794 C n	-0.2693
-2.0298 C o	-0.5871
-1.6416 C p	-0.5030
-2.2713 C ph	-0.8344
-2.0177 C r&	-0.8484
-1.6968 C s	-0.7746
-1.7802 C sr	+0.2859
-1.6488 C t	-1.4105
-1.3167 C tc	+0.1599
-1.8039 C th	-0.8776
-1.4794 C thsr	-1.1685
-1.4315 C ts	-1.5281
-1.7605 C tsh	-0.1379
-1.4767 C tsr	-1.6216
-1.7567 C u	-1.1156
-1.7079 C w	-0.2110
-1.7624 C x	-1.4373
-1.1975 C y	-1.6673
-1.5142 E &	-1.5604
-1.8323 E &r	+0.5900
-2.4391 E >	-0.5952
-1.6586 E @	-0.5888
-1.3497 E A	+0.5305
-1.7767 E C	-0.3898
-2.3896 E I	-0.7046
-1.2377 E N	+0.5521
-2.4706 E cC	-0.8569
-2.5182 E cCh	-0.7452
-2.1307 E e	-0.9130
-1.7513 E f	-2.1147
-2.0523 E i	-0.4664
-2.0192 E ixr	-0.7802
-1.8601 E j	-0.9961
-2.5801 E jw	-0.8422
-2.3237 E k	-0.6817
-2.5554 E kh	-0.8284
-1.1942 E l	-1.8199
-1.1085 E m	+0.5153
-0.7205 E n	+0.5877
-1.2616 E o	-1.6762
-2.5073 E p	-0.9232
-2.8797 E ph	-1.0489
-1.8069 E r&	-1.1878
-1.7880 E s	-0.6516
-1.7448 E sr	+0.5924
-2.6033 E t	-1.2439
-0.7401 E tc	+0.6900
-2.4450 E th	-0.5326
-2.5332 E thsr	-1.1634
-2.5829 E ts	-1.0224
-2.6590 E tsh	-0.6555
-2.6473 E tsr	-0.8866
-1.9665 E u	-0.4526
-1.3741 E w	-1.7236
-1.4529 E x	+0.4280
-2.5307 E y	-1.4611
-1.5361 I &	-0.4620
-2.1427 I &r	-0.8291
-2.0078 I >	-0.7984
-1.7776 I @	-0.4469
-1.8353 I A	-0.6785
-1.2821 I C	-1.4307
-2.1849 I E	-0.6638
-1.3526 I N	-0.3567
-1.8678 I cC	-1.0148
-2.0534 I cCh	-0.3147
-1.5565 I e	-0.7543
-1.6264 I f	-0.7454
-1.3835 I i	-0.4544
-2.0241 I ixr	-1.1011
-1.9157 I j	-0.2737
-1.9647 I jw	-0.3443
-2.1030 I k	-0.5969
-2.2464 I kh	-0.6407
-1.5922 I l	-1.0296
-1.3288 I m	-0.6115
-1.2507 I n	-1.2116
-1.7302 I o	-0.9653
-2.1256 I p	-0.5873
-2.2417 I ph	-0.8090
-1.6718 I r&	-0.8941
-1.2770 I s	-1.9016
-1.2589 I sr	+0.4894
-2.4109 I t	-0.6221
-0.6196 I tc	-1.6044
-2.1347 I th	-0.6823
-2.1458 I thsr	-0.5800
-2.2488 I ts	-0.7285
-2.2657 I tsh	-0.5584
-2.1383 I tsr	-0.7394
-1.7853 I u	-0.7349
-1.6557 I w	-0.0314
-1.4843 I x	-0.2596
-1.7175 I y	-0.5375
-1.8085 N &	-0.5341
-2.3695 N &r	-0.5764
-1.6594 N >	-0.4089
-2.0949 N @	-0.7621
-2.0435 N A	-0.7809
-1.4000 N C	+0.7201
-1.9707 N E	-0.7074
-1.9718 N I	-0.8194
-1.5082 N cC	+0.0802
-1.6855 N cCh	-0.4825
-1.8039 N e	-0.4871
-1.4737 N f	+0.4787
-1.4734 N i	+0.8221
-1.7911 N ixr	-0.3683
-1.9927 N j	-0.1770
-1.9606 N jw	-0.0409
-1.6069 N k	-0.9919
-1.8616 N kh	-1.8963
-1.5372 N l	+0.4992
-1.0548 N m	+0.4110
-1.5583 N n	-1.6669
-2.0844 N o	-0.4636
-1.5742 N p	-0.9318
-2.1282 N ph	-0.2221
-1.9054 N r&	-1.3031
-1.3996 N s	+0.5372
-1.5027 N sr	+0.5386
-1.9722 N t	-1.2606
-0.6995 N tc	+0.6344
-1.8981 N th	-0.6608
-1.8819 N thsr	-1.6535
-1.7895 N ts	-0.7455
-1.8219 N tsh	+0.4573
-1.7778 N tsr	-0.3990
-1.5264 N u	+0.4243
-1.7050 N w	+0.5758
-1.2744 N x	+0.4159
-1.9602 N y	-0.7177
-1.9080 cC &	-0.6258
-2.8339 cC &r	-1.2054
-2.3771 cC >	-0.5624
-2.4051 cC @	-0.6754
-2.7361 cC A	-0.6211
-2.0784 cC C	-0.0982
-0.8075 cC E	+0.6787
-2.0599 cC I	-0.6036
-2.0128 cC N	-1.1012
-2.4892 cC cCh	-1.0753
-1.5930 cC e	-0.7037
-2.5424 cC f	-0.9653
-0.8252 cC i	+0.5745
-1.0994 cC ixr	+0.7615
-0.8753 cC j	-1.7629
-1.0823 cC jw	-1.1357
-1.6943 cC k	-1.1225
-2.7354 cC kh	-1.2818
-2.3258 cC l	-1.1748
-1.9404 cC m	-0.7632
-1.9036 cC n	-0.6104
-1.4045 cC o	-1.8555
-2.3449 cC p	-0.7962
-2.8530 cC ph	-0.8504
-1.8241 cC r&	-0.9225
-2.3824 cC s	-0.5402
-2.0846 cC sr	-0.8138
-2.0805 cC t	-0.8154
-1.6696 cC tc	-0.4116
-2.1628 cC th	-1.0172
-2.0093 cC thsr	-0.9717
-2.2298 cC ts	-1.5413
-2.6429 cC tsh	-0.7622
-2.2522 cC tsr	-0.9572
-2.0606 cC u	-0.5464
-2.2809 cC w	-0.5096
-2.4344 cC x	-0.7724
-0.9377 cC y	+0.6305
-1.8344 cCh &	-1.1862
-2.5652 cCh &r	-0.8070
-2.2363 cCh >	-0.9942
-2.0045 cCh @	-1.0366
-2.5539 cCh A	-0.7058
-1.7381 cCh C	-0.2257
-1.1523 cCh E	-0.4613
-1.8139 cCh I	-0.8880
-1.6049 cCh N	-1.3301
-2.0229 cCh cC	-0.9906
-1.4970 cCh e	-0.7728
-1.8216 cCh f	-1.3023
-0.9198 cCh i	-2.0072
-1.0386 cCh ixr	+0.7866
-1.3465 cCh j	-0.7085
-1.2852 cCh jw	-0.5744
-1.7931 cCh k	-0.9206
-2.2374 cCh kh	-1.2470
-2.0674 cCh l	-0.1239
-1.7430 cCh m	-1.0009
-1.4425 cCh n	-0.7721
-1.7840 cCh o	-0.5198
-1.9991 cCh p	-0.9973
-2.5686 cCh ph	-1.1274
-1.7892 cCh r&	-1.1376
-1.7406 cCh s	-0.4425
-1.6554 cCh sr	-0.0175
-2.0353 cCh t	-0.8449
-1.2895 cCh tc	+0.2588
-1.9309 cCh th	-1.6637
-1.6214 cCh thsr	-1.2753
-1.7477 cCh ts	-1.2014
-2.0517 cCh tsh	-0.6147
-1.7578 cCh tsr	-1.3378
-1.9064 cCh u	-0.6453
-1.8581 cCh w	-0.4815
-1.8913 cCh x	-1.0314
-0.9216 cCh y	-1.8310
-1.8913 e &	-0.9311
-2.4399 e &r	-0.6800
-2.3968 e >	-0.5395
-2.1415 e @	-1.3508
-2.3375 e A	-0.9814
-1.6631 e C	+0.7824
-0.8141 e E	+0.6123
-2.6065 e I	-1.3528
-1.3073 e N	+0.6626
-2.2612 e cC	-0.5325
-2.2890 e cCh	-0.8713
-2.5047 e f	-0.6236
-0.7502 e i	+0.6526
-1.8170 e ixr	-0.3951
-0.7679 e j	+0.3173
-1.5793 e jw	-1.0771
-2.3609 e k	-1.0167
-2.5900 e kh	-0.6562
-1.8595 e l	-0.6922
-2.0942 e m	-0.8338
-1.0120 e n	+0.6025
-1.5939 e o	-0.9033
-2.5413 e p	-0.6198
-2.7335 e ph	-0.7939
-1.6155 e r&	-1.3777
-2.2717 e s	+0.0278
-1.8852 e sr	-1.9202
-2.5945 e t	-0.6871
-1.4970 e tc	-0.3852
-2.3732 e th	-0.2545
-2.2619 e thsr	-0.0123
-2.5560 e ts	-0.9364
-2.6269 e tsh	-0.3271
-2.5208 e tsr	-0.7513
-2.1492 e u	-0.8061
-2.0098 e w	-0.2547
-2.0668 e x	-0.1533
-1.2222 e y	+0.6850
-1.0080 f &	-1.7631
-1.7287 f &r	-0.5204
-1.1120 f >	-1.0422
-1.0398 f @	-1.2721
-1.0765 f A	-0.8683
-2.3465 f C	-0.6226
-2.1120 f E	-0.6910
-1.5388 f I	-0.7540
-1.4156 f N	-0.4835
-1.9046 f cC	-0.8306
-1.8489 f cCh	-1.1739
-1.1909 f e	-0.7644
-1.8387 f i	-0.5296
-1.4490 f ixr	-0.7382
-2.0639 f j	-0.6964
-2.4323 f jw	-0.6884
-1.6813 f k	-1.2489
-1.9802 f kh	-0.6298
-2.1238 f l	-0.6945
-1.7501 f m	-1.4778
-1.8402 f n	-0.6165
-1.4197 f o	-0.4991
-1.8161 f p	-0.9792
-2.3471 f ph	-0.7343
-2.1298 f r&	-1.2580
-2.0289 f s	-0.0005
-2.0113 f sr	-0.3193
-1.6824 f t	-0.9399
-1.6054 f tc	-0.9452
-1.9749 f th	-0.7631
-2.0289 f thsr	-0.4729
-1.8675 f ts	-1.0864
-2.1845 f tsh	-0.7117
-2.0265 f tsr	-0.7003
-1.1644 f u	+0.5666
-1.2958 f w	-0.6952
-1.7097 f x	-0.8027
-2.2998 f y	-1.1462
-2.1038 i &	-0.9021
-2.3015 i &r	+0.4231
-2.2573 i >	-1.3709
-2.3219 i @	-0.8155
-2.1034 i A	+0.1506
-1.3598 i C	+0.6565
-1.3310 i E	-2.0834
-2.3278 i I	-0.9852
-1.3734 i N	+0.5077
-1.7458 i cC	-0.3664
-2.0516 i cCh	-1.4484
-2.1009 i e	-0.8295
-1.8147 i f	-1.5610
-1.8220 i ixr	-0.5378
-1.8205 i j	-0.7087
-1.6968 i jw	-1.0167
-1.7716 i k	-0.7515
-2.1717 i kh	-0.0393
-1.4158 i l	-2.6043
-1.1688 i m	+0.4960
-1.0394 i n	+0.4902
-1.3637 i o	+0.3176
-2.1147 i p	-0.9472
-2.5250 i ph	+0.5346
-1.6747 i r&	-0.8942
-1.6468 i s	+0.6107
-1.5989 i sr	+0.5420
-2.2171 i t	-0.6873
-0.5724 i tc	+0.5282
-2.0263 i th	-0.2484
-2.0166 i thsr	-0.3801
-2.1656 i ts	-1.0158
-2.2477 i tsh	-0.6941
-2.1176 i tsr	-0.7842
-1.9276 i u	-0.6385
-1.8850 i w	-0.5342
-1.4591 i x	+0.4384
-1.8544 i y	-0.3343
-1.5860 ixr &	-1.8304
-2.0127 ixr &r	-0.8332
-2.1459 ixr >	-0.2675
-1.8137 ixr @	-0.4547
-1.7428 ixr A	-0.1177
-1.2649 ixr C	+0.5244
-1.9283 ixr E	-0.3844
-2.3088 ixr I	-0.4066
-1.3262 ixr N	+0.6253
-1.9214 ixr cC	-0.5382
-2.0695 ixr cCh	+0.4285
-1.8680 ixr e	-0.7963
-1.6226 ixr f	-1.0313
-1.6127 ixr i	-0.0889
-1.9627 ixr j	-0.6455
-2.2288 ixr jw	-0.8535
-1.9852 ixr k	-1.2184
-2.3064 ixr kh	-0.4383
-1.5863 ixr l	-1.3087
-1.3163 ixr m	-2.3268
-1.1743 ixr n	-2.0829
-1.4202 ixr o	-1.8079
-2.1218 ixr p	-0.3990
-2.2959 ixr ph	+0.0664
-1.7560 ixr r&	-0.3307
-1.2605 ixr s	+0.5235
-1.1559 ixr sr	+0.4651
-2.3357 ixr t	-0.6859
-0.6283 ixr tc	-1.9568
-2.1037 ixr th	-0.2049
-2.2048 ixr thsr	-0.4178
-2.2105 ixr ts	-0.9618
-2.3894 ixr tsh	-0.7662
-2.1546 ixr tsr	-1.1902
-1.7723 ixr u	-0.0714
-1.6668 ixr w	-0.8453
-1.4306 ixr x	+0.3428
-2.0475 ixr y	-0.6658
-1.6762 j &	-0.0411
-1.9310 j &r	-0.4484
-2.2654 j >	-0.8373
-1.3607 j @	-1.8349
-1.0539 j A	+0.7156
-1.4570 j C	+0.6296
-1.1717 j E	-2.3242
-2.6160 j I	-0.5422
-1.7172 j N	-0.7679
-2.1033 j cC	-0.7371
-2.3064 j cCh	-0.3721
-2.2388 j e	-0.5401
-1.9075 j f	-0.8154
-1.7179 j i	-0.4132
-2.0431 j ixr	-0.3293
-2.2396 j jw	-0.2896
-2.1269 j k	-0.8313
-2.3603 j kh	-0.6105
-1.5929 j l	-0.9223
-1.6994 j m	-0.9015
-1.3890 j n	+0.4747
-0.9317 j o	+0.3169
-2.3699 j p	-0.6186
-2.7571 j ph	-0.6771
-2.0503 j r&	-0.3259
-1.7230 j s	-1.7402
-1.6630 j sr	-0.6715
-2.4535 j t	-0.9355
-0.5416 j tc	+0.5793
-2.1824 j th	-0.8935
-2.2980 j thsr	-0.8466
-2.5141 j ts	-0.7170
-2.5954 j tsh	-0.6235
-2.3899 j tsr	-0.5993
-2.1733 j u	-0.6768
-1.7524 j w	-1.2690
-1.5876 j x	+0.4829
-2.2324 j y	-0.6780
-1.2572 jw &	-0.3437
-1.7988 jw &r	-0.6420
-2.1655 jw >	-1.0599
-1.3976 jw @	-0.6324
-1.4788 jw A	-0.0278
-2.1217 jw C	-0.3230
-0.4640 jw E	+0.7264
-2.2855 jw I	-0.6128
-1.8549 jw N	-0.5446
-2.2001 jw cC	-0.9845
-2.2040 jw cCh	-1.1724
-1.4483 jw e	-1.1063
-2.6108 jw f	-1.1645
-1.5058 jw i	-0.9836
-1.3564 jw ixr	-0.5616
-1.1364 jw j	-1.1091
-1.7159 jw k	-0.8687
-2.5011 jw kh	-0.8172
-2.0820 jw l	-1.1061
-2.2302 jw m	-0.9288
-1.9916 jw n	-0.0252
-0.9709 jw o	-1.0366
-2.3174 jw p	-0.8235
-2.6930 jw ph	-0.8973
-1.7269 jw r&	-0.6999
-2.3435 jw s	-0.9185
-1.9109 jw sr	-0.8647
-2.1683 jw t	-1.1985
-2.0398 jw tc	-0.4699
-2.1577 jw th	-0.8214
-2.2199 jw thsr	-0.6113
-2.3860 jw ts	-0.5590
-2.5547 jw tsh	-1.0274
-2.2625 jw tsr	-0.9750
-2.1387 jw u	-0.6937
-2.1867 jw w	-0.7997
-2.0865 jw x	-0.7392
-1.7288 jw y	-0.1878
-0.8655 k &	+0.7205
-1.6278 k &r	-0.3991
-1.0179 k >	+0.6712
-1.0827 k @	-1.9049
-1.1365 k A	+0.7937
-2.3881 k C	-0.6963
-1.0755 k E	-1.1648
-2.1059 k I	-0.0877
-1.6698 k N	-1.4904
-2.4438 k cC	-1.1663
-2.6401 k cCh	-0.5148
-1.4482 k e	+0.0929
-2.4459 k f	-0.5413
-1.7812 k i	-0.5120
-1.7876 k ixr	+0.1658
-1.5582 k j	-0.9409
-2.4967 k jw	-0.9655
-2.5653 k kh	-0.9957
-1.9646 k l	-0.6648
-1.9660 k m	-0.8676
-1.8865 k n	-0.2437
-1.0263 k o	-1.4846
-1.7973 k p	-1.2759
-2.7553 k ph	-0.7645
-2.0042 k r&	-0.8710
-2.4355 k s	-0.7182
-2.3262 k sr	-0.4108
-2.3506 k t	-0.9315
-1.5438 k tc	-1.2723
-2.2926 k th	-1.2011
-2.5184 k thsr	-0.6391
-2.5284 k ts	-0.9493
-2.9444 k tsh	-0.9930
-2.5849 k tsr	-0.6698
-1.4247 k u	+0.5912
-1.0624 k w	-2.4391
-1.8391 k x	-1.0123
-2.3928 k y	-0.5993
-1.0649 kh &	+0.1213
-1.7112 kh &r	-0.2986
-1.5019 kh >	-0.9120
-0.9911 kh @	-1.1624
-1.0929 kh A	-1.8074
-2.1127 kh C	-0.6470
-1.5753 kh E	-0.6519
-1.6961 kh I	-0.9876
-1.4686 kh N	-0.9032
-2.0134 kh cC	-0.7627
-2.0761 kh cCh	-0.5893
-1.2132 kh e	-0.7921
-1.8916 kh f	-1.0271
-1.6398 kh i	-0.8320
-1.4161 kh ixr	-0.8279
-1.8202 kh j	-0.9970
-2.2197 kh jw	-0.8915
-1.6338 kh k	-1.0594
-1.8845 kh l	-0.9158
-1.7834 kh m	-1.3599
-1.6767 kh n	-0.6804
-1.2740 kh o	-1.0457
-1.7834 kh p	-0.7457
-2.3920 kh ph	-0.6519
-1.8517 kh r&	-0.7478
-1.9476 kh s	-0.9630
-1.8053 kh sr	-0.4962
-1.6811 kh t	-1.3046
-1.6202 kh tc	-0.5048
-1.9903 kh th	-1.0251
-2.0530 kh thsr	-1.0346
-1.8192 kh ts	-1.0904
-2.2405 kh tsh	-0.9069
-1.9642 kh tsr	-0.7682
-1.3378 kh u	-0.0286
-1.3685 kh w	-0.5385
-1.5142 kh x	-0.5830
-1.9888 kh y	-0.9638
-0.9560 l &	+0.4802
-1.7899 l &r	-0.6726
-1.4551 l >	-0.6301
-0.9650 l @	-1.3887
-1.0909 l A	-2.0627
-2.3615 l C	-0.6403
-1.0193 l E	+0.6640
-2.0229 l I	-1.0014
-1.7627 l N	-0.1852
-2.3429 l cC	-0.5971
-2.3500 l cCh	-0.2443
-1.0464 l e	+0.5461
-2.6303 l f	-0.8772
-0.9860 l i	+0.6505
-1.6787 l ixr	-0.1942
-1.3457 l j	-0.6246
-1.9957 l jw	-0.7023
-2.0110 l k	-0.9440
-2.3005 l kh	-1.1134
-2.1604 l m	-1.1130
-2.1858 l n	-0.1030
-1.3954 l o	-1.4041
-1.9144 l p	-1.1386
-2.3931 l ph	-0.8161
-1.9238 l r&	-0.8251
-2.5699 l s	-0.9633
-2.2372 l sr	-0.6091
-1.7371 l t	-1.5648
-2.0729 l tc	-0.1603
-2.0655 l th	-0.2608
-2.2077 l thsr	-0.4278
-2.3212 l ts	-0.8478
-2.6249 l tsh	-0.7464
-2.4849 l tsr	-0.8241
-1.7817 l u	-1.0763
-1.7741 l w	-1.2492
-1.8790 l x	-0.8505
-1.4692 l y	-0.7995
-0.9129 m &	+0.6168
-1.9832 m &r	-1.1731
-1.1293 m >	+0.6480
-1.1152 m @	+0.6992
-1.2067 m A	+0.8679
-2.3183 m C	-0.2679
-1.5443 m E	-1.3412
-1.7257 m I	-0.5758
-1.4795 m N	+0.5693
-2.1553 m cC	-0.7520
-2.3616 m cCh	-1.0175
-0.7416 m e	+0.7316
-2.5447 m f	-0.6553
-1.3894 m i	-0.9401
-1.6308 m ixr	+0.6061
-1.7813 m j	-0.9097
-2.3085 m jw	-0.6301
-1.7229 m k	-0.5674
-2.4083 m kh	-0.8204
-2.0627 m l	-1.2142
-1.9156 m n	-0.2678
-1.4781 m o	-1.3996
-1.8859 m p	-1.4112
-2.4935 m ph	-0.8601
-1.8578 m r&	-0.7502
-2.3884 m s	+0.2283
-2.1195 m sr	-0.3585
-1.4120 m t	-1.2441
-1.7122 m tc	-0.8375
-2.1451 m th	+0.0008
-2.3338 m thsr	-0.8956
-1.9423 m ts	-1.7155
-2.5278 m tsh	-0.6636
-2.2639 m tsr	-1.1668
-1.4788 m u	+0.6105
-1.6528 m w	-1.2548
-1.8917 m x	-0.4453
-2.1190 m y	-0.6279
-1.6588 n &	-0.7407
-2.5205 n &r	-0.7241
-1.8755 n >	-0.8442
-1.7731 n @	-0.4656
-1.7846 n A	-2.2530
-1.6104 n C	+0.6495
-1.8373 n E	-0.0440
-1.9423 n I	-0.4513
-1.5839 n N	+0.5532
-1.3793 n cC	-0.4086
-1.9745 n cCh	-0.9389
-1.2875 n e	-1.1168
-1.8857 n f	-1.1570
-1.1610 n i	+0.6410
-1.6778 n ixr	-1.8169
-1.7562 n j	-0.8030
-1.8716 n jw	-0.9812
-1.4492 n k	-1.8412
-2.1522 n kh	-0.9119
-1.4837 n l	-1.3267
-1.0851 n m	+0.5201
-1.9859 n o	-0.2940
-1.5122 n p	-2.0246
-2.3680 n ph	-0.0806
-1.8949 n r&	-1.0898
-1.7823 n s	+0.5800
-1.7606 n sr	-0.9533
-1.2951 n t	-1.9277
-0.7948 n tc	+0.6425
-1.8370 n th	-2.0574
-1.9788 n thsr	-0.9109
-1.4536 n ts	-1.3269
-2.2273 n tsh	-0.5769
-1.8165 n tsr	-1.7728
-1.6794 n u	+0.6296
-1.8852 n w	-1.0963
-1.6771 n x	-1.4105
-1.7987 n y	-0.7076
-1.3936 o &	+0.6455
-2.0683 o &r	-0.4249
-0.8467 o >	+0.6270
-2.0891 o @	-0.7367
-1.7453 o A	-0.4678
-2.1413 o C	-0.8470
-2.2456 o E	-0.8725
-1.8827 o I	-0.6761
-1.0063 o N	+0.5196
-2.2063 o cC	-0.3644
-2.3767 o cCh	-0.6022
-1.2277 o e	-1.0412
-1.7744 o f	-2.0415
-2.0986 o i	-0.6002
-2.0893 o ixr	-0.4168
-2.0857 o j	-0.5217
-2.5107 o jw	-0.1809
-2.0663 o k	-1.3265
-2.4065 o kh	-0.4998
-1.5769 o l	-1.0551
-1.0724 o m	+0.4710
-1.7016 o n	-1.5244
-2.0634 o p	-0.8898
-2.6868 o ph	-0.7155
-1.8013 o r&	-1.7848
-2.0031 o s	-0.4565
-1.8133 o sr	-1.1713
-2.5040 o t	-0.8397
-1.4164 o tc	-0.4626
-2.4351 o th	-0.8247
-2.4794 o thsr	-1.2032
-2.4513 o ts	-1.2359
-2.6650 o tsh	-0.5016
-2.3592 o tsr	-0.3348
-0.9387 o u	+0.4814
-0.8911 o w	+0.3485
-1.3766 o x	+0.4224
-2.6227 o y	-0.5421
-1.0674 p &	+0.6864
-1.7417 p &r	-1.1774
-1.1041 p >	-2.2240
-0.9561 p @	+0.7050
-1.0782 p A	+0.8959
-2.1500 p C	+0.4968
-1.6095 p E	-0.4322
-1.7229 p I	-0.3268
-1.7613 p N	-0.5699
-2.4931 p cC	-0.9098
-2.3623 p cCh	-0.5470
-1.0988 p e	-0.8410
-2.3664 p f	-0.5408
-1.1494 p i	+0.6008
-1.4748 p ixr	+0.6156
-1.4968 p j	-0.9083
-1.8566 p jw	-1.3877
-2.1699 p k	-1.5820
-2.4968 p kh	-1.4035
-2.0999 p l	-0.5862
-1.9604 p m	-0.5688
-1.8763 p n	+0.0814
-1.4587 p o	-0.7477
-2.5705 p ph	-0.6516
-1.9652 p r&	-0.9031
-2.5117 p s	-0.4144
-2.1572 p sr	+0.4644
-2.0586 p t	-1.5755
-1.4848 p tc	+0.4206
-2.2411 p th	-0.7936
-2.4244 p thsr	-0.5620
-2.5350 p ts	-1.0269
-3.0586 p tsh	-0.7402
-2.7477 p tsr	-0.6572
-1.1173 p u	+0.5490
-1.4027 p w	-1.3555
-1.9153 p x	-0.9066
-1.6050 p y	-1.2335
-1.4971 ph &	-0.4485
-2.1478 ph &r	-0.8156
-1.3955 ph >	-0.7126
-1.4248 ph @	-0.7079
-1.2616 ph A	-0.7007
-1.8332 ph C	-0.5870
-1.4641 ph E	-0.8961
-1.8563 ph I	-0.8840
-1.3459 ph N	-1.1274
-1.6946 ph cC	-1.1276
-1.5448 ph cCh	-0.8550
-1.4650 ph e	-1.0182
-1.7867 ph f	-0.9263
-1.0319 ph i	-0.6158
-1.4127 ph ixr	-0.8652
-1.4856 ph j	-1.2750
-1.4747 ph jw	-1.1100
-1.7767 ph k	-0.7765
-2.1526 ph kh	-0.9232
-1.9143 ph l	-0.8300
-1.6979 ph m	-1.3118
-1.7197 ph n	-0.5836
-1.5846 ph o	-0.6597
-1.8073 ph p	-1.1331
-1.9719 ph r&	-0.5923
-1.6724 ph s	-0.7817
-1.5884 ph sr	-0.8861
-1.8984 ph t	-0.9403
-1.5158 ph tc	-0.7506
-1.9688 ph th	-1.0023
-1.6946 ph thsr	-0.9627
-1.8245 ph ts	-1.1786
-1.9908 ph tsh	-0.6989
-1.8179 ph tsr	-0.7369
-1.5402 ph u	-0.2998
-1.3600 ph w	-0.5107
-1.5821 ph x	-1.1038
-1.4699 ph y	-0.9490
-1.0685 r& &	-1.5713
-1.6185 r& &r	+0.0021
-1.6768 r& >	-0.7131
-1.1342 r& @	-0.6731
-1.0672 r& A	-1.0968
-2.4089 r& C	-0.7719
-0.9654 r& E	+0.4704
-1.9949 r& I	-0.8051
-1.4200 r& N	-0.6477
-2.1152 r& cC	-0.5984
-2.0859 r& cCh	-1.1817
-1.4275 r& e	-0.7111
-2.3469 r& f	-0.7228
-1.6234 r& i	-0.8582
-1.4619 r& ixr	-1.0056
-1.6611 r& j	-0.8472
-2.2522 r& jw	-0.9073
-1.9198 r& k	-0.7467
-2.2075 r& kh	-1.0958
-1.8215 r& l	-0.9865
-1.7218 r& m	-0.8577
-1.6501 r& n	-0.3197
-0.8862 r& o	+0.1481
-2.0908 r& p	-0.8383
-2.5642 r& ph	-0.8775
-2.4310 r& s	-0.8185
-1.9631 r& sr	-0.0769
-2.2043 r& t	-0.5199
-1.8705 r& tc	-0.6524
-2.0896 r& th	-0.5795
-2.1411 r& thsr	-0.8903
-2.2276 r& ts	-0.5827
-2.4123 r& tsh	-0.6821
-2.1397 r& tsr	-0.8449
-1.4299 r& u	-0.6545
-1.3081 r& w	-0.4768
-1.6372 r& x	-1.1522
-1.9206 r& y	-0.5724
-1.1100 s &	-0.5134
-2.0388 s &r	-0.5529
-1.7252 s >	-1.0272
-1.3284 s @	-1.2789
-1.6070 s A	-0.9037
-2.1668 s C	-0.5484
-1.9881 s E	-0.6681
-1.2444 s I	+0.6075
-1.6482 s N	-0.0550
-1.5638 s cC	-0.8955
-1.6095 s cCh	-0.4016
-1.4220 s e	+0.2239
-1.8330 s f	-1.0692
-1.8191 s i	+0.0819
-1.1447 s ixr	+0.5533
-1.9918 s j	-0.9703
-2.0966 s jw	-0.9325
-1.4403 s k	-1.0213
-1.7991 s kh	-0.3535
-2.0097 s l	-0.7839
-1.6449 s m	-1.0726
-1.5963 s n	-1.2686
-1.5384 s o	-0.6807
-1.3956 s p	-0.6904
-2.3264 s ph	-0.7646
-2.0794 s r&	-0.9397
-2.0097 s sr	-0.7306
-1.2416 s t	-1.2526
-1.3979 s tc	-1.0022
-1.8254 s th	-0.4802
-1.7324 s thsr	-0.4414
-1.4623 s ts	-1.2441
-1.8852 s tsh	-1.0465
-1.6110 s tsr	-0.4501
-1.3546 s u	-0.5347
-1.4112 s w	-0.7999
-1.6862 s x	-0.1327
-2.1820 s y	-0.9623
-1.2946 sr &	-0.4141
-2.1102 sr &r	-0.5344
-1.9638 sr >	-0.6847
-1.7690 sr @	-0.7340
-1.7827 sr A	-1.4860
-2.1348 sr C	-0.8396
-1.6966 sr E	-0.8303
-1.4548 sr I	-1.1700
-1.5882 sr N	-0.6343
-1.6733 sr cC	-0.5370
-1.5920 sr cCh	-0.3096
-1.6769 sr e	-0.7416
-1.8653 sr f	-1.1127
-1.5788 sr i	-0.2026
-0.8531 sr ixr	+0.6079
-1.6787 sr j	-0.7887
-1.7884 sr jw	-1.1237
-1.4873 sr k	-1.2531
-1.9677 sr kh	-0.5356
-2.0536 sr l	-1.1378
-1.6999 sr m	-0.5671
-1.5526 sr n	-1.4192
-1.2249 sr o	-1.2856
-1.5748 sr p	-0.7906
-2.2887 sr ph	-0.4648
-1.8523 sr r&	-0.7406
-1.8386 sr s	-0.2063
-1.4769 sr t	-1.4806
-1.3548 sr tc	-1.0702
-1.8512 sr th	-0.2638
-1.6152 sr thsr	-0.8431
-1.6377 sr ts	-0.8938
-1.9957 sr tsh	-0.8754
-1.6884 sr tsr	-0.8886
-1.3946 sr u	-0.9212
-1.4948 sr w	-0.7126
-1.6564 sr x	-0.4553
-1.4154 sr y	-0.2676
-1.1121 t &	+0.7150
-1.6537 t &r	-1.1998
-1.8305 t >	-0.9663
-0.9305 t @	+0.7046
-0.9237 t A	+0.7451
-2.3036 t C	-0.8749
-0.9935 t E	+0.6307
-2.1119 t I	-0.7937
-1.4834 t N	+0.6144
-2.5608 t cC	-0.4792
-2.4523 t cCh	-1.1816
-1.3724 t e	-1.2069
-2.2305 t f	-0.4072
-1.4975 t i	-0.7590
-1.6325 t ixr	+0.7056
-1.2358 t j	-1.1581
-1.8844 t jw	-1.3501
-2.4294 t k	-0.6980
-2.5215 t kh	-1.4626
-1.9175 t l	-1.0916
-1.9376 t m	-1.3985
-1.5721 t n	-0.7936
-1.0632 t o	-1.6713
-2.5335 t p	-0.8035
-2.8226 t ph	-0.9082
-1.9797 t r&	-0.7933
-2.3754 t s	-0.2768
-2.1624 t sr	-0.8321
-1.4688 t tc	-0.2180
-2.3428 t th	-0.8117
-2.4456 t thsr	-0.7640
-2.6039 t ts	-0.9609
-2.8305 t tsh	-1.1656
-2.7567 t tsr	-0.8887
-1.7537 t u	-1.6960
-1.3341 t w	-1.0380
-1.6841 t x	-0.8858
-1.8063 t y	+0.2803
-2.1396 tc &	-0.3306
-2.6905 tc &r	+0.1663
-2.2976 tc >	-0.1446
-2.2424 tc @	-0.3002
-2.5837 tc A	+0.5765
-2.0969 tc C	-0.5385
-2.6463 tc E	-0.9702
-2.0740 tc I	+0.5523
-2.3929 tc N	-0.6718
-0.9805 tc cC	+0.5715
-1.2208 tc cCh	+0.6781
-1.8147 tc e	+0.6260
-2.0351 tc f	-1.2550
-1.9973 tc i	-0.6777
-1.9119 tc ixr	+0.5058
-2.0612 tc j	-1.7010
-2.3996 tc jw	-1.3339
-1.1854 tc k	+0.5121
-1.3880 tc kh	+0.6035
-2.4184 tc l	-0.6862
-1.9817 tc m	-1.3470
-2.0468 tc n	-1.6434
-2.5702 tc o	-0.4416
-0.8503 tc p	+0.5371
-1.8274 tc ph	+0.4536
-2.3182 tc r&	-0.9172
-2.0251 tc s	-1.0212
-1.9773 tc sr	-1.7725
-0.8661 tc t	+0.6054
-1.3325 tc th	+0.6023
-1.4612 tc thsr	+0.5506
-1.1612 tc ts	+0.6302
-1.5921 tc tsh	+0.5460
-1.1296 tc tsr	+0.5083
-2.0924 tc u	+0.5519
-1.9846 tc w	-2.2344
-2.0775 tc x	-1.4551
-2.3628 tc y	-0.0848
-1.2500 th &	-0.1882
-1.6434 th &r	+0.1972
-1.9108 th >	-0.8946
-0.9228 th @	-0.9503
-0.9710 th A	-1.0139
-1.9904 th C	-0.2842
-1.3581 th E	-0.7893
-1.9812 th I	-0.8944
-1.4057 th N	-0.5938
-1.7840 th cC	-0.9384
-2.0084 th cCh	-0.5595
-1.5585 th e	-0.5876
-1.8771 th f	-0.5353
-1.3269 th i	+0.0782
-1.4511 th ixr	+0.0673
-1.5563 th j	-0.6599
-1.7698 th jw	-0.9106
-1.7765 th k	-0.8318
-2.1118 th kh	-0.6380
-1.9544 th l	-0.7947
-1.6826 th m	-0.5260
-1.4057 th n	-0.2570
-1.4073 th o	-0.5225
-1.9717 th p	-0.9983
-2.5809 th ph	-0.9028
-2.0556 th r&	-0.7053
-1.9064 th s	-0.5045
-1.8099 th sr	+0.5351
-2.1150 th t	-0.9376
-1.3437 th tc	+0.5150
-1.9800 th thsr	-1.1011
-1.9004 th ts	-0.6502
-2.2681 th tsh	-0.8645
-1.8542 th tsr	-0.6251
-1.5581 th u	+0.1174
-1.4736 th w	-0.6694
-1.6198 th x	-0.5503
-1.8124 th y	-0.7616
-1.2331 thsr &	+0.2939
-1.7458 thsr &r	-0.5578
-1.8383 thsr >	-0.9205
-1.2785 thsr @	-0.8806
-1.0319 thsr A	-0.3144
-2.1308 thsr C	-0.0255
-1.6933 thsr E	-0.8683
-1.6082 thsr I	-0.7690
-1.3830 thsr N	-0.4984
-2.0265 thsr cC	-0.3746
-2.1172 thsr cCh	-0.7141
-1.6790 thsr e	-1.0943
-1.8152 thsr f	-1.1123
-1.9503 thsr i	-0.6664
-1.1988 thsr ixr	-0.5613
-1.9617 thsr j	-0.7143
-2.2692 thsr jw	-0.8296
-1.4919 thsr k	-1.2889
-1.9682 thsr kh	-0.6128
-1.8263 thsr l	-0.5183
-1.5244 thsr m	-0.8508
-1.5253 thsr n	-0.7288
-1.1047 thsr o	-0.4990
-1.8964 thsr p	-0.9586
-2.5781 thsr ph	-0.9918
-1.9454 thsr r&	-1.1448
-1.9272 thsr s	-0.5537
-1.9008 thsr sr	-0.6812
-1.8812 thsr t	-0.8704
-1.3568 thsr tc	-1.1122
-2.0463 thsr th	-0.7881
-1.9541 thsr ts	-1.0488
-2.3246 thsr tsh	-0.8523
-2.2086 thsr tsr	-0.7691
-1.1255 thsr u	-1.2585
-1.1652 thsr w	-1.5094
-1.4597 thsr x	-0.5479
-2.0062 thsr y	-0.8246
-0.7927 ts &	-1.8761
-1.6835 ts &r	-0.8595
-1.7404 ts >	-0.6708
-0.7653 ts @	+0.6827
-1.3044 ts A	-0.4913
-2.5758 ts C	-0.9278
-0.8221 ts E	-1.4022
-1.6256 ts I	-0.1150
-1.7811 ts N	-0.3635
-2.6614 ts cC	-0.6238
-2.5680 ts cCh	-0.9553
-1.1275 ts e	-0.3947
-2.3351 ts f	-0.9260
-2.0279 ts i	-0.6808
-1.4677 ts ixr	-0.4155
-1.7481 ts j	-0.4653
-2.5441 ts jw	-1.1963
-2.3371 ts k	-0.9412
-2.5895 ts kh	-1.2222
-2.1814 ts l	-1.3094
-2.0659 ts m	-0.7109
-1.7794 ts n	-0.0867
-1.2352 ts o	-0.8032
-2.1299 ts p	-1.2754
-2.7693 ts ph	-0.9996
-1.8942 ts r&	-0.9216
-2.3412 ts s	-0.5280
-2.2005 ts sr	-0.7617
-2.0593 ts t	-0.8700
-1.6805 ts tc	-0.4135
-2.1785 ts th	-1.1373
-2.4739 ts thsr	-0.7037
-2.8041 ts tsh	-1.1500
-2.6614 ts tsr	-0.8811
-1.6208 ts u	+0.2130
-1.6571 ts w	-1.3332
-2.0350 ts x	-0.6056
-2.3804 ts y	-0.6586
-1.0577 tsh &	-0.5288
-1.9838 tsh &r	-0.7506
-1.7587 tsh >	-0.8391
-1.1606 tsh @	-0.7896
-1.4631 tsh A	-1.0531
-2.0771 tsh C	-0.8915
-1.4982 tsh E	-1.1907
-1.4625 tsh I	-0.6336
-1.3898 tsh N	-1.0893
-1.7364 tsh cC	-1.0496
-1.8374 tsh cCh	-0.5084
-1.3657 tsh e	-0.7657
-1.7899 tsh f	-0.8592
-1.8712 tsh i	-0.5237
-1.1706 tsh ixr	-0.5028
-1.7833 tsh j	-0.8931
-2.2088 tsh jw	-1.1999
-1.5342 tsh k	-0.7413
-1.9794 tsh kh	-0.5546
-1.9594 tsh l	-0.7739
-1.7214 tsh m	-1.0158
-1.4810 tsh n	-0.1563
-1.3359 tsh o	-0.6824
-1.7642 tsh p	-0.7989
-2.3973 tsh ph	-1.0243
-1.7820 tsh r&	-0.5559
-1.7294 tsh s	-0.6840
-1.7169 tsh sr	-0.4338
-1.6129 tsh t	-1.1060
-1.3382 tsh tc	-0.2262
-1.9310 tsh th	-0.8785
-1.9574 tsh thsr	-1.0616
-1.8116 tsh ts	-1.0664
-1.8524 tsh tsr	-0.5963
-1.4255 tsh u	-0.9888
-1.3266 tsh w	-0.2258
-1.5583 tsh x	-0.8890
-2.0779 tsh y	-0.7848
-1.1931 tsr &	-0.3529
-1.9518 tsr &r	-0.8447
-2.1305 tsr >	-0.3466
-1.5930 tsr @	-0.8667
-1.3245 tsr A	-0.6894
-2.1683 tsr C	-0.8006
-1.0087 tsr E	-1.2153
-1.6159 tsr I	-0.2768
-1.6863 tsr N	-0.0842
-2.4380 tsr cC	-0.3400
-2.4464 tsr cCh	-1.0858
-1.1484 tsr e	-1.3818
-2.2788 tsr f	-0.9183
-1.5198 tsr i	-1.1868
-0.9713 tsr ixr	+0.7038
-1.3166 tsr j	-0.9325
-1.9674 tsr jw	-1.0570
-1.7304 tsr k	-0.9190
-2.4606 tsr kh	-0.8678
-1.9972 tsr l	-1.2045
-1.9011 tsr m	-0.8990
-1.5741 tsr n	-1.1465
-0.9229 tsr o	+0.3656
-2.1698 tsr p	-0.9766
-2.7734 tsr ph	-0.9586
-1.6844 tsr r&	-0.5995
-2.3166 tsr s	-0.3962
-1.9403 tsr sr	-0.1197
-1.9721 tsr t	-1.4307
-1.4887 tsr tc	-0.9352
-2.1538 tsr th	-0.9329
-2.2440 tsr thsr	-0.4530
-2.2069 tsr ts	-1.0976
-2.4875 tsr tsh	-0.7891
-1.4820 tsr u	-0.8919
-1.5363 tsr w	-0.5991
-1.7885 tsr x	-0.9851
-1.4720 tsr y	+0.0041
-1.7443 u &	-0.5168
-2.2056 u &r	-0.4431
-1.5353 u >	-0.6323
-2.0697 u @	-0.2790
-2.0480 u A	-0.8342
-1.4291 u C	+0.4970
-2.1709 u E	-0.5473
-2.0568 u I	-0.5590
-1.5815 u N	-1.7253
-1.9175 u cC	-0.6870
-2.0068 u cCh	+0.5775
-1.2963 u e	-1.3843
-1.5491 u f	-1.3294
-1.2709 u i	+0.6647
-1.8163 u ixr	-0.1685
-1.7722 u j	-0.8697
-1.7665 u jw	+0.0619
-1.8746 u k	-0.5699
-2.0112 u kh	-0.3262
-1.5673 u l	-1.2492
-1.3502 u m	+0.4875
-1.4825 u n	-0.8763
-1.8464 u o	-0.6178
-1.7476 u p	-0.6524
-2.0041 u ph	-0.5151
-1.5058 u r&	-1.2679
-1.4647 u s	+0.4631
-1.2124 u sr	+0.4407
-2.2670 u t	-0.6693
-0.6469 u tc	+0.4601
-2.0604 u th	-0.2409
-2.0876 u thsr	-0.4087
-2.2592 u ts	-0.4473
-2.3664 u tsh	-0.6637
-2.0167 u tsr	-0.4013
-1.6317 u w	-0.9814
-1.4588 u x	-2.2375
-1.6278 u y	-0.1834
-1.4826 w &	-0.8514
-1.9680 w &r	-0.1312
-0.7531 w >	+0.6663
-1.2209 w @	-2.2126
-1.5875 w A	-1.7626
-1.7357 w C	-0.4928
-2.0328 w E	-0.6511
-2.2925 w I	-0.9869
-1.5796 w N	+0.5385
-2.0790 w cC	-0.5515
-2.1257 w cCh	-0.7795
-1.0026 w e	+0.7391
-1.7432 w f	-1.9643
-1.9319 w i	+0.3874
-2.2902 w ixr	-0.9432
-2.0555 w j	-0.2559
-2.4550 w jw	-0.3398
-1.8783 w k	-1.1303
-2.1615 w kh	-0.1823
-1.6452 w l	-0.8317
-1.4022 w m	-2.5784
-1.5945 w n	+0.5814
-2.0242 w o	-0.4214
-1.8576 w p	-1.0122
-2.4596 w ph	-0.3699
-1.7971 w r&	-0.8324
-1.6777 w s	+0.3705
-1.6511 w sr	+0.3945
-2.3625 w t	-0.6380
-0.8711 w tc	+0.6587
-2.1478 w th	-0.1445
-2.3824 w thsr	-0.4884
-2.2621 w ts	-0.6506
-2.4115 w tsh	-0.8619
-2.2289 w tsr	-1.0400
-1.1034 w u	+0.5148
-1.5676 w x	-2.0302
-2.4198 w y	-1.0857
-1.1521 x &	-1.6983
-1.7142 x &r	-0.3532
-0.9672 x >	+0.6046
-1.1579 x @	-1.2017
-1.0399 x A	+0.7466
-2.3518 x C	-0.6060
-1.8231 x E	-0.7072
-1.7166 x I	-0.2739
-1.2888 x N	+0.4817
-1.9136 x cC	-0.5054
-1.9961 x cCh	-0.2453
-1.4779 x e	-0.6819
-2.0894 x f	-0.6773
-2.0620 x i	-0.5683
-1.7267 x ixr	-0.1437
-2.1074 x j	-0.5752
-2.4646 x jw	-0.6228
-1.6678 x k	-0.5787
-1.9565 x kh	-0.2364
-1.9410 x l	-0.2478
-1.6804 x m	-0.6537
-1.8854 x n	+0.1190
-1.3070 x o	-1.3288
-1.5599 x p	-0.8742
-2.4116 x ph	-0.5872
-2.0328 x r&	-0.8701
-2.1270 x s	-0.4356
-2.1663 x sr	-0.7776
-1.8607 x t	-0.8828
-1.7570 x tc	-0.6438
-2.0137 x th	-0.4511
-2.0714 x thsr	-1.6754
-1.9448 x ts	-0.8552
-2.1850 x tsh	-0.6625
-2.0485 x tsr	-1.1480
-1.1651 x u	+0.6073
-0.9366 x w	+0.6487
-2.5334 x y	-1.0028
-2.0005 y &	-0.8476
-2.4563 y &r	-0.6713
-2.2763 y >	-0.5094
-2.3561 y @	-0.6855
-2.1955 y A	-0.5246
-1.2825 y C	+0.4306
-1.7075 y E	-0.6613
-2.0895 y I	-0.7748
-1.5341 y N	-2.1190
-1.7772 y cC	-1.0572
-1.9395 y cCh	-0.2159
-2.1885 y e	-0.8974
-1.7449 y f	-0.7334
-1.6069 y i	-0.9326
-1.6819 y ixr	-0.8825
-1.9103 y j	-0.2929
-1.7731 y jw	-0.7194
-1.7023 y k	-0.7510
-2.2947 y kh	-0.6065
-1.5874 y l	-1.0366
-1.3313 y m	-1.2411
-1.2388 y n	+0.4437
-1.3778 y o	-1.0221
-1.9962 y p	-0.7723
-2.3752 y ph	-0.4794
-1.6441 y r&	-0.0252
-1.5292 y s	-1.3706
-1.3166 y sr	+0.3598
-2.2169 y t	-0.6821
-0.5339 y tc	+0.3838
-2.0692 y th	-1.1701
-1.9709 y thsr	-0.7013
-2.1142 y ts	-0.6599
-2.1718 y tsh	-0.7365
-2.0662 y tsr	-0.8760
-1.6827 y u	-0.6400
-1.6471 y w	-0.6560
-1.4293 y x	-0.8956

\3-grams:
-1.3634 & &r &
-1.9513 & &r >
-1.5790 & &r @
-1.9513 & &r A
-1.2627 & &r C
-1.6112 & &r E
-2.1274 & &r I
-1.2779 & &r N
-1.8220 & &r cC
-1.6112 & &r cCh
-1.1569 & &r e
-1.8220 & &r f
-1.3827 & &r i
-1.7251 & &r ixr
-1.5790 & &r j
-1.8220 & &r jw
-1.9513 & &r k
-2.1274 & &r kh
-1.3272 & &r l
-1.5790 & &r m
-1.1230 & &r n
-1.5790 & &r o
-2.3242 & &r p
-1.5210 & &r r&
-1.6459 & &r s
-1.2779 & &r sr
-2.4284 & &r t
-0.9469 & &r tc
-2.1274 & &r thsr
-2.4284 & &r tsh
-1.9513 & &r tsr
-1.6459 & &r u
-1.4946 & &r w
-1.6837 & &r x
-1.6459 & &r y
-1.3874 & > &
-1.9772 & > &r
-1.4129 & > @
-1.7554 & > A
-1.5512 & > C
-2.0284 & > E
-2.1577 & > I
-1.1911 & > N
-2.1577 & > cC
-1.1756 & > e
-1.7554 & > f
-1.8523 & > i
-2.1577 & > ixr
-1.6304 & > j
-2.0284 & > jw
-2.5306 & > kh
-1.2980 & > l
-1.0864 & > m
-1.0926 & > n
-2.0284 & > o
-2.2693 & > p
-2.6348 & > ph
-1.7853 & > r&
-1.6092 & > s
-1.3874 & > sr
-0.7792 & > tc
-2.3338 & > th
-2.3338 & > ts
-2.6348 & > tsr
-1.4843 & > u
-1.2782 & > w
-1.3404 & > x
-1.9315 & > y
-1.7175 & @ &
-2.5471 & @ &r
-2.6513 & @ >
-2.0448 & @ A
-1.7438 & @ C
-1.3681 & @ E
-1.1626 & @ N
-2.6513 & @ cC
-1.4294 & @ e
-2.0448 & @ f
-1.0341 & @ i
-1.7175 & @ ixr
-0.8373 & @ j
-1.8340 & @ jw
-2.6513 & @ k
-2.3502 & @ kh
-1.3459 & @ l
-1.5500 & @ m
-0.7357 & @ n
-1.8018 & @ o
-2.6513 & @ p
-2.6513 & @ ph
-1.6055 & @ r&
-2.6513 & @ s
-1.6927 & @ sr
-2.6513 & @ t
-1.0288 & @ tc
-2.6513 & @ th
-2.1222 & @ u
-1.4708 & @ w
-1.7718 & @ x
-1.5862 & @ y
-1.5415 & A &
-1.9247 & A &r
-1.5889 & A >
-1.6615 & A @
-2.1008 & A C
-2.7072 & A E
-2.2301 & A I
-0.9911 & A N
-1.6615 & A cC
-1.9625 & A cCh
-2.3417 & A e
-1.6422 & A f
-2.2301 & A i
-2.7072 & A ixr
-1.7486 & A j
-2.6030 & A jw
-1.7998 & A k
-2.3417 & A kh
-1.4724 & A l
-0.9283 & A m
-1.2635 & A n
-1.4128 & A o
-1.8899 & A p
-2.7072 & A ph
-1.8278 & A r&
-1.7029 & A s
-2.0496 & A sr
-2.0039 & A t
-1.1063 & A tc
-2.1008 & A th
-2.7072 & A thsr
-2.2301 & A ts
-2.1008 & A tsh
-2.0496 & A tsr
-1.5125 & A u
-0.8486 & A w
-1.0694 & A x
-2.7072 & A y
-1.7402 & C &
-2.7139 & C &r
-2.0625 & C >
-2.0772 & C @
-2.3635 & C A
-1.7267 & C E
-1.6420 & C I
-1.6365 & C N
-1.3997 & C cC
-1.3301 & C cCh
-1.6763 & C e
-1.6420 & C f
-0.9690 & C i
-1.1034 & C ixr
-1.5102 & C j
-1.3997 & C jw
-1.5805 & C k
-2.0772 & C kh
-2.1082 & C l
-1.4427 & C m
-1.4865 & C n
-2.0772 & C o
-1.6311 & C p
-2.7658 & C ph
-2.0211 & C r&
-1.7472 & C s
-1.7614 & C sr
-1.7914 & C t
-1.3842 & C tc
-1.7837 & C th
-1.5711 & C thsr
-1.4029 & C ts
-1.8153 & C tsh
-1.5711 & C tsr
-1.7402 & C u
-1.6258 & C w
-1.7267 & C x
-1.1313 & C y
-1.8129 & E &
-1.7160 & E &r
-2.4193 & E >
-2.1183 & E A
-1.6746 & E C
-1.8129 & E I
-1.4150 & E N
-2.1183 & E cC
-2.4193 & E e
-1.8129 & E f
-1.9422 & E i
-1.8129 & E ixr
-2.4193 & E j
-2.1183 & E k
-1.2688 & E l
-0.9379 & E m
-0.7292 & E n
-1.2688 & E o
-1.7160 & E r&
-1.9422 & E s
-1.8903 & E sr
-1.9422 & E t
-0.6907 & E tc
-2.4193 & E th
-2.4193 & E ts
-2.4193 & E tsh
-2.0538 & E u
-1.2246 & E w
-1.2389 & E x
-2.4193 & E y
-1.5890 & I &
-2.4964 & I &r
-2.0193 & I >
-1.8900 & I @
-2.1309 & I A
-1.1698 & I C
-2.3922 & I E
-1.5890 & I N
-1.6170 & I cC
-2.0193 & I cCh
-1.5890 & I e
-1.6791 & I f
-1.3459 & I i
-2.1954 & I ixr
-2.1309 & I j
-1.8900 & I jw
-2.1954 & I k
-2.1309 & I kh
-1.5143 & I l
-1.5626 & I m
-1.1596 & I n
-1.8900 & I o
-1.9674 & I p
-2.4964 & I ph
-1.6470 & I r&
-1.2879 & I s
-1.2368 & I sr
-0.5730 & I tc
-2.1954 & I th
-2.0193 & I thsr
-1.9674 & I ts
-1.7931 & I tsh
-2.3922 & I tsr
-2.0193 & I u
-2.0193 & I w
-1.6791 & I x
-1.5143 & I y
-1.7487 & N &
-2.3666 & N &r
-1.9047 & N >
-2.0261 & N @
-2.0889 & N A
-1.3163 & N C
-2.0529 & N E
-1.9700 & N I
-1.5255 & N cC
-1.6102 & N cCh
-1.6915 & N e
-1.5035 & N f
-1.3872 & N i
-1.7050 & N ixr
-2.1186 & N j
-1.9112 & N jw
-1.7189 & N k
-1.9057 & N kh
-1.5464 & N l
-1.0780 & N m
-1.5464 & N n
-2.0928 & N o
-1.6475 & N p
-2.1461 & N ph
-1.9003 & N r&
-1.4144 & N s
-1.5440 & N sr
-1.8357 & N t
-0.7207 & N tc
-1.9893 & N th
-1.8897 & N thsr
-1.7406 & N ts
-1.6949 & N tsh
-1.6915 & N tsr
-1.6102 & N u
-1.6475 & N w
-1.2723 & N x
-1.9003 & N y
-1.9501 & cC &
-2.7674 & cC &r
-2.7674 & cC >
-2.4664 & cC @
-2.2903 & cC A
-2.0641 & cC C
-0.8440 & cC E
-2.2384 & cC I
-2.0641 & cC N
-2.7674 & cC cCh
-1.6327 & cC e
-2.4019 & cC f
-0.7545 & cC i
-1.1720 & cC ixr
-1.0034 & cC j
-1.1246 & cC jw
-1.5727 & cC k
-2.7674 & cC kh
-2.4664 & cC l
-1.6661 & cC m
-1.7853 & cC n
-1.3007 & cC o
-2.4019 & cC p
-1.7419 & cC r&
-2.4664 & cC s
-2.4019 & cC sr
-1.9849 & cC t
-1.5589 & cC tc
-2.4019 & cC th
-1.9180 & cC thsr
-2.4664 & cC ts
-2.7674 & cC tsh
-2.0641 & cC tsr
-1.7631 & cC u
-2.4664 & cC w
-2.0641 & cC x
-0.9402 & cC y
-1.9524 & cCh &
-2.5589 & cCh &r
-2.1934 & cCh >
-2.0817 & cCh C
-0.9364 & cCh E
-1.6002 & cCh I
-1.6514 & cCh N
-1.9524 & cCh cC
-1.5333 & cCh e
-2.2578 & cCh f
-0.9634 & cCh i
-1.0996 & cCh ixr
-1.3504 & cCh j
-1.1743 & cCh jw
-1.7094 & cCh k
-2.0817 & cCh kh
-1.8555 & cCh l
-1.6794 & cCh m
-1.4938 & cCh n
-1.8555 & cCh o
-1.7416 & cCh p
-2.2578 & cCh r&
-1.8555 & cCh s
-1.7094 & cCh sr
-2.2578 & cCh t
-1.4405 & cCh tc
-1.7416 & cCh th
-1.4938 & cCh thsr
-1.8555 & cCh ts
-1.9524 & cCh tsh
-1.9013 & cCh tsr
-2.4547 & cCh u
-1.9524 & cCh w
-1.7763 & cCh x
-0.8732 & cCh y
-1.8410 & e &
-2.8454 & e &r
-2.8454 & e >
-2.7412 & e @
-2.7412 & e A
-1.5188 & e C
-1.0117 & e E
-2.5444 & e I
-1.0776 & e N
-2.5444 & e cC
-2.1421 & e cCh
-2.7412 & e f
-0.7221 & e i
-1.8868 & e ixr
-0.8543 & e j
-1.5858 & e jw
-2.3683 & e k
-2.1007 & e l
-1.8868 & e m
-0.9040 & e n
-1.7271 & e o
-2.3164 & e p
-2.7412 & e ph
-1.6236 & e r&
-2.3683 & e s
-1.8199 & e sr
-1.3712 & e tc
-2.3683 & e th
-2.3683 & e thsr
-2.3164 & e tsr
-2.3164 & e u
-1.8868 & e w
-1.9959 & e x
-1.1007 & e y
-0.9757 & f &
-1.8576 & f &r
-1.2231 & f >
-1.2581 & f @
-1.2054 & f A
-2.1017 & f C
-1.9816 & f E
-1.4354 & f I
-1.4270 & f N
-1.7198 & f cC
-1.7280 & f cCh
-1.2622 & f e
-1.7538 & f i
-1.2948 & f ixr
-2.0291 & f j
-2.2680 & f jw
-1.6587 & f k
-1.9255 & f kh
-2.1430 & f l
-1.6180 & f m
-1.7538 & f n
-1.3871 & f o
-1.7908 & f p
-2.3301 & f ph
-1.8877 & f r&
-1.8758 & f s
-2.0461 & f sr
-1.6959 & f t
-1.4312 & f tc
-2.0291 & f th
-1.9969 & f thsr
-1.9000 & f ts
-1.9969 & f tsh
-1.8420 & f tsr
-1.2060 & f u
-1.4187 & f w
-1.6587 & f x
-2.0461 & f y
-2.1050 & i &
-2.5158 & i &r
-2.4852 & i >
-2.1753 & i @
-2.3391 & i A
-1.3044 & i C
-1.4638 & i E
-2.1586 & i I
-1.5077 & i N
-1.7100 & i cC
-1.8374 & i cCh
-2.0829 & i e
-1.7907 & i f
-1.9757 & i ixr
-1.8374 & i j
-1.6548 & i jw
-1.9011 & i k
-2.0185 & i kh
-1.6058 & i l
-1.2582 & i m
-1.0511 & i n
-1.4395 & i o
-1.8681 & i p
-2.4017 & i ph
-1.7027 & i r&
-1.6116 & i s
-1.5832 & i sr
-2.2256 & i t
-0.5354 & i tc
-1.8374 & i th
-1.9368 & i thsr
-2.3048 & i ts
-2.0495 & i tsh
-2.0829 & i tsr
-2.0337 & i u
-1.8181 & i w
-1.3945 & i x
-1.7566 & i y
-1.5860 & ixr &
-2.7807 & ixr &r
-1.9982 & ixr >
-1.8732 & ixr @
-1.9982 & ixr A
-1.2261 & ixr C
-2.1743 & ixr E
-2.6765 & ixr I
-1.4339 & ixr N
-2.0774 & ixr cC
-1.9634 & ixr cCh
-2.2517 & ixr e
-1.4863 & ixr f
-1.6624 & ixr i
-1.8469 & ixr j
-2.2517 & ixr jw
-2.0774 & ixr k
-2.1743 & ixr kh
-1.5860 & ixr l
-1.3370 & ixr m
-1.2992 & ixr n
-1.5860 & ixr o
-2.0360 & ixr p
-2.3036 & ixr ph
-1.8221 & ixr r&
-1.1531 & ixr s
-1.2140 & ixr sr
-2.6765 & ixr t
-0.5575 & ixr tc
-1.9982 & ixr th
-2.0774 & ixr thsr
-2.1743 & ixr ts
-2.3036 & ixr tsh
-1.7551 & ixr tsr
-1.9312 & ixr u
-1.7763 & ixr w
-1.3450 & ixr x
-2.0360 & ixr y
-1.8621 & j &
-2.4520 & j &r
-2.5031 & j >
-2.0083 & j @
-1.6819 & j A
-1.5141 & j C
-1.5549 & j E
-2.6324 & j I
-1.7160 & j N
-1.9010 & j cC
-2.4062 & j cCh
-2.2301 & j e
-1.7627 & j f
-1.4977 & j i
-2.2021 & j ixr
-2.6324 & j jw
-2.1758 & j k
-2.3648 & j kh
-1.7934 & j l
-1.7627 & j m
-1.3270 & j n
-1.3976 & j o
-2.1758 & j p
-2.4520 & j r&
-1.6138 & j s
-1.6503 & j sr
-2.5805 & j t
-0.2869 & j tc
-2.3270 & j th
-2.0260 & j thsr
-2.3648 & j ts
-2.6324 & j tsh
-2.2923 & j tsr
-2.2923 & j u
-2.0638 & j w
-1.4819 & j x
-2.0638 & j y
-1.5375 & jw &
-2.0340 & jw &r
-2.5631 & jw >
-1.6045 & jw @
-1.7136 & jw A
-1.8183 & jw C
-0.6267 & jw E
-2.4589 & jw I
-1.6045 & jw N
-1.6556 & jw cC
-1.9566 & jw cCh
-1.6293 & jw e
-2.2620 & jw f
-1.3684 & jw i
-1.2915 & jw ixr
-1.2065 & jw j
-1.3826 & jw k
-2.5631 & jw kh
-2.4589 & jw l
-1.8597 & jw m
-1.7806 & jw n
-1.0209 & jw o
-1.9566 & jw p
-1.5587 & jw r&
-2.5631 & jw s
-1.6293 & jw sr
-2.2620 & jw t
-1.4980 & jw tc
-1.7458 & jw th
-2.2620 & jw thsr
-2.2620 & jw ts
-1.9055 & jw tsh
-2.1976 & jw tsr
-2.2620 & jw u
-1.5375 & jw w
-1.6045 & jw x
-1.4980 & jw y
-0.8287 & k &
-2.0429 & k &r
-0.9682 & k >
-1.1330 & k @
-1.2558 & k A
-2.2838 & k C
-1.0767 & k E
-2.2838 & k I
-2.1722 & k N
-2.2838 & k cC
-2.6493 & k cCh
-1.5146 & k e
-2.6493 & k f
-1.6672 & k i
-1.5657 & k ixr
-1.4988 & k j
-1.7998 & k l
-1.9046 & k m
-2.1203 & k n
-0.9289 & k o
-1.9046 & k p
-2.3483 & k ph
-2.2838 & k r&
-2.1722 & k s
-2.1722 & k sr
-1.4274 & k tc
-2.6493 & k thsr
-2.6493 & k tsh
-2.6493 & k tsr
-1.4019 & k u
-1.0321 & k w
-1.9046 & k x
-2.6493 & k y
-0.9542 & kh &
-1.6459 & kh &r
-1.7251 & kh >
-1.0916 & kh @
-1.0439 & kh A
-1.5210 & kh E
-1.6112 & kh I
-1.3449 & kh N
-2.4284 & kh cC
-1.9513 & kh cCh
-1.1230 & kh e
-2.4284 & kh f
-1.5490 & kh i
-1.3827 & kh ixr
-2.1274 & kh j
-1.7709 & kh k
-1.6112 & kh l
-1.7251 & kh m
-1.5490 & kh n
-1.2779 & kh o
-1.8994 & kh p
-2.1274 & kh r&
-2.3242 & kh sr
-1.7709 & kh t
-1.4698 & kh tc
-1.7709 & kh th
-2.1274 & kh thsr
-1.6459 & kh ts
-2.4284 & kh tsh
-2.1274 & kh tsr
-1.2779 & kh u
-1.3634 & kh w
-1.6112 & kh x
-2.3242 & kh y
-0.8591 & l &
-1.8744 & l &r
-1.6164 & l >
-1.0244 & l @
-1.0926 & l A
-2.1838 & l C
-1.1775 & l E
-1.9265 & l I
-1.6357 & l N
-2.3347 & l cC
-2.3177 & l cCh
-0.9618 & l e
-2.4316 & l f
-0.9923 & l i
-1.7156 & l ixr
-1.4798 & l j
-2.0992 & l jw
-1.9692 & l k
-2.1886 & l kh
-2.1886 & l m
-2.2413 & l n
-1.3312 & l o
-1.8753 & l p
-2.5865 & l ph
-2.0424 & l r&
-2.6187 & l s
-2.4104 & l sr
-1.7283 & l t
-1.8875 & l tc
-1.9923 & l th
-2.3902 & l thsr
-2.3524 & l ts
-2.5285 & l tsh
-2.4774 & l tsr
-1.7981 & l u
-1.8241 & l w
-1.8032 & l x
-1.4946 & l y
-0.8457 & m &
-2.2565 & m &r
-1.1841 & m >
-1.1712 & m @
-1.2731 & m A
-2.3087 & m C
-1.6888 & m E
-1.7488 & m I
-1.4726 & m N
-2.0737 & m cC
-2.3149 & m cCh
-0.7315 & m e
-2.3710 & m f
-1.3801 & m i
-1.6055 & m ixr
-1.9303 & m j
-2.3862 & m jw
-1.7671 & m k
-2.4184 & m kh
-2.1477 & m l
-1.8000 & m n
-1.4093 & m o
-1.8312 & m p
-2.4717 & m ph
-2.0930 & m r&
-2.3941 & m s
-2.1899 & m sr
-1.3949 & m t
-1.5581 & m tc
-2.2102 & m th
-2.5216 & m thsr
-1.9701 & m ts
-2.5662 & m tsh
-2.2893 & m tsr
-1.4651 & m u
-1.6720 & m w
-1.8649 & m x
-2.0481 & m y
-1.6291 & n &
-2.7100 & n &r
-2.0718 & n >
-1.8738 & n @
-1.8696 & n A
-1.5915 & n C
-1.9656 & n E
-1.8852 & n I
-1.5251 & n N
-1.3914 & n cC
-1.9583 & n cCh
-1.3322 & n e
-1.9656 & n f
-1.1753 & n i
-1.6833 & n ixr
-1.8731 & n j
-1.8872 & n jw
-1.4716 & n k
-2.1566 & n kh
-1.5461 & n l
-1.1395 & n m
-1.9680 & n o
-1.4844 & n p
-2.3051 & n ph
-1.9780 & n r&
-1.7726 & n s
-1.7903 & n sr
-1.2740 & n t
-0.6982 & n tc
-1.8852 & n th
-1.9583 & n thsr
-1.4347 & n ts
-2.1132 & n tsh
-1.8537 & n tsr
-1.8499 & n u
-1.9169 & n w
-1.6821 & n x
-1.7711 & n y
-1.4178 & o &
-2.5104 & o &r
-1.0536 & o >
-2.2995 & o @
-2.0912 & o A
-1.8453 & o C
-2.7513 & o E
-1.8224 & o I
-0.8572 & o N
-2.2374 & o cC
-2.2374 & o cCh
-1.3528 & o e
-1.7233 & o f
-2.2673 & o i
-2.1124 & o ixr
-1.9821 & o j
-2.5104 & o jw
-2.0333 & o k
-2.6397 & o kh
-1.6006 & o l
-1.0208 & o m
-1.6073 & o n
-1.9363 & o p
-1.7233 & o r&
-1.9363 & o s
-1.9083 & o sr
-2.2374 & o t
-1.4403 & o tc
-2.2995 & o th
-2.5104 & o thsr
-2.4135 & o ts
-3.1168 & o tsh
-2.1124 & o tsr
-0.8756 & o u
-0.8769 & o w
-1.3604 & o x
-2.6397 & o y
-1.0363 & p &
-2.0253 & p &r
-1.1089 & p >
-1.0592 & p @
-1.1802 & p A
-1.9284 & p C
-1.5134 & p E
-1.8870 & p I
-1.5482 & p N
-2.3307 & p cC
-2.1546 & p cCh
-1.1880 & p e
-2.3307 & p f
-1.0253 & p i
-1.5860 & p ixr
-1.6979 & p j
-2.3307 & p jw
-2.3307 & p k
-2.0253 & p l
-1.7243 & p m
-1.8145 & p n
-1.3263 & p o
-2.3307 & p ph
-1.6979 & p r&
-2.3307 & p s
-2.3307 & p sr
-2.2662 & p t
-1.3373 & p tc
-2.3307 & p th
-2.6317 & p ts
-2.6317 & p tsh
-1.0253 & p u
-1.2949 & p w
-2.3307 & p x
-1.7823 & p y
-1.5593 & ph &
-1.2863 & ph >
-1.3832 & ph @
-1.1402 & ph A
-1.8002 & ph C
-1.8647 & ph E
-2.1657 & ph I
-1.2319 & ph N
-1.5082 & ph cC
-1.6886 & ph cCh
-1.4624 & ph e
-1.5082 & ph f
-1.2319 & ph i
-1.6886 & ph ixr
-1.5082 & ph j
-1.6367 & ph jw
-1.4210 & ph k
-2.1657 & ph kh
-1.5593 & ph m
-1.5593 & ph n
-1.5593 & ph o
-1.4624 & ph p
-1.6886 & ph r&
-1.5593 & ph s
-2.0616 & ph sr
-1.8647 & ph t
-1.6886 & ph tc
-2.1657 & ph th
-1.5593 & ph thsr
-2.1657 & ph ts
-1.6367 & ph tsh
-1.8647 & ph tsr
-1.6367 & ph u
-1.4624 & ph w
-1.6367 & ph x
-1.3832 & ph y
-1.1182 & r& &
-1.8771 & r& &r
-1.6706 & r& >
-1.4193 & r& @
-1.2894 & r& A
-2.5766 & r& C
-1.0083 & r& E
-1.8964 & r& I
-1.2476 & r& N
-1.8964 & r& cC
-2.1596 & r& cCh
-1.4063 & r& e
-2.1974 & r& f
-1.3999 & r& i
-1.3937 & r& ixr
-1.7916 & r& j
-2.0083 & r& jw
-1.8771 & r& k
-2.1596 & r& kh
-1.7336 & r& l
-1.7073 & r& m
-1.5760 & r& n
-0.8886 & r& o
-2.0627 & r& p
-2.9421 & r& ph
-2.9421 & r& s
-1.7916 & r& sr
-2.2388 & r& t
-1.7073 & r& tc
-2.0347 & r& th
-2.1974 & r& thsr
-1.9378 & r& ts
-2.4650 & r& tsh
-2.0347 & r& tsr
-1.3580 & r& u
-1.1489 & r& w
-1.6367 & r& x
-1.8586 & r& y
-1.1594 & s &
-2.0014 & s &r
-1.8192 & s >
-1.4880 & s @
-1.7134 & s A
-1.9642 & s C
-2.0468 & s E
-1.2223 & s I
-1.7091 & s N
-1.4577 & s cC
-1.5915 & s cCh
-1.4577 & s e
-1.7150 & s f
-1.7930 & s i
-1.1437 & s ixr
-2.0101 & s j
-2.1981 & s jw
-1.4448 & s k
-1.7588 & s kh
-2.0731 & s l
-1.7150 & s m
-1.6193 & s n
-1.5101 & s o
-1.4448 & s p
-2.2773 & s ph
-2.0731 & s r&
-1.9155 & s sr
-1.3377 & s t
-1.3206 & s tc
-1.9251 & s th
-1.7270 & s thsr
-1.4322 & s ts
-1.8001 & s tsh
-1.5369 & s tsr
-1.2905 & s u
-1.3428 & s w
-1.6592 & s x
-2.1633 & s y
-1.2569 & sr &
-2.1311 & sr &r
-1.9043 & sr >
-2.0446 & sr @
-1.8039 & sr A
-2.0055 & sr C
-1.7124 & sr E
-1.4466 & sr I
-1.5307 & sr N
-1.5946 & sr cC
-1.5344 & sr cCh
-1.5903 & sr e
-1.7356 & sr f
-1.4917 & sr i
-0.8499 & sr ixr
-1.7996 & sr j
-1.8913 & sr jw
-1.4622 & sr k
-1.9361 & sr kh
-2.1517 & sr l
-1.6594 & sr m
-1.4917 & sr n
-1.2585 & sr o
-1.6166 & sr p
-2.1839 & sr ph
-2.0938 & sr r&
-1.8280 & sr s
-1.5655 & sr t
-1.3460 & sr tc
-1.9654 & sr th
-1.6258 & sr thsr
-1.5903 & sr ts
-1.8913 & sr tsh
-1.6695 & sr tsr
-1.4718 & sr u
-1.5819 & sr w
-1.5615 & sr x
-1.5090 & sr y
-1.0914 & t &
-1.6298 & t &r
-1.4671 & t >
-1.0914 & t @
-1.1271 & t A
-2.0735 & t C
-1.0377 & t E
-1.2398 & t N
-2.3745 & t cCh
-1.3094 & t e
-2.0735 & t f
-1.4407 & t i
-1.8974 & t ixr
-1.3701 & t j
-2.3745 & t jw
-1.8455 & t l
-1.5920 & t m
-1.1798 & t n
-1.0914 & t o
-2.0735 & t r&
-2.3745 & t s
-1.7681 & t sr
-1.4159 & t tc
-2.3745 & t th
-2.3745 & t thsr
-2.3745 & t tsr
-1.6712 & t u
-1.1660 & t w
-1.5250 & t x
-1.9452 & tc &
-2.8596 & tc &r
-2.3322 & tc >
-2.3430 & tc @
-2.5499 & tc A
-2.0948 & tc C
-2.7403 & tc E
-1.9318 & tc I
-2.2021 & tc N
-1.1311 & tc cC
-1.2607 & tc cCh
-1.5959 & tc e
-1.9746 & tc f
-2.0413 & tc i
-1.8625 & tc ixr
-2.3215 & tc j
-2.4823 & tc jw
-1.2088 & tc k
-1.3854 & tc kh
-2.4115 & tc l
-1.8769 & tc m
-2.0237 & tc n
-2.5669 & tc o
-0.7777 & tc p
-1.8104 & tc ph
-2.4271 & tc r&
-1.9369 & tc s
-1.9635 & tc sr
-0.8708 & tc t
-1.4001 & tc th
-1.4975 & tc thsr
-1.0942 & tc ts
-1.5604 & tc tsh
-1.2186 & tc tsr
-2.0316 & tc u
-1.9434 & tc w
-1.9947 & tc x
-2.3782 & tc y
-1.1520 & th &
-2.3744 & th &r
-1.5992 & th >
-0.9179 & th @
-1.1418 & th A
-2.1776 & th C
-1.3439 & th E
-1.2839 & th N
-2.0015 & th cC
-2.1776 & th cCh
-2.1131 & th e
-1.5711 & th f
-1.3950 & th i
-1.4530 & th ixr
-1.6613 & th j
-2.3744 & th jw
-1.7339 & th k
-2.4786 & th kh
-1.4135 & th m
-1.3128 & th n
-1.3128 & th o
-1.7752 & th p
-1.9495 & th r&
-2.4786 & th s
-1.5711 & th sr
-2.1776 & th t
-1.2839 & th tc
-2.1131 & th thsr
-1.8722 & th ts
-1.7339 & th tsr
-1.2701 & th u
-1.4742 & th w
-2.3744 & th x
-1.4328 & th y
-1.1813 & thsr &
-1.9261 & thsr &r
-1.6584 & thsr >
-1.4446 & thsr @
-1.2527 & thsr A
-1.9261 & thsr C
-1.7967 & thsr E
-2.0377 & thsr I
-1.4957 & thsr N
-2.0377 & thsr cC
-1.7967 & thsr cCh
-1.3988 & thsr e
-1.7456 & thsr f
-0.9756 & thsr ixr
-1.7456 & thsr j
-1.9261 & thsr jw
-1.3776 & thsr k
-2.1021 & thsr kh
-1.6584 & thsr l
-1.5859 & thsr m
-1.6584 & thsr n
-1.1316 & thsr o
-2.4032 & thsr p
-2.4032 & thsr ph
-2.1021 & thsr r&
-1.7967 & thsr sr
-1.7456 & thsr t
-1.4446 & thsr tc
-2.2990 & thsr th
-1.9261 & thsr ts
-2.4032 & thsr tsh
-1.0871 & thsr u
-1.0466 & thsr w
-1.4957 & thsr x
-1.9261 & thsr y
-0.8019 & ts &
-1.9107 & ts &r
-1.5059 & ts >
-0.7587 & ts @
-1.5903 & ts A
-2.4397 & ts C
-0.8613 & ts E
-1.7364 & ts I
-1.7364 & ts N
-2.4397 & ts cC
-2.4397 & ts cCh
-1.0121 & ts e
-2.4397 & ts f
-1.9626 & ts i
-1.4354 & ts ixr
-1.5603 & ts j
-2.4397 & ts kh
-2.1387 & ts l
-1.7364 & ts m
-2.3355 & ts n
-1.1236 & ts o
-2.3355 & ts p
-2.4397 & ts ph
-1.6950 & ts r&
-2.1387 & ts sr
-2.4397 & ts t
-1.7822 & ts tc
-1.3940 & ts u
-1.6950 & ts w
-2.4397 & ts y
-0.9803 & tsh &
-1.9389 & tsh &r
-1.5366 & tsh >
-1.1386 & tsh @
-1.5366 & tsh A
-1.9389 & tsh C
-1.3324 & tsh E
-1.6335 & tsh I
-1.6335 & tsh N
-2.1357 & tsh cC
-1.9389 & tsh cCh
-1.3605 & tsh e
-1.6335 & tsh f
-1.7628 & tsh i
-1.2578 & tsh ixr
-1.7109 & tsh j
-2.2399 & tsh jw
-1.5366 & tsh k
-2.2399 & tsh l
-1.5366 & tsh m
-1.3904 & tsh n
-1.3061 & tsh o
-1.3061 & tsh r&
-1.7628 & tsh s
-2.2399 & tsh sr
-1.3904 & tsh t
-1.4952 & tsh tc
-1.6335 & tsh th
-1.8744 & tsh thsr
-1.7628 & tsh ts
-1.5823 & tsh tsr
-1.4574 & tsh u
-1.7109 & tsh w
-1.8744 & tsh x
-2.2399 & tsh y
-1.0579 & tsr &
-2.1281 & tsr &r
-2.4936 & tsr >
-1.6142 & tsr @
-1.7111 & tsr A
-1.7903 & tsr C
-0.9841 & tsr E
-2.1281 & tsr I
-1.7489 & tsr N
-1.1275 & tsr e
-2.1926 & tsr f
-1.7489 & tsr i
-1.1775 & tsr ixr
-1.3431 & tsr j
-1.9646 & tsr jw
-1.8872 & tsr k
-2.4936 & tsr kh
-1.7111 & tsr l
-1.7903 & tsr m
-1.4893 & tsr n
-0.9578 & tsr o
-2.0165 & tsr p
-1.4681 & tsr r&
-2.4936 & tsr s
-2.0165 & tsr sr
-1.7903 & tsr t
-1.3132 & tsr tc
-1.7903 & tsr th
-2.1281 & tsr thsr
-2.4936 & tsr ts
-1.2851 & tsr u
-1.4101 & tsr w
-1.7111 & tsr x
-1.4479 & tsr y
-1.8501 & u &
-2.5077 & u &r
-1.7017 & u >
-2.1054 & u @
-2.5077 & u A
-1.2729 & u C
-2.2023 & u E
-2.2401 & u I
-1.5491 & u N
-1.8665 & u cC
-1.9805 & u cCh
-1.3038 & u e
-1.4686 & u f
-1.3038 & u i
-2.0774 & u ixr
-1.9198 & u j
-1.8665 & u jw
-1.8501 & u k
-2.0262 & u kh
-1.6187 & u l
-1.3470 & u m
-1.4753 & u n
-1.7763 & u o
-1.7133 & u p
-1.8835 & u ph
-1.6794 & u r&
-1.4182 & u s
-1.2208 & u sr
-2.1675 & u t
-0.6292 & u tc
-1.8044 & u th
-2.0510 & u thsr
-2.2815 & u ts
-2.1054 & u tsh
-1.9805 & u tsr
-1.5655 & u w
-1.4821 & u x
-1.6480 & u y
-1.6475 & w &
-2.2606 & w &r
-0.8939 & w >
-1.5059 & w @
-1.6416 & w A
-1.5528 & w C
-2.1641 & w E
-2.3304 & w I
-1.5242 & w N
-1.7431 & w cC
-1.7506 & w cCh
-1.2585 & w e
-1.6552 & w f
-1.7661 & w i
-2.4273 & w ixr
-2.1641 & w j
-2.3024 & w jw
-1.6804 & w k
-1.8937 & w kh
-1.7661 & w l
-1.3275 & w m
-1.4131 & w n
-2.0915 & w o
-1.7357 & w p
-2.3304 & w ph
-1.9267 & w r&
-1.5475 & w s
-1.5380 & w sr
-2.4651 & w t
-0.7677 & w tc
-1.9624 & w th
-2.0915 & w thsr
-2.0151 & w ts
-2.1448 & w tsh
-2.0915 & w tsr
-1.0703 & w u
-1.6257 & w x
-2.3304 & w y
-1.0072 & x &
-1.8969 & x &r
-1.0374 & x >
-1.2466 & x @
-1.1854 & x A
-2.3949 & x C
-1.7547 & x E
-1.6517 & x I
-1.3226 & x N
-1.8736 & x cC
-1.9625 & x cCh
-1.4386 & x e
-2.1746 & x f
-2.1008 & x i
-1.6517 & x ixr
-2.1910 & x j
-2.5268 & x jw
-1.6615 & x k
-2.0262 & x kh
-2.0619 & x l
-1.5848 & x m
-1.9070 & x n
-1.2675 & x o
-1.4213 & x p
-2.3049 & x ph
-1.9158 & x r&
-1.9339 & x s
-2.1436 & x sr
-1.8278 & x t
-1.7029 & x tc
-2.0745 & x th
-2.1588 & x thsr
-1.9158 & x ts
-2.0745 & x tsh
-2.1008 & x tsr
-1.1090 & x u
-1.0061 & x w
-2.2635 & x y
-2.0427 & y &
-2.2232 & y >
-1.9178 & y @
-2.1712 & y A
-1.2894 & y C
-2.0939 & y E
-1.9178 & y I
-1.5990 & y N
-1.8508 & y cC
-1.4784 & y cCh
-2.5961 & y e
-1.6747 & y f
-1.5498 & y i
-1.9178 & y ixr
-1.7928 & y j
-1.9969 & y jw
-1.7182 & y k
-2.1712 & y kh
-1.5498 & y l
-1.3842 & y m
-1.2727 & y n
-1.5656 & y o
-2.0427 & y p
-2.1712 & y ph
-1.6167 & y r&
-1.3437 & y s
-1.4406 & y sr
-2.7003 & y t
-0.5286 & y tc
-2.1712 & y th
-1.9556 & y thsr
-2.0939 & y ts
-1.9969 & y tsh
-1.6959 & y tsr
-1.9178 & y u
-1.7182 & y w
-1.3249 & y x
-2.2057 &r & &r
-1.8853 &r & >
-2.0772 &r & @
-2.2057 &r & A
-1.5690 &r & C
-2.4337 &r & E
-2.7347 &r & I
-1.2053 &r & N
-2.0314 &r & cC
-2.3692 &r & e
-1.8853 &r & f
-1.4873 &r & i
-2.4337 &r & ixr
-1.8553 &r & j
-2.1283 &r & jw
-1.9175 &r & k
-2.2576 &r & kh
-1.3154 &r & l
-0.8582 &r & m
-0.8219 &r & n
-1.4873 &r & o
-2.7347 &r & p
-2.0772 &r & r&
-1.7304 &r & s
-1.4082 &r & sr
-2.1283 &r & t
-0.6283 &r & tc
-1.9175 &r & th
-2.4337 &r & ts
-2.7347 &r & tsh
-1.7761 &r & u
-1.4999 &r & w
-1.8010 &r & x
-2.2576 &r & y
-1.6154 &r > &
-1.6154 &r > &r
-1.5185 &r > @
-1.6154 &r > A
-2.2218 &r > E
-2.2218 &r > I
-1.1568 &r > N
-1.7447 &r > cC
-1.1035 &r > e
-1.7447 &r > f
-1.6154 &r > i
-1.7447 &r > j
-2.2218 &r > jw
-1.9208 &r > k
-1.8563 &r > kh
-1.6928 &r > l
-1.0414 &r > m
-1.1035 &r > n
-1.7447 &r > o
-1.9208 &r > p
-2.2218 &r > ph
-1.5185 &r > r&
-1.5643 &r > s
-1.4393 &r > sr
-0.7626 &r > tc
-2.1177 &r > thsr
-1.4393 &r > u
-1.5185 &r > w
-1.3144 &r > x
-1.6642 &r @ &
-2.2808 &r @ &r
-2.0399 &r @ A
-1.9016 &r @ C
-1.3519 &r @ E
-2.6463 &r @ I
-1.2618 &r @ N
-2.3453 &r @ cC
-1.3867 &r @ e
-2.3453 &r @ f
-1.1169 &r @ i
-2.1692 &r @ ixr
-0.7907 &r @ j
-2.1692 &r @ jw
-2.2808 &r @ kh
-1.4659 &r @ l
-1.4516 &r @ m
-0.6229 &r @ n
-1.5628 &r @ o
-2.6463 &r @ p
-2.3453 &r @ r&
-2.5422 &r @ s
-2.3453 &r @ sr
-2.3453 &r @ t
-1.0917 &r @ tc
-2.6463 &r @ th
-2.6463 &r @ tsh
-2.5422 &r @ tsr
-1.8638 &r @ u
-1.3632 &r @ w
-1.6877 &r @ x
-1.7669 &r @ y
-1.7082 &r A &
-1.9965 &r A &r
-1.5434 &r A >
-1.3750 &r A @
-2.4213 &r A C
-2.4213 &r A I
-0.8927 &r A N
-2.1600 &r A cC
-2.5255 &r A cCh
-2.5255 &r A e
-1.5917 &r A f
-2.0484 &r A i
-2.5255 &r A ixr
-2.5255 &r A k
-2.2245 &r A kh
-1.3308 &r A l
-0.9529 &r A m
-1.1989 &r A n
-1.4999 &r A o
-2.5255 &r A ph
-1.9191 &r A r&
-1.5917 &r A s
-1.9191 &r A sr
-2.4213 &r A t
-0.9648 &r A tc
-1.9191 &r A th
-2.1600 &r A thsr
-2.4213 &r A ts
-2.5255 &r A tsh
-2.4213 &r A tsr
-1.3908 &r A u
-0.7887 &r A w
-1.3308 &r A x
-1.8491 &r C &
-2.7829 &r C &r
-2.7829 &r C >
-2.4174 &r C @
-1.9334 &r C A
-1.7785 &r C E
-1.7178 &r C I
-1.5232 &r C N
-1.5113 &r C cC
-1.3087 &r C cCh
-1.5882 &r C e
-2.0004 &r C f
-0.8809 &r C i
-1.1064 &r C ixr
-1.6324 &r C j
-1.4361 &r C jw
-1.7785 &r C k
-2.0795 &r C kh
-2.0795 &r C l
-1.7178 &r C m
-1.5355 &r C n
-2.2538 &r C o
-1.5882 &r C p
-2.4818 &r C ph
-2.4818 &r C r&
-1.4998 &r C s
-2.0004 &r C sr
-1.5113 &r C t
-1.2734 &r C tc
-1.7785 &r C th
-1.3237 &r C thsr
-1.4461 &r C ts
-1.7178 &r C tsh
-1.4461 &r C tsr
-1.9656 &r C u
-1.8754 &r C w
-1.7573 &r C x
-1.1351 &r C y
-2.2619 &r E &
-2.2619 &r E &r
-2.3661 &r E >
-1.7597 &r E A
-1.6628 &r E C
-2.3661 &r E I
-1.4075 &r E N
-2.3661 &r E cCh
-1.8890 &r E f
-2.0651 &r E j
-2.3661 &r E jw
-1.0607 &r E l
-0.9468 &r E m
-0.6760 &r E n
-1.5166 &r E o
-1.8890 &r E r&
-2.3661 &r E sr
-0.5764 &r E tc
-1.6628 &r E u
-1.1313 &r E w
-1.3617 &r E x
-2.0125 &r I &
-2.1166 &r I &r
-2.1166 &r I >
-2.1166 &r I @
-1.7511 &r I A
-1.0911 &r I C
-2.1166 &r I E
-1.1345 &r I N
-1.8156 &r I cC
-2.1166 &r I cCh
-1.8156 &r I f
-1.3341 &r I i
-2.1166 &r I ixr
-1.6395 &r I jw
-2.1166 &r I k
-2.1166 &r I kh
-1.6395 &r I l
-1.2672 &r I m
-1.1580 &r I n
-1.7511 &r I o
-2.1166 &r I p
-2.1166 &r I ph
-1.5102 &r I s
-1.6395 &r I sr
-0.6004 &r I tc
-1.5876 &r I th
-2.1166 &r I ts
-2.1166 &r I tsh
-2.1166 &r I tsr
-1.5876 &r I w
-1.2994 &r I x
-1.5102 &r I y
-2.1650 &r N &
-2.7184 &r N &r
-1.8182 &r N >
-2.1193 &r N @
-2.2935 &r N A
-1.1508 &r N C
-1.9731 &r N E
-2.0401 &r N I
-1.6279 &r N cC
-1.5630 &r N cCh
-1.8640 &r N e
-1.8182 &r N f
-1.2559 &r N i
-1.9731 &r N ixr
-1.8405 &r N j
-1.9151 &r N jw
-1.7390 &r N k
-2.1650 &r N kh
-1.6279 &r N l
-1.0586 &r N m
-1.4858 &r N n
-2.1650 &r N o
-1.7390 &r N p
-2.1193 &r N ph
-1.8182 &r N r&
-1.2680 &r N s
-1.3950 &r N sr
-2.0053 &r N t
-0.6960 &r N tc
-1.7043 &r N th
-2.0053 &r N thsr
-1.6721 &r N ts
-2.0779 &r N tsh
-1.8640 &r N tsr
-1.5282 &r N u
-1.6421 &r N w
-1.4203 &r N x
-1.8405 &r N y
-1.9642 &r cC &
-2.3297 &r cC A
-1.8526 &r cC C
-0.9021 &r cC E
-2.3297 &r cC I
-1.6263 &r cC N
-2.0286 &r cC cCh
-1.7233 &r cC e
-0.6093 &r cC i
-1.3711 &r cC ixr
-1.0243 &r cC j
-1.0136 &r cC jw
-2.2255 &r cC k
-2.0286 &r cC kh
-1.9642 &r cC l
-1.5472 &r cC m
-2.3297 &r cC n
-1.4502 &r cC o
-1.4802 &r cC r&
-1.8526 &r cC s
-2.3297 &r cC sr
-2.0286 &r cC t
-1.8006 &r cC tc
-1.8526 &r cC thsr
-2.3297 &r cC tsh
-1.9642 &r cC u
-2.0286 &r cC x
-1.0353 &r cC y
-1.9740 &r cCh &
-2.1709 &r cCh &r
-2.2750 &r cCh A
-1.5717 &r cCh C
-1.2495 &r cCh E
-2.1709 &r cCh I
-1.4256 &r cCh N
-2.2750 &r cCh cC
-1.7979 &r cCh e
-1.9095 &r cCh f
-0.8235 &r cCh i
-1.0946 &r cCh ixr
-1.3956 &r cCh j
-1.3413 &r cCh jw
-1.6175 &r cCh k
-2.2750 &r cCh kh
-2.1709 &r cCh l
-1.6175 &r cCh m
-1.4925 &r cCh n
-1.6175 &r cCh o
-1.9740 &r cCh p
-2.2750 &r cCh ph
-1.7460 &r cCh r&
-1.5303 &r cCh s
-1.6175 &r cCh sr
-1.3164 &r cCh tc
-1.7979 &r cCh th
-1.6686 &r cCh thsr
-1.7979 &r cCh ts
-1.5717 &r cCh tsh
-1.9095 &r cCh tsr
-1.9740 &r cCh u
-0.8727 &r cCh y
-2.5054 &r e &
-2.8065 &r e &r
-2.5054 &r e >
-2.5054 &r e A
-1.6118 &r e C
-0.8856 &r e E
-1.1208 &r e N
-2.4410 &r e cC
-2.5054 &r e cCh
-2.1489 &r e f
-0.6799 &r e i
-2.0239 &r e ixr
-0.7529 &r e j
-1.7052 &r e jw
-2.8065 &r e k
-2.3293 &r e kh
-2.3293 &r e l
-2.0239 &r e m
-0.9632 &r e n
-1.6718 &r e o
-1.9270 &r e r&
-2.1031 &r e s
-1.8990 &r e sr
-2.5054 &r e t
-1.6260 &r e tc
-2.2774 &r e th
-2.0239 &r e thsr
-2.8065 &r e ts
-2.8065 &r e tsr
-2.3293 &r e u
-2.1489 &r e w
-2.3293 &r e x
-1.0697 &r e y
-1.0663 &r f &
-1.5892 &r f &r
-1.2882 &r f >
-0.9694 &r f @
-1.0663 &r f A
-1.8946 &r f C
-2.3717 &r f E
-1.4923 &r f I
-1.4643 &r f N
-2.0707 &r f cC
-2.0062 &r f cCh
-1.3462 &r f e
-1.4923 &r f i
-1.5544 &r f ixr
-1.8427 &r f j
-2.3717 &r f jw
-1.7141 &r f k
-2.0062 &r f kh
-1.8946 &r f m
-1.7653 &r f n
-1.3260 &r f o
-2.0062 &r f p
-2.2675 &r f ph
-2.0707 &r f r&
-2.0062 &r f s
-2.0062 &r f sr
-1.6684 &r f t
-1.4643 &r f tc
-2.0707 &r f thsr
-2.0707 &r f ts
-2.2675 &r f tsh
-1.0886 &r f u
-1.2212 &r f w
-1.4643 &r f x
-2.2675 &r f y
-2.6621 &r i &
-2.6621 &r i &r
-2.1599 &r i >
-2.2892 &r i @
-2.2892 &r i A
-1.1765 &r i C
-1.3640 &r i E
-1.4195 &r i N
-1.5858 &r i cC
-1.7619 &r i cCh
-2.2892 &r i e
-1.9490 &r i f
-1.9490 &r i ixr
-2.2892 &r i j
-1.7205 &r i jw
-1.6827 &r i k
-1.9490 &r i kh
-1.4948 &r i l
-1.2500 &r i m
-1.0377 &r i n
-1.3728 &r i o
-1.8869 &r i p
-2.7663 &r i ph
-1.7407 &r i r&
-1.6827 &r i s
-1.5189 &r i sr
-1.9490 &r i t
-0.5716 &r i tc
-2.1087 &r i th
-1.7842 &r i thsr
-2.2373 &r i tsh
-2.1087 &r i tsr
-1.8869 &r i u
-1.8588 &r i w
-1.5858 &r i x
-1.6006 &r i y
-2.1458 &r ixr &
-1.9697 &r ixr &r
-2.4468 &r ixr >
-1.8404 &r ixr @
-2.1458 &r ixr A
-1.2384 &r ixr C
-1.7021 &r ixr E
-2.1458 &r ixr I
-1.9697 &r ixr N
-2.1458 &r ixr cC
-2.3427 &r ixr cCh
-1.6643 &r ixr e
-2.3427 &r ixr f
-1.5974 &r ixr i
-1.8404 &r ixr k
-2.3427 &r ixr kh
-2.0813 &r ixr l
-1.6296 &r ixr m
-1.3121 &r ixr n
-1.3285 &r ixr o
-2.4468 &r ixr ph
-1.9697 &r ixr r&
-1.1872 &r ixr s
-1.0359 &r ixr sr
-2.1458 &r ixr t
-0.4907 &r ixr tc
-2.1458 &r ixr th
-1.7435 &r ixr ts
-1.9697 &r ixr tsh
-2.4468 &r ixr tsr
-2.0813 &r ixr u
-1.3818 &r ixr w
-1.4011 &r ixr x
-1.8404 &r ixr y
-1.8213 &r j &
-2.7007 &r j &r
-2.2236 &r j >
-1.8834 &r j @
-1.6964 &r j A
-1.1980 &r j C
-1.3442 &r j E
-2.7007 &r j I
-1.7186 &r j N
-2.0943 &r j cC
-2.3997 &r j cCh
-1.9974 &r j e
-2.0431 &r j f
-1.3953 &r j i
-2.7007 &r j ixr
-1.9974 &r j jw
-1.6357 &r j k
-2.7007 &r j kh
-1.7186 &r j l
-1.6964 &r j m
-1.1912 &r j n
-1.2265 &r j o
-2.2236 &r j p
-2.3997 &r j ph
-1.9182 &r j r&
-1.6752 &r j s
-1.4659 &r j sr
-2.7007 &r j t
-0.4280 &r j tc
-2.2236 &r j th
-2.7007 &r j ts
-2.2236 &r j tsh
-1.9182 &r j tsr
-2.3997 &r j u
-1.6964 &r j w
-1.5994 &r j x
-1.8513 &r j y
-1.1461 &r jw &
-1.7392 &r jw >
-1.7392 &r jw @
-2.1047 &r jw A
-2.1047 &r jw C
-0.5563 &r jw E
-1.4983 &r jw N
-2.1047 &r jw cCh
-1.4983 &r jw e
-1.8037 &r jw f
-1.2875 &r jw i
-1.2553 &r jw ixr
-1.1004 &r jw j
-1.8037 &r jw k
-2.1047 &r jw kh
-2.1047 &r jw l
-2.1047 &r jw m
-1.8037 &r jw n
-1.1710 &r jw o
-1.8037 &r jw p
-1.8037 &r jw r&
-2.1047 &r jw sr
-2.1047 &r jw t
-1.8037 &r jw th
-2.1047 &r jw thsr
-2.1047 &r jw w
-1.7392 &r jw x
-1.0212 &r jw y
-0.8579 &r k &
-1.5883 &r k &r
-1.0934 &r k >
-1.1903 &r k @
-1.3452 &r k A
-2.1947 &r k C
-0.8681 &r k E
-1.5883 &r k N
-2.1947 &r k cC
-2.0905 &r k cCh
-1.3774 &r k e
-1.8937 &r k f
-1.5883 &r k i
-1.8937 &r k ixr
-1.7176 &r k j
-1.8292 &r k l
-2.0905 &r k m
-2.1947 &r k n
-1.0600 &r k o
-2.0905 &r k p
-2.1947 &r k r&
-1.3452 &r k tc
-1.6657 &r k th
-1.8937 &r k thsr
-1.8292 &r k u
-1.0290 &r k w
-2.1947 &r k x
-1.8937 &r k y
-0.9488 &r kh &
-1.4638 &r kh &r
-2.2085 &r kh >
-0.8150 &r kh @
-1.0738 &r kh A
-2.1043 &r kh C
-1.5051 &r kh E
-1.9075 &r kh I
-1.3912 &r kh N
-2.2085 &r kh cC
-1.9075 &r kh cCh
-1.3590 &r kh e
-1.7314 &r kh i
-1.3590 &r kh ixr
-1.5051 &r kh j
-2.2085 &r kh k
-1.9075 &r kh l
-1.9075 &r kh m
-1.6021 &r kh n
-1.4260 &r kh o
-2.2085 &r kh p
-1.7314 &r kh r&
-1.9075 &r kh s
-1.9075 &r kh sr
-2.2085 &r kh t
-1.8430 &r kh tc
-2.2085 &r kh th
-2.2085 &r kh tsh
-1.9075 &r kh tsr
-1.2264 &r kh u
-1.3590 &r kh w
-1.5051 &r kh x
-1.6021 &r kh y
-0.9855 &r l &
-1.5763 &r l &r
-1.9369 &r l >
-0.9826 &r l @
-1.2697 &r l A
-2.5696 &r l C
-1.1503 &r l E
-2.0534 &r l I
-1.7202 &r l N
-2.0881 &r l cC
-2.3416 &r l cCh
-0.9855 &r l e
-2.5696 &r l f
-0.8094 &r l i
-1.5239 &r l ixr
-1.4349 &r l j
-2.3935 &r l jw
-1.8663 &r l k
-2.0881 &r l kh
-2.0212 &r l m
-2.2642 &r l n
-1.2179 &r l o
-2.5696 &r l p
-2.5696 &r l ph
-1.7049 &r l r&
-2.5052 &r l s
-2.1673 &r l sr
-2.1673 &r l t
-2.0881 &r l tc
-2.3416 &r l th
-2.5696 &r l thsr
-2.3416 &r l ts
-2.5696 &r l tsh
-2.3935 &r l tsr
-1.6488 &r l u
-1.9369 &r l w
-1.9632 &r l x
-1.3680 &r l y
-0.9360 &r m &
-1.9360 &r m &r
-1.0909 &r m >
-1.1726 &r m @
-1.3562 &r m A
-1.8568 &r m C
-1.7599 &r m E
-1.6807 &r m I
-1.5558 &r m N
-2.0329 &r m cC
-2.6393 &r m cCh
-0.7776 &r m e
-1.3678 &r m i
-1.4589 &r m ixr
-1.7056 &r m j
-2.1103 &r m jw
-1.6807 &r m k
-2.6393 &r m kh
-1.9360 &r m l
-1.8568 &r m n
-1.4446 &r m o
-1.8221 &r m p
-2.1103 &r m ph
-1.7599 &r m r&
-2.6393 &r m s
-2.1103 &r m sr
-1.4736 &r m t
-1.6350 &r m tc
-1.8946 &r m th
-2.6393 &r m thsr
-2.1622 &r m ts
-2.1622 &r m tsr
-1.3562 &r m u
-1.7056 &r m w
-2.1103 &r m x
-1.6350 &r m y
-1.8159 &r n &
-2.4063 &r n &r
-2.1583 &r n >
-1.7870 &r n @
-1.9726 &r n A
-1.4921 &r n C
-1.7618 &r n E
-1.9876 &r n I
-1.5238 &r n N
-1.3955 &r n cC
-1.8676 &r n cCh
-1.3477 &r n e
-2.0996 &r n f
-1.0970 &r n i
-1.5818 &r n ixr
-1.8115 &r n j
-1.7985 &r n jw
-1.5818 &r n k
-2.2886 &r n kh
-1.3955 &r n l
-1.1047 &r n m
-1.8828 &r n o
-1.6140 &r n p
-2.4269 &r n ph
-1.8986 &r n r&
-1.7737 &r n s
-1.4849 &r n sr
-1.3047 &r n t
-0.8415 &r n tc
-1.8249 &r n th
-2.1259 &r n thsr
-1.6488 &r n ts
-2.2161 &r n tsh
-1.6057 &r n tsr
-1.3955 &r n u
-1.8529 &r n w
-1.8249 &r n x
-1.7737 &r n y
-1.4031 &r o &
-2.2825 &r o &r
-1.1399 &r o >
-2.1065 &r o @
-1.5792 &r o A
-2.2181 &r o C
-2.2825 &r o E
-1.8802 &r o I
-0.8980 &r o N
-1.8802 &r o cC
-1.9772 &r o cCh
-1.0741 &r o e
-2.1065 &r o f
-2.4794 &r o i
-2.2825 &r o ixr
-2.1065 &r o j
-2.1065 &r o k
-2.2825 &r o kh
-1.7042 &r o l
-1.1478 &r o m
-1.5000 &r o n
-2.1065 &r o p
-2.5836 &r o ph
-1.6015 &r o r&
-2.1065 &r o s
-1.6498 &r o sr
-1.5378 &r o tc
-2.5836 &r o thsr
-2.2825 &r o tsh
-0.8047 &r o u
-0.9071 &r o w
-1.3488 &r o x
-1.0472 &r p &
-1.0984 &r p >
-1.3025 &r p @
-1.1168 &r p A
-1.8164 &r p C
-1.5755 &r p E
-1.8809 &r p I
-1.4786 &r p N
-1.8809 &r p cCh
-1.3025 &r p e
-1.0014 &r p i
-1.4786 &r p ixr
-1.3994 &r p j
-1.8809 &r p jw
-2.1819 &r p k
-1.8809 &r p l
-1.8164 &r p m
-1.3324 &r p n
-1.5755 &r p o
-2.1819 &r p ph
-2.0777 &r p r&
-2.0777 &r p sr
-1.7048 &r p t
-1.3994 &r p tc
-2.1819 &r p ts
-1.1563 &r p u
-1.2233 &r p w
-1.8164 &r p x
-1.8809 &r p y
-1.6091 &r ph &
-1.8060 &r ph >
-1.6091 &r ph @
-1.3811 &r ph A
-1.8060 &r ph C
-1.9102 &r ph I
-1.2068 &r ph N
-1.1654 &r ph cC
-1.2068 &r ph cCh
-1.3037 &r ph f
-0.9764 &r ph i
-1.6091 &r ph ixr
-1.6091 &r ph j
-1.6091 &r ph jw
-1.4330 &r ph k
-1.6091 &r ph l
-1.6091 &r ph m
-1.4330 &r ph n
-1.9102 &r ph o
-1.8060 &r ph s
-1.2068 &r ph sr
-1.3811 &r ph tc
-1.6091 &r ph th
-1.6091 &r ph thsr
-1.9102 &r ph ts
-1.6091 &r ph u
-1.6091 &r ph w
-1.5447 &r ph x
-1.6091 &r ph y
-1.1093 &r r& &
-1.7625 &r r& &r
-1.8874 &r r& >
-1.3984 &r r& @
-1.1278 &r r& A
-1.8527 &r r& C
-0.9981 &r r& E
-2.3689 &r r& I
-1.3984 &r r& N
-2.6699 &r r& cC
-1.8205 &r r& cCh
-1.2342 &r r& e
-1.3984 &r r& i
-1.4752 &r r& ixr
-1.5042 &r r& j
-2.1928 &r r& k
-2.1928 &r r& kh
-2.1928 &r r& l
-1.6242 &r r& m
-1.5516 &r r& n
-0.8174 &r r& o
-2.3689 &r r& p
-2.5658 &r r& ph
-2.3044 &r r& s
-2.1928 &r r& sr
-2.0635 &r r& t
-1.8527 &r r& tc
-1.8874 &r r& th
-1.9666 &r r& thsr
-2.3689 &r r& ts
-2.1409 &r r& tsr
-1.3434 &r r& u
-1.2590 &r r& w
-1.5864 &r r& x
-1.9666 &r r& y
-1.1468 &r s &
-2.5403 &r s &r
-1.9339 &r s >
-1.1935 &r s @
-1.4945 &r s A
-2.4361 &r s C
-2.0632 &r s E
-1.2459 &r s I
-1.5582 &r s N
-1.4945 &r s cC
-1.6328 &r s cCh
-1.4056 &r s e
-2.0632 &r s f
-1.8827 &r s i
-1.0811 &r s ixr
-2.1748 &r s jw
-1.4567 &r s k
-1.8370 &r s kh
-2.1748 &r s l
-1.6328 &r s m
-1.5147 &r s n
-1.5582 &r s o
-1.5147 &r s p
-2.1748 &r s ph
-1.8370 &r s r&
-1.8827 &r s sr
-1.2572 &r s t
-1.4752 &r s tc
-2.2393 &r s th
-1.5359 &r s thsr
-1.5582 &r s ts
-1.7578 &r s tsh
-1.6328 &r s tsr
-1.2459 &r s u
-1.3598 &r s w
-1.7578 &r s x
-1.2268 &r sr &
-2.5603 &r sr &r
-1.9672 &r sr >
-1.7753 &r sr @
-1.8075 &r sr A
-2.0183 &r sr C
-1.6784 &r sr E
-1.3416 &r sr I
-1.4982 &r sr N
-1.5790 &r sr cC
-1.6097 &r sr cCh
-1.7911 &r sr e
-1.7753 &r sr f
-1.5065 &r sr i
-0.8742 &r sr ixr
-2.0464 &r sr j
-1.6662 &r sr jw
-1.6784 &r sr k
-1.9920 &r sr kh
-2.2682 &r sr l
-1.7173 &r sr m
-1.5692 &r sr n
-1.2780 &r sr o
-1.4982 &r sr p
-2.2225 &r sr ph
-2.2225 &r sr r&
-1.6910 &r sr s
-1.5235 &r sr t
-1.3651 &r sr tc
-1.8607 &r sr th
-1.4901 &r sr thsr
-1.8245 &r sr ts
-1.9672 &r sr tsh
-1.5992 &r sr tsr
-1.2682 &r sr u
-1.6097 &r sr w
-1.5597 &r sr x
-1.4982 &r sr y
-1.1681 &r t &
-1.9128 &r t &r
-1.4357 &r t >
-1.0334 &r t @
-1.0634 &r t A
-0.9542 &r t E
-1.1303 &r t N
-1.8087 &r t e
-1.4357 &r t i
-1.0634 &r t j
-1.6118 &r t m
-1.4357 &r t n
-1.1303 &r t o
-1.6118 &r t r&
-1.5473 &r t sr
-1.8087 &r t thsr
-1.5473 &r t u
-1.0634 &r t w
-1.9128 &r t x
-1.9128 &r t y
-1.9448 &r tc &
-2.8038 &r tc &r
-2.7319 &r tc >
-2.3250 &r tc @
-2.4889 &r tc A
-1.9511 &r tc C
-2.6306 &r tc E
-2.1682 &r tc I
-2.1393 &r tc N
-0.9146 &r tc cC
-1.1365 &r tc cCh
-1.7275 &r tc e
-2.0286 &r tc f
-1.8177 &r tc i
-1.7556 &r tc ixr
-2.1121 &r tc j
-2.2327 &r tc jw
-1.2041 &r tc k
-1.4002 &r tc kh
-2.6306 &r tc l
-1.9494 &r tc m
-2.0396 &r tc n
-2.3296 &r tc o
-0.9503 &r tc p
-1.7614 &r tc ph
-2.1121 &r tc r&
-1.8903 &r tc s
-1.7556 &r tc sr
-0.9360 &r tc t
-1.3340 &r tc th
-1.4545 &r tc thsr
-1.2882 &r tc ts
-1.6178 &r tc tsh
-1.1282 &r tc tsr
-1.9231 &r tc u
-2.0743 &r tc w
-2.0396 &r tc x
-2.3084 &r tc y
-1.4624 &r th &
-1.6429 &r th &r
-2.1200 &r th >
-0.8369 &r th @
-1.0549 &r th A
-1.2705 &r th E
-1.8189 &r th I
-1.4166 &r th N
-2.1200 &r th cC
-1.8189 &r th cCh
-1.5909 &r th e
-1.5909 &r th i
-1.8189 &r th ixr
-1.5136 &r th j
-1.5909 &r th jw
-2.1200 &r th k
-2.1200 &r th kh
-2.1200 &r th l
-1.4624 &r th m
-1.1156 &r th n
-1.2405 &r th o
-1.8189 &r th p
-1.6429 &r th s
-1.1379 &r th tc
-1.8189 &r th thsr
-1.8189 &r th ts
-2.1200 &r th tsr
-1.5136 &r th u
-1.5136 &r th w
-1.6429 &r th x
-1.8189 &r th y
-1.0958 &r thsr &
-1.6741 &r thsr &r
-1.6741 &r thsr >
-1.0958 &r thsr @
-0.9931 &r thsr A
-1.6741 &r thsr E
-1.9752 &r thsr I
-1.4461 &r thsr N
-1.9752 &r thsr e
-1.6741 &r thsr f
-1.6741 &r thsr i
-1.2718 &r thsr ixr
-1.9752 &r thsr j
-1.2718 &r thsr jw
-1.3688 &r thsr k
-1.3688 &r thsr m
-1.2718 &r thsr n
-1.0414 &r thsr o
-1.9752 &r thsr sr
-1.8710 &r thsr t
-1.6097 &r thsr tc
-1.9752 &r thsr ts
-1.9752 &r thsr tsh
-1.0414 &r thsr u
-1.3176 &r thsr w
-0.6762 &r ts &
-1.6475 &r ts &r
-1.7119 &r ts >
-0.9874 &r ts @
-1.4065 &r ts A
-0.9874 &r ts E
-1.6475 &r ts I
-1.6475 &r ts N
-0.7782 &r ts e
-2.0130 &r ts f
-2.0130 &r ts i
-1.4839 &r ts ixr
-1.7119 &r ts j
-2.0130 &r ts l
-1.7119 &r ts n
-1.0792 &r ts o
-2.0130 &r ts p
-2.0130 &r ts tc
-2.0130 &r ts th
-1.5358 &r ts u
-1.6475 &r ts w
-2.0130 &r ts x
-1.1761 &r tsh &
-1.9934 &r tsh &r
-1.1439 &r tsh @
-1.4643 &r tsh A
-1.9934 &r tsh C
-1.2900 &r tsh E
-1.2109 &r tsh I
-1.3869 &r tsh N
-1.9934 &r tsh cC
-1.6923 &r tsh cCh
-1.3358 &r tsh e
-1.8892 &r tsh f
-1.6923 &r tsh i
-1.2486 &r tsh ixr
-1.3869 &r tsh j
-1.9934 &r tsh jw
-1.6923 &r tsh k
-1.6923 &r tsh l
-1.9934 &r tsh m
-1.3358 &r tsh n
-1.3358 &r tsh o
-1.6923 &r tsh p
-1.6923 &r tsh s
-1.6923 &r tsh sr
-1.8892 &r tsh t
-1.2900 &r tsh tc
-1.9934 &r tsh th
-1.6923 &r tsh thsr
-1.6923 &r tsh tsr
-1.5162 &r tsh u
-1.2486 &r tsh w
-1.8892 &r tsh x
-1.1862 &r tsr &
-1.4166 &r tsr &r
-1.5136 &r tsr @
-1.5909 &r tsr A
-1.7545 &r tsr C
-0.8603 &r tsr E
-2.0158 &r tsr I
-1.5909 &r tsr N
-1.3027 &r tsr e
-1.2705 &r tsr i
-1.2125 &r tsr ixr
-1.2405 &r tsr j
-2.0158 &r tsr k
-2.1200 &r tsr kh
-1.5136 &r tsr l
-2.1200 &r tsr m
-1.2405 &r tsr n
-1.1614 &r tsr o
-2.1200 &r tsr r&
-1.5909 &r tsr sr
-1.4166 &r tsr tc
-2.1200 &r tsr th
-1.8189 &r tsr thsr
-2.1200 &r tsr ts
-2.1200 &r tsr tsh
-1.2405 &r tsr u
-1.6429 &r tsr w
-1.4624 &r tsr y
-1.6030 &r u &
-2.3855 &r u &r
-2.0844 &r u >
-2.2813 &r u A
-1.3019 &r u C
-1.6408 &r u N
-1.6821 &r u cC
-1.6408 &r u cCh
-1.5061 &r u e
-1.7791 &r u f
-1.0694 &r u i
-1.6821 &r u ixr
-1.6408 &r u j
-1.9084 &r u jw
-2.0844 &r u kh
-1.4034 &r u l
-1.4780 &r u m
-1.4780 &r u n
-1.8564 &r u o
-1.8564 &r u p
-1.6821 &r u ph
-1.6030 &r u r&
-1.4780 &r u s
-1.2842 &r u sr
-0.5550 &r u tc
-2.3855 &r u th
-1.7791 &r u thsr
-2.0844 &r u ts
-2.0844 &r u tsr
-2.0844 &r u w
-2.0844 &r u x
-1.3811 &r u y
-1.6532 &r w &
-2.1973 &r w &r
-0.9700 &r w >
-1.5206 &r w @
-1.7024 &r w A
-1.6090 &r w C
-1.9542 &r w E
-2.1461 &r w I
-1.5206 &r w N
-1.7386 &r w cC
-1.6532 &r w cCh
-1.2491 &r w e
-1.7993 &r w f
-1.9864 &r w i
-2.8037 &r w ixr
-2.1004 &r w j
-2.5027 &r w jw
-2.0212 &r w k
-2.0590 &r w kh
-1.5322 &r w l
-1.3295 &r w m
-1.4191 &r w n
-2.1973 &r w o
-1.5441 &r w p
-2.3266 &r w ph
-2.1004 &r w r&
-1.5952 &r w s
-1.6380 &r w sr
-2.8037 &r w t
-0.6690 &r w tc
-2.1004 &r w th
-2.1973 &r w thsr
-2.0590 &r w ts
-2.5027 &r w tsh
-2.1973 &r w tsr
-1.0248 &r w u
-1.5563 &r w x
-2.1973 &r w y
-1.0183 &r x &
-1.6857 &r x &r
-1.1294 &r x >
-1.0183 &r x @
-1.0574 &r x A
-2.1611 &r x C
-1.7563 &r x E
-1.8728 &r x I
-1.2625 &r x N
-1.9454 &r x cC
-1.9454 &r x cCh
-1.4816 &r x e
-2.1611 &r x f
-2.0837 &r x i
-1.6857 &r x ixr
-2.3246 &r x j
-2.1611 &r x jw
-1.7827 &r x k
-2.0837 &r x kh
-1.7827 &r x l
-1.8406 &r x m
-1.7315 &r x n
-1.2544 &r x o
-1.5244 &r x p
-2.5859 &r x ph
-2.0325 &r x s
-1.8406 &r x sr
-1.7315 &r x t
-1.7827 &r x tc
-1.9076 &r x th
-2.3891 &r x thsr
-1.8406 &r x ts
-1.8728 &r x tsr
-1.1060 &r x u
-1.0891 &r x w
-2.6901 &r x y
-1.5218 &r y C
-2.1282 &r y E
-1.0825 &r y N
-1.4706 &r y cC
-1.6511 &r y cCh
-1.7627 &r y e
-1.8272 &r y f
-1.3835 &r y i
-2.0240 &r y ixr
-2.1282 &r y k
-1.8272 &r y l
-1.4249 &r y m
-1.1239 &r y n
-1.6511 &r y o
-1.8272 &r y p
-1.6511 &r y r&
-1.5992 &r y s
-1.3457 &r y sr
-2.1282 &r y t
-0.4804 &r y tc
-1.8272 &r y th
-2.1282 &r y thsr
-2.1282 &r y ts
-1.8272 &r y tsh
-1.8272 &r y u
-1.5992 &r y w
-1.3457 &r y x
-2.3114 > & &r
-1.9978 > & >
-2.1439 > & @
-2.2196 > & A
-1.5551 > & C
-2.3657 > & E
-2.3657 > & I
-1.2408 > & N
-1.8886 > & cC
-2.1616 > & cCh
-1.9978 > & e
-1.6906 > & f
-1.6497 > & i
-2.0367 > & ixr
-1.7637 > & j
-2.2631 > & jw
-1.8984 > & k
-2.3377 > & kh
-1.3191 > & l
-0.9953 > & m
-0.8151 > & n
-1.6023 > & o
-2.0367 > & p
-2.9441 > & ph
-1.6023 > & r&
-1.4965 > & s
-1.3459 > & sr
-2.5004 > & t
-0.6863 > & tc
-2.3957 > & th
-2.4279 > & thsr
-2.5004 > & ts
-2.5418 > & tsh
-2.2408 > & tsr
-1.8343 > & u
-1.5084 > & w
-1.5248 > & x
-1.8984 > & y
-1.4097 > &r &
-2.3022 > &r >
-1.8391 > &r @
-1.7969 > &r A
-1.3108 > &r C
-1.7572 > &r E
-1.9419 > &r I
-1.3486 > &r N
-1.7716 > &r cC
-1.6409 > &r cCh
-1.4765 > &r e
-2.0846 > &r f
-1.4825 > &r i
-1.4648 > &r ixr
-1.5917 > &r j
-2.1937 > &r jw
-1.8775 > &r k
-1.8927 > &r kh
-1.4156 > &r l
-1.7166 > &r m
-1.1523 > &r n
-1.7488 > &r o
-2.0388 > &r p
-2.2259 > &r ph
-1.4208 > &r r&
-1.6409 > &r s
-1.0822 > &r sr
-2.1094 > &r t
-0.8429 > &r tc
-2.0176 > &r th
-2.1937 > &r thsr
-2.1094 > &r ts
-2.3856 > &r tsh
-1.8627 > &r tsr
-1.7716 > &r u
-1.4590 > &r w
-1.5203 > &r x
-1.8927 > &r y
-1.9167 > @ &
-2.0842 > @ &r
-2.3852 > @ >
-1.9344 > @ A
-1.8674 > @ C
-1.3929 > @ E
-2.2934 > @ I
-1.4008 > @ N
-2.2177 > @ cC
-2.1685 > @ cCh
-1.5626 > @ e
-2.1105 > @ f
-1.0618 > @ i
-1.7180 > @ ixr
-0.8170 > @ j
-1.9924 > @ jw
-2.2354 > @ k
-2.2007 > @ kh
-1.2997 > @ l
-1.6614 > @ m
-0.7088 > @ n
-1.6566 > @ o
-2.4695 > @ p
-2.8418 > @ ph
-1.6862 > @ r&
-1.8832 > @ s
-1.5863 > @ sr
-2.6156 > @ t
-1.1414 > @ tc
-2.4395 > @ th
-2.3852 > @ thsr
-2.5017 > @ ts
-2.4395 > @ tsh
-2.3146 > @ tsr
-2.2354 > @ u
-1.3801 > @ w
-1.9081 > @ x
-1.5438 > @ y
-1.6268 > A &
-1.6961 > A &r
-1.6718 > A >
-1.3439 > A @
-1.9208 > A C
-2.2360 > A E
-2.1817 > A I
-1.0194 > A N
-1.9808 > A cC
-2.0319 > A cCh
-2.0899 > A e
-1.7787 > A f
-2.0504 > A i
-2.0319 > A ixr
-1.9208 > A j
-2.0899 > A jw
-1.9808 > A k
-2.0504 > A kh
-1.1593 > A l
-1.1311 > A m
-1.2754 > A n
-1.5733 > A o
-2.0899 > A p
-2.6383 > A ph
-1.6128 > A r&
-1.8211 > A s
-1.7687 > A sr
-2.3329 > A t
-0.9955 > A tc
-2.2080 > A th
-2.1111 > A thsr
-2.1334 > A ts
-2.0899 > A tsh
-2.2660 > A tsr
-1.6878 > A u
-0.7746 > A w
-1.3439 > A x
-2.5090 > A y
-1.9855 > C &
-2.5400 > C &r
-2.1616 > C >
-1.9855 > C @
-2.2865 > C A
-1.7859 > C E
-1.7424 > C I
-1.7746 > C N
-1.3880 > C cC
-1.2619 > C cCh
-1.8605 > C e
-1.8743 > C f
-0.9643 > C i
-1.0233 > C ixr
-1.6098 > C j
-1.4212 > C jw
-1.6175 > C k
-2.0039 > C kh
-2.0435 > C l
-1.8342 > C m
-1.5083 > C n
-2.1104 > C o
-1.5803 > C p
-2.1352 > C ph
-2.1104 > C r&
-1.8094 > C s
-1.7424 > C sr
-1.7029 > C t
-1.2865 > C tc
-1.7424 > C th
-1.3323 > C thsr
-1.6936 > C ts
-1.7859 > C tsh
-1.5332 > C tsr
-1.8472 > C u
-1.6936 > C w
-1.8472 > C x
-0.9909 > C y
-2.1751 > E &
-1.6936 > E &r
-2.1751 > E @
-1.6065 > E A
-1.8028 > E C
-1.3054 > E N
-1.9075 > E f
-2.1751 > E i
-1.8350 > E ixr
-2.6522 > E j
-2.6522 > E jw
-2.6522 > E k
-2.6522 > E kh
-1.1294 > E l
-0.9804 > E m
-0.8028 > E n
-1.1708 > E o
-2.6522 > E p
-1.6267 > E r&
-1.8350 > E s
-1.6065 > E sr
-2.6522 > E t
-0.6865 > E tc
-2.1751 > E th
-1.9947 > E thsr
-2.6522 > E ts
-2.3512 > E tsh
-1.9489 > E u
-1.1294 > E w
-1.3807 > E x
-2.3512 > E y
-2.3135 > I &
-2.4177 > I &r
-2.4177 > I >
-1.7601 > I @
-2.0522 > I A
-1.2830 > I C
-2.3135 > I E
-1.4356 > I N
-1.7143 > I cC
-2.4177 > I cCh
-1.8886 > I e
-1.7143 > I f
-1.1958 > I i
-2.4177 > I ixr
-2.1166 > I j
-2.3135 > I k
-2.4177 > I kh
-1.6004 > I l
-1.3719 > I m
-1.1461 > I n
-2.4177 > I o
-2.0522 > I p
-2.1166 > I ph
-1.1580 > I s
-0.9819 > I sr
-0.5560 > I tc
-1.9405 > I th
-2.4177 > I thsr
-2.1166 > I tsh
-2.3135 > I tsr
-2.4177 > I u
-1.9405 > I w
-1.5102 > I x
-1.4591 > I y
-1.7607 > N &
-2.4295 > N &r
-1.8224 > N >
-2.2651 > N @
-2.2996 > N A
-1.4989 > N C
-2.1313 > N E
-1.9046 > N I
-1.4936 > N cC
-1.7260 > N cCh
-1.7723 > N e
-1.5387 > N f
-1.5111 > N i
-1.6977 > N ixr
-2.0127 > N j
-1.8181 > N jw
-1.6110 > N k
-1.8761 > N kh
-1.5231 > N l
-1.0648 > N m
-1.5820 > N n
-2.3967 > N o
-1.6501 > N p
-2.2775 > N ph
-1.8761 > N r&
-1.3491 > N s
-1.3370 > N sr
-2.0522 > N t
-0.6277 > N tc
-2.1191 > N th
-1.9764 > N thsr
-1.8830 > N ts
-1.7460 > N tsh
-1.7069 > N tsr
-1.5548 > N u
-1.8692 > N w
-1.3701 > N x
-1.8830 > N y
-1.8079 > cC &
-2.1133 > cC >
-2.1133 > cC C
-0.8597 > cC E
-1.9372 > cC I
-1.8853 > cC N
-1.8079 > cC cCh
-2.0488 > cC e
-2.4143 > cC f
-0.8079 > cC i
-1.0675 > cC ixr
-0.9628 > cC j
-1.0389 > cC jw
-1.7567 > cC k
-2.0488 > cC l
-1.8079 > cC m
-1.9372 > cC n
-1.6318 > cC o
-1.9372 > cC p
-2.4143 > cC ph
-1.5068 > cC r&
-2.4143 > cC s
-1.8079 > cC sr
-1.7567 > cC tc
-2.1133 > cC thsr
-2.4143 > cC ts
-1.8079 > cC tsr
-2.3101 > cC u
-2.4143 > cC w
-2.4143 > cC x
-0.8914 > cC y
-1.7606 > cCh &
-2.0660 > cCh @
-2.0660 > cCh C
-1.3020 > cCh E
-2.3670 > cCh I
-1.4084 > cCh N
-2.2629 > cCh cC
-1.6223 > cCh e
-1.8380 > cCh f
-1.0302 > cCh i
-1.1196 > cCh ixr
-1.3020 > cCh j
-1.3627 > cCh jw
-1.8899 > cCh k
-2.3670 > cCh kh
-1.3849 > cCh m
-1.3415 > cCh n
-1.7606 > cCh o
-2.0660 > cCh p
-2.3670 > cCh ph
-1.5845 > cCh r&
-1.7606 > cCh s
-1.4333 > cCh sr
-2.0660 > cCh t
-1.2323 > cCh tc
-2.3670 > cCh th
-1.5498 > cCh thsr
-2.0660 > cCh ts
-2.3670 > cCh tsh
-1.7095 > cCh tsr
-1.8899 > cCh u
-2.2629 > cCh w
-1.7606 > cCh x
-0.7446 > cCh y
-2.0323 > e &
-2.4398 > e &r
-2.5811 > e >
-2.3940 > e @
-2.3940 > e A
-1.6343 > e C
-0.8755 > e E
-2.6159 > e I
-1.4255 > e N
-2.1899 > e cC
-2.4398 > e cCh
-2.6159 > e f
-0.7389 > e i
-1.7457 > e ixr
-0.7370 > e j
-1.6269 > e jw
-2.6159 > e k
-2.5489 > e kh
-2.0229 > e l
-2.1899 > e m
-0.9235 > e n
-1.7408 > e o
-2.5489 > e p
-2.8693 > e ph
-1.6420 > e r&
-2.1387 > e s
-1.7920 > e sr
-2.7920 > e t
-1.7038 > e tc
-2.4909 > e th
-2.2479 > e thsr
-2.6537 > e ts
-2.5489 > e tsh
-2.5190 > e tsr
-2.2179 > e u
-2.2637 > e w
-2.3728 > e x
-1.0129 > e y
-1.0131 > f &
-1.9959 > f &r
-1.2019 > f >
-1.3761 > f @
-1.2258 > f A
-2.1050 > f C
-2.5890 > f E
-1.2780 > f I
-1.3647 > f N
-1.6601 > f cC
-1.7740 > f cCh
-1.2512 > f e
-1.8362 > f i
-1.2019 > f ixr
-1.9959 > f j
-2.5890 > f jw
-1.7460 > f k
-1.8362 > f kh
-2.1050 > f l
-1.7197 > f m
-1.9959 > f n
-1.5522 > f o
-1.7460 > f p
-2.4254 > f ph
-1.9289 > f r&
-1.7598 > f s
-1.6948 > f sr
-1.6829 > f t
-1.4953 > f tc
-1.9087 > f th
-1.9501 > f thsr
-1.7740 > f ts
-2.0207 > f tsh
-1.9087 > f tsr
-1.1144 > f u
-1.4061 > f w
-1.5610 > f x
-2.0207 > f y
-2.8044 > i &
-2.4478 > i &r
-2.3229 > i >
-2.1468 > i @
-2.2881 > i A
-1.2750 > i C
-1.4883 > i E
-2.3607 > i I
-1.6387 > i N
-1.5696 > i cC
-1.9107 > i cCh
-2.2260 > i e
-1.8339 > i f
-1.7586 > i ixr
-2.0597 > i j
-1.6312 > i jw
-1.6462 > i k
-2.2260 > i kh
-1.6168 > i l
-1.2622 > i m
-1.0925 > i n
-1.5156 > i o
-1.8969 > i p
-2.4478 > i ph
-1.7686 > i r&
-1.5696 > i s
-1.3229 > i sr
-2.1716 > i t
-0.5564 > i tc
-2.0597 > i th
-1.9549 > i thsr
-2.0597 > i ts
-2.3229 > i tsh
-1.9250 > i tsr
-1.7788 > i u
-1.7031 > i w
-1.4778 > i x
-1.5270 > i y
-1.5902 > ixr &
-2.0216 > ixr &r
-2.1185 > ixr >
-2.7249 > ixr @
-2.1185 > ixr A
-1.3684 > ixr C
-2.0216 > ixr E
-2.3594 > ixr I
-1.4418 > ixr N
-1.9802 > ixr cC
-2.1959 > ixr cCh
-1.9424 > ixr e
-1.5902 > ixr f
-1.6066 > ixr i
-1.9802 > ixr j
-2.7249 > ixr jw
-1.7912 > ixr k
-2.4239 > ixr kh
-1.7206 > ixr l
-1.2812 > ixr m
-1.2657 > ixr n
-1.4775 > ixr o
-2.0216 > ixr p
-2.7249 > ixr ph
-1.8175 > ixr r&
-1.2582 > ixr s
-0.9685 > ixr sr
-2.1185 > ixr t
-0.5683 > ixr tc
-2.1185 > ixr th
-2.6208 > ixr thsr
-2.1185 > ixr ts
-2.1185 > ixr tsh
-2.4239 > ixr tsr
-1.9424 > ixr u
-1.5302 > ixr w
-1.4534 > ixr x
-1.9424 > ixr y
-1.9077 > j &
-2.2240 > j &r
-2.1397 > j >
-2.0691 > j @
-1.6626 > j A
-1.3490 > j C
-1.7367 > j E
-2.1660 > j I
-1.7574 > j N
-1.8516 > j cC
-1.8019 > j cCh
-2.1941 > j e
-1.9899 > j f
-1.4257 > j i
-1.9552 > j ixr
-1.9077 > j jw
-1.9552 > j k
-2.1941 > j kh
-1.4725 > j l
-1.7574 > j m
-1.3789 > j n
-1.3658 > j o
-2.1397 > j p
-2.7724 > j ph
-1.8387 > j r&
-1.5250 > j s
-1.3834 > j sr
-2.2562 > j t
-0.3802 > j tc
-2.2910 > j th
-2.5964 > j thsr
-2.3701 > j ts
-2.4671 > j tsh
-2.1660 > j tsr
-2.1149 > j u
-1.8261 > j w
-1.6459 > j x
-1.9388 > j y
-1.3438 > jw &
-2.2004 > jw &r
-1.8912 > jw >
-1.6341 > jw @
-1.7385 > jw A
-1.8232 > jw C
-0.7871 > jw E
-2.1241 > jw I
-1.8433 > jw N
-1.4934 > jw cC
-1.5321 > jw cCh
-1.8645 > jw e
-2.0864 > jw f
-1.4174 > jw i
-1.4495 > jw ixr
-1.1241 > jw j
-1.5858 > jw k
-1.9351 > jw kh
-2.0864 > jw l
-1.8231 > jw m
-1.6604 > jw n
-1.0516 > jw o
-1.7506 > jw p
-2.0516 > jw ph
-1.7031 > jw r&
-2.1655 > jw s
-1.6470 > jw sr
-1.8231 > jw t
-1.6742 > jw tc
-1.8433 > jw th
-1.8038 > jw thsr
-2.0194 > jw ts
-1.9103 > jw tsh
-1.7031 > jw tsr
-1.8038 > jw u
-1.6604 > jw w
-1.5858 > jw x
-1.4174 > jw y
-0.8573 > k &
-1.6289 > k &r
-0.9221 > k >
-1.1388 > k @
-1.1789 > k A
-2.3736 > k C
-1.0470 > k E
-2.0726 > k I
-1.7672 > k N
-2.0726 > k cC
-1.5911 > k e
-2.2694 > k f
-1.8445 > k i
-2.2694 > k ixr
-1.4398 > k j
-2.3736 > k jw
-1.7672 > k l
-2.2694 > k m
-2.0726 > k n
-1.0682 > k o
-1.8445 > k p
-1.7672 > k r&
-2.3736 > k s
-1.4150 > k tc
-2.3736 > k thsr
-2.3736 > k tsr
-1.3085 > k u
-1.0905 > k w
-1.6702 > k x
-2.3736 > k y
-1.2880 > kh &
-1.7273 > kh &r
-1.6304 > kh >
-0.9315 > kh @
-1.1119 > kh A
-2.2296 > kh C
-2.0327 > kh E
-1.7273 > kh I
-1.4000 > kh N
-1.9683 > kh cC
-1.7273 > kh cCh
-1.4263 > kh e
-1.9683 > kh f
-1.8047 > kh i
-1.1991 > kh ixr
-2.0327 > kh jw
-1.8047 > kh k
-1.5512 > kh l
-1.8047 > kh m
-1.4263 > kh n
-1.3752 > kh o
-2.0327 > kh p
-2.3338 > kh r&
-2.0327 > kh s
-1.6762 > kh sr
-1.6304 > kh t
-1.1991 > kh tc
-2.2296 > kh th
-1.7273 > kh thsr
-1.9683 > kh ts
-2.3338 > kh tsh
-1.8047 > kh tsr
-1.2325 > kh u
-1.3752 > kh w
-1.9683 > kh x
-1.6304 > kh y
-0.9009 > l &
-1.6642 > l &r
-1.5842 > l >
-0.9831 > l @
-1.1645 > l A
-2.1901 > l C
-1.1135 > l E
-1.9130 > l I
-1.8244 > l N
-2.2756 > l cC
-2.3585 > l cCh
-0.9812 > l e
-2.9751 > l f
-0.8599 > l i
-1.5728 > l ixr
-1.4820 > l j
-1.9130 > l jw
-2.0140 > l k
-2.5959 > l kh
-2.1321 > l m
-2.4068 > l n
-1.6161 > l o
-1.9471 > l p
-2.5959 > l ph
-1.9841 > l r&
-2.8635 > l s
-1.9130 > l sr
-2.0140 > l t
-2.0038 > l tc
-2.5233 > l th
-2.3820 > l thsr
-2.4612 > l ts
-2.8635 > l tsh
-2.8635 > l tsr
-1.7681 > l u
-1.8177 > l w
-2.0245 > l x
-1.2359 > l y
-0.8409 > m &
-1.9962 > m &r
-1.1118 > m >
-1.2959 > m @
-1.4227 > m A
-2.2730 > m C
-1.8723 > m E
-1.6095 > m I
-1.4643 > m N
-1.9664 > m cC
-2.1677 > m cCh
-0.7870 > m e
-2.4577 > m f
-1.4710 > m i
-1.4324 > m ixr
-2.0428 > m j
-2.3785 > m jw
-1.7950 > m k
-2.4577 > m kh
-1.9806 > m l
-1.8243 > m n
-1.3989 > m o
-1.8293 > m p
-2.3785 > m ph
-1.9327 > m r&
-2.1355 > m s
-1.8837 > m sr
-1.5108 > m t
-1.4324 > m tc
-2.3438 > m th
-2.2273 > m thsr
-2.2402 > m ts
-2.3274 > m tsh
-2.2025 > m tsr
-1.3804 > m u
-1.5492 > m w
-1.8094 > m x
-2.0775 > m y
-1.6230 > n &
-2.5578 > n &r
-2.0737 > n >
-1.9900 > n @
-1.9685 > n A
-1.6663 > n C
-2.0555 > n E
-1.9586 > n I
-1.6522 > n N
-1.3090 > n cC
-2.0292 > n cCh
-1.1627 > n e
-1.8979 > n f
-1.1601 > n i
-1.4870 > n ixr
-1.9586 > n j
-1.7683 > n jw
-1.4851 > n k
-2.2935 > n kh
-1.3485 > n l
-1.2521 > n m
-1.9752 > n o
-1.6658 > n p
-2.5395 > n ph
-1.8840 > n r&
-1.8086 > n s
-1.6390 > n sr
-1.3328 > n t
-0.7178 > n tc
-1.8048 > n th
-1.9222 > n thsr
-1.5437 > n ts
-2.2935 > n tsh
-1.6770 > n tsr
-1.7613 > n u
-1.9426 > n w
-1.8010 > n x
-1.7511 > n y
-1.4435 > o &
-2.0719 > o &r
-0.9105 > o >
-2.3773 > o @
-1.8500 > o A
-2.3773 > o C
-2.3773 > o E
-1.7893 > o I
-1.0175 > o N
-1.7531 > o cC
-2.0371 > o cCh
-1.2702 > o e
-1.7197 > o f
-2.1097 > o i
-2.2480 > o ixr
-2.2480 > o j
-2.3254 > o jw
-2.0719 > o k
-2.1968 > o kh
-1.6597 > o l
-1.1258 > o m
-1.8723 > o n
-2.3254 > o p
-1.4883 > o r&
-2.0719 > o s
-1.5600 > o sr
-2.1511 > o t
-1.4521 > o tc
-2.3254 > o th
-2.3773 > o thsr
-2.4889 > o ts
-2.5534 > o tsh
-2.0719 > o tsr
-0.9130 > o u
-0.8566 > o w
-1.3729 > o x
-2.8544 > o y
-0.9388 > p &
-1.7607 > p &r
-1.2706 > p >
-1.2223 > p @
-1.3397 > p A
-2.0283 > p C
-1.5468 > p E
-2.0283 > p I
-1.7229 > p N
-2.2044 > p cC
-1.1489 > p e
-1.9764 > p f
-1.1393 > p i
-1.5011 > p ixr
-1.6260 > p j
-1.6881 > p jw
-2.0283 > p k
-2.5054 > p kh
-2.2044 > p l
-1.8478 > p m
-1.7229 > p n
-1.4597 > p o
-1.6560 > p r&
-1.5980 > p sr
-1.3549 > p tc
-2.2044 > p th
-2.2044 > p thsr
-2.5054 > p tsh
-0.8626 > p u
-1.3250 > p w
-2.4012 > p x
-1.6881 > p y
-1.9956 > ph &
-1.2509 > ph >
-1.6946 > ph @
-1.1461 > ph A
-1.5185 > ph C
-1.3892 > ph E
-1.6946 > ph I
-1.2131 > ph N
-1.9956 > ph cC
-1.1461 > ph cCh
-1.5185 > ph e
-1.9956 > ph f
-1.0881 > ph i
-1.8914 > ph ixr
-1.6301 > ph j
-1.8914 > ph jw
-1.9956 > ph k
-1.6946 > ph l
-1.5185 > ph m
-1.6301 > ph n
-1.5185 > ph o
-1.9956 > ph p
-1.5185 > ph sr
-1.6946 > ph t
-1.3892 > ph tc
-1.9956 > ph ts
-1.6946 > ph tsr
-1.5185 > ph u
-1.2509 > ph w
-1.1162 > ph y
-1.1175 > r& &
-1.7779 > r& &r
-1.7432 > r& >
-1.4114 > r& @
-1.2951 > r& A
-2.0402 > r& C
-1.1400 > r& E
-1.9215 > r& I
-1.4510 > r& N
-1.7261 > r& cC
-1.6898 > r& cCh
-1.4680 > r& e
-2.3096 > r& f
-1.4476 > r& i
-1.3001 > r& ixr
-1.5196 > r& j
-2.1670 > r& jw
-1.6898 > r& k
-2.0878 > r& kh
-1.8747 > r& l
-1.6957 > r& m
-1.4894 > r& n
-0.9991 > r& o
-1.8573 > r& p
-2.3608 > r& ph
-2.3608 > r& s
-1.7261 > r& sr
-2.0464 > r& t
-1.6304 > r& tc
-2.0598 > r& th
-1.9021 > r& thsr
-2.0334 > r& ts
-2.2861 > r& tsh
-1.8167 > r& tsr
-1.4967 > r& u
-1.2406 > r& w
-1.5355 > r& x
-1.6355 > r& y
-1.1030 > s &
-2.4012 > s &r
-1.6358 > s >
-1.6954 > s @
-2.1477 > s A
-2.1477 > s C
-2.3238 > s E
-1.0625 > s I
-1.7355 > s N
-1.4560 > s cC
-1.6248 > s cCh
-1.4139 > s e
-1.8466 > s f
-2.1477 > s i
-0.9789 > s ixr
-2.4012 > s j
-2.4531 > s jw
-1.4560 > s k
-1.7645 > s kh
-1.8466 > s l
-1.8466 > s m
-1.5548 > s n
-1.6706 > s o
-1.3460 > s p
-2.1855 > s ph
-2.2269 > s r&
-2.0807 > s sr
-1.3184 > s t
-1.4487 > s tc
-1.9258 > s th
-1.6828 > s thsr
-1.4865 > s ts
-1.7645 > s tsh
-1.5934 > s tsr
-1.2446 > s u
-1.3130 > s w
-1.8289 > s x
-1.9716 > s y
-1.3525 > sr &
-2.5036 > sr &r
-1.9924 > sr >
-1.9201 > sr @
-2.0337 > sr A
-2.1835 > sr C
-1.8075 > sr E
-1.4612 > sr I
-1.6804 > sr N
-1.6257 > sr cC
-1.3926 > sr cCh
-1.7741 > sr e
-1.8163 > sr f
-1.4273 > sr i
-0.8024 > sr ixr
-1.5720 > sr j
-1.7431 > sr jw
-1.5022 > sr k
-2.3304 > sr kh
-1.9154 > sr l
-1.6314 > sr m
-1.4979 > sr n
-1.4131 > sr o
-1.6314 > sr p
-2.1843 > sr ph
-1.8075 > sr r&
-1.8833 > sr s
-1.7431 > sr t
-1.3698 > sr tc
-1.8937 > sr th
-1.5771 > sr thsr
-1.7583 > sr ts
-1.8437 > sr tsh
-1.8437 > sr tsr
-1.2864 > sr u
-1.5771 > sr w
-1.7284 > sr x
-1.2142 > sr y
-0.9441 > t &
-2.1099 > t >
-1.0086 > t @
-1.1055 > t A
-1.8088 > t C
-1.2024 > t E
-1.2604 > t N
-1.6328 > t e
-2.1099 > t f
-2.1099 > t i
-1.5808 > t ixr
-1.1761 > t j
-1.8088 > t jw
-1.3274 > t m
-1.3274 > t n
-1.2024 > t o
-1.8088 > t p
-1.5035 > t r&
-1.3651 > t tc
-1.8088 > t ts
-2.1099 > t tsr
-1.8088 > t u
-1.1055 > t w
-1.4523 > t x
-2.0057 > t y
-2.1694 > tc &
-2.8134 > tc &r
-2.2841 > tc >
-2.5608 > tc @
-2.6745 > tc A
-2.0546 > tc C
-2.8340 > tc E
-1.9687 > tc I
-2.4900 > tc N
-0.9018 > tc cC
-1.0990 > tc cCh
-1.7579 > tc e
-2.1972 > tc f
-2.0440 > tc i
-1.8395 > tc ixr
-2.2411 > tc j
-2.4218 > tc jw
-1.2406 > tc k
-1.3563 > tc kh
-2.3691 > tc l
-2.0650 > tc m
-2.0589 > tc n
-2.6957 > tc o
-0.8673 > tc p
-1.8043 > tc ph
-2.2230 > tc r&
-2.0681 > tc s
-1.7959 > tc sr
-0.9968 > tc t
-1.4225 > tc th
-1.3921 > tc thsr
-1.2444 > tc ts
-1.5972 > tc tsh
-1.0211 > tc tsr
-2.1139 > tc u
-2.0020 > tc w
-2.1070 > tc x
-2.2747 > tc y
-1.1193 > th &
-2.1163 > th &r
-1.7434 > th >
-0.9731 > th @
-0.9044 > th A
-1.4380 > th C
-1.3411 > th E
-2.1163 > th I
-1.6141 > th N
-1.5172 > th cCh
-1.9195 > th e
-1.7434 > th f
-1.3131 > th i
-1.4380 > th ixr
-1.8550 > th j
-1.6141 > th jw
-1.9195 > th k
-2.2205 > th kh
-1.6141 > th m
-1.3711 > th n
-1.4380 > th o
-2.2205 > th p
-1.7434 > th r&
-2.2205 > th s
-1.6915 > th sr
-2.2205 > th t
-1.4033 > th tc
-2.1163 > th thsr
-2.1163 > th tsr
-1.2384 > th u
-1.4033 > th w
-1.6141 > th x
-1.2942 > thsr &
-1.9006 > thsr &r
-2.2016 > thsr >
-1.4569 > thsr @
-1.0512 > thsr A
-2.2016 > thsr C
-2.2016 > thsr E
-1.9006 > thsr I
-1.1761 > thsr N
-1.9006 > thsr cC
-1.5441 > thsr cCh
-1.9006 > thsr e
-1.7245 > thsr i
-0.9932 > thsr ixr
-2.0975 > thsr jw
-1.6726 > thsr k
-2.2016 > thsr kh
-2.2016 > thsr l
-1.2679 > thsr m
-1.4569 > thsr n
-1.1181 > thsr o
-1.7245 > thsr p
-1.8361 > thsr sr
-1.1761 > thsr tc
-2.2016 > thsr ts
-2.2016 > thsr tsr
-1.0069 > thsr u
-1.0069 > thsr w
-1.9006 > thsr x
-0.6990 > ts &
-1.6811 > ts &r
-1.3409 > ts >
-0.9635 > ts @
-1.3757 > ts A
-0.9363 > ts E
-1.6291 > ts I
-1.6291 > ts N
-2.1582 > ts cCh
-1.1326 > ts e
-1.6811 > ts i
-1.5518 > ts ixr
-1.8571 > ts j
-2.1582 > ts jw
-2.1582 > ts l
-1.3757 > ts n
-1.3087 > ts o
-2.1582 > ts p
-1.7927 > ts r&
-1.6811 > ts tc
-2.1582 > ts th
-2.1582 > ts thsr
-2.1582 > ts tsr
-1.2788 > ts u
-1.5006 > ts w
-1.8571 > ts x
-0.9562 > tsh &
-1.7388 > tsh >
-1.2951 > tsh @
-1.3365 > tsh A
-2.0398 > tsh C
-1.7388 > tsh E
-1.2951 > tsh I
-1.1604 > tsh N
-1.4334 > tsh cC
-1.7388 > tsh e
-1.5627 > tsh f
-1.2225 > tsh ixr
-2.0398 > tsh k
-1.7388 > tsh kh
-2.0398 > tsh l
-1.9356 > tsh m
-2.0398 > tsh n
-1.1060 > tsh o
-2.0398 > tsh p
-2.0398 > tsh r&
-2.0398 > tsh s
-1.4334 > tsh t
-1.5627 > tsh tc
-1.7388 > tsh th
-1.5108 > tsh thsr
-1.5627 > tsh ts
-1.1903 > tsh u
-1.2951 > tsh w
-1.4334 > tsh x
-1.6743 > tsh y
-1.1328 > tsr &
-2.3546 > tsr &r
-1.8775 > tsr @
-1.8256 > tsr A
-2.3546 > tsr C
-0.8384 > tsr E
-1.8256 > tsr I
-1.7482 > tsr N
-2.3546 > tsr cCh
-1.5721 > tsr e
-1.4208 > tsr i
-0.9270 > tsr ixr
-1.2199 > tsr j
-2.0536 > tsr jw
-1.6970 > tsr k
-2.3546 > tsr kh
-1.7482 > tsr l
-1.5373 > tsr m
-1.5721 > tsr n
-1.1742 > tsr o
-1.8775 > tsr p
-2.0536 > tsr r&
-2.3546 > tsr s
-1.4752 > tsr sr
-2.0536 > tsr t
-1.3291 > tsr tc
-2.3546 > tsr th
-2.0536 > tsr thsr
-1.1742 > tsr u
-1.5051 > tsr w
-1.8256 > tsr x
-1.3725 > tsr y
-1.8766 > u &
-2.2841 > u &r
-1.7612 > u >
-2.1244 > u @
-2.1969 > u A
-1.5140 > u C
-2.8374 > u E
-1.9595 > u I
-1.6255 > u N
-1.7759 > u cC
-1.8404 > u cCh
-1.5948 > u e
-1.6585 > u f
-1.3245 > u i
-1.8581 > u ixr
-1.7331 > u j
-1.6255 > u jw
-1.7911 > u k
-2.0078 > u kh
-1.4058 > u l
-1.4058 > u m
-1.5140 > u n
-1.8766 > u o
-1.7198 > u p
-1.6150 > u ph
-1.5755 > u r&
-1.4749 > u s
-1.0508 > u sr
-2.2383 > u t
-0.6319 > u tc
-2.1591 > u th
-1.9595 > u thsr
-2.3352 > u ts
-2.4645 > u tsh
-1.9595 > u tsr
-1.6255 > u w
-1.5571 > u x
-1.4824 > u y
-1.7736 > w &
-2.0994 > w &r
-1.0249 > w >
-1.6276 > w @
-1.9792 > w A
-1.5654 > w C
-2.1567 > w E
-2.1075 > w I
-1.5132 > w N
-1.8644 > w cC
-1.9418 > w cCh
-1.3191 > w e
-1.6201 > w f
-1.8919 > w i
-1.9635 > w ixr
-2.0922 > w j
-2.3785 > w jw
-1.9014 > w k
-1.9526 > w kh
-1.4754 > w l
-1.2993 > w m
-1.3643 > w n
-2.3785 > w o
-1.9211 > w p
-2.2536 > w ph
-1.7158 > w r&
-1.4211 > w s
-1.3478 > w sr
-2.2759 > w t
-0.6813 > w tc
-2.0495 > w th
-2.0922 > w thsr
-2.2324 > w ts
-2.3785 > w tsh
-2.0775 > w tsr
-1.1090 > w u
-1.5503 > w x
-2.2536 > w y
-1.1361 > x &
-1.7267 > x &r
-1.0100 > x >
-1.1179 > x @
-1.0577 > x A
-2.1291 > x C
-2.2038 > x E
-1.6919 > x I
-1.3007 > x N
-1.9455 > x cC
-1.7951 > x cCh
-1.5387 > x e
-2.0655 > x f
-2.1069 > x i
-1.5628 > x ixr
-2.1526 > x j
-1.6919 > x k
-1.6919 > x kh
-1.9165 > x l
-1.6445 > x m
-1.7847 > x n
-1.3324 > x o
-1.5818 > x p
-2.2618 > x ph
-1.9607 > x r&
-2.1775 > x s
-1.8764 > x sr
-1.8168 > x t
-1.6520 > x tc
-1.8058 > x th
-1.9607 > x thsr
-2.0462 > x ts
-2.1775 > x tsh
-2.0655 > x tsr
-1.1775 > x u
-1.0313 > x w
-2.2038 > x y
-2.0283 > y &
-2.2044 > y >
-2.2044 > y @
-2.5054 > y A
-1.1586 > y C
-1.8478 > y E
-1.9764 > y I
-1.5980 > y N
-1.4597 > y cC
-1.7229 > y cCh
-2.2044 > y e
-2.5054 > y f
-1.8021 > y i
-1.8990 > y ixr
-2.5054 > y jw
-1.7229 > y k
-2.2044 > y kh
-2.4012 > y l
-1.3397 > y m
-1.1893 > y n
-1.3549 > y o
-1.8478 > y p
-1.8021 > y r&
-1.3871 > y s
-1.1300 > y sr
-2.5054 > y t
-0.5076 > y tc
-1.8021 > y th
-1.9764 > y thsr
-1.8990 > y ts
-1.9764 > y tsh
-1.7229 > y tsr
-1.7607 > y u
-1.9764 > y w
-1.8021 > y x
-2.6870 @ & &r
-2.1385 @ & >
-2.1385 @ & @
-2.6225 @ & A
-1.4651 @ & C
-2.3816 @ & E
-2.3816 @ & I
-1.2019 @ & N
-2.0805 @ & cC
-2.4589 @ & cCh
-1.9422 @ & e
-1.6412 @ & f
-1.5771 @ & i
-1.9624 @ & ixr
-1.7406 @ & j
-2.3816 @ & jw
-2.1086 @ & k
-2.2847 @ & kh
-1.3926 @ & l
-0.9836 @ & m
-0.7822 @ & n
-1.9422 @ & o
-2.0805 @ & p
-2.9880 @ & ph
-2.0805 @ & r&
-1.4785 @ & s
-1.7049 @ & sr
-2.3816 @ & t
-0.5779 @ & tc
-2.5109 @ & th
-2.4589 @ & thsr
-2.3816 @ & ts
-2.9880 @ & tsh
-2.6225 @ & tsr
-1.6936 @ & u
-1.5288 @ & w
-1.5945 @ & x
-2.1707 @ & y
-1.5180 @ &r &
-2.3030 @ &r >
-1.3854 @ &r @
-1.6642 @ &r A
-1.4601 @ &r C
-1.8191 @ &r E
-2.3675 @ &r I
-1.3120 @ &r N
-1.7099 @ &r cC
-2.1395 @ &r cCh
-1.3854 @ &r e
-1.7348 @ &r f
-1.3854 @ &r i
-1.7891 @ &r ixr
-1.3970 @ &r j
-2.3675 @ &r jw
-2.1914 @ &r k
-1.8513 @ &r kh
-1.3317 @ &r l
-1.4601 @ &r m
-1.1659 @ &r n
-1.6035 @ &r o
-1.7099 @ &r p
-2.6685 @ &r ph
-1.7891 @ &r r&
-1.3970 @ &r s
-1.3024 @ &r sr
-1.9652 @ &r t
-0.8099 @ &r tc
-2.1395 @ &r th
-2.6685 @ &r thsr
-1.9652 @ &r ts
-2.6685 @ &r tsh
-1.8191 @ &r tsr
-1.7891 @ &r u
-1.3854 @ &r w
-1.7891 @ &r x
-2.0110 @ &r y
-1.5724 @ > &
-1.6046 @ > &r
-1.4175 @ > @
-1.7643 @ > A
-1.5424 @ > C
-1.8154 @ > E
-2.4218 @ > I
-1.2000 @ > N
-1.7185 @ > cC
-2.1208 @ > cCh
-1.4397 @ > e
-1.7643 @ > f
-1.6046 @ > i
-2.1208 @ > ixr
-1.5144 @ > j
-2.3177 @ > jw
-2.4218 @ > k
-1.3568 @ > l
-1.3963 @ > m
-1.1057 @ > n
-1.9447 @ > o
-2.4218 @ > p
-2.1208 @ > ph
-1.4881 @ > r&
-1.9447 @ > s
-1.6393 @ > sr
-2.4218 @ > t
-0.5786 @ > tc
-2.4218 @ > th
-2.4218 @ > tsh
-1.5424 @ > u
-1.4632 @ > w
-1.4632 @ > x
-2.4218 @ > y
-1.6570 @ A &
-1.8944 @ A &r
-1.6686 @ A >
-1.8054 @ A @
-2.0907 @ A C
-2.2368 @ A E
-2.3337 @ A I
-0.9229 @ A N
-2.0327 @ A cC
-2.4111 @ A cCh
-1.9815 @ A e
-1.7316 @ A f
-2.4111 @ A i
-2.1228 @ A ixr
-2.1228 @ A j
-2.3337 @ A jw
-2.4111 @ A k
-2.6391 @ A kh
-1.1576 @ A l
-1.1364 @ A m
-1.3177 @ A n
-1.4659 @ A o
-1.8751 @ A p
-2.9401 @ A ph
-2.0327 @ A r&
-1.6805 @ A s
-1.6927 @ A sr
-2.4111 @ A t
-0.9603 @ A tc
-2.4111 @ A th
-2.3337 @ A thsr
-2.2368 @ A ts
-2.6391 @ A tsh
-2.1954 @ A tsr
-1.4586 @ A u
-0.6915 @ A w
-1.2973 @ A x
-2.6391 @ A y
-1.7568 @ C &
-2.3633 @ C &r
-2.0579 @ C >
-2.0231 @ C @
-2.3113 @ C A
-1.4128 @ C E
-1.8360 @ C I
-1.7391 @ C N
-1.4210 @ C cC
-1.2449 @ C cCh
-1.5688 @ C e
-1.7568 @ C f
-0.9329 @ C i
-0.9847 @ C ixr
-1.2919 @ C j
-1.5688 @ C jw
-1.5688 @ C k
-2.1828 @ C kh
-2.5393 @ C l
-1.8148 @ C m
-1.5573 @ C n
-2.3633 @ C o
-2.2339 @ C p
-2.3113 @ C ph
-2.4749 @ C r&
-1.7221 @ C s
-1.7221 @ C sr
-1.5573 @ C t
-1.3888 @ C tc
-1.6185 @ C th
-1.5138 @ C thsr
-1.6319 @ C ts
-1.9909 @ C tsh
-1.3662 @ C tsr
-1.9609 @ C u
-1.9329 @ C w
-1.8583 @ C x
-1.1370 @ C y
-1.9685 @ E &
-2.1261 @ E &r
-2.6312 @ E >
-2.0630 @ E @
-1.5820 @ E A
-1.7228 @ E C
-2.3525 @ E I
-1.2547 @ E N
-2.8055 @ E cC
-2.5521 @ E cCh
-2.6312 @ E e
-1.9237 @ E f
-2.0998 @ E i
-2.2163 @ E ixr
-2.0749 @ E j
-3.0335 @ E jw
-2.4271 @ E k
-2.8575 @ E kh
-1.2129 @ E l
-0.9555 @ E m
-0.7499 @ E n
-1.2492 @ E o
-2.7282 @ E p
-2.9691 @ E ph
-1.8754 @ E r&
-2.0185 @ E s
-1.7739 @ E sr
-0.6988 @ E tc
-2.4551 @ E th
-2.8055 @ E thsr
-2.9691 @ E ts
-2.6770 @ E tsh
-2.9691 @ E tsr
-1.5631 @ E u
-1.0314 @ E w
-1.4699 @ E x
-2.2888 @ E y
-2.1880 @ I &
-1.5888 @ I &r
-1.8150 @ I @
-1.9911 @ I A
-1.0975 @ I C
-2.2922 @ I E
-1.4427 @ I N
-1.9911 @ I cC
-1.4427 @ I e
-1.6857 @ I f
-1.0975 @ I i
-2.1880 @ I ixr
-1.6857 @ I j
-1.6857 @ I jw
-1.9267 @ I kh
-1.8150 @ I l
-1.4127 @ I m
-1.1739 @ I n
-1.9911 @ I o
-2.2922 @ I p
-2.2922 @ I r&
-1.4127 @ I s
-1.5097 @ I sr
-0.5435 @ I tc
-2.2922 @ I th
-2.2922 @ I thsr
-1.9911 @ I tsr
-1.6346 @ I u
-2.2922 @ I w
-1.3847 @ I x
-1.6857 @ I y
-1.7897 @ N &
-2.2921 @ N &r
-1.9703 @ N >
-2.1277 @ N @
-2.0441 @ N A
-1.3173 @ N C
-1.7990 @ N E
-1.9088 @ N I
-1.4625 @ N cC
-1.6752 @ N cCh
-1.7721 @ N e
-1.5241 @ N f
-1.3008 @ N i
-1.7509 @ N ixr
-1.9659 @ N j
-2.0012 @ N jw
-1.6515 @ N k
-1.9148 @ N kh
-1.6260 @ N l
-1.1028 @ N m
-1.4798 @ N n
-2.1810 @ N o
-1.6717 @ N p
-2.1700 @ N ph
-1.9868 @ N r&
-1.4010 @ N s
-1.5341 @ N sr
-2.1093 @ N t
-0.6649 @ N tc
-1.9868 @ N th
-1.9333 @ N thsr
-1.7229 @ N ts
-1.9592 @ N tsh
-1.7809 @ N tsr
-1.5960 @ N u
-1.7039 @ N w
-1.3588 @ N x
-1.8427 @ N y
-2.3193 @ cC &
-2.4235 @ cC @
-2.1225 @ cC A
-1.9464 @ cC C
-0.7757 @ cC E
-2.4235 @ cC I
-2.4235 @ cC N
-1.5740 @ cC e
-0.6671 @ cC i
-1.1520 @ cC ixr
-0.9798 @ cC j
-1.0574 @ cC jw
-1.5441 @ cC k
-2.4235 @ cC l
-1.9464 @ cC m
-1.5441 @ cC n
-1.4414 @ cC o
-2.1225 @ cC r&
-2.3193 @ cC s
-2.1225 @ cC sr
-2.4235 @ cC t
-1.3399 @ cC tc
-1.9464 @ cC th
-2.4235 @ cC thsr
-2.1225 @ cC ts
-2.1225 @ cC tsr
-2.4235 @ cC u
-2.1225 @ cC w
-2.1225 @ cC x
-1.2150 @ cC y
-1.9481 @ cCh &
-2.4771 @ cCh &r
-2.1761 @ cCh >
-1.6598 @ cCh @
-1.8707 @ cCh C
-0.8495 @ cCh E
-2.4771 @ cCh I
-1.4121 @ cCh N
-1.4516 @ cCh e
-0.8100 @ cCh i
-1.1717 @ cCh ixr
-1.3266 @ cCh j
-1.3266 @ cCh jw
-2.3729 @ cCh k
-2.1761 @ cCh kh
-2.0000 @ cCh l
-2.1116 @ cCh m
-1.2824 @ cCh n
-1.6946 @ cCh o
-2.0000 @ cCh p
-1.5977 @ cCh r&
-1.6277 @ cCh s
-2.3729 @ cCh sr
-1.2553 @ cCh tc
-2.3729 @ cCh th
-1.8707 @ cCh thsr
-1.8707 @ cCh ts
-2.1761 @ cCh tsh
-2.0000 @ cCh tsr
-2.4771 @ cCh u
-1.7738 @ cCh w
-2.0000 @ cCh x
-0.9814 @ cCh y
-2.0800 @ e &
-2.8440 @ e &r
-2.5386 @ e >
-2.5386 @ e @
-2.6160 @ e A
-1.7174 @ e C
-0.7724 @ e E
-3.1450 @ e I
-1.2087 @ e N
-2.4003 @ e cC
-2.1629 @ e cCh
-2.6160 @ e f
-0.6635 @ e i
-1.8854 @ e ixr
-0.8092 @ e j
-1.5966 @ e jw
-2.4875 @ e k
-2.6679 @ e kh
-2.0800 @ e l
-2.1629 @ e m
-1.0838 @ e n
-1.7174 @ e o
-2.6679 @ e ph
-1.6493 @ e r&
-2.4875 @ e s
-2.2376 @ e sr
-2.6160 @ e t
-1.6028 @ e tc
-2.3625 @ e th
-2.4003 @ e thsr
-2.8440 @ e ts
-3.0408 @ e tsh
-2.5386 @ e tsr
-2.6160 @ e u
-2.1629 @ e w
-2.2956 @ e x
-1.0201 @ e y
-0.9308 @ f &
-1.6934 @ f &r
-1.2646 @ f >
-1.3701 @ f @
-1.1593 @ f A
-2.0180 @ f C
-2.1465 @ f E
-1.5743 @ f I
-1.6105 @ f N
-1.9722 @ f cC
-1.6712 @ f cCh
-1.2088 @ f e
-1.6934 @ f i
-1.4407 @ f ixr
-2.6755 @ f j
-2.3745 @ f jw
-1.5920 @ f k
-1.6500 @ f kh
-2.6755 @ f l
-1.6500 @ f m
-1.5250 @ f n
-1.6712 @ f o
-1.9308 @ f p
-2.1984 @ f r&
-1.7961 @ f s
-1.7169 @ f sr
-1.4040 @ f t
-1.3094 @ f tc
-2.0180 @ f th
-1.6105 @ f thsr
-1.6934 @ f ts
-2.3745 @ f tsh
-2.0180 @ f tsr
-1.1089 @ f u
-1.3490 @ f w
-1.8930 @ f x
-2.6755 @ f y
-1.9811 @ i &
-2.4271 @ i &r
-2.1511 @ i >
-2.3333 @ i @
-2.1421 @ i A
-1.3020 @ i C
-1.4777 @ i E
-2.3656 @ i I
-1.4047 @ i N
-1.6849 @ i cC
-1.8985 @ i cCh
-2.1037 @ i e
-1.8737 @ i f
-1.8689 @ i ixr
-1.8194 @ i j
-1.9195 @ i jw
-1.6321 @ i k
-2.0721 @ i kh
-1.4014 @ i l
-1.1965 @ i m
-1.0019 @ i n
-1.4532 @ i o
-1.9954 @ i p
-2.5727 @ i ph
-1.8412 @ i r&
-1.6158 @ i s
-1.6266 @ i sr
-2.1945 @ i t
-0.5483 @ i tc
-1.8642 @ i th
-2.1290 @ i thsr
-1.9954 @ i ts
-2.2482 @ i tsh
-2.0426 @ i tsr
-2.0084 @ i u
-1.8412 @ i w
-1.6026 @ i x
-1.9303 @ i y
-1.8398 @ ixr &
-1.9947 @ ixr &r
-2.5431 @ ixr >
-1.7606 @ ixr @
-1.6784 @ ixr A
-1.2543 @ ixr C
-1.8186 @ ixr E
-2.8442 @ ixr I
-1.4687 @ ixr N
-1.7984 @ ixr cC
-2.2377 @ ixr cCh
-1.7606 @ ixr e
-1.5280 @ ixr f
-1.2957 @ ixr i
-1.8186 @ ixr j
-2.0994 @ ixr jw
-2.0994 @ ixr k
-2.5431 @ ixr kh
-1.6223 @ ixr l
-1.4005 @ ixr m
-1.1677 @ ixr n
-1.7429 @ ixr o
-1.9367 @ ixr p
-2.3670 @ ixr ph
-2.0616 @ ixr r&
-1.3700 @ ixr s
-1.2600 @ ixr sr
-2.8442 @ ixr t
-0.5797 @ ixr tc
-1.8621 @ ixr th
-2.2377 @ ixr thsr
-1.9367 @ ixr ts
-2.0616 @ ixr tsh
