~o
<STREAMINFO> 1 39
<VECSIZE> 39<NULLD><PLP_D_A_Z_0><DIAGC>
~h "I"
<BEGINHMM>
<NUMSTATES> 5
<STATE> 2
<NUMMIXES> 8
<MIXTURE> 1 1.260396e-001
<MEAN> 39
 8.074978e-002 7.607894e-002 8.519962e-002 -4.269529e-001 -4.653417e-001 1.143142e-001 -1.385378e-002 2.519616e-002 1.664895e-001 1.596558e-001 -1.186801e-001 -1.260680e-001 5.586952e-001 2.331549e-002 -4.624834e-002 -2.448411e-002 4.507569e-002 -1.928660e-002 -1.027326e-002 4.518845e-002 1.760201e-002 -5.650479e-002 1.909626e-002 1.475354e-002 -3.671113e-002 3.237317e-003 -9.604832e-004 1.207183e-002 2.340221e-003 3.430735e-002 3.682725e-002 -2.910414e-002 -2.375514e-003 -2.894580e-003 -2.085722e-002 -1.641840e-002 1.084135e-002 1.122835e-002 -3.890302e-002
<VARIANCE> 39
 1.784385e-002 3.979835e-002 3.359344e-002 4.202454e-002 3.875044e-002 5.065634e-002 6.268165e-002 4.557249e-002 5.493260e-002 4.316008e-002 5.113193e-002 4.844444e-002 4.148535e-002 1.415477e-003 4.205336e-003 2.999751e-003 4.619885e-003 3.893936e-003 5.031819e-003 6.594585e-003 5.180242e-003 5.563595e-003 4.728145e-003 5.266405e-003 4.740428e-003 2.356429e-003 4.861226e-004 4.531858e-004 7.138546e-004 7.884393e-004 9.841520e-004 9.878259e-004 1.017497e-003 1.023010e-003 9.957035e-004 8.325355e-004 8.272808e-004 8.369072e-004 6.864164e-004
<GCONST> -1.338002e+002
<MIXTURE> 2 6.404445e-002
<MEAN> 39
 -2.529694e-001 1.676121e-001 -5.184076e-001 -6.609722e-001 -6.507342e-002 -6.134494e-001 -9.304958e-002 1.931349e-002 2.326017e-001 5.838375e-001 5.978813e-001 3.718137e-001 5.528477e-001 -7.468496e-004 -3.836627e-002 8.343024e-003 -1.657531e-002 1.593110e-003 3.274126e-002 2.282613e-003 2.785220e-002 4.217297e-002 2.704452e-002 4.432658e-002 -1.707208e-002 2.185751e-003 1.678543e-002 1.540088e-004 2.088128e-002 1.867902e-002 -1.056946e-002 2.368721e-002 -4.741827e-003 -3.513262e-003 -7.637045e-004 -3.192170e-002 -2.789067e-002 -1.337413e-002 -1.760625e-002
<VARIANCE> 39
 2.298659e-002 6.289270e-002 5.663557e-002 6.054902e-002 5.799065e-002 8.364668e-002 7.975765e-002 1.253296e-001 1.194347e-001 1.198930e-001 8.765886e-002 1.025489e-001 4.681849e-002 1.466191e-003 3.900087e-003 3.413909e-003 3.647581e-003 3.760709e-003 8.110124e-003 6.230324e-003 8.023225e-003 8.381841e-003 1.058226e-002 9.964538e-003 8.745325e-003 1.411332e-003 3.170239e-004 5.726613e-004 6.638113e-004 8.780930e-004 8.898656e-004 1.239146e-003 1.016476e-003 1.424320e-003 1.461087e-003 1.358492e-003 1.273984e-003 1.438216e-003 2.909155e-004
<GCONST> -1.229220e+002
<MIXTURE> 3 1.396785e-001
<MEAN> 39
 9.427661e-002 5.983546e-001 -3.960022e-001 -3.160467e-001 1.772941e-002 -4.991331e-001 6.619067e-002 -6.515048e-002 4.668627e-002 2.033037e-002 -1.824761e-001 -2.981352e-002 3.012377e-001 -9.331320e-003 -9.297152e-003 1.514090e-003 -2.937047e-002 2.358351e-002 4.166916e-003 4.743143e-003 -7.508254e-004 6.069832e-003 -2.328153e-003 5.137139e-003 2.571311e-003 1.440858e-002 3.387215e-003 -1.525649e-002 2.048573e-002 -2.015038e-003 -1.577709e-003 1.269345e-002 -1.250382e-002 5.152282e-003 -3.772958e-003 -3.503448e-003 4.669240e-003 -3.311579e-005 -4.874390e-003
<VARIANCE> 39
 2.031792e-002 3.872400e-002 7.376609e-002 7.440660e-002 7.992120e-002 5.402144e-002 5.469292e-002 5.864992e-002 6.311927e-002 4.439066e-002 5.272087e-002 4.125980e-002 3.576561e-002 5.611397e-004 1.760153e-003 2.475987e-003 2.619016e-003 2.635855e-003 2.456578e-003 2.491898e-003 2.649239e-003 2.650285e-003 2.226559e-003 2.196128e-003 1.956995e-003 7.784164e-004 1.188716e-004 2.442902e-004 3.693431e-004 4.403113e-004 4.666123e-004 5.089444e-004 4.773014e-004 4.771842e-004 5.170792e-004 4.402248e-004 4.142894e-004 3.166674e-004 1.262359e-004
<GCONST> -1.520614e+002
<MIXTURE> 4 1.729470e-001
<MEAN> 39
 2.181260e-002 3.205163e-001 4.479339e-002 -7.747011e-001 -1.008818e-001 -1.440721e-001 -2.292348e-001 2.757701e-001 2.276025e-001 -2.332196e-002 -7.372907e-002 2.547145e-003 5.433419e-001 2.483653e-002 -5.808634e-002 1.697625e-002 -2.272883e-002 -3.556686e-002 5.337709e-002 -3.429766e-005 2.397683e-003 1.433674e-002 2.338692e-003 -2.057737e-002 -7.186653e-003 1.099430e-002 -4.595513e-003 -3.904285e-003 6.264200e-003 8.325262e-002 3.728756e-003 9.349625e-003 1.905306e-002 -4.350402e-002 -2.804891e-002 -2.593745e-003 -2.893676e-004 2.330929e-003 -4.890357e-002
<VARIANCE> 39
 1.871029e-002 3.863518e-002 3.415330e-002 3.545235e-002 5.165882e-002 6.781679e-002 6.272314e-002 4.135410e-002 4.509783e-002 4.256690e-002 4.742526e-002 3.754469e-002 4.663489e-002 1.974491e-003 6.230324e-003 3.617751e-003 6.598228e-003 5.911292e-003 7.592326e-003 5.827339e-003 5.887470e-003 5.515262e-003 5.034701e-003 5.598200e-003 5.153211e-003 3.701053e-003 7.986291e-004 7.877256e-004 7.573405e-004 1.298961e-003 1.316434e-003 1.483715e-003 1.322515e-003 9.854891e-004 1.226095e-003 1.011992e-003 1.034908e-003 7.900323e-004 9.205481e-004
<GCONST> -1.277312e+002
<MIXTURE> 5 1.725500e-001
<MEAN> 39
 -1.155528e-002 2.395309e-001 -4.512876e-002 -6.702073e-001 5.658175e-003 -2.520772e-002 -2.299565e-001 3.358239e-002 1.819669e-001 -1.805574e-001 -1.154678e-002 1.814100e-001 5.147110e-001 7.885970e-003 -5.398089e-002 1.409200e-002 3.479554e-003 -2.679138e-002 5.574170e-002 6.591375e-003 -3.715065e-002 1.325106e-002 7.597238e-004 -2.145310e-002 1.894589e-002 1.270795e-002 1.174255e-002 -1.630835e-003 7.877657e-003 4.254989e-002 -1.813266e-002 -1.201034e-002 1.374377e-002 -1.405104e-002 -1.547987e-002 2.221969e-002 -1.017194e-002 -1.680869e-002 -2.671002e-002
<VARIANCE> 39
 2.219079e-002 5.547729e-002 4.392339e-002 5.278105e-002 6.447741e-002 5.968028e-002 5.203193e-002 5.434436e-002 6.067782e-002 4.425175e-002 4.712629e-002 4.361813e-002 3.912611e-002 9.189884e-004 4.080085e-003 3.001048e-003 3.597385e-003 4.527718e-003 5.929661e-003 4.550437e-003 5.540913e-003 4.566584e-003 4.553417e-003 4.848772e-003 4.851935e-003 1.268740e-003 2.650161e-004 5.540952e-004 4.607451e-004 6.944403e-004 7.878160e-004 8.828921e-004 7.882813e-004 7.652625e-004 9.513121e-004 7.172236e-004 7.864711e-004 6.522416e-004 3.123597e-004
<GCONST> -1.369586e+002
<MIXTURE> 6 1.361735e-001
<MEAN> 39
 5.938027e-002 2.691687e-001 9.027906e-002 -3.127669e-001 -1.688600e-001 -3.632821e-002 -1.347540e-001 -8.694853e-003 1.135018e-001 -1.207392e-002 -6.837284e-002 -1.972229e-002 2.504116e-001 8.613954e-002 -3.695617e-002 -7.752445e-003 -2.131659e-002 -7.266755e-002 -1.390658e-002 -3.506495e-003 9.800268e-003 2.771525e-003 4.707312e-003 5.652495e-003 -3.238409e-002 1.432915e-002 -2.793292e-002 -9.359666e-003 -8.388244e-003 4.296950e-002 3.115295e-002 -1.339285e-003 1.623904e-002 2.486214e-003 -1.625859e-002 -5.080291e-004 4.852082e-003 6.252445e-003 -2.566705e-002
<VARIANCE> 39
 7.112318e-002 8.264887e-002 6.702871e-002 1.118323e-001 9.434501e-002 9.609226e-002 8.759002e-002 7.121342e-002 7.543890e-002 6.264119e-002 6.232998e-002 5.612908e-002 6.720028e-002 8.806455e-003 8.162200e-003 8.353312e-003 9.656321e-003 1.144058e-002 1.151132e-002 1.021537e-002 9.793603e-003 9.401857e-003 8.040593e-003 8.990753e-003 6.504622e-003 6.234315e-003 1.331826e-003 1.150634e-003 1.456180e-003 2.409368e-003 1.977946e-003 2.184415e-003 1.909265e-003 1.670665e-003 1.633559e-003 1.373588e-003 1.295994e-003 1.088568e-003 1.120653e-003
<GCONST> -1.074978e+002
<MIXTURE> 7 1.469492e-001
<MEAN> 39
 2.608810e-002 4.992944e-001 -4.342539e-001 -5.018120e-001 1.112487e-001 -5.591114e-001 3.888933e-002 -1.015550e-001 -2.841861e-003 9.350109e-003 -1.542371e-001 7.312806e-002 4.082159e-001 1.364213e-003 -3.692104e-002 2.403668e-002 -5.471170e-002 2.669531e-002 2.991696e-002 -2.025732e-002 1.181198e-002 -4.485770e-003 -6.777618e-003 1.061338e-002 1.600309e-003 1.419483e-002 1.013708e-002 -3.131321e-002 4.940144e-002 3.209964e-002 -2.709930e-002 4.597870e-002 -2.787643e-002 7.521949e-003 -3.781665e-003 -8.629325e-003 1.519946e-002 -6.494915e-003 -2.603269e-002
<VARIANCE> 39
 2.643952e-002 3.740795e-002 6.901682e-002 7.539231e-002 7.355671e-002 5.881023e-002 7.062157e-002 8.167271e-002 6.555720e-002 5.324235e-002 6.536063e-002 6.781331e-002 3.934713e-002 1.630720e-003 5.578150e-003 8.011374e-003 8.031669e-003 5.887935e-003 7.575406e-003 6.942245e-003 6.755012e-003 5.503868e-003 5.671876e-003 6.773738e-003 5.044839e-003 2.363099e-003 7.579982e-004 7.839328e-004 1.017629e-003 1.641424e-003 1.706774e-003 1.199987e-003 1.158781e-003 1.356074e-003 1.218028e-003 1.018464e-003 1.026109e-003 9.247728e-004 5.885003e-004
<GCONST> -1.223676e+002
<MIXTURE> 8 4.158337e-002
<MEAN> 39
 -1.706671e-001 -3.701589e-002 -3.222081e-001 -7.839447e-001 -8.891287e-002 -2.171756e-001 -2.270306e-001 5.806071e-002 3.082662e-001 2.682254e-001 4.209209e-001 3.041705e-001 6.184670e-001 2.067880e-002 -8.988369e-002 2.922683e-003 -7.566961e-003 -6.307303e-002 5.159485e-002 -9.521236e-003 -6.269062e-002 3.136117e-002 -1.004297e-002 -1.625222e-003 5.807493e-002 1.198077e-002 1.233053e-002 2.105778e-002 2.460356e-002 7.470165e-002 -6.231261e-003 3.226308e-004 2.321498e-002 -1.174421e-002 -2.777814e-002 -1.508976e-002 -3.910016e-002 -2.513443e-002 -4.484180e-002
<VARIANCE> 39
 3.075295e-002 6.675946e-002 5.394719e-002 5.765136e-002 6.779820e-002 1.140705e-001 1.127206e-001 1.594599e-001 1.699428e-001 2.137930e-001 2.140207e-001 2.296495e-001 4.887059e-002 3.303471e-003 6.512255e-003 7.500443e-003 1.055701e-002 8.540154e-003 1.245446e-002 1.041782e-002 1.116970e-002 1.381279e-002 1.911316e-002 1.694379e-002 1.161888e-002 3.298939e-003 1.034963e-003 1.207148e-003 1.264491e-003 1.896461e-003 1.915867e-003 2.725134e-003 1.898276e-003 2.361963e-003 2.697462e-003 3.390230e-003 3.042782e-003 3.389216e-003 8.220585e-004
<GCONST> -1.005963e+002
<STATE> 3
<NUMMIXES> 8
<MIXTURE> 1 4.641953e-002
<MEAN> 39
 -8.512544e-002 2.598588e-001 1.249238e-001 -9.840288e-003 8.817514e-002 1.002105e-001 -1.350692e-001 -1.279361e-001 -7.250611e-003 -6.406276e-002 -1.011865e-001 6.077177e-002 -9.226660e-003 2.839276e-002 -3.165880e-002 1.894550e-002 2.695839e-002 -8.133749e-003 8.801673e-003 2.524664e-003 -2.265182e-002 -1.702407e-002 7.088913e-003 -3.014209e-003 -1.006165e-002 -4.041190e-002 -6.900261e-003 -9.226112e-003 -7.100082e-003 1.388883e-003 -2.277786e-003 -9.519114e-003 1.256401e-002 1.020171e-002 -3.270394e-004 6.095632e-003 7.541818e-003 -3.079431e-003 -1.159891e-003
<VARIANCE> 39
 1.253034e-001 7.098870e-002 6.501245e-002 8.256081e-002 7.697406e-002 8.817966e-002 7.767928e-002 8.303474e-002 7.365568e-002 6.983507e-002 6.148395e-002 5.038177e-002 5.551721e-002 8.927887e-003 5.277589e-003 5.849944e-003 7.771824e-003 8.285625e-003 8.410724e-003 7.041167e-003 7.300635e-003 7.156729e-003 6.682549e-003 5.320177e-003 4.823521e-003 6.453200e-003 1.157805e-003 8.861072e-004 1.078079e-003 1.228023e-003 1.263804e-003 1.421997e-003 1.206650e-003 1.377225e-003 1.249604e-003 1.327006e-003 1.082783e-003 8.583011e-004 7.739182e-004
<GCONST> -1.154416e+002
<MIXTURE> 2 5.260552e-002
<MEAN> 39
 -9.564158e-002 -1.500129e-001 -3.700184e-001 -5.638274e-001 -3.176672e-001 -2.387164e-001 -1.152641e-001 -8.205134e-002 4.058868e-001 3.691792e-001 5.114606e-001 3.792274e-001 5.215617e-001 6.058870e-002 1.233851e-002 5.881683e-002 9.361898e-002 -4.401233e-002 2.109048e-002 3.220220e-003 -3.780619e-002 -2.536493e-002 -4.686529e-002 -7.748091e-002 -2.511049e-002 -9.360506e-002 -9.584994e-004 3.384323e-002 2.475705e-002 3.384854e-002 2.781847e-002 7.893757e-004 6.377500e-003 1.421336e-002 -3.837652e-002 -1.572328e-002 -3.058766e-002 -2.801143e-002 -4.042672e-002
<VARIANCE> 39
 2.711891e-002 1.127922e-001 7.262567e-002 9.951709e-002 6.785147e-002 1.315104e-001 1.214918e-001 1.412093e-001 1.566662e-001 1.916676e-001 1.583780e-001 1.679273e-001 5.452684e-002 3.448758e-003 6.383277e-003 7.732845e-003 7.297899e-003 7.390445e-003 1.043874e-002 9.089025e-003 9.912406e-003 1.422892e-002 1.448508e-002 1.380970e-002 1.176507e-002 5.882481e-003 7.654554e-004 1.213081e-003 1.227418e-003 2.058744e-003 1.419081e-003 2.688459e-003 2.001537e-003 2.109461e-003 2.426194e-003 2.724532e-003 2.271868e-003 2.442862e-003 9.609724e-004
<GCONST> -1.021132e+002
<MIXTURE> 3 1.616863e-001
<MEAN> 39
 1.870998e-001 -9.444643e-002 1.826700e-002 -2.104767e-001 -4.925536e-001 -1.271894e-002 1.448910e-001 6.125199e-002 -9.302855e-002 1.557265e-001 1.156290e-002 -2.381463e-001 4.955065e-001 5.327579e-002 -3.841858e-002 -3.890761e-002 1.179573e-001 3.376159e-002 -9.867128e-002 3.057867e-002 5.422413e-002 -8.617188e-002 -2.474550e-002 5.521677e-002 -1.622518e-002 -6.061025e-002 -1.661167e-002 3.000777e-002 2.163095e-004 7.701553e-004 5.624392e-002 -1.381368e-002 -3.406813e-002 3.132947e-003 1.928533e-002 -2.381568e-002 -9.222561e-003 3.457942e-002 -3.132828e-002
<VARIANCE> 39
 2.284422e-002 3.904517e-002 4.819239e-002 4.908788e-002 5.090643e-002 7.457757e-002 6.924350e-002 7.279564e-002 6.589985e-002 7.014766e-002 7.550356e-002 4.583176e-002 5.558275e-002 3.571498e-003 5.252285e-003 7.450898e-003 7.846473e-003 6.171230e-003 6.641326e-003 8.764939e-003 8.963356e-003 7.023909e-003 6.088947e-003 5.568145e-003 4.969878e-003 7.573127e-003 8.230470e-004 6.489028e-004 1.014528e-003 1.137242e-003 1.224280e-003 1.760507e-003 1.457583e-003 1.541347e-003 1.330350e-003 1.414004e-003 1.396915e-003 8.834737e-004 6.469372e-004
<GCONST> -1.201122e+002
<MIXTURE> 4 1.634913e-001
<MEAN> 39
 1.193506e-001 3.250115e-001 1.512993e-001 -5.529374e-001 -1.821284e-001 1.106496e-002 -3.828594e-001 1.611139e-001 1.790780e-001 -8.422942e-002 -1.302405e-002 -5.650051e-002 3.131042e-001 1.944817e-002 -1.848352e-002 5.839404e-002 1.194795e-001 -2.664955e-002 4.567588e-002 5.892849e-003 -4.765604e-002 -3.455938e-002 -1.359021e-002 -1.820505e-002 -5.537745e-003 -1.126019e-001 -2.567803e-002 -4.786005e-003 -1.021824e-002 5.930740e-002 2.743330e-002 -1.213950e-002 4.476090e-002 -2.576105e-002 -2.176371e-002 6.216161e-003 -6.786821e-003 1.176552e-002 -3.622113e-002
<VARIANCE> 39
 2.460497e-002 5.275488e-002 4.750564e-002 5.970589e-002 8.091367e-002 8.813069e-002 7.177582e-002 6.164382e-002 6.302495e-002 6.339312e-002 5.449715e-002 4.529752e-002 5.381260e-002 4.947561e-003 6.287130e-003 5.806667e-003 8.209255e-003 9.413451e-003 8.491973e-003 8.379727e-003 7.419100e-003 7.608849e-003 6.308678e-003 5.795919e-003 4.832949e-003 8.631585e-003 9.821090e-004 1.188971e-003 1.029416e-003 1.381346e-003 1.762753e-003 2.042600e-003 1.431681e-003 1.361613e-003 1.471265e-003 1.418285e-003 1.317474e-003 9.628106e-004 9.348398e-004
<GCONST> -1.167157e+002
<MIXTURE> 5 1.632736e-001
<MEAN> 39
 9.662993e-002 3.991357e-002 8.430032e-002 -6.009492e-001 -3.050776e-001 1.324209e-001 -8.236444e-002 -2.827022e-002 2.267209e-001 4.532222e-002 -2.951571e-001 1.160489e-001 5.304143e-001 4.067744e-002 -5.336262e-002 1.155994e-002 1.203592e-001 -5.747292e-002 -1.872239e-003 7.438614e-002 -6.339796e-002 -6.657757e-002 5.345375e-002 -2.488033e-002 -4.683925e-002 -5.257471e-002 -7.361715e-003 2.501048e-002 -5.312231e-003 5.029507e-002 2.972374e-002 -3.656611e-002 1.689490e-003 7.974225e-003 -3.310257e-002 -8.976445e-003 3.378062e-002 -1.577833e-002 -3.963318e-002
<VARIANCE> 39
 2.339166e-002 3.934707e-002 3.164032e-002 4.642519e-002 5.133437e-002 5.376839e-002 5.891899e-002 5.537304e-002 5.153408e-002 6.285336e-002 4.130039e-002 4.356173e-002 5.043975e-002 2.339604e-003 6.343022e-003 3.701913e-003 5.745671e-003 6.147543e-003 5.866431e-003 6.558572e-003 5.516815e-003 6.306366e-003 5.203672e-003 5.630591e-003 4.813814e-003 5.375014e-003 7.444485e-004 6.646360e-004 7.243615e-004 1.215763e-003 1.094078e-003 1.499185e-003 1.097562e-003 1.300322e-003 1.110032e-003 1.217149e-003 9.117010e-004 9.025620e-004 7.093376e-004
<GCONST> -1.269128e+002
<MIXTURE> 6 6.637642e-002
<MEAN> 39
 9.991245e-002 -5.862546e-002 -9.078435e-002 -4.366889e-001 -9.631439e-002 1.152334e-001 -2.120073e-001 -3.268057e-001 1.877153e-001 -1.532926e-001 -2.739555e-002 2.764674e-001 4.546495e-001 4.936433e-002 -6.064522e-002 3.040673e-002 9.193603e-002 -7.839378e-002 -4.373557e-004 3.949391e-002 -5.865427e-002 -2.792139e-002 5.595480e-002 -3.035590e-002 -2.524338e-002 -4.356998e-002 4.547090e-003 2.632816e-002 4.117825e-003 1.439401e-002 4.140921e-003 -4.887529e-002 1.656662e-002 3.439036e-002 -3.178427e-002 1.838837e-002 -2.516287e-005 -3.269091e-002 -2.494800e-002
<VARIANCE> 39
 2.552053e-002 7.004882e-002 6.042584e-002 7.519210e-002 6.640097e-002 8.072769e-002 8.012688e-002 5.606704e-002 6.700118e-002 6.970939e-002 6.047067e-002 6.729659e-002 3.322969e-002 1.448507e-003 4.267654e-003 4.108688e-003 5.312374e-003 6.323917e-003 7.452715e-003 7.179807e-003 7.771542e-003 7.222813e-003 5.594429e-003 7.744071e-003 5.933626e-003 2.037599e-003 3.295712e-004 7.366931e-004 8.441760e-004 1.260498e-003 9.744668e-004 1.561441e-003 1.608055e-003 1.110842e-003 1.089495e-003 1.247869e-003 1.145049e-003 8.943975e-004 2.711556e-004
<GCONST> -1.248643e+002
<MIXTURE> 7 2.336336e-001
<MEAN> 39
 4.431863e-002 4.373965e-001 -1.374182e-001 -5.513192e-001 -2.266011e-002 -3.239169e-001 -6.289876e-002 6.034044e-002 1.440095e-001 -2.625121e-003 -9.578936e-002 -2.649065e-003 4.100133e-001 7.878859e-003 -4.000028e-003 1.873571e-002 2.013961e-002 4.115889e-003 1.765768e-002 -1.674551e-002 -1.139439e-002 -1.354539e-002 -8.718788e-003 2.316943e-003 5.482907e-004 -2.783353e-002 5.765025e-004 -4.778713e-003 1.672627e-002 3.002418e-002 -3.052130e-003 1.454223e-002 -9.121497e-003 -8.807700e-003 -1.122919e-002 -4.560685e-003 2.208282e-003 1.549629e-003 -2.276612e-002
<VARIANCE> 39
 2.255824e-002 5.066667e-002 7.001521e-002 5.936725e-002 6.379969e-002 7.673838e-002 6.460045e-002 5.599462e-002 5.644186e-002 4.537416e-002 5.049569e-002 5.092783e-002 4.695285e-002 1.071119e-003 2.760932e-003 3.054645e-003 3.690525e-003 3.014690e-003 4.013289e-003 3.290209e-003 3.656883e-003 3.336793e-003 3.081711e-003 3.167476e-003 2.704388e-003 2.325325e-003 3.886460e-004 4.264169e-004 5.129448e-004 7.390323e-004 6.889193e-004 7.265521e-004 6.310271e-004 6.998793e-004 7.009339e-004 6.119640e-004 6.303255e-004 5.220867e-004 3.472142e-004
<GCONST> -1.395951e+002
<MIXTURE> 8 1.124793e-001
<MEAN> 39
 1.208927e-002 3.070467e-001 -2.866199e-001 -6.672102e-001 1.718058e-001 -3.846562e-001 -1.763004e-001 -1.648283e-002 -4.655508e-002 -3.797290e-002 1.027795e-002 1.171955e-001 4.538060e-001 4.578469e-002 -6.650537e-002 1.064576e-001 2.687690e-002 -5.379338e-002 9.735394e-002 -5.898792e-002 1.249417e-003 3.161073e-003 -3.506753e-002 6.312677e-003 -1.438729e-002 -5.411022e-002 1.031171e-002 -6.674673e-003 2.686185e-002 6.167446e-002 -3.755679e-002 1.842978e-002 5.756631e-003 -9.043982e-003 1.612386e-003 6.364190e-004 -6.795540e-003 -8.449639e-003 -4.132884e-002
<VARIANCE> 39
 2.844617e-002 6.258004e-002 6.339360e-002 8.031375e-002 6.029367e-002 8.535487e-002 7.853319e-002 7.968879e-002 6.154557e-002 7.422511e-002 8.245702e-002 6.944987e-002 4.679524e-002 2.444148e-003 6.543252e-003 6.620938e-003 7.676041e-003 7.081592e-003 8.461232e-003 7.356579e-003 7.539498e-003 7.550959e-003 7.220501e-003 8.240835e-003 5.898101e-003 5.205869e-003 7.113743e-004 1.232600e-003 1.143572e-003 1.770659e-003 1.326866e-003 1.834807e-003 1.524725e-003 1.613065e-003 1.376319e-003 1.398419e-003 1.532175e-003 1.129606e-003 8.056673e-004
<GCONST> -1.157999e+002
<STATE> 4
<NUMMIXES> 8
<MIXTURE> 1 4.055241e-002
<MEAN> 39
 -3.295305e-001 -1.580097e-001 4.062360e-002 1.109857e-001 1.150924e-001 2.061007e-001 1.859956e-002 -5.294810e-002 1.254994e-001 1.428812e-003 4.470993e-002 1.032996e-001 -3.186249e-001 -4.327477e-003 -9.864219e-003 -9.820370e-004 1.985673e-003 -2.034092e-003 6.206619e-004 3.355329e-003 -4.372560e-004 1.390103e-003 2.838781e-003 3.990103e-003 1.257590e-003 -4.193088e-003 4.166511e-003 4.011778e-003 1.622040e-003 -1.599495e-003 -1.726590e-003 -3.371724e-003 -1.115416e-003 -6.475682e-005 -1.506579e-003 -1.278883e-004 -1.576797e-003 -1.691700e-003 2.066101e-003
<VARIANCE> 39
 5.912595e-002 5.946428e-002 4.579861e-002 5.027038e-002 5.385827e-002 5.607570e-002 6.282209e-002 7.232077e-002 7.791825e-002 5.215155e-002 4.845532e-002 3.997831e-002 8.923621e-002 1.464647e-003 2.041499e-003 2.390693e-003 2.934051e-003 3.630497e-003 3.942350e-003 4.464727e-003 5.013931e-003 4.830548e-003 4.387653e-003 4.134289e-003 3.086558e-003 1.811872e-003 2.629704e-004 3.520834e-004 4.543853e-004 5.959459e-004 7.106269e-004 8.169140e-004 8.811249e-004 1.024852e-003 9.717678e-004 8.727249e-004 8.164851e-004 6.038146e-004 2.738447e-004
<GCONST> -1.365057e+002
<MIXTURE> 2 8.546142e-002
<MEAN> 39
 4.745127e-002 -7.078145e-002 -7.265376e-002 -5.703333e-001 -1.191784e-001 1.155876e-001 -7.802926e-002 -5.897633e-002 1.052983e-001 -5.318068e-002 -7.258791e-002 9.301702e-002 6.337401e-001 2.142562e-002 -6.564036e-002 1.886153e-002 7.986468e-002 -4.628028e-002 3.133326e-002 2.504630e-002 -5.608540e-002 -2.347940e-002 2.074137e-002 7.974143e-003 -9.044615e-003 -1.144406e-002 3.286300e-003 2.442372e-002 -2.585975e-004 2.666963e-002 2.668899e-003 -3.489888e-002 5.771097e-003 3.419749e-003 -9.312449e-003 5.904303e-003 2.197746e-003 -7.814701e-003 -2.483189e-002
<VARIANCE> 39
 2.472687e-002 6.857880e-002 4.968978e-002 6.480837e-002 1.006836e-001 7.494660e-002 8.261310e-002 7.900207e-002 5.742099e-002 5.727648e-002 5.723513e-002 6.501144e-002 5.655943e-002 1.528683e-003 4.984147e-003 3.860167e-003 5.121201e-003 5.838859e-003 8.614002e-003 8.867592e-003 6.049768e-003 7.455998e-003 5.495368e-003 5.849064e-003 6.597878e-003 1.725972e-003 3.313739e-004 6.197264e-004 5.613539e-004 9.894554e-004 1.096997e-003 1.016171e-003 1.140741e-003 1.388024e-003 9.780806e-004 9.822898e-004 1.106752e-003 9.491365e-004 3.865254e-004
<GCONST> -1.258617e+002
<MIXTURE> 3 1.138397e-001
<MEAN> 39
 2.884609e-001 -2.135438e-001 -2.606749e-001 -3.344650e-003 -2.919351e-001 -3.262638e-001 1.164643e-001 3.205391e-001 -1.255740e-001 -9.234267e-002 1.756411e-001 -9.168600e-002 4.944113e-001 3.633920e-002 -7.749719e-003 -6.288915e-002 5.924780e-002 8.138365e-002 -6.900743e-002 -5.376821e-002 4.471589e-002 5.536973e-003 -3.456975e-002 -9.986395e-003 3.634240e-002 -4.089884e-002 -1.394080e-002 2.621597e-002 2.206068e-002 -2.644935e-002 1.378366e-002 2.559327e-002 -2.478715e-002 -3.144987e-002 2.612162e-002 1.361908e-002 -2.784917e-002 5.179591e-003 -1.435424e-002
<VARIANCE> 39
 2.476809e-002 4.140891e-002 7.373749e-002 4.439082e-002 6.305286e-002 6.177799e-002 9.399534e-002 9.008878e-002 8.651862e-002 7.728019e-002 6.262477e-002 6.572094e-002 5.810716e-002 2.153289e-003 2.701527e-003 7.035922e-003 5.132461e-003 6.567994e-003 6.561290e-003 7.612423e-003 8.297119e-003 6.235312e-003 6.235690e-003 5.753708e-003 4.457439e-003 2.808536e-003 4.411911e-004 4.624529e-004 8.377871e-004 8.924996e-004 1.112145e-003 1.057752e-003 1.497246e-003 1.288867e-003 1.384952e-003 1.142947e-003 9.923698e-004 9.174295e-004 5.134129e-004
<GCONST> -1.243619e+002
<MIXTURE> 4 1.481332e-001
<MEAN> 39
 1.353929e-001 2.335406e-001 -1.074763e-001 -4.016161e-001 -2.126352e-001 -2.615326e-001 -1.238180e-001 -1.220513e-001 1.277523e-001 3.147962e-002 -4.972547e-002 1.511773e-001 2.385236e-001 2.671094e-002 2.936917e-002 1.016928e-001 1.368330e-001 2.029218e-003 5.370498e-002 -5.203167e-003 -1.186316e-002 -6.633523e-002 -3.375667e-002 -3.647508e-002 -5.098848e-002 -1.739975e-001 -2.554697e-002 -6.222678e-003 3.340389e-003 2.215683e-002 2.354883e-002 1.695523e-002 1.245645e-002 2.044076e-002 -1.157965e-002 -3.276307e-004 1.435193e-002 -1.114894e-002 -1.803944e-002
<VARIANCE> 39
 3.401462e-002 1.025275e-001 1.020078e-001 7.484372e-002 8.018528e-002 1.144477e-001 9.176986e-002 9.131997e-002 9.652844e-002 1.071819e-001 1.208894e-001 7.278482e-002 6.258962e-002 4.682424e-003 7.495498e-003 6.741891e-003 9.498011e-003 8.029384e-003 9.121221e-003 8.116359e-003 9.037471e-003 8.753024e-003 8.477455e-003 8.221317e-003 6.125969e-003 9.396468e-003 8.011833e-004 1.186757e-003 1.360236e-003 1.523362e-003 1.534920e-003 1.756472e-003 1.562442e-003 1.635588e-003 1.686631e-003 1.816305e-003 1.693200e-003 1.099018e-003 1.064912e-003
<GCONST> -1.088219e+002
<MIXTURE> 5 1.484950e-001
<MEAN> 39
 3.286628e-002 4.467953e-001 6.678564e-002 -2.899232e-001 -1.541163e-001 -1.143593e-001 -1.334464e-001 -3.754869e-002 1.366938e-001 3.584233e-003 -1.716007e-001 4.769430e-003 2.352587e-001 -6.013848e-002 1.437048e-002 2.643568e-002 1.416989e-001 3.697314e-002 3.079155e-002 1.453939e-002 -4.517952e-002 -4.921739e-002 -1.697440e-002 1.617078e-003 1.068987e-002 -7.581157e-002 -2.229814e-002 -1.730448e-002 -5.083045e-003 1.132530e-002 1.554060e-002 7.699866e-003 7.034722e-003 6.287202e-003 -6.840366e-003 -2.915703e-003 1.488698e-002 5.234396e-003 -2.562477e-003
<VARIANCE> 39
 3.470754e-002 6.049756e-002 5.030685e-002 7.055452e-002 6.461855e-002 8.374679e-002 7.039231e-002 5.819172e-002 5.463116e-002 6.893863e-002 5.232776e-002 5.243542e-002 4.336297e-002 7.134942e-003 5.900184e-003 5.432979e-003 8.776556e-003 8.161252e-003 8.461293e-003 8.339999e-003 7.013867e-003 6.637450e-003 6.224098e-003 6.008164e-003 4.375984e-003 3.789156e-003 9.119168e-004 6.820567e-004 6.977892e-004 1.093627e-003 1.075874e-003 1.096252e-003 1.100161e-003 1.009123e-003 9.314786e-004 1.061488e-003 9.077780e-004 7.188082e-004 4.354885e-004
<GCONST> -1.225807e+002
<MIXTURE> 6 1.210741e-001
<MEAN> 39
 1.508211e-001 3.015580e-001 2.731329e-001 -3.517768e-002 -1.387699e-001 -1.382585e-002 -1.728721e-001 -3.349139e-002 -1.152278e-001 -4.856101e-002 -9.531295e-002 -9.828467e-002 -1.606766e-001 -2.415089e-002 -3.692033e-002 3.151861e-002 1.467846e-001 5.323508e-002 2.485904e-002 5.752845e-002 -2.717954e-002 -4.811148e-002 -1.905622e-002 5.378942e-003 6.272636e-003 -1.787808e-001 -3.209592e-002 -1.930099e-002 -3.580830e-002 -2.142417e-002 2.053237e-002 2.740119e-005 2.028115e-002 1.222541e-002 2.543626e-002 7.530483e-003 9.640018e-003 1.673626e-002 2.380631e-002
<VARIANCE> 39
 4.198043e-002 5.639970e-002 4.773310e-002 7.505044e-002 9.135926e-002 8.057899e-002 8.659317e-002 7.425434e-002 6.660924e-002 7.146209e-002 5.881580e-002 4.540263e-002 5.766949e-002 6.234412e-003 8.935251e-003 7.440861e-003 1.076165e-002 1.034772e-002 1.173777e-002 1.062162e-002 9.697877e-003 8.369558e-003 8.385422e-003 6.917282e-003 5.508280e-003 1.018061e-002 7.977769e-004 9.926208e-004 1.036776e-003 1.488014e-003 1.731722e-003 1.601122e-003 1.741177e-003 1.549831e-003 1.389582e-003 1.375965e-003 1.252760e-003 9.409902e-004 1.242218e-003
<GCONST> -1.123947e+002
<MIXTURE> 7 2.091275e-001
<MEAN> 39
 3.450283e-002 3.619047e-001 -8.720094e-002 -5.265294e-001 1.730271e-002 -1.801135e-001 -1.662806e-001 3.435938e-002 1.238136e-001 -3.662416e-002 -3.891448e-002 7.099257e-002 4.107496e-001 5.999675e-003 -1.305163e-002 1.515992e-002 1.002461e-002 -5.287688e-003 1.697586e-002 -7.842321e-003 -6.961392e-003 -3.664572e-003 -2.122930e-003 -1.378569e-003 -5.106874e-004 -1.317904e-002 2.576095e-003 -2.626291e-004 3.385089e-003 8.250270e-003 -4.466973e-003 7.731207e-004 -1.043096e-004 -2.674087e-003 -5.664862e-005 2.324016e-004 -1.541225e-003 -1.421186e-003 -6.748778e-003
<VARIANCE> 39
 2.466030e-002 6.341948e-002 7.862440e-002 6.171533e-002 8.234376e-002 8.811405e-002 6.734885e-002 6.754009e-002 5.878846e-002 4.574848e-002 5.406344e-002 4.995828e-002 4.842639e-002 5.168718e-004 1.485343e-003 1.567604e-003 1.866545e-003 1.834935e-003 2.339842e-003 2.217327e-003 2.325538e-003 2.056099e-003 1.946502e-003 1.955695e-003 1.741409e-003 1.046353e-003 9.288205e-005 1.758190e-004 2.174832e-004 2.796313e-004 2.981201e-004 3.287220e-004 3.369088e-004 3.771130e-004 3.382180e-004 3.190502e-004 3.103593e-004 2.642221e-004 1.237562e-004
<GCONST> -1.564456e+002
<MIXTURE> 8 1.333248e-001
<MEAN> 39
 2.882899e-001 -1.732092e-004 8.945171e-002 -1.924706e-001 -2.507491e-001 -7.342628e-002 -9.036334e-002 -7.515406e-002 -1.067394e-001 9.667800e-002 -7.950109e-002 -1.007996e-001 2.170603e-001 4.890975e-002 -1.364477e-002 3.238507e-002 7.600822e-002 1.029103e-002 -8.686867e-002 1.550817e-002 1.084881e-002 -7.735166e-002 1.680380e-002 1.623290e-002 -2.732852e-002 -8.435472e-002 -1.941279e-002 2.490499e-002 -7.062574e-003 -1.430090e-002 2.465292e-002 -1.414142e-002 -5.118754e-003 9.490577e-003 1.295574e-002 -1.565314e-002 1.437672e-003 1.464808e-002 1.336906e-003
<VARIANCE> 39
 2.060807e-002 5.075276e-002 4.841391e-002 6.098604e-002 7.200360e-002 8.490705e-002 9.594413e-002 8.783478e-002 8.757003e-002 8.058699e-002 7.485879e-002 5.730820e-002 4.091242e-002 2.392943e-003 5.222688e-003 5.067403e-003 9.074935e-003 1.012678e-002 1.054661e-002 1.011516e-002 9.024126e-003 7.312029e-003 7.800184e-003 7.344761e-003 6.277293e-003 3.892806e-003 3.311258e-004 5.693982e-004 6.103333e-004 9.636575e-004 9.656448e-004 1.281061e-003 1.232322e-003 1.229900e-003 1.128574e-003 1.142605e-003 1.086404e-003 8.950924e-004 3.577670e-004
<GCONST> -1.216871e+002
<TRANSP> 5
 0.000000e+000 1.000000e+000 0.000000e+000 0.000000e+000 0.000000e+000
 0.000000e+000 4.015590e-001 5.984409e-001 0.000000e+000 0.000000e+000
 0.000000e+000 0.000000e+000 3.746806e-001 6.253194e-001 0.000000e+000
 0.000000e+000 0.000000e+000 0.000000e+000 3.876748e-001 6.123251e-001
 0.000000e+000 0.000000e+000 0.000000e+000 0.000000e+000 0.000000e+000
<ENDHMM>
~h "S"
<BEGINHMM>
<NUMSTATES> 5
<STATE> 2
<NUMMIXES> 8
<MIXTURE> 1 1.238807e-001
<MEAN> 39
 -3.808007e-001 4.476614e-001 1.344971e-001 8.703884e-002 -2.774349e-001 1.636651e-001 -2.437318e-001 -2.277122e-001 1.320892e-001 -1.671995e-001 -6.977252e-002 1.036007e-001 3.934652e-001 -1.856151e-001 8.540571e-002 5.954847e-002 1.652344e-001 5.524954e-002 1.039461e-001 7.335322e-002 -2.162371e-002 1.756088e-002 -2.979995e-002 1.900131e-002 -2.144407e-002 -1.732327e-002 9.274752e-003 -3.705174e-002 -2.153536e-002 -2.736700e-002 2.136255e-002 -1.618909e-002 3.473219e-002 1.728326e-002 1.425375e-003 2.338854e-002 8.127561e-003 2.632526e-003 5.650339e-003
<VARIANCE> 39
 4.175207e-002 4.518830e-002 5.277910e-002 9.218147e-002 7.974605e-002 7.851721e-002 8.371893e-002 8.777608e-002 6.823167e-002 7.764242e-002 6.765676e-002 4.432600e-002 3.226944e-002 3.566745e-003 8.891403e-003 6.995324e-003 6.621946e-003 7.403089e-003 7.959514e-003 9.047598e-003 1.089199e-002 9.020852e-003 9.351243e-003 1.035532e-002 6.902515e-003 1.774737e-003 8.478297e-004 7.569767e-004 7.494133e-004 1.354437e-003 1.192923e-003 1.584853e-003 1.446526e-003 1.623247e-003 1.393216e-003 1.275769e-003 1.263442e-003 9.446534e-004 1.894108e-004
<GCONST> -1.186058e+002
<MIXTURE> 2 7.515228e-002
<MEAN> 39
 -3.722842e-001 3.553796e-001 2.164712e-001 2.186148e-001 4.710053e-004 -5.916877e-002 3.422928e-001 -4.591481e-001 6.413828e-002 -1.568337e-003 -6.332985e-002 -1.552187e-002 3.400367e-001 -2.164826e-001 7.402372e-002 2.046280e-002 6.064718e-002 5.909326e-002 -1.457833e-002 9.501411e-002 -6.217364e-002 1.106606e-002 -3.383074e-003 -2.214942e-003 7.956276e-002 -3.342694e-002 1.057461e-002 -3.844503e-002 -2.501102e-002 -3.442769e-002 -1.773472e-002 3.028620e-004 -1.847201e-002 4.882251e-002 -1.145088e-002 6.897597e-003 1.225313e-002 4.551856e-003 1.367368e-002
<VARIANCE> 39
 3.232890e-002 3.996933e-002 5.114782e-002 5.474292e-002 6.794336e-002 7.395038e-002 6.765191e-002 5.526818e-002 6.352260e-002 5.285913e-002 5.341408e-002 3.419942e-002 3.606976e-002 3.556720e-003 9.105632e-003 4.575314e-003 6.669304e-003 6.535274e-003 7.856825e-003 9.263719e-003 9.043973e-003 8.079968e-003 6.179846e-003 6.003788e-003 3.963339e-003 2.172078e-003 7.612811e-004 8.372208e-004 7.117268e-004 8.310537e-004 1.023916e-003 1.274534e-003 1.326730e-003 1.051872e-003 1.163590e-003 1.144057e-003 1.076330e-003 7.396554e-004 2.643146e-004
<GCONST> -1.251904e+002
<MIXTURE> 3 1.681582e-001
<MEAN> 39
 -4.488392e-001 1.226629e-001 2.382662e-001 9.801226e-002 -6.072923e-003 7.511830e-002 2.328914e-001 -1.440124e-001 -2.086560e-004 6.282230e-002 2.646408e-002 -3.393851e-003 1.533303e-001 -9.558493e-002 4.483006e-002 -2.142998e-004 -1.430470e-002 -9.191419e-003 -2.409025e-002 1.996919e-002 -1.097086e-002 1.523184e-003 6.446666e-003 1.037087e-002 2.413040e-002 7.059549e-002 1.359219e-002 6.321183e-004 -6.993534e-003 9.029849e-003 8.620900e-003 4.041653e-005 -9.871216e-003 6.087957e-003 -2.672680e-003 -8.248402e-003 -2.154109e-003 1.512494e-003 -2.162027e-002
<VARIANCE> 39
 7.006630e-002 7.733126e-002 6.926208e-002 6.322023e-002 8.122575e-002 9.504121e-002 8.112939e-002 7.999381e-002 8.170073e-002 5.662084e-002 5.788069e-002 4.033163e-002 1.089800e-001 6.097088e-003 4.682170e-003 5.361221e-003 4.858716e-003 6.197214e-003 6.087021e-003 7.382527e-003 7.165818e-003 7.009662e-003 6.070091e-003 5.599969e-003 3.716111e-003 8.470577e-003 1.059021e-003 8.721760e-004 9.655270e-004 8.824346e-004 1.180593e-003 1.204215e-003 1.304507e-003 1.432443e-003 1.390605e-003 1.149638e-003 1.005728e-003 7.276475e-004 8.773746e-004
<GCONST> -1.182310e+002
<MIXTURE> 4 1.406505e-001
<MEAN> 39
 -2.167220e-001 2.516690e-001 3.049578e-001 1.214894e-001 5.738256e-002 5.910692e-002 -3.907554e-002 -2.141646e-001 -1.235608e-001 -3.365165e-002 -6.116462e-002 -1.152538e-001 3.756148e-001 -2.202607e-001 1.120096e-001 6.132091e-002 5.392623e-002 4.233776e-002 5.312798e-002 2.467768e-002 1.989068e-002 9.097664e-003 -1.005230e-002 3.076778e-002 1.287267e-002 -3.196269e-002 -8.047060e-003 -3.754159e-002 -3.628998e-002 -1.582634e-002 -1.948583e-002 -4.928168e-003 2.209816e-002 1.883282e-002 1.175638e-002 8.875930e-003 1.638497e-002 1.938564e-002 1.091988e-002
<VARIANCE> 39
 4.870247e-002 5.195287e-002 4.951650e-002 6.143508e-002 6.452746e-002 7.849457e-002 8.261650e-002 7.774964e-002 5.857550e-002 6.014042e-002 6.258918e-002 3.910076e-002 3.703046e-002 3.811858e-003 8.228839e-003 6.175048e-003 7.573267e-003 6.873050e-003 7.289150e-003 8.097864e-003 9.557206e-003 8.477852e-003 7.205254e-003 5.941762e-003 5.146312e-003 2.264240e-003 9.758009e-004 8.036370e-004 7.099226e-004 8.375599e-004 9.137721e-004 1.101914e-003 1.206188e-003 1.425389e-003 1.232359e-003 1.298189e-003 1.029258e-003 7.347511e-004 2.654454e-004
<GCONST> -1.224360e+002
<MIXTURE> 5 6.781956e-002
<MEAN> 39
 -5.574707e-001 3.600129e-001 5.008752e-001 3.382674e-001 -7.466274e-002 2.413665e-001 1.676797e-001 -1.457659e-001 -1.004178e-001 -1.023162e-001 -2.825827e-002 -6.136134e-002 3.716604e-001 -1.583211e-001 5.031816e-002 3.372846e-002 6.519687e-002 5.435258e-002 8.931717e-002 7.397325e-002 -5.033572e-003 1.426375e-002 -1.041731e-003 2.760806e-003 -2.923842e-003 -1.164588e-002 4.793568e-002 -4.032644e-002 -6.530621e-002 -3.775517e-002 -6.578555e-003 -3.735269e-002 -9.283202e-003 1.872464e-002 2.063849e-002 1.371378e-002 1.017111e-002 1.449781e-002 -1.093834e-002
<VARIANCE> 39
 3.203837e-002 5.743277e-002 5.534991e-002 6.202253e-002 8.025650e-002 7.611103e-002 6.276525e-002 7.842764e-002 7.215169e-002 6.934118e-002 6.194699e-002 3.600674e-002 2.759688e-002 8.015972e-003 6.079531e-003 7.682626e-003 7.135840e-003 6.632285e-003 8.078082e-003 7.502957e-003 8.899192e-003 8.584140e-003 9.104921e-003 8.793000e-003 5.516698e-003 2.261655e-003 9.431510e-004 1.103079e-003 1.023896e-003 1.076150e-003 1.408590e-003 1.223539e-003 1.308517e-003 1.571663e-003 1.649820e-003 1.588088e-003 1.542840e-003 9.193565e-004 5.937560e-004
<GCONST> -1.179792e+002
<MIXTURE> 6 1.177728e-001
<MEAN> 39
 -6.767840e-001 1.708893e-001 4.121572e-001 -3.607487e-002 1.054781e-002 1.693772e-001 -4.413240e-002 -2.088296e-003 -3.823841e-002 -1.171085e-001 2.044433e-001 7.792150e-002 3.925219e-001 -1.070757e-001 2.093525e-002 -1.363811e-002 -5.484340e-003 -5.061056e-003 3.580553e-003 2.730934e-002 1.101788e-002 1.620964e-002 1.480011e-002 2.285127e-002 2.534092e-002 -8.354569e-004 5.217503e-002 -1.652038e-002 -3.061074e-002 9.612300e-003 -6.575747e-003 -2.093145e-002 1.809837e-002 -8.669096e-003 -8.148814e-004 1.300389e-002 -2.095526e-002 -9.001948e-003 -1.044556e-002
<VARIANCE> 39
 3.153820e-002 4.561780e-002 4.597069e-002 5.366921e-002 8.153696e-002 7.993040e-002 5.886625e-002 7.563173e-002 8.113004e-002 5.852097e-002 6.268660e-002 4.442357e-002 4.808595e-002 6.358440e-003 4.738200e-003 4.704452e-003 5.068481e-003 6.010153e-003 6.126158e-003 7.024272e-003 7.049016e-003 6.510620e-003 6.480589e-003 6.128938e-003 4.235563e-003 2.318612e-003 7.380670e-004 9.239782e-004 8.463788e-004 9.239261e-004 1.188983e-003 1.220284e-003 1.049156e-003 1.357706e-003 1.436737e-003 1.225170e-003 1.153636e-003 8.105431e-004 6.027328e-004
<GCONST> -1.231749e+002
<MIXTURE> 7 7.396876e-002
<MEAN> 39
 -2.962042e-001 5.523977e-003 3.808688e-001 3.400239e-001 -1.403915e-001 -2.340450e-001 1.820663e-001 1.039718e-001 -1.295170e-001 -2.093660e-001 6.945160e-002 1.045920e-001 3.461967e-001 -2.395761e-001 2.116017e-002 9.312865e-002 4.104139e-002 -1.469606e-002 7.461569e-002 9.766279e-002 -3.445017e-002 -6.476820e-002 2.205310e-002 6.245059e-002 3.929665e-002 4.443733e-003 2.220288e-002 -2.540474e-003 -5.603610e-002 -3.695149e-002 1.424844e-002 3.973251e-003 -1.738377e-002 -7.064377e-003 2.980035e-002 2.701841e-002 -4.815561e-003 -1.721522e-002 -2.815688e-003
<VARIANCE> 39
 7.692884e-002 3.506046e-002 4.186074e-002 5.270487e-002 6.868940e-002 6.164279e-002 7.084081e-002 6.074309e-002 7.021219e-002 4.939681e-002 5.323343e-002 3.668054e-002 3.488304e-002 5.714978e-003 5.832167e-003 8.539151e-003 7.317743e-003 7.666196e-003 8.094511e-003 7.733509e-003 8.369701e-003 8.638668e-003 8.745269e-003 5.863916e-003 5.243358e-003 1.604138e-003 1.657018e-003 6.907821e-004 9.711094e-004 9.482292e-004 1.163872e-003 1.246246e-003 1.442882e-003 1.514011e-003 1.466544e-003 1.376314e-003 1.275485e-003 8.755204e-004 2.932179e-004
<GCONST> -1.211733e+002
<MIXTURE> 8 2.325399e-001
<MEAN> 39
 -7.210055e-001 3.534474e-001 2.032643e-001 1.668910e-001 9.691726e-002 1.185273e-002 3.476483e-001 -2.850569e-001 3.694621e-002 8.545294e-003 -6.778163e-002 1.136354e-001 3.126969e-001 -1.277020e-001 -8.854619e-003 -2.802728e-002 5.070750e-003 2.464467e-002 6.405409e-003 6.258499e-002 2.261214e-002 1.315526e-002 3.108210e-002 2.123691e-002 3.214340e-002 -1.604283e-002 5.812380e-002 -2.690143e-002 -1.558024e-002 -2.331231e-002 -2.520130e-002 -7.413661e-003 -2.684358e-002 1.983426e-002 1.900549e-003 1.517213e-003 6.199822e-003 -1.392666e-002 3.970905e-003
<VARIANCE> 39
 2.225272e-002 5.221611e-002 5.196139e-002 5.440712e-002 6.872715e-002 8.338381e-002 7.806522e-002 8.003537e-002 8.954249e-002 7.466298e-002 5.957119e-002 3.699674e-002 3.651948e-002 4.825046e-003 4.181823e-003 4.295756e-003 5.446258e-003 5.780175e-003 6.541942e-003 7.097431e-003 8.055526e-003 7.696932e-003 6.155107e-003 5.880624e-003 4.434630e-003 1.086195e-003 4.994220e-004 9.723674e-004 8.110051e-004 9.529550e-004 1.013863e-003 1.234634e-003 1.266638e-003 1.481653e-003 1.547728e-003 1.415016e-003 1.183545e-003 8.203922e-004 2.898274e-004
<GCONST> -1.247954e+002
<STATE> 3
<NUMMIXES> 8
<MIXTURE> 1 1.023607e-001
<MEAN> 39
 -6.150176e-001 5.524321e-001 1.216649e-001 3.916969e-001 -8.887341e-002 3.416784e-001 5.913291e-002 -1.839613e-001 2.150075e-001 -1.913818e-001 -4.665797e-002 8.648337e-003 2.846718e-001 4.813047e-002 -1.886056e-002 -4.128058e-003 1.749423e-002 -1.075454e-002 3.563822e-002 -3.396662e-002 3.622873e-002 -2.435922e-002 2.662236e-003 9.888109e-004 -1.639301e-002 -4.373406e-002 3.563515e-002 -3.604831e-002 -3.250072e-003 -3.394327e-002 3.717733e-003 -2.310521e-002 -1.874319e-003 1.287932e-002 -1.660473e-002 1.832330e-002 2.685910e-003 3.488709e-003 -1.286950e-002
<VARIANCE> 39
 3.570514e-002 4.170589e-002 6.606176e-002 5.567738e-002 7.414205e-002 6.816279e-002 7.490298e-002 7.736048e-002 6.625012e-002 5.283495e-002 5.649706e-002 3.279330e-002 4.614723e-002 4.687317e-003 3.850662e-003 4.654658e-003 5.072184e-003 5.235093e-003 6.007055e-003 9.017512e-003 7.864254e-003 6.753900e-003 5.718944e-003 5.315333e-003 3.494311e-003 3.513308e-003 6.494712e-004 6.698617e-004 1.047800e-003 1.161690e-003 1.326772e-003 1.364085e-003 1.251660e-003 1.301791e-003 1.271197e-003 1.041188e-003 1.147329e-003 6.633615e-004 7.211108e-004
<GCONST> -1.237769e+002
<MIXTURE> 2 8.154003e-002
<MEAN> 39
 -6.791947e-001 3.009931e-001 1.878246e-001 2.469476e-001 -1.722758e-001 2.214084e-002 2.354959e-001 -3.685710e-001 1.384577e-001 -7.606712e-002 2.443889e-002 1.856735e-001 4.422511e-001 -1.139069e-002 -5.722328e-003 -5.485595e-003 -1.842512e-003 2.636529e-004 -1.052160e-002 1.442635e-002 -9.576090e-004 -4.319430e-003 7.422571e-003 -1.944310e-004 8.042505e-003 -6.423887e-003 1.789193e-002 -5.326907e-003 -8.258264e-004 -4.640391e-003 5.791476e-003 1.036585e-002 -6.283840e-003 1.738193e-002 -3.763235e-003 4.010021e-003 -2.358977e-003 -1.738466e-002 -5.819367e-003
<VARIANCE> 39
 2.478456e-002 7.096676e-002 6.292075e-002 5.175682e-002 4.770318e-002 6.501857e-002 7.146109e-002 5.732708e-002 6.352314e-002 4.905146e-002 4.994170e-002 2.956870e-002 3.090286e-002 1.736012e-003 1.522520e-003 2.003598e-003 2.735318e-003 3.262632e-003 4.427256e-003 4.799759e-003 4.493096e-003 4.844893e-003 4.522393e-003 3.883801e-003 2.981602e-003 4.441712e-004 3.981348e-004 3.124104e-004 4.160166e-004 5.170159e-004 6.425364e-004 7.135165e-004 8.903125e-004 7.956494e-004 8.934874e-004 7.759340e-004 7.122572e-004 4.526784e-004 8.936843e-005
<GCONST> -1.425538e+002
<MIXTURE> 3 1.196458e-001
<MEAN> 39
 -7.501655e-001 1.544460e-001 3.576632e-001 2.203106e-001 -9.004889e-002 2.317817e-001 2.851214e-001 -3.070512e-002 -5.985999e-002 1.036020e-001 1.089176e-001 -1.131888e-001 3.308222e-001 5.627059e-003 -1.778911e-002 -9.589026e-003 6.592928e-003 -1.062698e-002 2.350227e-003 2.048188e-002 8.422625e-003 1.660126e-003 5.745618e-003 9.974941e-003 -3.924829e-003 -1.779547e-002 4.943215e-002 -4.095532e-003 -1.633351e-002 -1.539357e-002 -9.217072e-003 -2.739271e-002 -2.365946e-002 -9.091960e-003 2.876269e-003 -1.520249e-002 -1.064880e-002 1.698434e-002 -1.204705e-003
<VARIANCE> 39
 2.411214e-002 5.510839e-002 5.567257e-002 6.254592e-002 7.602548e-002 7.358686e-002 6.651028e-002 7.221910e-002 7.310570e-002 5.680273e-002 6.327515e-002 2.947458e-002 3.134002e-002 6.348422e-003 2.699321e-003 2.937625e-003 3.392542e-003 4.049368e-003 4.795746e-003 5.414388e-003 6.280561e-003 5.957453e-003 5.141467e-003 5.315566e-003 3.416875e-003 9.010247e-004 6.709533e-004 5.217953e-004 6.397758e-004 8.411861e-004 8.642144e-004 8.434932e-004 9.493291e-004 1.084339e-003 1.129945e-003 9.773086e-004 9.702466e-004 5.296136e-004 2.254374e-004
<GCONST> -1.321261e+002
<MIXTURE> 4 2.290879e-001
<MEAN> 39
 -7.726272e-001 1.511561e-001 3.173725e-001 5.426155e-002 -3.659132e-002 2.410655e-002 1.572089e-001 -1.861638e-002 -9.036903e-002 7.176588e-002 1.322422e-001 5.269371e-002 3.962086e-001 -3.404657e-003 -7.095765e-003 3.690088e-003 5.142365e-003 -4.168246e-003 -6.028850e-003 3.916236e-003 9.566044e-004 -8.853505e-003 9.205923e-004 6.158013e-003 2.539369e-003 -7.117744e-003 1.861463e-002 -2.023312e-003 -6.510227e-004 6.463523e-003 -1.289909e-003 2.373460e-003 2.433209e-003 -8.054995e-003 2.049675e-003 -5.370473e-003 -7.388154e-003 -1.218553e-003 -3.851246e-003
<VARIANCE> 39
 2.768467e-002 5.540616e-002 5.041150e-002 5.530018e-002 7.129983e-002 7.536026e-002 7.400902e-002 6.170177e-002 6.808342e-002 6.307556e-002 6.163554e-002 3.795748e-002 4.598584e-002 1.109807e-003 1.400620e-003 1.851813e-003 2.345969e-003 2.875916e-003 3.048066e-003 4.092024e-003 4.538517e-003 4.326896e-003 4.390029e-003 3.887129e-003 2.582222e-003 4.183101e-004 3.467918e-004 2.762364e-004 3.708242e-004 4.677175e-004 5.989153e-004 6.079287e-004 7.952658e-004 8.464024e-004 9.099203e-004 9.018307e-004 7.796544e-004 4.860910e-004 8.979483e-005
<GCONST> -1.431903e+002
<MIXTURE> 5 1.593904e-001
<MEAN> 39
 -7.403994e-001 1.771449e-001 1.996251e-001 1.547757e-001 -3.466162e-002 -9.770992e-002 3.659032e-001 -1.319463e-001 -5.182429e-002 1.325986e-002 1.324529e-001 1.418727e-001 2.584245e-001 6.196078e-002 -1.828196e-002 -3.423329e-002 4.254217e-002 3.168714e-004 6.344028e-003 -6.147241e-003 1.403852e-002 8.250073e-003 -2.335140e-002 -2.929550e-003 -7.236975e-003 -6.776171e-002 5.706780e-002 -1.066515e-002 -6.345156e-003 -2.960985e-003 1.137286e-002 1.362775e-002 -2.531942e-002 1.056574e-002 6.101089e-003 -6.251508e-003 -1.520812e-002 -1.728227e-002 -2.679664e-002
<VARIANCE> 39
 3.769910e-002 7.728285e-002 7.001918e-002 7.523746e-002 8.023563e-002 8.212922e-002 9.035658e-002 9.783766e-002 8.802187e-002 7.039617e-002 6.377594e-002 3.906903e-002 5.983583e-002 6.525862e-003 6.391670e-003 6.330206e-003 5.466230e-003 6.644260e-003 7.124440e-003 8.000872e-003 8.735967e-003 7.706482e-003 6.962704e-003 6.091708e-003 4.153558e-003 4.738503e-003 9.024696e-004 1.130482e-003 1.246838e-003 1.214813e-003 1.284564e-003 1.303092e-003 1.593141e-003 1.691376e-003 1.626364e-003 1.306422e-003 1.145729e-003 7.160553e-004 1.151188e-003
<GCONST> -1.158680e+002
<MIXTURE> 6 5.604046e-002
<MEAN> 39
 -5.723822e-001 4.134980e-001 3.429154e-002 2.347493e-001 -8.001334e-002 3.991537e-001 -2.538128e-001 9.951820e-002 1.030840e-001 -1.690518e-001 8.114783e-002 4.622301e-002 3.260795e-001 -1.182463e-002 -4.307120e-003 -4.921638e-003 9.487381e-003 -3.635752e-003 8.091883e-003 1.856671e-002 -2.024461e-003 1.486436e-002 4.598506e-003 1.919285e-003 2.593190e-003 -1.059651e-002 2.376346e-002 -7.924845e-003 4.748869e-003 -1.596077e-002 -3.565877e-003 -2.347746e-002 1.415593e-002 -1.297615e-002 -5.304968e-003 8.459711e-003 -1.141799e-002 -5.436332e-004 -3.749956e-003
<VARIANCE> 39
 3.260518e-002 5.498417e-002 5.208202e-002 5.452702e-002 5.382788e-002 5.285675e-002 5.472174e-002 7.126868e-002 6.406561e-002 6.254171e-002 4.934043e-002 3.325929e-002 6.840010e-002 3.656148e-003 2.256687e-003 3.112251e-003 3.887859e-003 4.062012e-003 4.845436e-003 6.191534e-003 5.911236e-003 6.037245e-003 5.091302e-003 4.960607e-003 3.186975e-003 1.245931e-003 5.164762e-004 4.449326e-004 5.470040e-004 8.614755e-004 8.535845e-004 9.777349e-004 9.508433e-004 1.011299e-003 1.045416e-003 1.021258e-003 8.949316e-004 5.742919e-004 2.395685e-004
<GCONST> -1.330188e+002
<MIXTURE> 7 7.886740e-002
<MEAN> 39
 -7.250445e-001 5.366247e-001 -2.914924e-002 4.089544e-001 -9.550106e-002 3.109956e-001 8.958020e-002 -1.109646e-001 2.524774e-001 -1.832966e-001 -9.682035e-004 2.749104e-002 2.289347e-001 -4.911443e-003 1.222982e-003 4.660363e-003 -1.533783e-003 1.243587e-004 -1.413679e-003 1.909019e-003 -7.528563e-003 9.393328e-003 -1.734798e-003 -5.319403e-003 4.982248e-003 -3.476635e-003 1.390543e-002 -6.397418e-003 7.638894e-003 -8.837588e-003 -4.674015e-003 -8.220988e-004 -1.273736e-002 -1.044446e-003 -1.041252e-002 4.912551e-003 -3.638199e-003 2.472603e-003 7.093382e-004
<VARIANCE> 39
 2.019490e-002 4.034054e-002 5.060318e-002 3.370260e-002 5.663235e-002 5.346819e-002 7.119524e-002 7.109949e-002 5.678840e-002 5.073315e-002 5.514545e-002 3.463526e-002 2.723100e-002 8.354808e-004 1.291909e-003 1.743569e-003 2.302272e-003 2.924744e-003 3.763529e-003 4.676769e-003 4.205348e-003 4.360832e-003 4.254865e-003 3.660275e-003 2.486988e-003 3.378397e-004 2.447188e-004 2.511213e-004 3.762642e-004 4.831998e-004 5.990533e-004 7.155557e-004 8.167072e-004 8.272344e-004 9.455185e-004 7.902175e-004 7.972477e-004 4.963307e-004 7.438203e-005
<GCONST> -1.468733e+002
<MIXTURE> 8 1.729499e-001
<MEAN> 39
 -7.806179e-001 3.204509e-001 1.086622e-001 8.901132e-002 9.652158e-002 -5.304874e-002 3.896220e-001 -2.837178e-001 9.941788e-002 1.129215e-001 -1.157838e-001 1.667726e-001 3.010234e-001 1.003214e-002 -6.164583e-003 3.404688e-003 6.820283e-003 -1.352917e-002 5.915993e-003 3.040390e-003 -4.869964e-003 -1.826231e-003 2.943661e-003 2.724031e-003 -9.532277e-003 -5.967888e-003 3.225542e-002 -5.967898e-003 8.827534e-003 5.509853e-003 -1.234870e-002 7.641539e-003 -1.686516e-002 4.517888e-003 -6.039916e-003 -1.386988e-002 1.140499e-002 -1.418431e-002 -4.139990e-003
<VARIANCE> 39
 2.745165e-002 5.291804e-002 4.329715e-002 4.703406e-002 5.494066e-002 7.016881e-002 6.777512e-002 6.782359e-002 7.851887e-002 5.948380e-002 5.389055e-002 3.608975e-002 4.658786e-002 2.136525e-003 2.178052e-003 2.896662e-003 3.005885e-003 4.106425e-003 4.613035e-003 4.917352e-003 5.606750e-003 6.015840e-003 5.482934e-003 4.894393e-003 3.390671e-003 8.671316e-004 5.549686e-004 4.415025e-004 4.784878e-004 5.880317e-004 7.258260e-004 8.897508e-004 1.021399e-003 1.031094e-003 1.119515e-003 9.787374e-004 8.576105e-004 6.159385e-004 2.103799e-004
<GCONST> -1.353146e+002
<STATE> 4
<NUMMIXES> 8
<MIXTURE> 1 7.877152e-002
<MEAN> 39
 4.072523e-001 -2.350623e-001 -2.779899e-001 -5.577959e-002 -1.135175e-001 -4.251485e-001 4.299182e-002 1.572336e-001 6.518945e-002 -1.607611e-001 5.291702e-004 1.109985e-002 4.206007e-001 1.781638e-001 -6.289564e-002 -1.943219e-001 -8.744921e-002 3.737535e-002 -6.466235e-002 -6.667708e-002 5.449565e-002 9.069490e-002 -3.037776e-003 -4.279865e-002 -3.394287e-002 7.784913e-002 -7.331083e-002 2.009808e-002 1.857747e-002 2.154128e-002 1.070831e-002 4.047911e-002 5.609677e-003 -8.241864e-003 -5.543044e-003 1.952477e-002 6.794041e-003 -3.661410e-003 -5.910656e-003
<VARIANCE> 39
 2.034377e-002 4.050935e-002 6.407900e-002 4.208435e-002 7.807712e-002 5.852525e-002 8.457158e-002 6.087620e-002 7.757612e-002 4.289610e-002 4.443038e-002 3.679977e-002 4.128608e-002 7.285908e-003 5.400586e-003 7.564246e-003 6.275665e-003 7.536789e-003 1.197815e-002 1.080861e-002 1.097960e-002 1.037249e-002 9.343020e-003 7.108426e-003 7.035329e-003 2.859324e-003 4.489531e-004 7.090023e-004 1.045549e-003 9.178863e-004 1.162243e-003 1.145307e-003 1.445134e-003 1.253072e-003 1.547978e-003 1.154792e-003 1.209892e-003 7.921544e-004 5.077018e-004
<GCONST> -1.210047e+002
<MIXTURE> 2 8.903841e-002
<MEAN> 39
 -4.799630e-001 3.888403e-001 1.771643e-001 2.352672e-001 -1.380348e-001 4.200910e-001 -1.301013e-001 -1.237010e-001 1.948013e-001 -1.295389e-001 -5.851240e-002 4.768452e-002 2.276980e-001 1.934622e-001 -1.015760e-001 -5.547244e-002 -1.766376e-001 -5.731385e-002 -1.035951e-001 -3.657075e-002 1.712858e-002 -3.101440e-002 3.238384e-002 -2.251473e-003 2.541838e-002 2.577111e-002 2.277641e-002 -3.076426e-002 -2.974642e-002 -4.930949e-002 2.410142e-003 -4.857496e-002 2.681968e-002 1.909651e-003 -7.455790e-003 1.118945e-002 2.793097e-003 9.301410e-003 2.991279e-002
<VARIANCE> 39
 4.021195e-002 4.798499e-002 4.959532e-002 6.580728e-002 8.141591e-002 6.714085e-002 8.665072e-002 9.520695e-002 6.277373e-002 6.131066e-002 5.645727e-002 4.253520e-002 3.600048e-002 3.483758e-003 7.288530e-003 5.628166e-003 8.584094e-003 6.690978e-003 8.194867e-003 7.860702e-003 8.477574e-003 6.879436e-003 6.401066e-003 7.263696e-003 5.427385e-003 3.202343e-003 8.170616e-004 8.362771e-004 8.419062e-004 1.262107e-003 1.313884e-003 1.438161e-003 1.357057e-003 1.540220e-003 1.286195e-003 1.274133e-003 1.308954e-003 9.931377e-004 3.092992e-004
<GCONST> -1.202472e+002
<MIXTURE> 3 1.136011e-001
<MEAN> 39
 -5.987701e-001 1.872647e-001 1.574133e-001 1.301413e-001 -9.627751e-003 3.809142e-002 4.031852e-001 -3.883979e-001 8.469015e-002 5.804545e-002 -4.769065e-002 8.570182e-002 1.641792e-001 1.761736e-001 -1.783435e-002 9.639708e-003 -4.330734e-002 -6.129945e-002 5.662451e-003 -7.025054e-002 1.078997e-002 1.216408e-002 -3.860558e-002 -7.015995e-003 -4.408119e-002 -1.111407e-002 4.201804e-002 -8.831399e-003 -9.369276e-003 -3.577126e-002 -1.353225e-002 -1.502915e-002 -2.906903e-002 3.984578e-002 -2.480804e-003 -2.989130e-003 6.971278e-003 -1.161157e-002 2.767209e-002
<VARIANCE> 39
 4.084760e-002 4.602639e-002 5.046324e-002 5.094976e-002 7.033617e-002 7.396724e-002 8.629372e-002 7.871173e-002 7.830473e-002 6.273475e-002 6.089913e-002 4.095893e-002 4.844343e-002 5.953624e-003 4.591245e-003 4.106941e-003 6.950756e-003 5.730085e-003 7.474683e-003 7.724304e-003 8.820212e-003 8.137101e-003 5.996338e-003 5.462045e-003 4.374087e-003 3.410377e-003 7.622790e-004 7.609699e-004 8.360098e-004 9.986394e-004 1.195064e-003 1.348202e-003 1.512174e-003 1.345727e-003 1.499236e-003 1.253793e-003 1.144372e-003 7.931962e-004 5.280174e-004
<GCONST> -1.214676e+002
<MIXTURE> 4 8.203235e-002
<MEAN> 39
 -4.710395e-001 1.022578e-001 3.870393e-001 2.272119e-001 -1.565455e-001 1.137774e-001 2.835493e-001 -1.139267e-001 -2.146304e-001 9.467978e-002 1.262716e-001 -1.009904e-001 2.356961e-001 2.261120e-001 -7.431755e-002 -9.186486e-002 -6.653026e-002 -5.285775e-002 -1.074807e-001 -2.735121e-002 2.250890e-002 -1.582065e-003 -3.555440e-002 -8.438041e-003 9.987980e-003 1.110990e-003 3.609192e-002 -1.752786e-002 -5.351407e-002 -3.514220e-002 3.151619e-003 -3.062197e-002 -1.482029e-002 1.526077e-002 3.119029e-002 -1.484900e-002 -1.230322e-002 1.558330e-002 2.918244e-002
<VARIANCE> 39
 5.071354e-002 4.325365e-002 4.497244e-002 6.242462e-002 8.229034e-002 7.657060e-002 7.596800e-002 8.737068e-002 6.338109e-002 6.000168e-002 6.676382e-002 3.547531e-002 3.649189e-002 4.379254e-003 5.815149e-003 7.787475e-003 6.948415e-003 6.505696e-003 8.643142e-003 7.033029e-003 7.736409e-003 7.203075e-003 5.951406e-003 7.534212e-003 4.338787e-003 3.161678e-003 9.770110e-004 6.950671e-004 9.703358e-004 1.055101e-003 1.370565e-003 1.366497e-003 1.454289e-003 1.473563e-003 1.395660e-003 1.147761e-003 1.290863e-003 8.024040e-004 3.457957e-004
<GCONST> -1.208111e+002
<MIXTURE> 5 1.201831e-001
<MEAN> 39
 1.231074e-002 1.834463e-001 1.620337e-001 -4.075906e-002 -1.926574e-001 -7.078909e-002 4.118830e-002 -1.839970e-001 -1.038419e-002 -3.091161e-002 -4.525223e-002 -4.055960e-002 1.518694e-001 2.088171e-001 -6.211682e-002 -7.611416e-002 -1.386848e-001 -6.304713e-002 -8.182417e-002 -5.687566e-002 4.884972e-002 2.320567e-002 -3.297511e-003 -1.147569e-002 -2.136667e-002 7.900536e-002 -3.592603e-002 -9.249317e-003 -1.700536e-002 -2.534719e-003 8.972932e-003 5.766521e-003 1.050241e-002 1.674659e-002 5.792948e-003 5.250952e-003 7.765595e-003 7.194340e-003 2.748140e-002
<VARIANCE> 39
 4.013201e-002 4.049384e-002 4.638204e-002 6.760252e-002 8.005481e-002 6.817119e-002 8.818030e-002 7.158706e-002 6.561039e-002 4.595505e-002 4.831589e-002 4.208639e-002 5.971283e-002 4.918341e-003 9.824840e-003 1.012365e-002 8.993205e-003 9.362025e-003 1.383813e-002 1.260448e-002 1.294638e-002 1.110812e-002 8.458045e-003 7.512880e-003 6.794585e-003 3.299155e-003 6.066470e-004 5.577920e-004 6.775916e-004 8.725519e-004 1.185815e-003 1.044381e-003 1.208164e-003 1.261791e-003 1.176214e-003 9.964872e-004 9.659101e-004 7.661146e-004 6.119768e-004
<GCONST> -1.187975e+002
<MIXTURE> 6 6.885081e-002
<MEAN> 39
 -3.118643e-001 -1.078238e-001 2.494633e-001 3.274992e-001 -1.259274e-001 -2.218645e-001 2.365189e-001 1.057385e-001 -1.428737e-001 -2.480633e-001 1.424568e-001 1.698116e-001 1.648372e-001 2.679009e-001 -1.853262e-002 -1.253004e-001 -7.035966e-002 1.817198e-002 -7.393954e-002 -1.005791e-001 2.394325e-002 6.275024e-002 -2.205104e-002 -7.285636e-002 -4.121298e-002 9.955660e-003 1.941772e-002 3.504868e-003 -4.382507e-002 -4.023371e-002 1.197762e-002 3.441840e-003 -2.085095e-002 -2.037305e-003 3.034818e-002 3.000566e-002 -1.197808e-002 -2.249927e-002 3.424858e-002
<VARIANCE> 39
 6.794857e-002 3.493828e-002 4.428995e-002 5.020124e-002 6.500129e-002 6.267119e-002 8.093955e-002 6.836604e-002 6.658740e-002 5.279280e-002 6.145280e-002 3.699613e-002 4.308118e-002 4.270377e-003 4.649118e-003 7.522880e-003 7.084304e-003 6.498312e-003 7.783726e-003 8.693992e-003 9.316472e-003 7.727985e-003 7.687529e-003 5.236269e-003 4.994889e-003 3.562752e-003 1.367900e-003 5.258418e-004 7.705026e-004 8.148259e-004 1.068477e-003 1.154133e-003 1.453394e-003 1.530611e-003 1.292498e-003 1.194441e-003 1.203279e-003 7.448759e-004 4.532803e-004
<GCONST> -1.220092e+002
<MIXTURE> 7 3.328370e-001
<MEAN> 39
 -3.553894e-001 1.692932e-001 1.301293e-001 3.025351e-001 7.867864e-002 1.454125e-001 1.260668e-001 1.866208e-002 -2.555870e-002 -4.665553e-002 2.241492e-002 -1.391800e-002 -6.508160e-002 1.082025e-001 -4.704497e-002 -1.229522e-002 -1.478859e-002 4.918230e-002 8.397792e-003 -2.158716e-002 2.847901e-002 -5.826592e-003 2.482640e-003 -1.289134e-002 -1.840918e-002 -1.336066e-001 -2.377354e-003 6.524728e-004 -2.592469e-003 -2.359081e-002 -6.502111e-003 -9.768154e-003 2.717831e-003 -1.235686e-002 6.551394e-003 6.033363e-003 1.119204e-004 4.927605e-003 7.815134e-003
<VARIANCE> 39
 5.241174e-002 9.221546e-002 7.624704e-002 8.805241e-002 8.752199e-002 1.037002e-001 9.837614e-002 8.946690e-002 7.537412e-002 6.343123e-002 5.597433e-002 3.946450e-002 1.225410e-001 5.186238e-003 7.331358e-003 6.813191e-003 7.945731e-003 8.266658e-003 9.727498e-003 9.075893e-003 8.863343e-003 7.776096e-003 6.477871e-003 5.673502e-003 3.735431e-003 1.124826e-002 1.035189e-003 1.650888e-003 1.390216e-003 1.398756e-003 1.973333e-003 1.835125e-003 1.886169e-003 1.742329e-003 1.562431e-003 1.389747e-003 1.162560e-003 7.949459e-004 1.963872e-003
<GCONST> -1.104062e+002
<MIXTURE> 8 1.146198e-001
<MEAN> 39
 1.323991e-001 -7.435541e-002 -5.808482e-002 -4.440383e-001 -3.050301e-001 -6.745895e-002 2.978759e-002 -1.190660e-001 1.219087e-001 -3.385155e-003 -4.256185e-002 6.592866e-002 5.335738e-001 1.339317e-001 -1.220278e-001 -8.929133e-002 -1.668397e-001 -1.830230e-002 -7.003881e-002 1.082283e-002 4.552221e-002 3.624148e-003 1.189680e-002 4.916697e-003 7.470397e-003 9.858410e-002 -6.225462e-002 2.466970e-002 1.209442e-002 4.874855e-002 2.615491e-002 2.146735e-002 8.092602e-003 1.465496e-003 -6.385655e-003 1.094095e-003 4.419083e-003 -1.377737e-003 -1.320083e-002
<VARIANCE> 39
 2.083488e-002 6.830638e-002 5.383676e-002 7.679524e-002 5.447247e-002 5.699033e-002 8.996604e-002 6.337631e-002 5.516084e-002 4.514065e-002 5.239152e-002 6.263844e-002 3.788626e-002 5.669144e-003 8.120686e-003 6.286332e-003 9.549928e-003 8.325567e-003 1.253033e-002 1.096554e-002 1.055378e-002 1.070745e-002 7.613365e-003 7.834131e-003 6.875400e-003 2.643829e-003 4.232776e-004 7.749854e-004 7.118174e-004 1.007282e-003 8.508100e-004 9.122292e-004 1.163563e-003 1.116315e-003 1.014500e-003 9.527754e-004 9.401336e-004 8.472034e-004 4.218960e-004
<GCONST> -1.217788e+002
<TRANSP> 5
 0.000000e+000 1.000000e+000 0.000000e+000 0.000000e+000 0.000000e+000
 0.000000e+000 6.700750e-001 3.299250e-001 0.000000e+000 0.000000e+000
 0.000000e+000 0.000000e+000 8.246288e-001 1.753711e-001 0.000000e+000
 0.000000e+000 0.000000e+000 0.000000e+000 6.967120e-001 3.032880e-001
 0.000000e+000 0.000000e+000 0.000000e+000 0.000000e+000 0.000000e+000
<ENDHMM>
~h "Z"
<BEGINHMM>
<NUMSTATES> 5
<STATE> 2
<NUMMIXES> 8
<MIXTURE> 1 6.615270e-002
<MEAN> 39
 -1.736396e-001 5.162791e-001 -1.722385e-001 9.902226e-002 -4.609503e-001 7.040221e-002 -5.830849e-002 -1.574931e-001 5.789697e-002 -9.870309e-002 -1.679258e-001 -8.178097e-002 3.827650e-001 -1.182901e-001 1.539971e-001 2.095404e-002 9.988854e-002 1.364934e-002 -8.150411e-004 -1.382747e-002 -3.223374e-002 -1.105542e-002 -4.001189e-002 2.201915e-002 -1.033578e-002 -5.268589e-002 5.374270e-003 -4.007933e-002 1.713204e-002 -1.788004e-002 3.003544e-002 -6.049169e-003 9.399769e-003 -5.776868e-003 -5.048837e-003 8.389784e-003 5.433003e-003 1.830872e-002 3.325672e-003
<VARIANCE> 39
 2.266711e-002 5.521207e-002 3.929230e-002 4.976419e-002 5.755088e-002 5.496714e-002 8.801551e-002 7.245987e-002 5.571428e-002 5.289262e-002 5.036682e-002 4.256342e-002 2.820699e-002 3.006066e-003 6.406025e-003 4.251413e-003 5.127153e-003 6.284041e-003 5.268049e-003 6.212239e-003 7.141160e-003 6.192680e-003 4.536055e-003 4.768640e-003 3.989556e-003 1.436707e-003 4.653357e-004 7.249762e-004 5.552981e-004 7.694676e-004 8.002985e-004 9.459262e-004 1.065986e-003 1.119127e-003 9.281694e-004 8.513142e-004 8.459523e-004 5.464168e-004 2.402229e-004
<GCONST> -1.316934e+002
<MIXTURE> 2 1.983304e-001
<MEAN> 39
 4.660458e-003 8.157000e-002 6.093420e-002 -1.150283e-001 -2.551999e-001 -2.760999e-001 3.171569e-001 -1.686978e-002 -2.233290e-002 1.111609e-001 1.208609e-002 -1.449127e-001 5.136061e-001 -6.910901e-002 8.536220e-002 4.977931e-003 3.467922e-002 2.621714e-002 -2.587709e-002 1.611124e-002 -2.087278e-002 -2.483026e-003 -1.822362e-003 2.921572e-003 2.100047e-002 -2.993520e-002 -6.936887e-003 5.507748e-003 -3.943195e-003 -6.502189e-004 4.071707e-003 1.273826e-002 -1.292569e-002 -5.115675e-004 5.117690e-004 -8.331385e-003 -9.713141e-004 9.965603e-003 -3.189912e-003
<VARIANCE> 39
 1.976586e-002 4.092746e-002 4.870573e-002 5.572039e-002 4.856801e-002 6.727315e-002 5.380976e-002 6.675461e-002 4.628571e-002 4.322894e-002 4.615087e-002 3.414373e-002 3.069370e-002 2.125807e-003 3.895738e-003 2.723733e-003 3.159687e-003 3.851324e-003 5.455876e-003 5.257517e-003 4.902655e-003 5.009040e-003 4.213453e-003 3.856145e-003 3.665882e-003 1.198799e-003 3.667770e-004 4.359530e-004 4.456291e-004 4.327429e-004 5.064622e-004 6.629298e-004 6.732101e-004 6.714607e-004 6.927233e-004 6.478321e-004 5.797079e-004 5.464431e-004 1.610415e-004
<GCONST> -1.411580e+002
<MIXTURE> 3 1.220352e-001
<MEAN> 39
 1.273323e-001 -6.799917e-002 1.085493e-002 -2.821922e-001 -2.515971e-001 -8.157813e-002 1.655991e-001 -1.943954e-001 2.895806e-002 4.953337e-002 -1.409459e-001 6.525291e-003 4.929613e-001 -8.075354e-002 1.312316e-001 8.274576e-003 3.300409e-002 -2.866874e-002 -2.516952e-002 1.213961e-002 3.935059e-003 -3.456384e-003 -8.290395e-003 -2.119222e-002 -1.198839e-002 3.236202e-003 -3.440626e-002 2.949276e-002 1.738123e-003 3.223436e-002 1.780567e-002 4.446790e-003 -1.479093e-002 1.580300e-003 -1.031410e-002 -5.981360e-003 1.006596e-002 3.575657e-003 -2.285123e-002
<VARIANCE> 39
 2.549572e-002 7.485399e-002 5.924911e-002 6.321856e-002 6.173483e-002 7.421888e-002 8.496443e-002 7.641335e-002 6.097583e-002 5.282826e-002 4.993106e-002 5.230962e-002 4.807421e-002 4.885518e-003 1.012211e-002 6.104216e-003 7.513717e-003 7.846638e-003 7.387732e-003 7.944496e-003 7.196053e-003 7.136724e-003 6.556534e-003 5.260307e-003 4.659894e-003 8.217251e-003 5.770663e-004 8.933814e-004 9.032234e-004 8.390184e-004 1.005844e-003 1.032387e-003 1.089759e-003 1.076850e-003 1.035270e-003 9.776921e-004 8.267326e-004 7.521990e-004 8.229274e-004
<GCONST> -1.213327e+002
<MIXTURE> 4 1.870971e-001
<MEAN> 39
 -3.209792e-001 4.799008e-001 9.811740e-002 -9.655717e-002 -5.614146e-002 -3.663990e-001 3.169496e-001 -2.412853e-001 -6.838769e-002 1.626151e-001 -1.753146e-001 3.524074e-002 3.851201e-001 -9.861786e-002 8.376896e-002 2.560475e-002 4.789096e-002 5.652605e-002 -1.550979e-002 7.679410e-003 -2.940561e-002 -3.387669e-002 6.344605e-004 2.565819e-004 2.946360e-002 -3.776053e-002 2.783725e-002 -3.707715e-002 -6.831297e-003 -4.093084e-003 -1.863441e-002 2.727582e-002 -1.768337e-002 1.288682e-002 1.263604e-002 -1.893658e-002 1.497159e-002 -6.596367e-003 5.221914e-003
<VARIANCE> 39
 2.861227e-002 4.160814e-002 5.057494e-002 5.831590e-002 5.588153e-002 5.738586e-002 7.238051e-002 6.942321e-002 6.108551e-002 4.680287e-002 6.236958e-002 3.962106e-002 3.373853e-002 3.464878e-003 4.731074e-003 4.195148e-003 4.433568e-003 4.940146e-003 4.307395e-003 5.257875e-003 5.724354e-003 6.782361e-003 4.981508e-003 4.711043e-003 3.593729e-003 1.568671e-003 5.458027e-004 6.296966e-004 6.967541e-004 7.307442e-004 8.131177e-004 8.423663e-004 1.054029e-003 1.011252e-003 1.160321e-003 8.580037e-004 8.666115e-004 7.212734e-004 3.424502e-004
<GCONST> -1.313914e+002
<MIXTURE> 5 3.762536e-002
<MEAN> 39
 -3.688675e-001 1.856087e-001 -2.345500e-001 -2.980138e-001 -5.065594e-001 -1.802385e-001 -1.736363e-001 -2.914377e-001 2.326654e-001 1.583461e-001 2.568693e-001 4.341621e-001 4.763215e-001 -7.582469e-002 1.470417e-001 3.638752e-002 8.154929e-002 -8.078268e-003 2.933845e-003 7.655982e-003 -3.328221e-002 -3.327043e-002 -5.236917e-002 -7.264362e-002 -2.638378e-002 -4.489263e-002 1.742371e-002 -1.886964e-002 -1.053295e-004 6.487682e-003 2.389083e-002 -2.868433e-004 5.083004e-003 1.791414e-002 -8.158790e-003 4.929985e-003 3.836370e-003 -1.133739e-002 -4.694894e-003
<VARIANCE> 39
 2.285751e-002 8.359873e-002 5.499387e-002 5.695120e-002 5.077846e-002 6.591261e-002 8.811909e-002 7.962764e-002 1.226312e-001 1.519997e-001 1.112132e-001 4.889354e-002 2.779375e-002 3.080693e-003 6.076828e-003 5.801992e-003 6.797073e-003 6.595410e-003 6.633010e-003 8.346231e-003 8.452021e-003 1.049190e-002 8.552371e-003 8.068744e-003 5.954165e-003 1.505331e-003 7.578847e-004 1.153610e-003 1.123192e-003 9.596974e-004 1.058655e-003 1.309667e-003 1.496074e-003 1.348130e-003 1.852275e-003 1.740635e-003 1.273896e-003 1.086446e-003 2.782913e-004
<GCONST> -1.187872e+002
<MIXTURE> 6 2.061922e-001
<MEAN> 39
 -2.320250e-001 2.286889e-001 2.640129e-001 -6.388535e-002 -2.176589e-001 -1.862817e-001 4.195621e-002 6.510589e-002 -9.087263e-002 -1.566390e-001 6.634334e-002 5.551298e-002 4.051411e-001 -1.301644e-001 9.968805e-002 6.147966e-002 2.807744e-002 3.137356e-002 2.766216e-002 -2.109252e-003 -4.149622e-002 -2.600963e-002 -2.042624e-003 1.061854e-002 2.332781e-002 -2.922817e-002 2.770671e-002 -2.096186e-002 -3.185571e-002 3.726235e-003 1.006321e-002 -5.464893e-003 6.747131e-003 -7.776687e-003 6.641094e-003 1.406417e-002 -6.914249e-003 -7.867138e-003 -3.264367e-003
<VARIANCE> 39
 3.831246e-002 4.598467e-002 7.029033e-002 7.484392e-002 9.394771e-002 7.910717e-002 7.013013e-002 8.035295e-002 6.863116e-002 4.984651e-002 5.971109e-002 4.692886e-002 2.907103e-002 4.415229e-003 4.760174e-003 5.269407e-003 5.177562e-003 5.537107e-003 5.413369e-003 6.904162e-003 6.729720e-003 6.504597e-003 6.159065e-003 5.502061e-003 4.148645e-003 1.532420e-003 7.725651e-004 7.103990e-004 1.019084e-003 9.328435e-004 1.240563e-003 1.067495e-003 1.246078e-003 1.286991e-003 1.340257e-003 1.078136e-003 1.032734e-003 8.847210e-004 3.270658e-004
<GCONST> -1.245886e+002
<MIXTURE> 7 1.140527e-001
<MEAN> 39
 -1.729401e-001 4.474264e-001 -6.623161e-002 -2.420794e-001 -4.136398e-001 -2.900221e-002 -1.046366e-002 -2.473984e-001 2.694189e-001 -1.611677e-001 -3.084324e-001 1.332870e-001 4.857902e-001 -7.865597e-002 8.323321e-002 2.149116e-002 7.443514e-002 5.287976e-003 -2.483514e-002 3.420763e-002 -4.739039e-002 -2.618128e-002 1.481291e-002 -2.497021e-002 4.701832e-004 -2.141969e-002 -1.177143e-003 -8.497586e-003 7.326732e-003 -3.319143e-003 2.173035e-002 -6.735617e-003 -5.965922e-003 1.231668e-002 -1.889303e-002 8.728649e-003 1.589621e-002 -3.548093e-003 -2.848891e-003
<VARIANCE> 39
 2.153173e-002 4.814880e-002 4.269627e-002 5.566987e-002 4.983635e-002 4.818968e-002 7.145379e-002 5.400687e-002 4.933017e-002 5.613403e-002 4.363392e-002 4.124374e-002 2.490478e-002 2.168307e-003 3.764530e-003 3.447852e-003 4.734068e-003 4.833287e-003 4.214391e-003 5.325337e-003 6.444469e-003 5.382481e-003 4.634272e-003 4.596752e-003 4.102987e-003 7.554636e-004 2.701213e-004 4.365583e-004 4.161347e-004 5.911897e-004 6.950944e-004 7.498083e-004 8.186399e-004 8.715536e-004 8.062064e-004 7.294285e-004 7.412984e-004 5.322202e-004 9.601159e-005
<GCONST> -1.393476e+002
<MIXTURE> 8 6.847285e-002
<MEAN> 39
 -5.082405e-001 5.330736e-001 1.216260e-001 2.287061e-001 -3.267507e-002 -3.439931e-002 4.348977e-002 -2.402694e-001 -3.810854e-002 -1.467335e-001 -1.418942e-002 6.154305e-002 1.978753e-001 -9.048314e-002 5.199286e-002 1.534920e-002 5.099752e-002 4.190040e-002 1.744045e-002 3.718866e-002 -3.090806e-002 -4.743102e-003 -4.602859e-003 6.997251e-003 1.127346e-002 -1.941591e-002 5.492776e-002 -4.844134e-002 -1.923092e-002 -3.613462e-002 -1.610212e-002 -6.162042e-003 1.523905e-003 1.813925e-002 8.689106e-003 1.686109e-002 -5.387887e-003 -4.418135e-003 9.055453e-003
<VARIANCE> 39
 4.141323e-002 8.070848e-002 8.804429e-002 7.918910e-002 8.910638e-002 8.901088e-002 1.097369e-001 1.040838e-001 7.937618e-002 6.723974e-002 6.490029e-002 4.051260e-002 4.608142e-002 8.449738e-003 7.933108e-003 5.466487e-003 8.866972e-003 9.554065e-003 7.643029e-003 7.875740e-003 9.554641e-003 7.718163e-003 7.376635e-003 6.715702e-003 4.398128e-003 5.971905e-003 1.017527e-003 1.596701e-003 1.431276e-003 1.360446e-003 1.407829e-003 1.584551e-003 1.818541e-003 1.813752e-003 1.683130e-003 1.350433e-003 1.215032e-003 9.336785e-004 6.490079e-004
<GCONST> -1.125772e+002
<STATE> 3
<NUMMIXES> 8
<MIXTURE> 1 7.818811e-002
<MEAN> 39
 -5.873868e-001 5.752741e-001 1.245342e-001 3.372220e-001 -1.454274e-001 1.560657e-001 1.509200e-002 -2.379525e-001 6.499727e-003 -1.137667e-001 -7.807416e-003 -1.116390e-002 2.302592e-001 -2.621383e-002 -2.996562e-003 3.921536e-003 1.435111e-002 1.127068e-002 2.215696e-002 1.635508e-003 -9.017281e-003 3.335560e-003 8.099077e-004 1.030759e-002 6.812078e-003 -7.979543e-003 4.957505e-002 -2.156656e-002 -1.536478e-002 -4.047252e-002 -2.354253e-002 -1.914469e-002 -1.866676e-003 1.122675e-002 6.341920e-003 5.009447e-003 -1.555027e-002 1.094882e-003 1.598480e-002
<VARIANCE> 39
 3.620861e-002 5.734418e-002 7.467183e-002 4.668429e-002 7.915368e-002 5.909351e-002 8.608338e-002 8.693270e-002 8.698590e-002 6.433690e-002 5.609569e-002 4.219277e-002 2.555219e-002 2.560646e-003 1.852514e-003 2.027350e-003 2.988209e-003 3.369786e-003 3.825189e-003 4.390723e-003 4.429606e-003 4.215331e-003 4.032508e-003 3.833324e-003 2.339889e-003 5.206431e-004 4.779732e-004 8.466689e-004 6.996937e-004 7.788498e-004 9.076675e-004 7.669384e-004 1.055588e-003 1.147787e-003 1.161713e-003 1.061930e-003 7.979564e-004 5.994902e-004 1.772663e-004
<GCONST> -1.356022e+002
<MIXTURE> 2 2.506710e-001
<MEAN> 39
 -3.724532e-001 3.582559e-001 2.776402e-001 -1.515198e-001 -8.776393e-002 -2.019947e-001 1.137595e-001 1.985051e-002 -1.732837e-001 3.634535e-002 5.800536e-002 1.330665e-002 4.292242e-001 2.485058e-002 -1.805806e-002 -1.988205e-002 -9.572274e-003 -1.193226e-002 -9.929476e-003 1.975158e-002 9.739845e-004 2.945060e-003 1.039550e-002 -3.619449e-003 -8.217068e-003 9.384832e-003 3.975930e-002 -2.957682e-002 -1.748622e-002 -5.405227e-003 -1.540595e-002 -3.042123e-003 6.505708e-003 -4.196262e-003 1.671264e-002 7.842169e-004 -1.030097e-002 -6.626405e-003 7.251523e-003
<VARIANCE> 39
 4.217656e-002 4.100326e-002 5.554216e-002 6.031943e-002 7.778400e-002 8.287952e-002 8.061172e-002 7.427457e-002 5.296651e-002 6.077339e-002 7.106216e-002 4.028704e-002 3.847535e-002 3.909281e-003 2.734995e-003 2.788966e-003 2.473723e-003 3.074996e-003 3.032041e-003 3.756883e-003 3.931318e-003 3.874840e-003 3.994444e-003 4.020959e-003 2.756259e-003 6.004830e-004 4.478807e-004 6.072702e-004 5.664558e-004 5.898016e-004 7.165312e-004 6.901308e-004 8.539596e-004 8.374731e-004 8.613712e-004 9.060302e-004 8.352777e-004 6.206927e-004 1.608457e-004
<GCONST> -1.373069e+002
<MIXTURE> 3 7.738914e-002
<MEAN> 39
 -4.582079e-001 7.123531e-001 2.104132e-002 1.655737e-002 -1.943998e-001 -1.987774e-001 1.005392e-001 -4.531500e-001 1.530695e-001 -8.780266e-002 -3.306869e-001 1.622530e-001 3.744093e-001 1.798687e-002 -1.666574e-002 -1.881201e-002 -8.150296e-003 -2.407674e-002 1.293437e-002 4.304785e-003 2.750115e-003 2.210206e-002 -7.659730e-003 5.644044e-003 -5.684761e-003 1.223299e-002 3.609821e-002 -3.962018e-002 -1.313672e-002 -2.637923e-002 -1.781289e-002 1.472092e-002 -4.876446e-003 2.487105e-002 1.012587e-003 -2.691642e-003 1.498497e-002 -7.638044e-003 1.187549e-002
<VARIANCE> 39
 1.835205e-002 2.757364e-002 4.360362e-002 5.889964e-002 7.727878e-002 5.001898e-002 7.486317e-002 4.436165e-002 5.091961e-002 5.509422e-002 4.718251e-002 4.335614e-002 2.247116e-002 1.766785e-003 1.993413e-003 2.146842e-003 3.141876e-003 3.509456e-003 3.513822e-003 3.487203e-003 3.343072e-003 4.119069e-003 3.843680e-003 3.252832e-003 2.159003e-003 5.702090e-004 2.868060e-004 6.616465e-004 5.422352e-004 6.419506e-004 7.502764e-004 6.876806e-004 8.571760e-004 8.162922e-004 7.710634e-004 7.610749e-004 7.205060e-004 5.951599e-004 1.274710e-004
<GCONST> -1.434951e+002
<MIXTURE> 4 2.868977e-001
<MEAN> 39
 -5.429553e-001 4.275839e-001 1.597431e-001 1.203683e-001 1.709311e-002 -1.634475e-001 2.669342e-001 -2.432826e-001 -4.932623e-002 -1.133449e-002 -3.364566e-002 1.125528e-001 2.332275e-001 3.728037e-002 1.235071e-003 -3.333262e-002 1.658305e-002 -2.147729e-002 1.892857e-002 -1.010409e-002 -7.829399e-003 1.695829e-002 -5.254099e-003 4.579324e-004 -1.210324e-002 -2.795692e-002 6.722293e-002 -3.726996e-002 -1.370206e-002 -2.548319e-002 -2.433912e-002 -4.290906e-004 -2.191078e-002 2.164802e-002 5.067144e-003 9.968631e-004 -2.380266e-004 -1.532179e-002 7.024323e-003
<VARIANCE> 39
 6.487320e-002 6.513494e-002 8.333927e-002 6.550694e-002 9.623464e-002 1.016484e-001 1.090614e-001 9.876793e-002 9.903172e-002 8.141340e-002 7.616869e-002 4.838636e-002 4.044312e-002 9.994930e-003 5.273739e-003 5.741360e-003 7.397631e-003 7.644075e-003 7.263898e-003 8.351276e-003 8.271551e-003 7.587435e-003 7.044728e-003 6.093469e-003 4.463178e-003 5.222820e-003 8.242567e-004 1.409487e-003 1.553425e-003 1.215162e-003 1.545560e-003 1.587315e-003 1.748736e-003 1.750011e-003 1.903390e-003 1.550861e-003 1.300413e-003 9.989804e-004 7.162791e-004
<GCONST> -1.126789e+002
<MIXTURE> 5 1.244360e-001
<MEAN> 39
 -1.882869e-001 3.375137e-001 -4.938198e-003 3.035353e-004 -2.522283e-001 -2.626732e-001 3.157784e-001 -1.677963e-001 6.591084e-002 5.629456e-002 -3.891069e-002 -1.577867e-002 4.474200e-001 1.371764e-002 -1.813760e-002 -1.595236e-003 -9.567318e-003 -9.780808e-003 2.600883e-003 4.143164e-003 4.966643e-003 -1.642878e-003 3.898794e-003 3.852240e-003 -5.794641e-003 9.471535e-003 1.971197e-002 -2.137852e-002 4.130195e-003 -1.455852e-002 -4.141750e-003 5.150299e-003 -9.780936e-003 1.160150e-002 -1.748284e-003 6.238744e-004 -5.710595e-004 -8.033546e-003 5.148604e-003
<VARIANCE> 39
 2.019043e-002 5.167786e-002 4.122189e-002 5.224165e-002 5.676734e-002 7.581464e-002 6.683367e-002 6.929360e-002 4.773543e-002 4.755116e-002 5.421046e-002 4.124315e-002 2.910565e-002 1.424821e-003 1.656985e-003 1.346225e-003 1.874590e-003 2.054636e-003 2.313683e-003 2.566532e-003 2.803283e-003 2.995875e-003 2.498924e-003 2.507650e-003 2.182488e-003 5.178608e-004 2.244184e-004 4.083652e-004 2.768167e-004 3.663990e-004 4.484110e-004 5.217161e-004 6.071266e-004 5.714955e-004 5.585708e-004 5.370022e-004 5.077806e-004 4.682170e-004 1.352983e-004
<GCONST> -1.509401e+002
<MIXTURE> 6 7.971232e-002
<MEAN> 39
 -4.423361e-001 7.268717e-001 3.566396e-002 3.316577e-002 -1.921945e-001 -1.302332e-001 -5.504171e-002 -3.052992e-001 6.530949e-002 -1.685110e-001 -2.349217e-001 1.454446e-001 3.455378e-001 -4.987422e-002 2.354319e-002 2.058942e-002 4.775103e-002 4.036611e-002 1.278816e-004 2.854257e-003 -2.907017e-002 -2.037484e-002 6.792599e-004 7.579501e-003 8.899527e-003 -1.569469e-002 1.985929e-002 -2.196021e-002 -9.572822e-003 -1.442232e-002 -1.080262e-002 5.933879e-003 3.771811e-003 8.856486e-003 7.495956e-003 5.210358e-003 3.841382e-003 -5.862847e-003 6.256324e-003
<VARIANCE> 39
 2.408972e-002 3.508011e-002 5.606383e-002 6.492962e-002 7.066879e-002 5.206163e-002 6.530499e-002 6.764668e-002 5.721468e-002 5.521153e-002 4.860685e-002 4.573122e-002 2.631976e-002 1.244514e-003 1.577126e-003 1.648690e-003 3.183963e-003 2.943204e-003 3.183676e-003 3.423171e-003 3.878207e-003 3.528093e-003 3.354003e-003 3.359108e-003 2.299875e-003 4.105939e-004 1.990906e-004 3.231551e-004 3.291565e-004 5.446854e-004 5.666384e-004 5.449340e-004 6.030884e-004 7.597395e-004 7.423873e-004 6.461140e-004 5.496290e-004 4.589028e-004 8.262819e-005
<GCONST> -1.473896e+002
<MIXTURE> 7 1.924307e-002
<MEAN> 39
 -3.628702e-001 2.711384e-001 -1.870167e-001 -3.288939e-001 -5.059101e-001 -2.089209e-001 -1.492893e-001 -2.756993e-001 1.650440e-001 8.346665e-002 1.157651e-001 4.730296e-001 4.564208e-001 4.199340e-002 -4.481174e-002 -2.971523e-002 -1.866422e-002 -9.212285e-003 6.711923e-003 1.897077e-002 3.086575e-005 1.986837e-003 -1.660416e-003 4.008884e-004 6.691807e-003 1.282410e-002 2.158865e-002 -3.085434e-002 -2.630545e-003 -9.001154e-003 7.721719e-003 -1.237972e-003 7.770671e-003 9.693945e-003 1.257057e-003 1.761597e-003 1.344408e-002 -1.097699e-002 4.813069e-003
<VARIANCE> 39
 1.989544e-002 6.348073e-002 5.307895e-002 4.942666e-002 4.139938e-002 5.753538e-002 6.568900e-002 6.686379e-002 1.203547e-001 1.850060e-001 1.413356e-001 3.602957e-002 2.695539e-002 2.090947e-003 4.608813e-003 3.597960e-003 2.703285e-003 3.717448e-003 3.524323e-003 4.854207e-003 5.298825e-003 5.448152e-003 9.110730e-003 8.194684e-003 4.388454e-003 8.796753e-004 3.068452e-004 7.449556e-004 6.151554e-004 6.134208e-004 6.905320e-004 7.122282e-004 9.062450e-004 8.535454e-004 1.009809e-003 1.435810e-003 1.179893e-003 7.071577e-004 1.429889e-004
<GCONST> -1.321600e+002
<MIXTURE> 8 8.341377e-002
<MEAN> 39
 -5.276679e-001 6.423540e-001 1.132421e-001 2.388198e-001 -1.715733e-001 -6.961202e-003 3.944477e-003 -3.771545e-001 1.712699e-002 -1.274441e-001 -1.036856e-001 5.968507e-002 2.709158e-001 1.253266e-001 -6.667534e-002 -5.953843e-002 -9.910913e-002 -8.491246e-002 -1.165650e-002 -4.964593e-003 4.058234e-002 3.233312e-002 8.271163e-003 -1.845508e-002 -1.256281e-002 5.296691e-002 4.891695e-002 -5.350342e-002 -1.618860e-002 -4.877046e-002 -7.539397e-003 -9.992676e-003 1.291350e-002 2.697809e-002 5.942691e-003 1.071710e-002 -3.365732e-003 -3.773838e-003 2.125854e-002
<VARIANCE> 39
 2.640808e-002 5.027955e-002 6.779795e-002 5.289839e-002 7.725269e-002 8.564015e-002 1.020702e-001 8.498436e-002 7.800511e-002 6.343486e-002 6.245412e-002 4.699325e-002 2.351075e-002 4.794052e-003 3.875884e-003 3.666024e-003 4.796076e-003 4.485070e-003 5.546776e-003 6.502938e-003 6.231865e-003 5.771216e-003 4.904658e-003 4.917197e-003 4.146983e-003 1.223933e-003 4.746720e-004 7.364519e-004 7.488742e-004 8.682281e-004 1.033149e-003 1.108944e-003 9.937490e-004 1.239180e-003 1.215757e-003 9.992752e-004 9.039085e-004 7.317146e-004 2.428518e-004
<GCONST> -1.283412e+002
<STATE> 4
<NUMMIXES> 8
<MIXTURE> 1 8.373936e-002
<MEAN> 39
 -6.506198e-002 2.282660e-001 3.485751e-003 -9.626517e-002 -3.201446e-001 -2.483274e-001 4.151326e-001 -2.631523e-001 1.510172e-001 1.203305e-001 -5.093470e-002 -1.170434e-001 4.800411e-001 8.188792e-002 -9.605269e-002 1.123562e-002 -6.650173e-002 -3.800305e-002 4.164257e-002 -4.128543e-002 4.290630e-002 1.374938e-002 1.848620e-003 1.273363e-003 -3.179491e-002 3.521027e-002 -4.098252e-003 -3.839066e-003 8.372465e-003 -8.837027e-003 1.129892e-002 1.180917e-002 -2.509001e-002 1.796901e-002 -1.287173e-002 -4.174760e-003 8.539874e-005 7.510270e-003 -2.716677e-003
<VARIANCE> 39
 1.913614e-002 3.163530e-002 4.158016e-002 4.811557e-002 4.150803e-002 4.630472e-002 4.264304e-002 3.708708e-002 3.479921e-002 3.868083e-002 4.424100e-002 3.051571e-002 2.658162e-002 2.244770e-003 4.309337e-003 3.245333e-003 3.983330e-003 4.719703e-003 5.286449e-003 6.270531e-003 3.813406e-003 5.323034e-003 4.149027e-003 3.421478e-003 3.547528e-003 1.033038e-003 3.694083e-004 4.245216e-004 4.098908e-004 5.309994e-004 5.007436e-004 5.365535e-004 6.131595e-004 5.371118e-004 6.600681e-004 6.080583e-004 5.221682e-004 4.747663e-004 1.528705e-004
<GCONST> -1.442423e+002
<MIXTURE> 2 2.484597e-001
<MEAN> 39
 6.101761e-002 -1.853026e-002 9.686550e-002 -2.266189e-001 -1.784597e-001 -3.689291e-001 3.673407e-001 6.709930e-002 -9.039080e-002 1.063471e-001 6.615289e-002 -1.233993e-001 5.351785e-001 8.844196e-002 -1.071636e-001 -2.530329e-002 -3.171590e-002 -3.516843e-002 2.099792e-002 6.427911e-003 9.411876e-003 1.846308e-002 -5.926009e-003 1.776616e-003 -3.308880e-002 3.589898e-002 -1.927271e-002 1.334100e-002 -4.606452e-003 1.149457e-002 4.829893e-003 2.179972e-002 -1.960342e-002 -7.012451e-003 5.139389e-003 -1.434776e-002 -6.490202e-004 9.871317e-003 -5.894374e-003
<VARIANCE> 39
 2.947648e-002 6.125729e-002 4.375945e-002 4.978141e-002 4.593162e-002 5.395527e-002 5.479807e-002 5.802806e-002 4.092513e-002 5.230245e-002 4.286395e-002 4.034704e-002 3.598944e-002 4.741405e-003 5.540300e-003 4.539980e-003 4.527210e-003 5.562319e-003 6.822229e-003 6.908373e-003 7.295610e-003 7.139484e-003 6.639052e-003 5.074655e-003 4.117876e-003 1.537777e-003 6.502838e-004 8.452034e-004 5.714911e-004 6.303824e-004 6.614952e-004 7.183192e-004 9.011675e-004 8.140729e-004 8.222724e-004 8.213833e-004 7.124678e-004 6.880525e-004 1.807855e-004
<GCONST> -1.322657e+002
<MIXTURE> 3 9.504540e-002
<MEAN> 39
 8.007917e-002 -3.340819e-002 6.791089e-002 -4.245578e-001 -2.865291e-001 5.389192e-003 1.359393e-001 -1.446957e-001 1.738622e-001 9.405933e-002 -2.235523e-001 -2.636328e-002 5.965624e-001 4.757230e-002 -1.181112e-001 1.278412e-002 -9.543568e-002 4.288523e-002 1.787383e-002 -1.028084e-002 1.841476e-002 1.105050e-002 6.209285e-003 6.936873e-003 3.034642e-002 4.381429e-002 -3.316260e-002 3.451670e-002 -7.840125e-003 2.931808e-002 1.408075e-002 -1.607271e-003 -9.641609e-003 -5.771878e-003 -1.562062e-002 -9.959739e-003 1.516511e-002 6.989413e-003 -1.149378e-002
<VARIANCE> 39
 1.532514e-002 5.176525e-002 4.130750e-002 5.212848e-002 3.733493e-002 3.944571e-002 5.561369e-002 4.949388e-002 4.725461e-002 4.006138e-002 2.997324e-002 3.820289e-002 3.023822e-002 2.597863e-003 6.673119e-003 3.085729e-003 4.739469e-003 4.683075e-003 5.603632e-003 6.438202e-003 5.921947e-003 5.839778e-003 4.875338e-003 3.782855e-003 3.162494e-003 1.460816e-003 3.415172e-004 5.000325e-004 4.913158e-004 6.374267e-004 5.877762e-004 5.864128e-004 6.824624e-004 7.300391e-004 6.878801e-004 5.642931e-004 5.535283e-004 5.509284e-004 1.461014e-004
<GCONST> -1.402550e+002
<MIXTURE> 4 6.344169e-002
<MEAN> 39
 -1.099578e-001 3.831230e-001 -1.130342e-001 -1.684864e-002 -5.114327e-001 1.426954e-001 -5.746193e-002 -9.674840e-002 1.064293e-001 -8.696149e-002 -1.458993e-001 -8.812440e-002 4.468357e-001 1.197239e-001 -1.448569e-001 -1.541216e-002 -1.190314e-001 7.818700e-003 -1.360436e-002 1.306328e-002 4.995055e-002 1.062735e-002 3.975726e-002 -2.721986e-002 3.188452e-003 5.176971e-002 -7.041691e-003 -1.880908e-002 1.594267e-002 -1.490554e-002 3.690924e-002 -2.041727e-002 1.361360e-002 -1.018589e-002 -5.549712e-003 4.849965e-003 5.107948e-003 1.646723e-002 8.468369e-005
<VARIANCE> 39
 1.534279e-002 4.096266e-002 5.240100e-002 4.848309e-002 4.170321e-002 3.749163e-002 6.492827e-002 5.242182e-002 5.355398e-002 5.388447e-002 5.342617e-002 5.301004e-002 2.548610e-002 3.748678e-003 6.540290e-003 4.662589e-003 6.948921e-003 5.120682e-003 5.021433e-003 6.408397e-003 7.447746e-003 6.434814e-003 4.218629e-003 4.671336e-003 4.221618e-003 1.991263e-003 4.037853e-004 4.695933e-004 5.629921e-004 6.676669e-004 6.698395e-004 6.545298e-004 7.435079e-004 8.193018e-004 8.013095e-004 7.031636e-004 7.720425e-004 5.678045e-004 1.944957e-004
<GCONST> -1.350355e+002
<MIXTURE> 5 8.160692e-002
<MEAN> 39
 7.999068e-002 2.221874e-001 9.868863e-002 1.259074e-001 -3.237323e-002 -6.231979e-002 -1.364555e-001 -6.452000e-002 -1.736792e-001 -3.455931e-002 -2.095295e-002 -4.654448e-002 -1.087842e-001 1.650971e-001 -8.595899e-002 1.589096e-002 -1.197873e-001 9.278923e-003 -6.816334e-002 -5.071599e-002 1.844253e-002 -2.168775e-002 3.889857e-002 -1.352948e-002 -1.437055e-002 -6.764527e-005 -2.520948e-002 2.618353e-003 -8.638606e-003 -1.624361e-002 -6.813985e-003 -1.555577e-002 2.322195e-002 -7.596523e-003 1.668983e-002 1.123062e-003 -1.738842e-004 1.069610e-002 4.103125e-002
<VARIANCE> 39
 5.355738e-002 5.046249e-002 4.614950e-002 7.362177e-002 8.958644e-002 8.067264e-002 8.252969e-002 8.614740e-002 6.527796e-002 6.363554e-002 5.941055e-002 3.819441e-002 7.006744e-002 5.310598e-003 7.457695e-003 8.309837e-003 9.764382e-003 1.113685e-002 1.143167e-002 1.218633e-002 1.183488e-002 9.663054e-003 8.308559e-003 7.519392e-003 5.980578e-003 7.877722e-003 8.777608e-004 1.033596e-003 1.015719e-003 1.389044e-003 1.581332e-003 1.563088e-003 1.619795e-003 1.836553e-003 1.386999e-003 1.198977e-003 1.239809e-003 7.749341e-004 8.917987e-004
<GCONST> -1.128843e+002
<MIXTURE> 6 1.512861e-001
<MEAN> 39
 -1.892055e-001 4.247724e-001 -8.479206e-002 2.221254e-001 -2.769979e-001 -6.683995e-002 6.140423e-002 -8.502306e-002 -2.079350e-003 -7.476845e-002 -2.564555e-002 -1.701774e-002 1.492973e-001 1.224582e-001 -5.031264e-002 2.407351e-002 4.232452e-003 3.613344e-003 1.832977e-002 -6.968364e-002 3.227112e-002 -4.641662e-002 4.396889e-004 -7.047866e-003 -1.975353e-002 -1.085986e-001 2.359754e-002 -2.422779e-002 2.319571e-002 -3.229247e-002 2.117299e-002 -1.446620e-002 -3.462583e-003 -5.915247e-003 -1.179265e-002 6.322197e-003 -3.845610e-003 3.958234e-003 -2.386558e-003
<VARIANCE> 39
 5.240447e-002 7.218475e-002 6.038862e-002 7.886506e-002 9.758341e-002 1.166592e-001 1.126658e-001 8.567379e-002 6.687871e-002 6.356320e-002 6.644920e-002 4.333279e-002 8.038863e-002 4.978545e-003 5.947870e-003 6.320910e-003 7.454046e-003 7.753636e-003 8.485810e-003 9.392908e-003 8.744082e-003 7.155088e-003 6.840514e-003 5.587112e-003 4.425859e-003 5.827015e-003 8.337528e-004 1.439643e-003 1.170593e-003 1.688338e-003 1.361570e-003 1.920524e-003 1.772051e-003 1.847515e-003 1.447162e-003 1.394950e-003 1.191405e-003 8.336849e-004 1.425632e-003
<GCONST> -1.130382e+002
<MIXTURE> 7 1.484918e-001
<MEAN> 39
 -2.785265e-001 5.182152e-001 -2.172431e-002 -1.285399e-001 -3.047807e-001 -1.620223e-001 1.235147e-001 -3.000423e-001 1.294499e-001 -8.442806e-002 -2.187351e-001 1.096027e-001 4.349629e-001 1.421938e-001 -1.276870e-001 -6.114544e-002 -9.496903e-002 -6.669017e-002 1.816982e-002 5.296093e-003 5.406117e-002 4.309359e-002 -3.828180e-003 1.331313e-002 -3.021987e-002 5.169199e-002 1.244123e-002 -3.878966e-002 7.126370e-003 -9.564899e-003 1.840718e-002 3.940872e-003 -5.555828e-003 1.474162e-002 -1.295290e-002 7.237302e-003 1.607394e-002 -6.011005e-003 1.982467e-003
<VARIANCE> 39
 1.914059e-002 3.648260e-002 5.286550e-002 5.483448e-002 7.193456e-002 6.515296e-002 9.572886e-002 6.965705e-002 6.967378e-002 7.014790e-002 6.143355e-002 4.887588e-002 2.750606e-002 4.231785e-003 5.421861e-003 5.101451e-003 6.507809e-003 5.808460e-003 6.360382e-003 7.863632e-003 7.503399e-003 7.220717e-003 6.053254e-003 5.875127e-003 5.042960e-003 1.650271e-003 5.205169e-004 5.213171e-004 6.940104e-004 8.899666e-004 9.777739e-004 1.027520e-003 1.164807e-003 1.199750e-003 1.134789e-003 1.068015e-003 9.633448e-004 7.727257e-004 2.210805e-004
<GCONST> -1.272000e+002
<MIXTURE> 8 1.278808e-001
<MEAN> 39
 -1.052252e-002 8.081415e-002 -1.339514e-001 -3.952903e-001 -3.951702e-001 -5.005464e-002 8.752545e-003 -2.008349e-001 1.804553e-001 -1.425185e-001 -1.124190e-001 1.697672e-001 5.661021e-001 9.854410e-002 -1.492785e-001 -4.707951e-002 -9.382353e-002 3.586011e-002 -1.002595e-002 4.128684e-003 2.385808e-002 3.165971e-003 1.872448e-002 5.507343e-002 -6.469739e-003 4.223258e-002 -3.034204e-002 1.696507e-002 1.043053e-002 2.801753e-002 3.129725e-002 -1.200719e-002 -3.981309e-003 -1.101099e-003 -2.103510e-002 1.932221e-002 7.708005e-003 -2.256281e-003 -1.197755e-002
<VARIANCE> 39
 2.357787e-002 6.236587e-002 4.802289e-002 6.163869e-002 6.505602e-002 6.641855e-002 9.987219e-002 9.135799e-002 6.864328e-002 7.080910e-002 8.261814e-002 6.206322e-002 3.024112e-002 5.074938e-003 6.743928e-003 6.135022e-003 1.033552e-002 9.178370e-003 9.700222e-003 9.092129e-003 1.058237e-002 9.147262e-003 8.855538e-003 8.276385e-003 7.763478e-003 2.085330e-003 5.656161e-004 6.602049e-004 6.869283e-004 1.021116e-003 1.032545e-003 1.162559e-003 1.545485e-003 1.518730e-003 1.434911e-003 1.160246e-003 1.341135e-003 9.087910e-004 1.800787e-004
<GCONST> -1.197887e+002
<TRANSP> 5
 0.000000e+000 1.000000e+000 0.000000e+000 0.000000e+000 0.000000e+000
 0.000000e+000 6.821772e-001 3.178227e-001 0.000000e+000 0.000000e+000
 0.000000e+000 0.000000e+000 6.829122e-001 3.170877e-001 0.000000e+000
 0.000000e+000 0.000000e+000 0.000000e+000 6.579117e-001 3.420884e-001
 0.000000e+000 0.000000e+000 0.000000e+000 0.000000e+000 0.000000e+000
<ENDHMM>
~h "a"
<BEGINHMM>
<NUMSTATES> 5
<STATE> 2
<NUMMIXES> 8
<MIXTURE> 1 1.125610e-001
<MEAN> 39
 1.457278e-001 -2.874146e-001 -2.445002e-001 -5.736639e-002 -2.311816e-001 -2.564608e-002 4.080816e-001 4.927423e-002 -4.011708e-001 1.745239e-001 -5.439258e-002 -9.404187e-002 6.916518e-001 -6.974607e-003 -3.669412e-002 -2.366260e-002 1.937881e-002 3.091442e-002 1.502565e-002 -6.461478e-003 -1.228709e-002 -2.350531e-002 -1.580235e-002 2.350678e-002 1.660139e-002 2.579934e-002 -5.432483e-003 2.356568e-002 2.209989e-002 1.017383e-002 1.073831e-002 -3.764688e-003 -3.553003e-002 -2.111373e-003 3.211702e-002 -1.559951e-002 3.688733e-003 9.770105e-003 -3.981219e-002
<VARIANCE> 39
 2.205318e-002 2.705675e-002 3.318906e-002 4.509595e-002 3.988463e-002 5.460064e-002 4.199853e-002 6.822125e-002 4.224999e-002 3.935389e-002 3.871476e-002 3.990557e-002 5.597794e-002 1.421735e-003 2.126749e-003 2.380895e-003 4.053190e-003 2.855137e-003 5.463140e-003 3.640306e-003 5.441675e-003 4.364244e-003 4.015559e-003 4.190547e-003 2.654497e-003 2.390305e-003 5.273533e-004 4.088264e-004 4.502443e-004 6.799113e-004 6.200003e-004 8.503803e-004 7.673010e-004 9.275213e-004 8.238856e-004 6.399137e-004 5.964895e-004 5.706199e-004 5.164658e-004
<GCONST> -1.404186e+002
<MIXTURE> 2 1.575305e-001
<MEAN> 39
 1.754173e-001 -4.847047e-001 -2.874072e-001 1.298500e-001 -1.037862e-001 -6.051609e-002 2.029579e-001 9.441917e-002 -3.712527e-001 -1.371814e-001 3.285141e-001 -2.131598e-002 7.127241e-001 -2.733493e-002 6.915372e-004 3.659782e-002 -1.846022e-002 -3.005977e-002 4.975152e-002 1.592047e-002 -6.821769e-002 -1.431082e-002 5.557463e-002 -5.596680e-003 -2.090985e-002 1.426070e-002 6.054945e-003 2.930131e-002 1.234976e-002 -1.733125e-002 6.386348e-003 -5.410079e-003 -2.347445e-002 -2.913511e-003 3.604282e-002 1.151633e-002 -4.212501e-002 5.393710e-004 -2.639022e-002
<VARIANCE> 39
 2.466868e-002 3.891293e-002 4.001994e-002 6.365033e-002 6.818846e-002 7.174686e-002 6.596483e-002 7.420231e-002 6.199368e-002 8.424604e-002 4.114835e-002 4.653024e-002 6.075663e-002 1.098492e-003 1.847081e-003 3.475524e-003 4.134665e-003 4.731643e-003 4.961419e-003 5.155868e-003 6.015035e-003 5.201912e-003 5.456882e-003 5.162644e-003 3.305107e-003 8.852290e-004 2.515053e-004 3.692967e-004 5.133366e-004 8.049296e-004 7.429455e-004 9.188704e-004 1.007314e-003 9.531826e-004 9.924173e-004 1.047865e-003 6.776614e-004 7.834582e-004 3.226002e-004
<GCONST> -1.351834e+002
<MIXTURE> 3 2.031557e-001
<MEAN> 39
 5.783408e-002 -4.312339e-001 -1.351206e-001 -2.013195e-001 -4.484277e-002 2.139642e-001 3.460167e-002 -3.180732e-001 -6.495681e-002 1.161346e-001 -1.335061e-002 1.031595e-001 7.783653e-001 -4.231424e-003 -4.018590e-002 -4.813017e-003 5.708576e-002 1.342615e-002 -1.373576e-002 -1.899944e-002 -1.304948e-002 -3.253475e-002 3.342659e-002 2.096043e-002 -2.315262e-003 5.720208e-003 6.543694e-003 2.250668e-002 5.982350e-003 -3.610369e-003 -7.628583e-003 -1.941508e-002 2.464577e-003 2.150105e-002 4.317753e-003 -8.327967e-003 -3.175367e-003 -6.895663e-003 -1.885136e-002
<VARIANCE> 39
 2.351640e-002 4.628461e-002 3.296174e-002 6.740601e-002 5.978063e-002 5.068533e-002 9.357403e-002 6.094253e-002 6.663422e-002 5.268756e-002 4.630988e-002 4.697311e-002 4.975181e-002 7.961467e-004 1.573731e-003 1.455152e-003 3.102817e-003 2.613270e-003 3.188067e-003 4.165783e-003 3.464287e-003 3.779908e-003 3.412331e-003 3.437876e-003 2.746456e-003 4.726729e-004 1.471669e-004 2.664921e-004 2.728706e-004 4.907665e-004 4.272433e-004 4.811535e-004 6.184725e-004 6.057354e-004 6.315526e-004 5.724083e-004 5.140486e-004 4.561097e-004 1.876758e-004
<GCONST> -1.479848e+002
<MIXTURE> 4 1.426496e-001
<MEAN> 39
 8.208920e-002 -5.600362e-001 -1.780922e-001 2.053200e-001 -7.602332e-003 -1.639684e-003 -8.004811e-003 -2.374022e-001 -2.366458e-001 2.163099e-001 2.006254e-001 4.281776e-002 5.222116e-001 -1.982266e-003 -3.956043e-002 -8.116622e-003 -6.211700e-003 5.825020e-003 -3.451892e-004 -2.323623e-002 -3.431666e-002 7.454829e-003 1.561305e-002 5.027044e-003 1.062559e-002 8.970190e-002 5.137049e-004 3.951102e-002 1.985415e-002 -1.584248e-002 2.330334e-003 -6.570262e-004 3.514674e-003 1.788337e-002 1.725892e-002 -2.362962e-002 -2.064749e-002 -1.040128e-003 -4.201343e-002
<VARIANCE> 39
 4.517125e-002 6.030390e-002 6.330854e-002 7.448484e-002 6.946956e-002 8.760097e-002 8.079971e-002 9.260979e-002 9.825512e-002 8.998099e-002 6.328355e-002 3.866974e-002 1.803746e-001 4.979623e-003 5.324197e-003 4.904404e-003 8.166045e-003 4.817751e-003 7.269659e-003 6.856713e-003 8.678248e-003 7.607061e-003 7.065761e-003 5.710128e-003 3.998061e-003 1.764965e-002 7.818253e-004 9.759692e-004 1.091017e-003 1.248035e-003 1.039452e-003 1.633003e-003 1.497288e-003 1.444825e-003 1.469963e-003 1.361434e-003 1.025925e-003 7.577249e-004 2.325095e-003
<GCONST> -1.144202e+002
<MIXTURE> 5 6.579543e-002
<MEAN> 39
 3.301466e-001 -3.516274e-001 -5.340677e-001 1.232423e-001 1.115668e-001 -2.573762e-001 -6.337689e-002 2.971222e-001 1.189170e-002 -2.801087e-001 3.825669e-002 5.731734e-002 5.624667e-001 -2.981412e-002 -2.121422e-002 3.881021e-002 2.811836e-002 -3.762588e-002 -1.036567e-002 5.131758e-002 3.601497e-003 -6.922492e-002 -1.354187e-002 4.578598e-002 3.479905e-002 1.780014e-002 -5.402372e-003 2.517850e-002 3.324405e-002 -9.568757e-003 -8.964668e-003 1.520341e-002 -1.708777e-003 -3.094971e-002 -4.432662e-003 3.366872e-002 -1.985934e-003 -1.693264e-002 -2.862210e-002
<VARIANCE> 39
 2.962807e-002 4.333538e-002 5.583495e-002 5.126901e-002 6.649006e-002 6.808655e-002 7.896606e-002 7.728369e-002 9.129968e-002 8.394460e-002 5.561172e-002 6.269949e-002 6.673880e-002 1.696387e-003 2.093968e-003 5.469457e-003 3.077672e-003 5.965794e-003 4.581234e-003 6.514948e-003 5.681551e-003 6.080346e-003 6.113586e-003 4.820302e-003 4.373408e-003 2.141162e-003 4.906746e-004 5.162774e-004 8.753061e-004 9.549333e-004 8.903162e-004 1.138845e-003 1.227769e-003 1.350482e-003 1.213360e-003 1.240206e-003 8.799538e-004 9.129114e-004 6.358413e-004
<GCONST> -1.270324e+002
<MIXTURE> 6 9.355141e-002
<MEAN> 39
 8.448134e-002 -4.353552e-001 -1.712214e-001 -3.306140e-001 -6.428635e-002 1.570279e-001 7.323929e-002 -4.589413e-001 1.322744e-001 2.728750e-002 -3.287799e-002 2.480390e-001 7.763945e-001 -3.009956e-002 -7.490670e-002 -2.349776e-002 1.562107e-002 5.198901e-002 1.242997e-002 -3.463117e-002 -4.196161e-002 -4.513371e-003 2.831267e-002 2.871685e-002 2.768613e-002 5.554396e-002 -9.692233e-003 3.747940e-002 2.004134e-002 3.586484e-002 2.318660e-003 -1.944550e-002 -1.574101e-002 4.094658e-002 -1.859240e-002 -1.363181e-003 5.248868e-003 -2.438402e-002 -4.315316e-002
<VARIANCE> 39
 2.625777e-002 4.039558e-002 3.803094e-002 6.569023e-002 6.561235e-002 5.218536e-002 8.524872e-002 5.304257e-002 5.552408e-002 7.000338e-002 6.133322e-002 4.446821e-002 4.416548e-002 2.210753e-003 5.038532e-003 3.006895e-003 7.786644e-003 5.337398e-003 5.071808e-003 6.936138e-003 5.788093e-003 6.678231e-003 6.342022e-003 5.414290e-003 4.326500e-003 2.709738e-003 7.131170e-004 6.148404e-004 6.644549e-004 1.336545e-003 1.015080e-003 1.249455e-003 1.327085e-003 1.041234e-003 1.118690e-003 1.220997e-003 1.055164e-003 8.125036e-004 5.510050e-004
<GCONST> -1.267844e+002
<MIXTURE> 7 1.258101e-001
<MEAN> 39
 2.499734e-001 -8.184346e-002 -1.293756e-001 -2.060304e-001 -1.974213e-001 -3.403697e-002 6.300843e-002 3.539509e-002 -2.224440e-002 5.084319e-002 -3.162266e-002 -1.416689e-001 3.739446e-001 3.719416e-002 -9.997926e-003 -1.446601e-002 -5.446211e-003 -3.347955e-003 -1.577097e-002 -8.169577e-003 3.976290e-003 -4.868323e-003 -4.955499e-003 5.019510e-003 -1.633062e-002 1.505776e-002 -2.889547e-002 1.276801e-002 1.652740e-002 3.074641e-002 2.548016e-002 4.000834e-003 -1.024382e-002 -7.921074e-003 -2.479423e-003 -7.795759e-003 4.563352e-004 1.749049e-002 -3.768048e-002
<VARIANCE> 39
 4.912591e-002 7.392532e-002 1.140158e-001 9.869392e-002 9.877676e-002 9.058774e-002 1.010205e-001 8.814823e-002 9.352101e-002 8.019770e-002 7.100807e-002 5.778838e-002 9.644515e-002 5.407532e-003 7.257694e-003 7.629940e-003 9.788346e-003 7.203860e-003 9.370219e-003 8.132188e-003 9.021460e-003 8.604965e-003 7.328339e-003 7.114516e-003 5.227193e-003 1.143004e-002 1.035554e-003 1.202628e-003 1.292283e-003 1.688012e-003 1.705732e-003 1.773652e-003 1.835130e-003 1.810858e-003 1.718853e-003 1.544113e-003 1.320037e-003 1.096339e-003 1.416770e-003
<GCONST> -1.085061e+002
<MIXTURE> 8 9.888305e-002
<MEAN> 39
 -6.407878e-004 -5.871109e-002 -1.466158e-001 -6.060754e-001 5.892354e-002 1.566606e-001 -5.992617e-002 -3.469618e-002 6.779293e-002 -9.724979e-002 -5.968196e-002 1.148941e-001 7.051232e-001 -7.531999e-003 -8.779974e-002 2.722399e-003 4.273875e-002 1.504114e-002 5.927110e-002 -2.018172e-002 -6.390730e-002 -2.186822e-002 1.657907e-002 2.013307e-002 3.168379e-002 2.714221e-002 3.296133e-003 1.236193e-002 7.147061e-003 3.183955e-002 -1.082028e-002 -2.266400e-002 -8.397350e-005 -6.836402e-003 -1.120420e-003 1.448217e-002 -1.817126e-005 -6.173097e-003 -2.206974e-002
<VARIANCE> 39
 2.500440e-002 4.260078e-002 4.305519e-002 4.879314e-002 9.215587e-002 6.648052e-002 6.102586e-002 4.967714e-002 4.958717e-002 3.686594e-002 5.726061e-002 4.714370e-002 5.654010e-002 8.864432e-004 3.766673e-003 2.771658e-003 3.991218e-003 4.019782e-003 3.752251e-003 6.336820e-003 4.868730e-003 6.064337e-003 4.084102e-003 4.637164e-003 3.896106e-003 1.113687e-003 2.708721e-004 3.790140e-004 4.087896e-004 7.639998e-004 8.883837e-004 7.566215e-004 7.829268e-004 6.830757e-004 9.128484e-004 5.999546e-004 9.329122e-004 6.673199e-004 2.372981e-004
<GCONST> -1.379346e+002
<STATE> 3
<NUMMIXES> 8
<MIXTURE> 1 1.466657e-001
<MEAN> 39
 3.600206e-002 -4.536726e-001 -8.357404e-002 -2.880659e-001 1.111186e-001 1.798185e-001 -1.780556e-001 -3.440298e-001 5.672226e-002 1.134201e-001 -4.282119e-002 2.319773e-001 7.900813e-001 -2.065130e-003 3.221796e-002 1.706364e-003 -4.237838e-002 1.278846e-002 -4.352177e-004 -1.845294e-002 1.788316e-002 1.905909e-002 -3.056378e-002 -1.053950e-003 1.053778e-002 -1.236010e-002 6.899564e-003 2.054683e-002 -3.398641e-003 -7.162374e-003 -1.035957e-002 -1.181965e-002 1.312598e-002 1.339348e-002 -2.169051e-003 -1.025322e-002 3.101586e-003 -1.076197e-002 -1.310808e-002
<VARIANCE> 39
 2.234468e-002 5.591764e-002 3.339770e-002 6.801665e-002 4.969455e-002 5.092090e-002 6.801995e-002 5.011237e-002 4.381726e-002 5.161813e-002 3.938628e-002 3.275291e-002 3.846718e-002 4.904754e-004 1.668358e-003 1.143675e-003 3.042953e-003 2.193561e-003 2.427754e-003 3.069375e-003 2.366981e-003 2.935638e-003 2.749077e-003 2.486333e-003 2.430252e-003 3.587561e-004 9.675364e-005 2.545796e-004 2.446042e-004 3.491931e-004 3.634065e-004 4.717253e-004 4.283216e-004 4.402401e-004 4.640025e-004 4.675995e-004 4.382177e-004 3.978425e-004 1.179445e-004
<GCONST> -1.558044e+002
<MIXTURE> 2 1.857908e-001
<MEAN> 39
 1.284720e-001 -4.256841e-001 -1.911277e-001 -5.631704e-002 -1.724712e-001 6.080694e-002 1.711154e-001 -1.411805e-001 -2.161006e-001 8.493407e-002 7.276257e-002 2.259315e-003 7.194026e-001 2.627777e-002 5.334141e-002 2.723830e-002 -2.664172e-002 -1.776821e-002 -1.538419e-002 -1.725083e-002 1.405139e-002 3.560838e-002 -6.018725e-003 -4.431341e-002 -4.291380e-003 -5.329174e-002 7.681621e-003 3.702355e-002 1.917063e-002 5.794545e-003 1.104662e-002 -1.824060e-002 -2.055632e-002 1.263246e-002 1.086533e-002 -1.300153e-002 -9.284167e-003 4.644648e-005 -4.948323e-002
<VARIANCE> 39
 2.264692e-002 5.704016e-002 4.590650e-002 8.623403e-002 6.807466e-002 7.938731e-002 7.688709e-002 1.040184e-001 8.617491e-002 8.229686e-002 6.745778e-002 4.977241e-002 5.063794e-002 2.546269e-003 2.872525e-003 3.787761e-003 7.605010e-003 5.467752e-003 7.895903e-003 7.200977e-003 8.492587e-003 8.278829e-003 7.438805e-003 6.696279e-003 4.559073e-003 2.900698e-003 3.820641e-004 5.117124e-004 7.549700e-004 1.228924e-003 9.672099e-004 1.251623e-003 1.222892e-003 1.412324e-003 1.356059e-003 1.324403e-003 1.102483e-003 9.250605e-004 9.185822e-004
<GCONST> -1.224017e+002
<MIXTURE> 3 6.512401e-002
<MEAN> 39
 2.866809e-001 -2.403391e-002 1.348598e-001 8.322783e-002 -6.704758e-002 -6.018930e-002 -3.527777e-002 -2.456612e-001 -5.592655e-002 -7.222119e-002 -8.447383e-002 -4.346332e-002 9.813516e-002 -7.317563e-003 3.117074e-002 4.122627e-002 2.366153e-002 1.104646e-003 -4.122462e-004 -1.834016e-002 -1.848803e-002 -6.949262e-003 -2.065820e-002 -5.273387e-003 -5.804866e-003 -4.802981e-002 -6.155112e-003 -3.223618e-003 2.054519e-003 5.602907e-003 4.023722e-003 5.726905e-003 -4.705641e-003 4.209094e-003 -4.897708e-003 2.261591e-003 2.706071e-003 -1.403982e-003 -3.045904e-003
<VARIANCE> 39
